~o
<STREAMINFO> 1 13
<VECSIZE> 13<NULLD><MFCC_0><DIAGC>
~t "T_b"
<TRANSP> 5
 0.000000e+00 1.000000e+00 0.000000e+00 0.000000e+00 0.000000e+00
 0.000000e+00 7.920538e-01 2.079462e-01 0.000000e+00 0.000000e+00
 0.000000e+00 0.000000e+00 7.473360e-01 2.526641e-01 0.000000e+00
 0.000000e+00 0.000000e+00 0.000000e+00 8.564303e-01 1.435697e-01
 0.000000e+00 0.000000e+00 0.000000e+00 0.000000e+00 0.000000e+00
~t "T_d"
<TRANSP> 5
 0.000000e+00 1.000000e+00 0.000000e+00 0.000000e+00 0.000000e+00
 0.000000e+00 4.440430e-01 5.559571e-01 0.000000e+00 0.000000e+00
 0.000000e+00 0.000000e+00 1.314560e-02 9.868544e-01 0.000000e+00
 0.000000e+00 0.000000e+00 0.000000e+00 7.212558e-01 2.787441e-01
 0.000000e+00 0.000000e+00 0.000000e+00 0.000000e+00 0.000000e+00
~t "T_g"
<TRANSP> 5
 0.000000e+00 1.000000e+00 0.000000e+00 0.000000e+00 0.000000e+00
 0.000000e+00 6.218380e-01 3.781621e-01 0.000000e+00 0.000000e+00
 0.000000e+00 0.000000e+00 5.477934e-01 4.522066e-01 0.000000e+00
 0.000000e+00 0.000000e+00 0.000000e+00 7.644596e-01 2.355404e-01
 0.000000e+00 0.000000e+00 0.000000e+00 0.000000e+00 0.000000e+00
~t "T_j"
<TRANSP> 5
 0.000000e+00 1.000000e+00 0.000000e+00 0.000000e+00 0.000000e+00
 0.000000e+00 8.375893e-01 1.624107e-01 0.000000e+00 0.000000e+00
 0.000000e+00 0.000000e+00 7.889296e-01 2.110704e-01 0.000000e+00
 0.000000e+00 0.000000e+00 0.000000e+00 7.683879e-01 2.316121e-01
 0.000000e+00 0.000000e+00 0.000000e+00 0.000000e+00 0.000000e+00
~t "T_k"
<TRANSP> 5
 0.000000e+00 1.000000e+00 0.000000e+00 0.000000e+00 0.000000e+00
 0.000000e+00 4.689021e-01 5.310979e-01 0.000000e+00 0.000000e+00
 0.000000e+00 0.000000e+00 8.231455e-02 9.176854e-01 0.000000e+00
 0.000000e+00 0.000000e+00 0.000000e+00 6.083637e-01 3.916363e-01
 0.000000e+00 0.000000e+00 0.000000e+00 0.000000e+00 0.000000e+00
~t "T_l"
<TRANSP> 5
 0.000000e+00 1.000000e+00 0.000000e+00 0.000000e+00 0.000000e+00
 0.000000e+00 8.769592e-01 1.230408e-01 0.000000e+00 0.000000e+00
 0.000000e+00 0.000000e+00 6.984205e-01 3.015795e-01 0.000000e+00
 0.000000e+00 0.000000e+00 0.000000e+00 6.485246e-02 9.351475e-01
 0.000000e+00 0.000000e+00 0.000000e+00 0.000000e+00 0.000000e+00
~t "T_m"
<TRANSP> 5
 0.000000e+00 1.000000e+00 0.000000e+00 0.000000e+00 0.000000e+00
 0.000000e+00 7.353566e-01 2.646434e-01 0.000000e+00 0.000000e+00
 0.000000e+00 0.000000e+00 6.537187e-01 3.462813e-01 0.000000e+00
 0.000000e+00 0.000000e+00 0.000000e+00 7.703407e-01 2.296592e-01
 0.000000e+00 0.000000e+00 0.000000e+00 0.000000e+00 0.000000e+00
~t "T_n"
<TRANSP> 5
 0.000000e+00 1.000000e+00 0.000000e+00 0.000000e+00 0.000000e+00
 0.000000e+00 7.251814e-01 2.748186e-01 0.000000e+00 0.000000e+00
 0.000000e+00 0.000000e+00 7.592331e-01 2.407670e-01 0.000000e+00
 0.000000e+00 0.000000e+00 0.000000e+00 7.407517e-01 2.592483e-01
 0.000000e+00 0.000000e+00 0.000000e+00 0.000000e+00 0.000000e+00
~t "T_p"
<TRANSP> 5
 0.000000e+00 1.000000e+00 0.000000e+00 0.000000e+00 0.000000e+00
 0.000000e+00 7.579513e-01 2.420487e-01 0.000000e+00 0.000000e+00
 0.000000e+00 0.000000e+00 6.467389e-01 3.532610e-01 0.000000e+00
 0.000000e+00 0.000000e+00 0.000000e+00 2.642263e-01 7.357737e-01
 0.000000e+00 0.000000e+00 0.000000e+00 0.000000e+00 0.000000e+00
~t "T_r"
<TRANSP> 5
 0.000000e+00 1.000000e+00 0.000000e+00 0.000000e+00 0.000000e+00
 0.000000e+00 6.260240e-01 3.739760e-01 0.000000e+00 0.000000e+00
 0.000000e+00 0.000000e+00 5.416970e-01 4.583030e-01 0.000000e+00
 0.000000e+00 0.000000e+00 0.000000e+00 5.541866e-01 4.458134e-01
 0.000000e+00 0.000000e+00 0.000000e+00 0.000000e+00 0.000000e+00
~t "T_s"
<TRANSP> 5
 0.000000e+00 1.000000e+00 0.000000e+00 0.000000e+00 0.000000e+00
 0.000000e+00 6.143581e-01 3.856419e-01 0.000000e+00 0.000000e+00
 0.000000e+00 0.000000e+00 6.580740e-01 3.419261e-01 0.000000e+00
 0.000000e+00 0.000000e+00 0.000000e+00 7.316211e-01 2.683788e-01
 0.000000e+00 0.000000e+00 0.000000e+00 0.000000e+00 0.000000e+00
~t "T_t"
<TRANSP> 5
 0.000000e+00 1.000000e+00 0.000000e+00 0.000000e+00 0.000000e+00
 0.000000e+00 6.602988e-01 3.397012e-01 0.000000e+00 0.000000e+00
 0.000000e+00 0.000000e+00 7.731379e-01 2.268620e-01 0.000000e+00
 0.000000e+00 0.000000e+00 0.000000e+00 7.554910e-01 2.445090e-01
 0.000000e+00 0.000000e+00 0.000000e+00 0.000000e+00 0.000000e+00
~t "T_w"
<TRANSP> 5
 0.000000e+00 1.000000e+00 0.000000e+00 0.000000e+00 0.000000e+00
 0.000000e+00 8.239479e-01 1.760521e-01 0.000000e+00 0.000000e+00
 0.000000e+00 0.000000e+00 8.123766e-01 1.876234e-01 0.000000e+00
 0.000000e+00 0.000000e+00 0.000000e+00 7.425918e-01 2.574082e-01
 0.000000e+00 0.000000e+00 0.000000e+00 0.000000e+00 0.000000e+00
~t "T_ah"
<TRANSP> 5
 0.000000e+00 1.000000e+00 0.000000e+00 0.000000e+00 0.000000e+00
 0.000000e+00 7.128725e-01 2.871275e-01 0.000000e+00 0.000000e+00
 0.000000e+00 0.000000e+00 7.941524e-01 2.058476e-01 0.000000e+00
 0.000000e+00 0.000000e+00 0.000000e+00 6.365961e-01 3.634039e-01
 0.000000e+00 0.000000e+00 0.000000e+00 0.000000e+00 0.000000e+00
~t "T_ax"
<TRANSP> 5
 0.000000e+00 1.000000e+00 0.000000e+00 0.000000e+00 0.000000e+00
 0.000000e+00 4.321714e-01 5.678287e-01 0.000000e+00 0.000000e+00
 0.000000e+00 0.000000e+00 6.489078e-01 3.510922e-01 0.000000e+00
 0.000000e+00 0.000000e+00 0.000000e+00 5.618377e-02 9.438162e-01
 0.000000e+00 0.000000e+00 0.000000e+00 0.000000e+00 0.000000e+00
~t "T_ay"
<TRANSP> 5
 0.000000e+00 1.000000e+00 0.000000e+00 0.000000e+00 0.000000e+00
 0.000000e+00 7.367428e-01 2.632572e-01 0.000000e+00 0.000000e+00
 0.000000e+00 0.000000e+00 7.909555e-01 2.090444e-01 0.000000e+00
 0.000000e+00 0.000000e+00 0.000000e+00 9.134923e-01 8.650775e-02
 0.000000e+00 0.000000e+00 0.000000e+00 0.000000e+00 0.000000e+00
~t "T_eh"
<TRANSP> 5
 0.000000e+00 1.000000e+00 0.000000e+00 0.000000e+00 0.000000e+00
 0.000000e+00 8.034242e-01 1.965759e-01 0.000000e+00 0.000000e+00
 0.000000e+00 0.000000e+00 8.792355e-01 1.207645e-01 0.000000e+00
 0.000000e+00 0.000000e+00 0.000000e+00 7.434714e-01 2.565286e-01
 0.000000e+00 0.000000e+00 0.000000e+00 0.000000e+00 0.000000e+00
~t "T_hh"
<TRANSP> 5
 0.000000e+00 1.000000e+00 0.000000e+00 0.000000e+00 0.000000e+00
 0.000000e+00 7.201988e-01 2.798012e-01 0.000000e+00 0.000000e+00
 0.000000e+00 0.000000e+00 9.056005e-01 9.439942e-02 0.000000e+00
 0.000000e+00 0.000000e+00 0.000000e+00 8.830217e-01 1.169784e-01
 0.000000e+00 0.000000e+00 0.000000e+00 0.000000e+00 0.000000e+00
~t "T_ih"
<TRANSP> 5
 0.000000e+00 1.000000e+00 0.000000e+00 0.000000e+00 0.000000e+00
 0.000000e+00 7.454185e-01 2.545815e-01 0.000000e+00 0.000000e+00
 0.000000e+00 0.000000e+00 7.898116e-01 2.101884e-01 0.000000e+00
 0.000000e+00 0.000000e+00 0.000000e+00 3.935894e-01 6.064106e-01
 0.000000e+00 0.000000e+00 0.000000e+00 0.000000e+00 0.000000e+00
~t "T_iy"
<TRANSP> 5
 0.000000e+00 1.000000e+00 0.000000e+00 0.000000e+00 0.000000e+00
 0.000000e+00 8.054554e-01 1.945446e-01 0.000000e+00 0.000000e+00
 0.000000e+00 0.000000e+00 8.810745e-01 1.189254e-01 0.000000e+00
 0.000000e+00 0.000000e+00 0.000000e+00 6.364993e-01 3.635007e-01
 0.000000e+00 0.000000e+00 0.000000e+00 0.000000e+00 0.000000e+00
~t "T_ng"
<TRANSP> 5
 0.000000e+00 1.000000e+00 0.000000e+00 0.000000e+00 0.000000e+00
 0.000000e+00 7.961967e-01 2.038033e-01 0.000000e+00 0.000000e+00
 0.000000e+00 0.000000e+00 7.703260e-01 2.296740e-01 0.000000e+00
 0.000000e+00 0.000000e+00 0.000000e+00 9.148029e-01 8.519711e-02
 0.000000e+00 0.000000e+00 0.000000e+00 0.000000e+00 0.000000e+00
~t "T_oh"
<TRANSP> 5
 0.000000e+00 1.000000e+00 0.000000e+00 0.000000e+00 0.000000e+00
 0.000000e+00 8.852033e-01 1.147966e-01 0.000000e+00 0.000000e+00
 0.000000e+00 0.000000e+00 8.657629e-01 1.342371e-01 0.000000e+00
 0.000000e+00 0.000000e+00 0.000000e+00 8.880594e-01 1.119406e-01
 0.000000e+00 0.000000e+00 0.000000e+00 0.000000e+00 0.000000e+00
~t "T_uh"
<TRANSP> 5
 0.000000e+00 1.000000e+00 0.000000e+00 0.000000e+00 0.000000e+00
 0.000000e+00 4.007585e-01 5.992415e-01 0.000000e+00 0.000000e+00
 0.000000e+00 0.000000e+00 3.861987e-01 6.138014e-01 0.000000e+00
 0.000000e+00 0.000000e+00 0.000000e+00 4.926000e-01 5.074000e-01
 0.000000e+00 0.000000e+00 0.000000e+00 0.000000e+00 0.000000e+00
~t "T_uw"
<TRANSP> 5
 0.000000e+00 1.000000e+00 0.000000e+00 0.000000e+00 0.000000e+00
 0.000000e+00 6.258968e-01 3.741032e-01 0.000000e+00 0.000000e+00
 0.000000e+00 0.000000e+00 7.634375e-01 2.365626e-01 0.000000e+00
 0.000000e+00 0.000000e+00 0.000000e+00 6.322423e-01 3.677576e-01
 0.000000e+00 0.000000e+00 0.000000e+00 0.000000e+00 0.000000e+00
~s "ST_s_2_1"
<MEAN> 13
 -1.571093e+01 -1.898967e-01 -1.233719e+00 -4.774906e+00 6.878920e+00 -4.218637e+00 -2.160485e+00 -7.559324e+00 -1.405567e-01 -3.895844e+00 2.136263e+00 -3.298336e+00 5.729470e+01
<VARIANCE> 13
 3.986514e+01 3.552643e+01 6.693787e+01 6.646212e+01 6.397181e+01 6.735550e+01 8.900827e+01 6.128474e+01 6.335973e+01 4.943818e+01 4.761609e+01 4.150562e+01 8.904513e+01
<GCONST> 7.664896e+01
~s "ST_s_2_2"
<MEAN> 13
 -1.089331e+01 -1.049362e+00 -6.352719e+00 -8.697849e+00 6.459896e+00 -8.001051e+00 -1.153253e+00 -9.308986e+00 6.821301e+00 2.315718e+00 7.745012e-01 -6.958878e+00 6.688072e+01
<VARIANCE> 13
 2.559879e+01 1.597735e+01 2.020167e+01 4.901984e+01 4.109542e+01 4.474149e+01 2.047993e+01 5.295936e+01 5.870424e+01 4.218974e+01 3.654146e+01 3.255926e+01 4.234221e+00
<GCONST> 6.764927e+01
~s "ST_s_3_1"
<MEAN> 13
 -1.626599e+01 3.655604e+00 -5.955722e+00 7.021496e+00 5.171185e+00 -7.819563e+00 5.469491e+00 -4.671446e-01 5.558847e+00 -6.659361e-01 1.444684e+00 -2.353964e+00 6.148272e+01
<VARIANCE> 13
 2.440781e+01 4.011917e+01 3.262643e+01 8.553699e+01 4.352286e+01 4.098988e+01 5.003833e+01 4.011283e+01 3.175931e+01 2.880997e+01 2.261387e+01 2.525900e+01 3.689618e+01
<GCONST> 7.057909e+01
~s "ST_s_4_1"
<MEAN> 13
 -2.397884e+01 -4.204623e-02 -2.191229e+00 -3.289076e+00 1.559174e+01 -1.591885e+01 7.548322e+00 -2.089699e+00 6.531403e+00 -7.478887e+00 4.342918e-01 6.681084e-01 5.520036e+01
<VARIANCE> 13
 9.505681e+01 7.293169e+01 5.192677e+01 4.067909e+01 9.365565e+01 8.528575e+01 1.112307e+02 5.326130e+01 6.631561e+01 5.307413e+01 3.567321e+01 6.083109e+01 6.355361e+01
<GCONST> 7.806490e+01
~s "ST_oh_2_1"
<MEAN> 13
 3.391407e+00 -2.317587e+01 -1.196016e+01 -1.448284e+01 -7.045977e+00 1.493176e+01 -3.592530e+00 -1.257624e+01 8.515949e+00 -1.066194e+00 3.732472e+00 -5.665006e+00 7.179308e+01
<VARIANCE> 13
 7.723219e+00 5.735045e+01 1.467140e+01 3.950788e+01 3.653888e+01 7.808949e+01 5.251197e+01 4.904956e+01 9.117110e+01 4.028339e+01 3.882599e+01 4.341920e+01 1.337582e+01
<GCONST> 7.039044e+01
~s "ST_oh_3_1"
<MEAN> 13
 4.870421e+00 -1.455178e+01 -1.371488e+01 -7.942493e+00 -8.987144e+00 -8.814995e-01 -6.532835e+00 -9.690171e-01 -1.487194e+00 6.489712e+00 -5.529631e+00 -1.586862e+01 7.291261e+01
<VARIANCE> 13
 2.665344e+00 2.632900e+01 1.203040e+01 6.495264e+01 5.105870e+01 3.169909e+01 3.334407e+01 2.773206e+01 3.150611e+01 2.920274e+01 3.059876e+01 4.988136e+01 1.821499e+01
<GCONST> 6.608054e+01
~s "ST_oh_4_1"
<MEAN> 13
 8.109044e+00 -6.338262e+00 -6.666123e+00 9.625417e+00 -2.336855e+01 1.636064e+00 -6.785301e+00 1.653690e-01 4.528025e+00 -1.072743e+01 -4.921978e+00 3.197645e+00 6.818221e+01
<VARIANCE> 13
 1.496509e+01 1.970338e+01 3.858493e+01 5.615054e+01 1.098886e+02 1.338704e+02 2.690090e+01 3.109414e+01 2.759147e+01 7.727646e+01 1.903625e+01 2.759124e+01 1.308162e+01
<GCONST> 7.008527e+01
~s "ST_uh_2_1"
<MEAN> 13
 2.710443e+00 4.255589e+00 -2.157079e+00 -1.929014e+01 -2.147369e-01 3.587651e+00 -7.389054e+00 -6.624023e+00 -7.012002e+00 -1.439072e+00 -4.868877e+00 1.453584e-01 5.935794e+01
<VARIANCE> 13
 4.709992e+01 5.882874e+01 2.244511e+01 1.594715e+02 3.916824e+01 3.457443e+01 2.839018e+01 5.369786e+01 3.050779e+01 3.743747e+01 6.789906e+01 5.529131e+01 8.446603e+01
<GCONST> 7.425028e+01
~s "ST_uh_2_2"
<MEAN> 13
 -1.231454e+01 6.522914e+00 -5.753858e+00 2.281089e+00 -6.194168e+00 1.041093e+00 -4.644696e+00 -2.248536e+00 -1.877086e+00 -3.715949e+00 -1.168467e+00 -1.918404e+00 3.849569e+01
<VARIANCE> 13
 9.782094e+01 5.650298e+01 3.951174e+01 5.383825e+01 2.131322e+01 2.823975e+01 2.516650e+01 2.129143e+01 2.151635e+01 2.195699e+01 1.690890e+01 1.636524e+01 1.509393e+02
<GCONST> 6.965406e+01
~s "ST_uh_3_1"
<MEAN> 13
 3.717380e-01 2.669247e+00 -5.226470e+00 -9.593492e+00 -8.022669e+00 3.871242e-01 -7.078531e+00 -7.583184e+00 -7.884992e+00 -2.285606e+00 3.924424e-01 -3.367517e+00 5.660334e+01
<VARIANCE> 13
 1.020967e+02 4.525465e+01 1.891084e+01 8.156367e+01 3.040050e+01 3.431989e+01 2.975598e+01 3.769366e+01 4.520081e+01 3.049539e+01 3.521171e+01 2.027508e+01 1.843138e+02
<GCONST> 7.266055e+01
~s "ST_uh_4_1"
<MEAN> 13
 -3.581257e+00 5.821399e+00 -4.341555e+00 -3.966920e+00 -7.283111e+00 8.004122e-01 -1.297642e+01 -1.002989e+01 -8.025946e+00 -2.957352e+00 4.922395e-01 -3.716381e+00 4.866848e+01
<VARIANCE> 13
 8.687715e+01 1.026572e+02 3.127317e+01 6.962097e+01 2.848401e+01 3.410394e+01 6.850753e+01 5.147722e+01 5.108090e+01 6.025398e+01 5.040584e+01 3.651562e+01 2.657993e+02
<GCONST> 7.685352e+01
~s "ST_l_2_1"
<MEAN> 13
 1.697015e+00 -2.479941e+01 -1.095866e+01 -1.154397e+01 -3.068524e+00 1.639036e+01 -6.754858e+00 -1.580756e+01 1.591428e+01 -2.162742e+00 1.916267e-01 -4.110631e+00 7.198094e+01
<VARIANCE> 13
 5.127580e+00 4.481965e+01 1.452443e+01 2.586625e+01 3.554069e+01 7.533624e+01 2.636245e+01 3.421380e+01 6.705750e+01 4.347809e+01 4.809613e+01 3.275869e+01 1.174462e+01
<GCONST> 6.775924e+01
~s "ST_l_3_1"
<MEAN> 13
 5.967148e+00 -1.685358e+01 -1.003134e+01 -1.602102e+01 4.147209e-02 8.131224e+00 -5.830145e+00 -9.177659e+00 -3.134296e+00 5.228002e+00 1.758255e+00 -1.391019e+01 7.253034e+01
<VARIANCE> 13
 6.276596e+00 2.805467e+01 1.666263e+01 2.355583e+01 5.385703e+01 5.353852e+01 2.717246e+01 2.605736e+01 5.549261e+01 3.266340e+01 8.217713e+01 6.102008e+01 1.075148e+01
<GCONST> 6.796280e+01
~s "ST_l_4_1"
<MEAN> 13
 5.129892e+00 -1.258418e+01 -8.819299e+00 -1.567355e+01 2.341662e+00 5.738966e+00 -7.287210e+00 -7.026568e+00 1.964202e+00 4.113255e+00 -7.665369e+00 -5.998222e+00 6.844634e+01
<VARIANCE> 13
 5.443355e+00 6.847953e+01 2.746055e+01 3.416861e+01 1.023639e+02 9.109459e+01 3.435010e+01 3.578748e+01 9.405881e+01 4.078480e+01 1.080462e+02 6.939747e+01 2.078641e+01
<GCONST> 7.312096e+01
~s "ST_b_2_1"
<MEAN> 13
 7.764808e+00 5.174885e+00 -9.336225e+00 -2.999903e+00 -5.135602e+00 1.793639e+00 -8.549014e+00 -5.332680e+00 -6.577025e+00 -2.448294e+00 -5.673248e+00 -4.011621e+00 5.235313e+01
<VARIANCE> 13
 3.242123e+01 1.675372e+02 2.697128e+01 5.332579e+01 5.310869e+01 5.203442e+01 3.342757e+01 2.544978e+01 2.722738e+01 5.164122e+01 2.520557e+01 2.186687e+01 5.336867e+01
<GCONST> 7.197176e+01
~s "ST_b_3_1"
<MEAN> 13
 -1.976458e+00 -6.129372e-01 -6.633573e+00 -1.737011e+00 2.491432e+00 8.288001e-01 -2.416949e-02 -4.389564e-01 2.516395e+00 1.674509e+00 -1.944968e+00 -5.526277e+00 5.417739e+01
<VARIANCE> 13
 1.907398e+01 4.372886e+01 1.896506e+01 1.476288e+01 1.644603e+01 1.817818e+01 2.981763e+01 1.904901e+01 3.142600e+01 2.692254e+01 2.567971e+01 2.375624e+01 2.043993e+01
<GCONST> 6.446751e+01
~s "ST_b_4_1"
<MEAN> 13
 -1.050983e+01 2.828252e+00 -1.163539e+01 6.102766e+00 -3.955997e+00 1.671133e+00 -1.057644e+01 -5.681765e+00 -6.244910e+00 -7.404684e+00 -6.040999e+00 -7.464287e+00 3.767066e+01
<VARIANCE> 13
 2.888934e+01 3.240802e+01 3.275468e+01 2.108272e+01 4.733183e+01 3.762881e+01 2.888783e+01 3.388394e+01 2.622608e+01 3.710737e+01 2.403782e+01 2.220797e+01 6.195935e+01
<GCONST> 6.893021e+01
~s "ST_r_2_1"
<MEAN> 13
 9.304149e+00 -7.270701e+00 -2.255862e+01 -2.491881e+00 -1.773689e+01 -3.986756e+00 -4.362916e+00 5.309332e+00 5.019389e+00 -8.093396e+00 -3.378649e+00 1.508511e+00 6.873421e+01
<VARIANCE> 13
 1.427848e+01 2.844833e+01 8.728793e+01 3.032247e+01 1.142026e+02 6.150878e+01 2.584292e+01 6.044165e+01 4.384878e+01 7.854766e+01 1.668523e+01 3.762847e+01 2.174798e+01
<GCONST> 7.165747e+01
~s "ST_r_2_2"
<MEAN> 13
 3.851860e+00 -1.361305e+01 -7.187821e+00 -1.740558e+00 -4.665283e+00 -6.331188e+00 -5.959172e+00 -2.187675e+00 3.759428e+00 5.239881e+00 -7.905673e+00 -1.051351e+01 6.762650e+01
<VARIANCE> 13
 7.042459e+00 2.092737e+01 4.097568e+01 3.011630e+01 6.973513e+01 4.420675e+01 2.953336e+01 5.566516e+01 3.816605e+01 5.595966e+01 3.042873e+01 6.574162e+01 1.957442e+01
<GCONST> 6.968384e+01
~s "ST_r_3_1"
<MEAN> 13
 -6.589798e-01 -9.637142e+00 -7.409534e+00 1.653213e+00 -2.668811e+00 1.999301e-02 -3.268499e+00 -3.565689e+00 9.459419e-01 2.091805e+00 -5.032053e+00 -6.378973e+00 5.702029e+01
<VARIANCE> 13
 1.059827e+01 2.883123e+01 3.379830e+01 2.324413e+01 5.328984e+01 4.067077e+01 2.676712e+01 4.109795e+01 4.338162e+01 3.722240e+01 2.884570e+01 2.398065e+01 3.263962e+01
<GCONST> 6.837708e+01
~s "ST_r_3_2"
<MEAN> 13
 3.531179e+00 -1.412779e+01 -2.256654e+00 -4.795907e+00 -6.646132e+00 -6.895712e+00 -6.866190e+00 -2.689954e+00 2.691901e+00 2.032799e+00 -4.935143e+00 -4.193699e+00 6.751986e+01
<VARIANCE> 13
 1.239840e+01 4.304005e+01 6.596670e+01 4.330346e+01 8.170271e+01 6.514666e+01 5.423853e+01 6.654684e+01 7.733723e+01 5.206525e+01 3.261542e+01 6.959594e+01 2.299862e+01
<GCONST> 7.406412e+01
~s "ST_r_4_1"
<MEAN> 13
 -2.140690e+00 -4.116776e+00 -1.912663e+00 1.458017e+01 3.242975e+00 -1.293849e+00 -1.430294e+00 7.516451e+00 1.020962e+00 -4.372359e+00 -3.282076e+00 -1.524519e+00 5.024405e+01
<VARIANCE> 13
 3.482364e+01 1.228420e+02 5.139436e+01 1.732976e+02 5.387784e+01 7.101409e+01 6.527430e+01 1.005978e+02 4.976680e+01 5.946006e+01 4.379268e+01 4.180067e+01 1.145744e+02
<GCONST> 7.863371e+01
~s "ST_r_4_2"
<MEAN> 13
 3.481224e+00 -1.458566e+01 7.542245e-01 -4.409580e+00 -9.276294e+00 -8.578477e+00 -6.703029e+00 -2.188093e+00 -1.534222e-02 1.079360e+00 -2.813199e+00 -3.416040e+00 6.867734e+01
<VARIANCE> 13
 8.618666e+00 4.667994e+01 9.063596e+01 4.725854e+01 9.266078e+01 9.244279e+01 4.982166e+01 5.599050e+01 8.463481e+01 6.437920e+01 4.240068e+01 7.440496e+01 2.137071e+01
<GCONST> 7.496314e+01
~s "ST_hh_2_1"
<MEAN> 13
 2.288386e+00 -8.002161e+00 1.660430e+00 -3.390028e+00 1.334078e+00 -1.614669e+01 -6.368415e+00 7.674651e+00 2.784919e+00 2.194230e-01 -1.377250e+01 2.087548e+00 6.417000e+01
<VARIANCE> 13
 6.233212e+00 8.541803e+01 2.693740e+01 1.757912e+02 8.671239e+01 9.789026e+01 9.559994e+01 8.820985e+01 4.627954e+01 3.687846e+01 2.680307e+01 8.289809e+01 8.442573e+01
<GCONST> 7.630332e+01
~s "ST_hh_3_1"
<MEAN> 13
 7.203176e-01 -1.580662e+01 -1.210184e+01 -4.254055e+00 -4.208789e-01 -2.849668e+00 -7.318678e+00 4.012083e+00 -1.570602e+00 -2.286379e+00 -1.558894e+01 -9.485673e+00 7.589494e+01
<VARIANCE> 13
 6.041677e+00 1.770321e+01 2.407393e+01 4.797845e+01 3.377467e+01 2.229285e+01 2.522602e+01 4.741129e+01 1.554638e+01 1.890565e+01 1.584340e+01 2.378550e+01 1.000097e+01
<GCONST> 6.324522e+01
~s "ST_k_2_1"
<MEAN> 13
 -7.293055e+00 3.772075e-01 -4.609911e+00 -3.925712e-01 1.836140e-01 3.409515e-01 -3.568795e+00 -3.616525e+00 -2.207126e-01 -8.070166e-01 2.475499e-01 -1.801629e+00 5.067780e+01
<VARIANCE> 13
 5.453035e+01 5.828220e+01 4.241631e+01 4.621601e+01 4.010373e+01 4.163890e+01 4.622084e+01 5.400477e+01 3.040101e+01 2.935725e+01 2.626027e+01 2.393484e+01 1.289503e+02
<GCONST> 7.287716e+01
~s "ST_hh_4_1"
<MEAN> 13
 6.905703e-01 -1.397874e+01 -1.368932e+00 -9.124619e+00 1.567491e+01 -6.987581e+00 9.714961e+00 -1.495429e+00 6.342534e+00 4.226741e+00 -2.121661e+01 1.442173e+00 6.798537e+01
<VARIANCE> 13
 8.631432e+00 8.150785e+00 1.670866e+01 7.317998e+01 5.644200e+01 5.348894e+01 5.789394e+01 3.321996e+01 3.498228e+01 2.825132e+01 3.398160e+01 2.317022e+01 1.753449e+01
<GCONST> 6.725806e+01
~s "ST_k_3_1"
<MEAN> 13
 -6.607668e+00 -3.526801e+00 -9.605897e+00 1.294342e-01 3.058920e+00 -1.144164e-02 -7.145489e+00 -3.744188e+00 -2.592689e-01 2.680664e+00 4.521202e-01 -3.715201e+00 5.210889e+01
<VARIANCE> 13
 6.442316e+01 1.029072e+02 7.144520e+01 7.101369e+01 7.227361e+01 7.509186e+01 4.927244e+01 7.485352e+01 4.960462e+01 5.028821e+01 3.521603e+01 3.130518e+01 1.711734e+02
<GCONST> 7.800540e+01
~s "ST_k_4_1"
<MEAN> 13
 -1.294851e+01 7.077761e+00 -5.345378e+00 4.218295e+00 9.434873e-01 8.307107e+00 -3.665929e+00 -2.314080e+00 -1.140192e+00 -7.692235e-01 2.670276e+00 3.114597e-02 3.697532e+01
<VARIANCE> 13
 8.893298e+01 6.679561e+01 1.021282e+02 1.250244e+02 7.165717e+01 8.683405e+01 4.941954e+01 1.192230e+02 7.462321e+01 7.652087e+01 2.964624e+01 3.117869e+01 1.879962e+02
<GCONST> 8.016940e+01
~s "ST_k_4_2"
<MEAN> 13
 -7.810580e+00 -1.057806e+01 -1.485295e+01 4.199960e-01 1.148002e+01 -1.012073e+01 -2.187464e+00 -2.555534e-01 -8.649715e-01 7.564006e+00 -1.562799e+00 -7.710630e+00 5.580174e+01
<VARIANCE> 13
 5.011710e+01 7.186089e+01 1.288738e+02 1.200408e+02 1.701725e+02 2.316514e+02 8.747245e+01 7.718488e+01 9.938632e+01 8.135556e+01 8.430293e+01 5.949776e+01 1.115603e+02
<GCONST> 8.336050e+01
~s "ST_uw_2_1"
<MEAN> 13
 2.907233e+00 -6.816889e-01 -5.454831e+00 -1.384359e+01 -3.677850e+00 2.366482e+00 -1.210612e+01 -1.509961e+01 -6.923481e+00 -2.130723e+00 3.196917e+00 -5.301464e-01 6.159858e+01
<VARIANCE> 13
 4.390435e+01 4.714393e+01 1.459627e+01 1.243501e+02 7.650812e+01 3.254787e+01 5.615778e+01 5.754364e+01 7.382554e+01 3.687640e+01 6.599959e+01 8.762476e+01 9.693903e+01
<GCONST> 7.607837e+01
~s "ST_uw_2_2"
<MEAN> 13
 4.874621e+00 -7.668636e+00 -5.985275e+00 -1.587261e+01 -1.143944e+01 5.067883e+00 -1.764191e+01 -1.716587e+01 3.758569e+00 -3.112314e+00 8.181313e+00 7.418285e-01 7.069791e+01
<VARIANCE> 13
 1.345137e+01 1.883662e+01 1.141389e+01 3.124946e+01 4.375178e+01 1.804661e+01 2.516342e+01 1.834448e+01 9.392256e+01 2.561423e+01 2.910620e+01 2.143050e+01 1.402025e+01
<GCONST> 6.497222e+01
~s "ST_n_2_1"
<MEAN> 13
 -7.451981e-01 1.959907e+00 9.475791e-01 9.465014e-01 -5.405164e+00 -5.807755e+00 -6.958780e+00 -1.022695e+01 -3.211197e+00 -2.323608e+00 -4.439992e+00 -5.261591e+00 5.705768e+01
<VARIANCE> 13
 3.797833e+01 1.925112e+01 4.042370e+01 3.596748e+01 4.221338e+01 5.123850e+01 2.375965e+01 4.947615e+01 2.210684e+01 2.168878e+01 2.181628e+01 2.582359e+01 6.627624e+01
<GCONST> 6.921819e+01
~s "ST_n_2_2"
<MEAN> 13
 4.254682e+00 -6.040785e+00 -1.729761e+00 1.128651e+00 -3.875349e+00 -7.688599e+00 -5.831483e+00 -8.513863e+00 -1.768690e+00 2.686792e+00 -1.071553e+01 -9.707455e+00 6.286446e+01
<VARIANCE> 13
 7.712705e+00 2.090193e+01 1.196391e+01 1.504152e+01 5.257277e+01 7.250413e+01 2.061022e+01 4.826283e+01 3.899281e+01 3.476000e+01 3.024073e+01 3.095674e+01 1.057781e+01
<GCONST> 6.572850e+01
~s "ST_uw_3_1"
<MEAN> 13
 5.927495e+00 1.679101e+00 -5.891302e+00 -1.567555e+01 -1.237161e+01 -3.444884e-01 -1.206213e+01 -9.150756e+00 -9.281889e+00 -4.476230e+00 2.192107e+00 -4.576546e+00 6.445957e+01
<VARIANCE> 13
 2.394060e+01 2.357034e+01 1.482498e+01 4.373360e+01 4.489304e+01 2.302493e+01 4.185878e+01 3.154114e+01 3.858695e+01 2.484678e+01 3.078362e+01 5.408018e+01 5.009212e+01
<GCONST> 6.902581e+01
~s "ST_n_3_1"
<MEAN> 13
 4.402560e+00 4.117106e+00 -5.462546e-01 6.310625e+00 3.692745e+00 -6.938002e+00 -6.628548e+00 -3.509120e+00 -8.601345e-01 -3.630692e+00 -1.421928e+01 2.505924e+00 5.458030e+01
<VARIANCE> 13
 1.672376e+01 6.247459e+01 3.867672e+01 4.546254e+01 7.410238e+01 5.878482e+01 3.322219e+01 6.024001e+01 5.531890e+01 4.948420e+01 7.261803e+01 8.466732e+01 2.932289e+01
<GCONST> 7.431407e+01
~s "ST_n_3_2"
<MEAN> 13
 6.907830e+00 7.054563e+00 -1.716163e+00 -1.250174e+01 4.238143e+00 1.028703e+01 -1.898600e+01 -1.471741e+01 -3.593397e+00 5.335143e-01 -8.391276e+00 3.280173e+00 5.656293e+01
<VARIANCE> 13
 5.254991e+01 6.354747e+01 4.963292e+01 2.489952e+02 1.272001e+02 7.224014e+01 9.657703e+01 6.564902e+01 6.954558e+01 9.733634e+01 6.421902e+01 9.725360e+01 8.706344e+01
<GCONST> 8.133488e+01
~s "ST_uw_4_1"
<MEAN> 13
 9.384614e-01 6.448853e+00 -7.701696e+00 -8.375848e+00 -4.705260e+00 2.389291e+00 -7.038773e+00 -8.300687e+00 -6.858920e+00 -1.505222e+00 -4.134917e-01 2.009201e+00 5.061736e+01
<VARIANCE> 13
 4.959202e+01 7.193002e+01 3.511108e+01 1.500744e+02 7.060920e+01 7.143226e+01 3.581530e+01 3.431776e+01 5.343676e+01 6.181519e+01 7.008442e+01 5.491095e+01 1.141248e+02
<GCONST> 7.737688e+01
~s "ST_uw_4_2"
<MEAN> 13
 9.963388e+00 -3.227765e-01 -7.852566e+00 -2.488341e+01 -1.200332e+00 1.132867e+01 -1.083650e+01 -1.171771e+01 -7.077555e+00 8.357658e+00 -3.219198e+00 2.015885e-01 6.419331e+01
<VARIANCE> 13
 2.820207e+01 6.502475e+01 4.283756e+01 1.310924e+02 1.242570e+02 8.313360e+01 5.567410e+01 4.922910e+01 8.124370e+01 9.445422e+01 1.298694e+02 7.457204e+01 3.012708e+01
<GCONST> 7.872798e+01
~s "ST_n_4_1"
<MEAN> 13
 -5.383089e-01 1.519771e+01 3.430038e+00 1.198944e+01 5.205255e-01 5.519400e-01 -8.185144e+00 -3.155314e+00 -3.024785e+00 -5.518038e+00 -5.627991e+00 -2.033045e+00 4.331976e+01
<VARIANCE> 13
 4.829452e+01 1.395879e+02 3.063680e+01 8.947114e+01 4.021115e+01 5.635999e+01 4.670530e+01 5.323936e+01 5.305030e+01 3.526493e+01 3.945416e+01 4.913937e+01 1.146069e+02
<GCONST> 7.601453e+01
~s "ST_n_4_2"
<MEAN> 13
 -9.890543e+00 8.315086e+00 -6.903809e+00 7.100860e+00 -2.871904e+00 3.558699e+00 -1.153141e+01 -8.451015e+00 -5.021342e+00 -6.041762e+00 -5.090353e+00 -5.265572e+00 3.680910e+01
<VARIANCE> 13
 3.653753e+01 4.792553e+01 3.760444e+01 2.902649e+01 2.789790e+01 1.848779e+01 3.490948e+01 3.444831e+01 2.145367e+01 2.676004e+01 2.408543e+01 1.884466e+01 5.806001e+01
<GCONST> 6.822572e+01
~s "ST_d_2_1"
<MEAN> 13
 5.111411e-02 6.129560e+00 7.586433e-01 7.078739e+00 2.435775e+00 -1.444154e+00 -1.046488e+01 -8.997416e+00 -1.571517e+00 -2.696151e+00 -4.377942e+00 -5.866854e+00 5.226173e+01
<VARIANCE> 13
 3.741850e+01 1.446978e+02 3.046326e+01 8.387673e+01 7.094122e+01 5.416085e+01 1.184564e+02 5.991277e+01 5.139465e+01 3.255935e+01 3.444841e+01 4.042274e+01 9.457112e+01
<GCONST> 7.666714e+01
~s "ST_d_2_2"
<MEAN> 13
 4.672802e+00 -1.534408e+01 -7.884144e+00 -1.006278e+01 2.831924e-01 -1.447932e-01 -3.649076e+00 -7.978057e+00 2.975668e+00 5.616007e+00 -1.278279e+01 -6.749925e+00 6.979531e+01
<VARIANCE> 13
 8.748714e+00 4.373657e+01 2.905164e+01 6.135442e+01 9.090726e+01 4.293597e+01 5.264638e+01 9.532246e+01 5.572886e+01 3.864230e+01 4.101443e+01 4.256205e+01 3.702676e+01
<GCONST> 7.286702e+01
~s "ST_d_3_1"
<MEAN> 13
 3.791517e+00 -1.387539e+01 -4.886454e+00 -6.604965e+00 -1.497322e+00 -2.531965e+00 -8.774196e+00 -7.094606e+00 3.088156e+00 3.157965e+00 -9.592540e+00 -6.010562e+00 6.840755e+01
<VARIANCE> 13
 1.639838e+01 6.455281e+01 4.379296e+01 9.279216e+01 1.229133e+02 8.561304e+01 1.342528e+02 1.442769e+02 7.705756e+01 6.652138e+01 7.883024e+01 5.484804e+01 4.628575e+01
<GCONST> 7.904844e+01
~s "ST_d_4_1"
<MEAN> 13
 5.233068e+00 -1.062664e+01 5.553561e-01 -6.875809e-01 -9.428930e+00 -5.608574e+00 -1.455027e+01 -1.117679e+01 -4.993226e-02 -9.900583e-02 3.216842e-01 -3.425867e+00 6.634464e+01
<VARIANCE> 13
 2.510699e+01 4.392628e+01 3.591914e+01 3.459776e+01 6.761970e+01 7.288986e+01 9.719368e+01 1.410428e+02 9.979422e+01 6.046732e+01 4.966923e+01 3.130217e+01 1.900692e+01
<GCONST> 7.505083e+01
~s "ST_d_4_2"
<MEAN> 13
 6.897102e+00 -1.875818e+01 -4.138099e+00 -1.421536e+01 -1.368314e+00 -6.277016e-01 -1.995579e+00 -7.946059e+00 -7.696577e-01 1.043681e+01 -1.358368e+01 -6.466378e+00 7.286697e+01
<VARIANCE> 13
 7.396524e+00 1.160343e+01 1.781396e+01 2.441297e+01 9.737461e+01 3.012515e+01 4.794088e+01 6.235226e+01 5.201952e+01 3.783547e+01 2.559867e+01 2.535537e+01 6.228818e+00
<GCONST> 6.629609e+01
~s "ST_ay_2_1"
<MEAN> 13
 -1.084603e+01 7.303466e-01 -4.690465e+00 7.361047e+00 5.282793e+00 -6.304986e+00 6.041602e+00 6.319674e-01 5.117821e+00 -6.854153e-01 -8.034859e-01 -1.476037e+00 6.220391e+01
<VARIANCE> 13
 4.821161e+01 5.058017e+01 2.976888e+01 9.178257e+01 3.872661e+01 3.139659e+01 3.403493e+01 4.232373e+01 3.962315e+01 3.291965e+01 2.040981e+01 3.006773e+01 2.398172e+01
<GCONST> 7.075065e+01
~s "ST_ay_3_1"
<MEAN> 13
 4.140512e+00 -1.465884e+01 -1.236880e+01 -7.951090e+00 -1.291653e+00 -2.326289e+00 1.497833e+00 -3.400950e+00 -2.966855e+00 8.424497e+00 -9.772840e+00 -8.695523e+00 6.975258e+01
<VARIANCE> 13
 1.509532e+01 2.900527e+01 2.714789e+01 9.527406e+01 4.335471e+01 4.912503e+01 2.791829e+01 8.654100e+01 7.874837e+01 9.749603e+01 6.671890e+01 6.399514e+01 3.282380e+01
<GCONST> 7.408252e+01
~s "ST_ay_4_1"
<MEAN> 13
 1.181227e+00 -1.168876e+01 6.680128e+00 -1.128350e+01 -3.734126e+00 -1.656354e+01 2.940834e+00 2.457687e+00 -1.483262e+00 2.265531e+00 -8.152786e+00 2.023051e+00 7.124535e+01
<VARIANCE> 13
 4.372772e+00 2.441784e+01 5.765935e+01 9.422195e+01 1.559507e+02 2.675188e+01 7.372636e+01 3.655414e+01 6.617631e+01 4.259657e+01 6.760760e+01 2.683141e+01 6.961224e+00
<GCONST> 7.078637e+01
~s "ST_g_2_1"
<MEAN> 13
 -1.896653e+00 -1.868956e+00 1.103441e+01 -1.258718e+00 -1.360643e+01 -1.278540e+01 -3.672420e+00 -1.088244e+01 -1.483119e+01 6.772868e-02 2.579822e+00 -7.673152e+00 5.987694e+01
<VARIANCE> 13
 1.257222e+01 4.656103e+01 4.955450e+01 4.546083e+01 4.431237e+01 6.955123e+01 5.183242e+01 3.741578e+01 1.097044e+02 2.768961e+01 9.244453e+01 3.721106e+01 6.681377e+01
<GCONST> 7.395199e+01
~s "ST_g_3_1"
<MEAN> 13
 -1.814643e+00 -7.053372e+00 7.849549e+00 -1.266412e+00 -1.276208e+01 -1.633125e+01 -6.322897e+00 -3.433797e+00 -6.187993e+00 -2.475095e+00 4.487400e+00 -5.917315e+00 6.601585e+01
<VARIANCE> 13
 1.243265e+01 6.752823e+01 4.572285e+01 7.521979e+01 1.144248e+02 9.110067e+01 5.810165e+01 4.611714e+01 3.483285e+01 2.568248e+01 1.129610e+02 5.750688e+01 1.069604e+02
<GCONST> 7.616132e+01
~s "ST_g_4_1"
<MEAN> 13
 1.060973e+00 -1.636500e+01 -7.334164e+00 -6.853669e+00 -1.225494e+01 -7.592349e+00 -1.349098e+01 4.976129e+00 2.517116e+00 1.373270e+00 -4.753352e+00 -2.043851e+01 7.551792e+01
<VARIANCE> 13
 8.778090e+00 4.745705e+01 5.256792e+01 2.342632e+01 4.355339e+01 7.005534e+01 2.451657e+01 3.880383e+01 3.659608e+01 2.571019e+01 7.817619e+01 7.064804e+01 7.140289e+01
<GCONST> 7.165344e+01
~s "ST_t_2_1"
<MEAN> 13
 -6.548074e+00 -4.297887e+00 -6.506818e+00 -7.176183e-01 -1.931918e+00 5.574943e+00 -4.875843e+00 -5.716290e+00 -5.912004e-02 -2.237772e+00 1.969229e-01 -1.874439e+00 5.051720e+01
<VARIANCE> 13
 4.049323e+01 6.608933e+01 1.233140e+02 6.651607e+01 8.057458e+01 1.353621e+02 8.893517e+01 6.365669e+01 7.828039e+01 4.405068e+01 2.970894e+01 3.949308e+01 1.231687e+02
<GCONST> 7.876203e+01
~s "ST_t_2_2"
<MEAN> 13
 -3.919183e+00 -3.975715e+00 -1.094891e+01 -4.258429e+00 1.529603e+00 -2.110435e+00 -5.073263e+00 -6.250078e-01 7.088524e+00 2.207446e+00 -5.864952e+00 -5.016917e+00 5.257679e+01
<VARIANCE> 13
 2.270057e+01 3.183876e+01 6.175007e+01 3.445951e+01 3.580499e+01 6.279755e+01 7.771285e+01 4.712298e+01 5.369003e+01 3.162810e+01 4.741353e+01 2.655098e+01 7.114560e+01
<GCONST> 7.290211e+01
~s "ST_t_3_1"
<MEAN> 13
 4.134877e-01 -9.219040e+00 -7.144406e+00 -1.724228e+01 -6.034151e+00 5.201139e+00 -9.322589e+00 -1.499712e+01 7.782846e+00 -3.323527e+00 4.029144e+00 1.891658e+00 6.761153e+01
<VARIANCE> 13
 1.929891e+01 2.463643e+01 2.785784e+01 1.162242e+02 8.954185e+01 9.835844e+01 8.433449e+01 6.726038e+01 5.995749e+01 7.611871e+01 5.789899e+01 4.325579e+01 4.511708e+01
<GCONST> 7.592702e+01
~s "ST_t_3_2"
<MEAN> 13
 3.146472e+00 -5.235475e+00 -5.750918e+00 -1.608701e+01 -1.200881e+01 5.644332e-01 -1.507092e+01 -1.115282e+01 -2.277368e+00 -9.407729e-01 3.005817e+00 -6.933398e+00 7.044681e+01
<VARIANCE> 13
 2.044170e+01 1.932120e+01 2.409437e+01 3.003268e+01 3.712513e+01 3.980850e+01 3.351965e+01 3.096778e+01 5.569864e+01 2.947561e+01 1.614180e+01 4.661886e+01 3.995951e+01
<GCONST> 6.841371e+01
~s "ST_t_4_1"
<MEAN> 13
 -3.486983e+00 -7.112600e+00 -9.407181e+00 -2.555186e+00 -8.302847e-01 -2.673707e+00 -3.501334e+00 -3.924740e+00 -7.741187e-01 3.604222e-01 -5.472543e+00 -3.250661e+00 5.522694e+01
<VARIANCE> 13
 2.522466e+01 3.192730e+01 2.852279e+01 5.425536e+01 6.366827e+01 5.465037e+01 4.201996e+01 4.790211e+01 6.101940e+01 4.635715e+01 3.779459e+01 2.823536e+01 6.807087e+01
<GCONST> 7.283089e+01
~s "ST_t_4_2"
<MEAN> 13
 6.630632e+00 -4.690981e+00 -1.770756e+00 -1.445152e+01 -6.263676e+00 9.811498e+00 -9.386626e+00 -1.362266e+01 -1.135871e+01 6.050724e+00 8.431743e+00 -4.803748e+00 6.377542e+01
<VARIANCE> 13
 3.600863e+01 2.900023e+01 4.478600e+01 1.084391e+02 5.921529e+01 8.341547e+01 4.799831e+01 3.805375e+01 5.268959e+01 5.590293e+01 6.366124e+01 4.688372e+01 4.657814e+01
<GCONST> 7.517715e+01
~s "ST_sil_2_1"
<MEAN> 13
 -1.445212e+01 5.739524e+00 -7.712343e+00 9.029291e+00 -2.004202e+00 5.550946e+00 -6.245136e+00 -1.980993e+00 -2.443914e+00 -5.798035e+00 -3.525725e+00 -3.774386e+00 3.331312e+01
<VARIANCE> 13
 2.537936e+01 3.513618e+01 4.979898e+01 3.788198e+01 4.177466e+01 4.811496e+01 5.185609e+01 4.880909e+01 3.959285e+01 3.374020e+01 3.336505e+01 2.540483e+01 4.508950e+01
<GCONST> 7.141874e+01
~s "silst"
<MEAN> 13
 -8.326323e+00 1.404570e+00 -6.946565e-01 1.173464e+00 2.891787e+00 6.748139e-01 2.630834e+00 7.046343e-01 2.981569e+00 -8.723439e-01 8.656937e-01 -1.344008e+00 5.276947e+01
<VARIANCE> 13
 4.207544e+00 7.579828e+00 4.874883e+00 7.815276e+00 8.280620e+00 9.901288e+00 1.001109e+01 9.076699e+00 1.003056e+01 8.227901e+00 8.148847e+00 7.840692e+00 3.465925e+00
<GCONST> 4.972429e+01
~s "ST_sil_3_1"
<MEAN> 13
 -6.804414e+00 1.285672e+00 -9.301538e-01 1.534133e+00 3.583190e+00 1.945097e+00 1.913171e+00 -1.811374e-01 1.787605e+00 -4.582585e-01 1.002938e+00 -7.088544e-01 5.222681e+01
<VARIANCE> 13
 5.027745e+00 6.550617e+00 5.218860e+00 9.722567e+00 1.209012e+01 1.582177e+01 1.493891e+01 1.190383e+01 1.169288e+01 9.306778e+00 1.090555e+01 1.103703e+01 3.465925e+00
<GCONST> 5.247150e+01
~s "ST_sil_4_1"
<MEAN> 13
 -2.565870e+01 2.821016e+00 -1.002746e+01 4.556071e+00 -7.414405e+00 5.274625e+00 -3.408335e+00 1.474739e+00 1.548066e+00 -1.042752e+00 1.279208e+00 -4.419957e-01 2.408053e+01
<VARIANCE> 13
 1.503929e+01 3.080364e+00 6.036529e+00 5.509076e+00 1.041494e+01 8.298791e+00 1.042299e+01 1.106967e+01 1.147944e+01 1.025166e+01 9.506095e+00 8.072663e+00 2.754150e+01
<GCONST> 5.286402e+01
~s "ST_iy_2_1"
<MEAN> 13
 2.205830e+00 -9.594130e+00 1.761589e+01 -7.503062e+00 -1.330440e+01 -1.292400e+01 -4.489102e+00 -6.607949e+00 -1.703358e+01 8.049295e+00 1.156835e+00 -2.822704e-01 6.840397e+01
<VARIANCE> 13
 7.962006e+00 2.086909e+01 4.420223e+01 3.128160e+01 3.397909e+01 2.564893e+01 2.563822e+01 5.166853e+01 7.549225e+01 5.943516e+01 8.195992e+01 2.737607e+01 1.094627e+01
<GCONST> 6.871415e+01
~s "ST_j_2_1"
<MEAN> 13
 -6.564439e+00 1.279738e+01 2.887665e+01 -3.649979e+00 -7.361163e+00 -4.657074e+00 -8.578493e+00 -4.454500e+00 -1.621884e+01 4.494678e-01 -8.365260e-01 -3.915622e+00 5.070750e+01
<VARIANCE> 13
 1.190400e+01 1.343316e+02 1.283213e+02 2.201693e+02 8.782177e+01 6.514684e+01 1.000062e+02 3.556538e+01 5.765734e+01 5.815976e+01 3.679467e+01 2.574613e+01 7.091353e+01
<GCONST> 7.757990e+01
~s "ST_iy_3_1"
<MEAN> 13
 -3.222465e+00 -1.176407e+01 1.530396e+01 -7.437286e-01 -2.438866e+01 -1.231339e+01 -1.304526e+01 -8.608660e+00 -7.972947e+00 -6.514620e+00 1.394219e+01 -4.327257e+00 6.883929e+01
<VARIANCE> 13
 4.808928e+00 5.206548e+01 2.217322e+01 2.203034e+01 2.885498e+01 1.534681e+01 2.640985e+01 4.522616e+01 4.597683e+01 5.439024e+01 6.370229e+01 9.313662e+01 6.578834e+00
<GCONST> 6.718176e+01
~s "ST_j_3_1"
<MEAN> 13
 1.697671e-01 -7.834777e+00 4.097441e+00 1.571956e+00 -1.121962e+01 -9.954955e+00 -1.994684e+01 -1.616406e+01 -5.088117e+00 -4.953119e-01 1.213831e+01 -6.434244e+00 6.671314e+01
<VARIANCE> 13
 2.497222e+01 1.321359e+01 7.718343e+01 4.666037e+01 4.075375e+01 5.576902e+01 9.038586e+01 9.343515e+01 7.355907e+01 3.034085e+01 5.980674e+01 4.821519e+01 2.372999e+01
<GCONST> 7.349473e+01
~s "ST_iy_4_1"
<MEAN> 13
 -1.282907e+00 -1.720303e+00 1.397838e+01 -2.172316e+00 -1.134139e+01 -1.067385e+01 -4.664814e+00 -6.549733e+00 -1.127511e+01 1.962319e+00 -5.608541e-01 6.007204e-01 6.073569e+01
<VARIANCE> 13
 2.680649e+01 3.184715e+01 8.459700e+01 5.900967e+01 4.242813e+01 4.719407e+01 5.293877e+01 4.230262e+01 5.413646e+01 5.220844e+01 7.993050e+01 3.461279e+01 3.133356e+01
<GCONST> 7.379047e+01
~s "ST_j_4_1"
<MEAN> 13
 9.302854e+00 9.426748e+00 -4.604671e+00 2.958498e+00 -4.077534e+00 7.314204e+00 -1.253524e+01 -1.719360e+01 -1.114180e+01 -2.610730e+00 4.230623e-01 -3.450797e+00 5.153059e+01
<VARIANCE> 13
 2.027004e+01 1.688585e+02 3.263309e+01 3.155301e+01 1.660169e+01 4.016528e+01 4.241034e+01 2.791055e+01 2.869886e+01 3.013398e+01 7.407056e+01 2.724606e+01 9.158003e+01
<GCONST> 7.143616e+01
~s "ST_w_2_1"
<MEAN> 13
 -1.955484e+01 -3.187732e+00 3.421182e+00 -7.068876e+00 1.333172e+01 -2.236059e+00 -3.725979e+00 -4.780114e+00 5.627625e+00 -5.770484e+00 3.396242e+00 -6.681135e+00 6.253426e+01
<VARIANCE> 13
 2.420320e+01 1.532903e+01 1.606244e+01 4.800750e+01 4.453361e+01 6.584460e+01 3.303750e+01 5.463839e+01 2.793740e+01 3.205135e+01 1.222920e+01 1.006587e+01 5.721265e+00
<GCONST> 6.529287e+01
~s "ST_w_3_1"
<MEAN> 13
 1.817095e+00 -8.995619e+00 2.223765e+00 -2.349161e+00 -5.625669e+00 -1.077023e+01 -1.509796e+01 -7.909727e+00 -4.554287e+00 -1.647956e-01 6.457384e+00 -7.575022e+00 6.972639e+01
<VARIANCE> 13
 1.215913e+01 4.798398e+01 2.063742e+01 2.164424e+01 2.620888e+01 4.899571e+01 4.336068e+01 4.926627e+01 6.920960e+01 3.744683e+01 4.056770e+01 3.230125e+01 6.806613e+00
<GCONST> 6.814385e+01
~s "ST_w_4_1"
<MEAN> 13
 -6.888390e+00 -6.936800e+00 4.593913e+00 3.935186e-01 -9.275948e-01 -5.856217e+00 -4.121131e+00 -7.333516e+00 -7.335059e+00 -6.643900e+00 3.136726e+00 5.872392e-01 6.032190e+01
<VARIANCE> 13
 2.365908e+01 1.817464e+01 1.257965e+01 1.152905e+01 4.330369e+01 5.679705e+01 4.661320e+01 5.457074e+01 3.526105e+01 3.262842e+01 2.878456e+01 3.829797e+01 4.260415e+01
<GCONST> 6.838738e+01
~s "ST_ng_2_1"
<MEAN> 13
 -3.206065e+00 -5.923485e+00 -1.018712e+01 5.965037e-01 -4.645566e+00 4.098247e+00 -7.571832e+00 -4.228237e+00 -4.168581e+00 -4.500711e+00 -6.317077e+00 -5.979651e+00 4.945977e+01
<VARIANCE> 13
 2.538783e+01 3.992108e+01 3.988237e+01 2.213258e+01 4.622248e+01 4.864229e+01 2.680832e+01 2.481775e+01 2.323166e+01 2.213460e+01 1.464903e+01 2.824439e+01 4.287391e+01
<GCONST> 6.784098e+01
~s "ST_ng_3_1"
<MEAN> 13
 -2.097387e+00 7.990908e+00 -4.098854e+00 1.118956e+01 -1.007764e+00 1.185933e+01 -2.152162e+00 -1.073812e+00 1.876737e-01 -2.217059e+00 -2.024961e+00 5.291020e-01 4.654522e+01
<VARIANCE> 13
 4.006756e+01 9.725565e+01 4.064685e+01 3.974451e+01 1.120464e+02 5.732583e+01 3.950261e+01 3.220528e+01 3.142182e+01 4.656268e+01 2.363370e+01 2.760915e+01 1.246678e+02
<GCONST> 7.405864e+01
~s "ST_m_2_1"
<MEAN> 13
 2.218051e+00 -2.879077e+00 -4.578808e+00 -9.999039e-01 6.517621e-01 3.039694e+00 -3.862648e+00 -6.987579e+00 -4.543397e+00 -8.019732e-01 -5.636658e+00 -7.918822e+00 5.735447e+01
<VARIANCE> 13
 6.243679e+00 2.161911e+01 1.969805e+01 2.030982e+01 3.356045e+01 5.868944e+01 2.151913e+01 2.282563e+01 2.476174e+01 1.880799e+01 2.032498e+01 2.422404e+01 1.127119e+01
<GCONST> 6.333664e+01
~s "ST_m_2_2"
<MEAN> 13
 4.500301e+00 -3.098773e+00 -1.898113e+00 -4.107861e-01 -2.821964e+00 -1.928228e-01 -6.783756e+00 -1.383939e+01 -1.316174e+01 -1.334416e-01 -1.538123e+00 -6.808256e+00 6.036113e+01
<VARIANCE> 13
 3.225128e+01 3.480920e+01 2.778758e+01 2.300942e+01 8.456352e+01 1.163108e+02 3.045685e+01 3.657872e+01 4.675409e+01 4.270790e+01 7.448415e+01 7.853415e+01 3.809802e+01
<GCONST> 7.349945e+01
~s "ST_m_2_3"
<MEAN> 13
 7.164004e+00 -9.790039e+00 -7.245017e+00 -2.597465e+00 -1.592285e+00 -2.604394e+00 -1.354495e+00 -9.424417e+00 -1.428844e+01 2.590420e+00 -2.227919e+00 -8.716510e+00 6.443822e+01
<VARIANCE> 13
 1.317751e+01 3.740588e+01 3.951550e+01 3.449340e+01 4.536750e+01 2.979556e+01 2.050059e+01 2.148043e+01 8.110832e+01 2.376047e+01 2.997785e+01 2.552813e+01 7.436285e+00
<GCONST> 6.681738e+01
~s "ST_ng_4_1"
<MEAN> 13
 -1.279344e+01 4.904993e+00 -1.135520e+01 7.536187e+00 -4.155300e+00 3.560694e+00 -9.200247e+00 -4.811223e+00 -4.873600e+00 -8.360007e+00 -6.299929e+00 -6.730734e+00 3.445152e+01
<VARIANCE> 13
 8.905314e+00 1.249464e+01 1.887840e+01 1.083907e+01 1.554759e+01 1.784433e+01 1.769502e+01 1.660354e+01 2.005921e+01 1.610255e+01 1.298053e+01 1.446957e+01 2.222230e+01
<GCONST> 5.934827e+01
~s "ST_ng_4_2"
<MEAN> 13
 -1.245398e+01 5.603296e+00 -6.711847e+00 7.743169e+00 -7.445241e+00 -2.298364e+00 -1.289743e+01 -6.298596e+00 -5.803824e+00 -7.885130e+00 -4.726067e+00 -4.689709e+00 3.579759e+01
<VARIANCE> 13
 3.413883e+01 2.214973e+01 1.936333e+01 2.517545e+01 3.100628e+01 1.686900e+01 1.685411e+01 2.495380e+01 2.070265e+01 1.997274e+01 1.395731e+01 1.434536e+01 8.398238e+01
<GCONST> 6.476587e+01
~s "ST_m_3_1"
<MEAN> 13
 -2.249305e-01 1.191527e+01 2.287316e+00 1.346786e+01 1.040963e+01 7.469391e+00 -9.907406e+00 -9.642579e+00 -3.262436e+00 7.506387e-01 -3.977219e+00 7.986936e-01 4.436255e+01
<VARIANCE> 13
 2.217851e+01 9.534435e+01 2.058299e+01 8.108778e+01 5.131081e+01 5.605447e+01 6.198336e+01 5.476768e+01 2.639341e+01 4.591089e+01 3.064599e+01 3.663195e+01 8.410581e+01
<GCONST> 7.361852e+01
~s "ST_m_3_2"
<MEAN> 13
 4.680858e+00 2.041073e+00 -2.549609e+00 1.653833e-01 9.997274e+00 1.656248e+00 -6.484335e+00 -1.541946e+01 -1.202071e+01 -2.062725e-01 -8.010142e+00 1.048682e+00 5.714322e+01
<VARIANCE> 13
 2.387954e+01 8.739288e+01 4.832850e+01 5.684275e+01 1.537250e+02 6.711555e+01 5.331401e+01 5.561843e+01 5.904726e+01 3.443643e+01 8.603931e+01 8.094302e+01 3.955110e+01
<GCONST> 7.683405e+01
~s "ST_m_4_1"
<MEAN> 13
 -1.132588e+01 2.879149e+00 -9.665000e+00 6.840502e+00 -4.073391e+00 4.420399e+00 -7.875287e+00 -3.318329e+00 -4.248775e+00 -7.403000e+00 -7.186425e+00 -6.252439e+00 3.702246e+01
<VARIANCE> 13
 1.401884e+01 4.385373e+01 2.968954e+01 2.237083e+01 1.906313e+01 1.759165e+01 1.568000e+01 1.595240e+01 1.610121e+01 1.654126e+01 1.680709e+01 1.167229e+01 3.648087e+01
<GCONST> 6.260995e+01
~s "ST_m_4_2"
<MEAN> 13
 5.652205e+00 -5.106500e+00 -9.035413e+00 -3.927281e+00 2.970340e+00 4.183236e-01 -5.505664e+00 -8.046222e+00 -5.076878e+00 -1.890864e+00 -3.863117e+00 -3.414094e+00 6.085076e+01
<VARIANCE> 13
 4.152629e+01 8.297164e+01 1.002596e+02 8.604918e+01 1.593867e+02 9.965107e+01 8.511557e+01 8.181828e+01 9.740421e+01 4.334371e+01 8.274446e+01 4.171454e+01 5.478310e+01
<GCONST> 8.011945e+01
~s "ST_ah_2_1"
<MEAN> 13
 5.879520e+00 -1.908380e+01 -1.188855e+01 -1.088971e+01 7.492177e-01 6.207277e+00 -2.614406e+00 -8.852257e+00 -2.350029e+00 4.521295e+00 -3.965513e+00 -5.451468e+00 6.919042e+01
<VARIANCE> 13
 7.808378e+00 5.512567e+01 2.893084e+01 3.857335e+01 7.253065e+01 9.071430e+01 4.094471e+01 4.078824e+01 1.173417e+02 5.171099e+01 5.663904e+01 3.791114e+01 1.820389e+01
<GCONST> 7.247136e+01
~s "ST_ah_2_2"
<MEAN> 13
 4.186761e+00 -1.759091e+01 -6.414533e+00 -1.273280e+01 -2.686701e+00 -2.519960e+00 -2.719146e+00 -3.352835e+00 -1.232711e+00 1.481421e+00 -3.289919e+00 -1.250373e+01 7.279465e+01
<VARIANCE> 13
 7.365970e+00 3.741039e+01 3.480785e+01 5.202046e+01 7.259785e+01 9.600010e+01 4.358115e+01 4.838248e+01 1.004236e+02 4.863767e+01 1.335595e+02 6.570269e+01 1.168133e+01
<GCONST> 7.354723e+01
~s "ST_ah_2_3"
<MEAN> 13
 7.693545e+00 -1.763482e+01 -1.104240e+01 -1.803934e+01 -8.918602e+00 8.687031e+00 -1.726780e+00 -9.752066e+00 -4.940510e+00 7.904942e+00 6.705955e+00 -1.272239e+01 7.185566e+01
<VARIANCE> 13
 8.777104e+00 5.750387e+01 1.727947e+01 3.298339e+01 5.185820e+01 4.757419e+01 5.974912e+01 3.338237e+01 1.237593e+02 6.749248e+01 6.779326e+01 6.786025e+01 6.474207e+00
<GCONST> 7.120300e+01
~s "ST_ah_2_4"
<MEAN> 13
 4.919438e+00 -1.928629e+01 -1.778629e+00 -9.023617e+00 -2.696090e+00 -4.227470e+00 -4.269487e-01 1.521518e+00 -4.954705e+00 7.203047e+00 -7.412001e+00 -1.046773e+01 7.500000e+01
<VARIANCE> 13
 4.722430e+00 1.170176e+01 3.584586e+01 2.969514e+01 5.517517e+01 3.949907e+01 2.002835e+01 4.092113e+01 3.659654e+01 2.531289e+01 7.859301e+01 2.466028e+01 3.465925e+00
<GCONST> 6.491399e+01
~s "ST_ah_2_5"
<MEAN> 13
 4.033823e+00 -1.984282e+01 -1.376208e+01 -1.042140e+01 1.626580e+00 -5.144214e-02 -1.126237e+00 -5.444974e+00 -2.193150e+00 7.731348e+00 -7.099953e-01 -9.054582e+00 6.981976e+01
<VARIANCE> 13
 1.013340e+01 5.654146e+01 2.335024e+01 3.189660e+01 7.697689e+01 1.281231e+02 6.459443e+01 4.075716e+01 1.399634e+02 3.899741e+01 6.092167e+01 2.980796e+01 1.710226e+01
<GCONST> 7.287703e+01
~s "ST_ah_2_6"
<MEAN> 13
 3.986544e+00 -1.651174e+01 -9.691319e+00 -1.283375e+01 4.725658e+00 -2.379318e+00 -1.296245e-01 -7.345244e+00 -3.938762e+00 8.147375e+00 -6.355279e+00 -8.583295e+00 7.236112e+01
<VARIANCE> 13
 1.264541e+01 3.328975e+01 1.125779e+01 3.816471e+01 3.792181e+01 2.821046e+01 3.456890e+01 2.968983e+01 5.941413e+01 3.875957e+01 3.565616e+01 2.378124e+01 2.138716e+01
<GCONST> 6.745441e+01
~s "ST_ah_2_7"
<MEAN> 13
 6.444800e+00 -1.846401e+01 -1.273135e+01 -1.566863e+01 3.450184e-01 3.522083e+00 6.435496e-01 -1.046956e+01 -6.127048e+00 9.477545e+00 -3.513511e+00 -7.387682e+00 7.097881e+01
<VARIANCE> 13
 1.127154e+01 3.201900e+01 2.497403e+01 2.841830e+01 5.841548e+01 5.363929e+01 3.610125e+01 3.385527e+01 8.810282e+01 4.333929e+01 6.250585e+01 3.041992e+01 2.236789e+01
<GCONST> 7.040972e+01
~s "ST_ah_2_8"
<MEAN> 13
 5.216695e+00 -1.947156e+01 -4.809085e+00 -1.390884e+01 7.566128e+00 -2.723401e+00 1.934219e+00 -7.475382e+00 -3.787114e+00 9.938342e+00 -1.382457e+01 -2.417311e+00 7.407338e+01
<VARIANCE> 13
 4.308475e+00 8.258989e+00 1.720711e+01 3.736850e+01 6.129958e+01 2.968000e+01 4.424966e+01 4.983344e+01 4.915241e+01 4.369315e+01 2.035821e+01 2.971749e+01 5.250305e+00
<GCONST> 6.487084e+01
~s "ST_ah_3_1"
<MEAN> 13
 2.413157e+00 -1.748930e+01 -8.534272e+00 -7.608232e+00 -1.150700e+00 -4.137035e-01 -3.027806e+00 -7.165278e+00 7.396410e+00 1.924090e+00 -5.703988e+00 -6.811474e+00 6.971986e+01
<VARIANCE> 13
 5.697713e+00 7.623206e+01 3.233689e+01 4.866894e+01 8.905114e+01 7.027883e+01 4.539255e+01 6.190269e+01 9.621909e+01 4.324220e+01 1.246989e+02 3.996618e+01 3.290666e+01
<GCONST> 7.435115e+01
~s "ST_ah_3_2"
<MEAN> 13
 2.250063e+00 -2.132832e+01 -1.189698e+01 -7.142113e+00 -3.507756e+00 -4.996535e-01 -5.160805e+00 -3.442275e+00 5.586598e+00 3.665342e-01 -7.815509e+00 -1.284710e+01 7.512577e+01
<VARIANCE> 13
 3.264077e+00 2.463273e+01 2.020577e+01 1.387459e+01 2.937767e+01 5.002610e+01 2.448913e+01 6.572056e+01 1.153525e+02 4.145494e+01 7.662790e+01 3.500415e+01 9.645128e+00
<GCONST> 6.722540e+01
~s "ST_ah_3_3"
<MEAN> 13
 3.470755e+00 -1.987479e+01 -1.173941e+01 -6.214589e+00 5.667088e-01 2.683763e+00 -5.412046e+00 -2.180575e+00 5.008736e+00 2.258954e+00 -1.041934e+01 -1.186956e+01 7.211233e+01
<VARIANCE> 13
 4.405467e+00 3.353761e+01 7.482335e+00 1.554170e+01 5.231079e+01 5.395211e+01 2.111012e+01 3.926164e+01 8.002950e+01 2.911888e+01 3.870826e+01 2.502515e+01 1.591124e+01
<GCONST> 6.570603e+01
~s "ST_ah_3_4"
<MEAN> 13
 3.169388e+00 -1.789181e+01 -1.387447e+01 -8.077527e+00 -1.776626e+00 -9.893003e-01 -5.849654e+00 -1.824376e+00 -1.088692e+00 5.698663e+00 -9.641297e+00 -1.324027e+01 7.368565e+01
<VARIANCE> 13
 1.034363e+01 2.039268e+01 1.393997e+01 3.111012e+01 4.845031e+01 3.319416e+01 3.239547e+01 4.877801e+01 6.376905e+01 3.092482e+01 5.574854e+01 4.580227e+01 3.340434e+01
<GCONST> 6.900515e+01
~s "ST_ah_3_5"
<MEAN> 13
 3.617319e+00 -1.798181e+01 -1.460479e+01 -6.749595e+00 -3.778430e-01 -1.102880e+00 8.775141e-02 -2.453297e+00 -3.262558e+00 6.319539e+00 -5.929800e+00 -1.565873e+01 7.320232e+01
<VARIANCE> 13
 3.340337e+00 2.481957e+01 8.695902e+00 1.971113e+01 6.159570e+01 8.141051e+01 4.721614e+01 2.289158e+01 7.588191e+01 2.548744e+01 3.203125e+01 3.994073e+01 1.138096e+01
<GCONST> 6.611315e+01
~s "ST_ah_3_6"
<MEAN> 13
 3.781744e+00 -1.655498e+01 -1.342861e+01 -1.078524e+01 -4.150739e+00 2.266614e+00 -1.168388e+01 -5.578021e-01 -2.737112e-01 5.079918e+00 -8.440560e+00 -1.812009e+01 7.509076e+01
<VARIANCE> 13
 4.343569e+00 1.043842e+01 1.318277e+01 2.034640e+01 4.079372e+01 2.621762e+01 3.145465e+01 3.054251e+01 2.835335e+01 3.137304e+01 3.602346e+01 5.626296e+01 1.826888e+01
<GCONST> 6.445114e+01
~s "ST_ah_3_7"
<MEAN> 13
 2.245474e+00 -2.274644e+01 -9.076183e+00 -6.974618e+00 -6.322591e+00 1.124438e+00 -1.910715e+00 -6.129738e+00 7.098731e+00 2.195399e-01 -3.550491e+00 -9.290346e+00 7.552622e+01
<VARIANCE> 13
 3.693460e+00 1.413285e+01 2.540084e+01 1.486297e+01 4.483039e+01 2.836195e+01 1.130059e+01 6.295762e+01 5.925107e+01 5.252851e+01 9.995009e+01 1.864793e+01 3.923352e+00
<GCONST> 6.443687e+01
~s "ST_ah_3_8"
<MEAN> 13
 1.116902e+00 -2.311388e+01 -1.209942e+01 -6.067388e+00 -1.510555e+00 2.688004e+00 -2.846103e+00 -1.065676e+01 1.302022e+01 -3.156270e+00 -5.719003e+00 -1.067435e+01 7.407191e+01
<VARIANCE> 13
 3.168905e+00 1.372025e+01 2.049875e+01 8.459227e+00 2.713554e+01 3.882611e+01 2.423643e+01 4.300275e+01 3.653299e+01 3.689278e+01 2.138210e+01 3.549729e+01 5.426027e+00
<GCONST> 6.225880e+01
~s "ST_ah_4_1"
<MEAN> 13
 2.570997e+00 -1.322120e+01 -7.382114e+00 -1.537796e+01 8.401498e+00 -6.744809e+00 5.969108e-01 -6.095249e+00 3.521465e+00 5.808185e+00 -1.243634e+01 -4.229324e+00 6.916187e+01
<VARIANCE> 13
 1.379557e+01 2.414178e+01 2.670788e+01 1.026307e+02 8.052568e+01 6.828941e+01 6.509606e+01 5.765791e+01 5.646626e+01 4.850472e+01 6.383614e+01 5.327930e+01 3.925183e+01
<GCONST> 7.417668e+01
~s "ST_ah_4_2"
<MEAN> 13
 3.720069e+00 -1.019248e+01 -9.555503e+00 -8.108054e+00 2.268028e+00 3.373736e+00 -2.519617e+00 -4.346332e+00 1.700568e+00 6.526422e+00 -3.757985e+00 -9.886635e+00 6.348138e+01
<VARIANCE> 13
 1.367246e+01 2.284353e+01 1.005149e+01 1.915418e+01 2.504435e+01 2.716797e+01 1.825209e+01 5.402843e+01 2.217374e+01 1.748969e+01 2.663414e+01 2.495473e+01 2.450081e+01
<GCONST> 6.397165e+01
~s "ST_ah_4_3"
<MEAN> 13
 2.319924e+00 -1.399737e+01 -3.452375e+00 -1.085174e+01 9.435157e+00 -1.101059e+01 2.408420e+00 -1.669417e+00 5.844022e+00 1.070659e-01 -1.690592e+01 -2.495694e-02 6.942139e+01
<VARIANCE> 13
 5.957431e+00 2.366880e+01 2.548445e+01 4.414267e+01 9.734175e+01 5.693927e+01 5.395867e+01 4.611429e+01 4.247469e+01 4.272795e+01 4.172764e+01 6.265989e+01 1.287979e+01
<GCONST> 7.023455e+01
~s "ST_ah_4_4"
<MEAN> 13
 3.323084e+00 -1.126257e+01 -6.654174e+00 -7.601035e+00 1.567640e+01 -5.931378e+00 -5.004663e-01 3.964267e-01 9.696245e+00 -6.603828e+00 -1.624030e+01 -8.921745e-01 6.650148e+01
<VARIANCE> 13
 6.576980e+00 2.441754e+01 3.264769e+01 2.501662e+01 1.486605e+02 4.761776e+01 5.748386e+01 7.023416e+01 5.445940e+01 7.371357e+01 5.370660e+01 8.051339e+01 1.609338e+01
<GCONST> 7.229282e+01
~s "ST_ah_4_5"
<MEAN> 13
 4.279564e+00 -1.271521e+01 -4.992414e+00 -1.865900e+01 1.417186e+01 -7.091126e-01 -5.018145e+00 -4.799286e+00 6.399199e+00 2.058008e+00 -1.633168e+01 -1.102120e+00 7.000853e+01
<VARIANCE> 13
 4.598979e+00 1.823048e+01 2.157680e+01 3.208824e+01 9.949696e+01 5.285678e+01 2.912547e+01 3.490885e+01 4.310328e+01 4.501386e+01 7.777708e+01 5.186292e+01 1.584373e+01
<GCONST> 6.898930e+01
~s "ST_ah_4_6"
<MEAN> 13
 4.361006e+00 -6.268633e+00 -7.821513e+00 -3.397805e+00 1.089177e+01 1.456583e-01 2.159070e+00 -9.851277e+00 9.014344e+00 -8.126184e+00 -1.230873e+01 1.816937e+00 6.228286e+01
<VARIANCE> 13
 7.249349e+00 6.607751e+01 2.250994e+01 5.078930e+01 7.548931e+01 4.949006e+01 3.249093e+01 3.492431e+01 5.773150e+01 8.285502e+01 3.940922e+01 3.412649e+01 4.129578e+01
<GCONST> 7.176343e+01
~s "ST_ah_4_7"
<MEAN> 13
 3.495223e+00 -1.366611e+01 -8.511805e+00 -1.310611e+01 1.174421e+01 -1.046883e+01 9.857526e+00 -8.830401e+00 -1.510432e+00 6.475513e+00 -7.518007e+00 -1.031551e+01 7.036950e+01
<VARIANCE> 13
 6.207150e+00 1.467643e+01 1.837859e+01 2.159567e+01 9.145969e+01 1.117527e+02 7.342001e+01 2.609708e+01 4.930503e+01 3.938907e+01 4.842893e+01 2.574233e+01 8.093951e+00
<GCONST> 6.796910e+01
~s "ST_eh_2_1"
<MEAN> 13
 1.519681e+00 3.552878e-01 5.015893e+00 5.748104e+00 -7.280339e-01 -1.349207e+01 -9.378982e+00 3.412764e+00 -1.826313e+00 -1.822252e+00 -9.443583e+00 2.040328e+00 5.584842e+01
<VARIANCE> 13
 9.728457e+00 2.143930e+02 1.248091e+01 1.117480e+02 6.877484e+01 5.918655e+01 2.273115e+01 6.089991e+01 6.235871e+01 5.062093e+01 4.872889e+01 5.374227e+01 1.485027e+02
<GCONST> 7.524857e+01
~s "ST_eh_3_1"
<MEAN> 13
 3.155028e+00 -1.288266e+01 4.239543e+00 -5.868442e+00 -8.307810e+00 -1.399599e+01 -1.357213e+01 1.739845e+00 -2.017111e+00 3.662777e+00 -1.208773e+00 -7.609563e+00 7.075802e+01
<VARIANCE> 13
 3.812043e+00 7.360666e+00 3.923690e+01 4.501991e+01 9.569148e+01 7.271053e+01 5.599643e+01 1.677352e+02 4.099562e+01 1.069831e+01 3.811516e+01 9.575771e+01 3.692606e+00
<GCONST> 6.829106e+01
~s "ST_eh_4_1"
<MEAN> 13
 6.126526e+00 -5.795516e+00 9.872220e-01 -9.397463e+00 5.067473e+00 -7.985781e+00 -1.433455e+01 -7.257905e+00 -6.558955e+00 1.264237e+01 -5.833644e+00 -2.679281e+00 6.468299e+01
<VARIANCE> 13
 7.949550e+00 6.666355e+01 1.574920e+01 6.318550e+01 1.094586e+02 1.021547e+02 1.417752e+01 6.805429e+01 3.901915e+01 2.952144e+01 8.350222e+01 3.277509e+01 2.377480e+01
<GCONST> 7.139438e+01
~s "ST_p_2_1"
<MEAN> 13
 -1.386530e+01 6.000381e+00 -9.543559e+00 8.194895e+00 -3.940529e+00 2.170006e+00 -1.040204e+01 -5.076266e+00 -4.145404e+00 -6.808530e+00 -4.206938e+00 -4.749557e+00 3.361980e+01
<VARIANCE> 13
 8.013927e+00 1.050752e+01 1.519619e+01 1.436996e+01 2.585749e+01 2.234118e+01 3.046192e+01 2.754704e+01 2.260383e+01 2.490371e+01 1.991309e+01 1.325114e+01 2.170349e+01
<GCONST> 6.178933e+01
~s "ST_p_2_2"
<MEAN> 13
 -8.608388e+00 3.631963e+00 -7.679137e+00 1.734906e+00 -2.033869e+00 1.926675e+00 -8.316286e+00 -4.410985e+00 -3.431531e+00 -9.312282e-01 -3.519737e+00 -4.693505e+00 4.137475e+01
<VARIANCE> 13
 8.184761e+01 5.687686e+01 4.195265e+01 4.359653e+01 4.500386e+01 3.628470e+01 5.008595e+01 7.701760e+01 6.845584e+01 3.495267e+01 3.904531e+01 2.592566e+01 1.320374e+02
<GCONST> 7.508882e+01
~s "ST_p_3_1"
<MEAN> 13
 -7.682198e+00 -3.147776e+00 -3.191267e+00 1.757820e-01 3.642384e+00 -6.110678e-01 9.375122e-01 -1.932204e+00 1.455763e+00 -1.336519e+00 1.365216e+00 -1.338190e+00 5.604169e+01
<VARIANCE> 13
 2.002242e+01 1.660115e+01 4.563249e+01 1.924412e+01 3.759502e+01 2.277094e+01 2.810971e+01 2.546236e+01 2.013136e+01 1.923905e+01 1.811734e+01 1.625540e+01 4.562410e+01
<GCONST> 6.526718e+01
~s "ST_p_3_2"
<MEAN> 13
 -3.613100e+00 2.810746e-01 -4.608164e+00 -8.039069e-01 9.052549e-02 7.142361e-01 -1.005700e+00 -3.379210e+00 -7.477225e-02 -7.291651e-01 -9.032946e-01 -3.782133e+00 5.375658e+01
<VARIANCE> 13
 2.620997e+01 2.146951e+01 3.555409e+01 2.197095e+01 2.156426e+01 2.695690e+01 2.324341e+01 3.703706e+01 3.564866e+01 2.348272e+01 1.886293e+01 1.843691e+01 3.166632e+01
<GCONST> 6.604596e+01
~s "ST_p_4_1"
<MEAN> 13
 3.320967e+00 -7.568093e+00 -1.476746e+01 -5.750689e+00 -2.390092e+00 5.845699e-01 -2.628814e+00 -6.753085e+00 -1.859391e+00 4.352603e+00 -2.482472e-01 -4.872719e+00 5.979678e+01
<VARIANCE> 13
 3.012442e+01 2.508028e+01 1.009120e+02 7.151907e+01 5.138566e+01 8.770985e+01 4.858056e+01 5.617785e+01 6.037542e+01 7.359880e+01 6.203583e+01 3.080287e+01 6.437407e+01
<GCONST> 7.584842e+01
~s "ST_ax_2_1"
<MEAN> 13
 2.516020e+00 -7.880375e+00 1.298507e+00 -7.447125e+00 -1.654181e+00 -7.649053e+00 -8.406363e+00 -1.975294e+00 -4.151601e+00 5.641665e+00 -3.032071e+00 -3.470114e+00 6.456190e+01
<VARIANCE> 13
 3.516379e+01 4.243483e+01 1.519844e+02 5.198529e+01 9.409190e+01 1.165889e+02 4.203974e+01 1.188153e+02 1.323978e+02 6.131293e+01 6.655240e+01 3.335423e+01 6.785069e+01
<GCONST> 7.891853e+01
~s "ST_ih_2_1"
<MEAN> 13
 -3.121750e+00 -3.028139e+00 1.977233e+01 -1.271807e+01 -6.802948e+00 -9.714866e+00 -1.285982e+00 -9.012191e+00 -1.261744e+01 3.198383e+00 -4.466292e+00 -9.119201e-01 6.515505e+01
<VARIANCE> 13
 1.774524e+01 5.758411e+01 1.246831e+02 9.945674e+01 6.450648e+01 7.848399e+01 8.446248e+01 4.322469e+01 6.774682e+01 4.807806e+01 9.361825e+01 3.837280e+01 3.249945e+01
<GCONST> 7.673605e+01
~s "ST_ih_2_2"
<MEAN> 13
 8.668216e+00 1.224203e+01 1.570903e+00 -6.104431e+00 -1.260943e+01 6.435061e+00 -2.653733e+00 -1.321781e+01 -1.856845e+01 -1.198232e+00 -4.004499e+00 -1.178240e+00 5.169883e+01
<VARIANCE> 13
 3.517184e+01 1.008386e+02 2.629628e+02 8.204348e+01 4.552019e+01 8.082739e+01 5.108442e+01 3.219894e+01 2.132867e+01 9.957375e+01 4.841822e+01 3.134918e+01 4.013340e+01
<GCONST> 7.633954e+01
~s "ST_ax_3_1"
<MEAN> 13
 3.551610e+00 -6.594738e+00 -9.642737e+00 -1.006996e+01 -3.421258e+00 8.032892e+00 -7.065487e+00 -1.090217e+01 -7.676921e+00 4.136662e+00 2.040540e+00 -6.700438e+00 6.019855e+01
<VARIANCE> 13
 6.129493e+01 9.288956e+01 7.077753e+01 1.117719e+02 1.286633e+02 1.182259e+02 6.239105e+01 7.755711e+01 1.490574e+02 7.887402e+01 6.103647e+01 6.358000e+01 7.565333e+01
<GCONST> 8.159187e+01
~s "ST_ax_3_2"
<MEAN> 13
 4.466953e+00 -1.392521e+01 -5.254757e+00 -1.000520e+01 -1.105014e+00 -5.605636e+00 -9.847539e+00 -7.280632e+00 1.753310e+00 9.729351e+00 -3.480239e+00 -8.152369e+00 7.116405e+01
<VARIANCE> 13
 1.012675e+01 2.157549e+01 2.417784e+01 5.121102e+01 7.595721e+01 7.192703e+01 6.003530e+01 7.721097e+01 1.311220e+02 8.586191e+01 5.420602e+01 4.479193e+01 9.022676e+00
<GCONST> 7.277126e+01
~s "ST_ih_3_1"
<MEAN> 13
 -2.312421e+00 -7.241130e+00 1.505152e+01 -7.507178e-01 -2.037008e+01 -8.914240e+00 -9.617165e+00 -6.741586e+00 -9.559475e+00 -4.118397e+00 9.097194e+00 -8.563769e+00 6.574257e+01
<VARIANCE> 13
 7.637831e+00 6.498224e+01 4.669537e+01 2.329480e+01 4.880643e+01 4.909688e+01 4.395564e+01 5.950893e+01 7.018357e+01 5.713639e+01 5.897299e+01 5.551756e+01 2.690356e+01
<GCONST> 7.242506e+01
~s "ST_ax_4_1"
<MEAN> 13
 1.871401e+00 -6.190038e+00 -5.102133e+00 -6.180979e+00 2.191834e+00 -5.878990e+00 -8.306022e+00 -8.692939e+00 1.228525e+00 5.137656e+00 -5.862154e+00 -4.551669e+00 6.519975e+01
<VARIANCE> 13
 4.068928e+01 5.912371e+01 4.863552e+01 5.991288e+01 1.523583e+02 1.318526e+02 4.927344e+01 9.254056e+01 1.381783e+02 5.824759e+01 6.920487e+01 8.126839e+01 5.872852e+01
<GCONST> 7.968919e+01
~s "ST_ih_4_1"
<MEAN> 13
 -8.998033e-01 7.851114e-01 8.974850e+00 -5.079090e-01 -9.612759e+00 -8.910789e+00 -3.710625e+00 -5.214905e+00 -6.479601e+00 -1.168953e+00 -3.118084e+00 -4.698806e+00 5.783449e+01
<VARIANCE> 13
 9.236910e+00 1.180285e+02 6.823932e+01 4.163095e+01 5.713245e+01 6.150520e+01 7.348055e+01 6.215527e+01 7.366100e+01 3.628821e+01 6.350471e+01 6.382639e+01 6.700124e+01
<GCONST> 7.583250e+01
~h "t+ah"
<BEGINHMM>
<NUMSTATES> 5
<STATE> 2
~s "ST_t_2_1"
<STATE> 3
~s "ST_t_3_1"
<STATE> 4
~s "ST_t_4_1"
~t "T_t"
<ENDHMM>
~h "t+ih"
<BEGINHMM>
<NUMSTATES> 5
<STATE> 2
~s "ST_t_2_1"
<STATE> 3
~s "ST_t_3_1"
<STATE> 4
~s "ST_t_4_2"
~t "T_t"
<ENDHMM>
~h "d-eh+l"
<BEGINHMM>
<NUMSTATES> 5
<STATE> 2
~s "ST_eh_2_1"
<STATE> 3
~s "ST_eh_3_1"
<STATE> 4
~s "ST_eh_4_1"
~t "T_eh"
<ENDHMM>
~h "t-uw"
<BEGINHMM>
<NUMSTATES> 5
<STATE> 2
~s "ST_uw_2_1"
<STATE> 3
~s "ST_uw_3_1"
<STATE> 4
~s "ST_uw_4_1"
~t "T_uw"
<ENDHMM>
~h "sp"
<BEGINHMM>
<NUMSTATES> 5
<STATE> 2
~s "ST_sil_3_1"
<STATE> 3
<MEAN> 13
 -3.677093e+00 -2.072336e+00 -3.918072e+00 5.578532e-01 6.009908e-02 -1.113079e+00 -3.744469e+00 -3.390785e+00 -5.104433e-01 -1.169706e+00 -3.527900e+00 -3.794133e+00 5.426292e+01
<VARIANCE> 13
 5.082156e+01 8.052355e+01 6.350075e+01 7.698914e+01 6.195905e+01 7.391447e+01 4.689634e+01 5.069823e+01 5.415272e+01 3.989954e+01 5.245694e+01 3.690334e+01 1.295396e+02
<GCONST> 7.701765e+01
<STATE> 4
<MEAN> 13
 -7.038703e+00 -8.518623e-01 -4.925187e+00 1.483890e+00 -4.067802e-01 -4.285065e-01 -3.822521e+00 -2.618501e+00 -5.253012e-01 -1.072167e+00 -2.510378e+00 -2.800149e+00 5.023087e+01
<VARIANCE> 13
 9.399109e+01 8.609927e+01 6.853268e+01 8.230862e+01 7.578056e+01 7.796422e+01 5.765779e+01 6.412084e+01 5.834209e+01 4.639295e+01 5.074880e+01 3.803548e+01 2.074309e+02
<GCONST> 7.923196e+01
<TRANSP> 5
 0.000000e+00 8.447057e-02 9.155294e-01 0.000000e+00 0.000000e+00
 0.000000e+00 8.910609e-01 1.089390e-01 0.000000e+00 0.000000e+00
 0.000000e+00 0.000000e+00 2.179237e-01 7.820763e-01 0.000000e+00
 0.000000e+00 0.000000e+00 0.000000e+00 2.119330e-01 7.880670e-01
 0.000000e+00 0.000000e+00 0.000000e+00 0.000000e+00 0.000000e+00
<ENDHMM>
~h "uh-k+s"
<BEGINHMM>
<NUMSTATES> 5
<STATE> 2
~s "ST_k_2_1"
<STATE> 3
~s "ST_k_3_1"
<STATE> 4
~s "ST_k_4_2"
~t "T_k"
<ENDHMM>
~h "l-uh+k"
<BEGINHMM>
<NUMSTATES> 5
<STATE> 2
~s "ST_uh_2_1"
<STATE> 3
~s "ST_uh_3_1"
<STATE> 4
~s "ST_uh_4_1"
~t "T_uh"
<ENDHMM>
~h "ax+m"
<BEGINHMM>
<NUMSTATES> 5
<STATE> 2
~s "ST_ax_2_1"
<STATE> 3
~s "ST_ax_3_1"
<STATE> 4
~s "ST_ax_4_1"
~t "T_ax"
<ENDHMM>
~h "uh-n+t"
<BEGINHMM>
<NUMSTATES> 5
<STATE> 2
~s "ST_n_2_1"
<STATE> 3
~s "ST_n_3_2"
<STATE> 4
~s "ST_n_4_2"
~t "T_n"
<ENDHMM>
~h "oh-r+ah"
<BEGINHMM>
<NUMSTATES> 5
<STATE> 2
~s "ST_r_2_1"
<STATE> 3
~s "ST_r_3_2"
<STATE> 4
~s "ST_r_4_2"
~t "T_r"
<ENDHMM>
~h "d+ax"
<BEGINHMM>
<NUMSTATES> 5
<STATE> 2
~s "ST_d_2_1"
<STATE> 3
~s "ST_d_3_1"
<STATE> 4
~s "ST_d_4_1"
~t "T_d"
<ENDHMM>
~h "d-ah"
<BEGINHMM>
<NUMSTATES> 5
<STATE> 2
~s "ST_ah_2_2"
<STATE> 3
~s "ST_ah_3_1"
<STATE> 4
~s "ST_ah_4_3"
~t "T_ah"
<ENDHMM>
~h "m-ih+s"
<BEGINHMM>
<NUMSTATES> 5
<STATE> 2
~s "ST_ih_2_1"
<STATE> 3
~s "ST_ih_3_1"
<STATE> 4
~s "ST_ih_4_1"
~t "T_ih"
<ENDHMM>
~h "k-ah+m"
<BEGINHMM>
<NUMSTATES> 5
<STATE> 2
~s "ST_ah_2_5"
<STATE> 3
~s "ST_ah_3_5"
<STATE> 4
~s "ST_ah_4_7"
~t "T_ah"
<ENDHMM>
~h "ax-n+ih"
<BEGINHMM>
<NUMSTATES> 5
<STATE> 2
~s "ST_n_2_1"
<STATE> 3
~s "ST_n_3_1"
<STATE> 4
~s "ST_n_4_1"
~t "T_n"
<ENDHMM>
~h "m-ah+l"
<BEGINHMM>
<NUMSTATES> 5
<STATE> 2
~s "ST_ah_2_1"
<STATE> 3
~s "ST_ah_3_6"
<STATE> 4
~s "ST_ah_4_5"
~t "T_ah"
<ENDHMM>
~h "m-ah+r"
<BEGINHMM>
<NUMSTATES> 5
<STATE> 2
~s "ST_ah_2_1"
<STATE> 3
~s "ST_ah_3_3"
<STATE> 4
~s "ST_ah_4_4"
~t "T_ah"
<ENDHMM>
~h "m-ah+t"
<BEGINHMM>
<NUMSTATES> 5
<STATE> 2
~s "ST_ah_2_1"
<STATE> 3
~s "ST_ah_3_4"
<STATE> 4
~s "ST_ah_4_1"
~t "T_ah"
<ENDHMM>
~h "m+ah"
<BEGINHMM>
<NUMSTATES> 5
<STATE> 2
~s "ST_m_2_2"
<STATE> 3
~s "ST_m_3_2"
<STATE> 4
~s "ST_m_4_2"
~t "T_m"
<ENDHMM>
~h "ah-p+ah"
<BEGINHMM>
<NUMSTATES> 5
<STATE> 2
~s "ST_p_2_2"
<STATE> 3
~s "ST_p_3_2"
<STATE> 4
~s "ST_p_4_1"
~t "T_p"
<ENDHMM>
~h "s-ah+b"
<BEGINHMM>
<NUMSTATES> 5
<STATE> 2
~s "ST_ah_2_5"
<STATE> 3
~s "ST_ah_3_4"
<STATE> 4
~s "ST_ah_4_1"
~t "T_ah"
<ENDHMM>
~h "s-ah+n"
<BEGINHMM>
<NUMSTATES> 5
<STATE> 2
~s "ST_ah_2_6"
<STATE> 3
~s "ST_ah_3_2"
<STATE> 4
~s "ST_ah_4_3"
~t "T_ah"
<ENDHMM>
~h "s-ah+t"
<BEGINHMM>
<NUMSTATES> 5
<STATE> 2
~s "ST_ah_2_6"
<STATE> 3
~s "ST_ah_3_4"
<STATE> 4
~s "ST_ah_4_1"
~t "T_ah"
<ENDHMM>
~h "hh-ah+r"
<BEGINHMM>
<NUMSTATES> 5
<STATE> 2
~s "ST_ah_2_8"
<STATE> 3
~s "ST_ah_3_8"
<STATE> 4
~s "ST_ah_4_3"
~t "T_ah"
<ENDHMM>
~h "s-ax+l"
<BEGINHMM>
<NUMSTATES> 5
<STATE> 2
~s "ST_ax_2_1"
<STATE> 3
~s "ST_ax_3_2"
<STATE> 4
~s "ST_ax_4_1"
~t "T_ax"
<ENDHMM>
~h "w-iy+t"
<BEGINHMM>
<NUMSTATES> 5
<STATE> 2
~s "ST_iy_2_1"
<STATE> 3
~s "ST_iy_3_1"
<STATE> 4
~s "ST_iy_4_1"
~t "T_iy"
<ENDHMM>
~h "ng-g+uw"
<BEGINHMM>
<NUMSTATES> 5
<STATE> 2
~s "ST_g_2_1"
<STATE> 3
~s "ST_g_3_1"
<STATE> 4
~s "ST_g_4_1"
~t "T_g"
<ENDHMM>
~h "uh+n"
<BEGINHMM>
<NUMSTATES> 5
<STATE> 2
~s "ST_uh_2_2"
<STATE> 3
~s "ST_uh_3_1"
<STATE> 4
~s "ST_uh_4_1"
~t "T_uh"
<ENDHMM>
~h "uh-k"
<BEGINHMM>
<NUMSTATES> 5
<STATE> 2
~s "ST_k_2_1"
<STATE> 3
~s "ST_k_3_1"
<STATE> 4
~s "ST_k_4_1"
~t "T_k"
<ENDHMM>
~h "ax-ng+ah"
<BEGINHMM>
<NUMSTATES> 5
<STATE> 2
~s "ST_ng_2_1"
<STATE> 3
~s "ST_ng_3_1"
<STATE> 4
~s "ST_ng_4_2"
~t "T_ng"
<ENDHMM>
~h "ah-r+ah"
<BEGINHMM>
<NUMSTATES> 5
<STATE> 2
~s "ST_r_2_2"
<STATE> 3
~s "ST_r_3_2"
<STATE> 4
~s "ST_r_4_2"
~t "T_r"
<ENDHMM>
~h "r-ah+ng"
<BEGINHMM>
<NUMSTATES> 5
<STATE> 2
~s "ST_ah_2_1"
<STATE> 3
~s "ST_ah_3_1"
<STATE> 4
~s "ST_ah_4_6"
~t "T_ah"
<ENDHMM>
~h "k-s"
<BEGINHMM>
<NUMSTATES> 5
<STATE> 2
~s "ST_s_2_1"
<STATE> 3
~s "ST_s_3_1"
<STATE> 4
~s "ST_s_4_1"
~t "T_s"
<ENDHMM>
~h "d-uw+ah"
<BEGINHMM>
<NUMSTATES> 5
<STATE> 2
~s "ST_uw_2_2"
<STATE> 3
~s "ST_uw_3_1"
<STATE> 4
~s "ST_uw_4_2"
~t "T_uw"
<ENDHMM>
~h "sil"
<BEGINHMM>
<NUMSTATES> 5
<STATE> 2
<MEAN> 13
 -1.447565e+01 5.517827e+00 -7.768468e+00 8.792812e+00 -2.231602e+00 5.350763e+00 -6.234643e+00 -1.888935e+00 -2.438799e+00 -5.812473e+00 -3.565120e+00 -3.782059e+00 3.346333e+01
<VARIANCE> 13
 2.512860e+01 3.372370e+01 4.703661e+01 3.562550e+01 3.909652e+01 4.633941e+01 5.024520e+01 4.769015e+01 3.819491e+01 3.254101e+01 3.300791e+01 2.491742e+01 4.696769e+01
<GCONST> 7.102924e+01
<STATE> 3
~s "silst"
<STATE> 4
<MEAN> 13
 -2.567124e+01 2.814733e+00 -1.003752e+01 4.551002e+00 -7.423611e+00 5.257237e+00 -3.420323e+00 1.481990e+00 1.541289e+00 -1.040006e+00 1.276151e+00 -4.383568e-01 2.408808e+01
<VARIANCE> 13
 1.506993e+01 3.100177e+00 5.968450e+00 5.528779e+00 1.048966e+01 8.375614e+00 1.045314e+01 1.116100e+01 1.160358e+01 1.026170e+01 9.505125e+00 8.099640e+00 2.714443e+01
<GCONST> 5.289261e+01
<TRANSP> 5
 0.000000e+00 1.000000e+00 0.000000e+00 0.000000e+00 0.000000e+00
 0.000000e+00 8.560683e-01 3.662340e-02 1.073083e-01 0.000000e+00
 0.000000e+00 0.000000e+00 9.535152e-01 4.648478e-02 0.000000e+00
 0.000000e+00 7.278576e-03 0.000000e+00 9.217115e-01 7.100990e-02
 0.000000e+00 0.000000e+00 0.000000e+00 0.000000e+00 0.000000e+00
<ENDHMM>
~h "g-ah"
<BEGINHMM>
<NUMSTATES> 5
<STATE> 2
~s "ST_ah_2_2"
<STATE> 3
~s "ST_ah_3_1"
<STATE> 4
~s "ST_ah_4_1"
~t "T_ah"
<ENDHMM>
~h "ah-b+uw"
<BEGINHMM>
<NUMSTATES> 5
<STATE> 2
~s "ST_b_2_1"
<STATE> 3
~s "ST_b_3_1"
<STATE> 4
~s "ST_b_4_1"
~t "T_b"
<ENDHMM>
~h "p+ah"
<BEGINHMM>
<NUMSTATES> 5
<STATE> 2
~s "ST_p_2_1"
<STATE> 3
~s "ST_p_3_1"
<STATE> 4
~s "ST_p_4_1"
~t "T_p"
<ENDHMM>
~h "p+ax"
<BEGINHMM>
<NUMSTATES> 5
<STATE> 2
~s "ST_p_2_2"
<STATE> 3
~s "ST_p_3_1"
<STATE> 4
~s "ST_p_4_1"
~t "T_p"
<ENDHMM>
~h "p-ah"
<BEGINHMM>
<NUMSTATES> 5
<STATE> 2
~s "ST_ah_2_5"
<STATE> 3
~s "ST_ah_3_7"
<STATE> 4
~s "ST_ah_4_1"
~t "T_ah"
<ENDHMM>
~h "d-ah+r"
<BEGINHMM>
<NUMSTATES> 5
<STATE> 2
~s "ST_ah_2_2"
<STATE> 3
~s "ST_ah_3_2"
<STATE> 4
~s "ST_ah_4_3"
~t "T_ah"
<ENDHMM>
~h "uw-ah"
<BEGINHMM>
<NUMSTATES> 5
<STATE> 2
~s "ST_ah_2_3"
<STATE> 3
~s "ST_ah_3_6"
<STATE> 4
~s "ST_ah_4_1"
~t "T_ah"
<ENDHMM>
~h "s-w+iy"
<BEGINHMM>
<NUMSTATES> 5
<STATE> 2
~s "ST_w_2_1"
<STATE> 3
~s "ST_w_3_1"
<STATE> 4
~s "ST_w_4_1"
~t "T_w"
<ENDHMM>
~h "oh+r"
<BEGINHMM>
<NUMSTATES> 5
<STATE> 2
~s "ST_oh_2_1"
<STATE> 3
~s "ST_oh_3_1"
<STATE> 4
~s "ST_oh_4_1"
~t "T_oh"
<ENDHMM>
~h "oh-r"
<BEGINHMM>
<NUMSTATES> 5
<STATE> 2
~s "ST_r_2_1"
<STATE> 3
~s "ST_r_3_1"
<STATE> 4
~s "ST_r_4_1"
~t "T_r"
<ENDHMM>
~h "l-ah+s"
<BEGINHMM>
<NUMSTATES> 5
<STATE> 2
~s "ST_ah_2_1"
<STATE> 3
~s "ST_ah_3_2"
<STATE> 4
~s "ST_ah_4_3"
~t "T_ah"
<ENDHMM>
~h "ah-t+uw"
<BEGINHMM>
<NUMSTATES> 5
<STATE> 2
~s "ST_t_2_2"
<STATE> 3
~s "ST_t_3_1"
<STATE> 4
~s "ST_t_4_2"
~t "T_t"
<ENDHMM>
~h "ah-l+ah"
<BEGINHMM>
<NUMSTATES> 5
<STATE> 2
~s "ST_l_2_1"
<STATE> 3
~s "ST_l_3_1"
<STATE> 4
~s "ST_l_4_1"
~t "T_l"
<ENDHMM>
~h "p-ah+d"
<BEGINHMM>
<NUMSTATES> 5
<STATE> 2
~s "ST_ah_2_7"
<STATE> 3
~s "ST_ah_3_4"
<STATE> 4
~s "ST_ah_4_1"
~t "T_ah"
<ENDHMM>
~h "p-ah+n"
<BEGINHMM>
<NUMSTATES> 5
<STATE> 2
~s "ST_ah_2_7"
<STATE> 3
~s "ST_ah_3_3"
<STATE> 4
~s "ST_ah_4_3"
~t "T_ah"
<ENDHMM>
~h "n-t+uh"
<BEGINHMM>
<NUMSTATES> 5
<STATE> 2
~s "ST_t_2_1"
<STATE> 3
~s "ST_t_3_2"
<STATE> 4
~s "ST_t_4_2"
~t "T_t"
<ENDHMM>
~h "ah-d+ah"
<BEGINHMM>
<NUMSTATES> 5
<STATE> 2
~s "ST_d_2_2"
<STATE> 3
~s "ST_d_3_1"
<STATE> 4
~s "ST_d_4_2"
~t "T_d"
<ENDHMM>
~h "ax-s+ah"
<BEGINHMM>
<NUMSTATES> 5
<STATE> 2
~s "ST_s_2_2"
<STATE> 3
~s "ST_s_3_1"
<STATE> 4
~s "ST_s_4_1"
~t "T_s"
<ENDHMM>
~h "hh+ah"
<BEGINHMM>
<NUMSTATES> 5
<STATE> 2
~s "ST_hh_2_1"
<STATE> 3
~s "ST_hh_3_1"
<STATE> 4
~s "ST_hh_4_1"
~t "T_hh"
<ENDHMM>
~h "ah-n+d"
<BEGINHMM>
<NUMSTATES> 5
<STATE> 2
~s "ST_n_2_2"
<STATE> 3
~s "ST_n_3_1"
<STATE> 4
~s "ST_n_4_1"
~t "T_n"
<ENDHMM>
~h "m-ih+ng"
<BEGINHMM>
<NUMSTATES> 5
<STATE> 2
~s "ST_ih_2_2"
<STATE> 3
~s "ST_ih_3_1"
<STATE> 4
~s "ST_ih_4_1"
~t "T_ih"
<ENDHMM>
~h "j+uh"
<BEGINHMM>
<NUMSTATES> 5
<STATE> 2
~s "ST_j_2_1"
<STATE> 3
~s "ST_j_3_1"
<STATE> 4
~s "ST_j_4_1"
~t "T_j"
<ENDHMM>
~h "ah-m+ah"
<BEGINHMM>
<NUMSTATES> 5
<STATE> 2
~s "ST_m_2_3"
<STATE> 3
~s "ST_m_3_2"
<STATE> 4
~s "ST_m_4_2"
~t "T_m"
<ENDHMM>
~h "s-ah"
<BEGINHMM>
<NUMSTATES> 5
<STATE> 2
~s "ST_ah_2_5"
<STATE> 3
~s "ST_ah_3_1"
<STATE> 4
~s "ST_ah_4_1"
~t "T_ah"
<ENDHMM>
~h "ah-ng"
<BEGINHMM>
<NUMSTATES> 5
<STATE> 2
~s "ST_ng_2_1"
<STATE> 3
~s "ST_ng_3_1"
<STATE> 4
~s "ST_ng_4_1"
~t "T_ng"
<ENDHMM>
~h "ay-ah"
<BEGINHMM>
<NUMSTATES> 5
<STATE> 2
~s "ST_ah_2_4"
<STATE> 3
~s "ST_ah_3_7"
<STATE> 4
~s "ST_ah_4_2"
~t "T_ah"
<ENDHMM>
~h "s-ay+ah"
<BEGINHMM>
<NUMSTATES> 5
<STATE> 2
~s "ST_ay_2_1"
<STATE> 3
~s "ST_ay_3_1"
<STATE> 4
~s "ST_ay_4_1"
~t "T_ay"
<ENDHMM>
~h "ah-m"
<BEGINHMM>
<NUMSTATES> 5
<STATE> 2
~s "ST_m_2_1"
<STATE> 3
~s "ST_m_3_1"
<STATE> 4
~s "ST_m_4_1"
~t "T_m"
<ENDHMM>
~h "ah-r"
<BEGINHMM>
<NUMSTATES> 5
<STATE> 2
~s "ST_r_2_2"
<STATE> 3
~s "ST_r_3_1"
<STATE> 4
~s "ST_r_4_1"
~t "T_r"
<ENDHMM>
~h "ah-t"
<BEGINHMM>
<NUMSTATES> 5
<STATE> 2
~s "ST_t_2_2"
<STATE> 3
~s "ST_t_3_1"
<STATE> 4
~s "ST_t_4_1"
~t "T_t"
<ENDHMM>
