~o
<STREAMINFO> 1 13
<VECSIZE> 13<NULLD><MFCC_0><DIAGC>
~h "DUA"
<BEGINHMM>
<NUMSTATES> 5
<STATE> 2
<MEAN> 13
 3.496361e+000 2.575152e-001 -3.158167e+000 -3.570274e-001 -3.461436e+000 -4.316514e+000 -1.394625e+001 -2.021479e+001 -3.178896e+000 -8.557876e-001 -3.379730e+000 -6.519783e+000 6.192990e+001
<VARIANCE> 13
 8.615168e+000 4.135289e+001 1.747754e+001 1.045948e+001 3.800306e+001 1.335610e+001 2.297236e+001 3.860648e+001 1.638876e+001 2.361511e+001 1.856624e+001 1.801651e+001 2.822591e+001
<GCONST> 6.310520e+001
<STATE> 3
<MEAN> 13
 6.400044e+000 9.756482e-002 -5.421562e+000 -1.731494e+001 -1.514845e+001 -9.391858e-001 -1.602422e+001 -8.001232e+000 -1.100693e+001 -5.545478e+000 3.693209e+000 -9.698074e+000 6.905180e+001
<VARIANCE> 13
 5.045616e-001 1.454317e+001 8.811494e+000 1.203375e+001 7.944898e+000 8.624777e+000 8.463053e+000 4.285381e+001 1.361500e+001 1.886525e+001 1.119350e+001 1.067217e+001 5.009155e+000
<GCONST> 5.261264e+001
<STATE> 4
<MEAN> 13
 2.719460e+000 -1.591178e+001 -1.412072e+001 -1.150650e+001 -7.601277e+000 1.602898e+000 -1.418743e+001 1.345157e+000 -1.470464e-001 6.629859e+000 -5.682666e+000 -2.202549e+001 7.629659e+001
<VARIANCE> 13
 3.590448e+000 1.358157e+001 8.522707e+000 1.901218e+001 1.425563e+001 2.142389e+001 2.607743e+001 1.372741e+001 2.506346e+001 1.250783e+001 2.890647e+001 2.755026e+001 2.199535e+001
<GCONST> 5.998801e+001
<TRANSP> 5
 0.000000e+000 1.000000e+000 0.000000e+000 0.000000e+000 0.000000e+000
 0.000000e+000 8.301887e-001 1.698113e-001 0.000000e+000 0.000000e+000
 0.000000e+000 0.000000e+000 9.181818e-001 8.181818e-002 0.000000e+000
 0.000000e+000 0.000000e+000 0.000000e+000 9.560975e-001 4.390244e-002
 0.000000e+000 0.000000e+000 0.000000e+000 0.000000e+000 0.000000e+000
<ENDHMM>
