~o
<STREAMINFO> 1 13
<VECSIZE> 13<NULLD><MFCC_0><DIAGC>
~h "KAMAR"
<BEGINHMM>
<NUMSTATES> 5
<STATE> 2
<MEAN> 13
 1.121305e+000 -1.302735e+001 -1.394608e+001 -2.807644e+000 -3.328568e-001 -2.497513e+000 -2.443945e+000 -1.000006e+000 -2.716692e+000 7.638063e+000 -6.622396e+000 -1.439044e+001 7.160828e+001
<VARIANCE> 13
 3.596060e+001 2.837931e+001 1.262791e+001 3.324480e+001 6.824271e+001 3.260030e+001 3.545637e+001 2.293977e+001 4.517913e+001 1.811600e+001 2.523569e+001 4.655658e+001 2.363669e+001
<GCONST> 6.820803e+001
<STATE> 3
<MEAN> 13
 3.154833e+000 -5.061951e-001 -1.199416e+000 2.619136e+000 2.249596e+000 -5.444812e+000 -3.076625e+000 -1.078235e+001 -9.934522e+000 -3.441605e-001 -4.291794e+000 -7.164494e+000 6.195395e+001
<VARIANCE> 13
 3.150092e+000 3.064247e+001 1.387090e+001 1.844143e+001 1.388579e+001 1.261878e+001 9.890474e+000 1.866618e+001 3.039373e+001 1.341428e+001 1.370860e+001 1.474336e+001 9.278794e+000
<GCONST> 5.793806e+001
<STATE> 4
<MEAN> 13
 3.366233e+000 -1.235372e+001 -9.122560e+000 -9.076060e-001 -3.665169e+000 -6.050508e+000 -5.235837e+000 7.330439e-001 4.579255e-001 7.487745e+000 -9.764795e+000 -1.298562e+001 7.060256e+001
<VARIANCE> 13
 1.205849e+001 4.617007e+001 1.398040e+001 3.068495e+001 4.633154e+001 3.639391e+001 2.183727e+001 2.730750e+001 2.354840e+001 2.468416e+001 4.447898e+001 2.932376e+001 2.094092e+001
<GCONST> 6.667728e+001
<TRANSP> 5
 0.000000e+000 1.000000e+000 0.000000e+000 0.000000e+000 0.000000e+000
 0.000000e+000 9.242902e-001 7.570978e-002 0.000000e+000 0.000000e+000
 0.000000e+000 0.000000e+000 8.562874e-001 1.437126e-001 0.000000e+000
 0.000000e+000 0.000000e+000 0.000000e+000 9.520000e-001 4.800000e-002
 0.000000e+000 0.000000e+000 0.000000e+000 0.000000e+000 0.000000e+000
<ENDHMM>
