~o
<STREAMINFO> 1 13
<VECSIZE> 13<NULLD><MFCC_0><DIAGC>
~h "TIGA"
<BEGINHMM>
<NUMSTATES> 5
<STATE> 2
<MEAN> 13
 -2.841032e+000 -1.083555e+000 1.074018e+001 4.800179e+000 -1.581542e+001 -1.099312e+001 -7.086193e+000 -4.701056e+000 -7.963370e+000 -2.319810e+000 4.382603e+000 -1.262981e+001 6.429597e+001
<VARIANCE> 13
 5.771484e+000 2.470077e+001 4.868729e+001 1.138988e+001 6.301723e+001 1.973525e+001 6.931544e+001 1.147719e+001 3.990273e+001 1.436708e+001 8.685340e+001 3.038085e+001 3.040112e+001
<GCONST> 6.661905e+001
<STATE> 3
<MEAN> 13
 3.852714e-001 -1.391194e+001 -1.997904e+000 -2.216637e+000 -2.117366e+001 -1.863941e+001 -1.537827e+001 8.205833e+000 1.492421e+000 2.068643e-001 4.934161e-001 -1.927142e+001 7.651733e+001
<VARIANCE> 13
 1.836380e+000 5.511667e+000 2.345787e+001 9.609324e+000 1.730720e+001 1.408525e+001 1.207301e+001 1.494399e+001 3.855053e+001 9.601936e+000 3.666432e+001 1.948227e+001 2.694814e+000
<GCONST> 5.579311e+001
<STATE> 4
<MEAN> 13
 2.024960e+000 -1.701637e+001 -1.248673e+001 -7.199837e+000 -9.502462e+000 -3.195297e+000 -1.376485e+001 4.844788e+000 3.374385e+000 4.022544e+000 -8.927005e+000 -2.328736e+001 7.585440e+001
<VARIANCE> 13
 5.581720e+000 1.997882e+001 1.050660e+001 1.453555e+001 1.936227e+001 2.549537e+001 2.328667e+001 2.887420e+001 2.575926e+001 1.390447e+001 1.561893e+001 2.805051e+001 3.233588e+001
<GCONST> 6.178750e+001
<TRANSP> 5
 0.000000e+000 1.000000e+000 0.000000e+000 0.000000e+000 0.000000e+000
 0.000000e+000 9.502763e-001 4.972376e-002 0.000000e+000 0.000000e+000
 0.000000e+000 0.000000e+000 7.804878e-001 2.195122e-001 0.000000e+000
 0.000000e+000 0.000000e+000 0.000000e+000 9.400000e-001 6.000000e-002
 0.000000e+000 0.000000e+000 0.000000e+000 0.000000e+000 0.000000e+000
<ENDHMM>
