~o
<STREAMINFO> 1 13
<VECSIZE> 13<NULLD><MFCC_0><DIAGC>
~h "SAYA"
<BEGINHMM>
<NUMSTATES> 5
<STATE> 2
<MEAN> 13
 -3.692056e+000 -7.193966e+000 -1.050745e+001 5.640561e+000 1.442336e+000 -6.061637e+000 4.001048e+000 4.392703e+000 2.346399e+000 4.027884e+000 -7.572606e+000 -5.163443e+000 6.921485e+001
<VARIANCE> 13
 1.110473e+002 9.613995e+001 9.850870e+000 5.182500e+001 2.548663e+001 2.021052e+001 3.564830e+001 1.780986e+001 4.089281e+001 1.609890e+001 6.406039e+001 3.028400e+001 3.628483e+001
<GCONST> 6.975296e+001
<STATE> 3
<MEAN> 13
 1.128385e+000 -7.755666e+000 8.323472e+000 1.894131e+000 -1.736317e+001 -1.838375e+001 -6.744911e+000 5.827743e+000 -6.626005e+000 4.718003e+000 -2.172157e+000 -9.436209e-001 7.146567e+001
<VARIANCE> 13
 2.392044e+000 1.798387e+001 3.333076e+001 5.105157e+000 8.478120e+000 7.027194e+000 3.081885e+001 2.988878e+001 2.878216e+001 1.416902e+001 4.669526e+001 1.358245e+001 5.355462e+000
<GCONST> 5.784500e+001
<STATE> 4
<MEAN> 13
 3.387639e+000 -1.479252e+001 -8.720547e+000 -3.462580e+000 -2.157602e+000 -1.549985e+000 -2.946668e+000 3.329834e+000 -7.588086e-001 7.481381e+000 -1.571896e+001 -1.124695e+001 7.283820e+001
<VARIANCE> 13
 5.933281e+000 2.434514e+001 5.465501e+000 9.416847e+000 1.543173e+001 2.425394e+001 7.282863e+000 2.538831e+001 1.492817e+001 1.399216e+001 3.086273e+001 1.346361e+001 3.322027e+001
<GCONST> 5.882553e+001
<TRANSP> 5
 0.000000e+000 1.000000e+000 0.000000e+000 0.000000e+000 0.000000e+000
 0.000000e+000 9.337016e-001 6.629834e-002 0.000000e+000 0.000000e+000
 0.000000e+000 0.000000e+000 9.263804e-001 7.361963e-002 0.000000e+000
 0.000000e+000 0.000000e+000 0.000000e+000 9.414634e-001 5.853659e-002
 0.000000e+000 0.000000e+000 0.000000e+000 0.000000e+000 0.000000e+000
<ENDHMM>
