~o
<STREAMINFO> 1 13
<VECSIZE> 13<NULLD><MFCC_0><DIAGC>
~h "ORANG"
<BEGINHMM>
<NUMSTATES> 5
<STATE> 2
<MEAN> 13
 4.732786e+000 -9.298214e+000 -1.605524e+001 -1.892216e+001 -1.339545e+001 3.089225e+000 -3.270905e+000 -1.514092e+000 -5.405922e+000 3.863703e+000 -2.226255e+000 -1.099599e+001 7.126682e+001
<VARIANCE> 13
 2.802951e+000 8.105148e+000 3.230707e+000 1.028778e+001 8.227560e+000 8.172984e+000 3.151847e+001 7.781648e+000 1.188212e+001 1.762715e+001 1.789206e+001 2.574691e+001 1.186798e+001
<GCONST> 5.418089e+001
<STATE> 3
<MEAN> 13
 5.021812e+000 -1.695926e+001 -1.380083e+001 -2.715812e+000 -8.975753e+000 -2.760956e+000 -8.009521e+000 2.786267e-001 -1.961829e-001 8.484462e+000 -8.152525e+000 -1.928493e+001 7.459068e+001
<VARIANCE> 13
 2.222698e+000 1.283703e+001 5.514727e+000 1.367117e+001 3.674908e+001 1.269693e+001 2.736272e+001 2.849728e+001 2.112321e+001 7.603136e+000 1.948105e+001 2.029918e+001 1.382011e+001
<GCONST> 5.805571e+001
<STATE> 4
<MEAN> 13
 3.744790e+000 1.043761e-002 -4.321036e+000 -3.145808e-001 -1.672956e+000 -4.004459e+000 -1.560952e+000 -4.643664e+000 -2.267398e-001 7.296008e-001 -4.363727e+000 -4.319205e+000 6.126382e+001
<VARIANCE> 13
 3.019708e+000 1.431159e+001 1.011539e+001 5.372736e+000 1.229442e+001 7.830899e+000 5.823804e+000 8.186528e+000 5.033562e+000 1.256880e+001 1.142439e+001 1.898400e+001 6.458881e+000
<GCONST> 5.147784e+001
<TRANSP> 5
 0.000000e+000 1.000000e+000 0.000000e+000 0.000000e+000 0.000000e+000
 0.000000e+000 9.008265e-001 9.917355e-002 0.000000e+000 0.000000e+000
 0.000000e+000 0.000000e+000 9.534883e-001 4.651162e-002 0.000000e+000
 0.000000e+000 0.000000e+000 0.000000e+000 8.787879e-001 1.212121e-001
 0.000000e+000 0.000000e+000 0.000000e+000 0.000000e+000 0.000000e+000
<ENDHMM>
