~o
<STREAMINFO> 1 13
<VECSIZE> 13<NULLD><MFCC_0><DIAGC>
~h "UNTUK"
<BEGINHMM>
<NUMSTATES> 5
<STATE> 2
<MEAN> 13
 5.196929e+000 -7.002314e-001 -1.911797e-002 -8.664625e+000 -1.072947e+001 -4.463858e+000 -1.125979e+001 -1.230687e+001 -1.068417e+001 1.381637e+000 1.007318e+000 -8.068782e+000 6.576591e+001
<VARIANCE> 13
 4.347318e+000 1.497805e+001 1.850771e+001 6.284177e+001 1.083736e+001 2.555507e+001 4.292099e+001 1.839855e+001 2.735397e+001 1.781276e+001 4.282129e+001 1.323135e+001 1.616824e+001
<GCONST> 6.273428e+001
<STATE> 3
<MEAN> 13
 -4.074286e+000 1.414299e+000 2.118009e+000 1.747885e+000 -1.534377e+000 -3.905686e+000 -3.367840e+000 -6.603774e+000 -4.938276e-001 -2.647831e+000 -2.756924e+000 -4.582000e+000 5.630581e+001
<VARIANCE> 13
 1.060331e+001 5.095914e+001 4.750679e+000 8.557536e+000 2.132660e+001 2.604563e+001 3.237827e+001 3.095868e+001 1.734455e+001 1.368356e+001 1.811273e+001 1.535361e+001 2.702542e+001
<GCONST> 6.151386e+001
<STATE> 4
<MEAN> 13
 3.508783e+000 -1.255874e+000 -5.294676e+000 -1.568559e+001 -1.297759e+001 -2.592353e+000 -1.384138e+001 -6.643095e+000 -6.744815e+000 -2.146910e+000 1.123645e+000 -1.000469e+001 6.847771e+001
<VARIANCE> 13
 6.655256e+000 2.773718e+001 6.153061e+000 2.508067e+001 2.865675e+001 9.836908e+000 5.196885e+001 2.057752e+001 1.439616e+001 3.400261e+001 1.480990e+001 2.556438e+001 4.558476e+001
<GCONST> 6.271547e+001
<TRANSP> 5
 0.000000e+000 1.000000e+000 0.000000e+000 0.000000e+000 0.000000e+000
 0.000000e+000 9.272727e-001 7.272726e-002 0.000000e+000 0.000000e+000
 0.000000e+000 0.000000e+000 8.978723e-001 1.021276e-001 0.000000e+000
 0.000000e+000 0.000000e+000 0.000000e+000 9.392405e-001 6.075949e-002
 0.000000e+000 0.000000e+000 0.000000e+000 0.000000e+000 0.000000e+000
<ENDHMM>
