~o
<STREAMINFO> 1 13
<VECSIZE> 13<NULLD><MFCC_0><DIAGC>
~h "SARAPAN"
<BEGINHMM>
<NUMSTATES> 5
<STATE> 2
<MEAN> 13
 -1.498190e+001 -5.304632e-002 -1.077166e+001 1.278923e+001 2.055987e+000 -6.795832e+000 8.616091e+000 1.271540e+000 8.030037e+000 1.040313e+000 4.614304e-001 -1.903270e+000 6.297596e+001
<VARIANCE> 13
 2.231168e+001 8.705398e+000 8.956147e+000 1.253751e+001 1.372273e+001 1.161650e+001 2.118763e+001 1.192508e+001 1.126821e+001 1.324332e+001 1.239204e+001 1.003754e+001 2.048036e+000
<GCONST> 5.503181e+001
<STATE> 3
<MEAN> 13
 3.664351e+000 -1.359987e+001 -1.419249e+001 -3.039849e+000 -6.355454e+000 -2.550901e+000 -3.385244e+000 7.851259e-001 -7.307998e-001 5.992449e+000 -1.080845e+001 -1.410147e+001 7.048485e+001
<VARIANCE> 13
 1.149366e+001 4.254423e+001 2.019006e+001 9.604811e+000 2.380214e+001 1.236969e+001 2.162556e+001 2.640662e+001 3.712145e+001 2.211451e+001 3.318800e+001 3.385252e+001 5.171196e+001
<GCONST> 6.506503e+001
<STATE> 4
<MEAN> 13
 2.363870e-001 1.570785e+000 1.940976e+000 4.573432e+000 -2.063111e+000 -7.453904e+000 -8.130262e-001 -8.100933e-001 3.989338e+000 3.355782e-001 -7.369090e+000 -8.438561e+000 5.875389e+001
<VARIANCE> 13
 7.115930e+000 3.330557e+001 1.333784e+001 7.421298e+000 2.083475e+001 2.058546e+001 9.502875e+000 1.692357e+001 8.453620e+000 2.120994e+001 2.061954e+001 2.011431e+001 1.412033e+001
<GCONST> 5.896128e+001
<TRANSP> 5
 0.000000e+000 1.000000e+000 0.000000e+000 0.000000e+000 0.000000e+000
 0.000000e+000 8.285714e-001 1.714286e-001 0.000000e+000 0.000000e+000
 0.000000e+000 0.000000e+000 9.791667e-001 2.083333e-002 0.000000e+000
 0.000000e+000 0.000000e+000 0.000000e+000 8.800000e-001 1.200000e-001
 0.000000e+000 0.000000e+000 0.000000e+000 0.000000e+000 0.000000e+000
<ENDHMM>
