~o
<STREAMINFO> 1 13
<VECSIZE> 13<NULLD><MFCC_0><DIAGC>
~h "SELASA"
<BEGINHMM>
<NUMSTATES> 5
<STATE> 2
<MEAN> 13
 -6.291808e+00 -1.690779e+00 -4.300933e+00 -1.545944e+00 3.156960e-01 -2.154954e+00 -2.752331e+00 -1.060987e+00 7.316146e-02 3.154735e-01 -4.693051e+00 -3.337056e+00 5.337481e+01
<VARIANCE> 13
 1.420587e+02 1.048443e+02 7.326167e+01 1.180564e+02 1.125487e+02 9.206548e+01 7.961874e+01 5.988715e+01 5.953068e+01 4.474446e+01 7.957062e+01 6.281795e+01 3.465920e+02
<GCONST> 8.253441e+01
<STATE> 3
<MEAN> 13
 -6.291808e+00 -1.690779e+00 -4.300933e+00 -1.545944e+00 3.156960e-01 -2.154954e+00 -2.752331e+00 -1.060987e+00 7.316146e-02 3.154735e-01 -4.693051e+00 -3.337056e+00 5.337481e+01
<VARIANCE> 13
 1.420587e+02 1.048443e+02 7.326167e+01 1.180564e+02 1.125487e+02 9.206548e+01 7.961874e+01 5.988715e+01 5.953068e+01 4.474446e+01 7.957062e+01 6.281795e+01 3.465920e+02
<GCONST> 8.253441e+01
<STATE> 4
<MEAN> 13
 -6.291808e+00 -1.690779e+00 -4.300933e+00 -1.545944e+00 3.156960e-01 -2.154954e+00 -2.752331e+00 -1.060987e+00 7.316146e-02 3.154735e-01 -4.693051e+00 -3.337056e+00 5.337481e+01
<VARIANCE> 13
 1.420587e+02 1.048443e+02 7.326167e+01 1.180564e+02 1.125487e+02 9.206548e+01 7.961874e+01 5.988715e+01 5.953068e+01 4.474446e+01 7.957062e+01 6.281795e+01 3.465920e+02
<GCONST> 8.253441e+01
<TRANSP> 5
 0.000000e+00 1.000000e+00 0.000000e+00 0.000000e+00 0.000000e+00
 0.000000e+00 6.000000e-01 4.000000e-01 0.000000e+00 0.000000e+00
 0.000000e+00 0.000000e+00 6.000000e-01 4.000000e-01 0.000000e+00
 0.000000e+00 0.000000e+00 0.000000e+00 7.000000e-01 3.000000e-01
 0.000000e+00 0.000000e+00 0.000000e+00 0.000000e+00 0.000000e+00
<ENDHMM>
