~o
<STREAMINFO> 1 13
<VECSIZE> 13<NULLD><MFCC_0><DIAGC>
~h "SUPERIOR"
<BEGINHMM>
<NUMSTATES> 5
<STATE> 2
<MEAN> 13
 -8.382909e+000 3.463785e+000 -3.616278e+000 5.918920e-002 2.918207e+000 -2.199531e+000 -5.323280e+000 -5.588402e-001 2.676944e+000 9.745709e-001 2.973228e+000 -3.483358e+000 6.047789e+001
<VARIANCE> 13
 8.631836e+001 9.654590e+000 1.662365e+001 3.738643e+001 3.269564e+001 1.607204e+001 3.969283e+001 6.067324e+001 4.367550e+001 1.310929e+001 1.073449e+001 1.994612e+001 3.611499e+001
<GCONST> 6.640432e+001
<STATE> 3
<MEAN> 13
 -2.153051e-001 -6.982281e+000 1.095743e+000 -2.869718e+000 -1.595906e+001 -1.364274e+001 -1.655765e+001 2.458916e+000 -5.769754e+000 4.412764e+000 4.119874e+000 -1.657751e+001 7.092162e+001
<VARIANCE> 13
 1.270915e+001 1.567667e+001 1.119349e+002 1.679413e+001 3.805999e+001 3.856716e+001 9.214211e+000 3.648793e+001 8.059685e+001 2.742159e+001 4.463530e+001 2.208535e+001 7.492235e+000
<GCONST> 6.644324e+001
<STATE> 4
<MEAN> 13
 2.506655e+000 -4.519588e+000 -8.905974e+000 -1.781586e+000 -3.788911e+000 -6.426981e+000 -6.951344e+000 8.089912e-001 3.600217e+000 1.018747e+001 7.367537e-001 -1.421749e+001 6.565231e+001
<VARIANCE> 13
 1.091250e+001 1.077296e+001 2.488555e+001 5.003442e+001 1.000576e+001 1.178476e+001 4.093413e+001 7.716271e+000 1.131269e+001 3.497277e+001 1.413785e+001 3.958542e+001 2.930561e+001
<GCONST> 6.199720e+001
<TRANSP> 5
 0.000000e+000 1.000000e+000 0.000000e+000 0.000000e+000 0.000000e+000
 0.000000e+000 9.491525e-001 5.084745e-002 0.000000e+000 0.000000e+000
 0.000000e+000 0.000000e+000 9.620253e-001 3.797468e-002 0.000000e+000
 0.000000e+000 0.000000e+000 0.000000e+000 9.361702e-001 6.382978e-002
 0.000000e+000 0.000000e+000 0.000000e+000 0.000000e+000 0.000000e+000
<ENDHMM>
