~o
<STREAMINFO> 1 13
<VECSIZE> 13<NULLD><MFCC_0><DIAGC>
~h "MINGGU"
<BEGINHMM>
<NUMSTATES> 5
<STATE> 2
<MEAN> 13
 6.672742e-001 -2.999832e+000 6.316022e+000 -1.491521e+000 -1.658442e+001 -8.117235e+000 -8.453611e+000 -8.481722e+000 -1.122513e+001 6.844628e-001 5.782237e+000 -1.623349e+001 6.717457e+001
<VARIANCE> 13
 1.147804e+001 6.573068e+000 2.590187e+001 3.551495e+001 4.304237e+001 5.122719e+001 1.986891e+001 5.315976e+000 1.543652e+001 6.781702e+000 8.212407e+000 9.589624e+000 6.393633e+000
<GCONST> 5.827100e+001
<STATE> 3
<MEAN> 13
 3.379019e+000 -8.615013e-003 7.110699e-002 1.186606e+000 -9.131128e+000 -9.161386e+000 -7.434648e+000 -1.161152e+001 -7.285470e+000 1.415028e+000 -9.111692e-001 -1.333955e+001 6.387326e+001
<VARIANCE> 13
 1.518919e+000 7.595531e+000 2.466977e+001 5.649004e+000 6.382734e+001 1.410705e+001 4.630912e+001 5.598414e+000 1.040639e+001 8.574336e+000 6.901314e+000 3.953599e+000 4.507850e+000
<GCONST> 5.293905e+001
<STATE> 4
<MEAN> 13
 1.259609e+000 3.871823e+000 -3.583043e+000 -8.770455e+000 -7.934720e+000 -1.562250e+000 -1.387841e+001 -1.145265e+001 -1.649807e+001 2.526919e+000 7.239802e+000 -1.400170e+000 6.381196e+001
<VARIANCE> 13
 7.528925e+000 3.566201e+000 5.909990e+000 1.707474e+001 1.419485e+001 1.081366e+001 3.393851e+001 8.059839e+000 3.872129e+001 1.564412e+001 1.567419e+001 7.064533e+001 2.986061e+001
<GCONST> 5.925475e+001
<TRANSP> 5
 0.000000e+000 1.000000e+000 0.000000e+000 0.000000e+000 0.000000e+000
 0.000000e+000 9.000000e-001 9.999999e-002 0.000000e+000 0.000000e+000
 0.000000e+000 0.000000e+000 9.062500e-001 9.375000e-002 0.000000e+000
 0.000000e+000 0.000000e+000 0.000000e+000 9.062500e-001 9.375000e-002
 0.000000e+000 0.000000e+000 0.000000e+000 0.000000e+000 0.000000e+000
<ENDHMM>
