~o
<STREAMINFO> 1 13
<VECSIZE> 13<NULLD><MFCC_0><DIAGC>
~h "SENIN"
<BEGINHMM>
<NUMSTATES> 5
<STATE> 2
<MEAN> 13
 -3.780362e+000 -3.352022e+000 -7.454655e+000 6.547292e+000 -4.192296e+000 -1.404138e+001 -7.596274e+000 2.259347e+000 7.465648e+000 -3.076027e-001 -2.098271e+000 -7.094465e+000 6.921083e+001
<VARIANCE> 13
 8.039097e+001 4.210131e+001 1.556977e+001 7.490945e+001 4.563837e+001 3.123898e+001 1.495516e+002 1.569870e+001 1.012242e+001 1.820453e+001 1.781516e+001 3.464645e+001 1.591164e+001
<GCONST> 6.851335e+001
<STATE> 3
<MEAN> 13
 2.039858e+000 8.966691e-001 1.386489e+000 2.834546e+000 -6.731662e+000 -1.381835e+001 -9.252165e+000 -7.813257e+000 -2.308302e+000 2.135629e-002 -5.849401e+000 -6.834689e+000 6.243642e+001
<VARIANCE> 13
 1.073375e+000 8.770888e+000 1.573050e+000 1.047827e+001 9.903996e+000 6.973400e+000 6.137001e+000 3.352499e+000 7.120238e+000 1.184481e+001 7.414931e+000 7.497598e+000 4.232268e+000
<GCONST> 4.609169e+001
<STATE> 4
<MEAN> 13
 2.397638e-001 1.832909e-001 6.186971e+000 7.703320e-001 -1.156601e+001 -1.202673e+001 -5.526931e+000 -7.760558e-001 -6.577550e+000 -7.313417e-001 2.647295e+000 -8.477564e+000 6.371264e+001
<VARIANCE> 13
 2.641470e+000 1.677671e+001 1.569286e+001 1.347723e+001 6.412258e+001 1.897302e+001 8.979137e+000 3.557841e+001 2.939300e+001 1.632450e+001 4.508474e+001 1.736506e+001 2.035038e+001
<GCONST> 6.175793e+001
<TRANSP> 5
 0.000000e+000 1.000000e+000 0.000000e+000 0.000000e+000 0.000000e+000
 0.000000e+000 9.062500e-001 9.375000e-002 0.000000e+000 0.000000e+000
 0.000000e+000 0.000000e+000 8.421053e-001 1.578947e-001 0.000000e+000
 0.000000e+000 0.000000e+000 0.000000e+000 9.250000e-001 7.500000e-002
 0.000000e+000 0.000000e+000 0.000000e+000 0.000000e+000 0.000000e+000
<ENDHMM>
