~o
<STREAMINFO> 1 13
<VECSIZE> 13<NULLD><MFCC_0><DIAGC>
~h "STANDARD"
<BEGINHMM>
<NUMSTATES> 5
<STATE> 2
<MEAN> 13
 -1.169888e+001 4.938317e+000 -4.042090e+000 7.472545e+000 1.495985e+000 -6.373593e-001 5.301052e+000 9.210822e-001 4.972720e+000 -1.282665e+000 2.000936e+000 -2.122146e+000 5.587711e+001
<VARIANCE> 13
 2.445101e+001 1.378344e+001 1.937420e+001 7.047570e+001 9.980441e+000 2.282865e+001 1.725720e+001 6.492729e+000 1.181832e+001 8.907993e+000 8.267371e+000 6.992363e+000 2.329031e+001
<GCONST> 5.894108e+001
<STATE> 3
<MEAN> 13
 2.739712e+000 -9.839049e+000 -8.271711e+000 1.891577e-001 -5.781603e+000 -1.189613e+001 -8.285843e+000 -4.416420e+000 -1.348714e+000 3.255964e+000 -1.408927e+001 -1.335507e+001 6.933043e+001
<VARIANCE> 13
 4.009534e+000 7.738958e+001 8.315362e+001 2.016221e+001 1.328709e+001 3.027612e+001 1.492149e+001 4.305946e+001 1.385653e+001 1.835559e+001 2.061280e+001 2.244706e+001 4.863513e+001
<GCONST> 6.507707e+001
<STATE> 4
<MEAN> 13
 1.598850e+000 -9.792848e+000 -5.148064e+000 -1.043858e-001 -6.483244e+000 -5.303404e+000 -6.956963e+000 7.093852e+000 5.915367e+000 5.270284e+000 -1.483644e+001 -1.023598e+001 6.879908e+001
<VARIANCE> 13
 4.393738e+000 5.873954e+001 2.020429e+001 2.024597e+001 2.311621e+001 1.383744e+001 2.387775e+001 5.858786e+001 2.817373e+001 3.317475e+001 3.950618e+001 1.410178e+001 4.939114e+001
<GCONST> 6.553364e+001
<TRANSP> 5
 0.000000e+000 1.000000e+000 0.000000e+000 0.000000e+000 0.000000e+000
 0.000000e+000 9.189189e-001 8.108107e-002 0.000000e+000 0.000000e+000
 0.000000e+000 0.000000e+000 9.605263e-001 3.947369e-002 0.000000e+000
 0.000000e+000 0.000000e+000 0.000000e+000 9.464286e-001 5.357143e-002
 0.000000e+000 0.000000e+000 0.000000e+000 0.000000e+000 0.000000e+000
<ENDHMM>
