~o
<STREAMINFO> 1 13
<VECSIZE> 13<NULLD><MFCC_0><DIAGC>
~h "JUMAT"
<BEGINHMM>
<NUMSTATES> 5
<STATE> 2
<MEAN> 13
 -7.767365e-001 -3.369344e+000 4.939328e+000 2.249474e+000 -1.304380e+001 -1.023553e+001 -1.707382e+001 -7.366558e+000 -5.679818e+000 -3.785083e+000 5.396854e+000 -1.202120e+001 6.858128e+001
<VARIANCE> 13
 1.426365e+001 3.097971e+001 6.933775e+001 2.865803e+001 3.730468e+001 4.687115e+001 5.546114e+001 4.754711e+001 2.664883e+001 2.256022e+001 3.133768e+001 1.244669e+001 2.708237e+001
<GCONST> 6.858588e+001
<STATE> 3
<MEAN> 13
 3.553721e-001 2.797020e+000 -2.363957e+000 -1.722498e+000 -3.339477e-001 -5.825411e+000 -5.598335e+000 -1.001999e+001 -7.491980e+000 -2.846368e+000 -2.970007e-001 -1.885188e+000 5.860557e+001
<VARIANCE> 13
 8.821437e+000 2.912532e+000 5.476170e+000 7.598582e+000 7.892233e+000 1.489432e+001 1.500919e+001 1.822041e+001 5.101139e+001 1.636644e+001 7.593111e+000 1.929782e+001 5.916319e+000
<GCONST> 5.473727e+001
<STATE> 4
<MEAN> 13
 2.710936e+000 -1.209091e+001 -1.171607e+001 -3.848847e+000 1.508945e+000 -6.733849e+000 -3.517476e+000 2.377071e+000 -2.318494e+000 6.063095e+000 -1.209057e+001 -1.112332e+001 6.947540e+001
<VARIANCE> 13
 4.858449e+000 3.919124e+001 1.451667e+001 2.910048e+001 1.185822e+001 2.755115e+001 1.260430e+001 1.569124e+001 2.311369e+001 1.357936e+001 2.766906e+001 1.385083e+001 3.149406e+001
<GCONST> 6.141127e+001
<TRANSP> 5
 0.000000e+000 1.000000e+000 0.000000e+000 0.000000e+000 0.000000e+000
 0.000000e+000 9.000000e-001 9.999999e-002 0.000000e+000 0.000000e+000
 0.000000e+000 0.000000e+000 8.750000e-001 1.250000e-001 0.000000e+000
 0.000000e+000 0.000000e+000 0.000000e+000 9.230769e-001 7.692308e-002
 0.000000e+000 0.000000e+000 0.000000e+000 0.000000e+000 0.000000e+000
<ENDHMM>
