~o
<STREAMINFO> 1 13
<VECSIZE> 13<NULLD><MFCC_0><DIAGC>
~h "RABU"
<BEGINHMM>
<NUMSTATES> 5
<STATE> 2
<MEAN> 13
 3.735368e+000 -1.579241e+001 -1.183535e+001 -6.917685e+000 -8.271236e+000 -3.784274e+000 -1.308829e+001 6.817741e+000 -2.039993e+000 4.780795e+000 -4.925047e+000 -2.226891e+001 7.522099e+001
<VARIANCE> 13
 2.024287e+000 7.230068e+000 7.844998e+000 6.755530e+000 1.133473e+001 1.106442e+001 1.066667e+001 4.548802e+001 1.957193e+001 1.404150e+001 1.738710e+001 1.117487e+001 2.019650e+000
<GCONST> 5.315071e+001
<STATE> 3
<MEAN> 13
 5.121506e+000 3.122879e+000 -6.318083e+000 -2.975119e+000 1.022062e+000 -4.083787e+000 -6.758594e+000 -4.085816e+000 8.814853e-001 -3.149326e+000 -5.776836e+000 -1.229429e+001 6.195643e+001
<VARIANCE> 13
 2.288130e+000 2.037549e+001 1.053525e+001 1.709881e+001 1.300996e+001 4.988208e+000 1.330027e+001 1.388086e+001 1.548404e+001 2.600106e+001 3.164176e+001 7.040213e+000 1.204081e+001
<GCONST> 5.621166e+001
<STATE> 4
<MEAN> 13
 2.063253e+000 8.722281e+000 -3.193309e-001 -1.128532e+001 -7.610355e+000 -5.748401e+000 -7.541638e+000 -5.970550e+000 -6.598334e+000 -9.921874e+000 -1.946555e+000 -6.039671e+000 5.972907e+001
<VARIANCE> 13
 1.461944e+001 6.042305e+000 3.035384e+000 4.767158e+001 1.241632e+001 2.902706e+001 1.006491e+001 1.595546e+001 5.788592e+000 1.001869e+001 1.447727e+001 1.717501e+001 1.714089e+001
<GCONST> 5.673215e+001
<TRANSP> 5
 0.000000e+000 1.000000e+000 0.000000e+000 0.000000e+000 0.000000e+000
 0.000000e+000 9.000000e-001 9.999999e-002 0.000000e+000 0.000000e+000
 0.000000e+000 0.000000e+000 8.750000e-001 1.250000e-001 0.000000e+000
 0.000000e+000 0.000000e+000 0.000000e+000 9.032258e-001 9.677420e-002
 0.000000e+000 0.000000e+000 0.000000e+000 0.000000e+000 0.000000e+000
<ENDHMM>
