~o
<STREAMINFO> 1 13
<VECSIZE> 13<NULLD><MFCC_0><DIAGC>
~h "DENGAN"
<BEGINHMM>
<NUMSTATES> 5
<STATE> 2
<MEAN> 13
 2.804097e+000 -1.758184e+000 3.085879e+000 3.029823e+000 -4.369644e+000 -1.054568e+001 -8.371634e+000 -2.832815e+000 2.063622e+000 2.424894e+000 -4.267728e+000 -8.258300e+000 6.318848e+001
<VARIANCE> 13
 3.677421e+000 3.155755e+001 5.303654e+000 1.798442e+001 1.877600e+001 3.021235e+001 1.775055e+001 2.805523e+001 1.670857e+001 4.495133e+001 1.454241e+001 1.581272e+001 1.514945e+001
<GCONST> 6.053310e+001
<STATE> 3
<MEAN> 13
 1.708843e+000 -1.974689e+001 -4.467652e+000 -4.488934e+000 -3.377389e+000 -1.033170e+001 3.254992e-001 2.563211e+000 -9.800695e-001 2.661397e+000 -1.943005e+001 -4.905307e+000 7.485093e+001
<VARIANCE> 13
 1.760847e+000 1.123291e+001 6.285743e+000 4.564316e+000 8.068516e+000 8.510848e+000 1.016776e+001 2.192109e+001 3.042247e+001 9.273755e+000 7.896109e+000 2.629777e+001 3.910354e+000
<GCONST> 5.221143e+001
<STATE> 4
<MEAN> 13
 1.213624e+000 -2.367856e+000 -1.533015e+000 4.088653e+000 -8.574381e+000 -1.398301e+001 -3.871085e+000 -4.953062e+000 5.052805e-001 3.155313e+000 -7.108312e+000 -1.119483e+001 6.311013e+001
<VARIANCE> 13
 2.582951e+001 4.160818e+001 4.678646e+000 8.839133e+000 1.197586e+001 1.553802e+001 1.712867e+001 1.722346e+001 9.014640e+000 3.719310e+001 2.827671e+001 2.568381e+001 9.115938e+000
<GCONST> 6.012052e+001
<TRANSP> 5
 0.000000e+000 1.000000e+000 0.000000e+000 0.000000e+000 0.000000e+000
 0.000000e+000 9.523810e-001 4.761904e-002 0.000000e+000 0.000000e+000
 0.000000e+000 0.000000e+000 9.347826e-001 6.521739e-002 0.000000e+000
 0.000000e+000 0.000000e+000 0.000000e+000 9.268293e-001 7.317074e-002
 0.000000e+000 0.000000e+000 0.000000e+000 0.000000e+000 0.000000e+000
<ENDHMM>
