~o
<STREAMINFO> 1 13
<VECSIZE> 13<NULLD><MFCC_0><DIAGC>
~h "SARAPAN"
<BEGINHMM>
<NUMSTATES> 5
<STATE> 2
<MEAN> 13
 -6.291808e+000 -1.690779e+000 -4.300932e+000 -1.545944e+000 3.156947e-001 -2.154953e+000 -2.752334e+000 -1.060984e+000 7.316286e-002 3.154705e-001 -4.693052e+000 -3.337060e+000 5.337481e+001
<VARIANCE> 13
 1.420587e+002 1.048443e+002 7.326166e+001 1.180564e+002 1.125488e+002 9.206546e+001 7.961876e+001 5.988717e+001 5.953069e+001 4.474445e+001 7.957063e+001 6.281797e+001 3.465925e+002
<GCONST> 8.253442e+001
<STATE> 3
<MEAN> 13
 -6.291808e+000 -1.690779e+000 -4.300932e+000 -1.545944e+000 3.156947e-001 -2.154953e+000 -2.752334e+000 -1.060984e+000 7.316286e-002 3.154705e-001 -4.693052e+000 -3.337060e+000 5.337481e+001
<VARIANCE> 13
 1.420587e+002 1.048443e+002 7.326166e+001 1.180564e+002 1.125488e+002 9.206546e+001 7.961876e+001 5.988717e+001 5.953069e+001 4.474445e+001 7.957063e+001 6.281797e+001 3.465925e+002
<GCONST> 8.253442e+001
<STATE> 4
<MEAN> 13
 -6.291808e+000 -1.690779e+000 -4.300932e+000 -1.545944e+000 3.156947e-001 -2.154953e+000 -2.752334e+000 -1.060984e+000 7.316286e-002 3.154705e-001 -4.693052e+000 -3.337060e+000 5.337481e+001
<VARIANCE> 13
 1.420587e+002 1.048443e+002 7.326166e+001 1.180564e+002 1.125488e+002 9.206546e+001 7.961876e+001 5.988717e+001 5.953069e+001 4.474445e+001 7.957063e+001 6.281797e+001 3.465925e+002
<GCONST> 8.253442e+001
<TRANSP> 5
 0.000000e+000 1.000000e+000 0.000000e+000 0.000000e+000 0.000000e+000
 0.000000e+000 6.000000e-001 4.000000e-001 0.000000e+000 0.000000e+000
 0.000000e+000 0.000000e+000 6.000000e-001 4.000000e-001 0.000000e+000
 0.000000e+000 0.000000e+000 0.000000e+000 7.000000e-001 3.000000e-001
 0.000000e+000 0.000000e+000 0.000000e+000 0.000000e+000 0.000000e+000
<ENDHMM>
