~o
<STREAMINFO> 1 13
<VECSIZE> 13<NULLD><MFCC_0><DIAGC>
~h "SELASA"
<BEGINHMM>
<NUMSTATES> 5
<STATE> 2
<MEAN> 13
 9.356953e-002 -8.727327e+000 -1.511864e+001 -6.023492e+000 -1.418997e+000 -4.837922e+000 -4.034169e+000 -1.522388e+000 -1.770762e+000 5.498695e+000 -8.334852e+000 -1.107155e+001 7.124137e+001
<VARIANCE> 13
 3.072080e+001 5.578641e+001 1.764168e+001 6.348576e+001 4.775377e+000 2.476127e+001 4.312422e+001 2.292333e+001 1.859543e+001 2.176266e+001 6.834363e+001 4.665152e+001 2.306022e+001
<GCONST> 6.723742e+001
<STATE> 3
<MEAN> 13
 -1.337544e+001 9.521124e+000 -1.185256e+001 1.023916e+001 3.393773e+000 -5.645588e+000 8.962296e+000 1.214483e+000 7.431535e+000 -2.694748e+000 4.308785e-001 -6.454038e+000 6.378953e+001
<VARIANCE> 13
 8.725082e+000 1.422672e+001 4.680643e+000 1.296279e+001 8.976517e+000 1.095096e+001 2.015869e+001 2.289680e+001 9.397605e+000 1.179007e+001 1.363168e+001 1.325803e+001 4.866161e+000
<GCONST> 5.502894e+001
<STATE> 4
<MEAN> 13
 1.050944e+000 -9.463657e+000 -1.434084e+001 -6.232831e+000 2.183074e+000 -6.403005e+000 -3.807459e+000 5.052572e+000 2.759805e+000 4.579635e+000 -1.360119e+001 -1.158167e+001 6.880974e+001
<VARIANCE> 13
 8.525041e+000 1.740639e+001 5.966284e+000 7.017329e+000 9.778156e+000 9.151929e+000 1.963430e+001 2.155401e+001 2.465071e+001 1.210136e+001 2.895148e+001 1.204558e+001 2.761992e+001
<GCONST> 5.803969e+001
<TRANSP> 5
 0.000000e+000 1.000000e+000 0.000000e+000 0.000000e+000 0.000000e+000
 0.000000e+000 9.491525e-001 5.084745e-002 0.000000e+000 0.000000e+000
 0.000000e+000 0.000000e+000 8.750000e-001 1.250000e-001 0.000000e+000
 0.000000e+000 0.000000e+000 0.000000e+000 9.210526e-001 7.894737e-002
 0.000000e+000 0.000000e+000 0.000000e+000 0.000000e+000 0.000000e+000
<ENDHMM>
