~o
<STREAMINFO> 1 13
<VECSIZE> 13<NULLD><MFCC_0><DIAGC>
~h "SABTU"
<BEGINHMM>
<NUMSTATES> 5
<STATE> 2
<MEAN> 13
 -3.041999e+000 -6.339938e+000 -1.385237e+001 -5.573594e-001 -4.039437e-001 -4.327620e+000 -6.649093e+000 2.016740e+000 3.417903e+000 3.199180e+000 -3.104630e+000 -1.048728e+001 7.194120e+001
<VARIANCE> 13
 7.778596e+001 7.196163e+001 1.381899e+001 1.071358e+002 1.861286e+001 1.434037e+001 8.984543e+001 2.848089e+001 2.072736e+001 2.782546e+001 2.918549e+001 7.584788e+001 3.655817e+001
<GCONST> 7.091561e+001
<STATE> 3
<MEAN> 13
 -4.751542e+000 2.029564e-001 -3.541476e+000 -1.634870e+000 2.106963e+000 9.805345e-001 2.909675e+000 2.125929e+000 6.279785e+000 3.884304e-001 -1.203883e+000 -6.335251e+000 5.566832e+001
<VARIANCE> 13
 9.118013e+000 1.311666e+001 2.793834e+001 8.621364e+000 1.256574e+001 1.250955e+001 1.972629e+001 7.597061e+000 1.767620e+001 9.495404e+000 1.211796e+001 1.754939e+001 9.177752e+000
<GCONST> 5.692749e+001
<STATE> 4
<MEAN> 13
 1.753255e+000 3.056811e+000 -3.837982e+000 -1.069693e+001 -5.333793e+000 -1.806094e+000 -1.409439e+001 -1.165745e+001 -9.948768e+000 2.631000e+000 3.397415e+000 7.302975e-001 6.416200e+001
<VARIANCE> 13
 4.247892e+000 5.839884e+000 9.681869e+000 1.431015e+001 1.131174e+001 8.744659e+000 5.179070e+001 8.931855e+000 1.520744e+001 2.635283e+001 6.101228e+000 4.114022e+001 2.692594e+001
<GCONST> 5.757781e+001
<TRANSP> 5
 0.000000e+000 1.000000e+000 0.000000e+000 0.000000e+000 0.000000e+000
 0.000000e+000 9.210526e-001 7.894737e-002 0.000000e+000 0.000000e+000
 0.000000e+000 0.000000e+000 9.230769e-001 7.692308e-002 0.000000e+000
 0.000000e+000 0.000000e+000 0.000000e+000 9.166667e-001 8.333333e-002
 0.000000e+000 0.000000e+000 0.000000e+000 0.000000e+000 0.000000e+000
<ENDHMM>
