~o
<STREAMINFO> 1 13
<VECSIZE> 13<NULLD><MFCC_0><DIAGC>
~h "HARI"
<BEGINHMM>
<NUMSTATES> 5
<STATE> 2
<MEAN> 13
 1.965365e+000 -1.438748e+001 -1.506582e+001 1.207537e+000 -2.067487e+000 -3.386296e-001 -7.542535e+000 1.871114e+000 3.496335e-001 -4.038739e+000 -1.357677e+001 -9.296828e+000 7.532456e+001
<VARIANCE> 13
 7.002247e+000 1.763931e+001 1.930866e+001 1.920332e+001 4.015387e+001 1.120292e+001 1.196332e+001 2.668529e+001 1.011541e+001 1.337763e+001 1.723489e+001 2.384583e+001 6.109227e+000
<GCONST> 5.923524e+001
<STATE> 3
<MEAN> 13
 3.665108e+000 -1.047272e+001 -2.769745e+000 -2.649233e-001 -1.073001e+001 -1.286574e+001 -1.225646e+001 2.274136e+000 3.140622e+000 3.533396e+000 -2.842686e+000 -1.126548e+001 7.030496e+001
<VARIANCE> 13
 3.503702e+000 1.399203e+001 3.002227e+001 6.900485e+000 1.434159e+001 5.409702e+001 1.553588e+001 3.317977e+001 3.498321e+001 1.334536e+001 4.787241e+001 1.076558e+001 1.153594e+001
<GCONST> 6.085368e+001
<STATE> 4
<MEAN> 13
 -2.120936e+000 -3.426566e+000 1.032473e+001 2.911035e+000 -2.177234e+001 -1.317715e+001 -1.024660e+001 -3.607202e+000 -1.126529e+001 -1.016870e+000 9.068474e+000 -1.380475e+001 6.983210e+001
<VARIANCE> 13
 5.172767e+000 1.934238e+001 3.642374e+001 1.450946e+001 4.876051e+001 1.993110e+001 3.942001e+001 2.114719e+001 2.864176e+001 1.377639e+001 1.654893e+001 3.008705e+001 8.609550e+000
<GCONST> 6.271423e+001
<TRANSP> 5
 0.000000e+000 1.000000e+000 0.000000e+000 0.000000e+000 0.000000e+000
 0.000000e+000 9.225093e-001 7.749077e-002 0.000000e+000 0.000000e+000
 0.000000e+000 0.000000e+000 8.421053e-001 1.578947e-001 0.000000e+000
 0.000000e+000 0.000000e+000 0.000000e+000 9.448819e-001 5.511810e-002
 0.000000e+000 0.000000e+000 0.000000e+000 0.000000e+000 0.000000e+000
<ENDHMM>
