~o
<STREAMINFO> 1 13
<VECSIZE> 13<NULLD><MFCC_0><DIAGC>
~h "b"
<BEGINHMM>
<NUMSTATES> 5
<STATE> 2
<MEAN> 13
 -7.718417e+00 2.787206e+00 -6.189719e+00 -1.530446e+00 -2.901840e+00 9.418471e-01 -5.930295e+00 -1.190259e+00 -1.783699e+00 -2.212418e+00 -1.307129e+00 -4.306411e+00 4.771241e+01
<VARIANCE> 13
 1.470167e+02 8.157510e+01 4.406050e+01 9.754382e+01 6.797005e+01 9.235847e+01 7.783052e+01 3.529399e+01 5.638630e+01 4.443498e+01 4.207044e+01 6.454649e+01 3.319836e+02
<GCONST> 7.985140e+01
<STATE> 3
<MEAN> 13
 -8.727617e+00 3.100891e+00 -6.135498e+00 -1.560528e+00 -2.841452e+00 1.655272e+00 -5.562640e+00 -1.054893e+00 -1.640368e+00 -2.195701e+00 -1.141433e+00 -3.888065e+00 4.609629e+01
<VARIANCE> 13
 1.432797e+02 6.925238e+01 3.923944e+01 9.411109e+01 5.977643e+01 8.471282e+01 7.727605e+01 3.412310e+01 5.517189e+01 4.145296e+01 3.745246e+01 5.848032e+01 3.220720e+02
<GCONST> 7.891789e+01
<STATE> 4
<MEAN> 13
 -1.065523e+01 3.501437e+00 -6.001541e+00 -1.205803e+00 -2.957351e+00 2.779740e+00 -4.994000e+00 -7.617825e-01 -1.510699e+00 -2.173856e+00 -8.740138e-01 -3.288872e+00 4.290440e+01
<VARIANCE> 13
 1.406817e+02 5.441431e+01 3.370726e+01 8.945361e+01 5.298021e+01 7.523362e+01 7.547468e+01 3.243645e+01 5.231755e+01 3.745002e+01 3.315041e+01 5.060950e+01 3.024950e+02
<GCONST> 7.765816e+01
<TRANSP> 5
 0.000000e+00 1.000000e+00 0.000000e+00 0.000000e+00 0.000000e+00
 0.000000e+00 7.294890e-01 2.705110e-01 0.000000e+00 0.000000e+00
 0.000000e+00 0.000000e+00 7.294892e-01 2.705108e-01 0.000000e+00
 0.000000e+00 0.000000e+00 0.000000e+00 8.517381e-01 1.482619e-01
 0.000000e+00 0.000000e+00 0.000000e+00 0.000000e+00 0.000000e+00
<ENDHMM>
~h "d"
<BEGINHMM>
<NUMSTATES> 5
<STATE> 2
<MEAN> 13
 -2.869066e+00 -3.115901e+00 -4.362674e+00 -2.832869e+00 4.414877e-02 -3.074856e+00 -4.750578e+00 -4.572004e-01 -1.294734e-01 1.393807e+00 -6.963301e+00 -4.442158e+00 5.661200e+01
<VARIANCE> 13
 1.172868e+02 1.334275e+02 4.910564e+01 1.369718e+02 8.371020e+01 9.688864e+01 8.474825e+01 7.566148e+01 4.919522e+01 4.706807e+01 8.257510e+01 5.940790e+01 3.365733e+02
<GCONST> 8.219556e+01
<STATE> 3
<MEAN> 13
 -1.835988e+00 -3.995306e+00 -4.096633e+00 -3.733442e+00 3.840626e-01 -3.787835e+00 -5.057151e+00 -1.916089e-01 -9.372541e-02 1.562128e+00 -7.740296e+00 -4.562543e+00 5.843521e+01
<VARIANCE> 13
 1.019327e+02 1.289332e+02 5.074872e+01 1.421736e+02 8.840020e+01 1.021311e+02 9.085494e+01 8.041129e+01 4.937202e+01 4.819522e+01 8.361352e+01 6.263401e+01 3.082187e+02
<GCONST> 8.233347e+01
<STATE> 4
<MEAN> 13
 -6.598129e-01 -4.976808e+00 -3.806008e+00 -5.066452e+00 1.363307e+00 -4.498145e+00 -5.086283e+00 8.306086e-02 4.000098e-02 1.748883e+00 -8.959272e+00 -4.266231e+00 6.039927e+01
<VARIANCE> 13
 8.274470e+01 1.259731e+02 5.258908e+01 1.569705e+02 9.699267e+01 1.124830e+02 1.028449e+02 8.509148e+01 5.011023e+01 5.083371e+01 8.508865e+01 6.772966e+01 2.695378e+02
<GCONST> 8.263589e+01
<TRANSP> 5
 0.000000e+00 1.000000e+00 0.000000e+00 0.000000e+00 0.000000e+00
 0.000000e+00 7.198166e-01 2.801834e-01 0.000000e+00 0.000000e+00
 0.000000e+00 0.000000e+00 7.198163e-01 2.801838e-01 0.000000e+00
 0.000000e+00 0.000000e+00 0.000000e+00 8.418961e-01 1.581039e-01
 0.000000e+00 0.000000e+00 0.000000e+00 0.000000e+00 0.000000e+00
<ENDHMM>
~h "g"
<BEGINHMM>
<NUMSTATES> 5
<STATE> 2
<MEAN> 13
 -4.294870e+00 -5.302243e-01 2.438842e+00 -2.606927e+00 -6.023178e+00 -5.885121e+00 -5.566834e+00 -2.948098e+00 -3.682527e+00 -1.818070e-02 -3.373205e+00 -8.178997e+00 5.781304e+01
<VARIANCE> 13
 6.631985e+01 1.501584e+02 1.640956e+02 1.275184e+02 1.075986e+02 1.055185e+02 7.422005e+01 7.764725e+01 7.243442e+01 5.108585e+01 6.779324e+01 9.323019e+01 3.292613e+02
<GCONST> 8.380837e+01
<STATE> 3
<MEAN> 13
 -3.917641e+00 -1.390532e+00 1.837686e+00 -3.177207e+00 -5.331175e+00 -5.885933e+00 -5.258048e+00 -2.832810e+00 -3.032412e+00 3.990327e-01 -3.966614e+00 -8.580791e+00 5.886375e+01
<VARIANCE> 13
 6.273805e+01 1.518047e+02 1.666057e+02 1.353705e+02 1.136713e+02 1.088740e+02 7.600386e+01 7.919997e+01 7.036282e+01 4.972343e+01 6.589887e+01 9.462232e+01 3.253376e+02
<GCONST> 8.388689e+01
<STATE> 4
<MEAN> 13
 -3.461405e+00 -2.182391e+00 6.455050e-01 -3.726886e+00 -4.100129e+00 -5.459667e+00 -4.708820e+00 -2.516924e+00 -2.098300e+00 8.596812e-01 -4.730132e+00 -8.785137e+00 5.960903e+01
<VARIANCE> 13
 6.045458e+01 1.585392e+02 1.663728e+02 1.488489e+02 1.225787e+02 1.159528e+02 7.970686e+01 8.085289e+01 6.752531e+01 4.985751e+01 6.281201e+01 9.681561e+01 3.275256e+02
<GCONST> 8.413657e+01
<TRANSP> 5
 0.000000e+00 1.000000e+00 0.000000e+00 0.000000e+00 0.000000e+00
 0.000000e+00 7.273587e-01 2.726413e-01 0.000000e+00 0.000000e+00
 0.000000e+00 0.000000e+00 7.273588e-01 2.726412e-01 0.000000e+00
 0.000000e+00 0.000000e+00 0.000000e+00 8.479757e-01 1.520243e-01
 0.000000e+00 0.000000e+00 0.000000e+00 0.000000e+00 0.000000e+00
<ENDHMM>
~h "j"
<BEGINHMM>
<NUMSTATES> 5
<STATE> 2
<MEAN> 13
 -4.793537e-02 3.040670e+00 4.330851e+00 1.049558e+00 -5.517984e+00 -2.909674e+00 -7.666918e+00 -4.950605e+00 -6.679917e+00 -2.334136e+00 -3.452424e+00 -6.745960e+00 5.718563e+01
<VARIANCE> 13
 4.599807e+01 1.774055e+02 3.128807e+02 7.761861e+01 1.247608e+02 9.365247e+01 8.813517e+01 6.525963e+01 9.638922e+01 3.975439e+01 8.108398e+01 5.057474e+01 1.611207e+02
<GCONST> 8.267252e+01
<STATE> 3
<MEAN> 13
 4.356003e-02 3.118305e+00 2.563078e+00 1.529409e+00 -4.741801e+00 -2.643492e+00 -7.267656e+00 -5.275910e+00 -5.752886e+00 -2.765357e+00 -3.645640e+00 -6.560155e+00 5.644678e+01
<VARIANCE> 13
 4.802927e+01 1.674424e+02 2.943204e+02 6.733781e+01 1.340023e+02 9.942622e+01 9.402970e+01 6.628009e+01 9.835627e+01 3.926031e+01 8.635940e+01 5.021911e+01 1.608228e+02
<GCONST> 8.272804e+01
<STATE> 4
<MEAN> 13
 -1.439724e-01 3.240245e+00 1.152525e-01 1.939116e+00 -2.960705e+00 -2.305534e+00 -6.182246e+00 -5.449916e+00 -4.226651e+00 -3.072366e+00 -4.364934e+00 -5.980086e+00 5.509285e+01
<VARIANCE> 13
 5.237271e+01 1.509471e+02 2.682937e+02 5.610929e+01 1.461221e+02 1.042800e+02 1.035338e+02 6.461319e+01 1.005841e+02 3.866983e+01 9.498495e+01 4.840246e+01 1.555916e+02
<GCONST> 8.267349e+01
<TRANSP> 5
 0.000000e+00 1.000000e+00 0.000000e+00 0.000000e+00 0.000000e+00
 0.000000e+00 7.295550e-01 2.704451e-01 0.000000e+00 0.000000e+00
 0.000000e+00 0.000000e+00 7.295548e-01 2.704452e-01 0.000000e+00
 0.000000e+00 0.000000e+00 0.000000e+00 8.508018e-01 1.491981e-01
 0.000000e+00 0.000000e+00 0.000000e+00 0.000000e+00 0.000000e+00
<ENDHMM>
~h "k"
<BEGINHMM>
<NUMSTATES> 5
<STATE> 2
<MEAN> 13
 -4.350728e+00 3.506693e-01 -4.188759e+00 -3.926662e+00 3.456459e-01 -1.178521e+00 -5.808273e+00 -3.587918e+00 -1.879979e+00 6.188562e-01 -3.239511e+00 -3.800120e+00 5.432866e+01
<VARIANCE> 13
 1.207800e+02 1.011489e+02 6.470662e+01 1.438903e+02 1.269302e+02 9.168810e+01 1.063786e+02 7.793142e+01 5.947329e+01 4.959286e+01 6.097276e+01 6.030502e+01 2.570894e+02
<GCONST> 8.257539e+01
<STATE> 3
<MEAN> 13
 -4.446444e+00 9.206899e-02 -4.369294e+00 -3.730080e+00 7.148204e-01 -1.475599e+00 -5.338590e+00 -3.379338e+00 -1.850578e+00 5.840938e-01 -3.246304e+00 -3.971582e+00 5.455173e+01
<VARIANCE> 13
 1.185131e+02 1.030974e+02 6.631556e+01 1.446731e+02 1.307496e+02 9.354199e+01 1.058537e+02 7.807189e+01 6.110722e+01 5.102792e+01 6.147145e+01 6.117483e+01 2.550204e+02
<GCONST> 8.272205e+01
<STATE> 4
<MEAN> 13
 -4.653678e+00 -1.259856e-01 -4.496506e+00 -3.276337e+00 1.399540e+00 -1.649399e+00 -4.611844e+00 -3.111461e+00 -1.757358e+00 5.980942e-01 -3.435794e+00 -3.952156e+00 5.446986e+01
<VARIANCE> 13
 1.195165e+02 1.068729e+02 7.023918e+01 1.521487e+02 1.345640e+02 9.835968e+01 1.065116e+02 8.089301e+01 6.484547e+01 5.473719e+01 6.435904e+01 6.309786e+01 2.614101e+02
<GCONST> 8.322611e+01
<TRANSP> 5
 0.000000e+00 1.000000e+00 0.000000e+00 0.000000e+00 0.000000e+00
 0.000000e+00 7.261554e-01 2.738446e-01 0.000000e+00 0.000000e+00
 0.000000e+00 0.000000e+00 7.261553e-01 2.738447e-01 0.000000e+00
 0.000000e+00 0.000000e+00 0.000000e+00 8.480222e-01 1.519778e-01
 0.000000e+00 0.000000e+00 0.000000e+00 0.000000e+00 0.000000e+00
<ENDHMM>
~h "l"
<BEGINHMM>
<NUMSTATES> 5
<STATE> 2
<MEAN> 13
 8.008526e-02 -4.402111e+00 -4.472546e+00 -5.697081e+00 4.379261e+00 -2.179417e+00 -6.118578e+00 -2.883611e+00 7.359328e-01 2.614310e+00 -8.881178e+00 -4.827714e+00 6.236436e+01
<VARIANCE> 13
 7.318913e+01 1.457375e+02 6.786848e+01 1.575556e+02 1.070516e+02 8.555605e+01 7.687440e+01 5.200616e+01 5.276451e+01 4.580661e+01 8.558917e+01 9.443160e+01 2.019728e+02
<GCONST> 8.195646e+01
<STATE> 3
<MEAN> 13
 -8.350045e-01 -3.190278e+00 -4.382362e+00 -4.428060e+00 4.405227e+00 -1.517589e+00 -5.496004e+00 -2.883431e+00 7.914636e-01 2.557419e+00 -8.216141e+00 -4.619417e+00 6.059031e+01
<VARIANCE> 13
 8.326628e+01 1.515604e+02 6.475523e+01 1.611779e+02 9.854191e+01 8.282354e+01 7.579086e+01 5.076521e+01 5.026673e+01 4.544130e+01 8.344296e+01 8.764964e+01 2.320921e+02
<GCONST> 8.192934e+01
<STATE> 4
<MEAN> 13
 -2.361024e+00 -1.319063e+00 -4.045652e+00 -2.572668e+00 4.512865e+00 -6.342739e-01 -4.717621e+00 -2.856981e+00 8.999233e-01 2.166844e+00 -7.171065e+00 -4.024604e+00 5.750652e+01
<VARIANCE> 13
 9.909741e+01 1.535943e+02 6.034949e+01 1.657886e+02 9.146042e+01 8.107611e+01 7.442350e+01 5.016913e+01 4.787771e+01 4.434993e+01 8.125323e+01 7.702445e+01 2.711371e+02
<GCONST> 8.187523e+01
<TRANSP> 5
 0.000000e+00 1.000000e+00 0.000000e+00 0.000000e+00 0.000000e+00
 0.000000e+00 7.115129e-01 2.884871e-01 0.000000e+00 0.000000e+00
 0.000000e+00 0.000000e+00 7.115127e-01 2.884873e-01 0.000000e+00
 0.000000e+00 0.000000e+00 0.000000e+00 8.302435e-01 1.697565e-01
 0.000000e+00 0.000000e+00 0.000000e+00 0.000000e+00 0.000000e+00
<ENDHMM>
~h "m"
<BEGINHMM>
<NUMSTATES> 5
<STATE> 2
<MEAN> 13
 -2.972533e+00 -2.210699e+00 -4.988539e+00 -1.445710e+00 2.601764e+00 -1.530757e+00 -3.305239e+00 -2.709542e+00 -1.782409e+00 6.197239e-01 -5.838334e+00 -4.659677e+00 5.576781e+01
<VARIANCE> 13
 1.111561e+02 1.203537e+02 8.130027e+01 1.360374e+02 1.291176e+02 8.785060e+01 7.943004e+01 7.892506e+01 7.411839e+01 5.406872e+01 7.396388e+01 8.192116e+01 2.945532e+02
<GCONST> 8.347530e+01
<STATE> 3
<MEAN> 13
 -3.160843e+00 -2.203814e+00 -5.042477e+00 -1.188274e+00 2.614308e+00 -1.433708e+00 -3.140885e+00 -2.612636e+00 -1.708314e+00 5.147122e-01 -5.772901e+00 -4.546864e+00 5.540961e+01
<VARIANCE> 13
 1.144580e+02 1.187838e+02 7.692091e+01 1.341927e+02 1.274674e+02 8.608893e+01 7.536292e+01 7.956798e+01 7.434851e+01 5.377549e+01 7.444466e+01 8.033125e+01 3.012406e+02
<GCONST> 8.335184e+01
<STATE> 4
<MEAN> 13
 -3.729897e+00 -1.904705e+00 -5.076427e+00 -8.267156e-01 2.779210e+00 -1.148357e+00 -2.901637e+00 -2.409789e+00 -1.495407e+00 2.887025e-01 -5.657010e+00 -4.161105e+00 5.430703e+01
<VARIANCE> 13
 1.242465e+02 1.177897e+02 7.195270e+01 1.353311e+02 1.278361e+02 8.526335e+01 7.198989e+01 8.272457e+01 7.567815e+01 5.429204e+01 7.555131e+01 7.727236e+01 3.158167e+02
<GCONST> 8.340402e+01
<TRANSP> 5
 0.000000e+00 1.000000e+00 0.000000e+00 0.000000e+00 0.000000e+00
 0.000000e+00 7.217153e-01 2.782847e-01 0.000000e+00 0.000000e+00
 0.000000e+00 0.000000e+00 7.217149e-01 2.782851e-01 0.000000e+00
 0.000000e+00 0.000000e+00 0.000000e+00 8.433710e-01 1.566290e-01
 0.000000e+00 0.000000e+00 0.000000e+00 0.000000e+00 0.000000e+00
<ENDHMM>
~h "n"
<BEGINHMM>
<NUMSTATES> 5
<STATE> 2
<MEAN> 13
 -7.826081e+00 7.391292e-01 -4.181234e+00 3.328163e-01 -1.306537e+00 -2.052988e+00 -3.010538e+00 -9.133397e-01 4.423027e-01 -6.221947e-01 -4.166205e+00 -2.138960e+00 4.976904e+01
<VARIANCE> 13
 1.665859e+02 9.490105e+01 5.015277e+01 1.016851e+02 8.931264e+01 8.480359e+01 6.514526e+01 4.766751e+01 5.461664e+01 3.703947e+01 8.424437e+01 5.704916e+01 3.550597e+02
<GCONST> 8.103329e+01
<STATE> 3
<MEAN> 13
 -7.009345e+00 1.097798e+00 -4.006744e+00 -3.708350e-02 -1.479556e+00 -1.753188e+00 -3.677746e+00 -1.428157e+00 1.094628e-02 -6.861446e-01 -4.192176e+00 -2.188781e+00 5.023201e+01
<VARIANCE> 13
 1.661083e+02 1.007881e+02 5.112210e+01 1.144921e+02 9.053371e+01 8.688726e+01 7.231222e+01 5.392136e+01 5.649424e+01 3.882359e+01 8.315643e+01 6.098038e+01 3.487946e+02
<GCONST> 8.161057e+01
<STATE> 4
<MEAN> 13
 -5.947220e+00 1.798319e+00 -3.755929e+00 -7.775429e-01 -1.404263e+00 -9.955789e-01 -4.812983e+00 -2.341236e+00 -5.709355e-01 -7.998206e-01 -4.169018e+00 -1.980027e+00 5.040796e+01
<VARIANCE> 13
 1.662641e+02 1.079842e+02 5.209023e+01 1.377001e+02 9.615408e+01 9.302889e+01 8.545556e+01 6.339465e+01 5.920779e+01 4.342424e+01 7.927283e+01 6.541392e+01 3.384642e+02
<GCONST> 8.249238e+01
<TRANSP> 5
 0.000000e+00 1.000000e+00 0.000000e+00 0.000000e+00 0.000000e+00
 0.000000e+00 7.210931e-01 2.789069e-01 0.000000e+00 0.000000e+00
 0.000000e+00 0.000000e+00 7.210921e-01 2.789079e-01 0.000000e+00
 0.000000e+00 0.000000e+00 0.000000e+00 8.435172e-01 1.564827e-01
 0.000000e+00 0.000000e+00 0.000000e+00 0.000000e+00 0.000000e+00
<ENDHMM>
~h "p"
<BEGINHMM>
<NUMSTATES> 5
<STATE> 2
<MEAN> 13
 -8.198799e+00 -2.058261e+00 -4.442531e+00 -1.366368e+00 -3.736614e-01 -2.506881e+00 -1.406095e+00 -3.927483e-01 -1.714762e-01 8.548921e-01 -4.366183e+00 -2.530361e+00 5.106656e+01
<VARIANCE> 13
 1.511607e+02 9.515624e+01 6.526041e+01 7.537174e+01 9.543471e+01 8.891295e+01 5.310662e+01 5.331026e+01 5.829482e+01 3.800961e+01 7.035799e+01 4.807845e+01 3.784980e+02
<GCONST> 8.072761e+01
<STATE> 3
<MEAN> 13
 -7.641159e+00 -2.394212e+00 -4.572963e+00 -1.527408e+00 -2.094783e-01 -2.470672e+00 -1.534700e+00 -3.262915e-01 -2.019551e-01 1.069574e+00 -4.708760e+00 -2.771642e+00 5.160825e+01
<VARIANCE> 13
 1.476541e+02 9.861363e+01 6.629128e+01 7.976882e+01 9.405062e+01 8.732852e+01 5.212125e+01 5.361432e+01 5.852467e+01 3.980137e+01 7.249581e+01 4.989611e+01 3.785403e+02
<GCONST> 8.088372e+01
<STATE> 4
<MEAN> 13
 -7.117863e+00 -2.822652e+00 -4.871408e+00 -1.887089e+00 4.443811e-01 -2.609581e+00 -1.713377e+00 -2.862075e-01 -1.245359e-01 1.306809e+00 -5.355039e+00 -2.908153e+00 5.204828e+01
<VARIANCE> 13
 1.467741e+02 1.050984e+02 6.770541e+01 9.410924e+01 9.780473e+01 8.802077e+01 5.450269e+01 5.636515e+01 6.123176e+01 4.386049e+01 7.668616e+01 5.269463e+01 3.828117e+02
<GCONST> 8.153392e+01
<TRANSP> 5
 0.000000e+00 1.000000e+00 0.000000e+00 0.000000e+00 0.000000e+00
 0.000000e+00 7.251138e-01 2.748862e-01 0.000000e+00 0.000000e+00
 0.000000e+00 0.000000e+00 7.251143e-01 2.748857e-01 0.000000e+00
 0.000000e+00 0.000000e+00 0.000000e+00 8.485543e-01 1.514457e-01
 0.000000e+00 0.000000e+00 0.000000e+00 0.000000e+00 0.000000e+00
<ENDHMM>
~h "r"
<BEGINHMM>
<NUMSTATES> 5
<STATE> 2
<MEAN> 13
 -3.013956e+00 -5.229906e+00 -4.025251e+00 -1.210879e+00 5.776841e-01 -3.640329e+00 -1.714735e+00 -4.081818e-01 5.427125e-01 8.915622e-01 -6.335624e+00 -4.559810e+00 5.898975e+01
<VARIANCE> 13
 1.079219e+02 1.051077e+02 1.071594e+02 1.060278e+02 1.432771e+02 8.379967e+01 7.438785e+01 5.414034e+01 6.574133e+01 5.123866e+01 9.165732e+01 7.213402e+01 2.898754e+02
<GCONST> 8.284915e+01
<STATE> 3
<MEAN> 13
 -3.693263e+00 -4.523880e+00 -3.693698e+00 -7.455588e-01 4.329046e-02 -3.488752e+00 -1.846110e+00 -3.394355e-01 4.131207e-01 7.529820e-01 -5.651146e+00 -4.491349e+00 5.784079e+01
<VARIANCE> 13
 1.167232e+02 1.069663e+02 1.102107e+02 9.699990e+01 1.404335e+02 8.605672e+01 7.210689e+01 5.089856e+01 6.550056e+01 4.967796e+01 8.969902e+01 7.057468e+01 3.043484e+02
<GCONST> 8.276847e+01
<STATE> 4
<MEAN> 13
 -4.940422e+00 -3.211670e+00 -3.203865e+00 -1.811391e-01 -5.177178e-01 -3.123540e+00 -1.967323e+00 -3.117188e-01 2.114250e-01 5.144796e-01 -4.689250e+00 -4.119090e+00 5.548632e+01
<VARIANCE> 13
 1.325397e+02 1.097010e+02 1.139703e+02 9.103854e+01 1.360814e+02 9.232653e+01 6.979814e+01 4.872464e+01 6.655278e+01 4.794147e+01 8.551479e+01 6.780328e+01 3.297560e+02
<GCONST> 8.282628e+01
<TRANSP> 5
 0.000000e+00 1.000000e+00 0.000000e+00 0.000000e+00 0.000000e+00
 0.000000e+00 7.277559e-01 2.722440e-01 0.000000e+00 0.000000e+00
 0.000000e+00 0.000000e+00 7.277558e-01 2.722442e-01 0.000000e+00
 0.000000e+00 0.000000e+00 0.000000e+00 8.505003e-01 1.494997e-01
 0.000000e+00 0.000000e+00 0.000000e+00 0.000000e+00 0.000000e+00
<ENDHMM>
~h "s"
<BEGINHMM>
<NUMSTATES> 5
<STATE> 2
<MEAN> 13
 -8.639086e+00 -2.020254e+00 -4.397119e+00 -5.372153e-01 2.536256e+00 -6.390536e+00 -6.163639e-01 -6.057857e-02 1.787379e+00 -7.814102e-02 -4.437701e+00 -2.607741e+00 5.629761e+01
<VARIANCE> 13
 1.536810e+02 9.163925e+01 7.020768e+01 9.545171e+01 1.338918e+02 9.283390e+01 7.913412e+01 4.301427e+01 6.151152e+01 4.931285e+01 8.479195e+01 5.757401e+01 2.796315e+02
<GCONST> 8.195988e+01
<STATE> 3
<MEAN> 13
 -8.898665e+00 -1.888318e+00 -4.679482e+00 -4.280371e-01 2.636330e+00 -6.500754e+00 -5.069270e-01 -3.685720e-02 1.891338e+00 -8.336516e-02 -4.293997e+00 -2.586426e+00 5.612323e+01
<VARIANCE> 13
 1.553454e+02 9.143236e+01 6.916918e+01 9.667897e+01 1.336081e+02 9.221626e+01 7.960180e+01 4.126680e+01 6.248463e+01 4.966240e+01 8.325076e+01 5.779606e+01 2.810692e+02
<GCONST> 8.193530e+01
<STATE> 4
<MEAN> 13
 -9.113666e+00 -1.783003e+00 -4.789418e+00 -8.068676e-01 2.946611e+00 -6.653440e+00 -4.149517e-01 -1.329128e-01 2.003294e+00 -2.192328e-01 -4.372777e+00 -2.250526e+00 5.559607e+01
<VARIANCE> 13
 1.619189e+02 9.472372e+01 6.968668e+01 1.009226e+02 1.342624e+02 9.443649e+01 8.172948e+01 4.063140e+01 6.491662e+01 5.053086e+01 8.313955e+01 5.831012e+01 2.897277e+02
<GCONST> 8.219543e+01
<TRANSP> 5
 0.000000e+00 1.000000e+00 0.000000e+00 0.000000e+00 0.000000e+00
 0.000000e+00 7.220029e-01 2.779971e-01 0.000000e+00 0.000000e+00
 0.000000e+00 0.000000e+00 7.220041e-01 2.779959e-01 0.000000e+00
 0.000000e+00 0.000000e+00 0.000000e+00 8.441997e-01 1.558003e-01
 0.000000e+00 0.000000e+00 0.000000e+00 0.000000e+00 0.000000e+00
<ENDHMM>
~h "t"
<BEGINHMM>
<NUMSTATES> 5
<STATE> 2
<MEAN> 13
 -5.281177e+00 2.016694e-01 -4.586031e+00 -4.000504e+00 -9.923242e-01 -6.970463e-01 -5.501422e+00 -3.830764e+00 -8.319643e-01 -3.498461e-01 -3.486591e+00 -2.939561e+00 5.302381e+01
<VARIANCE> 13
 1.414333e+02 9.583910e+01 6.143845e+01 1.483355e+02 1.132791e+02 8.716647e+01 9.541139e+01 7.279595e+01 6.788297e+01 4.747001e+01 6.962240e+01 6.871411e+01 3.090835e+02
<GCONST> 8.285249e+01
<STATE> 3
<MEAN> 13
 -4.650509e+00 2.407031e-01 -4.283532e+00 -4.344335e+00 -1.018091e+00 -6.544637e-01 -5.890548e+00 -4.150546e+00 -9.041570e-01 -3.390172e-01 -3.685323e+00 -3.035757e+00 5.361370e+01
<VARIANCE> 13
 1.353004e+02 9.790845e+01 6.346753e+01 1.526789e+02 1.150625e+02 8.841634e+01 9.878697e+01 7.454828e+01 6.746159e+01 4.810246e+01 7.064043e+01 7.037756e+01 2.996567e+02
<GCONST> 8.299374e+01
<STATE> 4
<MEAN> 13
 -4.126030e+00 4.839505e-01 -3.918276e+00 -4.614577e+00 -8.988876e-01 -4.246075e-01 -6.414625e+00 -4.526930e+00 -1.048565e+00 -3.330012e-01 -3.885453e+00 -3.037821e+00 5.379599e+01
<VARIANCE> 13
 1.301454e+02 1.020513e+02 6.639376e+01 1.604591e+02 1.179003e+02 9.020391e+01 1.025805e+02 7.759615e+01 6.752902e+01 4.915442e+01 7.119086e+01 7.077261e+01 2.954890e+02
<GCONST> 8.323523e+01
<TRANSP> 5
 0.000000e+00 1.000000e+00 0.000000e+00 0.000000e+00 0.000000e+00
 0.000000e+00 7.265264e-01 2.734735e-01 0.000000e+00 0.000000e+00
 0.000000e+00 0.000000e+00 7.265268e-01 2.734732e-01 0.000000e+00
 0.000000e+00 0.000000e+00 0.000000e+00 8.481476e-01 1.518524e-01
 0.000000e+00 0.000000e+00 0.000000e+00 0.000000e+00 0.000000e+00
<ENDHMM>
~h "w"
<BEGINHMM>
<NUMSTATES> 5
<STATE> 2
<MEAN> 13
 -8.678358e+00 -8.264257e-01 3.240998e+00 -1.210174e+00 1.599741e+00 -7.882950e+00 -1.538567e+00 -1.656347e-01 -1.404084e+00 -1.212878e+00 -1.393921e+00 -2.092947e+00 5.684877e+01
<VARIANCE> 13
 1.020180e+02 3.909241e+01 8.828013e+01 4.290915e+01 1.512015e+02 7.828076e+01 6.223652e+01 4.473286e+01 8.091946e+01 3.760255e+01 5.964521e+01 3.768175e+01 1.212845e+02
<GCONST> 7.826991e+01
<STATE> 3
<MEAN> 13
 -8.771133e+00 -3.768152e-01 3.081884e+00 -8.394603e-01 3.805518e-01 -7.123163e+00 -1.148733e+00 -7.342877e-01 -1.955909e+00 -1.464244e+00 -1.855550e+00 -1.574767e+00 5.491306e+01
<VARIANCE> 13
 9.273227e+01 3.715441e+01 9.286118e+01 4.575404e+01 1.361417e+02 8.364051e+01 5.675252e+01 4.710419e+01 7.806190e+01 4.000078e+01 5.933651e+01 3.509003e+01 1.423068e+02
<GCONST> 7.826839e+01
<STATE> 4
<MEAN> 13
 -9.301942e+00 3.442260e-01 2.293319e+00 -4.578529e-02 -7.934045e-01 -5.750987e+00 -4.645652e-01 -1.730661e+00 -2.497472e+00 -2.105432e+00 -2.484603e+00 -9.383600e-01 5.183558e+01
<VARIANCE> 13
 8.196447e+01 3.576437e+01 9.821844e+01 5.451308e+01 1.102443e+02 8.864019e+01 4.901827e+01 5.464543e+01 7.347593e+01 4.655306e+01 5.558871e+01 3.139254e+01 1.662141e+02
<GCONST> 7.825700e+01
<TRANSP> 5
 0.000000e+00 1.000000e+00 0.000000e+00 0.000000e+00 0.000000e+00
 0.000000e+00 7.465519e-01 2.534482e-01 0.000000e+00 0.000000e+00
 0.000000e+00 0.000000e+00 7.465519e-01 2.534481e-01 0.000000e+00
 0.000000e+00 0.000000e+00 0.000000e+00 8.682669e-01 1.317331e-01
 0.000000e+00 0.000000e+00 0.000000e+00 0.000000e+00 0.000000e+00
<ENDHMM>
~h "ah"
<BEGINHMM>
<NUMSTATES> 5
<STATE> 2
<MEAN> 13
 -3.635340e+00 -4.849945e+00 -5.619164e+00 -2.703934e+00 2.381800e+00 -3.783060e+00 -2.073740e+00 -5.505458e-01 6.826629e-01 1.118269e+00 -7.672364e+00 -4.439467e+00 5.847428e+01
<VARIANCE> 13
 1.194653e+02 1.157395e+02 7.097460e+01 1.215017e+02 1.220044e+02 9.142529e+01 8.046227e+01 6.072997e+01 5.654422e+01 4.969601e+01 8.557355e+01 7.713956e+01 3.077493e+02
<GCONST> 8.276805e+01
<STATE> 3
<MEAN> 13
 -3.549793e+00 -4.922467e+00 -5.506584e+00 -2.621308e+00 2.395354e+00 -3.814299e+00 -2.004319e+00 -4.312346e-01 6.995407e-01 1.102051e+00 -7.750492e+00 -4.384961e+00 5.857348e+01
<VARIANCE> 13
 1.173980e+02 1.159990e+02 7.237449e+01 1.220468e+02 1.214541e+02 9.123156e+01 8.015953e+01 6.040213e+01 5.657592e+01 4.945166e+01 8.617801e+01 7.718987e+01 3.059290e+02
<GCONST> 8.275840e+01
<STATE> 4
<MEAN> 13
 -3.676032e+00 -4.724061e+00 -5.170854e+00 -2.576527e+00 2.624025e+00 -3.825333e+00 -1.821518e+00 -3.397960e-01 7.548200e-01 9.583733e-01 -7.772965e+00 -3.958119e+00 5.801163e+01
<VARIANCE> 13
 1.189292e+02 1.172587e+02 7.594046e+01 1.275044e+02 1.236361e+02 9.444825e+01 8.107370e+01 6.106801e+01 5.804357e+01 5.009379e+01 8.802071e+01 7.584621e+01 3.102500e+02
<GCONST> 8.300490e+01
<TRANSP> 5
 0.000000e+00 1.000000e+00 0.000000e+00 0.000000e+00 0.000000e+00
 0.000000e+00 7.233962e-01 2.766038e-01 0.000000e+00 0.000000e+00
 0.000000e+00 0.000000e+00 7.233963e-01 2.766037e-01 0.000000e+00
 0.000000e+00 0.000000e+00 0.000000e+00 8.458032e-01 1.541968e-01
 0.000000e+00 0.000000e+00 0.000000e+00 0.000000e+00 0.000000e+00
<ENDHMM>
~h "ax"
<BEGINHMM>
<NUMSTATES> 5
<STATE> 2
<MEAN> 13
 -2.420745e+00 -3.157914e+00 -1.386420e+00 -4.424394e+00 3.745399e-01 -7.072032e+00 -3.553066e+00 -1.410011e+00 -1.366627e+00 1.333644e+00 -6.529054e+00 -3.045639e+00 6.091563e+01
<VARIANCE> 13
 8.631644e+01 1.093141e+02 8.882373e+01 1.175579e+02 1.291873e+02 9.921993e+01 9.892590e+01 6.199572e+01 8.754311e+01 6.174056e+01 8.478686e+01 6.917384e+01 1.797300e+02
<GCONST> 8.294156e+01
<STATE> 3
<MEAN> 13
 -2.638070e+00 -2.886010e+00 -2.011399e+00 -4.085209e+00 8.661315e-01 -6.728673e+00 -3.532939e+00 -1.534638e+00 -1.119341e+00 1.322379e+00 -6.642483e+00 -3.112099e+00 6.031067e+01
<VARIANCE> 13
 8.783141e+01 1.101734e+02 8.620013e+01 1.189616e+02 1.276028e+02 9.666140e+01 9.461716e+01 6.224734e+01 9.017663e+01 6.221399e+01 8.546301e+01 6.909738e+01 1.888156e+02
<GCONST> 8.296316e+01
<STATE> 4
<MEAN> 13
 -3.358863e+00 -2.285726e+00 -2.739770e+00 -3.487164e+00 1.942696e+00 -6.485356e+00 -3.313565e+00 -1.778486e+00 -6.423082e-01 1.041090e+00 -6.751721e+00 -2.785642e+00 5.885687e+01
<VARIANCE> 13
 9.795904e+01 1.128297e+02 8.086652e+01 1.257310e+02 1.300697e+02 9.676229e+01 9.095776e+01 6.608799e+01 9.824250e+01 6.424812e+01 8.649683e+01 6.842822e+01 2.094820e+02
<GCONST> 8.335220e+01
<TRANSP> 5
 0.000000e+00 1.000000e+00 0.000000e+00 0.000000e+00 0.000000e+00
 0.000000e+00 7.193059e-01 2.806942e-01 0.000000e+00 0.000000e+00
 0.000000e+00 0.000000e+00 7.193055e-01 2.806945e-01 0.000000e+00
 0.000000e+00 0.000000e+00 0.000000e+00 8.413231e-01 1.586769e-01
 0.000000e+00 0.000000e+00 0.000000e+00 0.000000e+00 0.000000e+00
<ENDHMM>
~h "ay"
<BEGINHMM>
<NUMSTATES> 5
<STATE> 2
<MEAN> 13
 -1.507485e+01 -5.508062e-01 -5.976387e+00 2.781940e+00 -2.114200e-01 -4.402253e+00 2.152560e+00 1.970280e+00 2.375762e+00 1.651663e-01 -2.050861e+00 -6.730869e-01 4.728571e+01
<VARIANCE> 13
 1.719539e+02 6.648875e+01 4.635305e+01 6.960452e+01 9.341886e+01 1.066889e+02 6.036015e+01 2.366684e+01 3.234651e+01 2.830753e+01 4.964183e+01 2.625335e+01 4.585591e+02
<GCONST> 7.790754e+01
<STATE> 3
<MEAN> 13
 -1.361300e+01 -1.604230e+00 -5.149708e+00 1.550978e+00 3.707602e-02 -6.210832e+00 2.558103e+00 1.994350e+00 2.078509e+00 2.359956e-01 -2.912233e+00 -6.118107e-01 5.033921e+01
<VARIANCE> 13
 1.903322e+02 7.922208e+01 5.826145e+01 8.146964e+01 1.090445e+02 1.145349e+02 6.948638e+01 2.715261e+01 3.860325e+01 3.309449e+01 5.916825e+01 3.115839e+01 4.598943e+02
<GCONST> 7.975701e+01
<STATE> 4
<MEAN> 13
 -1.152338e+01 -3.168181e+00 -3.240319e+00 -1.298784e+00 8.891442e-01 -8.998930e+00 3.374459e+00 1.810905e+00 1.789490e+00 1.027981e-01 -4.400809e+00 -2.514779e-02 5.438593e+01
<VARIANCE> 13
 2.081603e+02 9.286044e+01 7.630640e+01 1.025872e+02 1.341210e+02 1.187980e+02 8.429931e+01 3.256786e+01 4.830118e+01 4.136898e+01 7.174732e+01 3.801892e+01 4.228709e+02
<GCONST> 8.187943e+01
<TRANSP> 5
 0.000000e+00 1.000000e+00 0.000000e+00 0.000000e+00 0.000000e+00
 0.000000e+00 7.249814e-01 2.750186e-01 0.000000e+00 0.000000e+00
 0.000000e+00 0.000000e+00 7.249817e-01 2.750183e-01 0.000000e+00
 0.000000e+00 0.000000e+00 0.000000e+00 8.476964e-01 1.523037e-01
 0.000000e+00 0.000000e+00 0.000000e+00 0.000000e+00 0.000000e+00
<ENDHMM>
~h "eh"
<BEGINHMM>
<NUMSTATES> 5
<STATE> 2
<MEAN> 13
 2.454626e+00 -4.313651e+00 2.218369e+00 -2.809544e+00 -2.678667e+00 -1.168422e+01 -9.934891e+00 1.205169e+00 -2.289006e+00 2.795682e+00 -4.714009e+00 -3.981118e+00 6.351862e+01
<VARIANCE> 13
 1.820142e+01 1.203791e+02 4.157465e+01 9.541016e+01 1.195359e+02 8.844476e+01 7.037373e+01 1.031866e+02 4.013795e+01 4.504606e+01 6.393331e+01 9.061623e+01 9.447931e+01
<GCONST> 7.873943e+01
<STATE> 3
<MEAN> 13
 2.185174e+00 -3.411960e+00 2.146020e+00 -3.860837e+00 -1.969189e+00 -1.088317e+01 -9.869915e+00 8.065441e-01 -2.824103e+00 3.057492e+00 -4.290987e+00 -3.428719e+00 6.317481e+01
<VARIANCE> 13
 2.593085e+01 1.172507e+02 4.255966e+01 9.524441e+01 1.119912e+02 1.032001e+02 6.868850e+01 1.038273e+02 3.970292e+01 4.904242e+01 6.140264e+01 8.348006e+01 9.132912e+01
<GCONST> 7.907755e+01
<STATE> 4
<MEAN> 13
 1.641509e+00 -1.995213e+00 1.742819e+00 -4.787537e+00 -7.582257e-01 -9.548892e+00 -9.356172e+00 2.213365e-01 -3.339053e+00 3.412429e+00 -3.822011e+00 -2.743294e+00 6.234424e+01
<VARIANCE> 13
 3.958011e+01 1.138450e+02 4.524315e+01 9.713810e+01 1.030633e+02 1.196347e+02 6.933475e+01 1.007756e+02 3.973927e+01 5.442700e+01 5.784731e+01 7.219596e+01 8.977908e+01
<GCONST> 7.947912e+01
<TRANSP> 5
 0.000000e+00 1.000000e+00 0.000000e+00 0.000000e+00 0.000000e+00
 0.000000e+00 7.074523e-01 2.925478e-01 0.000000e+00 0.000000e+00
 0.000000e+00 0.000000e+00 7.074524e-01 2.925476e-01 0.000000e+00
 0.000000e+00 0.000000e+00 0.000000e+00 8.234078e-01 1.765922e-01
 0.000000e+00 0.000000e+00 0.000000e+00 0.000000e+00 0.000000e+00
<ENDHMM>
~h "hh"
<BEGINHMM>
<NUMSTATES> 5
<STATE> 2
<MEAN> 13
 6.971056e-01 -1.236952e+01 -4.298958e+00 -7.258259e+00 5.154545e+00 -7.878129e+00 -1.029400e+00 3.110181e+00 1.380021e+00 1.003631e+00 -1.642287e+01 -3.559835e+00 6.944106e+01
<VARIANCE> 13
 1.742537e+01 4.884213e+01 7.040706e+01 9.594006e+01 1.080119e+02 7.411177e+01 1.030018e+02 5.652613e+01 4.367588e+01 3.143424e+01 4.410910e+01 7.068504e+01 8.891605e+01
<GCONST> 7.687149e+01
<STATE> 3
<MEAN> 13
 7.280171e-01 -1.258548e+01 -4.109713e+00 -6.990099e+00 5.442580e+00 -7.633131e+00 -6.517956e-01 2.705123e+00 1.352611e+00 9.871984e-01 -1.665428e+01 -3.391104e+00 6.983634e+01
<VARIANCE> 13
 1.368438e+01 4.334593e+01 8.047857e+01 9.130220e+01 1.142754e+02 7.112978e+01 1.049449e+02 5.326101e+01 4.711288e+01 3.144709e+01 4.489192e+01 6.980294e+01 7.099323e+01
<GCONST> 7.642517e+01
<STATE> 4
<MEAN> 13
 6.538752e-01 -1.241322e+01 -2.991099e+00 -6.497011e+00 5.656849e+00 -7.519567e+00 1.731315e-01 1.844142e+00 1.295575e+00 1.203554e+00 -1.654617e+01 -2.768455e+00 6.962463e+01
<VARIANCE> 13
 1.235158e+01 4.002616e+01 1.032482e+02 8.680978e+01 1.315311e+02 6.824110e+01 1.083112e+02 4.884847e+01 5.760874e+01 3.228807e+01 5.504993e+01 6.815446e+01 5.658961e+01
<GCONST> 7.666681e+01
<TRANSP> 5
 0.000000e+00 1.000000e+00 0.000000e+00 0.000000e+00 0.000000e+00
 0.000000e+00 7.237277e-01 2.762723e-01 0.000000e+00 0.000000e+00
 0.000000e+00 0.000000e+00 7.237281e-01 2.762719e-01 0.000000e+00
 0.000000e+00 0.000000e+00 0.000000e+00 8.455679e-01 1.544322e-01
 0.000000e+00 0.000000e+00 0.000000e+00 0.000000e+00 0.000000e+00
<ENDHMM>
~h "ih"
<BEGINHMM>
<NUMSTATES> 5
<STATE> 2
<MEAN> 13
 -6.258045e+00 1.874846e+00 1.252485e+00 1.367239e+00 -4.906800e+00 -3.876001e+00 -4.459445e+00 -1.332781e+00 -3.466903e+00 -4.613840e-01 -1.442027e+00 -4.767181e+00 5.219009e+01
<VARIANCE> 13
 1.257145e+02 1.142276e+02 1.223483e+02 1.149524e+02 9.209860e+01 1.063086e+02 7.622043e+01 6.742637e+01 7.885371e+01 4.881725e+01 6.035302e+01 7.855213e+01 3.297490e+02
<GCONST> 8.326786e+01
<STATE> 3
<MEAN> 13
 -6.711103e+00 1.768436e+00 1.096499e+00 1.311155e+00 -5.158242e+00 -3.714024e+00 -4.363822e+00 -1.237980e+00 -3.294777e+00 -3.809404e-01 -1.177470e+00 -5.026737e+00 5.180331e+01
<VARIANCE> 13
 1.259552e+02 1.110655e+02 1.256265e+02 1.105354e+02 8.946526e+01 1.072434e+02 7.078855e+01 6.797620e+01 7.775601e+01 4.585430e+01 5.811020e+01 7.814500e+01 3.475747e+02
<GCONST> 8.307584e+01
<STATE> 4
<MEAN> 13
 -7.568603e+00 1.700790e+00 4.894020e-01 1.123937e+00 -5.044499e+00 -3.118307e+00 -3.987209e+00 -1.068963e+00 -2.816869e+00 -2.699097e-01 -1.115637e+00 -5.051254e+00 5.068909e+01
<VARIANCE> 13
 1.312332e+02 1.094949e+02 1.299770e+02 1.096454e+02 8.627175e+01 1.085164e+02 6.623295e+01 6.953081e+01 7.647492e+01 4.290188e+01 5.527122e+01 7.751629e+01 3.745347e+02
<GCONST> 8.299352e+01
<TRANSP> 5
 0.000000e+00 1.000000e+00 0.000000e+00 0.000000e+00 0.000000e+00
 0.000000e+00 7.290095e-01 2.709906e-01 0.000000e+00 0.000000e+00
 0.000000e+00 0.000000e+00 7.290093e-01 2.709907e-01 0.000000e+00
 0.000000e+00 0.000000e+00 0.000000e+00 8.509108e-01 1.490892e-01
 0.000000e+00 0.000000e+00 0.000000e+00 0.000000e+00 0.000000e+00
<ENDHMM>
~h "iy"
<BEGINHMM>
<NUMSTATES> 5
<STATE> 2
<MEAN> 13
 -2.017370e+00 -4.964070e+00 3.282236e+00 -2.189903e+00 -3.714544e+00 -7.774230e+00 -2.575588e+00 -1.872785e+00 -4.162808e+00 2.517100e-01 -6.724588e+00 -3.743023e+00 6.291248e+01
<VARIANCE> 13
 7.085025e+01 1.085822e+02 1.924046e+02 7.649584e+01 1.613748e+02 8.791329e+01 1.017521e+02 4.745908e+01 9.691723e+01 5.163733e+01 1.200801e+02 7.193644e+01 1.434453e+02
<GCONST> 8.302780e+01
<STATE> 3
<MEAN> 13
 -2.291245e+00 -3.966232e+00 3.267171e+00 -1.677348e+00 -4.294324e+00 -7.647451e+00 -2.714489e+00 -2.240552e+00 -4.449828e+00 -3.974434e-03 -5.777030e+00 -3.946997e+00 6.191250e+01
<VARIANCE> 13
 7.953677e+01 1.140507e+02 1.860812e+02 8.064972e+01 1.575024e+02 9.544210e+01 1.032804e+02 4.930446e+01 9.623236e+01 5.479885e+01 1.165728e+02 7.331174e+01 1.571509e+02
<GCONST> 8.345586e+01
<STATE> 4
<MEAN> 13
 -2.767906e+00 -2.330528e+00 3.030957e+00 -1.128561e+00 -4.300980e+00 -7.076090e+00 -2.545235e+00 -2.762319e+00 -4.667785e+00 -3.223940e-01 -4.928859e+00 -3.828806e+00 5.986902e+01
<VARIANCE> 13
 9.543332e+01 1.224841e+02 1.769402e+02 8.949460e+01 1.506290e+02 1.080065e+02 1.061921e+02 5.241283e+01 9.565588e+01 6.043322e+01 1.073195e+02 7.374149e+01 1.791934e+02
<GCONST> 8.407736e+01
<TRANSP> 5
 0.000000e+00 1.000000e+00 0.000000e+00 0.000000e+00 0.000000e+00
 0.000000e+00 7.267899e-01 2.732101e-01 0.000000e+00 0.000000e+00
 0.000000e+00 0.000000e+00 7.267897e-01 2.732103e-01 0.000000e+00
 0.000000e+00 0.000000e+00 0.000000e+00 8.487957e-01 1.512043e-01
 0.000000e+00 0.000000e+00 0.000000e+00 0.000000e+00 0.000000e+00
<ENDHMM>
~h "ng"
<BEGINHMM>
<NUMSTATES> 5
<STATE> 2
<MEAN> 13
 -7.363977e+00 1.882195e+00 -3.565731e+00 2.207574e+00 -2.375100e+00 7.330235e-01 -2.287745e+00 -2.684228e-01 -8.430241e-01 -1.209968e+00 -1.781639e+00 -2.643147e+00 4.729168e+01
<VARIANCE> 13
 1.361209e+02 9.223344e+01 5.638404e+01 6.104784e+01 9.851784e+01 8.783456e+01 5.188922e+01 4.992818e+01 6.285370e+01 3.930224e+01 6.954749e+01 5.399581e+01 3.388288e+02
<GCONST> 8.026801e+01
<STATE> 3
<MEAN> 13
 -8.586088e+00 1.968073e+00 -3.567447e+00 2.317286e+00 -2.314406e+00 6.754092e-01 -1.726354e+00 9.195951e-02 -5.633383e-01 -1.361449e+00 -1.498681e+00 -2.022109e+00 4.609323e+01
<VARIANCE> 13
 1.342041e+02 8.164263e+01 5.078521e+01 5.730170e+01 9.604226e+01 8.716216e+01 5.154451e+01 4.835644e+01 5.940326e+01 3.492779e+01 7.361671e+01 4.709634e+01 3.355210e+02
<GCONST> 7.962804e+01
<STATE> 4
<MEAN> 13
 -1.045749e+01 2.358727e+00 -3.962442e+00 2.746233e+00 -2.615705e+00 1.201397e+00 -1.102768e+00 5.229785e-01 -2.190648e-01 -1.551034e+00 -9.812584e-01 -1.456583e+00 4.373517e+01
<VARIANCE> 13
 1.305896e+02 7.107178e+01 4.664120e+01 5.295420e+01 8.640453e+01 8.254804e+01 4.984732e+01 4.690323e+01 5.432253e+01 3.165121e+01 6.987051e+01 3.881530e+01 3.243584e+02
<GCONST> 7.860655e+01
<TRANSP> 5
 0.000000e+00 1.000000e+00 0.000000e+00 0.000000e+00 0.000000e+00
 0.000000e+00 7.286749e-01 2.713251e-01 0.000000e+00 0.000000e+00
 0.000000e+00 0.000000e+00 7.286750e-01 2.713250e-01 0.000000e+00
 0.000000e+00 0.000000e+00 0.000000e+00 8.509326e-01 1.490673e-01
 0.000000e+00 0.000000e+00 0.000000e+00 0.000000e+00 0.000000e+00
<ENDHMM>
~h "oh"
<BEGINHMM>
<NUMSTATES> 5
<STATE> 2
<MEAN> 13
 -6.433128e-01 -5.713514e+00 -9.295706e+00 -7.369801e+00 -1.700269e-01 -7.605468e-02 -2.568214e+00 -3.379499e+00 2.864132e+00 1.546631e+00 -5.085073e+00 -6.267002e+00 6.081024e+01
<VARIANCE> 13
 9.100851e+01 1.059638e+02 5.370070e+01 1.993224e+02 1.235973e+02 7.332767e+01 7.595460e+01 7.488831e+01 5.952362e+01 6.066854e+01 5.833288e+01 9.432854e+01 3.078696e+02
<GCONST> 8.263733e+01
<STATE> 3
<MEAN> 13
 -1.011446e+00 -5.296646e+00 -9.306213e+00 -6.306698e+00 -6.522175e-02 4.051514e-01 -2.281769e+00 -3.184920e+00 2.806939e+00 1.219373e+00 -5.018150e+00 -6.048311e+00 5.973544e+01
<VARIANCE> 13
 1.001488e+02 1.115689e+02 4.892356e+01 1.886741e+02 1.220871e+02 7.153526e+01 6.922971e+01 7.003518e+01 5.672606e+01 6.167557e+01 5.715198e+01 9.157029e+01 3.277172e+02
<GCONST> 8.242043e+01
<STATE> 4
<MEAN> 13
 -2.077323e+00 -4.225202e+00 -9.135962e+00 -4.485686e+00 3.897092e-02 1.164576e+00 -2.050746e+00 -2.854989e+00 2.623263e+00 6.914445e-01 -4.846925e+00 -5.482832e+00 5.712134e+01
<VARIANCE> 13
 1.215538e+02 1.200780e+02 4.414952e+01 1.736226e+02 1.175476e+02 7.033512e+01 6.008445e+01 6.348355e+01 5.276111e+01 6.165418e+01 5.679601e+01 8.630746e+01 3.696865e+02
<GCONST> 8.218938e+01
<TRANSP> 5
 0.000000e+00 1.000000e+00 0.000000e+00 0.000000e+00 0.000000e+00
 0.000000e+00 7.403180e-01 2.596819e-01 0.000000e+00 0.000000e+00
 0.000000e+00 0.000000e+00 7.403178e-01 2.596822e-01 0.000000e+00
 0.000000e+00 0.000000e+00 0.000000e+00 8.626654e-01 1.373346e-01
 0.000000e+00 0.000000e+00 0.000000e+00 0.000000e+00 0.000000e+00
<ENDHMM>
~h "uh"
<BEGINHMM>
<NUMSTATES> 5
<STATE> 2
<MEAN> 13
 -7.635092e+00 2.650013e+00 -3.651089e+00 -2.348788e+00 -2.422348e+00 2.030545e+00 -6.383121e+00 -4.185354e+00 -1.089297e+00 -4.495739e-01 -1.217361e+00 -2.149929e+00 4.787658e+01
<VARIANCE> 13
 1.674742e+02 5.506332e+01 4.522631e+01 1.268321e+02 7.908718e+01 5.972850e+01 9.356049e+01 6.672848e+01 5.032790e+01 3.418273e+01 4.369517e+01 4.108498e+01 3.101645e+02
<GCONST> 7.955613e+01
<STATE> 3
<MEAN> 13
 -7.258416e+00 2.713623e+00 -3.711615e+00 -2.593521e+00 -2.354976e+00 1.929109e+00 -6.549520e+00 -4.369339e+00 -1.301493e+00 -4.826023e-01 -1.256770e+00 -2.263441e+00 4.826276e+01
<VARIANCE> 13
 1.639744e+02 5.793299e+01 4.383863e+01 1.306380e+02 8.197942e+01 5.953505e+01 9.452966e+01 6.694978e+01 5.083237e+01 3.456871e+01 4.465696e+01 4.094253e+01 3.070045e+02
<GCONST> 7.965974e+01
<STATE> 4
<MEAN> 13
 -6.756597e+00 2.965305e+00 -3.746829e+00 -3.098916e+00 -2.349276e+00 1.882532e+00 -6.921181e+00 -4.720351e+00 -1.668079e+00 -5.611573e-01 -1.352172e+00 -2.236589e+00 4.867165e+01
<VARIANCE> 13
 1.612473e+02 6.355548e+01 4.376674e+01 1.433553e+02 8.710860e+01 6.253355e+01 9.506896e+01 6.831538e+01 5.305448e+01 3.682174e+01 4.719439e+01 4.402730e+01 3.066934e+02
<GCONST> 8.019540e+01
<TRANSP> 5
 0.000000e+00 1.000000e+00 0.000000e+00 0.000000e+00 0.000000e+00
 0.000000e+00 7.265427e-01 2.734574e-01 0.000000e+00 0.000000e+00
 0.000000e+00 0.000000e+00 7.265421e-01 2.734579e-01 0.000000e+00
 0.000000e+00 0.000000e+00 0.000000e+00 8.477633e-01 1.522367e-01
 0.000000e+00 0.000000e+00 0.000000e+00 0.000000e+00 0.000000e+00
<ENDHMM>
~h "uw"
<BEGINHMM>
<NUMSTATES> 5
<STATE> 2
<MEAN> 13
 -3.206447e+00 2.613833e-01 -5.232752e+00 -5.658694e+00 -6.586641e-01 -4.465816e-01 -6.650633e+00 -3.507812e+00 -7.635766e-01 3.267203e-01 -3.322475e+00 -4.755622e+00 5.533209e+01
<VARIANCE> 13
 1.273311e+02 1.074226e+02 5.072080e+01 1.890682e+02 1.250279e+02 8.828358e+01 9.258894e+01 6.919804e+01 7.086491e+01 6.026884e+01 6.423196e+01 7.575388e+01 3.037717e+02
<GCONST> 8.322449e+01
<STATE> 3
<MEAN> 13
 -2.980853e+00 -2.014332e-01 -5.352054e+00 -5.987581e+00 -6.091297e-01 -1.789174e-01 -6.730008e+00 -3.420660e+00 -7.850878e-01 6.148542e-01 -3.357129e+00 -4.810958e+00 5.564576e+01
<VARIANCE> 13
 1.259986e+02 1.066140e+02 5.159707e+01 1.919773e+02 1.236662e+02 8.633738e+01 9.173515e+01 6.871904e+01 6.947583e+01 6.104076e+01 6.509746e+01 7.976906e+01 3.078199e+02
<GCONST> 8.326057e+01
<STATE> 4
<MEAN> 13
 -2.931969e+00 -6.840026e-01 -5.503136e+00 -6.183613e+00 -6.510863e-02 2.312186e-01 -6.577399e+00 -3.095026e+00 -7.062762e-01 1.044035e+00 -3.720373e+00 -4.551749e+00 5.529139e+01
<VARIANCE> 13
 1.299329e+02 1.088918e+02 5.529942e+01 2.011857e+02 1.242458e+02 8.847536e+01 9.114679e+01 6.850666e+01 6.882671e+01 6.488703e+01 6.739623e+01 8.238177e+01 3.212389e+02
<GCONST> 8.360953e+01
<TRANSP> 5
 0.000000e+00 1.000000e+00 0.000000e+00 0.000000e+00 0.000000e+00
 0.000000e+00 7.295634e-01 2.704366e-01 0.000000e+00 0.000000e+00
 0.000000e+00 0.000000e+00 7.295635e-01 2.704365e-01 0.000000e+00
 0.000000e+00 0.000000e+00 0.000000e+00 8.525515e-01 1.474485e-01
 0.000000e+00 0.000000e+00 0.000000e+00 0.000000e+00 0.000000e+00
<ENDHMM>
~h "sil"
<BEGINHMM>
<NUMSTATES> 5
<STATE> 2
<MEAN> 13
 -1.698979e+01 2.741723e+00 -4.928694e+00 3.837378e+00 -1.855062e+00 3.039418e+00 -1.029178e-01 1.433581e+00 2.112402e+00 -8.627174e-01 8.588201e-01 -1.229338e+00 3.812894e+01
<VARIANCE> 13
 8.174804e+01 1.911328e+01 3.149795e+01 2.611652e+01 3.941484e+01 3.218278e+01 2.465891e+01 1.847351e+01 1.953233e+01 1.419034e+01 1.481281e+01 1.415137e+01 2.610299e+02
<GCONST> 6.776054e+01
<STATE> 3
<MEAN> 13
 -1.706598e+01 2.679491e+00 -5.063300e+00 3.803241e+00 -1.952883e+00 2.996163e+00 -1.243867e-01 1.473729e+00 2.206582e+00 -9.091306e-01 8.575933e-01 -1.129128e+00 3.803876e+01
<VARIANCE> 13
 8.012141e+01 1.913182e+01 3.136073e+01 2.529032e+01 3.820890e+01 3.138969e+01 2.483158e+01 1.830732e+01 1.936408e+01 1.349614e+01 1.382598e+01 1.279608e+01 2.604364e+02
<GCONST> 6.741612e+01
<STATE> 4
<MEAN> 13
 -1.724644e+01 2.573519e+00 -5.517968e+00 3.713517e+00 -2.241822e+00 3.118688e+00 -2.620336e-01 1.435390e+00 2.004634e+00 -8.447493e-01 8.584832e-01 -1.086624e+00 3.703097e+01
<VARIANCE> 13
 8.672623e+01 1.884949e+01 3.081425e+01 2.615672e+01 3.819114e+01 3.457531e+01 2.630877e+01 1.916707e+01 2.011160e+01 1.439010e+01 1.444920e+01 1.274687e+01 2.599006e+02
<GCONST> 6.783663e+01
<TRANSP> 5
 0.000000e+00 1.000000e+00 0.000000e+00 0.000000e+00 0.000000e+00
 0.000000e+00 7.247750e-01 2.752250e-01 0.000000e+00 0.000000e+00
 0.000000e+00 0.000000e+00 7.247752e-01 2.752248e-01 0.000000e+00
 0.000000e+00 0.000000e+00 0.000000e+00 8.469263e-01 1.530737e-01
 0.000000e+00 0.000000e+00 0.000000e+00 0.000000e+00 0.000000e+00
<ENDHMM>
