~o
<STREAMINFO> 1 39
<VECSIZE> 39<NULLD><MFCC_D_A_0><DIAGC>
~h "proto"
<BEGINHMM>
<NUMSTATES> 5
<STATE> 2
<MEAN> 39
 -5.540754e+00 -4.593094e+00 -5.886107e+00 -2.051158e+00 -2.047680e+00 2.995364e-01 -4.152934e+00 -3.820715e+00 -3.791271e-01 -4.786293e-01 -3.003507e+00 -4.052297e+00 5.408783e+01 2.991522e-02 -4.559334e-03 1.209428e-02 -2.935299e-04 1.549370e-02 -6.369019e-04 6.413722e-03 8.843887e-04 -1.274266e-04 2.344326e-04 -1.059110e-03 3.762613e-03 3.063725e-02 4.965349e-04 6.638948e-04 -5.625560e-04 -9.090425e-04 -1.391503e-03 -6.739278e-04 -2.545589e-04 -1.068510e-04 2.837224e-04 1.153299e-03 -6.332015e-04 -4.106244e-04 -7.317080e-04
<VARIANCE> 39
 1.368144e+02 1.233146e+02 7.290869e+01 1.072720e+02 1.010434e+02 8.702016e+01 6.430105e+01 6.611124e+01 7.624178e+01 5.494548e+01 7.236217e+01 5.260833e+01 3.325370e+02 2.099768e+00 2.846263e+00 2.236399e+00 3.415279e+00 3.021693e+00 2.827058e+00 2.881466e+00 2.734740e+00 2.919242e+00 2.566823e+00 2.731632e+00 2.094192e+00 3.332080e+00 2.827001e-01 3.883219e-01 3.310874e-01 4.963634e-01 4.778731e-01 4.680221e-01 4.909955e-01 4.819474e-01 4.861259e-01 4.529819e-01 4.576955e-01 3.638833e-01 3.980621e-01
<GCONST> 1.320145e+02
<STATE> 3
<MEAN> 39
 -5.540754e+00 -4.593094e+00 -5.886107e+00 -2.051158e+00 -2.047680e+00 2.995364e-01 -4.152934e+00 -3.820715e+00 -3.791271e-01 -4.786293e-01 -3.003507e+00 -4.052297e+00 5.408783e+01 2.991522e-02 -4.559334e-03 1.209428e-02 -2.935299e-04 1.549370e-02 -6.369019e-04 6.413722e-03 8.843887e-04 -1.274266e-04 2.344326e-04 -1.059110e-03 3.762613e-03 3.063725e-02 4.965349e-04 6.638948e-04 -5.625560e-04 -9.090425e-04 -1.391503e-03 -6.739278e-04 -2.545589e-04 -1.068510e-04 2.837224e-04 1.153299e-03 -6.332015e-04 -4.106244e-04 -7.317080e-04
<VARIANCE> 39
 1.368144e+02 1.233146e+02 7.290869e+01 1.072720e+02 1.010434e+02 8.702016e+01 6.430105e+01 6.611124e+01 7.624178e+01 5.494548e+01 7.236217e+01 5.260833e+01 3.325370e+02 2.099768e+00 2.846263e+00 2.236399e+00 3.415279e+00 3.021693e+00 2.827058e+00 2.881466e+00 2.734740e+00 2.919242e+00 2.566823e+00 2.731632e+00 2.094192e+00 3.332080e+00 2.827001e-01 3.883219e-01 3.310874e-01 4.963634e-01 4.778731e-01 4.680221e-01 4.909955e-01 4.819474e-01 4.861259e-01 4.529819e-01 4.576955e-01 3.638833e-01 3.980621e-01
<GCONST> 1.320145e+02
<STATE> 4
<MEAN> 39
 -5.540754e+00 -4.593094e+00 -5.886107e+00 -2.051158e+00 -2.047680e+00 2.995364e-01 -4.152934e+00 -3.820715e+00 -3.791271e-01 -4.786293e-01 -3.003507e+00 -4.052297e+00 5.408783e+01 2.991522e-02 -4.559334e-03 1.209428e-02 -2.935299e-04 1.549370e-02 -6.369019e-04 6.413722e-03 8.843887e-04 -1.274266e-04 2.344326e-04 -1.059110e-03 3.762613e-03 3.063725e-02 4.965349e-04 6.638948e-04 -5.625560e-04 -9.090425e-04 -1.391503e-03 -6.739278e-04 -2.545589e-04 -1.068510e-04 2.837224e-04 1.153299e-03 -6.332015e-04 -4.106244e-04 -7.317080e-04
<VARIANCE> 39
 1.368144e+02 1.233146e+02 7.290869e+01 1.072720e+02 1.010434e+02 8.702016e+01 6.430105e+01 6.611124e+01 7.624178e+01 5.494548e+01 7.236217e+01 5.260833e+01 3.325370e+02 2.099768e+00 2.846263e+00 2.236399e+00 3.415279e+00 3.021693e+00 2.827058e+00 2.881466e+00 2.734740e+00 2.919242e+00 2.566823e+00 2.731632e+00 2.094192e+00 3.332080e+00 2.827001e-01 3.883219e-01 3.310874e-01 4.963634e-01 4.778731e-01 4.680221e-01 4.909955e-01 4.819474e-01 4.861259e-01 4.529819e-01 4.576955e-01 3.638833e-01 3.980621e-01
<GCONST> 1.320145e+02
<TRANSP> 5
 0.000000e+00 1.000000e+00 0.000000e+00 0.000000e+00 0.000000e+00
 0.000000e+00 6.000000e-01 4.000000e-01 0.000000e+00 0.000000e+00
 0.000000e+00 0.000000e+00 6.000000e-01 4.000000e-01 0.000000e+00
 0.000000e+00 0.000000e+00 0.000000e+00 7.000000e-01 3.000000e-01
 0.000000e+00 0.000000e+00 0.000000e+00 0.000000e+00 0.000000e+00
<ENDHMM>
