~o
<STREAMINFO> 1 13
<VECSIZE> 13<NULLD><MFCC_0><DIAGC>
~h "proto"
<BEGINHMM>
<NUMSTATES> 5
<STATE> 2
<MEAN> 13
 -5.566192e+00 -4.577676e+00 -5.864584e+00 -2.052908e+00 -2.052489e+00 2.655284e-01 -4.130686e+00 -3.806829e+00 -4.240976e-01 -4.871410e-01 -3.004783e+00 -4.020805e+00 5.407302e+01
<VARIANCE> 13
 1.366324e+02 1.230665e+02 7.273753e+01 1.074312e+02 1.008529e+02 8.729731e+01 6.446510e+01 6.605509e+01 7.601985e+01 5.494282e+01 7.228269e+01 5.269920e+01 3.325496e+02
<GCONST> 8.241499e+01
<STATE> 3
<MEAN> 13
 -5.566192e+00 -4.577676e+00 -5.864584e+00 -2.052908e+00 -2.052489e+00 2.655284e-01 -4.130686e+00 -3.806829e+00 -4.240976e-01 -4.871410e-01 -3.004783e+00 -4.020805e+00 5.407302e+01
<VARIANCE> 13
 1.366324e+02 1.230665e+02 7.273753e+01 1.074312e+02 1.008529e+02 8.729731e+01 6.446510e+01 6.605509e+01 7.601985e+01 5.494282e+01 7.228269e+01 5.269920e+01 3.325496e+02
<GCONST> 8.241499e+01
<STATE> 4
<MEAN> 13
 -5.566192e+00 -4.577676e+00 -5.864584e+00 -2.052908e+00 -2.052489e+00 2.655284e-01 -4.130686e+00 -3.806829e+00 -4.240976e-01 -4.871410e-01 -3.004783e+00 -4.020805e+00 5.407302e+01
<VARIANCE> 13
 1.366324e+02 1.230665e+02 7.273753e+01 1.074312e+02 1.008529e+02 8.729731e+01 6.446510e+01 6.605509e+01 7.601985e+01 5.494282e+01 7.228269e+01 5.269920e+01 3.325496e+02
<GCONST> 8.241499e+01
<TRANSP> 5
 0.000000e+00 1.000000e+00 0.000000e+00 0.000000e+00 0.000000e+00
 0.000000e+00 6.000000e-01 4.000000e-01 0.000000e+00 0.000000e+00
 0.000000e+00 0.000000e+00 6.000000e-01 4.000000e-01 0.000000e+00
 0.000000e+00 0.000000e+00 0.000000e+00 7.000000e-01 3.000000e-01
 0.000000e+00 0.000000e+00 0.000000e+00 0.000000e+00 0.000000e+00
<ENDHMM>
