~o
<STREAMINFO> 1 13
<VECSIZE> 13<NULLD><MFCC_0><DIAGC>
~t "T_b"
<TRANSP> 5
 0.000000e+00 1.000000e+00 0.000000e+00 0.000000e+00 0.000000e+00
 0.000000e+00 8.583398e-01 1.416602e-01 0.000000e+00 0.000000e+00
 0.000000e+00 0.000000e+00 8.088167e-01 1.911833e-01 0.000000e+00
 0.000000e+00 0.000000e+00 0.000000e+00 7.831047e-01 2.168953e-01
 0.000000e+00 0.000000e+00 0.000000e+00 0.000000e+00 0.000000e+00
~t "T_d"
<TRANSP> 5
 0.000000e+00 1.000000e+00 0.000000e+00 0.000000e+00 0.000000e+00
 0.000000e+00 5.175543e-01 4.824457e-01 0.000000e+00 0.000000e+00
 0.000000e+00 0.000000e+00 2.343262e-01 7.656738e-01 0.000000e+00
 0.000000e+00 0.000000e+00 0.000000e+00 6.722733e-02 9.327727e-01
 0.000000e+00 0.000000e+00 0.000000e+00 0.000000e+00 0.000000e+00
~t "T_g"
<TRANSP> 5
 0.000000e+00 1.000000e+00 0.000000e+00 0.000000e+00 0.000000e+00
 0.000000e+00 7.254928e-01 2.745071e-01 0.000000e+00 0.000000e+00
 0.000000e+00 0.000000e+00 8.072817e-01 1.927183e-01 0.000000e+00
 0.000000e+00 0.000000e+00 0.000000e+00 8.539550e-01 1.460450e-01
 0.000000e+00 0.000000e+00 0.000000e+00 0.000000e+00 0.000000e+00
~t "T_j"
<TRANSP> 5
 0.000000e+00 1.000000e+00 0.000000e+00 0.000000e+00 0.000000e+00
 0.000000e+00 8.931122e-01 1.068878e-01 0.000000e+00 0.000000e+00
 0.000000e+00 0.000000e+00 8.525594e-01 1.474406e-01 0.000000e+00
 0.000000e+00 0.000000e+00 0.000000e+00 8.308959e-01 1.691041e-01
 0.000000e+00 0.000000e+00 0.000000e+00 0.000000e+00 0.000000e+00
~t "T_k"
<TRANSP> 5
 0.000000e+00 1.000000e+00 0.000000e+00 0.000000e+00 0.000000e+00
 0.000000e+00 4.236140e-01 5.763860e-01 0.000000e+00 0.000000e+00
 0.000000e+00 0.000000e+00 3.005503e-01 6.994497e-01 0.000000e+00
 0.000000e+00 0.000000e+00 0.000000e+00 6.256394e-01 3.743606e-01
 0.000000e+00 0.000000e+00 0.000000e+00 0.000000e+00 0.000000e+00
~t "T_l"
<TRANSP> 5
 0.000000e+00 1.000000e+00 0.000000e+00 0.000000e+00 0.000000e+00
 0.000000e+00 8.889584e-01 1.110416e-01 0.000000e+00 0.000000e+00
 0.000000e+00 0.000000e+00 8.630855e-01 1.369145e-01 0.000000e+00
 0.000000e+00 0.000000e+00 0.000000e+00 2.321402e-01 7.678598e-01
 0.000000e+00 0.000000e+00 0.000000e+00 0.000000e+00 0.000000e+00
~t "T_m"
<TRANSP> 5
 0.000000e+00 1.000000e+00 0.000000e+00 0.000000e+00 0.000000e+00
 0.000000e+00 6.702269e-01 3.297730e-01 0.000000e+00 0.000000e+00
 0.000000e+00 0.000000e+00 6.637068e-01 3.362931e-01 0.000000e+00
 0.000000e+00 0.000000e+00 0.000000e+00 7.213677e-01 2.786324e-01
 0.000000e+00 0.000000e+00 0.000000e+00 0.000000e+00 0.000000e+00
~t "T_n"
<TRANSP> 5
 0.000000e+00 1.000000e+00 0.000000e+00 0.000000e+00 0.000000e+00
 0.000000e+00 7.494319e-01 2.505681e-01 0.000000e+00 0.000000e+00
 0.000000e+00 0.000000e+00 8.199467e-01 1.800533e-01 0.000000e+00
 0.000000e+00 0.000000e+00 0.000000e+00 7.734532e-01 2.265468e-01
 0.000000e+00 0.000000e+00 0.000000e+00 0.000000e+00 0.000000e+00
~t "T_p"
<TRANSP> 5
 0.000000e+00 1.000000e+00 0.000000e+00 0.000000e+00 0.000000e+00
 0.000000e+00 6.407941e-01 3.592059e-01 0.000000e+00 0.000000e+00
 0.000000e+00 0.000000e+00 5.846639e-01 4.153360e-01 0.000000e+00
 0.000000e+00 0.000000e+00 0.000000e+00 2.001783e-01 7.998217e-01
 0.000000e+00 0.000000e+00 0.000000e+00 0.000000e+00 0.000000e+00
~t "T_r"
<TRANSP> 5
 0.000000e+00 1.000000e+00 0.000000e+00 0.000000e+00 0.000000e+00
 0.000000e+00 5.516782e-01 4.483218e-01 0.000000e+00 0.000000e+00
 0.000000e+00 0.000000e+00 5.612293e-01 4.387707e-01 0.000000e+00
 0.000000e+00 0.000000e+00 0.000000e+00 6.178083e-01 3.821917e-01
 0.000000e+00 0.000000e+00 0.000000e+00 0.000000e+00 0.000000e+00
~t "T_s"
<TRANSP> 5
 0.000000e+00 1.000000e+00 0.000000e+00 0.000000e+00 0.000000e+00
 0.000000e+00 3.633719e-01 6.366281e-01 0.000000e+00 0.000000e+00
 0.000000e+00 0.000000e+00 7.345949e-01 2.654051e-01 0.000000e+00
 0.000000e+00 0.000000e+00 0.000000e+00 8.293190e-01 1.706810e-01
 0.000000e+00 0.000000e+00 0.000000e+00 0.000000e+00 0.000000e+00
~t "T_t"
<TRANSP> 5
 0.000000e+00 1.000000e+00 0.000000e+00 0.000000e+00 0.000000e+00
 0.000000e+00 6.732404e-01 3.267596e-01 0.000000e+00 0.000000e+00
 0.000000e+00 0.000000e+00 7.160045e-01 2.839955e-01 0.000000e+00
 0.000000e+00 0.000000e+00 0.000000e+00 5.565599e-01 4.434401e-01
 0.000000e+00 0.000000e+00 0.000000e+00 0.000000e+00 0.000000e+00
~t "T_w"
<TRANSP> 5
 0.000000e+00 1.000000e+00 0.000000e+00 0.000000e+00 0.000000e+00
 0.000000e+00 8.456270e-01 1.543730e-01 0.000000e+00 0.000000e+00
 0.000000e+00 0.000000e+00 7.079821e-01 2.920179e-01 0.000000e+00
 0.000000e+00 0.000000e+00 0.000000e+00 6.998125e-01 3.001876e-01
 0.000000e+00 0.000000e+00 0.000000e+00 0.000000e+00 0.000000e+00
~t "T_ah"
<TRANSP> 5
 0.000000e+00 1.000000e+00 0.000000e+00 0.000000e+00 0.000000e+00
 0.000000e+00 5.121465e-01 4.878535e-01 0.000000e+00 0.000000e+00
 0.000000e+00 0.000000e+00 7.856553e-01 2.143447e-01 0.000000e+00
 0.000000e+00 0.000000e+00 0.000000e+00 6.956323e-01 3.043677e-01
 0.000000e+00 0.000000e+00 0.000000e+00 0.000000e+00 0.000000e+00
~t "T_ax"
<TRANSP> 5
 0.000000e+00 1.000000e+00 0.000000e+00 0.000000e+00 0.000000e+00
 0.000000e+00 6.578529e-01 3.421471e-01 0.000000e+00 0.000000e+00
 0.000000e+00 0.000000e+00 6.217046e-01 3.782954e-01 0.000000e+00
 0.000000e+00 0.000000e+00 0.000000e+00 6.339267e-01 3.660733e-01
 0.000000e+00 0.000000e+00 0.000000e+00 0.000000e+00 0.000000e+00
~t "T_ay"
<TRANSP> 5
 0.000000e+00 1.000000e+00 0.000000e+00 0.000000e+00 0.000000e+00
 0.000000e+00 7.980040e-01 2.019960e-01 0.000000e+00 0.000000e+00
 0.000000e+00 0.000000e+00 6.638568e-01 3.361432e-01 0.000000e+00
 0.000000e+00 0.000000e+00 0.000000e+00 9.136077e-01 8.639236e-02
 0.000000e+00 0.000000e+00 0.000000e+00 0.000000e+00 0.000000e+00
~t "T_eh"
<TRANSP> 5
 0.000000e+00 1.000000e+00 0.000000e+00 0.000000e+00 0.000000e+00
 0.000000e+00 8.288275e-01 1.711725e-01 0.000000e+00 0.000000e+00
 0.000000e+00 0.000000e+00 8.637813e-01 1.362187e-01 0.000000e+00
 0.000000e+00 0.000000e+00 0.000000e+00 7.071285e-01 2.928715e-01
 0.000000e+00 0.000000e+00 0.000000e+00 0.000000e+00 0.000000e+00
~t "T_hh"
<TRANSP> 5
 0.000000e+00 1.000000e+00 0.000000e+00 0.000000e+00 0.000000e+00
 0.000000e+00 8.196418e-01 1.803582e-01 0.000000e+00 0.000000e+00
 0.000000e+00 0.000000e+00 9.183182e-01 8.168187e-02 0.000000e+00
 0.000000e+00 0.000000e+00 0.000000e+00 9.342563e-01 6.574370e-02
 0.000000e+00 0.000000e+00 0.000000e+00 0.000000e+00 0.000000e+00
~t "T_ih"
<TRANSP> 5
 0.000000e+00 1.000000e+00 0.000000e+00 0.000000e+00 0.000000e+00
 0.000000e+00 7.805019e-01 2.194981e-01 0.000000e+00 0.000000e+00
 0.000000e+00 0.000000e+00 7.905483e-01 2.094517e-01 0.000000e+00
 0.000000e+00 0.000000e+00 0.000000e+00 4.420870e-01 5.579130e-01
 0.000000e+00 0.000000e+00 0.000000e+00 0.000000e+00 0.000000e+00
~t "T_iy"
<TRANSP> 5
 0.000000e+00 1.000000e+00 0.000000e+00 0.000000e+00 0.000000e+00
 0.000000e+00 7.817734e-01 2.182266e-01 0.000000e+00 0.000000e+00
 0.000000e+00 0.000000e+00 8.651643e-01 1.348357e-01 0.000000e+00
 0.000000e+00 0.000000e+00 0.000000e+00 4.866100e-01 5.133900e-01
 0.000000e+00 0.000000e+00 0.000000e+00 0.000000e+00 0.000000e+00
~t "T_ng"
<TRANSP> 5
 0.000000e+00 1.000000e+00 0.000000e+00 0.000000e+00 0.000000e+00
 0.000000e+00 7.732442e-01 2.267558e-01 0.000000e+00 0.000000e+00
 0.000000e+00 0.000000e+00 7.739278e-01 2.260722e-01 0.000000e+00
 0.000000e+00 0.000000e+00 0.000000e+00 7.880943e-01 2.119057e-01
 0.000000e+00 0.000000e+00 0.000000e+00 0.000000e+00 0.000000e+00
~t "T_oh"
<TRANSP> 5
 0.000000e+00 1.000000e+00 0.000000e+00 0.000000e+00 0.000000e+00
 0.000000e+00 8.784776e-01 1.215224e-01 0.000000e+00 0.000000e+00
 0.000000e+00 0.000000e+00 9.218861e-01 7.811393e-02 0.000000e+00
 0.000000e+00 0.000000e+00 0.000000e+00 7.811822e-02 9.218818e-01
 0.000000e+00 0.000000e+00 0.000000e+00 0.000000e+00 0.000000e+00
~t "T_uh"
<TRANSP> 5
 0.000000e+00 1.000000e+00 0.000000e+00 0.000000e+00 0.000000e+00
 0.000000e+00 2.955785e-01 7.044215e-01 0.000000e+00 0.000000e+00
 0.000000e+00 0.000000e+00 6.427048e-01 3.572952e-01 0.000000e+00
 0.000000e+00 0.000000e+00 0.000000e+00 6.268024e-01 3.731976e-01
 0.000000e+00 0.000000e+00 0.000000e+00 0.000000e+00 0.000000e+00
~t "T_uw"
<TRANSP> 5
 0.000000e+00 1.000000e+00 0.000000e+00 0.000000e+00 0.000000e+00
 0.000000e+00 4.129452e-01 5.870548e-01 0.000000e+00 0.000000e+00
 0.000000e+00 0.000000e+00 8.088018e-01 1.911982e-01 0.000000e+00
 0.000000e+00 0.000000e+00 0.000000e+00 6.955528e-01 3.044472e-01
 0.000000e+00 0.000000e+00 0.000000e+00 0.000000e+00 0.000000e+00
~s "ST_s_2_1"
<MEAN> 13
 -1.107992e+01 4.107178e+00 -3.703918e+00 1.394236e+00 1.067321e+01 -1.273705e+01 5.201461e+00 -2.164159e-01 5.489394e+00 -2.153399e+00 -3.306022e+00 1.067954e+00 5.863177e+01
<VARIANCE> 13
 9.052994e+01 7.868930e+01 9.355112e+01 1.205328e+02 1.090871e+02 6.932417e+01 9.924851e+01 4.596306e+01 3.408813e+01 4.585493e+01 1.135999e+02 3.955622e+01 1.154734e+02
<GCONST> 7.996429e+01
~s "ST_s_3_1"
<MEAN> 13
 -1.754807e+01 5.740972e+00 -7.077954e+00 1.038820e+01 4.951966e+00 -9.665121e+00 7.907620e+00 1.232906e+00 6.698768e+00 -7.746601e-02 1.204264e+00 -1.270113e+00 6.189244e+01
<VARIANCE> 13
 2.215168e+01 2.861534e+01 3.338007e+01 5.829895e+01 4.918597e+01 3.630877e+01 3.821722e+01 2.610999e+01 2.213498e+01 2.731374e+01 1.884720e+01 2.094898e+01 3.493447e+01
<GCONST> 6.824755e+01
~s "ST_s_4_1"
<MEAN> 13
 -2.685912e+01 7.199622e-01 -1.813005e+00 -2.218333e+00 1.705574e+01 -1.831459e+01 9.576970e+00 -8.495942e-01 7.499356e+00 -8.428897e+00 7.438685e-01 2.257089e+00 5.384096e+01
<VARIANCE> 13
 5.444166e+01 7.271705e+01 5.233384e+01 4.116888e+01 7.854897e+01 6.282879e+01 9.501826e+01 5.186235e+01 6.299811e+01 5.497982e+01 3.607861e+01 5.273265e+01 6.015443e+01
<GCONST> 7.665615e+01
~s "ST_oh_2_1"
<MEAN> 13
 2.877307e+00 -7.013927e+00 -8.708600e+00 -2.890067e+01 9.851821e+00 -3.734435e+00 5.726749e+00 -1.545728e+01 6.938046e+00 3.336801e+00 -8.324993e+00 7.866977e-01 7.060516e+01
<VARIANCE> 13
 4.834884e+00 2.012421e+01 2.243187e+01 6.482463e+01 6.414867e+01 5.328020e+01 6.156633e+01 6.389264e+01 7.555812e+01 7.657993e+01 6.069228e+01 5.968189e+01 2.633983e+01
<GCONST> 7.229561e+01
~s "ST_oh_3_1"
<MEAN> 13
 4.851381e+00 -1.451454e+01 -1.406322e+01 -8.330353e+00 -9.772713e+00 -1.183525e+00 -6.915399e+00 -3.144223e-01 -1.164704e+00 6.882619e+00 -6.037852e+00 -1.654189e+01 7.379819e+01
<VARIANCE> 13
 2.041213e+00 2.331458e+01 8.576720e+00 6.311745e+01 4.356991e+01 2.010756e+01 3.533920e+01 2.445478e+01 3.146510e+01 2.599976e+01 2.810425e+01 4.545567e+01 1.333247e+01
<GCONST> 6.403619e+01
~s "ST_oh_4_1"
<MEAN> 13
 4.295223e+00 -1.069154e+01 -1.007393e+01 -4.434083e+00 4.309639e+00 -7.903921e+00 -3.771307e+00 -2.853208e+00 5.604642e+00 3.500006e-01 -3.351609e+00 -6.761800e+00 6.814173e+01
<VARIANCE> 13
 1.010714e+01 1.144402e+01 1.225729e+01 4.725838e+01 2.921116e+01 1.477066e+01 3.387764e+01 1.954364e+01 6.595339e+01 1.016527e+02 3.360253e+01 8.296006e+01 1.022595e+01
<GCONST> 6.663586e+01
~s "ST_uh_2_1"
<MEAN> 13
 -1.618536e+00 9.602544e+00 -4.914219e+00 -1.045827e+01 -5.393894e+00 1.211275e+00 -4.590845e+00 -3.645607e+00 -5.526455e+00 -6.262513e+00 -4.125451e+00 -1.798706e+00 4.878822e+01
<VARIANCE> 13
 6.819585e+01 1.914816e+01 2.763465e+01 6.736636e+01 3.616967e+01 4.040391e+01 2.741281e+01 2.993575e+01 2.378682e+01 2.896548e+01 2.579021e+01 2.070676e+01 1.370669e+02
<GCONST> 7.032958e+01
~s "ST_uh_3_1"
<MEAN> 13
 4.006016e+00 3.947385e+00 -3.946991e+00 -1.214177e+01 -9.606645e+00 -4.089880e-01 -1.002141e+01 -7.835382e+00 -1.057071e+01 -1.920565e-01 1.873214e+00 -4.097005e+00 5.973236e+01
<VARIANCE> 13
 2.207494e+01 6.612799e+01 1.785524e+01 3.310990e+01 2.219416e+01 2.466171e+01 5.735816e+01 2.101462e+01 3.930855e+01 3.725087e+01 3.646954e+01 3.678448e+01 1.408300e+02
<GCONST> 7.039841e+01
~s "ST_uh_4_1"
<MEAN> 13
 7.203820e+00 8.731379e+00 -7.117378e+00 -1.768862e+01 -1.095893e+01 9.001557e+00 -9.545218e+00 -1.338270e+01 7.675255e-01 -1.040954e+01 9.210904e-01 7.231905e+00 5.653630e+01
<VARIANCE> 13
 5.578436e+01 1.022661e+02 8.223296e+01 2.115669e+02 7.887119e+01 1.395058e+02 9.804761e+01 7.703640e+01 7.732088e+01 1.091731e+02 6.767404e+01 1.930509e+02 1.427505e+02
<GCONST> 8.402088e+01
~s "ST_uh_4_2"
<MEAN> 13
 -6.924459e+00 1.424072e+01 -4.058612e+00 2.284109e-01 -7.981240e+00 -5.655657e-01 -1.309535e+01 -1.063903e+01 -9.912893e+00 -7.177658e+00 -2.809464e+00 -1.753976e+00 3.678618e+01
<VARIANCE> 13
 5.034048e+01 4.619396e+01 4.095560e+01 5.073802e+01 2.715158e+01 2.650134e+01 5.796259e+01 5.069418e+01 4.302754e+01 4.609616e+01 3.106930e+01 1.818265e+01 8.204726e+01
<GCONST> 7.218402e+01
~s "ST_l_2_1"
<MEAN> 13
 3.937759e+00 -1.657416e+01 -1.404486e+01 -1.002384e+01 -3.116117e+00 -2.330439e-02 -1.091787e+01 -2.155118e-02 -8.747736e-01 5.412245e+00 -1.134333e+01 -1.767032e+01 7.542477e+01
<VARIANCE> 13
 2.872244e+00 9.206593e+00 1.290069e+01 1.279620e+01 3.629747e+01 1.159855e+01 1.952928e+01 1.323280e+01 1.846986e+01 2.381543e+01 1.596791e+01 3.429592e+01 7.693935e+00
<GCONST> 5.830360e+01
~s "ST_l_3_1"
<MEAN> 13
 3.950724e+00 -1.206782e+01 -3.686676e+00 -2.049254e+01 1.702597e+01 -3.822220e+00 -5.418962e+00 -3.702814e+00 6.996057e+00 3.969231e+00 -2.020186e+01 1.407187e+00 7.067419e+01
<VARIANCE> 13
 4.338274e+00 1.674662e+01 1.690790e+01 1.816242e+01 5.130391e+01 1.301582e+01 3.052563e+01 2.464564e+01 2.590331e+01 3.615805e+01 3.355792e+01 3.283681e+01 7.329887e+00
<GCONST> 6.287136e+01
~s "ST_l_4_1"
<MEAN> 13
 6.715976e+00 -6.325200e+00 -6.351223e+00 -1.503797e+01 7.112906e+00 2.967430e-01 -7.412941e+00 -3.898145e+00 -1.381148e+00 8.949512e+00 -1.158494e+01 -5.014125e+00 6.693269e+01
<VARIANCE> 13
 1.843662e+01 1.256032e+02 3.083291e+01 3.829214e+01 1.008005e+02 3.868745e+01 4.838463e+01 3.396709e+01 7.696072e+01 4.429826e+01 5.895570e+01 6.960415e+01 4.844897e+01
<GCONST> 7.472128e+01
~s "ST_b_2_1"
<MEAN> 13
 7.350672e+00 1.245880e+01 -8.093677e+00 3.359670e-01 -3.355620e+00 3.139264e+00 -6.652672e+00 -2.817881e+00 -4.020473e+00 -2.302703e+00 -5.719831e+00 -5.990988e+00 4.766980e+01
<VARIANCE> 13
 5.339926e+01 1.363140e+02 3.739407e+01 5.765545e+01 6.426210e+01 5.313640e+01 3.072101e+01 2.667820e+01 3.637741e+01 6.813052e+01 2.379975e+01 1.504997e+01 5.904845e+01
<GCONST> 7.308057e+01
~s "ST_b_3_1"
<MEAN> 13
 -5.965036e+00 2.491514e+00 -7.513728e+00 7.952815e-01 2.605324e+00 5.319377e+00 8.470111e-01 6.805787e-01 1.980338e+00 -1.988041e+00 -3.306619e+00 -4.507662e+00 4.713809e+01
<VARIANCE> 13
 5.168807e+01 6.422265e+01 5.838919e+01 2.049142e+01 2.068653e+01 9.959512e+01 3.242969e+01 2.220770e+01 4.275993e+01 3.123961e+01 2.223924e+01 5.995103e+01 1.250931e+02
<GCONST> 7.251896e+01
~s "ST_b_4_1"
<MEAN> 13
 -1.304199e+01 7.098387e+00 -4.897783e+00 5.891015e+00 -4.160182e+00 2.870582e+00 -6.040168e+00 3.610704e-02 -3.166464e+00 -4.040496e+00 -1.639817e+00 -6.407397e+00 3.383375e+01
<VARIANCE> 13
 7.011189e+01 4.100570e+01 1.547280e+01 4.441650e+01 4.823330e+01 3.841226e+01 3.102754e+01 1.369131e+01 2.871800e+01 3.047023e+01 6.413145e+01 6.652574e+01 1.195684e+02
<GCONST> 7.188165e+01
~s "ST_r_2_1"
<MEAN> 13
 3.430329e+00 -9.606012e+00 -5.481467e+00 4.303618e-01 -4.455500e+00 -1.015520e+01 -5.432391e+00 4.172345e-01 3.520720e+00 6.293401e+00 -5.860199e+00 -1.080627e+01 6.652637e+01
<VARIANCE> 13
 8.157987e+00 2.379204e+01 3.296133e+01 3.085453e+01 6.662643e+01 2.453171e+01 3.813067e+01 3.720049e+01 2.819160e+01 6.320368e+01 3.212638e+01 7.414495e+01 1.721371e+01
<GCONST> 6.884856e+01
~s "ST_r_3_1"
<MEAN> 13
 1.975915e+00 -7.812866e+00 5.044193e-01 2.744007e+00 -1.346564e-01 -8.444303e+00 -2.369573e+00 4.458323e+00 1.274052e+00 1.786173e+00 -2.485893e+00 -3.634472e+00 6.239469e+01
<VARIANCE> 13
 2.016207e+01 6.420313e+01 3.890306e+01 5.113673e+01 4.743335e+01 3.335140e+01 6.078594e+01 6.861185e+01 2.989045e+01 4.356504e+01 6.064348e+01 5.854879e+01 2.789893e+01
<GCONST> 7.303133e+01
~s "ST_r_4_1"
<MEAN> 13
 -3.507819e+00 2.173218e+00 -1.690468e+00 2.202248e+01 4.526402e+00 2.126124e-02 -8.495116e-01 1.007763e+01 1.472509e+00 -5.288935e+00 -3.756672e+00 -1.773660e+00 4.353819e+01
<VARIANCE> 13
 4.187628e+01 1.237983e+02 5.654933e+01 1.269369e+02 5.974889e+01 9.170914e+01 6.735683e+01 6.340142e+01 5.886076e+01 6.965462e+01 4.810770e+01 4.118433e+01 1.084224e+02
<GCONST> 7.888911e+01
~s "ST_r_4_2"
<MEAN> 13
 3.458077e+00 -1.128050e+01 2.210301e+00 -3.376168e+00 -6.284383e+00 -1.195612e+01 -6.064775e+00 2.107027e+00 -1.199728e+00 2.791716e+00 -4.143375e+00 -4.032590e+00 6.757014e+01
<VARIANCE> 13
 7.042600e+00 2.336343e+01 7.905009e+01 3.674143e+01 9.916125e+01 5.418211e+01 4.823225e+01 4.508290e+01 2.028536e+01 3.156881e+01 5.486412e+01 9.253263e+01 2.845197e+01
<GCONST> 7.158588e+01
~s "ST_hh_2_1"
<MEAN> 13
 2.415261e+00 -8.227300e+00 2.898596e+00 -6.640399e+00 2.069110e+00 -1.952416e+01 -5.820641e+00 1.178545e+01 1.907168e+00 1.081156e+00 -1.470916e+01 4.147193e+00 6.502821e+01
<VARIANCE> 13
 6.471518e+00 7.382489e+01 2.343033e+01 2.071929e+02 9.144676e+01 5.008050e+01 1.184064e+02 3.293478e+01 3.639599e+01 3.194300e+01 2.748290e+01 7.416675e+01 9.078897e+01
<GCONST> 7.443405e+01
~s "ST_hh_3_1"
<MEAN> 13
 8.985478e-01 -1.789767e+01 -1.237843e+01 -8.691484e+00 -2.169464e+00 -4.010810e+00 -8.673389e+00 7.683669e+00 -2.748667e+00 -1.051648e+00 -1.735081e+01 -1.131126e+01 7.748782e+01
<VARIANCE> 13
 2.556499e+00 3.680940e+00 1.753615e+01 1.629063e+01 1.700690e+01 2.179171e+01 2.177398e+01 2.721436e+01 8.124739e+00 1.160672e+01 7.557425e+00 1.668626e+01 3.909627e+00
<GCONST> 5.483573e+01
~s "ST_k_2_1"
<MEAN> 13
 -9.231771e+00 4.589040e+00 -4.867372e+00 2.440698e+00 -2.772308e-01 2.502274e-01 -2.943969e+00 2.518420e-01 1.116551e+00 -4.983716e-01 8.426887e-02 -1.060250e+00 4.474671e+01
<VARIANCE> 13
 3.903175e+01 6.340192e+01 4.306766e+01 4.631976e+01 3.657053e+01 4.877700e+01 4.263469e+01 3.258415e+01 2.608426e+01 2.656432e+01 2.571545e+01 1.929176e+01 1.518077e+02
<GCONST> 7.179789e+01
~s "ST_hh_4_1"
<MEAN> 13
 4.250941e-01 -1.352842e+01 -1.209973e+00 -9.058775e+00 1.724696e+01 -7.355593e+00 1.068466e+01 -1.522020e+00 6.645460e+00 4.425564e+00 -2.203182e+01 1.838411e+00 6.762180e+01
<VARIANCE> 13
 7.393209e+00 6.767486e+00 1.474518e+01 7.181431e+01 2.500175e+01 4.901008e+01 4.556253e+01 2.477905e+01 3.001593e+01 2.307803e+01 2.578178e+01 1.799954e+01 1.700318e+01
<GCONST> 6.442417e+01
~s "ST_k_3_1"
<MEAN> 13
 -8.955229e+00 -2.722120e+00 -1.085333e+01 3.316331e+00 7.126961e+00 -2.066512e+00 -5.089808e+00 2.713473e-01 2.468148e+00 4.381483e+00 -1.093145e+00 -2.825231e+00 5.155426e+01
<VARIANCE> 13
 3.807544e+01 1.040007e+02 6.400700e+01 4.787589e+01 7.518987e+01 7.299998e+01 3.849023e+01 4.487048e+01 3.668929e+01 4.773492e+01 2.772088e+01 2.618845e+01 1.833488e+02
<GCONST> 7.553568e+01
~s "ST_k_4_1"
<MEAN> 13
 -1.312108e+01 7.969006e+00 -5.546856e+00 5.682496e+00 4.885308e+00 1.024244e+01 -2.645509e+00 -1.420711e+00 4.753580e-01 7.723053e-01 4.305112e+00 1.186215e+00 3.603954e+01
<VARIANCE> 13
 5.325560e+01 8.624023e+01 1.341946e+02 1.415285e+02 7.932249e+01 1.247732e+02 6.425782e+01 1.624350e+02 1.038919e+02 1.084495e+02 3.560331e+01 4.170996e+01 1.420730e+02
<GCONST> 8.221880e+01
~s "ST_k_4_2"
<MEAN> 13
 -9.300857e+00 -9.153909e+00 -1.716334e+01 -1.672339e+00 1.733123e+01 -1.946370e+01 1.439431e+00 2.246740e+00 -9.608973e-01 9.855440e+00 -3.464368e+00 -6.379658e+00 5.612778e+01
<VARIANCE> 13
 6.654248e+01 6.733997e+01 1.753741e+02 1.298248e+02 1.273362e+02 1.732838e+02 5.787983e+01 9.189391e+01 6.904753e+01 7.605168e+01 1.032217e+02 5.933851e+01 1.091710e+02
<GCONST> 8.289314e+01
~s "ST_uw_2_1"
<MEAN> 13
 3.566076e+00 1.437037e+00 -4.570641e+00 -7.536476e+00 -3.026356e+00 -1.588753e-01 -1.747574e+01 -1.283313e+01 -4.788063e+00 2.747046e-01 -2.251891e-01 -5.751431e+00 6.119929e+01
<VARIANCE> 13
 4.037218e+01 4.942026e+01 2.279875e+01 8.980986e+01 8.456210e+01 5.232608e+01 6.479931e+01 8.241170e+01 6.518634e+01 3.640547e+01 5.047532e+01 5.342953e+01 1.177184e+02
<GCONST> 7.653342e+01
~s "ST_n_2_1"
<MEAN> 13
 2.480202e+00 2.624254e+00 2.743928e+00 -5.014271e-01 -7.036916e+00 -7.326315e+00 -8.163734e+00 -1.259924e+01 -4.005184e+00 -1.524913e+00 -5.116324e+00 -4.909351e+00 6.032609e+01
<VARIANCE> 13
 1.380850e+01 1.029035e+01 1.390900e+01 8.345490e+01 3.203524e+01 5.616743e+01 1.590126e+01 3.876796e+01 1.933276e+01 2.116685e+01 1.952009e+01 5.781849e+01 1.018217e+01
<GCONST> 6.518852e+01
~s "ST_n_2_2"
<MEAN> 13
 3.738696e+00 -2.438051e+00 -6.995493e-01 2.586604e+00 -4.646528e+00 -1.492077e+01 -6.035318e+00 -5.263838e+00 -1.317185e-01 1.191066e+00 -1.309771e+01 -8.898462e+00 6.227139e+01
<VARIANCE> 13
 3.449570e+00 1.915083e+01 1.051930e+01 9.815699e+00 7.522626e+01 1.541537e+01 1.981581e+01 3.875492e+01 1.501834e+01 2.445411e+01 2.755598e+01 4.497713e+01 8.960706e+00
<GCONST> 6.164109e+01
~s "ST_uw_3_1"
<MEAN> 13
 4.976894e+00 2.433675e+00 -5.722770e+00 -1.720420e+01 -1.341665e+01 -5.056631e-01 -1.455436e+01 -7.586089e+00 -9.062868e+00 -5.053864e+00 1.568752e+00 -7.843735e+00 6.633408e+01
<VARIANCE> 13
 1.103275e+01 1.851182e+01 1.068558e+01 3.173637e+01 4.045895e+01 1.860334e+01 1.972444e+01 2.975483e+01 2.850001e+01 2.118630e+01 1.882321e+01 3.519130e+01 4.868623e+01
<GCONST> 6.482106e+01
~s "ST_n_3_1"
<MEAN> 13
 5.523035e+00 7.475532e+00 -1.076540e+00 8.246824e+00 5.545989e+00 -9.235358e+00 -6.549661e+00 -2.490452e+00 -1.415980e+00 -4.681884e+00 -1.543955e+01 6.234140e+00 5.283235e+01
<VARIANCE> 13
 1.464025e+01 4.184901e+01 4.398590e+01 5.271946e+01 7.635352e+01 4.866330e+01 4.025077e+01 5.458340e+01 5.700414e+01 5.599929e+01 5.735153e+01 6.434754e+01 3.031532e+01
<GCONST> 7.366788e+01
~s "ST_n_3_2"
<MEAN> 13
 8.266116e+00 6.223762e+00 7.022786e-01 -1.350887e+01 8.334376e+00 1.012590e+01 -2.230699e+01 -1.496778e+01 -4.652293e+00 3.642712e+00 -1.126419e+01 2.570761e+00 5.880373e+01
<VARIANCE> 13
 1.582784e+01 5.191608e+01 2.898244e+01 2.203854e+02 7.567357e+01 7.220953e+01 6.386524e+01 5.794510e+01 6.579564e+01 5.987856e+01 4.060163e+01 6.786149e+01 5.241933e+01
<GCONST> 7.634756e+01
~s "ST_uw_4_1"
<MEAN> 13
 4.301029e+00 7.462600e+00 -7.180877e+00 -1.727436e+01 -3.755415e+00 6.151886e+00 -1.015741e+01 -8.445709e+00 -7.063610e+00 1.201920e+00 -2.982709e+00 1.681563e+00 5.454314e+01
<VARIANCE> 13
 7.435816e+01 5.650969e+01 3.684241e+01 1.503015e+02 6.848828e+01 1.290223e+02 3.777807e+01 4.877300e+01 7.583025e+01 9.181716e+01 4.932059e+01 5.972790e+01 1.418378e+02
<GCONST> 7.925167e+01
~s "ST_n_4_1"
<MEAN> 13
 -3.404747e+00 1.839044e+01 5.275115e+00 1.611332e+01 3.295187e-02 1.980336e+00 -6.843119e+00 -1.393063e+00 -3.834511e+00 -7.445024e+00 -6.121286e+00 -1.260972e+00 3.814617e+01
<VARIANCE> 13
 5.568045e+01 6.747871e+01 2.641600e+01 6.965952e+01 4.250456e+01 5.803728e+01 3.399441e+01 4.296197e+01 3.712712e+01 3.186845e+01 3.415933e+01 3.356728e+01 9.194489e+01
<GCONST> 7.338037e+01
~s "ST_n_4_2"
<MEAN> 13
 -1.087712e+00 1.596931e+01 -1.317722e+00 6.776673e+00 1.159198e-01 3.790650e+00 -1.394651e+01 -1.334735e+01 -7.468192e+00 -3.195386e+00 -4.730963e+00 -2.984628e+00 4.048254e+01
<VARIANCE> 13
 6.211801e+01 4.711501e+01 1.657962e+01 2.842662e+01 3.906224e+01 3.426575e+01 5.696474e+01 3.708648e+01 2.909080e+01 2.972259e+01 2.891592e+01 2.482495e+01 6.029313e+01
<GCONST> 7.032230e+01
~s "ST_d_2_1"
<MEAN> 13
 2.721421e+00 9.786343e+00 6.395060e-01 5.241818e+00 7.006939e-01 -1.711103e+00 -9.144238e+00 -4.364897e+00 -1.544859e+00 -9.176162e-01 -8.583729e+00 -4.354801e+00 5.087987e+01
<VARIANCE> 13
 3.362956e+01 3.436182e+02 4.187997e+01 2.192758e+02 7.613239e+01 6.752973e+01 8.813839e+01 8.750384e+01 5.551279e+01 5.908482e+01 6.784563e+01 4.464260e+01 2.601977e+02
<GCONST> 8.154105e+01
~s "ST_d_3_1"
<MEAN> 13
 4.063279e+00 -2.920338e+00 -2.531256e+00 -1.004842e+00 4.768506e+00 -4.249289e+00 -1.304936e+01 -5.560260e+00 3.483616e+00 2.061983e+00 -1.238526e+01 -7.489674e+00 6.139297e+01
<VARIANCE> 13
 1.254864e+01 1.699507e+02 2.117145e+01 2.156206e+02 1.144080e+02 9.631545e+01 2.541757e+02 9.656124e+01 6.517975e+01 6.395671e+01 5.007826e+01 6.900033e+01 1.230954e+02
<GCONST> 8.069530e+01
~s "ST_d_4_1"
<MEAN> 13
 3.333677e+00 -7.673165e+00 -1.668839e+00 -5.532840e+00 3.305642e+00 -8.576414e+00 -8.342361e+00 -4.748842e+00 3.068645e+00 1.317958e+00 -1.212063e+01 -3.646906e+00 6.647567e+01
<VARIANCE> 13
 1.707908e+01 5.227351e+01 2.832585e+01 1.214645e+02 1.044956e+02 1.019545e+02 2.240124e+02 8.306832e+01 5.302189e+01 4.462209e+01 6.626846e+01 6.624383e+01 2.775062e+01
<GCONST> 7.741443e+01
~s "ST_ay_2_1"
<MEAN> 13
 -1.474730e+01 3.611634e+00 -6.687365e+00 1.285368e+01 6.452561e+00 -8.211658e+00 9.147322e+00 3.556170e+00 6.922402e+00 7.367420e-01 -1.058278e+00 -2.411692e-01 6.193967e+01
<VARIANCE> 13
 2.092116e+01 1.598055e+01 2.375671e+01 3.215565e+01 2.279258e+01 1.711970e+01 2.106897e+01 1.907966e+01 2.517189e+01 2.803463e+01 1.876336e+01 1.217216e+01 8.415489e+00
<GCONST> 6.242638e+01
~s "ST_ay_3_1"
<MEAN> 13
 3.345871e+00 -7.907625e+00 -5.665893e+00 -1.098772e+01 1.189210e+01 -8.811826e+00 -1.663146e-01 7.025601e-01 1.135587e+01 -4.070083e+00 -1.678310e+01 5.993884e+00 6.695134e+01
<VARIANCE> 13
 1.101151e+01 2.067102e+01 1.953067e+01 8.091165e+01 7.164584e+01 4.339289e+01 1.864179e+01 1.059157e+01 2.154236e+01 3.981234e+01 4.025578e+01 3.853674e+01 1.788359e+01
<GCONST> 6.699786e+01
~s "ST_ay_4_1"
<MEAN> 13
 6.719654e-01 -1.205151e+01 7.682544e+00 -1.784775e+01 3.145782e+00 -1.731857e+01 9.352287e+00 1.528762e+00 7.104535e-01 7.171981e-01 -1.082222e+01 4.378793e+00 7.069469e+01
<VARIANCE> 13
 5.268558e+00 1.310821e+01 7.333523e+01 2.359917e+01 7.174033e+01 2.566559e+01 2.347264e+01 3.249551e+01 4.910814e+01 4.239230e+01 3.129579e+01 1.645642e+01 6.932345e+00
<GCONST> 6.556018e+01
~s "ST_g_2_1"
<MEAN> 13
 -6.166422e+00 3.354219e+00 2.419379e+01 -1.302522e+01 -2.728265e+00 -8.138503e+00 -3.817162e+00 -1.187333e+01 -9.867115e+00 1.764224e+00 -8.722849e+00 -5.528040e+00 6.194139e+01
<VARIANCE> 13
 1.638605e+01 4.549718e+01 1.127645e+02 1.104808e+02 2.208564e+01 2.333469e+01 2.559049e+01 2.464098e+01 3.426058e+01 3.367498e+01 3.616518e+01 3.008346e+01 9.411720e+01
<GCONST> 7.121549e+01
~s "ST_g_3_1"
<MEAN> 13
 -1.762124e+00 3.619885e-01 9.986754e+00 2.101937e+00 -1.117228e+01 -1.514924e+01 -4.977734e+00 -2.720082e+00 -6.260654e+00 -1.672581e+00 -2.845196e+00 -7.375172e+00 6.125056e+01
<VARIANCE> 13
 5.932186e+00 1.045085e+02 5.554966e+01 4.905672e+01 8.680637e+01 8.730183e+01 6.749000e+01 3.609005e+01 3.420022e+01 2.357088e+01 6.451196e+01 5.728218e+01 1.085613e+02
<GCONST> 7.455777e+01
~s "ST_g_4_1"
<MEAN> 13
 1.412237e+00 -1.625095e+01 -9.593575e+00 -6.536657e+00 -1.175582e+01 -6.879022e+00 -1.420443e+01 6.487370e+00 3.088940e+00 2.719457e+00 -8.403713e+00 -2.256943e+01 7.641845e+01
<VARIANCE> 13
 3.105304e+00 5.236162e+01 3.757466e+01 1.472246e+01 3.420348e+01 7.061510e+01 2.194256e+01 2.080919e+01 2.306590e+01 2.068700e+01 2.132276e+01 4.961729e+01 4.979523e+01
<GCONST> 6.625268e+01
~s "ST_t_2_1"
<MEAN> 13
 -7.754747e+00 -4.433780e+00 1.318621e-01 1.583874e-01 -7.711679e-01 2.064851e+00 -3.674772e+00 -2.649502e+00 3.594812e+00 -3.112772e+00 -2.086436e-01 -1.566165e+00 5.298780e+01
<VARIANCE> 13
 2.314210e+01 1.004985e+02 2.643157e+01 3.968295e+01 4.692003e+01 8.570330e+01 7.757049e+01 4.482589e+01 4.518333e+01 3.561282e+01 2.983467e+01 2.531122e+01 1.123840e+02
<GCONST> 7.378527e+01
~s "ST_t_2_2"
<MEAN> 13
 -4.156241e+00 -2.512750e+00 -8.527540e+00 -2.704821e+00 3.310568e+00 -3.637027e+00 -2.602498e+00 1.757698e+00 8.059753e+00 1.871646e+00 -7.275158e+00 -6.252510e+00 5.326188e+01
<VARIANCE> 13
 1.179750e+01 2.051900e+01 2.510942e+01 2.167421e+01 3.005637e+01 3.370039e+01 6.081015e+01 2.436576e+01 3.274090e+01 2.630055e+01 4.032502e+01 3.328621e+01 4.202098e+01
<GCONST> 6.760103e+01
~s "ST_t_3_1"
<MEAN> 13
 -5.293201e+00 -2.478914e+00 -5.832432e+00 -1.823193e+00 2.635122e-01 -5.473358e+00 -5.278247e+00 -2.046066e+00 1.674828e+00 1.699105e-01 -4.579672e+00 -4.326982e+00 5.372421e+01
<VARIANCE> 13
 2.818655e+01 3.820729e+01 4.200821e+01 4.441045e+01 6.227288e+01 4.560876e+01 1.109036e+02 5.790567e+01 7.231467e+01 3.539120e+01 5.890784e+01 3.369600e+01 1.038985e+02
<GCONST> 7.520898e+01
~s "ST_t_3_2"
<MEAN> 13
 4.241556e+00 -4.359922e+00 -4.603886e+00 -1.708559e+01 -1.390196e+01 -2.380050e+00 -1.699977e+01 -8.612473e+00 -6.631810e+00 8.381925e-02 1.834586e+00 -1.081321e+01 7.202534e+01
<VARIANCE> 13
 2.545556e+00 1.800610e+01 1.559503e+01 2.125729e+01 3.580014e+01 1.311234e+01 2.068981e+01 1.747871e+01 1.730021e+01 2.556355e+01 1.149445e+01 2.358857e+01 5.950051e+00
<GCONST> 5.904116e+01
~s "ST_t_4_1"
<MEAN> 13
 -5.059878e+00 -2.093159e+00 -8.739547e+00 -3.855808e+00 3.011663e-02 -3.780824e+00 -4.660623e+00 -2.829667e+00 2.501487e+00 2.595932e+00 -2.116384e+00 -3.380483e+00 5.325498e+01
<VARIANCE> 13
 4.185944e+01 4.847814e+01 1.685273e+02 8.806911e+01 7.919437e+01 9.087022e+01 1.131566e+02 8.229016e+01 9.684512e+01 6.084567e+01 6.988079e+01 4.720958e+01 1.685801e+02
<GCONST> 8.104367e+01
~s "ST_t_4_2"
<MEAN> 13
 3.761828e+00 9.324903e-01 4.508229e-01 -2.896736e+01 3.426219e+00 2.740745e+00 -1.029186e+01 -7.735175e+00 -7.926340e+00 2.368093e+00 -5.787369e+00 3.999375e+00 6.590347e+01
<VARIANCE> 13
 5.312258e+00 3.590698e+01 1.528552e+01 5.302934e+01 3.258722e+01 3.380416e+01 5.102173e+01 3.367535e+01 2.455806e+01 5.467828e+01 5.469281e+01 7.026976e+01 4.975859e+01
<GCONST> 6.965839e+01
~s "ST_sil_2_1"
<MEAN> 13
 -1.702605e+01 6.660785e+00 -2.735470e+00 1.048190e+01 4.089936e-01 6.846478e+00 2.754161e-01 2.975832e+00 2.024889e+00 -1.284649e+00 6.959214e-01 -1.661474e+00 3.270986e+01
<VARIANCE> 13
 4.140450e+01 6.749841e+01 4.579197e+01 5.969307e+01 3.981188e+01 7.576814e+01 4.864020e+01 6.440678e+01 5.825454e+01 4.646386e+01 3.610667e+01 3.400452e+01 1.519789e+02
<GCONST> 7.584295e+01
~s "silst"
<MEAN> 13
 -8.223669e+00 1.764443e+00 -5.958483e-01 9.795489e-01 2.768718e+00 7.106001e-01 2.825369e+00 6.926461e-01 3.047057e+00 -9.063756e-01 9.875414e-01 -1.328727e+00 5.279934e+01
<VARIANCE> 13
 3.872178e+00 5.164431e+00 3.813354e+00 7.132722e+00 7.422902e+00 9.281830e+00 9.311616e+00 8.703115e+00 8.557055e+00 7.757969e+00 7.877185e+00 7.488130e+00 3.465925e+00
<GCONST> 4.833453e+01
~s "ST_sil_3_1"
<MEAN> 13
 -8.223669e+00 1.764443e+00 -5.958483e-01 9.795489e-01 2.768718e+00 7.106001e-01 2.825369e+00 6.926461e-01 3.047057e+00 -9.063756e-01 9.875414e-01 -1.328727e+00 5.279934e+01
<VARIANCE> 13
 3.872178e+00 5.164431e+00 3.813354e+00 7.132722e+00 7.422902e+00 9.281830e+00 9.311616e+00 8.703115e+00 8.557055e+00 7.757969e+00 7.877185e+00 7.488130e+00 3.465925e+00
<GCONST> 4.833453e+01
~s "ST_sil_4_1"
<MEAN> 13
 -2.540741e+01 3.127436e+00 -9.386762e+00 4.818839e+00 -6.824771e+00 5.710730e+00 -2.714127e+00 1.819673e+00 1.733485e+00 -5.828841e-01 1.493978e+00 -3.954844e-01 2.300455e+01
<VARIANCE> 13
 1.230972e+01 2.272520e+00 5.530339e+00 5.365284e+00 9.539818e+00 9.032710e+00 9.412944e+00 9.362973e+00 9.984962e+00 8.938065e+00 8.969726e+00 8.034227e+00 2.930041e+01
<GCONST> 5.169562e+01
~s "ST_iy_2_1"
<MEAN> 13
 6.969965e-01 -7.985814e+00 2.215471e+01 -8.749505e+00 -1.013527e+01 -1.299938e+01 -2.700658e+00 -1.918084e+00 -1.618961e+01 6.646102e+00 -8.436160e+00 1.476066e+00 6.563358e+01
<VARIANCE> 13
 6.166272e+00 1.681045e+01 6.339425e+01 3.725356e+01 3.207518e+01 2.626229e+01 3.144884e+01 2.543822e+01 3.904983e+01 2.038224e+01 4.504750e+01 3.997557e+01 9.922621e+00
<GCONST> 6.619175e+01
~s "ST_j_2_1"
<MEAN> 13
 -6.431531e+00 1.767065e+01 3.058388e+01 -9.298912e+00 -3.291829e+00 -4.242564e+00 -1.085827e+01 -3.815132e+00 -1.836799e+01 3.124518e+00 -2.490119e+00 -6.004266e+00 4.959617e+01
<VARIANCE> 13
 4.023870e+00 7.137835e+01 1.044334e+02 1.450898e+02 3.047452e+01 3.344261e+01 5.334513e+01 1.886938e+01 4.709433e+01 3.693763e+01 2.280951e+01 9.910610e+00 7.504472e+01
<GCONST> 7.021984e+01
~s "ST_iy_3_1"
<MEAN> 13
 -2.059650e+00 -4.300567e+00 1.276726e+01 1.599169e+00 -2.297339e+01 -1.301740e+01 -1.141955e+01 -3.505161e+00 -1.315806e+01 -5.825168e-01 8.557313e+00 -1.384241e+01 6.981786e+01
<VARIANCE> 13
 2.909892e+00 9.101963e+00 2.421842e+01 1.745704e+01 2.717733e+01 1.742232e+01 2.537891e+01 2.402850e+01 1.229583e+01 1.612062e+01 4.030704e+01 3.756501e+01 9.256514e+00
<GCONST> 6.062644e+01
~s "ST_j_3_1"
<MEAN> 13
 -9.943290e-01 -3.852648e+00 1.405555e+01 9.163404e+00 -1.739521e+01 -1.060785e+01 -1.306980e+01 -6.862867e+00 -8.326586e+00 -4.423778e+00 3.328942e+00 -7.445436e+00 6.298492e+01
<VARIANCE> 13
 4.590022e+01 2.075080e+01 2.143681e+02 6.461169e+01 4.180645e+01 8.544965e+01 1.794602e+02 5.187142e+01 2.864524e+01 3.320441e+01 4.234709e+01 6.403210e+01 9.716254e+01
<GCONST> 7.694659e+01
~s "ST_iy_4_1"
<MEAN> 13
 -4.654246e+00 3.333133e+00 1.315039e+01 -2.844500e+00 -1.129095e+01 -1.174169e+01 -3.247278e+00 -5.086310e+00 -1.171012e+01 2.312503e+00 -5.282495e+00 1.256652e+00 5.466400e+01
<VARIANCE> 13
 3.485208e+01 5.826523e+01 1.219642e+02 8.916424e+01 6.298424e+01 5.667411e+01 8.404126e+01 5.277676e+01 5.671877e+01 3.721265e+01 5.780196e+01 4.267794e+01 1.366417e+02
<GCONST> 7.776313e+01
~s "ST_j_4_1"
<MEAN> 13
 9.826164e+00 1.592900e+01 -4.856080e+00 4.718962e+00 -4.499613e+00 9.106919e+00 -1.027708e+01 -1.608612e+01 -1.235772e+01 -4.731666e+00 -1.139355e+00 -2.058173e+00 4.713166e+01
<VARIANCE> 13
 2.072550e+01 7.615936e+01 3.973315e+01 3.003341e+01 1.383592e+01 2.683930e+01 2.076373e+01 1.968110e+01 2.095353e+01 2.448635e+01 2.083565e+01 3.002749e+01 5.477504e+01
<GCONST> 6.695354e+01
~s "ST_w_2_1"
<MEAN> 13
 -2.406822e+01 -3.238077e+00 -2.364443e+00 -6.443837e+00 2.256685e+01 -1.026687e+01 3.564513e-01 2.810661e+00 7.941770e+00 -6.431351e+00 7.410388e-01 -7.467983e+00 6.131937e+01
<VARIANCE> 13
 6.745603e+01 4.006945e+01 6.233827e+01 4.799371e+01 4.732883e+01 2.478863e+01 5.357902e+01 1.848876e+01 2.502374e+01 1.060209e+01 1.719008e+01 1.667829e+01 1.162761e+01
<GCONST> 6.745667e+01
~s "ST_w_3_1"
<MEAN> 13
 -1.663707e+01 2.841419e+00 -1.016209e+00 4.995562e+00 5.215988e+00 -1.965329e+00 -4.443290e+00 2.880024e+00 8.349385e+00 1.622878e+00 1.697404e+00 -3.446055e+00 6.451686e+01
<VARIANCE> 13
 8.668015e+01 5.014700e+00 3.071169e+01 2.419979e+01 1.455378e+01 3.638221e+01 1.085309e+01 1.359007e+01 1.002585e+01 1.036558e+01 4.419818e+01 8.638875e+00 5.570226e+00
<GCONST> 6.014975e+01
~s "ST_w_4_1"
<MEAN> 13
 4.350039e+00 -1.987715e+00 6.268573e-01 -1.436310e+00 -5.049086e+00 -4.579782e+00 -1.630015e+01 -6.865715e+00 -6.308465e+00 5.313926e+00 4.609937e+00 -6.386612e+00 6.855415e+01
<VARIANCE> 13
 5.971993e+00 7.419609e+00 3.744302e+01 7.333936e+00 1.482637e+01 3.093317e+01 4.778879e+01 2.727687e+01 4.678022e+01 1.189290e+01 6.499780e+01 4.849007e+01 7.984777e+00
<GCONST> 6.305466e+01
~s "ST_ng_2_1"
<MEAN> 13
 5.596199e+00 5.250337e+00 -9.514279e+00 2.048779e+00 8.900414e+00 5.895412e+00 -4.245062e+00 -6.885350e+00 4.226140e+00 -1.048018e+01 -9.618924e+00 1.960476e+00 5.232827e+01
<VARIANCE> 13
 2.973383e+01 5.497609e+01 6.576725e+01 4.637468e+01 6.531843e+01 5.713243e+01 4.887167e+01 3.377552e+01 6.725536e+01 6.800858e+01 2.441222e+01 3.866710e+01 7.436704e+01
<GCONST> 7.453526e+01
~s "ST_ng_3_1"
<MEAN> 13
 -6.152876e+00 1.512940e+01 5.634153e-02 1.256047e+01 5.081043e+00 1.190669e+01 -4.420501e+00 -2.683435e+00 -2.390583e+00 -4.767891e+00 -1.259002e+00 -1.727764e+00 3.643365e+01
<VARIANCE> 13
 6.162849e+01 4.821420e+01 2.575794e+01 5.723889e+01 3.751102e+01 6.268738e+01 2.630901e+01 2.806806e+01 3.019499e+01 2.404359e+01 2.421591e+01 1.337197e+01 1.133880e+02
<GCONST> 7.065103e+01
~s "ST_m_2_1"
<MEAN> 13
 3.004262e+00 4.107767e-01 -5.657873e-01 1.282241e+00 2.674261e+00 -5.557054e+00 -3.973089e+00 -1.063646e+01 -8.980150e+00 -2.395141e-01 -5.386436e+00 -5.821332e+00 6.053231e+01
<VARIANCE> 13
 4.815372e+00 2.818722e+01 2.042813e+01 2.493772e+01 5.291591e+01 3.841860e+01 2.359186e+01 3.426700e+01 3.875071e+01 1.845000e+01 3.215709e+01 4.094091e+01 1.638341e+01
<GCONST> 6.589996e+01
~s "ST_ng_4_1"
<MEAN> 13
 -1.751118e+01 3.756209e+00 -9.486287e+00 1.853301e+00 -1.066221e+01 7.583951e-01 -2.091613e+00 2.957916e+00 -1.904688e+00 -4.898571e+00 3.674193e-01 -1.408239e+00 3.049001e+01
<VARIANCE> 13
 7.569757e+01 1.932683e+01 6.993523e+01 1.054968e+02 8.370977e+01 1.173139e+02 1.143077e+02 1.153058e+02 5.335113e+01 2.647995e+01 5.598794e+01 2.545911e+01 1.447866e+02
<GCONST> 7.825634e+01
~s "ST_m_3_1"
<MEAN> 13
 4.648145e+00 4.779340e+00 -6.119770e-01 -1.303468e+00 1.353031e+01 1.687381e+00 -7.552880e+00 -1.682481e+01 -1.079363e+01 7.318532e-01 -1.175537e+01 5.435233e+00 5.623940e+01
<VARIANCE> 13
 1.389386e+01 3.806047e+01 3.708491e+01 1.195705e+02 1.036505e+02 5.998462e+01 5.366507e+01 4.953129e+01 5.273042e+01 4.222622e+01 6.990490e+01 7.026561e+01 3.296545e+01
<GCONST> 7.488373e+01
~s "ST_m_4_1"
<MEAN> 13
 -5.061430e+00 1.797025e+01 4.454477e+00 1.690056e+01 8.647669e+00 1.136519e+01 -7.760341e+00 -5.132286e+00 -6.812551e-01 -2.449583e+00 -3.596029e+00 -9.531727e-01 3.636110e+01
<VARIANCE> 13
 4.828809e+01 3.754557e+01 2.047054e+01 1.401055e+02 3.089146e+01 3.600811e+01 6.322048e+01 5.465352e+01 4.595680e+01 3.589549e+01 4.924072e+01 2.337740e+01 8.315639e+01
<GCONST> 7.339592e+01
~s "ST_m_4_2"
<MEAN> 13
 4.287958e+00 7.284113e+00 -5.891771e+00 5.668742e-01 8.095925e+00 3.359814e-01 -1.074303e+01 -7.342469e+00 -1.005727e+01 -3.435636e+00 -5.188727e+00 -3.592611e+00 5.138948e+01
<VARIANCE> 13
 6.596046e+01 9.206506e+01 1.008033e+02 1.012789e+02 1.639749e+02 9.613229e+01 7.596279e+01 1.062576e+02 1.125589e+02 3.175348e+01 6.627557e+01 6.323108e+01 1.083756e+02
<GCONST> 8.170425e+01
~s "ST_ah_2_1"
<MEAN> 13
 4.882333e+00 -9.560308e+00 -8.494993e+00 -1.153580e+01 6.894716e+00 -5.222041e+00 -2.483928e+00 -2.372652e+00 2.025038e+00 4.408560e+00 -1.106412e+01 -5.468255e+00 6.837107e+01
<VARIANCE> 13
 1.431797e+01 3.366046e+01 4.368213e+01 9.431770e+01 1.255841e+02 6.394825e+01 7.618331e+01 4.276237e+01 5.006323e+01 7.813559e+01 5.292976e+01 5.265001e+01 2.171755e+01
<GCONST> 7.475618e+01
~s "ST_ah_2_2"
<MEAN> 13
 2.019922e+00 -1.155998e+01 8.589450e-01 -4.827429e-01 -9.419991e+00 -1.308716e+01 -3.631113e+00 6.136983e+00 -4.194497e+00 4.579088e+00 -8.502243e+00 -2.612535e+00 7.299760e+01
<VARIANCE> 13
 4.528409e+00 2.497490e+01 9.719871e+01 3.320800e+01 1.149864e+02 4.750492e+01 3.950666e+01 2.728167e+01 3.253946e+01 1.160009e+01 7.726815e+01 2.569891e+01 5.535508e+00
<GCONST> 6.752690e+01
~s "ST_ah_2_3"
<MEAN> 13
 -2.046903e+00 -9.348728e+00 -6.722307e+00 3.040566e+00 7.584332e+00 -3.848099e+00 -3.217821e+00 -1.881667e+00 -8.833580e-02 -5.093264e+00 -1.333918e+01 -5.310933e+00 7.132790e+01
<VARIANCE> 13
 9.568552e+00 8.232674e+00 2.399896e+01 5.416579e+01 2.113209e+01 3.346509e+01 2.627529e+01 1.656586e+01 1.295181e+01 2.513974e+01 2.144615e+01 2.356481e+01 3.465925e+00
<GCONST> 6.132029e+01
~s "ST_ah_2_4"
<MEAN> 13
 2.091408e+00 -1.159306e+01 -1.022624e+01 -9.452941e+00 1.647289e+01 -1.999569e+01 1.381419e+01 -7.396065e+00 -2.621652e+00 8.755490e+00 -7.255354e+00 -1.297680e+01 7.055631e+01
<VARIANCE> 13
 4.961103e+00 1.205178e+01 1.548136e+01 4.361531e+01 5.878579e+01 4.798531e+01 7.269991e+01 4.031375e+01 2.944589e+01 4.351997e+01 3.763920e+01 1.829002e+01 1.171416e+01
<GCONST> 6.657710e+01
~s "ST_ah_3_1"
<MEAN> 13
 2.867222e+00 -1.736469e+01 -1.544492e+01 -5.225627e+00 -3.555368e+00 -6.309917e+00 -5.558300e+00 3.247858e+00 -2.878340e+00 5.501296e+00 -1.435684e+01 -1.464683e+01 7.645280e+01
<VARIANCE> 13
 3.367970e+00 1.524872e+01 1.586668e+01 1.836143e+01 4.525226e+01 2.485407e+01 2.870018e+01 2.354174e+01 4.261962e+01 1.951340e+01 2.071053e+01 4.962207e+01 1.019072e+01
<GCONST> 6.302660e+01
~s "ST_ah_3_2"
<MEAN> 13
 3.494718e+00 -1.516665e+01 -1.439706e+01 -6.194326e+00 -1.558439e+00 -2.088333e+00 -1.787102e+00 -9.068542e-01 -4.432634e+00 7.506277e+00 -7.948301e+00 -1.615400e+01 7.419884e+01
<VARIANCE> 13
 3.179107e+00 1.438213e+01 1.454902e+01 2.899654e+01 6.604691e+01 3.913435e+01 6.151859e+01 2.152869e+01 2.643228e+01 2.003536e+01 2.878896e+01 4.489745e+01 1.030148e+01
<GCONST> 6.457453e+01
~s "ST_ah_3_3"
<MEAN> 13
 2.699550e+00 -1.686113e+01 -1.371484e+01 -1.184402e+01 -7.027714e+00 1.898035e+00 -1.493724e+01 1.910904e+00 -1.058029e-01 6.936237e+00 -6.807069e+00 -2.259864e+01 7.736779e+01
<VARIANCE> 13
 2.881089e+00 7.415824e+00 9.898417e+00 2.246065e+01 2.486071e+01 1.924724e+01 1.914880e+01 1.041951e+01 2.426615e+01 1.530601e+01 2.174164e+01 3.078703e+01 8.975543e+00
<GCONST> 5.844306e+01
~s "ST_ah_3_4"
<MEAN> 13
 3.429132e+00 -1.852651e+01 -1.275411e+01 -6.753955e+00 -1.552084e+00 -1.845982e+00 -3.513515e+00 1.371444e+00 -4.092031e+00 7.302490e+00 -1.556891e+01 -1.272437e+01 7.592860e+01
<VARIANCE> 13
 4.002517e+00 9.916876e+00 1.596496e+01 3.057637e+01 3.815248e+01 1.926283e+01 1.856217e+01 2.641362e+01 2.264098e+01 1.669748e+01 2.577254e+01 2.477432e+01 9.235101e+00
<GCONST> 6.117611e+01
~s "ST_ah_3_5"
<MEAN> 13
 3.193735e+00 -1.587786e+01 -1.442050e+01 -8.416038e-01 -3.772580e+00 -1.445383e+00 -7.380438e+00 3.390697e+00 1.249584e+00 -2.360702e+00 -1.425987e+01 -8.922846e+00 7.556178e+01
<VARIANCE> 13
 2.910097e+00 7.969283e+00 4.278074e+01 2.385269e+01 3.681853e+01 3.170866e+01 2.743693e+01 2.075166e+01 1.332618e+01 1.667443e+01 1.988227e+01 4.119098e+01 6.101930e+00
<GCONST> 6.129153e+01
~s "ST_ah_3_6"
<MEAN> 13
 3.628575e+00 -1.142880e+01 -5.667025e+00 -8.844653e+00 3.004415e+00 -6.644078e+00 -1.746261e+00 -1.774454e+00 2.205219e+00 2.133910e+00 -1.327543e+01 -5.001861e+00 6.915086e+01
<VARIANCE> 13
 1.040554e+01 6.133162e+01 3.398019e+01 6.693655e+01 8.366656e+01 4.619825e+01 5.619732e+01 4.066759e+01 2.823476e+01 3.690245e+01 5.129220e+01 4.592317e+01 3.504908e+01
<GCONST> 7.234473e+01
~s "ST_ah_3_7"
<MEAN> 13
 3.762973e+00 -1.605078e+01 -1.133273e+01 -4.680277e+00 -5.348691e-01 -3.664586e+00 -6.140876e+00 3.178500e+00 -1.091400e+00 5.377172e+00 -1.450999e+01 -1.267554e+01 7.332922e+01
<VARIANCE> 13
 3.448097e+00 1.233410e+01 1.033619e+01 1.720552e+01 8.835912e+01 1.979079e+01 2.317174e+01 2.692145e+01 2.916863e+01 3.096132e+01 2.034787e+01 4.501639e+01 1.026256e+01
<GCONST> 6.268030e+01
~s "ST_ah_4_1"
<MEAN> 13
 9.032764e-01 -9.588866e+00 -6.593011e+00 -1.162204e+01 8.175703e+00 -7.060240e+00 -4.980710e-01 -1.908956e+00 4.498467e+00 6.668768e+00 -1.304375e+01 -5.429046e+00 6.403426e+01
<VARIANCE> 13
 1.434986e+01 3.176347e+01 3.015043e+01 7.926886e+01 5.730376e+01 6.000145e+01 3.994698e+01 4.015919e+01 3.875306e+01 3.975452e+01 5.477909e+01 4.360559e+01 7.334321e+01
<GCONST> 7.273022e+01
~s "ST_ah_4_2"
<MEAN> 13
 4.066712e+00 -1.111468e+01 -5.621845e+00 -1.178515e+01 1.075813e+01 -5.875932e+00 3.891538e+00 -7.604798e+00 4.053262e+00 3.386966e+00 -1.228629e+01 -3.896172e+00 6.744486e+01
<VARIANCE> 13
 6.424067e+00 4.102229e+01 1.391449e+01 3.736207e+01 6.412505e+01 4.193819e+01 4.587103e+01 3.153107e+01 4.930675e+01 6.033544e+01 4.693398e+01 3.977773e+01 1.876512e+01
<GCONST> 6.935603e+01
~s "ST_ah_4_3"
<MEAN> 13
 1.225016e+00 -6.988430e+00 2.034653e+00 -9.317358e+00 8.155401e+00 -1.829129e+01 2.775133e+00 1.565610e+00 4.736917e+00 8.485479e-01 -1.701921e+01 3.079751e+00 6.495189e+01
<VARIANCE> 13
 3.245406e+00 4.520663e+01 1.771650e+01 9.580156e+01 2.816189e+01 5.714430e+01 4.989533e+01 2.691366e+01 3.562567e+01 3.572981e+01 1.563826e+01 6.130956e+01 2.831688e+01
<GCONST> 6.826194e+01
~s "ST_ah_4_4"
<MEAN> 13
 2.507845e+00 -1.486218e+01 -5.440454e+00 -1.599312e+01 1.273398e+01 -1.123985e+01 2.086161e+00 -3.731688e+00 6.921346e+00 3.455512e+00 -1.710386e+01 -1.105310e+00 7.208911e+01
<VARIANCE> 13
 3.477759e+00 1.668973e+01 1.668590e+01 4.947177e+01 6.683310e+01 3.403926e+01 5.222136e+01 5.074501e+01 4.837569e+01 4.300730e+01 2.622106e+01 5.690516e+01 1.996939e+01
<GCONST> 6.822409e+01
~s "ST_ah_4_5"
<MEAN> 13
 2.357631e+00 -1.346745e+01 -3.240111e+00 -1.143532e+01 1.456682e+01 -1.352980e+01 4.448729e+00 5.179749e-01 6.017820e+00 -1.709504e+00 -1.995485e+01 2.337273e+00 6.936646e+01
<VARIANCE> 13
 4.259684e+00 1.439776e+01 1.140301e+01 3.136701e+01 6.216680e+01 1.529017e+01 2.898436e+01 3.474482e+01 2.880905e+01 3.853229e+01 3.007748e+01 5.517851e+01 1.045611e+01
<GCONST> 6.443385e+01
~s "ST_ah_4_6"
<MEAN> 13
 3.169676e+00 -1.074933e+01 -4.810537e+00 -8.158789e+00 1.393838e+01 -8.485697e+00 -1.378119e-01 7.983257e-01 9.679471e+00 -4.884613e+00 -1.699008e+01 -4.096411e-01 6.733593e+01
<VARIANCE> 13
 6.949097e+00 1.675509e+01 4.172387e+01 3.817276e+01 1.652556e+02 3.909941e+01 6.928310e+01 5.658592e+01 3.994315e+01 7.564435e+01 4.462286e+01 9.205045e+01 1.423110e+01
<GCONST> 7.205998e+01
~s "ST_eh_2_1"
<MEAN> 13
 2.119322e+00 -1.405085e+01 9.732487e-01 -1.198133e+00 -1.897109e+01 -1.666779e+01 -1.467747e+01 9.729108e+00 -1.740690e+00 1.791396e+00 1.046466e+00 -1.228832e+01 7.243406e+01
<VARIANCE> 13
 1.420587e+00 3.701879e+00 3.411612e+01 1.339781e+01 3.696273e+01 1.817303e+01 1.954065e+01 1.316680e+01 1.658063e+01 7.212574e+00 3.618446e+01 5.995564e+01 3.465925e+00
<GCONST> 5.744649e+01
~s "ST_eh_3_1"
<MEAN> 13
 2.974113e+00 -1.106412e+01 8.211083e+00 -1.186541e+01 -1.076340e-01 -1.640384e+01 -1.307100e+01 2.105578e+00 -3.549590e+00 5.242981e+00 -4.280544e+00 -3.053107e+00 6.994131e+01
<VARIANCE> 13
 1.420587e+00 5.250041e+00 2.447636e+01 6.971349e+00 2.486990e+01 9.205741e+01 9.355588e+01 1.660187e+02 4.142397e+01 6.053129e+00 3.548635e+01 1.189323e+02 3.466060e+00
<GCONST> 6.354311e+01
~s "ST_eh_4_1"
<MEAN> 13
 4.572909e+00 -2.322802e+00 1.742733e+00 -1.205586e+01 1.100008e+01 -1.426567e+01 -1.355587e+01 -4.306688e+00 -6.519404e+00 1.455016e+01 -1.182508e+01 -5.303367e-01 6.356216e+01
<VARIANCE> 13
 4.275131e+00 3.351791e+01 1.230669e+01 2.202898e+01 8.182169e+01 8.304700e+01 1.351205e+01 8.251157e+01 1.390646e+01 2.193721e+01 5.925592e+01 2.817682e+01 1.927769e+01
<GCONST> 6.640012e+01
~s "ST_p_2_1"
<MEAN> 13
 -1.257277e+01 3.386338e+00 -7.715705e+00 1.666642e+00 -3.910340e+00 5.638788e-01 -7.660165e+00 -7.827072e-01 -2.618029e+00 -9.937956e-01 -8.966500e-01 -4.235678e+00 3.693303e+01
<VARIANCE> 13
 8.965577e+01 3.847888e+01 4.019773e+01 3.725485e+01 5.022168e+01 4.162341e+01 6.190278e+01 7.886337e+01 4.454706e+01 3.257857e+01 5.745012e+01 2.794607e+01 1.476676e+02
<GCONST> 7.514484e+01
~s "ST_p_3_1"
<MEAN> 13
 -4.687325e+00 1.522469e+00 -5.455253e+00 1.962919e+00 -4.078646e-01 -9.785242e-01 -8.342295e-01 5.023086e-01 2.712709e+00 1.095887e+00 -1.235960e+00 -2.905136e+00 5.080579e+01
<VARIANCE> 13
 2.270798e+01 3.474163e+01 4.071173e+01 3.069015e+01 3.421268e+01 4.232907e+01 3.051549e+01 2.574619e+01 3.182805e+01 2.776722e+01 2.321456e+01 2.120993e+01 8.833035e+01
<GCONST> 6.910265e+01
~s "ST_p_4_1"
<MEAN> 13
 4.317572e+00 -5.565378e+00 -7.453138e+00 -2.755960e+00 1.889614e-01 -5.769082e+00 -1.436327e+00 -1.405556e+00 2.361214e+00 4.960389e+00 -2.223894e+00 -3.481090e+00 6.292197e+01
<VARIANCE> 13
 2.428978e+01 2.310225e+01 5.202438e+01 8.337579e+01 9.264856e+01 8.015717e+01 7.305879e+01 4.888498e+01 5.395332e+01 3.911273e+01 3.946499e+01 3.822356e+01 4.356710e+01
<GCONST> 7.443873e+01
~s "ST_ax_2_1"
<MEAN> 13
 1.839681e+00 -6.513724e+00 7.282375e+00 -3.503821e+00 -5.696409e+00 -1.450647e+01 -7.142805e+00 3.032073e+00 -6.633980e+00 4.084463e+00 -4.502330e+00 -1.115010e+00 6.576978e+01
<VARIANCE> 13
 1.053309e+01 4.229080e+01 1.271788e+02 5.531639e+01 1.437030e+02 8.067778e+01 3.062435e+01 6.987827e+01 1.171289e+02 4.600932e+01 6.204599e+01 3.233813e+01 7.039130e+01
<GCONST> 7.632723e+01
~s "ST_ih_2_1"
<MEAN> 13
 4.211408e+00 8.435157e+00 9.328328e+00 -8.320842e+00 -9.179890e+00 2.138441e+00 1.398739e+00 -9.031963e+00 -1.645614e+01 9.538692e-01 -6.022515e+00 -5.614049e-01 5.572076e+01
<VARIANCE> 13
 5.988521e+01 1.299589e+02 2.652485e+02 1.153916e+02 4.938685e+01 1.395374e+02 9.523911e+01 5.023338e+01 4.098411e+01 9.274990e+01 5.984834e+01 4.335903e+01 9.610965e+01
<GCONST> 8.116205e+01
~s "ST_ax_3_1"
<MEAN> 13
 4.299988e+00 -1.163760e+01 -6.603885e+00 -4.642759e+00 -9.377352e-01 -6.276361e+00 -6.185623e+00 1.563620e+00 -8.467437e-01 8.282510e+00 -1.322773e+01 -7.819149e+00 7.084561e+01
<VARIANCE> 13
 3.633519e+00 5.830932e+01 4.226444e+01 3.649068e+01 9.015463e+01 9.533323e+01 2.622623e+01 9.052562e+01 4.491121e+01 2.754950e+01 4.620969e+01 6.169105e+01 4.658529e+01
<GCONST> 7.233795e+01
~s "ST_ih_3_1"
<MEAN> 13
 -2.560255e+00 -2.061563e+00 1.305745e+01 5.979953e-02 -1.899480e+01 -1.122514e+01 -1.004297e+01 -3.493046e+00 -1.179498e+01 -7.285962e-01 7.565674e+00 -1.305948e+01 6.697201e+01
<VARIANCE> 13
 8.854007e+00 2.242714e+01 3.703634e+01 3.966957e+01 5.625302e+01 3.618993e+01 6.335378e+01 3.880436e+01 2.173450e+01 2.341020e+01 5.455208e+01 4.816627e+01 4.210797e+01
<GCONST> 6.974805e+01
~s "ST_ax_4_1"
<MEAN> 13
 1.700026e+00 -2.810480e+00 -5.183821e+00 -3.583763e+00 7.314895e-01 -7.508663e+00 -6.456706e+00 -2.634767e+00 2.203323e+00 6.760617e+00 -5.702457e+00 -6.606607e+00 6.347903e+01
<VARIANCE> 13
 1.937572e+01 4.128778e+01 3.954092e+01 3.710511e+01 1.019932e+02 9.281901e+01 6.379771e+01 9.655264e+01 6.518642e+01 4.350914e+01 4.385210e+01 7.130807e+01 5.981534e+01
<GCONST> 7.583876e+01
~s "ST_ih_4_1"
<MEAN> 13
 -8.418588e+00 6.096905e+00 5.341507e+00 1.287136e+00 -7.210847e-01 -3.785918e+00 9.137031e-01 7.258554e-01 -4.091165e+00 3.965547e+00 -1.973867e+00 -6.710297e-01 4.846030e+01
<VARIANCE> 13
 8.563831e+01 8.575582e+01 7.627642e+01 1.264139e+02 9.928262e+01 1.302728e+02 1.229866e+02 1.317818e+02 6.829243e+01 1.009060e+02 3.585291e+01 7.640948e+01 3.298131e+02
<GCONST> 8.368082e+01
~h "t+ah"
<BEGINHMM>
<NUMSTATES> 5
<STATE> 2
~s "ST_t_2_1"
<STATE> 3
~s "ST_t_3_1"
<STATE> 4
~s "ST_t_4_1"
~t "T_t"
<ENDHMM>
~h "d-eh+l"
<BEGINHMM>
<NUMSTATES> 5
<STATE> 2
~s "ST_eh_2_1"
<STATE> 3
~s "ST_eh_3_1"
<STATE> 4
~s "ST_eh_4_1"
~t "T_eh"
<ENDHMM>
~h "t-uw"
<BEGINHMM>
<NUMSTATES> 5
<STATE> 2
~s "ST_uw_2_1"
<STATE> 3
~s "ST_uw_3_1"
<STATE> 4
~s "ST_uw_4_1"
~t "T_uw"
<ENDHMM>
~h "sp"
<BEGINHMM>
<NUMSTATES> 5
<STATE> 2
~s "ST_sil_3_1"
<STATE> 3
<MEAN> 13
 -5.881723e+00 2.321263e+00 -2.703071e+00 3.091642e+00 8.590769e-01 -2.870620e+00 -2.088006e+00 3.218578e-01 6.293199e-01 -9.615732e-01 -3.943546e+00 -2.965312e+00 5.060135e+01
<VARIANCE> 13
 6.402533e+01 6.122269e+01 7.213518e+01 8.759509e+01 5.092769e+01 8.734327e+01 5.760478e+01 4.526852e+01 4.613603e+01 3.281894e+01 6.388610e+01 3.928174e+01 1.873113e+02
<GCONST> 7.756717e+01
<STATE> 4
<MEAN> 13
 -1.035504e+01 2.794832e+00 -4.641610e+00 3.862867e+00 -1.102291e+00 -1.072889e+00 -2.542953e+00 2.304556e-01 6.752342e-01 -1.084018e+00 -2.317377e+00 -2.254236e+00 4.435143e+01
<VARIANCE> 13
 1.019361e+02 4.833258e+01 5.979622e+01 6.897902e+01 5.522413e+01 8.099494e+01 5.790246e+01 4.546513e+01 4.355107e+01 2.756053e+01 4.837537e+01 3.004973e+01 2.757886e+02
<GCONST> 7.699289e+01
<TRANSP> 5
 0.000000e+00 1.181901e-01 8.818099e-01 0.000000e+00 0.000000e+00
 0.000000e+00 8.904311e-01 1.095689e-01 0.000000e+00 0.000000e+00
 0.000000e+00 0.000000e+00 1.007139e-01 8.992861e-01 0.000000e+00
 0.000000e+00 0.000000e+00 0.000000e+00 2.467171e-01 7.532829e-01
 0.000000e+00 0.000000e+00 0.000000e+00 0.000000e+00 0.000000e+00
<ENDHMM>
~h "uh-k+s"
<BEGINHMM>
<NUMSTATES> 5
<STATE> 2
~s "ST_k_2_1"
<STATE> 3
~s "ST_k_3_1"
<STATE> 4
~s "ST_k_4_2"
~t "T_k"
<ENDHMM>
~h "l-uh+k"
<BEGINHMM>
<NUMSTATES> 5
<STATE> 2
~s "ST_uh_2_1"
<STATE> 3
~s "ST_uh_3_1"
<STATE> 4
~s "ST_uh_4_2"
~t "T_uh"
<ENDHMM>
~h "ax+m"
<BEGINHMM>
<NUMSTATES> 5
<STATE> 2
~s "ST_ax_2_1"
<STATE> 3
~s "ST_ax_3_1"
<STATE> 4
~s "ST_ax_4_1"
~t "T_ax"
<ENDHMM>
~h "uh-n+t"
<BEGINHMM>
<NUMSTATES> 5
<STATE> 2
~s "ST_n_2_1"
<STATE> 3
~s "ST_n_3_2"
<STATE> 4
~s "ST_n_4_2"
~t "T_n"
<ENDHMM>
~h "oh-r+ah"
<BEGINHMM>
<NUMSTATES> 5
<STATE> 2
~s "ST_r_2_1"
<STATE> 3
~s "ST_r_3_1"
<STATE> 4
~s "ST_r_4_2"
~t "T_r"
<ENDHMM>
~h "d+ax"
<BEGINHMM>
<NUMSTATES> 5
<STATE> 2
~s "ST_d_2_1"
<STATE> 3
~s "ST_d_3_1"
<STATE> 4
~s "ST_d_4_1"
~t "T_d"
<ENDHMM>
~h "d-ah"
<BEGINHMM>
<NUMSTATES> 5
<STATE> 2
~s "ST_ah_2_1"
<STATE> 3
~s "ST_ah_3_6"
<STATE> 4
~s "ST_ah_4_3"
~t "T_ah"
<ENDHMM>
~h "m-ih+s"
<BEGINHMM>
<NUMSTATES> 5
<STATE> 2
~s "ST_ih_2_1"
<STATE> 3
~s "ST_ih_3_1"
<STATE> 4
~s "ST_ih_4_1"
~t "T_ih"
<ENDHMM>
~h "k-ah+m"
<BEGINHMM>
<NUMSTATES> 5
<STATE> 2
~s "ST_ah_2_4"
<STATE> 3
~s "ST_ah_3_2"
<STATE> 4
~s "ST_ah_4_2"
~t "T_ah"
<ENDHMM>
~h "ax-n+ih"
<BEGINHMM>
<NUMSTATES> 5
<STATE> 2
~s "ST_n_2_1"
<STATE> 3
~s "ST_n_3_1"
<STATE> 4
~s "ST_n_4_1"
~t "T_n"
<ENDHMM>
~h "m-ah+l"
<BEGINHMM>
<NUMSTATES> 5
<STATE> 2
~s "ST_ah_2_1"
<STATE> 3
~s "ST_ah_3_6"
<STATE> 4
~s "ST_ah_4_6"
~t "T_ah"
<ENDHMM>
~h "m-ah+r"
<BEGINHMM>
<NUMSTATES> 5
<STATE> 2
~s "ST_ah_2_1"
<STATE> 3
~s "ST_ah_3_7"
<STATE> 4
~s "ST_ah_4_6"
~t "T_ah"
<ENDHMM>
~h "m+ah"
<BEGINHMM>
<NUMSTATES> 5
<STATE> 2
~s "ST_m_2_1"
<STATE> 3
~s "ST_m_3_1"
<STATE> 4
~s "ST_m_4_2"
~t "T_m"
<ENDHMM>
~h "ah-p+ah"
<BEGINHMM>
<NUMSTATES> 5
<STATE> 2
~s "ST_p_2_1"
<STATE> 3
~s "ST_p_3_1"
<STATE> 4
~s "ST_p_4_1"
~t "T_p"
<ENDHMM>
~h "s-ah+b"
<BEGINHMM>
<NUMSTATES> 5
<STATE> 2
~s "ST_ah_2_1"
<STATE> 3
~s "ST_ah_3_2"
<STATE> 4
~s "ST_ah_4_2"
~t "T_ah"
<ENDHMM>
~h "s-ah+n"
<BEGINHMM>
<NUMSTATES> 5
<STATE> 2
~s "ST_ah_2_1"
<STATE> 3
~s "ST_ah_3_1"
<STATE> 4
~s "ST_ah_4_5"
~t "T_ah"
<ENDHMM>
~h "s-ah+r"
<BEGINHMM>
<NUMSTATES> 5
<STATE> 2
~s "ST_ah_2_1"
<STATE> 3
~s "ST_ah_3_1"
<STATE> 4
~s "ST_ah_4_4"
~t "T_ah"
<ENDHMM>
~h "hh-ah+r"
<BEGINHMM>
<NUMSTATES> 5
<STATE> 2
~s "ST_ah_2_3"
<STATE> 3
~s "ST_ah_3_5"
<STATE> 4
~s "ST_ah_4_6"
~t "T_ah"
<ENDHMM>
~h "w-iy+t"
<BEGINHMM>
<NUMSTATES> 5
<STATE> 2
~s "ST_iy_2_1"
<STATE> 3
~s "ST_iy_3_1"
<STATE> 4
~s "ST_iy_4_1"
~t "T_iy"
<ENDHMM>
~h "ng-g+uw"
<BEGINHMM>
<NUMSTATES> 5
<STATE> 2
~s "ST_g_2_1"
<STATE> 3
~s "ST_g_3_1"
<STATE> 4
~s "ST_g_4_1"
~t "T_g"
<ENDHMM>
~h "uh+n"
<BEGINHMM>
<NUMSTATES> 5
<STATE> 2
~s "ST_uh_2_1"
<STATE> 3
~s "ST_uh_3_1"
<STATE> 4
~s "ST_uh_4_1"
~t "T_uh"
<ENDHMM>
~h "uh-k"
<BEGINHMM>
<NUMSTATES> 5
<STATE> 2
~s "ST_k_2_1"
<STATE> 3
~s "ST_k_3_1"
<STATE> 4
~s "ST_k_4_1"
~t "T_k"
<ENDHMM>
~h "ax-ng+ah"
<BEGINHMM>
<NUMSTATES> 5
<STATE> 2
~s "ST_ng_2_1"
<STATE> 3
~s "ST_ng_3_1"
<STATE> 4
~s "ST_ng_4_1"
~t "T_ng"
<ENDHMM>
~h "r-ah+ng"
<BEGINHMM>
<NUMSTATES> 5
<STATE> 2
~s "ST_ah_2_1"
<STATE> 3
~s "ST_ah_3_6"
<STATE> 4
~s "ST_ah_4_2"
~t "T_ah"
<ENDHMM>
~h "k-s"
<BEGINHMM>
<NUMSTATES> 5
<STATE> 2
~s "ST_s_2_1"
<STATE> 3
~s "ST_s_3_1"
<STATE> 4
~s "ST_s_4_1"
~t "T_s"
<ENDHMM>
~h "g-ah"
<BEGINHMM>
<NUMSTATES> 5
<STATE> 2
~s "ST_ah_2_1"
<STATE> 3
~s "ST_ah_3_6"
<STATE> 4
~s "ST_ah_4_1"
~t "T_ah"
<ENDHMM>
~h "ah-b+uw"
<BEGINHMM>
<NUMSTATES> 5
<STATE> 2
~s "ST_b_2_1"
<STATE> 3
~s "ST_b_3_1"
<STATE> 4
~s "ST_b_4_1"
~t "T_b"
<ENDHMM>
~h "p-ah"
<BEGINHMM>
<NUMSTATES> 5
<STATE> 2
~s "ST_ah_2_1"
<STATE> 3
~s "ST_ah_3_4"
<STATE> 4
~s "ST_ah_4_1"
~t "T_ah"
<ENDHMM>
~h "d-ah+r"
<BEGINHMM>
<NUMSTATES> 5
<STATE> 2
~s "ST_ah_2_1"
<STATE> 3
~s "ST_ah_3_7"
<STATE> 4
~s "ST_ah_4_4"
~t "T_ah"
<ENDHMM>
~h "b-t+uw"
<BEGINHMM>
<NUMSTATES> 5
<STATE> 2
~s "ST_t_2_1"
<STATE> 3
~s "ST_t_3_1"
<STATE> 4
~s "ST_t_4_2"
~t "T_t"
<ENDHMM>
~h "uw-ah"
<BEGINHMM>
<NUMSTATES> 5
<STATE> 2
~s "ST_ah_2_1"
<STATE> 3
~s "ST_ah_3_3"
<STATE> 4
~s "ST_ah_4_1"
~t "T_ah"
<ENDHMM>
~h "s-w+iy"
<BEGINHMM>
<NUMSTATES> 5
<STATE> 2
~s "ST_w_2_1"
<STATE> 3
~s "ST_w_3_1"
<STATE> 4
~s "ST_w_4_1"
~t "T_w"
<ENDHMM>
~h "oh+r"
<BEGINHMM>
<NUMSTATES> 5
<STATE> 2
~s "ST_oh_2_1"
<STATE> 3
~s "ST_oh_3_1"
<STATE> 4
~s "ST_oh_4_1"
~t "T_oh"
<ENDHMM>
~h "oh-r"
<BEGINHMM>
<NUMSTATES> 5
<STATE> 2
~s "ST_r_2_1"
<STATE> 3
~s "ST_r_3_1"
<STATE> 4
~s "ST_r_4_1"
~t "T_r"
<ENDHMM>
~h "ah-t+uw"
<BEGINHMM>
<NUMSTATES> 5
<STATE> 2
~s "ST_t_2_2"
<STATE> 3
~s "ST_t_3_1"
<STATE> 4
~s "ST_t_4_1"
~t "T_t"
<ENDHMM>
~h "ah-l+ah"
<BEGINHMM>
<NUMSTATES> 5
<STATE> 2
~s "ST_l_2_1"
<STATE> 3
~s "ST_l_3_1"
<STATE> 4
~s "ST_l_4_1"
~t "T_l"
<ENDHMM>
~h "p-ah+d"
<BEGINHMM>
<NUMSTATES> 5
<STATE> 2
~s "ST_ah_2_1"
<STATE> 3
~s "ST_ah_3_4"
<STATE> 4
~s "ST_ah_4_4"
~t "T_ah"
<ENDHMM>
~h "p-ah+n"
<BEGINHMM>
<NUMSTATES> 5
<STATE> 2
~s "ST_ah_2_1"
<STATE> 3
~s "ST_ah_3_4"
<STATE> 4
~s "ST_ah_4_5"
~t "T_ah"
<ENDHMM>
~h "n-t+uh"
<BEGINHMM>
<NUMSTATES> 5
<STATE> 2
~s "ST_t_2_1"
<STATE> 3
~s "ST_t_3_2"
<STATE> 4
~s "ST_t_4_2"
~t "T_t"
<ENDHMM>
~h "r-ah+b"
<BEGINHMM>
<NUMSTATES> 5
<STATE> 2
~s "ST_ah_2_1"
<STATE> 3
~s "ST_ah_3_7"
<STATE> 4
~s "ST_ah_4_2"
~t "T_ah"
<ENDHMM>
~h "hh+ah"
<BEGINHMM>
<NUMSTATES> 5
<STATE> 2
~s "ST_hh_2_1"
<STATE> 3
~s "ST_hh_3_1"
<STATE> 4
~s "ST_hh_4_1"
~t "T_hh"
<ENDHMM>
~h "ah-n+d"
<BEGINHMM>
<NUMSTATES> 5
<STATE> 2
~s "ST_n_2_2"
<STATE> 3
~s "ST_n_3_1"
<STATE> 4
~s "ST_n_4_2"
~t "T_n"
<ENDHMM>
~h "j+uh"
<BEGINHMM>
<NUMSTATES> 5
<STATE> 2
~s "ST_j_2_1"
<STATE> 3
~s "ST_j_3_1"
<STATE> 4
~s "ST_j_4_1"
~t "T_j"
<ENDHMM>
~h "ng-ah+n"
<BEGINHMM>
<NUMSTATES> 5
<STATE> 2
~s "ST_ah_2_1"
<STATE> 3
~s "ST_ah_3_6"
<STATE> 4
~s "ST_ah_4_5"
~t "T_ah"
<ENDHMM>
~h "s-ah"
<BEGINHMM>
<NUMSTATES> 5
<STATE> 2
~s "ST_ah_2_1"
<STATE> 3
~s "ST_ah_3_1"
<STATE> 4
~s "ST_ah_4_1"
~t "T_ah"
<ENDHMM>
~h "ay-ah"
<BEGINHMM>
<NUMSTATES> 5
<STATE> 2
~s "ST_ah_2_2"
<STATE> 3
~s "ST_ah_3_4"
<STATE> 4
~s "ST_ah_4_1"
~t "T_ah"
<ENDHMM>
~h "s-ay+ah"
<BEGINHMM>
<NUMSTATES> 5
<STATE> 2
~s "ST_ay_2_1"
<STATE> 3
~s "ST_ay_3_1"
<STATE> 4
~s "ST_ay_4_1"
~t "T_ay"
<ENDHMM>
~h "ah-m"
<BEGINHMM>
<NUMSTATES> 5
<STATE> 2
~s "ST_m_2_1"
<STATE> 3
~s "ST_m_3_1"
<STATE> 4
~s "ST_m_4_1"
~t "T_m"
<ENDHMM>
~h "ah-n"
<BEGINHMM>
<NUMSTATES> 5
<STATE> 2
~s "ST_n_2_2"
<STATE> 3
~s "ST_n_3_1"
<STATE> 4
~s "ST_n_4_1"
~t "T_n"
<ENDHMM>
~h "sil"
<BEGINHMM>
<NUMSTATES> 5
<STATE> 2
<MEAN> 13
 -1.702605e+01 6.660785e+00 -2.735470e+00 1.048190e+01 4.089936e-01 6.846478e+00 2.754161e-01 2.975832e+00 2.024889e+00 -1.284649e+00 6.959214e-01 -1.661474e+00 3.270986e+01
<VARIANCE> 13
 4.140451e+01 6.749841e+01 4.579197e+01 5.969307e+01 3.981188e+01 7.576814e+01 4.864020e+01 6.440678e+01 5.825454e+01 4.646386e+01 3.610667e+01 3.400452e+01 1.519789e+02
<GCONST> 7.584295e+01
<STATE> 3
~s "silst"
<STATE> 4
<MEAN> 13
 -2.540741e+01 3.127436e+00 -9.386762e+00 4.818839e+00 -6.824771e+00 5.710730e+00 -2.714127e+00 1.819673e+00 1.733485e+00 -5.828841e-01 1.493978e+00 -3.954844e-01 2.300455e+01
<VARIANCE> 13
 1.230972e+01 2.272520e+00 5.530336e+00 5.365283e+00 9.539820e+00 9.032710e+00 9.412944e+00 9.362973e+00 9.984962e+00 8.938065e+00 8.969726e+00 8.034227e+00 2.930039e+01
<GCONST> 5.169562e+01
<TRANSP> 5
 0.000000e+00 1.000000e+00 0.000000e+00 0.000000e+00 0.000000e+00
 0.000000e+00 6.773717e-01 1.332080e-01 1.894202e-01 0.000000e+00
 0.000000e+00 0.000000e+00 9.550019e-01 4.499810e-02 0.000000e+00
 0.000000e+00 1.156532e-02 0.000000e+00 9.286119e-01 5.982270e-02
 0.000000e+00 0.000000e+00 0.000000e+00 0.000000e+00 0.000000e+00
<ENDHMM>