~o
<STREAMINFO> 1 13
<VECSIZE> 13<NULLD><MFCC_0><DIAGC>
~t "T_b"
<TRANSP> 5
 0.000000e+00 1.000000e+00 0.000000e+00 0.000000e+00 0.000000e+00
 0.000000e+00 8.075822e-01 1.924178e-01 0.000000e+00 0.000000e+00
 0.000000e+00 0.000000e+00 7.219136e-01 2.780864e-01 0.000000e+00
 0.000000e+00 0.000000e+00 0.000000e+00 8.624348e-01 1.375652e-01
 0.000000e+00 0.000000e+00 0.000000e+00 0.000000e+00 0.000000e+00
~t "T_d"
<TRANSP> 5
 0.000000e+00 1.000000e+00 0.000000e+00 0.000000e+00 0.000000e+00
 0.000000e+00 4.086725e-01 5.913275e-01 0.000000e+00 0.000000e+00
 0.000000e+00 0.000000e+00 3.309721e-02 9.669028e-01 0.000000e+00
 0.000000e+00 0.000000e+00 0.000000e+00 7.074338e-01 2.925662e-01
 0.000000e+00 0.000000e+00 0.000000e+00 0.000000e+00 0.000000e+00
~t "T_g"
<TRANSP> 5
 0.000000e+00 1.000000e+00 0.000000e+00 0.000000e+00 0.000000e+00
 0.000000e+00 6.944200e-01 3.055800e-01 0.000000e+00 0.000000e+00
 0.000000e+00 0.000000e+00 7.818067e-01 2.181933e-01 0.000000e+00
 0.000000e+00 0.000000e+00 0.000000e+00 7.909049e-01 2.090951e-01
 0.000000e+00 0.000000e+00 0.000000e+00 0.000000e+00 0.000000e+00
~t "T_j"
<TRANSP> 5
 0.000000e+00 1.000000e+00 0.000000e+00 0.000000e+00 0.000000e+00
 0.000000e+00 8.468529e-01 1.531471e-01 0.000000e+00 0.000000e+00
 0.000000e+00 0.000000e+00 7.846257e-01 2.153743e-01 0.000000e+00
 0.000000e+00 0.000000e+00 0.000000e+00 7.722125e-01 2.277875e-01
 0.000000e+00 0.000000e+00 0.000000e+00 0.000000e+00 0.000000e+00
~t "T_k"
<TRANSP> 5
 0.000000e+00 1.000000e+00 0.000000e+00 0.000000e+00 0.000000e+00
 0.000000e+00 4.278045e-01 5.721955e-01 0.000000e+00 0.000000e+00
 0.000000e+00 0.000000e+00 1.215914e-01 8.784086e-01 0.000000e+00
 0.000000e+00 0.000000e+00 0.000000e+00 5.841066e-01 4.158933e-01
 0.000000e+00 0.000000e+00 0.000000e+00 0.000000e+00 0.000000e+00
~t "T_l"
<TRANSP> 5
 0.000000e+00 1.000000e+00 0.000000e+00 0.000000e+00 0.000000e+00
 0.000000e+00 8.838931e-01 1.161069e-01 0.000000e+00 0.000000e+00
 0.000000e+00 0.000000e+00 6.934060e-01 3.065940e-01 0.000000e+00
 0.000000e+00 0.000000e+00 0.000000e+00 1.022849e-01 8.977151e-01
 0.000000e+00 0.000000e+00 0.000000e+00 0.000000e+00 0.000000e+00
~t "T_m"
<TRANSP> 5
 0.000000e+00 1.000000e+00 0.000000e+00 0.000000e+00 0.000000e+00
 0.000000e+00 7.010242e-01 2.989758e-01 0.000000e+00 0.000000e+00
 0.000000e+00 0.000000e+00 6.724352e-01 3.275649e-01 0.000000e+00
 0.000000e+00 0.000000e+00 0.000000e+00 7.787366e-01 2.212633e-01
 0.000000e+00 0.000000e+00 0.000000e+00 0.000000e+00 0.000000e+00
~t "T_n"
<TRANSP> 5
 0.000000e+00 1.000000e+00 0.000000e+00 0.000000e+00 0.000000e+00
 0.000000e+00 7.192280e-01 2.807720e-01 0.000000e+00 0.000000e+00
 0.000000e+00 0.000000e+00 7.555641e-01 2.444359e-01 0.000000e+00
 0.000000e+00 0.000000e+00 0.000000e+00 7.438683e-01 2.561317e-01
 0.000000e+00 0.000000e+00 0.000000e+00 0.000000e+00 0.000000e+00
~t "T_p"
<TRANSP> 5
 0.000000e+00 1.000000e+00 0.000000e+00 0.000000e+00 0.000000e+00
 0.000000e+00 7.553487e-01 2.446513e-01 0.000000e+00 0.000000e+00
 0.000000e+00 0.000000e+00 7.754802e-01 2.245198e-01 0.000000e+00
 0.000000e+00 0.000000e+00 0.000000e+00 3.083674e-01 6.916326e-01
 0.000000e+00 0.000000e+00 0.000000e+00 0.000000e+00 0.000000e+00
~t "T_r"
<TRANSP> 5
 0.000000e+00 1.000000e+00 0.000000e+00 0.000000e+00 0.000000e+00
 0.000000e+00 5.824764e-01 4.175236e-01 0.000000e+00 0.000000e+00
 0.000000e+00 0.000000e+00 5.247822e-01 4.752178e-01 0.000000e+00
 0.000000e+00 0.000000e+00 0.000000e+00 5.559667e-01 4.440333e-01
 0.000000e+00 0.000000e+00 0.000000e+00 0.000000e+00 0.000000e+00
~t "T_s"
<TRANSP> 5
 0.000000e+00 1.000000e+00 0.000000e+00 0.000000e+00 0.000000e+00
 0.000000e+00 6.094517e-01 3.905483e-01 0.000000e+00 0.000000e+00
 0.000000e+00 0.000000e+00 6.464598e-01 3.535402e-01 0.000000e+00
 0.000000e+00 0.000000e+00 0.000000e+00 7.398394e-01 2.601606e-01
 0.000000e+00 0.000000e+00 0.000000e+00 0.000000e+00 0.000000e+00
~t "T_t"
<TRANSP> 5
 0.000000e+00 1.000000e+00 0.000000e+00 0.000000e+00 0.000000e+00
 0.000000e+00 6.589677e-01 3.410323e-01 0.000000e+00 0.000000e+00
 0.000000e+00 0.000000e+00 7.609881e-01 2.390119e-01 0.000000e+00
 0.000000e+00 0.000000e+00 0.000000e+00 7.572527e-01 2.427473e-01
 0.000000e+00 0.000000e+00 0.000000e+00 0.000000e+00 0.000000e+00
~t "T_w"
<TRANSP> 5
 0.000000e+00 1.000000e+00 0.000000e+00 0.000000e+00 0.000000e+00
 0.000000e+00 7.762765e-01 2.237235e-01 0.000000e+00 0.000000e+00
 0.000000e+00 0.000000e+00 7.883274e-01 2.116726e-01 0.000000e+00
 0.000000e+00 0.000000e+00 0.000000e+00 7.337948e-01 2.662052e-01
 0.000000e+00 0.000000e+00 0.000000e+00 0.000000e+00 0.000000e+00
~t "T_ah"
<TRANSP> 5
 0.000000e+00 1.000000e+00 0.000000e+00 0.000000e+00 0.000000e+00
 0.000000e+00 6.998271e-01 3.001729e-01 0.000000e+00 0.000000e+00
 0.000000e+00 0.000000e+00 8.021926e-01 1.978074e-01 0.000000e+00
 0.000000e+00 0.000000e+00 0.000000e+00 6.465054e-01 3.534946e-01
 0.000000e+00 0.000000e+00 0.000000e+00 0.000000e+00 0.000000e+00
~t "T_ax"
<TRANSP> 5
 0.000000e+00 1.000000e+00 0.000000e+00 0.000000e+00 0.000000e+00
 0.000000e+00 4.357964e-01 5.642036e-01 0.000000e+00 0.000000e+00
 0.000000e+00 0.000000e+00 6.365480e-01 3.634520e-01 0.000000e+00
 0.000000e+00 0.000000e+00 0.000000e+00 2.520825e-01 7.479175e-01
 0.000000e+00 0.000000e+00 0.000000e+00 0.000000e+00 0.000000e+00
~t "T_ay"
<TRANSP> 5
 0.000000e+00 1.000000e+00 0.000000e+00 0.000000e+00 0.000000e+00
 0.000000e+00 7.455595e-01 2.544405e-01 0.000000e+00 0.000000e+00
 0.000000e+00 0.000000e+00 8.021098e-01 1.978902e-01 0.000000e+00
 0.000000e+00 0.000000e+00 0.000000e+00 9.204589e-01 7.954111e-02
 0.000000e+00 0.000000e+00 0.000000e+00 0.000000e+00 0.000000e+00
~t "T_eh"
<TRANSP> 5
 0.000000e+00 1.000000e+00 0.000000e+00 0.000000e+00 0.000000e+00
 0.000000e+00 7.911931e-01 2.088069e-01 0.000000e+00 0.000000e+00
 0.000000e+00 0.000000e+00 8.876646e-01 1.123354e-01 0.000000e+00
 0.000000e+00 0.000000e+00 0.000000e+00 7.264897e-01 2.735103e-01
 0.000000e+00 0.000000e+00 0.000000e+00 0.000000e+00 0.000000e+00
~t "T_hh"
<TRANSP> 5
 0.000000e+00 1.000000e+00 0.000000e+00 0.000000e+00 0.000000e+00
 0.000000e+00 7.240075e-01 2.759925e-01 0.000000e+00 0.000000e+00
 0.000000e+00 0.000000e+00 9.056211e-01 9.437893e-02 0.000000e+00
 0.000000e+00 0.000000e+00 0.000000e+00 8.813285e-01 1.186715e-01
 0.000000e+00 0.000000e+00 0.000000e+00 0.000000e+00 0.000000e+00
~t "T_ih"
<TRANSP> 5
 0.000000e+00 1.000000e+00 0.000000e+00 0.000000e+00 0.000000e+00
 0.000000e+00 7.022105e-01 2.977895e-01 0.000000e+00 0.000000e+00
 0.000000e+00 0.000000e+00 7.992679e-01 2.007321e-01 0.000000e+00
 0.000000e+00 0.000000e+00 0.000000e+00 3.914841e-01 6.085159e-01
 0.000000e+00 0.000000e+00 0.000000e+00 0.000000e+00 0.000000e+00
~t "T_iy"
<TRANSP> 5
 0.000000e+00 1.000000e+00 0.000000e+00 0.000000e+00 0.000000e+00
 0.000000e+00 8.130525e-01 1.869475e-01 0.000000e+00 0.000000e+00
 0.000000e+00 0.000000e+00 8.833567e-01 1.166433e-01 0.000000e+00
 0.000000e+00 0.000000e+00 0.000000e+00 6.154658e-01 3.845342e-01
 0.000000e+00 0.000000e+00 0.000000e+00 0.000000e+00 0.000000e+00
~t "T_ng"
<TRANSP> 5
 0.000000e+00 1.000000e+00 0.000000e+00 0.000000e+00 0.000000e+00
 0.000000e+00 8.203712e-01 1.796288e-01 0.000000e+00 0.000000e+00
 0.000000e+00 0.000000e+00 7.626575e-01 2.373425e-01 0.000000e+00
 0.000000e+00 0.000000e+00 0.000000e+00 9.159291e-01 8.407085e-02
 0.000000e+00 0.000000e+00 0.000000e+00 0.000000e+00 0.000000e+00
~t "T_oh"
<TRANSP> 5
 0.000000e+00 1.000000e+00 0.000000e+00 0.000000e+00 0.000000e+00
 0.000000e+00 8.879010e-01 1.120990e-01 0.000000e+00 0.000000e+00
 0.000000e+00 0.000000e+00 8.644077e-01 1.355923e-01 0.000000e+00
 0.000000e+00 0.000000e+00 0.000000e+00 8.950212e-01 1.049788e-01
 0.000000e+00 0.000000e+00 0.000000e+00 0.000000e+00 0.000000e+00
~t "T_uh"
<TRANSP> 5
 0.000000e+00 1.000000e+00 0.000000e+00 0.000000e+00 0.000000e+00
 0.000000e+00 2.843068e-01 7.156932e-01 0.000000e+00 0.000000e+00
 0.000000e+00 0.000000e+00 3.763554e-01 6.236446e-01 0.000000e+00
 0.000000e+00 0.000000e+00 0.000000e+00 4.996862e-01 5.003138e-01
 0.000000e+00 0.000000e+00 0.000000e+00 0.000000e+00 0.000000e+00
~t "T_uw"
<TRANSP> 5
 0.000000e+00 1.000000e+00 0.000000e+00 0.000000e+00 0.000000e+00
 0.000000e+00 6.571099e-01 3.428901e-01 0.000000e+00 0.000000e+00
 0.000000e+00 0.000000e+00 7.734121e-01 2.265879e-01 0.000000e+00
 0.000000e+00 0.000000e+00 0.000000e+00 6.036020e-01 3.963980e-01
 0.000000e+00 0.000000e+00 0.000000e+00 0.000000e+00 0.000000e+00
~s "ST_s_2_1"
<MEAN> 13
 -1.499872e+01 -7.347226e-01 -1.676691e+00 -4.642627e+00 6.563102e+00 -3.414450e+00 -2.198290e+00 -7.224238e+00 5.895408e-01 -4.518123e+00 1.988136e+00 -3.123493e+00 5.763704e+01
<VARIANCE> 13
 4.327565e+01 3.605076e+01 7.224496e+01 7.646784e+01 6.044959e+01 6.678347e+01 8.759825e+01 5.556643e+01 5.947642e+01 4.465289e+01 4.754417e+01 3.698347e+01 9.155084e+01
<GCONST> 7.652898e+01
~s "ST_s_2_2"
<MEAN> 13
 -1.162957e+01 -5.673193e-01 -6.060284e+00 -9.012758e+00 6.452012e+00 -8.449039e+00 -7.159009e-01 -9.243649e+00 5.961539e+00 1.944436e+00 1.074161e+00 -6.941149e+00 6.682050e+01
<VARIANCE> 13
 2.183691e+01 1.902106e+01 2.001753e+01 5.017450e+01 4.463828e+01 4.461261e+01 2.294285e+01 5.287515e+01 5.716916e+01 4.047554e+01 3.100841e+01 3.166728e+01 5.256925e+00
<GCONST> 6.782702e+01
~s "ST_s_3_1"
<MEAN> 13
 -1.642093e+01 3.672182e+00 -6.028827e+00 7.119963e+00 5.128201e+00 -7.864515e+00 5.114744e+00 -4.369822e-01 5.339376e+00 -5.880690e-01 1.387530e+00 -2.311092e+00 6.104356e+01
<VARIANCE> 13
 2.687897e+01 4.111361e+01 3.207101e+01 8.259490e+01 4.394548e+01 4.121274e+01 5.078212e+01 4.017723e+01 3.529405e+01 2.926966e+01 2.670325e+01 2.459845e+01 4.865907e+01
<GCONST> 7.121710e+01
~s "ST_s_4_1"
<MEAN> 13
 -2.370036e+01 1.725393e-01 -2.220962e+00 -3.208050e+00 1.574351e+01 -1.588249e+01 7.153835e+00 -1.745920e+00 6.081185e+00 -7.146783e+00 1.263164e-01 6.194213e-01 5.466156e+01
<VARIANCE> 13
 1.007012e+02 7.297581e+01 5.095694e+01 4.120583e+01 9.122734e+01 8.209500e+01 1.141999e+02 5.480999e+01 7.025719e+01 5.434639e+01 4.131254e+01 6.124720e+01 7.083938e+01
<GCONST> 7.845135e+01
~s "ST_oh_2_1"
<MEAN> 13
 3.375300e+00 -2.268100e+01 -1.182437e+01 -1.438350e+01 -7.369661e+00 1.426883e+01 -3.754392e+00 -1.257031e+01 8.656254e+00 -1.185619e+00 4.037601e+00 -6.029989e+00 7.177470e+01
<VARIANCE> 13
 8.406149e+00 6.368644e+01 1.501402e+01 3.923511e+01 3.802126e+01 8.492294e+01 5.417204e+01 4.955760e+01 8.672627e+01 4.012588e+01 4.038733e+01 4.948991e+01 1.487517e+01
<GCONST> 7.098384e+01
~s "ST_oh_3_1"
<MEAN> 13
 4.786734e+00 -1.486917e+01 -1.386858e+01 -8.112752e+00 -9.252812e+00 -7.416171e-01 -6.501604e+00 -1.125251e+00 -1.594203e+00 6.632297e+00 -5.342072e+00 -1.592675e+01 7.297762e+01
<VARIANCE> 13
 2.903946e+00 2.833362e+01 1.132657e+01 6.495964e+01 4.713890e+01 3.114923e+01 3.394494e+01 2.930480e+01 2.843080e+01 2.696127e+01 3.015148e+01 5.153484e+01 1.856718e+01
<GCONST> 6.600958e+01
~s "ST_oh_4_1"
<MEAN> 13
 8.029892e+00 -6.352296e+00 -6.671165e+00 9.317920e+00 -2.317849e+01 1.633156e+00 -6.824612e+00 1.660936e-04 4.418909e+00 -1.041696e+01 -4.952627e+00 3.092782e+00 6.811772e+01
<VARIANCE> 13
 1.499102e+01 1.944248e+01 3.892324e+01 6.406957e+01 1.132055e+02 1.328183e+02 2.748132e+01 3.395134e+01 2.961987e+01 8.113589e+01 1.949431e+01 2.911865e+01 1.334499e+01
<GCONST> 7.056271e+01
~s "ST_uh_2_1"
<MEAN> 13
 2.347563e+00 6.025434e+00 -3.117537e+00 -1.377452e+01 -1.802275e+00 3.853684e+00 -6.746057e+00 -5.609512e+00 -6.460918e+00 -2.485487e+00 -3.398510e+00 -2.642941e+00 5.637576e+01
<VARIANCE> 13
 6.301791e+01 8.375516e+01 2.281908e+01 1.655894e+02 3.915602e+01 3.875678e+01 2.920202e+01 5.842609e+01 3.578192e+01 3.612302e+01 6.902166e+01 3.400058e+01 1.045248e+02
<GCONST> 7.504227e+01
~s "ST_uh_2_2"
<MEAN> 13
 -1.232033e+01 6.335727e+00 -5.720089e+00 2.362282e+00 -5.821119e+00 1.035850e+00 -4.713140e+00 -2.367829e+00 -1.930621e+00 -3.833371e+00 -1.249482e+00 -2.022563e+00 3.875777e+01
<VARIANCE> 13
 9.750687e+01 5.676513e+01 3.952919e+01 5.224834e+01 2.317670e+01 2.794710e+01 2.704482e+01 2.088078e+01 2.109017e+01 2.052255e+01 1.652077e+01 1.569288e+01 1.524592e+02
<GCONST> 6.960913e+01
~s "ST_uh_3_1"
<MEAN> 13
 6.125098e-02 2.918624e+00 -5.132864e+00 -9.619247e+00 -7.728102e+00 3.467709e-01 -7.047433e+00 -7.296732e+00 -7.671894e+00 -2.362533e+00 -1.633829e-02 -3.246326e+00 5.599740e+01
<VARIANCE> 13
 1.041174e+02 4.330108e+01 1.850925e+01 8.521204e+01 3.149936e+01 3.554592e+01 2.742500e+01 3.828328e+01 4.195309e+01 2.953501e+01 3.471350e+01 2.079611e+01 1.848633e+02
<GCONST> 7.257041e+01
~s "ST_uh_4_1"
<MEAN> 13
 -3.190544e+00 5.083921e+00 -4.553935e+00 -4.890393e+00 -7.326169e+00 8.651345e-01 -1.315527e+01 -1.001187e+01 -8.420980e+00 -2.704464e+00 5.079780e-01 -3.789896e+00 4.970472e+01
<VARIANCE> 13
 8.269040e+01 9.577383e+01 3.629575e+01 6.786790e+01 2.859153e+01 3.308754e+01 6.398001e+01 4.891782e+01 5.250814e+01 6.102845e+01 5.064939e+01 3.542885e+01 2.671171e+02
<GCONST> 7.673219e+01
~s "ST_l_2_1"
<MEAN> 13
 1.772024e+00 -2.458291e+01 -1.094263e+01 -1.140207e+01 -3.184757e+00 1.614855e+01 -6.773890e+00 -1.595226e+01 1.553985e+01 -2.195230e+00 2.929258e-02 -4.295609e+00 7.192055e+01
<VARIANCE> 13
 5.580833e+00 4.495584e+01 1.578341e+01 2.718787e+01 3.393329e+01 7.776824e+01 2.699577e+01 3.526836e+01 7.190442e+01 4.486687e+01 4.440175e+01 3.337143e+01 1.252417e+01
<GCONST> 6.812363e+01
~s "ST_l_3_1"
<MEAN> 13
 6.265379e+00 -1.625078e+01 -9.796998e+00 -1.540497e+01 -1.859884e-01 8.117463e+00 -6.443757e+00 -9.573421e+00 -3.282414e+00 5.144426e+00 2.357540e+00 -1.368257e+01 7.219274e+01
<VARIANCE> 13
 6.363741e+00 3.288966e+01 1.737629e+01 2.376098e+01 5.609721e+01 5.331040e+01 2.481281e+01 2.868812e+01 5.191058e+01 3.361758e+01 7.652902e+01 6.580534e+01 1.355984e+01
<GCONST> 6.842645e+01
~s "ST_l_4_1"
<MEAN> 13
 5.051351e+00 -1.121010e+01 -9.050126e+00 -1.604618e+01 3.627173e+00 5.179467e+00 -7.173282e+00 -6.929504e+00 2.538569e+00 3.358146e+00 -8.628096e+00 -5.982910e+00 6.814735e+01
<VARIANCE> 13
 7.017764e+00 8.127459e+01 2.501384e+01 3.540990e+01 1.245066e+02 9.023625e+01 3.628326e+01 3.349969e+01 1.022025e+02 5.193344e+01 1.024960e+02 7.434500e+01 2.671796e+01
<GCONST> 7.425558e+01
~s "ST_b_2_1"
<MEAN> 13
 6.807510e+00 4.459094e+00 -9.485390e+00 -3.358608e+00 -4.250748e+00 1.482724e+00 -7.447779e+00 -5.101659e+00 -5.545197e+00 -2.187848e+00 -5.249222e+00 -3.908336e+00 5.267910e+01
<VARIANCE> 13
 3.866293e+01 1.680878e+02 2.546691e+01 5.005038e+01 5.868131e+01 4.895644e+01 3.496120e+01 2.595648e+01 3.269052e+01 4.804156e+01 2.872674e+01 2.310430e+01 5.124313e+01
<GCONST> 7.238947e+01
~s "ST_b_3_1"
<MEAN> 13
 -1.423440e+00 3.143083e-01 -6.279036e+00 -1.235700e+00 1.706631e+00 1.376414e+00 -1.294876e-01 -9.341937e-01 2.210837e+00 1.088928e+00 -2.440092e+00 -5.686772e+00 5.399518e+01
<VARIANCE> 13
 2.046021e+01 5.758282e+01 1.729222e+01 1.267278e+01 2.336187e+01 1.858739e+01 3.517615e+01 2.283848e+01 3.624515e+01 2.755043e+01 2.417188e+01 2.288356e+01 2.582916e+01
<GCONST> 6.558965e+01
~s "ST_b_4_1"
<MEAN> 13
 -1.043234e+01 2.730612e+00 -1.151983e+01 6.013280e+00 -3.655793e+00 1.652814e+00 -1.030741e+01 -5.431087e+00 -6.130507e+00 -6.929399e+00 -5.942859e+00 -7.437457e+00 3.775322e+01
<VARIANCE> 13
 2.831880e+01 3.128697e+01 3.237232e+01 2.081391e+01 4.851833e+01 3.977361e+01 3.261025e+01 3.587783e+01 2.655230e+01 4.314059e+01 2.450990e+01 2.240640e+01 5.974750e+01
<GCONST> 6.926408e+01
~s "ST_r_2_1"
<MEAN> 13
 9.073997e+00 -7.465378e+00 -2.223787e+01 -2.464275e+00 -1.709140e+01 -3.686235e+00 -4.197144e+00 5.041773e+00 4.962121e+00 -7.693984e+00 -3.243503e+00 1.526106e+00 6.856962e+01
<VARIANCE> 13
 1.616947e+01 3.109060e+01 9.406599e+01 3.614625e+01 1.147158e+02 5.934874e+01 2.611305e+01 6.280948e+01 4.211740e+01 8.296580e+01 1.729946e+01 4.016114e+01 2.316707e+01
<GCONST> 7.231763e+01
~s "ST_r_2_2"
<MEAN> 13
 3.980766e+00 -1.411067e+01 -6.717196e+00 -2.484076e+00 -4.252862e+00 -6.345070e+00 -5.652946e+00 -2.397044e+00 3.831075e+00 4.992143e+00 -8.145232e+00 -9.241324e+00 6.715496e+01
<VARIANCE> 13
 7.422086e+00 2.021127e+01 4.415482e+01 3.282278e+01 7.685379e+01 4.263512e+01 2.902917e+01 5.206395e+01 4.390542e+01 6.109397e+01 2.945841e+01 7.214386e+01 1.821028e+01
<GCONST> 7.005536e+01
~s "ST_r_3_1"
<MEAN> 13
 1.123652e-01 -9.653543e+00 -6.934508e+00 1.860943e+00 -3.355257e+00 -1.791610e+00 -3.178656e+00 -3.406102e+00 1.205706e+00 3.141947e+00 -5.005474e+00 -7.481810e+00 5.869030e+01
<VARIANCE> 13
 1.256182e+01 3.116983e+01 3.220316e+01 2.302834e+01 5.175829e+01 5.590763e+01 2.868967e+01 4.352261e+01 4.338563e+01 4.352911e+01 3.075662e+01 2.934629e+01 3.350392e+01
<GCONST> 6.943191e+01
~s "ST_r_3_2"
<MEAN> 13
 3.427707e+00 -1.285907e+01 -2.922873e+00 -4.580457e+00 -6.028708e+00 -7.129163e+00 -6.611793e+00 -2.747920e+00 2.557019e+00 2.353019e+00 -5.141710e+00 -4.379780e+00 6.687505e+01
<VARIANCE> 13
 1.106970e+01 3.962961e+01 5.908460e+01 5.066148e+01 7.581380e+01 6.485391e+01 5.171395e+01 6.095531e+01 6.432073e+01 4.647765e+01 3.194621e+01 7.215174e+01 2.182525e+01
<GCONST> 7.336536e+01
~s "ST_r_4_1"
<MEAN> 13
 -2.355468e+00 -5.147747e+00 -2.734745e+00 1.399000e+01 2.466676e+00 -1.562455e+00 -1.943914e+00 6.356770e+00 4.699919e-01 -4.473805e+00 -3.563214e+00 -1.628433e+00 5.054688e+01
<VARIANCE> 13
 3.289376e+01 1.169641e+02 5.964803e+01 1.737169e+02 6.243985e+01 6.661166e+01 6.407925e+01 1.151060e+02 5.094556e+01 5.990777e+01 4.497889e+01 4.398043e+01 1.048088e+02
<GCONST> 7.889813e+01
~s "ST_r_4_2"
<MEAN> 13
 3.297253e+00 -1.401461e+01 4.301868e-01 -4.442041e+00 -9.082868e+00 -8.665266e+00 -6.748656e+00 -2.150396e+00 4.505989e-01 8.661568e-01 -2.878350e+00 -2.679819e+00 6.821200e+01
<VARIANCE> 13
 9.282478e+00 4.596661e+01 8.489972e+01 5.537685e+01 9.324182e+01 8.818653e+01 4.994956e+01 6.137533e+01 7.910131e+01 6.617722e+01 4.376245e+01 7.627032e+01 2.319768e+01
<GCONST> 7.526692e+01
~s "ST_hh_2_1"
<MEAN> 13
 2.274413e+00 -7.778464e+00 1.814438e+00 -4.268361e+00 1.650679e+00 -1.590689e+01 -5.860839e+00 6.919158e+00 2.691169e+00 4.843525e-01 -1.357941e+01 2.082458e+00 6.417278e+01
<VARIANCE> 13
 7.629834e+00 8.486987e+01 2.642617e+01 1.740927e+02 8.609451e+01 9.860737e+01 9.914017e+01 9.984296e+01 4.794659e+01 3.763113e+01 3.265828e+01 8.331169e+01 8.070856e+01
<GCONST> 7.684371e+01
~s "ST_hh_3_1"
<MEAN> 13
 7.487066e-01 -1.579740e+01 -1.209587e+01 -4.298915e+00 -4.653412e-01 -2.846789e+00 -7.437671e+00 3.957354e+00 -1.542397e+00 -2.153968e+00 -1.548515e+01 -9.493097e+00 7.589432e+01
<VARIANCE> 13
 6.176862e+00 1.795568e+01 2.398349e+01 4.819732e+01 3.644073e+01 2.282588e+01 2.672602e+01 4.982752e+01 1.542577e+01 1.925435e+01 1.731432e+01 2.323995e+01 1.005825e+01
<GCONST> 6.357116e+01
~s "ST_k_2_1"
<MEAN> 13
 -6.841480e+00 -4.879930e-01 -4.910046e+00 -8.919792e-01 3.881817e-01 -5.659530e-01 -3.613734e+00 -3.120189e+00 -2.103813e-01 -6.671802e-01 4.375447e-01 -1.655390e+00 5.203632e+01
<VARIANCE> 13
 4.716611e+01 5.878786e+01 4.239596e+01 4.314826e+01 4.331256e+01 3.834195e+01 4.530393e+01 4.821273e+01 3.345985e+01 3.124387e+01 2.582790e+01 2.356556e+01 1.200234e+02
<GCONST> 7.258681e+01
~s "ST_hh_4_1"
<MEAN> 13
 6.869212e-01 -1.402561e+01 -1.552123e+00 -8.976967e+00 1.579609e+01 -6.852080e+00 9.750797e+00 -1.644931e+00 6.456964e+00 4.228074e+00 -2.113964e+01 1.344380e+00 6.797707e+01
<VARIANCE> 13
 8.691328e+00 8.744793e+00 1.814704e+01 7.195215e+01 5.507125e+01 5.366859e+01 5.633343e+01 3.332421e+01 3.420029e+01 2.787325e+01 3.658424e+01 2.448892e+01 1.775324e+01
<GCONST> 6.746104e+01
~s "ST_k_3_1"
<MEAN> 13
 -6.647929e+00 -4.387104e+00 -9.698893e+00 2.010917e-01 3.506532e+00 -7.972822e-01 -6.752389e+00 -3.656048e+00 4.840253e-02 3.032418e+00 1.338876e-01 -3.998143e+00 5.345820e+01
<VARIANCE> 13
 6.137101e+01 1.046018e+02 6.795288e+01 7.032160e+01 7.971314e+01 7.726456e+01 4.765800e+01 7.265558e+01 5.926432e+01 5.041428e+01 3.543436e+01 3.198284e+01 1.650124e+02
<GCONST> 7.814803e+01
~s "ST_k_4_1"
<MEAN> 13
 -1.075334e+01 6.681826e+00 -5.161428e+00 3.365446e+00 2.240811e+00 8.011819e+00 -4.178463e+00 -3.436913e+00 -1.415705e+00 2.458489e-02 3.167943e+00 1.077995e-01 4.009720e+01
<VARIANCE> 13
 8.573037e+01 7.939215e+01 1.084841e+02 1.313060e+02 7.448864e+01 1.018476e+02 5.962375e+01 1.374017e+02 8.126744e+01 8.758792e+01 3.676131e+01 3.584114e+01 2.078498e+02
<GCONST> 8.161797e+01
~s "ST_k_4_2"
<MEAN> 13
 -7.926850e+00 -9.751266e+00 -1.332115e+01 -7.231375e-02 1.052842e+01 -9.128841e+00 -1.615666e+00 -8.334141e-01 -2.309612e+00 6.138953e+00 -9.252643e-01 -7.387744e+00 5.504430e+01
<VARIANCE> 13
 6.752632e+01 9.181030e+01 1.458495e+02 1.214199e+02 1.703103e+02 2.526697e+02 8.718096e+01 9.217476e+01 1.062148e+02 8.915886e+01 8.740716e+01 6.282574e+01 1.246187e+02
<GCONST> 8.465993e+01
~s "ST_uw_2_1"
<MEAN> 13
 1.966127e+00 -2.660022e+00 -6.132363e+00 -1.533724e+01 -7.390919e+00 4.059585e+00 -1.301624e+01 -1.730969e+01 -3.423972e+00 -3.218646e+00 4.897054e+00 3.548105e-03 6.197399e+01
<VARIANCE> 13
 4.386341e+01 4.092173e+01 1.261533e+01 1.122231e+02 7.765617e+01 4.814641e+01 4.785128e+01 7.670315e+01 1.088825e+02 3.587215e+01 5.839949e+01 6.249939e+01 9.794207e+01
<GCONST> 7.613219e+01
~s "ST_uw_2_2"
<MEAN> 13
 5.244099e+00 -7.866440e+00 -6.132440e+00 -1.587604e+01 -1.192572e+01 5.446916e+00 -1.725016e+01 -1.743115e+01 3.250309e+00 -2.907507e+00 8.472690e+00 1.024195e+00 7.056667e+01
<VARIANCE> 13
 1.508571e+01 2.016018e+01 1.142389e+01 3.452563e+01 3.755533e+01 1.882965e+01 2.304447e+01 2.102910e+01 1.000783e+02 2.789514e+01 3.155512e+01 2.145356e+01 1.459755e+01
<GCONST> 6.546474e+01
~s "ST_n_2_1"
<MEAN> 13
 -6.608905e-01 1.971796e+00 9.807908e-01 1.170296e+00 -5.679935e+00 -5.905875e+00 -7.139945e+00 -1.032585e+01 -3.235999e+00 -2.238473e+00 -4.645504e+00 -5.351226e+00 5.685646e+01
<VARIANCE> 13
 3.807086e+01 2.042293e+01 4.112024e+01 3.490302e+01 4.000851e+01 4.889634e+01 2.226874e+01 4.723304e+01 2.120913e+01 2.090896e+01 2.274912e+01 2.551066e+01 7.031156e+01
<GCONST> 6.906583e+01
~s "ST_n_2_2"
<MEAN> 13
 3.706404e+00 -5.646002e+00 -2.008615e+00 1.303948e+00 -3.794430e+00 -7.450430e+00 -6.132071e+00 -8.258842e+00 -2.337125e+00 2.132799e+00 -1.040938e+01 -9.436408e+00 6.183930e+01
<VARIANCE> 13
 1.104070e+01 2.128429e+01 1.488125e+01 1.443783e+01 4.961583e+01 7.122860e+01 1.879683e+01 4.835718e+01 3.567505e+01 3.477973e+01 3.327327e+01 2.973346e+01 1.738438e+01
<GCONST> 6.658051e+01
~s "ST_uw_3_1"
<MEAN> 13
 5.718147e+00 1.598064e+00 -5.918442e+00 -1.514892e+01 -1.234785e+01 -4.051075e-01 -1.199516e+01 -9.148286e+00 -9.324772e+00 -4.526242e+00 2.370187e+00 -4.408746e+00 6.381946e+01
<VARIANCE> 13
 2.999084e+01 2.297433e+01 1.546536e+01 4.353186e+01 4.110772e+01 2.683350e+01 3.842649e+01 3.254313e+01 3.845359e+01 2.454370e+01 3.232965e+01 5.163080e+01 5.617289e+01
<GCONST> 6.937537e+01
~s "ST_n_3_1"
<MEAN> 13
 4.208140e+00 4.931944e+00 -3.224371e-01 7.266859e+00 3.556934e+00 -6.676032e+00 -7.084406e+00 -3.299714e+00 -9.043587e-01 -4.204621e+00 -1.343350e+01 2.663028e+00 5.383642e+01
<VARIANCE> 13
 1.920430e+01 7.274302e+01 4.115757e+01 5.584124e+01 7.285944e+01 5.786974e+01 3.751644e+01 6.209688e+01 5.763670e+01 5.327452e+01 6.738026e+01 8.456219e+01 3.855190e+01
<GCONST> 7.530405e+01
~s "ST_n_3_2"
<MEAN> 13
 6.961440e+00 6.920616e+00 -1.835710e+00 -1.297267e+01 4.111482e+00 1.034754e+01 -1.874623e+01 -1.469625e+01 -3.515992e+00 3.210514e-01 -8.369592e+00 3.517502e+00 5.679602e+01
<VARIANCE> 13
 5.315284e+01 6.115409e+01 5.094973e+01 2.428484e+02 1.293656e+02 7.240501e+01 1.027627e+02 6.601262e+01 7.040292e+01 1.024307e+02 6.599624e+01 9.659775e+01 8.428149e+01
<GCONST> 8.144717e+01
~s "ST_uw_4_1"
<MEAN> 13
 -3.715296e-01 6.155906e+00 -8.409705e+00 -7.163275e+00 -3.590961e+00 2.557169e+00 -7.631143e+00 -7.429374e+00 -6.742446e+00 -1.347683e+00 -3.616458e-01 1.557313e+00 4.896423e+01
<VARIANCE> 13
 6.398091e+01 5.682455e+01 3.705846e+01 1.513267e+02 7.285050e+01 7.752105e+01 3.758876e+01 3.533934e+01 5.770527e+01 6.882507e+01 6.114001e+01 4.990449e+01 1.105197e+02
<GCONST> 7.756895e+01
~s "ST_uw_4_2"
<MEAN> 13
 1.005054e+01 -1.718444e-01 -8.092842e+00 -2.507823e+01 -2.193931e+00 1.196931e+01 -1.025546e+01 -1.249934e+01 -7.343330e+00 8.186728e+00 -2.024487e+00 2.249220e-01 6.433091e+01
<VARIANCE> 13
 2.753860e+01 7.092782e+01 4.493865e+01 1.269927e+02 1.144864e+02 8.573404e+01 5.328181e+01 4.317678e+01 8.491692e+01 9.214816e+01 1.447020e+02 7.854204e+01 3.291004e+01
<GCONST> 7.884884e+01
~s "ST_n_4_1"
<MEAN> 13
 -1.434296e+00 1.431781e+01 2.723747e+00 1.136015e+01 -1.460823e-01 1.002093e+00 -8.196898e+00 -3.503278e+00 -3.687323e+00 -5.705577e+00 -5.373980e+00 -2.631364e+00 4.284337e+01
<VARIANCE> 13
 5.459480e+01 1.534742e+02 4.072569e+01 9.647848e+01 4.263099e+01 5.517350e+01 4.209310e+01 5.502026e+01 4.949381e+01 3.371166e+01 3.750607e+01 4.670417e+01 1.181577e+02
<GCONST> 7.637275e+01
~s "ST_n_4_2"
<MEAN> 13
 -9.490645e+00 8.748395e+00 -6.437828e+00 7.184178e+00 -2.887099e+00 3.491021e+00 -1.164765e+01 -8.611497e+00 -5.054460e+00 -6.036319e+00 -5.199544e+00 -5.215431e+00 3.696421e+01
<VARIANCE> 13
 4.237489e+01 5.207919e+01 3.615516e+01 2.926538e+01 2.719415e+01 1.896776e+01 3.697760e+01 3.586480e+01 2.173712e+01 2.655594e+01 2.421008e+01 1.891282e+01 5.874785e+01
<GCONST> 6.854990e+01
~s "ST_d_2_1"
<MEAN> 13
 -1.628825e-01 6.821411e+00 1.251060e+00 7.880223e+00 2.412853e+00 -7.452683e-01 -1.022206e+01 -9.149734e+00 -1.972474e+00 -3.046784e+00 -3.935887e+00 -6.028290e+00 5.144639e+01
<VARIANCE> 13
 3.884319e+01 1.599650e+02 3.073787e+01 8.911972e+01 6.287539e+01 6.023884e+01 1.158567e+02 6.814884e+01 4.919275e+01 3.253888e+01 3.472365e+01 3.941376e+01 1.163123e+02
<GCONST> 7.711189e+01
~s "ST_d_2_2"
<MEAN> 13
 3.645838e+00 -1.491881e+01 -7.911180e+00 -9.545810e+00 2.251544e+00 -7.692731e-01 -2.721102e+00 -7.109959e+00 1.890809e+00 4.932841e+00 -1.253231e+01 -7.233002e+00 7.002193e+01
<VARIANCE> 13
 1.206739e+01 6.089179e+01 3.591564e+01 8.995553e+01 8.591698e+01 3.597548e+01 5.187856e+01 7.595976e+01 5.791141e+01 5.278436e+01 4.842647e+01 4.259517e+01 4.546651e+01
<GCONST> 7.436171e+01
~s "ST_d_3_1"
<MEAN> 13
 3.551017e+00 -1.299894e+01 -4.642722e+00 -6.344988e+00 -1.080873e+00 -2.213687e+00 -9.182487e+00 -7.220345e+00 2.565970e+00 2.539208e+00 -9.126314e+00 -5.722131e+00 6.758373e+01
<VARIANCE> 13
 1.873641e+01 7.329418e+01 4.022514e+01 9.674010e+01 1.194407e+02 8.594735e+01 1.511258e+02 1.225119e+02 7.936866e+01 6.851506e+01 8.104207e+01 5.124038e+01 5.806866e+01
<GCONST> 7.944102e+01
~s "ST_d_4_1"
<MEAN> 13
 5.092077e+00 -9.811749e+00 -7.116122e-01 -2.181741e+00 -6.515844e+00 -5.545346e+00 -1.547428e+01 -1.183900e+01 -8.214400e-03 -7.092746e-01 -4.743754e-01 -2.562821e+00 6.618608e+01
<VARIANCE> 13
 3.373072e+01 5.523167e+01 3.984680e+01 4.384581e+01 9.523932e+01 8.347333e+01 1.051601e+02 1.585037e+02 9.968675e+01 5.125604e+01 7.737521e+01 4.020789e+01 2.944349e+01
<GCONST> 7.755431e+01
~s "ST_d_4_2"
<MEAN> 13
 6.752886e+00 -1.831147e+01 -3.828473e+00 -1.413895e+01 -1.428577e+00 -7.096998e-01 -2.028277e+00 -7.756886e+00 -7.525146e-01 1.006821e+01 -1.334435e+01 -6.390515e+00 7.263301e+01
<VARIANCE> 13
 9.375948e+00 1.241546e+01 1.705458e+01 2.681822e+01 9.975802e+01 3.263958e+01 4.787509e+01 6.715086e+01 4.867211e+01 3.824758e+01 2.834464e+01 2.434968e+01 8.833129e+00
<GCONST> 6.718346e+01
~s "ST_ay_2_1"
<MEAN> 13
 -1.231920e+01 1.717840e+00 -4.986597e+00 8.355851e+00 5.620692e+00 -6.988974e+00 6.658744e+00 1.499672e+00 5.445716e+00 -4.713731e-01 -5.292115e-01 -1.244293e+00 6.151168e+01
<VARIANCE> 13
 4.980539e+01 3.915858e+01 3.245319e+01 7.608327e+01 3.118538e+01 2.499886e+01 3.352017e+01 3.575157e+01 3.493940e+01 3.228045e+01 1.985258e+01 2.732339e+01 3.518401e+01
<GCONST> 6.991204e+01
~s "ST_ay_3_1"
<MEAN> 13
 2.208892e+00 -1.368907e+01 -1.156278e+01 -8.211723e+00 -7.729884e-01 -1.513075e+00 1.444643e+00 -4.206810e+00 -3.332582e+00 8.019532e+00 -8.987646e+00 -9.386003e+00 6.814106e+01
<VARIANCE> 13
 5.987756e+01 3.897070e+01 3.843148e+01 9.540515e+01 4.274557e+01 5.002591e+01 2.899439e+01 9.709646e+01 7.669887e+01 9.917339e+01 6.623006e+01 6.700474e+01 6.143995e+01
<GCONST> 7.691785e+01
~s "ST_ay_4_1"
<MEAN> 13
 1.332734e+00 -1.204943e+01 6.367332e+00 -1.141622e+01 -3.624221e+00 -1.610534e+01 3.038347e+00 2.324811e+00 -1.823745e+00 2.658712e+00 -8.013609e+00 1.626727e+00 7.132603e+01
<VARIANCE> 13
 5.869370e+00 2.575812e+01 5.664133e+01 8.997710e+01 1.506104e+02 2.795386e+01 6.980562e+01 3.707901e+01 6.491114e+01 4.296451e+01 7.194478e+01 2.753037e+01 1.226166e+01
<GCONST> 7.168228e+01
~s "ST_g_2_1"
<MEAN> 13
 -3.322867e+00 -1.055382e+00 1.549361e+01 -5.472298e+00 -1.040525e+01 -1.179226e+01 -3.899279e+00 -1.200478e+01 -1.448919e+01 8.481115e-01 3.121366e-01 -6.631711e+00 6.108596e+01
<VARIANCE> 13
 1.826734e+01 5.083099e+01 9.844846e+01 8.223328e+01 7.451379e+01 7.065788e+01 4.878611e+01 2.871491e+01 9.323440e+01 3.234324e+01 1.133933e+02 3.826966e+01 7.923580e+01
<GCONST> 7.629830e+01
~s "ST_g_3_1"
<MEAN> 13
 -5.604559e+00 -7.777885e+00 3.263914e+00 -3.602074e+00 -9.520951e+00 -1.273327e+01 -1.647915e+00 -3.482765e+00 -6.199672e+00 -5.857495e-01 2.172976e+00 -1.667147e+00 6.399916e+01
<VARIANCE> 13
 2.614342e+01 1.292670e+02 7.834780e+01 6.862282e+01 5.899697e+01 7.032692e+01 7.515285e+01 4.649462e+01 3.250602e+01 3.450768e+01 8.068250e+01 6.619942e+01 8.990727e+01
<GCONST> 7.720174e+01
~s "ST_g_4_1"
<MEAN> 13
 1.081133e+00 -1.606607e+01 -6.751647e+00 -7.081463e+00 -1.207895e+01 -7.739393e+00 -1.294396e+01 4.394958e+00 1.538110e+00 6.486863e-01 -3.702030e+00 -2.020157e+01 7.509231e+01
<VARIANCE> 13
 1.030657e+01 5.063732e+01 5.516615e+01 2.733241e+01 4.398285e+01 7.352294e+01 3.243134e+01 4.335580e+01 4.254321e+01 3.136739e+01 8.601785e+01 6.701550e+01 7.835592e+01
<GCONST> 7.301529e+01
~s "ST_t_2_1"
<MEAN> 13
 -6.793190e+00 -3.765209e+00 -7.143411e+00 -3.431105e-01 -1.329773e+00 5.846373e+00 -4.579353e+00 -5.442041e+00 -5.004439e-01 -2.319378e+00 -2.280040e-01 -1.817883e+00 4.963359e+01
<VARIANCE> 13
 3.688195e+01 5.942737e+01 1.175358e+02 6.584962e+01 7.794336e+01 1.281389e+02 8.470373e+01 5.880947e+01 7.249991e+01 4.018678e+01 3.088191e+01 3.810295e+01 1.062713e+02
<GCONST> 7.797513e+01
~s "ST_t_2_2"
<MEAN> 13
 -4.046059e+00 -4.567356e+00 -1.132103e+01 -4.552581e+00 1.118195e+00 -1.642452e+00 -3.849941e+00 -1.547405e+00 5.506755e+00 2.055518e+00 -6.090318e+00 -4.772642e+00 5.267077e+01
<VARIANCE> 13
 2.849832e+01 3.387383e+01 6.585229e+01 4.230463e+01 3.983453e+01 5.613203e+01 7.666212e+01 6.918336e+01 7.165232e+01 2.900742e+01 4.620914e+01 2.776072e+01 7.092373e+01
<GCONST> 7.404359e+01
~s "ST_t_3_1"
<MEAN> 13
 -2.505468e-01 -9.326633e+00 -7.028694e+00 -1.497501e+01 -6.492654e+00 4.860411e+00 -9.836538e+00 -1.337095e+01 6.947521e+00 -3.428964e+00 3.989735e+00 1.307207e+00 6.686085e+01
<VARIANCE> 13
 2.485890e+01 2.747593e+01 2.939111e+01 1.125392e+02 7.332649e+01 1.028982e+02 6.573206e+01 5.931499e+01 6.299995e+01 7.854473e+01 5.192319e+01 3.961064e+01 6.711607e+01
<GCONST> 7.606213e+01
~s "ST_t_3_2"
<MEAN> 13
 2.939403e+00 -5.630152e+00 -5.362494e+00 -1.573802e+01 -1.151187e+01 4.452085e-01 -1.493337e+01 -1.128082e+01 -1.792197e+00 -9.979756e-01 2.954460e+00 -6.615634e+00 7.039859e+01
<VARIANCE> 13
 2.060719e+01 2.267787e+01 2.694586e+01 3.682287e+01 4.220998e+01 4.098105e+01 3.540804e+01 3.163649e+01 5.882933e+01 3.169230e+01 1.702057e+01 4.723824e+01 4.058478e+01
<GCONST> 6.934013e+01
~s "ST_t_4_1"
<MEAN> 13
 -3.735163e+00 -4.761780e+00 -7.819599e+00 -4.725227e+00 -3.459450e-01 -2.625941e+00 -2.857911e+00 -5.204614e+00 1.106883e+00 2.381578e-01 -5.358694e+00 -4.095885e+00 5.600234e+01
<VARIANCE> 13
 5.485770e+01 6.147495e+01 4.417157e+01 1.047797e+02 8.888580e+01 5.761629e+01 4.337373e+01 6.009048e+01 7.080484e+01 7.204604e+01 5.896509e+01 4.006710e+01 1.296106e+02
<GCONST> 7.803185e+01
~s "ST_t_4_2"
<MEAN> 13
 6.319631e+00 -4.321198e+00 -1.646481e+00 -1.515389e+01 -5.659815e+00 9.312556e+00 -9.508558e+00 -1.345542e+01 -1.108348e+01 5.938561e+00 7.360834e+00 -4.029082e+00 6.366006e+01
<VARIANCE> 13
 3.747852e+01 3.105774e+01 4.408188e+01 1.212066e+02 5.990863e+01 8.691103e+01 4.948783e+01 4.044724e+01 5.463927e+01 5.499009e+01 7.944064e+01 5.534811e+01 4.835340e+01
<GCONST> 7.597009e+01
~s "ST_sil_2_1"
<MEAN> 13
 -1.445212e+01 5.739524e+00 -7.712343e+00 9.029291e+00 -2.004202e+00 5.550946e+00 -6.245136e+00 -1.980993e+00 -2.443914e+00 -5.798035e+00 -3.525725e+00 -3.774386e+00 3.331312e+01
<VARIANCE> 13
 2.537936e+01 3.513618e+01 4.979898e+01 3.788198e+01 4.177466e+01 4.811496e+01 5.185609e+01 4.880909e+01 3.959285e+01 3.374020e+01 3.336505e+01 2.540483e+01 4.508950e+01
<GCONST> 7.141874e+01
~s "silst"
<MEAN> 13
 -8.103281e+00 9.005980e-01 -1.094597e+00 1.414779e+00 2.959624e+00 6.425390e-01 2.462011e+00 8.090960e-01 2.933980e+00 -7.426441e-01 6.460541e-01 -1.477191e+00 5.274846e+01
<VARIANCE> 13
 4.103778e+00 9.864494e+00 7.358364e+00 9.309720e+00 8.949353e+00 1.155617e+01 1.214925e+01 1.045180e+01 1.174180e+01 9.117708e+00 9.258467e+00 8.871017e+00 4.289186e+00
<GCONST> 5.184079e+01
~s "ST_sil_3_1"
<MEAN> 13
 -8.103281e+00 9.005980e-01 -1.094597e+00 1.414779e+00 2.959624e+00 6.425390e-01 2.462011e+00 8.090960e-01 2.933980e+00 -7.426441e-01 6.460541e-01 -1.477191e+00 5.274846e+01
<VARIANCE> 13
 4.103778e+00 9.864494e+00 7.358364e+00 9.309720e+00 8.949353e+00 1.155617e+01 1.214925e+01 1.045180e+01 1.174180e+01 9.117708e+00 9.258467e+00 8.871017e+00 4.289186e+00
<GCONST> 5.184079e+01
~s "ST_sil_4_1"
<MEAN> 13
 -2.565870e+01 2.821016e+00 -1.002746e+01 4.556071e+00 -7.414405e+00 5.274625e+00 -3.408335e+00 1.474739e+00 1.548066e+00 -1.042752e+00 1.279208e+00 -4.419957e-01 2.408053e+01
<VARIANCE> 13
 1.503929e+01 3.080364e+00 6.036529e+00 5.509076e+00 1.041494e+01 8.298791e+00 1.042299e+01 1.106967e+01 1.147944e+01 1.025166e+01 9.506095e+00 8.072663e+00 2.754150e+01
<GCONST> 5.286402e+01
~s "ST_iy_2_1"
<MEAN> 13
 2.048966e+00 -9.353152e+00 1.801079e+01 -7.823448e+00 -1.302072e+01 -1.285955e+01 -4.196502e+00 -6.516497e+00 -1.711111e+01 7.962283e+00 4.798069e-01 -3.494018e-02 6.813832e+01
<VARIANCE> 13
 8.117892e+00 2.143593e+01 4.692328e+01 3.174165e+01 3.518902e+01 2.528239e+01 2.844183e+01 4.969776e+01 7.380547e+01 5.782159e+01 8.608283e+01 2.889131e+01 1.128914e+01
<GCONST> 6.900384e+01
~s "ST_j_2_1"
<MEAN> 13
 -6.089780e+00 1.216330e+01 2.867021e+01 -3.585657e+00 -8.059764e+00 -4.919574e+00 -8.258979e+00 -4.242673e+00 -1.607969e+01 5.415968e-01 -1.310567e+00 -3.754160e+00 5.106811e+01
<VARIANCE> 13
 1.494963e+01 1.327961e+02 1.257703e+02 2.116891e+02 9.715084e+01 6.427428e+01 1.008420e+02 3.156394e+01 5.577303e+01 5.626163e+01 3.789703e+01 2.490950e+01 6.895889e+01
<GCONST> 7.761541e+01
~s "ST_iy_3_1"
<MEAN> 13
 -3.189204e+00 -1.167768e+01 1.515143e+01 -6.711825e-01 -2.420573e+01 -1.249925e+01 -1.306632e+01 -8.337138e+00 -8.009492e+00 -6.409827e+00 1.380024e+01 -4.377581e+00 6.887302e+01
<VARIANCE> 13
 4.893095e+00 5.200582e+01 2.302529e+01 2.176275e+01 3.046613e+01 1.705173e+01 2.642949e+01 4.913599e+01 4.479265e+01 5.457565e+01 6.477168e+01 9.254897e+01 6.955883e+00
<GCONST> 6.751014e+01
~s "ST_j_3_1"
<MEAN> 13
 -1.562137e-01 -7.784215e+00 4.647018e+00 1.642704e+00 -1.151959e+01 -1.002998e+01 -1.971357e+01 -1.597643e+01 -5.017349e+00 -6.456603e-01 1.193065e+01 -6.377580e+00 6.655209e+01
<VARIANCE> 13
 2.393343e+01 1.302389e+01 7.415947e+01 4.658563e+01 3.815194e+01 5.594083e+01 9.746889e+01 9.215318e+01 7.537740e+01 2.971253e+01 6.192060e+01 5.003509e+01 2.418922e+01
<GCONST> 7.348939e+01
~s "ST_iy_4_1"
<MEAN> 13
 -1.580679e+00 -1.418826e+00 1.267982e+01 -1.600773e+00 -1.163789e+01 -1.067335e+01 -5.176495e+00 -6.932200e+00 -1.058959e+01 1.956968e+00 4.915122e-01 3.396728e-01 6.012186e+01
<VARIANCE> 13
 3.208570e+01 3.683495e+01 7.975976e+01 5.329318e+01 3.930560e+01 4.705798e+01 5.867252e+01 4.098551e+01 5.555702e+01 5.387077e+01 7.050681e+01 3.616315e+01 4.454753e+01
<GCONST> 7.427433e+01
~s "ST_j_4_1"
<MEAN> 13
 9.512149e+00 6.955832e+00 -4.922691e+00 2.520850e+00 -4.615769e+00 6.469549e+00 -1.190193e+01 -1.792606e+01 -1.206846e+01 -1.786367e+00 2.759108e+00 -3.146682e+00 5.357851e+01
<VARIANCE> 13
 1.971558e+01 1.893252e+02 3.190774e+01 3.592008e+01 1.754316e+01 3.804461e+01 3.829132e+01 3.029630e+01 2.444312e+01 3.569103e+01 5.767916e+01 2.701205e+01 1.060693e+02
<GCONST> 7.150761e+01
~s "ST_w_2_1"
<MEAN> 13
 -1.993132e+01 -3.489679e+00 4.043040e+00 -7.624447e+00 1.322435e+01 -2.604622e+00 -4.524020e+00 -6.167728e+00 5.884210e+00 -5.936027e+00 3.463448e+00 -7.200099e+00 6.258327e+01
<VARIANCE> 13
 2.838396e+01 1.772878e+01 1.489489e+01 5.037583e+01 4.989313e+01 6.604095e+01 2.965520e+01 5.252176e+01 2.925655e+01 3.606250e+01 1.244468e+01 1.018741e+01 5.893741e+00
<GCONST> 6.576266e+01
~s "ST_w_3_1"
<MEAN> 13
 1.818595e+00 -9.112044e+00 2.114440e+00 -2.607735e+00 -5.125887e+00 -1.006388e+01 -1.449602e+01 -8.860785e+00 -3.525016e+00 -6.757748e-01 6.053906e+00 -6.659812e+00 6.963049e+01
<VARIANCE> 13
 1.339779e+01 5.331430e+01 2.271810e+01 2.199187e+01 2.547791e+01 4.765879e+01 4.132228e+01 4.371540e+01 6.265414e+01 4.033381e+01 4.386481e+01 2.547530e+01 7.070570e+00
<GCONST> 6.808810e+01
~s "ST_w_4_1"
<MEAN> 13
 -6.684351e+00 -6.748544e+00 4.179091e+00 3.006729e-01 -2.597730e-01 -5.288725e+00 -4.378713e+00 -7.969397e+00 -7.383890e+00 -6.300066e+00 3.219978e+00 4.964401e-01 6.017073e+01
<VARIANCE> 13
 2.794279e+01 1.708114e+01 1.204748e+01 1.079615e+01 3.270591e+01 4.559415e+01 5.479073e+01 4.360079e+01 3.910559e+01 3.529652e+01 2.835603e+01 4.107911e+01 3.926398e+01
<GCONST> 6.797521e+01
~s "ST_ng_2_1"
<MEAN> 13
 -2.305417e+00 -4.205005e+00 -1.030390e+01 8.921561e-01 -4.063490e+00 4.131858e+00 -7.761921e+00 -4.599037e+00 -4.011420e+00 -4.983287e+00 -6.482360e+00 -5.213645e+00 4.904125e+01
<VARIANCE> 13
 3.552198e+01 5.941038e+01 4.433330e+01 2.404689e+01 6.350882e+01 5.367321e+01 2.884447e+01 2.752135e+01 2.879303e+01 2.350970e+01 1.841852e+01 3.102191e+01 4.436697e+01
<GCONST> 6.998783e+01
~s "ST_ng_3_1"
<MEAN> 13
 -2.458115e+00 7.007402e+00 -3.315258e+00 1.105489e+01 -1.895467e+00 1.106427e+01 -2.328438e+00 -1.558813e+00 -1.360883e-01 -1.875507e+00 -1.828772e+00 3.516939e-01 4.742785e+01
<VARIANCE> 13
 3.159415e+01 9.485883e+01 3.382895e+01 4.458471e+01 1.175404e+02 7.647255e+01 4.206820e+01 3.649119e+01 3.402829e+01 4.317409e+01 2.123439e+01 3.091475e+01 1.269606e+02
<GCONST> 7.427972e+01
~s "ST_m_2_1"
<MEAN> 13
 3.247182e+00 -3.156561e+00 -5.150424e+00 -2.181651e+00 1.581385e-01 2.121629e+00 -4.113531e+00 -7.670168e+00 -5.154978e+00 -2.991883e-01 -5.547568e+00 -9.050698e+00 5.863814e+01
<VARIANCE> 13
 4.419910e+00 2.270799e+01 1.683359e+01 1.937125e+01 3.102179e+01 5.113150e+01 2.037977e+01 2.281789e+01 2.855895e+01 2.118669e+01 2.260178e+01 2.610832e+01 8.304758e+00
<GCONST> 6.270203e+01
~s "ST_m_2_2"
<MEAN> 13
 4.203839e+00 -3.318058e+00 -2.047297e+00 -6.114869e-01 -2.863766e+00 -3.711364e-01 -6.631602e+00 -1.353912e+01 -1.286905e+01 8.899745e-02 -1.274472e+00 -7.083355e+00 6.029882e+01
<VARIANCE> 13
 3.132059e+01 3.491518e+01 3.163011e+01 2.573046e+01 7.902587e+01 1.202577e+02 3.175345e+01 4.025251e+01 5.329895e+01 4.135445e+01 6.715086e+01 7.951138e+01 3.674874e+01
<GCONST> 7.378901e+01
~s "ST_m_2_3"
<MEAN> 13
 7.087246e+00 -9.436271e+00 -6.860485e+00 -2.286236e+00 -1.768224e+00 -2.697370e+00 -1.384981e+00 -9.615730e+00 -1.444403e+01 2.602244e+00 -2.093826e+00 -8.705284e+00 6.425717e+01
<VARIANCE> 13
 1.396977e+01 3.597539e+01 3.924588e+01 3.131608e+01 4.761301e+01 3.157485e+01 2.096405e+01 2.166574e+01 8.373116e+01 2.365071e+01 3.029980e+01 2.590037e+01 7.717536e+00
<GCONST> 6.696001e+01
~s "ST_ng_4_1"
<MEAN> 13
 -1.281225e+01 4.944069e+00 -1.131749e+01 7.550014e+00 -4.197431e+00 3.579554e+00 -9.195656e+00 -4.807219e+00 -4.904555e+00 -8.408608e+00 -6.303463e+00 -6.708704e+00 3.442568e+01
<VARIANCE> 13
 9.165765e+00 1.233883e+01 1.884993e+01 1.112850e+01 1.505400e+01 1.775235e+01 1.733603e+01 1.672588e+01 2.009314e+01 1.594755e+01 1.287212e+01 1.449919e+01 2.280375e+01
<GCONST> 5.935032e+01
~s "ST_ng_4_2"
<MEAN> 13
 -1.352106e+01 5.972795e+00 -7.309084e+00 7.825416e+00 -6.528316e+00 -1.248702e+00 -1.217256e+01 -5.052644e+00 -4.792222e+00 -7.825315e+00 -5.346150e+00 -5.222154e+00 3.463256e+01
<VARIANCE> 13
 2.869740e+01 1.505336e+01 1.787606e+01 2.196388e+01 2.072589e+01 1.893548e+01 1.555516e+01 2.314487e+01 2.126456e+01 2.084912e+01 1.191570e+01 1.078532e+01 6.614880e+01
<GCONST> 6.293456e+01
~s "ST_m_3_1"
<MEAN> 13
 1.597170e+00 9.784101e+00 1.528395e+00 1.087017e+01 1.027166e+01 6.860761e+00 -1.024586e+01 -1.083699e+01 -3.092978e+00 1.839037e+00 -4.881416e+00 6.553862e-02 4.753968e+01
<VARIANCE> 13
 1.053169e+01 9.580569e+01 1.750612e+01 8.047266e+01 5.534180e+01 5.565901e+01 6.485558e+01 4.689770e+01 2.182616e+01 3.527654e+01 2.953111e+01 4.146988e+01 7.055647e+01
<GCONST> 7.212564e+01
~s "ST_m_3_2"
<MEAN> 13
 4.727718e+00 2.644592e+00 -2.508852e+00 -9.539120e-01 9.781731e+00 1.858650e+00 -6.739103e+00 -1.507781e+01 -1.133225e+01 -5.864998e-01 -8.330500e+00 1.424233e+00 5.706074e+01
<VARIANCE> 13
 2.552871e+01 8.532867e+01 5.084279e+01 9.998988e+01 1.478967e+02 6.734038e+01 5.384269e+01 5.620950e+01 6.826009e+01 3.335583e+01 8.893407e+01 8.796876e+01 4.543359e+01
<GCONST> 7.784563e+01
~s "ST_m_4_1"
<MEAN> 13
 -1.083220e+01 2.625468e+00 -9.167820e+00 6.837323e+00 -3.767737e+00 4.527762e+00 -7.769155e+00 -3.165806e+00 -4.419595e+00 -7.101698e+00 -6.992876e+00 -6.327722e+00 3.766633e+01
<VARIANCE> 13
 1.696797e+01 5.413987e+01 3.588919e+01 2.849929e+01 2.105647e+01 1.970511e+01 1.510970e+01 1.839002e+01 1.672296e+01 1.799941e+01 1.848949e+01 1.190794e+01 4.282289e+01
<GCONST> 6.415945e+01
~s "ST_m_4_2"
<MEAN> 13
 4.924569e+00 -5.336684e+00 -8.104020e+00 -4.190237e+00 3.081681e-01 2.076754e-01 -5.761465e+00 -8.189841e+00 -6.682479e+00 -1.796884e+00 -2.945333e+00 -4.080023e+00 6.060946e+01
<VARIANCE> 13
 5.355661e+01 9.206745e+01 7.631324e+01 8.080792e+01 1.277649e+02 8.544750e+01 5.118898e+01 6.543589e+01 8.745409e+01 4.000684e+01 6.551387e+01 4.120020e+01 8.408211e+01
<GCONST> 7.902994e+01
~s "ST_ah_2_1"
<MEAN> 13
 5.990236e+00 -1.836447e+01 -1.161472e+01 -1.161738e+01 1.027508e+00 6.193258e+00 -2.760787e+00 -8.877007e+00 -3.588934e+00 4.830925e+00 -4.263956e+00 -5.547221e+00 6.905312e+01
<VARIANCE> 13
 8.397979e+00 5.176505e+01 3.078366e+01 4.615954e+01 8.009785e+01 9.951307e+01 4.570503e+01 4.607771e+01 1.100257e+02 5.529797e+01 6.093222e+01 4.132194e+01 1.923347e+01
<GCONST> 7.336353e+01
~s "ST_ah_2_2"
<MEAN> 13
 4.302411e+00 -1.625880e+01 -6.285452e+00 -1.219124e+01 -2.507248e+00 -1.468207e+00 -2.164496e+00 -4.120573e+00 -1.113120e+00 3.051349e+00 -3.902617e+00 -1.116185e+01 7.186906e+01
<VARIANCE> 13
 1.154587e+01 3.998095e+01 3.920566e+01 6.702807e+01 9.429429e+01 9.941963e+01 4.993095e+01 5.814815e+01 9.454834e+01 5.043441e+01 1.429476e+02 7.528172e+01 1.941429e+01
<GCONST> 7.573997e+01
~s "ST_ah_2_3"
<MEAN> 13
 7.489244e+00 -1.795093e+01 -1.120232e+01 -1.786627e+01 -7.833520e+00 8.608892e+00 -1.305575e+00 -8.961791e+00 -4.553262e+00 8.285210e+00 5.460801e+00 -1.273009e+01 7.174935e+01
<VARIANCE> 13
 8.855703e+00 6.000008e+01 1.712669e+01 3.347208e+01 5.721685e+01 4.784232e+01 6.147631e+01 3.546111e+01 1.287878e+02 7.226409e+01 6.994959e+01 7.016998e+01 7.715441e+00
<GCONST> 7.180141e+01
~s "ST_ah_2_4"
<MEAN> 13
 5.451375e+00 -1.959085e+01 -1.953467e+00 -1.031204e+01 -1.500905e+00 -2.720583e+00 -5.904568e-01 -2.900449e-01 -5.246437e+00 7.248798e+00 -4.913636e+00 -1.096901e+01 7.439217e+01
<VARIANCE> 13
 8.928917e+00 1.615037e+01 3.346752e+01 2.285457e+01 6.154719e+01 4.409229e+01 1.750082e+01 4.363043e+01 4.007581e+01 2.905392e+01 5.928714e+01 2.517779e+01 1.973743e+01
<GCONST> 6.739825e+01
~s "ST_ah_2_5"
<MEAN> 13
 4.387595e+00 -1.933332e+01 -1.333775e+01 -9.964907e+00 2.571897e+00 -1.006424e+00 3.308065e-01 -4.992744e+00 -4.268484e+00 8.012687e+00 -1.541971e+00 -9.183401e+00 7.052092e+01
<VARIANCE> 13
 8.741808e+00 5.152995e+01 2.178453e+01 3.634384e+01 7.212455e+01 1.168327e+02 6.135385e+01 3.905737e+01 1.272329e+02 3.772993e+01 5.493709e+01 3.068140e+01 1.545831e+01
<GCONST> 7.214220e+01
~s "ST_ah_2_6"
<MEAN> 13
 4.080530e+00 -1.672501e+01 -9.653328e+00 -1.266399e+01 4.352257e+00 -2.083680e+00 -3.869323e-01 -7.503037e+00 -4.219962e+00 8.200440e+00 -6.080749e+00 -8.608923e+00 7.217596e+01
<VARIANCE> 13
 1.581240e+01 3.271056e+01 1.236593e+01 3.462833e+01 3.999506e+01 2.966008e+01 3.414286e+01 3.203275e+01 5.717651e+01 3.686933e+01 3.737796e+01 2.343804e+01 2.407242e+01
<GCONST> 6.788641e+01
~s "ST_ah_2_7"
<MEAN> 13
 6.322621e+00 -1.781792e+01 -1.258787e+01 -1.551978e+01 1.696922e+00 2.460799e+00 7.542031e-01 -9.805333e+00 -6.548186e+00 9.487064e+00 -4.209655e+00 -7.573837e+00 7.080248e+01
<VARIANCE> 13
 1.491862e+01 3.354866e+01 2.720288e+01 3.129586e+01 4.976371e+01 4.986658e+01 3.764576e+01 3.373194e+01 8.168994e+01 3.899565e+01 5.219505e+01 3.437186e+01 2.840334e+01
<GCONST> 7.072323e+01
~s "ST_ah_2_8"
<MEAN> 13
 5.280270e+00 -1.967968e+01 -5.151645e+00 -1.398730e+01 7.390897e+00 -2.275135e+00 2.028112e+00 -7.521056e+00 -4.157987e+00 1.013051e+01 -1.392256e+01 -2.653958e+00 7.398891e+01
<VARIANCE> 13
 4.099829e+00 8.902932e+00 1.872319e+01 3.650122e+01 5.893791e+01 3.082175e+01 3.934401e+01 5.097179e+01 4.278605e+01 4.468620e+01 2.099166e+01 3.387883e+01 5.496144e+00
<GCONST> 6.495200e+01
~s "ST_ah_3_1"
<MEAN> 13
 1.906030e+00 -1.878087e+01 -8.886014e+00 -7.835091e+00 -1.531269e+00 -4.166025e-01 -2.899079e+00 -7.272232e+00 6.961440e+00 4.623746e-01 -6.040617e+00 -7.533317e+00 7.075007e+01
<VARIANCE> 13
 7.575030e+00 6.396020e+01 2.965938e+01 3.848889e+01 7.067105e+01 6.297079e+01 4.096387e+01 6.145540e+01 1.116976e+02 4.612639e+01 8.250462e+01 4.094771e+01 3.122541e+01
<GCONST> 7.346095e+01
~s "ST_ah_3_2"
<MEAN> 13
 2.278977e+00 -2.086791e+01 -1.172902e+01 -6.840979e+00 -3.641562e+00 -9.278019e-01 -5.000352e+00 -3.035826e+00 4.810075e+00 4.882169e-01 -8.505741e+00 -1.281855e+01 7.500906e+01
<VARIANCE> 13
 3.769006e+00 2.506513e+01 2.256460e+01 1.474387e+01 3.075680e+01 4.982541e+01 2.468946e+01 6.801097e+01 1.128902e+02 4.155758e+01 7.535208e+01 3.587429e+01 1.043009e+01
<GCONST> 6.770896e+01
~s "ST_ah_3_3"
<MEAN> 13
 3.434442e+00 -1.976684e+01 -1.165925e+01 -6.000967e+00 4.059752e-01 2.235442e+00 -5.446838e+00 -2.053372e+00 5.028492e+00 2.254057e+00 -1.051348e+01 -1.206155e+01 7.223116e+01
<VARIANCE> 13
 4.369383e+00 3.213404e+01 7.644238e+00 1.618330e+01 5.305637e+01 5.332570e+01 2.129446e+01 4.027245e+01 7.870770e+01 2.989846e+01 3.860982e+01 2.504047e+01 1.486672e+01
<GCONST> 6.569344e+01
~s "ST_ah_3_4"
<MEAN> 13
 2.971859e+00 -1.927054e+01 -1.393836e+01 -8.474161e+00 -2.285413e+00 4.468163e-01 -5.611825e+00 -3.202084e+00 1.276614e+00 4.735119e+00 -7.788769e+00 -1.199768e+01 7.340070e+01
<VARIANCE> 13
 1.262506e+01 3.071752e+01 1.457735e+01 2.811712e+01 4.442185e+01 4.908380e+01 3.498990e+01 5.821434e+01 8.609792e+01 3.687850e+01 7.390165e+01 4.884952e+01 3.208380e+01
<GCONST> 7.089816e+01
~s "ST_ah_3_5"
<MEAN> 13
 3.508794e+00 -1.854350e+01 -1.450600e+01 -7.303551e+00 -9.319922e-01 -3.376216e-01 -4.448710e-01 -2.670939e+00 -2.118287e+00 5.826699e+00 -6.045202e+00 -1.581185e+01 7.317609e+01
<VARIANCE> 13
 3.774930e+00 2.683522e+01 8.857949e+00 1.664551e+01 6.427392e+01 8.896861e+01 4.970949e+01 2.406976e+01 8.431387e+01 2.874852e+01 3.258043e+01 4.239303e+01 1.195621e+01
<GCONST> 6.674763e+01
~s "ST_ah_3_6"
<MEAN> 13
 3.731336e+00 -1.657638e+01 -1.339885e+01 -1.061155e+01 -3.860371e+00 2.418189e+00 -1.120103e+01 -6.357257e-01 -3.262730e-01 4.880736e+00 -8.335316e+00 -1.811189e+01 7.510627e+01
<VARIANCE> 13
 4.345393e+00 1.086950e+01 1.250691e+01 2.163486e+01 4.351549e+01 2.593936e+01 3.359977e+01 3.210330e+01 2.915317e+01 3.078683e+01 3.722814e+01 5.427401e+01 1.871129e+01
<GCONST> 6.470031e+01
~s "ST_ah_3_7"
<MEAN> 13
 2.497090e+00 -2.155924e+01 -9.082994e+00 -6.441750e+00 -5.956284e+00 8.019925e-01 -2.090584e+00 -4.709659e+00 5.868422e+00 1.218953e+00 -5.195799e+00 -9.598783e+00 7.488474e+01
<VARIANCE> 13
 5.154688e+00 2.137091e+01 2.358747e+01 1.533391e+01 4.151912e+01 3.080123e+01 1.114865e+01 6.982654e+01 6.010506e+01 5.337672e+01 1.051180e+02 1.888219e+01 1.310637e+01
<GCONST> 6.653603e+01
~s "ST_ah_3_8"
<MEAN> 13
 1.339354e+00 -2.304245e+01 -1.246599e+01 -5.962577e+00 -1.384310e+00 2.523359e+00 -3.063415e+00 -1.007832e+01 1.275788e+01 -3.027168e+00 -6.004058e+00 -1.114093e+01 7.407305e+01
<VARIANCE> 13
 3.028254e+00 1.332234e+01 2.073759e+01 8.968779e+00 2.459911e+01 3.735689e+01 2.307440e+01 4.571996e+01 3.682863e+01 3.742090e+01 2.269826e+01 3.511267e+01 4.878376e+00
<GCONST> 6.209418e+01
~s "ST_ah_4_1"
<MEAN> 13
 2.398457e+00 -1.271410e+01 -7.159302e+00 -1.501651e+01 8.448059e+00 -6.699831e+00 6.169155e-01 -5.987630e+00 3.418178e+00 5.691029e+00 -1.238481e+01 -3.808359e+00 6.833040e+01
<VARIANCE> 13
 1.837732e+01 2.743939e+01 2.994588e+01 1.081811e+02 8.060748e+01 7.091994e+01 6.705904e+01 5.684459e+01 5.772120e+01 5.037920e+01 6.699225e+01 4.918969e+01 4.705310e+01
<GCONST> 7.502248e+01
~s "ST_ah_4_2"
<MEAN> 13
 1.885889e+00 -7.305426e+00 -9.380846e+00 -6.813195e+00 2.870765e+00 2.489160e+00 -2.582120e+00 -3.082869e+00 2.918109e+00 5.746818e+00 -3.927264e+00 -9.242912e+00 6.024614e+01
<VARIANCE> 13
 2.186786e+01 2.586238e+01 1.088882e+01 2.109089e+01 2.116066e+01 2.808870e+01 2.373126e+01 4.692837e+01 2.893120e+01 1.677754e+01 2.373411e+01 2.989335e+01 4.009206e+01
<GCONST> 6.551041e+01
~s "ST_ah_4_3"
<MEAN> 13
 2.340564e+00 -1.332138e+01 -3.322079e+00 -1.017596e+01 8.888047e+00 -1.100291e+01 1.979087e+00 -1.599043e+00 5.795785e+00 -2.142358e-01 -1.675064e+01 -2.883799e-01 6.901179e+01
<VARIANCE> 13
 6.598786e+00 2.607576e+01 2.649573e+01 5.178002e+01 1.049788e+02 5.914683e+01 5.593022e+01 4.596273e+01 4.153528e+01 4.230259e+01 4.469618e+01 6.767434e+01 1.616467e+01
<GCONST> 7.111881e+01
~s "ST_ah_4_4"
<MEAN> 13
 3.362946e+00 -1.133610e+01 -6.685362e+00 -7.646649e+00 1.549998e+01 -6.035773e+00 -5.905975e-01 2.707316e-01 9.737484e+00 -6.482977e+00 -1.624206e+01 -8.992260e-01 6.653699e+01
<VARIANCE> 13
 6.664818e+00 2.549662e+01 3.243303e+01 2.495905e+01 1.581958e+02 4.724116e+01 5.944791e+01 7.029705e+01 5.556884e+01 7.650637e+01 5.357463e+01 8.170731e+01 1.529054e+01
<GCONST> 7.244759e+01
~s "ST_ah_4_5"
<MEAN> 13
 4.472404e+00 -1.255196e+01 -5.026828e+00 -1.853628e+01 1.371881e+01 -5.965389e-01 -5.554185e+00 -4.319943e+00 6.210351e+00 2.799297e+00 -1.641212e+01 -1.155519e+00 6.977667e+01
<VARIANCE> 13
 5.898452e+00 2.095922e+01 2.487362e+01 3.299680e+01 9.892535e+01 5.081487e+01 3.620615e+01 3.936608e+01 4.385160e+01 4.302195e+01 7.933602e+01 5.302049e+01 1.700154e+01
<GCONST> 6.992477e+01
~s "ST_ah_4_6"
<MEAN> 13
 3.689817e+00 -7.823952e+00 -7.582913e+00 -8.272982e+00 1.064727e+01 -1.412920e+00 2.478412e+00 -1.098909e+01 1.047057e+01 -6.979568e+00 -1.079501e+01 9.983472e-01 6.516804e+01
<VARIANCE> 13
 6.111870e+00 5.933008e+01 1.946322e+01 1.190828e+02 6.775709e+01 4.824852e+01 4.222807e+01 5.213682e+01 5.492813e+01 7.678528e+01 4.556934e+01 3.246930e+01 4.640923e+01
<GCONST> 7.280742e+01
~s "ST_ah_4_7"
<MEAN> 13
 3.533287e+00 -1.339283e+01 -8.382103e+00 -1.312021e+01 1.148875e+01 -1.015892e+01 9.597100e+00 -8.751950e+00 -1.422906e+00 6.169474e+00 -7.443006e+00 -1.015784e+01 7.014671e+01
<VARIANCE> 13
 6.691277e+00 1.583782e+01 1.760652e+01 2.241404e+01 9.242561e+01 1.077527e+02 7.496954e+01 2.581638e+01 4.813692e+01 3.819263e+01 4.671813e+01 2.650702e+01 9.112866e+00
<GCONST> 6.815582e+01
~s "ST_eh_2_1"
<MEAN> 13
 1.094213e+00 1.913811e-01 4.695914e+00 6.951443e+00 -2.498462e+00 -1.240802e+01 -9.076235e+00 2.631425e+00 -4.917241e-01 -3.842767e+00 -7.787600e+00 1.122523e+00 5.582122e+01
<VARIANCE> 13
 8.777456e+00 2.448033e+02 1.215192e+01 9.920616e+01 6.614884e+01 5.522238e+01 2.443914e+01 4.901231e+01 7.035493e+01 4.278630e+01 4.199644e+01 4.553817e+01 1.665648e+02
<GCONST> 7.463255e+01
~s "ST_eh_3_1"
<MEAN> 13
 3.490185e+00 -1.259620e+01 4.994303e+00 -4.445515e+00 -9.261419e+00 -1.335769e+01 -1.333130e+01 2.051324e-01 -2.504486e+00 3.564354e+00 -1.412286e+00 -7.141750e+00 7.014205e+01
<VARIANCE> 13
 4.720552e+00 8.325339e+00 4.235234e+01 5.834544e+01 9.998920e+01 7.796865e+01 5.392200e+01 2.026260e+02 3.697977e+01 1.134466e+01 3.783454e+01 9.257181e+01 8.985188e+00
<GCONST> 7.003221e+01
~s "ST_eh_4_1"
<MEAN> 13
 5.810916e+00 -5.231142e+00 1.284823e+00 -9.808827e+00 5.767128e+00 -8.887156e+00 -1.471694e+01 -6.732122e+00 -6.364958e+00 1.280758e+01 -7.026762e+00 -2.272382e+00 6.423606e+01
<VARIANCE> 13
 7.502049e+00 6.327334e+01 1.630613e+01 7.121836e+01 1.179407e+02 8.755176e+01 1.415854e+01 6.448464e+01 4.145805e+01 3.317899e+01 6.907493e+01 3.247153e+01 2.099664e+01
<GCONST> 7.115801e+01
~s "ST_p_2_1"
<MEAN> 13
 -1.404928e+01 5.845578e+00 -9.506618e+00 8.247992e+00 -3.931684e+00 2.104999e+00 -1.033226e+01 -4.892835e+00 -4.094666e+00 -6.796445e+00 -4.192424e+00 -4.758250e+00 3.371061e+01
<VARIANCE> 13
 8.114050e+00 1.188620e+01 1.794320e+01 1.687164e+01 2.657292e+01 2.276017e+01 3.146283e+01 2.896324e+01 2.281633e+01 2.489711e+01 2.014584e+01 1.402810e+01 2.496244e+01
<GCONST> 6.259763e+01
~s "ST_p_2_2"
<MEAN> 13
 -7.771531e+00 3.368667e+00 -7.688632e+00 1.541471e+00 -2.314978e+00 1.853412e+00 -8.000864e+00 -4.380227e+00 -2.652393e+00 -1.112771e+00 -3.610387e+00 -4.379484e+00 4.173311e+01
<VARIANCE> 13
 6.461283e+01 6.228405e+01 4.262452e+01 4.397146e+01 4.181153e+01 3.970669e+01 5.139955e+01 6.795422e+01 5.666507e+01 3.694968e+01 4.043315e+01 2.819631e+01 1.332508e+02
<GCONST> 7.487943e+01
~s "ST_p_3_1"
<MEAN> 13
 -8.218781e+00 1.214188e-01 -1.486442e+00 -1.371449e-01 2.836709e+00 4.310592e-01 1.757721e+00 -1.055771e+00 1.986788e+00 -1.221129e+00 1.422305e+00 -1.223337e+00 5.406192e+01
<VARIANCE> 13
 1.365392e+01 1.672104e+01 2.660941e+01 1.052411e+01 2.084249e+01 1.371534e+01 1.818218e+01 1.570069e+01 1.255127e+01 1.126576e+01 1.217540e+01 1.047689e+01 2.695947e+01
<GCONST> 5.936220e+01
~s "ST_p_3_2"
<MEAN> 13
 -3.697045e+00 -4.525857e-02 -5.148460e+00 -8.346971e-01 5.664097e-02 9.303412e-01 -7.488093e-01 -2.917782e+00 3.808204e-01 -2.528591e-01 -6.890191e-01 -3.941065e+00 5.365919e+01
<VARIANCE> 13
 3.070035e+01 2.367308e+01 3.519875e+01 2.270742e+01 2.205184e+01 2.657063e+01 2.283709e+01 3.585810e+01 3.742511e+01 2.074394e+01 1.808949e+01 1.914702e+01 3.584212e+01
<GCONST> 6.632708e+01
~s "ST_p_4_1"
<MEAN> 13
 3.255551e+00 -7.839272e+00 -1.453243e+01 -6.407121e+00 -2.515799e+00 5.315452e-01 -2.811031e+00 -7.131957e+00 -2.035941e+00 4.997787e+00 3.773034e-01 -4.769926e+00 6.011770e+01
<VARIANCE> 13
 3.845937e+01 2.752940e+01 9.763976e+01 7.173894e+01 5.620842e+01 9.291328e+01 5.307361e+01 6.201299e+01 6.637882e+01 7.595211e+01 6.107477e+01 2.961187e+01 7.054201e+01
<GCONST> 7.665330e+01
~s "ST_ax_2_1"
<MEAN> 13
 1.728016e+00 -8.328458e+00 1.484155e+00 -7.354733e+00 -1.948073e+00 -8.916620e+00 -8.307813e+00 -1.325413e+00 -3.600120e+00 5.235441e+00 -3.389527e+00 -2.861945e+00 6.436679e+01
<VARIANCE> 13
 4.201123e+01 4.269966e+01 1.423234e+02 5.560478e+01 1.051886e+02 1.141131e+02 4.164651e+01 1.125088e+02 1.403305e+02 6.571820e+01 7.474866e+01 3.465851e+01 8.552502e+01
<GCONST> 7.964395e+01
~s "ST_ih_2_1"
<MEAN> 13
 -1.951156e+00 -2.355366e+00 1.720423e+01 -1.048018e+01 -7.222129e+00 -8.212937e+00 -1.063859e+00 -7.065856e+00 -1.199815e+01 2.260093e+00 -5.032832e+00 -2.556899e-01 6.336517e+01
<VARIANCE> 13
 1.984490e+01 8.648186e+01 1.343411e+02 1.210194e+02 7.235300e+01 8.636131e+01 1.085872e+02 4.664977e+01 8.961893e+01 5.107256e+01 9.421793e+01 3.838533e+01 5.290278e+01
<GCONST> 7.889749e+01
~s "ST_ih_2_2"
<MEAN> 13
 9.136964e+00 1.280183e+01 2.907188e+00 -6.423368e+00 -1.249989e+01 7.256139e+00 -1.837568e+00 -1.254361e+01 -1.854752e+01 -1.297835e+00 -4.430421e+00 -1.303663e+00 5.217659e+01
<VARIANCE> 13
 3.492165e+01 1.047740e+02 2.749993e+02 8.098563e+01 4.755803e+01 8.311391e+01 4.978008e+01 3.634670e+01 2.533055e+01 1.077303e+02 5.241247e+01 3.361961e+01 4.139199e+01
<GCONST> 7.700021e+01
~s "ST_ax_3_1"
<MEAN> 13
 2.847264e+00 -7.859428e+00 -1.035005e+01 -9.736225e+00 -4.039515e+00 4.404812e+00 -8.528740e+00 -9.131111e+00 -5.069448e+00 4.534438e+00 1.192449e+00 -7.229274e+00 6.142322e+01
<VARIANCE> 13
 5.708693e+01 8.479813e+01 6.627817e+01 1.026347e+02 8.637375e+01 1.478856e+02 5.894113e+01 7.590845e+01 1.314911e+02 7.485146e+01 6.685686e+01 5.075014e+01 9.416568e+01
<GCONST> 8.093245e+01
~s "ST_ax_3_2"
<MEAN> 13
 4.340633e+00 -1.380241e+01 -4.927961e+00 -9.483982e+00 -1.115992e+00 -5.106596e+00 -9.242611e+00 -7.576503e+00 1.227314e+00 9.445780e+00 -3.372942e+00 -8.299294e+00 7.091763e+01
<VARIANCE> 13
 1.325396e+01 2.218304e+01 2.721922e+01 4.834975e+01 7.553413e+01 6.674467e+01 5.613567e+01 7.176639e+01 1.274500e+02 8.508649e+01 5.452429e+01 4.816047e+01 9.506550e+00
<GCONST> 7.300162e+01
~s "ST_ih_3_1"
<MEAN> 13
 -2.143225e+00 -7.420403e+00 1.461687e+01 -8.801994e-01 -1.985910e+01 -9.730405e+00 -9.557838e+00 -6.140487e+00 -9.912586e+00 -3.592055e+00 8.449219e+00 -8.265606e+00 6.586261e+01
<VARIANCE> 13
 8.935132e+00 5.985170e+01 4.740213e+01 2.920136e+01 5.167277e+01 5.311158e+01 4.263764e+01 5.603008e+01 7.377334e+01 6.153304e+01 5.350966e+01 6.090976e+01 2.880283e+01
<GCONST> 7.297340e+01
~s "ST_ax_4_1"
<MEAN> 13
 1.127714e+00 -5.451146e+00 -5.075965e+00 -5.028460e+00 6.511296e-01 -6.292564e+00 -8.545346e+00 -7.698420e+00 1.357847e+00 4.552213e+00 -4.661564e+00 -6.214980e+00 6.493859e+01
<VARIANCE> 13
 4.114072e+01 5.772544e+01 4.667877e+01 5.360332e+01 1.336566e+02 1.181600e+02 5.269987e+01 9.913788e+01 1.344741e+02 5.861362e+01 5.582112e+01 7.249084e+01 6.884480e+01
<GCONST> 7.922825e+01
~s "ST_ih_4_1"
<MEAN> 13
 -4.194648e+00 7.737249e-01 6.201346e+00 -7.257020e-02 -6.444104e+00 -6.590961e+00 -2.275054e+00 -3.311534e+00 -5.293994e+00 7.630063e-01 -1.178418e+00 -1.727959e+00 5.442317e+01
<VARIANCE> 13
 5.478082e+01 1.212493e+02 6.903511e+01 8.597739e+01 1.114089e+02 1.087240e+02 9.273324e+01 1.116212e+02 8.504436e+01 7.232108e+01 6.135421e+01 5.800910e+01 2.070114e+02
<GCONST> 8.226347e+01
~h "t+ah"
<BEGINHMM>
<NUMSTATES> 5
<STATE> 2
~s "ST_t_2_1"
<STATE> 3
~s "ST_t_3_1"
<STATE> 4
~s "ST_t_4_1"
~t "T_t"
<ENDHMM>
~h "t+ih"
<BEGINHMM>
<NUMSTATES> 5
<STATE> 2
~s "ST_t_2_1"
<STATE> 3
~s "ST_t_3_1"
<STATE> 4
~s "ST_t_4_2"
~t "T_t"
<ENDHMM>
~h "d-eh+l"
<BEGINHMM>
<NUMSTATES> 5
<STATE> 2
~s "ST_eh_2_1"
<STATE> 3
~s "ST_eh_3_1"
<STATE> 4
~s "ST_eh_4_1"
~t "T_eh"
<ENDHMM>
~h "t-uw"
<BEGINHMM>
<NUMSTATES> 5
<STATE> 2
~s "ST_uw_2_1"
<STATE> 3
~s "ST_uw_3_1"
<STATE> 4
~s "ST_uw_4_1"
~t "T_uw"
<ENDHMM>
~h "sp"
<BEGINHMM>
<NUMSTATES> 5
<STATE> 2
~s "ST_sil_3_1"
<STATE> 3
<MEAN> 13
 -4.432611e+00 -5.649353e-01 -2.440678e+00 1.411049e+00 1.239585e+00 2.045312e-01 -2.244947e+00 -2.532958e+00 1.005894e-01 -1.048334e+00 -2.120711e+00 -2.559012e+00 5.347551e+01
<VARIANCE> 13
 4.703191e+01 5.899408e+01 4.299580e+01 5.740751e+01 4.970408e+01 5.956376e+01 4.373700e+01 3.906566e+01 3.646701e+01 2.897526e+01 4.153302e+01 2.857852e+01 1.115233e+02
<GCONST> 7.382475e+01
<STATE> 4
<MEAN> 13
 -8.296455e+00 -1.443793e-01 -5.557191e+00 1.915596e+00 -1.712682e+00 6.810309e-02 -3.906316e+00 -2.699622e+00 -4.486084e-01 -1.414452e+00 -1.942239e+00 -2.484468e+00 4.768058e+01
<VARIANCE> 13
 1.010319e+02 6.752319e+01 5.529637e+01 6.277685e+01 5.992698e+01 6.355241e+01 5.096451e+01 5.014957e+01 4.627098e+01 3.396820e+01 4.739936e+01 3.073661e+01 2.347545e+02
<GCONST> 7.706628e+01
<TRANSP> 5
 0.000000e+00 5.310172e-02 9.468983e-01 0.000000e+00 0.000000e+00
 0.000000e+00 8.368732e-01 1.631268e-01 0.000000e+00 0.000000e+00
 0.000000e+00 0.000000e+00 3.061621e-01 6.938379e-01 0.000000e+00
 0.000000e+00 0.000000e+00 0.000000e+00 2.571335e-01 7.428665e-01
 0.000000e+00 0.000000e+00 0.000000e+00 0.000000e+00 0.000000e+00
<ENDHMM>
~h "uh-k+s"
<BEGINHMM>
<NUMSTATES> 5
<STATE> 2
~s "ST_k_2_1"
<STATE> 3
~s "ST_k_3_1"
<STATE> 4
~s "ST_k_4_2"
~t "T_k"
<ENDHMM>
~h "l-uh+k"
<BEGINHMM>
<NUMSTATES> 5
<STATE> 2
~s "ST_uh_2_1"
<STATE> 3
~s "ST_uh_3_1"
<STATE> 4
~s "ST_uh_4_1"
~t "T_uh"
<ENDHMM>
~h "ax+m"
<BEGINHMM>
<NUMSTATES> 5
<STATE> 2
~s "ST_ax_2_1"
<STATE> 3
~s "ST_ax_3_1"
<STATE> 4
~s "ST_ax_4_1"
~t "T_ax"
<ENDHMM>
~h "uh-n+t"
<BEGINHMM>
<NUMSTATES> 5
<STATE> 2
~s "ST_n_2_1"
<STATE> 3
~s "ST_n_3_2"
<STATE> 4
~s "ST_n_4_2"
~t "T_n"
<ENDHMM>
~h "oh-r+ah"
<BEGINHMM>
<NUMSTATES> 5
<STATE> 2
~s "ST_r_2_1"
<STATE> 3
~s "ST_r_3_2"
<STATE> 4
~s "ST_r_4_2"
~t "T_r"
<ENDHMM>
~h "d+ax"
<BEGINHMM>
<NUMSTATES> 5
<STATE> 2
~s "ST_d_2_1"
<STATE> 3
~s "ST_d_3_1"
<STATE> 4
~s "ST_d_4_1"
~t "T_d"
<ENDHMM>
~h "d-ah"
<BEGINHMM>
<NUMSTATES> 5
<STATE> 2
~s "ST_ah_2_2"
<STATE> 3
~s "ST_ah_3_1"
<STATE> 4
~s "ST_ah_4_3"
~t "T_ah"
<ENDHMM>
~h "m-ih+s"
<BEGINHMM>
<NUMSTATES> 5
<STATE> 2
~s "ST_ih_2_1"
<STATE> 3
~s "ST_ih_3_1"
<STATE> 4
~s "ST_ih_4_1"
~t "T_ih"
<ENDHMM>
~h "k-ah+m"
<BEGINHMM>
<NUMSTATES> 5
<STATE> 2
~s "ST_ah_2_5"
<STATE> 3
~s "ST_ah_3_5"
<STATE> 4
~s "ST_ah_4_7"
~t "T_ah"
<ENDHMM>
~h "ax-n+ih"
<BEGINHMM>
<NUMSTATES> 5
<STATE> 2
~s "ST_n_2_1"
<STATE> 3
~s "ST_n_3_1"
<STATE> 4
~s "ST_n_4_1"
~t "T_n"
<ENDHMM>
~h "m-ah+l"
<BEGINHMM>
<NUMSTATES> 5
<STATE> 2
~s "ST_ah_2_1"
<STATE> 3
~s "ST_ah_3_6"
<STATE> 4
~s "ST_ah_4_5"
~t "T_ah"
<ENDHMM>
~h "m-ah+r"
<BEGINHMM>
<NUMSTATES> 5
<STATE> 2
~s "ST_ah_2_1"
<STATE> 3
~s "ST_ah_3_3"
<STATE> 4
~s "ST_ah_4_4"
~t "T_ah"
<ENDHMM>
~h "m-ah+t"
<BEGINHMM>
<NUMSTATES> 5
<STATE> 2
~s "ST_ah_2_1"
<STATE> 3
~s "ST_ah_3_4"
<STATE> 4
~s "ST_ah_4_1"
~t "T_ah"
<ENDHMM>
~h "m+ah"
<BEGINHMM>
<NUMSTATES> 5
<STATE> 2
~s "ST_m_2_2"
<STATE> 3
~s "ST_m_3_2"
<STATE> 4
~s "ST_m_4_2"
~t "T_m"
<ENDHMM>
~h "ah-p+ah"
<BEGINHMM>
<NUMSTATES> 5
<STATE> 2
~s "ST_p_2_2"
<STATE> 3
~s "ST_p_3_2"
<STATE> 4
~s "ST_p_4_1"
~t "T_p"
<ENDHMM>
~h "s-ah+b"
<BEGINHMM>
<NUMSTATES> 5
<STATE> 2
~s "ST_ah_2_5"
<STATE> 3
~s "ST_ah_3_4"
<STATE> 4
~s "ST_ah_4_1"
~t "T_ah"
<ENDHMM>
~h "s-ah+n"
<BEGINHMM>
<NUMSTATES> 5
<STATE> 2
~s "ST_ah_2_6"
<STATE> 3
~s "ST_ah_3_2"
<STATE> 4
~s "ST_ah_4_3"
~t "T_ah"
<ENDHMM>
~h "s-ah+t"
<BEGINHMM>
<NUMSTATES> 5
<STATE> 2
~s "ST_ah_2_6"
<STATE> 3
~s "ST_ah_3_4"
<STATE> 4
~s "ST_ah_4_1"
~t "T_ah"
<ENDHMM>
~h "hh-ah+r"
<BEGINHMM>
<NUMSTATES> 5
<STATE> 2
~s "ST_ah_2_8"
<STATE> 3
~s "ST_ah_3_8"
<STATE> 4
~s "ST_ah_4_3"
~t "T_ah"
<ENDHMM>
~h "s-ax+l"
<BEGINHMM>
<NUMSTATES> 5
<STATE> 2
~s "ST_ax_2_1"
<STATE> 3
~s "ST_ax_3_2"
<STATE> 4
~s "ST_ax_4_1"
~t "T_ax"
<ENDHMM>
~h "w-iy+t"
<BEGINHMM>
<NUMSTATES> 5
<STATE> 2
~s "ST_iy_2_1"
<STATE> 3
~s "ST_iy_3_1"
<STATE> 4
~s "ST_iy_4_1"
~t "T_iy"
<ENDHMM>
~h "ng-g+uw"
<BEGINHMM>
<NUMSTATES> 5
<STATE> 2
~s "ST_g_2_1"
<STATE> 3
~s "ST_g_3_1"
<STATE> 4
~s "ST_g_4_1"
~t "T_g"
<ENDHMM>
~h "uh+n"
<BEGINHMM>
<NUMSTATES> 5
<STATE> 2
~s "ST_uh_2_2"
<STATE> 3
~s "ST_uh_3_1"
<STATE> 4
~s "ST_uh_4_1"
~t "T_uh"
<ENDHMM>
~h "uh-k"
<BEGINHMM>
<NUMSTATES> 5
<STATE> 2
~s "ST_k_2_1"
<STATE> 3
~s "ST_k_3_1"
<STATE> 4
~s "ST_k_4_1"
~t "T_k"
<ENDHMM>
~h "ax-ng+ah"
<BEGINHMM>
<NUMSTATES> 5
<STATE> 2
~s "ST_ng_2_1"
<STATE> 3
~s "ST_ng_3_1"
<STATE> 4
~s "ST_ng_4_2"
~t "T_ng"
<ENDHMM>
~h "ah-r+ah"
<BEGINHMM>
<NUMSTATES> 5
<STATE> 2
~s "ST_r_2_2"
<STATE> 3
~s "ST_r_3_2"
<STATE> 4
~s "ST_r_4_2"
~t "T_r"
<ENDHMM>
~h "r-ah+ng"
<BEGINHMM>
<NUMSTATES> 5
<STATE> 2
~s "ST_ah_2_1"
<STATE> 3
~s "ST_ah_3_1"
<STATE> 4
~s "ST_ah_4_6"
~t "T_ah"
<ENDHMM>
~h "k-s"
<BEGINHMM>
<NUMSTATES> 5
<STATE> 2
~s "ST_s_2_1"
<STATE> 3
~s "ST_s_3_1"
<STATE> 4
~s "ST_s_4_1"
~t "T_s"
<ENDHMM>
~h "d-uw+ah"
<BEGINHMM>
<NUMSTATES> 5
<STATE> 2
~s "ST_uw_2_2"
<STATE> 3
~s "ST_uw_3_1"
<STATE> 4
~s "ST_uw_4_2"
~t "T_uw"
<ENDHMM>
~h "g-ah"
<BEGINHMM>
<NUMSTATES> 5
<STATE> 2
~s "ST_ah_2_2"
<STATE> 3
~s "ST_ah_3_1"
<STATE> 4
~s "ST_ah_4_1"
~t "T_ah"
<ENDHMM>
~h "ah-b+uw"
<BEGINHMM>
<NUMSTATES> 5
<STATE> 2
~s "ST_b_2_1"
<STATE> 3
~s "ST_b_3_1"
<STATE> 4
~s "ST_b_4_1"
~t "T_b"
<ENDHMM>
~h "p+ah"
<BEGINHMM>
<NUMSTATES> 5
<STATE> 2
~s "ST_p_2_1"
<STATE> 3
~s "ST_p_3_1"
<STATE> 4
~s "ST_p_4_1"
~t "T_p"
<ENDHMM>
~h "p+ax"
<BEGINHMM>
<NUMSTATES> 5
<STATE> 2
~s "ST_p_2_2"
<STATE> 3
~s "ST_p_3_1"
<STATE> 4
~s "ST_p_4_1"
~t "T_p"
<ENDHMM>
~h "p-ah"
<BEGINHMM>
<NUMSTATES> 5
<STATE> 2
~s "ST_ah_2_5"
<STATE> 3
~s "ST_ah_3_7"
<STATE> 4
~s "ST_ah_4_1"
~t "T_ah"
<ENDHMM>
~h "d-ah+r"
<BEGINHMM>
<NUMSTATES> 5
<STATE> 2
~s "ST_ah_2_2"
<STATE> 3
~s "ST_ah_3_2"
<STATE> 4
~s "ST_ah_4_3"
~t "T_ah"
<ENDHMM>
~h "uw-ah"
<BEGINHMM>
<NUMSTATES> 5
<STATE> 2
~s "ST_ah_2_3"
<STATE> 3
~s "ST_ah_3_6"
<STATE> 4
~s "ST_ah_4_1"
~t "T_ah"
<ENDHMM>
~h "s-w+iy"
<BEGINHMM>
<NUMSTATES> 5
<STATE> 2
~s "ST_w_2_1"
<STATE> 3
~s "ST_w_3_1"
<STATE> 4
~s "ST_w_4_1"
~t "T_w"
<ENDHMM>
~h "oh+r"
<BEGINHMM>
<NUMSTATES> 5
<STATE> 2
~s "ST_oh_2_1"
<STATE> 3
~s "ST_oh_3_1"
<STATE> 4
~s "ST_oh_4_1"
~t "T_oh"
<ENDHMM>
~h "oh-r"
<BEGINHMM>
<NUMSTATES> 5
<STATE> 2
~s "ST_r_2_1"
<STATE> 3
~s "ST_r_3_1"
<STATE> 4
~s "ST_r_4_1"
~t "T_r"
<ENDHMM>
~h "l-ah+s"
<BEGINHMM>
<NUMSTATES> 5
<STATE> 2
~s "ST_ah_2_1"
<STATE> 3
~s "ST_ah_3_2"
<STATE> 4
~s "ST_ah_4_3"
~t "T_ah"
<ENDHMM>
~h "ah-t+uw"
<BEGINHMM>
<NUMSTATES> 5
<STATE> 2
~s "ST_t_2_2"
<STATE> 3
~s "ST_t_3_1"
<STATE> 4
~s "ST_t_4_2"
~t "T_t"
<ENDHMM>
~h "ah-l+ah"
<BEGINHMM>
<NUMSTATES> 5
<STATE> 2
~s "ST_l_2_1"
<STATE> 3
~s "ST_l_3_1"
<STATE> 4
~s "ST_l_4_1"
~t "T_l"
<ENDHMM>
~h "p-ah+d"
<BEGINHMM>
<NUMSTATES> 5
<STATE> 2
~s "ST_ah_2_7"
<STATE> 3
~s "ST_ah_3_4"
<STATE> 4
~s "ST_ah_4_1"
~t "T_ah"
<ENDHMM>
~h "p-ah+n"
<BEGINHMM>
<NUMSTATES> 5
<STATE> 2
~s "ST_ah_2_7"
<STATE> 3
~s "ST_ah_3_3"
<STATE> 4
~s "ST_ah_4_3"
~t "T_ah"
<ENDHMM>
~h "n-t+uh"
<BEGINHMM>
<NUMSTATES> 5
<STATE> 2
~s "ST_t_2_1"
<STATE> 3
~s "ST_t_3_2"
<STATE> 4
~s "ST_t_4_2"
~t "T_t"
<ENDHMM>
~h "ah-d+ah"
<BEGINHMM>
<NUMSTATES> 5
<STATE> 2
~s "ST_d_2_2"
<STATE> 3
~s "ST_d_3_1"
<STATE> 4
~s "ST_d_4_2"
~t "T_d"
<ENDHMM>
~h "ax-s+ah"
<BEGINHMM>
<NUMSTATES> 5
<STATE> 2
~s "ST_s_2_2"
<STATE> 3
~s "ST_s_3_1"
<STATE> 4
~s "ST_s_4_1"
~t "T_s"
<ENDHMM>
~h "hh+ah"
<BEGINHMM>
<NUMSTATES> 5
<STATE> 2
~s "ST_hh_2_1"
<STATE> 3
~s "ST_hh_3_1"
<STATE> 4
~s "ST_hh_4_1"
~t "T_hh"
<ENDHMM>
~h "ah-n+d"
<BEGINHMM>
<NUMSTATES> 5
<STATE> 2
~s "ST_n_2_2"
<STATE> 3
~s "ST_n_3_1"
<STATE> 4
~s "ST_n_4_1"
~t "T_n"
<ENDHMM>
~h "m-ih+ng"
<BEGINHMM>
<NUMSTATES> 5
<STATE> 2
~s "ST_ih_2_2"
<STATE> 3
~s "ST_ih_3_1"
<STATE> 4
~s "ST_ih_4_1"
~t "T_ih"
<ENDHMM>
~h "j+uh"
<BEGINHMM>
<NUMSTATES> 5
<STATE> 2
~s "ST_j_2_1"
<STATE> 3
~s "ST_j_3_1"
<STATE> 4
~s "ST_j_4_1"
~t "T_j"
<ENDHMM>
~h "ah-m+ah"
<BEGINHMM>
<NUMSTATES> 5
<STATE> 2
~s "ST_m_2_3"
<STATE> 3
~s "ST_m_3_2"
<STATE> 4
~s "ST_m_4_2"
~t "T_m"
<ENDHMM>
~h "s-ah"
<BEGINHMM>
<NUMSTATES> 5
<STATE> 2
~s "ST_ah_2_5"
<STATE> 3
~s "ST_ah_3_1"
<STATE> 4
~s "ST_ah_4_1"
~t "T_ah"
<ENDHMM>
~h "ah-ng"
<BEGINHMM>
<NUMSTATES> 5
<STATE> 2
~s "ST_ng_2_1"
<STATE> 3
~s "ST_ng_3_1"
<STATE> 4
~s "ST_ng_4_1"
~t "T_ng"
<ENDHMM>
~h "ay-ah"
<BEGINHMM>
<NUMSTATES> 5
<STATE> 2
~s "ST_ah_2_4"
<STATE> 3
~s "ST_ah_3_7"
<STATE> 4
~s "ST_ah_4_2"
~t "T_ah"
<ENDHMM>
~h "s-ay+ah"
<BEGINHMM>
<NUMSTATES> 5
<STATE> 2
~s "ST_ay_2_1"
<STATE> 3
~s "ST_ay_3_1"
<STATE> 4
~s "ST_ay_4_1"
~t "T_ay"
<ENDHMM>
~h "ah-m"
<BEGINHMM>
<NUMSTATES> 5
<STATE> 2
~s "ST_m_2_1"
<STATE> 3
~s "ST_m_3_1"
<STATE> 4
~s "ST_m_4_1"
~t "T_m"
<ENDHMM>
~h "ah-r"
<BEGINHMM>
<NUMSTATES> 5
<STATE> 2
~s "ST_r_2_2"
<STATE> 3
~s "ST_r_3_1"
<STATE> 4
~s "ST_r_4_1"
~t "T_r"
<ENDHMM>
~h "ah-t"
<BEGINHMM>
<NUMSTATES> 5
<STATE> 2
~s "ST_t_2_2"
<STATE> 3
~s "ST_t_3_1"
<STATE> 4
~s "ST_t_4_1"
~t "T_t"
<ENDHMM>
~h "sil"
<BEGINHMM>
<NUMSTATES> 5
<STATE> 2
<MEAN> 13
 -1.445212e+01 5.739524e+00 -7.712343e+00 9.029291e+00 -2.004202e+00 5.550946e+00 -6.245136e+00 -1.980993e+00 -2.443914e+00 -5.798035e+00 -3.525725e+00 -3.774386e+00 3.331312e+01
<VARIANCE> 13
 2.537936e+01 3.513618e+01 4.979899e+01 3.788198e+01 4.177466e+01 4.811496e+01 5.185609e+01 4.880909e+01 3.959285e+01 3.374020e+01 3.336505e+01 2.540483e+01 4.508955e+01
<GCONST> 7.141874e+01
<STATE> 3
~s "silst"
<STATE> 4
<MEAN> 13
 -2.565870e+01 2.821016e+00 -1.002746e+01 4.556071e+00 -7.414405e+00 5.274625e+00 -3.408335e+00 1.474739e+00 1.548066e+00 -1.042752e+00 1.279208e+00 -4.419957e-01 2.408053e+01
<VARIANCE> 13
 1.503930e+01 3.080364e+00 6.036526e+00 5.509076e+00 1.041494e+01 8.298790e+00 1.042299e+01 1.106967e+01 1.147944e+01 1.025166e+01 9.506095e+00 8.072663e+00 2.754148e+01
<GCONST> 5.286402e+01
<TRANSP> 5
 0.000000e+00 1.000000e+00 0.000000e+00 0.000000e+00 0.000000e+00
 0.000000e+00 8.514465e-01 3.468256e-02 1.138709e-01 0.000000e+00
 0.000000e+00 0.000000e+00 9.558777e-01 4.412232e-02 0.000000e+00
 0.000000e+00 7.453027e-03 0.000000e+00 9.209745e-01 7.157247e-02
 0.000000e+00 0.000000e+00 0.000000e+00 0.000000e+00 0.000000e+00
<ENDHMM>
