~o
<STREAMINFO> 1 39
<VECSIZE> 39<NULLD><MFCC_D_A_0><DIAGC>
~s "silst"
<MEAN> 39
 -1.186620e+01 2.085470e+00 -3.854597e+00 4.160623e+00 7.289234e-01 2.555090e+00 -1.037488e+00 -3.709520e-01 1.127984e+00 -2.002021e+00 -6.028425e-01 -1.994913e+00 4.442840e+01 -4.197908e-02 1.447205e-02 -4.111520e-02 -4.932342e-02 -4.965575e-02 8.903673e-04 3.046971e-04 2.778618e-02 2.056339e-02 2.429461e-02 3.775641e-02 1.233096e-02 -1.438112e-01 3.312473e-02 -1.166440e-02 -2.481975e-02 -1.054016e-02 -1.853087e-03 -2.446878e-02 3.478519e-03 -5.275444e-03 -4.032734e-03 1.835467e-02 6.000200e-03 -4.156264e-03 3.319862e-02
<VARIANCE> 39
 4.794046e+01 1.681043e+01 2.511787e+01 2.295511e+01 3.140356e+01 2.530656e+01 3.513654e+01 1.836242e+01 2.018226e+01 1.738032e+01 1.908040e+01 1.404963e+01 1.443495e+02 2.684299e-01 5.272775e-01 5.342067e-01 7.797477e-01 9.534264e-01 1.153149e+00 1.126947e+00 1.187385e+00 1.166087e+00 1.049212e+00 1.065486e+00 1.020696e+00 1.768570e-01 4.269672e-02 1.022452e-01 1.075698e-01 1.520560e-01 1.895883e-01 2.174925e-01 2.254007e-01 2.457013e-01 2.262163e-01 2.175123e-01 2.099790e-01 1.997147e-01 2.999106e-02
<GCONST> 8.508640e+01
~h "b"
<BEGINHMM>
<NUMSTATES> 5
<STATE> 2
<MEAN> 39
 2.043201e+00 4.732029e+00 -7.327124e+00 -1.183314e+00 -4.889646e-01 4.275826e+00 -8.183590e+00 -3.203637e+00 -5.226250e+00 3.569815e-02 -3.700845e+00 -7.562751e+00 4.939255e+01 -5.058300e-01 1.844425e+00 3.539513e-02 1.421808e+00 8.057489e-02 6.507464e-01 5.236881e-01 1.239390e-01 5.123551e-01 -1.820072e+00 -9.633694e-02 6.985874e-01 -2.034074e+00 1.614741e-02 -4.185211e-01 -6.810621e-02 -2.111566e-01 1.112473e-01 -4.363414e-02 2.283069e-01 1.782199e-01 1.922214e-01 2.537147e-02 -1.945881e-01 3.429618e-02 3.704059e-01
<VARIANCE> 39
 8.082841e+01 1.513937e+02 2.486678e+01 5.983539e+01 3.744455e+01 5.375153e+01 4.150584e+01 3.038043e+01 3.071184e+01 6.424377e+01 3.071439e+01 3.194285e+01 1.235528e+02 1.654365e+00 9.578615e+00 4.082253e+00 5.196064e+00 4.699198e+00 4.086249e+00 4.043406e+00 2.894987e+00 2.786751e+00 4.294847e+00 2.794359e+00 5.144690e+00 4.114466e+00 2.329888e-01 8.100458e-01 5.367591e-01 7.695177e-01 6.005985e-01 4.751354e-01 6.349139e-01 6.503648e-01 3.790884e-01 6.937014e-01 6.982228e-01 6.352534e-01 2.656870e-01
<GCONST> 1.320648e+02
<STATE> 3
<MEAN> 39
 4.619856e+00 4.538233e+00 -1.207344e+01 -2.113199e+00 -1.137363e+00 5.341825e+00 -4.216189e+00 -2.106828e+00 -3.963945e-01 -3.048267e+00 -3.798306e+00 -2.942860e+00 5.061676e+01 -4.998724e-01 9.700897e-01 6.526150e-01 5.243808e-01 3.731475e-01 4.729556e-01 5.684846e-01 4.537126e-01 5.369745e-01 -2.460390e-01 -1.835102e-01 3.613885e-01 -8.617520e-01 -2.898579e-01 9.254310e-02 3.811319e-01 1.300313e-01 -3.685032e-01 -2.760766e-01 -3.571204e-02 3.118774e-02 -2.638212e-01 2.522593e-01 1.159558e-01 -5.047628e-01 5.116922e-02
<VARIANCE> 39
 1.381721e+02 1.722450e+02 3.581161e+01 2.791891e+01 9.779099e+01 9.408952e+01 3.539114e+01 3.278537e+01 3.991917e+01 5.211772e+01 2.731319e+01 5.690014e+01 6.138720e+01 3.249789e+00 4.396057e+00 4.204220e+00 5.467829e+00 4.119750e+00 2.476456e+00 3.067118e+00 2.588840e+00 2.060824e+00 2.879024e+00 2.674833e+00 3.208074e+00 2.917888e+00 5.194103e-01 1.770090e+00 8.365345e-01 9.198700e-01 8.243027e-01 5.447770e-01 6.009935e-01 5.809001e-01 4.580514e-01 6.916656e-01 5.494046e-01 8.712397e-01 7.755191e-01
<GCONST> 1.348024e+02
<STATE> 4
<MEAN> 39
 -1.041893e+01 5.916301e+00 -8.717822e+00 4.124737e+00 -4.034218e+00 3.315618e+00 -5.784722e+00 -2.979795e+00 -2.796052e+00 -5.924583e+00 -4.728291e+00 -5.884038e+00 3.748426e+01 -6.895126e-01 -8.330151e-02 2.424741e-01 3.696401e-01 5.319661e-02 1.116246e-03 8.875821e-02 4.527392e-02 -8.914571e-02 -2.088987e-02 2.431556e-01 9.292157e-02 -4.305409e-01 1.161854e-01 -1.317520e-01 -1.051512e-01 -1.463680e-01 -5.083063e-02 -3.814614e-02 -1.431224e-01 -1.303172e-01 -2.826931e-02 5.234747e-02 8.648182e-02 1.789341e-02 1.885196e-01
<VARIANCE> 39
 6.915640e+01 6.553576e+01 4.524967e+01 2.373583e+01 5.842753e+01 4.608771e+01 4.209406e+01 3.286446e+01 4.313791e+01 4.701830e+01 3.212933e+01 3.359864e+01 1.277910e+02 2.388562e+00 2.755653e+00 2.134228e+00 1.583271e+00 2.651134e+00 2.529728e+00 1.838635e+00 2.177095e+00 1.806098e+00 2.851629e+00 3.228311e+00 3.149302e+00 1.066522e+00 2.408505e-01 3.689266e-01 2.923597e-01 3.173709e-01 4.745425e-01 4.178468e-01 4.244430e-01 4.775870e-01 2.973960e-01 4.891624e-01 5.882701e-01 5.945252e-01 1.682723e-01
<GCONST> 1.192976e+02
<TRANSP> 5
 0.000000e+00 1.000000e+00 0.000000e+00 0.000000e+00 0.000000e+00
 0.000000e+00 7.020661e-01 2.979339e-01 0.000000e+00 0.000000e+00
 0.000000e+00 0.000000e+00 5.273660e-01 4.726340e-01 0.000000e+00
 0.000000e+00 0.000000e+00 0.000000e+00 8.569691e-01 1.430309e-01
 0.000000e+00 0.000000e+00 0.000000e+00 0.000000e+00 0.000000e+00
<ENDHMM>
~h "d"
<BEGINHMM>
<NUMSTATES> 5
<STATE> 2
<MEAN> 39
 -2.860512e+00 -4.594133e-01 -3.670749e+00 2.173458e+00 2.093248e+00 2.020980e+00 -4.329372e+00 -4.154703e+00 -1.302622e+00 -1.231833e+00 -5.618506e+00 -5.158250e+00 5.280875e+01 1.273762e+00 -7.809171e-01 -2.047882e-02 -9.663641e-01 -6.540939e-01 -6.159043e-01 -1.328657e+00 -5.650547e-01 5.747311e-01 4.826147e-01 1.799817e-01 1.536410e-01 1.507617e+00 3.124930e-01 -5.971473e-01 -2.865362e-01 -4.125114e-01 -1.329586e-01 -1.421826e-01 -1.565142e-01 -3.066017e-01 2.087286e-01 3.020739e-01 5.060196e-02 9.377529e-03 5.952756e-01
<VARIANCE> 39
 7.284393e+01 2.093344e+02 9.137934e+01 1.482631e+02 6.438847e+01 8.633792e+01 6.996246e+01 7.071437e+01 5.011494e+01 6.110250e+01 6.741978e+01 3.448721e+01 2.477827e+02 4.728755e+00 7.567136e+00 6.527528e+00 5.758045e+00 6.451339e+00 5.729461e+00 6.136326e+00 6.107831e+00 4.681101e+00 5.894447e+00 4.076075e+00 3.082763e+00 7.228313e+00 6.588489e-01 1.314530e+00 9.314926e-01 1.205442e+00 1.174610e+00 8.915763e-01 8.989558e-01 1.260290e+00 7.508829e-01 7.894899e-01 9.028676e-01 4.816604e-01 9.505917e-01
<GCONST> 1.502454e+02
<STATE> 3
<MEAN> 39
 3.295269e+00 -8.779017e+00 -4.965232e+00 -5.359038e+00 -2.042233e-01 -1.767229e+00 -7.422253e+00 -6.890120e+00 3.504977e-01 3.473767e+00 -7.254121e+00 -5.357481e+00 6.404784e+01 1.027085e+00 -1.623830e+00 2.901834e-01 -1.409003e+00 -5.509303e-01 -9.143611e-01 -1.207964e+00 -6.058921e-01 1.146333e+00 6.751459e-01 -2.229319e-01 4.507674e-01 2.035699e+00 -1.720770e-01 2.279071e-01 2.263483e-02 9.663441e-02 5.792438e-02 1.057488e-01 3.743807e-01 1.298615e-01 -8.465731e-02 -2.818993e-01 7.040722e-03 -8.171154e-03 -2.218489e-01
<VARIANCE> 39
 2.584849e+01 1.034780e+02 6.546568e+01 1.038493e+02 9.311550e+01 8.934465e+01 1.178913e+02 9.722028e+01 6.930406e+01 7.139831e+01 8.365452e+01 4.612148e+01 7.298183e+01 3.032552e+00 1.019168e+01 6.519853e+00 1.105712e+01 8.488674e+00 6.041424e+00 7.055584e+00 9.935346e+00 6.118509e+00 5.090884e+00 6.630064e+00 4.005644e+00 1.014287e+01 5.354582e-01 1.334049e+00 6.921711e-01 1.160901e+00 1.750458e+00 1.075031e+00 1.243931e+00 1.390566e+00 1.026309e+00 9.743789e-01 1.103064e+00 5.232800e-01 8.093181e-01
<GCONST> 1.526164e+02
<STATE> 4
<MEAN> 39
 3.435549e+00 -7.049618e+00 -1.240903e+00 -3.051705e+00 -3.419150e-01 -8.936220e+00 -1.000576e+01 -4.828634e-01 3.481744e+00 8.773268e-01 -1.147678e+01 -4.025103e+00 6.473861e+01 1.235771e-01 -6.688701e-01 2.798326e-02 -8.018968e-01 -6.749327e-01 -3.828831e-01 -4.998924e-01 6.762938e-01 1.559125e-01 2.311907e-02 1.742405e-01 3.177586e-01 8.673308e-01 -8.828234e-02 -5.663531e-02 -2.078238e-01 -1.190772e-01 -5.136299e-03 2.428832e-01 3.365838e-01 2.478938e-01 -3.127259e-01 -6.429755e-02 -2.434544e-02 -1.936684e-01 5.426766e-02
<VARIANCE> 39
 1.031140e+01 6.935816e+01 3.217321e+01 1.063842e+02 8.695232e+01 8.098011e+01 1.165786e+02 1.257230e+02 5.058080e+01 5.327522e+01 5.609739e+01 8.031998e+01 5.415001e+01 9.693087e-01 1.167181e+01 2.737253e+00 1.459977e+01 6.838164e+00 4.279398e+00 7.533912e+00 9.481646e+00 5.196959e+00 5.611447e+00 4.844643e+00 3.120865e+00 9.828815e+00 1.543045e-01 1.747076e+00 3.623326e-01 1.919537e+00 1.509038e+00 9.148445e-01 1.812868e+00 1.398745e+00 7.083992e-01 1.162053e+00 8.371062e-01 6.632268e-01 1.369085e+00
<GCONST> 1.463874e+02
<TRANSP> 5
 0.000000e+00 1.000000e+00 0.000000e+00 0.000000e+00 0.000000e+00
 0.000000e+00 4.483665e-01 5.516335e-01 0.000000e+00 0.000000e+00
 0.000000e+00 0.000000e+00 1.824460e-01 8.175540e-01 0.000000e+00
 0.000000e+00 0.000000e+00 0.000000e+00 6.468346e-01 3.531654e-01
 0.000000e+00 0.000000e+00 0.000000e+00 0.000000e+00 0.000000e+00
<ENDHMM>
~h "g"
<BEGINHMM>
<NUMSTATES> 5
<STATE> 2
<MEAN> 39
 -3.374576e+00 1.086779e-01 1.346524e+01 -2.033382e+00 -1.070462e+01 -8.099500e+00 -4.869692e+00 -9.108343e+00 -1.005174e+01 -7.725280e-01 4.205584e-02 -6.375650e+00 5.887642e+01 2.302111e-01 -4.689764e-01 1.294782e-03 9.922909e-01 -5.914956e-01 -1.222171e+00 6.537198e-02 1.853468e-01 -4.481795e-01 -3.800979e-01 5.678765e-01 4.790980e-02 4.369897e-01 4.836720e-02 -3.809370e-01 -8.595347e-02 -3.367851e-01 -1.509586e-01 -2.404606e-01 -2.584727e-01 1.732232e-01 8.918651e-02 -1.222887e-02 3.897387e-01 4.120705e-02 4.859031e-01
<VARIANCE> 39
 1.554304e+01 8.653708e+01 1.154160e+02 6.960062e+01 7.476806e+01 6.514631e+01 5.079988e+01 4.302487e+01 8.791033e+01 3.469178e+01 1.222805e+02 4.919944e+01 7.684001e+01 1.344209e+00 7.294415e+00 7.580162e+00 5.003306e+00 7.532829e+00 7.630844e+00 5.908056e+00 2.788691e+00 4.209506e+00 3.561944e+00 5.981683e+00 4.687216e+00 7.544978e+00 2.871214e-01 1.075837e+00 9.579429e-01 1.048699e+00 1.459266e+00 1.203301e+00 1.115503e+00 5.204350e-01 7.576002e-01 7.729770e-01 1.012803e+00 9.852667e-01 1.047817e+00
<GCONST> 1.443127e+02
<STATE> 3
<MEAN> 39
 -1.525795e+00 -9.349080e+00 1.008624e+01 -2.727703e+00 -1.619535e+01 -1.451720e+01 -7.114130e+00 -5.929604e+00 -7.879722e+00 -1.600410e+00 8.530205e+00 -5.815752e+00 6.764232e+01 5.907166e-01 -2.095338e+00 -2.007741e+00 -2.076829e+00 -4.241215e-01 -4.103756e-01 -1.056361e+00 2.039166e+00 2.395169e+00 -9.889751e-02 4.443231e-01 -5.892305e-01 2.329057e+00 7.207295e-02 7.674821e-02 -5.961314e-01 -2.197156e-01 6.179573e-01 8.587483e-01 1.759784e-01 3.836187e-02 7.532174e-01 3.106486e-02 -9.778100e-01 -3.489780e-01 -1.867389e-01
<VARIANCE> 39
 9.186595e+00 5.643438e+01 4.043531e+01 6.030024e+01 8.033443e+01 9.762993e+01 5.000460e+01 6.098781e+01 9.745190e+01 2.587964e+01 7.948658e+01 5.474097e+01 6.063295e+01 4.803973e-01 2.062400e+00 3.357156e+00 4.485495e+00 7.573944e+00 5.189936e+00 5.057666e+00 4.923539e+00 9.971900e+00 3.478860e+00 9.891418e+00 4.059916e+00 3.473393e+00 1.056325e-01 4.317920e-01 3.879037e-01 7.715681e-01 1.422867e+00 9.528174e-01 9.235516e-01 1.042086e+00 1.365899e+00 5.231419e-01 1.794359e+00 7.558389e-01 5.911890e-01
<GCONST> 1.365217e+02
<STATE> 4
<MEAN> 39
 1.564982e+00 -1.954142e+01 -6.604743e+00 -9.611472e+00 -9.031557e+00 -5.391237e+00 -9.113570e+00 -4.251146e-01 6.318029e+00 4.366508e-01 -1.008757e+00 -1.449310e+01 7.487109e+01 2.321695e-01 -6.253525e-01 -1.491504e+00 -6.293743e-01 1.361616e+00 1.605593e+00 3.456727e-01 -3.156652e-01 2.974962e-01 4.020315e-01 -1.202067e+00 -7.035002e-01 2.111091e-01 -3.212924e-02 2.365973e-01 2.960492e-01 1.951140e-01 -7.310198e-02 -6.067868e-02 9.759575e-02 -3.578048e-01 -4.838446e-01 6.091965e-02 2.550431e-01 1.579725e-01 -2.635402e-01
<VARIANCE> 39
 7.662153e+00 5.090181e+01 3.678050e+01 3.394644e+01 4.436166e+01 9.291370e+01 3.576158e+01 8.269148e+01 1.074813e+02 3.958734e+01 9.989813e+01 9.305676e+01 4.048976e+01 1.612936e-01 6.864871e-01 1.871413e+00 1.136730e+00 2.139035e+00 2.353757e+00 1.264221e+00 2.262727e+00 3.981511e+00 1.193622e+00 4.862296e+00 2.163563e+00 4.144314e-01 2.948798e-02 7.926556e-02 1.431798e-01 1.724263e-01 3.564826e-01 3.652951e-01 2.360694e-01 4.206965e-01 5.585878e-01 2.541982e-01 5.401134e-01 2.552454e-01 7.669494e-02
<GCONST> 1.059265e+02
<TRANSP> 5
 0.000000e+00 1.000000e+00 0.000000e+00 0.000000e+00 0.000000e+00
 0.000000e+00 8.205576e-01 1.794424e-01 0.000000e+00 0.000000e+00
 0.000000e+00 0.000000e+00 7.234392e-01 2.765608e-01 0.000000e+00
 0.000000e+00 0.000000e+00 0.000000e+00 8.377367e-01 1.622633e-01
 0.000000e+00 0.000000e+00 0.000000e+00 0.000000e+00 0.000000e+00
<ENDHMM>
~h "j"
<BEGINHMM>
<NUMSTATES> 5
<STATE> 2
<MEAN> 39
 -5.127160e+00 1.300427e+01 2.738860e+01 -9.127516e+00 -4.464102e+00 -4.606073e+00 -1.093820e+01 -3.660023e+00 -1.583533e+01 2.860317e+00 1.016921e-01 -7.107745e+00 5.323224e+01 -3.897601e-02 1.508577e+00 -1.682839e+00 1.070487e+00 1.288433e+00 7.688805e-01 -3.505623e-01 3.895472e-01 1.329242e+00 -6.207301e-01 -2.244167e-01 2.253923e-01 -1.574654e+00 3.457597e-02 -3.639408e-01 -1.645404e-01 2.906460e-01 -4.146450e-01 -9.334743e-04 7.979832e-02 -3.413640e-01 2.259117e-03 -1.076075e-01 4.797875e-02 2.116967e-01 1.430053e-01
<VARIANCE> 39
 1.407819e+01 1.116156e+02 1.643965e+02 9.230611e+01 3.559123e+01 2.584098e+01 3.832808e+01 3.185673e+01 7.559540e+01 4.045314e+01 3.165822e+01 2.858164e+01 5.149406e+01 8.757213e-01 1.251861e+00 5.578471e+00 5.407821e+00 3.501649e+00 1.133089e+00 4.495622e+00 3.140015e+00 3.554918e+00 1.439143e+00 4.742784e+00 1.980181e+00 8.952445e-01 1.227524e-01 4.939266e-01 8.151674e-01 3.694904e-01 2.707951e-01 2.307378e-01 7.610746e-01 5.943399e-01 5.913143e-01 2.584987e-01 4.382369e-01 3.119829e-01 2.342556e-01
<GCONST> 1.197677e+02
<STATE> 3
<MEAN> 39
 -3.278478e+00 1.580144e+00 1.093885e+01 3.591417e+00 -9.980934e+00 -4.292741e+00 -8.928380e+00 -8.860801e+00 -6.650954e+00 -3.153770e+00 4.806031e+00 -3.596583e+00 5.820253e+01 2.199386e-03 -1.994060e+00 -6.846113e-03 1.100464e+00 -1.189865e+00 -1.420564e+00 -1.335980e+00 -1.299131e+00 -5.367423e-01 -3.263489e-01 1.468328e+00 2.346029e-01 1.552538e+00 3.826392e-01 -5.045955e-01 -4.232284e-02 -1.922841e-01 -1.564013e-01 -2.559802e-01 -3.866137e-01 -7.432358e-02 -9.294684e-02 2.976948e-01 2.611588e-01 -2.647257e-01 5.057359e-01
<VARIANCE> 39
 1.982361e+01 1.148761e+02 5.303540e+01 3.049511e+01 5.324254e+01 6.094719e+01 3.810722e+01 1.057654e+02 4.941396e+01 3.335543e+01 6.296399e+01 3.742673e+01 8.955109e+01 3.189739e+00 5.105728e+00 8.046672e+00 3.699198e+00 7.251235e+00 7.159646e+00 8.044594e+00 3.817830e+00 7.126609e+00 8.662439e-01 4.825022e+00 2.542446e+00 2.074109e+00 6.405113e-01 1.300228e+00 2.855614e+00 6.680117e-01 2.142515e+00 1.979933e+00 1.069806e+00 1.022579e+00 1.840721e+00 2.393453e-01 1.567604e+00 4.083482e-01 6.053350e-01
<GCONST> 1.416949e+02
<STATE> 4
<MEAN> 39
 3.159067e+00 2.141803e+00 -3.755628e+00 3.714561e+00 -2.683839e+00 -2.167864e+00 -1.029714e+01 -1.310065e+01 -4.418737e+00 -3.108262e+00 -1.572888e+00 -4.599222e+00 5.463355e+01 4.896486e-01 -3.336223e-01 -1.444476e+00 -7.685040e-01 1.052351e+00 5.862949e-01 2.668395e-01 -3.234214e-01 3.067274e-01 3.423859e-01 -6.070617e-01 -2.079342e-01 7.615186e-02 -1.314999e-01 2.959731e-01 1.933039e-01 1.744111e-02 2.811737e-03 1.006858e-01 2.602130e-01 1.534486e-01 -1.654071e-01 -1.368378e-01 -1.759426e-01 1.169787e-01 -2.778948e-01
<VARIANCE> 39
 5.219475e+01 1.616040e+02 2.257805e+02 6.270564e+01 1.545852e+02 1.459552e+02 2.131240e+02 7.516146e+01 9.632738e+01 5.352515e+01 2.089700e+02 3.852962e+01 1.374665e+02 4.328155e+00 9.377125e+00 1.583366e+01 4.499706e+00 8.972133e+00 1.190494e+01 1.484730e+01 7.351929e+00 6.260255e+00 4.851739e+00 4.056161e+00 4.678257e+00 6.054114e+00 6.445919e-01 1.182806e+00 2.690480e+00 9.770539e-01 1.579550e+00 2.336334e+00 2.454839e+00 1.481656e+00 1.138283e+00 9.837240e-01 7.811087e-01 9.386228e-01 7.397917e-01
<GCONST> 1.607302e+02
<TRANSP> 5
 0.000000e+00 1.000000e+00 0.000000e+00 0.000000e+00 0.000000e+00
 0.000000e+00 7.884390e-01 2.115611e-01 0.000000e+00 0.000000e+00
 0.000000e+00 0.000000e+00 7.775006e-01 2.224994e-01 0.000000e+00
 0.000000e+00 0.000000e+00 0.000000e+00 9.176756e-01 8.232440e-02
 0.000000e+00 0.000000e+00 0.000000e+00 0.000000e+00 0.000000e+00
<ENDHMM>
~h "k"
<BEGINHMM>
<NUMSTATES> 5
<STATE> 2
<MEAN> 39
 -8.767817e+00 3.626913e+00 -4.105979e+00 7.371258e-01 -3.241219e+00 2.783929e+00 -5.384911e+00 -3.178571e+00 -1.102931e+00 -3.847981e-01 4.085264e-02 -2.016040e+00 4.404384e+01 5.922247e-02 -7.888405e-01 -2.295697e-01 6.561624e-01 1.266915e+00 -3.867513e-02 2.418641e-01 8.342075e-02 6.081367e-01 2.044677e-01 1.685309e-01 1.044004e-01 7.053996e-01 3.066593e-01 -6.706630e-01 -2.839281e-01 -3.948234e-01 4.486280e-01 -2.915875e-01 7.705572e-02 -7.494507e-02 -1.432143e-01 2.303739e-01 -1.248053e-02 -1.519327e-01 9.157696e-01
<VARIANCE> 39
 1.099465e+02 1.003741e+02 4.782610e+01 1.183327e+02 6.255266e+01 5.950007e+01 5.483276e+01 6.469622e+01 5.402519e+01 4.353792e+01 3.124200e+01 3.460968e+01 2.233066e+02 5.010182e+00 6.017249e+00 4.544674e+00 5.963888e+00 6.494521e+00 4.420671e+00 4.481295e+00 4.536894e+00 3.603296e+00 3.617255e+00 3.134736e+00 3.439110e+00 1.188652e+01 6.408141e-01 9.417340e-01 7.847005e-01 1.036148e+00 1.485142e+00 1.210544e+00 8.192331e-01 7.095817e-01 6.328671e-01 8.195272e-01 6.710457e-01 5.311036e-01 1.580155e+00
<GCONST> 1.447780e+02
<STATE> 3
<MEAN> 39
 -5.769183e+00 -2.149921e+00 -6.689671e+00 2.503904e-01 1.767010e+00 1.398449e+00 -4.805029e+00 -3.524732e+00 7.070590e-01 1.088388e+00 4.033200e-01 -3.374628e+00 5.280450e+01 2.378192e-01 -1.993858e+00 -1.130973e+00 -2.629661e-02 1.806193e+00 -7.796316e-01 -8.653887e-02 -8.094213e-02 1.968874e-01 9.377024e-01 -1.387238e-02 -6.642426e-01 2.010631e+00 2.590892e-01 -2.755992e-01 -1.109735e-01 -4.728461e-01 -2.158133e-01 -4.031337e-01 6.207283e-02 -5.404238e-02 -2.375398e-01 1.870971e-01 -1.060508e-01 -3.205489e-01 6.344138e-01
<VARIANCE> 39
 4.087406e+01 8.097224e+01 5.659057e+01 7.009997e+01 5.221659e+01 6.825892e+01 5.949245e+01 5.548425e+01 5.252810e+01 4.422129e+01 3.348169e+01 3.074071e+01 1.306283e+02 4.311198e+00 7.325659e+00 6.563236e+00 6.473736e+00 9.020557e+00 8.882264e+00 6.405158e+00 4.213964e+00 4.940249e+00 5.931395e+00 3.994908e+00 3.932301e+00 9.655625e+00 5.189676e-01 9.578612e-01 1.034363e+00 8.322530e-01 1.363717e+00 1.415598e+00 1.253716e+00 7.395705e-01 6.926987e-01 8.266649e-01 5.851264e-01 6.500069e-01 1.101490e+00
<GCONST> 1.454939e+02
<STATE> 4
<MEAN> 39
 -2.868268e+00 -4.967608e+00 -1.068933e+01 -3.085668e+00 1.128478e+01 -4.467512e+00 -2.719320e+00 -3.483745e+00 -3.657323e+00 3.280880e+00 -5.007927e+00 -3.952987e+00 5.551233e+01 7.634980e-01 -8.986161e-01 2.050873e-01 -8.510718e-01 3.578629e-01 -1.082323e+00 6.350217e-01 -1.366843e-01 -2.420264e-01 2.812408e-01 -3.043715e-01 -6.524632e-01 1.986752e+00 -4.394491e-02 2.251840e-01 3.103874e-01 6.557220e-03 -4.557795e-01 2.347324e-01 1.059572e-01 -2.919278e-02 -3.361605e-02 -1.372187e-01 -2.458220e-02 5.508442e-02 -2.213885e-01
<VARIANCE> 39
 8.175558e+01 1.184480e+02 1.138284e+02 1.426763e+02 1.413799e+02 2.107693e+02 9.850247e+01 1.331383e+02 1.144216e+02 1.056252e+02 1.058274e+02 8.074459e+01 1.519692e+02 6.540145e+00 8.160686e+00 1.016330e+01 1.091095e+01 1.161179e+01 1.355699e+01 7.474690e+00 7.204362e+00 7.584280e+00 5.828900e+00 6.145291e+00 5.411207e+00 1.127377e+01 7.816758e-01 1.348238e+00 1.910609e+00 1.781650e+00 1.751326e+00 2.215573e+00 1.210185e+00 1.340204e+00 1.163093e+00 9.840331e-01 1.043095e+00 8.463095e-01 1.226705e+00
<GCONST> 1.645891e+02
<TRANSP> 5
 0.000000e+00 1.000000e+00 0.000000e+00 0.000000e+00 0.000000e+00
 0.000000e+00 5.309389e-01 4.690611e-01 0.000000e+00 0.000000e+00
 0.000000e+00 0.000000e+00 4.585080e-01 5.414920e-01 0.000000e+00
 0.000000e+00 0.000000e+00 0.000000e+00 7.756454e-01 2.243546e-01
 0.000000e+00 0.000000e+00 0.000000e+00 0.000000e+00 0.000000e+00
<ENDHMM>
~h "l"
<BEGINHMM>
<NUMSTATES> 5
<STATE> 2
<MEAN> 39
 3.789428e+00 -1.567049e+01 -9.397723e+00 -1.452215e+01 1.633265e+00 4.583115e+00 -8.044783e+00 -8.261250e+00 4.278026e+00 2.243411e+00 -5.395158e+00 -8.026241e+00 7.243526e+01 -1.027406e-01 -1.282539e-01 6.258973e-02 -1.668202e-02 2.728151e-02 4.007822e-02 2.441417e-01 1.287787e-01 8.863053e-02 1.019075e-01 -1.809545e-01 -4.782907e-02 1.124530e-03 2.214904e-02 3.623479e-02 8.163188e-03 4.306225e-02 -3.742709e-02 -6.803953e-03 3.815794e-03 -1.541084e-02 -4.741495e-03 -1.170288e-02 4.621338e-02 1.863680e-02 -5.124185e-02
<VARIANCE> 39
 7.555860e+00 3.440500e+01 2.975835e+01 4.245972e+01 1.220504e+02 7.472514e+01 3.582667e+01 6.913980e+01 7.083360e+01 4.662920e+01 1.495781e+02 1.007321e+02 1.571839e+01 2.772997e-01 1.448534e+00 7.595057e-01 1.385290e+00 1.552165e+00 1.812371e+00 1.693038e+00 1.288840e+00 1.896236e+00 1.773658e+00 2.447188e+00 1.236752e+00 6.363093e-01 5.443657e-02 2.250564e-01 1.242851e-01 2.360412e-01 3.019228e-01 3.076819e-01 3.038821e-01 2.421157e-01 3.411768e-01 2.854860e-01 4.147294e-01 2.423910e-01 9.954766e-02
<GCONST> 1.047616e+02
<STATE> 3
<MEAN> 39
 2.046976e+00 -2.374704e+01 -1.122212e+01 -1.224118e+01 -2.203927e+00 1.630186e+01 -5.468552e+00 -1.285742e+01 1.200405e+01 -2.000642e+00 -2.526234e+00 -5.044129e+00 7.081679e+01 8.752128e-02 5.798546e-01 1.611948e-01 2.614495e-01 -6.411887e-02 -1.633370e-01 1.385129e-01 9.956905e-02 -4.312509e-01 -4.690611e-02 -1.821605e-01 1.288756e-01 -5.800151e-01 2.306361e-03 1.537046e-01 5.573184e-02 7.881870e-02 2.414101e-02 -6.494980e-02 -2.942278e-02 -1.913776e-02 -5.304148e-02 2.846708e-02 8.680987e-03 2.184789e-02 -9.256573e-02
<VARIANCE> 39
 7.948549e+00 6.061776e+01 1.635807e+01 2.366715e+01 2.850687e+01 8.854317e+01 2.093599e+01 5.019817e+01 1.393862e+02 3.985918e+01 4.430384e+01 5.399817e+01 1.834662e+01 2.112092e-01 1.701538e+00 6.899468e-01 2.085564e+00 1.237770e+00 1.170004e+00 1.094729e+00 1.522676e+00 2.576066e+00 1.626511e+00 1.690773e+00 1.683260e+00 7.700336e-01 3.589332e-02 1.286611e-01 1.151668e-01 2.550776e-01 2.081933e-01 1.751003e-01 1.872096e-01 2.979622e-01 3.693192e-01 2.642419e-01 3.134799e-01 3.182763e-01 5.046408e-02
<GCONST> 9.763419e+01
<STATE> 4
<MEAN> 39
 -7.254716e+00 -1.114604e+00 -7.152999e+00 2.216638e+00 -6.677278e-01 4.848079e+00 -6.284245e+00 -4.134013e+00 -3.066026e+00 -3.747658e+00 -5.839665e+00 -5.569937e+00 4.599100e+01 -3.017242e-01 3.963555e-01 1.178747e-02 4.781745e-01 3.022372e-02 -3.019708e-03 1.460317e-02 1.486050e-01 9.994166e-03 -9.519685e-02 -4.754831e-02 8.031012e-02 -6.776673e-01 1.432603e-02 -3.262258e-02 -3.145855e-02 -3.215838e-02 -9.008417e-03 1.990516e-02 9.169460e-03 1.575482e-02 1.766445e-02 2.528264e-02 3.951058e-02 -1.293607e-02 2.669717e-02
<VARIANCE> 39
 6.808557e+01 7.190349e+01 7.383433e+01 8.262804e+01 4.249586e+01 4.086575e+01 3.067405e+01 3.784643e+01 3.570663e+01 3.642493e+01 3.760498e+01 2.975734e+01 1.581188e+02 3.975477e-01 9.283726e-01 8.807911e-01 1.345822e+00 1.152424e+00 1.178355e+00 1.404682e+00 1.818781e+00 1.380121e+00 1.342920e+00 1.319051e+00 1.242944e+00 3.921497e-01 3.585180e-02 1.232843e-01 1.268798e-01 1.510255e-01 2.105605e-01 1.847132e-01 2.562113e-01 3.041597e-01 2.730431e-01 2.480790e-01 2.108255e-01 2.199439e-01 3.312906e-02
<GCONST> 9.890693e+01
<TRANSP> 5
 0.000000e+00 1.000000e+00 0.000000e+00 0.000000e+00 0.000000e+00
 0.000000e+00 9.265845e-01 7.341552e-02 0.000000e+00 0.000000e+00
 0.000000e+00 0.000000e+00 8.604856e-01 1.395144e-01 0.000000e+00
 0.000000e+00 0.000000e+00 0.000000e+00 8.726089e-01 1.273911e-01
 0.000000e+00 0.000000e+00 0.000000e+00 0.000000e+00 0.000000e+00
<ENDHMM>
~h "m"
<BEGINHMM>
<NUMSTATES> 5
<STATE> 2
<MEAN> 39
 4.741402e+00 -6.137928e+00 -5.769670e+00 -6.053451e+00 8.365998e-01 2.094893e+00 -4.230470e+00 -8.903140e+00 -5.569529e+00 1.184027e+00 -3.240363e+00 -6.605646e+00 6.214010e+01 -1.441471e-01 1.914747e+00 1.285332e+00 2.586188e+00 5.455695e-01 -1.292262e-01 -4.832378e-01 -1.280793e+00 -1.842762e+00 -9.490823e-01 -1.757334e-02 4.859411e-01 -1.624761e+00 -1.062399e-01 -2.600166e-01 2.113255e-02 -2.545079e-02 6.921551e-02 -1.197223e-01 3.002183e-02 -9.881394e-04 -3.518924e-02 1.092466e-01 -8.151076e-02 6.943350e-02 2.369073e-01
<VARIANCE> 39
 2.271551e+01 7.434080e+01 3.993985e+01 9.495433e+01 9.209449e+01 7.866875e+01 5.080920e+01 5.968801e+01 8.542020e+01 4.315610e+01 8.063808e+01 5.485226e+01 4.920267e+01 6.598616e-01 3.642762e+00 2.771327e+00 4.526216e+00 3.647833e+00 2.622619e+00 3.798530e+00 3.430032e+00 3.830127e+00 3.521420e+00 3.210155e+00 3.535069e+00 2.083348e+00 9.912074e-02 4.334949e-01 3.248098e-01 6.997338e-01 4.721098e-01 4.086747e-01 4.154069e-01 5.986918e-01 7.581073e-01 5.073149e-01 5.357500e-01 3.941639e-01 2.359991e-01
<GCONST> 1.271341e+02
<STATE> 3
<MEAN> 39
 4.196537e+00 -4.162286e+00 -2.119976e+00 7.158388e-01 1.031070e+00 -1.150189e+00 -4.646943e+00 -1.264405e+01 -1.156939e+01 -1.989292e-01 -4.009523e+00 -5.909825e+00 6.109334e+01 -1.515567e-01 3.441570e-01 4.301396e-01 7.376966e-01 4.407537e-02 -8.956587e-02 -1.935689e-01 -3.148356e-01 -5.236749e-01 -2.720525e-01 2.882082e-01 6.895204e-01 -3.651396e-01 7.179537e-02 -4.933035e-01 -6.134016e-01 -7.852604e-01 -2.701651e-01 2.584721e-01 1.005401e-01 5.357078e-01 7.762848e-01 2.222793e-01 1.576915e-01 -6.378439e-02 3.702292e-01
<VARIANCE> 39
 2.177532e+01 6.400779e+01 3.247879e+01 4.208996e+01 8.263289e+01 7.587738e+01 3.448804e+01 4.054881e+01 7.520714e+01 3.246542e+01 4.662771e+01 5.951248e+01 3.901963e+01 4.618213e-01 1.770521e+00 2.162062e+00 2.650795e+00 2.032815e+00 1.713101e+00 1.982857e+00 2.235999e+00 2.889493e+00 1.795231e+00 2.066228e+00 1.871156e+00 9.702070e-01 9.055603e-02 3.065170e-01 3.894151e-01 5.051599e-01 4.119307e-01 4.575629e-01 4.074620e-01 4.684392e-01 5.613053e-01 4.723785e-01 4.043144e-01 4.337293e-01 1.844714e-01
<GCONST> 1.154730e+02
<STATE> 4
<MEAN> 39
 -1.203627e+00 5.332053e+00 -9.747114e-01 7.236463e+00 3.458832e+00 3.497320e+00 -4.935729e+00 -7.530465e+00 -6.328078e+00 -2.663400e+00 -2.835309e+00 -1.865396e+00 4.886224e+01 -4.046443e-01 -4.081892e-01 -8.816749e-01 -8.922620e-01 -3.326917e-01 4.623085e-01 2.661458e-01 1.028213e+00 1.060233e+00 -9.065005e-02 3.686183e-01 -1.360909e-02 -1.570364e-01 -2.836634e-02 -3.665752e-01 -2.143701e-01 -3.209392e-01 2.817920e-02 8.176346e-02 1.997818e-02 2.292601e-01 3.217487e-01 7.808385e-02 -1.136375e-01 -1.779625e-01 2.147398e-01
<VARIANCE> 39
 8.036153e+01 1.493345e+02 4.713469e+01 1.368665e+02 9.508202e+01 8.103553e+01 4.747874e+01 8.843848e+01 7.191779e+01 4.001732e+01 4.626461e+01 4.517078e+01 1.976900e+02 1.568184e+00 3.486423e+00 3.821802e+00 4.980885e+00 2.515369e+00 3.561398e+00 2.689976e+00 4.378463e+00 4.017246e+00 3.067260e+00 2.429171e+00 2.171952e+00 2.234266e+00 1.517243e-01 3.822275e-01 4.880101e-01 5.483055e-01 4.659755e-01 5.243657e-01 4.704358e-01 6.849023e-01 6.479876e-01 4.229298e-01 4.757064e-01 4.218801e-01 1.383941e-01
<GCONST> 1.307273e+02
<TRANSP> 5
 0.000000e+00 1.000000e+00 0.000000e+00 0.000000e+00 0.000000e+00
 0.000000e+00 5.331315e-01 4.668685e-01 0.000000e+00 0.000000e+00
 0.000000e+00 0.000000e+00 5.955617e-01 4.044383e-01 0.000000e+00
 0.000000e+00 0.000000e+00 0.000000e+00 6.823597e-01 3.176403e-01
 0.000000e+00 0.000000e+00 0.000000e+00 0.000000e+00 0.000000e+00
<ENDHMM>
~h "n"
<BEGINHMM>
<NUMSTATES> 5
<STATE> 2
<MEAN> 39
 -7.509555e-01 6.557932e+00 3.981496e-01 6.789654e+00 -2.209619e+00 -2.289142e+00 -7.623708e+00 -7.145083e+00 -2.316420e+00 -2.310855e+00 -6.786228e+00 -3.872121e+00 4.980035e+01 -4.402455e-01 1.024461e+00 1.121378e-01 4.383979e-01 1.070510e-02 3.965021e-01 2.494049e-01 5.501220e-02 4.561522e-03 -4.482016e-01 2.582362e-01 8.686101e-02 -9.956940e-01 -6.957579e-02 -2.071738e-01 -1.400049e-01 -3.133532e-01 9.271195e-02 1.478641e-01 3.100874e-02 2.041822e-01 4.010707e-02 -1.658959e-02 1.522515e-01 7.346302e-02 1.489293e-01
<VARIANCE> 39
 8.096338e+01 1.190524e+02 4.421356e+01 6.745459e+01 5.219545e+01 8.866809e+01 4.048103e+01 8.190522e+01 3.748421e+01 4.725969e+01 4.718512e+01 4.858525e+01 1.842745e+02 2.568108e+00 2.570492e+00 1.489864e+00 2.689562e+00 2.810524e+00 2.727003e+00 2.408722e+00 2.862974e+00 2.410187e+00 2.150087e+00 2.699183e+00 1.511794e+00 2.099088e+00 1.879198e-01 1.716583e-01 1.825125e-01 3.012889e-01 3.452699e-01 3.728131e-01 3.783492e-01 4.529126e-01 3.973002e-01 3.479388e-01 3.988522e-01 2.376054e-01 1.739365e-01
<GCONST> 1.206339e+02
<STATE> 3
<MEAN> 39
 -2.300301e+00 3.056531e+00 -1.598000e+00 3.171016e+00 -1.377563e+00 -1.334963e+00 -5.953648e+00 -6.476984e+00 -1.743368e+00 -2.567360e+00 -4.949926e+00 -5.015999e+00 5.210104e+01 -2.316199e-01 5.779116e-01 -2.181600e-01 -3.913522e-01 2.734326e-01 8.552258e-01 5.135183e-01 5.402875e-01 1.186204e-01 -5.606939e-01 7.540654e-01 7.309541e-01 -3.583725e-01 3.628323e-02 -4.969015e-01 -6.937633e-02 -3.200465e-01 -2.710936e-01 7.926887e-03 3.894513e-02 -3.417696e-02 1.211408e-01 1.977277e-01 1.777878e-01 1.763470e-01 4.096102e-01
<VARIANCE> 39
 5.635342e+01 6.970369e+01 4.263204e+01 4.529454e+01 4.829289e+01 7.307567e+01 3.306705e+01 4.907246e+01 3.487526e+01 3.704843e+01 4.333816e+01 3.757509e+01 1.291404e+02 7.917134e+00 2.380073e+00 1.567471e+00 4.355102e+00 3.915766e+00 2.998840e+00 2.578051e+00 3.355749e+00 2.518756e+00 2.780380e+00 2.299999e+00 1.884571e+00 5.912283e+00 3.628739e-01 3.465594e-01 3.275681e-01 5.617418e-01 5.542133e-01 4.681207e-01 5.870847e-01 6.778217e-01 4.764767e-01 5.434715e-01 5.877916e-01 3.961058e-01 2.869241e-01
<GCONST> 1.270737e+02
<STATE> 4
<MEAN> 39
 -4.316985e+00 4.633686e+00 -2.537451e+00 4.044884e+00 -1.861237e+00 2.100295e+00 -5.384871e+00 -4.958238e+00 -2.462270e+00 -3.676504e+00 -3.679596e+00 -2.329810e+00 4.733956e+01 -6.519122e-02 -2.917016e-01 -2.797724e-01 -7.652904e-01 -1.957989e-01 3.069659e-01 4.031217e-01 1.581313e-01 2.020930e-01 -1.656045e-01 5.898445e-01 7.419187e-01 3.861847e-01 6.485321e-02 -5.405399e-01 -3.182763e-04 -3.683553e-01 -1.215705e-01 -2.081726e-01 -1.554309e-01 -2.129371e-01 8.353125e-02 2.145098e-01 8.477652e-02 1.434306e-02 5.541946e-01
<VARIANCE> 39
 7.799030e+01 9.386465e+01 7.326385e+01 8.818049e+01 7.752259e+01 7.946988e+01 4.300051e+01 6.306000e+01 4.877573e+01 4.630206e+01 6.559412e+01 4.948904e+01 1.693478e+02 8.724119e+00 3.968070e+00 3.266806e+00 6.686767e+00 5.937543e+00 4.785031e+00 4.336970e+00 5.320807e+00 3.540651e+00 3.709074e+00 3.910028e+00 3.090611e+00 6.272298e+00 1.018975e+00 8.706439e-01 7.267717e-01 9.898844e-01 1.356714e+00 9.735300e-01 1.050868e+00 1.002506e+00 7.289509e-01 7.437813e-01 7.667290e-01 5.982174e-01 9.417447e-01
<GCONST> 1.453668e+02
<TRANSP> 5
 0.000000e+00 1.000000e+00 0.000000e+00 0.000000e+00 0.000000e+00
 0.000000e+00 7.660002e-01 2.339998e-01 0.000000e+00 0.000000e+00
 0.000000e+00 0.000000e+00 3.022648e-01 6.977352e-01 0.000000e+00
 0.000000e+00 0.000000e+00 0.000000e+00 3.078118e-01 6.921881e-01
 0.000000e+00 0.000000e+00 0.000000e+00 0.000000e+00 0.000000e+00
<ENDHMM>
~h "p"
<BEGINHMM>
<NUMSTATES> 5
<STATE> 2
<MEAN> 39
 -9.124514e+00 1.452672e+00 -7.136157e+00 2.292155e+00 -2.896296e-01 3.384347e+00 -4.437685e+00 -2.861777e+00 -9.396328e-01 -2.077625e+00 -1.993713e+00 -3.939873e+00 4.402485e+01 -6.523004e-01 3.589483e-01 1.169141e-01 2.476484e-01 -3.311848e-02 7.033894e-02 2.278312e-01 4.940580e-01 2.785682e-01 -1.909919e-01 3.161157e-01 3.154647e-01 -7.369999e-01 3.327455e-01 -3.209101e-01 -1.093072e-01 -1.698536e-01 -7.904191e-02 -6.278289e-02 1.943046e-02 -1.136507e-01 -1.221556e-01 1.739531e-01 1.320248e-02 -1.441426e-02 4.997416e-01
<VARIANCE> 39
 6.796920e+01 5.982856e+01 5.969017e+01 5.499815e+01 3.845031e+01 3.238163e+01 4.840872e+01 4.780861e+01 4.354468e+01 3.762926e+01 3.067195e+01 2.486604e+01 1.765947e+02 1.709505e+00 1.616557e+00 1.689473e+00 1.373885e+00 2.046912e+00 1.984592e+00 1.805033e+00 2.282652e+00 2.049558e+00 1.792470e+00 1.547324e+00 1.507970e+00 2.862356e+00 2.998478e-01 2.815026e-01 3.131214e-01 3.233840e-01 4.366689e-01 3.681533e-01 4.234253e-01 4.594271e-01 4.291313e-01 4.520524e-01 3.436580e-01 2.840347e-01 4.773673e-01
<GCONST> 1.171133e+02
<STATE> 3
<MEAN> 39
 -9.673439e+00 5.121639e-01 -6.031417e+00 9.565765e-01 -1.082511e+00 1.926066e+00 -2.912365e+00 -2.087336e+00 4.878980e-01 -9.624227e-01 -9.409314e-01 -3.512477e+00 4.566515e+01 4.801866e-01 -3.774735e-01 -4.329004e-01 7.449430e-03 -2.914387e-01 -4.359328e-01 -6.868343e-02 -1.475030e-01 -1.197280e-01 2.044966e-01 4.133234e-01 1.903561e-01 6.158421e-01 1.034817e+00 -7.830839e-01 -4.236676e-01 -5.411414e-01 -8.147286e-02 -1.248970e-01 -1.275444e-01 -4.229295e-01 -2.009422e-01 5.121163e-01 -3.739587e-02 -2.556654e-01 1.404586e+00
<VARIANCE> 39
 8.723428e+01 4.511987e+01 3.240557e+01 4.193232e+01 3.180519e+01 3.027825e+01 3.905671e+01 4.146537e+01 3.795783e+01 2.930963e+01 2.483778e+01 2.043433e+01 1.846588e+02 2.857647e+00 1.608202e+00 2.349952e+00 2.424339e+00 1.956064e+00 2.378603e+00 2.308636e+00 2.275645e+00 2.634769e+00 2.319705e+00 1.955928e+00 1.726204e+00 3.808649e+00 5.789818e-01 4.053710e-01 5.898086e-01 6.201174e-01 6.475557e-01 7.096944e-01 7.831946e-01 5.983985e-01 7.100312e-01 8.583772e-01 6.526663e-01 5.107048e-01 9.703130e-01
<GCONST> 1.251032e+02
<STATE> 4
<MEAN> 39
 -3.298671e+00 -3.721809e+00 -1.045768e+01 -2.422439e+00 -1.748188e+00 1.470678e+00 -2.184080e+00 -4.233826e+00 -1.200276e+00 2.585700e+00 -9.733952e-01 -3.924835e+00 5.242569e+01 3.281586e+00 -3.102515e+00 -9.270526e-01 -2.912436e+00 1.108255e+00 -3.669695e-01 6.621876e-01 -9.713473e-01 -4.378842e-01 1.932656e+00 -8.849726e-01 -8.047346e-01 5.579109e+00 -1.647757e-01 -3.302372e-01 2.576071e-01 -3.112652e-01 3.434185e-01 2.930867e-02 -6.062800e-02 -2.453715e-03 1.990864e-02 7.898574e-02 -4.725389e-01 -1.715759e-01 2.783505e-01
<VARIANCE> 39
 9.878896e+01 6.575499e+01 6.839514e+01 9.482975e+01 5.313136e+01 5.464618e+01 4.709884e+01 4.515361e+01 5.037856e+01 5.120286e+01 3.982635e+01 3.061202e+01 2.281325e+02 6.145559e+00 4.033849e+00 7.581388e+00 8.880198e+00 9.770267e+00 6.087392e+00 6.753503e+00 4.173995e+00 6.014093e+00 6.171956e+00 7.273745e+00 4.442246e+00 1.025292e+01 1.813465e+00 9.085696e-01 1.069943e+00 1.804109e+00 1.315728e+00 1.120814e+00 9.347694e-01 7.348810e-01 8.649618e-01 1.171043e+00 8.078100e-01 6.443193e-01 3.336520e+00
<GCONST> 1.512570e+02
<TRANSP> 5
 0.000000e+00 1.000000e+00 0.000000e+00 0.000000e+00 0.000000e+00
 0.000000e+00 6.348343e-01 3.651657e-01 0.000000e+00 0.000000e+00
 0.000000e+00 0.000000e+00 3.063128e-01 6.936873e-01 0.000000e+00
 0.000000e+00 0.000000e+00 0.000000e+00 6.909434e-01 3.090566e-01
 0.000000e+00 0.000000e+00 0.000000e+00 0.000000e+00 0.000000e+00
<ENDHMM>
~h "r"
<BEGINHMM>
<NUMSTATES> 5
<STATE> 2
<MEAN> 39
 3.268697e+00 -1.965233e+01 -1.141176e+01 -6.170846e+00 -3.850424e-01 1.941910e+00 -4.051075e+00 -4.699718e+00 3.359858e+00 1.585296e+00 -7.356471e+00 -1.007726e+01 7.151002e+01 -3.699224e-03 6.513838e-02 8.023177e-02 3.833258e-01 -5.033416e-01 -4.146467e-01 -1.645872e-01 2.539929e-01 2.266155e-01 2.484596e-03 9.481267e-03 -1.042243e-01 -2.639508e-01 -3.672423e-03 1.547601e-01 8.564600e-02 5.491190e-02 -1.213487e-01 -6.469878e-02 -1.251134e-02 -6.751548e-02 -3.840198e-02 7.014615e-03 1.328759e-01 1.124271e-01 -1.326620e-01
<VARIANCE> 39
 1.101088e+01 3.654106e+01 2.937758e+01 3.309014e+01 5.306855e+01 6.830450e+01 3.098692e+01 5.687086e+01 1.074891e+02 4.510132e+01 4.680927e+01 4.233947e+01 3.061920e+01 3.784351e-01 1.424487e+00 1.016427e+00 1.464710e+00 2.463974e+00 2.168307e+00 1.820509e+00 1.940813e+00 2.579011e+00 1.787678e+00 1.920724e+00 1.745389e+00 8.813097e-01 6.689849e-02 1.975772e-01 1.624844e-01 2.000649e-01 3.328706e-01 3.091344e-01 3.072606e-01 3.627184e-01 4.480672e-01 3.396266e-01 3.421817e-01 3.023327e-01 1.191419e-01
<GCONST> 1.065538e+02
<STATE> 3
<MEAN> 39
 2.955938e+00 -1.442448e+01 -9.255713e+00 -2.533405e+00 -4.095566e+00 -2.859171e+00 -5.168272e+00 -2.956325e+00 3.636667e+00 2.711590e+00 -7.450037e+00 -8.931484e+00 6.583372e+01 -3.460886e-01 1.094540e+00 8.173544e-01 8.335461e-01 -4.894217e-01 -3.886206e-01 -2.982179e-01 -2.455947e-01 -7.204919e-02 -1.300583e-03 7.741897e-01 6.168748e-01 -1.242517e+00 -1.136725e-01 4.137035e-02 2.102989e-01 -7.629345e-02 1.528168e-01 -8.479075e-03 6.324147e-02 3.414228e-02 -3.028455e-01 -9.524432e-02 1.497590e-01 1.363915e-01 4.122747e-02
<VARIANCE> 39
 1.589439e+01 3.436323e+01 3.769031e+01 3.710634e+01 7.028969e+01 5.022129e+01 3.320575e+01 4.619191e+01 6.104613e+01 6.418159e+01 3.338254e+01 5.410350e+01 6.321844e+01 6.599066e-01 1.456763e+00 1.753239e+00 1.605940e+00 3.433869e+00 2.549756e+00 2.081468e+00 3.273876e+00 3.163551e+00 3.075855e+00 2.863078e+00 1.848852e+00 1.027592e+00 1.155619e-01 2.495908e-01 2.531198e-01 2.587681e-01 4.255906e-01 4.076221e-01 3.849444e-01 5.267172e-01 5.703743e-01 5.841518e-01 3.918560e-01 3.728362e-01 2.252145e-01
<GCONST> 1.155679e+02
<STATE> 4
<MEAN> 39
 -3.486787e+00 -4.880222e+00 -3.757504e+00 5.640017e+00 -8.018681e-01 -8.060293e-01 -2.973065e+00 3.256267e-01 2.067606e+00 -4.081440e-01 -2.814375e+00 -3.713309e+00 5.321434e+01 -6.660201e-01 5.878955e-01 5.774281e-01 3.553464e-01 -8.975592e-02 9.595595e-02 4.457290e-02 1.341720e-01 -5.376336e-01 -3.435815e-01 6.886625e-01 4.695577e-01 -8.399993e-01 1.334102e-02 -9.917860e-02 -2.071367e-02 -1.766050e-01 -2.144032e-02 -4.095369e-02 1.215651e-02 4.113480e-02 -8.672732e-02 4.224929e-03 -3.278084e-02 -5.419935e-02 1.601113e-01
<VARIANCE> 39
 5.464146e+01 9.443644e+01 5.438213e+01 1.065250e+02 6.049670e+01 6.723912e+01 5.617545e+01 6.203558e+01 4.939256e+01 5.774237e+01 3.858164e+01 4.136755e+01 1.757329e+02 1.413854e+00 3.180916e+00 3.119693e+00 3.354734e+00 4.097347e+00 3.105132e+00 2.930996e+00 3.108665e+00 3.300582e+00 2.883156e+00 3.130344e+00 2.098714e+00 1.152640e+00 2.485933e-01 5.654759e-01 3.971690e-01 4.664190e-01 5.770039e-01 4.624593e-01 4.876842e-01 5.334883e-01 6.158492e-01 5.753895e-01 5.525988e-01 3.700927e-01 2.251277e-01
<GCONST> 1.283082e+02
<TRANSP> 5
 0.000000e+00 1.000000e+00 0.000000e+00 0.000000e+00 0.000000e+00
 0.000000e+00 8.172221e-01 1.827779e-01 0.000000e+00 0.000000e+00
 0.000000e+00 0.000000e+00 6.096447e-01 3.903553e-01 0.000000e+00
 0.000000e+00 0.000000e+00 0.000000e+00 7.132109e-01 2.867891e-01
 0.000000e+00 0.000000e+00 0.000000e+00 0.000000e+00 0.000000e+00
<ENDHMM>
~h "s"
<BEGINHMM>
<NUMSTATES> 5
<STATE> 2
<MEAN> 39
 -1.041953e+01 3.877414e-01 -5.160568e+00 -1.117848e-01 5.251882e+00 -7.468918e+00 2.281418e-01 -3.900003e+00 4.154073e+00 -5.954395e-01 -1.005150e-01 -4.234024e+00 6.087806e+01 -2.714605e+00 1.625895e+00 4.828498e-02 7.196126e-01 1.116038e+00 -5.663546e-01 1.399712e+00 1.813661e-01 7.215864e-01 -8.361627e-01 1.033947e+00 3.731004e-01 -3.727489e-01 2.429459e-01 -4.481638e-01 8.669823e-02 -2.413324e-01 -2.052337e-01 6.297316e-02 -2.157364e-01 -5.330511e-02 -2.746652e-01 1.168627e-01 -1.174942e-01 -1.102424e-03 1.304808e-01
<VARIANCE> 39
 7.150750e+01 5.914140e+01 5.766716e+01 7.794496e+01 8.722359e+01 8.300398e+01 7.791844e+01 5.084364e+01 4.874079e+01 4.769685e+01 5.423108e+01 4.047746e+01 1.365929e+02 3.642569e+00 3.698110e+00 2.357178e+00 4.102117e+00 3.797261e+00 5.105589e+00 4.463212e+00 3.189947e+00 3.285060e+00 3.940381e+00 4.000021e+00 2.718260e+00 1.604654e+00 7.250814e-01 7.774379e-01 3.932392e-01 4.875441e-01 6.799404e-01 7.090755e-01 8.864189e-01 5.844292e-01 6.100213e-01 7.003033e-01 6.693627e-01 4.799057e-01 4.101310e-01
<GCONST> 1.353921e+02
<STATE> 3
<MEAN> 39
 -1.791307e+01 2.017950e+00 -4.853723e+00 2.350757e+00 7.210917e+00 -8.858974e+00 3.672939e+00 -3.374617e+00 5.034044e+00 -2.690887e+00 2.204371e+00 -2.408197e+00 5.986582e+01 -2.325999e-01 -5.786980e-01 -2.038724e-01 -2.281512e-01 2.260293e-01 -9.984391e-03 1.585298e-01 5.609744e-02 -1.575197e-01 -1.490579e-01 -8.581732e-02 7.006647e-02 -2.026760e-01 8.433200e-01 -4.792335e-01 -1.014884e-01 -3.311889e-01 -2.437951e-01 4.918503e-02 -3.144791e-01 -2.827591e-02 -1.084755e-01 2.118765e-01 -3.013067e-01 -1.870978e-01 3.216782e-01
<VARIANCE> 39
 5.102136e+01 4.447056e+01 3.676115e+01 1.059456e+02 7.120245e+01 7.488248e+01 6.260486e+01 5.923360e+01 4.599041e+01 4.718247e+01 2.749524e+01 3.089022e+01 7.442472e+01 4.537921e+00 2.264223e+00 1.841403e+00 2.572984e+00 3.181612e+00 3.792529e+00 3.248679e+00 2.149272e+00 2.449996e+00 2.713793e+00 2.399553e+00 1.862075e+00 1.748277e+00 5.464254e-01 5.084667e-01 3.267165e-01 4.636861e-01 5.553927e-01 5.566611e-01 6.782585e-01 4.235170e-01 5.330531e-01 5.450561e-01 4.805084e-01 4.002705e-01 4.006658e-01
<GCONST> 1.260889e+02
<STATE> 4
<MEAN> 39
 -1.572442e+01 -2.370676e+00 -3.695379e+00 -3.196099e+00 1.140632e+01 -1.267822e+01 4.884313e+00 -1.167075e+00 5.881031e+00 -4.824623e+00 -3.080820e+00 8.086330e-01 5.760048e+01 2.247441e+00 -1.537610e+00 -5.595291e-01 -1.305770e+00 -3.416052e-01 2.442648e-01 -9.775493e-01 -6.702153e-02 -1.901868e-03 6.311929e-01 -1.266477e+00 -4.233264e-01 1.581021e+00 1.103079e-01 -1.256457e-01 -4.320373e-02 -3.220980e-02 -1.332803e-01 1.754651e-01 -6.017619e-02 -2.968884e-02 -4.165697e-02 1.357543e-01 -6.047433e-02 -9.869394e-02 9.359147e-02
<VARIANCE> 39
 1.947440e+02 7.725198e+01 5.320068e+01 6.646116e+01 1.118451e+02 8.598586e+01 1.193508e+02 6.132656e+01 6.442601e+01 6.030799e+01 8.053063e+01 6.172519e+01 1.202743e+02 1.432525e+01 6.070840e+00 3.603360e+00 5.276123e+00 5.533696e+00 5.274496e+00 7.563928e+00 4.339377e+00 4.352518e+00 4.648962e+00 6.988714e+00 4.089396e+00 7.108651e+00 2.021152e+00 7.502558e-01 5.874534e-01 8.811453e-01 8.170295e-01 8.500917e-01 1.174245e+00 7.376624e-01 6.589054e-01 7.537273e-01 1.180136e+00 6.634334e-01 8.592020e-01
<GCONST> 1.498525e+02
<TRANSP> 5
 0.000000e+00 1.000000e+00 0.000000e+00 0.000000e+00 0.000000e+00
 0.000000e+00 5.831242e-01 4.168758e-01 0.000000e+00 0.000000e+00
 0.000000e+00 0.000000e+00 7.107942e-01 2.892058e-01 0.000000e+00
 0.000000e+00 0.000000e+00 0.000000e+00 7.848650e-01 2.151350e-01
 0.000000e+00 0.000000e+00 0.000000e+00 0.000000e+00 0.000000e+00
<ENDHMM>
~h "t"
<BEGINHMM>
<NUMSTATES> 5
<STATE> 2
<MEAN> 39
 -8.134319e+00 3.598807e-01 -6.928832e+00 -5.416172e-02 -2.015246e+00 1.385174e+00 -3.568202e+00 -2.069056e+00 1.071795e+00 -1.775115e+00 -1.313428e+00 -1.822720e+00 4.644873e+01 9.090614e-01 -1.180668e+00 9.380010e-02 -1.019635e+00 -1.037719e+00 -9.461789e-03 -2.841845e-01 -9.891799e-01 -7.025833e-02 1.431545e-01 8.628109e-01 4.642545e-01 1.819905e+00 5.061445e-01 -4.370875e-01 1.434268e-01 -5.582553e-01 -3.783838e-02 -1.332935e-01 -5.428054e-01 -6.214179e-01 -1.872036e-01 2.412601e-01 1.393023e-01 -1.342742e-01 9.973592e-01
<VARIANCE> 39
 8.692954e+01 5.750417e+01 6.367849e+01 8.030392e+01 6.819138e+01 7.398138e+01 6.398233e+01 4.886057e+01 5.461057e+01 5.191747e+01 3.690681e+01 3.562818e+01 1.766226e+02 6.598984e+00 6.939067e+00 4.829450e+00 8.570755e+00 5.942281e+00 7.038563e+00 7.897768e+00 5.231664e+00 5.724648e+00 5.442706e+00 4.110849e+00 4.502303e+00 9.576477e+00 9.146336e-01 8.144836e-01 8.714643e-01 1.096131e+00 1.240593e+00 1.107248e+00 1.493137e+00 8.542366e-01 9.378353e-01 9.249564e-01 7.309676e-01 6.802320e-01 1.403511e+00
<GCONST> 1.489502e+02
<STATE> 3
<MEAN> 39
 -1.364305e+00 -4.999797e+00 -6.313417e+00 -6.135303e+00 -5.683200e+00 2.204991e+00 -5.922334e+00 -8.569126e+00 3.127910e-01 -1.108400e+00 1.828378e+00 -1.184118e+00 5.755729e+01 2.213634e+00 -1.409301e+00 6.972820e-01 -2.770883e+00 -4.719597e-01 -3.124025e-01 -1.809698e+00 -2.308472e+00 -8.721467e-01 9.000562e-01 7.550039e-01 -1.778499e-01 4.143745e+00 -9.832947e-02 4.247572e-01 7.999425e-02 -1.617360e-01 3.290206e-01 1.537932e-01 -1.525406e-01 1.631335e-01 -3.364366e-01 1.637458e-01 -2.464076e-01 -1.787448e-01 -2.611779e-01
<VARIANCE> 39
 6.628781e+01 8.743540e+01 1.041702e+02 1.436906e+02 9.878586e+01 1.514802e+02 1.201085e+02 9.239543e+01 9.116362e+01 8.519411e+01 5.183170e+01 7.495626e+01 1.225162e+02 5.192800e+00 6.219209e+00 9.447752e+00 1.013549e+01 1.008574e+01 8.335019e+00 1.366911e+01 7.239898e+00 7.815063e+00 7.135410e+00 7.403541e+00 6.754722e+00 1.018004e+01 1.080942e+00 1.522060e+00 1.297851e+00 1.641019e+00 1.222132e+00 1.475942e+00 1.863667e+00 1.209159e+00 1.092711e+00 1.132337e+00 1.016890e+00 1.232449e+00 1.403978e+00
<GCONST> 1.616656e+02
<STATE> 4
<MEAN> 39
 3.802001e+00 1.927076e+00 -8.661037e-01 -1.250589e+01 2.054990e+00 5.775925e+00 -1.516870e+01 -1.295275e+01 -6.085093e+00 2.236132e+00 -3.519298e+00 1.411606e-01 5.870372e+01 1.666241e-01 2.441182e-01 9.183739e-02 -2.282856e-01 -9.885370e-03 -5.112711e-02 -1.434140e-01 4.817342e-02 -5.023726e-01 1.997250e-01 -5.633257e-02 -2.711189e-01 1.194385e-01 -1.952603e-01 1.523775e-01 -1.101501e-01 3.248211e-01 -1.282216e-01 6.883905e-02 2.316435e-01 2.220462e-01 9.891350e-02 -2.109180e-01 -2.431579e-02 1.244435e-03 -4.350195e-01
<VARIANCE> 39
 4.567856e+01 1.219393e+02 4.341689e+01 2.290263e+02 1.258572e+02 8.340857e+01 9.672560e+01 6.625797e+01 1.008666e+02 8.077230e+01 9.736070e+01 7.862672e+01 1.495101e+02 3.083127e+00 9.389911e+00 4.302372e+00 1.478413e+01 6.343359e+00 4.965089e+00 6.473658e+00 5.114293e+00 7.150981e+00 6.244957e+00 5.989121e+00 4.905020e+00 1.066070e+01 4.659645e-01 1.426898e+00 5.313550e-01 1.794254e+00 7.975084e-01 9.662936e-01 1.203725e+00 1.057068e+00 1.325054e+00 1.161605e+00 9.261307e-01 8.310143e-01 1.540534e+00
<GCONST> 1.546271e+02
<TRANSP> 5
 0.000000e+00 1.000000e+00 0.000000e+00 0.000000e+00 0.000000e+00
 0.000000e+00 4.659640e-01 5.340359e-01 0.000000e+00 0.000000e+00
 0.000000e+00 0.000000e+00 4.664724e-01 5.335276e-01 0.000000e+00
 0.000000e+00 0.000000e+00 0.000000e+00 7.871478e-01 2.128522e-01
 0.000000e+00 0.000000e+00 0.000000e+00 0.000000e+00 0.000000e+00
<ENDHMM>
~h "w"
<BEGINHMM>
<NUMSTATES> 5
<STATE> 2
<MEAN> 39
 -1.833873e+01 -2.124570e+00 4.771056e-01 -4.611246e+00 1.156933e+01 -3.475052e+00 -4.466209e+00 -2.833039e+00 5.409340e+00 -3.761667e+00 2.323316e+00 -6.430349e+00 6.304683e+01 1.523968e+00 -3.291480e-01 5.282755e-01 8.890960e-02 -1.167637e+00 -3.932967e-01 -1.207714e+00 -7.601784e-01 -4.039458e-01 2.419834e-01 1.666408e-01 2.818282e-03 3.562916e-01 4.706214e-01 -1.821782e-01 9.372040e-03 6.198607e-02 -3.333043e-01 -2.088975e-01 -5.723868e-02 -8.194312e-02 -2.269797e-01 1.206408e-01 -7.980482e-02 8.567436e-02 1.393949e-01
<VARIANCE> 39
 8.201585e+01 2.973129e+01 2.973812e+01 6.709102e+01 8.023014e+01 5.468005e+01 4.754221e+01 7.035632e+01 2.999677e+01 3.150748e+01 2.047472e+01 1.265207e+01 8.761017e+00 1.071954e+01 2.272009e+00 2.268213e+00 2.117003e+00 6.196563e+00 3.959687e+00 4.223226e+00 3.878277e+00 4.519654e+00 2.247943e+00 2.765186e+00 2.137590e+00 1.050177e+00 1.168709e+00 3.845079e-01 3.573278e-01 3.689893e-01 6.350026e-01 5.834934e-01 8.637608e-01 8.599749e-01 7.952655e-01 4.155182e-01 4.870345e-01 3.429739e-01 1.363762e-01
<GCONST> 1.240518e+02
<STATE> 3
<MEAN> 39
 8.756425e-01 -1.143122e+01 6.566821e+00 -1.135629e+00 -8.594289e+00 -1.397745e+01 -1.261512e+01 -5.543010e+00 -6.283630e+00 -1.698136e+00 5.825269e+00 -5.704349e+00 6.986825e+01 -8.381905e-02 -5.241945e-01 1.211158e+00 3.254049e-01 -1.510452e+00 -1.109686e+00 6.250510e-01 1.088926e+00 -1.386968e+00 -2.564461e-01 5.911223e-02 9.431797e-02 1.619086e-01 -5.144853e-01 3.438788e-01 -4.745315e-02 -9.553541e-03 3.556410e-01 1.869405e-01 2.518380e-01 1.428501e-01 1.999069e-01 -1.674310e-01 -9.406442e-02 5.501372e-02 -2.854353e-01
<VARIANCE> 39
 1.353187e+01 2.954030e+01 3.091527e+01 2.252725e+01 2.408984e+01 4.863845e+01 4.016375e+01 3.606535e+01 5.970973e+01 5.889997e+01 3.951199e+01 4.329362e+01 6.055279e+00 1.553623e+00 2.156613e+00 9.945236e-01 1.309096e+00 2.573284e+00 3.712860e+00 2.665813e+00 3.945056e+00 3.661770e+00 2.240088e+00 2.534586e+00 2.545875e+00 8.612143e-01 5.947865e-01 1.909834e-01 2.442737e-01 3.021514e-01 5.955645e-01 8.217723e-01 6.732036e-01 8.181704e-01 5.080914e-01 4.437367e-01 4.577126e-01 4.977496e-01 8.845333e-02
<GCONST> 1.143854e+02
<STATE> 4
<MEAN> 39
 -4.746705e+00 -4.097123e+00 4.404020e+00 1.778988e+00 -4.139112e+00 -6.468653e+00 -6.081958e+00 -5.590288e+00 -6.890285e+00 -5.464844e+00 1.608647e-01 2.048435e+00 5.675003e+01 -3.834129e-01 4.485898e-01 -4.654411e-01 2.191547e-01 4.032251e-01 9.545447e-01 4.193989e-01 5.067663e-03 9.394825e-02 1.993772e-01 -3.154149e-01 1.708703e-01 -8.753501e-01 -1.495863e-02 -5.935806e-02 -2.691422e-02 -4.868794e-02 1.839266e-03 -2.450189e-03 -1.683505e-02 -3.849219e-02 2.221709e-02 6.693406e-02 8.822979e-02 -7.235283e-02 3.027082e-02
<VARIANCE> 39
 1.889957e+01 1.341535e+01 2.650273e+01 1.782507e+01 4.263758e+01 7.850439e+01 2.876630e+01 3.877753e+01 1.826041e+01 2.660624e+01 3.712597e+01 2.262564e+01 4.361695e+01 2.287231e-01 1.258558e+00 9.711639e-01 9.431182e-01 2.491040e+00 1.635149e+00 1.875986e+00 2.329329e+00 1.742893e+00 2.574979e+00 2.184712e+00 1.393936e+00 5.711473e-01 6.099102e-02 1.405487e-01 1.288529e-01 1.966282e-01 3.102683e-01 3.121840e-01 3.794887e-01 4.729297e-01 2.435707e-01 4.175114e-01 4.893777e-01 2.044233e-01 5.057261e-02
<GCONST> 9.873992e+01
<TRANSP> 5
 0.000000e+00 1.000000e+00 0.000000e+00 0.000000e+00 0.000000e+00
 0.000000e+00 9.122595e-01 8.774047e-02 0.000000e+00 0.000000e+00
 0.000000e+00 0.000000e+00 8.571668e-01 1.428332e-01 0.000000e+00
 0.000000e+00 0.000000e+00 0.000000e+00 8.825185e-01 1.174815e-01
 0.000000e+00 0.000000e+00 0.000000e+00 0.000000e+00 0.000000e+00
<ENDHMM>
~h "ah"
<BEGINHMM>
<NUMSTATES> 5
<STATE> 2
<MEAN> 39
 3.667632e+00 -1.493075e+01 -1.065087e+01 -9.486605e+00 1.436718e+00 -1.717789e+00 -2.658142e+00 -4.504799e+00 -2.004498e-01 4.175840e+00 -6.568604e+00 -8.102509e+00 6.953820e+01 3.904769e-01 -1.519078e+00 -4.627975e-01 -5.956035e-01 2.757761e-01 4.482865e-01 2.488504e-01 3.166632e-01 3.617360e-01 2.492908e-01 -8.422140e-01 -6.022337e-01 1.169959e+00 -4.433666e-01 4.296092e-01 3.145162e-01 4.822788e-01 1.111954e-01 -6.143842e-03 3.906553e-02 -9.645486e-02 4.495794e-03 -2.874898e-01 9.559245e-02 2.206373e-01 -4.952359e-01
<VARIANCE> 39
 2.258016e+01 5.000783e+01 4.654390e+01 6.746201e+01 1.069085e+02 8.549677e+01 6.276179e+01 7.553546e+01 9.645775e+01 7.421569e+01 8.353713e+01 6.187525e+01 6.041780e+01 1.674177e+00 3.473462e+00 3.112375e+00 2.940278e+00 3.766123e+00 4.244258e+00 3.061031e+00 3.619281e+00 4.985747e+00 3.162943e+00 3.976269e+00 2.738488e+00 2.196110e+00 3.338689e-01 4.506510e-01 4.625964e-01 6.019940e-01 7.036520e-01 5.754647e-01 6.639763e-01 6.962379e-01 6.573644e-01 6.041912e-01 8.007715e-01 4.910674e-01 4.047020e-01
<GCONST> 1.333447e+02
<STATE> 3
<MEAN> 39
 3.214832e+00 -1.988965e+01 -1.053483e+01 -9.258079e+00 -7.114065e-01 1.123099e-01 -1.830025e+00 -4.578207e+00 8.455855e-01 3.588088e+00 -6.812781e+00 -1.038690e+01 7.350154e+01 -4.423515e-02 3.772642e-02 1.315556e-01 7.649884e-02 5.222267e-02 9.810735e-02 1.519601e-02 1.469722e-03 1.530235e-01 -1.642802e-01 -2.707725e-01 5.719853e-02 -1.533356e-01 -4.633007e-02 3.664292e-01 1.447450e-01 1.576608e-01 -6.641866e-02 -1.411873e-01 -1.025471e-01 -1.639107e-02 8.322495e-03 -6.167274e-02 1.267270e-01 1.137042e-01 -3.099842e-01
<VARIANCE> 39
 1.057487e+01 3.539103e+01 3.630261e+01 4.049415e+01 7.119689e+01 6.447701e+01 4.466060e+01 5.921753e+01 1.034372e+02 5.326093e+01 8.089945e+01 4.734750e+01 3.332035e+01 3.353607e-01 1.419504e+00 1.098682e+00 1.132269e+00 1.659661e+00 2.121687e+00 1.765584e+00 1.983681e+00 1.996343e+00 1.755029e+00 2.180750e+00 1.543309e+00 8.529921e-01 7.230578e-02 1.708011e-01 1.720376e-01 2.351967e-01 2.786731e-01 2.964085e-01 3.196057e-01 3.426503e-01 3.922760e-01 3.346367e-01 3.559907e-01 2.565706e-01 1.103364e-01
<GCONST> 1.069402e+02
<STATE> 4
<MEAN> 39
 2.335409e+00 -1.237705e+01 -7.319024e+00 -7.457792e+00 4.213766e+00 -3.901898e+00 -1.526754e+00 -3.594802e+00 1.912081e+00 2.117360e+00 -1.042254e+01 -5.583044e+00 6.626933e+01 -2.827750e-01 1.354981e+00 4.081125e-01 9.388163e-01 -2.605139e-01 6.269012e-02 -3.477180e-01 3.610451e-03 -4.119950e-02 -4.452246e-01 2.866676e-01 2.635156e-01 -1.417681e+00 -4.864134e-02 1.287812e-01 3.572069e-02 1.301247e-01 -7.139333e-02 4.143886e-02 -4.973799e-02 -4.832408e-02 -1.414153e-01 -5.062453e-02 1.302596e-01 2.177189e-02 -1.117149e-01
<VARIANCE> 39
 2.028940e+01 5.557461e+01 3.854799e+01 6.310331e+01 9.594994e+01 7.704418e+01 5.877657e+01 5.767795e+01 6.869476e+01 6.376132e+01 7.126462e+01 6.659174e+01 6.828897e+01 7.441630e-01 2.425366e+00 1.671834e+00 2.544518e+00 2.847142e+00 2.720871e+00 2.764119e+00 3.158556e+00 3.036400e+00 2.500101e+00 2.723676e+00 2.205703e+00 2.331176e+00 1.023365e-01 2.998646e-01 2.214403e-01 4.210801e-01 4.373231e-01 4.114708e-01 4.216282e-01 5.620781e-01 5.025151e-01 4.780061e-01 4.395030e-01 3.666216e-01 2.487332e-01
<GCONST> 1.218765e+02
<TRANSP> 5
 0.000000e+00 1.000000e+00 0.000000e+00 0.000000e+00 0.000000e+00
 0.000000e+00 4.250270e-01 5.749730e-01 0.000000e+00 0.000000e+00
 0.000000e+00 0.000000e+00 7.114229e-01 2.885771e-01 0.000000e+00
 0.000000e+00 0.000000e+00 0.000000e+00 7.140658e-01 2.859342e-01
 0.000000e+00 0.000000e+00 0.000000e+00 0.000000e+00 0.000000e+00
<ENDHMM>
~h "ax"
<BEGINHMM>
<NUMSTATES> 5
<STATE> 2
<MEAN> 39
 2.413651e+00 -5.442834e+00 1.313351e+00 -5.691193e+00 -1.199294e+00 -6.495640e+00 -4.339931e+00 -3.821143e+00 -4.827623e+00 3.342010e+00 -4.808937e+00 -7.327006e-01 6.284815e+01 1.462965e+00 -1.515991e+00 -1.641888e-02 -1.402849e+00 -3.258873e-01 -4.403610e-01 -8.567391e-01 -4.446820e-01 -1.688377e-01 1.802852e+00 -1.995279e-01 -5.130946e-01 2.085416e+00 -2.696588e-01 5.149539e-02 -1.531046e-02 1.539997e-01 6.161809e-02 1.298052e-01 -6.406860e-02 1.280001e-01 1.378755e-01 -1.233234e-01 -1.141294e-01 -9.912964e-02 -2.217260e-01
<VARIANCE> 39
 2.334353e+01 3.295044e+01 1.458187e+02 1.045450e+02 7.910950e+01 9.098076e+01 8.708636e+01 1.027537e+02 1.274259e+02 5.869779e+01 8.671178e+01 4.882999e+01 3.470282e+01 4.448088e+00 4.313589e+00 6.129882e+00 9.936291e+00 9.043681e+00 7.211336e+00 8.361625e+00 5.893147e+00 7.519686e+00 7.142266e+00 4.573989e+00 3.741679e+00 9.673667e+00 4.864563e-01 5.689701e-01 8.139079e-01 1.383454e+00 8.373180e-01 9.096997e-01 9.714732e-01 1.066971e+00 8.652656e-01 8.989259e-01 7.140142e-01 5.139301e-01 9.014286e-01
<GCONST> 1.482249e+02
<STATE> 3
<MEAN> 39
 4.225620e+00 -1.203440e+01 -5.877170e+00 -1.092339e+01 -1.327061e+00 -3.048094e+00 -9.612120e+00 -8.872193e+00 2.441305e+00 8.664595e+00 -1.916218e+00 -7.101086e+00 6.938787e+01 6.080068e-01 -1.192861e+00 1.681570e-01 -3.824399e-01 1.842621e-01 -2.005324e-01 -7.602610e-01 1.574259e-01 5.828153e-01 6.688864e-01 -9.868705e-01 -8.215542e-01 1.332347e+00 -7.331953e-01 7.950705e-01 1.937005e-01 7.422366e-01 2.783304e-01 -7.702556e-02 6.093418e-01 2.444927e-01 -1.302273e-01 -8.697461e-01 -1.250040e-01 3.277646e-01 -8.494105e-01
<VARIANCE> 39
 1.296633e+01 3.185796e+01 4.544847e+01 6.308945e+01 8.948356e+01 9.188970e+01 7.234841e+01 8.427568e+01 1.301465e+02 7.776722e+01 7.001032e+01 4.765268e+01 2.213452e+01 2.076224e+00 3.807805e+00 2.888340e+00 4.826895e+00 4.974326e+00 5.655237e+00 4.853405e+00 3.990259e+00 4.642539e+00 4.792078e+00 3.561852e+00 3.368626e+00 5.104894e+00 4.190224e-01 5.046885e-01 4.962546e-01 5.592789e-01 9.286392e-01 6.445041e-01 8.821656e-01 9.850662e-01 1.002046e+00 7.577432e-01 8.635268e-01 6.865476e-01 5.580009e-01
<GCONST> 1.371738e+02
<STATE> 4
<MEAN> 39
 3.233143e+00 -9.789115e+00 -4.659286e+00 -8.133921e+00 3.460293e+00 -7.677808e+00 -6.918226e+00 -5.012830e+00 2.736188e+00 6.770025e+00 -6.451736e+00 -4.297261e+00 6.860587e+01 -1.301170e+00 1.747185e+00 -1.588034e-02 1.459548e+00 7.048562e-01 -4.855158e-01 8.645353e-01 -1.837115e-01 4.789555e-01 -1.388958e+00 1.846150e-01 2.629969e-01 -7.142932e-01 -7.786966e-01 8.683562e-01 -2.068953e-02 5.615962e-01 -6.442331e-02 2.976169e-01 6.143503e-01 -2.071146e-01 1.980093e-02 -5.783292e-01 6.046298e-01 7.038625e-02 -7.752882e-01
<VARIANCE> 39
 1.285483e+01 5.269707e+01 3.992118e+01 7.976942e+01 1.315771e+02 1.035085e+02 7.338384e+01 8.778011e+01 1.054841e+02 8.006565e+01 6.297374e+01 6.745077e+01 3.112619e+01 3.794340e+00 6.156224e+00 2.574122e+00 4.434229e+00 3.377496e+00 4.033346e+00 6.629401e+00 4.512502e+00 4.020112e+00 4.456995e+00 5.726717e+00 3.125790e+00 2.510335e+00 6.775433e-01 1.027281e+00 4.793496e-01 1.009996e+00 9.461869e-01 7.032902e-01 1.185210e+00 7.296563e-01 7.063134e-01 1.094274e+00 9.948184e-01 7.846832e-01 8.945852e-01
<GCONST> 1.414149e+02
<TRANSP> 5
 0.000000e+00 1.000000e+00 0.000000e+00 0.000000e+00 0.000000e+00
 0.000000e+00 4.967326e-01 5.032674e-01 0.000000e+00 0.000000e+00
 0.000000e+00 0.000000e+00 5.393476e-01 4.606524e-01 0.000000e+00
 0.000000e+00 0.000000e+00 0.000000e+00 4.779722e-01 5.220278e-01
 0.000000e+00 0.000000e+00 0.000000e+00 0.000000e+00 0.000000e+00
<ENDHMM>
~h "ay"
<BEGINHMM>
<NUMSTATES> 5
<STATE> 2
<MEAN> 39
 -1.087464e+01 -2.159646e-01 -4.481640e+00 4.998501e+00 5.755836e+00 -6.656759e+00 5.205764e+00 -1.167672e-01 3.570494e+00 -1.272120e+00 -2.064449e+00 -1.172087e+00 6.133828e+01 -6.005685e-01 -8.987841e-02 -5.893138e-02 2.825064e-02 1.767448e-01 -4.288018e-01 7.916510e-01 -9.744858e-03 5.510831e-02 3.303366e-02 1.988937e-01 -2.330580e-01 8.026711e-01 2.595932e-01 -1.219934e-01 7.745732e-02 -1.405474e-01 -1.417340e-01 4.698148e-03 -1.846076e-01 1.164053e-02 9.143629e-02 -6.637654e-03 7.733005e-02 7.561856e-03 -4.157238e-02
<VARIANCE> 39
 6.143984e+01 8.273235e+01 2.827144e+01 1.354409e+02 5.182168e+01 3.022566e+01 4.150336e+01 3.373665e+01 4.490396e+01 2.639052e+01 4.274802e+01 2.485355e+01 6.230862e+01 3.462554e+00 1.578386e+00 3.058285e+00 3.138366e+00 3.780464e+00 3.564003e+00 2.271591e+00 2.223371e+00 1.517565e+00 2.163630e+00 1.960092e+00 1.604820e+00 4.097118e+00 4.719549e-01 4.080629e-01 3.420413e-01 4.777471e-01 5.106179e-01 5.773793e-01 4.315456e-01 3.861888e-01 3.161593e-01 3.975714e-01 3.803443e-01 3.311097e-01 2.347348e-01
<GCONST> 1.210984e+02
<STATE> 3
<MEAN> 39
 -1.466746e+01 -1.914557e+00 -2.785939e+00 -4.221816e+00 7.660091e+00 -8.691101e+00 3.343199e+00 -1.447928e+00 8.266473e-01 -2.430081e+00 -3.183698e+00 -4.563561e+00 5.951442e+01 1.419581e+00 -1.313298e+00 5.644981e-01 -1.133290e+00 -6.091026e-01 1.244148e-01 1.657073e-01 -2.360133e-01 6.072693e-01 5.756708e-01 3.627567e-01 -8.996891e-01 1.908637e+00 9.152783e-01 -4.315810e-01 -6.027771e-01 -6.677812e-02 -6.972777e-01 6.293763e-01 -3.145440e-01 -1.250858e-01 -3.488994e-02 4.372954e-01 -2.376708e-01 -1.254700e-01 -1.426253e-01
<VARIANCE> 39
 1.119292e+02 1.064491e+02 3.897036e+01 1.363842e+02 9.250526e+01 4.981120e+01 5.367208e+01 3.325749e+01 9.929430e+01 3.791582e+01 4.448047e+01 5.089002e+01 1.105670e+02 8.413842e+00 1.903840e+00 3.161777e+00 2.685733e+00 4.291780e+00 4.665853e+00 4.073995e+00 3.348624e+00 2.774851e+00 3.476368e+00 3.736688e+00 2.122944e+00 4.920714e+00 1.128282e+00 4.549344e-01 7.464983e-01 6.294263e-01 9.110612e-01 9.265314e-01 5.469785e-01 5.386015e-01 7.952172e-01 7.452303e-01 7.037228e-01 4.185551e-01 6.322429e-01
<GCONST> 1.376638e+02
<STATE> 4
<MEAN> 39
 4.826249e-01 -1.066071e+01 3.477844e+00 -7.936738e+00 -5.041581e+00 -1.328166e+01 2.415582e+00 2.211555e+00 -2.794737e+00 3.550046e+00 -6.671943e+00 -1.185703e+00 7.004653e+01 6.753341e-01 -6.431084e-01 -6.963078e-02 -3.593755e-01 -6.161953e-01 -6.100839e-02 -1.729223e-01 2.183598e-01 -3.015474e-01 4.055535e-01 -3.535118e-01 -9.631288e-02 4.616380e-01 -8.945360e-02 1.939634e-02 -1.145897e-01 7.691492e-02 1.740543e-01 8.637641e-02 -2.139469e-02 -4.233173e-02 6.718607e-02 -3.614825e-02 -1.225069e-01 -1.222517e-02 -2.515360e-02
<VARIANCE> 39
 2.861535e+01 3.046850e+01 1.214544e+02 1.091224e+02 1.046627e+02 7.238123e+01 7.197015e+01 5.090015e+01 5.241920e+01 4.010842e+01 5.548703e+01 5.895710e+01 2.965172e+01 3.966308e+00 3.543293e+00 6.700195e+00 1.840025e+00 4.352583e+00 3.361667e+00 3.379171e+00 3.055172e+00 3.429981e+00 3.696020e+00 5.678252e+00 2.076172e+00 1.311668e+00 3.916606e-01 2.815273e-01 5.621998e-01 2.854508e-01 3.794493e-01 5.524984e-01 5.183222e-01 5.484119e-01 5.181476e-01 5.305000e-01 6.979611e-01 3.073398e-01 1.180232e-01
<GCONST> 1.278403e+02
<TRANSP> 5
 0.000000e+00 1.000000e+00 0.000000e+00 0.000000e+00 0.000000e+00
 0.000000e+00 6.648595e-01 3.351405e-01 0.000000e+00 0.000000e+00
 0.000000e+00 0.000000e+00 4.913551e-01 5.086449e-01 0.000000e+00
 0.000000e+00 0.000000e+00 0.000000e+00 9.179853e-01 8.201467e-02
 0.000000e+00 0.000000e+00 0.000000e+00 0.000000e+00 0.000000e+00
<ENDHMM>
~h "eh"
<BEGINHMM>
<NUMSTATES> 5
<STATE> 2
<MEAN> 39
 2.599508e+00 -2.274282e+00 6.026351e+00 4.915453e+00 -6.509821e+00 -1.131041e+01 -1.229477e+01 -8.424136e-01 -1.466155e+00 -4.376141e-01 -5.896432e+00 -1.626608e+00 5.879340e+01 9.417622e-02 -1.007365e+00 4.837732e-01 -9.104179e-01 -1.213259e+00 -5.968453e-01 -2.866584e-01 9.724777e-01 -6.478381e-01 -1.099709e-01 7.727146e-01 3.182119e-01 1.105573e+00 2.043999e-03 -1.699366e-01 -1.049245e-01 -2.310092e-01 1.423422e-01 7.836983e-02 2.697127e-01 -9.833523e-03 -7.783933e-02 1.613371e-01 5.499953e-02 -1.027319e-01 1.837076e-01
<VARIANCE> 39
 9.158298e+00 1.816994e+02 1.894572e+01 8.676347e+01 9.614520e+01 6.626118e+01 2.757355e+01 1.322749e+02 6.362289e+01 3.432777e+01 4.803971e+01 6.426582e+01 1.288371e+02 7.452175e-01 1.545815e+01 1.455243e+00 1.104840e+01 6.769226e+00 4.224684e+00 2.878351e+00 6.109219e+00 4.272678e+00 3.266421e+00 5.160920e+00 3.930534e+00 9.825864e+00 1.465639e-01 2.216141e+00 2.715054e-01 1.398827e+00 1.056375e+00 6.977334e-01 5.350843e-01 1.131792e+00 8.059103e-01 3.591891e-01 8.278118e-01 7.369890e-01 1.286756e+00
<GCONST> 1.390344e+02
<STATE> 3
<MEAN> 39
 3.267050e+00 -1.375555e+01 2.633536e+00 -5.359975e+00 -7.776567e+00 -9.445709e+00 -1.196164e+01 -2.706434e+00 7.122103e-02 1.439310e+00 -1.641529e-02 -6.975490e+00 7.036440e+01 1.865830e-01 4.920476e-01 -5.963287e-01 -3.838253e-01 8.019597e-01 7.726818e-01 -4.480220e-02 -8.951666e-01 -7.393584e-02 3.842670e-01 -1.155978e-02 -1.593962e-01 -2.306563e-01 3.034740e-03 2.912849e-01 -6.770621e-02 8.236077e-02 8.011187e-02 7.837027e-02 3.626771e-02 -1.066080e-01 -9.270550e-02 -9.222664e-02 -1.131312e-01 1.128626e-01 -2.137495e-01
<VARIANCE> 39
 9.074810e+00 2.034449e+01 2.910260e+01 4.546482e+01 7.141863e+01 7.716200e+01 5.307173e+01 1.357846e+02 6.183391e+01 5.091650e+01 4.284969e+01 6.129005e+01 5.374227e+00 2.070958e-01 1.452318e+00 1.549347e+00 2.138310e+00 2.449076e+00 1.396569e+00 3.571988e+00 4.420404e+00 2.392635e+00 2.313433e+00 2.978987e+00 2.873730e+00 5.570974e-01 4.397963e-02 2.681810e-01 2.841170e-01 4.981422e-01 5.564150e-01 3.235021e-01 5.761238e-01 6.753232e-01 4.564103e-01 4.820479e-01 6.840261e-01 3.994711e-01 1.524294e-01
<GCONST> 1.127022e+02
<STATE> 4
<MEAN> 39
 1.934830e+00 -1.059480e+00 -2.219631e+00 -7.814394e+00 1.482185e+00 -8.327464e-01 -1.066672e+01 -1.041785e+01 -4.253137e+00 2.327912e+00 1.400622e+00 -3.358024e-01 6.071306e+01 -9.579051e-01 1.211663e+00 -3.297477e-02 3.624500e-01 6.800394e-01 2.322753e-01 8.046663e-01 -2.140142e-01 2.131517e-01 -5.816783e-01 -1.226689e-01 4.030691e-01 -1.180095e+00 -1.571564e-01 -3.239297e-01 2.313036e-01 -3.281186e-02 -9.402262e-02 -1.504120e-02 -1.120702e-01 1.511931e-02 9.523064e-02 1.484243e-01 1.399510e-01 -1.547476e-02 1.715621e-01
<VARIANCE> 39
 4.850803e+01 4.228593e+01 1.610769e+01 2.490952e+01 7.005619e+01 1.039999e+02 2.099210e+01 5.676091e+01 5.252933e+01 9.924171e+01 1.045058e+02 1.765072e+01 1.877685e+01 2.382083e+00 2.789879e+00 2.667192e+00 2.613520e+00 1.755296e+00 5.928664e+00 2.594637e+00 5.844775e+00 4.573828e+00 5.209268e+00 4.450221e+00 2.310477e+00 2.141855e+00 2.069703e-01 2.645320e-01 3.320359e-01 4.432966e-01 2.799383e-01 8.478608e-01 2.699937e-01 8.712964e-01 7.803163e-01 8.627408e-01 8.222283e-01 5.508078e-01 1.951769e-01
<GCONST> 1.249182e+02
<TRANSP> 5
 0.000000e+00 1.000000e+00 0.000000e+00 0.000000e+00 0.000000e+00
 0.000000e+00 8.643900e-01 1.356100e-01 0.000000e+00 0.000000e+00
 0.000000e+00 0.000000e+00 9.282081e-01 7.179189e-02 0.000000e+00
 0.000000e+00 0.000000e+00 0.000000e+00 8.145421e-01 1.854579e-01
 0.000000e+00 0.000000e+00 0.000000e+00 0.000000e+00 0.000000e+00
<ENDHMM>
~h "hh"
<BEGINHMM>
<NUMSTATES> 5
<STATE> 2
<MEAN> 39
 2.716813e+00 -9.108000e+00 -2.354356e-01 -5.478004e+00 2.771145e+00 -1.411326e+01 -3.683964e+00 2.185347e+00 2.598098e+00 1.169871e+00 -1.482097e+01 2.419959e+00 6.466213e+01 3.660750e-02 -1.302040e-01 3.282262e-01 -8.527217e-02 -6.362983e-01 -7.066716e-02 -5.881810e-01 1.839221e-01 -3.088106e-02 -1.042608e-01 3.184716e-01 1.508515e-01 1.091717e-01 5.845638e-02 -3.106644e-01 -8.275601e-02 -2.446660e-01 -4.680198e-02 2.275744e-01 7.792012e-02 -8.297243e-02 1.115525e-01 1.431189e-01 -1.020733e-02 -2.234860e-01 2.455919e-01
<VARIANCE> 39
 1.022835e+01 6.830843e+01 4.283659e+01 1.466040e+02 7.246731e+01 1.506082e+02 6.144943e+01 1.304557e+02 4.474629e+01 4.384270e+01 2.903858e+01 7.292725e+01 6.957890e+01 3.098961e-01 6.174354e+00 1.370654e+00 2.167798e+01 3.530282e+00 3.654157e+00 6.320526e+00 3.897263e+00 3.402735e+00 2.928005e+00 1.809994e+00 4.817060e+00 6.923811e+00 6.088874e-02 9.569277e-01 2.564713e-01 3.416988e+00 5.275040e-01 5.377614e-01 9.539753e-01 6.268162e-01 6.253315e-01 6.124472e-01 3.455523e-01 1.042853e+00 1.087947e+00
<GCONST> 1.342969e+02
<STATE> 3
<MEAN> 39
 5.884498e+00 -1.856851e+01 -3.471868e+00 -1.269740e+01 -5.923574e+00 -2.919852e+00 -4.078421e+00 -5.744817e+00 3.066144e+00 6.627796e+00 -1.257054e+01 -4.982184e+00 7.212813e+01 -4.226127e-02 -6.758938e-01 -2.583578e-01 -6.262909e-01 1.093309e+00 -8.185398e-02 8.081428e-01 6.005774e-01 -2.926580e-01 6.347652e-02 -5.144094e-01 -4.814960e-01 7.052180e-01 -4.735810e-02 1.695281e-01 -1.294729e-01 1.648748e-01 3.408785e-01 -2.632355e-02 1.014848e-01 7.579327e-02 -1.556425e-01 -5.051852e-02 -1.104346e-01 8.466291e-02 -1.383368e-01
<VARIANCE> 39
 1.607419e+01 1.390872e+01 2.296576e+01 3.285732e+01 8.485031e+01 6.206797e+01 4.949189e+01 1.278587e+02 6.806087e+01 8.352240e+01 3.710566e+01 3.116688e+01 9.845152e+00 2.816165e-01 9.175022e-01 7.537293e-01 1.312443e+00 3.727365e+00 2.269668e+00 2.442333e+00 3.854646e+00 2.719689e+00 1.505092e+00 1.832898e+00 1.830160e+00 5.773049e-01 5.105892e-02 1.753846e-01 1.031677e-01 2.429198e-01 7.375566e-01 3.639299e-01 5.916240e-01 7.267935e-01 5.034372e-01 2.674097e-01 3.345613e-01 2.934723e-01 8.410368e-02
<GCONST> 1.067412e+02
<STATE> 4
<MEAN> 39
 1.950620e+00 -1.868997e+01 -7.526331e+00 -9.075066e+00 5.993543e+00 -1.540262e+00 1.231802e+00 -4.573411e+00 3.915908e+00 2.837827e+00 -1.448303e+01 -5.223992e+00 7.296408e+01 -6.270298e-03 1.234908e-02 -1.292181e-01 1.299209e-01 1.970389e-01 1.605757e-01 1.220583e-01 -2.508492e-01 -4.331041e-02 6.069765e-02 -2.277512e-02 1.177702e-02 -2.657793e-02 6.734266e-03 3.283819e-02 3.697010e-02 2.122554e-02 -6.118572e-02 -3.272332e-02 -3.298373e-02 2.299010e-02 8.082406e-03 -7.430839e-03 2.586210e-02 1.680318e-02 -2.692568e-02
<VARIANCE> 39
 8.666706e+00 2.439764e+01 3.846606e+01 4.327198e+01 9.181586e+01 4.641852e+01 7.782252e+01 7.006838e+01 8.372070e+01 4.912730e+01 5.439966e+01 5.318214e+01 2.141273e+01 2.361897e-01 6.229843e-01 6.208062e-01 1.671528e+00 1.273343e+00 1.459030e+00 1.295031e+00 1.378309e+00 1.220032e+00 1.218260e+00 9.945219e-01 1.181624e+00 4.247523e-01 3.541160e-02 1.184786e-01 1.022320e-01 2.159824e-01 1.845420e-01 2.134847e-01 1.974226e-01 2.209823e-01 2.262954e-01 2.200092e-01 1.865021e-01 1.875802e-01 6.001879e-02
<GCONST> 9.496783e+01
<TRANSP> 5
 0.000000e+00 1.000000e+00 0.000000e+00 0.000000e+00 0.000000e+00
 0.000000e+00 6.976566e-01 3.023433e-01 0.000000e+00 0.000000e+00
 0.000000e+00 0.000000e+00 6.529983e-01 3.470017e-01 0.000000e+00
 0.000000e+00 0.000000e+00 0.000000e+00 9.611470e-01 3.885305e-02
 0.000000e+00 0.000000e+00 0.000000e+00 0.000000e+00 0.000000e+00
<ENDHMM>
~h "ih"
<BEGINHMM>
<NUMSTATES> 5
<STATE> 2
<MEAN> 39
 2.333454e+00 1.632328e-01 4.714769e+00 -2.091231e+00 -1.105877e+01 -3.531526e+00 -6.995840e+00 -8.518406e+00 -9.131825e+00 -1.164310e+00 -1.849805e-01 -3.753649e+00 5.770980e+01 -5.704352e-01 -2.731229e-01 1.850985e+00 -7.710025e-01 -1.583659e+00 1.397298e-01 2.944562e-01 5.278900e-01 -7.158932e-01 -5.694975e-01 7.025830e-01 1.094573e-01 3.602774e-01 -1.610895e-01 8.208055e-02 -1.834433e-02 -4.843149e-02 1.319442e-01 3.098168e-01 1.428794e-01 -9.306506e-02 -7.607420e-03 8.782359e-02 -1.063424e-01 -9.143961e-02 -1.263158e-01
<VARIANCE> 39
 5.591401e+01 1.825192e+02 1.480410e+02 1.047307e+02 6.947434e+01 1.250728e+02 7.339214e+01 6.569176e+01 1.075919e+02 9.494765e+01 9.578170e+01 4.505957e+01 1.480942e+02 2.220083e+00 4.327125e+00 7.223557e+00 8.307415e+00 6.585593e+00 4.834981e+00 6.166691e+00 4.193104e+00 3.602807e+00 4.893997e+00 5.516047e+00 2.742907e+00 2.026736e+00 3.026669e-01 7.762203e-01 1.083474e+00 1.410573e+00 1.127901e+00 8.063789e-01 7.711474e-01 7.501868e-01 5.465943e-01 7.039551e-01 8.818578e-01 4.252367e-01 4.277886e-01
<GCONST> 1.456186e+02
<STATE> 3
<MEAN> 39
 -1.261127e+00 -7.644698e+00 1.459268e+01 -4.495938e+00 -1.845154e+01 -8.219998e+00 -8.748848e+00 -6.440125e+00 -1.109090e+01 -1.620821e+00 7.341389e+00 -7.059682e+00 6.645284e+01 -1.752380e-01 6.231069e-01 -4.054229e-02 -4.240397e-02 4.399123e-01 4.633158e-01 4.501151e-01 1.513019e-01 1.489823e-01 2.525270e-01 -5.756639e-01 -1.777894e-01 -4.664769e-01 8.976497e-02 1.145586e-01 -7.187416e-01 2.685347e-01 6.713123e-01 -4.499632e-02 1.693374e-01 3.791365e-02 4.146091e-01 5.753485e-02 -4.568480e-01 1.171902e-01 -2.549019e-01
<VARIANCE> 39
 1.849115e+01 7.144678e+01 7.164309e+01 8.640669e+01 7.049346e+01 1.014869e+02 4.259587e+01 6.375909e+01 8.768881e+01 7.942303e+01 6.808064e+01 5.751851e+01 3.193320e+01 6.210448e-01 1.323138e+00 3.608037e+00 1.697441e+00 3.785825e+00 2.876932e+00 2.631577e+00 2.808781e+00 2.755427e+00 2.087884e+00 3.902076e+00 2.206275e+00 6.340839e-01 1.061487e-01 2.165997e-01 3.313825e-01 4.056844e-01 5.247411e-01 5.988424e-01 5.846998e-01 5.791717e-01 3.940541e-01 4.323083e-01 5.806207e-01 3.855719e-01 1.146585e-01
<GCONST> 1.209607e+02
<STATE> 4
<MEAN> 39
 -3.458752e+00 -2.988106e+00 2.363452e+00 -6.582476e+00 -6.588001e+00 -2.143274e+00 -5.974973e+00 -8.183198e+00 -6.156501e+00 -2.071515e+00 3.577276e-01 -4.458119e+00 5.908921e+01 -2.025034e-01 4.415310e-01 -8.050482e-01 6.097464e-01 1.015482e+00 2.930883e-02 1.440837e-01 -3.580613e-02 5.344826e-01 7.540596e-02 -8.761905e-01 3.156905e-02 -8.486429e-01 -2.983464e-02 -8.768097e-02 5.932174e-02 2.291598e-02 -1.625550e-01 -1.463649e-02 8.915413e-03 -9.128919e-02 -1.369981e-01 -2.095491e-02 1.956961e-01 -3.601820e-02 7.047731e-02
<VARIANCE> 39
 6.288723e+01 5.331736e+01 9.544487e+01 1.052835e+02 5.489900e+01 8.300478e+01 4.820410e+01 7.461851e+01 7.448922e+01 4.084203e+01 5.235344e+01 3.049503e+01 7.620838e+01 9.593903e-01 1.225157e+00 1.916471e+00 1.620500e+00 2.995342e+00 2.895683e+00 2.604862e+00 2.026559e+00 2.370390e+00 2.195750e+00 2.599919e+00 1.559299e+00 5.802284e-01 9.011874e-02 1.667843e-01 2.125860e-01 2.655574e-01 3.570381e-01 4.678918e-01 4.563567e-01 4.310070e-01 3.821946e-01 3.100249e-01 4.025601e-01 2.609832e-01 1.240329e-01
<GCONST> 1.160145e+02
<TRANSP> 5
 0.000000e+00 1.000000e+00 0.000000e+00 0.000000e+00 0.000000e+00
 0.000000e+00 7.261983e-01 2.738017e-01 0.000000e+00 0.000000e+00
 0.000000e+00 0.000000e+00 7.709489e-01 2.290511e-01 0.000000e+00
 0.000000e+00 0.000000e+00 0.000000e+00 7.787201e-01 2.212799e-01
 0.000000e+00 0.000000e+00 0.000000e+00 0.000000e+00 0.000000e+00
<ENDHMM>
~h "iy"
<BEGINHMM>
<NUMSTATES> 5
<STATE> 2
<MEAN> 39
 1.351961e+00 -1.190956e+01 1.352551e+01 -5.348230e+00 -1.535785e+01 -1.294700e+01 -7.268744e+00 -4.589743e+00 -9.596304e+00 2.902400e+00 1.544980e+00 -1.682233e+00 6.938486e+01 -4.774239e-01 5.920463e-01 1.837196e+00 -1.960534e-01 -9.963495e-01 -2.890283e-01 1.199695e-01 -5.115179e-01 -2.091004e+00 1.465811e-01 1.406490e+00 -2.809645e-01 9.402373e-02 -1.407201e-02 1.120685e-01 -3.432303e-01 -4.624583e-02 2.781079e-01 2.526951e-01 6.974954e-02 -1.083571e-01 2.178384e-01 8.899923e-03 -2.051910e-01 -1.402560e-01 -1.068548e-01
<VARIANCE> 39
 1.086705e+01 3.826827e+01 7.413474e+01 4.133474e+01 4.108469e+01 2.624234e+01 3.262752e+01 4.553549e+01 1.441440e+02 9.790293e+01 7.294732e+01 5.630446e+01 1.393408e+01 4.118743e-01 1.177251e+00 2.226827e+00 1.499757e+00 3.076325e+00 2.398417e+00 1.655634e+00 2.371155e+00 3.128173e+00 1.990953e+00 3.658412e+00 1.960147e+00 5.594054e-01 6.946804e-02 1.830385e-01 1.404748e-01 2.669916e-01 4.765822e-01 4.359843e-01 3.102874e-01 4.609621e-01 4.838149e-01 3.512594e-01 4.388218e-01 3.559851e-01 1.068894e-01
<GCONST> 1.105689e+02
<STATE> 3
<MEAN> 39
 -2.756902e+00 -1.085489e+01 1.675974e+01 -2.143517e+00 -2.374115e+01 -1.171804e+01 -1.233996e+01 -9.883533e+00 -1.018609e+01 -4.411088e+00 1.386367e+01 -3.729117e+00 6.833312e+01 -3.315288e-03 2.594561e-01 -9.842084e-02 3.246676e-01 9.300032e-02 -7.334694e-02 6.404942e-03 4.735834e-02 3.220943e-03 -6.841002e-02 -5.361828e-02 1.635150e-01 -3.338712e-01 1.744985e-02 2.918306e-02 -2.667809e-01 1.159576e-01 2.741407e-01 -3.648639e-02 1.082483e-01 1.319395e-01 2.496142e-01 -1.372247e-02 -2.457143e-01 1.088116e-01 -7.706843e-02
<VARIANCE> 39
 8.913355e+00 4.990181e+01 2.335333e+01 2.446244e+01 4.183956e+01 1.721576e+01 3.889280e+01 4.598057e+01 5.187376e+01 7.974579e+01 8.380797e+01 8.232233e+01 8.623368e+00 1.678565e-01 6.566584e-01 1.164885e+00 8.306005e-01 1.095876e+00 9.523029e-01 9.384051e-01 1.731201e+00 1.566900e+00 1.189481e+00 1.914357e+00 9.377525e-01 2.811036e-01 3.714112e-02 1.097167e-01 1.147565e-01 1.145585e-01 2.515481e-01 1.778595e-01 2.046124e-01 2.426653e-01 2.379341e-01 2.243508e-01 2.429457e-01 1.886455e-01 4.799477e-02
<GCONST> 9.074722e+01
<STATE> 4
<MEAN> 39
 -2.017374e+00 -3.982908e+00 1.207059e+01 -9.638605e-01 -1.215008e+01 -1.200561e+01 -3.953798e+00 -5.432580e+00 -9.451781e+00 7.317261e-01 -2.973151e-02 -7.761642e-02 6.187406e+01 -8.443159e-01 1.286456e+00 -2.294111e+00 5.481802e-01 2.204999e+00 4.565375e-01 9.319952e-01 1.415745e-01 1.889336e+00 -5.767028e-01 -4.483872e-01 2.170357e-01 -1.055759e+00 -2.498719e-01 -1.535246e-02 -1.531571e-01 -1.942361e-01 1.992268e-01 1.814425e-01 7.987671e-03 -5.651096e-02 8.529755e-02 -8.363265e-02 2.323506e-01 -1.409711e-01 8.521133e-02
<VARIANCE> 39
 3.012196e+01 8.836111e+01 9.796976e+01 6.220278e+01 6.557504e+01 5.816067e+01 8.177985e+01 5.740080e+01 8.843855e+01 5.480096e+01 8.597041e+01 4.654909e+01 5.544638e+01 2.889259e+00 4.153335e+00 3.259542e+00 4.212422e+00 5.780058e+00 3.908401e+00 6.455204e+00 3.585656e+00 5.240410e+00 3.938292e+00 5.030141e+00 3.644905e+00 2.635899e+00 2.850310e-01 6.147506e-01 5.076286e-01 5.845280e-01 7.034962e-01 5.907124e-01 8.400933e-01 6.669173e-01 8.905508e-01 4.928539e-01 6.489858e-01 4.630480e-01 2.906959e-01
<GCONST> 1.363691e+02
<TRANSP> 5
 0.000000e+00 1.000000e+00 0.000000e+00 0.000000e+00 0.000000e+00
 0.000000e+00 8.507750e-01 1.492250e-01 0.000000e+00 0.000000e+00
 0.000000e+00 0.000000e+00 8.650754e-01 1.349246e-01 0.000000e+00
 0.000000e+00 0.000000e+00 0.000000e+00 7.677465e-01 2.322535e-01
 0.000000e+00 0.000000e+00 0.000000e+00 0.000000e+00 0.000000e+00
<ENDHMM>
~h "ng"
<BEGINHMM>
<NUMSTATES> 5
<STATE> 2
<MEAN> 39
 7.581672e+00 -1.835535e+00 -1.743631e+01 3.983807e-01 -1.115332e+01 1.255583e+00 -3.816300e+00 2.333822e+00 3.265015e+00 -6.454386e+00 -4.230165e+00 6.448056e-01 6.232882e+01 -3.346078e-01 7.693210e-01 6.276245e-01 4.888017e-01 1.803987e-02 6.039962e-01 4.717727e-02 3.028926e-02 -1.833755e-01 1.635926e-01 2.037449e-01 1.475895e-01 -7.321861e-01 -8.136605e-02 -8.340877e-02 5.853765e-02 6.900470e-03 1.888312e-02 -1.460665e-02 5.953166e-02 -1.338615e-02 3.961546e-02 3.149211e-02 2.225252e-02 3.779219e-03 2.511313e-02
<VARIANCE> 39
 2.481563e+01 6.807762e+01 1.309175e+02 3.957454e+01 1.872902e+02 7.882400e+01 2.884069e+01 6.830158e+01 4.708728e+01 7.220751e+01 2.154230e+01 3.942267e+01 1.029284e+02 5.725769e-01 1.211141e+00 1.964055e+00 1.769249e+00 2.092495e+00 2.284804e+00 1.774999e+00 2.534683e+00 2.396358e+00 3.050054e+00 1.514790e+00 1.846075e+00 8.873699e-01 5.925715e-02 1.260402e-01 2.031216e-01 2.459446e-01 2.905636e-01 3.043868e-01 2.707759e-01 4.142357e-01 3.653896e-01 4.233860e-01 2.612903e-01 2.634927e-01 5.877545e-02
<GCONST> 1.113207e+02
<STATE> 3
<MEAN> 39
 -2.409685e+00 -9.977851e-03 -4.972590e+00 3.819706e+00 -2.003608e+00 4.247010e+00 -4.627913e+00 -2.938494e+00 -2.294663e+00 -2.872497e+00 -3.834800e+00 -3.211482e+00 5.054373e+01 -7.973341e-01 3.513995e-01 3.653945e-01 5.462473e-01 2.018069e-01 2.629007e-01 2.182392e-01 3.158858e-01 1.263300e-01 -6.799275e-02 2.383555e-01 2.404107e-01 -8.333266e-01 -8.586930e-03 -1.515945e-01 -1.557502e-01 -7.419408e-02 -3.986489e-02 -8.773631e-02 -2.060088e-02 2.059638e-02 2.716474e-02 7.316451e-02 -1.346915e-02 -8.085033e-02 5.134654e-02
<VARIANCE> 39
 2.370072e+01 8.985809e+01 4.321972e+01 4.735512e+01 6.098177e+01 6.696256e+01 4.355092e+01 2.416740e+01 2.502096e+01 2.200406e+01 2.113657e+01 2.672283e+01 8.884399e+01 5.048660e-01 6.520146e-01 8.848565e-01 8.128012e-01 1.191973e+00 1.274907e+00 1.111591e+00 1.117467e+00 1.170098e+00 1.091174e+00 1.230640e+00 9.433733e-01 1.719365e-01 2.717935e-02 9.358803e-02 1.052409e-01 1.597752e-01 1.783732e-01 2.493142e-01 1.961398e-01 1.759041e-01 2.135626e-01 1.849831e-01 2.174543e-01 1.594537e-01 1.468219e-02
<GCONST> 8.984694e+01
<STATE> 4
<MEAN> 39
 -1.378934e+01 4.931540e+00 -8.757594e+00 6.692511e+00 -3.063933e+00 6.200996e+00 -4.841435e+00 -1.496412e+00 -2.866395e+00 -5.787699e+00 -3.484277e+00 -4.391908e+00 3.395461e+01 -3.500056e-01 -2.897426e-01 -3.297319e-01 -2.566849e-01 -2.084448e-01 -9.537597e-02 9.229711e-02 5.613095e-02 1.256712e-01 1.423466e-01 1.305591e-02 -9.721961e-03 -2.200672e-01 6.135492e-02 1.185628e-02 -2.076726e-02 -3.140891e-02 6.520333e-03 -4.223168e-03 -2.230626e-02 -4.385397e-03 6.685639e-03 -3.361782e-03 1.191791e-02 1.913677e-02 4.778468e-02
<VARIANCE> 39
 4.254031e+01 3.993201e+01 7.661974e+01 6.489288e+01 6.445949e+01 5.684679e+01 7.445280e+01 7.052441e+01 4.776774e+01 3.142303e+01 3.287636e+01 2.852328e+01 9.306057e+01 8.232910e-01 1.348989e+00 2.064079e+00 1.795938e+00 2.607116e+00 3.059169e+00 2.462610e+00 2.727209e+00 2.482678e+00 1.881799e+00 1.684081e+00 1.345212e+00 3.877986e-01 9.486977e-02 1.975469e-01 4.135362e-01 3.172502e-01 4.881647e-01 5.995958e-01 4.626285e-01 5.161102e-01 4.694710e-01 3.327232e-01 3.368184e-01 2.752019e-01 5.300805e-02
<GCONST> 1.140563e+02
<TRANSP> 5
 0.000000e+00 1.000000e+00 0.000000e+00 0.000000e+00 0.000000e+00
 0.000000e+00 8.227573e-01 1.772427e-01 0.000000e+00 0.000000e+00
 0.000000e+00 0.000000e+00 8.550448e-01 1.449552e-01 0.000000e+00
 0.000000e+00 0.000000e+00 0.000000e+00 8.797655e-01 1.202345e-01
 0.000000e+00 0.000000e+00 0.000000e+00 0.000000e+00 0.000000e+00
<ENDHMM>
~h "oh"
<BEGINHMM>
<NUMSTATES> 5
<STATE> 2
<MEAN> 39
 6.534897e+00 -1.059986e+01 -1.027320e+01 -1.348428e+01 -1.038975e+01 3.773486e+00 -2.183922e+00 -7.800690e+00 -2.445279e+00 1.175183e+00 4.576632e-02 -5.674962e+00 7.009801e+01 1.455474e-02 -2.885998e-01 -1.184836e-01 1.884630e-01 1.213383e-01 8.231856e-02 5.229915e-02 -1.289568e-01 1.032312e-01 1.072157e-01 -1.451473e-01 -2.050041e-01 1.336201e-01 -2.470010e-02 1.822672e-03 6.309210e-02 7.674952e-02 2.241969e-02 -4.779577e-02 -3.805333e-02 6.094718e-02 -1.153728e-03 -2.936645e-02 -5.562995e-03 2.234106e-03 -6.719835e-03
<VARIANCE> 39
 1.212633e+01 3.636832e+01 3.622462e+01 2.600788e+02 1.596338e+02 7.870158e+01 5.729707e+01 5.966763e+01 9.115790e+01 1.045028e+02 9.133040e+01 1.140229e+02 1.889799e+01 7.255085e-01 1.037031e+00 2.103851e+00 2.594273e+00 2.145953e+00 3.166707e+00 2.302308e+00 2.544027e+00 2.780502e+00 3.314444e+00 1.935071e+00 2.412034e+00 9.445228e-01 1.139025e-01 1.403782e-01 2.870235e-01 3.184029e-01 3.626805e-01 4.737146e-01 3.635370e-01 4.407508e-01 5.304717e-01 5.645869e-01 3.788321e-01 4.193715e-01 1.301891e-01
<GCONST> 1.194402e+02
<STATE> 3
<MEAN> 39
 4.016380e+00 -1.834225e+01 -1.347682e+01 -1.138700e+01 -1.037154e+01 6.581106e+00 -6.072132e+00 -6.031699e+00 6.193115e+00 2.761018e-01 -3.082867e-01 -9.120836e+00 7.294516e+01 -2.772512e-05 -1.144713e-01 -9.458508e-02 1.552485e-01 2.486815e-01 -2.916220e-02 1.501363e-01 1.156797e-01 -1.120111e-01 7.485317e-02 -3.123245e-02 5.621757e-03 -5.668684e-02 5.517237e-03 2.988572e-02 2.418936e-02 5.555552e-02 -1.265263e-02 -2.808448e-02 2.493911e-03 2.924585e-03 3.241516e-03 -7.628385e-03 -8.800459e-03 2.453376e-02 -4.642956e-02
<VARIANCE> 39
 8.431481e+00 8.134150e+01 1.608013e+01 8.424375e+01 1.024090e+02 1.536509e+02 6.767880e+01 1.071684e+02 7.110277e+01 5.860656e+01 4.849374e+01 1.069400e+02 1.959534e+01 1.896634e-01 7.705793e-01 5.453025e-01 1.528364e+00 1.370562e+00 1.749197e+00 1.850061e+00 1.881359e+00 1.786041e+00 1.447081e+00 1.705953e+00 1.715691e+00 5.787005e-01 3.374823e-02 9.843964e-02 1.007059e-01 2.042270e-01 2.233262e-01 2.551808e-01 2.302508e-01 3.504121e-01 2.718110e-01 2.448269e-01 2.732119e-01 3.014352e-01 8.388714e-02
<GCONST> 1.026705e+02
<STATE> 4
<MEAN> 39
 5.931404e+00 -9.278127e+00 -1.007115e+01 7.947381e-01 -1.729982e+01 -4.586270e-01 -6.202578e+00 -5.763559e-01 3.155843e+00 -6.277933e+00 -4.919391e+00 -2.772012e+00 6.669415e+01 -2.247803e-01 2.220467e-01 2.567915e-02 2.169404e-01 2.615601e-01 1.613631e-01 9.013782e-02 1.670436e-01 9.621656e-02 1.381932e-01 -2.197578e-01 8.190054e-02 -4.956203e-01 -4.230522e-03 2.961758e-02 1.491539e-03 5.325323e-02 -3.501891e-02 6.029336e-03 -2.963995e-02 4.076225e-02 4.659518e-02 -1.096317e-02 6.838217e-04 3.245744e-02 -5.411212e-02
<VARIANCE> 39
 2.668382e+01 5.468216e+01 2.571034e+01 1.069468e+02 2.221201e+02 1.108422e+02 3.701035e+01 6.642718e+01 5.364830e+01 1.092806e+02 2.478467e+01 8.384007e+01 6.396931e+01 2.622611e-01 5.123869e-01 7.407190e-01 1.550128e+00 1.331310e+00 2.241943e+00 1.278661e+00 1.419138e+00 1.534986e+00 2.029589e+00 1.321543e+00 1.131832e+00 3.562382e-01 2.731974e-02 6.017626e-02 1.089023e-01 1.935698e-01 2.090554e-01 3.691748e-01 1.666678e-01 2.908286e-01 2.545945e-01 2.923330e-01 2.305997e-01 1.692191e-01 3.788850e-02
<GCONST> 1.006287e+02
<TRANSP> 5
 0.000000e+00 1.000000e+00 0.000000e+00 0.000000e+00 0.000000e+00
 0.000000e+00 9.122647e-01 8.773533e-02 0.000000e+00 0.000000e+00
 0.000000e+00 0.000000e+00 9.210072e-01 7.899277e-02 0.000000e+00
 0.000000e+00 0.000000e+00 0.000000e+00 7.803964e-01 2.196036e-01
 0.000000e+00 0.000000e+00 0.000000e+00 0.000000e+00 0.000000e+00
<ENDHMM>
~h "sp"
<BEGINHMM>
<NUMSTATES> 5
<STATE> 2
~s "silst"
<STATE> 3
<MEAN> 39
 -1.186620e+01 2.085470e+00 -3.854597e+00 4.160623e+00 7.289234e-01 2.555090e+00 -1.037488e+00 -3.709520e-01 1.127984e+00 -2.002021e+00 -6.028425e-01 -1.994913e+00 4.442840e+01 -4.197908e-02 1.447205e-02 -4.111520e-02 -4.932342e-02 -4.965575e-02 8.903673e-04 3.046971e-04 2.778618e-02 2.056339e-02 2.429461e-02 3.775641e-02 1.233096e-02 -1.438112e-01 3.312473e-02 -1.166440e-02 -2.481975e-02 -1.054016e-02 -1.853087e-03 -2.446878e-02 3.478519e-03 -5.275444e-03 -4.032734e-03 1.835467e-02 6.000200e-03 -4.156264e-03 3.319862e-02
<VARIANCE> 39
 4.794046e+01 1.681043e+01 2.511787e+01 2.295511e+01 3.140356e+01 2.530656e+01 3.513654e+01 1.836242e+01 2.018226e+01 1.738032e+01 1.908040e+01 1.404963e+01 1.443495e+02 2.684299e-01 5.272775e-01 5.342067e-01 7.797477e-01 9.534264e-01 1.153149e+00 1.126947e+00 1.187385e+00 1.166087e+00 1.049212e+00 1.065486e+00 1.020696e+00 1.768570e-01 4.269672e-02 1.022452e-01 1.075698e-01 1.520560e-01 1.895883e-01 2.174925e-01 2.254007e-01 2.457013e-01 2.262163e-01 2.175123e-01 2.099790e-01 1.997147e-01 2.999106e-02
<GCONST> 8.508640e+01
<STATE> 4
<MEAN> 39
 -1.683060e+01 3.447515e+00 -6.816577e+00 6.177123e+00 -2.517572e+00 5.260734e+00 -2.845558e+00 3.236207e-01 2.229049e-01 -2.635735e+00 -5.887364e-01 -1.711803e+00 3.411139e+01 4.323975e-02 -3.705937e-02 -6.202971e-02 -1.861414e-02 6.418587e-04 -3.715875e-02 3.478191e-02 3.416006e-02 6.382926e-03 7.168154e-02 5.327480e-02 6.476583e-03 2.684876e-02 5.672800e-02 -7.436266e-03 -8.769949e-03 -3.404462e-02 2.383671e-02 -3.600428e-02 -7.808366e-03 -1.406907e-02 -1.282125e-02 1.072919e-03 -1.850502e-02 2.089090e-02 7.335608e-02
<VARIANCE> 39
 5.729247e+01 2.227450e+01 3.504647e+01 2.688276e+01 3.700400e+01 3.799566e+01 4.399737e+01 4.061646e+01 3.838825e+01 3.316002e+01 2.989574e+01 2.226631e+01 1.383060e+02 4.940788e-01 1.114860e+00 1.341677e+00 1.244057e+00 1.582850e+00 2.060714e+00 1.858951e+00 1.912041e+00 1.870869e+00 1.789627e+00 1.561182e+00 1.488284e+00 4.259398e-01 1.193568e-01 2.087883e-01 2.514266e-01 2.388414e-01 3.236963e-01 4.005291e-01 3.440063e-01 3.298185e-01 3.173172e-01 3.325198e-01 2.834912e-01 2.783937e-01 1.152325e-01
<GCONST> 1.048847e+02
<TRANSP> 5
 0.000000e+00 7.000000e-01 3.000000e-01 0.000000e+00 0.000000e+00
 0.000000e+00 9.552153e-01 4.478472e-02 0.000000e+00 0.000000e+00
 0.000000e+00 0.000000e+00 7.511432e-01 2.488568e-01 0.000000e+00
 0.000000e+00 0.000000e+00 0.000000e+00 7.541329e-01 2.458671e-01
 0.000000e+00 0.000000e+00 0.000000e+00 0.000000e+00 0.000000e+00
<ENDHMM>
~h "uh"
<BEGINHMM>
<NUMSTATES> 5
<STATE> 2
<MEAN> 39
 -2.052868e+00 1.387094e+00 -4.689752e+00 -7.997382e+00 -8.109644e+00 3.975568e+00 -9.321009e+00 -7.335030e+00 -3.822348e+00 -2.684821e+00 1.883211e+00 -3.323918e+00 5.515692e+01 -4.115056e-01 2.949558e-01 7.741712e-03 4.682807e-01 5.970133e-03 1.021355e-01 4.843189e-01 3.153331e-01 1.695137e-01 -4.089023e-01 -3.909644e-03 1.357830e-01 -7.643164e-01 4.411433e-02 -8.836374e-02 1.299919e-02 -1.917636e-02 1.115108e-01 -6.432469e-02 -1.564006e-02 -6.348825e-02 3.511846e-03 5.332124e-02 -3.278927e-02 -1.255867e-02 8.799948e-02
<VARIANCE> 39
 1.114588e+02 7.257056e+01 2.280858e+01 1.450157e+02 5.019802e+01 5.610584e+01 5.962312e+01 6.422363e+01 6.257397e+01 4.813111e+01 4.274691e+01 4.096569e+01 3.076259e+02 9.409562e-01 1.041139e+00 9.898499e-01 2.506351e+00 1.949182e+00 1.722548e+00 2.291056e+00 1.846896e+00 1.663515e+00 2.310119e+00 1.702931e+00 1.663179e+00 1.161904e+00 2.335440e-01 1.539312e-01 2.322732e-01 4.179589e-01 3.706662e-01 3.230235e-01 4.074083e-01 3.582290e-01 3.454890e-01 3.818581e-01 3.341067e-01 3.060340e-01 2.997973e-01
<GCONST> 1.170440e+02
<STATE> 3
<MEAN> 39
 -8.201980e+00 2.435329e+00 -5.471161e+00 -2.105286e+00 -5.805073e+00 4.118092e+00 -5.658586e+00 -4.300829e+00 -1.903554e+00 -2.134761e+00 1.145612e+00 -2.044898e+00 4.614386e+01 1.061138e+00 8.109288e-02 -3.898346e-01 -7.175753e-01 -2.681807e-01 -1.949516e-01 -2.694058e-01 -7.922028e-01 -7.154000e-01 -2.725549e-01 -1.489888e-01 -2.325035e-02 8.052126e-01 5.807260e-01 -1.791864e-01 -5.283556e-02 -3.153854e-01 1.089308e-01 7.023466e-02 -1.375069e-01 -3.434799e-01 -1.916673e-01 8.225419e-02 4.544303e-02 -6.072525e-02 7.632800e-01
<VARIANCE> 39
 1.574938e+02 3.701904e+01 3.196049e+01 1.085398e+02 4.806353e+01 5.330574e+01 5.107408e+01 5.534130e+01 5.241050e+01 4.122616e+01 3.589968e+01 2.801256e+01 2.774761e+02 4.663787e+00 1.525512e+00 2.342212e+00 4.916003e+00 5.065487e+00 2.880029e+00 2.658782e+00 3.172340e+00 3.270891e+00 2.688883e+00 2.015066e+00 1.592043e+00 6.288417e+00 8.186222e-01 3.294979e-01 4.181990e-01 8.658395e-01 7.215846e-01 4.904212e-01 4.496557e-01 5.252836e-01 5.592368e-01 5.975770e-01 4.179660e-01 3.813976e-01 1.169868e+00
<GCONST> 1.313257e+02
<STATE> 4
<MEAN> 39
 1.080989e+00 -8.937327e-01 -5.636686e+00 -9.609831e+00 -6.266131e+00 4.666471e+00 -1.015083e+01 -1.083748e+01 -5.681607e+00 4.812144e-01 2.496870e+00 -3.628791e+00 5.879710e+01 8.652745e-01 -4.307360e-01 5.141810e-01 1.680674e-01 4.871696e-01 5.640433e-03 -5.824585e-01 -8.341864e-01 -5.138070e-02 4.298765e-01 -6.838811e-02 -3.987955e-01 1.235235e+00 -2.452779e-01 9.427878e-02 1.184112e-01 3.466320e-01 9.301423e-02 -9.522925e-02 1.816788e-01 1.207947e-01 2.200680e-01 -4.627446e-02 -1.338049e-01 2.774263e-02 -2.906077e-01
<VARIANCE> 39
 9.092789e+01 4.048324e+01 5.238253e+01 1.170082e+02 6.735831e+01 8.530671e+01 6.368682e+01 5.092980e+01 7.648360e+01 5.254159e+01 5.365574e+01 5.006756e+01 1.872285e+02 6.300784e+00 2.556675e+00 3.474076e+00 9.337343e+00 4.950518e+00 5.196037e+00 5.402017e+00 3.813189e+00 4.741187e+00 4.216627e+00 4.232110e+00 3.330391e+00 1.152760e+01 8.017221e-01 4.368362e-01 5.896835e-01 1.019726e+00 9.175696e-01 9.432003e-01 9.318100e-01 6.802459e-01 7.193493e-01 7.341188e-01 7.199834e-01 5.842432e-01 1.283608e+00
<GCONST> 1.439809e+02
<TRANSP> 5
 0.000000e+00 1.000000e+00 0.000000e+00 0.000000e+00 0.000000e+00
 0.000000e+00 7.877791e-01 2.122209e-01 0.000000e+00 0.000000e+00
 0.000000e+00 0.000000e+00 2.073448e-01 7.926552e-01 0.000000e+00
 0.000000e+00 0.000000e+00 0.000000e+00 7.396368e-01 2.603632e-01
 0.000000e+00 0.000000e+00 0.000000e+00 0.000000e+00 0.000000e+00
<ENDHMM>
~h "uw"
<BEGINHMM>
<NUMSTATES> 5
<STATE> 2
<MEAN> 39
 5.183012e+00 -9.833634e-01 -6.253969e+00 -1.260957e+01 -4.205443e+00 5.674041e+00 -1.433035e+01 -1.556247e+01 -6.562627e+00 9.679499e-01 4.000285e+00 -7.830263e-01 6.127987e+01 5.611556e-01 6.260199e-01 -5.823883e-01 -1.258073e+00 -1.634410e+00 9.627227e-01 5.980442e-01 -3.064499e-01 -1.393550e+00 -4.867049e-01 8.973109e-01 6.912644e-01 -2.043617e-02 -4.790557e-01 2.057748e-01 3.275406e-01 5.152233e-01 2.106892e-01 -1.444412e-01 5.023507e-01 8.097701e-01 4.263957e-01 -3.688873e-01 -4.900935e-01 -1.947645e-01 -4.822565e-01
<VARIANCE> 39
 5.116961e+01 8.146655e+01 2.934237e+01 1.157287e+02 5.141089e+01 8.421926e+01 6.696312e+01 6.982870e+01 1.190937e+02 6.162900e+01 7.021147e+01 5.434696e+01 1.126538e+02 3.392848e+00 2.470589e+00 2.313654e+00 7.089665e+00 3.618952e+00 4.745282e+00 6.675280e+00 4.272317e+00 6.061701e+00 5.027524e+00 5.454662e+00 2.940061e+00 2.818744e+00 4.109999e-01 5.543668e-01 4.331341e-01 1.143753e+00 8.215639e-01 8.298805e-01 1.532210e+00 9.122702e-01 1.141750e+00 8.455415e-01 1.029451e+00 6.801307e-01 3.243756e-01
<GCONST> 1.414370e+02
<STATE> 3
<MEAN> 39
 6.477741e+00 -2.833607e+00 -6.108102e+00 -1.321369e+01 -9.520309e+00 5.052441e+00 -1.107888e+01 -1.467093e+01 -9.963258e+00 -4.069678e-01 6.178551e+00 -9.732838e-01 6.284194e+01 -1.482604e-02 4.344279e-01 7.758457e-03 -4.220442e-01 -6.018366e-01 4.580963e-02 4.908205e-01 6.448804e-01 3.205071e-02 -4.837280e-01 -1.635626e-01 -3.591102e-02 -2.650401e-01 -1.595777e-01 -1.177379e-01 6.562548e-02 2.918484e-01 2.440924e-01 -1.975568e-01 1.821951e-02 1.411703e-01 3.038957e-01 1.977901e-01 -2.336181e-01 -2.052539e-01 -8.353091e-02
<VARIANCE> 39
 3.459058e+01 4.618488e+01 1.789767e+01 9.240301e+01 3.562033e+01 4.909802e+01 3.967154e+01 4.398891e+01 8.935204e+01 5.205970e+01 6.387054e+01 4.578631e+01 6.624341e+01 1.085133e+00 2.000065e+00 1.097363e+00 4.955291e+00 2.550673e+00 3.261053e+00 2.648956e+00 3.902441e+00 2.855854e+00 4.433273e+00 3.540138e+00 3.311875e+00 1.563108e+00 1.508299e-01 2.457600e-01 1.906383e-01 6.085502e-01 3.683579e-01 5.351387e-01 4.203127e-01 6.292604e-01 4.628935e-01 5.876850e-01 6.708091e-01 4.605075e-01 1.485373e-01
<GCONST> 1.215976e+02
<STATE> 4
<MEAN> 39
 4.504950e+00 -3.019452e+00 -6.939336e+00 -1.557103e+01 -1.063632e+01 3.090093e+00 -1.060975e+01 -9.816824e+00 -4.173797e+00 -1.669511e+00 2.483010e+00 -3.918934e+00 6.439794e+01 -3.402446e-01 -1.837599e-01 -7.680723e-02 6.028993e-01 4.403919e-01 -2.234910e-01 4.097610e-01 6.509777e-01 3.581528e-01 1.235437e-01 -5.447383e-01 -3.166386e-01 -3.613826e-01 -3.475354e-02 -8.758672e-02 -4.948581e-03 1.458920e-01 1.428181e-01 8.481286e-03 1.880304e-02 -7.390669e-02 -2.512481e-02 5.765250e-02 4.180413e-03 5.494401e-05 -1.463343e-02
<VARIANCE> 39
 2.813614e+01 6.910532e+01 2.193938e+01 1.012774e+02 7.535085e+01 5.453899e+01 4.847972e+01 4.556741e+01 8.555757e+01 9.835407e+01 5.324373e+01 9.900110e+01 9.490561e+01 4.617953e-01 1.298712e+00 7.519233e-01 1.705133e+00 1.822008e+00 1.600142e+00 1.986887e+00 1.609604e+00 1.960613e+00 2.004110e+00 2.021793e+00 1.797456e+00 7.262154e-01 4.510789e-02 1.165407e-01 1.063424e-01 1.873225e-01 2.559574e-01 2.499446e-01 3.087870e-01 2.400061e-01 3.117764e-01 3.764824e-01 3.493072e-01 3.298185e-01 5.146850e-02
<GCONST> 1.076610e+02
<TRANSP> 5
 0.000000e+00 1.000000e+00 0.000000e+00 0.000000e+00 0.000000e+00
 0.000000e+00 5.790789e-01 4.209211e-01 0.000000e+00 0.000000e+00
 0.000000e+00 0.000000e+00 7.446664e-01 2.553336e-01 0.000000e+00
 0.000000e+00 0.000000e+00 0.000000e+00 8.658684e-01 1.341316e-01
 0.000000e+00 0.000000e+00 0.000000e+00 0.000000e+00 0.000000e+00
<ENDHMM>
~h "sil"
<BEGINHMM>
<NUMSTATES> 5
<STATE> 2
<MEAN> 39
 -1.881401e+01 3.095579e+00 -8.300282e+00 4.880147e+00 -4.686884e+00 3.802730e+00 -4.096532e+00 -4.171512e-01 6.200381e-02 -2.787947e+00 -9.102737e-01 -2.011615e+00 3.277588e+01 -8.432493e-02 4.300497e-02 4.078248e-03 1.543078e-02 -7.550627e-03 1.535947e-02 -5.890924e-03 2.015441e-02 2.499408e-02 -9.197517e-03 1.900034e-02 1.493532e-02 -1.031317e-01 1.230739e-02 -2.245034e-04 1.930037e-03 -2.275950e-03 -5.436521e-03 -8.307491e-03 -7.078683e-03 -2.334611e-03 4.404745e-03 7.371029e-03 -5.195117e-03 -1.112658e-02 9.859196e-03
<VARIANCE> 39
 7.412978e+01 1.110982e+01 2.164861e+01 1.430183e+01 2.802440e+01 1.528054e+01 2.911077e+01 1.913282e+01 2.012563e+01 1.954768e+01 2.021182e+01 1.444195e+01 1.412842e+02 1.133242e-01 2.291441e-01 3.320090e-01 4.702449e-01 6.256484e-01 7.118661e-01 8.419031e-01 1.001394e+00 1.073978e+00 9.051864e-01 8.884467e-01 8.550764e-01 8.277047e-02 1.445374e-02 3.540915e-02 5.966434e-02 8.401028e-02 1.131948e-01 1.332296e-01 1.636506e-01 1.882064e-01 2.092842e-01 1.766164e-01 1.766301e-01 1.719353e-01 6.502502e-03
<GCONST> 7.145237e+01
<STATE> 3
~s "silst"
<STATE> 4
<MEAN> 39
 -1.683060e+01 3.447515e+00 -6.816577e+00 6.177123e+00 -2.517572e+00 5.260734e+00 -2.845558e+00 3.236207e-01 2.229049e-01 -2.635735e+00 -5.887364e-01 -1.711803e+00 3.411139e+01 4.323975e-02 -3.705937e-02 -6.202971e-02 -1.861414e-02 6.418587e-04 -3.715875e-02 3.478191e-02 3.416006e-02 6.382926e-03 7.168154e-02 5.327480e-02 6.476583e-03 2.684876e-02 5.672800e-02 -7.436266e-03 -8.769949e-03 -3.404462e-02 2.383671e-02 -3.600428e-02 -7.808366e-03 -1.406907e-02 -1.282125e-02 1.072919e-03 -1.850502e-02 2.089090e-02 7.335608e-02
<VARIANCE> 39
 5.729247e+01 2.227450e+01 3.504647e+01 2.688276e+01 3.700400e+01 3.799566e+01 4.399737e+01 4.061646e+01 3.838825e+01 3.316002e+01 2.989574e+01 2.226631e+01 1.383060e+02 4.940788e-01 1.114860e+00 1.341677e+00 1.244057e+00 1.582850e+00 2.060714e+00 1.858951e+00 1.912041e+00 1.870869e+00 1.789627e+00 1.561182e+00 1.488284e+00 4.259398e-01 1.193568e-01 2.087883e-01 2.514266e-01 2.388414e-01 3.236963e-01 4.005291e-01 3.440063e-01 3.298185e-01 3.173172e-01 3.325198e-01 2.834912e-01 2.783937e-01 1.152325e-01
<GCONST> 1.048847e+02
<TRANSP> 5
 0.000000e+00 1.000000e+00 0.000000e+00 0.000000e+00 0.000000e+00
 0.000000e+00 7.641723e-01 3.582778e-02 2.000000e-01 0.000000e+00
 0.000000e+00 0.000000e+00 7.511432e-01 2.488568e-01 0.000000e+00
 0.000000e+00 2.000000e-01 0.000000e+00 6.033064e-01 1.966937e-01
 0.000000e+00 0.000000e+00 0.000000e+00 0.000000e+00 0.000000e+00
<ENDHMM>
