~o
<STREAMINFO> 1 13
<VECSIZE> 13<NULLD><MFCC_0><DIAGC>
~h "b"
<BEGINHMM>
<NUMSTATES> 5
<STATE> 2
<MEAN> 13
 1.573481e+00 8.690833e+00 -6.643430e+00 -9.442968e-01 -5.364465e-01 7.783595e+00 -9.357667e+00 -2.017505e+00 -3.214304e+00 -3.380170e+00 -4.564260e+00 -5.036889e+00 4.560463e+01
<VARIANCE> 13
 1.279129e+02 1.526471e+02 4.435832e+01 1.121499e+02 9.030456e+01 9.787210e+01 7.145138e+01 4.578080e+01 6.099231e+01 5.730949e+01 3.003369e+01 5.962973e+01 9.672174e+01
<GCONST> 7.968528e+01
<STATE> 3
<MEAN> 13
 -2.569812e+00 7.550571e+00 -7.529428e+00 -1.282026e+00 -2.751693e+00 4.880403e+00 -4.378752e+00 -2.157487e+00 -2.572500e+00 -5.198998e+00 -3.372246e+00 -4.996885e+00 4.557715e+01
<VARIANCE> 13
 1.043160e+02 8.800725e+01 4.944112e+01 7.329579e+01 6.000157e+01 7.798846e+01 4.985209e+01 3.070643e+01 6.359864e+01 4.519445e+01 2.652402e+01 5.166399e+01 1.597568e+02
<GCONST> 7.725703e+01
<STATE> 4
<MEAN> 13
 -1.451052e+01 6.582896e+00 -5.657604e+00 3.770972e+00 -3.720464e+00 5.193108e+00 -3.513273e+00 1.631859e+00 -9.991134e-01 -4.421924e+00 -1.114234e+00 -5.515937e+00 3.425050e+01
<VARIANCE> 13
 8.554269e+01 3.793306e+01 2.645118e+01 4.897928e+01 3.730613e+01 4.219439e+01 3.642775e+01 3.170184e+01 3.209489e+01 3.221294e+01 3.754793e+01 4.287036e+01 1.734233e+02
<GCONST> 7.303768e+01
<TRANSP> 5
 0.000000e+00 1.000000e+00 0.000000e+00 0.000000e+00 0.000000e+00
 0.000000e+00 8.895063e-01 1.104937e-01 0.000000e+00 0.000000e+00
 0.000000e+00 0.000000e+00 7.038915e-01 2.961086e-01 0.000000e+00
 0.000000e+00 0.000000e+00 0.000000e+00 8.922723e-01 1.077277e-01
 0.000000e+00 0.000000e+00 0.000000e+00 0.000000e+00 0.000000e+00
<ENDHMM>
~h "d"
<BEGINHMM>
<NUMSTATES> 5
<STATE> 2
<MEAN> 13
 6.784282e-01 -8.931080e-01 -3.088957e+00 6.454202e-01 1.897524e+00 -1.981327e+00 -5.455583e+00 -3.998476e+00 -2.096562e+00 1.144887e+00 -1.021598e+01 -7.866893e+00 5.918504e+01
<VARIANCE> 13
 4.271708e+01 2.780681e+02 7.224859e+01 1.948729e+02 6.394258e+01 7.755670e+01 8.311694e+01 7.993723e+01 4.438428e+01 6.670370e+01 5.430424e+01 4.665110e+01 2.883228e+02
<GCONST> 8.163234e+01
<STATE> 3
<MEAN> 13
 2.768562e+00 -6.566042e+00 -4.383759e+00 -3.237360e+00 7.619945e-01 -5.267006e+00 -7.336464e+00 -1.907069e+00 -2.980948e-01 3.658366e+00 -1.167976e+01 -8.040392e+00 6.524821e+01
<VARIANCE> 13
 2.141742e+01 1.744273e+02 5.131910e+01 1.468745e+02 9.096764e+01 6.948816e+01 1.155012e+02 1.022838e+02 3.816695e+01 5.224347e+01 6.435960e+01 5.429121e+01 1.625815e+02
<GCONST> 8.002237e+01
<STATE> 4
<MEAN> 13
 2.881524e+00 -1.006861e+01 -3.653502e+00 -5.478658e+00 8.558310e-01 -1.001387e+01 -6.560620e+00 9.911621e-01 6.696448e-01 3.526375e+00 -1.411773e+01 -6.301751e+00 6.863271e+01
<VARIANCE> 13
 8.894152e+00 8.099004e+01 4.582454e+01 1.029151e+02 9.306029e+01 7.127706e+01 1.081094e+02 9.440917e+01 4.213181e+01 4.096994e+01 5.579652e+01 8.690757e+01 7.516552e+01
<GCONST> 7.722134e+01
<TRANSP> 5
 0.000000e+00 1.000000e+00 0.000000e+00 0.000000e+00 0.000000e+00
 0.000000e+00 3.592589e-01 6.407411e-01 0.000000e+00 0.000000e+00
 0.000000e+00 0.000000e+00 3.851303e-01 6.148697e-01 0.000000e+00
 0.000000e+00 0.000000e+00 0.000000e+00 7.736387e-01 2.263614e-01
 0.000000e+00 0.000000e+00 0.000000e+00 0.000000e+00 0.000000e+00
<ENDHMM>
~h "g"
<BEGINHMM>
<NUMSTATES> 5
<STATE> 2
<MEAN> 13
 -4.496941e+00 7.741250e-01 1.715260e+01 -3.206385e+00 -1.118365e+01 -9.882443e+00 -6.804303e+00 -7.652736e+00 -9.392571e+00 -1.440095e+00 4.122127e-01 -9.677982e+00 6.308400e+01
<VARIANCE> 13
 1.403660e+01 6.180833e+01 1.083948e+02 1.286926e+02 1.041250e+02 3.954322e+01 6.489980e+01 3.335277e+01 3.445219e+01 2.904320e+01 9.626703e+01 6.421146e+01 9.154317e+01
<GCONST> 7.635876e+01
<STATE> 3
<MEAN> 13
 -2.766935e+00 -1.071967e-01 1.284521e+01 -1.905020e+00 -9.340150e+00 -1.196417e+01 -6.367775e+00 -4.461141e+00 -6.812791e+00 1.518359e-01 -4.103905e+00 -8.962904e+00 6.283392e+01
<VARIANCE> 13
 1.514328e+01 1.065359e+02 1.338932e+02 1.127902e+02 9.033237e+01 8.098898e+01 5.744365e+01 6.047008e+01 4.489233e+01 2.802850e+01 6.372395e+01 6.514749e+01 1.191825e+02
<GCONST> 7.820113e+01
<STATE> 4
<MEAN> 13
 9.319489e-02 -1.194407e+01 -2.414107e+00 -5.322086e+00 -9.570108e+00 -1.075334e+01 -1.097250e+01 3.571635e+00 3.918798e-01 2.362526e+00 -7.129510e+00 -1.634782e+01 7.269518e+01
<VARIANCE> 13
 1.103961e+01 9.730421e+01 1.304771e+02 5.188682e+01 5.811427e+01 1.112688e+02 5.215171e+01 4.930898e+01 4.504647e+01 2.193295e+01 4.160840e+01 1.341371e+02 1.036526e+02
<GCONST> 7.648252e+01
<TRANSP> 5
 0.000000e+00 1.000000e+00 0.000000e+00 0.000000e+00 0.000000e+00
 0.000000e+00 8.764059e-01 1.235941e-01 0.000000e+00 0.000000e+00
 0.000000e+00 0.000000e+00 8.011406e-01 1.988594e-01 0.000000e+00
 0.000000e+00 0.000000e+00 0.000000e+00 8.506427e-01 1.493573e-01
 0.000000e+00 0.000000e+00 0.000000e+00 0.000000e+00 0.000000e+00
<ENDHMM>
~h "j"
<BEGINHMM>
<NUMSTATES> 5
<STATE> 2
<MEAN> 13
 -4.633947e+00 8.342708e+00 2.324259e+01 -2.163253e+00 -1.112799e+01 -6.264424e+00 -1.210148e+01 -4.231884e+00 -1.391674e+01 -6.292584e-01 2.231776e+00 -9.444256e+00 5.713616e+01
<VARIANCE> 13
 1.669269e+01 1.362674e+02 1.612615e+02 1.384462e+02 1.127337e+02 3.973996e+01 4.845054e+01 2.952442e+01 6.668522e+01 3.958353e+01 4.405283e+01 3.878255e+01 1.171807e+02
<GCONST> 7.739412e+01
<STATE> 3
<MEAN> 13
 1.040633e+00 2.800539e+00 8.050106e+00 4.952255e+00 -1.082162e+01 -5.690081e+00 -1.198106e+01 -6.611049e+00 -7.737305e+00 -4.541417e+00 2.191947e+00 -8.578280e+00 5.932328e+01
<VARIANCE> 13
 4.840553e+01 1.083802e+02 1.528833e+02 5.320581e+01 7.592232e+01 1.020378e+02 1.163500e+02 6.400695e+01 4.411691e+01 2.651068e+01 3.768319e+01 3.891115e+01 1.197404e+02
<GCONST> 7.847236e+01
<STATE> 4
<MEAN> 13
 6.814700e+00 1.258326e+01 -1.290746e+00 4.698271e+00 -6.030085e+00 4.314805e+00 -1.079984e+01 -1.346818e+01 -1.023794e+01 -5.093549e+00 -2.420202e+00 -4.343722e+00 5.015746e+01
<VARIANCE> 13
 3.401479e+01 1.173526e+02 8.214217e+01 3.703928e+01 5.067758e+01 1.081884e+02 7.827466e+01 4.225344e+01 3.156951e+01 2.357106e+01 4.700475e+01 4.122468e+01 1.088008e+02
<GCONST> 7.578910e+01
<TRANSP> 5
 0.000000e+00 1.000000e+00 0.000000e+00 0.000000e+00 0.000000e+00
 0.000000e+00 9.361336e-01 6.386643e-02 0.000000e+00 0.000000e+00
 0.000000e+00 0.000000e+00 8.443079e-01 1.556922e-01 0.000000e+00
 0.000000e+00 0.000000e+00 0.000000e+00 8.645617e-01 1.354383e-01
 0.000000e+00 0.000000e+00 0.000000e+00 0.000000e+00 0.000000e+00
<ENDHMM>
~h "k"
<BEGINHMM>
<NUMSTATES> 5
<STATE> 2
<MEAN> 13
 -5.572824e+00 2.842530e+00 -5.659391e+00 -1.107058e+00 1.098729e+00 1.194793e+00 -5.619994e+00 -3.761225e+00 -1.118810e+00 1.315102e+00 -9.148515e-01 -2.602685e+00 4.961839e+01
<VARIANCE> 13
 7.098930e+01 1.081663e+02 7.586607e+01 1.240416e+02 1.034489e+02 9.964437e+01 7.465030e+01 8.584418e+01 7.542643e+01 4.769277e+01 3.689207e+01 3.985657e+01 1.889184e+02
<GCONST> 8.071675e+01
<STATE> 3
<MEAN> 13
 -5.585641e+00 1.992060e+00 -7.170383e+00 -1.676622e+00 3.913100e+00 7.725694e-01 -5.121953e+00 -3.599678e+00 -1.069346e+00 1.556578e+00 -5.873281e-01 -2.654967e+00 5.099547e+01
<VARIANCE> 13
 7.085452e+01 1.039409e+02 1.002021e+02 1.413086e+02 1.217699e+02 1.157788e+02 7.310335e+01 9.094143e+01 7.418049e+01 5.614706e+01 4.407488e+01 4.456358e+01 1.808170e+02
<GCONST> 8.182566e+01
<STATE> 4
<MEAN> 13
 -7.156154e+00 2.135197e+00 -8.044494e+00 7.286831e-01 7.415187e+00 1.421932e+00 -3.547390e+00 -2.240074e+00 3.360272e-02 2.807901e+00 -8.759460e-02 -2.450122e+00 4.893120e+01
<VARIANCE> 13
 9.465627e+01 1.079102e+02 1.156213e+02 2.067548e+02 1.326139e+02 1.837487e+02 8.881982e+01 1.166555e+02 8.086178e+01 6.119931e+01 6.304729e+01 5.988066e+01 2.357875e+02
<GCONST> 8.475870e+01
<TRANSP> 5
 0.000000e+00 1.000000e+00 0.000000e+00 0.000000e+00 0.000000e+00
 0.000000e+00 4.189067e-01 5.810933e-01 0.000000e+00 0.000000e+00
 0.000000e+00 0.000000e+00 4.054034e-01 5.945966e-01 0.000000e+00
 0.000000e+00 0.000000e+00 0.000000e+00 5.622655e-01 4.377345e-01
 0.000000e+00 0.000000e+00 0.000000e+00 0.000000e+00 0.000000e+00
<ENDHMM>
~h "l"
<BEGINHMM>
<NUMSTATES> 5
<STATE> 2
<MEAN> 13
 4.165514e+00 -1.354274e+01 -9.013807e+00 -1.493664e+01 6.271773e+00 -1.375971e+00 -9.105995e+00 -1.896663e+00 3.020501e+00 4.446763e+00 -1.515753e+01 -8.596584e+00 7.234393e+01
<VARIANCE> 13
 4.414799e+00 3.037057e+01 4.177988e+01 4.781858e+01 1.467436e+02 2.368448e+01 3.688767e+01 2.508647e+01 4.388681e+01 3.089087e+01 4.791332e+01 1.302554e+02 2.211546e+01
<GCONST> 7.042162e+01
<STATE> 3
<MEAN> 13
 4.342660e+00 -9.257371e+00 -6.439391e+00 -1.105299e+01 5.951971e+00 7.963265e-01 -6.990512e+00 -3.200685e+00 1.435595e+00 5.772676e+00 -1.288024e+01 -7.715298e+00 6.809290e+01
<VARIANCE> 13
 9.859862e+00 1.040950e+02 4.630621e+01 7.846050e+01 9.901264e+01 4.133416e+01 4.216787e+01 3.421750e+01 4.515862e+01 2.737462e+01 5.295781e+01 1.011933e+02 8.406586e+01
<GCONST> 7.475331e+01
<STATE> 4
<MEAN> 13
 1.174327e+00 8.943678e+00 4.192183e-02 7.324041e+00 7.207813e+00 7.049661e+00 -8.412684e+00 -6.214702e+00 -5.088767e-01 2.458169e+00 -5.684560e+00 -2.907403e+00 4.891061e+01
<VARIANCE> 13
 4.169468e+01 2.178753e+02 4.959091e+01 2.191428e+02 5.348255e+01 6.993461e+01 7.203489e+01 5.969659e+01 2.922081e+01 3.370145e+01 5.548521e+01 5.503881e+01 2.449584e+02
<GCONST> 7.931124e+01
<TRANSP> 5
 0.000000e+00 1.000000e+00 0.000000e+00 0.000000e+00 0.000000e+00
 0.000000e+00 9.376618e-01 6.233819e-02 0.000000e+00 0.000000e+00
 0.000000e+00 0.000000e+00 6.210139e-01 3.789861e-01 0.000000e+00
 0.000000e+00 0.000000e+00 0.000000e+00 7.149581e-01 2.850419e-01
 0.000000e+00 0.000000e+00 0.000000e+00 0.000000e+00 0.000000e+00
<ENDHMM>
~h "m"
<BEGINHMM>
<NUMSTATES> 5
<STATE> 2
<MEAN> 13
 3.020376e+00 6.875393e-01 -3.769080e+00 -6.374255e-01 6.414904e+00 -7.731241e-01 -4.889340e+00 -9.417410e+00 -7.690073e+00 1.327755e+00 -6.962955e+00 -4.517931e+00 5.793197e+01
<VARIANCE> 13
 3.129938e+01 1.048929e+02 6.283881e+01 9.947784e+01 1.211325e+02 6.528300e+01 6.908958e+01 1.073981e+02 6.609689e+01 4.768123e+01 5.054969e+01 9.289020e+01 1.183157e+02
<GCONST> 7.990040e+01
<STATE> 3
<MEAN> 13
 2.704057e+00 2.480925e+00 -2.701981e+00 2.447893e+00 6.950287e+00 -9.220287e-01 -5.466929e+00 -1.024662e+01 -8.173825e+00 -2.473029e-01 -7.026129e+00 -2.466532e+00 5.600968e+01
<VARIANCE> 13
 3.459224e+01 9.203934e+01 6.225712e+01 1.030326e+02 1.102547e+02 6.832148e+01 5.592583e+01 1.120807e+02 6.744707e+01 4.540879e+01 5.020805e+01 8.154151e+01 1.114357e+02
<GCONST> 7.945261e+01
<STATE> 4
<MEAN> 13
 -2.520108e-01 5.150703e+00 -2.554281e+00 6.574214e+00 8.060753e+00 2.088105e+00 -4.240761e+00 -5.615660e+00 -5.140288e+00 -3.225525e+00 -6.646346e+00 -9.915936e-01 4.994729e+01
<VARIANCE> 13
 7.046160e+01 1.093521e+02 6.520793e+01 1.949242e+02 1.095951e+02 8.763223e+01 6.026173e+01 1.563794e+02 1.023265e+02 5.829340e+01 6.174575e+01 6.118326e+01 1.972743e+02
<GCONST> 8.282831e+01
<TRANSP> 5
 0.000000e+00 1.000000e+00 0.000000e+00 0.000000e+00 0.000000e+00
 0.000000e+00 5.832961e-01 4.167040e-01 0.000000e+00 0.000000e+00
 0.000000e+00 0.000000e+00 5.646288e-01 4.353712e-01 0.000000e+00
 0.000000e+00 0.000000e+00 0.000000e+00 7.361248e-01 2.638752e-01
 0.000000e+00 0.000000e+00 0.000000e+00 0.000000e+00 0.000000e+00
<ENDHMM>
~h "n"
<BEGINHMM>
<NUMSTATES> 5
<STATE> 2
<MEAN> 13
 -7.817968e-01 6.000036e+00 -1.484166e+00 3.185454e+00 -1.317727e+00 -5.066220e+00 -4.165129e+00 -3.209804e+00 -8.219272e-02 -3.094420e+00 -7.152602e+00 -1.110674e+00 5.335318e+01
<VARIANCE> 13
 7.259427e+01 4.876308e+01 3.822259e+01 1.141312e+02 6.924857e+01 9.272240e+01 3.895184e+01 4.851243e+01 3.485203e+01 3.860920e+01 7.291674e+01 7.289157e+01 1.122070e+02
<GCONST> 7.725974e+01
<STATE> 3
<MEAN> 13
 -8.906018e-01 7.444280e+00 -9.225920e-01 3.641556e+00 -1.548074e+00 -2.915922e+00 -4.923103e+00 -3.430367e+00 -1.467486e-02 -3.945603e+00 -6.022350e+00 1.519420e-02 5.172960e+01
<VARIANCE> 13
 8.289318e+01 6.876810e+01 3.812197e+01 1.720059e+02 5.915541e+01 9.800214e+01 4.999668e+01 5.302400e+01 3.942072e+01 3.925263e+01 7.174287e+01 7.779109e+01 1.207388e+02
<GCONST> 7.864193e+01
<STATE> 4
<MEAN> 13
 -4.196150e+00 1.345995e+01 9.853344e-01 8.388166e+00 -6.821225e-01 2.114725e+00 -6.897885e+00 -2.807101e+00 -1.919610e+00 -4.573590e+00 -4.235661e+00 -1.101054e-01 4.156500e+01
<VARIANCE> 13
 1.194830e+02 1.123298e+02 4.545855e+01 1.733052e+02 5.822423e+01 8.130697e+01 6.064560e+01 7.111226e+01 5.553772e+01 5.072338e+01 5.143732e+01 6.458671e+01 1.766490e+02
<GCONST> 8.042670e+01
<TRANSP> 5
 0.000000e+00 1.000000e+00 0.000000e+00 0.000000e+00 0.000000e+00
 0.000000e+00 4.466390e-01 5.533610e-01 0.000000e+00 0.000000e+00
 0.000000e+00 0.000000e+00 4.420452e-01 5.579548e-01 0.000000e+00
 0.000000e+00 0.000000e+00 0.000000e+00 7.581212e-01 2.418788e-01
 0.000000e+00 0.000000e+00 0.000000e+00 0.000000e+00 0.000000e+00
<ENDHMM>
~h "p"
<BEGINHMM>
<NUMSTATES> 5
<STATE> 2
<MEAN> 13
 -6.329235e+00 1.196859e+00 -6.257822e+00 1.362954e+00 -1.037802e+00 -8.557873e-01 -2.184656e+00 -6.511765e-01 4.101175e-01 5.588300e-01 -2.364883e+00 -3.556337e+00 4.838875e+01
<VARIANCE> 13
 6.560460e+01 6.848181e+01 3.907142e+01 4.855029e+01 4.985853e+01 4.942769e+01 4.501663e+01 4.621265e+01 4.449112e+01 2.980883e+01 4.921820e+01 2.769542e+01 1.951772e+02
<GCONST> 7.498213e+01
<STATE> 3
<MEAN> 13
 -4.966887e+00 -1.399445e-01 -6.947908e+00 8.661308e-01 -1.458263e+00 -6.288900e-01 -1.454352e+00 -1.644880e-01 7.242057e-01 1.414105e+00 -2.097183e+00 -3.833853e+00 5.033583e+01
<VARIANCE> 13
 7.032233e+01 7.579565e+01 5.129792e+01 6.482729e+01 4.576616e+01 5.692536e+01 4.625739e+01 4.028669e+01 3.924726e+01 3.231668e+01 4.309748e+01 2.800693e+01 2.224191e+02
<GCONST> 7.562437e+01
<STATE> 4
<MEAN> 13
 -2.049657e+00 -3.579164e+00 -7.702613e+00 -1.471224e+00 -7.528084e-01 -1.292948e+00 -1.320587e+00 -1.843013e-01 7.819477e-02 3.634019e+00 -3.429926e+00 -4.684132e+00 5.537416e+01
<VARIANCE> 13
 8.605801e+01 9.532510e+01 6.030394e+01 1.049082e+02 6.108234e+01 6.949235e+01 4.434768e+01 5.049139e+01 4.777913e+01 4.463207e+01 4.498577e+01 3.727626e+01 2.614686e+02
<GCONST> 7.838055e+01
<TRANSP> 5
 0.000000e+00 1.000000e+00 0.000000e+00 0.000000e+00 0.000000e+00
 0.000000e+00 4.575747e-01 5.424253e-01 0.000000e+00 0.000000e+00
 0.000000e+00 0.000000e+00 4.256490e-01 5.743510e-01 0.000000e+00
 0.000000e+00 0.000000e+00 0.000000e+00 4.329742e-01 5.670258e-01
 0.000000e+00 0.000000e+00 0.000000e+00 0.000000e+00 0.000000e+00
<ENDHMM>
~h "r"
<BEGINHMM>
<NUMSTATES> 5
<STATE> 2
<MEAN> 13
 2.242705e+00 -1.071605e+01 -5.331783e+00 6.691395e-01 -2.685926e+00 -6.696167e+00 -3.495651e+00 2.076762e+00 2.012995e+00 2.251508e+00 -6.963289e+00 -8.859622e+00 6.567969e+01
<VARIANCE> 13
 2.157987e+01 6.474334e+01 7.395771e+01 7.625163e+01 1.011882e+02 5.000692e+01 4.994661e+01 4.508105e+01 5.426658e+01 7.265051e+01 4.966821e+01 9.775314e+01 1.119756e+02
<GCONST> 7.750635e+01
<STATE> 3
<MEAN> 13
 1.817924e+00 -8.434916e+00 -2.708668e+00 2.397430e+00 -3.147939e+00 -7.244791e+00 -3.184416e+00 2.542296e+00 9.230356e-01 2.583694e+00 -4.120503e+00 -7.458264e+00 6.343260e+01
<VARIANCE> 13
 3.144964e+01 8.092172e+01 8.772788e+01 7.531197e+01 8.685358e+01 6.565842e+01 5.223119e+01 4.651641e+01 4.795303e+01 6.642677e+01 5.221576e+01 9.133313e+01 1.293627e+02
<GCONST> 7.837316e+01
<STATE> 4
<MEAN> 13
 -1.362470e+00 -3.509763e+00 2.371048e-01 5.951465e+00 -1.640557e+00 -4.808456e+00 -1.232415e+00 3.313936e+00 3.407088e-01 2.094117e+00 -1.464399e+00 -4.985050e+00 5.761265e+01
<VARIANCE> 13
 6.622046e+01 1.151375e+02 8.748315e+01 1.012696e+02 8.522000e+01 1.054609e+02 5.611863e+01 4.646977e+01 6.077557e+01 5.380375e+01 5.870506e+01 7.107171e+01 2.349455e+02
<GCONST> 8.077869e+01
<TRANSP> 5
 0.000000e+00 1.000000e+00 0.000000e+00 0.000000e+00 0.000000e+00
 0.000000e+00 5.374540e-01 4.625460e-01 0.000000e+00 0.000000e+00
 0.000000e+00 0.000000e+00 4.528695e-01 5.471305e-01 0.000000e+00
 0.000000e+00 0.000000e+00 0.000000e+00 5.106994e-01 4.893006e-01
 0.000000e+00 0.000000e+00 0.000000e+00 0.000000e+00 0.000000e+00
<ENDHMM>
~h "s"
<BEGINHMM>
<NUMSTATES> 5
<STATE> 2
<MEAN> 13
 -1.371246e+01 2.453922e+00 -4.661324e+00 2.873037e+00 8.026148e+00 -1.280841e+01 4.798786e+00 -2.113758e-01 4.971924e+00 -1.652680e+00 -1.172079e+00 -1.096732e+00 5.969104e+01
<VARIANCE> 13
 1.083577e+02 6.983981e+01 5.743265e+01 7.979317e+01 1.116319e+02 7.145579e+01 9.611030e+01 4.336727e+01 3.575142e+01 5.396123e+01 6.536830e+01 4.476702e+01 1.069194e+02
<GCONST> 7.879202e+01
<STATE> 3
<MEAN> 13
 -1.839248e+01 3.121761e+00 -5.073603e+00 4.172677e+00 9.978421e+00 -1.320845e+01 6.914659e+00 1.983294e-01 6.223981e+00 -2.510097e+00 -6.882668e-03 -6.200824e-01 5.974286e+01
<VARIANCE> 13
 9.550040e+01 6.250196e+01 4.477398e+01 9.030009e+01 1.134437e+02 6.712760e+01 8.141109e+01 3.981159e+01 3.379724e+01 5.870944e+01 4.412228e+01 3.986194e+01 7.548364e+01
<GCONST> 7.730235e+01
<STATE> 4
<MEAN> 13
 -2.123930e+01 4.890811e-01 -4.129360e+00 1.575458e-01 1.359825e+01 -1.450684e+01 7.041511e+00 4.339274e-01 7.856627e+00 -5.191006e+00 -1.380253e+00 1.151974e+00 5.676699e+01
<VARIANCE> 13
 1.243456e+02 6.807600e+01 5.150277e+01 8.757928e+01 1.019173e+02 6.700838e+01 8.167133e+01 4.223660e+01 5.357484e+01 5.979130e+01 5.586305e+01 4.537866e+01 8.724731e+01
<GCONST> 7.870387e+01
<TRANSP> 5
 0.000000e+00 1.000000e+00 0.000000e+00 0.000000e+00 0.000000e+00
 0.000000e+00 6.070681e-01 3.929319e-01 0.000000e+00 0.000000e+00
 0.000000e+00 0.000000e+00 6.491835e-01 3.508166e-01 0.000000e+00
 0.000000e+00 0.000000e+00 0.000000e+00 8.371315e-01 1.628685e-01
 0.000000e+00 0.000000e+00 0.000000e+00 0.000000e+00 0.000000e+00
<ENDHMM>
~h "t"
<BEGINHMM>
<NUMSTATES> 5
<STATE> 2
<MEAN> 13
 -4.132041e+00 4.600231e-02 -5.185534e+00 -5.284769e+00 -2.826205e+00 -9.898516e-01 -8.673679e+00 -5.252435e+00 -4.857635e-01 -1.530620e+00 -3.234041e+00 -1.799911e+00 5.301569e+01
<VARIANCE> 13
 1.062430e+02 7.004881e+01 4.503203e+01 2.049708e+02 7.927764e+01 9.678642e+01 1.076810e+02 7.150130e+01 6.021612e+01 5.693755e+01 5.006471e+01 8.514615e+01 2.491089e+02
<GCONST> 8.184738e+01
<STATE> 3
<MEAN> 13
 -7.652844e-02 -1.604160e-01 -4.247355e+00 -1.001910e+01 -3.934403e+00 3.039489e-01 -1.163861e+01 -7.182429e+00 -2.313588e+00 -7.647595e-01 -2.244794e+00 -2.681933e+00 5.915210e+01
<VARIANCE> 13
 7.283545e+01 6.015878e+01 4.223182e+01 1.861324e+02 1.012582e+02 8.525790e+01 1.115843e+02 6.688779e+01 6.105562e+01 4.908282e+01 5.315578e+01 8.993868e+01 1.931346e+02
<GCONST> 8.096941e+01
<STATE> 4
<MEAN> 13
 2.121553e+00 4.648597e+00 -1.518263e+00 -9.143039e+00 1.139468e+00 4.068917e+00 -1.499405e+01 -1.132144e+01 -5.354712e+00 -1.526074e-01 -5.819419e+00 -1.488851e+00 5.570209e+01
<VARIANCE> 13
 6.579563e+01 1.072510e+02 3.785946e+01 2.220710e+02 1.183259e+02 6.803142e+01 1.018879e+02 7.504652e+01 7.256637e+01 7.174176e+01 6.680533e+01 6.539432e+01 1.958494e+02
<GCONST> 8.194353e+01
<TRANSP> 5
 0.000000e+00 1.000000e+00 0.000000e+00 0.000000e+00 0.000000e+00
 0.000000e+00 5.351244e-01 4.648755e-01 0.000000e+00 0.000000e+00
 0.000000e+00 0.000000e+00 5.349743e-01 4.650257e-01 0.000000e+00
 0.000000e+00 0.000000e+00 0.000000e+00 8.630841e-01 1.369159e-01
 0.000000e+00 0.000000e+00 0.000000e+00 0.000000e+00 0.000000e+00
<ENDHMM>
~h "w"
<BEGINHMM>
<NUMSTATES> 5
<STATE> 2
<MEAN> 13
 -1.649388e+01 4.460014e-01 2.184294e+00 -4.822675e-01 1.455703e+01 -9.763207e+00 -7.857317e-01 2.414350e+00 6.001570e+00 -4.931536e+00 8.632230e-01 -4.311314e+00 6.411599e+01
<VARIANCE> 13
 7.769423e+01 2.695593e+01 3.077431e+01 4.726656e+01 6.962641e+01 4.742768e+01 4.404911e+01 1.915287e+01 3.387858e+01 2.802875e+01 3.446525e+01 2.517222e+01 8.982122e+00
<GCONST> 6.947892e+01
<STATE> 3
<MEAN> 13
 -8.966722e+00 1.769366e+00 3.233925e+00 -7.257088e-03 5.364667e+00 -7.066590e+00 -6.380226e+00 5.466205e-01 5.772356e+00 1.914880e-03 -4.092679e-01 -2.441934e+00 6.501937e+01
<VARIANCE> 13
 1.286453e+02 1.526835e+01 5.670895e+01 5.527316e+01 5.094039e+01 7.076167e+01 1.462778e+01 2.071418e+01 3.348690e+01 2.941543e+01 5.513692e+01 1.560852e+01 1.179280e+01
<GCONST> 6.954698e+01
<STATE> 4
<MEAN> 13
 -3.423301e+00 -4.692075e-01 4.387465e+00 -1.015645e+00 8.232834e-01 -6.863996e+00 -7.299177e+00 -2.250535e+00 1.260435e+00 2.994316e+00 -2.156497e+00 -6.948985e-01 6.548587e+01
<VARIANCE> 13
 1.019256e+02 1.501501e+01 6.213972e+01 3.418355e+01 2.944651e+01 6.668739e+01 1.677042e+01 2.951515e+01 5.407365e+01 1.590279e+01 4.837451e+01 1.557759e+01 1.036905e+01
<GCONST> 6.839442e+01
<TRANSP> 5
 0.000000e+00 1.000000e+00 0.000000e+00 0.000000e+00 0.000000e+00
 0.000000e+00 8.135782e-01 1.864218e-01 0.000000e+00 0.000000e+00
 0.000000e+00 0.000000e+00 5.334156e-01 4.665844e-01 0.000000e+00
 0.000000e+00 0.000000e+00 0.000000e+00 4.148972e-01 5.851028e-01
 0.000000e+00 0.000000e+00 0.000000e+00 0.000000e+00 0.000000e+00
<ENDHMM>
~h "ah"
<BEGINHMM>
<NUMSTATES> 5
<STATE> 2
<MEAN> 13
 2.415859e+00 -1.239793e+01 -1.019069e+01 -6.798020e+00 4.782816e+00 -6.735964e+00 -2.108830e+00 -2.737609e-01 8.742764e-01 4.345696e+00 -1.236214e+01 -7.818478e+00 6.970630e+01
<VARIANCE> 13
 2.243480e+01 5.861558e+01 5.464859e+01 7.715911e+01 1.237119e+02 7.628281e+01 6.521511e+01 4.476029e+01 5.264758e+01 5.308423e+01 4.937016e+01 8.209202e+01 8.009098e+01
<GCONST> 7.717807e+01
<STATE> 3
<MEAN> 13
 2.519899e+00 -1.272314e+01 -9.167567e+00 -6.678953e+00 4.320122e+00 -6.791682e+00 -1.511074e+00 -5.118336e-01 9.766386e-01 3.914574e+00 -1.326148e+01 -8.263250e+00 6.963813e+01
<VARIANCE> 13
 1.438602e+01 5.806445e+01 4.665079e+01 7.112256e+01 1.213681e+02 6.443571e+01 6.863868e+01 4.491234e+01 5.381247e+01 4.949916e+01 4.731800e+01 8.523698e+01 7.825461e+01
<GCONST> 7.627512e+01
<STATE> 4
<MEAN> 13
 1.911015e+00 -9.103667e+00 -6.543786e+00 -4.905056e+00 5.997366e+00 -7.716574e+00 -7.064972e-01 -2.703034e-01 2.107290e+00 2.201914e+00 -1.290055e+01 -5.145257e+00 6.472310e+01
<VARIANCE> 13
 2.112933e+01 7.133547e+01 4.472279e+01 1.028204e+02 1.207581e+02 6.831944e+01 6.791504e+01 5.947177e+01 5.282347e+01 6.098258e+01 5.910064e+01 8.570667e+01 1.060548e+02
<GCONST> 7.823734e+01
<TRANSP> 5
 0.000000e+00 1.000000e+00 0.000000e+00 0.000000e+00 0.000000e+00
 0.000000e+00 6.396381e-01 3.603619e-01 0.000000e+00 0.000000e+00
 0.000000e+00 0.000000e+00 6.515343e-01 3.484657e-01 0.000000e+00
 0.000000e+00 0.000000e+00 0.000000e+00 7.167581e-01 2.832419e-01
 0.000000e+00 0.000000e+00 0.000000e+00 0.000000e+00 0.000000e+00
<ENDHMM>
~h "ax"
<BEGINHMM>
<NUMSTATES> 5
<STATE> 2
<MEAN> 13
 2.238296e+00 -7.078050e+00 5.918398e+00 -6.269287e+00 -3.798443e+00 -1.240858e+01 -3.317024e+00 1.997734e+00 -5.576354e+00 4.523023e+00 -8.364725e+00 -3.608444e-01 6.655776e+01
<VARIANCE> 13
 1.443760e+01 4.651831e+01 1.152247e+02 1.006653e+02 1.199129e+02 6.783251e+01 8.178988e+01 6.408916e+01 8.139516e+01 5.195978e+01 6.877918e+01 5.964550e+01 4.631116e+01
<GCONST> 7.783349e+01
<STATE> 3
<MEAN> 13
 2.647168e+00 -7.225564e+00 -1.686460e+00 -7.363257e+00 1.537335e+00 -7.699484e+00 -5.227712e+00 -8.232251e-01 -3.138994e+00 6.301107e+00 -1.096341e+01 -4.327606e+00 6.615372e+01
<VARIANCE> 13
 1.568490e+01 6.003300e+01 8.408463e+01 7.226878e+01 1.272877e+02 7.269835e+01 7.102922e+01 7.734435e+01 8.403342e+01 4.763673e+01 6.830724e+01 8.075134e+01 7.095985e+01
<GCONST> 7.836866e+01
<STATE> 4
<MEAN> 13
 -1.697984e-01 -2.462920e+00 -2.956894e+00 -6.394931e+00 5.850839e+00 -6.931802e+00 -6.963160e+00 -3.221138e+00 -2.848116e+00 3.441029e+00 -8.945503e+00 -3.106427e+00 5.982396e+01
<VARIANCE> 13
 5.119705e+01 6.539552e+01 5.652048e+01 7.452115e+01 1.616192e+02 8.814626e+01 8.738923e+01 1.087487e+02 1.305758e+02 5.883115e+01 9.935571e+01 7.854881e+01 1.485147e+02
<GCONST> 8.198762e+01
<TRANSP> 5
 0.000000e+00 1.000000e+00 0.000000e+00 0.000000e+00 0.000000e+00
 0.000000e+00 8.349435e-01 1.650565e-01 0.000000e+00 0.000000e+00
 0.000000e+00 0.000000e+00 6.858907e-01 3.141093e-01 0.000000e+00
 0.000000e+00 0.000000e+00 0.000000e+00 7.008189e-01 2.991811e-01
 0.000000e+00 0.000000e+00 0.000000e+00 0.000000e+00 0.000000e+00
<ENDHMM>
~h "ay"
<BEGINHMM>
<NUMSTATES> 5
<STATE> 2
<MEAN> 13
 -1.787887e+01 6.169772e+00 -7.088161e+00 1.090460e+01 7.615571e+00 -1.035598e+01 1.084173e+01 1.557480e+00 5.167761e+00 5.540223e-01 -2.161409e-01 -1.870303e-01 5.921905e+01
<VARIANCE> 13
 5.296867e+01 3.027444e+01 1.853572e+01 8.070281e+01 3.666655e+01 4.643626e+01 2.693380e+01 2.625151e+01 1.876875e+01 1.643475e+01 1.599645e+01 1.218332e+01 5.761670e+01
<GCONST> 6.764176e+01
<STATE> 3
<MEAN> 13
 -1.836284e+01 4.433243e+00 -7.050364e+00 4.794967e+00 9.376233e+00 -1.376427e+01 1.145399e+01 1.431836e+00 6.229304e+00 -6.694362e-03 -8.079084e-02 1.062172e-01 5.847459e+01
<VARIANCE> 13
 1.427427e+02 5.728819e+01 2.180207e+01 9.562942e+01 5.541932e+01 8.267249e+01 5.497863e+01 3.496979e+01 3.165109e+01 3.796430e+01 3.853876e+01 2.181540e+01 9.986011e+01
<GCONST> 7.496474e+01
<STATE> 4
<MEAN> 13
 -6.208893e+00 -7.949034e+00 4.148562e+00 -1.145351e+01 6.442738e+00 -1.757862e+01 9.122499e+00 8.287092e-01 4.787018e+00 -3.395046e+00 -7.837245e+00 4.754664e+00 6.672539e+01
<VARIANCE> 13
 1.711531e+02 5.626435e+01 7.845707e+01 1.086702e+02 1.210052e+02 4.419772e+01 6.311321e+01 3.007987e+01 6.362430e+01 5.532640e+01 6.682852e+01 2.686123e+01 7.709153e+01
<GCONST> 7.825324e+01
<TRANSP> 5
 0.000000e+00 1.000000e+00 0.000000e+00 0.000000e+00 0.000000e+00
 0.000000e+00 6.847337e-01 3.152663e-01 0.000000e+00 0.000000e+00
 0.000000e+00 0.000000e+00 4.422533e-01 5.577466e-01 0.000000e+00
 0.000000e+00 0.000000e+00 0.000000e+00 9.125372e-01 8.746281e-02
 0.000000e+00 0.000000e+00 0.000000e+00 0.000000e+00 0.000000e+00
<ENDHMM>
~h "eh"
<BEGINHMM>
<NUMSTATES> 5
<STATE> 2
<MEAN> 13
 3.169212e+00 -7.241322e+00 1.680757e+00 1.920681e+00 -6.821829e+00 -1.363563e+01 -1.084700e+01 2.906097e+00 -2.557322e-01 4.289829e+00 -6.315827e+00 -7.696224e+00 6.431199e+01
<VARIANCE> 13
 6.142210e+00 1.278655e+02 3.191920e+01 7.492117e+01 1.084842e+02 3.704189e+01 3.447686e+01 7.885319e+01 3.119287e+01 4.031471e+01 5.864933e+01 1.075854e+02 1.047843e+02
<GCONST> 7.508340e+01
<STATE> 3
<MEAN> 13
 2.822681e+00 -6.267259e+00 6.901657e+00 -7.877913e+00 4.644321e-01 -1.575604e+01 -1.209063e+01 1.999618e+00 -4.966010e+00 4.736917e+00 -5.828257e+00 -6.285073e-01 6.577608e+01
<VARIANCE> 13
 3.767627e+00 8.902496e+01 2.732114e+01 9.004174e+01 5.359699e+01 1.070433e+02 6.268432e+01 1.450085e+02 4.143608e+01 3.742583e+01 5.253467e+01 9.346233e+01 8.004742e+01
<GCONST> 7.551350e+01
<STATE> 4
<MEAN> 13
 5.023088e+00 -7.921836e-01 2.020955e+00 -1.291606e+01 7.073741e+00 -9.366859e+00 -1.401734e+01 -4.915710e+00 -7.821268e+00 1.149782e+01 -7.656323e+00 -9.587934e-02 6.317259e+01
<VARIANCE> 13
 8.228745e+00 5.331119e+01 2.849353e+01 5.598433e+01 1.015189e+02 1.380271e+02 2.774067e+01 9.448311e+01 2.409666e+01 5.383026e+01 5.684661e+01 3.830491e+01 3.713325e+01
<GCONST> 7.323829e+01
<TRANSP> 5
 0.000000e+00 1.000000e+00 0.000000e+00 0.000000e+00 0.000000e+00
 0.000000e+00 9.581221e-01 4.187789e-02 0.000000e+00 0.000000e+00
 0.000000e+00 0.000000e+00 8.212557e-01 1.787442e-01 0.000000e+00
 0.000000e+00 0.000000e+00 0.000000e+00 8.422253e-01 1.577747e-01
 0.000000e+00 0.000000e+00 0.000000e+00 0.000000e+00 0.000000e+00
<ENDHMM>
~h "hh"
<BEGINHMM>
<NUMSTATES> 5
<STATE> 2
<MEAN> 13
 1.702189e+00 -1.225130e+01 -3.510210e+00 -6.946574e+00 9.224865e-01 -1.267295e+01 -5.973151e+00 7.469710e+00 9.002001e-01 5.985312e-01 -1.613244e+01 -3.925401e+00 7.010123e+01
<VARIANCE> 13
 4.315161e+00 5.763480e+01 5.118887e+01 1.033618e+02 8.233118e+01 8.007613e+01 9.107421e+01 6.323060e+01 3.112339e+01 2.656048e+01 1.606787e+01 9.800106e+01 7.554453e+01
<GCONST> 7.383852e+01
<STATE> 3
<MEAN> 13
 8.233285e-01 -1.548937e+01 -9.847599e+00 -7.410081e+00 1.649240e+00 -5.246283e+00 -5.813130e+00 4.678452e+00 -1.210318e+00 -1.252098e+00 -1.681232e+01 -7.594850e+00 7.508611e+01
<VARIANCE> 13
 5.269399e+00 1.963575e+01 5.019687e+01 6.930689e+01 4.694080e+01 4.887505e+01 4.179108e+01 3.878193e+01 1.685565e+01 1.994796e+01 1.446956e+01 4.796627e+01 1.804891e+01
<GCONST> 6.706840e+01
<STATE> 4
<MEAN> 13
 7.998947e-01 -1.359820e+01 -3.881207e+00 -6.119627e+00 1.155072e+01 -6.390797e+00 5.824305e+00 -2.059535e-01 4.732302e+00 1.881410e+00 -1.938324e+01 -5.636625e-01 6.949839e+01
<VARIANCE> 13
 8.539556e+00 1.100898e+01 5.740031e+01 7.871898e+01 9.774163e+01 5.841301e+01 9.740855e+01 3.060798e+01 3.573696e+01 3.579280e+01 4.019534e+01 4.479184e+01 2.599561e+01
<GCONST> 7.140943e+01
<TRANSP> 5
 0.000000e+00 1.000000e+00 0.000000e+00 0.000000e+00 0.000000e+00
 0.000000e+00 9.066297e-01 9.337030e-02 0.000000e+00 0.000000e+00
 0.000000e+00 0.000000e+00 9.280277e-01 7.197230e-02 0.000000e+00
 0.000000e+00 0.000000e+00 0.000000e+00 9.546130e-01 4.538698e-02
 0.000000e+00 0.000000e+00 0.000000e+00 0.000000e+00 0.000000e+00
<ENDHMM>
~h "ih"
<BEGINHMM>
<NUMSTATES> 5
<STATE> 2
<MEAN> 13
 6.414562e-01 9.591659e+00 3.603567e+00 2.330168e+00 -9.361735e+00 -3.383046e+00 -6.697371e+00 -4.067546e+00 -1.046375e+01 -4.894895e+00 -2.018524e-01 -3.423402e+00 5.118039e+01
<VARIANCE> 13
 7.142748e+01 1.689145e+02 1.092431e+02 1.183038e+02 7.959508e+01 1.150477e+02 8.114533e+01 7.533437e+01 6.666443e+01 7.982539e+01 5.520405e+01 6.803036e+01 1.918998e+02
<GCONST> 8.266527e+01
<STATE> 3
<MEAN> 13
 -3.546731e+00 4.879393e+00 7.100180e+00 2.781985e+00 -1.146377e+01 -5.871659e+00 -5.998791e+00 -2.039792e+00 -9.998100e+00 -2.668639e+00 2.472460e+00 -5.632019e+00 5.429317e+01
<VARIANCE> 13
 6.109767e+01 1.094038e+02 9.106090e+01 1.063261e+02 8.848618e+01 1.030403e+02 9.355662e+01 6.559190e+01 6.716741e+01 5.934022e+01 6.021881e+01 6.115720e+01 2.601212e+02
<GCONST> 8.178101e+01
<STATE> 4
<MEAN> 13
 -1.062356e+01 4.600362e+00 1.637843e+00 4.704282e+00 -6.722928e+00 -2.192314e+00 -3.351050e+00 -1.250876e-01 -4.131344e+00 -2.099814e+00 2.123435e+00 -2.369342e+00 4.451537e+01
<VARIANCE> 13
 1.078972e+02 8.450874e+01 9.357154e+01 8.175148e+01 6.578629e+01 1.225447e+02 9.386771e+01 7.072383e+01 6.739722e+01 4.087724e+01 4.013754e+01 4.652224e+01 3.504883e+02
<GCONST> 8.106115e+01
<TRANSP> 5
 0.000000e+00 1.000000e+00 0.000000e+00 0.000000e+00 0.000000e+00
 0.000000e+00 7.488400e-01 2.511600e-01 0.000000e+00 0.000000e+00
 0.000000e+00 0.000000e+00 6.510485e-01 3.489515e-01 0.000000e+00
 0.000000e+00 0.000000e+00 0.000000e+00 7.303733e-01 2.696267e-01
 0.000000e+00 0.000000e+00 0.000000e+00 0.000000e+00 0.000000e+00
<ENDHMM>
~h "iy"
<BEGINHMM>
<NUMSTATES> 5
<STATE> 2
<MEAN> 13
 -4.072933e-01 -6.370201e+00 1.767210e+01 -4.948758e+00 -1.427777e+01 -1.311979e+01 -6.349245e+00 -2.436943e+00 -1.497150e+01 4.438168e+00 -1.515369e+00 -5.356171e+00 6.762755e+01
<VARIANCE> 13
 7.167886e+00 1.479111e+01 9.276308e+01 5.206790e+01 6.848451e+01 2.589529e+01 4.797328e+01 2.414573e+01 3.517564e+01 2.686059e+01 1.084753e+02 8.777892e+01 1.725927e+01
<GCONST> 7.043477e+01
<STATE> 3
<MEAN> 13
 -1.807090e+00 -3.519081e+00 1.536614e+01 -1.438012e+00 -1.849709e+01 -1.273477e+01 -8.249038e+00 -3.724662e+00 -1.410177e+01 1.003506e+00 3.665753e+00 -9.135267e+00 6.718120e+01
<VARIANCE> 13
 8.804012e+00 1.999203e+01 6.286092e+01 4.449644e+01 8.377105e+01 2.681907e+01 7.873347e+01 3.111804e+01 2.607674e+01 2.761833e+01 1.044594e+02 9.337392e+01 3.015776e+01
<GCONST> 7.169171e+01
<STATE> 4
<MEAN> 13
 -1.844076e+00 2.467712e+00 1.272799e+01 4.645860e-02 -1.270610e+01 -8.738671e+00 -1.611703e+00 -7.174352e+00 -1.274407e+01 8.205450e-01 -1.280555e+00 -4.227332e+00 5.998375e+01
<VARIANCE> 13
 7.234540e+01 7.372085e+01 9.962432e+01 1.041885e+02 1.009877e+02 1.478451e+02 1.313055e+02 5.663098e+01 7.728499e+01 5.808156e+01 9.363149e+01 6.575165e+01 8.829438e+01
<GCONST> 8.186227e+01
<TRANSP> 5
 0.000000e+00 1.000000e+00 0.000000e+00 0.000000e+00 0.000000e+00
 0.000000e+00 8.237959e-01 1.762040e-01 0.000000e+00 0.000000e+00
 0.000000e+00 0.000000e+00 7.942738e-01 2.057263e-01 0.000000e+00
 0.000000e+00 0.000000e+00 0.000000e+00 7.865085e-01 2.134916e-01
 0.000000e+00 0.000000e+00 0.000000e+00 0.000000e+00 0.000000e+00
<ENDHMM>
~h "ng"
<BEGINHMM>
<NUMSTATES> 5
<STATE> 2
<MEAN> 13
 -3.641810e-01 1.215738e+01 -6.200451e+00 6.747550e+00 1.913935e+00 6.973905e+00 -6.250234e+00 -5.558498e+00 -2.730743e+00 -6.112577e+00 -4.430105e+00 -2.244252e+00 4.238697e+01
<VARIANCE> 13
 8.679499e+01 7.210132e+01 5.122763e+01 6.368893e+01 9.963491e+01 1.084868e+02 4.352621e+01 3.486536e+01 3.803786e+01 3.415316e+01 3.776271e+01 2.736867e+01 1.479991e+02
<GCONST> 7.644469e+01
<STATE> 3
<MEAN> 13
 -4.793464e+00 1.060392e+01 -1.633814e+00 8.127264e+00 7.022060e-01 5.385483e+00 -5.280672e+00 -4.462486e+00 -2.802486e+00 -4.386026e+00 -3.113931e+00 -2.604923e+00 4.213839e+01
<VARIANCE> 13
 7.690802e+01 7.820776e+01 3.366101e+01 7.676440e+01 7.843137e+01 1.213212e+02 4.311551e+01 3.514018e+01 3.263919e+01 2.873203e+01 3.394087e+01 2.455107e+01 2.186973e+02
<GCONST> 7.589194e+01
<STATE> 4
<MEAN> 13
 -1.651249e+01 8.271989e+00 -4.870119e+00 7.563381e+00 -5.402506e+00 6.398757e+00 -1.737637e-01 3.805462e+00 3.138917e-01 -3.209267e+00 9.102319e-01 -1.081352e+00 2.969552e+01
<VARIANCE> 13
 6.382623e+01 5.216623e+01 7.161822e+01 1.111243e+02 9.176329e+01 1.107196e+02 5.951762e+01 6.508433e+01 5.188039e+01 3.581665e+01 5.347661e+01 2.906826e+01 1.003458e+02
<GCONST> 7.795803e+01
<TRANSP> 5
 0.000000e+00 1.000000e+00 0.000000e+00 0.000000e+00 0.000000e+00
 0.000000e+00 7.311524e-01 2.688476e-01 0.000000e+00 0.000000e+00
 0.000000e+00 0.000000e+00 5.440882e-01 4.559118e-01 0.000000e+00
 0.000000e+00 0.000000e+00 0.000000e+00 8.925254e-01 1.074746e-01
 0.000000e+00 0.000000e+00 0.000000e+00 0.000000e+00 0.000000e+00
<ENDHMM>
~h "oh"
<BEGINHMM>
<NUMSTATES> 5
<STATE> 2
<MEAN> 13
 3.076103e+00 -1.096652e+01 -1.287745e+01 -1.657877e+01 -1.820233e+00 -8.500579e-01 -2.911399e+00 -5.177391e+00 3.263996e+00 4.697766e+00 -6.374381e+00 -9.756332e+00 7.075928e+01
<VARIANCE> 13
 9.736252e+00 4.205009e+01 4.031449e+01 1.425228e+02 1.411329e+02 5.088998e+01 1.008235e+02 9.471793e+01 7.111224e+01 5.627382e+01 4.784353e+01 1.167934e+02 7.029481e+01
<GCONST> 7.778251e+01
<STATE> 3
<MEAN> 13
 3.935706e+00 -1.244187e+01 -1.114797e+01 -7.468432e+00 -5.135568e-01 -3.103315e+00 -3.763040e+00 -3.617550e+00 4.483023e+00 2.978094e+00 -7.648949e+00 -1.052644e+01 7.053625e+01
<VARIANCE> 13
 5.894693e+00 5.212606e+01 2.331743e+01 1.343436e+02 1.634176e+02 2.284686e+01 7.448170e+01 8.188699e+01 5.942669e+01 9.075010e+01 3.722759e+01 1.113580e+02 6.785980e+01
<GCONST> 7.575085e+01
<STATE> 4
<MEAN> 13
 2.200538e+00 -7.565684e+00 -9.691895e+00 1.882578e+00 4.414793e+00 -1.876277e+00 -2.752055e+00 -6.236029e-02 6.318913e+00 -1.721914e+00 -6.438132e+00 -7.295858e+00 6.245759e+01
<VARIANCE> 13
 2.173328e+01 1.284383e+02 2.907037e+01 2.104198e+02 1.157791e+02 4.103115e+01 4.782668e+01 9.556799e+01 6.455418e+01 1.225349e+02 3.664564e+01 1.401880e+02 2.219432e+02
<GCONST> 8.036156e+01
<TRANSP> 5
 0.000000e+00 1.000000e+00 0.000000e+00 0.000000e+00 0.000000e+00
 0.000000e+00 9.546441e-01 4.535586e-02 0.000000e+00 0.000000e+00
 0.000000e+00 0.000000e+00 7.976957e-01 2.023043e-01 0.000000e+00
 0.000000e+00 0.000000e+00 0.000000e+00 6.760865e-01 3.239136e-01
 0.000000e+00 0.000000e+00 0.000000e+00 0.000000e+00 0.000000e+00
<ENDHMM>
~h "uh"
<BEGINHMM>
<NUMSTATES> 5
<STATE> 2
<MEAN> 13
 -2.307157e+00 7.031921e+00 -4.004949e+00 -7.002458e+00 -6.138850e+00 -1.464320e-01 -6.049248e+00 -5.674287e+00 -5.206006e+00 -3.283864e+00 -9.971883e-01 -2.177597e+00 5.073220e+01
<VARIANCE> 13
 7.954427e+01 4.203176e+01 2.074631e+01 9.562888e+01 4.465915e+01 3.335760e+01 5.265611e+01 3.979625e+01 3.740522e+01 3.175381e+01 2.528758e+01 2.646771e+01 1.943283e+02
<GCONST> 7.340949e+01
<STATE> 3
<MEAN> 13
 -1.955352e+00 5.543787e+00 -3.576620e+00 -5.997255e+00 -6.415151e+00 5.385961e-01 -7.260566e+00 -6.463411e+00 -5.639826e+00 -1.485916e+00 6.031877e-01 -2.601315e+00 5.186282e+01
<VARIANCE> 13
 7.730360e+01 5.724924e+01 2.522670e+01 1.037410e+02 4.995959e+01 4.015287e+01 6.223492e+01 4.389485e+01 5.268104e+01 3.277784e+01 2.813450e+01 3.317874e+01 2.156336e+02
<GCONST> 7.534047e+01
<STATE> 4
<MEAN> 13
 -1.540184e+00 5.214319e+00 -1.427009e+00 -3.361058e+00 -5.077898e+00 4.177588e-01 -1.037126e+01 -9.568470e+00 -5.830017e+00 -9.020768e-01 -1.046848e+00 -3.846558e+00 5.220820e+01
<VARIANCE> 13
 8.158556e+01 7.025503e+01 3.226736e+01 1.425710e+02 6.087869e+01 7.154337e+01 7.698029e+01 5.661130e+01 5.364234e+01 3.993707e+01 4.044227e+01 4.682217e+01 2.300778e+02
<GCONST> 7.839332e+01
<TRANSP> 5
 0.000000e+00 1.000000e+00 0.000000e+00 0.000000e+00 0.000000e+00
 0.000000e+00 5.929922e-01 4.070078e-01 0.000000e+00 0.000000e+00
 0.000000e+00 0.000000e+00 6.180280e-01 3.819720e-01 0.000000e+00
 0.000000e+00 0.000000e+00 0.000000e+00 8.298873e-01 1.701127e-01
 0.000000e+00 0.000000e+00 0.000000e+00 0.000000e+00 0.000000e+00
<ENDHMM>
~h "uw"
<BEGINHMM>
<NUMSTATES> 5
<STATE> 2
<MEAN> 13
 4.366574e+00 2.884075e+00 -4.377009e+00 -1.293819e+01 -6.186503e+00 1.967041e+00 -1.615742e+01 -1.017764e+01 -6.824462e+00 -2.986103e+00 6.091187e-01 -5.240246e+00 6.276870e+01
<VARIANCE> 13
 4.353580e+01 4.358291e+01 1.934811e+01 1.283449e+02 1.150531e+02 5.654757e+01 6.389637e+01 4.605258e+01 7.437107e+01 3.983867e+01 3.739106e+01 6.190941e+01 1.061746e+02
<GCONST> 7.643159e+01
<STATE> 3
<MEAN> 13
 4.712530e+00 3.923811e+00 -5.659005e+00 -1.637294e+01 -8.108353e+00 2.040074e+00 -1.346857e+01 -8.133603e+00 -7.724796e+00 -2.987460e+00 -1.724409e-01 -3.866677e+00 6.252404e+01
<VARIANCE> 13
 4.261024e+01 4.479315e+01 2.119807e+01 1.195310e+02 9.145699e+01 6.368040e+01 4.800666e+01 3.914942e+01 5.305544e+01 4.549344e+01 3.828875e+01 8.444485e+01 1.220087e+02
<GCONST> 7.616676e+01
<STATE> 4
<MEAN> 13
 4.518480e+00 9.641833e-01 -6.675007e+00 -1.761931e+01 -2.280200e+00 3.876880e+00 -1.114115e+01 -5.829339e+00 -5.012774e+00 4.100901e+00 -3.497933e+00 -3.346089e+00 6.121684e+01
<VARIANCE> 13
 5.071313e+01 9.974496e+01 3.410184e+01 1.870314e+02 1.058424e+02 8.627714e+01 4.512579e+01 5.546951e+01 4.612947e+01 1.132642e+02 6.519846e+01 1.165314e+02 1.620597e+02
<GCONST> 8.071138e+01
<TRANSP> 5
 0.000000e+00 1.000000e+00 0.000000e+00 0.000000e+00 0.000000e+00
 0.000000e+00 7.022847e-01 2.977153e-01 0.000000e+00 0.000000e+00
 0.000000e+00 0.000000e+00 6.965081e-01 3.034919e-01 0.000000e+00
 0.000000e+00 0.000000e+00 0.000000e+00 7.733796e-01 2.266204e-01
 0.000000e+00 0.000000e+00 0.000000e+00 0.000000e+00 0.000000e+00
<ENDHMM>
~h "sil"
<BEGINHMM>
<NUMSTATES> 5
<STATE> 2
<MEAN> 13
 -1.187702e+01 2.275710e+00 -2.128246e+00 3.433153e+00 1.216344e+00 1.430834e+00 1.469517e+00 1.123856e+00 2.690754e+00 -7.504652e-01 8.296323e-01 -1.364834e+00 4.702671e+01
<VARIANCE> 13
 5.304340e+01 1.595500e+01 2.046320e+01 2.088711e+01 2.557032e+01 2.378564e+01 1.893564e+01 1.440646e+01 1.512610e+01 1.122799e+01 1.162526e+01 1.121976e+01 1.700954e+02
<GCONST> 6.385233e+01
<STATE> 3
<MEAN> 13
 -1.162067e+01 2.134133e+00 -2.529404e+00 2.189041e+00 7.947030e-01 1.822774e+00 1.678391e+00 1.094334e+00 2.758237e+00 -9.299459e-01 9.906999e-01 -1.131813e+00 4.638147e+01
<VARIANCE> 13
 5.222220e+01 8.462144e+00 1.844733e+01 1.324333e+01 2.334978e+01 1.606507e+01 1.544528e+01 1.080143e+01 1.043042e+01 8.745578e+00 8.703398e+00 8.203648e+00 1.552747e+02
<GCONST> 6.035291e+01
<STATE> 4
<MEAN> 13
 -2.279694e+01 3.050578e+00 -8.123324e+00 4.401552e+00 -5.343409e+00 5.039055e+00 -1.935492e+00 1.790450e+00 1.801672e+00 -6.891803e-01 1.415814e+00 -6.130188e-01 2.721032e+01
<VARIANCE> 13
 4.937423e+01 5.050356e+00 1.519694e+01 1.042257e+01 2.090605e+01 1.549193e+01 1.554588e+01 1.283358e+01 1.269778e+01 1.029314e+01 1.021363e+01 9.415262e+00 1.296428e+02
<GCONST> 5.985633e+01
<TRANSP> 5
 0.000000e+00 1.000000e+00 0.000000e+00 0.000000e+00 0.000000e+00
 0.000000e+00 8.510303e-01 1.489697e-01 0.000000e+00 0.000000e+00
 0.000000e+00 0.000000e+00 8.814304e-01 1.185696e-01 0.000000e+00
 0.000000e+00 0.000000e+00 0.000000e+00 9.430317e-01 5.696831e-02
 0.000000e+00 0.000000e+00 0.000000e+00 0.000000e+00 0.000000e+00
<ENDHMM>
