~o
<STREAMINFO> 1 13
<VECSIZE> 13<NULLD><MFCC_0><DIAGC>
~h "b"
<BEGINHMM>
<NUMSTATES> 5
<STATE> 2
<MEAN> 13
 3.257781e+00 5.570082e+00 -7.486819e+00 -2.918230e+00 -2.857076e+00 4.299652e+00 -9.751507e+00 -3.440949e+00 -5.163229e+00 -2.773800e+00 -5.209352e+00 -4.072401e+00 4.876460e+01
<VARIANCE> 13
 9.454004e+01 1.577575e+02 3.291793e+01 9.509493e+01 8.585338e+01 9.767095e+01 6.157141e+01 4.514363e+01 5.964696e+01 5.482903e+01 2.770052e+01 4.612109e+01 7.493632e+01
<GCONST> 7.807768e+01
<STATE> 3
<MEAN> 13
 -2.828895e+00 -6.310254e-01 -8.160414e+00 4.859536e-01 -3.473470e+00 8.990477e-01 -3.942123e+00 -3.153029e+00 -3.381978e+00 -3.184993e+00 -3.106055e+00 -4.057808e+00 4.957412e+01
<VARIANCE> 13
 2.678014e+01 7.057749e+01 2.830815e+01 2.347488e+01 5.433688e+01 2.248512e+01 5.418159e+01 3.140051e+01 5.507303e+01 4.080579e+01 2.611459e+01 2.150831e+01 5.484994e+01
<GCONST> 7.053609e+01
<STATE> 4
<MEAN> 13
 -1.343680e+01 5.700582e+00 -9.550997e+00 6.127808e+00 -3.894140e+00 3.533574e+00 -8.707982e+00 -3.176286e+00 -4.549716e+00 -7.593313e+00 -4.802151e+00 -7.457587e+00 3.371635e+01
<VARIANCE> 13
 3.675154e+01 2.524133e+01 3.733091e+01 3.102507e+01 4.028762e+01 4.009681e+01 3.879052e+01 5.183746e+01 2.378658e+01 3.079770e+01 3.960893e+01 3.219943e+01 6.878575e+01
<GCONST> 7.075187e+01
<TRANSP> 5
 0.000000e+00 1.000000e+00 0.000000e+00 0.000000e+00 0.000000e+00
 0.000000e+00 8.467309e-01 1.532690e-01 0.000000e+00 0.000000e+00
 0.000000e+00 0.000000e+00 6.949223e-01 3.050777e-01 0.000000e+00
 0.000000e+00 0.000000e+00 0.000000e+00 8.871480e-01 1.128520e-01
 0.000000e+00 0.000000e+00 0.000000e+00 0.000000e+00 0.000000e+00
<ENDHMM>
~h "d"
<BEGINHMM>
<NUMSTATES> 5
<STATE> 2
<MEAN> 13
 6.153610e-01 -5.002120e+00 -6.457237e+00 -7.054220e-01 3.163139e+00 1.034085e+00 -5.942465e+00 -7.382575e+00 -1.507652e+00 -1.654954e-01 -7.867055e+00 -6.642675e+00 5.887735e+01
<VARIANCE> 13
 3.769564e+01 2.002346e+02 1.165954e+02 1.600863e+02 6.496141e+01 6.551128e+01 9.444949e+01 5.800369e+01 7.086726e+01 9.587569e+01 6.181885e+01 3.462122e+01 1.814436e+02
<GCONST> 8.131393e+01
<STATE> 3
<MEAN> 13
 3.110023e+00 -1.244185e+01 -5.298390e+00 -6.683058e+00 4.250234e-01 -2.530519e+00 -7.255504e+00 -7.588909e+00 1.027757e+00 3.313489e+00 -8.454284e+00 -6.494622e+00 6.756263e+01
<VARIANCE> 13
 1.887227e+01 8.524971e+01 4.489769e+01 1.010823e+02 8.650426e+01 5.457967e+01 1.270135e+02 8.980395e+01 9.769656e+01 8.958261e+01 6.631909e+01 3.924947e+01 6.045088e+01
<GCONST> 7.854105e+01
<STATE> 4
<MEAN> 13
 6.176394e+00 -1.529477e+01 -4.857404e+00 -1.174050e+01 -2.368423e+00 -2.047190e+00 -4.088018e+00 -9.000346e+00 -4.291915e-01 9.372555e+00 -1.174053e+01 -6.012064e+00 7.011646e+01
<VARIANCE> 13
 1.563927e+01 3.288788e+01 2.077355e+01 5.610012e+01 8.715415e+01 4.136884e+01 7.479784e+01 8.753555e+01 5.917903e+01 6.239170e+01 4.331331e+01 2.757418e+01 2.465734e+01
<GCONST> 7.267757e+01
<TRANSP> 5
 0.000000e+00 1.000000e+00 0.000000e+00 0.000000e+00 0.000000e+00
 0.000000e+00 3.633011e-01 6.366990e-01 0.000000e+00 0.000000e+00
 0.000000e+00 0.000000e+00 1.597411e-01 8.402588e-01 0.000000e+00
 0.000000e+00 0.000000e+00 0.000000e+00 7.990363e-01 2.009637e-01
 0.000000e+00 0.000000e+00 0.000000e+00 0.000000e+00 0.000000e+00
<ENDHMM>
~h "g"
<BEGINHMM>
<NUMSTATES> 5
<STATE> 2
<MEAN> 13
 -3.431185e+00 -4.150620e+00 1.648693e+01 -3.988467e+00 -1.461870e+01 -9.775278e+00 -6.268928e+00 -1.169539e+01 -1.255124e+01 -9.869890e-01 5.967229e+00 -7.224518e+00 6.487936e+01
<VARIANCE> 13
 1.174794e+01 4.188345e+01 7.196429e+01 8.362710e+01 9.025285e+01 5.650711e+01 5.053568e+01 3.282009e+01 7.752040e+01 3.525028e+01 1.048649e+02 5.117993e+01 4.467551e+01
<GCONST> 7.504467e+01
<STATE> 3
<MEAN> 13
 -2.758971e+00 -7.463502e-01 9.885713e+00 -2.059745e+00 -1.076050e+01 -1.269704e+01 -5.583963e+00 -3.292426e+00 -4.985045e+00 -1.358242e+00 -2.427116e-01 -5.862189e+00 6.116265e+01
<VARIANCE> 13
 2.229098e+01 1.325341e+02 8.583183e+01 9.184156e+01 7.855113e+01 1.001424e+02 5.770984e+01 4.278222e+01 4.389706e+01 2.720101e+01 1.026263e+02 6.837571e+01 1.113427e+02
<GCONST> 7.829161e+01
<STATE> 4
<MEAN> 13
 1.297864e+00 -1.918386e+01 -7.762649e+00 -8.653685e+00 -9.712837e+00 -6.566822e+00 -9.702448e+00 1.405585e+00 2.175611e+00 1.217620e+00 -2.040963e+00 -1.544353e+01 7.454744e+01
<VARIANCE> 13
 1.356600e+01 5.028094e+01 3.991909e+01 2.988512e+01 3.687325e+01 8.262481e+01 4.807642e+01 6.668746e+01 1.108802e+02 3.006373e+01 7.711443e+01 1.082250e+02 5.175496e+01
<GCONST> 7.468420e+01
<TRANSP> 5
 0.000000e+00 1.000000e+00 0.000000e+00 0.000000e+00 0.000000e+00
 0.000000e+00 8.885201e-01 1.114800e-01 0.000000e+00 0.000000e+00
 0.000000e+00 0.000000e+00 7.616944e-01 2.383056e-01 0.000000e+00
 0.000000e+00 0.000000e+00 0.000000e+00 8.582513e-01 1.417488e-01
 0.000000e+00 0.000000e+00 0.000000e+00 0.000000e+00 0.000000e+00
<ENDHMM>
~h "j"
<BEGINHMM>
<NUMSTATES> 5
<STATE> 2
<MEAN> 13
 -5.244700e+00 1.204895e+01 2.768990e+01 -5.061506e+00 -6.778732e+00 -4.078225e+00 -9.759357e+00 -4.911292e+00 -1.546531e+01 2.353070e+00 -8.624599e-02 -4.635938e+00 5.176133e+01
<VARIANCE> 13
 1.961030e+01 1.419968e+02 1.462033e+02 1.811973e+02 7.133939e+01 4.534700e+01 5.829358e+01 4.138139e+01 7.383593e+01 4.444710e+01 4.863479e+01 2.402991e+01 7.530845e+01
<GCONST> 7.736034e+01
<STATE> 3
<MEAN> 13
 5.219687e-01 -4.003298e+00 6.551810e+00 3.185400e+00 -1.100461e+01 -6.781752e+00 -1.150277e+01 -1.177460e+01 -6.833942e+00 -1.356918e+00 6.391780e+00 -5.681309e+00 6.347715e+01
<VARIANCE> 13
 3.107102e+01 3.819187e+01 8.657048e+01 3.880444e+01 5.113066e+01 7.011996e+01 1.244069e+02 1.183009e+02 5.017419e+01 4.341418e+01 6.968208e+01 4.635447e+01 4.599255e+01
<GCONST> 7.646719e+01
<STATE> 4
<MEAN> 13
 6.597419e+00 5.502080e+00 -4.144046e+00 8.491687e-01 -4.455070e+00 5.480856e+00 -1.420514e+01 -1.803824e+01 -9.466163e+00 -1.784034e+00 3.060241e+00 -3.776892e+00 5.354924e+01
<VARIANCE> 13
 3.646297e+01 1.862719e+02 2.652567e+01 3.879313e+01 2.083206e+01 4.903617e+01 7.484621e+01 3.164490e+01 4.994847e+01 3.233009e+01 9.459679e+01 2.465989e+01 9.336736e+01
<GCONST> 7.402966e+01
<TRANSP> 5
 0.000000e+00 1.000000e+00 0.000000e+00 0.000000e+00 0.000000e+00
 0.000000e+00 8.442550e-01 1.557450e-01 0.000000e+00 0.000000e+00
 0.000000e+00 0.000000e+00 8.548984e-01 1.451016e-01 0.000000e+00
 0.000000e+00 0.000000e+00 0.000000e+00 8.362748e-01 1.637252e-01
 0.000000e+00 0.000000e+00 0.000000e+00 0.000000e+00 0.000000e+00
<ENDHMM>
~h "k"
<BEGINHMM>
<NUMSTATES> 5
<STATE> 2
<MEAN> 13
 -6.144376e+00 -2.796494e-01 -5.672876e+00 -5.789676e-01 5.222725e-01 1.367550e+00 -4.967040e+00 -4.986410e+00 -6.710305e-01 8.636346e-01 1.832889e-01 -2.300681e+00 5.093539e+01
<VARIANCE> 13
 4.540521e+01 8.267020e+01 7.091067e+01 7.061072e+01 6.366866e+01 6.554287e+01 5.724709e+01 5.819294e+01 5.232204e+01 4.621592e+01 3.578120e+01 2.693953e+01 1.285828e+02
<GCONST> 7.660736e+01
<STATE> 3
<MEAN> 13
 -5.722636e+00 -3.488008e+00 -7.532912e+00 -8.804302e-01 2.567651e+00 1.921881e+00 -4.680641e+00 -4.372709e+00 -7.745640e-01 1.259834e+00 1.093817e+00 -3.116688e+00 5.359814e+01
<VARIANCE> 13
 4.356076e+01 9.503766e+01 9.677621e+01 8.845616e+01 8.854164e+01 9.201505e+01 6.334602e+01 6.775613e+01 6.654684e+01 5.447459e+01 4.065501e+01 3.357426e+01 1.291694e+02
<GCONST> 7.892135e+01
<STATE> 4
<MEAN> 13
 -8.367724e+00 -1.850160e+00 -8.848496e+00 2.152904e+00 6.094964e+00 2.881414e+00 -2.446503e+00 -2.969198e+00 -1.552911e+00 3.147267e+00 1.274749e+00 -3.625982e+00 4.816452e+01
<VARIANCE> 13
 8.787780e+01 1.431117e+02 1.312176e+02 1.836908e+02 1.544875e+02 2.271261e+02 7.883468e+01 1.415502e+02 1.058412e+02 8.466457e+01 6.558170e+01 6.571276e+01 2.164814e+02
<GCONST> 8.605444e+01
<TRANSP> 5
 0.000000e+00 1.000000e+00 0.000000e+00 0.000000e+00 0.000000e+00
 0.000000e+00 4.197084e-01 5.802916e-01 0.000000e+00 0.000000e+00
 0.000000e+00 0.000000e+00 2.789244e-01 7.210755e-01 0.000000e+00
 0.000000e+00 0.000000e+00 0.000000e+00 6.032057e-01 3.967944e-01
 0.000000e+00 0.000000e+00 0.000000e+00 0.000000e+00 0.000000e+00
<ENDHMM>
~h "l"
<BEGINHMM>
<NUMSTATES> 5
<STATE> 2
<MEAN> 13
 3.546885e+00 -1.875303e+01 -1.048958e+01 -1.454359e+01 2.595941e+00 6.421202e+00 -7.685461e+00 -6.520498e+00 5.736332e+00 2.651414e+00 -7.568865e+00 -8.542588e+00 7.243388e+01
<VARIANCE> 13
 6.325814e+00 5.090365e+01 2.725175e+01 3.419881e+01 1.072606e+02 1.181791e+02 2.977910e+01 5.427007e+01 1.036555e+02 3.847967e+01 1.106450e+02 9.641499e+01 1.372978e+01
<GCONST> 7.352529e+01
<STATE> 3
<MEAN> 13
 4.180620e+00 -1.122351e+01 -9.032068e+00 -1.194320e+01 9.710214e-01 4.974164e+00 -6.019375e+00 -7.155147e+00 -3.358594e-01 1.532879e+00 -7.032187e+00 -7.188122e+00 6.487162e+01
<VARIANCE> 13
 1.001115e+01 5.361074e+01 2.137182e+01 3.845833e+01 7.746918e+01 7.577940e+01 2.895697e+01 3.567113e+01 9.507171e+01 4.016669e+01 8.309100e+01 5.522293e+01 3.810052e+01
<GCONST> 7.282657e+01
<STATE> 4
<MEAN> 13
 3.547845e+00 -3.138566e+00 -5.865245e+00 -7.050562e+00 2.122510e+00 4.766881e+00 -4.309517e+00 -5.641820e+00 1.664678e-01 1.366200e+00 -6.270600e+00 -5.041469e+00 5.989488e+01
<VARIANCE> 13
 2.827287e+01 2.067047e+02 3.321063e+01 8.019165e+01 5.498459e+01 6.593060e+01 2.835130e+01 4.601252e+01 5.239146e+01 3.921899e+01 7.381263e+01 4.226262e+01 1.256266e+02
<GCONST> 7.632878e+01
<TRANSP> 5
 0.000000e+00 1.000000e+00 0.000000e+00 0.000000e+00 0.000000e+00
 0.000000e+00 9.341501e-01 6.584986e-02 0.000000e+00 0.000000e+00
 0.000000e+00 0.000000e+00 4.489803e-01 5.510197e-01 0.000000e+00
 0.000000e+00 0.000000e+00 0.000000e+00 2.656345e-01 7.343655e-01
 0.000000e+00 0.000000e+00 0.000000e+00 0.000000e+00 0.000000e+00
<ENDHMM>
~h "m"
<BEGINHMM>
<NUMSTATES> 5
<STATE> 2
<MEAN> 13
 5.897589e+00 -7.672443e+00 -6.327003e+00 -3.110528e+00 -2.880583e-01 1.087603e+00 -3.734574e+00 -1.126880e+01 -1.255913e+01 1.920658e+00 -2.559924e+00 -6.853573e+00 6.211596e+01
<VARIANCE> 13
 1.710378e+01 8.146269e+01 5.429833e+01 4.275801e+01 9.095111e+01 7.358417e+01 4.251421e+01 4.065891e+01 1.090437e+02 3.889430e+01 5.079334e+01 4.955143e+01 3.297646e+01
<GCONST> 7.482488e+01
<STATE> 3
<MEAN> 13
 4.076234e+00 -2.562346e+00 -3.524376e+00 4.189042e-02 4.069157e+00 1.717245e+00 -5.361403e+00 -1.353109e+01 -9.827110e+00 1.833039e-01 -5.112114e+00 -2.687898e+00 5.909899e+01
<VARIANCE> 13
 1.848591e+01 1.059454e+02 5.039160e+01 4.792770e+01 1.271882e+02 8.016417e+01 4.250420e+01 5.149298e+01 8.215084e+01 3.663906e+01 4.951677e+01 6.810689e+01 4.481980e+01
<GCONST> 7.611835e+01
<STATE> 4
<MEAN> 13
 -5.902816e+00 3.113772e+00 -7.345963e+00 6.192101e+00 7.682835e-01 5.517076e+00 -7.572883e+00 -6.239932e+00 -5.284260e+00 -5.471895e+00 -5.821698e+00 -4.523867e+00 4.302400e+01
<VARIANCE> 13
 6.949078e+01 1.228746e+02 7.466772e+01 9.317842e+01 7.373700e+01 5.367351e+01 3.994742e+01 5.940330e+01 5.185788e+01 4.104089e+01 3.301558e+01 3.290722e+01 1.441876e+02
<GCONST> 7.747252e+01
<TRANSP> 5
 0.000000e+00 1.000000e+00 0.000000e+00 0.000000e+00 0.000000e+00
 0.000000e+00 6.315208e-01 3.684792e-01 0.000000e+00 0.000000e+00
 0.000000e+00 0.000000e+00 5.522290e-01 4.477710e-01 0.000000e+00
 0.000000e+00 0.000000e+00 0.000000e+00 8.043227e-01 1.956773e-01
 0.000000e+00 0.000000e+00 0.000000e+00 0.000000e+00 0.000000e+00
<ENDHMM>
~h "n"
<BEGINHMM>
<NUMSTATES> 5
<STATE> 2
<MEAN> 13
 -2.468646e+00 9.336978e-01 -4.014783e+00 3.434369e+00 -2.428836e+00 -3.201782e+00 -6.184909e+00 -4.829692e+00 -1.418378e+00 -3.925221e+00 -7.567588e+00 -4.700935e+00 5.179500e+01
<VARIANCE> 13
 4.401782e+01 3.601708e+01 4.919331e+01 4.937458e+01 4.997894e+01 6.629688e+01 2.476962e+01 3.305667e+01 2.236127e+01 2.716603e+01 3.714315e+01 4.408234e+01 1.067260e+02
<GCONST> 7.235017e+01
<STATE> 3
<MEAN> 13
 -1.199909e+00 3.545779e+00 -2.376232e+00 2.457596e+00 -1.174818e+00 -1.553064e+00 -5.693326e+00 -5.030430e+00 -5.878029e-01 -4.681599e+00 -7.114344e+00 -1.466339e+00 5.272795e+01
<VARIANCE> 13
 5.739056e+01 4.751742e+01 4.619507e+01 1.118035e+02 5.922877e+01 7.814933e+01 3.785938e+01 4.141857e+01 2.985909e+01 3.603962e+01 6.933502e+01 7.186747e+01 1.007651e+02
<GCONST> 7.625831e+01
<STATE> 4
<MEAN> 13
 -8.393471e+00 9.526826e+00 -3.822337e+00 8.453841e+00 -2.077571e+00 3.746591e+00 -8.022909e+00 -4.126336e+00 -2.671239e+00 -5.923142e+00 -5.062231e+00 -2.548318e+00 3.795325e+01
<VARIANCE> 13
 8.569522e+01 8.518742e+01 6.635748e+01 8.963863e+01 4.514284e+01 5.168456e+01 4.134421e+01 5.250849e+01 3.977308e+01 3.602204e+01 4.166543e+01 4.832976e+01 1.086419e+02
<GCONST> 7.647989e+01
<TRANSP> 5
 0.000000e+00 1.000000e+00 0.000000e+00 0.000000e+00 0.000000e+00
 0.000000e+00 6.169544e-01 3.830456e-01 0.000000e+00 0.000000e+00
 0.000000e+00 0.000000e+00 3.255408e-01 6.744592e-01 0.000000e+00
 0.000000e+00 0.000000e+00 0.000000e+00 8.139923e-01 1.860077e-01
 0.000000e+00 0.000000e+00 0.000000e+00 0.000000e+00 0.000000e+00
<ENDHMM>
~h "p"
<BEGINHMM>
<NUMSTATES> 5
<STATE> 2
<MEAN> 13
 -1.041607e+01 2.598107e+00 -8.590579e+00 5.491014e+00 -1.641081e+00 2.195695e+00 -7.363975e+00 -4.541500e+00 -3.801432e+00 -5.273539e+00 -3.895374e+00 -4.156058e+00 4.054775e+01
<VARIANCE> 13
 3.609558e+01 5.316743e+01 4.278579e+01 4.112179e+01 4.306572e+01 4.139968e+01 5.207607e+01 3.595678e+01 3.407727e+01 3.779004e+01 3.226599e+01 1.900977e+01 1.380424e+02
<GCONST> 7.245299e+01
<STATE> 3
<MEAN> 13
 -6.631729e+00 -2.124835e+00 -5.320537e+00 6.446266e-01 1.304615e+00 6.719577e-01 -1.096318e+00 -2.872780e+00 -1.057554e-01 -6.803099e-01 1.312760e-01 -2.767633e+00 5.317349e+01
<VARIANCE> 13
 4.119312e+01 5.439552e+01 6.010107e+01 4.537054e+01 4.989645e+01 4.020091e+01 4.345925e+01 3.637902e+01 3.356324e+01 2.991229e+01 3.235270e+01 2.595107e+01 1.558818e+02
<GCONST> 7.318121e+01
<STATE> 4
<MEAN> 13
 -2.278928e+00 -3.847538e+00 -8.493382e+00 -2.591799e+00 -1.160771e+00 1.492646e+00 -3.428378e+00 -4.363279e+00 -2.037152e+00 1.901465e+00 -4.922253e-01 -5.706770e+00 5.513152e+01
<VARIANCE> 13
 8.155461e+01 1.061063e+02 1.121071e+02 1.164343e+02 5.814046e+01 7.417921e+01 5.516745e+01 8.286557e+01 5.344712e+01 5.939276e+01 5.167250e+01 3.911725e+01 1.884595e+02
<GCONST> 8.014507e+01
<TRANSP> 5
 0.000000e+00 1.000000e+00 0.000000e+00 0.000000e+00 0.000000e+00
 0.000000e+00 7.977827e-01 2.022173e-01 0.000000e+00 0.000000e+00
 0.000000e+00 0.000000e+00 4.813662e-01 5.186338e-01 0.000000e+00
 0.000000e+00 0.000000e+00 0.000000e+00 3.354682e-01 6.645318e-01
 0.000000e+00 0.000000e+00 0.000000e+00 0.000000e+00 0.000000e+00
<ENDHMM>
~h "r"
<BEGINHMM>
<NUMSTATES> 5
<STATE> 2
<MEAN> 13
 5.749546e+00 -1.000322e+01 -1.255489e+01 -2.075160e-01 -1.357322e+01 -5.428286e+00 -6.253100e+00 1.965275e+00 5.514065e+00 -4.266299e+00 -5.186552e+00 -2.643709e+00 6.738311e+01
<VARIANCE> 13
 2.449202e+01 4.616898e+01 1.096411e+02 4.339958e+01 1.803380e+02 6.028708e+01 3.736594e+01 6.271663e+01 4.716955e+01 1.019610e+02 2.416351e+01 8.743166e+01 3.648548e+01
<GCONST> 7.617501e+01
<STATE> 3
<MEAN> 13
 1.693432e+00 -1.163499e+01 -5.209982e+00 -3.770152e-01 -4.022849e+00 -4.675755e+00 -4.731380e+00 -4.099295e-01 2.491726e+00 8.384870e-01 -4.024822e+00 -5.827509e+00 6.330909e+01
<VARIANCE> 13
 1.960067e+01 4.988442e+01 6.514059e+01 4.145284e+01 7.285245e+01 6.497075e+01 4.113893e+01 6.742818e+01 5.358129e+01 5.619588e+01 3.578516e+01 5.679305e+01 5.742824e+01
<GCONST> 7.474670e+01
<STATE> 4
<MEAN> 13
 -3.239388e+00 -4.114490e+00 -3.969854e+00 9.201073e+00 -1.210176e+00 -1.071326e-01 -3.507025e+00 3.125937e+00 5.241778e-01 -2.522536e+00 -2.897013e+00 -2.480276e+00 5.088014e+01
<VARIANCE> 13
 5.352315e+01 1.160231e+02 7.537888e+01 1.517106e+02 7.881148e+01 8.901807e+01 6.124525e+01 8.512523e+01 5.705684e+01 5.997797e+01 4.212170e+01 4.469051e+01 1.916151e+02
<GCONST> 8.031955e+01
<TRANSP> 5
 0.000000e+00 1.000000e+00 0.000000e+00 0.000000e+00 0.000000e+00
 0.000000e+00 6.897426e-01 3.102574e-01 0.000000e+00 0.000000e+00
 0.000000e+00 0.000000e+00 3.467642e-01 6.532358e-01 0.000000e+00
 0.000000e+00 0.000000e+00 0.000000e+00 6.650578e-01 3.349422e-01
 0.000000e+00 0.000000e+00 0.000000e+00 0.000000e+00 0.000000e+00
<ENDHMM>
~h "s"
<BEGINHMM>
<NUMSTATES> 5
<STATE> 2
<MEAN> 13
 -1.066957e+01 5.481241e-01 -3.879673e+00 -9.190769e-02 4.976579e+00 -7.839942e+00 6.209894e-01 -3.766188e+00 3.009936e+00 -1.282936e+00 4.594119e-01 -2.740025e+00 6.093271e+01
<VARIANCE> 13
 4.864178e+01 5.099803e+01 5.799535e+01 7.522264e+01 6.864353e+01 6.440311e+01 7.278413e+01 4.577102e+01 4.281532e+01 3.741484e+01 5.284711e+01 3.733395e+01 9.342141e+01
<GCONST> 7.609811e+01
<STATE> 3
<MEAN> 13
 -1.570779e+01 2.928438e+00 -5.429502e+00 5.148949e+00 5.777562e+00 -8.009791e+00 4.467857e+00 -1.827695e+00 4.987286e+00 -1.387810e+00 1.585609e+00 -2.351373e+00 6.174940e+01
<VARIANCE> 13
 3.615586e+01 4.942207e+01 3.842802e+01 1.025272e+02 5.951191e+01 5.052529e+01 6.434125e+01 4.695786e+01 3.854665e+01 3.453353e+01 2.883361e+01 2.775128e+01 4.698380e+01
<GCONST> 7.341008e+01
<STATE> 4
<MEAN> 13
 -2.262570e+01 4.915066e-02 -2.372065e+00 -2.300482e+00 1.457305e+01 -1.515264e+01 7.022849e+00 -1.725247e+00 6.470355e+00 -7.012731e+00 9.489493e-02 8.572999e-01 5.561601e+01
<VARIANCE> 13
 1.076215e+02 6.871949e+01 4.895489e+01 5.035618e+01 9.950586e+01 9.104750e+01 1.054475e+02 5.349709e+01 6.356839e+01 5.522789e+01 4.407769e+01 5.388944e+01 7.104264e+01
<GCONST> 7.856026e+01
<TRANSP> 5
 0.000000e+00 1.000000e+00 0.000000e+00 0.000000e+00 0.000000e+00
 0.000000e+00 4.691642e-01 5.308358e-01 0.000000e+00 0.000000e+00
 0.000000e+00 0.000000e+00 6.394469e-01 3.605531e-01 0.000000e+00
 0.000000e+00 0.000000e+00 0.000000e+00 7.539327e-01 2.460673e-01
 0.000000e+00 0.000000e+00 0.000000e+00 0.000000e+00 0.000000e+00
<ENDHMM>
~h "t"
<BEGINHMM>
<NUMSTATES> 5
<STATE> 2
<MEAN> 13
 -6.157962e+00 -1.601492e+00 -9.220247e+00 -3.043697e-01 -1.827751e+00 1.434765e+00 -6.261728e+00 -5.879151e+00 -2.380420e-01 -2.015923e+00 -2.619625e+00 -2.053504e+00 4.829751e+01
<VARIANCE> 13
 6.770399e+01 8.025153e+01 9.265939e+01 1.538627e+02 7.677908e+01 1.103991e+02 9.187148e+01 7.963936e+01 7.618514e+01 7.238069e+01 5.082551e+01 4.899296e+01 1.854735e+02
<GCONST> 8.165872e+01
<STATE> 3
<MEAN> 13
 1.645641e+00 -4.457507e+00 -7.125294e+00 -1.244498e+01 -8.547437e+00 2.455021e+00 -1.132553e+01 -1.016017e+01 -1.010760e+00 -1.084788e+00 1.938858e+00 -3.279243e+00 6.440371e+01
<VARIANCE> 13
 3.760160e+01 4.322359e+01 4.416386e+01 1.221646e+02 8.057587e+01 9.491231e+01 8.114095e+01 6.069043e+01 8.264526e+01 5.126106e+01 4.619809e+01 6.763457e+01 1.180731e+02
<GCONST> 7.849308e+01
<STATE> 4
<MEAN> 13
 4.757890e+00 -1.705265e+00 -2.648608e+00 -1.354759e+01 -2.559402e+00 8.274273e+00 -1.348632e+01 -1.353590e+01 -4.941815e+00 2.318375e+00 1.311283e+00 -1.994676e+00 6.193826e+01
<VARIANCE> 13
 3.188146e+01 9.551564e+01 4.017068e+01 1.510029e+02 9.806663e+01 7.316645e+01 7.076928e+01 5.010613e+01 1.003641e+02 6.942854e+01 1.139833e+02 6.026426e+01 1.085729e+02
<GCONST> 8.004742e+01
<TRANSP> 5
 0.000000e+00 1.000000e+00 0.000000e+00 0.000000e+00 0.000000e+00
 0.000000e+00 5.833586e-01 4.166414e-01 0.000000e+00 0.000000e+00
 0.000000e+00 0.000000e+00 5.501767e-01 4.498233e-01 0.000000e+00
 0.000000e+00 0.000000e+00 0.000000e+00 8.661946e-01 1.338054e-01
 0.000000e+00 0.000000e+00 0.000000e+00 0.000000e+00 0.000000e+00
<ENDHMM>
~h "w"
<BEGINHMM>
<NUMSTATES> 5
<STATE> 2
<MEAN> 13
 -1.369969e+01 -5.984077e+00 3.438121e+00 -5.503830e+00 8.059332e+00 -5.335079e+00 -5.641634e+00 -4.705191e+00 2.736870e+00 -4.874323e+00 4.034624e+00 -5.703259e+00 6.499556e+01
<VARIANCE> 13
 1.092516e+02 5.416496e+01 2.112983e+01 4.327383e+01 1.281789e+02 6.719954e+01 3.852629e+01 5.244424e+01 5.924875e+01 3.058878e+01 1.267046e+01 1.470833e+01 1.775408e+01
<GCONST> 7.167520e+01
<STATE> 3
<MEAN> 13
 -9.331017e+00 -9.632443e-01 3.131008e+00 -2.416563e-01 3.376215e+00 -5.130227e+00 -6.960262e+00 -2.313329e+00 3.198120e+00 -3.550295e+00 1.882447e+00 -2.020035e+00 6.358319e+01
<VARIANCE> 13
 1.126801e+02 2.944726e+01 3.766907e+01 2.803821e+01 6.409890e+01 7.357284e+01 2.611707e+01 4.355685e+01 5.867871e+01 7.268687e+01 4.524423e+01 1.523245e+01 1.375346e+01
<GCONST> 7.197235e+01
<STATE> 4
<MEAN> 13
 -6.309746e+00 -3.578863e+00 2.243753e+00 2.224987e+00 -9.125284e-01 -3.587416e-01 -4.323131e+00 -7.675113e+00 -6.194371e+00 -5.863307e+00 -7.898890e-01 2.211305e+00 5.493113e+01
<VARIANCE> 13
 2.354793e+01 1.052341e+01 2.346107e+01 2.140353e+01 2.105638e+01 6.444885e+01 4.078516e+01 3.565617e+01 2.525613e+01 2.199876e+01 4.193248e+01 2.462428e+01 4.699637e+01
<GCONST> 6.722917e+01
<TRANSP> 5
 0.000000e+00 1.000000e+00 0.000000e+00 0.000000e+00 0.000000e+00
 0.000000e+00 8.669709e-01 1.330291e-01 0.000000e+00 0.000000e+00
 0.000000e+00 0.000000e+00 5.194029e-01 4.805972e-01 0.000000e+00
 0.000000e+00 0.000000e+00 0.000000e+00 8.365163e-01 1.634838e-01
 0.000000e+00 0.000000e+00 0.000000e+00 0.000000e+00 0.000000e+00
<ENDHMM>
~h "ah"
<BEGINHMM>
<NUMSTATES> 5
<STATE> 2
<MEAN> 13
 3.194499e+00 -1.787321e+01 -1.146438e+01 -8.910028e+00 5.088272e-01 1.739759e-01 -2.374326e+00 -6.162008e+00 2.326658e+00 3.684790e+00 -4.992931e+00 -9.244166e+00 7.092738e+01
<VARIANCE> 13
 1.453280e+01 5.491107e+01 3.455851e+01 4.404351e+01 8.113262e+01 9.573798e+01 4.599187e+01 5.605960e+01 1.103437e+02 5.942925e+01 6.342897e+01 4.370971e+01 3.480315e+01
<GCONST> 7.498052e+01
<STATE> 3
<MEAN> 13
 3.065748e+00 -1.879251e+01 -1.107534e+01 -8.116351e+00 -4.560871e-02 -5.860065e-01 -2.470640e+00 -4.907205e+00 2.421632e+00 3.329211e+00 -8.201051e+00 -1.074333e+01 7.216873e+01
<VARIANCE> 13
 7.640185e+00 3.972599e+01 2.601808e+01 3.268023e+01 6.753221e+01 6.602543e+01 4.766729e+01 5.436599e+01 1.029809e+02 4.695068e+01 5.492376e+01 4.906441e+01 3.154526e+01
<GCONST> 7.245017e+01
<STATE> 4
<MEAN> 13
 2.278852e+00 -1.071119e+01 -6.717223e+00 -7.264243e+00 6.533422e+00 -5.252163e+00 -5.100487e-01 -4.019888e+00 3.995122e+00 4.228395e-01 -1.172405e+01 -3.979696e+00 6.520697e+01
<VARIANCE> 13
 1.414215e+01 5.517926e+01 3.145881e+01 6.070990e+01 1.118972e+02 8.117734e+01 5.724201e+01 5.942387e+01 7.226980e+01 6.662197e+01 6.707626e+01 6.600127e+01 5.329507e+01
<GCONST> 7.620393e+01
<TRANSP> 5
 0.000000e+00 1.000000e+00 0.000000e+00 0.000000e+00 0.000000e+00
 0.000000e+00 6.702200e-01 3.297800e-01 0.000000e+00 0.000000e+00
 0.000000e+00 0.000000e+00 7.748970e-01 2.251029e-01 0.000000e+00
 0.000000e+00 0.000000e+00 0.000000e+00 6.316156e-01 3.683843e-01
 0.000000e+00 0.000000e+00 0.000000e+00 0.000000e+00 0.000000e+00
<ENDHMM>
~h "ax"
<BEGINHMM>
<NUMSTATES> 5
<STATE> 2
<MEAN> 13
 2.763269e+00 -1.148299e+01 3.617850e+00 -6.599128e+00 -6.947960e+00 -1.153455e+01 -3.465547e+00 -7.493314e-01 -7.184462e+00 6.654912e+00 -4.057683e+00 -3.200303e+00 6.949362e+01
<VARIANCE> 13
 1.330061e+01 4.419512e+01 1.029288e+02 6.840265e+01 9.204678e+01 7.238537e+01 6.143369e+01 8.565632e+01 6.848966e+01 4.949439e+01 7.198782e+01 4.832339e+01 2.874138e+01
<GCONST> 7.614217e+01
<STATE> 3
<MEAN> 13
 4.505819e+00 -1.339502e+01 -6.431070e+00 -8.032249e+00 -3.821442e-01 -1.359333e+00 -5.418139e+00 -3.858256e+00 -1.799756e+00 7.274980e+00 -6.724114e+00 -8.849287e+00 6.929497e+01
<VARIANCE> 13
 1.070925e+01 3.975311e+01 2.811647e+01 4.810910e+01 5.778749e+01 5.335494e+01 3.962603e+01 6.640704e+01 7.044118e+01 4.374565e+01 7.670494e+01 4.386635e+01 4.338289e+01
<GCONST> 7.298941e+01
<STATE> 4
<MEAN> 13
 1.918627e-01 -5.050579e+00 -4.550381e+00 -4.605792e+00 1.743262e+00 -4.695720e+00 -6.051502e+00 -5.521622e+00 2.569015e+00 4.768699e+00 -4.848958e+00 -5.948338e+00 6.368461e+01
<VARIANCE> 13
 2.541612e+01 5.012242e+01 3.043822e+01 5.310785e+01 1.064011e+02 8.082651e+01 6.484801e+01 8.294441e+01 1.183676e+02 5.665612e+01 5.907379e+01 6.288195e+01 5.799839e+01
<GCONST> 7.717128e+01
<TRANSP> 5
 0.000000e+00 1.000000e+00 0.000000e+00 0.000000e+00 0.000000e+00
 0.000000e+00 8.314853e-01 1.685147e-01 0.000000e+00 0.000000e+00
 0.000000e+00 0.000000e+00 8.224790e-01 1.775210e-01 0.000000e+00
 0.000000e+00 0.000000e+00 0.000000e+00 6.075308e-01 3.924692e-01
 0.000000e+00 0.000000e+00 0.000000e+00 0.000000e+00 0.000000e+00
<ENDHMM>
~h "ay"
<BEGINHMM>
<NUMSTATES> 5
<STATE> 2
<MEAN> 13
 -1.549351e+01 2.433383e+00 -6.061670e+00 9.477967e+00 6.239754e+00 -7.538779e+00 7.509798e+00 1.378012e+00 4.998992e+00 -1.017045e+00 -6.349437e-01 -1.561313e+00 6.083416e+01
<VARIANCE> 13
 4.674501e+01 6.315879e+01 2.953820e+01 8.969540e+01 5.491648e+01 2.872613e+01 4.866042e+01 3.071430e+01 4.707466e+01 3.065960e+01 1.842698e+01 2.697412e+01 5.098512e+01
<GCONST> 7.185299e+01
<STATE> 3
<MEAN> 13
 -1.217139e+01 -3.660717e+00 -3.839744e+00 -1.603623e+00 5.723538e+00 -5.788919e+00 2.437933e+00 -2.007630e+00 4.531062e+00 -3.008166e+00 -1.855208e+00 -5.483039e+00 5.981751e+01
<VARIANCE> 13
 1.197448e+02 9.655861e+01 3.798148e+01 7.943475e+01 9.841126e+01 5.233802e+01 6.466239e+01 4.790313e+01 1.189825e+02 4.885706e+01 5.091867e+01 7.152891e+01 1.111391e+02
<GCONST> 7.942418e+01
<STATE> 4
<MEAN> 13
 -1.564008e-01 -1.117770e+01 5.069742e+00 -1.597014e+01 4.557239e+00 -1.479053e+01 7.319382e+00 8.424529e-01 2.711512e+00 -8.260115e-01 -1.121949e+01 4.041620e+00 6.904095e+01
<VARIANCE> 13
 3.165006e+01 2.612417e+01 8.274481e+01 5.022651e+01 9.014137e+01 5.381844e+01 4.250921e+01 3.359776e+01 6.509360e+01 4.754833e+01 4.757197e+01 3.795763e+01 3.210577e+01
<GCONST> 7.369880e+01
<TRANSP> 5
 0.000000e+00 1.000000e+00 0.000000e+00 0.000000e+00 0.000000e+00
 0.000000e+00 6.255095e-01 3.744905e-01 0.000000e+00 0.000000e+00
 0.000000e+00 0.000000e+00 1.395971e-01 8.604029e-01 0.000000e+00
 0.000000e+00 0.000000e+00 0.000000e+00 8.692054e-01 1.307946e-01
 0.000000e+00 0.000000e+00 0.000000e+00 0.000000e+00 0.000000e+00
<ENDHMM>
~h "eh"
<BEGINHMM>
<NUMSTATES> 5
<STATE> 2
<MEAN> 13
 2.200650e+00 -8.548682e+00 2.089003e+00 2.606121e+00 -8.468054e+00 -1.130088e+01 -9.992755e+00 4.347235e-01 1.924411e+00 -7.701354e-02 -4.050824e+00 -7.258151e+00 6.464841e+01
<VARIANCE> 13
 8.113293e+00 1.572844e+02 1.827525e+01 6.376562e+01 9.661724e+01 3.235162e+01 3.040740e+01 7.955951e+01 4.226792e+01 5.810883e+01 6.318395e+01 7.359911e+01 1.155702e+02
<GCONST> 7.494424e+01
<STATE> 3
<MEAN> 13
 3.852383e+00 -1.103336e+01 7.483675e+00 -5.997730e+00 -5.125123e+00 -1.226849e+01 -1.271943e+01 -2.936625e+00 -4.717091e+00 3.215272e+00 -3.975116e+00 -1.441641e+00 6.768491e+01
<VARIANCE> 13
 6.785604e+00 1.671701e+01 2.498320e+01 5.775425e+01 7.726488e+01 1.115999e+02 6.272501e+01 2.184307e+02 4.707975e+01 2.825168e+01 3.535103e+01 8.607767e+01 1.607978e+01
<GCONST> 7.247655e+01
<STATE> 4
<MEAN> 13
 6.114782e+00 -4.247132e+00 -1.565729e+00 -7.974672e+00 8.703431e-01 -1.894443e+00 -1.434133e+01 -1.123170e+01 -7.156616e+00 9.059038e+00 6.433773e-01 -1.039705e+00 6.259216e+01
<VARIANCE> 13
 1.030964e+01 3.806933e+01 2.305467e+01 6.698389e+01 9.630553e+01 9.265043e+01 2.402112e+01 4.565370e+01 3.809675e+01 5.137321e+01 9.135778e+01 2.299439e+01 3.006524e+01
<GCONST> 7.193623e+01
<TRANSP> 5
 0.000000e+00 1.000000e+00 0.000000e+00 0.000000e+00 0.000000e+00
 0.000000e+00 9.267581e-01 7.324191e-02 0.000000e+00 0.000000e+00
 0.000000e+00 0.000000e+00 8.638371e-01 1.361628e-01 0.000000e+00
 0.000000e+00 0.000000e+00 0.000000e+00 8.680398e-01 1.319603e-01
 0.000000e+00 0.000000e+00 0.000000e+00 0.000000e+00 0.000000e+00
<ENDHMM>
~h "hh"
<BEGINHMM>
<NUMSTATES> 5
<STATE> 2
<MEAN> 13
 2.258611e+00 -9.647402e+00 1.043680e+00 -6.552846e+00 3.447155e+00 -1.573767e+01 -3.578713e+00 6.453032e+00 1.968021e+00 1.385395e+00 -1.523029e+01 1.155880e+00 6.591756e+01
<VARIANCE> 13
 5.417297e+00 7.331016e+01 3.483580e+01 1.647080e+02 7.855992e+01 8.992973e+01 9.840978e+01 8.045261e+01 3.667857e+01 3.828719e+01 2.322585e+01 8.379333e+01 7.466209e+01
<GCONST> 7.550511e+01
<STATE> 3
<MEAN> 13
 9.895986e-01 -1.606083e+01 -1.216941e+01 -4.899092e+00 5.762324e-03 -2.514213e+00 -6.851266e+00 3.661059e+00 -1.782724e+00 -1.917497e+00 -1.560516e+01 -9.688909e+00 7.595166e+01
<VARIANCE> 13
 6.873947e+00 1.768778e+01 2.470598e+01 5.481509e+01 3.333986e+01 2.279854e+01 2.505214e+01 4.605793e+01 1.381752e+01 2.323284e+01 1.522909e+01 2.346788e+01 8.568707e+00
<GCONST> 6.338679e+01
<STATE> 4
<MEAN> 13
 1.856886e+00 -1.538490e+01 -2.416436e+00 -9.648881e+00 1.474580e+01 -4.574603e+00 8.818463e+00 -4.270110e+00 2.982724e+00 5.996422e+00 -1.896442e+01 8.543563e-01 6.915229e+01
<VARIANCE> 13
 9.657875e+00 1.379040e+01 1.914388e+01 6.087471e+01 4.477878e+01 5.978680e+01 4.760104e+01 4.422320e+01 5.961356e+01 3.342463e+01 4.067542e+01 2.684208e+01 2.037740e+01
<GCONST> 6.899677e+01
<TRANSP> 5
 0.000000e+00 1.000000e+00 0.000000e+00 0.000000e+00 0.000000e+00
 0.000000e+00 8.204243e-01 1.795756e-01 0.000000e+00 0.000000e+00
 0.000000e+00 0.000000e+00 9.096581e-01 9.034192e-02 0.000000e+00
 0.000000e+00 0.000000e+00 0.000000e+00 9.154745e-01 8.452550e-02
 0.000000e+00 0.000000e+00 0.000000e+00 0.000000e+00 0.000000e+00
<ENDHMM>
~h "ih"
<BEGINHMM>
<NUMSTATES> 5
<STATE> 2
<MEAN> 13
 2.766401e+00 7.747653e+00 3.700654e+00 -2.511275e+00 -9.868624e+00 6.158684e-01 -4.902788e+00 -8.674743e+00 -1.246982e+01 -2.554464e+00 -3.427130e+00 -1.375870e+00 5.147468e+01
<VARIANCE> 13
 5.947713e+01 1.829584e+02 1.531928e+02 1.187943e+02 7.050510e+01 9.496941e+01 9.113322e+01 6.084511e+01 7.282021e+01 9.702616e+01 5.654660e+01 3.708789e+01 1.004442e+02
<GCONST> 8.154716e+01
<STATE> 3
<MEAN> 13
 -2.896665e+00 -4.050746e+00 7.546445e+00 -2.854047e-01 -1.465821e+01 -8.525942e+00 -6.782772e+00 -3.718342e+00 -9.104415e+00 -2.517178e+00 4.880391e+00 -5.430908e+00 6.077136e+01
<VARIANCE> 13
 2.049246e+01 9.921097e+01 7.232226e+01 4.843592e+01 9.332088e+01 5.394476e+01 7.470692e+01 6.270519e+01 6.527519e+01 5.477958e+01 6.139932e+01 5.506887e+01 1.111099e+02
<GCONST> 7.766553e+01
<STATE> 4
<MEAN> 13
 -1.202583e+01 1.199282e+00 -2.416464e-01 2.393515e+00 -3.826362e+00 -1.794758e+00 -3.997796e+00 -4.222589e+00 -3.845572e+00 -3.758115e+00 3.003035e-01 -1.206787e+00 4.557347e+01
<VARIANCE> 13
 6.475763e+01 9.230235e+01 5.964227e+01 8.638832e+01 5.580924e+01 7.975497e+01 8.212851e+01 1.032302e+02 5.527106e+01 4.417881e+01 4.176061e+01 3.457127e+01 2.379390e+02
<GCONST> 7.912897e+01
<TRANSP> 5
 0.000000e+00 1.000000e+00 0.000000e+00 0.000000e+00 0.000000e+00
 0.000000e+00 7.128562e-01 2.871438e-01 0.000000e+00 0.000000e+00
 0.000000e+00 0.000000e+00 6.116228e-01 3.883773e-01 0.000000e+00
 0.000000e+00 0.000000e+00 0.000000e+00 6.627951e-01 3.372049e-01
 0.000000e+00 0.000000e+00 0.000000e+00 0.000000e+00 0.000000e+00
<ENDHMM>
~h "iy"
<BEGINHMM>
<NUMSTATES> 5
<STATE> 2
<MEAN> 13
 1.859455e+00 -1.070334e+01 1.582261e+01 -7.253244e+00 -1.262330e+01 -1.277325e+01 -5.553447e+00 -5.280388e+00 -1.324890e+01 5.609749e+00 -3.059176e-01 -3.263485e-01 6.842094e+01
<VARIANCE> 13
 9.495510e+00 3.125466e+01 7.850399e+01 3.484683e+01 3.850978e+01 2.681362e+01 3.822591e+01 3.743058e+01 1.272412e+02 8.070483e+01 7.444223e+01 3.429090e+01 1.313364e+01
<GCONST> 7.136229e+01
<STATE> 3
<MEAN> 13
 -2.812535e+00 -1.106379e+01 1.479935e+01 -7.402307e-01 -2.314154e+01 -1.235465e+01 -1.247436e+01 -8.849779e+00 -8.710636e+00 -5.316145e+00 1.311219e+01 -4.262830e+00 6.846927e+01
<VARIANCE> 13
 7.390256e+00 5.169796e+01 2.793519e+01 2.170762e+01 4.036362e+01 1.735871e+01 3.353135e+01 5.018453e+01 5.542125e+01 6.665781e+01 6.641001e+01 8.794145e+01 9.662243e+00
<GCONST> 6.938103e+01
<STATE> 4
<MEAN> 13
 -3.165854e+00 -3.095889e+00 1.172474e+01 -4.312324e-01 -1.263085e+01 -1.067193e+01 -6.226586e+00 -7.971298e+00 -7.878095e+00 -1.554616e+00 2.556376e+00 -6.872907e-01 6.079845e+01
<VARIANCE> 13
 3.790595e+01 6.164487e+01 7.396082e+01 3.903761e+01 5.994176e+01 5.623817e+01 6.941939e+01 4.092414e+01 8.693062e+01 8.385162e+01 7.946380e+01 3.811211e+01 2.964905e+01
<GCONST> 7.599123e+01
<TRANSP> 5
 0.000000e+00 1.000000e+00 0.000000e+00 0.000000e+00 0.000000e+00
 0.000000e+00 8.386166e-01 1.613834e-01 0.000000e+00 0.000000e+00
 0.000000e+00 0.000000e+00 8.958625e-01 1.041375e-01 0.000000e+00
 0.000000e+00 0.000000e+00 0.000000e+00 7.069291e-01 2.930708e-01
 0.000000e+00 0.000000e+00 0.000000e+00 0.000000e+00 0.000000e+00
<ENDHMM>
~h "ng"
<BEGINHMM>
<NUMSTATES> 5
<STATE> 2
<MEAN> 13
 -5.755669e+00 -1.969880e-01 -1.240656e+01 4.151589e+00 -2.691768e+00 5.691867e+00 -8.002707e+00 -4.679100e+00 -4.283648e+00 -6.900501e+00 -6.622718e+00 -5.841869e+00 4.272670e+01
<VARIANCE> 13
 4.755185e+01 6.568732e+01 3.266180e+01 2.185403e+01 6.280436e+01 4.953120e+01 2.699056e+01 2.843919e+01 3.466095e+01 2.686829e+01 1.799768e+01 3.011215e+01 6.005129e+01
<GCONST> 7.042253e+01
<STATE> 3
<MEAN> 13
 -3.626490e+00 6.883799e+00 -2.885137e+00 1.128719e+01 -1.678632e+00 1.046152e+01 -2.833699e+00 -1.898637e+00 -8.101159e-01 -1.862409e+00 -2.246039e+00 -4.776519e-01 4.652842e+01
<VARIANCE> 13
 3.010620e+01 9.433009e+01 3.269372e+01 4.484267e+01 9.941919e+01 7.696156e+01 3.689706e+01 2.633366e+01 2.751469e+01 3.623746e+01 1.991592e+01 2.936320e+01 1.411778e+02
<GCONST> 7.318201e+01
<STATE> 4
<MEAN> 13
 -1.487503e+01 6.541049e+00 -8.286536e+00 7.972425e+00 -5.339808e+00 3.157028e+00 -7.345018e+00 -1.955776e+00 -2.885398e+00 -6.521084e+00 -3.842029e+00 -4.523430e+00 3.203233e+01
<VARIANCE> 13
 2.685734e+01 2.735423e+01 3.866959e+01 4.456178e+01 4.513623e+01 5.310170e+01 5.916806e+01 5.277142e+01 3.390918e+01 2.888337e+01 3.710841e+01 2.523619e+01 4.751418e+01
<GCONST> 7.136209e+01
<TRANSP> 5
 0.000000e+00 1.000000e+00 0.000000e+00 0.000000e+00 0.000000e+00
 0.000000e+00 8.724313e-01 1.275687e-01 0.000000e+00 0.000000e+00
 0.000000e+00 0.000000e+00 6.713850e-01 3.286150e-01 0.000000e+00
 0.000000e+00 0.000000e+00 0.000000e+00 9.302973e-01 6.970271e-02
 0.000000e+00 0.000000e+00 0.000000e+00 0.000000e+00 0.000000e+00
<ENDHMM>
~h "oh"
<BEGINHMM>
<NUMSTATES> 5
<STATE> 2
<MEAN> 13
 4.407881e+00 -1.601917e+01 -1.240058e+01 -1.847653e+01 -5.400126e+00 7.951157e+00 -1.538817e+00 -1.083207e+01 1.226042e+00 2.264614e+00 1.586470e+00 -9.410349e+00 7.218581e+01
<VARIANCE> 13
 8.782544e+00 5.679910e+01 2.005491e+01 7.291953e+01 8.952821e+01 1.017420e+02 7.315807e+01 7.357561e+01 1.145568e+02 5.078886e+01 7.298083e+01 8.163294e+01 1.987652e+01
<GCONST> 7.545116e+01
<STATE> 3
<MEAN> 13
 4.187625e+00 -2.040665e+01 -1.283382e+01 -8.080664e+00 -6.531978e+00 4.816964e+00 -7.492601e+00 -5.422424e+00 3.551257e+00 4.002501e+00 -1.934904e+00 -1.167235e+01 7.088038e+01
<VARIANCE> 13
 6.959438e+00 6.991173e+01 1.168476e+01 4.778832e+01 5.758553e+01 8.301962e+01 3.146475e+01 4.003792e+01 8.095896e+01 4.101357e+01 3.875795e+01 7.062140e+01 2.770924e+01
<GCONST> 7.136012e+01
<STATE> 4
<MEAN> 13
 5.911189e+00 -8.985332e+00 -7.128179e+00 6.164832e+00 -1.756511e+01 4.236289e+00 -5.703351e+00 -1.464125e+00 3.721639e+00 -7.502322e+00 -3.807563e+00 9.774345e-01 6.648392e+01
<VARIANCE> 13
 2.549531e+01 2.518290e+01 4.260274e+01 9.534796e+01 1.693883e+02 8.783757e+01 2.387941e+01 3.983834e+01 4.174288e+01 8.403665e+01 2.152149e+01 6.863056e+01 4.158724e+01
<GCONST> 7.432040e+01
<TRANSP> 5
 0.000000e+00 1.000000e+00 0.000000e+00 0.000000e+00 0.000000e+00
 0.000000e+00 9.375292e-01 6.247072e-02 0.000000e+00 0.000000e+00
 0.000000e+00 0.000000e+00 8.580332e-01 1.419669e-01 0.000000e+00
 0.000000e+00 0.000000e+00 0.000000e+00 7.590390e-01 2.409610e-01
 0.000000e+00 0.000000e+00 0.000000e+00 0.000000e+00 0.000000e+00
<ENDHMM>
~h "uh"
<BEGINHMM>
<NUMSTATES> 5
<STATE> 2
<MEAN> 13
 -7.878028e+00 3.983300e+00 -3.765897e+00 -2.084166e+00 -2.392386e+00 1.688259e+00 -5.920799e+00 -5.028861e+00 -2.875908e+00 -5.317534e+00 -1.730316e+00 -2.830554e+00 4.788423e+01
<VARIANCE> 13
 8.389812e+01 3.555044e+01 4.556466e+01 9.594698e+01 4.899167e+01 3.427356e+01 4.304003e+01 4.405089e+01 3.184255e+01 2.662614e+01 3.235738e+01 2.235962e+01 1.617435e+02
<GCONST> 7.366220e+01
<STATE> 3
<MEAN> 13
 -1.712163e+00 3.192302e+00 -4.707972e+00 -5.542305e+00 -6.646923e+00 1.279141e+00 -7.498885e+00 -7.402870e+00 -5.114738e+00 -2.881308e+00 1.211485e-01 -2.528277e+00 5.349106e+01
<VARIANCE> 13
 7.406678e+01 5.333620e+01 2.619235e+01 1.099743e+02 5.060435e+01 4.060259e+01 4.165336e+01 3.910155e+01 4.941250e+01 3.035607e+01 3.393335e+01 2.896984e+01 2.074454e+02
<GCONST> 7.470184e+01
<STATE> 4
<MEAN> 13
 -1.711764e+00 3.101479e+00 -1.710623e+00 -2.094453e+00 -6.290786e+00 -9.109568e-01 -1.173494e+01 -1.153548e+01 -6.240176e+00 -2.436836e+00 -1.322670e+00 -4.985841e+00 5.369595e+01
<VARIANCE> 13
 6.536299e+01 6.117205e+01 4.018041e+01 9.030882e+01 4.545504e+01 6.292106e+01 5.617094e+01 4.315194e+01 5.032709e+01 4.975716e+01 4.515041e+01 4.051977e+01 2.214546e+02
<GCONST> 7.687210e+01
<TRANSP> 5
 0.000000e+00 1.000000e+00 0.000000e+00 0.000000e+00 0.000000e+00
 0.000000e+00 6.845486e-01 3.154514e-01 0.000000e+00 0.000000e+00
 0.000000e+00 0.000000e+00 4.315842e-01 5.684158e-01 0.000000e+00
 0.000000e+00 0.000000e+00 0.000000e+00 6.953499e-01 3.046501e-01
 0.000000e+00 0.000000e+00 0.000000e+00 0.000000e+00 0.000000e+00
<ENDHMM>
~h "uw"
<BEGINHMM>
<NUMSTATES> 5
<STATE> 2
<MEAN> 13
 4.777142e+00 -3.285583e+00 -4.917888e+00 -1.299612e+01 -8.456038e+00 2.201393e+00 -1.540536e+01 -1.482020e+01 -3.828796e+00 -2.271592e+00 4.947357e+00 -2.426512e+00 6.587940e+01
<VARIANCE> 13
 2.429692e+01 4.462738e+01 1.477801e+01 7.304541e+01 6.104093e+01 3.439308e+01 4.328082e+01 4.678957e+01 1.059897e+02 3.171028e+01 4.748368e+01 4.528532e+01 5.504397e+01
<GCONST> 7.292958e+01
<STATE> 3
<MEAN> 13
 5.924096e+00 -1.113405e+00 -6.615502e+00 -1.639415e+01 -1.241696e+01 3.777668e+00 -1.056944e+01 -1.145261e+01 -5.697495e+00 -4.410626e+00 3.600677e+00 -1.229720e+00 6.376533e+01
<VARIANCE> 13
 2.942366e+01 4.389915e+01 1.865686e+01 8.268867e+01 5.479542e+01 5.724036e+01 4.117659e+01 4.842510e+01 9.762967e+01 4.178215e+01 4.855403e+01 6.615703e+01 6.192209e+01
<GCONST> 7.456039e+01
<STATE> 4
<MEAN> 13
 5.359163e+00 -1.062975e+01 -8.605968e+00 -1.569337e+01 -5.253343e+00 9.652634e+00 -6.229630e+00 -1.194191e+01 -1.723925e+00 3.394622e+00 2.411183e+00 -4.986948e+00 6.637310e+01
<VARIANCE> 13
 3.211213e+01 1.398142e+02 3.007172e+01 1.434314e+02 7.780544e+01 7.507401e+01 3.769621e+01 4.448007e+01 1.603190e+02 1.388623e+02 9.270431e+01 1.108987e+02 8.812727e+01
<GCONST> 8.049613e+01
<TRANSP> 5
 0.000000e+00 1.000000e+00 0.000000e+00 0.000000e+00 0.000000e+00
 0.000000e+00 7.977034e-01 2.022965e-01 0.000000e+00 0.000000e+00
 0.000000e+00 0.000000e+00 8.201081e-01 1.798920e-01 0.000000e+00
 0.000000e+00 0.000000e+00 0.000000e+00 8.042457e-01 1.957544e-01
 0.000000e+00 0.000000e+00 0.000000e+00 0.000000e+00 0.000000e+00
<ENDHMM>
~h "sil"
<BEGINHMM>
<NUMSTATES> 5
<STATE> 2
<MEAN> 13
 -1.053797e+01 1.298310e+00 -3.631082e+00 5.551520e+00 1.350662e+00 2.278915e+00 -1.235166e+00 -2.181380e-01 1.281006e+00 -1.268628e+00 -1.087020e+00 -2.372430e+00 4.611061e+01
<VARIANCE> 13
 4.882708e+01 3.026913e+01 3.353494e+01 2.937228e+01 3.833753e+01 4.097216e+01 3.525823e+01 2.584120e+01 2.779430e+01 2.095811e+01 2.098950e+01 1.654354e+01 1.444911e+02
<GCONST> 6.944804e+01
<STATE> 3
<MEAN> 13
 -9.009656e+00 1.943948e+00 -1.559259e+00 1.553898e+00 2.154231e+00 1.515500e+00 1.970323e+00 3.635477e-01 2.088440e+00 -1.296168e+00 6.700286e-01 -1.132109e+00 5.029173e+01
<VARIANCE> 13
 2.179644e+01 6.954784e+00 1.314935e+01 1.186646e+01 1.473571e+01 1.327577e+01 1.783599e+01 1.180762e+01 1.326811e+01 1.006991e+01 1.013045e+01 8.746632e+00 5.493343e+01
<GCONST> 5.797510e+01
<STATE> 4
<MEAN> 13
 -2.388943e+01 3.461282e+00 -9.791475e+00 5.265425e+00 -6.797561e+00 5.085663e+00 -4.318550e+00 7.514525e-01 6.435562e-01 -2.011564e+00 2.583316e-01 -1.162687e+00 2.570184e+01
<VARIANCE> 13
 3.171748e+01 6.446336e+00 8.280837e+00 9.556918e+00 1.313962e+01 1.085552e+01 1.592704e+01 1.673273e+01 1.743873e+01 1.697493e+01 1.571337e+01 1.183529e+01 3.504000e+01
<GCONST> 5.860220e+01
<TRANSP> 5
 0.000000e+00 1.000000e+00 0.000000e+00 0.000000e+00 0.000000e+00
 0.000000e+00 7.138044e-01 2.861956e-01 0.000000e+00 0.000000e+00
 0.000000e+00 0.000000e+00 8.522592e-01 1.477408e-01 0.000000e+00
 0.000000e+00 0.000000e+00 0.000000e+00 9.417074e-01 5.829259e-02
 0.000000e+00 0.000000e+00 0.000000e+00 0.000000e+00 0.000000e+00
<ENDHMM>
