~o
<STREAMINFO> 1 39
<VECSIZE> 39<NULLD><MFCC_D_A_0><DIAGC>
~h "b"
<BEGINHMM>
<NUMSTATES> 5
<STATE> 2
<MEAN> 39
 2.234343e+00 5.328769e+00 -8.377889e+00 -1.137496e+00 -1.427166e+00 4.555850e+00 -7.735511e+00 -4.157890e+00 -5.078326e+00 -2.198626e+00 -3.719475e+00 -6.478406e+00 4.882870e+01 -2.998615e-01 1.315195e+00 -3.132739e-02 8.487906e-01 1.643068e-01 4.174129e-01 2.874002e-01 3.039658e-02 3.068095e-01 -1.122424e+00 4.934464e-02 6.406990e-01 -1.296988e+00 -3.793379e-03 -2.291077e-01 3.299550e-02 -9.773303e-02 1.057782e-01 -6.476992e-02 1.210760e-01 1.849862e-01 1.905201e-01 1.708530e-01 -4.412095e-02 -2.369347e-02 2.368274e-01
<VARIANCE> 39
 9.664597e+01 1.821161e+02 4.574263e+01 5.398476e+01 6.184685e+01 6.944998e+01 5.420776e+01 4.130043e+01 4.442910e+01 6.421750e+01 3.273540e+01 4.503651e+01 1.023738e+02 2.024088e+00 8.719132e+00 4.420256e+00 5.750823e+00 5.563410e+00 4.174438e+00 3.580417e+00 3.480230e+00 2.873949e+00 4.407751e+00 2.777938e+00 4.944946e+00 3.981021e+00 2.744188e-01 1.119561e+00 7.322285e-01 8.454881e-01 7.944943e-01 6.048421e-01 7.100065e-01 6.613086e-01 4.270188e-01 7.025568e-01 6.401116e-01 8.260618e-01 3.516070e-01
<GCONST> 1.375040e+02
<STATE> 3
<MEAN> 39
 2.531463e+00 5.107009e+00 -1.014513e+01 -1.035714e+00 -1.216477e+00 4.291470e+00 -5.846672e+00 -3.759708e+00 -2.326870e+00 -2.417527e+00 -3.214326e+00 -4.399454e+00 4.901683e+01 -5.177724e-01 8.632141e-01 4.397244e-01 7.319308e-01 3.445553e-01 3.624809e-01 3.098413e-01 4.740327e-01 4.036331e-01 -5.188022e-01 -1.116884e-02 4.337107e-01 -9.306784e-01 -1.252066e-01 -1.277675e-01 1.393131e-01 9.353720e-03 -1.289810e-01 -1.063771e-01 4.153871e-02 1.004565e-01 -2.997933e-02 1.007917e-01 1.010971e-02 -1.830823e-01 1.322359e-01
<VARIANCE> 39
 1.160930e+02 1.629689e+02 5.227460e+01 4.327563e+01 8.206674e+01 8.233372e+01 4.792887e+01 4.575537e+01 4.126184e+01 4.838391e+01 2.957680e+01 4.449736e+01 8.131655e+01 2.876287e+00 6.403100e+00 4.640273e+00 4.652928e+00 4.302460e+00 3.253169e+00 2.946360e+00 2.605721e+00 2.407953e+00 3.195448e+00 2.582909e+00 4.039131e+00 2.952963e+00 4.031209e-01 1.400979e+00 8.372360e-01 7.979542e-01 8.283589e-01 5.743788e-01 5.861358e-01 5.889847e-01 4.251027e-01 6.165848e-01 5.672867e-01 8.619772e-01 4.846637e-01
<GCONST> 1.355116e+02
<STATE> 4
<MEAN> 39
 -9.012536e+00 6.157874e+00 -8.711053e+00 2.796941e+00 -3.449690e+00 3.848810e+00 -5.481619e+00 -2.778388e+00 -1.767273e+00 -3.972818e+00 -4.035811e+00 -4.805523e+00 3.813910e+01 -9.481287e-01 1.063288e-02 4.066491e-01 5.385469e-01 3.275461e-02 -9.230589e-03 1.525170e-01 2.203376e-01 -2.206593e-02 -1.774344e-01 4.694356e-02 -1.388863e-03 -6.992951e-01 8.131608e-02 -1.879075e-01 -8.612084e-02 -8.946196e-02 -3.766043e-02 -3.661074e-02 -9.669821e-02 -1.328674e-01 -2.539798e-02 1.084847e-01 1.142312e-01 -1.543198e-02 2.020479e-01
<VARIANCE> 39
 1.151710e+02 9.463294e+01 4.713695e+01 3.327258e+01 6.616868e+01 6.251333e+01 4.365402e+01 3.230937e+01 3.407145e+01 4.591596e+01 3.165545e+01 4.493102e+01 1.548202e+02 3.029402e+00 4.013349e+00 2.451864e+00 2.132286e+00 2.395073e+00 2.278283e+00 2.093306e+00 2.573643e+00 1.926505e+00 3.588320e+00 3.702204e+00 3.499588e+00 1.437626e+00 3.703627e-01 5.873188e-01 3.316712e-01 4.105189e-01 4.729379e-01 3.867672e-01 5.021211e-01 5.430295e-01 3.304171e-01 6.401654e-01 7.513669e-01 7.515161e-01 2.551380e-01
<GCONST> 1.259506e+02
<TRANSP> 5
 0.000000e+00 1.000000e+00 0.000000e+00 0.000000e+00 0.000000e+00
 0.000000e+00 6.165378e-01 3.834622e-01 0.000000e+00 0.000000e+00
 0.000000e+00 0.000000e+00 5.221288e-01 4.778713e-01 0.000000e+00
 0.000000e+00 0.000000e+00 0.000000e+00 7.889395e-01 2.110604e-01
 0.000000e+00 0.000000e+00 0.000000e+00 0.000000e+00 0.000000e+00
<ENDHMM>
~h "d"
<BEGINHMM>
<NUMSTATES> 5
<STATE> 2
<MEAN> 39
 -1.974467e+00 -2.831253e+00 -6.543813e+00 6.764209e-01 -7.557476e-01 9.670643e-01 -5.165863e+00 -4.101017e+00 -1.630958e+00 5.673142e-01 -4.643136e+00 -5.722624e+00 5.460233e+01 1.542627e+00 -9.882454e-01 1.196279e-02 -1.181799e+00 -1.507793e-01 -4.579546e-01 -2.859271e-01 -5.353947e-01 2.401445e-01 7.816718e-01 -2.050458e-01 -8.293606e-03 1.967746e+00 8.434937e-02 -3.516038e-01 -4.158618e-02 -3.519994e-01 7.943191e-02 -6.637621e-02 -3.954078e-02 -2.754267e-01 8.619323e-02 1.616305e-01 -6.270240e-02 -1.073058e-03 3.423583e-01
<VARIANCE> 39
 8.204658e+01 1.634986e+02 9.706834e+01 1.243598e+02 6.549630e+01 8.605330e+01 6.043051e+01 7.955023e+01 5.382973e+01 6.001909e+01 6.596095e+01 4.367056e+01 2.402572e+02 5.986433e+00 7.561250e+00 6.148574e+00 7.714861e+00 7.428653e+00 5.886004e+00 6.192614e+00 6.491754e+00 5.226989e+00 5.796423e+00 4.713538e+00 2.803213e+00 1.182430e+01 1.096868e+00 1.249789e+00 1.135110e+00 1.296838e+00 1.261665e+00 1.090281e+00 8.761129e-01 1.281780e+00 8.234653e-01 9.412505e-01 9.593163e-01 5.119531e-01 1.390520e+00
<GCONST> 1.533296e+02
<STATE> 3
<MEAN> 39
 2.259866e+00 -6.614153e+00 -5.910790e+00 -3.192501e+00 -1.186133e+00 -1.979136e+00 -5.627501e+00 -5.470507e+00 -5.087782e-01 2.938114e+00 -6.639183e+00 -6.641663e+00 6.202479e+01 1.053213e+00 -1.202596e+00 3.123352e-01 -1.525044e+00 2.239745e-01 -5.848342e-01 -2.770277e-01 -9.026011e-01 4.235892e-01 7.053486e-01 -4.020549e-01 8.790009e-02 1.959258e+00 -2.368200e-01 -4.518276e-02 2.869438e-02 -1.086259e-01 6.884640e-02 6.462168e-02 -3.047192e-02 8.381863e-02 2.002546e-02 -1.522365e-01 -6.208192e-02 6.642013e-02 -5.559767e-02
<VARIANCE> 39
 3.923037e+01 1.091124e+02 7.322907e+01 1.098951e+02 6.866936e+01 7.698849e+01 8.465398e+01 8.504233e+01 6.411899e+01 6.812337e+01 7.553258e+01 4.732067e+01 1.037415e+02 4.244897e+00 1.079902e+01 5.801608e+00 1.163274e+01 1.056493e+01 6.410562e+00 7.434165e+00 9.411215e+00 5.463117e+00 6.676428e+00 6.308545e+00 3.394737e+00 1.345516e+01 7.812957e-01 1.532930e+00 7.321618e-01 1.457870e+00 1.662723e+00 1.082490e+00 1.189183e+00 1.602073e+00 9.766105e-01 1.134471e+00 1.003419e+00 5.245590e-01 1.491221e+00
<GCONST> 1.547912e+02
<STATE> 4
<MEAN> 39
 3.532078e+00 -7.872217e+00 -2.616226e+00 -6.419385e+00 2.710581e+00 -6.761142e+00 -6.472089e+00 -1.998274e+00 9.659291e-01 2.940788e+00 -1.114947e+01 -3.516014e+00 6.476472e+01 1.359769e-01 -5.326405e-01 1.958155e-01 -5.747542e-01 -3.002692e-01 -3.471202e-01 -4.962190e-01 4.871276e-01 9.301203e-02 -7.989323e-02 -5.552913e-02 3.066674e-01 7.163103e-01 -1.006759e-01 2.214812e-02 -1.056421e-01 2.416690e-02 -5.897725e-02 1.086143e-01 1.211552e-01 1.359824e-01 -8.056401e-02 -8.018599e-02 1.522623e-02 -5.784856e-02 -7.742203e-02
<VARIANCE> 39
 1.832910e+01 7.359974e+01 4.982439e+01 1.395240e+02 1.026600e+02 1.177471e+02 1.212591e+02 1.166754e+02 5.846265e+01 7.401949e+01 6.339905e+01 6.900749e+01 6.692542e+01 1.391637e+00 9.097115e+00 3.441473e+00 1.458612e+01 7.061318e+00 5.561555e+00 6.946686e+00 7.997796e+00 4.291775e+00 5.323362e+00 4.583118e+00 3.310976e+00 9.072723e+00 2.447806e-01 1.348308e+00 3.922775e-01 2.072853e+00 1.327476e+00 9.835181e-01 1.479715e+00 1.291986e+00 7.472873e-01 1.065251e+00 7.632768e-01 6.730610e-01 1.249241e+00
<GCONST> 1.487721e+02
<TRANSP> 5
 0.000000e+00 1.000000e+00 0.000000e+00 0.000000e+00 0.000000e+00
 0.000000e+00 3.983028e-01 6.016971e-01 0.000000e+00 0.000000e+00
 0.000000e+00 0.000000e+00 4.112383e-01 5.887617e-01 0.000000e+00
 0.000000e+00 0.000000e+00 0.000000e+00 7.560325e-01 2.439675e-01
 0.000000e+00 0.000000e+00 0.000000e+00 0.000000e+00 0.000000e+00
<ENDHMM>
~h "g"
<BEGINHMM>
<NUMSTATES> 5
<STATE> 2
<MEAN> 39
 -3.134727e+00 -2.424913e+00 1.205836e+01 -2.879939e+00 -1.166159e+01 -8.410881e+00 -6.505488e+00 -9.507148e+00 -8.535463e+00 -9.573610e-01 3.832218e+00 -5.755689e+00 6.159837e+01 2.401808e-01 -3.685810e-01 4.848790e-01 2.552479e-01 -6.647725e-01 -8.687732e-01 -1.430761e-01 6.868404e-02 -2.508977e-01 -7.728696e-03 4.474515e-01 -2.586600e-01 6.223637e-01 5.324185e-02 -9.847537e-02 -1.615140e-01 -1.613049e-01 5.079107e-02 1.916357e-02 -4.232855e-02 1.112726e-01 1.300558e-01 -2.634249e-03 -2.164869e-02 -5.896223e-03 1.264153e-01
<VARIANCE> 39
 1.972115e+01 7.287106e+01 1.356809e+02 7.090490e+01 9.657639e+01 7.034705e+01 6.359385e+01 4.968794e+01 1.142403e+02 3.482126e+01 1.123168e+02 5.863727e+01 8.035471e+01 1.096324e+00 5.091143e+00 9.087886e+00 5.029858e+00 8.950885e+00 7.108244e+00 6.666225e+00 3.823751e+00 4.822617e+00 3.343453e+00 7.306478e+00 4.491355e+00 7.966318e+00 2.152889e-01 8.053988e-01 1.219472e+00 7.725442e-01 1.538797e+00 1.236387e+00 1.207398e+00 5.840126e-01 7.743220e-01 5.962234e-01 1.251498e+00 8.585016e-01 1.112107e+00
<GCONST> 1.456356e+02
<STATE> 3
<MEAN> 39
 -1.239648e+00 -7.613248e+00 7.734788e+00 -2.572077e+00 -1.383912e+01 -1.135425e+01 -7.123903e+00 -6.404158e+00 -5.511529e+00 -1.212764e+00 5.228406e+00 -7.380306e+00 6.596786e+01 3.785285e-01 -1.429478e+00 -1.676162e+00 -1.117259e+00 1.796343e-01 -2.417339e-02 -3.446216e-01 1.059859e+00 1.355041e+00 5.955053e-02 -1.845230e-01 -3.722358e-01 1.366154e+00 5.332662e-02 2.939611e-03 -2.020813e-01 -1.571826e-01 1.413279e-01 3.253415e-01 1.421086e-02 -4.951702e-03 2.034813e-01 1.009928e-03 -3.504110e-01 -1.493283e-01 1.369824e-02
<VARIANCE> 39
 1.285638e+01 8.276553e+01 7.171725e+01 5.463537e+01 8.390275e+01 9.704166e+01 5.388839e+01 6.932521e+01 1.122085e+02 2.765936e+01 9.483504e+01 6.717005e+01 7.195570e+01 5.722833e-01 3.318333e+00 4.185091e+00 4.806165e+00 7.925023e+00 5.982057e+00 5.374195e+00 4.640220e+00 8.682479e+00 2.862795e+00 9.572628e+00 4.035053e+00 4.312990e+00 1.157804e-01 5.560514e-01 6.609289e-01 7.664478e-01 1.638887e+00 1.099557e+00 9.607621e-01 8.485741e-01 1.398268e+00 5.037309e-01 1.846857e+00 7.549474e-01 6.651395e-01
<GCONST> 1.408091e+02
<STATE> 4
<MEAN> 39
 1.591470e+00 -1.541384e+01 -4.791989e+00 -9.896002e+00 -1.032879e+01 -5.198184e+00 -9.615304e+00 -2.446504e+00 1.763839e+00 1.571926e-02 8.865376e-01 -1.263011e+01 7.276554e+01 2.515866e-01 -5.392652e-01 -1.272045e+00 -6.922417e-01 9.206438e-01 1.144224e+00 1.758578e-01 -3.874843e-03 6.685991e-01 2.088116e-01 -1.142646e+00 -4.662750e-01 3.184041e-01 -2.500493e-02 2.066860e-01 2.034535e-01 1.662640e-01 -4.501297e-03 1.493690e-02 1.278828e-01 -2.766861e-01 -2.871417e-01 -2.776501e-02 6.257910e-02 9.723838e-02 -2.329748e-01
<VARIANCE> 39
 1.498537e+01 6.065471e+01 6.831980e+01 5.343607e+01 5.977515e+01 1.201311e+02 4.845832e+01 1.151503e+02 1.146152e+02 4.096929e+01 1.147995e+02 1.126400e+02 5.759830e+01 4.651919e-01 1.539957e+00 3.116459e+00 2.402721e+00 3.840928e+00 3.714947e+00 2.559075e+00 3.232543e+00 5.242438e+00 2.145379e+00 5.526260e+00 2.850338e+00 1.584426e+00 6.073798e-02 1.605291e-01 3.169506e-01 2.927409e-01 6.730970e-01 6.537220e-01 4.539277e-01 5.540542e-01 7.589227e-01 3.522370e-01 9.079317e-01 3.967151e-01 1.994503e-01
<GCONST> 1.250998e+02
<TRANSP> 5
 0.000000e+00 1.000000e+00 0.000000e+00 0.000000e+00 0.000000e+00
 0.000000e+00 8.985643e-01 1.014357e-01 0.000000e+00 0.000000e+00
 0.000000e+00 0.000000e+00 7.776765e-01 2.223235e-01 0.000000e+00
 0.000000e+00 0.000000e+00 0.000000e+00 8.034401e-01 1.965600e-01
 0.000000e+00 0.000000e+00 0.000000e+00 0.000000e+00 0.000000e+00
<ENDHMM>
~h "j"
<BEGINHMM>
<NUMSTATES> 5
<STATE> 2
<MEAN> 39
 -2.385566e+00 3.018293e+00 1.888102e+01 -2.920941e+00 -1.117799e+01 -4.057473e+00 -1.126454e+01 -7.547201e+00 -1.092538e+01 -6.666173e-01 6.463342e+00 -5.180574e+00 5.847647e+01 5.631993e-02 5.244937e-01 -1.073732e+00 1.160055e+00 5.994401e-01 6.238520e-01 -4.034046e-02 2.519389e-01 1.025360e+00 -6.715981e-01 6.934194e-02 6.633875e-01 -1.198315e+00 3.377512e-02 -1.287175e-01 -2.693061e-01 1.520572e-01 -7.579648e-02 -6.512839e-02 1.697353e-01 -2.476642e-01 5.450785e-02 -3.181261e-02 -1.726196e-01 7.437983e-02 7.844227e-02
<VARIANCE> 39
 1.811915e+01 2.415645e+02 1.363962e+02 5.760590e+01 8.854868e+01 3.527747e+01 3.791360e+01 7.042876e+01 9.812292e+01 8.393803e+01 5.644425e+01 6.739499e+01 1.036922e+02 8.187457e-01 3.409388e+00 6.498728e+00 4.317270e+00 5.702943e+00 2.388134e+00 3.586572e+00 4.609389e+00 6.329047e+00 1.642138e+00 5.705159e+00 1.912520e+00 2.103841e+00 1.697575e-01 6.704751e-01 1.142418e+00 3.805116e-01 7.723085e-01 5.134620e-01 6.451200e-01 7.531729e-01 1.019864e+00 3.395139e-01 7.296045e-01 4.169855e-01 3.553560e-01
<GCONST> 1.341829e+02
<STATE> 3
<MEAN> 39
 -3.591267e-01 -2.655958e+00 1.067479e+01 1.773621e+00 -1.226390e+01 -4.225990e+00 -1.113444e+01 -1.168956e+01 -7.674261e+00 -3.468503e+00 8.030535e+00 -2.627599e+00 6.044631e+01 2.093036e-01 -3.272182e-01 -9.128128e-01 4.305394e-01 5.685531e-02 -5.910768e-02 -1.280858e-01 -6.276146e-01 -3.740036e-02 -1.053388e-01 1.638149e-01 1.484603e-01 6.907354e-02 2.774468e-02 -1.198952e-01 -2.128468e-02 -8.433467e-02 -9.023895e-02 -7.941461e-02 -1.144091e-02 -9.267133e-02 -1.186913e-01 9.675834e-02 2.610213e-02 -8.244961e-02 1.772993e-01
<VARIANCE> 39
 2.674299e+01 1.714481e+02 1.028618e+02 4.155954e+01 7.330685e+01 5.666057e+01 4.678632e+01 1.091555e+02 4.731274e+01 5.995463e+01 9.179743e+01 6.122215e+01 9.633408e+01 2.280822e+00 6.045981e+00 9.644132e+00 4.568581e+00 7.525785e+00 6.803485e+00 6.156838e+00 5.175523e+00 6.148507e+00 1.987798e+00 5.798593e+00 2.958036e+00 3.616920e+00 4.234127e-01 9.983089e-01 2.063923e+00 5.476118e-01 1.400652e+00 1.558081e+00 1.122055e+00 1.030335e+00 1.121780e+00 3.917654e-01 1.029646e+00 5.821607e-01 5.290391e-01
<GCONST> 1.451445e+02
<STATE> 4
<MEAN> 39
 7.800192e-01 -2.015778e+00 6.069754e-01 1.641438e+00 -7.399072e+00 -4.058988e+00 -1.114348e+01 -1.362968e+01 -5.570783e+00 -4.751617e+00 4.983194e+00 -2.183246e+00 5.790794e+01 1.183822e-01 -2.157490e-01 -9.266486e-01 -2.334521e-01 7.374074e-01 1.229302e-01 2.280179e-01 -1.161877e-01 1.619527e-01 2.421174e-01 -4.735015e-01 -5.648787e-02 -2.635642e-02 -3.099541e-02 3.249355e-02 5.938336e-02 -4.848833e-02 2.349477e-02 1.673899e-02 5.837679e-02 7.256868e-02 -2.953167e-02 -7.741580e-03 -6.174113e-02 3.397995e-02 -4.012217e-02
<VARIANCE> 39
 4.623225e+01 1.540408e+02 2.210355e+02 4.575768e+01 1.707014e+02 1.094561e+02 1.381034e+02 6.552496e+01 7.603639e+01 5.739291e+01 2.390807e+02 5.217260e+01 1.109399e+02 2.930405e+00 6.738972e+00 1.024277e+01 3.667122e+00 6.861754e+00 8.669432e+00 1.084453e+01 5.010071e+00 4.862824e+00 3.499921e+00 5.136525e+00 3.466604e+00 4.312804e+00 4.655894e-01 9.269656e-01 1.805854e+00 6.751420e-01 1.182785e+00 1.685704e+00 1.729895e+00 9.732299e-01 9.630796e-01 7.281028e-01 9.380146e-01 6.635890e-01 5.580335e-01
<GCONST> 1.522591e+02
<TRANSP> 5
 0.000000e+00 1.000000e+00 0.000000e+00 0.000000e+00 0.000000e+00
 0.000000e+00 7.342044e-01 2.657956e-01 0.000000e+00 0.000000e+00
 0.000000e+00 0.000000e+00 8.070226e-01 1.929774e-01 0.000000e+00
 0.000000e+00 0.000000e+00 0.000000e+00 9.530606e-01 4.693935e-02
 0.000000e+00 0.000000e+00 0.000000e+00 0.000000e+00 0.000000e+00
<ENDHMM>
~h "k"
<BEGINHMM>
<NUMSTATES> 5
<STATE> 2
<MEAN> 39
 -4.232363e+00 4.858262e-01 -4.582552e+00 -3.531443e+00 -1.645969e+00 2.483167e+00 -7.949414e+00 -6.212842e+00 -2.300125e+00 3.162530e-01 -9.137516e-01 -3.065856e+00 5.130463e+01 2.173800e-01 -7.992061e-01 -1.849130e-01 -1.027886e-01 9.161476e-01 -3.444321e-01 1.689450e-01 4.339723e-02 3.989983e-01 2.056574e-01 7.769500e-02 1.678330e-02 9.713246e-01 1.629453e-01 -2.807015e-01 -8.763025e-02 -1.678600e-01 1.584937e-01 -1.209149e-01 4.145301e-02 -7.172037e-02 -7.076409e-02 8.615440e-02 9.393916e-03 -6.775385e-02 4.502227e-01
<VARIANCE> 39
 1.088313e+02 1.124004e+02 5.025916e+01 1.385018e+02 8.257231e+01 7.332334e+01 7.945253e+01 8.027276e+01 7.064371e+01 5.226810e+01 5.497642e+01 4.672378e+01 2.426408e+02 4.665156e+00 9.729201e+00 3.968210e+00 9.691395e+00 6.791427e+00 4.996410e+00 5.863426e+00 3.847753e+00 5.550790e+00 4.894703e+00 4.060104e+00 3.971103e+00 1.526822e+01 6.169804e-01 1.610385e+00 6.361526e-01 1.287789e+00 1.263856e+00 1.113293e+00 1.107584e+00 6.636879e-01 1.035230e+00 9.696378e-01 7.370397e-01 6.888363e-01 2.125914e+00
<GCONST> 1.517846e+02
<STATE> 3
<MEAN> 39
 -2.985791e+00 -2.225075e+00 -5.925953e+00 -3.885586e+00 1.433747e-02 1.556784e+00 -6.475777e+00 -5.514723e+00 -1.505776e+00 1.299330e+00 1.168099e-01 -3.820346e+00 5.496941e+01 1.976661e-01 -1.027608e+00 -6.442664e-01 -1.667345e-02 9.761925e-01 -5.274376e-01 1.513678e-01 -9.673677e-02 7.622609e-02 5.677145e-01 7.822657e-02 -3.443688e-01 1.090660e+00 5.935985e-02 -1.537757e-01 -5.710890e-02 -1.469467e-01 -6.006924e-02 -1.303368e-01 1.019135e-01 1.002993e-02 -1.065574e-01 6.685922e-02 -4.528920e-02 -1.404149e-01 2.520143e-01
<VARIANCE> 39
 6.901247e+01 1.126700e+02 6.359142e+01 1.360780e+02 8.040759e+01 9.181389e+01 7.606758e+01 7.568468e+01 7.176107e+01 5.613773e+01 5.678549e+01 4.397477e+01 1.737918e+02 3.667830e+00 7.975523e+00 4.950739e+00 8.319536e+00 8.133008e+00 7.560715e+00 6.324224e+00 3.878990e+00 5.640243e+00 5.058516e+00 4.301404e+00 4.122344e+00 1.134650e+01 4.890793e-01 1.200338e+00 8.422735e-01 1.112825e+00 1.318902e+00 1.413041e+00 1.206642e+00 6.781794e-01 8.876926e-01 8.743487e-01 7.801276e-01 6.724604e-01 1.393216e+00
<GCONST> 1.508747e+02
<STATE> 4
<MEAN> 39
 -1.743601e+00 -3.906090e+00 -8.551189e+00 -3.304995e+00 7.114754e+00 -1.892683e+00 -3.428996e+00 -4.248548e+00 -2.899434e+00 2.988109e+00 -3.666474e+00 -4.322338e+00 5.564087e+01 3.262282e-01 -6.860363e-01 -5.406566e-02 -3.698965e-01 3.664770e-01 -5.019832e-01 3.652052e-01 -3.071483e-02 -7.453659e-02 1.469520e-01 -1.565955e-01 -4.564092e-01 1.164074e+00 -3.095916e-02 8.244537e-02 1.548997e-01 2.560816e-04 -1.687874e-01 9.906013e-02 7.367150e-02 1.084609e-03 -3.623363e-03 -8.947290e-02 -5.615637e-02 3.017101e-02 -6.013668e-02
<VARIANCE> 39
 8.522299e+01 1.206582e+02 1.032079e+02 1.744829e+02 1.519402e+02 1.808812e+02 1.085133e+02 1.131046e+02 1.084408e+02 8.871854e+01 9.527109e+01 6.592822e+01 1.543244e+02 4.698256e+00 7.987098e+00 8.189772e+00 1.029546e+01 9.268818e+00 1.117347e+01 7.391026e+00 5.772805e+00 6.939389e+00 5.391554e+00 5.138292e+00 4.718847e+00 9.358308e+00 5.473952e-01 1.276612e+00 1.568307e+00 1.618388e+00 1.529932e+00 1.831929e+00 1.180325e+00 1.056972e+00 1.108508e+00 9.240355e-01 8.877494e-01 7.700061e-01 1.086228e+00
<GCONST> 1.603575e+02
<TRANSP> 5
 0.000000e+00 1.000000e+00 0.000000e+00 0.000000e+00 0.000000e+00
 0.000000e+00 6.424857e-01 3.575143e-01 0.000000e+00 0.000000e+00
 0.000000e+00 0.000000e+00 5.464839e-01 4.535161e-01 0.000000e+00
 0.000000e+00 0.000000e+00 0.000000e+00 8.432375e-01 1.567625e-01
 0.000000e+00 0.000000e+00 0.000000e+00 0.000000e+00 0.000000e+00
<ENDHMM>
~h "l"
<BEGINHMM>
<NUMSTATES> 5
<STATE> 2
<MEAN> 39
 3.262546e+00 -1.675132e+01 -9.298529e+00 -1.373659e+01 1.427758e+00 6.572384e+00 -7.939488e+00 -9.566951e+00 6.699927e+00 9.842511e-01 -5.574010e+00 -6.419363e+00 7.176795e+01 -7.644603e-02 -1.849309e-02 8.291636e-02 8.578983e-02 -3.145117e-02 8.773298e-02 1.637340e-01 6.762851e-02 3.697667e-02 9.903229e-02 -9.866679e-02 -3.489070e-02 -1.123731e-01 7.824753e-03 4.084339e-02 1.538650e-02 4.857519e-02 -1.788617e-02 -6.912269e-03 -3.548552e-03 -1.257706e-02 -1.572105e-02 -1.639710e-02 3.898684e-02 1.908508e-02 -4.800994e-02
<VARIANCE> 39
 8.582822e+00 5.704805e+01 2.968093e+01 4.522505e+01 1.157967e+02 9.288200e+01 3.498615e+01 7.549573e+01 8.900923e+01 5.242865e+01 1.352816e+02 8.794390e+01 2.017986e+01 2.780952e-01 1.699228e+00 7.723829e-01 1.840267e+00 1.481702e+00 1.747738e+00 1.646570e+00 1.417561e+00 2.399942e+00 1.846572e+00 2.286830e+00 1.327254e+00 8.850659e-01 5.196736e-02 2.299134e-01 1.287302e-01 2.774360e-01 2.742507e-01 2.946992e-01 2.862624e-01 2.652569e-01 4.182020e-01 2.954960e-01 3.716603e-01 2.550558e-01 1.075533e-01
<GCONST> 1.074207e+02
<STATE> 3
<MEAN> 39
 2.119922e+00 -1.982576e+01 -9.639800e+00 -1.189805e+01 -4.190185e-02 1.204862e+01 -6.572840e+00 -1.052898e+01 8.973790e+00 2.531015e-01 -4.123817e+00 -6.199956e+00 7.009149e+01 -2.289254e-02 4.301367e-01 7.182341e-02 3.314062e-01 -1.225042e-01 2.855002e-02 1.854814e-01 8.854908e-02 -2.398946e-01 -5.622846e-02 6.112119e-02 1.224058e-01 -5.446047e-01 2.318236e-02 1.450173e-01 3.144901e-02 5.939139e-02 -1.323761e-02 -6.734890e-02 -1.768095e-02 -1.241139e-02 -2.095854e-02 1.963474e-02 3.610751e-02 3.492693e-02 -1.066825e-01
<VARIANCE> 39
 1.457225e+01 1.231592e+02 3.321879e+01 4.775644e+01 5.946836e+01 1.305228e+02 2.700596e+01 6.465036e+01 1.489610e+02 4.371775e+01 7.776134e+01 7.538623e+01 4.896200e+01 3.436417e-01 1.958239e+00 6.688590e-01 2.879242e+00 1.118141e+00 1.307161e+00 1.663493e+00 1.841852e+00 2.002963e+00 1.697362e+00 2.108828e+00 1.584631e+00 1.077737e+00 4.950516e-02 1.649320e-01 1.172862e-01 2.736309e-01 2.177728e-01 2.113042e-01 2.463647e-01 3.220335e-01 3.462755e-01 2.920924e-01 3.230503e-01 3.016955e-01 6.763279e-02
<GCONST> 1.074004e+02
<STATE> 4
<MEAN> 39
 -5.035592e+00 -1.503075e+00 -5.430245e+00 9.721923e-01 8.384287e-01 7.530779e+00 -6.383906e+00 -6.145536e+00 -3.001856e-01 -2.216436e+00 -4.241828e+00 -5.189242e+00 4.972603e+01 -3.466662e-01 5.821618e-01 1.220058e-01 5.698773e-01 -1.151755e-01 -4.621575e-02 2.293265e-01 1.918700e-01 -1.954725e-01 -1.656526e-01 4.307712e-02 8.873365e-02 -8.912637e-01 -7.883620e-03 -6.838754e-03 -1.854438e-02 -2.677484e-02 1.234978e-02 -3.616694e-02 2.770709e-02 8.473935e-03 -2.157278e-02 2.814198e-02 7.303178e-04 3.291133e-03 2.845688e-03
<VARIANCE> 39
 8.246633e+01 2.310873e+02 9.848261e+01 1.598985e+02 4.530293e+01 6.915420e+01 4.127580e+01 4.854099e+01 7.055937e+01 4.219863e+01 4.521072e+01 3.953281e+01 2.569922e+02 7.779775e-01 1.714012e+00 1.054546e+00 2.198406e+00 1.311640e+00 1.370533e+00 1.861977e+00 2.092577e+00 1.827996e+00 1.582808e+00 1.531074e+00 1.188759e+00 5.573932e-01 5.354445e-02 1.917159e-01 1.538287e-01 2.835158e-01 2.359329e-01 2.222359e-01 3.051630e-01 3.518158e-01 2.829298e-01 2.769123e-01 2.595517e-01 2.101780e-01 5.271438e-02
<GCONST> 1.107483e+02
<TRANSP> 5
 0.000000e+00 1.000000e+00 0.000000e+00 0.000000e+00 0.000000e+00
 0.000000e+00 9.324763e-01 6.752370e-02 0.000000e+00 0.000000e+00
 0.000000e+00 0.000000e+00 7.868459e-01 2.131541e-01 0.000000e+00
 0.000000e+00 0.000000e+00 0.000000e+00 8.383307e-01 1.616693e-01
 0.000000e+00 0.000000e+00 0.000000e+00 0.000000e+00 0.000000e+00
<ENDHMM>
~h "m"
<BEGINHMM>
<NUMSTATES> 5
<STATE> 2
<MEAN> 39
 3.709111e+00 -7.977925e+00 -6.579412e+00 -4.279364e+00 5.716878e-01 8.730142e-01 -3.647430e+00 -8.990413e+00 -5.436003e+00 3.061399e-01 -3.496671e+00 -6.508376e+00 6.257674e+01 -1.416668e-01 9.010104e-01 7.234668e-01 1.271853e+00 2.362208e-01 -3.893774e-02 -2.347192e-01 -5.509330e-01 -8.816738e-01 -5.959542e-01 -1.719559e-02 4.737345e-01 -9.206803e-01 -4.547780e-02 -1.375325e-01 -5.552652e-02 -6.773430e-02 -2.400691e-03 -6.118729e-02 1.151243e-02 1.162587e-01 6.475591e-02 7.297710e-02 -1.066631e-02 8.592798e-03 1.189799e-01
<VARIANCE> 39
 3.589835e+01 1.305103e+02 5.496300e+01 1.094757e+02 9.374881e+01 7.965489e+01 4.881973e+01 7.513008e+01 1.264079e+02 5.394482e+01 6.276550e+01 6.533069e+01 9.414521e+01 6.400992e-01 4.321934e+00 3.306615e+00 4.483832e+00 3.442537e+00 3.164079e+00 2.796326e+00 3.456320e+00 4.908808e+00 3.119697e+00 3.123383e+00 3.256235e+00 2.199428e+00 1.068529e-01 5.355558e-01 4.849980e-01 7.639650e-01 5.377234e-01 5.530617e-01 4.241565e-01 5.576428e-01 8.944628e-01 5.205898e-01 5.572419e-01 4.571081e-01 2.663465e-01
<GCONST> 1.318927e+02
<STATE> 3
<MEAN> 39
 3.332287e+00 -6.537699e+00 -5.184322e+00 -1.952242e+00 5.547951e-01 7.179137e-01 -4.114126e+00 -1.011499e+01 -7.366298e+00 -6.175893e-01 -3.605960e+00 -5.873754e+00 6.122106e+01 -1.556627e-01 3.935318e-01 2.442103e-01 5.989802e-01 1.309659e-01 2.180543e-02 -1.341053e-01 -9.203933e-02 -2.948186e-01 -2.894977e-01 1.377565e-02 3.792706e-01 -4.744739e-01 1.079190e-02 -2.715281e-01 -2.677267e-01 -3.486599e-01 -8.891006e-02 1.014477e-01 -3.404581e-03 2.724606e-01 3.667812e-01 1.332405e-01 6.055467e-02 -4.954634e-02 2.055404e-01
<VARIANCE> 39
 4.006776e+01 1.288606e+02 5.301891e+01 1.038691e+02 9.543932e+01 7.814094e+01 4.234070e+01 6.923022e+01 1.201406e+02 4.633131e+01 5.382086e+01 6.093606e+01 9.713435e+01 5.955271e-01 3.164026e+00 3.158985e+00 4.037890e+00 2.714401e+00 2.874699e+00 2.175449e+00 3.135869e+00 4.166986e+00 2.587048e+00 2.578987e+00 2.365262e+00 1.685550e+00 1.002995e-01 4.403745e-01 5.245979e-01 6.356264e-01 5.118795e-01 5.349373e-01 4.155039e-01 5.402710e-01 7.691680e-01 4.809840e-01 5.018557e-01 4.388185e-01 2.212783e-01
<GCONST> 1.278758e+02
<STATE> 4
<MEAN> 39
 8.411810e-01 -1.890369e+00 -4.550357e+00 2.272403e+00 1.777947e+00 2.270592e+00 -4.472579e+00 -8.157022e+00 -6.475218e+00 -2.627058e+00 -3.867358e+00 -4.065238e+00 5.517763e+01 -3.103085e-01 -6.322069e-02 -3.301762e-01 -2.900390e-01 -6.363494e-02 3.312829e-01 -5.777456e-02 5.277118e-01 5.709586e-01 -1.902507e-03 1.801235e-01 1.254252e-01 -2.525634e-01 -2.570071e-02 -2.674678e-01 -1.880336e-01 -2.747294e-01 -4.473708e-02 7.738569e-02 2.672986e-03 2.274972e-01 3.209444e-01 9.911773e-02 -2.211430e-02 -9.346413e-02 1.621943e-01
<VARIANCE> 39
 6.452306e+01 1.676864e+02 5.494717e+01 1.556503e+02 1.051413e+02 8.218753e+01 4.269931e+01 8.295352e+01 9.241041e+01 5.106911e+01 4.571049e+01 5.280186e+01 1.872535e+02 1.032168e+00 3.162338e+00 3.348165e+00 4.061510e+00 2.601093e+00 3.146323e+00 2.316814e+00 3.633181e+00 3.846281e+00 2.602173e+00 2.594813e+00 2.076583e+00 1.897134e+00 1.246354e-01 3.785147e-01 5.157571e-01 5.775762e-01 4.442560e-01 5.144360e-01 4.132531e-01 5.790722e-01 6.136807e-01 4.337542e-01 5.126650e-01 3.917121e-01 1.699675e-01
<GCONST> 1.295193e+02
<TRANSP> 5
 0.000000e+00 1.000000e+00 0.000000e+00 0.000000e+00 0.000000e+00
 0.000000e+00 5.509198e-01 4.490802e-01 0.000000e+00 0.000000e+00
 0.000000e+00 0.000000e+00 5.067116e-01 4.932884e-01 0.000000e+00
 0.000000e+00 0.000000e+00 0.000000e+00 6.297842e-01 3.702158e-01
 0.000000e+00 0.000000e+00 0.000000e+00 0.000000e+00 0.000000e+00
<ENDHMM>
~h "n"
<BEGINHMM>
<NUMSTATES> 5
<STATE> 2
<MEAN> 39
 -3.248752e+00 3.462095e+00 -1.249038e+00 4.700833e+00 -2.674266e+00 -1.673655e+00 -5.720991e+00 -5.566674e+00 -1.642479e+00 -1.414536e+00 -5.342172e+00 -3.890086e+00 4.988296e+01 -9.166219e-02 8.615266e-01 2.271506e-03 1.395084e-01 3.038235e-03 3.374667e-01 1.228642e-01 4.935125e-02 1.726958e-02 -3.873954e-01 1.306468e-01 1.886928e-01 -5.855278e-01 1.306887e-02 -1.511104e-01 -9.051237e-02 -2.515908e-01 3.966016e-02 1.499788e-01 -8.259763e-04 1.146306e-01 3.576894e-02 -3.352604e-02 1.435863e-01 7.756818e-02 1.661879e-01
<VARIANCE> 39
 1.020890e+02 1.143248e+02 5.109853e+01 7.734220e+01 5.589192e+01 8.376591e+01 3.862770e+01 7.722930e+01 4.168350e+01 4.788816e+01 4.751654e+01 4.754360e+01 2.362190e+02 4.940983e+00 2.968281e+00 1.650787e+00 3.679636e+00 3.258601e+00 2.578478e+00 2.306934e+00 3.062038e+00 2.445400e+00 2.594320e+00 2.641164e+00 1.705404e+00 3.910798e+00 3.546637e-01 2.375981e-01 2.041938e-01 3.854870e-01 4.489403e-01 4.070626e-01 4.026636e-01 5.692490e-01 3.822678e-01 4.002961e-01 4.190826e-01 2.695682e-01 3.549115e-01
<GCONST> 1.265700e+02
<STATE> 3
<MEAN> 39
 -1.656358e+00 2.863032e+00 -1.914433e+00 3.117147e+00 -2.524479e+00 -1.244158e+00 -5.927960e+00 -6.399031e+00 -1.779897e+00 -2.191416e+00 -5.082183e+00 -4.240173e+00 5.222865e+01 1.698768e-01 7.091601e-01 -5.617071e-02 -1.955667e-01 3.114114e-02 5.813798e-01 1.449435e-01 1.542679e-01 1.030647e-02 -5.120453e-01 4.492781e-01 4.004750e-01 -1.804747e-01 -6.613445e-03 -2.836999e-01 -4.298597e-02 -2.374848e-01 -2.052484e-02 8.862068e-02 4.025234e-02 1.880193e-02 1.010108e-01 1.001345e-01 1.419783e-01 6.213359e-02 2.410998e-01
<VARIANCE> 39
 6.698395e+01 1.100404e+02 5.423371e+01 8.050484e+01 5.596690e+01 7.980355e+01 3.732224e+01 5.728163e+01 4.274416e+01 4.027019e+01 4.920087e+01 4.388472e+01 1.739288e+02 8.463600e+00 3.036467e+00 1.664023e+00 5.201003e+00 4.046090e+00 3.086467e+00 2.842636e+00 3.785584e+00 2.714293e+00 2.816890e+00 2.637320e+00 2.146642e+00 6.956038e+00 3.760959e-01 3.343000e-01 3.096470e-01 5.164393e-01 5.405725e-01 4.413489e-01 5.275072e-01 6.943727e-01 4.663716e-01 5.209946e-01 5.116018e-01 3.910586e-01 3.374453e-01
<GCONST> 1.308813e+02
<STATE> 4
<MEAN> 39
 -2.762507e+00 4.114932e+00 -2.338931e+00 3.031857e+00 -2.406734e+00 1.186426e+00 -5.813126e+00 -5.525819e+00 -2.363541e+00 -2.713931e+00 -3.480763e+00 -3.177713e+00 4.926548e+01 1.713270e-01 -2.152259e-01 -2.217665e-01 -8.000762e-01 -3.707879e-02 3.642783e-01 2.932676e-01 -1.705143e-02 2.156341e-01 -8.334357e-02 3.527718e-01 4.047428e-01 4.985929e-01 -5.200442e-02 -3.491450e-01 -1.670291e-02 -2.399758e-01 2.699379e-02 -9.565531e-02 -5.764946e-02 -7.126467e-02 1.098744e-01 1.623538e-01 -4.198643e-03 8.046142e-03 2.822123e-01
<VARIANCE> 39
 8.061415e+01 1.287227e+02 6.453307e+01 1.231595e+02 7.809772e+01 8.286129e+01 4.470864e+01 6.095731e+01 4.633200e+01 4.660518e+01 5.238603e+01 4.296035e+01 2.009623e+02 8.620327e+00 4.561087e+00 2.813390e+00 7.620257e+00 6.004406e+00 4.184836e+00 4.149930e+00 4.669080e+00 3.114856e+00 3.640915e+00 3.705317e+00 2.871375e+00 9.394983e+00 9.177918e-01 6.376666e-01 5.501247e-01 9.791187e-01 1.173358e+00 8.228239e-01 8.492814e-01 7.952473e-01 5.786340e-01 6.493562e-01 6.477883e-01 4.440251e-01 9.398386e-01
<GCONST> 1.433793e+02
<TRANSP> 5
 0.000000e+00 1.000000e+00 0.000000e+00 0.000000e+00 0.000000e+00
 0.000000e+00 5.494967e-01 4.505033e-01 0.000000e+00 0.000000e+00
 0.000000e+00 0.000000e+00 3.677161e-01 6.322840e-01 0.000000e+00
 0.000000e+00 0.000000e+00 0.000000e+00 4.604341e-01 5.395659e-01
 0.000000e+00 0.000000e+00 0.000000e+00 0.000000e+00 0.000000e+00
<ENDHMM>
~h "p"
<BEGINHMM>
<NUMSTATES> 5
<STATE> 2
<MEAN> 39
 -7.922719e+00 -2.504299e+00 -7.498744e+00 -3.708091e-01 -1.016363e+00 2.376802e+00 -3.435198e+00 -2.849410e+00 -2.058828e-01 -6.542282e-01 -1.308612e+00 -3.673829e+00 4.881310e+01 -3.630188e-01 1.731385e-01 -7.458673e-02 1.242800e-01 -3.436358e-02 -1.227054e-01 1.053199e-01 3.902991e-01 2.380438e-01 -5.776660e-02 2.711983e-01 2.383588e-01 -4.303488e-01 2.981490e-01 -2.248578e-01 -6.868292e-02 -1.228068e-01 -3.106604e-04 -6.552649e-02 -3.694137e-03 -7.887226e-02 -1.036104e-01 1.086942e-01 -7.850660e-02 -9.077306e-02 4.278132e-01
<VARIANCE> 39
 1.140632e+02 9.523531e+01 4.993549e+01 6.149986e+01 4.596480e+01 3.668121e+01 3.694138e+01 4.463790e+01 4.547190e+01 3.490136e+01 3.820707e+01 3.051779e+01 2.937183e+02 2.007038e+00 2.000528e+00 1.960060e+00 1.436621e+00 2.222923e+00 2.094048e+00 1.634245e+00 2.069877e+00 2.012867e+00 1.811616e+00 1.732336e+00 1.396921e+00 4.090196e+00 3.782142e-01 2.995157e-01 3.611497e-01 3.126370e-01 4.409108e-01 3.425811e-01 3.139046e-01 3.697873e-01 3.733810e-01 4.338937e-01 3.561017e-01 2.903754e-01 7.210056e-01
<GCONST> 1.199007e+02
<STATE> 3
<MEAN> 39
 -7.455015e+00 -2.783192e+00 -7.003513e+00 -8.919824e-01 -1.248344e+00 1.814242e+00 -3.125148e+00 -2.378996e+00 5.838577e-01 5.898873e-02 -1.253890e+00 -4.022399e+00 4.990695e+01 3.031944e-01 -1.435672e-01 -2.259919e-01 -8.545551e-03 -2.602733e-02 -1.974484e-01 1.014019e-02 1.208099e-01 -5.300806e-02 1.230642e-01 6.127618e-02 -3.015116e-02 3.438625e-01 4.943963e-01 -3.759114e-01 -1.479134e-01 -2.248120e-01 1.418552e-02 -4.994661e-02 -4.647380e-02 -1.905815e-01 -1.429187e-01 1.922556e-01 -1.266929e-01 -1.876366e-01 6.971561e-01
<VARIANCE> 39
 1.095344e+02 9.537917e+01 4.181995e+01 6.320305e+01 3.962826e+01 3.507829e+01 3.829465e+01 4.029781e+01 4.117367e+01 3.673316e+01 3.904041e+01 2.856606e+01 2.803053e+02 3.449102e+00 2.572743e+00 2.756752e+00 2.022225e+00 2.318265e+00 2.100658e+00 1.849064e+00 2.223975e+00 2.314202e+00 2.683386e+00 2.188577e+00 1.847221e+00 6.140625e+00 5.628474e-01 3.840155e-01 4.655508e-01 4.013593e-01 4.614089e-01 4.112426e-01 4.029260e-01 4.292883e-01 4.463767e-01 5.762367e-01 4.613065e-01 3.563825e-01 1.057273e+00
<GCONST> 1.255668e+02
<STATE> 4
<MEAN> 39
 -4.468507e+00 -4.426801e+00 -8.284613e+00 -1.580245e+00 -4.978176e-01 1.295827e+00 -2.265679e+00 -2.726918e+00 -1.982621e-01 1.433373e+00 -2.143338e+00 -4.793054e+00 5.423068e+01 1.784856e+00 -1.678553e+00 -4.527570e-01 -1.164817e+00 4.708180e-01 -1.590003e-01 9.639449e-02 -4.104456e-01 -3.908029e-01 8.327766e-01 -7.627267e-01 -7.090071e-01 3.038998e+00 -1.964435e-02 -2.035954e-01 4.836338e-02 -1.644701e-01 4.862988e-02 2.052725e-02 -4.945361e-02 -3.317303e-02 4.644660e-02 8.672207e-02 -1.808966e-01 -6.951212e-02 1.638105e-01
<VARIANCE> 39
 9.724810e+01 9.422856e+01 5.775091e+01 7.518437e+01 4.228254e+01 3.943662e+01 3.818369e+01 3.630521e+01 4.039599e+01 5.147268e+01 4.187474e+01 3.441116e+01 2.648076e+02 7.032011e+00 5.891459e+00 5.325411e+00 5.932041e+00 5.001960e+00 2.906685e+00 3.512617e+00 2.752409e+00 3.612276e+00 5.274696e+00 4.596740e+00 3.262979e+00 1.560325e+01 1.411639e+00 7.300725e-01 7.123285e-01 9.572260e-01 7.129910e-01 5.998479e-01 5.898874e-01 5.638503e-01 5.745182e-01 9.487279e-01 6.809542e-01 5.191585e-01 2.548254e+00
<GCONST> 1.418326e+02
<TRANSP> 5
 0.000000e+00 1.000000e+00 0.000000e+00 0.000000e+00 0.000000e+00
 0.000000e+00 4.463055e-01 5.536944e-01 0.000000e+00 0.000000e+00
 0.000000e+00 0.000000e+00 3.574108e-01 6.425892e-01 0.000000e+00
 0.000000e+00 0.000000e+00 0.000000e+00 6.047341e-01 3.952659e-01
 0.000000e+00 0.000000e+00 0.000000e+00 0.000000e+00 0.000000e+00
<ENDHMM>
~h "r"
<BEGINHMM>
<NUMSTATES> 5
<STATE> 2
<MEAN> 39
 3.045871e+00 -1.794106e+01 -9.515316e+00 -5.910614e+00 -5.084544e-01 1.099331e+00 -3.431473e+00 -4.446951e+00 3.143499e+00 2.193456e+00 -6.586393e+00 -8.884783e+00 6.953934e+01 -8.443465e-02 1.200886e-01 2.097629e-01 3.322779e-01 -3.502594e-01 -2.424418e-01 -2.554577e-02 1.026815e-01 4.379624e-02 3.865246e-02 2.569372e-02 -3.092420e-02 -2.872679e-01 2.473398e-04 1.178426e-01 3.751127e-02 1.526781e-02 -6.962865e-02 -3.896000e-02 5.487894e-03 -3.260070e-02 -8.581185e-02 -1.341981e-02 9.770700e-02 6.775158e-02 -8.016094e-02
<VARIANCE> 39
 1.775073e+01 6.307368e+01 4.486791e+01 4.394796e+01 7.105883e+01 8.714192e+01 3.911843e+01 5.506016e+01 1.143591e+02 4.815072e+01 5.395486e+01 5.172209e+01 5.865836e+01 5.425487e-01 1.796801e+00 1.539727e+00 1.549932e+00 2.319916e+00 2.263547e+00 1.829234e+00 2.205678e+00 3.014750e+00 1.975710e+00 2.371705e+00 1.916939e+00 1.112819e+00 9.413796e-02 2.527431e-01 1.880064e-01 2.430046e-01 3.744006e-01 3.259690e-01 3.184980e-01 3.980827e-01 5.006205e-01 3.674139e-01 3.779507e-01 3.441586e-01 1.533855e-01
<GCONST> 1.140130e+02
<STATE> 3
<MEAN> 39
 2.501874e+00 -1.524430e+01 -8.850113e+00 -3.431019e+00 -1.919406e+00 -8.328066e-01 -4.024357e+00 -3.251020e+00 2.893358e+00 1.960946e+00 -6.397008e+00 -8.321922e+00 6.652406e+01 -2.115592e-01 6.230307e-01 4.396211e-01 4.061228e-01 -3.967929e-01 -2.760447e-01 -1.722488e-02 3.947130e-02 -2.180489e-01 -8.725550e-02 3.480115e-01 2.422041e-01 -6.213307e-01 -3.366992e-02 1.052188e-01 6.042822e-02 -2.123925e-02 5.181099e-02 4.166642e-02 4.396744e-03 -2.292025e-02 -1.185866e-01 -2.367534e-02 6.891394e-02 5.083631e-02 -5.894415e-02
<VARIANCE> 39
 2.495661e+01 7.604222e+01 6.440552e+01 4.870639e+01 7.480766e+01 7.072687e+01 3.586464e+01 4.583171e+01 8.592928e+01 5.599521e+01 4.442265e+01 5.568571e+01 9.266949e+01 7.191740e-01 1.791456e+00 1.843099e+00 1.495485e+00 2.589616e+00 2.301645e+00 1.903417e+00 2.559101e+00 3.403546e+00 2.214520e+00 2.304268e+00 2.007973e+00 1.169773e+00 1.196577e-01 2.411608e-01 2.254776e-01 2.398700e-01 4.086175e-01 3.254207e-01 3.433430e-01 4.363219e-01 4.987406e-01 4.202003e-01 3.728399e-01 3.426347e-01 1.649228e-01
<GCONST> 1.166194e+02
<STATE> 4
<MEAN> 39
 -1.564902e+00 -7.586300e+00 -5.823188e+00 1.130533e+00 -2.171359e+00 -8.092068e-01 -3.774775e+00 -2.103328e+00 1.210299e+00 -8.537537e-02 -4.001265e+00 -5.611969e+00 5.771070e+01 -4.950739e-01 6.415714e-01 4.755425e-01 2.434469e-01 -1.021524e-01 -4.234404e-02 1.399126e-02 6.911601e-02 -4.402094e-01 -2.184157e-01 4.192848e-01 3.340490e-01 -7.437489e-01 -2.364275e-02 1.513777e-02 -1.447018e-02 -5.816643e-02 4.327657e-02 8.650847e-03 -2.691545e-02 -2.358961e-02 -6.330232e-02 -6.281727e-03 -4.276628e-03 2.632266e-03 -9.822460e-03
<VARIANCE> 39
 5.807415e+01 1.095882e+02 8.473512e+01 6.527603e+01 7.357528e+01 6.919489e+01 4.687771e+01 4.516599e+01 6.347981e+01 6.130643e+01 4.493329e+01 4.609657e+01 1.987542e+02 1.195729e+00 2.145035e+00 2.495103e+00 2.077597e+00 2.915488e+00 2.634737e+00 2.338083e+00 2.541014e+00 3.130325e+00 2.322569e+00 2.351533e+00 1.848852e+00 1.011682e+00 1.800981e-01 3.184418e-01 3.309346e-01 3.188329e-01 4.392032e-01 4.282559e-01 3.924791e-01 4.501445e-01 4.522647e-01 4.172533e-01 3.772132e-01 3.239906e-01 1.542587e-01
<GCONST> 1.221643e+02
<TRANSP> 5
 0.000000e+00 1.000000e+00 0.000000e+00 0.000000e+00 0.000000e+00
 0.000000e+00 7.722124e-01 2.277877e-01 0.000000e+00 0.000000e+00
 0.000000e+00 0.000000e+00 6.363337e-01 3.636663e-01 0.000000e+00
 0.000000e+00 0.000000e+00 0.000000e+00 6.371132e-01 3.628868e-01
 0.000000e+00 0.000000e+00 0.000000e+00 0.000000e+00 0.000000e+00
<ENDHMM>
~h "s"
<BEGINHMM>
<NUMSTATES> 5
<STATE> 2
<MEAN> 39
 -1.077887e+01 -1.258451e+00 -4.665587e+00 4.197863e-02 4.440197e+00 -7.463939e+00 1.108842e-01 -3.591028e+00 3.723286e+00 -1.151159e+00 -8.340643e-02 -3.974830e+00 6.067548e+01 -1.757868e+00 7.953792e-01 -8.436401e-02 4.428927e-01 7.833112e-01 -4.602259e-01 7.692155e-01 2.003899e-01 3.698950e-01 -4.331642e-01 5.329654e-01 1.830845e-01 -2.308233e-01 2.882598e-01 -3.186933e-01 1.983083e-02 -2.336137e-01 -1.036062e-01 4.898560e-02 -1.437209e-01 -9.076401e-02 -2.024439e-01 1.030065e-01 -1.035744e-01 -1.505369e-02 1.663515e-01
<VARIANCE> 39
 9.809291e+01 6.693974e+01 4.972625e+01 7.971996e+01 9.884482e+01 8.354171e+01 6.615571e+01 5.486548e+01 5.379036e+01 5.304296e+01 5.827761e+01 4.403743e+01 1.387632e+02 5.212067e+00 3.937479e+00 2.419440e+00 3.892182e+00 3.869076e+00 4.204674e+00 3.887528e+00 2.996598e+00 3.464290e+00 3.538542e+00 3.524272e+00 2.374634e+00 3.146678e+00 8.234001e-01 7.007154e-01 3.683564e-01 4.892944e-01 6.909277e-01 7.068099e-01 7.709678e-01 5.423988e-01 6.131470e-01 6.432184e-01 6.150444e-01 4.567120e-01 5.942703e-01
<GCONST> 1.364199e+02
<STATE> 3
<MEAN> 39
 -1.400540e+01 -3.643740e-01 -4.860804e+00 7.396849e-01 5.814702e+00 -8.181556e+00 1.576798e+00 -3.399127e+00 3.985497e+00 -1.989475e+00 7.651989e-01 -3.374271e+00 6.031314e+01 -5.232842e-01 -1.680316e-01 -2.092838e-01 -7.796854e-02 4.557675e-01 -2.017048e-01 3.816783e-01 3.295386e-03 9.867823e-03 -1.088588e-01 6.762314e-02 6.863997e-02 1.017057e-01 5.425006e-01 -3.765036e-01 -3.902306e-02 -2.390822e-01 -1.393090e-01 7.630184e-02 -1.550640e-01 -7.562101e-02 -7.851391e-02 1.356032e-01 -1.841734e-01 -1.124558e-01 2.627805e-01
<VARIANCE> 39
 9.845121e+01 6.466788e+01 4.303026e+01 9.246627e+01 8.553151e+01 7.496982e+01 7.274104e+01 6.035280e+01 5.626183e+01 5.503416e+01 4.637478e+01 4.210740e+01 1.088062e+02 6.713733e+00 4.306919e+00 2.295791e+00 3.428169e+00 4.166968e+00 4.519165e+00 4.264526e+00 2.768388e+00 3.135052e+00 3.458282e+00 3.659516e+00 2.509071e+00 3.441626e+00 8.481396e-01 6.414704e-01 3.542969e-01 4.740932e-01 6.881034e-01 6.727310e-01 7.779734e-01 5.164203e-01 5.872855e-01 6.165574e-01 6.329693e-01 4.659925e-01 5.285100e-01
<GCONST> 1.359013e+02
<STATE> 4
<MEAN> 39
 -1.366557e+01 -3.115381e+00 -5.091724e+00 -2.614518e+00 9.446815e+00 -1.064661e+01 3.626848e+00 -2.116527e+00 5.138187e+00 -2.911455e+00 -2.539265e+00 -1.332266e+00 6.047079e+01 1.521524e+00 -1.259649e+00 -4.073064e-01 -9.909046e-01 -2.260268e-01 2.259166e-01 -5.245151e-01 -3.819411e-03 -9.580509e-02 4.912107e-01 -8.460005e-01 -3.382532e-01 1.063990e+00 1.408629e-01 -9.613188e-02 -9.613663e-03 -5.254904e-02 -1.214394e-01 1.009386e-01 -8.024355e-02 -2.770077e-03 -5.181593e-02 8.065327e-02 -5.470927e-02 -7.168979e-02 5.059199e-02
<VARIANCE> 39
 1.788189e+02 9.084578e+01 5.433526e+01 9.378136e+01 1.145110e+02 8.078170e+01 1.017472e+02 6.270998e+01 6.831048e+01 6.730873e+01 7.715256e+01 6.150698e+01 1.106726e+02 1.273275e+01 5.634848e+00 3.025974e+00 4.688162e+00 5.088403e+00 4.555368e+00 6.737821e+00 3.744782e+00 3.828214e+00 4.189081e+00 6.273872e+00 3.664425e+00 5.601249e+00 1.827361e+00 7.527311e-01 5.172603e-01 8.055462e-01 7.709888e-01 7.120293e-01 1.108234e+00 6.430553e-01 6.047762e-01 7.174767e-01 1.027504e+00 5.910407e-01 6.779605e-01
<GCONST> 1.471195e+02
<TRANSP> 5
 0.000000e+00 1.000000e+00 0.000000e+00 0.000000e+00 0.000000e+00
 0.000000e+00 5.673925e-01 4.326074e-01 0.000000e+00 0.000000e+00
 0.000000e+00 0.000000e+00 5.768021e-01 4.231979e-01 0.000000e+00
 0.000000e+00 0.000000e+00 0.000000e+00 8.274723e-01 1.725277e-01
 0.000000e+00 0.000000e+00 0.000000e+00 0.000000e+00 0.000000e+00
<ENDHMM>
~h "t"
<BEGINHMM>
<NUMSTATES> 5
<STATE> 2
<MEAN> 39
 -4.815248e+00 -9.711233e-01 -6.686594e+00 -3.273847e+00 -3.479655e+00 2.322661e+00 -4.869201e+00 -4.912194e+00 -1.175135e-01 -1.387871e+00 -6.015691e-01 -2.131795e+00 5.117361e+01 9.373198e-01 -5.893659e-01 5.812786e-02 -1.041948e+00 -5.928136e-01 2.300138e-01 -4.062613e-01 -8.736972e-01 -1.409379e-01 1.068076e-01 5.547185e-01 3.664880e-01 1.339159e+00 1.946766e-01 -2.776657e-01 1.204479e-01 -2.589940e-01 7.848898e-02 -8.718661e-02 -3.239672e-01 -3.486690e-01 -1.260248e-01 2.038782e-01 2.375931e-02 -1.131560e-01 5.577589e-01
<VARIANCE> 39
 1.066508e+02 7.270274e+01 5.759658e+01 1.217545e+02 8.494793e+01 9.576173e+01 6.783504e+01 6.135952e+01 6.949821e+01 6.003257e+01 4.995018e+01 5.175624e+01 2.014536e+02 6.351990e+00 5.304090e+00 4.125783e+00 9.083285e+00 5.651029e+00 5.611145e+00 7.238361e+00 5.461516e+00 4.994082e+00 5.268975e+00 4.031638e+00 4.540120e+00 1.005202e+01 1.169313e+00 7.754558e-01 7.082709e-01 1.220306e+00 1.100386e+00 1.060938e+00 1.393903e+00 9.789056e-01 8.499746e-01 8.810984e-01 7.447390e-01 6.834459e-01 1.448925e+00
<GCONST> 1.507136e+02
<STATE> 3
<MEAN> 39
 -1.226710e+00 -3.137989e+00 -5.897005e+00 -6.967676e+00 -4.654396e+00 2.893730e+00 -6.958869e+00 -7.924842e+00 -8.194644e-01 -4.394894e-01 7.153007e-01 -1.920816e+00 5.692194e+01 1.321895e+00 -9.030409e-01 3.193787e-01 -1.602517e+00 -2.024847e-01 9.970527e-02 -1.057827e+00 -1.400630e+00 -5.691045e-01 4.616918e-01 4.464221e-01 8.149096e-03 2.388408e+00 -2.472242e-02 -5.881756e-03 3.986099e-02 -9.101924e-02 1.825552e-01 2.508725e-04 -8.489195e-02 3.137887e-02 -1.457592e-01 9.016175e-02 -1.159940e-01 -1.465287e-01 9.347534e-02
<VARIANCE> 39
 8.272252e+01 7.801649e+01 5.908937e+01 1.563425e+02 8.156581e+01 1.239278e+02 9.318054e+01 8.376724e+01 8.845298e+01 7.050934e+01 6.351649e+01 7.559502e+01 1.616512e+02 5.565473e+00 6.067506e+00 5.545565e+00 8.984789e+00 7.776677e+00 6.704545e+00 1.031913e+01 6.735368e+00 5.812679e+00 5.479494e+00 5.879670e+00 5.005977e+00 1.133609e+01 9.668354e-01 9.795651e-01 7.836329e-01 1.597518e+00 9.997125e-01 1.117254e+00 1.536917e+00 1.177121e+00 9.577675e-01 9.237119e-01 8.677036e-01 8.805807e-01 1.602947e+00
<GCONST> 1.559132e+02
<STATE> 4
<MEAN> 39
 2.459712e+00 7.199377e-01 -2.749579e+00 -1.121057e+01 3.199753e-01 5.352312e+00 -1.246242e+01 -1.156747e+01 -5.608508e+00 9.186726e-01 -2.496273e+00 -7.590815e-01 5.802656e+01 3.073363e-01 2.611476e-02 1.016484e-01 -2.391715e-01 6.654245e-02 -1.420957e-01 -9.086014e-02 -1.395360e-01 -4.050812e-01 8.531881e-02 -1.245820e-01 -1.962775e-01 4.227428e-01 -1.440908e-01 1.393226e-01 -4.811406e-02 1.963959e-01 -4.566926e-02 9.700493e-03 1.496768e-01 1.579994e-01 4.624553e-02 -1.000787e-01 -4.883070e-02 1.889728e-02 -3.011396e-01
<VARIANCE> 39
 5.926053e+01 1.169670e+02 5.628021e+01 2.076995e+02 1.321991e+02 9.855332e+01 1.080569e+02 8.491037e+01 1.052990e+02 7.776295e+01 1.034016e+02 8.083202e+01 1.726076e+02 3.688094e+00 7.726027e+00 4.348448e+00 1.296880e+01 6.428095e+00 5.178994e+00 6.957915e+00 6.109683e+00 6.094227e+00 5.643141e+00 5.480884e+00 4.714674e+00 1.120988e+01 5.511479e-01 1.155495e+00 6.624151e-01 1.588018e+00 8.727987e-01 9.632604e-01 1.141008e+00 1.127866e+00 1.086880e+00 9.970560e-01 8.920670e-01 8.013689e-01 1.378952e+00
<GCONST> 1.552670e+02
<TRANSP> 5
 0.000000e+00 1.000000e+00 0.000000e+00 0.000000e+00 0.000000e+00
 0.000000e+00 4.426182e-01 5.573819e-01 0.000000e+00 0.000000e+00
 0.000000e+00 0.000000e+00 4.664600e-01 5.335400e-01 0.000000e+00
 0.000000e+00 0.000000e+00 0.000000e+00 8.332841e-01 1.667159e-01
 0.000000e+00 0.000000e+00 0.000000e+00 0.000000e+00 0.000000e+00
<ENDHMM>
~h "w"
<BEGINHMM>
<NUMSTATES> 5
<STATE> 2
<MEAN> 39
 -1.386562e+01 -3.547643e+00 4.165035e-01 -3.253179e+00 8.944942e+00 -5.980854e+00 -5.553300e+00 -2.612477e+00 4.056804e+00 -3.529160e+00 2.190503e+00 -5.990401e+00 6.418349e+01 8.698757e-01 -2.412874e-01 5.331885e-01 2.192004e-02 -9.084660e-01 -4.483738e-01 -5.946022e-01 -2.779449e-01 -4.936763e-01 1.133811e-01 2.366971e-01 7.156847e-02 2.999085e-01 1.799358e-01 -1.228736e-01 1.498561e-02 -4.102413e-03 -2.074935e-01 -6.107930e-02 2.634420e-02 -3.825996e-02 -1.550595e-01 7.229474e-02 -3.675455e-02 3.480962e-02 4.847017e-02
<VARIANCE> 39
 1.270867e+02 4.636071e+01 3.084395e+01 5.068743e+01 1.073869e+02 6.484747e+01 5.822704e+01 6.897709e+01 4.204924e+01 3.567001e+01 3.149712e+01 1.855226e+01 1.557647e+01 1.080810e+01 2.826933e+00 2.115361e+00 2.028331e+00 6.412370e+00 4.015410e+00 5.007464e+00 4.841630e+00 4.029505e+00 2.317598e+00 2.924409e+00 2.409462e+00 1.020764e+00 1.363595e+00 4.076540e-01 3.168023e-01 3.520843e-01 7.096104e-01 6.653302e-01 9.603312e-01 9.258000e-01 6.854280e-01 4.444017e-01 5.112783e-01 4.259311e-01 1.624676e-01
<GCONST> 1.286299e+02
<STATE> 3
<MEAN> 39
 -9.614205e-01 -1.044814e+01 7.212660e+00 -1.597612e+00 -6.428377e+00 -1.237474e+01 -1.024821e+01 -4.925076e+00 -4.087980e+00 -3.814750e+00 4.016106e+00 -3.377639e+00 6.858372e+01 1.055859e-01 -3.135006e-01 1.174240e+00 2.375119e-01 -1.493382e+00 -3.947339e-01 5.648243e-01 7.887240e-02 -1.732833e+00 -1.198139e-01 7.474073e-03 3.714023e-01 -8.223402e-02 -3.899364e-01 2.133724e-01 -6.754744e-02 4.130963e-02 2.802486e-01 1.476705e-04 9.700120e-02 -3.828779e-03 6.489609e-02 -6.949142e-02 -5.521707e-03 -8.571841e-02 -2.113032e-01
<VARIANCE> 39
 3.096821e+01 3.948366e+01 2.996948e+01 2.372999e+01 5.528894e+01 4.835485e+01 3.853213e+01 2.601722e+01 5.914513e+01 5.837128e+01 4.105874e+01 3.024436e+01 1.210000e+01 2.022734e+00 2.560091e+00 1.089646e+00 1.371821e+00 3.102506e+00 3.281638e+00 3.726208e+00 3.090503e+00 3.578762e+00 2.326235e+00 3.159697e+00 1.907058e+00 8.785216e-01 6.572710e-01 2.798472e-01 1.979139e-01 3.194846e-01 5.534803e-01 7.081950e-01 7.364829e-01 7.245363e-01 4.364284e-01 3.888806e-01 5.137413e-01 3.686193e-01 9.451794e-02
<GCONST> 1.166998e+02
<STATE> 4
<MEAN> 39
 -3.629318e+00 -4.859710e+00 5.600080e+00 2.212094e+00 -4.277375e+00 -5.147650e+00 -6.495234e+00 -6.721362e+00 -6.439601e+00 -5.440437e+00 -1.428117e-01 1.243542e+00 5.869468e+01 -3.770840e-01 3.050196e-01 -1.533024e-01 1.502628e-01 1.167595e-01 5.308140e-01 3.815303e-01 5.465689e-02 -4.008572e-01 2.766766e-01 -1.034242e-01 -2.632500e-02 -6.907554e-01 -7.697351e-02 -2.672743e-02 -7.435238e-02 -3.893294e-02 7.217529e-02 -3.929304e-02 -9.385772e-03 5.900975e-02 1.103463e-01 3.594930e-02 2.297325e-02 -6.828979e-02 -3.231680e-03
<VARIANCE> 39
 1.924803e+01 2.366551e+01 2.790466e+01 2.362904e+01 4.261071e+01 8.446893e+01 2.985791e+01 3.369358e+01 2.194888e+01 3.422155e+01 4.429015e+01 2.755403e+01 6.480302e+01 2.582045e-01 1.579538e+00 1.287111e+00 1.110286e+00 2.752304e+00 2.786931e+00 2.218469e+00 2.596996e+00 2.607438e+00 2.232728e+00 2.522774e+00 1.337913e+00 4.734178e-01 1.287290e-01 1.903128e-01 1.379752e-01 2.802230e-01 3.739194e-01 4.359421e-01 4.790066e-01 5.635840e-01 2.638316e-01 3.739369e-01 5.335452e-01 2.337793e-01 6.120497e-02
<GCONST> 1.054943e+02
<TRANSP> 5
 0.000000e+00 1.000000e+00 0.000000e+00 0.000000e+00 0.000000e+00
 0.000000e+00 9.309253e-01 6.907471e-02 0.000000e+00 0.000000e+00
 0.000000e+00 0.000000e+00 6.208454e-01 3.791547e-01 0.000000e+00
 0.000000e+00 0.000000e+00 0.000000e+00 8.154114e-01 1.845886e-01
 0.000000e+00 0.000000e+00 0.000000e+00 0.000000e+00 0.000000e+00
<ENDHMM>
~h "ah"
<BEGINHMM>
<NUMSTATES> 5
<STATE> 2
<MEAN> 39
 2.058528e+00 -1.467672e+01 -9.838536e+00 -7.506677e+00 7.529553e-01 -1.574243e+00 -2.709735e+00 -3.881393e+00 3.617381e-01 2.878030e+00 -6.847472e+00 -8.204277e+00 6.845898e+01 2.205977e-01 -6.059021e-01 -2.279606e-01 -2.402349e-01 5.361794e-02 3.426194e-01 1.640505e-01 2.583121e-02 1.381118e-01 3.714865e-02 -3.093545e-01 -2.372108e-01 4.410278e-01 -1.822608e-01 2.769509e-01 1.598202e-01 2.179658e-01 -3.587153e-04 -3.935362e-02 1.321538e-02 -4.107958e-02 3.913940e-03 -1.230363e-01 1.211759e-01 1.211379e-01 -2.882844e-01
<VARIANCE> 39
 3.432164e+01 7.885733e+01 4.939789e+01 7.556870e+01 9.390978e+01 8.194862e+01 5.409999e+01 6.866832e+01 9.011446e+01 6.464693e+01 7.796450e+01 6.593951e+01 1.213798e+02 1.602161e+00 3.440160e+00 2.752287e+00 2.962802e+00 3.151264e+00 3.463678e+00 2.825962e+00 3.100194e+00 3.751809e+00 2.706108e+00 3.367208e+00 2.383148e+00 2.871944e+00 2.956918e-01 4.377714e-01 3.742162e-01 5.213133e-01 5.451305e-01 4.721649e-01 5.015025e-01 5.291101e-01 5.477237e-01 4.881621e-01 5.718501e-01 4.236576e-01 4.115126e-01
<GCONST> 1.308218e+02
<STATE> 3
<MEAN> 39
 2.327646e+00 -1.575723e+01 -9.834821e+00 -7.696854e+00 5.932623e-01 -1.084352e+00 -2.353858e+00 -4.075796e+00 7.790517e-01 2.786471e+00 -7.219175e+00 -8.540844e+00 6.926583e+01 1.407972e-02 5.891378e-02 1.156109e-01 9.803504e-02 -1.433995e-02 1.519900e-01 2.604416e-02 4.323507e-04 1.441121e-01 -8.491860e-02 -1.085165e-01 1.666433e-04 -1.547524e-01 -7.865695e-02 2.371260e-01 1.540834e-01 1.418397e-01 -3.419354e-02 -8.242305e-02 -4.099739e-02 -2.326876e-02 -4.162165e-02 -5.625375e-02 7.155468e-02 7.411789e-02 -2.065593e-01
<VARIANCE> 39
 2.716809e+01 7.755048e+01 4.508600e+01 6.621594e+01 8.693521e+01 7.770254e+01 5.357044e+01 6.188694e+01 8.937965e+01 5.705744e+01 7.906947e+01 6.234395e+01 1.050588e+02 1.229359e+00 3.049004e+00 1.948080e+00 2.326296e+00 2.552564e+00 2.829784e+00 2.465649e+00 2.679666e+00 3.069649e+00 2.342762e+00 2.847534e+00 2.032089e+00 2.908882e+00 1.579173e-01 3.161440e-01 2.886325e-01 3.979037e-01 4.321847e-01 4.219118e-01 4.230788e-01 4.647756e-01 5.098600e-01 4.211521e-01 4.396976e-01 3.408391e-01 2.676934e-01
<GCONST> 1.242006e+02
<STATE> 4
<MEAN> 39
 2.384589e+00 -1.316590e+01 -7.732169e+00 -6.625085e+00 1.579479e+00 -2.404408e+00 -1.897615e+00 -3.392993e+00 7.906690e-01 2.296673e+00 -8.273220e+00 -6.906426e+00 6.690063e+01 -1.187228e-01 8.311548e-01 3.359772e-01 5.478271e-01 -1.798228e-01 1.013054e-01 -2.175896e-01 -2.901631e-02 -3.285882e-02 -1.966668e-01 1.666417e-01 1.399528e-01 -8.525062e-01 -4.768931e-02 1.330875e-01 7.398115e-02 9.009200e-02 -2.911903e-02 -3.238535e-02 -2.568796e-02 -4.544559e-02 -8.924460e-02 -4.112669e-02 6.384367e-02 3.541904e-02 -1.068751e-01
<VARIANCE> 39
 2.511175e+01 9.862912e+01 5.076658e+01 7.504206e+01 9.049339e+01 8.311274e+01 5.404463e+01 6.210948e+01 7.870318e+01 5.801165e+01 8.008378e+01 7.115266e+01 1.085614e+02 1.032063e+00 3.095454e+00 1.757359e+00 2.873327e+00 2.763471e+00 2.703628e+00 2.586631e+00 2.936078e+00 3.124841e+00 2.413875e+00 2.930434e+00 2.091214e+00 3.006961e+00 1.351444e-01 3.319460e-01 2.565708e-01 4.302802e-01 4.373391e-01 4.176853e-01 4.154460e-01 5.274440e-01 5.217308e-01 4.360003e-01 4.454651e-01 3.379058e-01 2.677030e-01
<GCONST> 1.250784e+02
<TRANSP> 5
 0.000000e+00 1.000000e+00 0.000000e+00 0.000000e+00 0.000000e+00
 0.000000e+00 4.634532e-01 5.365468e-01 0.000000e+00 0.000000e+00
 0.000000e+00 0.000000e+00 5.253271e-01 4.746729e-01 0.000000e+00
 0.000000e+00 0.000000e+00 0.000000e+00 6.938242e-01 3.061759e-01
 0.000000e+00 0.000000e+00 0.000000e+00 0.000000e+00 0.000000e+00
<ENDHMM>
~h "ax"
<BEGINHMM>
<NUMSTATES> 5
<STATE> 2
<MEAN> 39
 1.537300e+00 -7.714997e+00 1.020668e+00 -6.891365e+00 -2.233780e+00 -7.071586e+00 -4.473191e+00 -2.752319e+00 -3.665349e+00 4.103962e+00 -4.211580e+00 -2.579748e+00 6.358275e+01 8.689485e-01 -6.855337e-01 1.157342e-01 -6.211357e-01 -8.329259e-02 -3.153786e-01 -4.708882e-01 -2.112066e-01 -1.089157e-01 9.152101e-01 -2.585576e-01 -3.733686e-01 1.065923e+00 -8.758644e-02 1.022837e-02 -4.778942e-02 5.612998e-02 1.001956e-01 7.525095e-02 -7.461341e-03 1.191322e-02 7.738173e-02 -4.726294e-02 -6.243860e-02 -1.018035e-02 -1.176967e-02
<VARIANCE> 39
 3.253271e+01 5.704154e+01 1.264147e+02 8.792668e+01 7.255225e+01 9.099297e+01 6.991552e+01 8.555370e+01 1.082830e+02 6.524680e+01 6.813922e+01 5.136983e+01 7.993208e+01 3.926092e+00 4.295250e+00 4.818066e+00 6.707482e+00 5.804105e+00 4.713293e+00 6.044204e+00 4.755645e+00 5.957211e+00 5.834549e+00 4.385130e+00 3.086486e+00 7.709491e+00 5.911294e-01 6.185191e-01 5.920289e-01 1.103000e+00 8.511044e-01 6.566066e-01 9.348769e-01 8.467824e-01 8.367906e-01 1.019571e+00 7.236124e-01 4.994089e-01 1.141281e+00
<GCONST> 1.452874e+02
<STATE> 3
<MEAN> 39
 2.511509e+00 -9.381325e+00 -3.629150e+00 -8.184566e+00 -4.264386e-01 -4.637545e+00 -5.508990e+00 -5.583052e+00 -2.740788e-01 6.127074e+00 -4.425008e+00 -5.883844e+00 6.609664e+01 4.161764e-01 -3.660127e-01 -1.800590e-01 -1.386174e-01 2.352184e-01 -4.529759e-02 -5.086084e-01 -2.018867e-01 4.354156e-01 4.007229e-01 -4.696787e-01 -3.491968e-01 6.151632e-01 -3.330528e-01 2.428879e-01 4.487322e-02 2.393752e-01 1.002043e-01 1.185088e-02 2.188371e-01 7.748813e-02 -5.860948e-03 -3.193679e-01 -1.353988e-03 1.435520e-01 -2.503425e-01
<VARIANCE> 39
 2.492080e+01 5.341433e+01 6.409413e+01 7.977511e+01 8.031033e+01 7.831355e+01 7.074277e+01 7.880383e+01 1.043104e+02 7.399686e+01 7.136090e+01 4.972529e+01 5.889080e+01 3.496376e+00 5.175444e+00 3.374228e+00 5.220435e+00 4.810930e+00 4.869688e+00 5.104619e+00 4.391659e+00 4.760020e+00 5.788933e+00 3.865774e+00 3.508307e+00 6.758946e+00 5.418757e-01 7.606561e-01 4.696138e-01 7.723361e-01 7.687615e-01 5.798726e-01 8.861190e-01 8.276408e-01 7.953390e-01 9.661328e-01 7.190135e-01 5.917354e-01 8.536114e-01
<GCONST> 1.415523e+02
<STATE> 4
<MEAN> 39
 5.589792e-01 -7.859416e+00 -5.238374e+00 -6.888475e+00 2.659479e+00 -5.560701e+00 -4.772893e+00 -5.193386e+00 9.753135e-01 5.277403e+00 -6.097251e+00 -4.669003e+00 6.441510e+01 -5.544810e-01 4.331897e-01 -5.364371e-02 5.754576e-01 3.614269e-01 -3.035668e-01 2.685010e-01 -4.630432e-02 4.160734e-01 -5.221788e-01 8.858079e-02 6.219143e-02 1.058205e-01 -3.067805e-01 2.318893e-01 1.310871e-02 2.107740e-01 6.431823e-03 6.392062e-02 2.054626e-01 1.102565e-02 -3.017496e-02 -2.277390e-01 1.413655e-01 5.575417e-02 -2.643294e-01
<VARIANCE> 39
 4.230497e+01 8.538432e+01 5.365524e+01 9.896539e+01 1.000281e+02 7.261131e+01 7.408591e+01 7.386734e+01 1.085688e+02 7.654102e+01 6.328102e+01 5.462936e+01 1.059830e+02 5.563901e+00 7.602564e+00 3.139607e+00 6.799017e+00 4.986861e+00 4.876918e+00 6.610188e+00 4.666185e+00 4.461394e+00 6.750027e+00 4.949017e+00 3.232169e+00 7.818725e+00 8.615453e-01 1.193891e+00 5.113375e-01 9.675619e-01 8.035498e-01 7.876033e-01 1.116536e+00 8.427910e-01 7.405970e-01 1.285669e+00 8.973226e-01 6.179919e-01 1.189141e+00
<GCONST> 1.477820e+02
<TRANSP> 5
 0.000000e+00 1.000000e+00 0.000000e+00 0.000000e+00 0.000000e+00
 0.000000e+00 7.074400e-01 2.925600e-01 0.000000e+00 0.000000e+00
 0.000000e+00 0.000000e+00 5.782137e-01 4.217863e-01 0.000000e+00
 0.000000e+00 0.000000e+00 0.000000e+00 7.936891e-01 2.063109e-01
 0.000000e+00 0.000000e+00 0.000000e+00 0.000000e+00 0.000000e+00
<ENDHMM>
~h "ay"
<BEGINHMM>
<NUMSTATES> 5
<STATE> 2
<MEAN> 39
 -1.258062e+01 -9.253061e-01 -5.197041e+00 4.691958e+00 4.094927e+00 -7.217330e+00 5.920702e+00 -1.436324e-01 2.644718e+00 -2.278474e-01 -1.501404e+00 -1.782591e+00 5.945375e+01 -5.017211e-01 6.659396e-02 1.436283e-01 -1.645199e-01 3.723547e-01 -9.688568e-01 8.805578e-01 -1.536352e-01 7.759526e-02 -1.255765e-01 7.723132e-02 2.950881e-02 1.123817e+00 2.937971e-01 -1.123103e-01 9.636746e-02 -1.692620e-01 -1.671551e-01 7.180909e-02 -2.524148e-01 7.117201e-03 9.742479e-02 -1.263183e-02 6.456311e-02 -3.426406e-02 2.270300e-02
<VARIANCE> 39
 8.514715e+01 1.195155e+02 3.155678e+01 1.250108e+02 6.780135e+01 3.814216e+01 4.562433e+01 3.099882e+01 4.629385e+01 3.315253e+01 3.054941e+01 3.337228e+01 1.419271e+02 3.340149e+00 2.183581e+00 3.591238e+00 2.933207e+00 6.424922e+00 7.026452e+00 3.133321e+00 2.475777e+00 1.400836e+00 2.192339e+00 2.153646e+00 1.748419e+00 5.333280e+00 4.658175e-01 3.130347e-01 4.444829e-01 4.205303e-01 5.059486e-01 6.461282e-01 3.364812e-01 3.784576e-01 3.269883e-01 4.539959e-01 4.141113e-01 3.745036e-01 1.975414e-01
<GCONST> 1.256635e+02
<STATE> 3
<MEAN> 39
 -1.212602e+01 -3.440515e+00 -4.075198e+00 -7.783425e-01 3.526747e+00 -9.991219e+00 5.638485e+00 -1.059250e+00 1.680429e+00 -7.617313e-01 -2.253936e+00 -2.876796e+00 6.085664e+01 6.406888e-01 -4.464026e-01 8.230630e-01 -9.042174e-01 4.830261e-02 -1.116698e+00 3.257296e-01 1.816942e-01 2.580686e-01 2.678882e-01 2.742645e-01 -2.037303e-01 1.642656e+00 5.329994e-01 -3.122210e-01 -1.911134e-01 -1.402419e-01 -4.123737e-01 5.179113e-01 -4.131072e-01 -1.525926e-02 1.874184e-02 1.520209e-01 3.316032e-03 -1.727933e-01 -3.852260e-02
<VARIANCE> 39
 1.442727e+02 1.670517e+02 4.181899e+01 1.233586e+02 1.090860e+02 5.250229e+01 6.983861e+01 3.797337e+01 5.692788e+01 4.421061e+01 3.673143e+01 4.866968e+01 1.753735e+02 6.217878e+00 2.877907e+00 3.647467e+00 2.369670e+00 6.577418e+00 5.802299e+00 3.915205e+00 2.389354e+00 1.962682e+00 2.425668e+00 2.611766e+00 2.073049e+00 5.805521e+00 8.795176e-01 3.495210e-01 6.284251e-01 5.583953e-01 7.741562e-01 8.346694e-01 4.978088e-01 5.049561e-01 5.673597e-01 5.957930e-01 6.278076e-01 4.302352e-01 3.255694e-01
<GCONST> 1.357053e+02
<STATE> 4
<MEAN> 39
 -3.802171e+00 -8.238912e+00 1.746281e+00 -5.761813e+00 -2.155300e+00 -1.405720e+01 2.766794e+00 1.810598e+00 -1.204644e+00 2.081857e+00 -5.253935e+00 -1.472780e+00 6.735748e+01 1.021565e+00 -8.804755e-01 -5.649517e-02 -4.829423e-01 -4.770760e-01 1.605496e-01 -3.167292e-01 1.972032e-01 -1.471735e-02 2.450125e-01 -4.833230e-01 -1.229224e-01 8.463634e-01 -4.429705e-03 -4.843534e-02 -1.442625e-01 5.300303e-02 7.295160e-02 1.350785e-01 -3.056454e-02 -3.280416e-02 2.248794e-02 7.984290e-04 -1.262579e-01 -2.918622e-02 -5.029520e-02
<VARIANCE> 39
 1.380704e+02 7.625877e+01 1.079994e+02 1.009761e+02 1.647715e+02 7.847495e+01 8.979094e+01 4.992103e+01 7.077040e+01 5.760000e+01 6.546381e+01 5.524247e+01 8.930680e+01 6.429143e+00 3.814745e+00 6.341343e+00 2.734271e+00 3.796017e+00 4.052001e+00 3.961869e+00 3.395160e+00 3.843561e+00 4.007954e+00 6.498328e+00 2.437268e+00 1.925032e+00 8.913963e-01 3.954702e-01 7.028451e-01 4.862971e-01 5.306481e-01 7.037467e-01 6.125802e-01 6.104832e-01 6.010465e-01 6.461801e-01 8.623067e-01 3.622705e-01 1.907425e-01
<GCONST> 1.387957e+02
<TRANSP> 5
 0.000000e+00 1.000000e+00 0.000000e+00 0.000000e+00 0.000000e+00
 0.000000e+00 5.238275e-01 4.761725e-01 0.000000e+00 0.000000e+00
 0.000000e+00 0.000000e+00 3.392630e-01 6.607370e-01 0.000000e+00
 0.000000e+00 0.000000e+00 0.000000e+00 9.202566e-01 7.974347e-02
 0.000000e+00 0.000000e+00 0.000000e+00 0.000000e+00 0.000000e+00
<ENDHMM>
~h "eh"
<BEGINHMM>
<NUMSTATES> 5
<STATE> 2
<MEAN> 39
 3.172354e+00 -8.069247e+00 3.008158e+00 -1.604071e-01 -5.289381e+00 -9.616052e+00 -1.020977e+01 -2.454352e+00 -3.474818e-01 7.767944e-01 -4.302995e+00 -4.809292e+00 6.483514e+01 5.604091e-04 -1.025576e-01 1.885519e-01 -3.967285e-01 -1.522110e-01 -1.840442e-01 -2.856895e-01 7.814889e-02 -9.590311e-02 -4.175992e-02 2.532805e-01 9.477653e-02 2.405824e-01 -2.718080e-04 -8.548736e-03 -6.896693e-02 -2.534989e-02 5.089413e-02 7.263121e-02 7.219514e-02 -1.565058e-02 -3.006680e-02 1.402103e-02 3.158969e-02 -5.224545e-02 -6.706881e-04
<VARIANCE> 39
 1.019484e+01 1.113077e+02 3.027125e+01 7.778671e+01 1.406115e+02 8.100819e+01 5.707582e+01 1.403728e+02 5.686975e+01 4.596729e+01 7.127614e+01 8.174644e+01 8.601595e+01 6.337910e-01 8.157912e+00 1.983259e+00 6.819086e+00 6.407039e+00 4.051950e+00 3.229836e+00 7.619258e+00 3.222572e+00 2.648550e+00 5.415915e+00 3.545918e+00 5.236020e+00 1.193476e-01 1.137658e+00 3.134084e-01 1.041500e+00 9.653154e-01 5.603943e-01 6.026782e-01 1.216374e+00 5.371664e-01 3.956489e-01 9.829108e-01 6.349678e-01 6.769012e-01
<GCONST> 1.368087e+02
<STATE> 3
<MEAN> 39
 3.304810e+00 -1.225959e+01 3.108626e+00 -7.108278e+00 -4.809487e+00 -7.737527e+00 -1.184660e+01 -4.626712e+00 -7.223673e-01 1.850665e+00 -9.321887e-01 -4.221362e+00 6.886750e+01 1.438573e-01 6.988329e-01 -7.099990e-01 -1.974129e-01 7.671856e-01 6.521516e-01 8.595917e-02 -4.571978e-01 -8.785216e-02 3.011284e-01 -4.198020e-02 5.999332e-02 -4.478896e-01 -2.592987e-02 2.365767e-01 -8.544847e-02 8.625725e-02 4.009350e-02 2.764604e-02 1.169425e-01 2.307442e-02 -2.793867e-02 -1.044629e-01 -8.105162e-02 4.997880e-02 -1.908182e-01
<VARIANCE> 39
 9.979589e+00 3.888400e+01 3.127891e+01 3.837384e+01 5.088134e+01 1.063508e+02 4.537967e+01 1.223811e+02 8.056778e+01 5.790880e+01 4.840664e+01 5.063101e+01 9.808576e+00 3.393477e-01 2.235373e+00 1.391656e+00 2.639369e+00 2.370087e+00 1.818768e+00 3.388469e+00 3.312864e+00 3.145147e+00 3.541067e+00 3.097780e+00 3.312459e+00 1.174494e+00 6.872034e-02 3.810311e-01 2.540999e-01 5.719280e-01 4.745795e-01 4.114522e-01 5.366703e-01 4.767905e-01 6.304399e-01 6.571869e-01 6.147747e-01 5.612672e-01 1.969301e-01
<GCONST> 1.181482e+02
<STATE> 4
<MEAN> 39
 9.620493e-01 -4.572916e+00 -5.166911e-01 -7.614275e+00 1.744235e+00 -3.602035e+00 -1.021968e+01 -8.775994e+00 -2.664980e+00 2.917589e+00 4.498970e-01 -6.859016e-01 6.312790e+01 -6.478719e-01 1.099145e+00 -2.627427e-01 1.729383e-02 6.575345e-01 4.349295e-01 6.877930e-01 -4.698029e-01 5.375311e-03 -3.148991e-01 -2.576715e-02 1.708468e-01 -7.812557e-01 -8.091261e-02 -5.294137e-02 1.352248e-01 7.659819e-03 -9.769185e-02 2.051466e-02 -2.905598e-02 5.127437e-03 -5.418476e-02 7.937208e-03 8.641616e-02 -1.155613e-02 2.588253e-03
<VARIANCE> 39
 7.062551e+01 5.517956e+01 2.917010e+01 2.996149e+01 6.649953e+01 1.190509e+02 3.102297e+01 8.707442e+01 5.484997e+01 8.397233e+01 1.051938e+02 3.633313e+01 2.561506e+01 2.177153e+00 2.304563e+00 2.600053e+00 2.490585e+00 1.699276e+00 4.811460e+00 2.903332e+00 5.228778e+00 4.088663e+00 4.313947e+00 3.729043e+00 3.051059e+00 1.917711e+00 1.885417e-01 4.000654e-01 3.732002e-01 4.206220e-01 2.853465e-01 7.192373e-01 3.907064e-01 7.169611e-01 7.151600e-01 8.072998e-01 8.043899e-01 6.025268e-01 2.345754e-01
<GCONST> 1.277624e+02
<TRANSP> 5
 0.000000e+00 1.000000e+00 0.000000e+00 0.000000e+00 0.000000e+00
 0.000000e+00 9.481966e-01 5.180338e-02 0.000000e+00 0.000000e+00
 0.000000e+00 0.000000e+00 8.192586e-01 1.807414e-01 0.000000e+00
 0.000000e+00 0.000000e+00 0.000000e+00 8.526892e-01 1.473108e-01
 0.000000e+00 0.000000e+00 0.000000e+00 0.000000e+00 0.000000e+00
<ENDHMM>
~h "hh"
<BEGINHMM>
<NUMSTATES> 5
<STATE> 2
<MEAN> 39
 3.752152e+00 -1.246213e+01 -2.667895e+00 -9.306541e+00 2.319220e+00 -1.002781e+01 -1.436865e+00 -1.360552e+00 2.109191e+00 3.944896e+00 -1.449879e+01 -4.654602e-01 6.733743e+01 -2.054660e-02 -6.546902e-02 4.259653e-01 2.050770e-01 -4.883913e-01 -3.261975e-01 -3.165304e-01 5.049400e-01 3.536316e-01 -3.280080e-01 -6.832915e-02 1.262300e-01 2.121493e-02 1.272558e-02 1.747337e-03 -3.816886e-02 -1.423553e-01 4.336802e-02 5.819425e-02 2.903139e-02 -1.046204e-02 -7.913199e-02 7.129479e-02 4.657111e-02 -5.856973e-02 2.427733e-02
<VARIANCE> 39
 1.408045e+01 6.276014e+01 4.623524e+01 1.222100e+02 1.002525e+02 1.560423e+02 6.972844e+01 1.451819e+02 5.102522e+01 4.913491e+01 3.129498e+01 6.464832e+01 5.963494e+01 3.433246e-01 4.676884e+00 1.355808e+00 1.420090e+01 3.079891e+00 3.066506e+00 4.781889e+00 3.876415e+00 3.863671e+00 2.702813e+00 1.891502e+00 2.949131e+00 5.151491e+00 6.686790e-02 7.017927e-01 2.627613e-01 2.127505e+00 6.096925e-01 4.993438e-01 7.296467e-01 7.564814e-01 6.080788e-01 4.668680e-01 3.519269e-01 6.819596e-01 7.836814e-01
<GCONST> 1.314550e+02
<STATE> 3
<MEAN> 39
 4.795782e+00 -1.783881e+01 -5.240054e+00 -1.153310e+01 -2.862884e+00 -2.887176e+00 -4.127331e+00 -4.150353e+00 3.537493e+00 4.839385e+00 -1.305616e+01 -5.973464e+00 7.189044e+01 -5.121804e-02 -3.043022e-01 1.114961e-01 -2.211057e-01 2.182113e-01 1.753420e-01 1.342027e-01 3.615813e-02 1.834094e-01 -2.245275e-01 -3.913493e-01 -3.434843e-01 3.223276e-01 -2.069846e-03 1.520386e-01 -3.713824e-02 5.793658e-02 7.528414e-02 -5.066405e-02 -3.730632e-02 2.196025e-02 -1.293530e-01 1.254432e-02 2.350231e-02 1.048239e-01 -9.811611e-02
<VARIANCE> 39
 1.556735e+01 2.408234e+01 3.863260e+01 3.881302e+01 7.800757e+01 8.031908e+01 4.497134e+01 1.416904e+02 5.312481e+01 6.225349e+01 3.202816e+01 4.255216e+01 1.912199e+01 2.350462e-01 1.624379e+00 1.090617e+00 2.020671e+00 4.183877e+00 2.149318e+00 2.867150e+00 3.899779e+00 2.604175e+00 1.919995e+00 1.754491e+00 1.974062e+00 1.170466e+00 5.181648e-02 3.428907e-01 1.518520e-01 4.765473e-01 6.519768e-01 2.623189e-01 4.545907e-01 7.069069e-01 4.186164e-01 3.356892e-01 3.302160e-01 3.089316e-01 2.396256e-01
<GCONST> 1.129070e+02
<STATE> 4
<MEAN> 39
 2.097678e+00 -1.836114e+01 -7.452492e+00 -8.372977e+00 4.776412e+00 -1.634655e+00 6.288737e-01 -4.796748e+00 3.864607e+00 2.416366e+00 -1.405643e+01 -5.301907e+00 7.282713e+01 -8.445848e-03 6.853133e-02 -5.314779e-03 1.466098e-01 4.546436e-02 3.407320e-02 2.580725e-02 -1.026239e-01 -4.065347e-02 -2.200304e-02 4.180045e-02 3.978704e-02 -7.366546e-02 -5.426930e-04 3.133817e-02 3.290984e-02 3.644311e-02 -6.505948e-02 -1.665614e-02 -4.425175e-02 4.656901e-06 1.144835e-02 -6.294468e-03 5.569420e-02 1.375888e-02 -3.851393e-02
<VARIANCE> 39
 9.619141e+00 2.695549e+01 4.382819e+01 4.816829e+01 9.272665e+01 4.894204e+01 7.229160e+01 6.645780e+01 8.260431e+01 5.709442e+01 5.322382e+01 5.272477e+01 1.964573e+01 2.927498e-01 9.472191e-01 9.637751e-01 1.831280e+00 2.011127e+00 1.645070e+00 1.593665e+00 1.689743e+00 1.574431e+00 1.472421e+00 1.388159e+00 1.379668e+00 6.198965e-01 4.594992e-02 1.708500e-01 1.447166e-01 2.534939e-01 2.404151e-01 2.499330e-01 2.432142e-01 2.766232e-01 2.806042e-01 2.704297e-01 2.422008e-01 2.191123e-01 9.002679e-02
<GCONST> 1.020631e+02
<TRANSP> 5
 0.000000e+00 1.000000e+00 0.000000e+00 0.000000e+00 0.000000e+00
 0.000000e+00 7.651075e-01 2.348926e-01 0.000000e+00 0.000000e+00
 0.000000e+00 0.000000e+00 6.266343e-01 3.733658e-01 0.000000e+00
 0.000000e+00 0.000000e+00 0.000000e+00 9.702499e-01 2.975011e-02
 0.000000e+00 0.000000e+00 0.000000e+00 0.000000e+00 0.000000e+00
<ENDHMM>
~h "ih"
<BEGINHMM>
<NUMSTATES> 5
<STATE> 2
<MEAN> 39
 5.142999e-01 -2.420457e+00 4.881451e+00 -1.242872e+00 -1.035785e+01 -5.596181e+00 -8.744932e+00 -6.627800e+00 -6.211124e+00 -3.206272e+00 8.059995e-01 -4.761077e+00 5.971729e+01 -6.076329e-01 6.976041e-02 1.555630e+00 -6.710836e-02 -1.054296e+00 1.303708e-01 2.357045e-01 4.535331e-01 -5.403684e-01 -4.538713e-01 6.156059e-01 1.734558e-01 -9.397636e-02 -5.603692e-02 -3.300804e-02 -1.071885e-01 -7.523847e-02 8.922146e-02 2.458159e-01 8.903107e-02 -8.737778e-03 6.931231e-02 1.420777e-01 -6.128592e-02 -5.611783e-02 -3.376542e-02
<VARIANCE> 39
 3.386771e+01 1.548671e+02 9.998007e+01 1.533209e+02 9.873796e+01 1.158441e+02 6.355529e+01 6.673220e+01 1.006485e+02 7.309110e+01 6.713210e+01 5.338869e+01 1.316801e+02 1.094744e+00 3.636847e+00 5.079954e+00 6.242796e+00 6.338223e+00 4.363526e+00 4.430694e+00 4.127327e+00 3.769970e+00 4.572132e+00 4.729443e+00 2.239177e+00 1.892972e+00 1.342412e-01 6.758443e-01 7.984488e-01 8.821232e-01 1.030194e+00 6.932213e-01 5.773896e-01 8.053415e-01 5.649154e-01 6.757568e-01 6.209717e-01 4.119868e-01 3.397805e-01
<GCONST> 1.391961e+02
<STATE> 3
<MEAN> 39
 -1.581160e+00 -4.188265e+00 7.708641e+00 -2.997514e+00 -1.336342e+01 -5.029977e+00 -7.862680e+00 -5.770604e+00 -6.815289e+00 -3.935862e+00 3.519361e+00 -4.801932e+00 6.138486e+01 -3.747835e-01 3.597054e-01 1.801200e-01 2.189614e-01 1.813408e-01 4.203631e-01 2.587113e-01 1.406468e-01 -7.934352e-03 1.505896e-01 -2.265829e-02 -3.487945e-02 -4.752289e-01 5.138825e-02 2.921371e-02 -4.194132e-01 1.128140e-01 3.552190e-01 2.472387e-02 6.340583e-02 -4.141738e-02 2.204306e-01 8.837517e-02 -1.735646e-01 -1.271326e-02 -9.184589e-02
<VARIANCE> 39
 3.066193e+01 1.327952e+02 1.147710e+02 1.206705e+02 1.091543e+02 1.120581e+02 5.554701e+01 6.572569e+01 1.024150e+02 7.102454e+01 6.457082e+01 5.236548e+01 1.263035e+02 9.254753e-01 2.095636e+00 4.385402e+00 2.438848e+00 4.669298e+00 3.690062e+00 2.960854e+00 3.320255e+00 2.987005e+00 2.564208e+00 3.672320e+00 2.251956e+00 9.337851e-01 1.017075e-01 3.009980e-01 4.514254e-01 4.615096e-01 6.338534e-01 6.641128e-01 5.193711e-01 6.491745e-01 4.556129e-01 4.655017e-01 5.931944e-01 3.905557e-01 1.613919e-01
<GCONST> 1.293963e+02
<STATE> 4
<MEAN> 39
 -3.467015e+00 -1.670118e+00 3.750084e+00 -2.250664e+00 -7.904003e+00 -1.951847e+00 -5.349891e+00 -4.189396e+00 -3.870390e+00 -2.890749e+00 2.005507e+00 -3.809254e+00 5.740382e+01 -2.291356e-01 2.255899e-01 -6.872534e-01 4.380856e-01 8.814102e-01 1.509541e-01 2.625523e-01 2.370614e-02 4.395200e-01 3.122859e-01 -5.134706e-01 -3.029452e-02 -5.243062e-01 2.028612e-03 -4.314720e-02 -6.642710e-02 2.862266e-02 1.155575e-02 -1.111268e-01 2.788701e-02 -1.171934e-01 1.525475e-02 -1.018520e-02 1.528216e-02 -6.323671e-03 6.598785e-02
<VARIANCE> 39
 4.260296e+01 1.086869e+02 9.653411e+01 1.082519e+02 9.346523e+01 9.621384e+01 6.273285e+01 7.931989e+01 8.789985e+01 4.929810e+01 5.031904e+01 4.108044e+01 1.568736e+02 8.919345e-01 1.902560e+00 2.470288e+00 1.875865e+00 3.194368e+00 3.180117e+00 2.377156e+00 2.436748e+00 2.443548e+00 2.197908e+00 2.926893e+00 1.918367e+00 7.868928e-01 9.289502e-02 2.455571e-01 3.483799e-01 3.164651e-01 5.716831e-01 5.751765e-01 5.076169e-01 5.117761e-01 4.371895e-01 3.358469e-01 5.069910e-01 3.895853e-01 1.755406e-01
<GCONST> 1.236298e+02
<TRANSP> 5
 0.000000e+00 1.000000e+00 0.000000e+00 0.000000e+00 0.000000e+00
 0.000000e+00 6.875913e-01 3.124087e-01 0.000000e+00 0.000000e+00
 0.000000e+00 0.000000e+00 6.440475e-01 3.559524e-01 0.000000e+00
 0.000000e+00 0.000000e+00 0.000000e+00 7.286571e-01 2.713429e-01
 0.000000e+00 0.000000e+00 0.000000e+00 0.000000e+00 0.000000e+00
<ENDHMM>
~h "iy"
<BEGINHMM>
<NUMSTATES> 5
<STATE> 2
<MEAN> 39
 2.676096e-01 -1.101975e+01 1.262226e+01 -4.568498e+00 -1.645163e+01 -1.170899e+01 -8.207300e+00 -5.605184e+00 -9.480379e+00 1.408075e+00 3.764035e+00 -4.389477e+00 6.913358e+01 -3.215996e-01 5.763568e-01 1.157940e+00 2.783622e-02 -6.190973e-01 -2.299486e-01 -7.111081e-02 -4.559691e-01 -1.119726e+00 4.297110e-02 8.254121e-01 1.154913e-02 -2.370637e-01 1.081470e-02 -3.977671e-03 -2.151003e-01 4.347051e-02 1.253828e-01 8.872406e-02 2.101559e-03 3.521855e-02 2.002076e-01 -7.571650e-02 -6.676876e-02 1.822525e-02 -4.341980e-02
<VARIANCE> 39
 1.361930e+01 4.782218e+01 1.099906e+02 3.708490e+01 5.995475e+01 2.897103e+01 3.644897e+01 4.391286e+01 1.533094e+02 8.965588e+01 1.025753e+02 6.077431e+01 1.300031e+01 4.026288e-01 1.128396e+00 2.489729e+00 1.419288e+00 2.533425e+00 2.249061e+00 1.614855e+00 2.182029e+00 3.186330e+00 1.856986e+00 2.964651e+00 1.562280e+00 5.442891e-01 6.349491e-02 1.822030e-01 2.068845e-01 2.143362e-01 3.696122e-01 3.872311e-01 2.869698e-01 4.172113e-01 4.526938e-01 3.463395e-01 4.363638e-01 2.564031e-01 1.143529e-01
<GCONST> 1.104610e+02
<STATE> 3
<MEAN> 39
 -1.625991e+00 -1.018485e+01 1.586620e+01 -2.655420e+00 -2.041402e+01 -1.192192e+01 -1.035909e+01 -8.283186e+00 -1.005240e+01 -2.183284e+00 8.929772e+00 -3.288212e+00 6.769283e+01 -1.663081e-01 3.893805e-01 1.083234e-01 3.301313e-01 -9.387441e-02 -5.777870e-02 -1.201023e-02 5.490840e-02 -1.186404e-01 -2.024650e-01 2.609730e-01 1.949441e-01 -3.927924e-01 -2.044140e-02 3.162390e-02 -2.705151e-01 8.663788e-02 2.191802e-01 3.434774e-02 9.401938e-02 3.919010e-02 2.598582e-01 -4.976666e-02 -1.123508e-01 4.356726e-02 -6.634882e-02
<VARIANCE> 39
 1.392478e+01 5.987020e+01 6.401975e+01 3.528758e+01 7.786500e+01 2.372350e+01 4.948472e+01 4.857272e+01 9.150250e+01 9.793016e+01 1.158752e+02 7.060651e+01 1.507928e+01 4.486390e-01 1.152245e+00 2.716881e+00 1.368393e+00 2.564516e+00 1.747793e+00 1.622854e+00 2.239213e+00 3.065101e+00 1.947203e+00 2.943814e+00 1.582628e+00 6.088714e-01 8.477647e-02 1.628792e-01 1.886174e-01 2.284659e-01 3.558897e-01 3.163830e-01 2.883931e-01 3.523053e-01 4.000590e-01 3.677657e-01 4.081641e-01 3.047930e-01 9.704866e-02
<GCONST> 1.102976e+02
<STATE> 4
<MEAN> 39
 -2.268484e+00 -4.555219e+00 1.234026e+01 -7.491791e-01 -1.399513e+01 -1.132664e+01 -5.690464e+00 -6.846506e+00 -8.833361e+00 -1.070524e+00 3.083181e+00 -1.177828e+00 6.290678e+01 -6.784136e-01 8.943145e-01 -1.819607e+00 3.791749e-01 1.664643e+00 2.842746e-01 6.971494e-01 1.328397e-02 1.298327e+00 -4.189169e-01 -3.493078e-01 1.334589e-01 -6.855708e-01 -1.576249e-01 6.880184e-03 -1.358813e-01 -1.546097e-01 2.273952e-01 1.350652e-01 2.428719e-02 -2.787277e-02 3.137448e-02 9.423429e-03 1.198451e-02 -6.608894e-02 2.958060e-02
<VARIANCE> 39
 4.112574e+01 1.171050e+02 1.085583e+02 6.010484e+01 1.015991e+02 7.874404e+01 1.018236e+02 5.759863e+01 1.017679e+02 7.476382e+01 1.126091e+02 5.710051e+01 5.477757e+01 2.694625e+00 4.005139e+00 4.317895e+00 3.934271e+00 5.550278e+00 3.694901e+00 5.377310e+00 3.208519e+00 5.404451e+00 3.877358e+00 4.729367e+00 3.138556e+00 2.224681e+00 2.585994e-01 5.938953e-01 5.447241e-01 5.501864e-01 7.147373e-01 5.718791e-01 7.681727e-01 6.075493e-01 8.154763e-01 4.863548e-01 6.064556e-01 4.483742e-01 2.489909e-01
<GCONST> 1.375804e+02
<TRANSP> 5
 0.000000e+00 1.000000e+00 0.000000e+00 0.000000e+00 0.000000e+00
 0.000000e+00 8.759643e-01 1.240357e-01 0.000000e+00 0.000000e+00
 0.000000e+00 0.000000e+00 8.028552e-01 1.971448e-01 0.000000e+00
 0.000000e+00 0.000000e+00 0.000000e+00 8.105325e-01 1.894675e-01
 0.000000e+00 0.000000e+00 0.000000e+00 0.000000e+00 0.000000e+00
<ENDHMM>
~h "ng"
<BEGINHMM>
<NUMSTATES> 5
<STATE> 2
<MEAN> 39
 3.188084e+00 -9.600922e-02 -1.178145e+01 1.540226e+00 -5.855403e+00 4.500894e+00 -4.254197e+00 -1.080775e+00 -1.761289e-01 -3.553639e+00 -3.837089e+00 -2.826291e+00 5.618682e+01 -5.433594e-01 6.546625e-01 6.127769e-01 4.341037e-01 4.544309e-02 3.699239e-01 9.176140e-02 -1.372304e-02 1.245425e-03 6.062905e-02 1.484912e-01 2.682656e-01 -7.565420e-01 -5.313445e-02 -1.033551e-01 -4.222408e-03 -1.412246e-02 -1.271728e-04 -2.999415e-02 1.224240e-02 3.344387e-02 4.399231e-02 3.377648e-02 2.732472e-02 2.362741e-03 4.251453e-02
<VARIANCE> 39
 5.925864e+01 1.220401e+02 1.237374e+02 5.548573e+01 1.492705e+02 7.482537e+01 3.131414e+01 6.120460e+01 6.522619e+01 4.806042e+01 2.767295e+01 4.206710e+01 1.733444e+02 6.979032e-01 1.147653e+00 2.221051e+00 1.601679e+00 1.886364e+00 2.155548e+00 1.681485e+00 2.290424e+00 1.874502e+00 2.450156e+00 1.638186e+00 1.349113e+00 6.126386e-01 5.411189e-02 1.242627e-01 2.107716e-01 2.271203e-01 2.781498e-01 3.289547e-01 2.435452e-01 3.666609e-01 3.106556e-01 3.114280e-01 2.675130e-01 2.096303e-01 5.306424e-02
<GCONST> 1.111666e+02
<STATE> 3
<MEAN> 39
 -2.270694e+00 1.638304e+00 -4.442172e+00 4.548409e+00 -1.490957e+00 4.782953e+00 -4.153119e+00 -3.057205e+00 -2.327995e+00 -2.557714e+00 -3.808342e+00 -3.282081e+00 5.019470e+01 -7.625737e-01 3.681036e-01 3.975362e-01 3.047960e-01 7.879048e-02 2.528886e-01 1.529547e-01 1.513818e-01 1.336775e-01 -1.236242e-02 1.810789e-01 2.716970e-01 -7.735298e-01 -6.491250e-03 -1.433019e-01 -1.392177e-01 -6.352565e-02 -2.455640e-03 -9.889338e-02 -3.583180e-02 3.666244e-02 1.002560e-02 5.915224e-02 2.054980e-02 -9.117839e-02 6.062375e-02
<VARIANCE> 39
 5.654876e+01 1.050499e+02 6.214626e+01 6.195311e+01 8.970099e+01 9.061052e+01 4.007812e+01 4.117144e+01 4.023951e+01 3.055610e+01 3.475222e+01 3.448510e+01 1.761111e+02 7.612156e-01 1.036731e+00 1.594181e+00 1.381368e+00 1.721191e+00 2.356109e+00 1.470472e+00 1.724687e+00 1.484935e+00 1.538704e+00 1.515878e+00 1.131110e+00 2.924541e-01 4.836570e-02 1.368666e-01 1.623389e-01 1.899147e-01 2.701235e-01 3.859808e-01 2.281125e-01 2.563891e-01 2.773417e-01 2.357169e-01 2.351042e-01 1.966699e-01 2.543209e-02
<GCONST> 1.043578e+02
<STATE> 4
<MEAN> 39
 -1.049171e+01 2.557744e+00 -8.375991e+00 4.201430e+00 -3.662100e+00 5.688878e+00 -2.983036e+00 -1.056468e-01 -1.566970e+00 -4.596910e+00 -2.999722e+00 -2.974988e+00 3.963948e+01 -4.518117e-01 -1.264454e-01 -1.675282e-01 -1.219845e-01 -1.834057e-01 -6.841324e-02 5.053413e-02 9.543436e-02 9.528923e-02 1.478540e-02 4.804444e-02 6.004914e-02 -3.581984e-01 4.255234e-02 -2.972499e-02 -5.601609e-02 -2.939142e-02 4.798078e-03 -2.581920e-02 -1.119900e-02 1.147709e-02 1.757029e-02 2.428440e-02 2.750009e-03 4.314549e-03 4.211064e-02
<VARIANCE> 39
 7.522701e+01 5.091254e+01 7.274518e+01 7.032783e+01 7.653748e+01 6.314723e+01 8.091901e+01 7.395147e+01 3.969347e+01 3.015056e+01 3.339111e+01 2.575372e+01 1.803966e+02 7.288921e-01 1.268763e+00 1.667619e+00 2.009803e+00 2.211460e+00 2.324342e+00 2.071122e+00 2.197339e+00 1.792519e+00 1.533745e+00 1.593940e+00 1.365373e+00 4.241684e-01 7.542553e-02 1.861652e-01 3.005801e-01 3.189087e-01 3.763228e-01 4.426666e-01 3.899446e-01 4.044584e-01 3.412796e-01 2.732576e-01 3.050726e-01 2.529469e-01 5.322629e-02
<GCONST> 1.117853e+02
<TRANSP> 5
 0.000000e+00 1.000000e+00 0.000000e+00 0.000000e+00 0.000000e+00
 0.000000e+00 7.285866e-01 2.714135e-01 0.000000e+00 0.000000e+00
 0.000000e+00 0.000000e+00 5.188779e-01 4.811221e-01 0.000000e+00
 0.000000e+00 0.000000e+00 0.000000e+00 8.228518e-01 1.771482e-01
 0.000000e+00 0.000000e+00 0.000000e+00 0.000000e+00 0.000000e+00
<ENDHMM>
~h "oh"
<BEGINHMM>
<NUMSTATES> 5
<STATE> 2
<MEAN> 39
 5.962957e+00 -1.056410e+01 -1.016444e+01 -1.094235e+01 -1.102380e+01 1.900084e+00 -3.941894e+00 -5.852198e+00 4.512817e-01 -1.245603e+00 -1.286707e+00 -6.264958e+00 7.087299e+01 -8.332072e-03 -1.775033e-01 -1.866670e-01 1.574577e-01 8.690851e-02 5.735901e-02 6.864922e-02 9.479746e-03 1.094175e-01 8.609838e-02 -1.071952e-01 -8.534387e-02 -1.077894e-02 -1.205676e-02 4.515169e-04 1.812706e-02 4.293997e-02 1.403757e-02 -2.540905e-02 -4.468348e-03 1.959713e-02 -1.954481e-02 6.040151e-03 7.622192e-03 2.474142e-02 -1.043172e-02
<VARIANCE> 39
 1.472839e+01 4.564118e+01 3.929281e+01 2.218100e+02 1.826009e+02 8.242221e+01 6.546556e+01 7.244015e+01 7.874646e+01 9.650626e+01 6.987903e+01 1.102166e+02 2.843409e+01 6.602973e-01 9.837700e-01 1.784392e+00 2.223960e+00 1.746586e+00 2.589785e+00 2.147487e+00 2.619915e+00 2.517690e+00 3.254013e+00 2.045399e+00 2.235626e+00 9.898849e-01 1.045155e-01 1.269346e-01 2.554419e-01 2.937756e-01 2.932474e-01 3.943816e-01 3.322720e-01 4.352149e-01 4.604313e-01 5.518686e-01 3.747508e-01 3.817594e-01 1.340069e-01
<GCONST> 1.180461e+02
<STATE> 3
<MEAN> 39
 4.715053e+00 -1.582084e+01 -1.400561e+01 -9.216592e+00 -1.122457e+01 3.993174e+00 -5.991150e+00 -4.351809e+00 5.166851e+00 -5.894781e-01 -1.863263e+00 -7.676904e+00 7.189114e+01 -1.929961e-02 -4.834596e-02 -1.371170e-01 1.781038e-01 1.998230e-01 -1.853079e-02 8.528521e-02 1.241786e-01 -4.796881e-02 -7.140522e-03 -7.116155e-02 3.617477e-02 -1.196592e-01 -1.204303e-03 2.583654e-02 1.473792e-02 3.112579e-02 -9.682533e-03 -2.121639e-02 9.512726e-04 1.583694e-02 -1.116501e-02 -1.794562e-02 2.595904e-02 2.118487e-02 -3.522678e-02
<VARIANCE> 39
 1.503824e+01 8.627234e+01 3.224136e+01 9.819308e+01 1.413540e+02 1.448692e+02 6.210593e+01 1.055602e+02 7.154864e+01 7.857053e+01 4.484850e+01 1.213755e+02 3.672453e+01 2.578378e-01 9.647050e-01 7.225411e-01 1.653294e+00 1.495350e+00 1.990327e+00 1.837256e+00 2.252692e+00 2.091664e+00 1.926982e+00 1.826841e+00 1.800667e+00 7.443162e-01 4.087831e-02 1.115680e-01 1.217457e-01 2.249448e-01 2.330123e-01 2.871572e-01 2.483903e-01 3.956421e-01 3.336110e-01 3.130412e-01 3.167902e-01 3.187621e-01 9.200406e-02
<GCONST> 1.090972e+02
<STATE> 4
<MEAN> 39
 1.742826e+00 -1.225575e+01 -1.332539e+01 -3.425057e+00 -8.046299e+00 3.826505e+00 -5.407807e+00 -3.980497e+00 2.851453e+00 -3.843410e+00 -3.014316e+00 -5.614922e+00 6.246136e+01 -1.647285e-01 3.379401e-01 -3.179359e-02 2.294055e-01 1.996757e-01 6.450329e-02 1.069875e-01 1.554366e-01 -7.417260e-02 -5.118016e-02 -6.065930e-02 8.250387e-02 -5.123071e-01 -1.824265e-03 4.726615e-02 2.482443e-02 2.627111e-02 -2.698661e-02 2.207349e-03 -1.983429e-02 2.086353e-02 6.113999e-03 1.332442e-02 -1.129428e-02 1.299257e-02 -4.574057e-02
<VARIANCE> 39
 5.832685e+01 1.319594e+02 4.206211e+01 8.945773e+01 1.315565e+02 1.161633e+02 3.822535e+01 7.102752e+01 7.119020e+01 7.731062e+01 5.184922e+01 7.772728e+01 2.005969e+02 2.503451e-01 7.832091e-01 6.872048e-01 1.215558e+00 1.205110e+00 1.771546e+00 1.659857e+00 1.550164e+00 1.571588e+00 1.737104e+00 1.506721e+00 1.396075e+00 5.150191e-01 3.102815e-02 8.845422e-02 1.096604e-01 1.750884e-01 2.002172e-01 2.745788e-01 2.310508e-01 2.732455e-01 2.772037e-01 2.766086e-01 2.701382e-01 2.321554e-01 4.827209e-02
<GCONST> 1.057118e+02
<TRANSP> 5
 0.000000e+00 1.000000e+00 0.000000e+00 0.000000e+00 0.000000e+00
 0.000000e+00 9.388300e-01 6.116994e-02 0.000000e+00 0.000000e+00
 0.000000e+00 0.000000e+00 9.068673e-01 9.313273e-02 0.000000e+00
 0.000000e+00 0.000000e+00 0.000000e+00 9.091569e-01 9.084304e-02
 0.000000e+00 0.000000e+00 0.000000e+00 0.000000e+00 0.000000e+00
<ENDHMM>
~h "uh"
<BEGINHMM>
<NUMSTATES> 5
<STATE> 2
<MEAN> 39
 -5.435985e+00 3.230979e+00 -4.573797e+00 -3.038727e+00 -6.041519e+00 3.525287e+00 -8.276027e+00 -5.994163e+00 -3.366010e+00 -1.577095e+00 4.407407e-01 -2.421092e+00 4.889859e+01 -1.194023e-01 1.709265e-01 -5.151565e-02 2.711664e-01 -1.459448e-01 1.144827e-01 2.300250e-01 1.127648e-01 8.042230e-02 -1.890898e-01 4.219542e-02 4.843430e-02 -3.286785e-01 2.205490e-01 -1.151337e-01 -4.915358e-02 -2.330142e-01 5.035050e-02 -1.486651e-02 -3.097872e-02 -1.158012e-01 -3.486397e-02 2.112238e-02 -1.034906e-02 -3.667428e-02 3.118095e-01
<VARIANCE> 39
 1.446547e+02 5.930915e+01 3.130453e+01 1.270192e+02 5.687236e+01 4.777393e+01 7.062177e+01 6.990041e+01 5.308743e+01 4.384566e+01 4.015838e+01 2.682476e+01 3.072668e+02 1.924529e+00 1.179278e+00 1.463677e+00 3.078287e+00 2.260209e+00 2.258046e+00 2.425689e+00 2.481605e+00 2.358446e+00 2.571754e+00 1.583726e+00 1.431002e+00 2.307871e+00 4.033492e-01 1.960325e-01 3.211356e-01 5.330412e-01 4.674379e-01 3.940322e-01 4.298590e-01 4.278858e-01 4.498321e-01 4.511673e-01 3.292360e-01 2.766286e-01 5.438107e-01
<GCONST> 1.228161e+02
<STATE> 3
<MEAN> 39
 -4.426467e+00 2.175996e+00 -5.037665e+00 -3.965504e+00 -5.908575e+00 3.985123e+00 -8.010727e+00 -6.438534e+00 -3.314337e+00 -1.489097e+00 6.399996e-01 -2.893917e+00 5.061589e+01 4.837826e-01 1.217957e-02 -2.097129e-01 -3.148657e-01 -4.927998e-02 5.964448e-02 6.450935e-02 -2.667495e-01 -2.527017e-01 -1.217221e-01 3.665987e-02 -7.203561e-02 4.163138e-01 2.706159e-01 -1.159531e-01 -2.339224e-02 -2.040724e-01 5.149658e-02 1.172116e-02 -5.184900e-02 -1.316137e-01 -5.207417e-02 6.913508e-02 3.882818e-02 -2.727393e-02 3.781655e-01
<VARIANCE> 39
 1.527617e+02 4.798827e+01 3.320875e+01 1.262781e+02 5.999030e+01 5.468872e+01 6.277571e+01 6.695737e+01 5.626868e+01 4.308121e+01 4.317653e+01 2.943328e+01 2.931636e+02 3.860247e+00 1.569173e+00 2.215477e+00 4.326704e+00 3.911663e+00 2.773489e+00 2.697950e+00 3.051621e+00 3.096808e+00 2.779175e+00 1.958742e+00 1.699329e+00 5.898937e+00 7.098879e-01 2.991910e-01 3.729474e-01 7.376734e-01 5.497434e-01 4.740256e-01 4.425916e-01 4.715576e-01 5.156540e-01 5.464458e-01 3.831523e-01 3.275325e-01 9.315472e-01
<GCONST> 1.304983e+02
<STATE> 4
<MEAN> 39
 5.978824e-01 3.309611e-01 -4.682560e+00 -7.074469e+00 -5.969734e+00 4.290815e+00 -9.649566e+00 -1.034198e+01 -6.131448e+00 7.228600e-01 2.110005e+00 -4.199862e+00 5.673876e+01 6.944211e-01 -2.082993e-01 3.960693e-01 7.147638e-02 2.034460e-01 -7.349495e-02 -2.066273e-01 -6.086149e-01 -2.399742e-02 1.949507e-01 -4.118519e-02 -2.805638e-01 9.242670e-01 -1.278786e-01 3.143775e-02 4.014469e-02 1.637147e-01 5.480384e-02 -6.507581e-02 6.292576e-02 8.654109e-02 1.314504e-01 -3.577139e-02 -9.761693e-02 2.807814e-02 -1.537919e-01
<VARIANCE> 39
 1.046237e+02 5.364882e+01 5.361987e+01 1.197393e+02 6.737134e+01 7.954834e+01 6.385647e+01 6.038675e+01 6.544583e+01 5.227092e+01 5.243571e+01 4.087797e+01 2.111211e+02 6.066555e+00 2.857251e+00 3.383965e+00 8.365756e+00 4.738335e+00 4.367309e+00 5.198044e+00 3.749373e+00 4.225682e+00 4.198034e+00 4.036274e+00 2.829885e+00 1.098474e+01 8.307429e-01 4.672457e-01 5.757279e-01 1.102025e+00 8.409079e-01 7.708258e-01 8.746082e-01 6.834896e-01 6.852186e-01 7.413957e-01 6.474178e-01 5.060433e-01 1.389542e+00
<GCONST> 1.431714e+02
<TRANSP> 5
 0.000000e+00 1.000000e+00 0.000000e+00 0.000000e+00 0.000000e+00
 0.000000e+00 5.444784e-01 4.555216e-01 0.000000e+00 0.000000e+00
 0.000000e+00 0.000000e+00 4.527520e-01 5.472481e-01 0.000000e+00
 0.000000e+00 0.000000e+00 0.000000e+00 7.330814e-01 2.669186e-01
 0.000000e+00 0.000000e+00 0.000000e+00 0.000000e+00 0.000000e+00
<ENDHMM>
~h "uw"
<BEGINHMM>
<NUMSTATES> 5
<STATE> 2
<MEAN> 39
 4.183562e+00 -8.576903e-01 -6.208372e+00 -1.098263e+01 -6.407712e+00 2.767882e+00 -1.174504e+01 -1.421797e+01 -6.532595e+00 -6.790120e-01 2.470223e+00 -1.922162e+00 6.028994e+01 3.643053e-01 4.046775e-01 -3.246067e-01 -6.171746e-01 -9.428837e-01 4.679542e-01 1.633566e-01 2.979040e-02 -5.920587e-01 -5.160069e-01 4.585539e-01 2.698869e-01 1.539943e-03 -2.939558e-01 3.575203e-02 1.543613e-01 3.274127e-01 1.761762e-01 -5.058681e-02 3.362541e-01 3.986067e-01 2.099646e-01 -1.232716e-01 -2.181709e-01 -1.112275e-01 -2.653440e-01
<VARIANCE> 39
 5.566971e+01 1.003514e+02 2.770415e+01 1.193487e+02 7.548068e+01 6.139754e+01 7.342295e+01 7.032037e+01 1.327970e+02 6.904631e+01 9.166559e+01 6.232967e+01 1.555866e+02 2.689334e+00 2.581938e+00 1.863353e+00 6.744853e+00 3.927661e+00 3.765722e+00 5.082929e+00 4.687397e+00 5.216810e+00 4.452385e+00 5.946459e+00 3.419903e+00 2.274877e+00 4.272331e-01 4.850965e-01 3.141532e-01 1.123011e+00 7.154928e-01 6.374976e-01 1.097926e+00 9.219576e-01 9.266545e-01 8.027065e-01 1.039894e+00 6.693242e-01 3.510183e-01
<GCONST> 1.404406e+02
<STATE> 3
<MEAN> 39
 5.080297e+00 -2.754511e+00 -6.196473e+00 -1.319659e+01 -8.137072e+00 3.980829e+00 -1.100287e+01 -1.380850e+01 -5.612185e+00 -1.577557e+00 4.277884e+00 -1.781776e+00 6.367052e+01 -9.591536e-02 2.455761e-01 9.442210e-03 -1.292051e-01 -3.395502e-01 9.099083e-02 4.101171e-01 5.410454e-01 5.535976e-02 -3.601829e-01 -1.413486e-01 -2.140127e-02 -2.502936e-01 -1.341019e-01 -8.258802e-02 6.177672e-02 1.991641e-01 1.781622e-01 -1.187776e-01 4.497291e-02 1.075192e-01 1.959904e-01 1.130997e-01 -1.323115e-01 -9.628106e-02 -7.682624e-02
<VARIANCE> 39
 3.606109e+01 7.393446e+01 2.116306e+01 1.032369e+02 6.593606e+01 5.216048e+01 5.329063e+01 5.432700e+01 1.281313e+02 5.526028e+01 7.537797e+01 6.368463e+01 9.383906e+01 1.083771e+00 2.186161e+00 1.192683e+00 4.962694e+00 2.949965e+00 2.808122e+00 3.062729e+00 3.309891e+00 3.286601e+00 3.831246e+00 3.875032e+00 3.111734e+00 1.677582e+00 1.595170e-01 2.965264e-01 2.032748e-01 6.146131e-01 4.428917e-01 4.469053e-01 5.973534e-01 6.076072e-01 5.877737e-01 5.926495e-01 7.250513e-01 4.975066e-01 1.761476e-01
<GCONST> 1.262881e+02
<STATE> 4
<MEAN> 39
 4.104938e+00 -3.819050e+00 -6.968866e+00 -1.487913e+01 -8.195994e+00 4.020690e+00 -9.527291e+00 -9.620130e+00 -4.102052e+00 -4.490411e-01 1.727409e+00 -4.471370e+00 6.382872e+01 -2.824942e-01 -1.624407e-01 1.678171e-02 6.231954e-01 3.502623e-01 -1.562264e-01 3.748914e-01 4.621403e-01 2.251475e-01 1.047335e-02 -3.958829e-01 -1.579746e-01 -3.099126e-01 -4.073128e-02 -5.175645e-02 4.155611e-03 1.162531e-01 9.288572e-02 -6.325359e-03 1.503843e-02 -2.722830e-02 4.926054e-03 4.998108e-02 -3.824132e-03 -1.130696e-02 -2.166073e-02
<VARIANCE> 39
 4.452502e+01 9.629030e+01 2.948537e+01 1.430412e+02 9.893935e+01 5.133193e+01 5.977987e+01 6.544256e+01 9.281265e+01 1.072883e+02 7.635726e+01 1.142270e+02 1.393646e+02 6.205176e-01 1.665247e+00 1.111346e+00 3.032396e+00 2.518326e+00 2.064028e+00 2.559014e+00 2.198889e+00 2.656090e+00 2.592337e+00 2.640616e+00 2.394157e+00 1.096399e+00 7.558339e-02 2.028309e-01 1.669772e-01 3.623188e-01 3.780030e-01 3.344717e-01 4.134777e-01 3.399580e-01 4.202924e-01 4.499327e-01 4.634800e-01 3.821097e-01 1.000498e-01
<GCONST> 1.201864e+02
<TRANSP> 5
 0.000000e+00 1.000000e+00 0.000000e+00 0.000000e+00 0.000000e+00
 0.000000e+00 6.780948e-01 3.219052e-01 0.000000e+00 0.000000e+00
 0.000000e+00 0.000000e+00 7.075594e-01 2.924406e-01 0.000000e+00
 0.000000e+00 0.000000e+00 0.000000e+00 8.687903e-01 1.312097e-01
 0.000000e+00 0.000000e+00 0.000000e+00 0.000000e+00 0.000000e+00
<ENDHMM>
~h "sil"
<BEGINHMM>
<NUMSTATES> 5
<STATE> 2
<MEAN> 39
 -1.693749e+01 2.802419e+00 -7.515873e+00 4.882861e+00 -3.698953e+00 3.675428e+00 -3.776996e+00 -6.858914e-01 -1.041075e-02 -2.791035e+00 -1.187378e+00 -2.192807e+00 3.534547e+01 -1.160960e-01 4.937914e-02 -5.943163e-03 2.734235e-02 7.409547e-03 3.569287e-02 1.001301e-02 4.695466e-02 2.696871e-02 -1.648482e-02 3.409861e-02 3.688860e-02 -1.531617e-01 1.518643e-02 -4.586366e-03 -3.745255e-03 -6.828241e-03 -1.160039e-02 -1.176930e-02 -7.021314e-03 -3.229510e-03 3.802850e-03 5.746714e-03 -6.863253e-03 -9.546762e-03 1.274590e-02
<VARIANCE> 39
 8.179697e+01 1.737777e+01 2.729416e+01 1.887773e+01 3.350069e+01 2.102006e+01 3.261325e+01 2.170753e+01 2.270477e+01 2.058557e+01 2.233992e+01 1.558555e+01 1.635575e+02 1.713339e-01 3.222360e-01 4.182803e-01 5.572447e-01 7.343567e-01 8.382141e-01 9.240583e-01 1.072654e+00 1.132529e+00 9.621283e-01 9.506075e-01 9.032744e-01 1.279996e-01 1.931716e-02 4.900734e-02 7.192647e-02 9.630367e-02 1.292888e-01 1.511328e-01 1.756735e-01 1.978155e-01 2.145248e-01 1.829572e-01 1.824375e-01 1.767362e-01 1.005644e-02
<GCONST> 7.792689e+01
<STATE> 3
<MEAN> 39
 -1.624875e+01 2.987198e+00 -6.541259e+00 4.966153e+00 -2.356829e+00 3.892055e+00 -2.937724e+00 -2.908324e-01 1.070927e-01 -2.802999e+00 -7.277642e-01 -1.667313e+00 3.646792e+01 -5.182911e-02 -1.786208e-02 -5.479439e-02 -3.755062e-02 -6.672779e-02 -4.644214e-02 2.355452e-03 5.967597e-02 6.925494e-02 5.438190e-02 1.447871e-02 -8.467207e-03 -7.830778e-02 2.740702e-02 -9.362553e-03 -1.062076e-02 -7.923154e-03 -1.008528e-03 -1.264059e-02 3.226411e-03 -1.408957e-02 -1.184832e-02 2.932639e-02 6.373312e-03 -2.321202e-02 2.878323e-02
<VARIANCE> 39
 6.934307e+01 1.508997e+01 3.038233e+01 2.249503e+01 3.636317e+01 2.199906e+01 3.630406e+01 2.251711e+01 2.409093e+01 2.213831e+01 2.014994e+01 1.517970e+01 1.639960e+02 2.437722e-01 5.565052e-01 7.096277e-01 7.810153e-01 9.533691e-01 1.137318e+00 1.197779e+00 1.314905e+00 1.322358e+00 1.161372e+00 1.150228e+00 1.044390e+00 1.836290e-01 4.047110e-02 1.084163e-01 1.410598e-01 1.492641e-01 1.896480e-01 2.286398e-01 2.376221e-01 2.645507e-01 2.685422e-01 2.482255e-01 2.409494e-01 2.135492e-01 3.232833e-02
<GCONST> 8.821375e+01
<STATE> 4
<MEAN> 39
 -1.783920e+01 2.970857e+00 -7.312019e+00 5.220577e+00 -3.289601e+00 4.247874e+00 -3.028606e+00 4.307408e-01 3.122434e-01 -2.320098e+00 -2.187850e-01 -1.629145e+00 3.373149e+01 1.240726e-02 -3.215316e-02 -3.990462e-02 -9.545830e-03 -7.380630e-03 -8.067670e-03 5.531386e-03 -1.081827e-02 -1.042827e-02 7.501037e-02 6.644196e-02 -1.663473e-02 -3.905256e-03 4.692393e-02 -8.107903e-03 -1.182647e-02 -2.209981e-02 2.866751e-02 -1.617821e-02 -3.476928e-04 -8.781720e-03 -7.515348e-03 9.524721e-03 -4.106825e-03 1.453690e-02 6.320070e-02
<VARIANCE> 39
 6.687844e+01 1.571364e+01 2.868340e+01 2.094748e+01 3.502753e+01 2.646801e+01 3.719453e+01 2.936985e+01 2.902771e+01 2.649704e+01 2.177297e+01 1.771804e+01 1.517435e+02 3.988821e-01 8.443037e-01 1.026765e+00 9.889172e-01 1.283805e+00 1.582025e+00 1.533104e+00 1.671223e+00 1.594377e+00 1.558025e+00 1.317685e+00 1.294971e+00 3.158335e-01 9.440731e-02 1.566246e-01 1.938617e-01 1.917518e-01 2.535516e-01 3.051218e-01 2.786660e-01 2.961100e-01 2.741133e-01 2.896241e-01 2.452104e-01 2.411200e-01 8.347721e-02
<GCONST> 9.694704e+01
<TRANSP> 5
 0.000000e+00 1.000000e+00 0.000000e+00 0.000000e+00 0.000000e+00
 0.000000e+00 9.595426e-01 4.045744e-02 0.000000e+00 0.000000e+00
 0.000000e+00 0.000000e+00 7.030249e-01 2.969751e-01 0.000000e+00
 0.000000e+00 0.000000e+00 0.000000e+00 7.622879e-01 2.377121e-01
 0.000000e+00 0.000000e+00 0.000000e+00 0.000000e+00 0.000000e+00
<ENDHMM>
