~o
<STREAMINFO> 1 13
<VECSIZE> 13<NULLD><MFCC_0><DIAGC>
~s "silst"
<MEAN> 13
 -8.901189e+00 1.603452e+00 -3.652822e+00 3.463941e+00 1.597145e+00 1.648156e+00 -8.231176e-01 -5.033324e-01 9.736645e-01 -2.318442e+00 -1.068721e+00 -2.336822e+00 4.795815e+01
<VARIANCE> 13
 9.121476e+00 1.419509e+01 2.814310e+01 1.950655e+01 1.774518e+01 1.487431e+01 3.748272e+01 1.529859e+01 2.012451e+01 1.694258e+01 1.836872e+01 1.339632e+01 6.224930e+01
<GCONST> 6.245992e+01
~h "b"
<BEGINHMM>
<NUMSTATES> 5
<STATE> 2
<MEAN> 13
 6.352018e+00 5.156394e+00 -7.488587e+00 -4.732620e+00 -4.826757e+00 -1.389481e-02 -8.036520e+00 -5.126143e+00 -5.683048e+00 -3.759076e+00 -5.271086e+00 -5.415457e+00 5.479309e+01
<VARIANCE> 13
 2.980266e+01 1.345032e+02 3.137328e+01 5.859624e+01 4.657508e+01 5.202549e+01 2.754850e+01 2.405788e+01 2.896710e+01 5.160274e+01 2.453190e+01 2.519446e+01 5.767705e+01
<GCONST> 7.178561e+01
<STATE> 3
<MEAN> 13
 -5.333066e+00 3.223879e-02 -3.863993e+00 -2.855578e-01 1.991309e+00 5.063391e-01 2.585099e+00 4.036740e-01 1.987510e+00 1.805499e-01 2.252648e-01 -3.357854e+00 5.321128e+01
<VARIANCE> 13
 1.367963e+01 2.799306e+01 2.224149e+01 1.310263e+01 1.203310e+01 1.139691e+01 2.216637e+01 1.696177e+01 2.328384e+01 1.947505e+01 1.251507e+01 1.470235e+01 9.952996e+00
<GCONST> 5.999529e+01
<STATE> 4
<MEAN> 13
 -1.085911e+01 2.957409e+00 -1.160418e+01 5.964834e+00 -4.009657e+00 2.008904e+00 -1.065502e+01 -5.736761e+00 -5.880314e+00 -7.585357e+00 -6.177189e+00 -7.418441e+00 3.732070e+01
<VARIANCE> 13
 2.490995e+01 3.196571e+01 3.337230e+01 2.072470e+01 4.652259e+01 3.529245e+01 3.144240e+01 3.430462e+01 2.705265e+01 3.302524e+01 2.448699e+01 2.199756e+01 5.407908e+01
<GCONST> 6.857301e+01
<TRANSP> 5
 0.000000e+00 1.000000e+00 0.000000e+00 0.000000e+00 0.000000e+00
 0.000000e+00 8.590059e-01 1.409940e-01 0.000000e+00 0.000000e+00
 0.000000e+00 0.000000e+00 8.511995e-01 1.488005e-01 0.000000e+00
 0.000000e+00 0.000000e+00 0.000000e+00 8.588309e-01 1.411692e-01
 0.000000e+00 0.000000e+00 0.000000e+00 0.000000e+00 0.000000e+00
<ENDHMM>
~h "d"
<BEGINHMM>
<NUMSTATES> 5
<STATE> 2
<MEAN> 13
 2.003826e+00 -1.360261e+00 -1.767741e+00 1.308650e+00 1.540033e+00 -2.967431e+00 -7.928271e+00 -7.924626e+00 2.423275e+00 -8.478873e-01 -1.013203e+01 -7.512811e+00 5.923207e+01
<VARIANCE> 13
 2.394822e+01 1.288868e+02 2.319898e+01 1.121217e+02 6.685552e+01 4.048776e+01 8.526012e+01 4.566192e+01 4.846844e+01 5.246342e+01 5.575324e+01 3.530080e+01 8.237592e+01
<GCONST> 7.579859e+01
<STATE> 3
<MEAN> 13
 3.328152e+00 -1.081124e+01 -2.301663e+00 -4.625663e+00 -2.299059e+00 -4.512115e+00 -1.006891e+01 -9.014717e+00 4.325019e+00 2.034128e+00 -8.101350e+00 -4.045650e+00 6.587341e+01
<VARIANCE> 13
 1.953365e+01 5.011691e+01 1.937173e+01 9.562183e+01 1.209641e+02 7.140375e+01 1.375323e+02 8.024102e+01 7.527454e+01 6.981110e+01 7.723158e+01 3.761407e+01 3.453650e+01
<GCONST> 7.675900e+01
<STATE> 4
<MEAN> 13
 6.452040e+00 -1.725765e+01 -3.690362e+00 -1.260619e+01 1.944466e-01 -1.833853e+00 -2.564816e+00 -9.038803e+00 -1.598319e+00 9.692191e+00 -1.211750e+01 -4.591074e+00 7.175475e+01
<VARIANCE> 13
 1.005254e+01 2.275141e+01 1.378634e+01 4.801976e+01 1.161724e+02 4.068690e+01 9.477216e+01 6.283953e+01 5.935096e+01 4.399670e+01 3.949837e+01 2.668066e+01 1.632267e+01
<GCONST> 7.059352e+01
<TRANSP> 5
 0.000000e+00 1.000000e+00 0.000000e+00 0.000000e+00 0.000000e+00
 0.000000e+00 4.902225e-01 5.097775e-01 0.000000e+00 0.000000e+00
 0.000000e+00 0.000000e+00 2.077015e-02 9.792299e-01 0.000000e+00
 0.000000e+00 0.000000e+00 0.000000e+00 7.654810e-01 2.345190e-01
 0.000000e+00 0.000000e+00 0.000000e+00 0.000000e+00 0.000000e+00
<ENDHMM>
~h "g"
<BEGINHMM>
<NUMSTATES> 5
<STATE> 2
<MEAN> 13
 -3.627229e+00 -2.699451e+00 1.728584e+01 -7.927193e+00 -1.020570e+01 -1.202155e+01 -3.674302e+00 -1.285413e+01 -1.542178e+01 9.639506e-01 1.584884e+00 -6.068294e+00 6.376009e+01
<VARIANCE> 13
 1.676763e+01 3.824562e+01 1.015494e+02 8.760887e+01 7.511108e+01 4.559516e+01 4.192235e+01 2.433726e+01 7.530836e+01 3.018962e+01 1.130326e+02 3.200445e+01 6.249776e+01
<GCONST> 7.457368e+01
<STATE> 3
<MEAN> 13
 -3.718778e+00 -3.740797e+00 7.321787e+00 -3.190886e+00 -9.775819e+00 -1.391399e+01 -3.807812e+00 -3.399638e+00 -6.201292e+00 -3.781124e-01 1.772709e-01 -3.686954e+00 6.252058e+01
<VARIANCE> 13
 2.388926e+01 1.563487e+02 9.873551e+01 8.453989e+01 7.285673e+01 8.507757e+01 6.738438e+01 4.774714e+01 4.387668e+01 3.146074e+01 1.015130e+02 6.634954e+01 1.069127e+02
<GCONST> 7.867324e+01
<STATE> 4
<MEAN> 13
 1.124058e+00 -1.688371e+01 -6.815318e+00 -7.467104e+00 -1.213160e+01 -8.458318e+00 -1.266444e+01 4.860928e+00 2.617122e+00 2.458112e-01 -3.571529e+00 -1.947850e+01 7.554102e+01
<VARIANCE> 13
 7.912316e+00 4.721141e+01 4.038649e+01 2.673845e+01 4.877770e+01 6.207679e+01 3.161746e+01 3.782182e+01 5.413781e+01 3.257943e+01 8.141674e+01 7.773830e+01 6.574963e+01
<GCONST> 7.231629e+01
<TRANSP> 5
 0.000000e+00 1.000000e+00 0.000000e+00 0.000000e+00 0.000000e+00
 0.000000e+00 7.784799e-01 2.215201e-01 0.000000e+00 0.000000e+00
 0.000000e+00 0.000000e+00 7.806234e-01 2.193766e-01 0.000000e+00
 0.000000e+00 0.000000e+00 0.000000e+00 7.773675e-01 2.226325e-01
 0.000000e+00 0.000000e+00 0.000000e+00 0.000000e+00 0.000000e+00
<ENDHMM>
~h "j"
<BEGINHMM>
<NUMSTATES> 5
<STATE> 2
<MEAN> 13
 -6.543396e+00 1.240453e+01 2.912219e+01 -3.892828e+00 -7.362435e+00 -4.900846e+00 -8.443507e+00 -4.509986e+00 -1.648804e+01 6.946617e-01 -1.034966e+00 -3.847315e+00 5.102243e+01
<VARIANCE> 13
 1.187135e+01 1.368410e+02 1.213778e+02 2.185916e+02 8.751631e+01 6.125092e+01 9.589421e+01 3.611142e+01 5.344342e+01 5.785396e+01 3.889317e+01 2.502205e+01 7.279756e+01
<GCONST> 7.741293e+01
<STATE> 3
<MEAN> 13
 -2.580647e-01 -7.486737e+00 4.299168e+00 1.524926e+00 -1.148598e+01 -1.069649e+01 -2.045366e+01 -1.533343e+01 -4.655549e+00 -1.174247e+00 1.219033e+01 -6.458560e+00 6.655037e+01
<VARIANCE> 13
 2.506154e+01 1.406498e+01 7.069501e+01 4.863913e+01 3.638182e+01 5.216438e+01 8.784113e+01 9.099078e+01 7.345093e+01 3.003444e+01 6.323558e+01 5.004507e+01 2.495275e+01
<GCONST> 7.341073e+01
<STATE> 4
<MEAN> 13
 9.305301e+00 5.769384e+00 -5.071368e+00 2.293645e+00 -4.924394e+00 5.900792e+00 -1.170504e+01 -1.832914e+01 -1.175186e+01 -1.166978e+00 3.116845e+00 -3.297433e+00 5.434407e+01
<VARIANCE> 13
 1.955169e+01 1.906786e+02 3.152517e+01 3.496059e+01 1.937910e+01 3.998696e+01 3.968882e+01 3.134146e+01 2.541132e+01 3.717292e+01 5.827772e+01 2.656767e+01 1.070625e+02
<GCONST> 7.176893e+01
<TRANSP> 5
 0.000000e+00 1.000000e+00 0.000000e+00 0.000000e+00 0.000000e+00
 0.000000e+00 8.422379e-01 1.577621e-01 0.000000e+00 0.000000e+00
 0.000000e+00 0.000000e+00 7.759128e-01 2.240872e-01 0.000000e+00
 0.000000e+00 0.000000e+00 0.000000e+00 7.828278e-01 2.171722e-01
 0.000000e+00 0.000000e+00 0.000000e+00 0.000000e+00 0.000000e+00
<ENDHMM>
~h "k"
<BEGINHMM>
<NUMSTATES> 5
<STATE> 2
<MEAN> 13
 -7.380010e+00 7.150309e-01 -2.824189e+00 -4.603294e-01 1.707235e+00 -5.394455e-02 -3.708091e-01 -1.274611e+00 1.647503e+00 -3.145424e-01 4.666249e-01 -1.783130e+00 5.300684e+01
<VARIANCE> 13
 2.057048e+01 2.789948e+01 2.893958e+01 2.320676e+01 2.545464e+01 2.143167e+01 3.407982e+01 2.497496e+01 2.211994e+01 2.258141e+01 1.732101e+01 1.525438e+01 4.470888e+01
<GCONST> 6.539343e+01
<STATE> 3
<MEAN> 13
 -7.118073e+00 -3.653831e+00 -9.299086e+00 -2.580513e-02 2.985771e+00 2.113823e-01 -6.387414e+00 -3.923549e+00 -5.674996e-01 2.479261e+00 -1.853811e-01 -4.217104e+00 5.214355e+01
<VARIANCE> 13
 5.704662e+01 8.762083e+01 7.496847e+01 6.413258e+01 6.993575e+01 7.839068e+01 4.525092e+01 6.183253e+01 6.039051e+01 4.914964e+01 3.988763e+01 2.771429e+01 1.604793e+02
<GCONST> 7.751511e+01
<STATE> 4
<MEAN> 13
 -8.462673e+00 -2.913783e+00 -1.043301e+01 4.032477e-01 7.898276e+00 -1.974189e+00 -2.957136e+00 -3.112815e+00 -2.791594e+00 3.977317e+00 -2.838058e-01 -3.990593e+00 4.939314e+01
<VARIANCE> 13
 7.783442e+01 1.437686e+02 1.372380e+02 1.457554e+02 1.629281e+02 2.669517e+02 8.780807e+01 1.337614e+02 1.085370e+02 8.527637e+01 8.118665e+01 7.473226e+01 1.958263e+02
<GCONST> 8.629131e+01
<TRANSP> 5
 0.000000e+00 1.000000e+00 0.000000e+00 0.000000e+00 0.000000e+00
 0.000000e+00 7.678543e-01 2.321458e-01 0.000000e+00 0.000000e+00
 0.000000e+00 0.000000e+00 1.222917e-01 8.777083e-01 0.000000e+00
 0.000000e+00 0.000000e+00 0.000000e+00 6.575117e-01 3.424883e-01
 0.000000e+00 0.000000e+00 0.000000e+00 0.000000e+00 0.000000e+00
<ENDHMM>
~h "l"
<BEGINHMM>
<NUMSTATES> 5
<STATE> 2
<MEAN> 13
 1.915517e+00 -2.461985e+01 -1.096686e+01 -1.221585e+01 -3.580733e+00 1.714311e+01 -7.170344e+00 -1.576267e+01 1.585201e+01 -2.363189e+00 4.848579e-01 -3.804634e+00 7.171515e+01
<VARIANCE> 13
 5.509611e+00 4.548326e+01 1.452024e+01 2.462124e+01 3.441185e+01 7.473291e+01 2.837603e+01 3.444262e+01 6.551028e+01 4.449673e+01 4.888765e+01 3.311311e+01 9.851410e+00
<GCONST> 6.768726e+01
<STATE> 3
<MEAN> 13
 6.285950e+00 -1.619456e+01 -9.770861e+00 -1.536461e+01 -4.809191e-02 8.255991e+00 -6.838067e+00 -9.321013e+00 -2.861796e+00 5.324360e+00 2.192149e+00 -1.408207e+01 7.221929e+01
<VARIANCE> 13
 6.238722e+00 2.744325e+01 1.639626e+01 2.285032e+01 5.236421e+01 6.013111e+01 2.419882e+01 3.058994e+01 4.413723e+01 3.224220e+01 8.294012e+01 6.603359e+01 1.355844e+01
<GCONST> 6.809892e+01
<STATE> 4
<MEAN> 13
 4.968118e+00 -1.124403e+01 -8.810824e+00 -1.588240e+01 3.587690e+00 5.535558e+00 -7.475672e+00 -6.835035e+00 2.491894e+00 3.935161e+00 -9.144751e+00 -6.455251e+00 6.814688e+01
<VARIANCE> 13
 7.277847e+00 7.488831e+01 2.668218e+01 3.566889e+01 1.113267e+02 8.457259e+01 4.026497e+01 3.412070e+01 9.366008e+01 5.148315e+01 1.035369e+02 7.845862e+01 2.745265e+01
<GCONST> 7.422286e+01
<TRANSP> 5
 0.000000e+00 1.000000e+00 0.000000e+00 0.000000e+00 0.000000e+00
 0.000000e+00 8.734594e-01 1.265406e-01 0.000000e+00 0.000000e+00
 0.000000e+00 0.000000e+00 6.760076e-01 3.239923e-01 0.000000e+00
 0.000000e+00 0.000000e+00 0.000000e+00 1.037360e-01 8.962640e-01
 0.000000e+00 0.000000e+00 0.000000e+00 0.000000e+00 0.000000e+00
<ENDHMM>
~h "m"
<BEGINHMM>
<NUMSTATES> 5
<STATE> 2
<MEAN> 13
 5.787426e+00 -6.632360e+00 -5.243315e+00 -2.221565e+00 -2.333886e+00 -1.023277e+00 -3.776243e+00 -1.056174e+01 -1.203678e+01 1.196759e+00 -2.423584e+00 -8.957161e+00 6.237794e+01
<VARIANCE> 13
 1.837206e+01 4.057075e+01 3.931567e+01 2.851682e+01 5.218423e+01 6.394676e+01 2.758451e+01 2.802559e+01 7.265151e+01 3.118694e+01 4.242524e+01 4.016715e+01 1.815247e+01
<GCONST> 7.035686e+01
<STATE> 3
<MEAN> 13
 3.826264e+00 2.544725e+00 -1.812772e+00 2.223692e+00 9.154233e+00 2.299323e+00 -7.378798e+00 -1.376433e+01 -9.564201e+00 2.961163e-01 -6.782780e+00 -3.721672e-01 5.583134e+01
<VARIANCE> 13
 2.025570e+01 7.754943e+01 3.865088e+01 5.304986e+01 1.182002e+02 6.880644e+01 6.015106e+01 5.273656e+01 6.090868e+01 3.769038e+01 5.590759e+01 6.767499e+01 4.459777e+01
<GCONST> 7.571828e+01
<STATE> 4
<MEAN> 13
 -7.644476e+00 1.546858e+00 -9.292115e+00 4.641891e+00 -3.064457e+00 3.574317e+00 -7.736973e+00 -4.602417e+00 -4.559391e+00 -5.738952e+00 -6.016975e+00 -5.787900e+00 4.191445e+01
<VARIANCE> 13
 6.105580e+01 6.514915e+01 3.964316e+01 4.981607e+01 4.140667e+01 3.128249e+01 2.174066e+01 2.783928e+01 2.967711e+01 2.643507e+01 2.812510e+01 1.741241e+01 1.244122e+02
<GCONST> 7.102377e+01
<TRANSP> 5
 0.000000e+00 1.000000e+00 0.000000e+00 0.000000e+00 0.000000e+00
 0.000000e+00 7.059776e-01 2.940224e-01 0.000000e+00 0.000000e+00
 0.000000e+00 0.000000e+00 6.387082e-01 3.612918e-01 0.000000e+00
 0.000000e+00 0.000000e+00 0.000000e+00 8.009546e-01 1.990455e-01
 0.000000e+00 0.000000e+00 0.000000e+00 0.000000e+00 0.000000e+00
<ENDHMM>
~h "n"
<BEGINHMM>
<NUMSTATES> 5
<STATE> 2
<MEAN> 13
 1.149621e+00 -1.485102e+00 -4.320123e-01 1.563890e+00 -4.244657e+00 -6.741022e+00 -6.528609e+00 -8.449378e+00 -2.312723e+00 -6.188607e-01 -7.328902e+00 -7.103621e+00 5.899487e+01
<VARIANCE> 13
 2.762087e+01 3.317735e+01 2.790841e+01 2.528871e+01 4.414416e+01 5.667617e+01 2.036549e+01 4.853764e+01 2.700182e+01 3.054729e+01 3.535868e+01 3.028988e+01 4.632430e+01
<GCONST> 6.952034e+01
<STATE> 3
<MEAN> 13
 5.753002e+00 6.661992e+00 -1.242906e+00 -6.941051e+00 4.180191e+00 4.674458e+00 -1.494343e+01 -1.077094e+01 -2.570470e+00 -1.131220e+00 -1.001507e+01 3.357606e+00 5.571094e+01
<VARIANCE> 13
 4.855341e+01 6.738085e+01 4.818561e+01 2.658289e+02 1.139306e+02 1.327558e+02 1.186167e+02 9.640696e+01 7.090771e+01 8.986994e+01 8.098338e+01 9.832104e+01 7.351542e+01
<GCONST> 8.245164e+01
<STATE> 4
<MEAN> 13
 -6.998456e+00 1.071222e+01 -3.134035e+00 8.970694e+00 -2.084861e+00 2.536653e+00 -9.350816e+00 -5.898459e+00 -3.938071e+00 -5.965239e+00 -5.040106e+00 -3.589631e+00 3.855182e+01
<VARIANCE> 13
 8.506868e+01 1.031324e+02 5.761430e+01 5.696218e+01 3.548373e+01 3.586628e+01 4.220628e+01 4.805403e+01 3.405439e+01 2.841720e+01 3.026021e+01 3.083407e+01 1.036086e+02
<GCONST> 7.418582e+01
<TRANSP> 5
 0.000000e+00 1.000000e+00 0.000000e+00 0.000000e+00 0.000000e+00
 0.000000e+00 7.472388e-01 2.527612e-01 0.000000e+00 0.000000e+00
 0.000000e+00 0.000000e+00 7.423937e-01 2.576063e-01 0.000000e+00
 0.000000e+00 0.000000e+00 0.000000e+00 7.649488e-01 2.350512e-01
 0.000000e+00 0.000000e+00 0.000000e+00 0.000000e+00 0.000000e+00
<ENDHMM>
~h "p"
<BEGINHMM>
<NUMSTATES> 5
<STATE> 2
<MEAN> 13
 -1.217845e+01 4.638940e+00 -9.090128e+00 5.923063e+00 -2.861698e+00 2.791951e+00 -8.870330e+00 -4.089573e+00 -4.011502e+00 -4.807998e+00 -4.358552e+00 -4.620637e+00 3.694351e+01
<VARIANCE> 13
 5.519305e+01 5.042301e+01 4.763546e+01 4.308688e+01 3.917255e+01 3.785462e+01 3.948044e+01 4.433561e+01 3.407973e+01 4.223614e+01 3.282941e+01 1.992792e+01 9.271871e+01
<GCONST> 7.250480e+01
<STATE> 3
<MEAN> 13
 -7.409941e+00 -3.684378e-01 -2.031219e+00 6.467544e-03 2.447486e+00 1.900808e-01 1.494557e+00 -1.094201e+00 1.705957e+00 -1.054329e+00 8.527319e-01 -1.698478e+00 5.453934e+01
<VARIANCE> 13
 1.699783e+01 2.256503e+01 2.665860e+01 1.312042e+01 2.407627e+01 1.838303e+01 1.879143e+01 2.064480e+01 1.672926e+01 1.363676e+01 1.574615e+01 1.298384e+01 3.274683e+01
<GCONST> 6.199173e+01
<STATE> 4
<MEAN> 13
 4.274870e+00 -8.620197e+00 -1.359322e+01 -6.958926e+00 -3.461287e+00 -4.984337e-01 -2.357999e+00 -6.984394e+00 -2.626709e+00 5.951898e+00 3.688225e-01 -4.540325e+00 6.181493e+01
<VARIANCE> 13
 2.425787e+01 2.936047e+01 9.712839e+01 6.835591e+01 5.928920e+01 8.882295e+01 5.215775e+01 6.948402e+01 6.668059e+01 5.299739e+01 4.586494e+01 3.085332e+01 5.370353e+01
<GCONST> 7.543458e+01
<TRANSP> 5
 0.000000e+00 1.000000e+00 0.000000e+00 0.000000e+00 0.000000e+00
 0.000000e+00 7.926838e-01 2.073163e-01 0.000000e+00 0.000000e+00
 0.000000e+00 0.000000e+00 7.991410e-01 2.008590e-01 0.000000e+00
 0.000000e+00 0.000000e+00 0.000000e+00 3.126876e-01 6.873124e-01
 0.000000e+00 0.000000e+00 0.000000e+00 0.000000e+00 0.000000e+00
<ENDHMM>
~h "r"
<BEGINHMM>
<NUMSTATES> 5
<STATE> 2
<MEAN> 13
 6.694311e+00 -1.050041e+01 -1.523683e+01 -2.870481e+00 -1.083047e+01 -4.556503e+00 -4.806737e+00 1.747022e+00 4.562267e+00 -3.210117e+00 -5.215851e+00 -2.277435e+00 6.797398e+01
<VARIANCE> 13
 2.120892e+01 3.639103e+01 1.463162e+02 3.002079e+01 1.470263e+02 5.186151e+01 2.748207e+01 7.457304e+01 4.185135e+01 1.085225e+02 2.866526e+01 6.895377e+01 2.207018e+01
<GCONST> 7.459774e+01
<STATE> 3
<MEAN> 13
 1.324899e+00 -1.039971e+01 -5.576102e+00 1.193013e-01 -3.594413e+00 -3.885786e+00 -3.783407e+00 -2.702365e+00 1.856963e+00 3.034988e+00 -4.188609e+00 -6.889652e+00 6.166471e+01
<VARIANCE> 13
 1.474101e+01 4.059212e+01 4.341484e+01 3.357029e+01 5.875127e+01 6.328876e+01 3.567230e+01 4.706275e+01 4.598009e+01 4.549045e+01 3.539696e+01 4.415532e+01 3.747336e+01
<GCONST> 7.184161e+01
<STATE> 4
<MEAN> 13
 -2.551014e-02 -8.013847e+00 -2.423918e+00 7.763200e+00 -4.281850e-01 -3.989029e+00 -3.229401e+00 4.095112e+00 8.693166e-01 -2.309766e+00 -3.646727e+00 -1.885572e+00 5.664678e+01
<VARIANCE> 13
 2.699742e+01 8.418116e+01 6.786459e+01 1.848351e+02 9.183929e+01 6.741940e+01 6.561685e+01 1.067398e+02 5.039952e+01 6.554129e+01 4.603812e+01 5.095364e+01 1.082634e+02
<GCONST> 7.919091e+01
<TRANSP> 5
 0.000000e+00 1.000000e+00 0.000000e+00 0.000000e+00 0.000000e+00
 0.000000e+00 4.977190e-01 5.022810e-01 0.000000e+00 0.000000e+00
 0.000000e+00 0.000000e+00 6.053229e-01 3.946771e-01 0.000000e+00
 0.000000e+00 0.000000e+00 0.000000e+00 5.357198e-01 4.642802e-01
 0.000000e+00 0.000000e+00 0.000000e+00 0.000000e+00 0.000000e+00
<ENDHMM>
~h "s"
<BEGINHMM>
<NUMSTATES> 5
<STATE> 2
<MEAN> 13
 -1.377606e+01 -7.611039e-01 -1.844154e+00 -5.065958e+00 5.711194e+00 -5.354451e+00 -1.536708e+00 -7.842591e+00 1.581419e+00 -2.676440e+00 1.906102e+00 -3.733814e+00 6.032602e+01
<VARIANCE> 13
 3.762607e+01 2.770537e+01 5.535681e+01 5.357651e+01 5.538795e+01 5.984848e+01 5.689838e+01 5.155344e+01 5.346722e+01 3.862468e+01 4.440657e+01 3.639031e+01 7.315028e+01
<GCONST> 7.423987e+01
<STATE> 3
<MEAN> 13
 -1.572655e+01 3.860702e+00 -5.959437e+00 7.172708e+00 5.004292e+00 -7.823854e+00 5.183714e+00 -3.000900e-01 5.545615e+00 -5.586139e-01 1.412337e+00 -2.296398e+00 6.157592e+01
<VARIANCE> 13
 2.607280e+01 4.231241e+01 3.480278e+01 7.787285e+01 4.327715e+01 3.866592e+01 5.116184e+01 3.815033e+01 3.223209e+01 2.543735e+01 2.200982e+01 2.296959e+01 4.167550e+01
<GCONST> 7.046701e+01
<STATE> 4
<MEAN> 13
 -2.365921e+01 1.097603e-01 -2.011862e+00 -3.246630e+00 1.530036e+01 -1.610462e+01 7.319067e+00 -2.189332e+00 6.264070e+00 -7.479769e+00 3.432969e-01 9.040999e-01 5.494571e+01
<VARIANCE> 13
 9.743579e+01 7.323430e+01 5.400486e+01 3.867070e+01 9.609975e+01 8.453115e+01 1.235625e+02 5.285045e+01 6.765694e+01 5.451951e+01 3.678647e+01 5.782051e+01 6.631532e+01
<GCONST> 7.826604e+01
<TRANSP> 5
 0.000000e+00 1.000000e+00 0.000000e+00 0.000000e+00 0.000000e+00
 0.000000e+00 6.196833e-01 3.803167e-01 0.000000e+00 0.000000e+00
 0.000000e+00 0.000000e+00 6.809158e-01 3.190842e-01 0.000000e+00
 0.000000e+00 0.000000e+00 0.000000e+00 7.370659e-01 2.629342e-01
 0.000000e+00 0.000000e+00 0.000000e+00 0.000000e+00 0.000000e+00
<ENDHMM>
~h "t"
<BEGINHMM>
<NUMSTATES> 5
<STATE> 2
<MEAN> 13
 -5.160932e+00 -3.618298e+00 -9.448304e+00 -2.080786e+00 4.870867e-02 1.824550e+00 -5.119759e+00 -3.411551e+00 2.429192e+00 -1.241316e-01 -2.845235e+00 -3.326605e+00 5.081743e+01
<VARIANCE> 13
 3.090388e+01 4.878782e+01 9.491394e+01 6.093528e+01 5.936837e+01 1.158694e+02 8.706409e+01 6.592337e+01 8.210604e+01 4.638269e+01 4.807168e+01 3.392683e+01 9.429682e+01
<GCONST> 7.755321e+01
<STATE> 3
<MEAN> 13
 1.781066e+00 -7.304789e+00 -6.110271e+00 -1.519829e+01 -9.123338e+00 2.748710e+00 -1.269421e+01 -1.258901e+01 2.320547e+00 -2.099394e+00 3.591852e+00 -2.801712e+00 6.874969e+01
<VARIANCE> 13
 1.744925e+01 3.222129e+01 2.833496e+01 7.538826e+01 6.007077e+01 7.557700e+01 4.916526e+01 4.317413e+01 7.617481e+01 5.209687e+01 3.350704e+01 5.768821e+01 5.095097e+01
<GCONST> 7.375599e+01
<STATE> 4
<MEAN> 13
 5.822796e+00 -3.921151e+00 -2.311070e+00 -1.458230e+01 -5.021688e+00 8.889677e+00 -9.173377e+00 -1.231771e+01 -9.963898e+00 5.207158e+00 5.385323e+00 -3.970610e+00 6.283041e+01
<VARIANCE> 13
 3.376464e+01 4.020114e+01 4.409756e+01 1.367667e+02 6.575398e+01 8.382635e+01 5.087411e+01 4.792297e+01 5.976942e+01 5.966333e+01 9.882767e+01 5.359886e+01 5.174208e+01
<GCONST> 7.692440e+01
<TRANSP> 5
 0.000000e+00 1.000000e+00 0.000000e+00 0.000000e+00 0.000000e+00
 0.000000e+00 6.661432e-01 3.338569e-01 0.000000e+00 0.000000e+00
 0.000000e+00 0.000000e+00 7.607253e-01 2.392748e-01 0.000000e+00
 0.000000e+00 0.000000e+00 0.000000e+00 7.605459e-01 2.394541e-01
 0.000000e+00 0.000000e+00 0.000000e+00 0.000000e+00 0.000000e+00
<ENDHMM>
~h "w"
<BEGINHMM>
<NUMSTATES> 5
<STATE> 2
<MEAN> 13
 -2.018376e+01 -3.535792e+00 2.763346e+00 -7.275421e+00 1.422099e+01 -2.349627e+00 -3.442688e+00 -4.214702e+00 5.727275e+00 -5.753182e+00 3.221312e+00 -6.910597e+00 6.230255e+01
<VARIANCE> 13
 2.843721e+01 1.467117e+01 1.840283e+01 4.682342e+01 5.331815e+01 6.201853e+01 3.269996e+01 5.341362e+01 2.911769e+01 2.969737e+01 1.248076e+01 1.189138e+01 5.417678e+00
<GCONST> 6.570609e+01
<STATE> 3
<MEAN> 13
 1.512508e+00 -8.979016e+00 2.364519e+00 -2.452008e+00 -4.714619e+00 -1.006077e+01 -1.411671e+01 -8.855397e+00 -3.080922e+00 -1.313850e+00 5.750474e+00 -6.237798e+00 6.945608e+01
<VARIANCE> 13
 1.488238e+01 5.682063e+01 2.319829e+01 2.379427e+01 2.963659e+01 4.662836e+01 3.987895e+01 4.259017e+01 6.281474e+01 4.452106e+01 4.363908e+01 2.003317e+01 7.509884e+00
<GCONST> 6.834041e+01
<STATE> 4
<MEAN> 13
 -6.728251e+00 -6.584891e+00 4.178591e+00 2.200951e-01 -2.777183e-01 -5.183658e+00 -4.302532e+00 -7.960310e+00 -7.501688e+00 -6.187684e+00 3.245333e+00 7.110069e-01 5.994175e+01
<VARIANCE> 13
 2.854140e+01 1.504640e+01 1.293579e+01 1.147454e+01 2.982433e+01 4.527548e+01 5.495849e+01 4.288201e+01 3.614545e+01 3.242011e+01 2.929444e+01 4.161233e+01 3.944745e+01
<GCONST> 6.777525e+01
<TRANSP> 5
 0.000000e+00 1.000000e+00 0.000000e+00 0.000000e+00 0.000000e+00
 0.000000e+00 8.441815e-01 1.558186e-01 0.000000e+00 0.000000e+00
 0.000000e+00 0.000000e+00 7.955948e-01 2.044052e-01 0.000000e+00
 0.000000e+00 0.000000e+00 0.000000e+00 7.361754e-01 2.638246e-01
 0.000000e+00 0.000000e+00 0.000000e+00 0.000000e+00 0.000000e+00
<ENDHMM>
~h "ah"
<BEGINHMM>
<NUMSTATES> 5
<STATE> 2
<MEAN> 13
 5.248791e+00 -1.830731e+01 -1.076727e+01 -1.218986e+01 1.502795e+00 1.338509e+00 -8.559202e-01 -7.112853e+00 -3.332969e+00 7.250783e+00 -4.743712e+00 -7.593587e+00 7.098158e+01
<VARIANCE> 13
 9.131529e+00 4.194333e+01 3.071255e+01 4.288467e+01 7.677896e+01 9.219843e+01 5.138586e+01 4.855598e+01 9.890050e+01 5.233013e+01 6.302855e+01 4.143198e+01 1.839988e+01
<GCONST> 7.304226e+01
<STATE> 3
<MEAN> 13
 2.714585e+00 -2.043292e+01 -1.202937e+01 -7.357935e+00 -2.562968e+00 7.041033e-01 -4.683740e+00 -4.180503e+00 4.873483e+00 1.735125e+00 -7.446160e+00 -1.234796e+01 7.407584e+01
<VARIANCE> 13
 4.778009e+00 2.726395e+01 2.008009e+01 2.072537e+01 4.618203e+01 4.935559e+01 3.610191e+01 6.656873e+01 9.697048e+01 4.486122e+01 5.905611e+01 4.286641e+01 1.454707e+01
<GCONST> 6.920125e+01
<STATE> 4
<MEAN> 13
 3.040835e+00 -1.268549e+01 -6.092243e+00 -1.195943e+01 1.012726e+01 -6.742945e+00 1.180937e+00 -4.451334e+00 4.854412e+00 1.565490e+00 -1.378732e+01 -2.910460e+00 6.844820e+01
<VARIANCE> 13
 8.220062e+00 2.564776e+01 2.586439e+01 7.175295e+01 1.087509e+02 7.300951e+01 7.147813e+01 5.974057e+01 5.646068e+01 6.903283e+01 6.531506e+01 6.208017e+01 2.578128e+01
<GCONST> 7.393401e+01
<TRANSP> 5
 0.000000e+00 1.000000e+00 0.000000e+00 0.000000e+00 0.000000e+00
 0.000000e+00 6.502126e-01 3.497874e-01 0.000000e+00 0.000000e+00
 0.000000e+00 0.000000e+00 8.043192e-01 1.956808e-01 0.000000e+00
 0.000000e+00 0.000000e+00 0.000000e+00 6.352211e-01 3.647788e-01
 0.000000e+00 0.000000e+00 0.000000e+00 0.000000e+00 0.000000e+00
<ENDHMM>
~h "ax"
<BEGINHMM>
<NUMSTATES> 5
<STATE> 2
<MEAN> 13
 2.201325e+00 -9.784710e+00 5.891084e+00 -5.067950e+00 -8.111658e+00 -1.318651e+01 -6.711740e+00 7.497827e-01 -6.546650e+00 5.494575e+00 -3.049047e+00 -2.049823e+00 6.867010e+01
<VARIANCE> 13
 1.699206e+01 3.561039e+01 9.463379e+01 4.981110e+01 1.263916e+02 8.374158e+01 3.919851e+01 8.876469e+01 9.181873e+01 3.625583e+01 7.028495e+01 3.685563e+01 3.515511e+01
<GCONST> 7.570754e+01
<STATE> 3
<MEAN> 13
 4.351023e+00 -1.474668e+01 -6.821031e+00 -8.008090e+00 -1.111954e+00 -9.490902e-01 -5.989106e+00 -3.520055e+00 -1.314382e+00 7.314620e+00 -6.766354e+00 -9.253771e+00 7.051274e+01
<VARIANCE> 13
 1.798833e+01 3.368958e+01 2.733316e+01 3.970721e+01 5.293918e+01 5.426357e+01 3.996881e+01 7.616917e+01 8.784428e+01 4.934972e+01 9.005647e+01 4.497366e+01 4.045992e+01
<GCONST> 7.365433e+01
<STATE> 4
<MEAN> 13
 -8.095416e-02 -4.360688e+00 -5.306619e+00 -3.936462e+00 4.195863e-01 -4.984797e+00 -5.636566e+00 -3.849664e+00 3.015916e+00 5.617845e+00 -4.277359e+00 -7.289526e+00 6.282302e+01
<VARIANCE> 13
 3.576450e+01 3.677172e+01 3.011474e+01 4.017545e+01 7.561967e+01 7.803306e+01 5.871061e+01 7.132235e+01 7.727147e+01 5.068668e+01 4.342804e+01 4.649942e+01 6.350139e+01
<GCONST> 7.522963e+01
<TRANSP> 5
 0.000000e+00 1.000000e+00 0.000000e+00 0.000000e+00 0.000000e+00
 0.000000e+00 7.378782e-01 2.621218e-01 0.000000e+00 0.000000e+00
 0.000000e+00 0.000000e+00 7.890657e-01 2.109343e-01 0.000000e+00
 0.000000e+00 0.000000e+00 0.000000e+00 6.260419e-01 3.739581e-01
 0.000000e+00 0.000000e+00 0.000000e+00 0.000000e+00 0.000000e+00
<ENDHMM>
~h "ay"
<BEGINHMM>
<NUMSTATES> 5
<STATE> 2
<MEAN> 13
 -1.150620e+01 8.175412e-01 -4.113566e+00 7.267289e+00 5.556780e+00 -5.660151e+00 5.153451e+00 2.053329e+00 5.313776e+00 -8.646754e-01 -5.029392e-01 -9.030381e-01 5.941908e+01
<VARIANCE> 13
 3.871392e+01 3.818469e+01 2.543700e+01 6.121193e+01 2.782378e+01 3.059373e+01 3.658525e+01 2.585105e+01 3.125290e+01 2.701371e+01 1.717709e+01 1.954883e+01 3.211668e+01
<GCONST> 6.816459e+01
<STATE> 3
<MEAN> 13
 -4.413225e+00 -1.164548e+01 -7.873212e+00 -1.237841e+01 -2.078668e-01 -8.428290e-01 1.861280e+00 -7.993777e+00 -3.224784e+00 5.327830e+00 -3.973661e+00 -6.573844e+00 6.445931e+01
<VARIANCE> 13
 1.095160e+02 6.349732e+01 6.083638e+01 8.255486e+01 6.204651e+01 5.900684e+01 4.440673e+01 7.434275e+01 1.022899e+02 1.558527e+02 9.321235e+01 1.156892e+02 6.216487e+01
<GCONST> 8.066104e+01
<STATE> 4
<MEAN> 13
 1.392401e+00 -1.332547e+01 5.062173e+00 -1.707648e+01 2.417628e+00 -1.520340e+01 7.014280e+00 5.441841e-01 1.690916e-01 1.918916e+00 -1.042682e+01 2.642807e+00 7.115919e+01
<VARIANCE> 13
 5.998814e+00 1.878756e+01 7.851399e+01 2.322789e+01 9.650021e+01 3.740825e+01 3.376619e+01 3.270609e+01 6.984919e+01 5.543360e+01 5.737135e+01 3.529411e+01 8.254406e+00
<GCONST> 6.930978e+01
<TRANSP> 5
 0.000000e+00 1.000000e+00 0.000000e+00 0.000000e+00 0.000000e+00
 0.000000e+00 8.099898e-01 1.900103e-01 0.000000e+00 0.000000e+00
 0.000000e+00 0.000000e+00 7.141151e-01 2.858849e-01 0.000000e+00
 0.000000e+00 0.000000e+00 0.000000e+00 8.854029e-01 1.145971e-01
 0.000000e+00 0.000000e+00 0.000000e+00 0.000000e+00 0.000000e+00
<ENDHMM>
~h "eh"
<BEGINHMM>
<NUMSTATES> 5
<STATE> 2
<MEAN> 13
 1.272413e+00 -4.798423e+00 3.732794e+00 3.997792e+00 -4.297232e+00 -1.060969e+01 -8.187872e+00 -1.058394e+00 2.211508e+00 -2.846370e+00 -6.121806e+00 -3.273693e+00 6.073985e+01
<VARIANCE> 13
 8.034804e+00 1.986007e+02 1.067418e+01 7.792872e+01 7.085532e+01 3.986218e+01 2.096341e+01 6.412566e+01 6.585546e+01 5.280613e+01 6.075999e+01 6.480853e+01 1.301581e+02
<GCONST> 7.444200e+01
<STATE> 3
<MEAN> 13
 3.600744e+00 -1.249742e+01 4.952376e+00 -4.582203e+00 -9.570505e+00 -1.241132e+01 -1.398432e+01 -1.040283e+00 -2.514483e+00 3.212058e+00 -1.614723e+00 -6.235392e+00 6.957571e+01
<VARIANCE> 13
 4.911729e+00 9.588475e+00 3.938026e+01 5.338608e+01 9.975426e+01 8.527283e+01 5.550100e+01 2.075547e+02 4.151049e+01 1.404024e+01 3.842793e+01 9.672067e+01 1.249283e+01
<GCONST> 7.090940e+01
<STATE> 4
<MEAN> 13
 6.256063e+00 -5.430524e+00 8.693857e-01 -1.023200e+01 4.816091e+00 -6.656598e+00 -1.470665e+01 -8.345717e+00 -7.097347e+00 1.250878e+01 -4.853828e+00 -2.388892e+00 6.452145e+01
<VARIANCE> 13
 7.408047e+00 6.287831e+01 1.595202e+01 7.044388e+01 1.146225e+02 1.055712e+02 1.509134e+01 5.634278e+01 3.935309e+01 3.515072e+01 8.622830e+01 3.088405e+01 2.286665e+01
<GCONST> 7.145631e+01
<TRANSP> 5
 0.000000e+00 1.000000e+00 0.000000e+00 0.000000e+00 0.000000e+00
 0.000000e+00 8.905773e-01 1.094226e-01 0.000000e+00 0.000000e+00
 0.000000e+00 0.000000e+00 9.020873e-01 9.791276e-02 0.000000e+00
 0.000000e+00 0.000000e+00 0.000000e+00 7.547474e-01 2.452525e-01
 0.000000e+00 0.000000e+00 0.000000e+00 0.000000e+00 0.000000e+00
<ENDHMM>
~h "hh"
<BEGINHMM>
<NUMSTATES> 5
<STATE> 2
<MEAN> 13
 1.873514e+00 -7.973306e+00 1.798307e+00 -6.075458e+00 5.985725e+00 -1.719592e+01 -1.268154e+00 7.530991e+00 7.255483e-01 3.145328e-01 -1.523475e+01 3.900053e+00 6.387330e+01
<VARIANCE> 13
 6.915344e+00 8.473260e+01 3.960430e+01 1.878794e+02 3.924374e+01 1.019557e+02 5.926296e+01 6.508286e+01 3.989858e+01 3.918938e+01 2.583387e+01 6.525253e+01 8.706622e+01
<GCONST> 7.498373e+01
<STATE> 3
<MEAN> 13
 7.103576e-01 -1.579602e+01 -1.260371e+01 -4.295494e+00 2.751652e-01 -2.227983e+00 -6.797245e+00 3.292045e+00 -1.910886e+00 -2.576757e+00 -1.562962e+01 -9.634523e+00 7.585067e+01
<VARIANCE> 13
 5.881666e+00 1.837361e+01 2.236686e+01 5.110491e+01 2.829397e+01 1.950270e+01 2.194737e+01 3.863571e+01 1.081083e+01 1.960006e+01 1.617761e+01 2.366502e+01 1.021378e+01
<GCONST> 6.230009e+01
<STATE> 4
<MEAN> 13
 7.097424e-01 -1.397954e+01 -1.778670e+00 -8.530956e+00 1.603092e+01 -5.813857e+00 9.815332e+00 -2.463474e+00 5.552101e+00 4.460079e+00 -2.072578e+01 1.122549e+00 6.790900e+01
<VARIANCE> 13
 8.860827e+00 7.898162e+00 1.921424e+01 6.973627e+01 4.184851e+01 6.030759e+01 5.020769e+01 3.614761e+01 3.894759e+01 3.077663e+01 3.722025e+01 2.884432e+01 1.676989e+01
<GCONST> 6.756566e+01
<TRANSP> 5
 0.000000e+00 1.000000e+00 0.000000e+00 0.000000e+00 0.000000e+00
 0.000000e+00 7.827407e-01 2.172594e-01 0.000000e+00 0.000000e+00
 0.000000e+00 0.000000e+00 8.963287e-01 1.036712e-01 0.000000e+00
 0.000000e+00 0.000000e+00 0.000000e+00 8.873587e-01 1.126413e-01
 0.000000e+00 0.000000e+00 0.000000e+00 0.000000e+00 0.000000e+00
<ENDHMM>
~h "ih"
<BEGINHMM>
<NUMSTATES> 5
<STATE> 2
<MEAN> 13
 4.058512e+00 5.493487e+00 6.669013e+00 -6.020010e+00 -1.039524e+01 -3.553312e-01 -2.166708e+00 -9.571783e+00 -1.491584e+01 3.137768e-01 -4.508514e+00 -4.402381e-01 5.561800e+01
<VARIANCE> 13
 4.274346e+01 1.411658e+02 2.074716e+02 1.283181e+02 6.338456e+01 1.120703e+02 9.041522e+01 5.752386e+01 6.826348e+01 8.030533e+01 7.010847e+01 3.681550e+01 7.032690e+01
<GCONST> 8.093034e+01
<STATE> 3
<MEAN> 13
 -2.504474e+00 -7.582399e+00 1.337687e+01 -3.430434e-01 -1.980820e+01 -8.236214e+00 -9.269561e+00 -6.602910e+00 -8.094955e+00 -4.463363e+00 8.546819e+00 -8.147172e+00 6.529274e+01
<VARIANCE> 13
 8.802061e+00 7.117210e+01 5.054192e+01 2.547352e+01 5.706847e+01 4.813924e+01 4.796419e+01 6.031942e+01 6.625492e+01 5.494547e+01 5.844673e+01 5.937478e+01 3.733418e+01
<GCONST> 7.335313e+01
<STATE> 4
<MEAN> 13
 -1.023318e+01 5.261750e+00 2.681075e+00 4.979659e+00 -3.266498e+00 -1.396749e+00 -2.204826e+00 -9.190103e-01 -3.172222e+00 -1.291160e+00 -2.043609e-01 3.623433e-01 4.312401e+01
<VARIANCE> 13
 7.473685e+01 1.632290e+02 6.616765e+01 8.175285e+01 9.008154e+01 9.073433e+01 8.192773e+01 9.510908e+01 6.440910e+01 8.516174e+01 4.344824e+01 4.165318e+01 2.816620e+02
<GCONST> 8.161839e+01
<TRANSP> 5
 0.000000e+00 1.000000e+00 0.000000e+00 0.000000e+00 0.000000e+00
 0.000000e+00 7.208142e-01 2.791858e-01 0.000000e+00 0.000000e+00
 0.000000e+00 0.000000e+00 8.020205e-01 1.979794e-01 0.000000e+00
 0.000000e+00 0.000000e+00 0.000000e+00 6.171131e-01 3.828869e-01
 0.000000e+00 0.000000e+00 0.000000e+00 0.000000e+00 0.000000e+00
<ENDHMM>
~h "iy"
<BEGINHMM>
<NUMSTATES> 5
<STATE> 2
<MEAN> 13
 2.174829e+00 -9.533525e+00 1.761893e+01 -7.758615e+00 -1.277373e+01 -1.285593e+01 -4.270073e+00 -6.257973e+00 -1.638855e+01 7.863153e+00 2.335472e-02 1.158772e-01 6.817019e+01
<VARIANCE> 13
 8.209360e+00 2.245433e+01 5.370557e+01 3.222407e+01 3.302103e+01 2.627375e+01 2.814275e+01 5.028999e+01 8.189581e+01 5.289605e+01 8.320384e+01 2.897155e+01 1.217917e+01
<GCONST> 6.924731e+01
<STATE> 3
<MEAN> 13
 -3.118853e+00 -1.191488e+01 1.483562e+01 -6.260899e-01 -2.418283e+01 -1.248777e+01 -1.303256e+01 -8.238400e+00 -7.514285e+00 -6.573746e+00 1.348995e+01 -4.278478e+00 6.890633e+01
<VARIANCE> 13
 4.882049e+00 5.414682e+01 2.525715e+01 2.135268e+01 2.870462e+01 1.641366e+01 2.688347e+01 4.872000e+01 5.277682e+01 5.551793e+01 6.516397e+01 9.309471e+01 7.316696e+00
<GCONST> 6.777618e+01
<STATE> 4
<MEAN> 13
 -1.808807e+00 -1.834537e+00 1.092095e+01 1.405602e-02 -1.056388e+01 -1.020941e+01 -5.150280e+00 -6.192664e+00 -8.432721e+00 1.145413e-01 1.415936e+00 -4.421180e-01 6.056641e+01
<VARIANCE> 13
 2.868717e+01 2.856154e+01 6.886321e+01 3.147002e+01 4.122647e+01 5.314388e+01 4.601321e+01 4.415258e+01 5.404193e+01 4.996104e+01 6.258804e+01 3.853515e+01 1.982408e+01
<GCONST> 7.226679e+01
<TRANSP> 5
 0.000000e+00 1.000000e+00 0.000000e+00 0.000000e+00 0.000000e+00
 0.000000e+00 8.288838e-01 1.711161e-01 0.000000e+00 0.000000e+00
 0.000000e+00 0.000000e+00 8.875890e-01 1.124110e-01 0.000000e+00
 0.000000e+00 0.000000e+00 0.000000e+00 6.671816e-01 3.328184e-01
 0.000000e+00 0.000000e+00 0.000000e+00 0.000000e+00 0.000000e+00
<ENDHMM>
~h "ng"
<BEGINHMM>
<NUMSTATES> 5
<STATE> 2
<MEAN> 13
 -2.041534e+00 -4.486664e+00 -1.067033e+01 9.118153e-01 -3.235981e+00 4.342578e+00 -7.131448e+00 -4.440983e+00 -3.444128e+00 -4.913399e+00 -6.759697e+00 -5.431791e+00 4.958386e+01
<VARIANCE> 13
 3.800394e+01 5.645972e+01 3.668390e+01 2.294278e+01 5.905768e+01 4.741453e+01 2.612790e+01 2.452933e+01 2.826247e+01 2.707143e+01 1.633464e+01 3.178298e+01 4.795678e+01
<GCONST> 6.946181e+01
<STATE> 3
<MEAN> 13
 -2.552352e+00 3.933016e+00 -3.005213e+00 8.364945e+00 2.865016e-02 8.334768e+00 7.756653e-02 -2.329614e-01 1.442341e+00 -9.217889e-01 -1.215341e+00 9.160390e-01 5.122115e+01
<VARIANCE> 13
 2.147795e+01 5.793332e+01 2.101279e+01 3.877892e+01 9.181669e+01 5.944166e+01 3.672359e+01 2.459132e+01 2.126801e+01 3.379949e+01 1.805300e+01 2.204430e+01 7.474549e+01
<GCONST> 7.001044e+01
<STATE> 4
<MEAN> 13
 -1.317711e+01 5.417696e+00 -1.015626e+01 7.697768e+00 -4.803506e+00 2.250886e+00 -1.012235e+01 -5.045178e+00 -4.935993e+00 -8.215189e+00 -5.966091e+00 -6.277085e+00 3.422163e+01
<VARIANCE> 13
 1.264556e+01 1.307892e+01 2.103188e+01 1.319168e+01 2.140784e+01 2.306036e+01 2.020820e+01 1.954631e+01 2.016563e+01 1.667815e+01 1.373292e+01 1.489040e+01 3.098876e+01
<GCONST> 6.137930e+01
<TRANSP> 5
 0.000000e+00 1.000000e+00 0.000000e+00 0.000000e+00 0.000000e+00
 0.000000e+00 8.317347e-01 1.682654e-01 0.000000e+00 0.000000e+00
 0.000000e+00 0.000000e+00 8.386487e-01 1.613513e-01 0.000000e+00
 0.000000e+00 0.000000e+00 0.000000e+00 9.201652e-01 7.983481e-02
 0.000000e+00 0.000000e+00 0.000000e+00 0.000000e+00 0.000000e+00
<ENDHMM>
~h "oh"
<BEGINHMM>
<NUMSTATES> 5
<STATE> 2
<MEAN> 13
 4.472978e+00 -2.014323e+01 -1.201421e+01 -1.673370e+01 -6.293888e+00 1.264854e+01 -1.484486e+00 -1.256853e+01 4.546260e+00 1.822818e-01 4.900982e+00 -7.854693e+00 7.195802e+01
<VARIANCE> 13
 1.109141e+01 7.647778e+01 1.437893e+01 5.501991e+01 5.890302e+01 8.829461e+01 4.947588e+01 4.733327e+01 1.508152e+02 4.662944e+01 5.855770e+01 6.539984e+01 1.140551e+01
<GCONST> 7.316722e+01
<STATE> 3
<MEAN> 13
 4.401626e+00 -1.505735e+01 -1.435155e+01 -9.992771e+00 -9.059422e+00 1.341194e+00 -7.320203e+00 -1.429414e+00 -1.139166e+00 5.864427e+00 -3.957148e+00 -1.707277e+01 7.332457e+01
<VARIANCE> 13
 3.851907e+00 3.057744e+01 1.213294e+01 6.173548e+01 4.156698e+01 3.508009e+01 4.097908e+01 2.909132e+01 2.878247e+01 2.885264e+01 2.831822e+01 5.440757e+01 1.979632e+01
<GCONST> 6.669593e+01
<STATE> 4
<MEAN> 13
 7.933419e+00 -6.451197e+00 -7.074609e+00 9.203613e+00 -2.374226e+01 7.597750e-01 -7.289184e+00 6.270108e-01 5.173498e+00 -1.052052e+01 -4.760519e+00 3.300324e+00 6.818710e+01
<VARIANCE> 13
 1.624812e+01 2.153979e+01 4.193301e+01 5.858479e+01 1.128688e+02 1.372970e+02 2.675894e+01 3.622113e+01 2.780015e+01 7.665610e+01 1.941519e+01 3.025382e+01 1.343837e+01
<GCONST> 7.071988e+01
<TRANSP> 5
 0.000000e+00 1.000000e+00 0.000000e+00 0.000000e+00 0.000000e+00
 0.000000e+00 9.106290e-01 8.937097e-02 0.000000e+00 0.000000e+00
 0.000000e+00 0.000000e+00 8.791811e-01 1.208189e-01 0.000000e+00
 0.000000e+00 0.000000e+00 0.000000e+00 8.861514e-01 1.138486e-01
 0.000000e+00 0.000000e+00 0.000000e+00 0.000000e+00 0.000000e+00
<ENDHMM>
~h "sp"
<BEGINHMM>
<NUMSTATES> 5
<STATE> 2
~s "silst"
<STATE> 3
<MEAN> 13
 -8.861578e+00 1.689257e+00 -1.428690e+00 1.734139e+00 2.363858e+00 1.311027e+00 1.902645e+00 4.029643e-01 2.182424e+00 -1.179641e+00 6.197161e-01 -1.187597e+00 5.075737e+01
<VARIANCE> 13
 2.093300e+01 8.402652e+00 1.241524e+01 1.178995e+01 1.498604e+01 1.389368e+01 1.742790e+01 1.220474e+01 1.390060e+01 1.048622e+01 1.031728e+01 9.275875e+00 5.061716e+01
<GCONST> 5.821442e+01
<STATE> 4
<MEAN> 13
 -2.490266e+01 3.132784e+00 -9.938063e+00 4.856347e+00 -7.158361e+00 5.163908e+00 -3.835684e+00 1.136757e+00 1.084759e+00 -1.492576e+00 8.192068e-01 -7.795203e-01 2.473973e+01
<VARIANCE> 13
 2.245400e+01 4.709069e+00 6.601575e+00 7.459795e+00 1.140796e+01 9.507609e+00 1.333058e+01 1.436695e+01 1.534329e+01 1.372878e+01 1.283633e+01 1.036696e+01 3.074544e+01
<GCONST> 5.605841e+01
<TRANSP> 5
 0.000000e+00 7.000000e-01 3.000000e-01 0.000000e+00 0.000000e+00
 0.000000e+00 7.499560e-01 2.500440e-01 0.000000e+00 0.000000e+00
 0.000000e+00 0.000000e+00 8.696231e-01 1.303769e-01 0.000000e+00
 0.000000e+00 0.000000e+00 0.000000e+00 9.336296e-01 6.637040e-02
 0.000000e+00 0.000000e+00 0.000000e+00 0.000000e+00 0.000000e+00
<ENDHMM>
~h "uh"
<BEGINHMM>
<NUMSTATES> 5
<STATE> 2
<MEAN> 13
 -4.396031e+00 7.204413e+00 -4.341365e+00 -4.143599e+00 -4.183688e+00 2.607067e+00 -6.739195e+00 -4.986221e+00 -4.189151e+00 -3.363482e+00 -1.678173e+00 -2.274047e+00 4.679487e+01
<VARIANCE> 13
 1.240540e+02 8.443661e+01 2.714611e+01 1.245836e+02 2.835224e+01 3.435680e+01 3.570408e+01 5.241966e+01 3.298268e+01 3.002673e+01 3.427193e+01 2.192892e+01 1.929842e+02
<GCONST> 7.447421e+01
<STATE> 3
<MEAN> 13
 -2.078549e-01 2.941591e+00 -5.170118e+00 -9.077497e+00 -7.837755e+00 1.166052e-01 -7.430951e+00 -7.661392e+00 -7.538341e+00 -2.530668e+00 2.822562e-01 -2.979929e+00 5.571328e+01
<VARIANCE> 13
 1.000061e+02 4.555312e+01 2.065233e+01 8.416301e+01 3.453592e+01 3.514262e+01 3.139628e+01 3.759375e+01 4.339668e+01 2.841636e+01 2.996641e+01 2.016457e+01 1.915407e+02
<GCONST> 7.272849e+01
<STATE> 4
<MEAN> 13
 -4.396167e+00 4.149440e+00 -5.006061e+00 -3.933646e+00 -6.845206e+00 9.349053e-01 -1.269045e+01 -9.912718e+00 -8.097127e+00 -2.709564e+00 7.542228e-01 -3.894257e+00 4.890490e+01
<VARIANCE> 13
 9.675385e+01 7.904720e+01 4.169721e+01 6.946178e+01 3.251316e+01 3.394664e+01 6.469353e+01 5.005629e+01 5.472403e+01 6.254657e+01 4.838340e+01 3.554057e+01 2.825407e+02
<GCONST> 7.712694e+01
<TRANSP> 5
 0.000000e+00 1.000000e+00 0.000000e+00 0.000000e+00 0.000000e+00
 0.000000e+00 2.981308e-01 7.018692e-01 0.000000e+00 0.000000e+00
 0.000000e+00 0.000000e+00 4.132285e-01 5.867715e-01 0.000000e+00
 0.000000e+00 0.000000e+00 0.000000e+00 5.105299e-01 4.894702e-01
 0.000000e+00 0.000000e+00 0.000000e+00 0.000000e+00 0.000000e+00
<ENDHMM>
~h "uw"
<BEGINHMM>
<NUMSTATES> 5
<STATE> 2
<MEAN> 13
 4.223665e+00 -6.027807e+00 -5.535690e+00 -1.428904e+01 -9.301754e+00 4.541365e+00 -1.570479e+01 -1.807991e+01 -7.649683e-01 -2.010792e+00 6.994458e+00 -4.444748e-01 6.682702e+01
<VARIANCE> 13
 2.184998e+01 3.876415e+01 1.242969e+01 7.868999e+01 6.758216e+01 3.505895e+01 4.591221e+01 4.200611e+01 1.182206e+02 3.131956e+01 4.983407e+01 4.410981e+01 5.146063e+01
<GCONST> 7.270762e+01
<STATE> 3
<MEAN> 13
 6.287579e+00 1.141270e+00 -6.269791e+00 -1.522302e+01 -1.230671e+01 6.460758e-03 -1.085334e+01 -9.258973e+00 -9.501853e+00 -4.098406e+00 2.852145e+00 -3.713864e+00 6.386227e+01
<VARIANCE> 13
 2.073950e+01 2.122625e+01 1.687521e+01 5.189415e+01 4.706862e+01 2.942605e+01 4.594075e+01 3.315553e+01 3.948356e+01 2.339693e+01 3.478458e+01 5.841299e+01 4.795786e+01
<GCONST> 6.963231e+01
<STATE> 4
<MEAN> 13
 5.259615e+00 2.281584e+00 -7.951930e+00 -1.853156e+01 -2.614917e+00 7.199338e+00 -7.202013e+00 -1.068791e+01 -5.266900e+00 1.858002e+00 -2.385997e+00 2.404879e+00 5.880421e+01
<VARIANCE> 13
 4.729052e+01 7.629700e+01 3.497748e+01 2.202675e+02 9.978984e+01 8.163632e+01 4.820488e+01 4.472328e+01 9.193073e+01 1.312760e+02 1.151685e+02 8.561600e+01 1.085540e+02
<GCONST> 8.099605e+01
<TRANSP> 5
 0.000000e+00 1.000000e+00 0.000000e+00 0.000000e+00 0.000000e+00
 0.000000e+00 7.319539e-01 2.680461e-01 0.000000e+00 0.000000e+00
 0.000000e+00 0.000000e+00 7.885878e-01 2.114122e-01 0.000000e+00
 0.000000e+00 0.000000e+00 0.000000e+00 6.582995e-01 3.417005e-01
 0.000000e+00 0.000000e+00 0.000000e+00 0.000000e+00 0.000000e+00
<ENDHMM>
~h "sil"
<BEGINHMM>
<NUMSTATES> 5
<STATE> 2
<MEAN> 13
 -1.483659e+01 6.294595e+00 -5.838166e+00 9.439512e+00 -1.279088e+00 6.272697e+00 -4.995335e+00 -1.079497e+00 -1.935011e+00 -5.161600e+00 -2.694835e+00 -2.822088e+00 3.307803e+01
<VARIANCE> 13
 3.530328e+01 5.053446e+01 6.150374e+01 5.624268e+01 5.614075e+01 6.109798e+01 6.018020e+01 6.219361e+01 4.960990e+01 4.143332e+01 4.094069e+01 2.940538e+01 6.243419e+01
<GCONST> 7.475143e+01
<STATE> 3
~s "silst"
<STATE> 4
<MEAN> 13
 -2.566929e+01 2.846784e+00 -1.002241e+01 4.573716e+00 -7.418112e+00 5.251554e+00 -3.430485e+00 1.436555e+00 1.483219e+00 -1.062732e+00 1.244375e+00 -4.522529e-01 2.414141e+01
<VARIANCE> 13
 1.503909e+01 3.142610e+00 6.073804e+00 5.558383e+00 1.038659e+01 8.284350e+00 1.066550e+01 1.118639e+01 1.192304e+01 1.032870e+01 9.536234e+00 8.060235e+00 2.831862e+01
<GCONST> 5.300296e+01
<TRANSP> 5
 0.000000e+00 1.000000e+00 0.000000e+00 0.000000e+00 0.000000e+00
 0.000000e+00 8.045000e-01 6.435677e-02 1.311432e-01 0.000000e+00
 0.000000e+00 0.000000e+00 9.507660e-01 4.923398e-02 0.000000e+00
 0.000000e+00 1.032770e-02 0.000000e+00 9.192579e-01 7.041443e-02
 0.000000e+00 0.000000e+00 0.000000e+00 0.000000e+00 0.000000e+00
<ENDHMM>
