~o
<STREAMINFO> 1 39
<VECSIZE> 39<NULLD><MFCC_D_A_0><DIAGC>
~s "silst"
<MEAN> 39
 -8.014101e+00 1.191406e+00 -9.062614e-01 1.478763e+00 3.246522e+00 8.758717e-01 2.205440e+00 2.921919e-01 2.473260e+00 -9.079242e-01 6.656437e-01 -1.250749e+00 5.270186e+01 -5.158962e-02 1.532014e-02 -1.761777e-02 -5.568497e-02 -2.063600e-02 5.020474e-02 2.802907e-02 2.127785e-02 -1.766659e-02 -8.041147e-03 3.184311e-02 6.053973e-02 -1.286007e-01 2.456628e-02 -1.079749e-02 -1.207348e-02 1.254977e-02 -7.364135e-03 -2.104625e-02 -1.381872e-02 -9.760888e-03 -3.110213e-03 -1.118229e-03 -1.428314e-02 -1.311394e-02 1.790287e-02
<VARIANCE> 39
 6.889195e+00 8.339405e+00 6.071827e+00 8.956885e+00 9.831753e+00 1.319558e+01 1.275554e+01 1.082401e+01 1.229011e+01 8.820884e+00 9.857984e+00 8.952689e+00 4.706594e+00 2.054379e-01 3.081377e-01 3.251118e-01 5.384854e-01 6.218454e-01 7.720948e-01 8.554389e-01 9.349596e-01 9.331819e-01 8.629902e-01 8.476536e-01 7.879745e-01 1.060630e-01 2.704480e-02 5.806025e-02 6.043027e-02 1.017421e-01 1.233302e-01 1.489563e-01 1.677846e-01 1.909863e-01 1.842274e-01 1.747686e-01 1.681867e-01 1.552396e-01 1.470299e-02
<GCONST> 6.162250e+01
~h "b"
<BEGINHMM>
<NUMSTATES> 5
<STATE> 2
<MEAN> 39
 1.836423e+00 2.852720e+00 -7.204365e+00 -1.938662e+00 7.966157e-01 3.789922e+00 -8.751160e+00 -3.602484e+00 -4.841377e+00 1.663253e+00 -3.289273e+00 -7.836312e+00 5.115837e+01 -7.286769e-01 2.172244e+00 3.265815e-01 1.812022e+00 3.454317e-01 7.315437e-01 4.749816e-01 8.857546e-02 6.071490e-01 -1.955754e+00 -9.109631e-02 6.663755e-01 -2.451642e+00 -2.559540e-02 -4.672358e-01 -1.308820e-01 -2.068232e-01 3.015720e-02 -7.601026e-02 3.070327e-01 2.556420e-01 2.176990e-01 -4.249019e-02 -2.516398e-01 -2.394491e-02 3.848853e-01
<VARIANCE> 39
 7.272492e+01 1.363767e+02 2.165861e+01 5.810304e+01 1.957994e+01 5.459492e+01 3.612491e+01 2.722717e+01 3.262187e+01 5.758281e+01 3.171219e+01 3.157330e+01 1.363234e+02 1.097773e+00 8.151702e+00 3.131995e+00 2.867432e+00 3.637527e+00 3.726383e+00 4.375496e+00 2.893317e+00 2.946894e+00 3.858570e+00 2.876246e+00 5.112598e+00 2.915474e+00 2.275492e-01 7.502754e-01 5.106820e-01 6.679558e-01 5.053318e-01 4.219646e-01 5.219125e-01 5.436947e-01 3.764759e-01 7.683405e-01 7.330306e-01 6.396207e-01 3.182292e-01
<GCONST> 1.281748e+02
<STATE> 3
<MEAN> 39
 4.783200e+00 5.541363e+00 -1.294412e+01 -1.840784e+00 -1.870453e+00 6.229064e+00 -3.460483e+00 -1.288423e+00 -8.800302e-01 -3.977813e+00 -4.111901e+00 -2.555023e+00 4.910522e+01 -2.417666e-01 5.202231e-01 8.659498e-02 -5.882844e-02 -1.061359e-01 3.756057e-01 5.293218e-01 4.475090e-01 3.730074e-01 -1.080611e-02 -5.589772e-02 3.586493e-01 -4.644028e-01 -2.500770e-01 2.339657e-01 4.971069e-01 1.756172e-01 -2.226627e-01 -2.145380e-01 -8.952311e-02 -9.684924e-02 -2.760126e-01 2.280390e-01 1.355537e-01 -4.172016e-01 -1.593031e-02
<VARIANCE> 39
 1.461759e+02 2.075944e+02 3.981736e+01 3.477599e+01 1.112928e+02 1.037089e+02 3.850267e+01 3.125420e+01 3.564069e+01 5.697488e+01 2.778260e+01 5.839325e+01 7.220191e+01 3.785095e+00 4.895926e+00 5.711562e+00 6.783504e+00 5.133989e+00 3.030053e+00 3.181324e+00 3.122117e+00 1.584317e+00 2.826877e+00 2.555579e+00 3.509962e+00 3.073134e+00 5.001563e-01 1.663826e+00 6.930321e-01 1.039048e+00 1.082206e+00 6.089987e-01 7.020285e-01 7.042982e-01 4.161595e-01 7.467437e-01 5.611631e-01 8.972610e-01 6.701937e-01
<GCONST> 1.375088e+02
<STATE> 4
<MEAN> 39
 -9.285233e+00 6.686013e+00 -5.640486e+00 2.903519e+00 -3.806034e+00 2.095510e+00 -3.679912e+00 -9.431155e-01 -1.039481e-01 -2.982961e+00 -3.451097e+00 -5.708713e+00 3.967100e+01 -9.793592e-01 -1.532253e-01 4.399454e-01 4.742135e-01 -1.308623e-01 -7.456220e-03 2.275516e-01 1.505095e-01 -2.056149e-01 -2.377793e-01 3.890341e-01 2.425216e-01 -5.595267e-01 1.668538e-01 -1.471654e-01 -1.372866e-01 -2.514077e-01 -1.107002e-01 -4.110331e-02 -1.796441e-01 -1.922950e-01 -5.550063e-02 2.924802e-02 9.183270e-02 4.435518e-02 2.524085e-01
<VARIANCE> 39
 9.731975e+01 8.815135e+01 2.073551e+01 2.798916e+01 5.039864e+01 3.304754e+01 4.286222e+01 2.458755e+01 3.942361e+01 4.568956e+01 3.466182e+01 3.679348e+01 1.928142e+02 3.125087e+00 3.520242e+00 2.008852e+00 1.849337e+00 1.891437e+00 1.948320e+00 2.303604e+00 1.945454e+00 2.079404e+00 3.473189e+00 4.086473e+00 3.958543e+00 1.417421e+00 3.208013e-01 4.364704e-01 2.574389e-01 3.390021e-01 3.336166e-01 3.092860e-01 5.132389e-01 4.569956e-01 3.323906e-01 5.793063e-01 7.184998e-01 7.362297e-01 1.935570e-01
<GCONST> 1.209568e+02
<TRANSP> 5
 0.000000e+00 1.000000e+00 0.000000e+00 0.000000e+00 0.000000e+00
 0.000000e+00 7.175766e-01 2.824234e-01 0.000000e+00 0.000000e+00
 0.000000e+00 0.000000e+00 5.675115e-01 4.324886e-01 0.000000e+00
 0.000000e+00 0.000000e+00 0.000000e+00 7.846722e-01 2.153277e-01
 0.000000e+00 0.000000e+00 0.000000e+00 0.000000e+00 0.000000e+00
<ENDHMM>
~h "d"
<BEGINHMM>
<NUMSTATES> 5
<STATE> 2
<MEAN> 39
 -2.504003e+00 -4.427288e-01 -1.999451e+00 2.435757e+00 2.613632e+00 -1.239526e-02 -5.004004e+00 -5.289381e+00 -1.191675e+00 -1.267707e+00 -6.234567e+00 -4.796312e+00 5.448050e+01 1.142416e+00 -5.549639e-01 6.328586e-01 -3.342281e-01 -5.969495e-01 -8.588215e-01 -1.604593e+00 -4.383642e-01 5.662253e-01 -1.007159e-01 2.669083e-02 1.335561e-01 1.468210e+00 1.949997e-01 -5.985867e-01 -2.463680e-01 -4.925799e-01 -3.212530e-01 -9.378775e-02 -1.914425e-01 -1.476967e-01 3.573041e-01 2.123697e-01 2.166858e-01 8.986440e-02 4.867113e-01
<VARIANCE> 39
 6.938007e+01 1.862209e+02 5.786742e+01 1.326008e+02 6.586228e+01 5.913493e+01 7.466373e+01 6.627969e+01 4.491870e+01 5.094308e+01 6.842834e+01 3.701340e+01 2.140439e+02 3.941335e+00 7.125685e+00 3.839797e+00 4.604932e+00 6.730730e+00 6.186154e+00 6.063371e+00 5.922433e+00 4.340726e+00 4.532232e+00 4.128819e+00 2.680758e+00 6.589551e+00 5.521271e-01 1.292030e+00 6.312075e-01 1.141219e+00 1.104001e+00 9.012311e-01 8.348951e-01 1.171584e+00 6.311458e-01 6.708739e-01 6.432129e-01 4.846052e-01 1.071288e+00
<GCONST> 1.459397e+02
<STATE> 3
<MEAN> 39
 2.793886e+00 -9.409515e+00 -2.570138e+00 -4.640615e+00 -4.452749e-01 -4.110360e+00 -9.575606e+00 -6.291658e+00 1.867935e+00 1.998589e+00 -8.235718e+00 -4.393674e+00 6.492115e+01 9.196824e-01 -1.840123e+00 2.143205e-01 -1.569407e+00 -1.654429e+00 -9.788957e-01 -1.636405e+00 -5.190273e-01 1.655128e+00 3.365513e-01 5.277575e-01 7.486879e-01 1.924130e+00 2.874773e-02 1.516435e-01 -1.612503e-01 -1.837766e-01 -2.520632e-03 2.174202e-01 6.001858e-01 -4.179705e-02 -1.798724e-01 -1.327632e-01 9.134454e-02 -5.271899e-02 -6.595329e-03
<VARIANCE> 39
 2.423895e+01 7.458664e+01 2.363984e+01 1.053675e+02 1.142898e+02 8.637814e+01 1.311205e+02 1.200503e+02 6.726933e+01 6.077620e+01 8.855573e+01 4.314627e+01 5.890442e+01 2.491325e+00 9.193499e+00 4.921565e+00 1.057413e+01 5.661551e+00 5.369274e+00 6.018644e+00 1.014824e+01 4.829314e+00 4.824409e+00 6.136987e+00 4.105728e+00 8.214723e+00 2.775221e-01 1.265850e+00 4.435910e-01 1.100148e+00 1.276045e+00 1.043367e+00 1.013078e+00 1.345183e+00 7.469820e-01 9.092458e-01 8.642015e-01 5.304591e-01 5.713242e-01
<GCONST> 1.466956e+02
<STATE> 4
<MEAN> 39
 3.604324e+00 -8.593887e+00 -2.155252e+00 -3.379693e+00 -4.320742e+00 -7.034820e+00 -1.167119e+01 -4.303504e+00 5.121561e+00 1.301011e+00 -1.060761e+01 -7.255604e+00 6.666571e+01 2.466573e-01 -8.073401e-01 -9.613680e-02 -9.036778e-01 -1.053086e+00 -4.423996e-01 -5.614133e-01 5.757040e-01 2.913345e-01 5.410023e-02 3.775947e-01 2.397282e-01 1.086760e+00 -1.018585e-01 -1.011333e-01 -2.790407e-01 -1.649421e-01 1.713322e-01 2.180558e-01 4.306501e-01 5.245401e-01 -5.325882e-01 -5.443945e-02 -1.284239e-01 -1.750017e-01 1.245244e-01
<VARIANCE> 39
 8.816881e+00 5.636085e+01 2.022263e+01 6.497170e+01 8.963982e+01 4.571566e+01 1.019834e+02 1.124404e+02 4.400426e+01 4.430750e+01 6.628394e+01 4.767685e+01 3.174442e+01 1.296198e+00 1.148427e+01 3.243852e+00 7.587965e+00 7.324113e+00 2.946058e+00 6.126566e+00 1.198740e+01 4.148201e+00 5.462285e+00 3.549927e+00 2.084682e+00 8.449215e+00 9.293171e-02 1.850827e+00 2.844438e-01 9.526309e-01 1.825689e+00 7.001237e-01 1.965379e+00 1.519742e+00 5.381136e-01 1.194446e+00 7.937434e-01 4.090275e-01 1.155863e+00
<GCONST> 1.392030e+02
<TRANSP> 5
 0.000000e+00 1.000000e+00 0.000000e+00 0.000000e+00 0.000000e+00
 0.000000e+00 4.853421e-01 5.146580e-01 0.000000e+00 0.000000e+00
 0.000000e+00 0.000000e+00 9.629801e-02 9.037020e-01 0.000000e+00
 0.000000e+00 0.000000e+00 0.000000e+00 5.346472e-01 4.653529e-01
 0.000000e+00 0.000000e+00 0.000000e+00 0.000000e+00 0.000000e+00
<ENDHMM>
~h "g"
<BEGINHMM>
<NUMSTATES> 5
<STATE> 2
<MEAN> 39
 -3.143828e+00 3.961171e+00 1.402135e+01 -5.038463e-01 -8.519199e+00 -7.791276e+00 -3.658003e+00 -8.171375e+00 -8.536032e+00 -4.408093e-03 -5.220367e+00 -6.909215e+00 5.561311e+01 4.090687e-01 -7.458822e-01 -1.170344e+00 1.162012e+00 -3.196711e-01 -1.591652e+00 -3.950329e-01 5.774419e-01 -3.555183e-01 -2.460589e-01 9.284278e-01 5.315675e-01 3.774915e-01 -1.787931e-02 -7.733044e-01 4.430258e-02 -5.600369e-01 -4.123370e-01 -4.040261e-01 -3.771912e-01 2.376285e-01 1.072950e-01 -8.478031e-02 8.360661e-01 1.040222e-01 9.324702e-01
<VARIANCE> 39
 1.329049e+01 1.041829e+02 1.165585e+02 7.322273e+01 5.725357e+01 5.519961e+01 5.028830e+01 4.881957e+01 7.640344e+01 3.268810e+01 6.852583e+01 4.257311e+01 7.246581e+01 1.780414e+00 1.011975e+01 3.195043e+00 7.433550e+00 5.597592e+00 7.331132e+00 4.930695e+00 2.955018e+00 4.183730e+00 2.862090e+00 5.306367e+00 4.711819e+00 8.832705e+00 3.951129e-01 1.140889e+00 6.434872e-01 1.588379e+00 1.381384e+00 1.139662e+00 1.254460e+00 6.587729e-01 1.063609e+00 6.952727e-01 5.673164e-01 1.023521e+00 8.387083e-01
<GCONST> 1.427108e+02
<STATE> 3
<MEAN> 39
 -9.058968e-01 -1.002404e+01 8.554754e+00 -4.338849e+00 -1.627199e+01 -1.704059e+01 -8.155458e+00 -3.437372e+00 -6.041306e+00 -1.283325e+00 7.685019e+00 -5.899740e+00 6.914190e+01 6.268451e-01 -2.304617e+00 -2.453534e+00 -2.564030e+00 -1.578673e-01 -2.400223e-02 -9.155973e-01 2.297901e+00 3.263413e+00 -9.645578e-02 -6.712531e-02 -9.954789e-01 2.721221e+00 2.370040e-02 1.949706e-01 -5.879479e-01 -2.439705e-02 9.193210e-01 1.124359e+00 3.653122e-01 -1.455576e-01 6.353642e-01 8.891534e-02 -1.319849e+00 -4.626901e-01 -4.092768e-01
<VARIANCE> 39
 6.934513e+00 6.503925e+01 3.852046e+01 6.306296e+01 8.566364e+01 8.084946e+01 4.804786e+01 5.538237e+01 1.101469e+02 3.240137e+01 8.988170e+01 6.427628e+01 6.283646e+01 5.798548e-01 1.482004e+00 3.335570e+00 3.465125e+00 8.603590e+00 5.872626e+00 5.028544e+00 4.268454e+00 7.951014e+00 3.783463e+00 1.183718e+01 3.850746e+00 2.159553e+00 1.149104e-01 4.234880e-01 3.756537e-01 7.657605e-01 9.365321e-01 6.348841e-01 8.104519e-01 1.168974e+00 1.484895e+00 5.463475e-01 1.136852e+00 6.666746e-01 4.524204e-01
<GCONST> 1.344516e+02
<STATE> 4
<MEAN> 39
 1.396986e+00 -1.783045e+01 -6.598136e+00 -9.647277e+00 -9.075330e+00 -6.688521e+00 -1.005238e+01 2.972160e+00 4.415141e+00 -5.363007e-01 -4.790029e+00 -1.810505e+01 7.608792e+01 2.209498e-01 -7.088132e-01 -1.528346e+00 -6.445667e-01 1.614309e+00 2.099045e+00 3.086033e-01 -5.849661e-01 1.296239e-01 3.463257e-01 -1.264241e+00 -7.612270e-01 2.007433e-01 -1.325474e-02 2.348280e-01 3.309967e-01 1.799829e-01 -1.783744e-01 -1.209041e-01 6.517071e-02 -3.724886e-01 -5.634021e-01 9.358142e-02 4.639120e-01 2.527077e-01 -2.425179e-01
<VARIANCE> 39
 6.545069e+00 4.704336e+01 3.114416e+01 3.916563e+01 4.832762e+01 7.241377e+01 4.225070e+01 5.307520e+01 8.475119e+01 3.807404e+01 7.392445e+01 7.882538e+01 4.887935e+01 2.056902e-01 5.046402e-01 1.572364e+00 1.241757e+00 1.891055e+00 1.628473e+00 1.422538e+00 2.375166e+00 3.402540e+00 1.174801e+00 4.468150e+00 1.999574e+00 2.846963e-01 2.289339e-02 5.651433e-02 1.397601e-01 1.656392e-01 2.496183e-01 3.099342e-01 2.111052e-01 3.585723e-01 5.680828e-01 2.478753e-01 4.233921e-01 2.023302e-01 5.092448e-02
<GCONST> 1.011421e+02
<TRANSP> 5
 0.000000e+00 1.000000e+00 0.000000e+00 0.000000e+00 0.000000e+00
 0.000000e+00 7.229407e-01 2.770593e-01 0.000000e+00 0.000000e+00
 0.000000e+00 0.000000e+00 6.995281e-01 3.004719e-01 0.000000e+00
 0.000000e+00 0.000000e+00 0.000000e+00 7.970973e-01 2.029027e-01
 0.000000e+00 0.000000e+00 0.000000e+00 0.000000e+00 0.000000e+00
<ENDHMM>
~h "j"
<BEGINHMM>
<NUMSTATES> 5
<STATE> 2
<MEAN> 39
 -5.770657e+00 1.432678e+01 2.986006e+01 -1.170000e+01 -3.286083e+00 -5.398398e+00 -1.045693e+01 -3.787711e+00 -1.777923e+01 3.838865e+00 -1.835292e+00 -5.889406e+00 5.269032e+01 -1.659514e-01 1.693293e+00 -1.158290e+00 8.800210e-01 8.808740e-01 7.149278e-01 -8.697186e-01 1.250148e-01 7.966840e-01 -5.565526e-01 3.684587e-01 -1.228244e-01 -1.428250e+00 4.113667e-02 -3.737999e-01 -1.113306e-01 4.000191e-01 -4.359323e-01 2.604726e-02 4.741404e-02 -3.042500e-01 5.974726e-02 -1.184841e-01 1.507790e-01 1.293764e-01 1.100515e-01
<VARIANCE> 39
 1.085839e+01 8.678368e+01 1.502276e+02 8.017400e+01 2.454632e+01 2.685898e+01 4.702477e+01 2.591619e+01 6.873439e+01 3.565041e+01 3.255461e+01 1.453463e+01 3.962458e+01 8.545216e-01 1.152340e+00 6.074184e+00 6.320247e+00 2.429245e+00 9.764403e-01 2.916112e+00 2.188733e+00 3.114738e+00 1.553941e+00 3.124774e+00 2.097308e+00 7.736603e-01 1.176474e-01 3.698744e-01 6.878020e-01 3.540252e-01 2.662313e-01 2.146250e-01 7.896516e-01 6.098835e-01 5.441573e-01 2.586507e-01 3.775111e-01 2.216214e-01 2.194714e-01
<GCONST> 1.146131e+02
<STATE> 3
<MEAN> 39
 -3.681084e+00 3.956257e+00 1.107731e+01 3.074221e+00 -9.071968e+00 -3.354507e+00 -8.584229e+00 -8.391637e+00 -6.521947e+00 -3.377152e+00 4.284398e+00 -4.238545e+00 5.650189e+01 -3.479910e-01 -2.153647e+00 5.605903e-01 1.427176e+00 -1.719489e+00 -1.193959e+00 -9.036968e-01 -1.684993e+00 -6.896161e-01 -3.519080e-01 1.587966e+00 2.273395e-01 1.468456e+00 3.674111e-01 -7.640716e-01 1.871734e-01 -4.928126e-02 -3.437168e-01 -4.647299e-01 -3.902062e-01 7.348571e-03 -1.618730e-01 2.589888e-01 3.240805e-01 -1.452698e-01 6.741712e-01
<VARIANCE> 39
 1.574494e+01 1.401557e+02 4.064737e+01 2.578360e+01 5.159960e+01 5.346719e+01 3.551281e+01 1.008100e+02 5.068208e+01 3.566703e+01 6.308724e+01 3.105479e+01 1.048719e+02 2.603614e+00 5.139312e+00 5.737088e+00 3.913484e+00 6.305256e+00 7.349916e+00 1.159250e+01 2.951963e+00 7.145200e+00 5.090455e-01 4.495832e+00 2.238025e+00 2.018170e+00 6.601132e-01 1.130674e+00 2.763672e+00 5.193261e-01 1.964076e+00 1.452914e+00 1.040788e+00 9.915213e-01 1.919392e+00 2.280826e-01 1.565792e+00 3.536098e-01 5.364864e-01
<GCONST> 1.386549e+02
<STATE> 4
<MEAN> 39
 3.343640e+00 2.535848e+00 8.121184e-01 5.932269e+00 -6.851080e+00 -1.740386e+00 -1.299176e+01 -1.226816e+01 -6.379469e+00 -3.152518e+00 1.370279e+00 -5.630725e+00 5.512001e+01 1.053040e+00 -5.807380e-01 -2.583608e+00 -1.056123e+00 1.451539e+00 7.982716e-01 -2.164211e-01 -6.877468e-01 4.868078e-01 5.817909e-01 -3.000342e-01 -4.516254e-01 4.670742e-01 -1.127507e-01 4.883883e-01 5.035122e-02 -1.440532e-01 2.093257e-01 3.174276e-01 4.502913e-01 4.049068e-02 -1.794387e-01 -1.187525e-01 -2.054533e-01 1.368438e-01 -3.859200e-01
<VARIANCE> 39
 6.054610e+01 1.555428e+02 2.515101e+02 6.476159e+01 1.154754e+02 1.373003e+02 1.597101e+02 7.967245e+01 6.353723e+01 3.953186e+01 1.410321e+02 4.376310e+01 1.519006e+02 4.951986e+00 9.795447e+00 1.654981e+01 4.309655e+00 9.242211e+00 1.488310e+01 1.560675e+01 8.292919e+00 5.289886e+00 4.411717e+00 3.488871e+00 4.998016e+00 5.654053e+00 8.219525e-01 1.242299e+00 3.399743e+00 1.079344e+00 1.988110e+00 3.036297e+00 3.033512e+00 1.697447e+00 1.110340e+00 9.845926e-01 9.012491e-01 1.192103e+00 7.418252e-01
<GCONST> 1.615249e+02
<TRANSP> 5
 0.000000e+00 1.000000e+00 0.000000e+00 0.000000e+00 0.000000e+00
 0.000000e+00 7.710252e-01 2.289748e-01 0.000000e+00 0.000000e+00
 0.000000e+00 0.000000e+00 7.535347e-01 2.464652e-01 0.000000e+00
 0.000000e+00 0.000000e+00 0.000000e+00 8.789380e-01 1.210620e-01
 0.000000e+00 0.000000e+00 0.000000e+00 0.000000e+00 0.000000e+00
<ENDHMM>
~h "k"
<BEGINHMM>
<NUMSTATES> 5
<STATE> 2
<MEAN> 39
 -1.096156e+01 6.393405e+00 -3.929248e+00 2.527678e+00 -3.331131e+00 3.444807e+00 -4.180519e+00 -1.352099e+00 -5.339039e-01 -6.077605e-01 8.522725e-01 -1.184567e+00 3.956935e+01 -4.046761e-01 -6.362799e-01 -2.181016e-01 8.998323e-01 9.841960e-01 2.205124e-01 3.487168e-01 1.977621e-01 6.168908e-01 2.510442e-01 2.678868e-01 1.821986e-01 4.760101e-02 3.646604e-01 -6.682974e-01 -3.492268e-01 -3.462085e-01 4.952193e-01 -2.912374e-01 -6.234518e-02 -1.335291e-01 -2.027378e-01 1.938825e-01 -7.501733e-02 -1.940970e-01 9.175724e-01
<VARIANCE> 39
 9.958118e+01 8.508876e+01 4.666372e+01 9.842981e+01 5.910647e+01 5.965882e+01 5.064312e+01 6.708160e+01 4.931661e+01 3.929161e+01 2.891176e+01 2.743235e+01 1.803149e+02 4.290127e+00 3.635653e+00 3.849035e+00 4.179662e+00 5.135674e+00 4.128123e+00 3.845950e+00 4.012822e+00 3.170699e+00 2.757820e+00 2.622060e+00 2.425909e+00 5.908623e+00 5.063808e-01 6.822788e-01 7.282880e-01 7.531278e-01 1.350026e+00 1.189827e+00 7.524161e-01 6.794286e-01 5.406428e-01 6.647586e-01 6.030475e-01 4.820507e-01 9.481639e-01
<GCONST> 1.378311e+02
<STATE> 3
<MEAN> 39
 -7.330656e+00 -2.944953e+00 -6.524762e+00 1.305849e+00 3.446189e+00 5.446197e-01 -3.743728e+00 -2.718788e+00 9.488918e-01 1.293126e+00 6.016164e-01 -2.607494e+00 5.327472e+01 5.825264e-01 -1.955649e+00 -1.203854e+00 -9.407416e-03 1.719001e+00 -9.757467e-01 -2.520551e-01 -2.143193e-01 -3.611119e-03 8.621244e-01 -1.190610e-01 -9.322507e-01 2.422848e+00 3.162774e-01 -1.925455e-01 -6.831568e-02 -4.820966e-01 -3.982117e-01 -3.503721e-01 7.401812e-02 -1.242092e-01 -2.229394e-01 8.574751e-02 -3.442726e-02 -3.218555e-01 5.067119e-01
<VARIANCE> 39
 3.662409e+01 5.860768e+01 4.838965e+01 5.452324e+01 5.099578e+01 5.147738e+01 5.005829e+01 4.491565e+01 4.504939e+01 3.888216e+01 2.724453e+01 2.696926e+01 1.183078e+02 5.629396e+00 6.367216e+00 6.510324e+00 5.116672e+00 9.730562e+00 7.941161e+00 5.906757e+00 4.090961e+00 4.755056e+00 5.909595e+00 3.883918e+00 3.110133e+00 9.009050e+00 6.217751e-01 8.956372e-01 8.836129e-01 7.887886e-01 1.139242e+00 1.145709e+00 1.116482e+00 7.701541e-01 6.968964e-01 8.004305e-01 5.245596e-01 6.204633e-01 1.201228e+00
<GCONST> 1.419476e+02
<STATE> 4
<MEAN> 39
 -5.512714e+00 -6.095508e+00 -1.388002e+01 -3.059917e+00 1.111563e+01 -5.859141e+00 -3.602333e+00 -4.654902e+00 -2.635675e+00 5.092289e+00 -7.259390e-01 -5.235078e+00 5.508333e+01 1.490925e+00 -1.360883e+00 3.020163e-01 -1.448887e+00 6.880519e-01 -2.252680e+00 1.075601e+00 -5.360225e-01 -8.238642e-01 5.883242e-01 -6.248380e-01 -1.148182e+00 3.512220e+00 -5.450471e-02 3.507274e-01 7.122970e-01 4.467267e-02 -8.875571e-01 3.832725e-01 2.197040e-01 2.668924e-02 -1.101362e-01 -2.424686e-01 -9.117167e-02 9.916551e-02 -3.070323e-01
<VARIANCE> 39
 7.600485e+01 1.093546e+02 1.097322e+02 1.121658e+02 1.540838e+02 2.658434e+02 9.959588e+01 1.180429e+02 1.094106e+02 9.792057e+01 8.970958e+01 7.700128e+01 1.358394e+02 9.426757e+00 7.670472e+00 1.270708e+01 1.141983e+01 1.518341e+01 1.515908e+01 7.689258e+00 7.805333e+00 7.779535e+00 7.480670e+00 6.459202e+00 5.883980e+00 8.168057e+00 9.982500e-01 1.486102e+00 2.106593e+00 1.952349e+00 1.884642e+00 3.036934e+00 1.325013e+00 1.457550e+00 1.232574e+00 1.225362e+00 1.089968e+00 8.889191e-01 1.320199e+00
<GCONST> 1.666078e+02
<TRANSP> 5
 0.000000e+00 1.000000e+00 0.000000e+00 0.000000e+00 0.000000e+00
 0.000000e+00 6.217306e-01 3.782694e-01 0.000000e+00 0.000000e+00
 0.000000e+00 0.000000e+00 5.313954e-01 4.686047e-01 0.000000e+00
 0.000000e+00 0.000000e+00 0.000000e+00 5.805792e-01 4.194207e-01
 0.000000e+00 0.000000e+00 0.000000e+00 0.000000e+00 0.000000e+00
<ENDHMM>
~h "l"
<BEGINHMM>
<NUMSTATES> 5
<STATE> 2
<MEAN> 39
 4.641150e+00 -1.471144e+01 -8.401914e+00 -1.653276e+01 5.559488e+00 1.752676e+00 -7.119356e+00 -5.525936e+00 2.119239e+00 4.330082e+00 -8.827420e+00 -8.843362e+00 7.241283e+01 -1.799688e-01 -1.373574e-01 3.285879e-02 -8.959583e-02 -9.209107e-02 2.185351e-02 4.112176e-01 1.695603e-01 3.402054e-02 9.353470e-02 -3.415048e-01 7.653534e-04 3.653916e-02 1.334072e-02 -1.068586e-02 1.155242e-03 8.161139e-02 -7.142750e-03 1.419207e-02 6.310678e-03 1.444872e-02 -2.454526e-02 -6.938725e-02 1.006048e-02 1.658976e-02 -3.805955e-02
<VARIANCE> 39
 7.318460e+00 2.467480e+01 3.261678e+01 3.051936e+01 1.346406e+02 6.483702e+01 2.819322e+01 4.128864e+01 5.334240e+01 3.648002e+01 1.578226e+02 1.160355e+02 1.184456e+01 2.874421e-01 9.294366e-01 6.193278e-01 1.135984e+00 1.267954e+00 1.449742e+00 1.483503e+00 1.062136e+00 1.095548e+00 1.704179e+00 2.171701e+00 9.461131e-01 3.795553e-01 5.675758e-02 1.444603e-01 1.150250e-01 1.839358e-01 2.605883e-01 2.554527e-01 2.768349e-01 2.009128e-01 1.909347e-01 2.633937e-01 3.900553e-01 1.725800e-01 6.724884e-02
<GCONST> 9.689323e+01
<STATE> 3
<MEAN> 39
 2.220770e+00 -2.410159e+01 -1.084652e+01 -1.284418e+01 -3.086233e+00 1.813322e+01 -6.324029e+00 -1.428581e+01 1.415296e+01 -2.616400e+00 -5.463961e-01 -4.161514e+00 7.110921e+01 8.730471e-02 4.419471e-01 6.817167e-02 2.084244e-01 5.962266e-02 -1.062401e-01 1.753439e-01 1.812648e-01 -4.146301e-01 2.034763e-02 -2.311879e-01 7.453959e-02 -4.533286e-01 -2.309387e-03 1.444812e-01 5.240574e-02 6.161860e-02 3.941606e-02 -7.307764e-02 -3.607820e-02 4.791741e-03 -7.257190e-02 1.203708e-02 -9.800994e-03 -9.688501e-03 -7.219262e-02
<VARIANCE> 39
 6.624177e+00 5.225248e+01 1.700411e+01 2.278179e+01 3.420451e+01 7.730705e+01 1.995054e+01 4.315608e+01 1.106780e+02 3.853488e+01 5.265027e+01 4.030575e+01 1.356119e+01 2.184957e-01 2.032376e+00 7.708893e-01 1.742445e+00 1.351169e+00 1.375338e+00 1.093069e+00 1.485054e+00 2.565304e+00 1.438345e+00 1.708904e+00 1.629589e+00 6.659721e-01 3.705497e-02 1.520347e-01 1.142598e-01 2.286564e-01 2.072954e-01 2.098284e-01 2.126318e-01 2.984301e-01 3.582093e-01 2.521195e-01 3.230205e-01 2.987667e-01 4.601679e-02
<GCONST> 9.672021e+01
<STATE> 4
<MEAN> 39
 -1.802127e+00 -6.944531e+00 -8.943488e+00 -3.706922e+00 -2.577854e+00 2.580815e+00 -6.873607e+00 -4.625859e+00 -4.114791e+00 -2.188671e+00 -5.985372e+00 -7.191652e+00 5.425528e+01 -4.027922e-01 4.000618e-01 -5.159493e-02 5.418196e-01 2.103868e-02 -5.489045e-02 1.579121e-02 1.669676e-01 -9.551717e-03 -1.001524e-01 -2.148267e-01 2.364570e-01 -8.008680e-01 -2.509233e-03 -5.638652e-02 -3.028290e-02 -4.685947e-02 7.596252e-03 8.004190e-02 3.108867e-02 1.902186e-02 7.033205e-02 3.563803e-02 4.298784e-02 -2.282409e-02 4.084005e-02
<VARIANCE> 39
 4.019485e+01 2.394836e+01 3.752666e+01 4.097833e+01 4.943019e+01 3.608497e+01 2.072942e+01 2.949747e+01 3.707404e+01 3.391203e+01 4.396125e+01 2.925369e+01 8.228143e+01 2.824154e-01 8.404545e-01 8.477612e-01 9.568036e-01 1.129435e+00 1.164051e+00 1.372653e+00 1.571602e+00 1.418864e+00 1.337506e+00 1.191703e+00 1.121760e+00 2.584421e-01 3.124111e-02 1.112340e-01 1.009563e-01 1.147987e-01 1.878465e-01 1.581146e-01 2.408434e-01 2.575845e-01 2.543156e-01 2.555001e-01 1.819162e-01 1.961994e-01 2.723064e-02
<GCONST> 9.137991e+01
<TRANSP> 5
 0.000000e+00 1.000000e+00 0.000000e+00 0.000000e+00 0.000000e+00
 0.000000e+00 8.520937e-01 1.479063e-01 0.000000e+00 0.000000e+00
 0.000000e+00 0.000000e+00 8.492429e-01 1.507572e-01 0.000000e+00
 0.000000e+00 0.000000e+00 0.000000e+00 8.137512e-01 1.862488e-01
 0.000000e+00 0.000000e+00 0.000000e+00 0.000000e+00 0.000000e+00
<ENDHMM>
~h "m"
<BEGINHMM>
<NUMSTATES> 5
<STATE> 2
<MEAN> 39
 5.314128e+00 -5.423106e+00 -6.358444e+00 -5.766870e+00 1.863983e+00 1.657572e+00 -4.187169e+00 -9.219607e+00 -5.188497e+00 1.764655e+00 -5.018340e+00 -6.865832e+00 6.215796e+01 -1.105043e-01 2.546273e+00 1.585170e+00 3.118888e+00 7.165750e-01 -1.768429e-01 -7.062931e-01 -1.636755e+00 -2.188792e+00 -1.097099e+00 -8.802535e-02 6.067376e-01 -2.066142e+00 -1.692929e-01 -3.446373e-01 5.384256e-02 1.353962e-02 1.507422e-01 -1.015044e-01 3.654962e-03 -9.839480e-02 -1.109156e-01 1.089193e-01 -7.271591e-02 5.234692e-02 2.789310e-01
<VARIANCE> 39
 1.553248e+01 6.926408e+01 3.799140e+01 5.724851e+01 9.799294e+01 6.509474e+01 5.150809e+01 3.720003e+01 7.281535e+01 4.375480e+01 5.551099e+01 5.778478e+01 4.026720e+01 5.761696e-01 2.521077e+00 2.064736e+00 3.667159e+00 3.367707e+00 3.066851e+00 4.432383e+00 3.246008e+00 3.137432e+00 3.377342e+00 2.872974e+00 3.718082e+00 1.634639e+00 8.124678e-02 3.361821e-01 2.567999e-01 6.737260e-01 4.469694e-01 3.600306e-01 4.009427e-01 5.972822e-01 7.175228e-01 4.909784e-01 4.442478e-01 3.625052e-01 2.274672e-01
<GCONST> 1.221554e+02
<STATE> 3
<MEAN> 39
 4.434945e+00 -3.563581e+00 -1.952484e+00 8.602402e-01 1.663603e+00 -1.023430e+00 -4.727854e+00 -1.328209e+01 -1.176860e+01 4.663040e-02 -4.103417e+00 -5.462543e+00 6.101179e+01 -1.202509e-01 2.502631e-01 3.440323e-01 6.337570e-01 1.349453e-02 2.139209e-02 -2.615208e-01 -2.700835e-01 -4.398405e-01 -2.595149e-01 3.154970e-01 7.319306e-01 -3.070690e-01 7.454073e-02 -5.440554e-01 -6.137295e-01 -8.376063e-01 -3.197143e-01 2.940165e-01 1.011374e-01 5.816203e-01 8.131736e-01 1.932131e-01 1.653078e-01 -8.252056e-02 4.008747e-01
<VARIANCE> 39
 1.595233e+01 5.726544e+01 3.225457e+01 2.570574e+01 9.715008e+01 7.273255e+01 3.304636e+01 3.125238e+01 6.290052e+01 3.233257e+01 4.903032e+01 6.561324e+01 2.752178e+01 4.753785e-01 1.262031e+00 1.994535e+00 2.517578e+00 2.068138e+00 1.582009e+00 1.812042e+00 2.141137e+00 2.827182e+00 1.666194e+00 1.991218e+00 1.863182e+00 7.602743e-01 9.048128e-02 2.506996e-01 3.777791e-01 4.549385e-01 3.867844e-01 4.637346e-01 3.862028e-01 4.645974e-01 5.188537e-01 4.850897e-01 3.977851e-01 4.543579e-01 1.663209e-01
<GCONST> 1.123899e+02
<STATE> 4
<MEAN> 39
 -4.442519e-01 5.907305e+00 -2.041686e+00 6.104507e+00 4.559987e+00 4.307458e+00 -7.064160e+00 -9.886019e+00 -6.881793e+00 -1.609392e+00 -3.682654e+00 -8.572101e-01 4.830919e+01 -3.765260e-01 -6.437309e-01 -1.083980e+00 -1.059942e+00 -5.649062e-01 3.683795e-01 3.426257e-01 1.460002e+00 1.280380e+00 -2.888129e-01 4.921305e-01 -2.896314e-01 -5.666996e-02 -6.520059e-02 -4.769213e-01 -1.842438e-01 -3.725321e-01 1.392469e-01 7.112756e-02 5.716502e-02 2.853588e-01 3.598225e-01 2.647604e-02 -1.137652e-01 -1.940487e-01 2.930358e-01
<VARIANCE> 39
 8.546303e+01 1.335267e+02 5.256789e+01 1.143529e+02 1.195880e+02 7.278193e+01 4.983886e+01 6.679946e+01 7.179068e+01 3.852592e+01 5.504942e+01 4.923698e+01 1.921947e+02 2.263958e+00 3.649154e+00 4.265554e+00 5.847837e+00 3.381797e+00 4.457945e+00 2.931871e+00 5.009708e+00 4.451361e+00 3.404961e+00 2.354722e+00 2.463452e+00 3.240983e+00 2.313339e-01 3.317965e-01 4.817206e-01 5.264696e-01 4.743150e-01 6.063675e-01 4.935364e-01 7.186875e-01 6.874350e-01 3.884996e-01 4.577321e-01 4.652762e-01 1.852908e-01
<GCONST> 1.335978e+02
<TRANSP> 5
 0.000000e+00 1.000000e+00 0.000000e+00 0.000000e+00 0.000000e+00
 0.000000e+00 5.111351e-01 4.888649e-01 0.000000e+00 0.000000e+00
 0.000000e+00 0.000000e+00 6.680248e-01 3.319751e-01 0.000000e+00
 0.000000e+00 0.000000e+00 0.000000e+00 5.910477e-01 4.089523e-01
 0.000000e+00 0.000000e+00 0.000000e+00 0.000000e+00 0.000000e+00
<ENDHMM>
~h "n"
<BEGINHMM>
<NUMSTATES> 5
<STATE> 2
<MEAN> 39
 2.740442e+00 6.221790e+00 1.032280e+00 4.279248e+00 -1.839661e-01 -1.450607e+00 -1.008455e+01 -9.737435e+00 -4.699553e+00 2.849595e-01 -7.655104e+00 -3.829178e+00 5.294110e+01 -6.150894e-01 1.128337e+00 1.465191e-01 7.923263e-01 -1.925419e-01 1.781127e-01 2.364295e-01 -1.454884e-01 1.363006e-02 -3.800128e-01 2.145455e-01 2.393518e-02 -1.282598e+00 -1.511862e-01 -2.380644e-01 -1.447639e-01 -2.873082e-01 9.195238e-02 1.181596e-01 5.289230e-02 2.840507e-01 1.023474e-01 -1.988379e-02 1.428783e-01 3.407613e-02 9.033763e-02
<VARIANCE> 39
 5.216985e+01 1.276601e+02 3.107115e+01 8.291988e+01 7.650301e+01 9.851749e+01 5.851791e+01 8.245342e+01 5.034453e+01 5.845237e+01 5.902617e+01 5.620434e+01 1.389913e+02 9.506699e-01 2.050607e+00 1.359433e+00 2.190773e+00 2.512278e+00 2.792159e+00 2.533363e+00 2.566639e+00 2.625756e+00 2.214277e+00 2.792760e+00 1.565706e+00 6.456481e-01 7.579216e-02 1.620053e-01 1.939189e-01 3.278727e-01 3.252538e-01 3.651137e-01 3.778290e-01 3.805514e-01 4.002681e-01 3.659512e-01 4.030375e-01 2.455921e-01 9.397294e-02
<GCONST> 1.173261e+02
<STATE> 3
<MEAN> 39
 -3.598592e+00 3.272913e+00 -7.389126e-01 2.963477e+00 -1.080894e+00 -1.359103e+00 -6.029684e+00 -6.934054e+00 -2.172058e+00 -2.121372e+00 -4.344291e+00 -5.642613e+00 5.157395e+01 -1.106680e+00 1.225791e-01 -3.006378e-01 -1.048629e-01 5.865337e-01 8.837502e-01 8.211005e-01 1.077222e+00 3.189816e-01 -3.093526e-01 8.283138e-01 6.297872e-01 -9.621586e-01 6.779369e-02 -5.798167e-01 1.610264e-02 -2.077281e-01 -2.842488e-01 -7.333203e-02 -6.680850e-02 -9.447070e-02 6.680187e-02 2.472430e-01 1.856836e-01 8.972391e-02 4.667749e-01
<VARIANCE> 39
 7.298864e+01 5.463671e+01 2.674348e+01 2.779456e+01 2.859021e+01 5.930529e+01 3.425397e+01 4.584051e+01 3.165810e+01 3.139355e+01 3.489159e+01 2.559087e+01 1.402302e+02 8.837715e-01 1.634704e+00 9.192873e-01 1.207660e+00 2.448328e+00 2.122029e+00 1.781387e+00 2.308906e+00 1.938894e+00 2.317454e+00 1.677192e+00 1.332562e+00 5.606182e-01 1.860639e-01 4.064756e-01 2.526314e-01 4.003856e-01 5.177754e-01 4.150238e-01 5.279408e-01 5.924399e-01 4.481888e-01 4.613037e-01 5.387892e-01 3.088042e-01 1.820825e-01
<GCONST> 1.126299e+02
<STATE> 4
<MEAN> 39
 -4.298827e+00 5.032457e+00 -9.759943e-01 3.815086e+00 -1.220286e+00 1.841416e+00 -7.398715e+00 -6.058410e+00 -3.190823e+00 -2.378576e+00 -3.640970e+00 -3.592689e+00 4.756324e+01 -8.859615e-01 -9.797288e-01 -1.168311e-01 -2.191680e-01 3.354450e-02 2.090663e-01 4.218013e-01 3.812388e-01 3.445054e-01 -1.983534e-01 7.169502e-01 6.231175e-01 7.336906e-02 2.967552e-01 -8.096239e-01 9.273894e-02 -5.846861e-01 -8.719150e-02 -2.577925e-01 -1.891318e-01 -3.094686e-01 1.102337e-01 2.594504e-01 7.413148e-02 1.546661e-02 1.014235e+00
<VARIANCE> 39
 8.777571e+01 7.836769e+01 3.610482e+01 5.085309e+01 6.121150e+01 6.622957e+01 5.910276e+01 7.341895e+01 6.784578e+01 4.077491e+01 7.044823e+01 4.120297e+01 1.602794e+02 3.609248e+00 5.060322e+00 2.974427e+00 4.185549e+00 5.679254e+00 4.683679e+00 3.932405e+00 5.226714e+00 4.754779e+00 3.731725e+00 3.684773e+00 1.917333e+00 2.613819e+00 6.541030e-01 1.276664e+00 5.768493e-01 1.008976e+00 1.354339e+00 1.035451e+00 1.251128e+00 1.221610e+00 1.274115e+00 7.024916e-01 7.630078e-01 4.949404e-01 9.325875e-01
<GCONST> 1.420963e+02
<TRANSP> 5
 0.000000e+00 1.000000e+00 0.000000e+00 0.000000e+00 0.000000e+00
 0.000000e+00 8.430856e-01 1.569144e-01 0.000000e+00 0.000000e+00
 0.000000e+00 0.000000e+00 4.834049e-01 5.165951e-01 0.000000e+00
 0.000000e+00 0.000000e+00 0.000000e+00 2.306886e-01 7.693114e-01
 0.000000e+00 0.000000e+00 0.000000e+00 0.000000e+00 0.000000e+00
<ENDHMM>
~h "p"
<BEGINHMM>
<NUMSTATES> 5
<STATE> 2
<MEAN> 39
 -7.583249e+00 1.876260e+00 -6.146513e+00 1.383891e+00 9.282704e-02 2.555490e+00 -4.291150e+00 -2.797209e+00 -1.261033e-02 -1.374344e+00 -2.992173e+00 -4.992913e+00 4.602407e+01 -7.582765e-01 5.250262e-01 1.947729e-01 4.132070e-01 -7.654113e-02 1.343678e-01 2.298876e-01 4.514334e-01 2.014982e-01 -3.202454e-01 4.163143e-01 2.954739e-01 -9.219126e-01 4.064244e-01 -4.562286e-01 -1.482779e-01 -2.801036e-01 -9.879208e-02 -6.427348e-02 6.290206e-02 -1.294598e-01 -1.196871e-01 2.404977e-01 6.327146e-02 4.190516e-02 6.527106e-01
<VARIANCE> 39
 6.621606e+01 7.195823e+01 6.503908e+01 6.390186e+01 4.233188e+01 3.922136e+01 5.201165e+01 4.629704e+01 4.618372e+01 4.288113e+01 4.031822e+01 2.675664e+01 1.572300e+02 2.036697e+00 1.587747e+00 1.572390e+00 1.822732e+00 2.195169e+00 2.165242e+00 1.922181e+00 2.318282e+00 2.256497e+00 1.630203e+00 1.559109e+00 1.651854e+00 3.573980e+00 3.860853e-01 3.262918e-01 3.649367e-01 4.506737e-01 5.213973e-01 4.370860e-01 5.259784e-01 5.645177e-01 5.561424e-01 4.688893e-01 4.025012e-01 3.027349e-01 6.077070e-01
<GCONST> 1.215971e+02
<STATE> 3
<MEAN> 39
 -9.669050e+00 1.511361e+00 -5.651881e+00 1.408628e+00 -1.197229e+00 2.854017e+00 -2.825006e+00 -2.491622e+00 -5.752808e-01 -1.761569e+00 -1.144120e+00 -3.138292e+00 4.468218e+01 1.474843e+00 -1.014013e+00 -1.018132e+00 -5.035166e-01 -7.726356e-01 -6.632599e-01 -2.853333e-01 -4.387521e-01 -3.768697e-02 8.544478e-01 6.597311e-01 1.840751e-01 1.737288e+00 1.324799e+00 -1.129143e+00 -5.491905e-01 -8.583542e-01 -7.150809e-02 -1.216189e-01 -1.359976e-01 -4.395308e-01 -1.370273e-01 8.097145e-01 -8.052410e-02 -3.775495e-01 1.884054e+00
<VARIANCE> 39
 8.419961e+01 3.830885e+01 3.288354e+01 3.763371e+01 3.219131e+01 2.620808e+01 4.230117e+01 4.588249e+01 4.184781e+01 2.949836e+01 2.507358e+01 1.984667e+01 1.923429e+02 3.456270e+00 1.740671e+00 2.998033e+00 3.464031e+00 2.601493e+00 2.839148e+00 3.396865e+00 2.815887e+00 3.540899e+00 3.116019e+00 2.982493e+00 2.611718e+00 3.697933e+00 4.179108e-01 2.786598e-01 5.770006e-01 5.801119e-01 8.704270e-01 8.030112e-01 9.953279e-01 5.836350e-01 8.026726e-01 8.294406e-01 7.366102e-01 6.593882e-01 5.834348e-01
<GCONST> 1.281133e+02
<STATE> 4
<MEAN> 39
 -1.937699e+00 -3.998471e+00 -1.131017e+01 -2.657493e+00 -2.262538e+00 1.108496e+00 -2.295994e+00 -4.749656e+00 -1.272434e+00 2.789457e+00 -3.410184e-01 -3.633024e+00 5.290285e+01 3.740175e+00 -3.641538e+00 -7.953783e-01 -3.701299e+00 1.369265e+00 -5.408930e-01 1.083069e+00 -1.178159e+00 -2.357735e-01 2.378574e+00 -7.420920e-01 -6.560920e-01 6.566022e+00 -3.695523e-01 -2.580499e-01 4.038338e-01 -3.389843e-01 5.179216e-01 5.945415e-02 -5.327509e-02 -3.930135e-02 -2.986336e-02 5.300616e-02 -6.333562e-01 -1.880983e-01 1.437524e-01
<VARIANCE> 39
 8.618684e+01 5.822665e+01 7.469365e+01 9.782211e+01 5.795658e+01 6.510658e+01 5.282576e+01 5.932547e+01 5.725751e+01 4.831234e+01 3.990818e+01 2.898209e+01 1.882410e+02 6.004553e+00 3.935168e+00 8.475410e+00 8.402987e+00 1.230815e+01 7.097462e+00 8.472536e+00 5.373166e+00 7.638306e+00 6.479923e+00 8.268606e+00 4.627259e+00 8.826664e+00 1.604400e+00 9.158332e-01 1.106595e+00 1.818632e+00 1.481649e+00 1.304747e+00 1.133540e+00 9.128920e-01 9.430472e-01 1.028110e+00 8.349627e-01 6.046727e-01 3.184162e+00
<GCONST> 1.532586e+02
<TRANSP> 5
 0.000000e+00 1.000000e+00 0.000000e+00 0.000000e+00 0.000000e+00
 0.000000e+00 6.156465e-01 3.843535e-01 0.000000e+00 0.000000e+00
 0.000000e+00 0.000000e+00 3.801660e-01 6.198340e-01 0.000000e+00
 0.000000e+00 0.000000e+00 0.000000e+00 6.320801e-01 3.679200e-01
 0.000000e+00 0.000000e+00 0.000000e+00 0.000000e+00 0.000000e+00
<ENDHMM>
~h "r"
<BEGINHMM>
<NUMSTATES> 5
<STATE> 2
<MEAN> 39
 2.800514e+00 -1.838455e+01 -1.205995e+01 -4.856766e+00 -6.931737e-01 7.042842e-02 -4.659526e+00 -3.731996e+00 4.510467e+00 -2.148860e-01 -8.757570e+00 -9.967193e+00 7.212543e+01 1.182159e-01 4.725894e-02 1.221852e-01 5.854990e-01 -1.130727e+00 -6.085529e-01 -4.742254e-01 4.432483e-01 5.486283e-01 -7.909183e-03 1.345382e-01 -8.026280e-02 -3.489600e-01 -3.632421e-02 1.455725e-01 1.898579e-01 1.061319e-01 -1.354585e-01 1.950628e-02 -4.423353e-02 -1.370056e-01 1.871849e-02 6.393998e-03 1.523805e-01 1.652229e-01 -1.937154e-01
<VARIANCE> 39
 6.248214e+00 3.173354e+01 3.871514e+01 3.675903e+01 5.275951e+01 6.043046e+01 2.917050e+01 6.196838e+01 7.508881e+01 5.281743e+01 4.411770e+01 4.537099e+01 1.935344e+01 3.253015e-01 1.509425e+00 1.189828e+00 2.022901e+00 2.360689e+00 1.980735e+00 2.057721e+00 1.846839e+00 2.778226e+00 2.205873e+00 2.162136e+00 2.106709e+00 9.834354e-01 6.438908e-02 1.986016e-01 1.668603e-01 2.013802e-01 3.035308e-01 3.063416e-01 3.387761e-01 3.943867e-01 4.089191e-01 3.943124e-01 3.393815e-01 3.290026e-01 1.120059e-01
<GCONST> 1.066547e+02
<STATE> 3
<MEAN> 39
 3.248489e+00 -1.372430e+01 -7.864223e+00 -2.404675e+00 -5.086059e+00 -3.347824e+00 -5.476586e+00 -3.994519e+00 3.490844e+00 3.976477e+00 -7.769265e+00 -8.590638e+00 6.559483e+01 -4.724891e-01 1.067089e+00 1.090770e+00 1.150908e+00 -5.098314e-01 -2.915516e-01 -3.353748e-01 -3.250439e-01 4.790040e-02 -1.828610e-01 1.067705e+00 7.431944e-01 -1.357129e+00 -1.382862e-01 -5.243535e-02 1.800503e-01 -1.466512e-01 1.654469e-01 -1.478517e-02 1.207011e-01 1.649891e-01 -3.729915e-01 -1.705881e-01 1.774814e-01 9.419771e-02 1.528081e-01
<VARIANCE> 39
 9.050577e+00 2.470156e+01 3.541348e+01 3.770674e+01 7.013609e+01 5.082352e+01 3.927624e+01 5.179222e+01 4.987833e+01 5.310834e+01 3.245302e+01 5.378330e+01 4.065257e+01 6.980246e-01 1.569845e+00 1.791817e+00 1.776787e+00 4.073374e+00 2.766512e+00 2.425318e+00 3.505750e+00 2.962758e+00 3.429557e+00 2.900931e+00 1.997405e+00 1.030409e+00 1.149526e-01 2.735556e-01 2.965410e-01 2.765621e-01 4.421414e-01 4.501849e-01 3.943118e-01 5.974863e-01 5.477715e-01 5.943800e-01 4.495744e-01 4.572793e-01 2.398292e-01
<GCONST> 1.158974e+02
<STATE> 4
<MEAN> 39
 -3.133537e+00 -4.392281e+00 -1.483304e+00 8.398409e+00 -2.140123e-01 -1.317811e+00 -2.091709e+00 2.822248e+00 2.224981e+00 -1.543536e+00 -2.350296e+00 -2.355370e+00 5.249122e+01 -5.252501e-01 4.313080e-01 3.163548e-01 4.284451e-01 -3.305728e-01 1.981917e-01 -8.395369e-02 2.993431e-01 -4.730857e-01 -2.234474e-01 6.592867e-01 2.828337e-01 -7.740227e-01 6.052325e-02 -7.905229e-02 -1.021847e-01 -3.021764e-01 7.886102e-02 -8.667545e-02 2.116702e-02 3.988437e-03 -6.933836e-02 4.965234e-02 -2.221297e-01 -8.697477e-02 2.338700e-01
<VARIANCE> 39
 5.637894e+01 1.174821e+02 4.818303e+01 1.473803e+02 6.964231e+01 8.011114e+01 5.652246e+01 9.153152e+01 5.346930e+01 6.034310e+01 4.159914e+01 4.448864e+01 1.881307e+02 2.061815e+00 4.705251e+00 4.356807e+00 5.498102e+00 4.931682e+00 3.837407e+00 2.980209e+00 3.694536e+00 4.392299e+00 3.651719e+00 4.492197e+00 2.616755e+00 1.765876e+00 3.634983e-01 8.378737e-01 5.709499e-01 7.033550e-01 7.763479e-01 5.906920e-01 5.728831e-01 6.722482e-01 8.229036e-01 7.158216e-01 8.494073e-01 4.903499e-01 3.328492e-01
<GCONST> 1.376168e+02
<TRANSP> 5
 0.000000e+00 1.000000e+00 0.000000e+00 0.000000e+00 0.000000e+00
 0.000000e+00 6.899714e-01 3.100286e-01 0.000000e+00 0.000000e+00
 0.000000e+00 0.000000e+00 6.678177e-01 3.321823e-01 0.000000e+00
 0.000000e+00 0.000000e+00 0.000000e+00 7.337056e-01 2.662944e-01
 0.000000e+00 0.000000e+00 0.000000e+00 0.000000e+00 0.000000e+00
<ENDHMM>
~h "s"
<BEGINHMM>
<NUMSTATES> 5
<STATE> 2
<MEAN> 39
 -1.007767e+01 1.714084e+00 -4.398570e+00 -3.258158e-01 6.333825e+00 -9.525569e+00 2.699147e+00 -3.427910e+00 3.629143e+00 -5.977856e-01 -2.252098e+00 -2.309181e+00 5.899778e+01 -3.252188e+00 2.073397e+00 -8.568538e-02 3.248712e-01 1.798706e+00 -1.004344e+00 2.012476e+00 -1.464107e-01 1.039385e+00 -1.138214e+00 1.331228e+00 2.824708e-01 -4.879795e-02 -1.552638e-02 -4.628983e-01 1.427217e-01 -1.681099e-01 -3.077315e-01 2.365268e-01 -3.003068e-01 4.229943e-02 -2.671338e-01 5.062021e-02 8.980872e-02 -1.113357e-01 7.900395e-02
<VARIANCE> 39
 9.079918e+01 7.407679e+01 7.735699e+01 6.739389e+01 1.016042e+02 9.288313e+01 1.153984e+02 5.832510e+01 4.904245e+01 4.899922e+01 6.467508e+01 4.822924e+01 1.704804e+02 3.715189e+00 3.458288e+00 3.109970e+00 5.300774e+00 4.794141e+00 6.961214e+00 5.633254e+00 3.868073e+00 3.807512e+00 4.561598e+00 5.097934e+00 3.634664e+00 2.210720e+00 8.128697e-01 7.330568e-01 4.389199e-01 5.225507e-01 8.486954e-01 8.976059e-01 1.167562e+00 6.642587e-01 6.755987e-01 7.664785e-01 8.375171e-01 6.340843e-01 3.426084e-01
<GCONST> 1.416188e+02
<STATE> 3
<MEAN> 39
 -1.919176e+01 1.864327e+00 -4.363751e+00 1.240131e+00 8.504314e+00 -9.640479e+00 4.251459e+00 -3.113266e+00 5.729575e+00 -3.271981e+00 2.590802e+00 -1.975044e+00 6.043471e+01 -4.334627e-01 -5.701891e-01 -2.129903e-01 -1.919655e-01 1.335169e-01 1.872829e-01 -2.059833e-02 1.229504e-01 -2.521780e-02 -1.573517e-01 -7.040437e-02 5.661957e-02 -3.309101e-01 8.567007e-01 -4.578193e-01 -5.732478e-02 -2.529799e-01 -2.540659e-01 6.335407e-02 -3.210986e-01 -4.294212e-02 -1.390826e-01 2.159100e-01 -3.108642e-01 -1.365413e-01 2.339224e-01
<VARIANCE> 39
 4.701887e+01 4.054345e+01 3.844645e+01 1.032887e+02 8.425994e+01 7.716300e+01 7.272356e+01 5.395972e+01 4.413346e+01 5.082999e+01 2.399236e+01 3.631578e+01 5.021760e+01 3.888745e+00 1.918071e+00 1.830238e+00 2.383765e+00 2.221013e+00 2.639200e+00 2.593652e+00 2.026824e+00 2.329263e+00 2.450293e+00 2.209044e+00 1.847579e+00 1.084090e+00 4.810007e-01 4.416951e-01 3.315038e-01 4.852017e-01 4.906674e-01 5.111414e-01 6.245825e-01 4.109833e-01 5.139357e-01 5.271374e-01 4.301859e-01 4.045576e-01 3.125638e-01
<GCONST> 1.227765e+02
<STATE> 4
<MEAN> 39
 -1.746796e+01 -1.973218e+00 -3.850280e+00 -2.589233e+00 1.106159e+01 -1.233051e+01 4.136886e+00 -1.004644e+00 5.914112e+00 -5.418606e+00 -2.532581e+00 1.027966e+00 5.557001e+01 3.542977e+00 -1.783736e+00 -5.427923e-01 -1.434515e+00 -6.638522e-01 3.945530e-01 -1.444358e+00 -1.018975e-01 -3.011092e-02 7.930098e-01 -1.753673e+00 -4.455552e-01 2.048655e+00 2.745870e-01 -2.001685e-01 -1.368806e-01 -1.909967e-01 -1.300365e-01 1.373716e-01 -9.489289e-02 -1.329805e-01 -2.878116e-02 2.090164e-01 -1.840154e-01 -1.321437e-01 3.034481e-01
<VARIANCE> 39
 1.728763e+02 5.605383e+01 4.831866e+01 6.289529e+01 1.085184e+02 9.036812e+01 1.045445e+02 5.306938e+01 6.888490e+01 5.231184e+01 7.147203e+01 5.588674e+01 1.309530e+02 1.221617e+01 5.976830e+00 3.947145e+00 6.266545e+00 5.306797e+00 5.492630e+00 7.077641e+00 4.503528e+00 4.696218e+00 4.865111e+00 6.233928e+00 3.950207e+00 9.469425e+00 2.100222e+00 8.095491e-01 5.948198e-01 8.761674e-01 7.016568e-01 8.640428e-01 1.040467e+00 7.495188e-01 7.273664e-01 7.380341e-01 1.044316e+00 5.754073e-01 9.652563e-01
<GCONST> 1.489215e+02
<TRANSP> 5
 0.000000e+00 1.000000e+00 0.000000e+00 0.000000e+00 0.000000e+00
 0.000000e+00 5.866148e-01 4.133852e-01 0.000000e+00 0.000000e+00
 0.000000e+00 0.000000e+00 7.836991e-01 2.163009e-01 0.000000e+00
 0.000000e+00 0.000000e+00 0.000000e+00 6.816933e-01 3.183068e-01
 0.000000e+00 0.000000e+00 0.000000e+00 0.000000e+00 0.000000e+00
<ENDHMM>
~h "t"
<BEGINHMM>
<NUMSTATES> 5
<STATE> 2
<MEAN> 39
 -8.928927e+00 9.889577e-02 -5.651946e+00 2.159382e+00 -1.137195e+00 9.595065e-01 -4.442565e+00 -2.096954e+00 6.816722e-01 -9.074870e-01 -2.075162e+00 -2.087423e+00 4.542300e+01 3.382114e-01 -1.986042e+00 3.619288e-01 -8.065233e-01 -9.957855e-01 -1.161754e-01 -3.723253e-01 -8.648739e-01 1.959037e-01 9.761677e-02 1.014351e+00 1.358680e-01 1.916958e+00 6.941155e-01 -4.021989e-01 6.395458e-02 -8.116365e-01 -3.125515e-02 -2.083492e-01 -4.664036e-01 -5.879391e-01 -1.756724e-01 1.940464e-01 1.605387e-01 -1.292917e-01 1.220729e+00
<VARIANCE> 39
 6.396531e+01 5.788684e+01 4.852604e+01 5.734307e+01 4.787384e+01 6.211637e+01 6.549165e+01 4.586876e+01 5.103470e+01 4.230246e+01 4.082670e+01 2.450528e+01 1.528852e+02 5.166241e+00 1.193735e+01 4.815040e+00 7.641784e+00 5.876015e+00 6.886830e+00 8.734794e+00 5.236196e+00 7.703274e+00 5.098110e+00 4.096902e+00 3.600684e+00 1.218043e+01 4.765574e-01 1.031088e+00 8.669074e-01 1.209778e+00 9.888129e-01 9.618734e-01 1.452828e+00 7.081705e-01 9.381536e-01 8.758134e-01 6.644565e-01 6.386881e-01 1.077583e+00
<GCONST> 1.458945e+02
<STATE> 3
<MEAN> 39
 -3.523477e+00 -9.294575e+00 -3.464402e+00 -5.038245e+00 -3.471184e+00 2.244428e-01 -6.883066e+00 -9.547937e+00 1.771359e+00 -2.374901e-01 1.261003e+00 -2.658772e+00 5.998357e+01 2.357157e+00 -1.444636e+00 6.089218e-01 -3.528499e+00 -4.940239e-01 -8.885427e-01 -1.685434e+00 -2.277415e+00 -9.461472e-01 8.595731e-01 7.612523e-01 -4.030340e-02 4.706998e+00 1.884460e-01 1.093333e+00 -1.257731e-01 -2.942795e-01 1.395373e-01 2.650066e-01 -3.005077e-02 1.536703e-01 -6.398910e-01 1.104391e-01 -2.319223e-01 7.369997e-02 -5.007190e-01
<VARIANCE> 39
 4.362561e+01 7.585352e+01 1.203606e+02 1.225936e+02 7.727136e+01 1.262489e+02 1.243710e+02 8.789177e+01 1.045051e+02 8.473227e+01 5.412426e+01 4.666094e+01 1.079401e+02 4.415057e+00 7.581341e+00 1.031385e+01 1.212824e+01 9.378199e+00 7.003430e+00 1.254953e+01 6.054304e+00 7.897439e+00 7.403362e+00 7.188454e+00 6.060514e+00 1.179977e+01 7.518606e-01 2.050490e+00 1.486621e+00 1.329350e+00 1.056098e+00 1.489535e+00 1.798740e+00 1.232773e+00 1.660629e+00 1.195226e+00 1.232001e+00 1.027455e+00 1.529422e+00
<GCONST> 1.603459e+02
<STATE> 4
<MEAN> 39
 3.015209e+00 -1.916174e+00 -2.035995e+00 -1.585549e+01 -1.240710e+00 2.562081e+00 -1.154600e+01 -1.179923e+01 -5.520959e+00 2.026780e+00 -9.177064e-01 -1.618481e-01 6.271369e+01 6.415334e-01 1.067191e+00 -3.474307e-01 -8.685783e-01 -7.143675e-01 3.547265e-01 -1.225985e-01 -5.485344e-02 -1.057970e+00 -9.308313e-02 1.064282e-01 -1.102622e-01 -7.755703e-02 -3.660168e-01 1.876270e-01 -6.235616e-02 7.077795e-01 -1.354180e-01 2.297515e-01 3.059088e-01 3.274690e-01 2.728846e-01 -3.589653e-01 -3.913875e-02 -1.227397e-01 -7.455564e-01
<VARIANCE> 39
 4.014040e+01 8.918638e+01 5.378573e+01 1.986448e+02 8.153732e+01 6.786803e+01 7.949110e+01 6.829021e+01 7.936998e+01 6.997665e+01 9.465211e+01 7.200085e+01 1.133497e+02 2.766472e+00 6.779383e+00 5.352334e+00 1.341051e+01 4.993717e+00 4.368680e+00 7.261999e+00 4.877845e+00 6.254770e+00 5.092927e+00 7.885637e+00 5.340689e+00 9.564183e+00 3.698305e-01 8.733946e-01 4.894463e-01 1.451536e+00 7.712297e-01 6.924755e-01 1.430771e+00 9.171488e-01 8.979914e-01 1.070792e+00 1.092555e+00 9.036479e-01 1.293564e+00
<GCONST> 1.502272e+02
<TRANSP> 5
 0.000000e+00 1.000000e+00 0.000000e+00 0.000000e+00 0.000000e+00
 0.000000e+00 5.313441e-01 4.686559e-01 0.000000e+00 0.000000e+00
 0.000000e+00 0.000000e+00 4.110252e-01 5.889748e-01 0.000000e+00
 0.000000e+00 0.000000e+00 0.000000e+00 5.938887e-01 4.061113e-01
 0.000000e+00 0.000000e+00 0.000000e+00 0.000000e+00 0.000000e+00
<ENDHMM>
~h "w"
<BEGINHMM>
<NUMSTATES> 5
<STATE> 2
<MEAN> 39
 -1.869259e+01 -2.888396e+00 1.025502e+00 -5.550368e+00 1.282090e+01 -4.271000e+00 -4.010387e+00 -2.922091e+00 5.742373e+00 -4.242296e+00 1.964728e+00 -6.900150e+00 6.276969e+01 1.953714e+00 -3.321296e-01 5.599908e-01 1.399231e-01 -1.477700e+00 -7.154704e-01 -1.459625e+00 -1.038561e+00 -4.433066e-01 3.526073e-01 5.731306e-03 2.280222e-02 3.986073e-01 4.663881e-01 -1.863964e-01 5.012216e-02 8.024513e-02 -3.622404e-01 -1.579297e-01 -7.372361e-02 -1.157150e-01 -2.680839e-01 1.352312e-01 -1.001536e-02 1.681625e-01 1.554712e-01
<VARIANCE> 39
 8.690565e+01 2.159984e+01 3.405610e+01 6.398032e+01 8.197359e+01 5.805096e+01 4.454730e+01 6.333968e+01 2.798408e+01 3.122582e+01 2.110955e+01 1.267455e+01 9.241397e+00 1.076175e+01 2.212885e+00 2.465687e+00 2.280576e+00 6.898392e+00 3.641607e+00 4.379136e+00 3.995158e+00 5.142457e+00 1.920406e+00 2.618609e+00 2.344112e+00 9.868920e-01 1.242312e+00 4.291678e-01 3.946044e-01 4.460679e-01 7.342400e-01 6.239380e-01 8.490852e-01 8.526747e-01 7.343338e-01 3.421029e-01 5.199075e-01 3.054224e-01 1.509260e-01
<GCONST> 1.243920e+02
<STATE> 3
<MEAN> 39
 1.541510e+00 -1.097906e+01 5.213446e+00 -2.102372e+00 -7.709168e+00 -1.377319e+01 -1.369547e+01 -6.037315e+00 -6.971488e+00 -5.335915e-02 6.429982e+00 -6.352485e+00 7.022641e+01 1.247653e-01 -7.158408e-01 1.183090e+00 4.665102e-01 -1.546704e+00 -1.287602e+00 4.028437e-01 1.188492e+00 -1.359491e+00 -1.007662e-01 2.719848e-01 -3.669598e-02 3.300091e-01 -6.115864e-01 3.168858e-01 2.376643e-02 2.583785e-02 2.918681e-01 2.277975e-01 4.094225e-01 2.720675e-01 2.129832e-01 -2.457035e-01 -6.913832e-02 4.789358e-02 -2.921202e-01
<VARIANCE> 39
 1.055960e+01 2.904960e+01 2.960802e+01 1.816803e+01 1.936023e+01 5.541128e+01 4.193202e+01 4.856215e+01 6.133228e+01 3.877952e+01 3.602742e+01 4.456997e+01 4.898540e+00 3.020132e+00 2.239261e+00 1.199643e+00 1.352844e+00 2.551442e+00 3.822280e+00 2.883837e+00 4.346301e+00 3.619869e+00 2.335501e+00 2.657102e+00 2.678082e+00 1.207040e+00 6.483013e-01 1.796254e-01 2.611941e-01 3.015377e-01 5.736787e-01 8.580362e-01 6.785503e-01 1.029725e+00 5.638834e-01 4.056852e-01 4.488840e-01 5.406104e-01 9.517810e-02
<GCONST> 1.155171e+02
<STATE> 4
<MEAN> 39
 -4.665360e+00 -4.117849e+00 4.050602e+00 1.645212e+00 -3.727794e+00 -6.239215e+00 -6.142420e+00 -5.286301e+00 -6.965226e+00 -4.990994e+00 4.088978e-01 2.141002e+00 5.652493e+01 -3.225256e-01 2.759984e-01 -3.537010e-01 2.833981e-01 1.463048e-01 9.208180e-01 4.258923e-01 1.592584e-02 7.701481e-03 -6.393624e-02 -3.223256e-01 2.165914e-01 -7.759488e-01 8.903297e-04 -2.458630e-02 -1.997568e-02 -5.955031e-02 -3.806418e-03 -2.426645e-02 -1.508678e-02 -5.392274e-02 -1.637400e-05 3.495147e-02 1.758777e-02 -4.684292e-02 3.014017e-02
<VARIANCE> 39
 2.061296e+01 1.491843e+01 2.145638e+01 1.936060e+01 4.116442e+01 7.896084e+01 3.073212e+01 4.004294e+01 1.900112e+01 2.412710e+01 3.841631e+01 2.412963e+01 4.263856e+01 2.350389e-01 9.140390e-01 1.068297e+00 9.987644e-01 2.364584e+00 1.694047e+00 2.138574e+00 2.496916e+00 2.224047e+00 2.174700e+00 2.065684e+00 1.450501e+00 5.581835e-01 6.642823e-02 1.294701e-01 1.401946e-01 2.203941e-01 3.272828e-01 2.926859e-01 3.745798e-01 4.993072e-01 2.311611e-01 3.760706e-01 4.689039e-01 2.101397e-01 4.354271e-02
<GCONST> 9.888065e+01
<TRANSP> 5
 0.000000e+00 1.000000e+00 0.000000e+00 0.000000e+00 0.000000e+00
 0.000000e+00 8.884189e-01 1.115810e-01 0.000000e+00 0.000000e+00
 0.000000e+00 0.000000e+00 8.454138e-01 1.545862e-01 0.000000e+00
 0.000000e+00 0.000000e+00 0.000000e+00 8.717930e-01 1.282070e-01
 0.000000e+00 0.000000e+00 0.000000e+00 0.000000e+00 0.000000e+00
<ENDHMM>
~h "ah"
<BEGINHMM>
<NUMSTATES> 5
<STATE> 2
<MEAN> 39
 4.639496e+00 -1.552472e+01 -1.105749e+01 -1.063220e+01 1.806830e+00 -1.317731e+00 -2.847775e+00 -5.222738e+00 -1.427017e-02 4.607223e+00 -6.417650e+00 -7.969486e+00 7.057189e+01 3.731170e-01 -1.997472e+00 -4.215388e-01 -8.371493e-01 5.439083e-01 5.518842e-01 2.849904e-01 4.616194e-01 5.450770e-01 2.825634e-01 -1.235785e+00 -7.780675e-01 1.580311e+00 -5.184826e-01 4.523056e-01 3.533890e-01 5.826429e-01 1.448967e-01 -5.449362e-02 9.385867e-02 -4.033592e-02 -5.368214e-02 -3.071813e-01 4.453470e-02 2.160521e-01 -5.542223e-01
<VARIANCE> 39
 1.443263e+01 3.684782e+01 4.064938e+01 5.377970e+01 1.261685e+02 1.006779e+02 7.057381e+01 7.225310e+01 1.052126e+02 7.217038e+01 8.586391e+01 6.166861e+01 2.635411e+01 1.904885e+00 2.792754e+00 3.461776e+00 3.025118e+00 3.594844e+00 4.363914e+00 3.176207e+00 3.771695e+00 5.122491e+00 3.167094e+00 3.762367e+00 3.004753e+00 1.665712e+00 3.202610e-01 3.867062e-01 4.776364e-01 5.847713e-01 6.930132e-01 6.628148e-01 7.079877e-01 7.232196e-01 7.436512e-01 5.815176e-01 7.885816e-01 5.317930e-01 3.519397e-01
<GCONST> 1.318261e+02
<STATE> 3
<MEAN> 39
 3.371811e+00 -2.079457e+01 -1.042335e+01 -9.678402e+00 -4.720776e-02 4.055957e-01 -1.871447e+00 -4.777445e+00 1.640213e+00 3.524192e+00 -7.328107e+00 -1.053399e+01 7.421046e+01 -1.972523e-02 6.472756e-02 9.485748e-02 6.854983e-02 6.092207e-02 -4.344563e-02 4.384417e-02 5.693716e-02 3.057401e-02 -1.150471e-01 -2.503880e-01 7.676950e-02 -1.415842e-01 1.085415e-02 3.511662e-01 8.436014e-02 1.156757e-01 -9.817725e-02 -1.245474e-01 -1.061037e-01 -3.056364e-02 6.323027e-04 -6.564248e-04 1.293809e-01 1.141618e-01 -2.846797e-01
<VARIANCE> 39
 7.112939e+00 2.522102e+01 3.148981e+01 3.265945e+01 7.558239e+01 6.969990e+01 4.938538e+01 5.710526e+01 1.083536e+02 4.810632e+01 7.762325e+01 5.567399e+01 1.324102e+01 2.067193e-01 8.338414e-01 7.453417e-01 9.508197e-01 1.359984e+00 1.851127e+00 1.542219e+00 1.718801e+00 1.693695e+00 1.450480e+00 1.685029e+00 1.373258e+00 4.380749e-01 4.473755e-02 1.255303e-01 1.218003e-01 1.791517e-01 2.243886e-01 2.418304e-01 2.582808e-01 3.065832e-01 3.293324e-01 2.532699e-01 3.068041e-01 2.305657e-01 7.074098e-02
<GCONST> 9.829978e+01
<STATE> 4
<MEAN> 39
 2.115544e+00 -1.262573e+01 -7.693159e+00 -7.224494e+00 5.415446e+00 -3.172743e+00 -1.035462e+00 -3.299812e+00 2.831165e+00 2.747268e+00 -1.132601e+01 -5.321006e+00 6.625282e+01 -2.887372e-01 1.529305e+00 3.643361e-01 9.928606e-01 -2.900454e-01 -2.057853e-02 -3.349717e-01 -1.252708e-02 -8.663056e-02 -3.985601e-01 3.747568e-01 3.057741e-01 -1.609097e+00 -5.970210e-02 1.008135e-01 3.235786e-02 1.401046e-01 -1.139435e-01 8.192244e-02 -6.013024e-02 -8.775438e-02 -1.359861e-01 -8.866727e-02 1.786731e-01 1.762142e-03 -1.032908e-01
<VARIANCE> 39
 1.764274e+01 3.762932e+01 3.478688e+01 5.594536e+01 9.977452e+01 7.025694e+01 6.824360e+01 5.516103e+01 6.501178e+01 5.995128e+01 7.735121e+01 6.679744e+01 4.787557e+01 7.866700e-01 2.250339e+00 1.682873e+00 2.744641e+00 3.023172e+00 2.998215e+00 3.150521e+00 3.136923e+00 3.374113e+00 2.610616e+00 2.835377e+00 2.272559e+00 2.338395e+00 1.165217e-01 3.216461e-01 2.315456e-01 4.829857e-01 4.823258e-01 4.534235e-01 4.521932e-01 5.506818e-01 5.266771e-01 5.092069e-01 4.582321e-01 3.923947e-01 3.062420e-01
<GCONST> 1.224084e+02
<TRANSP> 5
 0.000000e+00 1.000000e+00 0.000000e+00 0.000000e+00 0.000000e+00
 0.000000e+00 5.484933e-01 4.515067e-01 0.000000e+00 0.000000e+00
 0.000000e+00 0.000000e+00 8.054475e-01 1.945525e-01 0.000000e+00
 0.000000e+00 0.000000e+00 0.000000e+00 7.104681e-01 2.895319e-01
 0.000000e+00 0.000000e+00 0.000000e+00 0.000000e+00 0.000000e+00
<ENDHMM>
~h "ax"
<BEGINHMM>
<NUMSTATES> 5
<STATE> 2
<MEAN> 39
 3.561717e+00 -5.791220e+00 -6.132532e+00 -7.777472e+00 1.174142e+00 -3.579229e+00 -8.585844e+00 -9.781527e+00 -6.956314e-01 5.139221e+00 -2.304662e+00 -2.298605e+00 6.448397e+01 2.522557e+00 -2.497663e+00 -1.903199e-01 -2.380455e+00 1.797611e-01 -5.993674e-01 -1.733452e+00 -8.232380e-01 2.266574e-02 2.507408e+00 -8.613106e-01 -6.585010e-01 3.527667e+00 -8.447379e-01 2.769824e-01 1.720702e-01 4.630827e-01 8.531869e-03 2.432235e-01 3.386360e-01 4.555366e-01 5.360381e-02 -5.298769e-01 -8.963889e-02 -1.893435e-01 -7.388327e-01
<VARIANCE> 39
 1.540779e+01 5.467186e+01 5.170649e+01 6.922953e+01 1.560535e+02 1.356342e+02 5.614641e+01 1.151474e+02 1.269695e+02 6.597776e+01 1.089285e+02 6.452603e+01 3.929228e+01 3.380491e+00 2.943676e+00 4.584907e+00 4.996956e+00 1.281485e+01 8.303103e+00 8.435454e+00 7.426330e+00 7.620200e+00 5.895410e+00 6.571849e+00 6.434261e+00 6.970768e+00 7.479290e-01 6.660516e-01 6.830145e-01 6.589052e-01 1.308291e+00 1.013623e+00 7.047313e-01 1.222831e+00 7.098484e-01 6.339594e-01 1.120331e+00 7.146863e-01 1.108877e+00
<GCONST> 1.483388e+02
<STATE> 3
<MEAN> 39
 4.626987e+00 -1.278961e+01 -7.389352e+00 -1.123834e+01 -1.981356e+00 -2.275276e+00 -1.079791e+01 -9.008748e+00 1.833506e+00 8.616858e+00 -1.122233e+00 -6.763561e+00 6.943810e+01 4.956930e-01 -1.430429e+00 4.330193e-01 -3.989775e-01 7.229794e-02 -2.793377e-01 -5.930889e-01 6.172972e-01 4.291400e-01 5.842189e-01 -1.233350e+00 -9.475852e-01 1.465104e+00 -8.861899e-01 1.003840e+00 2.611126e-01 1.029938e+00 2.890474e-01 -4.393321e-02 7.531044e-01 2.575989e-01 -9.531871e-02 -1.047238e+00 -1.208218e-01 2.927550e-01 -1.096680e+00
<VARIANCE> 39
 1.387482e+01 4.529032e+01 4.208990e+01 6.020226e+01 1.271674e+02 1.205575e+02 6.183237e+01 9.175249e+01 1.613024e+02 8.663786e+01 8.724390e+01 6.903884e+01 2.251908e+01 1.452749e+00 2.546485e+00 2.678989e+00 3.236593e+00 4.173329e+00 4.765680e+00 4.286821e+00 3.522729e+00 4.548870e+00 4.344528e+00 2.635363e+00 3.263294e+00 2.111318e+00 5.285887e-01 5.090777e-01 5.975953e-01 6.030257e-01 1.350052e+00 8.113050e-01 9.435378e-01 9.387472e-01 1.133162e+00 8.199812e-01 1.187438e+00 8.336492e-01 6.462411e-01
<GCONST> 1.377739e+02
<STATE> 4
<MEAN> 39
 3.735084e+00 -1.058717e+01 -4.362552e+00 -8.468404e+00 1.801056e+00 -6.303236e+00 -9.616139e+00 -5.706367e+00 2.088904e+00 6.598160e+00 -6.097356e+00 -5.102488e+00 6.907717e+01 -1.176879e+00 1.732889e+00 7.332683e-02 1.494763e+00 7.959967e-01 -3.384903e-01 1.142555e+00 -3.214220e-01 2.237278e-01 -1.277700e+00 -1.384616e-01 1.527071e-01 -9.195243e-01 -7.206354e-01 9.776458e-01 -6.654195e-02 5.929406e-01 -5.953839e-02 2.775253e-01 6.771735e-01 -3.484848e-01 -2.840290e-02 -5.060447e-01 6.893595e-01 1.276358e-01 -7.653114e-01
<VARIANCE> 39
 1.039603e+01 5.031770e+01 4.732126e+01 6.111463e+01 1.504651e+02 1.172786e+02 4.597540e+01 7.566832e+01 1.395297e+02 8.724755e+01 7.165733e+01 6.846329e+01 2.312853e+01 2.942828e+00 3.881858e+00 2.192776e+00 2.643434e+00 3.582075e+00 4.297905e+00 4.093233e+00 3.272662e+00 4.547729e+00 3.646909e+00 4.693430e+00 2.641797e+00 1.067612e+00 4.854449e-01 5.494872e-01 4.661264e-01 8.558827e-01 9.483607e-01 6.397355e-01 9.914222e-01 4.662228e-01 7.008190e-01 9.539863e-01 7.790790e-01 6.867780e-01 5.155894e-01
<GCONST> 1.345970e+02
<TRANSP> 5
 0.000000e+00 1.000000e+00 0.000000e+00 0.000000e+00 0.000000e+00
 0.000000e+00 1.179319e-01 8.820681e-01 0.000000e+00 0.000000e+00
 0.000000e+00 0.000000e+00 4.369724e-01 5.630276e-01 0.000000e+00
 0.000000e+00 0.000000e+00 0.000000e+00 4.383230e-01 5.616770e-01
 0.000000e+00 0.000000e+00 0.000000e+00 0.000000e+00 0.000000e+00
<ENDHMM>
~h "ay"
<BEGINHMM>
<NUMSTATES> 5
<STATE> 2
<MEAN> 39
 -1.070804e+01 9.119734e-01 -3.896187e+00 5.378685e+00 6.251204e+00 -6.438937e+00 4.846338e+00 -2.329802e-01 3.988155e+00 -1.601498e+00 -1.484327e+00 -8.576592e-01 6.158756e+01 -4.653795e-01 -3.562757e-01 -6.868817e-02 -3.352990e-02 3.866163e-02 -3.435348e-02 6.260011e-01 -1.289054e-01 2.439909e-01 1.884788e-01 2.861772e-01 -3.597350e-01 8.980446e-01 7.189228e-02 -1.640260e-01 -2.151306e-02 -2.656083e-03 -2.473493e-01 1.450963e-01 -1.511276e-01 5.453752e-02 3.665029e-02 6.472165e-02 1.030903e-01 -4.658392e-02 -3.252238e-01
<VARIANCE> 39
 6.178039e+01 6.588631e+01 2.597231e+01 1.183006e+02 4.636737e+01 2.830890e+01 4.213092e+01 3.158158e+01 3.923744e+01 2.779149e+01 4.340989e+01 2.577234e+01 4.691181e+01 3.643856e+00 2.777606e+00 2.403963e+00 2.957250e+00 2.717202e+00 2.670251e+00 2.822143e+00 1.995272e+00 2.069488e+00 1.972749e+00 1.698886e+00 1.792196e+00 2.966594e+00 1.199879e+00 6.152417e-01 4.590053e-01 7.442018e-01 6.098170e-01 6.490549e-01 5.846769e-01 5.000764e-01 4.339169e-01 4.668165e-01 5.764371e-01 3.511543e-01 1.105878e+00
<GCONST> 1.252207e+02
<STATE> 3
<MEAN> 39
 -1.037100e+01 -4.594327e+00 -5.671139e+00 -7.755319e+00 5.033678e+00 -3.357038e+00 1.456056e+00 -5.317323e+00 -1.254887e+00 2.725369e+00 -2.852326e+00 -8.872753e+00 6.009855e+01 3.264156e+00 -2.649682e+00 -1.422138e+00 -1.733810e+00 -1.622284e+00 1.003205e+00 1.948563e-02 -6.647958e-01 -4.589078e-01 1.689101e+00 -5.383576e-01 -9.745905e-01 2.046776e+00 2.161183e-01 -1.345015e-01 -3.308631e-01 3.294308e-01 -2.185481e-01 8.823287e-02 5.049728e-02 7.832386e-02 -2.992692e-01 1.343135e-01 -2.206327e-01 7.165917e-02 -1.035601e-01
<VARIANCE> 39
 1.427146e+02 7.144781e+01 7.089234e+01 1.267065e+02 7.298685e+01 6.053128e+01 4.786087e+01 8.362663e+01 1.057155e+02 8.300516e+01 5.866785e+01 7.335065e+01 9.259048e+01 8.756675e+00 2.159421e+00 7.954366e+00 2.955734e+00 3.154382e+00 4.518203e+00 6.300123e+00 3.970319e+00 4.784268e+00 5.980709e+00 6.086336e+00 3.106421e+00 1.484520e+00 1.919387e+00 5.500075e-01 1.528386e+00 8.347501e-01 8.093168e-01 1.116974e+00 7.544892e-01 5.817409e-01 6.990153e-01 1.048986e+00 8.722716e-01 5.932626e-01 6.087496e-01
<GCONST> 1.452431e+02
<STATE> 4
<MEAN> 39
 1.941122e+00 -1.259938e+01 3.793195e+00 -9.316543e+00 -5.746624e+00 -1.396941e+01 2.699541e+00 1.901839e+00 -3.606791e+00 4.091211e+00 -7.394754e+00 -8.218902e-01 7.147630e+01 3.031985e-02 -2.590258e-01 4.880019e-01 6.107554e-02 -3.746219e-01 -3.305216e-01 -1.163558e-02 4.770248e-01 -1.373661e-01 -5.443687e-02 -1.807742e-01 4.302787e-02 2.404219e-01 -6.688078e-02 7.073211e-02 -8.004408e-02 2.215288e-02 1.643319e-01 1.082636e-01 -5.073478e-02 -3.807857e-02 1.221136e-01 -2.961220e-02 -8.575460e-02 -1.218126e-02 -6.657720e-02
<VARIANCE> 39
 7.032812e+00 2.632667e+01 1.103278e+02 9.795637e+01 1.008360e+02 5.714057e+01 6.681442e+01 4.962430e+01 5.008392e+01 4.826295e+01 6.042112e+01 4.927457e+01 9.469989e+00 6.046295e-01 2.129452e+00 4.981976e+00 1.041618e+00 4.059492e+00 3.025355e+00 2.563915e+00 2.634642e+00 2.881711e+00 2.617898e+00 5.389293e+00 1.988017e+00 6.002093e-01 1.369658e-01 2.534281e-01 3.688649e-01 1.772746e-01 3.622690e-01 4.120818e-01 4.198971e-01 4.936152e-01 4.339623e-01 4.793823e-01 6.484786e-01 2.896095e-01 7.317165e-02
<GCONST> 1.157674e+02
<TRANSP> 5
 0.000000e+00 1.000000e+00 0.000000e+00 0.000000e+00 0.000000e+00
 0.000000e+00 7.005966e-01 2.994033e-01 0.000000e+00 0.000000e+00
 0.000000e+00 0.000000e+00 6.964357e-01 3.035643e-01 0.000000e+00
 0.000000e+00 0.000000e+00 0.000000e+00 9.245657e-01 7.543430e-02
 0.000000e+00 0.000000e+00 0.000000e+00 0.000000e+00 0.000000e+00
<ENDHMM>
~h "eh"
<BEGINHMM>
<NUMSTATES> 5
<STATE> 2
<MEAN> 39
 2.540886e+00 -6.209179e-01 6.528385e+00 6.270036e+00 -4.904278e+00 -1.248042e+01 -1.165032e+01 1.185986e+00 -2.913192e+00 -2.706403e-01 -7.127186e+00 3.984824e-01 5.682280e+01 -2.010130e-02 -8.721991e-01 5.791568e-01 -7.641641e-01 -1.147821e+00 -5.288736e-01 -2.682784e-01 8.555239e-01 -9.510966e-01 8.807596e-02 1.001675e+00 1.926511e-01 9.656553e-01 3.134432e-02 -7.081654e-02 -9.896064e-02 -3.542645e-01 1.484854e-01 1.017914e-01 1.884847e-01 3.643094e-02 2.474605e-02 1.384330e-01 9.229223e-02 -1.174419e-01 1.637651e-01
<VARIANCE> 39
 9.310491e+00 1.950574e+02 1.968863e+01 9.573189e+01 9.844165e+01 7.755204e+01 2.593693e+01 1.356743e+02 5.767206e+01 3.836382e+01 4.325237e+01 5.604512e+01 1.381702e+02 7.387313e-01 1.889267e+01 1.343697e+00 1.575478e+01 6.959835e+00 4.864428e+00 2.721518e+00 6.160890e+00 3.907967e+00 3.586310e+00 5.434040e+00 4.551738e+00 1.318644e+01 1.384863e-01 2.289571e+00 2.396370e-01 1.671132e+00 8.960640e-01 7.967791e-01 4.831987e-01 9.347509e-01 7.182089e-01 4.314203e-01 7.060733e-01 7.820315e-01 1.434831e+00
<GCONST> 1.401108e+02
<STATE> 3
<MEAN> 39
 3.096776e+00 -1.404394e+01 2.742531e+00 -5.031029e+00 -8.262861e+00 -9.884997e+00 -1.200313e+01 -2.202517e+00 3.656379e-01 1.236069e+00 -8.988949e-03 -7.223709e+00 7.050248e+01 1.792621e-01 4.086532e-01 -5.769036e-01 -4.294942e-01 7.748629e-01 7.689482e-01 -5.553079e-02 -8.750650e-01 -6.354365e-02 4.262522e-01 6.278368e-02 -1.863972e-01 -1.517653e-01 1.154740e-02 3.142563e-01 -8.002192e-02 7.762583e-02 1.218511e-01 1.085153e-01 5.726262e-02 -1.386497e-01 -9.315192e-02 -9.380771e-02 -1.237230e-01 1.081925e-01 -2.186874e-01
<VARIANCE> 39
 8.681929e+00 1.893866e+01 2.920148e+01 4.447196e+01 7.319524e+01 7.155953e+01 5.362908e+01 1.335315e+02 6.002827e+01 5.006573e+01 3.929581e+01 6.060907e+01 5.256300e+00 2.056542e-01 1.340568e+00 1.528923e+00 2.078940e+00 2.591385e+00 1.381667e+00 3.517955e+00 4.502781e+00 2.294387e+00 2.077297e+00 3.059958e+00 2.889141e+00 4.997196e-01 4.208797e-02 2.954138e-01 2.881640e-01 5.013838e-01 6.080378e-01 3.167338e-01 6.018255e-01 6.927571e-01 4.595773e-01 4.643803e-01 7.057502e-01 3.942736e-01 1.623800e-01
<GCONST> 1.122996e+02
<STATE> 4
<MEAN> 39
 2.936086e+00 -5.989329e-01 -1.818679e+00 -8.462536e+00 -8.341303e-02 -1.158250e+00 -1.091676e+01 -1.008405e+01 -2.870648e+00 6.418390e-01 7.253230e-01 -1.193128e+00 6.155080e+01 -6.387910e-01 1.448323e+00 -1.243393e-01 3.052427e-01 7.943563e-01 4.605002e-01 9.665275e-01 -4.924063e-02 8.240370e-02 -8.000553e-01 -3.391991e-01 1.991268e-01 -1.496920e+00 -1.978642e-01 -3.259742e-01 1.961649e-01 1.518231e-01 -9.735348e-02 -1.573734e-01 -1.711052e-01 4.990696e-02 1.080865e-01 2.244335e-01 1.575091e-01 -1.617394e-01 5.755198e-02
<VARIANCE> 39
 1.937806e+01 4.755191e+01 1.753254e+01 3.056602e+01 7.124002e+01 6.514709e+01 2.375674e+01 5.152854e+01 5.404709e+01 9.221943e+01 9.095366e+01 1.074924e+01 2.385273e+01 1.615829e+00 3.114125e+00 2.870990e+00 2.870486e+00 1.204444e+00 4.453224e+00 3.013126e+00 6.488861e+00 5.517036e+00 6.136166e+00 5.575522e+00 1.723762e+00 1.672772e+00 1.130925e-01 2.829820e-01 3.645392e-01 4.294929e-01 2.358751e-01 6.045927e-01 2.439641e-01 8.684629e-01 9.652051e-01 8.886719e-01 1.078481e+00 4.233019e-01 2.271775e-01
<GCONST> 1.223728e+02
<TRANSP> 5
 0.000000e+00 1.000000e+00 0.000000e+00 0.000000e+00 0.000000e+00
 0.000000e+00 8.302760e-01 1.697240e-01 0.000000e+00 0.000000e+00
 0.000000e+00 0.000000e+00 9.273131e-01 7.268687e-02 0.000000e+00
 0.000000e+00 0.000000e+00 0.000000e+00 7.529211e-01 2.470789e-01
 0.000000e+00 0.000000e+00 0.000000e+00 0.000000e+00 0.000000e+00
<ENDHMM>
~h "hh"
<BEGINHMM>
<NUMSTATES> 5
<STATE> 2
<MEAN> 39
 2.068480e+00 -6.816151e+00 1.578205e+00 -3.718875e+00 3.933165e+00 -1.756682e+01 -3.795200e+00 6.820620e+00 1.285839e+00 -2.326970e-01 -1.438436e+01 4.415407e+00 6.274141e+01 9.622949e-02 -3.135687e-01 9.121981e-02 -2.931763e-01 -9.917165e-02 8.098067e-02 -1.435091e-01 4.269804e-01 -2.341577e-01 5.475505e-02 7.660124e-02 -8.812121e-02 2.447344e-01 2.532226e-02 -2.698347e-01 -1.027533e-01 -3.059515e-01 1.861020e-02 2.512553e-01 1.916340e-01 -1.443935e-01 2.073263e-01 1.146412e-01 -1.208025e-01 -2.668652e-01 2.330376e-01
<VARIANCE> 39
 8.157879e+00 8.803583e+01 3.610994e+01 1.718999e+02 6.127098e+01 1.040316e+02 5.222788e+01 8.740027e+01 4.752811e+01 4.324247e+01 2.743634e+01 6.347036e+01 8.866541e+01 4.027367e-01 8.122162e+00 1.233113e+00 2.842438e+01 3.124501e+00 3.715868e+00 7.813150e+00 3.130932e+00 3.883000e+00 3.717647e+00 2.526107e+00 5.560218e+00 9.742080e+00 7.465088e-02 1.080141e+00 2.445711e-01 4.108889e+00 4.455256e-01 7.588531e-01 1.040763e+00 5.267024e-01 6.631317e-01 7.124795e-01 3.844843e-01 1.221455e+00 1.331363e+00
<GCONST> 1.363105e+02
<STATE> 3
<MEAN> 39
 5.889627e+00 -1.925155e+01 -4.250363e+00 -1.331508e+01 -5.728252e-01 -3.174063e+00 1.978339e-01 -5.841841e+00 -1.198865e+00 8.607933e+00 -1.394323e+01 -4.430243e+00 7.292499e+01 -1.248191e-01 -3.426780e-01 -3.498079e-01 -1.933456e-01 1.040093e+00 1.226125e-01 6.283737e-01 1.185037e-01 -1.362446e-01 -6.047414e-02 -1.688029e-01 -1.239458e-01 3.611882e-01 -2.733215e-02 1.249719e-01 -5.807535e-02 1.409718e-01 7.568765e-02 6.953353e-02 -4.259712e-02 1.542181e-02 2.321140e-02 -7.446132e-02 1.134547e-03 3.255570e-02 -1.190320e-01
<VARIANCE> 39
 1.150390e+01 1.087799e+01 2.200615e+01 2.895746e+01 8.801170e+01 4.534784e+01 5.408958e+01 8.226791e+01 7.646290e+01 7.670784e+01 2.909452e+01 3.057419e+01 6.763649e+00 2.870712e-01 7.479452e-01 6.590903e-01 1.663178e+00 2.188984e+00 2.012048e+00 1.718882e+00 2.612881e+00 2.355062e+00 1.418754e+00 1.496094e+00 2.035984e+00 5.299767e-01 4.642545e-02 1.293381e-01 9.767821e-02 2.298599e-01 4.509841e-01 3.274556e-01 4.225247e-01 4.666803e-01 4.510358e-01 2.939771e-01 2.805586e-01 2.796609e-01 5.955214e-02
<GCONST> 1.004242e+02
<STATE> 4
<MEAN> 39
 1.565645e+00 -1.951376e+01 -8.458425e+00 -9.983806e+00 4.405901e+00 -1.588286e+00 -6.765050e-01 -3.659944e+00 4.533003e+00 1.637563e+00 -1.360086e+01 -6.985106e+00 7.425467e+01 8.591168e-05 -1.307513e-02 -2.050040e-01 1.431291e-01 2.990536e-01 3.730808e-01 1.546919e-01 -5.290234e-01 -4.060305e-02 1.814878e-01 -7.054584e-02 -7.139807e-02 -1.814223e-02 1.008945e-02 9.670310e-03 2.617215e-02 2.375388e-02 -3.945215e-02 -6.615752e-02 -1.726017e-02 2.149633e-02 -5.717318e-03 -7.742377e-03 1.776306e-02 5.339041e-02 -4.973636e-03
<VARIANCE> 39
 5.249002e+00 2.248389e+01 3.879306e+01 3.619377e+01 8.041281e+01 5.109279e+01 6.867226e+01 9.112502e+01 8.153484e+01 3.522223e+01 5.395506e+01 5.027730e+01 1.475010e+01 1.498012e-01 2.707696e-01 3.843144e-01 9.820784e-01 7.044655e-01 8.146083e-01 8.326218e-01 9.865894e-01 7.451053e-01 1.001889e+00 6.463042e-01 9.256098e-01 1.718806e-01 2.392648e-02 5.433469e-02 6.483420e-02 1.298255e-01 1.209636e-01 1.229374e-01 1.327338e-01 1.506698e-01 1.378886e-01 1.684294e-01 1.252240e-01 1.475572e-01 2.588723e-02
<GCONST> 8.086779e+01
<TRANSP> 5
 0.000000e+00 1.000000e+00 0.000000e+00 0.000000e+00 0.000000e+00
 0.000000e+00 7.265388e-01 2.734612e-01 0.000000e+00 0.000000e+00
 0.000000e+00 0.000000e+00 7.559015e-01 2.440985e-01 0.000000e+00
 0.000000e+00 0.000000e+00 0.000000e+00 9.334064e-01 6.659356e-02
 0.000000e+00 0.000000e+00 0.000000e+00 0.000000e+00 0.000000e+00
<ENDHMM>
~h "ih"
<BEGINHMM>
<NUMSTATES> 5
<STATE> 2
<MEAN> 39
 3.677571e+00 3.043002e+00 7.052742e+00 -3.297201e+00 -1.118130e+01 -1.708625e+00 -4.184634e+00 -8.332957e+00 -1.360624e+01 -1.665751e+00 -2.694351e+00 -2.328116e+00 5.649566e+01 -5.391572e-01 -4.311419e-01 1.739518e+00 -1.114423e+00 -1.198540e+00 -2.704451e-02 3.481610e-01 4.753943e-01 -6.973245e-01 -1.622234e-01 5.087242e-01 7.645547e-03 5.242758e-01 -1.336286e-01 1.587035e-01 -1.279248e-01 2.082767e-02 2.006168e-01 2.978713e-01 7.291091e-02 -1.349311e-01 1.103924e-01 1.344691e-01 -1.522204e-01 -7.485247e-02 -2.216443e-01
<VARIANCE> 39
 6.474927e+01 1.861933e+02 1.946098e+02 1.194330e+02 5.620444e+01 1.320317e+02 8.658737e+01 6.723797e+01 7.049816e+01 9.834240e+01 1.002167e+02 4.824406e+01 1.376144e+02 2.673753e+00 5.032763e+00 1.009033e+01 1.193568e+01 6.087881e+00 5.531118e+00 7.138544e+00 4.099726e+00 4.025081e+00 5.782341e+00 5.251598e+00 2.746376e+00 2.908666e+00 3.373727e-01 8.327069e-01 1.289900e+00 1.751868e+00 9.186175e-01 9.425618e-01 8.456296e-01 7.632286e-01 6.054490e-01 8.551767e-01 7.337598e-01 3.764688e-01 4.742397e-01
<GCONST> 1.484023e+02
<STATE> 3
<MEAN> 39
 -1.737874e+00 -8.252000e+00 1.681604e+01 -2.840318e+00 -1.947040e+01 -1.062115e+01 -8.603621e+00 -5.297184e+00 -1.233481e+01 -1.474698e+00 7.467576e+00 -7.192113e+00 6.688290e+01 -1.586239e-01 5.236191e-01 6.829814e-02 -7.561568e-02 4.048643e-01 4.396865e-01 4.242517e-01 7.727846e-02 1.243810e-01 4.676884e-01 -6.954849e-01 -3.105839e-01 -4.197059e-01 1.131154e-01 1.543460e-01 -8.528687e-01 2.204610e-01 7.696255e-01 -1.445603e-02 2.071582e-01 4.925931e-03 4.129049e-01 7.681956e-02 -5.396502e-01 1.472089e-01 -3.195793e-01
<VARIANCE> 39
 1.071172e+01 5.295641e+01 4.119220e+01 4.218374e+01 5.562520e+01 5.887000e+01 4.670106e+01 7.099219e+01 8.499480e+01 7.175279e+01 6.857540e+01 6.145439e+01 2.013606e+01 5.513734e-01 1.213040e+00 4.113026e+00 1.705507e+00 4.269003e+00 2.733135e+00 2.847774e+00 2.783662e+00 3.009221e+00 1.757352e+00 4.042312e+00 2.238829e+00 7.438302e-01 1.009371e-01 2.245620e-01 3.058813e-01 4.090554e-01 5.612820e-01 6.567136e-01 5.999516e-01 6.727790e-01 3.583380e-01 4.516995e-01 5.411887e-01 4.654066e-01 1.367348e-01
<GCONST> 1.184282e+02
<STATE> 4
<MEAN> 39
 -4.287245e+00 -3.536470e+00 8.547938e+00 -5.082674e+00 -7.151277e+00 -7.358792e+00 -4.109554e+00 -8.456232e+00 -8.688262e+00 -1.246838e+00 -2.652837e+00 -5.605388e+00 6.081423e+01 -4.350117e-02 7.189530e-01 -1.309949e+00 5.786393e-01 1.360791e+00 2.897870e-01 2.040706e-01 -1.239256e-01 7.568437e-01 -1.415401e-01 -1.165561e+00 5.281721e-02 -1.051049e+00 -3.250741e-02 -3.389633e-03 6.954593e-02 5.567963e-02 -2.789843e-01 3.729624e-02 -6.955753e-02 -8.154772e-02 -1.374164e-01 -6.862269e-02 3.384933e-01 -1.445604e-02 2.914212e-02
<VARIANCE> 39
 5.979173e+01 4.690436e+01 9.911993e+01 8.011270e+01 5.694817e+01 4.605274e+01 4.351364e+01 7.334563e+01 5.063469e+01 5.075290e+01 4.478664e+01 3.421433e+01 4.064187e+01 1.338919e+00 1.430510e+00 2.325349e+00 2.585203e+00 3.753473e+00 3.099715e+00 2.862392e+00 2.677845e+00 2.441180e+00 2.731114e+00 2.886625e+00 1.849061e+00 6.944575e-01 1.282077e-01 1.792153e-01 2.716805e-01 3.555284e-01 3.212675e-01 5.417201e-01 3.954357e-01 5.246244e-01 4.454280e-01 2.781099e-01 4.514414e-01 2.549461e-01 1.493862e-01
<GCONST> 1.179851e+02
<TRANSP> 5
 0.000000e+00 1.000000e+00 0.000000e+00 0.000000e+00 0.000000e+00
 0.000000e+00 7.104856e-01 2.895144e-01 0.000000e+00 0.000000e+00
 0.000000e+00 0.000000e+00 8.015745e-01 1.984255e-01 0.000000e+00
 0.000000e+00 0.000000e+00 0.000000e+00 7.089840e-01 2.910161e-01
 0.000000e+00 0.000000e+00 0.000000e+00 0.000000e+00 0.000000e+00
<ENDHMM>
~h "iy"
<BEGINHMM>
<NUMSTATES> 5
<STATE> 2
<MEAN> 39
 1.638911e+00 -1.277491e+01 1.307844e+01 -4.998451e+00 -1.503372e+01 -1.327874e+01 -7.489010e+00 -3.432225e+00 -8.117204e+00 2.207874e+00 2.829632e-01 -1.006377e+00 6.943050e+01 -5.620643e-01 6.007323e-01 2.244467e+00 -2.895335e-01 -1.159653e+00 -4.392174e-01 2.042217e-01 -4.406286e-01 -2.603265e+00 2.340041e-01 1.579235e+00 -3.423293e-01 2.337149e-01 -5.468660e-02 2.184322e-01 -3.763814e-01 -1.147220e-01 3.633243e-01 3.438469e-01 1.117968e-01 -2.433412e-01 1.933479e-01 1.054565e-01 -2.799164e-01 -2.177833e-01 -1.532838e-01
<VARIANCE> 39
 1.028271e+01 3.345412e+01 7.543167e+01 4.295907e+01 3.998104e+01 2.792399e+01 3.226825e+01 4.400557e+01 1.253463e+02 9.661222e+01 6.656458e+01 5.655478e+01 1.538082e+01 4.578801e-01 1.246650e+00 1.669715e+00 1.567944e+00 3.391086e+00 2.501190e+00 1.623346e+00 2.624543e+00 2.799816e+00 2.164857e+00 4.021911e+00 2.180516e+00 5.635665e-01 7.895205e-02 1.705231e-01 1.366445e-01 2.829495e-01 5.631810e-01 4.704664e-01 3.511679e-01 4.332159e-01 5.445230e-01 3.729830e-01 4.189760e-01 3.951963e-01 1.029670e-01
<GCONST> 1.111971e+02
<STATE> 3
<MEAN> 39
 -2.724044e+00 -1.099953e+01 1.655514e+01 -2.516472e+00 -2.383721e+01 -1.164220e+01 -1.212718e+01 -1.007869e+01 -1.067607e+01 -4.001734e+00 1.409770e+01 -4.188522e+00 6.889955e+01 -5.162892e-02 3.139167e-01 1.821324e-01 1.472604e-01 -1.230988e-01 6.415381e-03 -4.504755e-02 -2.279488e-01 -2.621478e-01 -1.895035e-02 2.153917e-01 7.598469e-02 -2.700834e-01 5.693502e-02 -3.049186e-02 -2.485790e-01 1.140651e-01 2.275065e-01 -8.674682e-02 8.689069e-02 1.543404e-01 2.610057e-01 -2.807751e-02 -2.320474e-01 1.152445e-01 -4.565270e-02
<VARIANCE> 39
 7.997061e+00 4.928276e+01 2.066458e+01 2.555138e+01 3.514315e+01 1.516210e+01 3.623307e+01 4.295623e+01 6.273874e+01 8.771877e+01 6.872375e+01 8.138152e+01 6.885962e+00 1.237600e-01 5.092615e-01 7.889020e-01 6.763080e-01 7.658521e-01 9.070025e-01 8.435535e-01 1.382785e+00 1.212860e+00 9.925172e-01 1.289897e+00 7.764992e-01 1.342209e-01 2.346086e-02 8.192047e-02 9.092146e-02 9.928887e-02 2.040726e-01 1.496446e-01 1.625681e-01 2.041988e-01 2.010034e-01 1.911799e-01 2.056867e-01 1.585206e-01 3.450000e-02
<GCONST> 8.339411e+01
<STATE> 4
<MEAN> 39
 -2.128694e+00 -5.222072e+00 1.385462e+01 -1.764590e+00 -1.397291e+01 -1.279195e+01 -4.961338e+00 -6.613702e+00 -1.102971e+01 8.499632e-01 1.691928e+00 8.430498e-02 6.289397e+01 -5.883711e-01 1.313897e+00 -2.198344e+00 8.269075e-01 2.088178e+00 3.046667e-01 9.589810e-01 3.511198e-01 1.725922e+00 -3.912692e-01 -7.975664e-01 4.179222e-01 -1.270720e+00 -2.552475e-01 9.367047e-02 -2.871780e-01 -4.381033e-02 3.012422e-01 2.167437e-01 2.946039e-02 -5.646084e-03 2.912170e-01 -1.270074e-01 1.885934e-01 -4.732959e-02 -2.350228e-02
<VARIANCE> 39
 2.030320e+01 6.540874e+01 7.874994e+01 5.764645e+01 6.730888e+01 3.957875e+01 6.431971e+01 4.287350e+01 8.684850e+01 7.459135e+01 1.014463e+02 5.121633e+01 5.317746e+01 1.888130e+00 2.963595e+00 2.217864e+00 2.673953e+00 5.130140e+00 3.153958e+00 5.242555e+00 3.604803e+00 4.331914e+00 3.363750e+00 4.594106e+00 2.918558e+00 1.875052e+00 2.059712e-01 4.141932e-01 3.745274e-01 4.047039e-01 6.331789e-01 4.803271e-01 6.927832e-01 6.171578e-01 6.517707e-01 4.616719e-01 6.327738e-01 3.977394e-01 2.154198e-01
<GCONST> 1.290291e+02
<TRANSP> 5
 0.000000e+00 1.000000e+00 0.000000e+00 0.000000e+00 0.000000e+00
 0.000000e+00 8.075409e-01 1.924591e-01 0.000000e+00 0.000000e+00
 0.000000e+00 0.000000e+00 8.669698e-01 1.330302e-01 0.000000e+00
 0.000000e+00 0.000000e+00 0.000000e+00 7.878246e-01 2.121754e-01
 0.000000e+00 0.000000e+00 0.000000e+00 0.000000e+00 0.000000e+00
<ENDHMM>
~h "ng"
<BEGINHMM>
<NUMSTATES> 5
<STATE> 2
<MEAN> 39
 8.437578e+00 -2.349820e+00 -1.601294e+01 1.446371e+00 -1.449406e+01 -1.764306e+00 -5.615228e+00 1.667536e+00 4.304986e+00 -8.939061e+00 -4.608421e+00 2.729097e+00 6.409241e+01 -1.491343e-01 6.830360e-01 2.588444e-01 3.203690e-01 -5.105815e-02 4.852591e-01 -1.089403e-01 1.267993e-01 -2.314738e-01 1.250441e-01 1.440239e-01 2.597958e-02 -6.370562e-01 -6.816120e-02 -5.262059e-02 8.538754e-02 1.845149e-02 1.684722e-02 -7.742523e-03 2.185628e-02 2.009609e-02 1.491387e-02 6.449828e-02 3.628919e-03 -3.227528e-02 9.386524e-03
<VARIANCE> 39
 1.467658e+01 5.367340e+01 1.235596e+02 4.505214e+01 2.625757e+02 9.897451e+01 3.633095e+01 7.067421e+01 4.937805e+01 8.107560e+01 2.223200e+01 3.817886e+01 7.463548e+01 5.833215e-01 1.454388e+00 2.090409e+00 1.944237e+00 1.843267e+00 2.649428e+00 1.681158e+00 2.671545e+00 2.503698e+00 3.497591e+00 1.625694e+00 1.629238e+00 1.124345e+00 7.662563e-02 1.307962e-01 2.365778e-01 2.653635e-01 2.683379e-01 3.200367e-01 2.688735e-01 4.302132e-01 4.238189e-01 5.382356e-01 2.980799e-01 2.659855e-01 7.284770e-02
<GCONST> 1.133104e+02
<STATE> 3
<MEAN> 39
 -2.743311e+00 -2.834289e+00 -7.191231e+00 3.741074e+00 -4.998862e+00 5.132342e+00 -4.502377e+00 -2.787166e+00 -2.144602e+00 -2.140918e+00 -4.163187e+00 -3.353156e+00 5.161123e+01 -6.025149e-01 4.076914e-01 2.774685e-01 4.634721e-01 1.709483e-01 1.996804e-01 6.376293e-02 1.600083e-01 8.766243e-02 -1.500286e-01 9.116063e-02 1.809254e-01 -7.276263e-01 -4.150422e-03 -8.315563e-02 -7.311505e-02 -1.771309e-02 9.544015e-03 -2.627224e-02 2.443122e-02 2.659489e-02 1.401806e-02 5.486757e-02 1.450634e-02 -4.684353e-02 3.932781e-02
<VARIANCE> 39
 2.294735e+01 5.461021e+01 3.433225e+01 4.588916e+01 5.077119e+01 5.964743e+01 4.127529e+01 2.562809e+01 2.572383e+01 2.900547e+01 1.757268e+01 3.601841e+01 6.483899e+01 2.738318e-01 5.223198e-01 7.516054e-01 7.165496e-01 9.345611e-01 1.051601e+00 1.023528e+00 1.096806e+00 9.399187e-01 1.004973e+00 1.134476e+00 9.726692e-01 1.636776e-01 2.065782e-02 7.027382e-02 7.850941e-02 1.189493e-01 1.469764e-01 1.872101e-01 1.760875e-01 1.867047e-01 1.845462e-01 1.788252e-01 2.053476e-01 1.507839e-01 1.143570e-02
<GCONST> 8.458238e+01
<STATE> 4
<MEAN> 39
 -1.369080e+01 6.031016e+00 -7.315981e+00 6.974212e+00 -3.789840e+00 6.354530e+00 -4.085052e+00 -7.166283e-01 -2.760919e+00 -5.107790e+00 -1.207831e+00 -2.900864e+00 3.315683e+01 -5.832757e-01 -3.573224e-01 -2.450408e-01 -2.452803e-01 -3.407389e-01 -1.712736e-01 1.524433e-01 1.392433e-01 1.183255e-01 2.036158e-01 1.044023e-01 -3.452063e-02 -3.545180e-01 6.611440e-02 -3.713956e-02 -8.519636e-02 -9.341526e-02 -5.107529e-03 -2.361192e-02 -3.143920e-02 7.591750e-03 2.974383e-02 -1.066613e-03 -1.113419e-02 1.060408e-02 6.819469e-02
<VARIANCE> 39
 6.055373e+01 6.050360e+01 8.314798e+01 7.787767e+01 8.780343e+01 9.250150e+01 7.006960e+01 7.889258e+01 4.889082e+01 3.091793e+01 3.866115e+01 2.991666e+01 1.039435e+02 1.588780e+00 1.700191e+00 2.395311e+00 2.454916e+00 2.948343e+00 3.922235e+00 2.919011e+00 3.297830e+00 2.919583e+00 2.222396e+00 2.087761e+00 1.386114e+00 6.788708e-01 1.809933e-01 3.065057e-01 4.427477e-01 4.342997e-01 5.286129e-01 6.925070e-01 5.321422e-01 5.642629e-01 5.004309e-01 3.692302e-01 4.205498e-01 2.950328e-01 8.749217e-02
<GCONST> 1.223599e+02
<TRANSP> 5
 0.000000e+00 1.000000e+00 0.000000e+00 0.000000e+00 0.000000e+00
 0.000000e+00 8.855976e-01 1.144023e-01 0.000000e+00 0.000000e+00
 0.000000e+00 0.000000e+00 8.971257e-01 1.028743e-01 0.000000e+00
 0.000000e+00 0.000000e+00 0.000000e+00 8.607360e-01 1.392641e-01
 0.000000e+00 0.000000e+00 0.000000e+00 0.000000e+00 0.000000e+00
<ENDHMM>
~h "oh"
<BEGINHMM>
<NUMSTATES> 5
<STATE> 2
<MEAN> 39
 6.063773e+00 -1.075009e+01 -1.158795e+01 -2.113410e+01 -6.049118e+00 5.312690e+00 -4.890022e-01 -9.361080e+00 -5.270231e+00 5.389099e+00 1.282133e+00 -7.843273e+00 6.924220e+01 1.451915e-01 -3.103214e-01 -2.164235e-01 -1.588513e-01 2.139828e-01 2.484606e-01 2.850817e-01 -3.946932e-01 2.740638e-02 6.558715e-02 -1.634353e-01 -9.477071e-02 3.079381e-01 -5.520491e-02 2.765059e-03 1.673756e-01 1.639678e-01 -5.973807e-03 -1.232389e-01 -9.298615e-02 1.317783e-01 -7.784206e-03 -1.000578e-01 5.338189e-03 -2.403594e-02 1.703108e-02
<VARIANCE> 39
 9.459541e+00 4.314465e+01 3.132998e+01 1.344343e+02 1.195641e+02 6.521376e+01 4.770027e+01 4.977621e+01 9.665163e+01 7.454086e+01 1.190372e+02 9.415490e+01 1.961562e+01 7.365032e-01 1.278312e+00 1.989558e+00 2.976100e+00 3.044242e+00 3.604416e+00 2.584219e+00 2.670485e+00 2.596035e+00 3.315962e+00 1.752180e+00 2.621596e+00 1.152106e+00 1.222571e-01 1.684632e-01 2.458750e-01 3.380267e-01 4.875118e-01 4.768458e-01 4.199400e-01 4.299234e-01 4.898205e-01 5.973251e-01 3.649172e-01 4.441826e-01 1.640615e-01
<GCONST> 1.194187e+02
<STATE> 3
<MEAN> 39
 3.237468e+00 -2.108858e+01 -1.262144e+01 -1.664460e+01 -6.226849e+00 1.239411e+01 -2.031157e+00 -1.168709e+01 7.926214e+00 -1.138315e+00 2.394947e+00 -5.671144e+00 7.269786e+01 -9.108356e-03 -1.612246e-01 -1.132110e-02 3.180943e-01 1.901407e-01 -4.326630e-02 -1.411633e-01 1.416952e-01 -5.624133e-02 1.211777e-01 -2.680919e-02 -1.814194e-01 1.502405e-02 -5.759394e-03 2.463411e-02 1.833722e-02 1.395449e-01 3.140050e-03 -6.751056e-02 -4.177388e-02 4.602826e-02 8.435535e-02 7.716675e-02 -7.393139e-02 -2.256702e-02 -6.282723e-02
<VARIANCE> 39
 5.920379e+00 7.964957e+01 1.133482e+01 4.577950e+01 6.669255e+01 1.144189e+02 6.411145e+01 6.875655e+01 8.707163e+01 4.386116e+01 4.665785e+01 4.064550e+01 7.839445e+00 1.538697e-01 7.721503e-01 4.490605e-01 1.148451e+00 1.177668e+00 1.694553e+00 1.840129e+00 1.314097e+00 1.669526e+00 1.595970e+00 1.808492e+00 1.495378e+00 4.043143e-01 3.662161e-02 9.323062e-02 8.528441e-02 1.685095e-01 2.184370e-01 2.294410e-01 2.268653e-01 2.382298e-01 2.732122e-01 3.046023e-01 2.814398e-01 2.218349e-01 4.816847e-02
<GCONST> 9.499507e+01
<STATE> 4
<MEAN> 39
 8.353479e+00 -7.504922e+00 -7.371055e+00 3.954975e+00 -2.203515e+01 -2.253777e-01 -6.099227e+00 3.487284e-01 5.406406e+00 -9.096322e+00 -5.811995e+00 1.571646e-01 6.999130e+01 -2.631036e-01 5.112535e-02 2.226037e-01 4.306657e-01 1.322160e-01 9.911574e-02 8.247972e-02 1.409492e-01 2.292354e-01 5.054559e-01 -4.641362e-02 -9.618817e-02 -3.303371e-01 -2.771456e-02 -2.152452e-02 1.854362e-02 1.253219e-01 -3.719727e-02 3.927911e-02 -1.914728e-02 1.846783e-02 3.957386e-02 -4.466977e-02 2.860981e-02 7.351162e-02 -6.059381e-02
<VARIANCE> 39
 1.152087e+01 3.053743e+01 2.174111e+01 1.559758e+02 1.927737e+02 7.232866e+01 3.421533e+01 5.536954e+01 3.462098e+01 1.136279e+02 2.053176e+01 5.597501e+01 1.155060e+01 2.751935e-01 5.867716e-01 7.382667e-01 1.532953e+00 1.290531e+00 2.969441e+00 1.205270e+00 1.588052e+00 1.835948e+00 1.959924e+00 1.264868e+00 1.250008e+00 2.733749e-01 3.659981e-02 6.049712e-02 1.152949e-01 1.847827e-01 1.918574e-01 3.728594e-01 1.600789e-01 3.220026e-01 3.099501e-01 3.397694e-01 1.892333e-01 1.852307e-01 3.429980e-02
<GCONST> 9.672539e+01
<TRANSP> 5
 0.000000e+00 1.000000e+00 0.000000e+00 0.000000e+00 0.000000e+00
 0.000000e+00 8.716179e-01 1.283820e-01 0.000000e+00 0.000000e+00
 0.000000e+00 0.000000e+00 8.750504e-01 1.249496e-01 0.000000e+00
 0.000000e+00 0.000000e+00 0.000000e+00 7.488906e-01 2.511094e-01
 0.000000e+00 0.000000e+00 0.000000e+00 0.000000e+00 0.000000e+00
<ENDHMM>
~h "sp"
<BEGINHMM>
<NUMSTATES> 5
<STATE> 2
~s "silst"
<STATE> 3
<MEAN> 39
 -1.186620e+01 2.085470e+00 -3.854597e+00 4.160623e+00 7.289234e-01 2.555090e+00 -1.037488e+00 -3.709520e-01 1.127984e+00 -2.002021e+00 -6.028425e-01 -1.994913e+00 4.442840e+01 -4.197908e-02 1.447205e-02 -4.111520e-02 -4.932342e-02 -4.965575e-02 8.903673e-04 3.046971e-04 2.778618e-02 2.056339e-02 2.429461e-02 3.775641e-02 1.233096e-02 -1.438112e-01 3.312473e-02 -1.166440e-02 -2.481975e-02 -1.054016e-02 -1.853087e-03 -2.446878e-02 3.478519e-03 -5.275444e-03 -4.032734e-03 1.835467e-02 6.000200e-03 -4.156264e-03 3.319862e-02
<VARIANCE> 39
 4.794046e+01 1.681043e+01 2.511787e+01 2.295511e+01 3.140356e+01 2.530656e+01 3.513654e+01 1.836242e+01 2.018226e+01 1.738032e+01 1.908040e+01 1.404963e+01 1.443495e+02 2.684299e-01 5.272775e-01 5.342067e-01 7.797477e-01 9.534264e-01 1.153149e+00 1.126947e+00 1.187385e+00 1.166087e+00 1.049212e+00 1.065486e+00 1.020696e+00 1.768570e-01 4.269672e-02 1.022452e-01 1.075698e-01 1.520560e-01 1.895883e-01 2.174925e-01 2.254007e-01 2.457013e-01 2.262163e-01 2.175123e-01 2.099790e-01 1.997147e-01 2.999106e-02
<GCONST> 8.508640e+01
<STATE> 4
<MEAN> 39
 -1.683060e+01 3.447515e+00 -6.816577e+00 6.177123e+00 -2.517572e+00 5.260734e+00 -2.845558e+00 3.236207e-01 2.229049e-01 -2.635735e+00 -5.887364e-01 -1.711803e+00 3.411139e+01 4.323975e-02 -3.705937e-02 -6.202971e-02 -1.861414e-02 6.418587e-04 -3.715875e-02 3.478191e-02 3.416006e-02 6.382926e-03 7.168154e-02 5.327480e-02 6.476583e-03 2.684876e-02 5.672800e-02 -7.436266e-03 -8.769949e-03 -3.404462e-02 2.383671e-02 -3.600428e-02 -7.808366e-03 -1.406907e-02 -1.282125e-02 1.072919e-03 -1.850502e-02 2.089090e-02 7.335608e-02
<VARIANCE> 39
 5.729247e+01 2.227450e+01 3.504647e+01 2.688276e+01 3.700400e+01 3.799566e+01 4.399737e+01 4.061646e+01 3.838825e+01 3.316002e+01 2.989574e+01 2.226631e+01 1.383060e+02 4.940788e-01 1.114860e+00 1.341677e+00 1.244057e+00 1.582850e+00 2.060714e+00 1.858951e+00 1.912041e+00 1.870869e+00 1.789627e+00 1.561182e+00 1.488284e+00 4.259398e-01 1.193568e-01 2.087883e-01 2.514266e-01 2.388414e-01 3.236963e-01 4.005291e-01 3.440063e-01 3.298185e-01 3.173172e-01 3.325198e-01 2.834912e-01 2.783937e-01 1.152325e-01
<GCONST> 1.048847e+02
<TRANSP> 5
 0.000000e+00 7.000000e-01 3.000000e-01 0.000000e+00 0.000000e+00
 0.000000e+00 9.552153e-01 4.478472e-02 0.000000e+00 0.000000e+00
 0.000000e+00 0.000000e+00 7.511432e-01 2.488568e-01 0.000000e+00
 0.000000e+00 0.000000e+00 0.000000e+00 7.541329e-01 2.458671e-01
 0.000000e+00 0.000000e+00 0.000000e+00 0.000000e+00 0.000000e+00
<ENDHMM>
~h "uh"
<BEGINHMM>
<NUMSTATES> 5
<STATE> 2
<MEAN> 39
 1.067810e+00 -2.522101e+00 -5.341201e+00 -1.331486e+01 -8.821431e+00 5.188573e+00 -1.029951e+01 -9.904062e+00 -3.277817e+00 -2.064293e+00 4.678782e+00 -3.448814e+00 6.181567e+01 -2.766004e-01 3.763988e-01 -5.680792e-02 4.254658e-01 1.822348e-01 -4.536826e-02 4.090183e-01 3.356933e-01 1.305190e-01 -3.389019e-01 -2.065174e-01 1.239933e-01 -7.161424e-01 -2.020562e-02 -3.326279e-02 5.841692e-02 9.067298e-02 1.198380e-01 -1.126296e-01 1.309985e-02 -3.855357e-03 2.433842e-02 2.746233e-02 -6.764396e-02 2.579269e-02 -1.094838e-02
<VARIANCE> 39
 7.743134e+01 5.516707e+01 1.560456e+01 9.878728e+01 3.886804e+01 6.912502e+01 5.239235e+01 5.738134e+01 9.155589e+01 4.545944e+01 5.419093e+01 4.333038e+01 1.982271e+02 5.552577e-01 8.360180e-01 7.333604e-01 2.173461e+00 1.850541e+00 1.853648e+00 2.233678e+00 1.567551e+00 1.436771e+00 2.463395e+00 2.066736e+00 1.926700e+00 1.001420e+00 1.702711e-01 1.245040e-01 1.842515e-01 3.676510e-01 3.192919e-01 3.523677e-01 4.266056e-01 3.289153e-01 3.135516e-01 3.872273e-01 3.783683e-01 3.497582e-01 2.209876e-01
<GCONST> 1.131633e+02
<STATE> 3
<MEAN> 39
 -1.031162e+01 3.313905e+00 -6.511267e+00 -1.253307e+00 -4.902798e+00 2.262813e+00 -4.432673e+00 -3.207444e+00 -1.401377e+00 -2.704956e+00 3.533253e-01 -1.458543e+00 4.330420e+01 2.581300e+00 3.120326e-01 -4.569426e-01 -1.927542e+00 -7.039696e-01 -2.513801e-01 9.493479e-02 -9.734476e-01 -8.826514e-01 -6.847524e-01 -1.162023e-01 4.362525e-01 2.429023e+00 6.991802e-01 -1.664972e-01 -7.059479e-02 -6.763008e-01 -1.201092e-01 2.833708e-01 -1.535401e-01 -4.218651e-01 -1.382991e-01 6.332622e-02 1.510720e-01 1.721852e-01 8.657442e-01
<VARIANCE> 39
 1.219631e+02 3.769851e+01 3.727661e+01 6.574409e+01 4.447609e+01 4.040489e+01 4.800661e+01 3.981599e+01 4.447799e+01 3.073671e+01 2.900974e+01 1.858426e+01 2.381941e+02 9.955465e+00 2.220060e+00 3.797591e+00 9.868914e+00 7.340539e+00 3.963501e+00 4.312565e+00 3.559354e+00 3.288092e+00 3.823461e+00 2.963807e+00 2.971653e+00 1.581753e+01 1.133540e+00 3.464233e-01 5.336750e-01 1.046379e+00 8.269848e-01 6.659178e-01 6.070667e-01 6.456299e-01 6.323191e-01 7.434392e-01 4.953334e-01 6.400712e-01 1.679818e+00
<GCONST> 1.378015e+02
<STATE> 4
<MEAN> 39
 4.532788e+00 2.022576e-01 -6.020316e+00 -1.490650e+01 -5.244957e+00 7.770384e+00 -1.234376e+01 -1.181880e+01 -5.236105e+00 5.798699e-01 1.330537e+00 -2.808402e-01 6.029333e+01 6.870227e-01 -4.377942e-01 8.270701e-01 3.021651e-01 7.183614e-01 1.329715e-01 -9.416417e-01 -7.427242e-01 -1.911356e-01 8.147880e-01 -3.401856e-02 -4.921564e-01 1.068879e+00 -4.353174e-01 1.190393e-01 1.647136e-01 6.150243e-01 1.221529e-01 -1.638323e-01 1.894646e-01 1.442896e-01 1.229903e-01 -4.874266e-02 -1.785527e-01 -9.737740e-02 -5.144560e-01
<VARIANCE> 39
 5.172628e+01 5.474982e+01 8.020570e+01 1.413595e+02 1.151817e+02 1.024607e+02 1.048407e+02 4.995118e+01 9.041503e+01 8.244259e+01 7.368257e+01 9.453098e+01 1.198093e+02 5.472330e+00 3.137231e+00 4.282873e+00 1.243266e+01 6.328304e+00 6.206669e+00 6.482118e+00 5.297914e+00 5.063183e+00 5.917241e+00 4.769662e+00 5.161693e+00 8.200334e+00 7.422917e-01 5.382010e-01 7.909541e-01 1.109992e+00 1.185509e+00 1.121579e+00 1.161681e+00 9.668137e-01 8.747287e-01 1.128665e+00 8.046383e-01 8.039620e-01 7.710117e-01
<GCONST> 1.508299e+02
<TRANSP> 5
 0.000000e+00 1.000000e+00 0.000000e+00 0.000000e+00 0.000000e+00
 0.000000e+00 8.346891e-01 1.653109e-01 0.000000e+00 0.000000e+00
 0.000000e+00 0.000000e+00 5.109476e-01 4.890524e-01 0.000000e+00
 0.000000e+00 0.000000e+00 0.000000e+00 7.987757e-01 2.012243e-01
 0.000000e+00 0.000000e+00 0.000000e+00 0.000000e+00 0.000000e+00
<ENDHMM>
~h "uw"
<BEGINHMM>
<NUMSTATES> 5
<STATE> 2
<MEAN> 39
 5.821979e+00 -2.089806e+00 -6.167922e+00 -1.228325e+01 -3.866077e+00 5.428637e+00 -1.521698e+01 -1.646119e+01 -5.414046e+00 1.280041e+00 4.258252e+00 -7.302076e-01 6.310345e+01 8.207320e-01 7.420369e-01 -6.420330e-01 -1.759010e+00 -1.647061e+00 1.335166e+00 7.691858e-01 -4.709626e-01 -1.768086e+00 -4.796824e-01 7.589291e-01 9.847179e-01 1.621841e-01 -5.177432e-01 2.571387e-01 3.210085e-01 5.395102e-01 1.419948e-01 -1.809520e-01 5.998214e-01 8.935661e-01 3.929554e-01 -4.506947e-01 -5.027152e-01 -2.095233e-01 -5.540228e-01
<VARIANCE> 39
 4.276757e+01 7.282121e+01 2.810819e+01 1.118038e+02 5.691187e+01 8.568910e+01 7.569061e+01 6.934459e+01 1.200236e+02 4.980471e+01 7.226762e+01 5.345517e+01 7.375840e+01 3.139130e+00 2.380701e+00 2.498950e+00 6.100103e+00 3.897779e+00 4.466011e+00 7.653039e+00 4.005336e+00 5.986182e+00 4.785611e+00 4.997126e+00 2.666321e+00 2.160570e+00 4.338146e-01 6.213969e-01 4.443360e-01 1.201535e+00 8.622360e-01 8.348046e-01 1.712466e+00 8.699603e-01 1.245695e+00 6.952354e-01 1.018681e+00 7.288723e-01 3.310867e-01
<GCONST> 1.404021e+02
<STATE> 3
<MEAN> 39
 6.074482e+00 -8.867440e-01 -5.826850e+00 -1.440174e+01 -9.281669e+00 4.263516e+00 -1.112979e+01 -1.465032e+01 -1.062408e+01 -1.176086e+00 5.641009e+00 -4.382023e-01 6.258659e+01 -2.481216e-01 5.148449e-01 4.798345e-02 -7.880275e-01 -5.767190e-01 1.532855e-01 7.268320e-01 1.030646e+00 1.041878e-01 -4.249023e-01 -1.622941e-02 -3.013773e-01 -3.798305e-01 -2.070464e-01 -1.752449e-01 6.194171e-02 4.399832e-01 3.307670e-01 -3.011184e-01 3.865576e-02 1.825789e-01 4.653907e-01 2.676401e-01 -3.284900e-01 -2.732261e-01 -1.028728e-01
<VARIANCE> 39
 4.412011e+01 6.090538e+01 2.120735e+01 8.256079e+01 4.261696e+01 5.095074e+01 4.094126e+01 4.513835e+01 8.400575e+01 6.079398e+01 7.576465e+01 5.437288e+01 8.882549e+01 1.043116e+00 2.024398e+00 1.127727e+00 4.875336e+00 3.202187e+00 3.453823e+00 2.570516e+00 3.156129e+00 3.359557e+00 5.396917e+00 3.284421e+00 3.716870e+00 1.646219e+00 1.033593e-01 1.715545e-01 2.067236e-01 4.158632e-01 3.792049e-01 4.860786e-01 4.496727e-01 4.904557e-01 4.466347e-01 6.017047e-01 6.678321e-01 4.322634e-01 1.247330e-01
<GCONST> 1.221148e+02
<STATE> 4
<MEAN> 39
 4.317196e+00 -8.771116e-01 -6.263513e+00 -1.462808e+01 -1.277285e+01 1.865335e+00 -1.097927e+01 -1.035523e+01 -4.896328e+00 -4.878879e+00 2.340911e+00 -1.596708e+00 6.281334e+01 -3.142969e-01 8.694609e-03 -6.722741e-02 4.660102e-01 2.260805e-01 -1.823605e-01 3.863147e-01 6.391777e-01 3.574189e-01 1.064416e-01 -3.686161e-01 -1.923095e-01 -4.813370e-01 -4.875242e-02 -1.530447e-01 -3.153856e-02 1.552887e-01 1.860065e-01 1.533630e-02 1.495770e-02 -8.509414e-02 1.637946e-02 1.385774e-01 8.451394e-04 -4.320966e-02 1.859461e-03
<VARIANCE> 39
 2.483031e+01 3.408676e+01 1.846776e+01 1.108452e+02 5.151962e+01 5.379652e+01 3.905349e+01 4.076480e+01 8.095296e+01 5.364077e+01 4.459051e+01 6.295662e+01 8.358620e+01 4.478064e-01 1.059018e+00 7.447361e-01 1.609899e+00 1.691130e+00 1.517311e+00 1.831365e+00 1.525762e+00 1.786465e+00 1.891717e+00 1.648183e+00 1.565411e+00 5.861616e-01 4.024616e-02 8.132102e-02 9.990458e-02 1.735259e-01 2.188903e-01 2.228237e-01 2.781620e-01 2.041782e-01 3.140633e-01 3.103684e-01 2.968602e-01 2.868503e-01 3.921679e-02
<GCONST> 1.014249e+02
<TRANSP> 5
 0.000000e+00 1.000000e+00 0.000000e+00 0.000000e+00 0.000000e+00
 0.000000e+00 5.275209e-01 4.724792e-01 0.000000e+00 0.000000e+00
 0.000000e+00 0.000000e+00 6.471891e-01 3.528108e-01 0.000000e+00
 0.000000e+00 0.000000e+00 0.000000e+00 8.483256e-01 1.516744e-01
 0.000000e+00 0.000000e+00 0.000000e+00 0.000000e+00 0.000000e+00
<ENDHMM>
~h "sil"
<BEGINHMM>
<NUMSTATES> 5
<STATE> 2
<MEAN> 39
 -2.198244e+01 3.889504e+00 -9.917867e+00 5.749624e+00 -6.432421e+00 4.518641e+00 -5.483601e+00 -4.165099e-01 -4.122253e-01 -3.299166e+00 -1.127831e+00 -2.150492e+00 2.725414e+01 -6.591067e-02 4.058941e-02 3.076118e-02 1.502359e-02 -7.970001e-03 -1.240084e-03 -1.664871e-02 1.034384e-02 2.220615e-02 -1.239609e-03 2.259613e-02 5.177627e-03 -6.598547e-02 1.301160e-02 -4.232468e-03 -1.797741e-03 -4.582290e-03 -2.342012e-03 -8.324798e-03 -6.728663e-03 -2.186894e-03 2.373982e-03 9.899740e-03 -5.880942e-03 -1.406752e-02 1.367830e-02
<VARIANCE> 39
 4.625985e+01 8.176137e+00 7.623127e+00 1.020573e+01 1.370429e+01 1.165177e+01 2.040412e+01 1.985236e+01 1.945423e+01 2.104593e+01 2.153189e+01 1.492139e+01 4.488524e+01 8.425747e-02 2.043769e-01 3.186049e-01 4.663783e-01 6.479475e-01 7.342787e-01 8.700622e-01 1.006566e+00 1.090923e+00 9.139797e-01 9.228314e-01 8.748971e-01 5.198929e-02 1.301602e-02 3.378884e-02 5.923419e-02 8.529978e-02 1.183369e-01 1.384940e-01 1.700180e-01 1.899922e-01 2.129312e-01 1.800326e-01 1.836344e-01 1.770946e-01 5.603930e-03
<GCONST> 6.618560e+01
<STATE> 3
~s "silst"
<STATE> 4
<MEAN> 39
 -1.471702e+01 2.871446e+00 -7.810122e+00 7.415390e+00 -1.615068e+00 5.831568e+00 -4.699340e+00 -1.178532e+00 -1.279763e+00 -3.847449e+00 -2.265425e+00 -2.989532e+00 3.529264e+01 -4.639081e-02 -2.970452e-02 -1.299761e-01 2.341513e-02 1.173319e-02 -6.183848e-03 3.012620e-02 7.294426e-02 5.327240e-02 5.156223e-02 3.652749e-02 -1.379357e-02 -8.746747e-02 3.123126e-02 1.919363e-02 2.062964e-03 -4.183733e-02 -4.155427e-03 -3.137333e-02 8.137932e-03 -5.721468e-03 4.727964e-03 8.550923e-03 1.081619e-03 2.707945e-02 3.693009e-02
<VARIANCE> 39
 4.715008e+01 3.650579e+01 5.681283e+01 3.306472e+01 4.293350e+01 4.482921e+01 5.272740e+01 4.922254e+01 4.314033e+01 3.850215e+01 3.675752e+01 2.684859e+01 9.993227e+01 5.636724e-01 1.330259e+00 1.780803e+00 1.341243e+00 2.008730e+00 2.334509e+00 2.038077e+00 2.330205e+00 2.084799e+00 1.994367e+00 1.753258e+00 1.633966e+00 5.910465e-01 1.072320e-01 2.321916e-01 3.276820e-01 2.525512e-01 3.796553e-01 4.415320e-01 3.742378e-01 4.228126e-01 3.665056e-01 3.762997e-01 3.163937e-01 3.060468e-01 1.079803e-01
<GCONST> 1.102859e+02
<TRANSP> 5
 0.000000e+00 1.000000e+00 0.000000e+00 0.000000e+00 0.000000e+00
 0.000000e+00 9.234794e-01 2.027350e-02 5.624709e-02 0.000000e+00
 0.000000e+00 0.000000e+00 9.456195e-01 5.438052e-02 0.000000e+00
 0.000000e+00 6.812155e-02 0.000000e+00 7.690836e-01 1.627949e-01
 0.000000e+00 0.000000e+00 0.000000e+00 0.000000e+00 0.000000e+00
<ENDHMM>
