~o
<STREAMINFO> 1 13
<VECSIZE> 13<NULLD><MFCC_0><DIAGC>
~s "silst"
<MEAN> 13
 -1.027493e+01 2.703188e+00 -4.884622e+00 4.866871e+00 4.982426e-01 2.404432e+00 -2.899772e+00 -1.273851e+00 -1.635485e-01 -3.739924e+00 -2.178566e+00 -2.926231e+00 4.425147e+01
<VARIANCE> 13
 1.313105e+01 1.886733e+01 3.351181e+01 2.413626e+01 2.244105e+01 2.070617e+01 4.795797e+01 1.950857e+01 2.583486e+01 2.363004e+01 2.169007e+01 1.576231e+01 8.770903e+01
<GCONST> 6.580567e+01
~h "b"
<BEGINHMM>
<NUMSTATES> 5
<STATE> 2
<MEAN> 13
 6.443686e+00 5.246676e+00 -7.927186e+00 -3.719945e+00 -5.181605e+00 2.556735e-01 -8.277360e+00 -5.166814e+00 -6.027599e+00 -3.743391e+00 -5.495599e+00 -5.112162e+00 5.370795e+01
<VARIANCE> 13
 3.221888e+01 1.456077e+02 2.984326e+01 5.426087e+01 4.964802e+01 5.078070e+01 2.931631e+01 2.380907e+01 3.085892e+01 5.243382e+01 2.511625e+01 2.413920e+01 5.804578e+01
<GCONST> 7.197388e+01
<STATE> 3
<MEAN> 13
 -4.729510e+00 -5.341589e-01 -4.807590e+00 -5.846116e-01 1.989243e+00 7.353617e-01 2.146291e+00 1.985171e-01 1.678903e+00 6.200765e-01 -2.663623e-01 -3.847229e+00 5.329361e+01
<VARIANCE> 13
 1.413494e+01 3.200025e+01 2.423365e+01 1.530819e+01 1.637427e+01 1.267370e+01 2.655954e+01 1.680819e+01 2.895272e+01 2.129103e+01 1.456990e+01 1.578036e+01 1.455210e+01
<GCONST> 6.189883e+01
<STATE> 4
<MEAN> 13
 -1.241814e+01 4.598457e+00 -1.059607e+01 6.295907e+00 -4.596236e+00 2.253023e+00 -9.864503e+00 -5.096283e+00 -5.212162e+00 -7.338465e+00 -5.993337e+00 -7.358304e+00 3.491764e+01
<VARIANCE> 13
 3.118450e+01 3.372234e+01 3.435682e+01 2.161633e+01 4.480704e+01 3.603027e+01 3.323100e+01 3.572077e+01 2.648899e+01 3.477788e+01 3.038656e+01 2.777028e+01 6.338584e+01
<GCONST> 6.963959e+01
<TRANSP> 5
 0.000000e+00 1.000000e+00 0.000000e+00 0.000000e+00 0.000000e+00
 0.000000e+00 8.482319e-01 1.517681e-01 0.000000e+00 0.000000e+00
 0.000000e+00 0.000000e+00 8.330811e-01 1.669189e-01 0.000000e+00
 0.000000e+00 0.000000e+00 0.000000e+00 8.818460e-01 1.181540e-01
 0.000000e+00 0.000000e+00 0.000000e+00 0.000000e+00 0.000000e+00
<ENDHMM>
~h "d"
<BEGINHMM>
<NUMSTATES> 5
<STATE> 2
<MEAN> 13
 1.521804e+00 -2.207945e+00 -2.083548e+00 1.557254e-01 2.148704e+00 -2.352310e+00 -7.899270e+00 -8.392760e+00 9.520761e-01 4.492358e-01 -8.658076e+00 -6.506672e+00 5.952581e+01
<VARIANCE> 13
 3.217462e+01 1.708324e+02 3.305552e+01 1.477309e+02 7.731077e+01 4.798110e+01 1.120606e+02 6.316627e+01 6.283636e+01 6.674183e+01 5.486794e+01 3.762253e+01 1.130417e+02
<GCONST> 7.878295e+01
<STATE> 3
<MEAN> 13
 3.541616e+00 -1.202795e+01 -3.305432e+00 -6.473920e+00 -1.183668e+00 -4.375180e+00 -9.277598e+00 -7.926454e+00 3.239865e+00 2.868087e+00 -8.676488e+00 -4.445694e+00 6.727003e+01
<VARIANCE> 13
 1.744809e+01 5.803024e+01 2.504635e+01 9.825430e+01 1.203226e+02 6.444914e+01 1.491615e+02 9.082822e+01 8.690235e+01 7.884634e+01 8.298722e+01 4.004977e+01 3.675017e+01
<GCONST> 7.763617e+01
<STATE> 4
<MEAN> 13
 6.753657e+00 -1.686421e+01 -3.911546e+00 -1.267640e+01 -5.249967e-01 -1.506836e+00 -2.940438e+00 -9.333382e+00 -1.288540e+00 9.681971e+00 -1.211314e+01 -4.978836e+00 7.132261e+01
<VARIANCE> 13
 8.641390e+00 2.488212e+01 1.473544e+01 4.770685e+01 1.057339e+02 3.875800e+01 8.207217e+01 6.070584e+01 5.751566e+01 4.406757e+01 3.986769e+01 2.413551e+01 1.733320e+01
<GCONST> 7.021001e+01
<TRANSP> 5
 0.000000e+00 1.000000e+00 0.000000e+00 0.000000e+00 0.000000e+00
 0.000000e+00 4.197291e-01 5.802709e-01 0.000000e+00 0.000000e+00
 0.000000e+00 0.000000e+00 2.118325e-02 9.788167e-01 0.000000e+00
 0.000000e+00 0.000000e+00 0.000000e+00 7.801699e-01 2.198301e-01
 0.000000e+00 0.000000e+00 0.000000e+00 0.000000e+00 0.000000e+00
<ENDHMM>
~h "g"
<BEGINHMM>
<NUMSTATES> 5
<STATE> 2
<MEAN> 13
 -3.087393e+00 -3.907408e+00 1.643303e+01 -7.069229e+00 -1.238681e+01 -1.217202e+01 -4.258199e+00 -1.283997e+01 -1.565837e+01 8.878442e-01 3.731200e+00 -6.378864e+00 6.443650e+01
<VARIANCE> 13
 1.592732e+01 3.197624e+01 8.538177e+01 8.183858e+01 8.018302e+01 4.594162e+01 4.318726e+01 2.647834e+01 7.088182e+01 3.170720e+01 1.069434e+02 3.946387e+01 5.456261e+01
<GCONST> 7.429546e+01
<STATE> 3
<MEAN> 13
 -3.140818e+00 -1.565195e+00 9.268407e+00 -3.228551e+00 -9.916160e+00 -1.380660e+01 -4.660525e+00 -2.955569e+00 -6.156064e+00 -6.901814e-01 -1.804533e+00 -4.968993e+00 6.180909e+01
<VARIANCE> 13
 2.041523e+01 1.439085e+02 1.068600e+02 8.990275e+01 7.601491e+01 8.829349e+01 6.263920e+01 4.145454e+01 4.690079e+01 3.198100e+01 9.874252e+01 6.705705e+01 1.073728e+02
<GCONST> 7.850924e+01
<STATE> 4
<MEAN> 13
 1.327280e+00 -1.740844e+01 -7.060896e+00 -7.864869e+00 -1.193623e+01 -7.642700e+00 -1.235849e+01 4.502282e+00 3.309288e+00 2.241796e-02 -3.661378e+00 -1.920080e+01 7.561829e+01
<VARIANCE> 13
 7.154200e+00 5.007463e+01 3.786610e+01 2.534638e+01 4.615675e+01 6.324913e+01 3.348251e+01 3.524798e+01 6.229397e+01 3.632897e+01 7.544623e+01 8.011095e+01 5.886518e+01
<GCONST> 7.219943e+01
<TRANSP> 5
 0.000000e+00 1.000000e+00 0.000000e+00 0.000000e+00 0.000000e+00
 0.000000e+00 8.100331e-01 1.899669e-01 0.000000e+00 0.000000e+00
 0.000000e+00 0.000000e+00 7.716618e-01 2.283382e-01 0.000000e+00
 0.000000e+00 0.000000e+00 0.000000e+00 7.967638e-01 2.032363e-01
 0.000000e+00 0.000000e+00 0.000000e+00 0.000000e+00 0.000000e+00
<ENDHMM>
~h "j"
<BEGINHMM>
<NUMSTATES> 5
<STATE> 2
<MEAN> 13
 -6.478152e+00 1.277576e+01 2.887270e+01 -4.108779e+00 -6.972388e+00 -4.495611e+00 -8.402291e+00 -4.320388e+00 -1.638770e+01 9.204210e-01 -1.195005e+00 -3.968732e+00 5.079821e+01
<VARIANCE> 13
 1.292509e+01 1.286454e+02 1.310470e+02 2.169254e+02 8.523963e+01 5.821777e+01 9.438386e+01 2.955311e+01 5.493617e+01 5.635821e+01 3.620872e+01 2.398623e+01 7.009402e+01
<GCONST> 7.706149e+01
<STATE> 3
<MEAN> 13
 -5.867466e-01 -7.025730e+00 5.578134e+00 1.856663e+00 -1.177661e+01 -9.849453e+00 -1.895519e+01 -1.475662e+01 -5.099123e+00 -1.134820e+00 1.101916e+01 -5.825857e+00 6.569763e+01
<VARIANCE> 13
 2.548904e+01 1.472150e+01 7.405298e+01 4.492542e+01 3.303321e+01 6.507482e+01 9.521982e+01 8.856871e+01 6.932232e+01 3.286613e+01 6.757137e+01 5.287418e+01 2.864569e+01
<GCONST> 7.391008e+01
<STATE> 4
<MEAN> 13
 9.329703e+00 4.723509e+00 -5.329384e+00 1.963105e+00 -5.023581e+00 5.409392e+00 -1.165740e+01 -1.838389e+01 -1.176379e+01 -5.673674e-01 3.926119e+00 -3.606159e+00 5.515643e+01
<VARIANCE> 13
 1.909231e+01 1.907971e+02 2.960726e+01 3.575464e+01 1.911154e+01 3.903859e+01 4.293715e+01 3.164596e+01 2.709613e+01 3.686076e+01 5.802641e+01 2.284987e+01 1.050597e+02
<GCONST> 7.163770e+01
<TRANSP> 5
 0.000000e+00 1.000000e+00 0.000000e+00 0.000000e+00 0.000000e+00
 0.000000e+00 8.405010e-01 1.594990e-01 0.000000e+00 0.000000e+00
 0.000000e+00 0.000000e+00 7.990473e-01 2.009527e-01 0.000000e+00
 0.000000e+00 0.000000e+00 0.000000e+00 7.847190e-01 2.152810e-01
 0.000000e+00 0.000000e+00 0.000000e+00 0.000000e+00 0.000000e+00
<ENDHMM>
~h "k"
<BEGINHMM>
<NUMSTATES> 5
<STATE> 2
<MEAN> 13
 -7.464877e+00 6.974294e-01 -2.949963e+00 -3.236004e-01 1.726146e+00 3.862830e-02 -4.046084e-01 -1.297042e+00 1.607193e+00 -2.702172e-01 3.583780e-01 -1.873294e+00 5.280857e+01
<VARIANCE> 13
 2.025517e+01 2.838495e+01 3.105299e+01 2.278712e+01 2.527467e+01 2.176403e+01 3.453629e+01 2.570656e+01 2.263588e+01 2.416768e+01 1.840968e+01 1.573350e+01 4.764811e+01
<GCONST> 6.574444e+01
<STATE> 3
<MEAN> 13
 -7.257707e+00 -4.224360e+00 -8.910909e+00 1.689933e-02 3.139128e+00 3.303201e-01 -6.026509e+00 -3.830857e+00 -5.495380e-01 1.995129e+00 -4.662232e-01 -4.192214e+00 5.274329e+01
<VARIANCE> 13
 5.674448e+01 8.472375e+01 8.187343e+01 6.306942e+01 6.948035e+01 7.668608e+01 4.623167e+01 6.015553e+01 5.867509e+01 5.078622e+01 4.040754e+01 2.756352e+01 1.538187e+02
<GCONST> 7.748206e+01
<STATE> 4
<MEAN> 13
 -9.407569e+00 -2.074594e+00 -9.787956e+00 1.276850e+00 7.374757e+00 -8.431221e-01 -2.493953e+00 -2.630675e+00 -2.280592e+00 3.715131e+00 -3.551348e-02 -3.267126e+00 4.771822e+01
<VARIANCE> 13
 7.903996e+01 1.470809e+02 1.412036e+02 1.545661e+02 1.589510e+02 2.660700e+02 8.397509e+01 1.318003e+02 1.109245e+02 8.353372e+01 7.654510e+01 7.258826e+01 2.184738e+02
<GCONST> 8.635178e+01
<TRANSP> 5
 0.000000e+00 1.000000e+00 0.000000e+00 0.000000e+00 0.000000e+00
 0.000000e+00 7.673520e-01 2.326479e-01 0.000000e+00 0.000000e+00
 0.000000e+00 0.000000e+00 8.973400e-02 9.102660e-01 0.000000e+00
 0.000000e+00 0.000000e+00 0.000000e+00 6.700782e-01 3.299218e-01
 0.000000e+00 0.000000e+00 0.000000e+00 0.000000e+00 0.000000e+00
<ENDHMM>
~h "l"
<BEGINHMM>
<NUMSTATES> 5
<STATE> 2
<MEAN> 13
 2.028106e+00 -2.451526e+01 -1.089623e+01 -1.243149e+01 -3.469964e+00 1.765441e+01 -7.429372e+00 -1.562652e+01 1.602539e+01 -2.634088e+00 6.971838e-01 -3.762131e+00 7.171413e+01
<VARIANCE> 13
 5.814979e+00 4.798672e+01 1.396012e+01 2.469327e+01 3.779521e+01 7.508275e+01 2.681527e+01 3.678144e+01 6.484961e+01 4.537961e+01 5.178823e+01 3.571668e+01 8.320860e+00
<GCONST> 6.783992e+01
<STATE> 3
<MEAN> 13
 6.301433e+00 -1.433234e+01 -8.822217e+00 -1.575432e+01 3.760853e-01 7.664610e+00 -8.006459e+00 -8.875993e+00 -1.134348e+00 5.590077e+00 1.873873e+00 -1.177764e+01 7.095599e+01
<VARIANCE> 13
 8.674531e+00 3.866476e+01 1.838367e+01 2.259719e+01 6.900256e+01 7.503972e+01 1.923011e+01 3.455828e+01 6.483302e+01 4.016332e+01 1.218730e+02 8.897894e+01 1.689372e+01
<GCONST> 7.077139e+01
<STATE> 4
<MEAN> 13
 5.016819e+00 -1.157154e+01 -8.703330e+00 -1.583068e+01 2.864075e+00 5.812945e+00 -7.147406e+00 -7.357264e+00 1.989809e+00 4.255785e+00 -7.794049e+00 -7.166060e+00 6.859138e+01
<VARIANCE> 13
 1.306594e+01 8.177711e+01 2.845840e+01 3.423214e+01 9.918700e+01 9.284259e+01 3.279283e+01 4.390279e+01 7.447430e+01 5.020026e+01 1.073738e+02 8.613699e+01 3.224477e+01
<GCONST> 7.498021e+01
<TRANSP> 5
 0.000000e+00 1.000000e+00 0.000000e+00 0.000000e+00 0.000000e+00
 0.000000e+00 8.653902e-01 1.346098e-01 0.000000e+00 0.000000e+00
 0.000000e+00 0.000000e+00 4.676316e-01 5.323684e-01 0.000000e+00
 0.000000e+00 0.000000e+00 0.000000e+00 7.207381e-02 9.279262e-01
 0.000000e+00 0.000000e+00 0.000000e+00 0.000000e+00 0.000000e+00
<ENDHMM>
~h "m"
<BEGINHMM>
<NUMSTATES> 5
<STATE> 2
<MEAN> 13
 6.089769e+00 -7.778551e+00 -6.233287e+00 -2.991310e+00 -2.657160e+00 -6.005168e-01 -3.719803e+00 -1.041200e+01 -1.257801e+01 1.455963e+00 -2.215533e+00 -8.985145e+00 6.259584e+01
<VARIANCE> 13
 1.824422e+01 4.535788e+01 4.535942e+01 3.096397e+01 5.182330e+01 6.324336e+01 2.794602e+01 2.936646e+01 6.930943e+01 3.153952e+01 4.224374e+01 4.043303e+01 1.804814e+01
<GCONST> 7.068921e+01
<STATE> 3
<MEAN> 13
 3.730504e+00 2.049859e+00 -1.828630e+00 1.861987e+00 8.583405e+00 1.818958e+00 -6.964561e+00 -1.369395e+01 -9.524285e+00 4.544683e-01 -6.781171e+00 -7.170809e-01 5.634951e+01
<VARIANCE> 13
 1.963118e+01 6.935278e+01 3.668692e+01 4.642404e+01 1.187370e+02 6.839401e+01 5.715002e+01 5.141744e+01 5.408791e+01 3.701915e+01 5.467086e+01 6.826769e+01 3.764343e+01
<GCONST> 7.499179e+01
<STATE> 4
<MEAN> 13
 -7.869451e+00 2.971862e+00 -7.924237e+00 5.737206e+00 -1.989626e+00 4.114827e+00 -7.745657e+00 -4.953218e+00 -4.860250e+00 -5.772504e+00 -5.799592e+00 -5.418144e+00 4.118992e+01
<VARIANCE> 13
 5.890717e+01 8.480820e+01 5.406898e+01 7.012135e+01 4.988721e+01 3.575930e+01 2.363512e+01 3.190771e+01 3.191962e+01 2.807702e+01 2.787877e+01 2.026984e+01 1.210132e+02
<GCONST> 7.269247e+01
<TRANSP> 5
 0.000000e+00 1.000000e+00 0.000000e+00 0.000000e+00 0.000000e+00
 0.000000e+00 7.185794e-01 2.814206e-01 0.000000e+00 0.000000e+00
 0.000000e+00 0.000000e+00 6.499994e-01 3.500006e-01 0.000000e+00
 0.000000e+00 0.000000e+00 0.000000e+00 8.198547e-01 1.801453e-01
 0.000000e+00 0.000000e+00 0.000000e+00 0.000000e+00 0.000000e+00
<ENDHMM>
~h "n"
<BEGINHMM>
<NUMSTATES> 5
<STATE> 2
<MEAN> 13
 5.729554e-01 -7.162835e-01 -4.010821e-01 1.828459e+00 -3.843795e+00 -6.532503e+00 -6.341357e+00 -8.066763e+00 -2.041473e+00 -1.183749e+00 -7.265331e+00 -6.465639e+00 5.826185e+01
<VARIANCE> 13
 3.000869e+01 3.116620e+01 2.786003e+01 2.790964e+01 4.692093e+01 6.084688e+01 1.964577e+01 4.501977e+01 2.515867e+01 2.815344e+01 3.562137e+01 3.241016e+01 4.825541e+01
<GCONST> 6.962198e+01
<STATE> 3
<MEAN> 13
 3.552830e+00 6.950252e+00 -1.353907e+00 -3.223088e+00 2.090590e+00 1.477532e+00 -1.016640e+01 -6.568413e+00 -1.052323e+00 -3.997479e+00 -1.009626e+01 4.069499e+00 5.360582e+01
<VARIANCE> 13
 6.203104e+01 6.782895e+01 5.013537e+01 2.761156e+02 1.082451e+02 1.575528e+02 9.937680e+01 7.975237e+01 5.976605e+01 7.005367e+01 9.267094e+01 1.150652e+02 6.759065e+01
<GCONST> 8.232230e+01
<STATE> 4
<MEAN> 13
 -7.469769e+00 1.049827e+01 -2.484024e+00 8.399006e+00 -2.740151e+00 3.497141e+00 -8.435227e+00 -5.137816e+00 -3.110027e+00 -6.180099e+00 -4.957966e+00 -2.762424e+00 3.855528e+01
<VARIANCE> 13
 9.450821e+01 1.036978e+02 6.151643e+01 9.179360e+01 4.430263e+01 4.715458e+01 3.875591e+01 5.039568e+01 3.668139e+01 2.893609e+01 3.560639e+01 3.878270e+01 1.132752e+02
<GCONST> 7.587076e+01
<TRANSP> 5
 0.000000e+00 1.000000e+00 0.000000e+00 0.000000e+00 0.000000e+00
 0.000000e+00 7.367340e-01 2.632660e-01 0.000000e+00 0.000000e+00
 0.000000e+00 0.000000e+00 5.886917e-01 4.113083e-01 0.000000e+00
 0.000000e+00 0.000000e+00 0.000000e+00 7.634910e-01 2.365090e-01
 0.000000e+00 0.000000e+00 0.000000e+00 0.000000e+00 0.000000e+00
<ENDHMM>
~h "p"
<BEGINHMM>
<NUMSTATES> 5
<STATE> 2
<MEAN> 13
 -1.244418e+01 4.578777e+00 -9.015122e+00 6.245927e+00 -2.613703e+00 3.530481e+00 -8.235252e+00 -3.644003e+00 -3.821913e+00 -4.796834e+00 -4.375896e+00 -4.505862e+00 3.673545e+01
<VARIANCE> 13
 5.409871e+01 5.284649e+01 4.885243e+01 4.407146e+01 4.031060e+01 4.706956e+01 4.370582e+01 4.560203e+01 3.372391e+01 4.141535e+01 2.956319e+01 2.043436e+01 9.225948e+01
<GCONST> 7.284111e+01
<STATE> 3
<MEAN> 13
 -7.395484e+00 -1.014576e-01 -1.698248e+00 1.752459e-01 2.432215e+00 2.053352e-01 1.630277e+00 -1.019983e+00 1.647515e+00 -1.091647e+00 7.833109e-01 -1.688585e+00 5.444302e+01
<VARIANCE> 13
 1.624539e+01 2.328822e+01 2.494720e+01 1.320324e+01 2.241133e+01 1.878951e+01 1.827486e+01 2.005697e+01 1.583051e+01 1.315424e+01 1.603478e+01 1.222893e+01 3.297570e+01
<GCONST> 6.168537e+01
<STATE> 4
<MEAN> 13
 2.602497e+00 -8.904810e+00 -1.339350e+01 -6.427988e+00 -3.279066e+00 -1.866898e-01 -2.110128e+00 -5.705096e+00 -2.698543e+00 3.994129e+00 -6.873780e-02 -3.995486e+00 6.118971e+01
<VARIANCE> 13
 3.743459e+01 3.724162e+01 1.179589e+02 7.460070e+01 6.186371e+01 9.364174e+01 5.192654e+01 6.961643e+01 6.212082e+01 7.382563e+01 6.705755e+01 3.646710e+01 8.033349e+01
<GCONST> 7.769109e+01
<TRANSP> 5
 0.000000e+00 1.000000e+00 0.000000e+00 0.000000e+00 0.000000e+00
 0.000000e+00 8.039225e-01 1.960776e-01 0.000000e+00 0.000000e+00
 0.000000e+00 0.000000e+00 8.137908e-01 1.862091e-01 0.000000e+00
 0.000000e+00 0.000000e+00 0.000000e+00 3.373774e-01 6.626227e-01
 0.000000e+00 0.000000e+00 0.000000e+00 0.000000e+00 0.000000e+00
<ENDHMM>
~h "r"
<BEGINHMM>
<NUMSTATES> 5
<STATE> 2
<MEAN> 13
 6.594321e+00 -1.023643e+01 -1.516453e+01 -2.694853e+00 -1.123490e+01 -4.730364e+00 -4.900633e+00 1.980404e+00 4.829841e+00 -3.651915e+00 -5.181905e+00 -1.847926e+00 6.774654e+01
<VARIANCE> 13
 2.216168e+01 3.543470e+01 1.474748e+02 3.055216e+01 1.534104e+02 5.490953e+01 3.030926e+01 7.680042e+01 4.330800e+01 1.032277e+02 2.791924e+01 6.614118e+01 2.464691e+01
<GCONST> 7.489404e+01
<STATE> 3
<MEAN> 13
 1.468493e+00 -1.003959e+01 -4.901919e+00 9.614450e-02 -3.054090e+00 -4.533955e+00 -3.811353e+00 -1.694316e+00 2.298882e+00 2.893451e+00 -4.000199e+00 -6.652152e+00 6.209702e+01
<VARIANCE> 13
 1.533851e+01 4.226362e+01 4.184967e+01 3.505207e+01 5.819383e+01 6.101774e+01 3.635861e+01 5.402246e+01 4.447341e+01 4.717069e+01 3.784341e+01 4.721595e+01 3.558604e+01
<GCONST> 7.212418e+01
<STATE> 4
<MEAN> 13
 -3.037460e+00 -3.529369e+00 -1.357517e+00 1.056845e+01 9.050307e-01 -3.436671e-01 -1.657613e+00 5.015648e+00 1.998648e+00 -2.078756e+00 -2.821899e+00 -1.607829e+00 5.106786e+01
<VARIANCE> 13
 5.607646e+01 1.416225e+02 5.689931e+01 1.840522e+02 8.342101e+01 1.055742e+02 6.704785e+01 9.706362e+01 5.938912e+01 6.432419e+01 4.983215e+01 4.740709e+01 2.051383e+02
<GCONST> 8.133203e+01
<TRANSP> 5
 0.000000e+00 1.000000e+00 0.000000e+00 0.000000e+00 0.000000e+00
 0.000000e+00 5.024725e-01 4.975275e-01 0.000000e+00 0.000000e+00
 0.000000e+00 0.000000e+00 5.896078e-01 4.103921e-01 0.000000e+00
 0.000000e+00 0.000000e+00 0.000000e+00 6.114436e-01 3.885564e-01
 0.000000e+00 0.000000e+00 0.000000e+00 0.000000e+00 0.000000e+00
<ENDHMM>
~h "s"
<BEGINHMM>
<NUMSTATES> 5
<STATE> 2
<MEAN> 13
 -1.290676e+01 -4.293947e-01 -2.392563e+00 -4.107882e+00 5.682329e+00 -5.859731e+00 -7.002690e-01 -6.724745e+00 1.892187e+00 -2.046245e+00 1.681630e+00 -3.359717e+00 6.039756e+01
<VARIANCE> 13
 4.224070e+01 3.352810e+01 6.473454e+01 5.943365e+01 5.839187e+01 6.976994e+01 5.635443e+01 4.646609e+01 5.145345e+01 3.591518e+01 4.877276e+01 4.137046e+01 8.810783e+01
<GCONST> 7.519623e+01
<STATE> 3
<MEAN> 13
 -1.564482e+01 3.396376e+00 -5.677386e+00 6.080635e+00 5.269767e+00 -7.414215e+00 4.906633e+00 -9.471859e-01 5.265152e+00 -6.611105e-01 1.634141e+00 -2.378205e+00 6.149728e+01
<VARIANCE> 13
 2.404907e+01 4.094356e+01 3.366331e+01 8.556790e+01 4.188982e+01 3.891106e+01 4.865642e+01 4.224724e+01 3.245524e+01 2.524636e+01 2.195703e+01 2.265542e+01 4.155814e+01
<GCONST> 7.042018e+01
<STATE> 4
<MEAN> 13
 -2.375599e+01 1.188710e-01 -1.964726e+00 -3.280993e+00 1.526659e+01 -1.582026e+01 7.095947e+00 -2.192970e+00 6.222301e+00 -7.573370e+00 4.471175e-01 8.482953e-01 5.485553e+01
<VARIANCE> 13
 9.243455e+01 7.199593e+01 5.307757e+01 3.891941e+01 9.545778e+01 8.892167e+01 1.270671e+02 5.355830e+01 6.689600e+01 5.448306e+01 3.635433e+01 5.758989e+01 6.732851e+01
<GCONST> 7.825796e+01
<TRANSP> 5
 0.000000e+00 1.000000e+00 0.000000e+00 0.000000e+00 0.000000e+00
 0.000000e+00 5.083939e-01 4.916061e-01 0.000000e+00 0.000000e+00
 0.000000e+00 0.000000e+00 7.068560e-01 2.931440e-01 0.000000e+00
 0.000000e+00 0.000000e+00 0.000000e+00 7.411648e-01 2.588352e-01
 0.000000e+00 0.000000e+00 0.000000e+00 0.000000e+00 0.000000e+00
<ENDHMM>
~h "t"
<BEGINHMM>
<NUMSTATES> 5
<STATE> 2
<MEAN> 13
 -5.765593e+00 -2.466125e+00 -9.993603e+00 -1.757927e+00 -4.899071e-01 1.814548e+00 -5.584101e+00 -4.365144e+00 1.555342e+00 -8.359748e-01 -2.707149e+00 -3.032793e+00 4.913324e+01
<VARIANCE> 13
 5.652324e+01 6.171778e+01 9.636639e+01 1.104772e+02 6.882901e+01 1.243522e+02 9.394515e+01 8.238475e+01 8.864554e+01 6.567580e+01 4.739892e+01 4.071515e+01 1.263519e+02
<GCONST> 8.040510e+01
<STATE> 3
<MEAN> 13
 2.163894e+00 -6.909728e+00 -6.432350e+00 -1.573458e+01 -9.391119e+00 3.273048e+00 -1.279962e+01 -1.243878e+01 1.943931e+00 -2.265270e+00 3.744957e+00 -2.763138e+00 6.860739e+01
<VARIANCE> 13
 2.075163e+01 3.204676e+01 2.526077e+01 7.481815e+01 5.576221e+01 7.518534e+01 4.926920e+01 4.712626e+01 8.287096e+01 5.241731e+01 3.417646e+01 6.116920e+01 5.046026e+01
<GCONST> 7.397061e+01
<STATE> 4
<MEAN> 13
 5.556815e+00 -1.068573e+00 -1.554581e+00 -1.281866e+01 -1.137764e+00 8.478665e+00 -1.256308e+01 -1.321328e+01 -8.775835e+00 5.021759e+00 1.141822e+00 -2.833727e+00 6.058709e+01
<VARIANCE> 13
 3.706823e+01 7.893449e+01 4.051135e+01 1.582184e+02 9.883926e+01 7.533278e+01 8.331950e+01 5.354350e+01 6.814190e+01 6.038750e+01 1.322897e+02 5.294172e+01 8.641645e+01
<GCONST> 7.959367e+01
<TRANSP> 5
 0.000000e+00 1.000000e+00 0.000000e+00 0.000000e+00 0.000000e+00
 0.000000e+00 6.646944e-01 3.353056e-01 0.000000e+00 0.000000e+00
 0.000000e+00 0.000000e+00 7.636083e-01 2.363917e-01 0.000000e+00
 0.000000e+00 0.000000e+00 0.000000e+00 8.094497e-01 1.905502e-01
 0.000000e+00 0.000000e+00 0.000000e+00 0.000000e+00 0.000000e+00
<ENDHMM>
~h "w"
<BEGINHMM>
<NUMSTATES> 5
<STATE> 2
<MEAN> 13
 -2.032311e+01 -3.516724e+00 2.565612e+00 -7.696287e+00 1.457845e+01 -1.922767e+00 -2.934314e+00 -4.097116e+00 5.595469e+00 -5.832576e+00 3.349733e+00 -7.020214e+00 6.259548e+01
<VARIANCE> 13
 3.281345e+01 1.549743e+01 1.611416e+01 4.688720e+01 5.132142e+01 5.574059e+01 2.720554e+01 5.038624e+01 2.819903e+01 2.630856e+01 1.141357e+01 1.141276e+01 6.227158e+00
<GCONST> 6.524095e+01
<STATE> 3
<MEAN> 13
 -8.746899e-01 -6.552097e+00 3.286691e+00 -1.395463e+00 -2.812965e+00 -8.602381e+00 -1.285200e+01 -7.346735e+00 1.119666e+00 -2.524874e+00 3.609040e+00 -4.614650e+00 6.753337e+01
<VARIANCE> 13
 3.330519e+01 6.021239e+01 3.385386e+01 1.979162e+01 5.314625e+01 4.318594e+01 4.262833e+01 3.775487e+01 4.873614e+01 5.754089e+01 5.019297e+01 1.330336e+01 1.698004e+01
<GCONST> 7.040036e+01
<STATE> 4
<MEAN> 13
 -6.761999e+00 -6.203353e+00 3.596534e+00 -2.304244e-01 5.166323e-02 -4.256086e+00 -4.882193e+00 -9.298411e+00 -7.373672e+00 -6.055442e+00 3.318802e+00 1.041626e+00 5.968957e+01
<VARIANCE> 13
 2.874322e+01 1.023632e+01 1.242022e+01 1.699122e+01 2.417907e+01 3.480474e+01 6.337565e+01 4.698051e+01 3.231760e+01 3.162106e+01 3.328205e+01 2.838207e+01 3.274031e+01
<GCONST> 6.693164e+01
<TRANSP> 5
 0.000000e+00 1.000000e+00 0.000000e+00 0.000000e+00 0.000000e+00
 0.000000e+00 8.370145e-01 1.629855e-01 0.000000e+00 0.000000e+00
 0.000000e+00 0.000000e+00 7.115459e-01 2.884541e-01 0.000000e+00
 0.000000e+00 0.000000e+00 0.000000e+00 7.309864e-01 2.690136e-01
 0.000000e+00 0.000000e+00 0.000000e+00 0.000000e+00 0.000000e+00
<ENDHMM>
~h "ah"
<BEGINHMM>
<NUMSTATES> 5
<STATE> 2
<MEAN> 13
 4.836059e+00 -1.856313e+01 -1.114372e+01 -1.192034e+01 6.391605e-01 2.112516e+00 -1.412922e+00 -7.628380e+00 -1.580783e+00 6.405197e+00 -3.694550e+00 -7.276824e+00 7.060537e+01
<VARIANCE> 13
 1.049318e+01 5.048708e+01 3.107296e+01 4.511978e+01 8.209900e+01 9.999802e+01 5.133543e+01 4.790269e+01 1.153406e+02 6.039429e+01 6.790478e+01 4.141759e+01 2.001879e+01
<GCONST> 7.401840e+01
<STATE> 3
<MEAN> 13
 2.855355e+00 -2.009963e+01 -1.206365e+01 -7.467668e+00 -2.095078e+00 6.275599e-01 -4.339983e+00 -4.315171e+00 3.997030e+00 2.150934e+00 -7.582116e+00 -1.258908e+01 7.395559e+01
<VARIANCE> 13
 5.127389e+00 2.718018e+01 1.977064e+01 2.283440e+01 4.535389e+01 4.750054e+01 3.627063e+01 6.371851e+01 9.982601e+01 4.477215e+01 5.412290e+01 4.095083e+01 1.563991e+01
<GCONST> 6.922114e+01
<STATE> 4
<MEAN> 13
 2.976821e+00 -1.246420e+01 -6.066607e+00 -1.162226e+01 1.004527e+01 -6.744085e+00 1.137336e+00 -4.472304e+00 4.647598e+00 1.633796e+00 -1.372431e+01 -2.923089e+00 6.812007e+01
<VARIANCE> 13
 8.672692e+00 2.835460e+01 2.580505e+01 7.292426e+01 1.067968e+02 7.253036e+01 7.049004e+01 5.627231e+01 5.865687e+01 7.064111e+01 6.438722e+01 6.114492e+01 2.895211e+01
<GCONST> 7.415109e+01
<TRANSP> 5
 0.000000e+00 1.000000e+00 0.000000e+00 0.000000e+00 0.000000e+00
 0.000000e+00 6.220573e-01 3.779428e-01 0.000000e+00 0.000000e+00
 0.000000e+00 0.000000e+00 8.104329e-01 1.895672e-01 0.000000e+00
 0.000000e+00 0.000000e+00 0.000000e+00 6.480662e-01 3.519338e-01
 0.000000e+00 0.000000e+00 0.000000e+00 0.000000e+00 0.000000e+00
<ENDHMM>
~h "ax"
<BEGINHMM>
<NUMSTATES> 5
<STATE> 2
<MEAN> 13
 2.232128e+00 -1.057353e+01 5.826668e+00 -5.489026e+00 -8.482716e+00 -1.316327e+01 -5.760487e+00 3.918002e-01 -6.773353e+00 5.582505e+00 -2.653634e+00 -2.352149e+00 6.917208e+01
<VARIANCE> 13
 1.558013e+01 3.849210e+01 8.464038e+01 5.326497e+01 1.109424e+02 7.417866e+01 4.499095e+01 8.537081e+01 8.324908e+01 3.325591e+01 6.742766e+01 3.857212e+01 3.241880e+01
<GCONST> 7.523988e+01
<STATE> 3
<MEAN> 13
 4.529133e+00 -1.487781e+01 -6.808888e+00 -8.589270e+00 -7.418072e-01 -9.718230e-01 -5.325891e+00 -3.262358e+00 -1.936617e+00 7.485277e+00 -6.525539e+00 -9.486170e+00 7.029958e+01
<VARIANCE> 13
 1.501421e+01 3.228419e+01 2.608175e+01 3.901654e+01 4.896813e+01 4.868755e+01 3.857903e+01 6.796276e+01 7.527624e+01 4.356998e+01 8.027689e+01 4.091810e+01 4.253889e+01
<GCONST> 7.259246e+01
<STATE> 4
<MEAN> 13
 2.019394e-02 -4.500496e+00 -5.304393e+00 -3.999218e+00 3.282475e-01 -4.900119e+00 -5.668338e+00 -4.114450e+00 3.145606e+00 5.599090e+00 -4.336993e+00 -7.358414e+00 6.302893e+01
<VARIANCE> 13
 3.533121e+01 3.721594e+01 3.019822e+01 4.098981e+01 7.573615e+01 7.927412e+01 5.870420e+01 7.132613e+01 7.816338e+01 4.957897e+01 4.457786e+01 4.735674e+01 6.113586e+01
<GCONST> 7.526537e+01
<TRANSP> 5
 0.000000e+00 1.000000e+00 0.000000e+00 0.000000e+00 0.000000e+00
 0.000000e+00 7.673105e-01 2.326895e-01 0.000000e+00 0.000000e+00
 0.000000e+00 0.000000e+00 8.172762e-01 1.827237e-01 0.000000e+00
 0.000000e+00 0.000000e+00 0.000000e+00 6.369905e-01 3.630096e-01
 0.000000e+00 0.000000e+00 0.000000e+00 0.000000e+00 0.000000e+00
<ENDHMM>
~h "ay"
<BEGINHMM>
<NUMSTATES> 5
<STATE> 2
<MEAN> 13
 -1.171397e+01 1.124823e+00 -4.344848e+00 7.723400e+00 5.516156e+00 -6.030388e+00 5.336129e+00 2.325544e+00 5.433075e+00 -7.461903e-01 -6.345897e-01 -8.880302e-01 5.936770e+01
<VARIANCE> 13
 4.082471e+01 3.926053e+01 2.501274e+01 6.078903e+01 2.827824e+01 2.942942e+01 3.544686e+01 2.501781e+01 3.230278e+01 2.648462e+01 1.660625e+01 1.879473e+01 3.326148e+01
<GCONST> 6.810989e+01
<STATE> 3
<MEAN> 13
 -6.751273e+00 -6.862615e+00 -6.151155e+00 -9.410835e+00 2.842275e+00 -7.800513e-01 9.676821e-01 -7.034172e+00 -1.384104e-01 2.078761e+00 -5.764693e+00 -8.168426e+00 6.020528e+01
<VARIANCE> 13
 1.520430e+02 5.247513e+01 6.516479e+01 7.733739e+01 7.725478e+01 6.002903e+01 4.624246e+01 7.636118e+01 1.352527e+02 1.330552e+02 8.702790e+01 1.277468e+02 6.206999e+01
<GCONST> 8.125577e+01
<STATE> 4
<MEAN> 13
 1.132876e+00 -1.253190e+01 4.744628e+00 -1.740700e+01 3.826824e+00 -1.518208e+01 7.602825e+00 5.249398e-01 1.479540e+00 1.206769e+00 -1.162044e+01 3.341849e+00 7.048775e+01
<VARIANCE> 13
 6.998756e+00 1.617366e+01 9.183406e+01 2.616036e+01 9.146487e+01 4.579065e+01 3.320063e+01 3.889738e+01 6.335509e+01 5.831177e+01 4.887912e+01 3.342646e+01 9.759360e+00
<GCONST> 6.980076e+01
<TRANSP> 5
 0.000000e+00 1.000000e+00 0.000000e+00 0.000000e+00 0.000000e+00
 0.000000e+00 8.073822e-01 1.926179e-01 0.000000e+00 0.000000e+00
 0.000000e+00 0.000000e+00 5.227698e-01 4.772302e-01 0.000000e+00
 0.000000e+00 0.000000e+00 0.000000e+00 8.703841e-01 1.296159e-01
 0.000000e+00 0.000000e+00 0.000000e+00 0.000000e+00 0.000000e+00
<ENDHMM>
~h "eh"
<BEGINHMM>
<NUMSTATES> 5
<STATE> 2
<MEAN> 13
 1.384841e+00 -5.223931e+00 3.550199e+00 4.037453e+00 -4.676262e+00 -1.059522e+01 -8.268661e+00 -1.162652e+00 2.187714e+00 -2.476960e+00 -5.868578e+00 -3.788226e+00 6.111216e+01
<VARIANCE> 13
 8.401994e+00 1.955675e+02 1.144159e+01 7.502663e+01 7.408895e+01 3.791475e+01 2.164481e+01 6.510052e+01 6.260749e+01 5.612263e+01 6.063321e+01 6.500281e+01 1.295139e+02
<GCONST> 7.455067e+01
<STATE> 3
<MEAN> 13
 3.702947e+00 -1.225159e+01 5.092468e+00 -4.878353e+00 -9.043425e+00 -1.244093e+01 -1.391765e+01 -1.077382e+00 -2.895916e+00 3.615376e+00 -1.900874e+00 -5.757027e+00 6.945149e+01
<VARIANCE> 13
 5.079020e+00 1.016943e+01 3.722547e+01 5.391671e+01 1.031611e+02 8.914977e+01 5.385837e+01 2.074169e+02 3.887394e+01 1.725840e+01 4.256742e+01 9.622570e+01 1.244005e+01
<GCONST> 7.123637e+01
<STATE> 4
<MEAN> 13
 5.947148e+00 -4.415647e+00 -7.676613e-01 -8.855669e+00 2.697993e+00 -3.239146e+00 -1.492404e+01 -9.921043e+00 -6.597704e+00 9.816019e+00 -1.324516e+00 -1.821816e+00 6.284043e+01
<VARIANCE> 13
 9.396065e+00 4.991282e+01 1.789993e+01 6.746397e+01 1.034449e+02 9.942303e+01 1.717020e+01 3.702757e+01 4.284908e+01 6.044775e+01 9.144588e+01 2.577653e+01 2.772483e+01
<GCONST> 7.177962e+01
<TRANSP> 5
 0.000000e+00 1.000000e+00 0.000000e+00 0.000000e+00 0.000000e+00
 0.000000e+00 8.945063e-01 1.054937e-01 0.000000e+00 0.000000e+00
 0.000000e+00 0.000000e+00 9.041652e-01 9.583481e-02 0.000000e+00
 0.000000e+00 0.000000e+00 0.000000e+00 8.116129e-01 1.883871e-01
 0.000000e+00 0.000000e+00 0.000000e+00 0.000000e+00 0.000000e+00
<ENDHMM>
~h "hh"
<BEGINHMM>
<NUMSTATES> 5
<STATE> 2
<MEAN> 13
 1.941083e+00 -7.624440e+00 1.872249e+00 -5.520679e+00 4.919207e+00 -1.677085e+01 -2.271874e+00 6.893471e+00 1.521525e+00 1.768788e-01 -1.502586e+01 2.992283e+00 6.389828e+01
<VARIANCE> 13
 6.466444e+00 8.345238e+01 3.173298e+01 1.792064e+02 5.423354e+01 9.416905e+01 7.463468e+01 6.623598e+01 4.116697e+01 4.108071e+01 2.714865e+01 7.053728e+01 8.154318e+01
<GCONST> 7.526520e+01
<STATE> 3
<MEAN> 13
 7.137787e-01 -1.589025e+01 -1.241125e+01 -4.435969e+00 -2.198364e-01 -2.586762e+00 -7.148480e+00 3.862499e+00 -1.820745e+00 -2.443732e+00 -1.564112e+01 -9.637759e+00 7.596603e+01
<VARIANCE> 13
 5.731475e+00 1.798246e+01 2.206236e+01 4.925775e+01 3.146346e+01 2.012721e+01 2.435270e+01 4.236259e+01 1.174937e+01 2.056584e+01 1.591709e+01 2.282765e+01 9.657257e+00
<GCONST> 6.255902e+01
<STATE> 4
<MEAN> 13
 9.911471e-01 -1.434053e+01 -1.887501e+00 -8.576127e+00 1.571815e+01 -5.324195e+00 9.585279e+00 -3.087862e+00 4.792107e+00 4.934677e+00 -2.020890e+01 1.317648e+00 6.817354e+01
<VARIANCE> 13
 9.310686e+00 9.619779e+00 1.696076e+01 6.650948e+01 4.304132e+01 6.079490e+01 4.951565e+01 4.085949e+01 4.685151e+01 3.307817e+01 3.883640e+01 2.558041e+01 1.728776e+01
<GCONST> 6.799477e+01
<TRANSP> 5
 0.000000e+00 1.000000e+00 0.000000e+00 0.000000e+00 0.000000e+00
 0.000000e+00 8.007919e-01 1.992081e-01 0.000000e+00 0.000000e+00
 0.000000e+00 0.000000e+00 9.016193e-01 9.838063e-02 0.000000e+00
 0.000000e+00 0.000000e+00 0.000000e+00 8.955767e-01 1.044233e-01
 0.000000e+00 0.000000e+00 0.000000e+00 0.000000e+00 0.000000e+00
<ENDHMM>
~h "ih"
<BEGINHMM>
<NUMSTATES> 5
<STATE> 2
<MEAN> 13
 3.808145e+00 6.342639e+00 6.256095e+00 -5.893390e+00 -9.905486e+00 4.386947e-01 -2.309325e+00 -9.272173e+00 -1.428633e+01 -1.646997e-01 -4.879897e+00 -5.554433e-01 5.467048e+01
<VARIANCE> 13
 4.734861e+01 1.416908e+02 2.161499e+02 1.314281e+02 6.592814e+01 1.072499e+02 9.812292e+01 5.606755e+01 7.027114e+01 7.824972e+01 6.441736e+01 3.671688e+01 7.573654e+01
<GCONST> 8.114268e+01
<STATE> 3
<MEAN> 13
 -3.098991e+00 -8.237975e+00 1.177083e+01 -3.487346e-01 -1.852638e+01 -8.137468e+00 -8.702484e+00 -6.567628e+00 -7.562036e+00 -4.307143e+00 8.627525e+00 -7.154759e+00 6.506574e+01
<VARIANCE> 13
 1.143152e+01 8.149959e+01 7.442623e+01 2.608838e+01 7.700145e+01 5.011309e+01 6.039385e+01 6.092051e+01 5.983457e+01 5.760722e+01 5.602248e+01 6.308393e+01 4.589280e+01
<GCONST> 7.491100e+01
<STATE> 4
<MEAN> 13
 -1.140108e+01 5.214770e+00 2.080323e+00 3.729240e+00 -3.641145e+00 -1.133647e-01 -3.431525e+00 -1.832977e+00 -2.856605e+00 -2.148071e+00 3.644734e-01 5.689338e-02 4.226595e+01
<VARIANCE> 13
 6.927868e+01 1.423568e+02 5.895484e+01 7.953394e+01 8.175117e+01 9.776051e+01 9.544814e+01 1.210822e+02 6.787916e+01 8.941668e+01 3.652858e+01 4.434968e+01 2.627049e+02
<GCONST> 8.155535e+01
<TRANSP> 5
 0.000000e+00 1.000000e+00 0.000000e+00 0.000000e+00 0.000000e+00
 0.000000e+00 7.139297e-01 2.860703e-01 0.000000e+00 0.000000e+00
 0.000000e+00 0.000000e+00 8.017687e-01 1.982313e-01 0.000000e+00
 0.000000e+00 0.000000e+00 0.000000e+00 6.435623e-01 3.564377e-01
 0.000000e+00 0.000000e+00 0.000000e+00 0.000000e+00 0.000000e+00
<ENDHMM>
~h "iy"
<BEGINHMM>
<NUMSTATES> 5
<STATE> 2
<MEAN> 13
 2.273080e+00 -9.730717e+00 1.699839e+01 -7.640825e+00 -1.257099e+01 -1.291481e+01 -4.573336e+00 -6.427162e+00 -1.614080e+01 7.676777e+00 2.867942e-01 -1.428763e-01 6.827733e+01
<VARIANCE> 13
 8.104099e+00 2.264444e+01 5.983820e+01 3.120601e+01 3.345098e+01 2.696890e+01 3.032033e+01 4.945441e+01 8.090079e+01 5.202619e+01 8.265852e+01 3.100785e+01 1.203514e+01
<GCONST> 6.943634e+01
<STATE> 3
<MEAN> 13
 -3.119174e+00 -1.193435e+01 1.476910e+01 -6.019354e-01 -2.410631e+01 -1.246977e+01 -1.308213e+01 -8.206910e+00 -7.448292e+00 -6.608712e+00 1.345814e+01 -4.279376e+00 6.891190e+01
<VARIANCE> 13
 4.859605e+00 5.438536e+01 2.594787e+01 2.141816e+01 2.962124e+01 1.624819e+01 2.704209e+01 4.906489e+01 5.391202e+01 5.558110e+01 6.487592e+01 9.325970e+01 7.279718e+00
<GCONST> 6.785495e+01
<STATE> 4
<MEAN> 13
 -1.930812e+00 -1.519139e+00 1.076817e+01 -1.577068e-01 -1.054087e+01 -1.047220e+01 -5.057548e+00 -6.328540e+00 -8.587323e+00 6.746226e-02 1.203242e+00 -4.454063e-01 6.043862e+01
<VARIANCE> 13
 3.268803e+01 2.807811e+01 7.041978e+01 3.223020e+01 4.029151e+01 4.728222e+01 4.537570e+01 4.353959e+01 5.853473e+01 5.471010e+01 6.540511e+01 3.711529e+01 2.056429e+01
<GCONST> 7.247256e+01
<TRANSP> 5
 0.000000e+00 1.000000e+00 0.000000e+00 0.000000e+00 0.000000e+00
 0.000000e+00 8.361524e-01 1.638476e-01 0.000000e+00 0.000000e+00
 0.000000e+00 0.000000e+00 8.882060e-01 1.117940e-01 0.000000e+00
 0.000000e+00 0.000000e+00 0.000000e+00 6.798773e-01 3.201227e-01
 0.000000e+00 0.000000e+00 0.000000e+00 0.000000e+00 0.000000e+00
<ENDHMM>
~h "ng"
<BEGINHMM>
<NUMSTATES> 5
<STATE> 2
<MEAN> 13
 -2.925542e+00 -4.331353e+00 -1.100741e+01 1.316258e+00 -3.741173e+00 4.512270e+00 -7.327389e+00 -4.353734e+00 -3.697861e+00 -4.992721e+00 -6.692016e+00 -5.772046e+00 4.839362e+01
<VARIANCE> 13
 3.792665e+01 5.349236e+01 3.587296e+01 2.274988e+01 5.264427e+01 4.578154e+01 2.592821e+01 2.442953e+01 2.633303e+01 2.511628e+01 1.537898e+01 3.026727e+01 5.108903e+01
<GCONST> 6.902168e+01
<STATE> 3
<MEAN> 13
 -3.113169e+00 5.228689e+00 -2.416810e+00 8.960355e+00 6.568653e-01 8.930435e+00 -2.550848e-01 -4.411461e-01 1.029463e+00 -1.237372e+00 -9.296496e-01 7.669548e-01 4.956695e+01
<VARIANCE> 13
 2.632079e+01 7.063211e+01 2.439465e+01 4.154953e+01 8.751785e+01 5.994062e+01 3.691794e+01 2.523496e+01 2.425747e+01 3.496137e+01 1.920870e+01 2.117515e+01 9.942509e+01
<GCONST> 7.109418e+01
<STATE> 4
<MEAN> 13
 -1.345120e+01 5.550959e+00 -9.976640e+00 7.807329e+00 -4.681597e+00 2.149250e+00 -1.039663e+01 -5.429238e+00 -5.131112e+00 -8.137167e+00 -5.678765e+00 -6.011128e+00 3.385366e+01
<VARIANCE> 13
 1.404945e+01 1.310579e+01 2.293442e+01 1.406184e+01 2.525247e+01 2.685843e+01 2.514651e+01 2.408511e+01 2.116471e+01 1.870769e+01 1.539330e+01 1.666852e+01 3.465373e+01
<GCONST> 6.288409e+01
<TRANSP> 5
 0.000000e+00 1.000000e+00 0.000000e+00 0.000000e+00 0.000000e+00
 0.000000e+00 8.346782e-01 1.653218e-01 0.000000e+00 0.000000e+00
 0.000000e+00 0.000000e+00 8.524765e-01 1.475235e-01 0.000000e+00
 0.000000e+00 0.000000e+00 0.000000e+00 9.206123e-01 7.938778e-02
 0.000000e+00 0.000000e+00 0.000000e+00 0.000000e+00 0.000000e+00
<ENDHMM>
~h "oh"
<BEGINHMM>
<NUMSTATES> 5
<STATE> 2
<MEAN> 13
 4.808956e+00 -1.718776e+01 -1.184467e+01 -1.855196e+01 -5.834574e+00 1.143829e+01 8.121164e-01 -1.407289e+01 2.593001e+00 4.223425e-01 4.769144e+00 -7.790066e+00 7.202434e+01
<VARIANCE> 13
 1.134090e+01 6.346737e+01 1.726046e+01 5.956586e+01 7.898254e+01 1.135241e+02 4.124514e+01 4.805953e+01 1.555565e+02 5.335926e+01 6.643124e+01 7.023184e+01 1.319832e+01
<GCONST> 7.415218e+01
<STATE> 3
<MEAN> 13
 4.075029e+00 -1.844184e+01 -1.390894e+01 -1.015991e+01 -8.204351e+00 4.328687e+00 -7.665110e+00 -2.978848e+00 2.006592e+00 4.420122e+00 -2.195106e+00 -1.476213e+01 7.280553e+01
<VARIANCE> 13
 4.917740e+00 6.402679e+01 1.071857e+01 5.019046e+01 3.780531e+01 6.432013e+01 3.552535e+01 3.455539e+01 6.594563e+01 3.286757e+01 3.818257e+01 6.880792e+01 1.757060e+01
<GCONST> 6.926273e+01
<STATE> 4
<MEAN> 13
 7.918740e+00 -6.464874e+00 -6.829584e+00 9.433873e+00 -2.362177e+01 1.112931e+00 -7.163354e+00 4.120139e-01 4.959591e+00 -1.062422e+01 -4.758245e+00 3.292714e+00 6.816291e+01
<VARIANCE> 13
 1.653124e+01 2.162834e+01 3.982170e+01 5.599308e+01 1.106221e+02 1.320977e+02 2.675769e+01 3.278722e+01 2.642041e+01 7.527056e+01 1.959057e+01 2.965367e+01 1.386009e+01
<GCONST> 7.043670e+01
<TRANSP> 5
 0.000000e+00 1.000000e+00 0.000000e+00 0.000000e+00 0.000000e+00
 0.000000e+00 8.911184e-01 1.088816e-01 0.000000e+00 0.000000e+00
 0.000000e+00 0.000000e+00 9.035888e-01 9.641119e-02 0.000000e+00
 0.000000e+00 0.000000e+00 0.000000e+00 8.842789e-01 1.157211e-01
 0.000000e+00 0.000000e+00 0.000000e+00 0.000000e+00 0.000000e+00
<ENDHMM>
~h "sp"
<BEGINHMM>
<NUMSTATES> 5
<STATE> 2
~s "silst"
<STATE> 3
<MEAN> 13
 -8.861578e+00 1.689257e+00 -1.428690e+00 1.734139e+00 2.363858e+00 1.311027e+00 1.902645e+00 4.029643e-01 2.182424e+00 -1.179641e+00 6.197161e-01 -1.187597e+00 5.075737e+01
<VARIANCE> 13
 2.093300e+01 8.402652e+00 1.241524e+01 1.178995e+01 1.498604e+01 1.389368e+01 1.742790e+01 1.220474e+01 1.390060e+01 1.048622e+01 1.031728e+01 9.275875e+00 5.061716e+01
<GCONST> 5.821442e+01
<STATE> 4
<MEAN> 13
 -2.490266e+01 3.132784e+00 -9.938063e+00 4.856347e+00 -7.158361e+00 5.163908e+00 -3.835684e+00 1.136757e+00 1.084759e+00 -1.492576e+00 8.192068e-01 -7.795203e-01 2.473973e+01
<VARIANCE> 13
 2.245400e+01 4.709069e+00 6.601575e+00 7.459795e+00 1.140796e+01 9.507609e+00 1.333058e+01 1.436695e+01 1.534329e+01 1.372878e+01 1.283633e+01 1.036696e+01 3.074544e+01
<GCONST> 5.605841e+01
<TRANSP> 5
 0.000000e+00 7.000000e-01 3.000000e-01 0.000000e+00 0.000000e+00
 0.000000e+00 7.499560e-01 2.500440e-01 0.000000e+00 0.000000e+00
 0.000000e+00 0.000000e+00 8.696231e-01 1.303769e-01 0.000000e+00
 0.000000e+00 0.000000e+00 0.000000e+00 9.336296e-01 6.637040e-02
 0.000000e+00 0.000000e+00 0.000000e+00 0.000000e+00 0.000000e+00
<ENDHMM>
~h "uh"
<BEGINHMM>
<NUMSTATES> 5
<STATE> 2
<MEAN> 13
 -5.902566e+00 5.659291e+00 -4.032391e+00 -3.637690e+00 -3.014626e+00 2.544348e+00 -6.177156e+00 -5.405778e+00 -3.072446e+00 -3.815612e+00 -1.276438e+00 -2.617300e+00 4.765308e+01
<VARIANCE> 13
 1.253187e+02 7.519428e+01 3.018473e+01 9.589233e+01 3.632157e+01 3.009609e+01 4.291942e+01 5.811955e+01 3.893259e+01 2.968099e+01 3.175461e+01 1.884291e+01 1.842348e+02
<GCONST> 7.449525e+01
<STATE> 3
<MEAN> 13
 -5.999771e-01 3.883451e+00 -5.045608e+00 -8.257798e+00 -7.892774e+00 1.798287e-01 -7.254234e+00 -7.797019e+00 -7.227539e+00 -2.593999e+00 6.647166e-02 -2.675058e+00 5.450466e+01
<VARIANCE> 13
 1.022698e+02 5.598737e+01 2.314803e+01 8.294899e+01 3.780020e+01 3.751244e+01 3.475236e+01 4.157576e+01 4.260099e+01 2.720109e+01 2.818441e+01 2.174742e+01 1.977010e+02
<GCONST> 7.339819e+01
<STATE> 4
<MEAN> 13
 -3.346494e+00 3.637082e+00 -3.135754e+00 -3.258867e+00 -6.230468e+00 1.818151e-02 -1.301391e+01 -1.105087e+01 -8.187245e+00 -2.485507e+00 7.215654e-01 -4.458468e+00 5.143859e+01
<VARIANCE> 13
 8.691733e+01 7.752271e+01 3.910032e+01 6.875224e+01 3.485405e+01 3.795162e+01 6.046019e+01 4.871733e+01 5.163509e+01 5.985040e+01 4.711895e+01 3.570911e+01 2.592267e+02
<GCONST> 7.680191e+01
<TRANSP> 5
 0.000000e+00 1.000000e+00 0.000000e+00 0.000000e+00 0.000000e+00
 0.000000e+00 3.206351e-01 6.793649e-01 0.000000e+00 0.000000e+00
 0.000000e+00 0.000000e+00 3.801912e-01 6.198088e-01 0.000000e+00
 0.000000e+00 0.000000e+00 0.000000e+00 5.543771e-01 4.456229e-01
 0.000000e+00 0.000000e+00 0.000000e+00 0.000000e+00 0.000000e+00
<ENDHMM>
~h "uw"
<BEGINHMM>
<NUMSTATES> 5
<STATE> 2
<MEAN> 13
 4.235723e+00 -5.771934e+00 -5.470542e+00 -1.445416e+01 -9.020823e+00 4.321510e+00 -1.561085e+01 -1.757776e+01 -1.456898e+00 -1.793828e+00 7.272874e+00 -9.790097e-01 6.706407e+01
<VARIANCE> 13
 1.979730e+01 3.721273e+01 1.179966e+01 6.982546e+01 6.061221e+01 3.634307e+01 4.150205e+01 3.950583e+01 1.179952e+02 3.254517e+01 5.050592e+01 4.230549e+01 4.862482e+01
<GCONST> 7.211277e+01
<STATE> 3
<MEAN> 13
 6.512071e+00 9.541907e-01 -6.505449e+00 -1.488544e+01 -1.229572e+01 8.291674e-01 -1.051633e+01 -9.490098e+00 -9.461115e+00 -4.053626e+00 2.610631e+00 -3.328056e+00 6.300318e+01
<VARIANCE> 13
 2.365863e+01 2.486810e+01 1.759641e+01 5.999574e+01 4.556480e+01 3.980324e+01 4.348783e+01 3.961793e+01 4.015467e+01 2.579888e+01 3.681929e+01 5.617872e+01 5.134227e+01
<GCONST> 7.070267e+01
<STATE> 4
<MEAN> 13
 5.468866e+00 6.352611e-01 -7.898289e+00 -1.874655e+01 -2.514125e+00 7.105449e+00 -7.059419e+00 -1.061433e+01 -5.573299e+00 3.508337e+00 -1.732099e+00 8.584563e-01 6.007081e+01
<VARIANCE> 13
 4.602307e+01 8.587422e+01 3.585535e+01 2.189370e+02 1.021237e+02 7.847874e+01 4.614033e+01 4.369559e+01 8.657372e+01 1.420226e+02 1.225506e+02 1.092074e+02 1.128575e+02
<GCONST> 8.138554e+01
<TRANSP> 5
 0.000000e+00 1.000000e+00 0.000000e+00 0.000000e+00 0.000000e+00
 0.000000e+00 7.524635e-01 2.475366e-01 0.000000e+00 0.000000e+00
 0.000000e+00 0.000000e+00 8.065349e-01 1.934652e-01 0.000000e+00
 0.000000e+00 0.000000e+00 0.000000e+00 6.635604e-01 3.364396e-01
 0.000000e+00 0.000000e+00 0.000000e+00 0.000000e+00 0.000000e+00
<ENDHMM>
~h "sil"
<BEGINHMM>
<NUMSTATES> 5
<STATE> 2
<MEAN> 13
 -1.498954e+01 4.148860e+00 -5.678338e+00 7.202563e+00 -1.258798e+00 5.817319e+00 -2.281262e+00 7.856056e-01 -6.677811e-01 -2.623428e+00 -3.424040e-01 -1.968762e+00 3.505228e+01
<VARIANCE> 13
 6.177090e+01 5.613969e+01 5.840924e+01 6.352005e+01 6.439079e+01 6.504151e+01 5.469601e+01 5.796938e+01 4.512074e+01 3.284410e+01 3.940502e+01 2.778463e+01 1.372031e+02
<GCONST> 7.588516e+01
<STATE> 3
~s "silst"
<STATE> 4
<MEAN> 13
 -2.569831e+01 2.839939e+00 -1.001820e+01 4.566392e+00 -7.433510e+00 5.258102e+00 -3.410548e+00 1.454744e+00 1.503001e+00 -1.048869e+00 1.266407e+00 -4.362291e-01 2.410187e+01
<VARIANCE> 13
 1.462234e+01 3.118860e+00 6.098138e+00 5.540069e+00 1.030614e+01 8.277727e+00 1.061930e+01 1.128560e+01 1.187329e+01 1.029133e+01 9.490113e+00 8.048878e+00 2.801914e+01
<GCONST> 5.293919e+01
<TRANSP> 5
 0.000000e+00 1.000000e+00 0.000000e+00 0.000000e+00 0.000000e+00
 0.000000e+00 6.030398e-01 1.431033e-01 2.538569e-01 0.000000e+00
 0.000000e+00 0.000000e+00 9.587367e-01 4.126326e-02 0.000000e+00
 0.000000e+00 6.898483e-03 0.000000e+00 9.224075e-01 7.069401e-02
 0.000000e+00 0.000000e+00 0.000000e+00 0.000000e+00 0.000000e+00
<ENDHMM>
