~o
<STREAMINFO> 1 13
<VECSIZE> 13<NULLD><MFCC_0><DIAGC>
~s "silst"
<MEAN> 13
 -8.096994e+00 1.531784e+00 -6.731623e-01 1.323234e+00 2.855740e+00 5.641608e-01 2.823588e+00 8.399695e-01 3.105832e+00 -9.363214e-01 8.617880e-01 -1.381870e+00 5.304102e+01
<VARIANCE> 13
 4.410142e+00 7.551754e+00 5.764345e+00 8.458169e+00 8.246098e+00 9.834784e+00 9.859810e+00 9.553650e+00 9.288442e+00 8.159002e+00 8.490829e+00 8.181505e+00 3.465925e+00
<GCONST> 5.003771e+01
~h "b"
<BEGINHMM>
<NUMSTATES> 5
<STATE> 2
<MEAN> 13
 3.269837e+00 9.948823e+00 -6.344689e+00 -1.805074e+00 -1.560024e+00 6.815849e+00 -1.017594e+01 -2.583321e+00 -4.304931e+00 -2.706761e+00 -5.012866e+00 -5.245440e+00 4.588028e+01
<VARIANCE> 13
 1.172789e+02 1.526397e+02 3.779028e+01 1.208227e+02 9.422722e+01 9.381703e+01 6.199169e+01 4.803885e+01 6.145271e+01 7.089636e+01 2.763069e+01 5.004684e+01 7.828461e+01
<GCONST> 7.916920e+01
<STATE> 3
<MEAN> 13
 -6.468895e+00 1.805675e+00 -8.102882e+00 3.758721e-01 2.498694e+00 6.167953e+00 1.088003e+00 9.673154e-01 2.258455e+00 -2.073577e+00 -2.381272e+00 -3.549983e+00 4.675765e+01
<VARIANCE> 13
 4.659234e+01 6.455462e+01 6.254349e+01 2.175716e+01 2.286482e+01 9.094402e+01 2.934065e+01 1.584348e+01 4.684801e+01 3.384145e+01 1.868955e+01 5.533674e+01 1.195223e+02
<GCONST> 7.199223e+01
<STATE> 4
<MEAN> 13
 -1.725024e+01 7.854946e+00 -5.718549e+00 5.781762e+00 -4.959374e+00 5.000163e+00 -5.238012e+00 1.631983e+00 -2.089813e+00 -5.057930e+00 -1.351668e+00 -5.968944e+00 2.906450e+01
<VARIANCE> 13
 5.619388e+01 2.902277e+01 1.924855e+01 3.440116e+01 3.408863e+01 4.038031e+01 2.436053e+01 3.525399e+01 2.756938e+01 3.407848e+01 4.676698e+01 4.613333e+01 7.239449e+01
<GCONST> 7.057188e+01
<TRANSP> 5
 0.000000e+00 1.000000e+00 0.000000e+00 0.000000e+00 0.000000e+00
 0.000000e+00 8.978637e-01 1.021363e-01 0.000000e+00 0.000000e+00
 0.000000e+00 0.000000e+00 7.990852e-01 2.009148e-01 0.000000e+00
 0.000000e+00 0.000000e+00 0.000000e+00 8.712544e-01 1.287455e-01
 0.000000e+00 0.000000e+00 0.000000e+00 0.000000e+00 0.000000e+00
<ENDHMM>
~h "d"
<BEGINHMM>
<NUMSTATES> 5
<STATE> 2
<MEAN> 13
 1.877559e-02 9.947348e+00 1.643945e+00 6.543726e+00 3.631715e+00 7.777880e-01 -6.700882e+00 -7.362309e+00 -2.262692e+00 -3.719662e+00 -9.192112e+00 -6.996617e+00 4.918683e+01
<VARIANCE> 13
 3.511607e+01 1.958555e+02 5.366010e+01 2.015660e+02 4.594690e+01 8.105693e+01 6.503758e+01 4.502954e+01 4.572974e+01 6.641974e+01 4.437006e+01 3.162750e+01 2.065063e+02
<GCONST> 7.881782e+01
<STATE> 3
<MEAN> 13
 3.905559e+00 8.126115e-01 -2.251616e+00 5.192968e-01 6.946198e+00 -3.679251e+00 -1.145850e+01 -8.073746e+00 3.626087e+00 3.258848e-01 -1.304746e+01 -7.293257e+00 5.870230e+01
<VARIANCE> 13
 1.250346e+01 1.157849e+02 1.774260e+01 2.188340e+02 6.822207e+01 8.768249e+01 2.360192e+02 6.859766e+01 5.891560e+01 6.964716e+01 4.778531e+01 6.562247e+01 8.418035e+01
<GCONST> 7.862623e+01
<STATE> 4
<MEAN> 13
 3.278281e+00 -4.566967e+00 -1.835146e+00 -4.431459e+00 4.363345e+00 -7.571280e+00 -8.114177e+00 -5.811402e+00 4.108099e+00 1.292187e+00 -1.381443e+01 -4.685498e+00 6.410977e+01
<VARIANCE> 13
 1.462652e+01 5.486856e+01 2.021529e+01 1.201342e+02 8.453091e+01 8.063385e+01 1.808350e+02 9.097769e+01 5.027897e+01 4.957479e+01 5.701526e+01 7.114156e+01 3.197969e+01
<GCONST> 7.650463e+01
<TRANSP> 5
 0.000000e+00 1.000000e+00 0.000000e+00 0.000000e+00 0.000000e+00
 0.000000e+00 4.918690e-01 5.081310e-01 0.000000e+00 0.000000e+00
 0.000000e+00 0.000000e+00 2.252301e-01 7.747699e-01 0.000000e+00
 0.000000e+00 0.000000e+00 0.000000e+00 1.378586e-01 8.621414e-01
 0.000000e+00 0.000000e+00 0.000000e+00 0.000000e+00 0.000000e+00
<ENDHMM>
~h "g"
<BEGINHMM>
<NUMSTATES> 5
<STATE> 2
<MEAN> 13
 -5.908413e+00 -3.158580e-01 2.188170e+01 -7.748764e+00 -9.654932e+00 -1.084868e+01 -6.843454e+00 -1.038756e+01 -1.076950e+01 -3.195313e-02 7.392488e-01 -8.114864e+00 6.613202e+01
<VARIANCE> 13
 1.155956e+01 3.140897e+01 8.633110e+01 1.467652e+02 1.153297e+02 2.695826e+01 5.521054e+01 2.728342e+01 1.795330e+01 3.187374e+01 1.237439e+02 6.208026e+01 5.284557e+01
<GCONST> 7.385712e+01
<STATE> 3
<MEAN> 13
 -2.070693e+00 1.730708e+00 1.128574e+01 1.185528e+00 -9.819091e+00 -1.342958e+01 -4.541966e+00 -3.237525e+00 -6.149804e+00 -1.487522e+00 -3.794129e+00 -7.577068e+00 6.017419e+01
<VARIANCE> 13
 8.346536e+00 9.751003e+01 5.643322e+01 5.592383e+01 7.550711e+01 9.367443e+01 5.242644e+01 2.843875e+01 3.417174e+01 2.117091e+01 5.783499e+01 6.461777e+01 1.020215e+02
<GCONST> 7.425776e+01
<STATE> 4
<MEAN> 13
 1.125104e+00 -1.675862e+01 -9.469061e+00 -6.177287e+00 -1.159491e+01 -7.024652e+00 -1.437956e+01 6.562077e+00 3.362465e+00 2.881287e+00 -8.036683e+00 -2.241677e+01 7.668919e+01
<VARIANCE> 13
 8.220301e+00 2.864115e+01 3.415504e+01 2.051895e+01 3.532931e+01 7.293053e+01 1.805346e+01 1.896931e+01 2.043579e+01 1.319013e+01 2.348105e+01 5.148724e+01 5.213584e+01
<GCONST> 6.624463e+01
<TRANSP> 5
 0.000000e+00 1.000000e+00 0.000000e+00 0.000000e+00 0.000000e+00
 0.000000e+00 8.531858e-01 1.468141e-01 0.000000e+00 0.000000e+00
 0.000000e+00 0.000000e+00 8.557394e-01 1.442607e-01 0.000000e+00
 0.000000e+00 0.000000e+00 0.000000e+00 8.531122e-01 1.468878e-01
 0.000000e+00 0.000000e+00 0.000000e+00 0.000000e+00 0.000000e+00
<ENDHMM>
~h "j"
<BEGINHMM>
<NUMSTATES> 5
<STATE> 2
<MEAN> 13
 -6.327584e+00 1.911686e+01 3.024869e+01 -9.010158e+00 -2.420030e+00 -3.842555e+00 -1.135996e+01 -3.675831e+00 -1.761777e+01 2.839227e+00 -1.929981e+00 -6.306075e+00 4.844790e+01
<VARIANCE> 13
 5.741659e+00 5.317098e+01 1.223153e+02 1.549561e+02 2.308864e+01 2.851059e+01 4.743839e+01 2.198917e+01 6.343864e+01 4.027374e+01 1.731380e+01 8.637797e+00 6.558385e+01
<GCONST> 6.993976e+01
<STATE> 3
<MEAN> 13
 -1.164856e+00 -1.489778e+00 1.206594e+01 6.791507e+00 -1.423752e+01 -9.126511e+00 -1.121735e+01 -4.488601e+00 -5.970364e+00 -5.109816e+00 1.529190e+00 -7.813404e+00 6.210379e+01
<VARIANCE> 13
 3.695510e+01 3.573100e+01 1.783314e+02 6.844690e+01 6.773560e+01 7.517159e+01 1.504334e+02 6.008792e+01 4.471441e+01 2.734906e+01 4.487143e+01 5.033161e+01 7.886599e+01
<GCONST> 7.733171e+01
<STATE> 4
<MEAN> 13
 9.698474e+00 1.570160e+01 -4.733633e+00 4.153318e+00 -4.513350e+00 9.271488e+00 -1.093032e+01 -1.606267e+01 -1.198551e+01 -4.590622e+00 -2.337845e+00 -2.834572e+00 4.708976e+01
<VARIANCE> 13
 2.052982e+01 6.925469e+01 3.735283e+01 2.595438e+01 1.504183e+01 2.795898e+01 2.828292e+01 2.051624e+01 2.449440e+01 2.504175e+01 3.336168e+01 3.033068e+01 5.165375e+01
<GCONST> 6.771699e+01
<TRANSP> 5
 0.000000e+00 1.000000e+00 0.000000e+00 0.000000e+00 0.000000e+00
 0.000000e+00 8.831177e-01 1.168823e-01 0.000000e+00 0.000000e+00
 0.000000e+00 0.000000e+00 8.868494e-01 1.131506e-01 0.000000e+00
 0.000000e+00 0.000000e+00 0.000000e+00 8.403591e-01 1.596409e-01
 0.000000e+00 0.000000e+00 0.000000e+00 0.000000e+00 0.000000e+00
<ENDHMM>
~h "k"
<BEGINHMM>
<NUMSTATES> 5
<STATE> 2
<MEAN> 13
 -9.042020e+00 3.367102e+00 -5.211240e+00 9.905329e-01 -1.380544e-01 5.713713e-01 -2.937822e+00 -1.345747e+00 1.283315e+00 9.616316e-01 1.678517e-01 -2.053052e+00 4.600431e+01
<VARIANCE> 13
 3.856318e+01 4.647018e+01 3.726975e+01 2.891819e+01 3.741433e+01 2.564518e+01 5.123444e+01 2.475649e+01 2.626792e+01 3.309235e+01 2.128901e+01 2.055369e+01 1.416940e+02
<GCONST> 7.018062e+01
<STATE> 3
<MEAN> 13
 -9.139310e+00 -2.492097e+00 -9.568707e+00 2.952510e+00 5.891778e+00 -1.092067e+00 -3.658519e+00 1.054417e+00 2.190892e+00 2.661518e+00 -1.918627e+00 -2.444268e+00 5.025145e+01
<VARIANCE> 13
 2.996419e+01 8.538022e+01 7.040891e+01 5.196788e+01 5.710328e+01 9.106031e+01 4.031052e+01 4.309721e+01 4.581547e+01 4.137586e+01 3.334492e+01 2.257654e+01 1.599521e+02
<GCONST> 7.520693e+01
<STATE> 4
<MEAN> 13
 -1.141625e+01 -2.885100e-03 -1.117511e+01 1.675601e+00 1.184555e+01 -1.218368e+00 2.122779e-01 -2.936980e-01 -6.293811e-02 4.984404e+00 6.966467e-01 -1.960679e+00 4.548690e+01
<VARIANCE> 13
 7.224989e+01 1.420491e+02 1.712333e+02 1.931363e+02 1.354127e+02 3.686164e+02 6.098034e+01 1.637916e+02 1.163654e+02 8.907031e+01 9.143022e+01 6.803408e+01 2.321313e+02
<GCONST> 8.699141e+01
<TRANSP> 5
 0.000000e+00 1.000000e+00 0.000000e+00 0.000000e+00 0.000000e+00
 0.000000e+00 7.423568e-01 2.576431e-01 0.000000e+00 0.000000e+00
 0.000000e+00 0.000000e+00 2.794904e-01 7.205096e-01 0.000000e+00
 0.000000e+00 0.000000e+00 0.000000e+00 7.030674e-01 2.969325e-01
 0.000000e+00 0.000000e+00 0.000000e+00 0.000000e+00 0.000000e+00
<ENDHMM>
~h "l"
<BEGINHMM>
<NUMSTATES> 5
<STATE> 2
<MEAN> 13
 4.276403e+00 -1.580213e+01 -1.275918e+01 -1.173682e+01 -9.016913e-01 -1.923830e-01 -1.016100e+01 -5.693547e-01 5.246601e-01 5.369051e+00 -1.162138e+01 -1.589499e+01 7.483200e+01
<VARIANCE> 13
 3.363676e+00 1.219014e+01 2.099449e+01 2.336720e+01 7.982593e+01 1.105933e+01 1.893443e+01 1.380138e+01 1.868211e+01 2.432241e+01 2.135114e+01 6.831293e+01 1.016781e+01
<GCONST> 6.187392e+01
<STATE> 3
<MEAN> 13
 4.234418e+00 -1.097474e+01 -4.158577e+00 -2.083367e+01 1.628176e+01 -2.624400e+00 -7.187444e+00 -2.845000e+00 7.812409e+00 4.976810e+00 -2.066794e+01 1.376210e+00 6.971780e+01
<VARIANCE> 13
 5.954906e+00 2.879804e+01 1.986986e+01 2.054181e+01 5.564901e+01 2.629375e+01 3.668597e+01 2.344574e+01 3.309204e+01 3.093394e+01 3.963113e+01 4.380510e+01 1.313466e+01
<GCONST> 6.605984e+01
<STATE> 4
<MEAN> 13
 6.555544e+00 -5.459109e+00 -6.132029e+00 -1.355744e+01 5.374415e+00 3.643324e-01 -5.587077e+00 -2.554813e+00 5.305469e-01 7.237813e+00 -1.152061e+01 -5.750425e+00 6.648738e+01
<VARIANCE> 13
 2.324762e+01 1.880761e+02 3.183164e+01 6.427295e+01 1.039549e+02 3.968041e+01 2.178334e+01 2.502175e+01 6.303147e+01 2.168725e+01 8.967584e+01 6.859850e+01 8.345712e+01
<GCONST> 7.489393e+01
<TRANSP> 5
 0.000000e+00 1.000000e+00 0.000000e+00 0.000000e+00 0.000000e+00
 0.000000e+00 8.524739e-01 1.475261e-01 0.000000e+00 0.000000e+00
 0.000000e+00 0.000000e+00 8.172910e-01 1.827089e-01 0.000000e+00
 0.000000e+00 0.000000e+00 0.000000e+00 1.755940e-01 8.244060e-01
 0.000000e+00 0.000000e+00 0.000000e+00 0.000000e+00 0.000000e+00
<ENDHMM>
~h "m"
<BEGINHMM>
<NUMSTATES> 5
<STATE> 2
<MEAN> 13
 3.432778e+00 5.546507e-02 -9.408264e-01 6.890534e-01 2.671743e+00 -5.358314e+00 -4.279758e+00 -1.105394e+01 -9.390862e+00 -2.783817e-01 -6.168849e+00 -6.053623e+00 6.077726e+01
<VARIANCE> 13
 5.017012e+00 2.395751e+01 2.027629e+01 2.122263e+01 5.691579e+01 3.768867e+01 2.436540e+01 3.126924e+01 3.577795e+01 1.913356e+01 3.316048e+01 4.088539e+01 1.505343e+01
<GCONST> 6.550529e+01
<STATE> 3
<MEAN> 13
 4.540992e+00 4.383494e+00 -9.560880e-01 1.147137e+00 1.365979e+01 8.740264e-01 -7.750992e+00 -1.643060e+01 -1.124272e+01 1.047979e+00 -1.063347e+01 4.009555e+00 5.587710e+01
<VARIANCE> 13
 1.282277e+01 3.844264e+01 4.433506e+01 4.488720e+01 9.423870e+01 6.265810e+01 5.075908e+01 5.084954e+01 4.076241e+01 4.359329e+01 5.317378e+01 6.371714e+01 2.695444e+01
<GCONST> 7.313304e+01
<STATE> 4
<MEAN> 13
 -1.921930e+00 1.262475e+01 -3.281439e-01 9.275187e+00 7.527579e+00 5.523777e+00 -8.956341e+00 -6.204454e+00 -6.158728e+00 -3.344218e+00 -3.383217e+00 -2.694989e+00 4.273164e+01
<VARIANCE> 13
 8.465317e+01 8.951767e+01 7.759064e+01 1.565583e+02 9.884982e+01 9.483012e+01 7.095640e+01 8.132213e+01 8.894141e+01 3.661330e+01 4.446139e+01 4.554280e+01 1.594604e+02
<GCONST> 8.080991e+01
<TRANSP> 5
 0.000000e+00 1.000000e+00 0.000000e+00 0.000000e+00 0.000000e+00
 0.000000e+00 6.635876e-01 3.364124e-01 0.000000e+00 0.000000e+00
 0.000000e+00 0.000000e+00 6.147261e-01 3.852739e-01 0.000000e+00
 0.000000e+00 0.000000e+00 0.000000e+00 7.074469e-01 2.925530e-01
 0.000000e+00 0.000000e+00 0.000000e+00 0.000000e+00 0.000000e+00
<ENDHMM>
~h "n"
<BEGINHMM>
<NUMSTATES> 5
<STATE> 2
<MEAN> 13
 2.647016e+00 2.414327e+00 8.982518e-01 1.432764e+00 -2.860039e+00 -9.806782e+00 -6.348681e+00 -7.700902e+00 -1.774462e+00 -1.707180e+00 -1.053290e+01 -3.627181e+00 5.877033e+01
<VARIANCE> 13
 1.677114e+01 2.193592e+01 2.322979e+01 5.576395e+01 8.234009e+01 6.300269e+01 2.045123e+01 4.558448e+01 2.014168e+01 3.489462e+01 5.294363e+01 8.180425e+01 1.928019e+01
<GCONST> 7.024615e+01
<STATE> 3
<MEAN> 13
 5.845202e+00 9.006083e+00 -1.700778e+00 -3.795718e+00 -7.419471e-01 1.455119e+00 -8.997955e+00 -6.137703e+00 4.620962e-01 -6.927543e+00 -1.104592e+01 7.181952e+00 5.413329e+01
<VARIANCE> 13
 3.820985e+01 3.064006e+01 3.785656e+01 3.830810e+02 1.021945e+02 1.859516e+02 8.063708e+01 8.154008e+01 6.197168e+01 5.761066e+01 9.171314e+01 1.155137e+02 4.259605e+01
<GCONST> 8.038348e+01
<STATE> 4
<MEAN> 13
 -3.757809e+00 1.617226e+01 1.782157e+00 1.087008e+01 -8.981401e-01 3.194180e+00 -7.599276e+00 -3.699361e+00 -2.809014e+00 -5.416378e+00 -4.063325e+00 -2.007543e-01 3.877333e+01
<VARIANCE> 13
 1.128174e+02 8.441634e+01 3.907343e+01 1.505581e+02 4.308067e+01 5.874031e+01 4.850450e+01 6.036369e+01 4.243277e+01 3.132021e+01 3.935903e+01 4.036644e+01 1.184995e+02
<GCONST> 7.688979e+01
<TRANSP> 5
 0.000000e+00 1.000000e+00 0.000000e+00 0.000000e+00 0.000000e+00
 0.000000e+00 7.592930e-01 2.407071e-01 0.000000e+00 0.000000e+00
 0.000000e+00 0.000000e+00 5.444354e-01 4.555645e-01 0.000000e+00
 0.000000e+00 0.000000e+00 0.000000e+00 7.793190e-01 2.206810e-01
 0.000000e+00 0.000000e+00 0.000000e+00 0.000000e+00 0.000000e+00
<ENDHMM>
~h "p"
<BEGINHMM>
<NUMSTATES> 5
<STATE> 2
<MEAN> 13
 -1.001542e+01 2.494644e+00 -7.543502e+00 1.385598e+00 -3.301030e+00 -4.425933e-01 -7.391927e+00 -8.366773e-01 -1.929584e+00 -8.274231e-01 -2.717116e+00 -4.120646e+00 4.024935e+01
<VARIANCE> 13
 7.777380e+01 4.567828e+01 3.708463e+01 4.055632e+01 5.430664e+01 4.128064e+01 6.810336e+01 7.056650e+01 4.680342e+01 3.178497e+01 6.871087e+01 2.461314e+01 1.613883e+02
<GCONST> 7.539829e+01
<STATE> 3
<MEAN> 13
 -6.483356e+00 2.618541e+00 -5.574555e+00 4.313964e+00 -9.669206e-01 9.387346e-01 -9.837718e-01 1.301553e+00 2.532783e+00 9.734820e-01 -1.375074e+00 -2.895697e+00 4.643760e+01
<VARIANCE> 13
 4.069344e+01 6.732984e+01 5.336844e+01 5.832707e+01 4.215216e+01 7.908548e+01 3.914748e+01 3.560148e+01 3.048864e+01 2.511439e+01 2.845763e+01 2.398814e+01 1.680787e+02
<GCONST> 7.349411e+01
<STATE> 4
<MEAN> 13
 4.065393e+00 -5.579258e+00 -8.076495e+00 -2.016551e+00 -1.910986e+00 -5.900831e+00 -9.251357e-01 -8.222186e-01 1.921827e+00 4.723260e+00 -2.236875e+00 -3.760799e+00 6.250980e+01
<VARIANCE> 13
 2.798797e+01 2.375045e+01 4.210696e+01 6.822628e+01 9.007931e+01 8.304427e+01 6.024044e+01 5.931769e+01 4.690769e+01 3.216879e+01 3.689569e+01 3.374940e+01 6.022434e+01
<GCONST> 7.400044e+01
<TRANSP> 5
 0.000000e+00 1.000000e+00 0.000000e+00 0.000000e+00 0.000000e+00
 0.000000e+00 6.400611e-01 3.599389e-01 0.000000e+00 0.000000e+00
 0.000000e+00 0.000000e+00 5.511396e-01 4.488603e-01 0.000000e+00
 0.000000e+00 0.000000e+00 0.000000e+00 1.230262e-01 8.769738e-01
 0.000000e+00 0.000000e+00 0.000000e+00 0.000000e+00 0.000000e+00
<ENDHMM>
~h "r"
<BEGINHMM>
<NUMSTATES> 5
<STATE> 2
<MEAN> 13
 3.470727e+00 -1.001017e+01 -5.072251e+00 3.928230e-01 -4.997349e+00 -1.011447e+01 -5.705710e+00 4.407846e-01 3.485712e+00 6.376785e+00 -5.987455e+00 -1.075672e+01 6.667477e+01
<VARIANCE> 13
 7.680725e+00 2.278234e+01 3.516993e+01 3.201981e+01 6.706805e+01 2.517755e+01 3.835672e+01 3.881294e+01 2.891422e+01 6.370864e+01 3.099100e+01 7.537495e+01 1.857008e+01
<GCONST> 6.901737e+01
<STATE> 3
<MEAN> 13
 2.530054e+00 -8.270570e+00 6.513696e-02 2.574419e+00 -3.808083e-02 -8.842554e+00 -2.936844e+00 5.230583e+00 1.418349e+00 9.218394e-01 -2.646548e+00 -3.612201e+00 6.246041e+01
<VARIANCE> 13
 1.845395e+01 5.401210e+01 3.995883e+01 4.508882e+01 5.110856e+01 2.861792e+01 6.151522e+01 6.713556e+01 2.592017e+01 4.575123e+01 6.042674e+01 5.880212e+01 2.500852e+01
<GCONST> 7.238042e+01
<STATE> 4
<MEAN> 13
 -5.427254e+00 1.909503e+00 -7.330210e-01 1.569472e+01 2.481486e+00 8.369357e-01 -4.626397e-01 8.455370e+00 2.543911e+00 -2.061861e+00 -2.425633e+00 -1.210548e+00 4.415074e+01
<VARIANCE> 13
 7.574023e+01 1.318422e+02 5.254462e+01 1.714636e+02 7.057082e+01 1.335730e+02 6.939758e+01 6.183191e+01 5.580207e+01 6.478413e+01 5.554224e+01 5.087097e+01 2.259096e+02
<GCONST> 8.128233e+01
<TRANSP> 5
 0.000000e+00 1.000000e+00 0.000000e+00 0.000000e+00 0.000000e+00
 0.000000e+00 5.362015e-01 4.637986e-01 0.000000e+00 0.000000e+00
 0.000000e+00 0.000000e+00 5.409684e-01 4.590316e-01 0.000000e+00
 0.000000e+00 0.000000e+00 0.000000e+00 7.134137e-01 2.865863e-01
 0.000000e+00 0.000000e+00 0.000000e+00 0.000000e+00 0.000000e+00
<ENDHMM>
~h "s"
<BEGINHMM>
<NUMSTATES> 5
<STATE> 2
<MEAN> 13
 -1.094990e+01 4.881527e+00 -3.869434e+00 2.666723e+00 8.476851e+00 -1.434602e+01 5.451360e+00 -1.487588e+00 4.042969e+00 -6.623745e-01 -2.938327e+00 4.644923e-01 5.856578e+01
<VARIANCE> 13
 8.701991e+01 7.444184e+01 8.903139e+01 5.984331e+01 1.094635e+02 4.899709e+01 8.849502e+01 3.569498e+01 3.011755e+01 3.276280e+01 6.422848e+01 3.556703e+01 1.661932e+02
<GCONST> 7.763600e+01
<STATE> 3
<MEAN> 13
 -1.691005e+01 5.860266e+00 -7.005598e+00 1.070118e+01 4.720890e+00 -9.556917e+00 7.587370e+00 1.411003e+00 6.615438e+00 8.381063e-02 1.099092e+00 -1.499722e+00 6.224542e+01
<VARIANCE> 13
 1.952818e+01 2.926759e+01 3.510702e+01 4.873277e+01 4.715305e+01 3.542159e+01 3.940191e+01 2.518214e+01 2.026043e+01 2.454108e+01 1.909924e+01 1.957673e+01 2.822960e+01
<GCONST> 6.747954e+01
<STATE> 4
<MEAN> 13
 -2.642177e+01 8.052843e-01 -1.608813e+00 -2.223768e+00 1.684838e+01 -1.842244e+01 9.616402e+00 -1.047778e+00 7.453588e+00 -8.552448e+00 6.234336e-01 2.429097e+00 5.409361e+01
<VARIANCE> 13
 6.144851e+01 7.065037e+01 5.302850e+01 3.924444e+01 8.057048e+01 6.147841e+01 9.611996e+01 5.256456e+01 6.279595e+01 5.303270e+01 3.624880e+01 5.168690e+01 6.186684e+01
<GCONST> 7.671584e+01
<TRANSP> 5
 0.000000e+00 1.000000e+00 0.000000e+00 0.000000e+00 0.000000e+00
 0.000000e+00 2.576438e-01 7.423562e-01 0.000000e+00 0.000000e+00
 0.000000e+00 0.000000e+00 7.647161e-01 2.352838e-01 0.000000e+00
 0.000000e+00 0.000000e+00 0.000000e+00 8.350582e-01 1.649418e-01
 0.000000e+00 0.000000e+00 0.000000e+00 0.000000e+00 0.000000e+00
<ENDHMM>
~h "t"
<BEGINHMM>
<NUMSTATES> 5
<STATE> 2
<MEAN> 13
 -7.361032e+00 6.272398e-01 -7.258736e+00 -1.795821e-01 6.139069e-01 -1.983558e-01 -4.141068e+00 -2.026084e+00 4.207709e+00 -9.561824e-01 -3.740443e+00 -2.469519e+00 4.701516e+01
<VARIANCE> 13
 6.366573e+01 7.825767e+01 9.037444e+01 1.457306e+02 4.686733e+01 9.033192e+01 9.805437e+01 8.377158e+01 7.262349e+01 7.482473e+01 5.262231e+01 4.275258e+01 1.519020e+02
<GCONST> 8.059845e+01
<STATE> 3
<MEAN> 13
 2.554235e+00 -3.231869e+00 -4.523370e+00 -1.424357e+01 -1.074057e+01 -1.821930e+00 -1.488221e+01 -7.673359e+00 -5.032206e+00 -2.564763e-01 7.874149e-01 -8.754538e+00 6.794180e+01
<VARIANCE> 13
 2.400195e+01 3.301307e+01 1.985895e+01 9.367062e+01 7.490283e+01 3.923725e+01 6.073635e+01 3.414595e+01 3.701498e+01 2.858249e+01 2.261876e+01 4.954093e+01 8.815251e+01
<GCONST> 7.218365e+01
<STATE> 4
<MEAN> 13
 3.730193e+00 4.617956e+00 -2.195283e-01 -1.113962e+01 5.705594e+00 5.247438e+00 -1.667834e+01 -1.225216e+01 -5.362554e+00 2.328801e+00 -7.711979e+00 2.327879e-01 5.654145e+01
<VARIANCE> 13
 4.222144e+01 1.094889e+02 3.141079e+01 2.228283e+02 6.672340e+01 5.399723e+01 1.025082e+02 7.199423e+01 7.066267e+01 5.969638e+01 6.229594e+01 4.824928e+01 1.416509e+02
<GCONST> 7.958955e+01
<TRANSP> 5
 0.000000e+00 1.000000e+00 0.000000e+00 0.000000e+00 0.000000e+00
 0.000000e+00 7.175709e-01 2.824291e-01 0.000000e+00 0.000000e+00
 0.000000e+00 0.000000e+00 6.935152e-01 3.064847e-01 0.000000e+00
 0.000000e+00 0.000000e+00 0.000000e+00 8.246278e-01 1.753722e-01
 0.000000e+00 0.000000e+00 0.000000e+00 0.000000e+00 0.000000e+00
<ENDHMM>
~h "w"
<BEGINHMM>
<NUMSTATES> 5
<STATE> 2
<MEAN> 13
 -2.347290e+01 -2.603010e+00 -2.192305e+00 -6.243296e+00 2.164234e+01 -1.048706e+01 1.048619e+00 2.777066e+00 7.285873e+00 -5.901367e+00 8.145773e-01 -7.355068e+00 6.184202e+01
<VARIANCE> 13
 6.051125e+01 4.672782e+01 5.587162e+01 4.690272e+01 4.922787e+01 2.071399e+01 5.328930e+01 2.090733e+01 2.816163e+01 1.394124e+01 1.547691e+01 1.518326e+01 1.210911e+01
<GCONST> 6.758012e+01
<STATE> 3
<MEAN> 13
 -1.830087e+01 2.778147e+00 -1.569131e+00 5.664719e+00 5.840886e+00 -2.274140e+00 -4.144208e+00 3.421310e+00 7.276501e+00 1.398735e+00 1.941961e+00 -4.149692e+00 6.455846e+01
<VARIANCE> 13
 7.390915e+01 4.479014e+00 2.462989e+01 2.231661e+01 1.404166e+01 2.974948e+01 1.191653e+01 1.223837e+01 1.297323e+01 1.225897e+01 3.492371e+01 9.486578e+00 4.454376e+00
<GCONST> 5.938736e+01
<STATE> 4
<MEAN> 13
 4.289474e+00 -1.806082e+00 1.513411e+00 -1.809950e+00 -4.551880e+00 -5.216153e+00 -1.482777e+01 -6.633906e+00 -5.289056e+00 4.802573e+00 2.931144e+00 -4.782461e+00 6.821050e+01
<VARIANCE> 13
 6.274363e+00 7.023097e+00 4.685086e+01 9.846647e+00 1.429580e+01 4.174879e+01 4.682906e+01 2.815172e+01 4.137783e+01 1.269790e+01 7.549897e+01 3.856707e+01 8.793291e+00
<GCONST> 6.380261e+01
<TRANSP> 5
 0.000000e+00 1.000000e+00 0.000000e+00 0.000000e+00 0.000000e+00
 0.000000e+00 8.644753e-01 1.355248e-01 0.000000e+00 0.000000e+00
 0.000000e+00 0.000000e+00 7.782197e-01 2.217803e-01 0.000000e+00
 0.000000e+00 0.000000e+00 0.000000e+00 6.977983e-01 3.022017e-01
 0.000000e+00 0.000000e+00 0.000000e+00 0.000000e+00 0.000000e+00
<ENDHMM>
~h "ah"
<BEGINHMM>
<NUMSTATES> 5
<STATE> 2
<MEAN> 13
 3.644338e+00 -1.083868e+01 -8.737756e+00 -9.285776e+00 8.556827e+00 -9.156901e+00 1.586950e+00 -2.682038e+00 1.437015e-01 5.370621e+00 -1.027841e+01 -7.373851e+00 6.950201e+01
<VARIANCE> 13
 1.516230e+01 2.447592e+01 4.264408e+01 9.007340e+01 1.196754e+02 9.513791e+01 1.094474e+02 4.414808e+01 4.004197e+01 6.640483e+01 5.288272e+01 5.126064e+01 1.953273e+01
<GCONST> 7.464831e+01
<STATE> 3
<MEAN> 13
 3.414284e+00 -1.672383e+01 -1.251220e+01 -6.487476e+00 -2.087621e+00 -3.908430e+00 -5.520535e+00 1.836884e+00 -2.040573e+00 5.835679e+00 -1.325991e+01 -1.352814e+01 7.477575e+01
<VARIANCE> 13
 4.076265e+00 1.748573e+01 2.699290e+01 3.319574e+01 6.635582e+01 3.482517e+01 4.888894e+01 3.038491e+01 3.430647e+01 2.490896e+01 2.954082e+01 5.196544e+01 1.507166e+01
<GCONST> 6.680556e+01
<STATE> 4
<MEAN> 13
 2.515964e+00 -1.124625e+01 -4.925222e+00 -1.112928e+01 1.240538e+01 -9.597722e+00 1.999702e+00 -2.616316e+00 6.978092e+00 -1.787151e-01 -1.619902e+01 -1.038781e+00 6.770270e+01
<VARIANCE> 13
 7.481085e+00 2.839389e+01 2.300139e+01 5.815235e+01 8.992993e+01 4.120551e+01 5.666076e+01 5.636423e+01 4.041602e+01 6.199762e+01 4.495175e+01 6.050003e+01 3.197685e+01
<GCONST> 7.193566e+01
<TRANSP> 5
 0.000000e+00 1.000000e+00 0.000000e+00 0.000000e+00 0.000000e+00
 0.000000e+00 4.131773e-01 5.868227e-01 0.000000e+00 0.000000e+00
 0.000000e+00 0.000000e+00 7.817445e-01 2.182555e-01 0.000000e+00
 0.000000e+00 0.000000e+00 0.000000e+00 7.011839e-01 2.988161e-01
 0.000000e+00 0.000000e+00 0.000000e+00 0.000000e+00 0.000000e+00
<ENDHMM>
~h "ax"
<BEGINHMM>
<NUMSTATES> 5
<STATE> 2
<MEAN> 13
 1.864880e+00 -6.701600e+00 8.376131e+00 -2.539428e+00 -8.096928e+00 -1.572210e+01 -7.689376e+00 3.335984e+00 -6.692993e+00 4.476999e+00 -3.854609e+00 -2.549801e-01 6.792598e+01
<VARIANCE> 13
 5.340017e+00 2.646812e+01 8.768865e+01 4.504017e+01 1.740341e+02 5.132750e+01 3.251882e+01 7.671566e+01 9.789432e+01 2.731353e+01 6.058449e+01 3.114410e+01 2.394366e+01
<GCONST> 7.265396e+01
<STATE> 3
<MEAN> 13
 3.991221e+00 -1.357178e+01 -7.320297e+00 -5.224791e+00 -9.218552e-01 -4.493979e+00 -4.291027e+00 2.002778e+00 -1.065444e+00 7.841276e+00 -1.556579e+01 -8.203349e+00 7.260684e+01
<VARIANCE> 13
 3.992516e+00 3.112417e+01 3.310274e+01 2.970907e+01 8.391998e+01 6.655999e+01 1.874290e+01 6.653192e+01 2.818918e+01 1.723559e+01 3.951751e+01 5.943304e+01 2.169188e+01
<GCONST> 6.838678e+01
<STATE> 4
<MEAN> 13
 5.358248e-01 -3.066343e+00 -4.676213e+00 -3.116583e+00 9.256011e-01 -6.424858e+00 -5.601663e+00 -9.971410e-01 3.014278e+00 6.638000e+00 -5.262582e+00 -6.942486e+00 6.245651e+01
<VARIANCE> 13
 2.207844e+01 3.034673e+01 3.274938e+01 2.997161e+01 7.354482e+01 7.983200e+01 6.402384e+01 5.306281e+01 5.060752e+01 4.559505e+01 4.292788e+01 5.644192e+01 6.170474e+01
<GCONST> 7.375637e+01
<TRANSP> 5
 0.000000e+00 1.000000e+00 0.000000e+00 0.000000e+00 0.000000e+00
 0.000000e+00 7.553450e-01 2.446550e-01 0.000000e+00 0.000000e+00
 0.000000e+00 0.000000e+00 7.542008e-01 2.457992e-01 0.000000e+00
 0.000000e+00 0.000000e+00 0.000000e+00 7.452019e-01 2.547980e-01
 0.000000e+00 0.000000e+00 0.000000e+00 0.000000e+00 0.000000e+00
<ENDHMM>
~h "ay"
<BEGINHMM>
<NUMSTATES> 5
<STATE> 2
<MEAN> 13
 -1.528140e+01 3.577858e+00 -6.945820e+00 1.301251e+01 6.539403e+00 -8.145575e+00 9.506177e+00 3.489808e+00 7.056231e+00 7.188859e-01 -8.729613e-01 -1.254342e-01 6.191504e+01
<VARIANCE> 13
 1.620005e+01 1.603535e+01 2.274335e+01 3.305426e+01 2.208977e+01 1.627804e+01 1.926349e+01 1.953429e+01 2.434587e+01 2.812157e+01 1.893009e+01 1.252424e+01 8.273431e+00
<GCONST> 6.200032e+01
<STATE> 3
<MEAN> 13
 3.157404e+00 -4.526922e+00 -7.073971e+00 -4.084261e+00 8.795450e+00 -5.954206e+00 -9.892040e-01 1.078313e+00 1.189177e+01 -3.917738e+00 -1.329997e+01 4.595290e+00 6.412327e+01
<VARIANCE> 13
 2.456176e+01 1.924452e+01 2.341845e+01 7.917733e+01 7.973906e+01 4.926700e+01 2.959848e+01 1.056387e+01 2.359334e+01 5.166084e+01 5.130714e+01 5.673293e+01 1.194518e+01
<GCONST> 6.915939e+01
<STATE> 4
<MEAN> 13
 8.774663e-01 -1.200172e+01 6.446125e+00 -1.784143e+01 4.599813e+00 -1.666433e+01 8.427608e+00 1.459994e+00 1.779043e+00 2.370819e-01 -1.195411e+01 4.707786e+00 7.059231e+01
<VARIANCE> 13
 5.253829e+00 1.293509e+01 7.632035e+01 2.243134e+01 8.256147e+01 2.755226e+01 2.812420e+01 3.085286e+01 5.495996e+01 4.219666e+01 3.916502e+01 1.605786e+01 6.699933e+00
<GCONST> 6.614722e+01
<TRANSP> 5
 0.000000e+00 1.000000e+00 0.000000e+00 0.000000e+00 0.000000e+00
 0.000000e+00 7.797679e-01 2.202320e-01 0.000000e+00 0.000000e+00
 0.000000e+00 0.000000e+00 3.950382e-01 6.049618e-01 0.000000e+00
 0.000000e+00 0.000000e+00 0.000000e+00 9.238566e-01 7.614337e-02
 0.000000e+00 0.000000e+00 0.000000e+00 0.000000e+00 0.000000e+00
<ENDHMM>
~h "eh"
<BEGINHMM>
<NUMSTATES> 5
<STATE> 2
<MEAN> 13
 2.381317e+00 -7.993527e+00 9.434873e-01 2.597116e+00 -1.435466e+01 -1.630828e+01 -1.424062e+01 7.839078e+00 -8.945413e-01 6.757541e-01 -2.146166e+00 -1.034809e+01 6.660117e+01
<VARIANCE> 13
 2.603241e+00 1.285464e+02 2.126693e+01 5.169838e+01 9.797794e+01 1.526234e+01 2.074913e+01 2.442327e+01 2.506415e+01 1.420507e+01 6.170166e+01 6.769797e+01 1.148200e+02
<GCONST> 6.920197e+01
<STATE> 3
<MEAN> 13
 2.959360e+00 -1.065987e+01 8.516932e+00 -1.155030e+01 -4.458681e-02 -1.719893e+01 -1.256494e+01 3.062676e+00 -4.421197e+00 4.862839e+00 -4.882094e+00 -1.584483e+00 6.964043e+01
<VARIANCE> 13
 1.420587e+00 6.772584e+00 2.234509e+01 8.508238e+00 2.471104e+01 9.153997e+01 8.631059e+01 1.597994e+02 4.250673e+01 9.420372e+00 3.644857e+01 1.191854e+02 3.465925e+00
<GCONST> 6.427200e+01
<STATE> 4
<MEAN> 13
 5.881595e+00 1.342349e-01 4.225827e-01 -1.292698e+01 1.168212e+01 -1.000205e+01 -1.480670e+01 -6.372269e+00 -8.078596e+00 1.540925e+01 -1.055018e+01 -8.663325e-01 6.184369e+01
<VARIANCE> 13
 8.317546e+00 3.615472e+01 1.432969e+01 3.208637e+01 6.287326e+01 1.047269e+02 1.297717e+01 5.694071e+01 1.599878e+01 1.984963e+01 4.606970e+01 2.653714e+01 2.000528e+01
<GCONST> 6.699241e+01
<TRANSP> 5
 0.000000e+00 1.000000e+00 0.000000e+00 0.000000e+00 0.000000e+00
 0.000000e+00 8.728862e-01 1.271138e-01 0.000000e+00 0.000000e+00
 0.000000e+00 0.000000e+00 8.791524e-01 1.208477e-01 0.000000e+00
 0.000000e+00 0.000000e+00 0.000000e+00 7.939419e-01 2.060582e-01
 0.000000e+00 0.000000e+00 0.000000e+00 0.000000e+00 0.000000e+00
<ENDHMM>
~h "hh"
<BEGINHMM>
<NUMSTATES> 5
<STATE> 2
<MEAN> 13
 1.933129e+00 -6.761701e+00 3.388683e+00 -5.509814e+00 5.444366e+00 -1.989758e+01 -2.362381e+00 1.014420e+01 6.254014e-01 3.740809e-01 -1.564406e+01 5.237764e+00 6.301596e+01
<VARIANCE> 13
 5.926498e+00 7.798434e+01 2.452450e+01 2.058735e+02 4.730383e+01 5.234516e+01 7.037116e+01 3.520095e+01 3.692390e+01 3.309654e+01 2.345613e+01 5.037307e+01 8.712045e+01
<GCONST> 7.283475e+01
<STATE> 3
<MEAN> 13
 7.310579e-01 -1.621306e+01 -1.280079e+01 -5.318725e+00 -8.018160e-01 -3.036956e+00 -7.684243e+00 4.773898e+00 -2.320433e+00 -2.346973e+00 -1.646499e+01 -9.967242e+00 7.658388e+01
<VARIANCE> 13
 4.437064e+00 1.604296e+01 1.921207e+01 4.266054e+01 2.104471e+01 1.778773e+01 1.709730e+01 3.454278e+01 8.553799e+00 1.371149e+01 1.176659e+01 2.066261e+01 6.765828e+00
<GCONST> 5.934283e+01
<STATE> 4
<MEAN> 13
 4.749059e-01 -1.363136e+01 -1.151795e+00 -9.047536e+00 1.692609e+01 -7.319659e+00 1.054299e+01 -1.265658e+00 6.742852e+00 4.357235e+00 -2.200898e+01 1.680592e+00 6.764120e+01
<VARIANCE> 13
 7.911517e+00 6.792513e+00 1.385892e+01 7.196413e+01 3.497136e+01 4.936092e+01 4.749337e+01 2.644883e+01 2.815936e+01 2.416349e+01 2.630268e+01 2.142122e+01 1.711993e+01
<GCONST> 6.506815e+01
<TRANSP> 5
 0.000000e+00 1.000000e+00 0.000000e+00 0.000000e+00 0.000000e+00
 0.000000e+00 8.700739e-01 1.299261e-01 0.000000e+00 0.000000e+00
 0.000000e+00 0.000000e+00 9.413868e-01 5.861328e-02 0.000000e+00
 0.000000e+00 0.000000e+00 0.000000e+00 9.350390e-01 6.496095e-02
 0.000000e+00 0.000000e+00 0.000000e+00 0.000000e+00 0.000000e+00
<ENDHMM>
~h "ih"
<BEGINHMM>
<NUMSTATES> 5
<STATE> 2
<MEAN> 13
 1.196688e+00 1.186791e+01 1.542904e+00 -5.681858e+00 -8.440208e+00 1.505987e+00 -2.819947e+00 -8.012207e+00 -1.420847e+01 -4.040802e+00 -5.782848e+00 -2.443631e-01 4.751049e+01
<VARIANCE> 13
 1.053673e+02 1.072453e+02 1.777158e+02 1.111953e+02 4.774900e+01 8.666245e+01 1.568881e+02 5.216405e+01 4.844479e+01 1.010822e+02 4.986235e+01 4.332964e+01 1.620866e+02
<GCONST> 8.171695e+01
<STATE> 3
<MEAN> 13
 -2.123738e+00 -1.679998e+00 8.995270e+00 -9.005825e-02 -1.555116e+01 -1.090621e+01 -7.086920e+00 -1.705821e+00 -1.145656e+01 5.372190e-01 5.345226e+00 -1.023298e+01 6.469115e+01
<VARIANCE> 13
 2.099574e+01 4.321896e+01 4.761321e+01 4.776114e+01 8.620253e+01 4.927311e+01 9.237157e+01 4.018935e+01 3.599262e+01 2.505393e+01 5.260899e+01 5.808744e+01 1.001866e+02
<GCONST> 7.444204e+01
<STATE> 4
<MEAN> 13
 -1.542975e+01 7.034936e+00 -4.742934e-01 6.392769e+00 -8.340636e-01 1.706273e+00 -9.728141e-01 3.723194e+00 2.196564e-01 -9.026610e-01 1.196394e+00 1.138249e+00 3.596556e+01
<VARIANCE> 13
 6.991666e+01 8.758398e+01 5.123295e+01 7.102097e+01 6.149413e+01 9.797103e+01 8.224010e+01 6.693978e+01 3.588705e+01 9.948123e+01 2.423239e+01 3.866709e+01 2.393473e+02
<GCONST> 7.862965e+01
<TRANSP> 5
 0.000000e+00 1.000000e+00 0.000000e+00 0.000000e+00 0.000000e+00
 0.000000e+00 7.770138e-01 2.229862e-01 0.000000e+00 0.000000e+00
 0.000000e+00 0.000000e+00 7.497391e-01 2.502610e-01 0.000000e+00
 0.000000e+00 0.000000e+00 0.000000e+00 7.507479e-01 2.492522e-01
 0.000000e+00 0.000000e+00 0.000000e+00 0.000000e+00 0.000000e+00
<ENDHMM>
~h "iy"
<BEGINHMM>
<NUMSTATES> 5
<STATE> 2
<MEAN> 13
 7.490889e-01 -8.099422e+00 2.207195e+01 -8.442665e+00 -9.941586e+00 -1.296627e+01 -2.569901e+00 -1.705119e+00 -1.592479e+01 6.431837e+00 -8.651026e+00 1.922798e+00 6.535126e+01
<VARIANCE> 13
 6.612448e+00 1.804407e+01 6.240797e+01 3.591493e+01 3.299879e+01 2.801734e+01 3.278491e+01 2.689450e+01 4.137543e+01 2.085926e+01 4.185458e+01 3.708273e+01 9.720058e+00
<GCONST> 6.638223e+01
<STATE> 3
<MEAN> 13
 -2.020928e+00 -4.310511e+00 1.252295e+01 1.680904e+00 -2.276101e+01 -1.315109e+01 -1.133588e+01 -3.324820e+00 -1.306611e+01 -5.700177e-01 8.648025e+00 -1.384065e+01 6.978377e+01
<VARIANCE> 13
 3.178120e+00 9.808915e+00 2.563979e+01 1.705589e+01 2.875913e+01 1.846463e+01 2.684081e+01 2.573162e+01 1.130963e+01 1.608441e+01 3.715964e+01 3.674859e+01 1.104262e+01
<GCONST> 6.104967e+01
<STATE> 4
<MEAN> 13
 -2.967458e-01 5.779247e+00 1.441170e+01 -2.055340e+00 -1.147015e+01 -4.774360e+00 -1.827381e+00 -8.480455e+00 -1.509065e+01 3.122055e+00 -7.076725e+00 -1.267800e+00 5.416195e+01
<VARIANCE> 13
 5.340379e+01 7.040638e+01 1.340267e+02 1.420472e+02 5.039560e+01 1.350474e+02 7.565412e+01 5.543503e+01 6.110392e+01 4.946128e+01 4.833931e+01 4.084903e+01 9.609584e+01
<GCONST> 7.931292e+01
<TRANSP> 5
 0.000000e+00 1.000000e+00 0.000000e+00 0.000000e+00 0.000000e+00
 0.000000e+00 8.051362e-01 1.948638e-01 0.000000e+00 0.000000e+00
 0.000000e+00 0.000000e+00 8.699883e-01 1.300117e-01 0.000000e+00
 0.000000e+00 0.000000e+00 0.000000e+00 6.873975e-01 3.126025e-01
 0.000000e+00 0.000000e+00 0.000000e+00 0.000000e+00 0.000000e+00
<ENDHMM>
~h "ng"
<BEGINHMM>
<NUMSTATES> 5
<STATE> 2
<MEAN> 13
 5.969096e+00 7.885213e+00 -1.044339e+01 4.546279e+00 9.105497e+00 7.733767e+00 -4.544403e+00 -5.580404e+00 3.942922e+00 -1.068074e+01 -8.746595e+00 1.996986e+00 4.997080e+01
<VARIANCE> 13
 1.978083e+01 5.676603e+01 4.817689e+01 4.514229e+01 5.367546e+01 5.395016e+01 3.484009e+01 3.210719e+01 5.255517e+01 5.263511e+01 2.702890e+01 3.628942e+01 6.504627e+01
<GCONST> 7.258040e+01
<STATE> 3
<MEAN> 13
 -7.420772e+00 1.596206e+01 1.394676e+00 1.367645e+01 4.255868e+00 1.195915e+01 -3.342411e+00 -2.437358e+00 -2.634345e+00 -4.309379e+00 -1.168554e+00 -1.990680e+00 3.521380e+01
<VARIANCE> 13
 5.212207e+01 4.903869e+01 2.512012e+01 5.513565e+01 3.305324e+01 6.240083e+01 2.679972e+01 2.672145e+01 2.637320e+01 2.074479e+01 1.955177e+01 1.215327e+01 1.103748e+02
<GCONST> 6.965681e+01
<STATE> 4
<MEAN> 13
 -1.802334e+01 6.831341e+00 -6.260217e+00 6.127148e+00 -6.890311e+00 5.327839e+00 -6.906680e-01 4.052354e+00 3.757087e-01 -3.212727e+00 1.405363e+00 -9.181475e-01 2.853210e+01
<VARIANCE> 13
 5.369763e+01 3.768708e+01 7.124114e+01 1.132619e+02 9.050259e+01 1.177757e+02 8.702160e+01 8.494268e+01 6.050816e+01 3.716893e+01 5.292484e+01 3.138521e+01 8.137881e+01
<GCONST> 7.821574e+01
<TRANSP> 5
 0.000000e+00 1.000000e+00 0.000000e+00 0.000000e+00 0.000000e+00
 0.000000e+00 7.529455e-01 2.470545e-01 0.000000e+00 0.000000e+00
 0.000000e+00 0.000000e+00 7.661795e-01 2.338206e-01 0.000000e+00
 0.000000e+00 0.000000e+00 0.000000e+00 8.786150e-01 1.213850e-01
 0.000000e+00 0.000000e+00 0.000000e+00 0.000000e+00 0.000000e+00
<ENDHMM>
~h "oh"
<BEGINHMM>
<NUMSTATES> 5
<STATE> 2
<MEAN> 13
 3.356584e+00 -7.566970e+00 -9.784139e+00 -2.752615e+01 6.173771e+00 -4.081501e+00 6.231228e+00 -1.375831e+01 5.139664e+00 3.860227e+00 -7.205179e+00 -2.043931e+00 7.116708e+01
<VARIANCE> 13
 3.636411e+00 1.328584e+01 2.143402e+01 5.371541e+01 1.281387e+02 3.916657e+01 5.372066e+01 7.986102e+01 8.498624e+01 6.242017e+01 4.078262e+01 4.766099e+01 1.780947e+01
<GCONST> 7.073228e+01
<STATE> 3
<MEAN> 13
 4.470573e+00 -1.523040e+01 -1.429104e+01 -8.156662e+00 -9.292787e+00 -3.598355e-01 -8.497045e+00 -4.962661e-02 -3.909210e-01 7.134127e+00 -6.000904e+00 -1.807964e+01 7.452577e+01
<VARIANCE> 13
 2.325686e+00 1.914709e+01 9.432790e+00 5.254003e+01 4.126344e+01 2.519458e+01 3.746158e+01 2.375337e+01 2.855187e+01 2.146239e+01 2.471337e+01 4.399395e+01 1.389996e+01
<GCONST> 6.367329e+01
<STATE> 4
<MEAN> 13
 4.493934e+00 -1.042793e+01 -9.512702e+00 -5.533770e+00 4.895218e+00 -7.852941e+00 -3.556635e+00 -3.717659e+00 6.872415e+00 -4.791217e-01 -3.780401e+00 -5.897150e+00 6.850461e+01
<VARIANCE> 13
 6.017825e+00 1.243921e+01 1.255647e+01 5.702711e+01 3.075822e+01 1.344002e+01 3.576356e+01 2.048691e+01 6.762529e+01 9.976289e+01 2.417490e+01 8.619671e+01 1.460370e+01
<GCONST> 6.654285e+01
<TRANSP> 5
 0.000000e+00 1.000000e+00 0.000000e+00 0.000000e+00 0.000000e+00
 0.000000e+00 8.717073e-01 1.282927e-01 0.000000e+00 0.000000e+00
 0.000000e+00 0.000000e+00 9.300761e-01 6.992391e-02 0.000000e+00
 0.000000e+00 0.000000e+00 0.000000e+00 1.058834e-01 8.941165e-01
 0.000000e+00 0.000000e+00 0.000000e+00 0.000000e+00 0.000000e+00
<ENDHMM>
~h "sp"
<BEGINHMM>
<NUMSTATES> 5
<STATE> 2
~s "silst"
<STATE> 3
<MEAN> 13
 -8.715033e+00 2.248249e+00 -9.133193e-01 9.794115e-01 2.284300e+00 1.189046e+00 2.763185e+00 6.465948e-01 2.690804e+00 -1.110849e+00 1.055728e+00 -1.143961e+00 5.133373e+01
<VARIANCE> 13
 1.472645e+01 4.318082e+00 7.161588e+00 8.486057e+00 9.786016e+00 1.021930e+01 1.066699e+01 8.980141e+00 8.368013e+00 7.674459e+00 7.529055e+00 6.971873e+00 3.832640e+01
<GCONST> 5.308852e+01
<STATE> 4
<MEAN> 13
 -2.521267e+01 3.236709e+00 -9.285968e+00 4.886907e+00 -6.665698e+00 5.709208e+00 -2.730559e+00 1.950148e+00 1.621543e+00 -6.200170e-01 1.510099e+00 -4.972374e-01 2.313740e+01
<VARIANCE> 13
 1.404853e+01 3.496003e+00 6.789423e+00 7.690238e+00 1.118448e+01 1.168306e+01 1.162666e+01 1.275706e+01 1.268265e+01 1.047449e+01 1.042899e+01 9.602919e+00 2.878706e+01
<GCONST> 5.446967e+01
<TRANSP> 5
 0.000000e+00 7.000000e-01 3.000000e-01 0.000000e+00 0.000000e+00
 0.000000e+00 7.713131e-01 2.286870e-01 0.000000e+00 0.000000e+00
 0.000000e+00 0.000000e+00 9.087209e-01 9.127915e-02 0.000000e+00
 0.000000e+00 0.000000e+00 0.000000e+00 9.417698e-01 5.823018e-02
 0.000000e+00 0.000000e+00 0.000000e+00 0.000000e+00 0.000000e+00
<ENDHMM>
~h "uh"
<BEGINHMM>
<NUMSTATES> 5
<STATE> 2
<MEAN> 13
 -1.152540e+00 8.978893e+00 -3.926863e+00 -9.058125e+00 -6.126564e+00 -1.077777e+00 -4.430256e+00 -4.722439e+00 -5.253850e+00 -5.978471e+00 -2.899628e+00 -1.575927e+00 5.106981e+01
<VARIANCE> 13
 4.693700e+01 2.268432e+01 1.815002e+01 6.139012e+01 2.831316e+01 2.981520e+01 3.047562e+01 2.969709e+01 2.088095e+01 2.436567e+01 1.875860e+01 1.784321e+01 1.177216e+02
<GCONST> 6.823874e+01
<STATE> 3
<MEAN> 13
 2.509640e+00 6.446233e+00 -4.681176e+00 -1.049248e+01 -9.769580e+00 -1.327952e-01 -7.894231e+00 -7.352592e+00 -9.523528e+00 -1.217253e+00 1.135099e+00 -2.206283e+00 5.539923e+01
<VARIANCE> 13
 4.097716e+01 7.364665e+01 2.556277e+01 6.450503e+01 3.552762e+01 2.879808e+01 3.626071e+01 2.611798e+01 4.975454e+01 2.996898e+01 2.638189e+01 2.766499e+01 1.911577e+02
<GCONST> 7.224976e+01
<STATE> 4
<MEAN> 13
 -2.741482e-01 4.647481e+00 -1.952578e+00 -4.171423e+00 -8.800637e+00 -1.438319e+00 -1.317731e+01 -1.226012e+01 -9.506556e+00 -2.254062e+00 5.294581e-01 -5.292053e+00 5.332278e+01
<VARIANCE> 13
 5.861466e+01 9.016402e+01 3.991744e+01 8.275941e+01 3.021003e+01 5.348801e+01 5.842423e+01 3.448922e+01 4.248265e+01 6.410811e+01 5.093113e+01 5.337056e+01 2.442518e+02
<GCONST> 7.687937e+01
<TRANSP> 5
 0.000000e+00 1.000000e+00 0.000000e+00 0.000000e+00 0.000000e+00
 0.000000e+00 4.954312e-01 5.045688e-01 0.000000e+00 0.000000e+00
 0.000000e+00 0.000000e+00 4.824885e-01 5.175115e-01 0.000000e+00
 0.000000e+00 0.000000e+00 0.000000e+00 6.502371e-01 3.497629e-01
 0.000000e+00 0.000000e+00 0.000000e+00 0.000000e+00 0.000000e+00
<ENDHMM>
~h "uw"
<BEGINHMM>
<NUMSTATES> 5
<STATE> 2
<MEAN> 13
 3.914349e+00 5.648378e-01 -3.799822e+00 -9.984618e+00 -4.176429e+00 1.277179e+00 -1.782954e+01 -1.396381e+01 -7.266703e+00 -9.631048e-02 2.623118e+00 -5.125073e+00 6.446830e+01
<VARIANCE> 13
 4.107160e+01 3.346609e+01 1.549284e+01 7.872546e+01 8.241283e+01 4.237093e+01 5.526035e+01 5.698429e+01 6.358138e+01 3.718486e+01 3.944659e+01 4.659649e+01 9.581854e+01
<GCONST> 7.428477e+01
<STATE> 3
<MEAN> 13
 4.717841e+00 2.710992e+00 -5.561522e+00 -1.771742e+01 -1.280983e+01 -6.064504e-01 -1.392757e+01 -7.149000e+00 -8.984010e+00 -5.238977e+00 1.346178e+00 -7.211158e+00 6.598963e+01
<VARIANCE> 13
 1.802483e+01 1.577984e+01 1.051640e+01 3.737722e+01 4.745357e+01 1.858861e+01 2.240979e+01 2.310744e+01 2.483287e+01 1.993491e+01 1.385476e+01 5.150604e+01 5.768787e+01
<GCONST> 6.537886e+01
<STATE> 4
<MEAN> 13
 6.347634e+00 4.305141e+00 -7.479419e+00 -2.291738e+01 1.333032e+00 8.070681e+00 -9.463741e+00 -9.020443e+00 -4.867632e+00 3.502970e+00 -6.542654e+00 3.809545e+00 5.918278e+01
<VARIANCE> 13
 5.555052e+01 6.824353e+01 3.928003e+01 1.713373e+02 9.582603e+01 9.987692e+01 5.308698e+01 6.359675e+01 7.289004e+01 1.042766e+02 8.771114e+01 8.017749e+01 1.054572e+02
<GCONST> 8.069070e+01
<TRANSP> 5
 0.000000e+00 1.000000e+00 0.000000e+00 0.000000e+00 0.000000e+00
 0.000000e+00 5.474841e-01 4.525159e-01 0.000000e+00 0.000000e+00
 0.000000e+00 0.000000e+00 8.031229e-01 1.968770e-01 0.000000e+00
 0.000000e+00 0.000000e+00 0.000000e+00 7.536948e-01 2.463053e-01
 0.000000e+00 0.000000e+00 0.000000e+00 0.000000e+00 0.000000e+00
<ENDHMM>
~h "sil"
<BEGINHMM>
<NUMSTATES> 5
<STATE> 2
<MEAN> 13
 -1.556108e+01 4.350455e+00 -3.889950e+00 6.937899e+00 -2.570091e-01 3.557785e+00 -9.058189e-01 1.596712e+00 1.114957e+00 -7.190756e-01 5.037608e-01 -1.939134e+00 3.695630e+01
<VARIANCE> 13
 6.764667e+01 3.770560e+01 4.029475e+01 4.432678e+01 3.410396e+01 5.657937e+01 3.863270e+01 4.281353e+01 4.275280e+01 2.758459e+01 2.865519e+01 2.407490e+01 2.163785e+02
<GCONST> 7.318655e+01
<STATE> 3
~s "silst"
<STATE> 4
<MEAN> 13
 -2.540871e+01 3.128708e+00 -9.385665e+00 4.798944e+00 -6.832031e+00 5.692595e+00 -2.718269e+00 1.852264e+00 1.686500e+00 -5.974324e-01 1.493650e+00 -4.132759e-01 2.299227e+01
<VARIANCE> 13
 1.193536e+01 2.272933e+00 5.458283e+00 5.600623e+00 9.594807e+00 9.313771e+00 9.682251e+00 1.007415e+01 1.056149e+01 9.270679e+00 9.281296e+00 8.333070e+00 2.805963e+01
<GCONST> 5.195261e+01
<TRANSP> 5
 0.000000e+00 1.000000e+00 0.000000e+00 0.000000e+00 0.000000e+00
 0.000000e+00 5.426068e-01 1.979626e-01 2.594305e-01 0.000000e+00
 0.000000e+00 0.000000e+00 9.624147e-01 3.758531e-02 0.000000e+00
 0.000000e+00 7.117953e-03 0.000000e+00 9.336742e-01 5.920792e-02
 0.000000e+00 0.000000e+00 0.000000e+00 0.000000e+00 0.000000e+00
<ENDHMM>
