~o
<STREAMINFO> 1 13
<VECSIZE> 13<NULLD><MFCC_0><DIAGC>
~h "b"
<BEGINHMM>
<NUMSTATES> 5
<STATE> 2
<MEAN> 13
 2.363160e+00 9.530422e+00 -6.276896e+00 -1.620235e+00 -1.218464e+00 7.628735e+00 -1.000716e+01 -2.104017e+00 -3.982785e+00 -3.075838e+00 -4.832780e+00 -5.082496e+00 4.532753e+01
<VARIANCE> 13
 1.244405e+02 1.613203e+02 3.923070e+01 1.243729e+02 9.336443e+01 8.983585e+01 6.955475e+01 5.021217e+01 6.830073e+01 6.366991e+01 2.872416e+01 5.507829e+01 7.285821e+01
<GCONST> 7.951787e+01
<STATE> 3
<MEAN> 13
 -3.945440e+00 6.084476e+00 -9.004245e+00 1.139404e+00 -1.656466e-01 7.351605e+00 -1.397675e+00 -9.783505e-01 -9.376321e-01 -4.302166e+00 -3.432707e+00 -3.240719e+00 4.385806e+01
<VARIANCE> 13
 9.600448e+01 1.054295e+02 6.721458e+01 3.000904e+01 5.455003e+01 1.047886e+02 4.193246e+01 2.442206e+01 5.309477e+01 4.266093e+01 2.021241e+01 6.098704e+01 1.289080e+02
<GCONST> 7.600826e+01
<STATE> 4
<MEAN> 13
 -1.619332e+01 7.212390e+00 -5.439844e+00 4.712882e+00 -4.254320e+00 4.822631e+00 -4.381921e+00 1.909998e+00 -1.423785e+00 -4.916937e+00 -1.381724e+00 -6.211040e+00 3.152117e+01
<VARIANCE> 13
 5.920768e+01 3.025279e+01 2.163524e+01 3.682002e+01 3.568662e+01 3.916929e+01 3.601976e+01 3.105063e+01 2.724784e+01 3.278360e+01 4.239548e+01 4.986198e+01 1.206604e+02
<GCONST> 7.156995e+01
<TRANSP> 5
 0.000000e+00 1.000000e+00 0.000000e+00 0.000000e+00 0.000000e+00
 0.000000e+00 8.888893e-01 1.111107e-01 0.000000e+00 0.000000e+00
 0.000000e+00 0.000000e+00 7.281418e-01 2.718582e-01 0.000000e+00
 0.000000e+00 0.000000e+00 0.000000e+00 8.908190e-01 1.091810e-01
 0.000000e+00 0.000000e+00 0.000000e+00 0.000000e+00 0.000000e+00
<ENDHMM>
~h "d"
<BEGINHMM>
<NUMSTATES> 5
<STATE> 2
<MEAN> 13
 6.645910e-01 6.155334e+00 3.663382e-01 5.787670e+00 2.924540e+00 -4.304001e-01 -7.787312e+00 -5.117811e+00 -3.079698e+00 -2.093179e+00 -1.009250e+01 -7.746573e+00 5.239425e+01
<VARIANCE> 13
 3.586650e+01 2.960818e+02 7.288786e+01 2.226244e+02 5.789159e+01 8.074656e+01 8.304900e+01 8.117809e+01 3.877351e+01 7.614301e+01 4.281493e+01 4.007044e+01 2.816674e+02
<GCONST> 8.120181e+01
<STATE> 3
<MEAN> 13
 3.847134e+00 -5.097492e+00 -3.393885e+00 -1.524113e+00 3.350957e+00 -4.670029e+00 -1.029159e+01 -3.962510e+00 1.094198e-01 2.967960e+00 -1.211479e+01 -7.654859e+00 6.322611e+01
<VARIANCE> 13
 1.121633e+01 1.643347e+02 3.458862e+01 1.885538e+02 9.879748e+01 8.629504e+01 1.674231e+02 1.390022e+02 4.188477e+01 5.754557e+01 5.314957e+01 6.373362e+01 1.270667e+02
<GCONST> 8.006047e+01
<STATE> 4
<MEAN> 13
 3.573511e+00 -1.029519e+01 -2.644604e+00 -5.262686e+00 8.276406e-01 -9.439467e+00 -9.720216e+00 1.743674e+00 2.534758e+00 3.276796e+00 -1.431303e+01 -5.046292e+00 6.827589e+01
<VARIANCE> 13
 7.838311e+00 5.681385e+01 2.751743e+01 9.361526e+01 1.090130e+02 6.699052e+01 1.209997e+02 1.353032e+02 3.328362e+01 4.582318e+01 5.595786e+01 9.043079e+01 4.782430e+01
<GCONST> 7.617111e+01
<TRANSP> 5
 0.000000e+00 1.000000e+00 0.000000e+00 0.000000e+00 0.000000e+00
 0.000000e+00 4.322596e-01 5.677404e-01 0.000000e+00 0.000000e+00
 0.000000e+00 0.000000e+00 1.733746e-01 8.266254e-01 0.000000e+00
 0.000000e+00 0.000000e+00 0.000000e+00 5.663974e-01 4.336026e-01
 0.000000e+00 0.000000e+00 0.000000e+00 0.000000e+00 0.000000e+00
<ENDHMM>
~h "g"
<BEGINHMM>
<NUMSTATES> 5
<STATE> 2
<MEAN> 13
 -5.149457e+00 -1.872058e-01 2.025980e+01 -5.189171e+00 -1.059095e+01 -1.014062e+01 -7.425932e+00 -8.966617e+00 -1.099531e+01 -4.258516e-01 1.116358e+00 -9.156211e+00 6.545406e+01
<VARIANCE> 13
 1.137570e+01 3.464694e+01 9.069190e+01 1.502281e+02 1.164000e+02 2.961451e+01 5.419679e+01 2.797849e+01 2.400367e+01 2.990914e+01 1.161574e+02 5.595171e+01 5.758397e+01
<GCONST> 7.426712e+01
<STATE> 3
<MEAN> 13
 -2.277021e+00 2.154726e+00 1.155160e+01 1.607627e+00 -8.806365e+00 -1.314585e+01 -4.414490e+00 -3.500902e+00 -6.049250e+00 -1.232444e+00 -3.864535e+00 -6.797039e+00 5.943600e+01
<VARIANCE> 13
 1.084119e+01 9.777835e+01 6.941592e+01 5.809034e+01 7.604440e+01 9.942959e+01 5.965326e+01 2.805126e+01 3.514790e+01 2.210728e+01 6.029681e+01 6.384935e+01 1.039334e+02
<GCONST> 7.506895e+01
<STATE> 4
<MEAN> 13
 8.551590e-01 -1.612913e+01 -7.827048e+00 -6.279241e+00 -1.148114e+01 -8.449106e+00 -1.388294e+01 6.346465e+00 2.836632e+00 3.024459e+00 -7.308583e+00 -2.101905e+01 7.643648e+01
<VARIANCE> 13
 1.001213e+01 3.095429e+01 5.169218e+01 2.779685e+01 3.732704e+01 9.061299e+01 2.761465e+01 2.149110e+01 2.642276e+01 1.413513e+01 3.443464e+01 7.498153e+01 5.091037e+01
<GCONST> 6.912050e+01
<TRANSP> 5
 0.000000e+00 1.000000e+00 0.000000e+00 0.000000e+00 0.000000e+00
 0.000000e+00 8.789396e-01 1.210604e-01 0.000000e+00 0.000000e+00
 0.000000e+00 0.000000e+00 8.233053e-01 1.766948e-01 0.000000e+00
 0.000000e+00 0.000000e+00 0.000000e+00 8.651816e-01 1.348184e-01
 0.000000e+00 0.000000e+00 0.000000e+00 0.000000e+00 0.000000e+00
<ENDHMM>
~h "j"
<BEGINHMM>
<NUMSTATES> 5
<STATE> 2
<MEAN> 13
 -6.405692e+00 1.701774e+01 3.081301e+01 -7.017168e+00 -4.218379e+00 -3.853534e+00 -1.114619e+01 -3.510299e+00 -1.704829e+01 2.196961e+00 -1.831633e+00 -5.348434e+00 4.895050e+01
<VARIANCE> 13
 8.818314e+00 9.226653e+01 1.152710e+02 1.954669e+02 5.863313e+01 3.739336e+01 4.312046e+01 2.555205e+01 6.780256e+01 4.294546e+01 1.927324e+01 1.915537e+01 6.174658e+01
<GCONST> 7.332497e+01
<STATE> 3
<MEAN> 13
 -8.911235e-01 -1.055571e+00 1.006063e+01 5.795316e+00 -1.339360e+01 -9.653841e+00 -1.131783e+01 -4.836249e+00 -5.959684e+00 -5.221796e+00 1.904328e+00 -8.942888e+00 6.290908e+01
<VARIANCE> 13
 3.027229e+01 4.459506e+01 1.380079e+02 6.147310e+01 6.369025e+01 6.894340e+01 1.649843e+02 5.725660e+01 4.172598e+01 2.743098e+01 4.414050e+01 3.725534e+01 8.272527e+01
<GCONST> 7.655038e+01
<STATE> 4
<MEAN> 13
 9.147572e+00 1.555033e+01 -3.874309e+00 4.476946e+00 -4.310791e+00 8.427749e+00 -1.157281e+01 -1.588462e+01 -1.144834e+01 -4.463641e+00 -2.998481e+00 -3.368061e+00 4.714936e+01
<VARIANCE> 13
 2.207284e+01 7.438274e+01 3.742987e+01 2.578277e+01 1.598940e+01 4.377312e+01 3.339706e+01 2.133465e+01 2.605853e+01 2.372844e+01 3.905352e+01 3.299585e+01 5.546929e+01
<GCONST> 6.889206e+01
<TRANSP> 5
 0.000000e+00 1.000000e+00 0.000000e+00 0.000000e+00 0.000000e+00
 0.000000e+00 8.923834e-01 1.076166e-01 0.000000e+00 0.000000e+00
 0.000000e+00 0.000000e+00 8.725802e-01 1.274198e-01 0.000000e+00
 0.000000e+00 0.000000e+00 0.000000e+00 8.608959e-01 1.391042e-01
 0.000000e+00 0.000000e+00 0.000000e+00 0.000000e+00 0.000000e+00
<ENDHMM>
~h "k"
<BEGINHMM>
<NUMSTATES> 5
<STATE> 2
<MEAN> 13
 -8.605615e+00 3.108794e+00 -6.398305e+00 1.255461e+00 1.015931e+00 5.457225e-01 -4.756225e+00 -1.921596e+00 1.014883e+00 1.807505e+00 -4.496950e-01 -2.109612e+00 4.578548e+01
<VARIANCE> 13
 4.165328e+01 7.767716e+01 5.443055e+01 4.627468e+01 5.853729e+01 4.899243e+01 5.724638e+01 4.226720e+01 4.085762e+01 4.339623e+01 2.777075e+01 2.527586e+01 1.495811e+02
<GCONST> 7.460071e+01
<STATE> 3
<MEAN> 13
 -8.733102e+00 6.186215e-01 -8.795224e+00 8.967958e-01 4.029886e+00 1.142438e+00 -3.337216e+00 -8.474500e-01 6.400996e-01 1.316177e+00 -3.178406e-01 -2.287995e+00 4.801592e+01
<VARIANCE> 13
 3.597664e+01 8.212999e+01 9.230603e+01 6.997070e+01 7.151401e+01 8.556248e+01 5.084556e+01 5.328312e+01 6.026740e+01 5.591237e+01 3.405380e+01 2.399428e+01 1.558812e+02
<GCONST> 7.715775e+01
<STATE> 4
<MEAN> 13
 -1.206559e+01 1.128421e+00 -9.610590e+00 3.212945e+00 1.019498e+01 9.776624e-01 -3.625349e-01 6.523599e-02 4.980272e-01 4.297368e+00 2.015074e+00 -1.570057e+00 4.393491e+01
<VARIANCE> 13
 6.952331e+01 1.335573e+02 1.618640e+02 1.943557e+02 1.175056e+02 3.168079e+02 6.271998e+01 1.635878e+02 1.059390e+02 6.504597e+01 6.318221e+01 6.095498e+01 2.276455e+02
<GCONST> 8.566776e+01
<TRANSP> 5
 0.000000e+00 1.000000e+00 0.000000e+00 0.000000e+00 0.000000e+00
 0.000000e+00 4.834728e-01 5.165272e-01 0.000000e+00 0.000000e+00
 0.000000e+00 0.000000e+00 3.380823e-01 6.619177e-01 0.000000e+00
 0.000000e+00 0.000000e+00 0.000000e+00 6.720930e-01 3.279070e-01
 0.000000e+00 0.000000e+00 0.000000e+00 0.000000e+00 0.000000e+00
<ENDHMM>
~h "l"
<BEGINHMM>
<NUMSTATES> 5
<STATE> 2
<MEAN> 13
 4.088761e+00 -1.467173e+01 -9.799058e+00 -1.468246e+01 5.581854e+00 -1.504976e+00 -8.543702e+00 -1.506893e+00 2.680511e+00 4.677883e+00 -1.508465e+01 -9.542302e+00 7.337680e+01
<VARIANCE> 13
 3.685673e+00 1.579087e+01 3.829684e+01 4.136489e+01 1.438602e+02 1.614023e+01 3.023734e+01 1.889874e+01 3.639184e+01 3.100134e+01 4.053831e+01 1.217497e+02 1.216442e+01
<GCONST> 6.745351e+01
<STATE> 3
<MEAN> 13
 5.529087e+00 -8.157384e+00 -6.600923e+00 -1.605939e+01 7.745842e+00 8.704155e-01 -7.939321e+00 -4.372994e+00 5.732393e+00 7.275130e+00 -1.455075e+01 -4.404906e+00 6.786956e+01
<VARIANCE> 13
 1.231453e+01 6.785172e+01 2.981820e+01 6.008798e+01 1.350926e+02 5.178901e+01 5.523684e+01 2.773195e+01 7.412830e+01 4.056706e+01 1.051065e+02 7.573676e+01 2.848224e+01
<GCONST> 7.463907e+01
<STATE> 4
<MEAN> 13
 5.679820e+00 2.586794e+00 -4.274140e+00 -6.711982e+00 3.433651e+00 2.417084e+00 -4.082069e+00 -3.372714e+00 8.433636e-02 4.754422e+00 -8.015882e+00 -4.258712e+00 5.892796e+01
<VARIANCE> 13
 2.575644e+01 2.508015e+02 3.305059e+01 1.266166e+02 7.676663e+01 4.481189e+01 2.784515e+01 3.752083e+01 4.507519e+01 3.093253e+01 9.254010e+01 4.466699e+01 1.714294e+02
<GCONST> 7.681094e+01
<TRANSP> 5
 0.000000e+00 1.000000e+00 0.000000e+00 0.000000e+00 0.000000e+00
 0.000000e+00 9.395676e-01 6.043245e-02 0.000000e+00 0.000000e+00
 0.000000e+00 0.000000e+00 2.975715e-01 7.024284e-01 0.000000e+00
 0.000000e+00 0.000000e+00 0.000000e+00 3.283077e-01 6.716923e-01
 0.000000e+00 0.000000e+00 0.000000e+00 0.000000e+00 0.000000e+00
<ENDHMM>
~h "m"
<BEGINHMM>
<NUMSTATES> 5
<STATE> 2
<MEAN> 13
 4.206760e+00 1.982783e+00 -1.402125e+00 -2.895489e-01 7.704705e+00 -1.888368e+00 -6.176803e+00 -1.242891e+01 -9.794177e+00 1.224795e+00 -8.219278e+00 -3.256267e+00 5.830888e+01
<VARIANCE> 13
 1.135321e+01 3.707322e+01 3.482104e+01 3.971893e+01 1.046451e+02 5.510001e+01 5.772601e+01 5.335936e+01 4.321690e+01 3.119326e+01 4.655536e+01 7.078019e+01 3.210276e+01
<GCONST> 7.263493e+01
<STATE> 3
<MEAN> 13
 4.056793e+00 4.257493e+00 -8.989606e-01 2.603010e+00 9.546522e+00 -6.787976e-01 -7.201874e+00 -1.497227e+01 -1.072370e+01 3.843586e-02 -8.156195e+00 9.872638e-01 5.623568e+01
<VARIANCE> 13
 1.447399e+01 4.658903e+01 3.942739e+01 4.439446e+01 1.065006e+02 6.265571e+01 4.935076e+01 5.091354e+01 3.837579e+01 3.285131e+01 4.834418e+01 7.177450e+01 3.945211e+01
<GCONST> 7.347497e+01
<STATE> 4
<MEAN> 13
 -2.195198e+00 1.165137e+01 -1.161513e-01 9.585755e+00 8.276373e+00 6.012740e+00 -7.667665e+00 -7.422331e+00 -6.323240e+00 -3.692384e+00 -4.175253e+00 -1.384976e+00 4.337757e+01
<VARIANCE> 13
 8.312821e+01 9.417625e+01 7.686567e+01 1.495275e+02 1.068344e+02 9.071116e+01 5.807975e+01 8.197527e+01 9.418621e+01 3.998481e+01 5.224421e+01 4.394106e+01 1.768215e+02
<GCONST> 8.100239e+01
<TRANSP> 5
 0.000000e+00 1.000000e+00 0.000000e+00 0.000000e+00 0.000000e+00
 0.000000e+00 4.876425e-01 5.123575e-01 0.000000e+00 0.000000e+00
 0.000000e+00 0.000000e+00 6.270440e-01 3.729560e-01 0.000000e+00
 0.000000e+00 0.000000e+00 0.000000e+00 6.883463e-01 3.116536e-01
 0.000000e+00 0.000000e+00 0.000000e+00 0.000000e+00 0.000000e+00
<ENDHMM>
~h "n"
<BEGINHMM>
<NUMSTATES> 5
<STATE> 2
<MEAN> 13
 1.868078e+00 4.787968e+00 1.912276e-01 1.526691e+00 -1.331824e+00 -7.142692e+00 -5.347446e+00 -5.384801e+00 -7.903297e-01 -4.037283e+00 -9.989463e+00 -7.738714e-01 5.595755e+01
<VARIANCE> 13
 3.132613e+01 2.485214e+01 3.120032e+01 9.205474e+01 7.493768e+01 8.359018e+01 2.853467e+01 5.002307e+01 2.858275e+01 3.850748e+01 7.454140e+01 9.309035e+01 3.388403e+01
<GCONST> 7.389032e+01
<STATE> 3
<MEAN> 13
 1.804258e+00 7.864404e+00 -4.719456e-01 1.372220e+00 -9.731660e-01 -3.148037e+00 -5.546553e+00 -4.147153e+00 -6.230377e-02 -5.404619e+00 -8.145672e+00 2.316526e+00 5.316902e+01
<VARIANCE> 13
 5.227406e+01 3.533717e+01 3.106817e+01 2.068890e+02 5.957512e+01 1.134473e+02 4.694207e+01 6.053683e+01 4.339097e+01 4.363367e+01 9.199520e+01 9.986715e+01 5.026742e+01
<GCONST> 7.754197e+01
<STATE> 4
<MEAN> 13
 -4.660923e+00 1.596290e+01 1.744191e+00 1.045033e+01 -3.126721e-02 3.372755e+00 -6.668704e+00 -2.212700e+00 -2.156876e+00 -4.581768e+00 -3.762122e+00 5.575798e-01 3.838567e+01
<VARIANCE> 13
 1.199636e+02 8.375193e+01 4.242761e+01 1.631037e+02 5.063258e+01 6.641695e+01 5.644069e+01 6.912353e+01 5.106358e+01 5.181076e+01 4.366324e+01 5.040988e+01 1.235344e+02
<GCONST> 7.873315e+01
<TRANSP> 5
 0.000000e+00 1.000000e+00 0.000000e+00 0.000000e+00 0.000000e+00
 0.000000e+00 5.785955e-01 4.214045e-01 0.000000e+00 0.000000e+00
 0.000000e+00 0.000000e+00 3.655004e-01 6.344996e-01 0.000000e+00
 0.000000e+00 0.000000e+00 0.000000e+00 7.842183e-01 2.157818e-01
 0.000000e+00 0.000000e+00 0.000000e+00 0.000000e+00 0.000000e+00
<ENDHMM>
~h "p"
<BEGINHMM>
<NUMSTATES> 5
<STATE> 2
<MEAN> 13
 -7.430555e+00 2.627640e+00 -6.421016e+00 2.564866e+00 -2.583094e+00 -6.372517e-01 -4.297517e+00 -1.307535e+00 -2.270118e-01 -7.166988e-01 -2.880607e+00 -3.545587e+00 4.446359e+01
<VARIANCE> 13
 5.288574e+01 5.726168e+01 3.334406e+01 3.571489e+01 4.737042e+01 4.045802e+01 5.782034e+01 4.755093e+01 4.768486e+01 2.921778e+01 5.363442e+01 2.381410e+01 1.652039e+02
<GCONST> 7.396706e+01
<STATE> 3
<MEAN> 13
 -6.100614e+00 1.622738e+00 -7.031428e+00 3.701396e+00 -1.706612e+00 8.079367e-01 -1.370513e+00 2.960614e-01 1.774046e+00 1.310665e+00 -1.387873e+00 -3.405680e+00 4.671484e+01
<VARIANCE> 13
 5.877803e+01 6.719337e+01 5.958232e+01 6.520939e+01 3.785573e+01 7.382742e+01 4.962729e+01 3.706174e+01 3.065322e+01 2.762705e+01 3.426962e+01 2.580680e+01 2.158878e+02
<GCONST> 7.479253e+01
<STATE> 4
<MEAN> 13
 3.313910e+00 -6.079498e+00 -9.277596e+00 -2.399882e+00 -2.252233e+00 -3.418297e+00 -6.740027e-01 -5.140762e-01 7.641848e-01 4.666542e+00 -3.318661e+00 -4.857410e+00 6.120162e+01
<VARIANCE> 13
 4.100574e+01 5.577198e+01 4.299092e+01 8.636879e+01 6.102027e+01 6.764845e+01 4.770142e+01 5.707769e+01 4.891093e+01 3.750609e+01 3.953550e+01 4.126169e+01 1.348666e+02
<GCONST> 7.589783e+01
<TRANSP> 5
 0.000000e+00 1.000000e+00 0.000000e+00 0.000000e+00 0.000000e+00
 0.000000e+00 6.198944e-01 3.801056e-01 0.000000e+00 0.000000e+00
 0.000000e+00 0.000000e+00 4.519179e-01 5.480821e-01 0.000000e+00
 0.000000e+00 0.000000e+00 0.000000e+00 1.772521e-01 8.227479e-01
 0.000000e+00 0.000000e+00 0.000000e+00 0.000000e+00 0.000000e+00
<ENDHMM>
~h "r"
<BEGINHMM>
<NUMSTATES> 5
<STATE> 2
<MEAN> 13
 3.006485e+00 -1.104087e+01 -4.913724e+00 4.964415e-01 -4.302725e+00 -8.726224e+00 -5.270442e+00 1.970779e+00 3.345356e+00 4.143152e+00 -6.164992e+00 -9.996274e+00 6.635155e+01
<VARIANCE> 13
 1.069419e+01 2.796371e+01 4.781833e+01 3.506836e+01 6.908869e+01 2.967513e+01 4.376615e+01 4.226070e+01 3.525026e+01 6.662626e+01 3.620025e+01 8.836090e+01 4.015894e+01
<GCONST> 7.169106e+01
<STATE> 3
<MEAN> 13
 2.515604e+00 -9.385710e+00 -1.970747e+00 2.335869e+00 -2.527592e+00 -9.378454e+00 -4.194199e+00 4.501355e+00 1.107620e+00 2.512943e+00 -2.269323e+00 -6.359170e+00 6.374607e+01
<VARIANCE> 13
 1.829706e+01 5.079638e+01 5.592189e+01 4.360784e+01 5.781077e+01 3.997120e+01 5.614852e+01 5.955041e+01 3.277420e+01 6.028264e+01 4.386352e+01 7.390748e+01 4.717310e+01
<GCONST> 7.391272e+01
<STATE> 4
<MEAN> 13
 -5.003538e+00 1.330895e+00 -7.358871e-02 1.445442e+01 1.439240e+00 2.240995e-01 9.167165e-02 7.527474e+00 1.651648e+00 -1.508653e+00 -1.659764e+00 -2.213579e+00 4.633633e+01
<VARIANCE> 13
 7.806364e+01 1.354907e+02 5.701905e+01 1.612926e+02 7.404132e+01 1.253232e+02 5.633838e+01 6.527805e+01 5.439501e+01 6.643990e+01 5.357433e+01 5.385737e+01 2.558219e+02
<GCONST> 8.133544e+01
<TRANSP> 5
 0.000000e+00 1.000000e+00 0.000000e+00 0.000000e+00 0.000000e+00
 0.000000e+00 5.262867e-01 4.737133e-01 0.000000e+00 0.000000e+00
 0.000000e+00 0.000000e+00 4.048974e-01 5.951026e-01 0.000000e+00
 0.000000e+00 0.000000e+00 0.000000e+00 7.176307e-01 2.823693e-01
 0.000000e+00 0.000000e+00 0.000000e+00 0.000000e+00 0.000000e+00
<ENDHMM>
~h "s"
<BEGINHMM>
<NUMSTATES> 5
<STATE> 2
<MEAN> 13
 -1.232853e+01 4.728468e+00 -4.616466e+00 4.353742e+00 7.340360e+00 -1.328211e+01 5.522258e+00 -5.001476e-01 4.825684e+00 -3.995309e-01 -1.573216e+00 -5.510716e-01 6.032414e+01
<VARIANCE> 13
 7.591303e+01 6.904929e+01 7.261952e+01 7.109423e+01 9.486081e+01 4.754123e+01 9.237253e+01 3.727246e+01 2.692519e+01 3.516518e+01 6.340311e+01 3.685993e+01 1.249942e+02
<GCONST> 7.700217e+01
<STATE> 3
<MEAN> 13
 -1.759740e+01 5.618829e+00 -6.751764e+00 9.672488e+00 6.113976e+00 -1.061025e+01 8.190769e+00 7.833661e-01 6.821369e+00 -7.768586e-01 1.182367e+00 -9.638200e-01 6.179122e+01
<VARIANCE> 13
 3.040047e+01 3.591160e+01 3.803099e+01 6.962263e+01 7.119128e+01 4.654788e+01 4.573455e+01 2.899583e+01 2.246734e+01 3.267768e+01 2.326837e+01 2.282337e+01 3.725568e+01
<GCONST> 7.055671e+01
<STATE> 4
<MEAN> 13
 -2.600845e+01 4.839920e-01 -2.136775e+00 -2.193976e+00 1.681540e+01 -1.775304e+01 8.981220e+00 -6.240574e-01 7.604016e+00 -8.151756e+00 3.137112e-01 2.115894e+00 5.414791e+01
<VARIANCE> 13
 7.142757e+01 6.877044e+01 5.152772e+01 4.266648e+01 7.970056e+01 6.448119e+01 9.180499e+01 5.214731e+01 6.294410e+01 5.378873e+01 3.811434e+01 5.093693e+01 6.434299e+01
<GCONST> 7.696850e+01
<TRANSP> 5
 0.000000e+00 1.000000e+00 0.000000e+00 0.000000e+00 0.000000e+00
 0.000000e+00 4.383408e-01 5.616592e-01 0.000000e+00 0.000000e+00
 0.000000e+00 0.000000e+00 7.282957e-01 2.717044e-01 0.000000e+00
 0.000000e+00 0.000000e+00 0.000000e+00 8.337995e-01 1.662005e-01
 0.000000e+00 0.000000e+00 0.000000e+00 0.000000e+00 0.000000e+00
<ENDHMM>
~h "t"
<BEGINHMM>
<NUMSTATES> 5
<STATE> 2
<MEAN> 13
 -8.661348e+00 1.495227e+00 -6.922317e+00 6.278533e-01 -7.898762e-01 2.986433e-01 -4.939146e+00 -3.175225e+00 2.364578e+00 -1.942609e+00 -3.316066e+00 -1.444535e+00 4.478812e+01
<VARIANCE> 13
 9.407224e+01 8.180608e+01 8.118697e+01 1.917659e+02 5.879373e+01 1.017675e+02 1.010460e+02 8.731797e+01 6.632853e+01 8.558334e+01 4.989451e+01 5.496170e+01 2.050873e+02
<GCONST> 8.215981e+01
<STATE> 3
<MEAN> 13
 2.146003e+00 -2.891723e+00 -4.832438e+00 -1.385721e+01 -1.012533e+01 -8.005250e-01 -1.400126e+01 -7.379982e+00 -3.934144e+00 -2.413890e-01 8.069600e-01 -7.032554e+00 6.671852e+01
<VARIANCE> 13
 3.636871e+01 3.738046e+01 2.180879e+01 1.119584e+02 8.483454e+01 5.436003e+01 7.795258e+01 4.453920e+01 4.329547e+01 3.431422e+01 2.909293e+01 7.579849e+01 1.155914e+02
<GCONST> 7.524875e+01
<STATE> 4
<MEAN> 13
 3.462034e+00 5.389632e+00 -1.592415e-01 -1.054432e+01 4.284234e+00 5.520306e+00 -1.685434e+01 -1.250061e+01 -5.282034e+00 1.344948e+00 -7.606931e+00 1.994134e-01 5.560678e+01
<VARIANCE> 13
 4.685043e+01 1.150093e+02 3.048178e+01 2.375131e+02 8.220346e+01 6.212670e+01 9.323344e+01 6.708147e+01 7.113694e+01 6.346406e+01 5.928259e+01 5.518543e+01 1.583300e+02
<GCONST> 8.022388e+01
<TRANSP> 5
 0.000000e+00 1.000000e+00 0.000000e+00 0.000000e+00 0.000000e+00
 0.000000e+00 6.170278e-01 3.829722e-01 0.000000e+00 0.000000e+00
 0.000000e+00 0.000000e+00 6.744449e-01 3.255551e-01 0.000000e+00
 0.000000e+00 0.000000e+00 0.000000e+00 8.468327e-01 1.531674e-01
 0.000000e+00 0.000000e+00 0.000000e+00 0.000000e+00 0.000000e+00
<ENDHMM>
~h "w"
<BEGINHMM>
<NUMSTATES> 5
<STATE> 2
<MEAN> 13
 -2.069367e+01 8.241335e-01 8.053264e-01 -2.762604e-01 1.569300e+01 -9.065622e+00 -9.323035e-01 3.151826e+00 5.793054e+00 -4.149468e+00 1.850263e+00 -5.928629e+00 6.358976e+01
<VARIANCE> 13
 4.711774e+01 3.612514e+01 2.615566e+01 6.047660e+01 7.267910e+01 3.691289e+01 3.676337e+01 1.701740e+01 3.100323e+01 2.781264e+01 1.927281e+01 2.512803e+01 7.536232e+00
<GCONST> 6.799370e+01
<STATE> 3
<MEAN> 13
 -1.445047e+01 2.713078e+00 -3.437433e-01 2.944710e+00 5.717035e+00 -3.578567e+00 -5.508356e+00 2.240649e+00 8.084868e+00 7.885935e-01 1.255285e+00 -3.482703e+00 6.480020e+01
<VARIANCE> 13
 1.019573e+02 4.755247e+00 3.983049e+01 5.055645e+01 2.143060e+01 5.232789e+01 1.142819e+01 1.673163e+01 1.422935e+01 2.068548e+01 4.212166e+01 9.696054e+00 8.219283e+00
<GCONST> 6.376317e+01
<STATE> 4
<MEAN> 13
 3.695783e+00 -1.064087e+00 3.787191e+00 -2.267984e+00 -2.533602e+00 -6.252779e+00 -1.080773e+01 -4.884593e+00 -1.837446e+00 4.292771e+00 -3.963395e-01 -1.700412e+00 6.739653e+01
<VARIANCE> 13
 1.484297e+01 8.293303e+00 5.430757e+01 1.296068e+01 1.115944e+01 6.058980e+01 2.208001e+01 2.217160e+01 2.616457e+01 1.722421e+01 7.713168e+01 2.372761e+01 1.257808e+01
<GCONST> 6.412668e+01
<TRANSP> 5
 0.000000e+00 1.000000e+00 0.000000e+00 0.000000e+00 0.000000e+00
 0.000000e+00 8.556108e-01 1.443892e-01 0.000000e+00 0.000000e+00
 0.000000e+00 0.000000e+00 6.835179e-01 3.164821e-01 0.000000e+00
 0.000000e+00 0.000000e+00 0.000000e+00 6.059181e-01 3.940819e-01
 0.000000e+00 0.000000e+00 0.000000e+00 0.000000e+00 0.000000e+00
<ENDHMM>
~h "ah"
<BEGINHMM>
<NUMSTATES> 5
<STATE> 2
<MEAN> 13
 3.459807e+00 -1.269845e+01 -1.096897e+01 -7.658493e+00 4.368721e+00 -6.950467e+00 -2.286192e+00 -3.134116e-01 -3.989343e-01 5.831814e+00 -1.146091e+01 -9.044896e+00 7.103634e+01
<VARIANCE> 13
 1.227211e+01 3.435695e+01 5.113584e+01 6.451582e+01 1.240138e+02 7.939936e+01 6.830046e+01 3.764080e+01 4.783544e+01 4.749577e+01 4.382240e+01 7.248142e+01 3.314117e+01
<GCONST> 7.437749e+01
<STATE> 3
<MEAN> 13
 3.186857e+00 -1.541208e+01 -1.017230e+01 -8.029398e+00 2.288884e+00 -6.604428e+00 -1.837876e+00 -6.099277e-01 -4.042377e-01 5.381136e+00 -1.397447e+01 -1.071173e+01 7.285134e+01
<VARIANCE> 13
 4.946913e+00 2.804127e+01 3.535870e+01 4.745855e+01 1.114961e+02 4.974894e+01 6.827797e+01 3.980816e+01 4.635295e+01 3.184371e+01 3.309026e+01 7.248770e+01 2.754350e+01
<GCONST> 7.117442e+01
<STATE> 4
<MEAN> 13
 2.176417e+00 -8.218711e+00 -5.299481e+00 -7.319876e+00 9.811732e+00 -9.058864e+00 6.791711e-01 -1.877018e+00 5.715018e+00 -8.855965e-01 -1.462312e+01 -1.856663e+00 6.443682e+01
<VARIANCE> 13
 1.245052e+01 4.463047e+01 3.239323e+01 7.253058e+01 1.064350e+02 5.107035e+01 6.267747e+01 6.005774e+01 5.324289e+01 6.664404e+01 5.332998e+01 7.185085e+01 5.378699e+01
<GCONST> 7.521894e+01
<TRANSP> 5
 0.000000e+00 1.000000e+00 0.000000e+00 0.000000e+00 0.000000e+00
 0.000000e+00 5.829335e-01 4.170665e-01 0.000000e+00 0.000000e+00
 0.000000e+00 0.000000e+00 7.612385e-01 2.387615e-01 0.000000e+00
 0.000000e+00 0.000000e+00 0.000000e+00 6.854261e-01 3.145739e-01
 0.000000e+00 0.000000e+00 0.000000e+00 0.000000e+00 0.000000e+00
<ENDHMM>
~h "ax"
<BEGINHMM>
<NUMSTATES> 5
<STATE> 2
<MEAN> 13
 2.359166e+00 -6.752770e+00 7.649487e+00 -3.527506e+00 -6.853672e+00 -1.445801e+01 -4.861034e+00 3.092863e+00 -6.983613e+00 4.286766e+00 -6.441631e+00 3.767510e-01 6.713819e+01
<VARIANCE> 13
 8.417778e+00 3.752045e+01 9.639554e+01 7.598677e+01 1.344573e+02 5.496909e+01 6.737781e+01 7.332838e+01 9.074737e+01 3.922795e+01 6.702557e+01 4.199995e+01 3.556091e+01
<GCONST> 7.565140e+01
<STATE> 3
<MEAN> 13
 3.737919e+00 -1.068188e+01 -5.711204e+00 -6.716949e+00 1.299051e+00 -4.577589e+00 -4.930599e+00 -6.138065e-01 -1.179812e+00 8.082248e+00 -1.310737e+01 -7.413929e+00 6.977377e+01
<VARIANCE> 13
 6.236408e+00 4.691462e+01 4.429629e+01 5.581815e+01 8.332404e+01 5.827343e+01 3.377794e+01 6.966991e+01 4.755349e+01 2.595510e+01 5.178034e+01 6.142683e+01 4.150155e+01
<GCONST> 7.254440e+01
<STATE> 4
<MEAN> 13
 -1.186388e+00 -2.169066e+00 -4.278622e+00 -4.474074e+00 3.724425e+00 -5.757014e+00 -6.592057e+00 -1.588967e+00 2.545381e-01 5.570471e+00 -5.911960e+00 -4.813351e+00 5.942093e+01
<VARIANCE> 13
 4.517363e+01 3.570795e+01 4.044199e+01 4.569503e+01 9.806202e+01 8.450573e+01 8.689967e+01 9.774222e+01 9.950127e+01 4.735027e+01 6.867024e+01 7.007380e+01 1.207434e+02
<GCONST> 7.859994e+01
<TRANSP> 5
 0.000000e+00 1.000000e+00 0.000000e+00 0.000000e+00 0.000000e+00
 0.000000e+00 8.238666e-01 1.761334e-01 0.000000e+00 0.000000e+00
 0.000000e+00 0.000000e+00 8.108203e-01 1.891797e-01 0.000000e+00
 0.000000e+00 0.000000e+00 0.000000e+00 7.101204e-01 2.898796e-01
 0.000000e+00 0.000000e+00 0.000000e+00 0.000000e+00 0.000000e+00
<ENDHMM>
~h "ay"
<BEGINHMM>
<NUMSTATES> 5
<STATE> 2
<MEAN> 13
 -1.617488e+01 4.192939e+00 -6.977030e+00 1.281895e+01 6.948041e+00 -8.556423e+00 9.763095e+00 2.849906e+00 6.181730e+00 2.925511e-01 -6.699125e-01 -3.094053e-02 6.136599e+01
<VARIANCE> 13
 1.837071e+01 2.074920e+01 2.461157e+01 4.257636e+01 2.868957e+01 2.013710e+01 1.910962e+01 1.978483e+01 1.976424e+01 2.353114e+01 1.648210e+01 1.365918e+01 1.222996e+01
<GCONST> 6.314716e+01
<STATE> 3
<MEAN> 13
 -9.396585e+00 4.541439e-01 -6.202480e+00 2.430754e+00 9.442088e+00 -1.108948e+01 6.794663e+00 2.370054e+00 1.127212e+01 -2.990832e-01 -4.311237e+00 1.164559e+00 6.237132e+01
<VARIANCE> 13
 1.138067e+02 2.371188e+01 2.305827e+01 9.643150e+01 5.189157e+01 4.169702e+01 4.768480e+01 3.213417e+01 3.429256e+01 5.942867e+01 8.892165e+01 2.534440e+01 2.941447e+01
<GCONST> 7.323537e+01
<STATE> 4
<MEAN> 13
 -1.103539e-02 -1.119498e+01 6.017601e+00 -1.743055e+01 5.572236e+00 -1.677112e+01 8.700582e+00 9.999761e-01 3.440596e+00 -1.515040e+00 -1.137803e+01 5.215076e+00 7.020287e+01
<VARIANCE> 13
 1.949904e+01 1.853284e+01 7.750026e+01 3.827801e+01 8.226650e+01 3.218097e+01 3.354534e+01 2.843427e+01 5.432990e+01 3.892015e+01 4.196130e+01 1.739429e+01 1.208674e+01
<GCONST> 6.926089e+01
<TRANSP> 5
 0.000000e+00 1.000000e+00 0.000000e+00 0.000000e+00 0.000000e+00
 0.000000e+00 7.600154e-01 2.399846e-01 0.000000e+00 0.000000e+00
 0.000000e+00 0.000000e+00 1.188950e-01 8.811051e-01 0.000000e+00
 0.000000e+00 0.000000e+00 0.000000e+00 9.140391e-01 8.596092e-02
 0.000000e+00 0.000000e+00 0.000000e+00 0.000000e+00 0.000000e+00
<ENDHMM>
~h "eh"
<BEGINHMM>
<NUMSTATES> 5
<STATE> 2
<MEAN> 13
 2.420085e+00 -4.703177e+00 1.059818e+00 4.505198e+00 -1.018410e+01 -1.419052e+01 -1.248913e+01 3.071779e+00 6.572077e-01 2.578801e+00 -5.090736e+00 -1.041534e+01 6.285892e+01
<VARIANCE> 13
 4.334675e+00 1.656972e+02 2.230533e+01 6.111314e+01 9.420092e+01 1.790590e+01 2.568484e+01 6.627125e+01 2.797545e+01 3.325512e+01 5.637441e+01 7.272635e+01 1.388096e+02
<GCONST> 7.264434e+01
<STATE> 3
<MEAN> 13
 2.794848e+00 -9.572102e+00 8.845375e+00 -1.062425e+01 3.741302e-01 -1.827351e+01 -1.146502e+01 4.260219e+00 -5.890510e+00 3.973345e+00 -5.494078e+00 1.696743e-01 6.858808e+01
<VARIANCE> 13
 2.012395e+00 2.511786e+01 2.089564e+01 2.394106e+01 2.314710e+01 8.897859e+01 7.607552e+01 1.446625e+02 5.041577e+01 1.723197e+01 3.282339e+01 1.127597e+02 1.698958e+01
<GCONST> 6.878291e+01
<STATE> 4
<MEAN> 13
 5.937327e+00 -3.006437e-02 4.575350e-01 -1.407942e+01 1.154196e+01 -8.920694e+00 -1.513339e+01 -6.486531e+00 -8.153329e+00 1.513368e+01 -1.011533e+01 -6.131662e-01 6.203998e+01
<VARIANCE> 13
 8.426558e+00 3.367158e+01 1.509873e+01 3.756537e+01 5.538675e+01 1.162439e+02 1.536043e+01 6.051765e+01 1.787354e+01 1.907296e+01 4.602812e+01 2.958484e+01 1.928383e+01
<GCONST> 6.749328e+01
<TRANSP> 5
 0.000000e+00 1.000000e+00 0.000000e+00 0.000000e+00 0.000000e+00
 0.000000e+00 9.278618e-01 7.213828e-02 0.000000e+00 0.000000e+00
 0.000000e+00 0.000000e+00 8.805888e-01 1.194113e-01 0.000000e+00
 0.000000e+00 0.000000e+00 0.000000e+00 8.127367e-01 1.872632e-01
 0.000000e+00 0.000000e+00 0.000000e+00 0.000000e+00 0.000000e+00
<ENDHMM>
~h "hh"
<BEGINHMM>
<NUMSTATES> 5
<STATE> 2
<MEAN> 13
 1.841459e+00 -8.054144e+00 2.316115e+00 -5.763566e+00 2.915037e+00 -1.888881e+01 -5.623321e+00 9.701083e+00 1.692108e+00 1.465419e+00 -1.554333e+01 2.897534e+00 6.486201e+01
<VARIANCE> 13
 3.688331e+00 6.511044e+01 2.437296e+01 1.718566e+02 9.127490e+01 5.620090e+01 1.052243e+02 4.565639e+01 3.018731e+01 2.685382e+01 1.913977e+01 8.344637e+01 7.937908e+01
<GCONST> 7.318188e+01
<STATE> 3
<MEAN> 13
 7.316368e-01 -1.586957e+01 -1.267962e+01 -4.466013e+00 -7.066628e-01 -2.958809e+00 -7.583149e+00 4.677629e+00 -2.001824e+00 -2.470331e+00 -1.599294e+01 -9.860298e+00 7.629981e+01
<VARIANCE> 13
 5.208062e+00 1.709325e+01 2.138447e+01 4.702552e+01 2.690752e+01 2.112543e+01 1.828066e+01 3.770382e+01 9.407234e+00 1.480112e+01 1.390616e+01 2.205795e+01 7.754056e+00
<GCONST> 6.088353e+01
<STATE> 4
<MEAN> 13
 5.915319e-01 -1.363431e+01 -9.970660e-01 -9.282570e+00 1.623870e+01 -7.678420e+00 1.015398e+01 -8.949239e-01 6.615105e+00 4.163461e+00 -2.175155e+01 1.617229e+00 6.784383e+01
<VARIANCE> 13
 8.529916e+00 6.620412e+00 1.575695e+01 7.403345e+01 4.583377e+01 5.334156e+01 5.203649e+01 2.784529e+01 2.884868e+01 2.572294e+01 2.855031e+01 2.353006e+01 1.696524e+01
<GCONST> 6.601884e+01
<TRANSP> 5
 0.000000e+00 1.000000e+00 0.000000e+00 0.000000e+00 0.000000e+00
 0.000000e+00 8.583708e-01 1.416292e-01 0.000000e+00 0.000000e+00
 0.000000e+00 0.000000e+00 9.486912e-01 5.130875e-02 0.000000e+00
 0.000000e+00 0.000000e+00 0.000000e+00 9.389821e-01 6.101792e-02
 0.000000e+00 0.000000e+00 0.000000e+00 0.000000e+00 0.000000e+00
<ENDHMM>
~h "ih"
<BEGINHMM>
<NUMSTATES> 5
<STATE> 2
<MEAN> 13
 2.822098e+00 1.412855e+01 -2.519481e-01 -1.898213e+00 -8.669377e+00 2.214845e+00 -5.103125e+00 -8.098461e+00 -1.266520e+01 -5.944373e+00 -3.325553e+00 -7.327425e-01 4.665240e+01
<VARIANCE> 13
 1.032834e+02 1.096220e+02 1.405135e+02 1.153064e+02 5.752919e+01 1.010037e+02 1.045097e+02 6.879325e+01 5.983166e+01 9.564380e+01 4.350517e+01 3.845369e+01 1.231650e+02
<GCONST> 8.135567e+01
<STATE> 3
<MEAN> 13
 -3.091054e+00 5.741442e-01 8.863806e+00 4.587297e-01 -1.432511e+01 -9.566101e+00 -5.749603e+00 -8.565511e-01 -1.091565e+01 -4.776724e-01 4.776390e+00 -8.352913e+00 6.135206e+01
<VARIANCE> 13
 3.216692e+01 5.613578e+01 6.039030e+01 6.313535e+01 8.453598e+01 7.453789e+01 1.139563e+02 4.315221e+01 5.033857e+01 3.984374e+01 5.907238e+01 5.625117e+01 1.684019e+02
<GCONST> 7.772494e+01
<STATE> 4
<MEAN> 13
 -1.504000e+01 4.470721e+00 -1.236047e+00 5.905978e+00 -3.666139e+00 6.704879e-03 -1.449833e+00 1.318685e+00 -1.139132e+00 -2.782428e+00 1.710105e+00 -8.153447e-02 3.814578e+01
<VARIANCE> 13
 7.662204e+01 7.168357e+01 5.797210e+01 7.079765e+01 4.148593e+01 9.713955e+01 9.829775e+01 6.405153e+01 4.262865e+01 4.191875e+01 2.638019e+01 3.418661e+01 2.766855e+02
<GCONST> 7.778812e+01
<TRANSP> 5
 0.000000e+00 1.000000e+00 0.000000e+00 0.000000e+00 0.000000e+00
 0.000000e+00 7.173827e-01 2.826173e-01 0.000000e+00 0.000000e+00
 0.000000e+00 0.000000e+00 6.458501e-01 3.541499e-01 0.000000e+00
 0.000000e+00 0.000000e+00 0.000000e+00 7.194163e-01 2.805838e-01
 0.000000e+00 0.000000e+00 0.000000e+00 0.000000e+00 0.000000e+00
<ENDHMM>
~h "iy"
<BEGINHMM>
<NUMSTATES> 5
<STATE> 2
<MEAN> 13
 4.621090e-01 -7.712978e+00 2.158788e+01 -7.994140e+00 -1.077641e+01 -1.324104e+01 -2.999714e+00 -2.058818e+00 -1.626298e+01 6.358018e+00 -7.244179e+00 4.513424e-01 6.596314e+01
<VARIANCE> 13
 5.950840e+00 1.574479e+01 6.999341e+01 4.253246e+01 4.267087e+01 2.687876e+01 3.265057e+01 2.584820e+01 3.375488e+01 1.943951e+01 6.287953e+01 4.817862e+01 1.149380e+01
<GCONST> 6.715845e+01
<STATE> 3
<MEAN> 13
 -1.745540e+00 -3.802480e+00 1.210646e+01 1.365328e+00 -2.176875e+01 -1.254235e+01 -1.107532e+01 -4.103822e+00 -1.313593e+01 -5.822857e-01 8.196102e+00 -1.379618e+01 6.913275e+01
<VARIANCE> 13
 5.108424e+00 9.618280e+00 3.441459e+01 1.971463e+01 4.207325e+01 2.010976e+01 3.495126e+01 2.516641e+01 1.199008e+01 1.542627e+01 4.143905e+01 4.048564e+01 1.347297e+01
<GCONST> 6.307289e+01
<STATE> 4
<MEAN> 13
 -4.306737e-01 5.354975e+00 1.480807e+01 -2.044676e+00 -1.069443e+01 -5.434308e+00 -2.639489e-01 -8.144901e+00 -1.421785e+01 3.232626e+00 -6.739927e+00 -1.497154e+00 5.558072e+01
<VARIANCE> 13
 5.112210e+01 6.501801e+01 1.239708e+02 1.352254e+02 5.591648e+01 1.426622e+02 8.961131e+01 5.464298e+01 7.454389e+01 4.964577e+01 4.910722e+01 4.441951e+01 7.849377e+01
<GCONST> 7.947593e+01
<TRANSP> 5
 0.000000e+00 1.000000e+00 0.000000e+00 0.000000e+00 0.000000e+00
 0.000000e+00 8.080397e-01 1.919603e-01 0.000000e+00 0.000000e+00
 0.000000e+00 0.000000e+00 8.759518e-01 1.240481e-01 0.000000e+00
 0.000000e+00 0.000000e+00 0.000000e+00 6.677371e-01 3.322630e-01
 0.000000e+00 0.000000e+00 0.000000e+00 0.000000e+00 0.000000e+00
<ENDHMM>
~h "ng"
<BEGINHMM>
<NUMSTATES> 5
<STATE> 2
<MEAN> 13
 3.562460e+00 1.142218e+01 -8.661893e+00 7.320184e+00 7.383971e+00 9.926086e+00 -6.009316e+00 -5.415993e+00 -3.145652e-01 -8.436934e+00 -6.536918e+00 -2.351779e-01 4.500460e+01
<VARIANCE> 13
 4.764804e+01 5.910475e+01 4.978163e+01 5.183221e+01 5.548697e+01 6.328481e+01 3.177240e+01 2.798130e+01 4.763423e+01 3.717619e+01 3.221973e+01 3.140337e+01 9.208137e+01
<GCONST> 7.356653e+01
<STATE> 3
<MEAN> 13
 -6.373900e+00 1.249259e+01 4.199485e-01 1.082888e+01 1.963806e+00 7.727411e+00 -4.990101e+00 -4.036515e+00 -3.268105e+00 -4.165034e+00 -2.745304e+00 -2.790472e+00 3.903878e+01
<VARIANCE> 13
 6.333663e+01 7.002111e+01 2.400241e+01 7.855605e+01 4.695917e+01 9.749685e+01 3.676921e+01 2.071874e+01 2.186037e+01 2.346786e+01 2.005011e+01 1.585489e+01 1.896003e+02
<GCONST> 7.214337e+01
<STATE> 4
<MEAN> 13
 -1.702331e+01 8.812616e+00 -4.682221e+00 7.416402e+00 -6.051961e+00 6.129848e+00 -7.369640e-01 3.743231e+00 1.361513e-01 -3.389655e+00 8.619080e-01 -1.083772e+00 2.867863e+01
<VARIANCE> 13
 5.501691e+01 5.493026e+01 7.679419e+01 1.157655e+02 9.348736e+01 1.114476e+02 7.248459e+01 7.055878e+01 5.347853e+01 3.945299e+01 5.447567e+01 2.993399e+01 7.393167e+01
<GCONST> 7.814429e+01
<TRANSP> 5
 0.000000e+00 1.000000e+00 0.000000e+00 0.000000e+00 0.000000e+00
 0.000000e+00 7.704045e-01 2.295955e-01 0.000000e+00 0.000000e+00
 0.000000e+00 0.000000e+00 5.774159e-01 4.225840e-01 0.000000e+00
 0.000000e+00 0.000000e+00 0.000000e+00 8.983000e-01 1.017000e-01
 0.000000e+00 0.000000e+00 0.000000e+00 0.000000e+00 0.000000e+00
<ENDHMM>
~h "oh"
<BEGINHMM>
<NUMSTATES> 5
<STATE> 2
<MEAN> 13
 3.341173e+00 -9.658195e+00 -1.341793e+01 -2.182849e+01 -1.872106e+00 1.854920e-01 -6.497474e-01 -7.676644e+00 2.293201e+00 4.339387e+00 -5.033625e+00 -8.909781e+00 7.170071e+01
<VARIANCE> 13
 4.584885e+00 2.406876e+01 3.375566e+01 9.950206e+01 1.452885e+02 5.129173e+01 1.148034e+02 1.066330e+02 7.766175e+01 4.263538e+01 3.490013e+01 1.022069e+02 3.854713e+01
<GCONST> 7.498069e+01
<STATE> 3
<MEAN> 13
 4.674080e+00 -1.575902e+01 -1.300089e+01 -5.399631e+00 -7.494709e+00 -3.010942e+00 -8.079303e+00 -1.147623e+00 2.066880e+00 7.635998e+00 -7.519285e+00 -1.706448e+01 7.431905e+01
<VARIANCE> 13
 2.378814e+00 2.437844e+01 1.210117e+01 5.668675e+01 8.535434e+01 1.680323e+01 4.366665e+01 5.012448e+01 3.874677e+01 3.113869e+01 2.371941e+01 6.159627e+01 2.085036e+01
<GCONST> 6.686279e+01
<STATE> 4
<MEAN> 13
 3.159544e+00 -8.668886e+00 -9.548848e+00 3.295897e+00 5.040898e+00 -5.996940e+00 -3.587556e+00 2.117679e+00 6.673967e+00 -4.915382e-01 -4.959088e+00 -6.720164e+00 6.239920e+01
<VARIANCE> 13
 8.013423e+00 9.042456e+01 2.990382e+01 3.292756e+02 6.056239e+01 2.258171e+01 6.539252e+01 9.108694e+01 7.058957e+01 6.690395e+01 2.637080e+01 1.081308e+02 1.992551e+02
<GCONST> 7.729627e+01
<TRANSP> 5
 0.000000e+00 1.000000e+00 0.000000e+00 0.000000e+00 0.000000e+00
 0.000000e+00 9.211221e-01 7.887794e-02 0.000000e+00 0.000000e+00
 0.000000e+00 0.000000e+00 8.780336e-01 1.219664e-01 0.000000e+00
 0.000000e+00 0.000000e+00 0.000000e+00 3.264676e-01 6.735324e-01
 0.000000e+00 0.000000e+00 0.000000e+00 0.000000e+00 0.000000e+00
<ENDHMM>
~h "uh"
<BEGINHMM>
<NUMSTATES> 5
<STATE> 2
<MEAN> 13
 -2.541471e+00 7.766509e+00 -3.870735e+00 -7.784434e+00 -6.704288e+00 -1.309181e+00 -5.308845e+00 -4.886529e+00 -5.204921e+00 -4.980412e+00 -1.752520e+00 -2.313130e+00 5.050962e+01
<VARIANCE> 13
 6.523245e+01 2.954329e+01 1.467337e+01 7.880464e+01 2.936635e+01 2.374516e+01 3.934853e+01 2.812030e+01 2.931847e+01 2.562380e+01 1.965417e+01 2.280465e+01 1.650036e+02
<GCONST> 6.989836e+01
<STATE> 3
<MEAN> 13
 -7.047642e-01 5.299895e+00 -4.304470e+00 -8.010383e+00 -8.017707e+00 1.504292e-01 -7.134748e+00 -6.315804e+00 -7.493695e+00 -1.196728e+00 1.799748e+00 -2.103388e+00 5.332465e+01
<VARIANCE> 13
 6.503828e+01 5.927730e+01 2.379458e+01 7.756033e+01 3.927719e+01 2.608702e+01 4.966204e+01 3.057986e+01 6.154747e+01 2.859586e+01 2.464635e+01 2.921369e+01 2.085017e+02
<GCONST> 7.332007e+01
<STATE> 4
<MEAN> 13
 2.115765e-01 3.585608e+00 -5.040159e-01 -3.219815e+00 -7.781758e+00 -2.586538e+00 -1.149605e+01 -1.211617e+01 -7.514406e+00 -1.231787e+00 -9.614826e-01 -5.525881e+00 5.545383e+01
<VARIANCE> 13
 5.368438e+01 6.624084e+01 3.543185e+01 8.994612e+01 3.659546e+01 6.402284e+01 5.880612e+01 3.579115e+01 4.485954e+01 4.852771e+01 4.971321e+01 5.220450e+01 1.931969e+02
<GCONST> 7.635757e+01
<TRANSP> 5
 0.000000e+00 1.000000e+00 0.000000e+00 0.000000e+00 0.000000e+00
 0.000000e+00 6.987674e-01 3.012326e-01 0.000000e+00 0.000000e+00
 0.000000e+00 0.000000e+00 5.300633e-01 4.699367e-01 0.000000e+00
 0.000000e+00 0.000000e+00 0.000000e+00 7.204825e-01 2.795175e-01
 0.000000e+00 0.000000e+00 0.000000e+00 0.000000e+00 0.000000e+00
<ENDHMM>
~h "uw"
<BEGINHMM>
<NUMSTATES> 5
<STATE> 2
<MEAN> 13
 4.909102e+00 6.273137e-01 -4.116954e+00 -1.253328e+01 -6.926537e+00 1.776923e+00 -1.777790e+01 -1.269864e+01 -7.183872e+00 -2.126377e+00 2.466086e+00 -5.801445e+00 6.551376e+01
<VARIANCE> 13
 3.229467e+01 2.649335e+01 1.268487e+01 7.683279e+01 9.106267e+01 3.916351e+01 5.871161e+01 4.566583e+01 6.693747e+01 3.539761e+01 2.840514e+01 4.887243e+01 7.370444e+01
<GCONST> 7.290578e+01
<STATE> 3
<MEAN> 13
 4.875624e+00 3.482173e+00 -6.027339e+00 -1.789982e+01 -1.147197e+01 4.355561e-01 -1.312238e+01 -7.033812e+00 -8.649688e+00 -4.901147e+00 8.369960e-01 -5.530223e+00 6.440190e+01
<VARIANCE> 13
 2.878376e+01 2.127527e+01 1.369688e+01 5.299186e+01 6.100185e+01 4.455995e+01 2.728738e+01 2.842389e+01 3.414019e+01 2.525945e+01 1.838876e+01 6.990295e+01 8.117115e+01
<GCONST> 6.977354e+01
<STATE> 4
<MEAN> 13
 6.073955e+00 2.350631e+00 -7.209592e+00 -2.234861e+01 1.690110e+00 7.293243e+00 -9.917528e+00 -7.236289e+00 -4.717381e+00 5.776307e+00 -6.593262e+00 1.320793e+00 6.041529e+01
<VARIANCE> 13
 5.224269e+01 9.097747e+01 4.334526e+01 1.860161e+02 9.158253e+01 9.504506e+01 5.628918e+01 6.135993e+01 5.155065e+01 1.009144e+02 8.638120e+01 1.122774e+02 1.202691e+02
<GCONST> 8.109911e+01
<TRANSP> 5
 0.000000e+00 1.000000e+00 0.000000e+00 0.000000e+00 0.000000e+00
 0.000000e+00 6.972758e-01 3.027242e-01 0.000000e+00 0.000000e+00
 0.000000e+00 0.000000e+00 7.861517e-01 2.138483e-01 0.000000e+00
 0.000000e+00 0.000000e+00 0.000000e+00 7.391278e-01 2.608722e-01
 0.000000e+00 0.000000e+00 0.000000e+00 0.000000e+00 0.000000e+00
<ENDHMM>
~h "sil"
<BEGINHMM>
<NUMSTATES> 5
<STATE> 2
<MEAN> 13
 -1.022902e+01 8.431070e-01 -1.790837e+00 4.672478e+00 2.453523e+00 2.808073e-02 1.416173e+00 1.589946e+00 3.468864e+00 -3.070366e-01 2.116503e-01 -2.062634e+00 5.041284e+01
<VARIANCE> 13
 4.102694e+01 2.674199e+01 2.168167e+01 2.166283e+01 2.362998e+01 2.917407e+01 2.001813e+01 1.839316e+01 2.041830e+01 1.366006e+01 1.448407e+01 1.409034e+01 1.286228e+02
<GCONST> 6.529568e+01
<STATE> 3
<MEAN> 13
 -8.715033e+00 2.248249e+00 -9.133193e-01 9.794115e-01 2.284300e+00 1.189046e+00 2.763185e+00 6.465948e-01 2.690804e+00 -1.110849e+00 1.055728e+00 -1.143961e+00 5.133373e+01
<VARIANCE> 13
 1.472645e+01 4.318082e+00 7.161588e+00 8.486057e+00 9.786016e+00 1.021930e+01 1.066699e+01 8.980141e+00 8.368013e+00 7.674458e+00 7.529054e+00 6.971873e+00 3.832640e+01
<GCONST> 5.308852e+01
<STATE> 4
<MEAN> 13
 -2.521267e+01 3.236709e+00 -9.285968e+00 4.886907e+00 -6.665698e+00 5.709208e+00 -2.730559e+00 1.950148e+00 1.621543e+00 -6.200170e-01 1.510099e+00 -4.972374e-01 2.313740e+01
<VARIANCE> 13
 1.404853e+01 3.496003e+00 6.789422e+00 7.690236e+00 1.118448e+01 1.168306e+01 1.162666e+01 1.275706e+01 1.268265e+01 1.047449e+01 1.042899e+01 9.602919e+00 2.878706e+01
<GCONST> 5.446967e+01
<TRANSP> 5
 0.000000e+00 1.000000e+00 0.000000e+00 0.000000e+00 0.000000e+00
 0.000000e+00 7.713131e-01 2.286870e-01 0.000000e+00 0.000000e+00
 0.000000e+00 0.000000e+00 9.087209e-01 9.127916e-02 0.000000e+00
 0.000000e+00 0.000000e+00 0.000000e+00 9.417698e-01 5.823018e-02
 0.000000e+00 0.000000e+00 0.000000e+00 0.000000e+00 0.000000e+00
<ENDHMM>
~h "sp"
<BEGINHMM>
<NUMSTATES> 5
<STATE> 2
<MEAN> 13
 -1.022902e+01 8.431070e-01 -1.790837e+00 4.672478e+00 2.453523e+00 2.808073e-02 1.416173e+00 1.589946e+00 3.468864e+00 -3.070366e-01 2.116503e-01 -2.062634e+00 5.041284e+01
<VARIANCE> 13
 4.102694e+01 2.674199e+01 2.168167e+01 2.166283e+01 2.362998e+01 2.917407e+01 2.001813e+01 1.839316e+01 2.041830e+01 1.366006e+01 1.448407e+01 1.409034e+01 1.286228e+02
<GCONST> 6.529568e+01
<STATE> 3
<MEAN> 13
 -8.715033e+00 2.248249e+00 -9.133193e-01 9.794115e-01 2.284300e+00 1.189046e+00 2.763185e+00 6.465948e-01 2.690804e+00 -1.110849e+00 1.055728e+00 -1.143961e+00 5.133373e+01
<VARIANCE> 13
 1.472645e+01 4.318082e+00 7.161588e+00 8.486057e+00 9.786016e+00 1.021930e+01 1.066699e+01 8.980141e+00 8.368013e+00 7.674458e+00 7.529054e+00 6.971873e+00 3.832640e+01
<GCONST> 5.308852e+01
<STATE> 4
<MEAN> 13
 -2.521267e+01 3.236709e+00 -9.285968e+00 4.886907e+00 -6.665698e+00 5.709208e+00 -2.730559e+00 1.950148e+00 1.621543e+00 -6.200170e-01 1.510099e+00 -4.972374e-01 2.313740e+01
<VARIANCE> 13
 1.404853e+01 3.496003e+00 6.789422e+00 7.690236e+00 1.118448e+01 1.168306e+01 1.162666e+01 1.275706e+01 1.268265e+01 1.047449e+01 1.042899e+01 9.602919e+00 2.878706e+01
<GCONST> 5.446967e+01
<TRANSP> 5
 0.000000e+00 1.000000e+00 0.000000e+00 0.000000e+00 0.000000e+00
 0.000000e+00 7.713131e-01 2.286870e-01 0.000000e+00 0.000000e+00
 0.000000e+00 0.000000e+00 9.087209e-01 9.127916e-02 0.000000e+00
 0.000000e+00 0.000000e+00 0.000000e+00 9.417698e-01 5.823018e-02
 0.000000e+00 0.000000e+00 0.000000e+00 0.000000e+00 0.000000e+00
<ENDHMM>
