~o
<STREAMINFO> 1 13
<VECSIZE> 13<NULLD><MFCC_0><DIAGC>
~t "T_b"
<TRANSP> 5
 0.000000e+00 1.000000e+00 0.000000e+00 0.000000e+00 0.000000e+00
 0.000000e+00 7.973334e-01 2.026666e-01 0.000000e+00 0.000000e+00
 0.000000e+00 0.000000e+00 7.394314e-01 2.605686e-01 0.000000e+00
 0.000000e+00 0.000000e+00 0.000000e+00 8.575252e-01 1.424748e-01
 0.000000e+00 0.000000e+00 0.000000e+00 0.000000e+00 0.000000e+00
~t "T_d"
<TRANSP> 5
 0.000000e+00 1.000000e+00 0.000000e+00 0.000000e+00 0.000000e+00
 0.000000e+00 4.240479e-01 5.759521e-01 0.000000e+00 0.000000e+00
 0.000000e+00 0.000000e+00 1.933941e-02 9.806606e-01 0.000000e+00
 0.000000e+00 0.000000e+00 0.000000e+00 7.057205e-01 2.942795e-01
 0.000000e+00 0.000000e+00 0.000000e+00 0.000000e+00 0.000000e+00
~t "T_g"
<TRANSP> 5
 0.000000e+00 1.000000e+00 0.000000e+00 0.000000e+00 0.000000e+00
 0.000000e+00 6.373525e-01 3.626475e-01 0.000000e+00 0.000000e+00
 0.000000e+00 0.000000e+00 5.459480e-01 4.540521e-01 0.000000e+00
 0.000000e+00 0.000000e+00 0.000000e+00 7.811024e-01 2.188976e-01
 0.000000e+00 0.000000e+00 0.000000e+00 0.000000e+00 0.000000e+00
~t "T_j"
<TRANSP> 5
 0.000000e+00 1.000000e+00 0.000000e+00 0.000000e+00 0.000000e+00
 0.000000e+00 8.404602e-01 1.595398e-01 0.000000e+00 0.000000e+00
 0.000000e+00 0.000000e+00 7.879899e-01 2.120101e-01 0.000000e+00
 0.000000e+00 0.000000e+00 0.000000e+00 7.829740e-01 2.170260e-01
 0.000000e+00 0.000000e+00 0.000000e+00 0.000000e+00 0.000000e+00
~t "T_k"
<TRANSP> 5
 0.000000e+00 1.000000e+00 0.000000e+00 0.000000e+00 0.000000e+00
 0.000000e+00 4.519616e-01 5.480384e-01 0.000000e+00 0.000000e+00
 0.000000e+00 0.000000e+00 9.596366e-02 9.040363e-01 0.000000e+00
 0.000000e+00 0.000000e+00 0.000000e+00 5.938069e-01 4.061930e-01
 0.000000e+00 0.000000e+00 0.000000e+00 0.000000e+00 0.000000e+00
~t "T_l"
<TRANSP> 5
 0.000000e+00 1.000000e+00 0.000000e+00 0.000000e+00 0.000000e+00
 0.000000e+00 8.772567e-01 1.227433e-01 0.000000e+00 0.000000e+00
 0.000000e+00 0.000000e+00 6.932236e-01 3.067764e-01 0.000000e+00
 0.000000e+00 0.000000e+00 0.000000e+00 9.862059e-02 9.013794e-01
 0.000000e+00 0.000000e+00 0.000000e+00 0.000000e+00 0.000000e+00
~t "T_m"
<TRANSP> 5
 0.000000e+00 1.000000e+00 0.000000e+00 0.000000e+00 0.000000e+00
 0.000000e+00 7.251995e-01 2.748006e-01 0.000000e+00 0.000000e+00
 0.000000e+00 0.000000e+00 6.510087e-01 3.489913e-01 0.000000e+00
 0.000000e+00 0.000000e+00 0.000000e+00 7.707747e-01 2.292253e-01
 0.000000e+00 0.000000e+00 0.000000e+00 0.000000e+00 0.000000e+00
~t "T_n"
<TRANSP> 5
 0.000000e+00 1.000000e+00 0.000000e+00 0.000000e+00 0.000000e+00
 0.000000e+00 7.221441e-01 2.778560e-01 0.000000e+00 0.000000e+00
 0.000000e+00 0.000000e+00 7.567551e-01 2.432450e-01 0.000000e+00
 0.000000e+00 0.000000e+00 0.000000e+00 7.394676e-01 2.605324e-01
 0.000000e+00 0.000000e+00 0.000000e+00 0.000000e+00 0.000000e+00
~t "T_p"
<TRANSP> 5
 0.000000e+00 1.000000e+00 0.000000e+00 0.000000e+00 0.000000e+00
 0.000000e+00 7.547319e-01 2.452681e-01 0.000000e+00 0.000000e+00
 0.000000e+00 0.000000e+00 6.462449e-01 3.537551e-01 0.000000e+00
 0.000000e+00 0.000000e+00 0.000000e+00 2.803613e-01 7.196387e-01
 0.000000e+00 0.000000e+00 0.000000e+00 0.000000e+00 0.000000e+00
~t "T_r"
<TRANSP> 5
 0.000000e+00 1.000000e+00 0.000000e+00 0.000000e+00 0.000000e+00
 0.000000e+00 6.132060e-01 3.867940e-01 0.000000e+00 0.000000e+00
 0.000000e+00 0.000000e+00 5.290035e-01 4.709965e-01 0.000000e+00
 0.000000e+00 0.000000e+00 0.000000e+00 5.480208e-01 4.519792e-01
 0.000000e+00 0.000000e+00 0.000000e+00 0.000000e+00 0.000000e+00
~t "T_s"
<TRANSP> 5
 0.000000e+00 1.000000e+00 0.000000e+00 0.000000e+00 0.000000e+00
 0.000000e+00 6.104892e-01 3.895107e-01 0.000000e+00 0.000000e+00
 0.000000e+00 0.000000e+00 6.499441e-01 3.500560e-01 0.000000e+00
 0.000000e+00 0.000000e+00 0.000000e+00 7.333848e-01 2.666152e-01
 0.000000e+00 0.000000e+00 0.000000e+00 0.000000e+00 0.000000e+00
~t "T_t"
<TRANSP> 5
 0.000000e+00 1.000000e+00 0.000000e+00 0.000000e+00 0.000000e+00
 0.000000e+00 6.677873e-01 3.322127e-01 0.000000e+00 0.000000e+00
 0.000000e+00 0.000000e+00 7.658945e-01 2.341055e-01 0.000000e+00
 0.000000e+00 0.000000e+00 0.000000e+00 7.524723e-01 2.475278e-01
 0.000000e+00 0.000000e+00 0.000000e+00 0.000000e+00 0.000000e+00
~t "T_w"
<TRANSP> 5
 0.000000e+00 1.000000e+00 0.000000e+00 0.000000e+00 0.000000e+00
 0.000000e+00 8.206500e-01 1.793500e-01 0.000000e+00 0.000000e+00
 0.000000e+00 0.000000e+00 8.074666e-01 1.925334e-01 0.000000e+00
 0.000000e+00 0.000000e+00 0.000000e+00 7.402847e-01 2.597153e-01
 0.000000e+00 0.000000e+00 0.000000e+00 0.000000e+00 0.000000e+00
~t "T_ah"
<TRANSP> 5
 0.000000e+00 1.000000e+00 0.000000e+00 0.000000e+00 0.000000e+00
 0.000000e+00 7.074328e-01 2.925672e-01 0.000000e+00 0.000000e+00
 0.000000e+00 0.000000e+00 7.988755e-01 2.011245e-01 0.000000e+00
 0.000000e+00 0.000000e+00 0.000000e+00 6.397135e-01 3.602864e-01
 0.000000e+00 0.000000e+00 0.000000e+00 0.000000e+00 0.000000e+00
~t "T_ax"
<TRANSP> 5
 0.000000e+00 1.000000e+00 0.000000e+00 0.000000e+00 0.000000e+00
 0.000000e+00 4.368286e-01 5.631714e-01 0.000000e+00 0.000000e+00
 0.000000e+00 0.000000e+00 6.571468e-01 3.428532e-01 0.000000e+00
 0.000000e+00 0.000000e+00 0.000000e+00 1.042652e-01 8.957348e-01
 0.000000e+00 0.000000e+00 0.000000e+00 0.000000e+00 0.000000e+00
~t "T_ay"
<TRANSP> 5
 0.000000e+00 1.000000e+00 0.000000e+00 0.000000e+00 0.000000e+00
 0.000000e+00 7.372634e-01 2.627365e-01 0.000000e+00 0.000000e+00
 0.000000e+00 0.000000e+00 7.931605e-01 2.068395e-01 0.000000e+00
 0.000000e+00 0.000000e+00 0.000000e+00 9.171681e-01 8.283190e-02
 0.000000e+00 0.000000e+00 0.000000e+00 0.000000e+00 0.000000e+00
~t "T_eh"
<TRANSP> 5
 0.000000e+00 1.000000e+00 0.000000e+00 0.000000e+00 0.000000e+00
 0.000000e+00 8.147665e-01 1.852335e-01 0.000000e+00 0.000000e+00
 0.000000e+00 0.000000e+00 8.822908e-01 1.177092e-01 0.000000e+00
 0.000000e+00 0.000000e+00 0.000000e+00 7.477730e-01 2.522270e-01
 0.000000e+00 0.000000e+00 0.000000e+00 0.000000e+00 0.000000e+00
~t "T_hh"
<TRANSP> 5
 0.000000e+00 1.000000e+00 0.000000e+00 0.000000e+00 0.000000e+00
 0.000000e+00 7.212020e-01 2.787980e-01 0.000000e+00 0.000000e+00
 0.000000e+00 0.000000e+00 9.056963e-01 9.430379e-02 0.000000e+00
 0.000000e+00 0.000000e+00 0.000000e+00 8.824817e-01 1.175183e-01
 0.000000e+00 0.000000e+00 0.000000e+00 0.000000e+00 0.000000e+00
~t "T_ih"
<TRANSP> 5
 0.000000e+00 1.000000e+00 0.000000e+00 0.000000e+00 0.000000e+00
 0.000000e+00 7.421830e-01 2.578170e-01 0.000000e+00 0.000000e+00
 0.000000e+00 0.000000e+00 7.997807e-01 2.002193e-01 0.000000e+00
 0.000000e+00 0.000000e+00 0.000000e+00 2.547564e-01 7.452437e-01
 0.000000e+00 0.000000e+00 0.000000e+00 0.000000e+00 0.000000e+00
~t "T_iy"
<TRANSP> 5
 0.000000e+00 1.000000e+00 0.000000e+00 0.000000e+00 0.000000e+00
 0.000000e+00 8.111098e-01 1.888903e-01 0.000000e+00 0.000000e+00
 0.000000e+00 0.000000e+00 8.818798e-01 1.181202e-01 0.000000e+00
 0.000000e+00 0.000000e+00 0.000000e+00 6.294743e-01 3.705257e-01
 0.000000e+00 0.000000e+00 0.000000e+00 0.000000e+00 0.000000e+00
~t "T_ng"
<TRANSP> 5
 0.000000e+00 1.000000e+00 0.000000e+00 0.000000e+00 0.000000e+00
 0.000000e+00 8.060398e-01 1.939602e-01 0.000000e+00 0.000000e+00
 0.000000e+00 0.000000e+00 7.630203e-01 2.369796e-01 0.000000e+00
 0.000000e+00 0.000000e+00 0.000000e+00 9.141729e-01 8.582712e-02
 0.000000e+00 0.000000e+00 0.000000e+00 0.000000e+00 0.000000e+00
~t "T_oh"
<TRANSP> 5
 0.000000e+00 1.000000e+00 0.000000e+00 0.000000e+00 0.000000e+00
 0.000000e+00 8.864881e-01 1.135119e-01 0.000000e+00 0.000000e+00
 0.000000e+00 0.000000e+00 8.660778e-01 1.339222e-01 0.000000e+00
 0.000000e+00 0.000000e+00 0.000000e+00 8.922735e-01 1.077265e-01
 0.000000e+00 0.000000e+00 0.000000e+00 0.000000e+00 0.000000e+00
~t "T_uh"
<TRANSP> 5
 0.000000e+00 1.000000e+00 0.000000e+00 0.000000e+00 0.000000e+00
 0.000000e+00 3.585682e-01 6.414318e-01 0.000000e+00 0.000000e+00
 0.000000e+00 0.000000e+00 3.788528e-01 6.211472e-01 0.000000e+00
 0.000000e+00 0.000000e+00 0.000000e+00 4.957455e-01 5.042545e-01
 0.000000e+00 0.000000e+00 0.000000e+00 0.000000e+00 0.000000e+00
~t "T_uw"
<TRANSP> 5
 0.000000e+00 1.000000e+00 0.000000e+00 0.000000e+00 0.000000e+00
 0.000000e+00 6.348606e-01 3.651394e-01 0.000000e+00 0.000000e+00
 0.000000e+00 0.000000e+00 7.676835e-01 2.323165e-01 0.000000e+00
 0.000000e+00 0.000000e+00 0.000000e+00 6.280887e-01 3.719113e-01
 0.000000e+00 0.000000e+00 0.000000e+00 0.000000e+00 0.000000e+00
~s "ST_s_2_1"
<MEAN> 13
 -1.529654e+01 -4.257039e-01 -1.478634e+00 -4.628865e+00 6.731445e+00 -3.814792e+00 -2.136987e+00 -7.672128e+00 2.181050e-01 -4.091159e+00 2.346737e+00 -3.131150e+00 5.763476e+01
<VARIANCE> 13
 4.199391e+01 3.474982e+01 7.075537e+01 6.967574e+01 6.158760e+01 6.546919e+01 9.014092e+01 5.891030e+01 6.151482e+01 4.877472e+01 4.598818e+01 4.020122e+01 8.457511e+01
<GCONST> 7.652702e+01
~s "ST_s_2_2"
<MEAN> 13
 -1.113773e+01 -8.793086e-01 -6.287272e+00 -8.667352e+00 6.478131e+00 -8.088120e+00 -9.455760e-01 -9.315419e+00 6.727641e+00 2.169111e+00 9.146685e-01 -6.970083e+00 6.681397e+01
<VARIANCE> 13
 2.366956e+01 1.641375e+01 2.033523e+01 4.971040e+01 4.109417e+01 4.456707e+01 2.149576e+01 5.225107e+01 5.828425e+01 4.285677e+01 3.406881e+01 3.104749e+01 4.417212e+00
<GCONST> 6.758266e+01
~s "ST_s_3_1"
<MEAN> 13
 -1.630684e+01 3.649806e+00 -5.959320e+00 7.023524e+00 5.165095e+00 -7.820592e+00 5.401165e+00 -5.066559e-01 5.525947e+00 -6.334592e-01 1.464887e+00 -2.318821e+00 6.141492e+01
<VARIANCE> 13
 2.502295e+01 4.075004e+01 3.271074e+01 8.452385e+01 4.412504e+01 4.137932e+01 4.981883e+01 4.043799e+01 3.269325e+01 2.955886e+01 2.362082e+01 2.522640e+01 3.942378e+01
<GCONST> 7.080030e+01
~s "ST_s_4_1"
<MEAN> 13
 -2.395688e+01 5.010873e-02 -2.191805e+00 -3.340112e+00 1.568419e+01 -1.596279e+01 7.350767e+00 -1.958452e+00 6.398145e+00 -7.371882e+00 3.387695e-01 6.391412e-01 5.501937e+01
<VARIANCE> 13
 9.553867e+01 7.333490e+01 5.166927e+01 4.091845e+01 9.235870e+01 8.277238e+01 1.124037e+02 5.365508e+01 6.761409e+01 5.340847e+01 3.642336e+01 6.021478e+01 6.574894e+01
<GCONST> 7.812061e+01
~s "ST_oh_2_1"
<MEAN> 13
 3.339505e+00 -2.304151e+01 -1.189649e+01 -1.444844e+01 -7.073895e+00 1.478607e+01 -3.668900e+00 -1.262666e+01 8.505919e+00 -1.018341e+00 3.810451e+00 -5.690519e+00 7.175002e+01
<VARIANCE> 13
 7.766389e+00 5.852280e+01 1.495102e+01 3.982129e+01 3.562845e+01 7.907488e+01 5.317879e+01 4.859462e+01 9.006715e+01 3.990111e+01 3.824760e+01 4.501628e+01 1.415653e+01
<GCONST> 7.048976e+01
~s "ST_oh_3_1"
<MEAN> 13
 4.845561e+00 -1.455449e+01 -1.374851e+01 -8.018848e+00 -9.021121e+00 -8.405346e-01 -6.466403e+00 -1.039149e+00 -1.530400e+00 6.564605e+00 -5.483303e+00 -1.576810e+01 7.286657e+01
<VARIANCE> 13
 2.729758e+00 2.657940e+01 1.165128e+01 6.652937e+01 4.971479e+01 3.163852e+01 3.387643e+01 2.857955e+01 3.014551e+01 2.762885e+01 3.023219e+01 5.275721e+01 1.870867e+01
<GCONST> 6.609440e+01
~s "ST_oh_4_1"
<MEAN> 13
 8.103847e+00 -6.300729e+00 -6.554872e+00 9.677541e+00 -2.347567e+01 1.747735e+00 -6.826842e+00 9.309708e-02 4.544801e+00 -1.074001e+01 -4.971373e+00 3.221001e+00 6.818075e+01
<VARIANCE> 13
 1.507899e+01 1.941594e+01 3.852267e+01 5.900034e+01 1.058752e+02 1.322672e+02 2.697139e+01 3.143601e+01 2.688338e+01 7.739349e+01 1.901624e+01 2.735072e+01 1.303022e+01
<GCONST> 7.005212e+01
~s "ST_uh_2_1"
<MEAN> 13
 2.514563e+00 5.291960e+00 -2.578001e+00 -1.699616e+01 -7.408951e-01 3.857446e+00 -6.956714e+00 -5.891670e+00 -6.618506e+00 -1.970130e+00 -4.568797e+00 -1.181743e+00 5.782775e+01
<VARIANCE> 13
 5.261022e+01 6.745004e+01 2.268146e+01 1.649896e+02 3.845580e+01 3.600311e+01 2.816715e+01 5.559871e+01 3.344926e+01 3.639562e+01 6.868911e+01 4.329289e+01 8.838934e+01
<GCONST> 7.446737e+01
~s "ST_uh_2_2"
<MEAN> 13
 -1.233373e+01 6.412897e+00 -5.706886e+00 2.378473e+00 -6.082427e+00 1.029957e+00 -4.586119e+00 -2.104818e+00 -1.572494e+00 -3.509131e+00 -1.169186e+00 -1.991842e+00 3.853757e+01
<VARIANCE> 13
 9.807418e+01 5.761694e+01 3.956298e+01 5.317025e+01 2.160252e+01 2.826799e+01 2.556619e+01 2.353807e+01 2.015000e+01 2.363500e+01 1.669024e+01 1.615943e+01 1.516779e+02
<GCONST> 6.978278e+01
~s "ST_uh_3_1"
<MEAN> 13
 2.136261e-01 2.738054e+00 -5.185757e+00 -9.539999e+00 -7.976196e+00 3.797028e-01 -6.917136e+00 -7.440461e+00 -7.705818e+00 -2.398147e+00 2.545947e-01 -3.267063e+00 5.635532e+01
<VARIANCE> 13
 1.039768e+02 4.505098e+01 1.906314e+01 8.304690e+01 3.082222e+01 3.465799e+01 2.892746e+01 3.950731e+01 4.374989e+01 2.989116e+01 3.448254e+01 2.031352e+01 1.843926e+02
<GCONST> 7.267142e+01
~s "ST_uh_4_1"
<MEAN> 13
 -3.462412e+00 5.494385e+00 -4.382459e+00 -4.302254e+00 -7.318646e+00 8.178324e-01 -1.309115e+01 -1.021275e+01 -8.314270e+00 -2.907143e+00 4.997939e-01 -3.761930e+00 4.910382e+01
<VARIANCE> 13
 8.591462e+01 9.936984e+01 3.108595e+01 6.861919e+01 2.821277e+01 3.390356e+01 6.776230e+01 4.777971e+01 5.110076e+01 6.042051e+01 5.101380e+01 3.643893e+01 2.678405e+02
<GCONST> 7.670909e+01
~s "ST_l_2_1"
<MEAN> 13
 1.718917e+00 -2.479828e+01 -1.095780e+01 -1.154840e+01 -3.107437e+00 1.639571e+01 -6.781201e+00 -1.576961e+01 1.590473e+01 -2.111614e+00 2.276057e-01 -4.123264e+00 7.196076e+01
<VARIANCE> 13
 5.300939e+00 4.429328e+01 1.457852e+01 2.562163e+01 3.467513e+01 7.563194e+01 2.688726e+01 3.431263e+01 6.628043e+01 4.344085e+01 4.757477e+01 3.293574e+01 1.184627e+01
<GCONST> 6.776735e+01
~s "ST_l_3_1"
<MEAN> 13
 6.033038e+00 -1.677065e+01 -9.971049e+00 -1.594020e+01 -4.146131e-02 8.161904e+00 -5.984313e+00 -9.241446e+00 -3.036657e+00 5.274772e+00 1.926550e+00 -1.392617e+01 7.249068e+01
<VARIANCE> 13
 6.432401e+00 2.783514e+01 1.687114e+01 2.358055e+01 5.371143e+01 5.384213e+01 2.725053e+01 2.685329e+01 5.376414e+01 3.267962e+01 8.127127e+01 6.235768e+01 1.126777e+01
<GCONST> 6.805521e+01
~s "ST_l_4_1"
<MEAN> 13
 5.075450e+00 -1.201368e+01 -8.869049e+00 -1.598960e+01 3.258291e+00 5.685270e+00 -7.369336e+00 -6.926181e+00 2.765820e+00 3.676023e+00 -8.358958e+00 -5.675292e+00 6.833176e+01
<VARIANCE> 13
 5.924869e+00 7.597618e+01 2.658388e+01 3.548950e+01 1.126334e+02 8.950920e+01 3.500296e+01 3.541853e+01 1.075267e+02 4.373067e+01 1.109065e+02 7.190877e+01 2.186578e+01
<GCONST> 7.371747e+01
~s "ST_b_2_1"
<MEAN> 13
 7.577895e+00 5.207267e+00 -9.320852e+00 -2.978204e+00 -5.105385e+00 1.754004e+00 -8.450609e+00 -5.234241e+00 -6.475478e+00 -2.511437e+00 -5.703864e+00 -4.098591e+00 5.224114e+01
<VARIANCE> 13
 3.342438e+01 1.709666e+02 2.678816e+01 5.276387e+01 5.298498e+01 5.117078e+01 3.314492e+01 2.537625e+01 2.755273e+01 5.090785e+01 2.539735e+01 2.216677e+01 5.426468e+01
<GCONST> 7.201006e+01
~s "ST_b_3_1"
<MEAN> 13
 -1.937696e+00 -4.115547e-01 -6.510370e+00 -1.622684e+00 2.489049e+00 8.874948e-01 -2.527842e-02 -4.542724e-01 2.571936e+00 1.684219e+00 -1.917079e+00 -5.515775e+00 5.412799e+01
<VARIANCE> 13
 1.868671e+01 4.392698e+01 1.850608e+01 1.409906e+01 1.686338e+01 1.791597e+01 3.071215e+01 1.952716e+01 3.204806e+01 2.718690e+01 2.497341e+01 2.374358e+01 2.181586e+01
<GCONST> 6.451199e+01
~s "ST_b_4_1"
<MEAN> 13
 -1.053420e+01 2.808976e+00 -1.161567e+01 6.122749e+00 -3.916490e+00 1.658703e+00 -1.052227e+01 -5.628733e+00 -6.232764e+00 -7.281207e+00 -6.012502e+00 -7.476636e+00 3.763607e+01
<VARIANCE> 13
 2.843299e+01 3.208242e+01 3.263989e+01 2.115997e+01 4.765253e+01 3.767948e+01 2.980087e+01 3.439156e+01 2.635788e+01 3.853886e+01 2.422287e+01 2.220854e+01 6.076167e+01
<GCONST> 6.898948e+01
~s "ST_r_2_1"
<MEAN> 13
 9.312401e+00 -7.263783e+00 -2.258368e+01 -2.613507e+00 -1.769813e+01 -3.891092e+00 -4.281718e+00 5.189069e+00 4.991224e+00 -8.058020e+00 -3.429173e+00 1.573430e+00 6.874274e+01
<VARIANCE> 13
 1.424456e+01 2.864223e+01 8.771134e+01 3.339966e+01 1.120332e+02 6.051712e+01 2.602685e+01 6.351529e+01 4.361720e+01 7.877829e+01 1.655181e+01 3.785266e+01 2.186075e+01
<GCONST> 7.178536e+01
~s "ST_r_2_2"
<MEAN> 13
 3.885093e+00 -1.384784e+01 -7.185991e+00 -1.979286e+00 -4.485271e+00 -6.198594e+00 -5.908765e+00 -2.430107e+00 3.779257e+00 5.130121e+00 -7.939035e+00 -1.018431e+01 6.757563e+01
<VARIANCE> 13
 7.262439e+00 1.994408e+01 4.253369e+01 3.019544e+01 7.350240e+01 4.499070e+01 2.898769e+01 5.541611e+01 4.016809e+01 5.715921e+01 2.955753e+01 6.769644e+01 1.905238e+01
<GCONST> 6.979903e+01
~s "ST_r_3_1"
<MEAN> 13
 -2.217509e-01 -9.731741e+00 -7.287066e+00 1.702238e+00 -3.031784e+00 -6.332898e-01 -3.139970e+00 -3.483343e+00 1.085017e+00 2.499254e+00 -5.044568e+00 -6.863029e+00 5.778704e+01
<VARIANCE> 13
 1.120486e+01 2.900278e+01 3.304208e+01 2.308047e+01 5.195197e+01 4.591230e+01 2.805204e+01 4.298087e+01 4.417892e+01 3.968736e+01 3.001557e+01 2.581685e+01 3.255951e+01
<GCONST> 6.878988e+01
~s "ST_r_3_2"
<MEAN> 13
 3.498743e+00 -1.372708e+01 -2.481732e+00 -4.797554e+00 -6.586768e+00 -6.889670e+00 -6.701694e+00 -2.993016e+00 2.678198e+00 2.173590e+00 -5.021382e+00 -4.268169e+00 6.732112e+01
<VARIANCE> 13
 1.175748e+01 4.389311e+01 6.381388e+01 4.658329e+01 7.844432e+01 6.479285e+01 5.540588e+01 6.832156e+01 7.488216e+01 5.048303e+01 3.153177e+01 7.008971e+01 2.240833e+01
<GCONST> 7.395612e+01
~s "ST_r_4_1"
<MEAN> 13
 -2.096456e+00 -4.633669e+00 -2.248793e+00 1.455155e+01 3.124061e+00 -1.399597e+00 -1.651925e+00 7.499992e+00 8.274065e-01 -4.613213e+00 -3.541710e+00 -1.523140e+00 5.031187e+01
<VARIANCE> 13
 3.368417e+01 1.189141e+02 5.286903e+01 1.764530e+02 5.540620e+01 6.882588e+01 6.470888e+01 1.043940e+02 5.057224e+01 5.924450e+01 4.414773e+01 4.295524e+01 1.097690e+02
<GCONST> 7.864420e+01
~s "ST_r_4_2"
<MEAN> 13
 3.451736e+00 -1.450736e+01 6.011721e-01 -4.501483e+00 -9.227179e+00 -8.552663e+00 -6.676027e+00 -2.295739e+00 2.481380e-01 1.030589e+00 -2.896409e+00 -3.267903e+00 6.858282e+01
<VARIANCE> 13
 8.594144e+00 4.757340e+01 8.940000e+01 5.042695e+01 9.232914e+01 8.991570e+01 5.152271e+01 5.923100e+01 8.539172e+01 6.483826e+01 4.280813e+01 7.500468e+01 2.122757e+01
<GCONST> 7.511583e+01
~s "ST_hh_2_1"
<MEAN> 13
 2.317213e+00 -7.916891e+00 1.758269e+00 -3.564534e+00 1.318662e+00 -1.611018e+01 -6.264320e+00 7.488459e+00 2.829643e+00 2.769774e-01 -1.377508e+01 2.095819e+00 6.410681e+01
<VARIANCE> 13
 6.621828e+00 8.597633e+01 2.624110e+01 1.761667e+02 8.633766e+01 9.755800e+01 9.559237e+01 9.043311e+01 4.735559e+01 3.775576e+01 2.750492e+01 8.232224e+01 8.340884e+01
<GCONST> 7.641661e+01
~s "ST_hh_3_1"
<MEAN> 13
 7.325392e-01 -1.581383e+01 -1.208113e+01 -4.260515e+00 -4.905451e-01 -2.877170e+00 -7.377186e+00 4.015441e+00 -1.526535e+00 -2.253943e+00 -1.556319e+01 -9.483893e+00 7.589996e+01
<VARIANCE> 13
 6.129753e+00 1.779331e+01 2.409627e+01 4.790205e+01 3.444712e+01 2.240137e+01 2.550430e+01 4.781908e+01 1.565943e+01 1.910690e+01 1.600430e+01 2.328009e+01 9.941378e+00
<GCONST> 6.330870e+01
~s "ST_k_2_1"
<MEAN> 13
 -7.208053e+00 3.482933e-02 -4.659571e+00 -6.479462e-01 2.131330e-01 1.037142e-01 -3.600989e+00 -3.639689e+00 -1.791454e-01 -8.013819e-01 3.193694e-01 -1.718798e+00 5.116279e+01
<VARIANCE> 13
 5.293563e+01 5.784988e+01 4.321039e+01 4.497052e+01 4.045794e+01 4.102103e+01 4.541525e+01 5.356054e+01 3.167995e+01 2.991057e+01 2.660565e+01 2.370210e+01 1.252049e+02
<GCONST> 7.283296e+01
~s "ST_hh_4_1"
<MEAN> 13
 6.900761e-01 -1.400455e+01 -1.388953e+00 -9.096673e+00 1.565556e+01 -6.989066e+00 9.688242e+00 -1.506250e+00 6.416493e+00 4.218892e+00 -2.122051e+01 1.429626e+00 6.798958e+01
<VARIANCE> 13
 8.691192e+00 8.494052e+00 1.679605e+01 7.288225e+01 5.788293e+01 5.302354e+01 5.835169e+01 3.285132e+01 3.460995e+01 2.841585e+01 3.410730e+01 2.297035e+01 1.765036e+01
<GCONST> 6.731727e+01
~s "ST_k_3_1"
<MEAN> 13
 -6.513613e+00 -3.888974e+00 -9.721228e+00 2.107585e-01 3.161615e+00 -2.045076e-01 -7.153346e+00 -3.707318e+00 -1.658965e-01 2.794803e+00 3.509929e-01 -3.906195e+00 5.252720e+01
<VARIANCE> 13
 6.190270e+01 1.037486e+02 6.975014e+01 7.218376e+01 7.388514e+01 7.455404e+01 4.907887e+01 7.417966e+01 5.235814e+01 5.004176e+01 3.547029e+01 3.188341e+01 1.700711e+02
<GCONST> 7.803600e+01
~s "ST_k_4_1"
<MEAN> 13
 -1.191616e+01 7.169203e+00 -5.126730e+00 3.817334e+00 1.483907e+00 8.463949e+00 -3.645664e+00 -2.647080e+00 -1.096334e+00 -6.341742e-01 2.824302e+00 1.538188e-01 3.813495e+01
<VARIANCE> 13
 8.452070e+01 7.114002e+01 1.074345e+02 1.312068e+02 7.304675e+01 9.229358e+01 5.304788e+01 1.290959e+02 7.956731e+01 8.297972e+01 3.102519e+01 3.283240e+01 1.946360e+02
<GCONST> 8.078807e+01
~s "ST_k_4_2"
<MEAN> 13
 -8.006451e+00 -1.017272e+01 -1.440251e+01 1.878227e-01 1.133540e+01 -9.862573e+00 -2.031800e+00 -3.984820e-02 -1.314702e+00 7.336864e+00 -1.254093e+00 -7.669040e+00 5.527686e+01
<VARIANCE> 13
 5.913474e+01 8.097052e+01 1.370182e+02 1.221054e+02 1.706119e+02 2.381588e+02 8.770587e+01 8.329523e+01 1.003573e+02 8.356247e+01 8.594204e+01 6.035961e+01 1.203601e+02
<GCONST> 8.397882e+01
~s "ST_uw_2_1"
<MEAN> 13
 2.549837e+00 -1.242978e+00 -5.714516e+00 -1.495566e+01 -5.569502e+00 3.156472e+00 -1.231492e+01 -1.610098e+01 -5.933542e+00 -2.739053e+00 3.286901e+00 -3.527366e-02 6.153148e+01
<VARIANCE> 13
 4.854054e+01 4.429910e+01 1.410603e+01 1.217875e+02 8.892511e+01 3.502923e+01 4.759166e+01 5.984204e+01 8.186407e+01 3.494753e+01 6.081679e+01 8.170339e+01 9.796716e+01
<GCONST> 7.606750e+01
~s "ST_uw_2_2"
<MEAN> 13
 5.005567e+00 -7.709853e+00 -6.020230e+00 -1.587696e+01 -1.173252e+01 5.121961e+00 -1.759316e+01 -1.727998e+01 3.494878e+00 -3.160542e+00 8.282589e+00 7.990393e-01 7.068787e+01
<VARIANCE> 13
 1.389171e+01 1.915481e+01 1.135985e+01 3.155212e+01 3.887830e+01 1.818248e+01 2.363082e+01 1.937797e+01 9.725947e+01 2.563590e+01 2.901268e+01 2.117248e+01 1.403681e+01
<GCONST> 6.492905e+01
~s "ST_n_2_1"
<MEAN> 13
 -6.905727e-01 1.988373e+00 9.814019e-01 9.475025e-01 -5.539685e+00 -5.853088e+00 -7.050663e+00 -1.032425e+01 -3.287936e+00 -2.371253e+00 -4.442990e+00 -5.264512e+00 5.703495e+01
<VARIANCE> 13
 3.752857e+01 1.927513e+01 4.094200e+01 3.607537e+01 4.176950e+01 5.117466e+01 2.317311e+01 4.865651e+01 2.171077e+01 2.126084e+01 2.200575e+01 2.593468e+01 6.698663e+01
<GCONST> 6.915533e+01
~s "ST_n_2_2"
<MEAN> 13
 4.154725e+00 -5.862972e+00 -1.725644e+00 1.229348e+00 -3.865411e+00 -7.604136e+00 -5.959787e+00 -8.549002e+00 -1.912267e+00 2.508789e+00 -1.069563e+01 -9.631530e+00 6.260300e+01
<VARIANCE> 13
 8.105008e+00 2.115131e+01 1.229838e+01 1.475816e+01 5.109522e+01 7.165272e+01 1.948389e+01 4.806512e+01 3.848253e+01 3.491349e+01 3.054332e+01 3.022160e+01 1.188414e+01
<GCONST> 6.579150e+01
~s "ST_uw_3_1"
<MEAN> 13
 5.874976e+00 1.691966e+00 -5.930029e+00 -1.564264e+01 -1.234712e+01 -3.159636e-01 -1.206145e+01 -9.169088e+00 -9.365812e+00 -4.440596e+00 2.247013e+00 -4.470112e+00 6.429297e+01
<VARIANCE> 13
 2.684101e+01 2.297992e+01 1.511163e+01 4.331137e+01 4.279713e+01 2.343324e+01 4.053168e+01 3.221694e+01 3.770157e+01 2.485987e+01 3.110463e+01 5.550020e+01 5.198824e+01
<GCONST> 6.913375e+01
~s "ST_n_3_1"
<MEAN> 13
 4.496874e+00 4.674524e+00 -4.380593e-01 6.690845e+00 3.604729e+00 -7.004906e+00 -6.973798e+00 -3.339112e+00 -7.257343e-01 -3.980597e+00 -1.422424e+01 2.806261e+00 5.421693e+01
<VARIANCE> 13
 1.684361e+01 6.702192e+01 3.993517e+01 4.997232e+01 7.430097e+01 5.789450e+01 3.497898e+01 6.048906e+01 5.799651e+01 5.185909e+01 7.161449e+01 8.473004e+01 3.281491e+01
<GCONST> 7.475463e+01
~s "ST_n_3_2"
<MEAN> 13
 6.926987e+00 6.940141e+00 -1.738222e+00 -1.267289e+01 4.253229e+00 1.035045e+01 -1.894946e+01 -1.469214e+01 -3.566351e+00 5.077666e-01 -8.416233e+00 3.334356e+00 5.668416e+01
<VARIANCE> 13
 5.239845e+01 6.183098e+01 4.995330e+01 2.469154e+02 1.278596e+02 7.211449e+01 9.729346e+01 6.653818e+01 6.967409e+01 9.825626e+01 6.453049e+01 9.748557e+01 8.575468e+01
<GCONST> 8.133025e+01
~s "ST_uw_4_1"
<MEAN> 13
 4.774102e-01 6.431257e+00 -8.081633e+00 -8.269083e+00 -4.257745e+00 2.810613e+00 -7.068818e+00 -8.171602e+00 -6.817440e+00 -1.251250e+00 -4.052397e-01 2.213894e+00 4.997972e+01
<VARIANCE> 13
 5.827276e+01 6.740243e+01 3.636736e+01 1.559960e+02 7.290166e+01 7.240714e+01 3.432521e+01 3.735561e+01 5.264883e+01 6.470255e+01 7.143694e+01 5.612352e+01 1.120551e+02
<GCONST> 7.768831e+01
~s "ST_uw_4_2"
<MEAN> 13
 1.001997e+01 -3.561964e-01 -7.902308e+00 -2.500496e+01 -1.524030e+00 1.148231e+01 -1.072976e+01 -1.187520e+01 -7.204907e+00 8.399809e+00 -2.866885e+00 2.075058e-01 6.426546e+01
<VARIANCE> 13
 2.783644e+01 6.506265e+01 4.277830e+01 1.286245e+02 1.245522e+02 8.147964e+01 5.518627e+01 4.805741e+01 8.264648e+01 9.280772e+01 1.355802e+02 7.462782e+01 3.039478e+01
<GCONST> 7.869667e+01
~s "ST_n_4_1"
<MEAN> 13
 -7.793947e-01 1.514791e+01 3.478268e+00 1.166598e+01 2.643318e-01 7.591361e-01 -8.194825e+00 -3.141058e+00 -3.275541e+00 -5.514034e+00 -5.396913e+00 -2.221704e+00 4.316044e+01
<VARIANCE> 13
 4.982206e+01 1.421409e+02 3.376890e+01 9.647181e+01 4.326519e+01 5.615373e+01 4.548586e+01 5.669135e+01 5.110181e+01 3.531680e+01 3.814146e+01 4.674351e+01 1.171257e+02
<GCONST> 7.624433e+01
~s "ST_n_4_2"
<MEAN> 13
 -9.724679e+00 8.507457e+00 -6.770267e+00 7.166903e+00 -2.831758e+00 3.521272e+00 -1.163291e+01 -8.530360e+00 -4.998932e+00 -5.982425e+00 -5.098479e+00 -5.263951e+00 3.685299e+01
<VARIANCE> 13
 3.887320e+01 4.955534e+01 3.730953e+01 2.908812e+01 2.790262e+01 1.847795e+01 3.565786e+01 3.519179e+01 2.153151e+01 2.706782e+01 2.394518e+01 1.871397e+01 5.793182e+01
<GCONST> 6.835762e+01
~s "ST_d_2_1"
<MEAN> 13
 -4.883143e-02 6.645794e+00 9.950567e-01 7.520325e+00 2.428673e+00 -1.177917e+00 -1.030859e+01 -8.993906e+00 -1.653837e+00 -2.739730e+00 -4.287314e+00 -5.978964e+00 5.174833e+01
<VARIANCE> 13
 3.749078e+01 1.498844e+02 3.115594e+01 8.684150e+01 6.912937e+01 5.551168e+01 1.171228e+02 6.027335e+01 5.145599e+01 3.253349e+01 3.401345e+01 3.964918e+01 1.020632e+02
<GCONST> 7.679956e+01
~s "ST_d_2_2"
<MEAN> 13
 4.420809e+00 -1.559701e+01 -8.183785e+00 -1.011632e+01 1.012251e+00 -3.529921e-01 -3.185210e+00 -7.368361e+00 2.723269e+00 5.615925e+00 -1.293925e+01 -7.168842e+00 7.015548e+01
<VARIANCE> 13
 8.617009e+00 4.831931e+01 3.073252e+01 6.825491e+01 8.716535e+01 4.104311e+01 5.272705e+01 9.036793e+01 5.960094e+01 4.402671e+01 4.056253e+01 4.237148e+01 3.897257e+01
<GCONST> 7.320863e+01
~s "ST_d_3_1"
<MEAN> 13
 3.784886e+00 -1.381361e+01 -4.982027e+00 -6.473415e+00 -1.359777e+00 -2.454464e+00 -8.695780e+00 -7.105672e+00 2.915331e+00 3.140360e+00 -9.590805e+00 -6.023194e+00 6.821033e+01
<VARIANCE> 13
 1.611385e+01 6.661222e+01 4.327321e+01 9.283057e+01 1.194514e+02 8.520335e+01 1.358573e+02 1.407353e+02 7.792937e+01 6.799346e+01 7.905269e+01 5.347278e+01 4.864968e+01
<GCONST> 7.906487e+01
~s "ST_d_4_1"
<MEAN> 13
 5.473607e+00 -1.037229e+01 1.520486e-01 -1.019222e+00 -8.819503e+00 -5.186687e+00 -1.570211e+01 -1.203240e+01 2.882631e-01 -3.237959e-01 4.079606e-01 -2.785265e+00 6.620588e+01
<VARIANCE> 13
 2.733353e+01 4.658055e+01 3.911929e+01 3.925726e+01 8.015232e+01 8.150451e+01 1.053734e+02 1.445140e+02 1.025863e+02 5.847037e+01 5.735081e+01 3.279269e+01 2.031841e+01
<GCONST> 7.604407e+01
~s "ST_d_4_2"
<MEAN> 13
 6.876595e+00 -1.854607e+01 -4.062522e+00 -1.414863e+01 -1.388460e+00 -5.976453e-01 -1.926861e+00 -7.980035e+00 -6.327996e-01 1.028002e+01 -1.344413e+01 -6.408802e+00 7.279916e+01
<VARIANCE> 13
 7.591934e+00 1.154709e+01 1.782217e+01 2.495900e+01 9.967609e+01 3.090216e+01 4.848724e+01 6.459379e+01 5.155969e+01 3.875262e+01 2.629045e+01 2.540747e+01 6.894544e+00
<GCONST> 6.658070e+01
~s "ST_ay_2_1"
<MEAN> 13
 -1.176659e+01 1.200639e+00 -4.957840e+00 8.199516e+00 5.519078e+00 -6.696413e+00 6.572149e+00 1.155318e+00 5.539345e+00 -6.237299e-01 -7.934975e-01 -1.492724e+00 6.212662e+01
<VARIANCE> 13
 5.008496e+01 5.006886e+01 3.105500e+01 8.400469e+01 3.670413e+01 2.570155e+01 3.329198e+01 3.976676e+01 3.586219e+01 3.297172e+01 1.972287e+01 2.992457e+01 2.480167e+01
<GCONST> 7.029066e+01
~s "ST_ay_3_1"
<MEAN> 13
 3.422470e+00 -1.433116e+01 -1.223624e+01 -8.282014e+00 -1.059689e+00 -1.813940e+00 1.495957e+00 -3.715117e+00 -3.141443e+00 8.232868e+00 -9.522157e+00 -9.131247e+00 6.910788e+01
<VARIANCE> 13
 2.930068e+01 3.155954e+01 2.853988e+01 9.634701e+01 4.310920e+01 4.987817e+01 2.774908e+01 8.661645e+01 7.856590e+01 9.901284e+01 6.574607e+01 6.553011e+01 4.200958e+01
<GCONST> 7.516456e+01
~s "ST_ay_4_1"
<MEAN> 13
 1.279108e+00 -1.187388e+01 6.484915e+00 -1.129578e+01 -3.746090e+00 -1.635443e+01 2.958580e+00 2.417826e+00 -1.681429e+00 2.492758e+00 -8.153132e+00 1.788952e+00 7.133774e+01
<VARIANCE> 13
 4.548494e+00 2.450164e+01 5.745644e+01 9.225488e+01 1.533029e+02 2.703120e+01 7.155721e+01 3.684341e+01 6.565211e+01 4.305359e+01 7.021085e+01 2.750578e+01 7.103074e+00
<GCONST> 7.086134e+01
~s "ST_g_2_1"
<MEAN> 13
 -2.173073e+00 -1.465872e+00 1.180282e+01 -1.987010e+00 -1.263612e+01 -1.254197e+01 -3.684007e+00 -1.103997e+01 -1.410826e+01 -1.175370e-01 1.872234e+00 -7.800114e+00 6.008165e+01
<VARIANCE> 13
 1.324941e+01 4.961808e+01 5.755243e+01 5.090750e+01 5.689358e+01 7.247247e+01 4.727010e+01 3.514629e+01 1.122876e+02 2.739478e+01 9.952975e+01 4.010571e+01 7.073553e+01
<GCONST> 7.468555e+01
~s "ST_g_3_1"
<MEAN> 13
 -1.841281e+00 -5.646378e+00 7.584229e+00 -8.901842e-01 -1.190909e+01 -1.500920e+01 -4.779720e+00 -3.233358e+00 -6.047029e+00 -2.107475e+00 2.874035e+00 -5.769464e+00 6.454825e+01
<VARIANCE> 13
 1.260271e+01 7.541232e+01 4.634501e+01 7.199339e+01 9.077040e+01 9.112730e+01 5.983744e+01 4.169971e+01 3.262526e+01 2.529141e+01 1.102942e+02 6.139788e+01 1.062476e+02
<GCONST> 7.590655e+01
~s "ST_g_4_1"
<MEAN> 13
 1.133360e+00 -1.636378e+01 -6.834515e+00 -6.904015e+00 -1.237218e+01 -8.012028e+00 -1.335043e+01 4.836060e+00 2.027565e+00 1.082139e+00 -3.872826e+00 -2.024029e+01 7.549445e+01
<VARIANCE> 13
 8.669519e+00 4.668497e+01 5.548556e+01 2.520881e+01 4.720191e+01 7.173708e+01 2.582965e+01 3.837096e+01 3.880275e+01 2.658727e+01 8.763668e+01 6.855993e+01 6.671666e+01
<GCONST> 7.200550e+01
~s "ST_t_2_1"
<MEAN> 13
 -6.654551e+00 -4.131502e+00 -6.700884e+00 -5.127552e-01 -1.694713e+00 5.669584e+00 -4.761751e+00 -5.595751e+00 -2.615788e-01 -2.252548e+00 2.942022e-02 -1.794526e+00 5.017601e+01
<VARIANCE> 13
 3.918806e+01 6.342877e+01 1.201907e+02 6.475669e+01 7.915031e+01 1.319802e+02 8.641618e+01 6.065462e+01 7.615054e+01 4.279235e+01 2.962129e+01 3.901040e+01 1.173821e+02
<GCONST> 7.839561e+01
~s "ST_t_2_2"
<MEAN> 13
 -4.125935e+00 -4.138496e+00 -1.111280e+01 -4.302543e+00 1.286772e+00 -2.175825e+00 -4.947156e+00 -8.299329e-01 6.402992e+00 2.180385e+00 -6.082315e+00 -4.896703e+00 5.227362e+01
<VARIANCE> 13
 2.607339e+01 3.242484e+01 5.992031e+01 3.498656e+01 3.422664e+01 5.957894e+01 7.850265e+01 5.442922e+01 6.089661e+01 2.907990e+01 4.537727e+01 2.615636e+01 6.943462e+01
<GCONST> 7.305928e+01
~s "ST_t_3_1"
<MEAN> 13
 4.023940e-02 -9.493983e+00 -7.095492e+00 -1.617768e+01 -6.288862e+00 5.246333e+00 -9.957587e+00 -1.442918e+01 7.510639e+00 -3.314519e+00 4.489598e+00 1.521483e+00 6.734190e+01
<VARIANCE> 13
 2.320130e+01 2.418288e+01 2.821223e+01 1.098958e+02 7.883837e+01 1.012938e+02 7.572715e+01 6.605437e+01 6.171516e+01 7.800614e+01 5.287236e+01 4.114987e+01 5.475708e+01
<GCONST> 7.593192e+01
~s "ST_t_3_2"
<MEAN> 13
 3.087780e+00 -5.338776e+00 -5.645807e+00 -1.595482e+01 -1.187464e+01 5.028679e-01 -1.506635e+01 -1.121180e+01 -2.206449e+00 -9.934189e-01 2.997154e+00 -6.878847e+00 7.041900e+01
<VARIANCE> 13
 2.049313e+01 2.055384e+01 2.527308e+01 3.198578e+01 3.832570e+01 3.975875e+01 3.351422e+01 3.002190e+01 5.702833e+01 2.981380e+01 1.620791e+01 4.671832e+01 4.012940e+01
<GCONST> 6.863368e+01
~s "ST_t_4_1"
<MEAN> 13
 -3.470746e+00 -6.245001e+00 -8.916646e+00 -4.176369e+00 1.411483e-01 -3.073768e+00 -2.502012e+00 -4.405226e+00 7.384430e-01 8.385742e-01 -5.370024e+00 -3.801209e+00 5.656836e+01
<VARIANCE> 13
 3.733149e+01 4.040409e+01 3.271563e+01 9.272243e+01 8.057049e+01 5.621877e+01 4.823853e+01 6.463531e+01 6.993983e+01 5.646658e+01 5.149963e+01 3.427798e+01 8.526929e+01
<GCONST> 7.589512e+01
~s "ST_t_4_2"
<MEAN> 13
 6.521935e+00 -4.565427e+00 -1.704171e+00 -1.499018e+01 -5.960113e+00 9.636311e+00 -9.464250e+00 -1.359509e+01 -1.130668e+01 5.990545e+00 7.999451e+00 -4.338927e+00 6.382636e+01
<VARIANCE> 13
 3.669388e+01 2.906668e+01 4.448127e+01 1.154714e+02 5.990387e+01 8.363204e+01 4.766835e+01 3.765707e+01 5.080686e+01 5.542617e+01 6.992051e+01 5.349617e+01 4.757357e+01
<GCONST> 7.545297e+01
~s "ST_sil_2_1"
<MEAN> 13
 -1.445212e+01 5.739524e+00 -7.712343e+00 9.029291e+00 -2.004202e+00 5.550946e+00 -6.245136e+00 -1.980993e+00 -2.443914e+00 -5.798035e+00 -3.525725e+00 -3.774386e+00 3.331312e+01
<VARIANCE> 13
 2.537936e+01 3.513618e+01 4.979898e+01 3.788198e+01 4.177466e+01 4.811496e+01 5.185609e+01 4.880909e+01 3.959285e+01 3.374020e+01 3.336505e+01 2.540483e+01 4.508950e+01
<GCONST> 7.141874e+01
~s "silst"
<MEAN> 13
 -8.236005e+00 1.265103e+00 -7.735040e-01 1.278988e+00 2.991147e+00 7.827343e-01 2.532172e+00 6.192557e-01 2.828558e+00 -8.295878e-01 8.247263e-01 -1.308223e+00 5.272382e+01
<VARIANCE> 13
 4.321036e+00 8.141800e+00 5.229195e+00 8.059292e+00 8.581553e+00 1.089446e+01 1.066500e+01 9.620715e+00 1.087453e+01 8.490346e+00 8.437890e+00 8.255383e+00 3.465925e+00
<GCONST> 5.037468e+01
~s "ST_sil_3_1"
<MEAN> 13
 -7.183125e+00 1.637927e+00 -7.982067e-01 1.138271e+00 3.178334e+00 1.442839e+00 2.242301e+00 2.568609e-01 2.526084e+00 -4.743868e-01 1.154893e+00 -8.865843e-01 5.228057e+01
<VARIANCE> 13
 4.411726e+00 5.846485e+00 5.216877e+00 9.556655e+00 1.067969e+01 1.381807e+01 1.308565e+01 1.073943e+01 1.015782e+01 8.618015e+00 9.853617e+00 9.814447e+00 3.465925e+00
<GCONST> 5.127818e+01
~s "ST_sil_4_1"
<MEAN> 13
 -2.565870e+01 2.821016e+00 -1.002746e+01 4.556071e+00 -7.414405e+00 5.274625e+00 -3.408335e+00 1.474739e+00 1.548066e+00 -1.042752e+00 1.279208e+00 -4.419957e-01 2.408053e+01
<VARIANCE> 13
 1.503929e+01 3.080364e+00 6.036529e+00 5.509076e+00 1.041494e+01 8.298791e+00 1.042299e+01 1.106967e+01 1.147944e+01 1.025166e+01 9.506095e+00 8.072663e+00 2.754150e+01
<GCONST> 5.286402e+01
~s "ST_iy_2_1"
<MEAN> 13
 2.126398e+00 -9.488085e+00 1.780659e+01 -7.635283e+00 -1.314117e+01 -1.292458e+01 -4.323587e+00 -6.525538e+00 -1.704988e+01 8.014062e+00 7.944382e-01 -1.614136e-01 6.828323e+01
<VARIANCE> 13
 8.036807e+00 2.101710e+01 4.567616e+01 3.153921e+01 3.437526e+01 2.544496e+01 2.668295e+01 5.135038e+01 7.450910e+01 5.805011e+01 8.470799e+01 2.748602e+01 1.116040e+01
<GCONST> 6.882861e+01
~s "ST_j_2_1"
<MEAN> 13
 -6.391525e+00 1.260897e+01 2.881711e+01 -3.581865e+00 -7.647110e+00 -4.795880e+00 -8.437206e+00 -4.413153e+00 -1.617535e+01 4.753619e-01 -9.472752e-01 -3.858090e+00 5.081213e+01
<VARIANCE> 13
 1.305806e+01 1.335736e+02 1.272198e+02 2.176526e+02 9.232543e+01 6.521744e+01 1.007491e+02 3.333863e+01 5.680664e+01 5.742768e+01 3.667876e+01 2.548691e+01 7.025957e+01
<GCONST> 7.759042e+01
~s "ST_iy_3_1"
<MEAN> 13
 -3.219042e+00 -1.172927e+01 1.524404e+01 -7.205134e-01 -2.434295e+01 -1.235717e+01 -1.302794e+01 -8.529684e+00 -7.953669e+00 -6.490498e+00 1.390123e+01 -4.350837e+00 6.884335e+01
<VARIANCE> 13
 4.784785e+00 5.226151e+01 2.257382e+01 2.204546e+01 2.930686e+01 1.562162e+01 2.667325e+01 4.635072e+01 4.586142e+01 5.443652e+01 6.389784e+01 9.325174e+01 6.784802e+00
<GCONST> 6.730031e+01
~s "ST_j_3_1"
<MEAN> 13
 -3.562622e-03 -7.802494e+00 4.308429e+00 1.554544e+00 -1.129056e+01 -9.890944e+00 -1.988910e+01 -1.613736e+01 -4.995718e+00 -5.497064e-01 1.197070e+01 -6.371840e+00 6.655236e+01
<VARIANCE> 13
 2.404288e+01 1.297177e+01 7.566673e+01 4.693576e+01 4.015644e+01 5.731468e+01 9.385281e+01 9.287712e+01 7.394891e+01 2.947161e+01 6.159441e+01 4.917123e+01 2.440490e+01
<GCONST> 7.352195e+01
~s "ST_iy_4_1"
<MEAN> 13
 -1.501337e+00 -1.549310e+00 1.318001e+01 -1.877687e+00 -1.145996e+01 -1.072763e+01 -5.011814e+00 -6.734805e+00 -1.087302e+01 1.769066e+00 -5.890531e-02 5.847409e-01 6.040127e+01
<VARIANCE> 13
 2.938567e+01 3.387986e+01 8.215891e+01 5.516801e+01 4.134385e+01 4.816086e+01 5.432370e+01 4.140342e+01 5.443018e+01 5.263277e+01 7.555936e+01 3.488085e+01 3.723131e+01
<GCONST> 7.398383e+01
~s "ST_j_4_1"
<MEAN> 13
 9.337020e+00 8.227174e+00 -4.594024e+00 2.605154e+00 -4.322386e+00 7.071094e+00 -1.219782e+01 -1.748064e+01 -1.145387e+01 -2.101501e+00 1.061380e+00 -3.509707e+00 5.246782e+01
<VARIANCE> 13
 1.901850e+01 1.788645e+02 3.128153e+01 3.136410e+01 1.739326e+01 3.917855e+01 4.111520e+01 2.830610e+01 2.801452e+01 3.276030e+01 7.406488e+01 2.604001e+01 9.854543e+01
<GCONST> 7.147383e+01
~s "ST_w_2_1"
<MEAN> 13
 -1.964804e+01 -3.251305e+00 3.498213e+00 -7.159571e+00 1.341630e+01 -2.297659e+00 -3.802509e+00 -4.868123e+00 5.719464e+00 -5.803957e+00 3.411268e+00 -6.731642e+00 6.251421e+01
<VARIANCE> 13
 2.483277e+01 1.548324e+01 1.601081e+01 4.779904e+01 4.619992e+01 6.618661e+01 3.239632e+01 5.491843e+01 2.804904e+01 3.202179e+01 1.242542e+01 1.023195e+01 5.793845e+00
<GCONST> 6.539637e+01
~s "ST_w_3_1"
<MEAN> 13
 1.820431e+00 -9.012774e+00 2.174044e+00 -2.334872e+00 -5.468025e+00 -1.045112e+01 -1.504065e+01 -8.159123e+00 -4.307009e+00 -3.095770e-01 6.382257e+00 -7.380241e+00 6.970405e+01
<VARIANCE> 13
 1.252810e+01 4.954442e+01 2.117291e+01 2.156149e+01 2.555927e+01 4.711881e+01 4.388214e+01 4.720525e+01 6.756680e+01 3.951974e+01 4.157640e+01 3.162905e+01 6.785082e+00
<GCONST> 6.816281e+01
~s "ST_w_4_1"
<MEAN> 13
 -6.879252e+00 -6.842023e+00 4.471628e+00 3.860181e-01 -7.201313e-01 -5.764293e+00 -4.165076e+00 -7.405091e+00 -7.350558e+00 -6.599156e+00 3.097996e+00 5.813921e-01 6.023481e+01
<VARIANCE> 13
 2.437599e+01 1.729912e+01 1.214772e+01 1.125505e+01 3.981896e+01 5.563134e+01 4.899104e+01 5.317855e+01 3.619833e+01 3.142717e+01 2.816631e+01 3.974572e+01 4.224047e+01
<GCONST> 6.822369e+01
~s "ST_ng_2_1"
<MEAN> 13
 -2.660021e+00 -4.999973e+00 -1.036709e+01 7.578494e-01 -4.283826e+00 4.253048e+00 -7.538019e+00 -4.402915e+00 -4.065124e+00 -4.758228e+00 -6.371650e+00 -5.568103e+00 4.927282e+01
<VARIANCE> 13
 3.114790e+01 5.271752e+01 4.064872e+01 2.220801e+01 5.377169e+01 5.170697e+01 2.786598e+01 2.553380e+01 2.464258e+01 2.312287e+01 1.586979e+01 2.953496e+01 4.218228e+01
<GCONST> 6.883656e+01
~s "ST_ng_3_1"
<MEAN> 13
 -2.520924e+00 7.776731e+00 -3.630330e+00 1.143854e+01 -1.320975e+00 1.175666e+01 -2.120609e+00 -9.765102e-01 2.761611e-01 -1.967430e+00 -1.865700e+00 5.990096e-01 4.658228e+01
<VARIANCE> 13
 3.597988e+01 9.719058e+01 3.571333e+01 3.855680e+01 1.130110e+02 6.058388e+01 4.088081e+01 3.205643e+01 3.120057e+01 4.495518e+01 2.309060e+01 2.767496e+01 1.279017e+02
<GCONST> 7.384669e+01
~s "ST_m_2_1"
<MEAN> 13
 2.734756e+00 -3.029708e+00 -4.861766e+00 -1.624473e+00 4.506412e-01 2.837028e+00 -3.925201e+00 -7.311172e+00 -4.739741e+00 -6.212305e-01 -5.628828e+00 -8.426757e+00 5.798796e+01
<VARIANCE> 13
 5.177606e+00 2.229930e+01 1.849021e+01 1.969975e+01 3.184925e+01 5.823108e+01 2.117784e+01 2.288960e+01 2.617049e+01 1.944177e+01 2.061271e+01 2.524347e+01 9.683897e+00
<GCONST> 6.300522e+01
~s "ST_m_2_2"
<MEAN> 13
 4.488336e+00 -3.053856e+00 -2.024408e+00 -5.147488e-01 -2.918854e+00 -1.389214e-01 -6.706073e+00 -1.373212e+01 -1.321597e+01 -5.074333e-02 -1.449423e+00 -6.832165e+00 6.026383e+01
<VARIANCE> 13
 3.217453e+01 3.502462e+01 2.969440e+01 2.388600e+01 8.239230e+01 1.185968e+02 3.072181e+01 3.846471e+01 4.687919e+01 4.329313e+01 7.070190e+01 8.037551e+01 3.824428e+01
<GCONST> 7.365057e+01
~s "ST_m_2_3"
<MEAN> 13
 7.114735e+00 -9.636102e+00 -7.075603e+00 -2.430558e+00 -1.609899e+00 -2.642150e+00 -1.381151e+00 -9.506860e+00 -1.433817e+01 2.586253e+00 -2.226113e+00 -8.695258e+00 6.435938e+01
<VARIANCE> 13
 1.339623e+01 3.725140e+01 3.985278e+01 3.351371e+01 4.651539e+01 3.006281e+01 2.037793e+01 2.154626e+01 8.110317e+01 2.362265e+01 3.006930e+01 2.554572e+01 7.446899e+00
<GCONST> 6.683964e+01
~s "ST_ng_4_1"
<MEAN> 13
 -1.278622e+01 4.892384e+00 -1.136620e+01 7.529114e+00 -4.153603e+00 3.569515e+00 -9.193882e+00 -4.798330e+00 -4.867547e+00 -8.367176e+00 -6.300059e+00 -6.732605e+00 3.446136e+01
<VARIANCE> 13
 8.937918e+00 1.250152e+01 1.881394e+01 1.087012e+01 1.557598e+01 1.776415e+01 1.769824e+01 1.661698e+01 2.005849e+01 1.599867e+01 1.295225e+01 1.446124e+01 2.220899e+01
<GCONST> 5.934037e+01
~s "ST_ng_4_2"
<MEAN> 13
 -1.271978e+01 5.728940e+00 -6.683044e+00 7.929625e+00 -7.146527e+00 -2.172253e+00 -1.284737e+01 -6.114194e+00 -5.603848e+00 -7.890443e+00 -4.851776e+00 -4.915375e+00 3.554177e+01
<VARIANCE> 13
 3.366681e+01 1.880532e+01 1.951886e+01 2.462131e+01 2.885634e+01 1.652949e+01 1.659999e+01 2.419685e+01 1.982287e+01 2.057450e+01 1.320353e+01 1.262087e+01 8.152139e+01
<GCONST> 6.420874e+01
~s "ST_m_3_1"
<MEAN> 13
 8.052307e-01 1.052862e+01 1.939548e+00 1.207632e+01 1.027788e+01 6.785043e+00 -9.948316e+00 -1.020731e+01 -2.993099e+00 1.446625e+00 -4.376304e+00 4.326546e-01 4.646212e+01
<VARIANCE> 13
 1.496011e+01 9.471255e+01 1.824297e+01 8.126763e+01 5.368834e+01 5.482625e+01 6.601589e+01 5.063136e+01 2.201300e+01 3.839247e+01 2.992496e+01 3.787749e+01 7.548946e+01
<GCONST> 7.264852e+01
~s "ST_m_3_2"
<MEAN> 13
 4.709447e+00 2.185610e+00 -2.629467e+00 1.221135e-01 1.016053e+01 1.736249e+00 -6.596058e+00 -1.549987e+01 -1.203919e+01 -2.477894e-01 -8.137301e+00 1.190634e+00 5.700563e+01
<VARIANCE> 13
 2.403039e+01 8.893387e+01 4.946025e+01 6.151740e+01 1.552798e+02 6.723797e+01 5.440454e+01 5.631192e+01 6.071174e+01 3.468296e+01 8.802199e+01 8.105731e+01 4.083343e+01
<GCONST> 7.709556e+01
~s "ST_m_4_1"
<MEAN> 13
 -1.110891e+01 2.713558e+00 -9.626321e+00 6.731874e+00 -4.026353e+00 4.342903e+00 -7.913583e+00 -3.311111e+00 -4.280278e+00 -7.327723e+00 -7.206242e+00 -6.249011e+00 3.731477e+01
<VARIANCE> 13
 1.542780e+01 4.558014e+01 2.970110e+01 2.375492e+01 1.979041e+01 1.816619e+01 1.500984e+01 1.625480e+01 1.614878e+01 1.703366e+01 1.686078e+01 1.154159e+01 3.911580e+01
<GCONST> 6.294338e+01
~s "ST_m_4_2"
<MEAN> 13
 5.465959e+00 -5.099729e+00 -8.733123e+00 -3.935699e+00 2.161275e+00 6.071025e-01 -5.722631e+00 -8.126161e+00 -5.767832e+00 -1.936556e+00 -3.110168e+00 -3.757598e+00 6.082414e+01
<VARIANCE> 13
 4.377457e+01 8.609370e+01 9.447636e+01 7.602621e+01 1.472870e+02 9.265741e+01 6.507653e+01 7.759965e+01 9.247742e+01 4.243135e+01 7.155164e+01 4.050457e+01 5.876855e+01
<GCONST> 7.937503e+01
~s "ST_ah_2_1"
<MEAN> 13
 5.908123e+00 -1.888677e+01 -1.189698e+01 -1.109154e+01 8.508802e-01 6.233915e+00 -2.487914e+00 -8.914458e+00 -2.638724e+00 4.646829e+00 -4.064905e+00 -5.370333e+00 6.913390e+01
<VARIANCE> 13
 8.041843e+00 5.579656e+01 2.940719e+01 4.155104e+01 7.574503e+01 9.316635e+01 4.208293e+01 4.260446e+01 1.166670e+02 5.259489e+01 5.711980e+01 3.883286e+01 1.856548e+01
<GCONST> 7.280795e+01
~s "ST_ah_2_2"
<MEAN> 13
 4.267225e+00 -1.714548e+01 -6.325258e+00 -1.258484e+01 -2.741683e+00 -2.304562e+00 -2.680104e+00 -3.654905e+00 -1.254918e+00 1.713924e+00 -3.435084e+00 -1.226082e+01 7.244635e+01
<VARIANCE> 13
 8.089272e+00 3.933829e+01 3.695398e+01 5.682169e+01 7.878875e+01 9.646637e+01 4.355981e+01 4.780092e+01 1.005546e+02 4.881491e+01 1.343855e+02 6.733356e+01 1.370952e+01
<GCONST> 7.410907e+01
~s "ST_ah_2_3"
<MEAN> 13
 7.636626e+00 -1.770574e+01 -1.109936e+01 -1.798371e+01 -8.773238e+00 8.630349e+00 -1.672012e+00 -9.623290e+00 -4.882524e+00 7.940180e+00 6.506521e+00 -1.277025e+01 7.183129e+01
<VARIANCE> 13
 8.765314e+00 5.764519e+01 1.709923e+01 3.348550e+01 5.290485e+01 4.723413e+01 5.907470e+01 3.360660e+01 1.226983e+02 6.814016e+01 6.736714e+01 6.795890e+01 6.705328e+00
<GCONST> 7.124805e+01
~s "ST_ah_2_4"
<MEAN> 13
 5.313828e+00 -1.981423e+01 -1.437961e+00 -9.948088e+00 -2.169297e+00 -3.927070e+00 -1.673627e-01 6.440079e-01 -5.248140e+00 7.101771e+00 -5.673501e+00 -1.060782e+01 7.494897e+01
<VARIANCE> 13
 5.174109e+00 1.156518e+01 3.377275e+01 2.513194e+01 6.153951e+01 4.224369e+01 1.901635e+01 4.431641e+01 3.879413e+01 2.860778e+01 6.665989e+01 2.563054e+01 4.040609e+00
<GCONST> 6.517938e+01
~s "ST_ah_2_5"
<MEAN> 13
 4.227496e+00 -1.955378e+01 -1.362786e+01 -1.026846e+01 2.010886e+00 -3.018481e-01 -4.161821e-01 -5.156445e+00 -3.211300e+00 7.897861e+00 -1.147082e+00 -9.116945e+00 7.008084e+01
<VARIANCE> 13
 9.411710e+00 5.530420e+01 2.293770e+01 3.437847e+01 7.578912e+01 1.267171e+02 6.108237e+01 4.041377e+01 1.322742e+02 3.772250e+01 5.882364e+01 2.972560e+01 1.693288e+01
<GCONST> 7.260966e+01
~s "ST_ah_2_6"
<MEAN> 13
 4.017231e+00 -1.659044e+01 -9.671976e+00 -1.281453e+01 4.599824e+00 -2.240695e+00 -1.795230e-01 -7.401690e+00 -4.040200e+00 8.146183e+00 -6.304804e+00 -8.607720e+00 7.229249e+01
<VARIANCE> 13
 1.509047e+01 3.276865e+01 1.150189e+01 3.661193e+01 3.763020e+01 2.891799e+01 3.425408e+01 2.979184e+01 5.830108e+01 3.823725e+01 3.554236e+01 2.333940e+01 2.332424e+01
<GCONST> 6.763892e+01
~s "ST_ah_2_7"
<MEAN> 13
 6.422306e+00 -1.802758e+01 -1.273790e+01 -1.566715e+01 9.147257e-01 3.138438e+00 7.391178e-01 -1.017438e+01 -6.492070e+00 9.547802e+00 -3.810680e+00 -7.471819e+00 7.083760e+01
<VARIANCE> 13
 1.425043e+01 3.220556e+01 2.484661e+01 2.845879e+01 5.346456e+01 5.281441e+01 3.617086e+01 3.397687e+01 8.220250e+01 3.817617e+01 5.730690e+01 3.086643e+01 2.600659e+01
<GCONST> 7.043008e+01
~s "ST_ah_2_8"
<MEAN> 13
 5.254105e+00 -1.966896e+01 -4.918911e+00 -1.398417e+01 7.265765e+00 -2.482520e+00 1.819697e+00 -7.494687e+00 -4.020022e+00 1.012199e+01 -1.392093e+01 -2.507159e+00 7.401641e+01
<VARIANCE> 13
 4.209639e+00 8.697160e+00 1.692787e+01 3.647225e+01 6.201168e+01 2.913251e+01 4.308037e+01 5.100691e+01 4.771963e+01 4.435803e+01 1.997033e+01 3.166511e+01 5.242398e+00
<GCONST> 6.487637e+01
~s "ST_ah_3_1"
<MEAN> 13
 2.340872e+00 -1.754568e+01 -8.714386e+00 -7.753528e+00 -1.407433e+00 -3.710426e-01 -3.069955e+00 -7.122345e+00 7.233212e+00 1.699858e+00 -5.554537e+00 -7.002018e+00 6.967700e+01
<VARIANCE> 13
 6.066554e+00 7.550281e+01 3.199171e+01 4.746365e+01 8.685973e+01 6.926752e+01 4.477016e+01 6.267301e+01 1.007922e+02 4.342410e+01 1.208302e+02 3.915051e+01 3.286179e+01
<GCONST> 7.432473e+01
~s "ST_ah_3_2"
<MEAN> 13
 2.314675e+00 -2.120888e+01 -1.191628e+01 -7.014280e+00 -3.594104e+00 -5.896825e-01 -5.115762e+00 -3.289030e+00 5.364853e+00 4.218731e-01 -7.979252e+00 -1.289232e+01 7.507004e+01
<VARIANCE> 13
 3.419760e+00 2.465983e+01 2.124361e+01 1.416576e+01 2.932762e+01 4.973681e+01 2.443941e+01 6.560064e+01 1.146580e+02 4.082928e+01 7.642942e+01 3.485022e+01 9.686743e+00
<GCONST> 6.730863e+01
~s "ST_ah_3_3"
<MEAN> 13
 3.482873e+00 -1.988062e+01 -1.171873e+01 -6.150532e+00 4.962766e-01 2.630912e+00 -5.422211e+00 -2.160074e+00 5.006893e+00 2.275640e+00 -1.038915e+01 -1.190943e+01 7.214073e+01
<VARIANCE> 13
 4.409796e+00 3.350106e+01 7.592142e+00 1.583882e+01 5.256539e+01 5.483210e+01 2.103083e+01 3.966418e+01 7.921085e+01 2.910290e+01 3.912018e+01 2.500933e+01 1.537767e+01
<GCONST> 6.573191e+01
~s "ST_ah_3_4"
<MEAN> 13
 2.949819e+00 -1.828749e+01 -1.392694e+01 -8.305328e+00 -1.720568e+00 -5.397695e-01 -5.877011e+00 -2.446532e+00 -4.164130e-01 5.422166e+00 -8.745868e+00 -1.283363e+01 7.350212e+01
<VARIANCE> 13
 1.310248e+01 2.350128e+01 1.379484e+01 2.950137e+01 4.483628e+01 3.750276e+01 3.372429e+01 5.293568e+01 7.151907e+01 3.248014e+01 6.803603e+01 4.577579e+01 3.645232e+01
<GCONST> 6.993612e+01
~s "ST_ah_3_5"
<MEAN> 13
 3.578288e+00 -1.825908e+01 -1.458857e+01 -6.949828e+00 -6.121371e-01 -7.168340e-01 -1.810995e-01 -2.537103e+00 -2.646439e+00 6.161627e+00 -6.046490e+00 -1.575278e+01 7.318084e+01
<VARIANCE> 13
 3.437471e+00 2.628222e+01 8.501635e+00 1.809494e+01 6.237387e+01 8.460420e+01 4.850375e+01 2.308008e+01 8.155761e+01 2.651527e+01 3.147350e+01 4.018396e+01 1.141971e+01
<GCONST> 6.628065e+01
~s "ST_ah_3_6"
<MEAN> 13
 3.766931e+00 -1.654779e+01 -1.344939e+01 -1.077576e+01 -4.071232e+00 2.289774e+00 -1.162897e+01 -5.330759e-01 -3.006607e-01 5.070794e+00 -8.433358e+00 -1.814011e+01 7.507676e+01
<VARIANCE> 13
 4.309755e+00 1.056730e+01 1.299164e+01 2.066102e+01 4.187227e+01 2.613669e+01 3.195887e+01 3.049986e+01 2.785021e+01 3.133682e+01 3.580720e+01 5.525641e+01 1.842170e+01
<GCONST> 6.445904e+01
~s "ST_ah_3_7"
<MEAN> 13
 2.405138e+00 -2.211654e+01 -9.078723e+00 -6.655859e+00 -6.066451e+00 1.019245e+00 -2.118232e+00 -5.353865e+00 6.408509e+00 8.843616e-01 -4.610389e+00 -9.561605e+00 7.528177e+01
<VARIANCE> 13
 3.881721e+00 1.722971e+01 2.339676e+01 1.486967e+01 4.205691e+01 2.793706e+01 1.104598e+01 6.835682e+01 5.960535e+01 5.339751e+01 1.046977e+02 1.820402e+01 5.316305e+00
<GCONST> 6.493204e+01
~s "ST_ah_3_8"
<MEAN> 13
 1.120091e+00 -2.311045e+01 -1.214401e+01 -6.081466e+00 -1.453384e+00 2.746392e+00 -2.828753e+00 -1.066351e+01 1.298873e+01 -3.145714e+00 -5.720754e+00 -1.074540e+01 7.408703e+01
<VARIANCE> 13
 3.186122e+00 1.359851e+01 2.040939e+01 8.439580e+00 2.659033e+01 3.848183e+01 2.416434e+01 4.358314e+01 3.665139e+01 3.688520e+01 2.147565e+01 3.509781e+01 5.375319e+00
<GCONST> 6.221651e+01
~s "ST_ah_4_1"
<MEAN> 13
 2.493812e+00 -1.299664e+01 -7.459416e+00 -1.523911e+01 8.517877e+00 -6.860163e+00 6.572236e-01 -6.074332e+00 3.567936e+00 5.845863e+00 -1.244736e+01 -4.153677e+00 6.885334e+01
<VARIANCE> 13
 1.668279e+01 2.579830e+01 2.790336e+01 1.054122e+02 7.968691e+01 6.829478e+01 6.672346e+01 5.889773e+01 5.724681e+01 4.875011e+01 6.561036e+01 5.193346e+01 4.447308e+01
<GCONST> 7.468468e+01
~s "ST_ah_4_2"
<MEAN> 13
 3.031665e+00 -8.997823e+00 -9.419934e+00 -7.546625e+00 2.709714e+00 3.007937e+00 -2.579176e+00 -3.798477e+00 2.363228e+00 6.193443e+00 -3.691184e+00 -9.508441e+00 6.207028e+01
<VARIANCE> 13
 1.421335e+01 2.304259e+01 1.123434e+01 1.970096e+01 2.224634e+01 2.820883e+01 2.002350e+01 5.218813e+01 2.392334e+01 1.623654e+01 2.438239e+01 2.768741e+01 2.466211e+01
<GCONST> 6.415937e+01
~s "ST_ah_4_3"
<MEAN> 13
 2.328225e+00 -1.387597e+01 -3.416384e+00 -1.071511e+01 9.375709e+00 -1.103212e+01 2.327848e+00 -1.641024e+00 5.847953e+00 5.628400e-02 -1.690255e+01 -1.210176e-02 6.930857e+01
<VARIANCE> 13
 6.052571e+00 2.376496e+01 2.523313e+01 4.473603e+01 9.927027e+01 5.735883e+01 5.407298e+01 4.576827e+01 4.198479e+01 4.210077e+01 4.184726e+01 6.296907e+01 1.335834e+01
<GCONST> 7.029733e+01
~s "ST_ah_4_4"
<MEAN> 13
 3.350017e+00 -1.124479e+01 -6.671460e+00 -7.591287e+00 1.566073e+01 -5.944975e+00 -5.231681e-01 3.273818e-01 9.760287e+00 -6.574874e+00 -1.617436e+01 -9.109651e-01 6.647897e+01
<VARIANCE> 13
 6.675474e+00 2.459490e+01 3.262268e+01 2.528345e+01 1.515157e+02 4.771562e+01 5.790102e+01 6.986100e+01 5.368230e+01 7.425924e+01 5.366983e+01 8.084368e+01 1.557176e+01
<GCONST> 7.231120e+01
~s "ST_ah_4_5"
<MEAN> 13
 4.331051e+00 -1.270379e+01 -5.006804e+00 -1.867010e+01 1.412398e+01 -6.614562e-01 -5.172323e+00 -4.686470e+00 6.340634e+00 2.231023e+00 -1.637880e+01 -1.077416e+00 6.998336e+01
<VARIANCE> 13
 4.906587e+00 1.879984e+01 2.180845e+01 3.183745e+01 9.843266e+01 5.272839e+01 3.227910e+01 3.568433e+01 4.190409e+01 4.436284e+01 7.754246e+01 5.270991e+01 1.605490e+01
<GCONST> 6.918285e+01
~s "ST_ah_4_6"
<MEAN> 13
 3.962833e+00 -7.264582e+00 -7.733707e+00 -6.247972e+00 1.088815e+01 -9.761343e-01 2.103801e+00 -1.029554e+01 9.935361e+00 -7.255504e+00 -1.146648e+01 1.309770e+00 6.403928e+01
<VARIANCE> 13
 6.714561e+00 6.149754e+01 2.024558e+01 9.398486e+01 6.758986e+01 5.145482e+01 4.062999e+01 4.409616e+01 5.453099e+01 8.106988e+01 4.305110e+01 3.286114e+01 4.776025e+01
<GCONST> 7.262675e+01
~s "ST_ah_4_7"
<MEAN> 13
 3.511772e+00 -1.359213e+01 -8.481193e+00 -1.310671e+01 1.169710e+01 -1.039641e+01 9.795282e+00 -8.819839e+00 -1.488299e+00 6.390748e+00 -7.489683e+00 -1.028116e+01 7.030909e+01
<VARIANCE> 13
 6.327660e+00 1.493251e+01 1.821374e+01 2.175448e+01 9.156128e+01 1.105587e+02 7.378156e+01 2.593289e+01 4.881133e+01 3.911187e+01 4.788343e+01 2.588221e+01 8.270970e+00
<GCONST> 6.799152e+01
~s "ST_eh_2_1"
<MEAN> 13
 1.199136e+00 -9.953099e-01 4.949107e+00 5.554538e+00 -1.757552e+00 -1.291958e+01 -8.886475e+00 2.984109e+00 -9.241886e-01 -2.800574e+00 -8.723521e+00 1.314434e+00 5.677781e+01
<VARIANCE> 13
 9.112948e+00 2.309677e+02 1.201863e+01 1.063323e+02 7.370564e+01 5.476198e+01 2.319283e+01 5.626416e+01 6.603174e+01 4.987125e+01 4.755974e+01 5.198088e+01 1.548390e+02
<GCONST> 7.512920e+01
~s "ST_eh_3_1"
<MEAN> 13
 3.287884e+00 -1.278666e+01 4.347143e+00 -5.407449e+00 -8.579367e+00 -1.384802e+01 -1.346647e+01 1.326178e+00 -2.218146e+00 3.633799e+00 -1.153357e+00 -7.511318e+00 7.064080e+01
<VARIANCE> 13
 4.332181e+00 7.569001e+00 3.876569e+01 4.766774e+01 9.524870e+01 7.378674e+01 5.577987e+01 1.792243e+02 3.987192e+01 1.020440e+01 3.770182e+01 9.477455e+01 4.593292e+00
<GCONST> 6.868634e+01
~s "ST_eh_4_1"
<MEAN> 13
 6.095062e+00 -5.692811e+00 1.160550e+00 -9.721924e+00 5.087121e+00 -8.011428e+00 -1.450782e+01 -7.212245e+00 -6.536241e+00 1.270188e+01 -5.967528e+00 -2.362969e+00 6.465778e+01
<VARIANCE> 13
 7.770680e+00 6.534864e+01 1.609673e+01 6.570902e+01 1.130993e+02 9.948017e+01 1.416857e+01 6.623438e+01 4.026877e+01 3.021107e+01 8.044860e+01 3.160447e+01 2.328773e+01
<GCONST> 7.135143e+01
~s "ST_p_2_1"
<MEAN> 13
 -1.389477e+01 5.991789e+00 -9.530192e+00 8.219305e+00 -3.886403e+00 2.188211e+00 -1.041050e+01 -5.018898e+00 -4.110804e+00 -6.820519e+00 -4.247029e+00 -4.726059e+00 3.361224e+01
<VARIANCE> 13
 8.095486e+00 1.057857e+01 1.548444e+01 1.447488e+01 2.639080e+01 2.245270e+01 3.053568e+01 2.860427e+01 2.274541e+01 2.469607e+01 1.952967e+01 1.357632e+01 2.195740e+01
<GCONST> 6.191204e+01
~s "ST_p_2_2"
<MEAN> 13
 -8.186142e+00 3.590627e+00 -7.679543e+00 1.620204e+00 -2.127707e+00 1.830868e+00 -8.228267e+00 -4.466843e+00 -3.233980e+00 -1.016365e+00 -3.545073e+00 -4.706239e+00 4.152255e+01
<VARIANCE> 13
 7.192132e+01 5.818850e+01 4.238004e+01 4.476314e+01 4.387669e+01 3.740100e+01 5.135184e+01 7.393253e+01 6.563580e+01 3.570105e+01 3.985688e+01 2.651233e+01 1.340556e+02
<GCONST> 7.504512e+01
~s "ST_p_3_1"
<MEAN> 13
 -7.821326e+00 -2.995138e+00 -2.979748e+00 1.751294e-01 3.816173e+00 -4.272268e-01 9.745535e-01 -1.937095e+00 1.478552e+00 -1.495201e+00 1.360199e+00 -1.220244e+00 5.582882e+01
<VARIANCE> 13
 1.928636e+01 1.740025e+01 4.320912e+01 1.755055e+01 3.505875e+01 2.058851e+01 2.744254e+01 2.340257e+01 1.975444e+01 1.787135e+01 1.776334e+01 1.587311e+01 4.616075e+01
<GCONST> 6.472659e+01
~s "ST_p_3_2"
<MEAN> 13
 -3.556027e+00 1.342663e-01 -4.818168e+00 -8.944809e-01 2.295894e-02 7.693301e-01 -9.674456e-01 -3.256871e+00 7.887514e-02 -5.329623e-01 -7.961155e-01 -3.856764e+00 5.381584e+01
<VARIANCE> 13
 2.770103e+01 2.234155e+01 3.533865e+01 2.218901e+01 2.197186e+01 2.660432e+01 2.352293e+01 3.713938e+01 3.580811e+01 2.291526e+01 1.885294e+01 1.834405e+01 3.252361e+01
<GCONST> 6.616630e+01
~s "ST_p_4_1"
<MEAN> 13
 3.062933e+00 -7.540736e+00 -1.475890e+01 -5.752246e+00 -2.573433e+00 4.509360e-01 -2.599335e+00 -6.731985e+00 -1.809794e+00 4.413139e+00 2.831839e-02 -4.821372e+00 5.964306e+01
<VARIANCE> 13
 3.460513e+01 2.652173e+01 1.004415e+02 7.197719e+01 5.167163e+01 9.027934e+01 4.908189e+01 5.816366e+01 6.116534e+01 7.279688e+01 6.146358e+01 2.947091e+01 6.753639e+01
<GCONST> 7.612063e+01
~s "ST_ax_2_1"
<MEAN> 13
 2.304681e+00 -8.038704e+00 1.383433e+00 -7.413649e+00 -1.707906e+00 -8.078815e+00 -8.400329e+00 -1.626269e+00 -3.935092e+00 5.585648e+00 -3.175786e+00 -3.263958e+00 6.455077e+01
<VARIANCE> 13
 3.672038e+01 4.083229e+01 1.492589e+02 5.381250e+01 9.639032e+01 1.161251e+02 4.132459e+01 1.117520e+02 1.323424e+02 6.109401e+01 6.792422e+01 3.391474e+01 7.384927e+01
<GCONST> 7.899928e+01
~s "ST_ih_2_1"
<MEAN> 13
 -2.978082e+00 -2.276812e+00 1.966934e+01 -1.240004e+01 -6.755781e+00 -9.100243e+00 -1.275251e+00 -8.568963e+00 -1.246973e+01 2.973721e+00 -5.078506e+00 -8.029441e-01 6.441345e+01
<VARIANCE> 13
 1.798803e+01 6.936851e+01 1.271164e+02 1.047764e+02 6.572802e+01 7.689665e+01 8.988100e+01 4.252718e+01 7.058808e+01 5.009106e+01 9.511273e+01 3.590784e+01 4.082598e+01
<GCONST> 7.731113e+01
~s "ST_ih_2_2"
<MEAN> 13
 8.702845e+00 1.248210e+01 1.916762e+00 -5.964109e+00 -1.263482e+01 6.478805e+00 -2.307789e+00 -1.310356e+01 -1.858722e+01 -1.345420e+00 -4.307677e+00 -1.280549e+00 5.164764e+01
<VARIANCE> 13
 3.588587e+01 1.017295e+02 2.666622e+02 8.144263e+01 4.637868e+01 8.187316e+01 4.809893e+01 3.228778e+01 2.136926e+01 1.006576e+02 4.969434e+01 3.203803e+01 4.238080e+01
<GCONST> 7.646410e+01
~s "ST_ax_3_1"
<MEAN> 13
 3.306429e+00 -7.034616e+00 -9.885015e+00 -9.780736e+00 -3.761881e+00 7.495359e+00 -7.236568e+00 -1.051261e+01 -6.906244e+00 4.098230e+00 1.950669e+00 -6.720855e+00 6.032819e+01
<VARIANCE> 13
 5.966858e+01 9.255735e+01 6.790876e+01 1.161228e+02 1.065979e+02 1.221543e+02 6.351114e+01 7.221674e+01 1.445931e+02 7.880469e+01 5.854041e+01 5.602263e+01 8.262212e+01
<GCONST> 8.123773e+01
~s "ST_ax_3_2"
<MEAN> 13
 4.418003e+00 -1.383863e+01 -5.051854e+00 -9.669470e+00 -1.330975e+00 -5.555204e+00 -9.631760e+00 -7.378112e+00 1.605717e+00 9.515760e+00 -3.417371e+00 -8.308736e+00 7.107320e+01
<VARIANCE> 13
 1.043851e+01 2.187478e+01 2.594889e+01 5.202401e+01 7.496251e+01 6.989008e+01 5.990171e+01 7.664122e+01 1.293893e+02 8.654090e+01 5.344968e+01 4.532550e+01 9.147507e+00
<GCONST> 7.285636e+01
~s "ST_ih_3_1"
<MEAN> 13
 -2.219988e+00 -7.128056e+00 1.492825e+01 -7.329294e-01 -2.007385e+01 -9.292336e+00 -9.491842e+00 -6.780552e+00 -9.703805e+00 -3.815353e+00 8.880803e+00 -8.352870e+00 6.563112e+01
<VARIANCE> 13
 7.616101e+00 6.310266e+01 4.505169e+01 2.441261e+01 4.890511e+01 5.233247e+01 4.350232e+01 5.896225e+01 7.023656e+01 5.744782e+01 5.720492e+01 5.704247e+01 2.783974e+01
<GCONST> 7.248719e+01
~s "ST_ax_4_1"
<MEAN> 13
 1.712834e+00 -5.958162e+00 -4.981917e+00 -5.698470e+00 1.667135e+00 -6.081131e+00 -8.275857e+00 -8.487740e+00 1.318188e+00 4.825212e+00 -5.428750e+00 -4.892276e+00 6.499632e+01
<VARIANCE> 13
 3.969219e+01 5.981705e+01 4.830242e+01 5.748086e+01 1.459763e+02 1.283990e+02 4.976629e+01 9.375914e+01 1.360996e+02 5.804088e+01 6.418449e+01 7.561790e+01 5.877288e+01
<GCONST> 7.941610e+01
~s "ST_ih_4_1"
<MEAN> 13
 -1.236056e+00 1.152845e-01 8.374406e+00 -7.189978e-01 -9.333650e+00 -9.435019e+00 -3.808918e+00 -5.766154e+00 -6.714581e+00 -1.328315e+00 -2.335689e+00 -3.811238e+00 5.798238e+01
<VARIANCE> 13
 1.238334e+01 1.142685e+02 7.026982e+01 5.272206e+01 7.077395e+01 7.269953e+01 8.453233e+01 7.301712e+01 7.722617e+01 4.234452e+01 6.659697e+01 5.767617e+01 7.461037e+01
<GCONST> 7.729670e+01
~h "t+ah"
<BEGINHMM>
<NUMSTATES> 5
<STATE> 2
~s "ST_t_2_1"
<STATE> 3
~s "ST_t_3_1"
<STATE> 4
~s "ST_t_4_1"
~t "T_t"
<ENDHMM>
~h "t+ih"
<BEGINHMM>
<NUMSTATES> 5
<STATE> 2
~s "ST_t_2_1"
<STATE> 3
~s "ST_t_3_1"
<STATE> 4
~s "ST_t_4_2"
~t "T_t"
<ENDHMM>
~h "d-eh+l"
<BEGINHMM>
<NUMSTATES> 5
<STATE> 2
~s "ST_eh_2_1"
<STATE> 3
~s "ST_eh_3_1"
<STATE> 4
~s "ST_eh_4_1"
~t "T_eh"
<ENDHMM>
~h "t-uw"
<BEGINHMM>
<NUMSTATES> 5
<STATE> 2
~s "ST_uw_2_1"
<STATE> 3
~s "ST_uw_3_1"
<STATE> 4
~s "ST_uw_4_1"
~t "T_uw"
<ENDHMM>
~h "sp"
<BEGINHMM>
<NUMSTATES> 5
<STATE> 2
~s "ST_sil_3_1"
<STATE> 3
<MEAN> 13
 -3.792171e+00 -1.730222e+00 -3.576366e+00 9.006320e-01 3.589141e-01 -8.576825e-01 -3.513703e+00 -3.207904e+00 -2.643040e-01 -1.051290e+00 -3.231650e+00 -3.623841e+00 5.412167e+01
<VARIANCE> 13
 5.113960e+01 7.649279e+01 5.801465e+01 7.416670e+01 5.722842e+01 7.097174e+01 4.655568e+01 4.852824e+01 4.958884e+01 3.682291e+01 4.969213e+01 3.537782e+01 1.244517e+02
<GCONST> 7.636903e+01
<STATE> 4
<MEAN> 13
 -7.698308e+00 -7.836292e-01 -5.433972e+00 1.765873e+00 -8.678874e-01 -2.579996e-01 -4.090350e+00 -2.664805e+00 -6.150318e-01 -1.162241e+00 -2.508698e+00 -2.777400e+00 4.944068e+01
<VARIANCE> 13
 1.040350e+02 8.264371e+01 6.317430e+01 7.568333e+01 7.049872e+01 7.343448e+01 5.516302e+01 5.822592e+01 5.432891e+01 4.194054e+01 4.922548e+01 3.593357e+01 2.115710e+02
<GCONST> 7.861469e+01
<TRANSP> 5
 0.000000e+00 6.519106e-02 9.348090e-01 0.000000e+00 0.000000e+00
 0.000000e+00 8.793935e-01 1.206064e-01 0.000000e+00 0.000000e+00
 0.000000e+00 0.000000e+00 2.436989e-01 7.563010e-01 0.000000e+00
 0.000000e+00 0.000000e+00 0.000000e+00 2.371494e-01 7.628506e-01
 0.000000e+00 0.000000e+00 0.000000e+00 0.000000e+00 0.000000e+00
<ENDHMM>
~h "uh-k+s"
<BEGINHMM>
<NUMSTATES> 5
<STATE> 2
~s "ST_k_2_1"
<STATE> 3
~s "ST_k_3_1"
<STATE> 4
~s "ST_k_4_2"
~t "T_k"
<ENDHMM>
~h "l-uh+k"
<BEGINHMM>
<NUMSTATES> 5
<STATE> 2
~s "ST_uh_2_1"
<STATE> 3
~s "ST_uh_3_1"
<STATE> 4
~s "ST_uh_4_1"
~t "T_uh"
<ENDHMM>
~h "ax+m"
<BEGINHMM>
<NUMSTATES> 5
<STATE> 2
~s "ST_ax_2_1"
<STATE> 3
~s "ST_ax_3_1"
<STATE> 4
~s "ST_ax_4_1"
~t "T_ax"
<ENDHMM>
~h "uh-n+t"
<BEGINHMM>
<NUMSTATES> 5
<STATE> 2
~s "ST_n_2_1"
<STATE> 3
~s "ST_n_3_2"
<STATE> 4
~s "ST_n_4_2"
~t "T_n"
<ENDHMM>
~h "oh-r+ah"
<BEGINHMM>
<NUMSTATES> 5
<STATE> 2
~s "ST_r_2_1"
<STATE> 3
~s "ST_r_3_2"
<STATE> 4
~s "ST_r_4_2"
~t "T_r"
<ENDHMM>
~h "d+ax"
<BEGINHMM>
<NUMSTATES> 5
<STATE> 2
~s "ST_d_2_1"
<STATE> 3
~s "ST_d_3_1"
<STATE> 4
~s "ST_d_4_1"
~t "T_d"
<ENDHMM>
~h "d-ah"
<BEGINHMM>
<NUMSTATES> 5
<STATE> 2
~s "ST_ah_2_2"
<STATE> 3
~s "ST_ah_3_1"
<STATE> 4
~s "ST_ah_4_3"
~t "T_ah"
<ENDHMM>
~h "m-ih+s"
<BEGINHMM>
<NUMSTATES> 5
<STATE> 2
~s "ST_ih_2_1"
<STATE> 3
~s "ST_ih_3_1"
<STATE> 4
~s "ST_ih_4_1"
~t "T_ih"
<ENDHMM>
~h "k-ah+m"
<BEGINHMM>
<NUMSTATES> 5
<STATE> 2
~s "ST_ah_2_5"
<STATE> 3
~s "ST_ah_3_5"
<STATE> 4
~s "ST_ah_4_7"
~t "T_ah"
<ENDHMM>
~h "ax-n+ih"
<BEGINHMM>
<NUMSTATES> 5
<STATE> 2
~s "ST_n_2_1"
<STATE> 3
~s "ST_n_3_1"
<STATE> 4
~s "ST_n_4_1"
~t "T_n"
<ENDHMM>
~h "m-ah+l"
<BEGINHMM>
<NUMSTATES> 5
<STATE> 2
~s "ST_ah_2_1"
<STATE> 3
~s "ST_ah_3_6"
<STATE> 4
~s "ST_ah_4_5"
~t "T_ah"
<ENDHMM>
~h "m-ah+r"
<BEGINHMM>
<NUMSTATES> 5
<STATE> 2
~s "ST_ah_2_1"
<STATE> 3
~s "ST_ah_3_3"
<STATE> 4
~s "ST_ah_4_4"
~t "T_ah"
<ENDHMM>
~h "m-ah+t"
<BEGINHMM>
<NUMSTATES> 5
<STATE> 2
~s "ST_ah_2_1"
<STATE> 3
~s "ST_ah_3_4"
<STATE> 4
~s "ST_ah_4_1"
~t "T_ah"
<ENDHMM>
~h "m+ah"
<BEGINHMM>
<NUMSTATES> 5
<STATE> 2
~s "ST_m_2_2"
<STATE> 3
~s "ST_m_3_2"
<STATE> 4
~s "ST_m_4_2"
~t "T_m"
<ENDHMM>
~h "ah-p+ah"
<BEGINHMM>
<NUMSTATES> 5
<STATE> 2
~s "ST_p_2_2"
<STATE> 3
~s "ST_p_3_2"
<STATE> 4
~s "ST_p_4_1"
~t "T_p"
<ENDHMM>
~h "s-ah+b"
<BEGINHMM>
<NUMSTATES> 5
<STATE> 2
~s "ST_ah_2_5"
<STATE> 3
~s "ST_ah_3_4"
<STATE> 4
~s "ST_ah_4_1"
~t "T_ah"
<ENDHMM>
~h "s-ah+n"
<BEGINHMM>
<NUMSTATES> 5
<STATE> 2
~s "ST_ah_2_6"
<STATE> 3
~s "ST_ah_3_2"
<STATE> 4
~s "ST_ah_4_3"
~t "T_ah"
<ENDHMM>
~h "s-ah+t"
<BEGINHMM>
<NUMSTATES> 5
<STATE> 2
~s "ST_ah_2_6"
<STATE> 3
~s "ST_ah_3_4"
<STATE> 4
~s "ST_ah_4_1"
~t "T_ah"
<ENDHMM>
~h "hh-ah+r"
<BEGINHMM>
<NUMSTATES> 5
<STATE> 2
~s "ST_ah_2_8"
<STATE> 3
~s "ST_ah_3_8"
<STATE> 4
~s "ST_ah_4_3"
~t "T_ah"
<ENDHMM>
~h "s-ax+l"
<BEGINHMM>
<NUMSTATES> 5
<STATE> 2
~s "ST_ax_2_1"
<STATE> 3
~s "ST_ax_3_2"
<STATE> 4
~s "ST_ax_4_1"
~t "T_ax"
<ENDHMM>
~h "w-iy+t"
<BEGINHMM>
<NUMSTATES> 5
<STATE> 2
~s "ST_iy_2_1"
<STATE> 3
~s "ST_iy_3_1"
<STATE> 4
~s "ST_iy_4_1"
~t "T_iy"
<ENDHMM>
~h "ng-g+uw"
<BEGINHMM>
<NUMSTATES> 5
<STATE> 2
~s "ST_g_2_1"
<STATE> 3
~s "ST_g_3_1"
<STATE> 4
~s "ST_g_4_1"
~t "T_g"
<ENDHMM>
~h "uh+n"
<BEGINHMM>
<NUMSTATES> 5
<STATE> 2
~s "ST_uh_2_2"
<STATE> 3
~s "ST_uh_3_1"
<STATE> 4
~s "ST_uh_4_1"
~t "T_uh"
<ENDHMM>
~h "uh-k"
<BEGINHMM>
<NUMSTATES> 5
<STATE> 2
~s "ST_k_2_1"
<STATE> 3
~s "ST_k_3_1"
<STATE> 4
~s "ST_k_4_1"
~t "T_k"
<ENDHMM>
~h "ax-ng+ah"
<BEGINHMM>
<NUMSTATES> 5
<STATE> 2
~s "ST_ng_2_1"
<STATE> 3
~s "ST_ng_3_1"
<STATE> 4
~s "ST_ng_4_2"
~t "T_ng"
<ENDHMM>
~h "ah-r+ah"
<BEGINHMM>
<NUMSTATES> 5
<STATE> 2
~s "ST_r_2_2"
<STATE> 3
~s "ST_r_3_2"
<STATE> 4
~s "ST_r_4_2"
~t "T_r"
<ENDHMM>
~h "r-ah+ng"
<BEGINHMM>
<NUMSTATES> 5
<STATE> 2
~s "ST_ah_2_1"
<STATE> 3
~s "ST_ah_3_1"
<STATE> 4
~s "ST_ah_4_6"
~t "T_ah"
<ENDHMM>
~h "k-s"
<BEGINHMM>
<NUMSTATES> 5
<STATE> 2
~s "ST_s_2_1"
<STATE> 3
~s "ST_s_3_1"
<STATE> 4
~s "ST_s_4_1"
~t "T_s"
<ENDHMM>
~h "d-uw+ah"
<BEGINHMM>
<NUMSTATES> 5
<STATE> 2
~s "ST_uw_2_2"
<STATE> 3
~s "ST_uw_3_1"
<STATE> 4
~s "ST_uw_4_2"
~t "T_uw"
<ENDHMM>
~h "sil"
<BEGINHMM>
<NUMSTATES> 5
<STATE> 2
<MEAN> 13
 -1.447757e+01 5.656871e+00 -7.702101e+00 8.890017e+00 -2.174176e+00 5.463149e+00 -6.223943e+00 -1.906411e+00 -2.462812e+00 -5.825211e+00 -3.554220e+00 -3.777971e+00 3.335299e+01
<VARIANCE> 13
 2.521236e+01 3.397276e+01 4.804210e+01 3.632859e+01 3.975831e+01 4.652201e+01 5.059465e+01 4.802893e+01 3.835008e+01 3.276022e+01 3.306562e+01 2.500374e+01 4.547713e+01
<GCONST> 7.109907e+01
<STATE> 3
~s "silst"
<STATE> 4
<MEAN> 13
 -2.564732e+01 2.818664e+00 -1.002869e+01 4.556375e+00 -7.420553e+00 5.256192e+00 -3.409570e+00 1.470337e+00 1.562858e+00 -1.047106e+00 1.283376e+00 -4.346437e-01 2.405343e+01
<VARIANCE> 13
 1.497969e+01 3.102621e+00 5.980431e+00 5.529724e+00 1.047442e+01 8.402753e+00 1.040696e+01 1.112389e+01 1.145158e+01 1.026266e+01 9.521167e+00 8.113072e+00 2.689372e+01
<GCONST> 5.286457e+01
<TRANSP> 5
 0.000000e+00 1.000000e+00 0.000000e+00 0.000000e+00 0.000000e+00
 0.000000e+00 8.558109e-01 3.891733e-02 1.052717e-01 0.000000e+00
 0.000000e+00 0.000000e+00 9.536378e-01 4.636223e-02 0.000000e+00
 0.000000e+00 7.356317e-03 0.000000e+00 9.213752e-01 7.126853e-02
 0.000000e+00 0.000000e+00 0.000000e+00 0.000000e+00 0.000000e+00
<ENDHMM>
~h "g-ah"
<BEGINHMM>
<NUMSTATES> 5
<STATE> 2
~s "ST_ah_2_2"
<STATE> 3
~s "ST_ah_3_1"
<STATE> 4
~s "ST_ah_4_1"
~t "T_ah"
<ENDHMM>
~h "ah-b+uw"
<BEGINHMM>
<NUMSTATES> 5
<STATE> 2
~s "ST_b_2_1"
<STATE> 3
~s "ST_b_3_1"
<STATE> 4
~s "ST_b_4_1"
~t "T_b"
<ENDHMM>
~h "p+ah"
<BEGINHMM>
<NUMSTATES> 5
<STATE> 2
~s "ST_p_2_1"
<STATE> 3
~s "ST_p_3_1"
<STATE> 4
~s "ST_p_4_1"
~t "T_p"
<ENDHMM>
~h "p+ax"
<BEGINHMM>
<NUMSTATES> 5
<STATE> 2
~s "ST_p_2_2"
<STATE> 3
~s "ST_p_3_1"
<STATE> 4
~s "ST_p_4_1"
~t "T_p"
<ENDHMM>
~h "p-ah"
<BEGINHMM>
<NUMSTATES> 5
<STATE> 2
~s "ST_ah_2_5"
<STATE> 3
~s "ST_ah_3_7"
<STATE> 4
~s "ST_ah_4_1"
~t "T_ah"
<ENDHMM>
~h "d-ah+r"
<BEGINHMM>
<NUMSTATES> 5
<STATE> 2
~s "ST_ah_2_2"
<STATE> 3
~s "ST_ah_3_2"
<STATE> 4
~s "ST_ah_4_3"
~t "T_ah"
<ENDHMM>
~h "uw-ah"
<BEGINHMM>
<NUMSTATES> 5
<STATE> 2
~s "ST_ah_2_3"
<STATE> 3
~s "ST_ah_3_6"
<STATE> 4
~s "ST_ah_4_1"
~t "T_ah"
<ENDHMM>
~h "s-w+iy"
<BEGINHMM>
<NUMSTATES> 5
<STATE> 2
~s "ST_w_2_1"
<STATE> 3
~s "ST_w_3_1"
<STATE> 4
~s "ST_w_4_1"
~t "T_w"
<ENDHMM>
~h "oh+r"
<BEGINHMM>
<NUMSTATES> 5
<STATE> 2
~s "ST_oh_2_1"
<STATE> 3
~s "ST_oh_3_1"
<STATE> 4
~s "ST_oh_4_1"
~t "T_oh"
<ENDHMM>
~h "oh-r"
<BEGINHMM>
<NUMSTATES> 5
<STATE> 2
~s "ST_r_2_1"
<STATE> 3
~s "ST_r_3_1"
<STATE> 4
~s "ST_r_4_1"
~t "T_r"
<ENDHMM>
~h "l-ah+s"
<BEGINHMM>
<NUMSTATES> 5
<STATE> 2
~s "ST_ah_2_1"
<STATE> 3
~s "ST_ah_3_2"
<STATE> 4
~s "ST_ah_4_3"
~t "T_ah"
<ENDHMM>
~h "ah-t+uw"
<BEGINHMM>
<NUMSTATES> 5
<STATE> 2
~s "ST_t_2_2"
<STATE> 3
~s "ST_t_3_1"
<STATE> 4
~s "ST_t_4_2"
~t "T_t"
<ENDHMM>
~h "ah-l+ah"
<BEGINHMM>
<NUMSTATES> 5
<STATE> 2
~s "ST_l_2_1"
<STATE> 3
~s "ST_l_3_1"
<STATE> 4
~s "ST_l_4_1"
~t "T_l"
<ENDHMM>
~h "p-ah+d"
<BEGINHMM>
<NUMSTATES> 5
<STATE> 2
~s "ST_ah_2_7"
<STATE> 3
~s "ST_ah_3_4"
<STATE> 4
~s "ST_ah_4_1"
~t "T_ah"
<ENDHMM>
~h "p-ah+n"
<BEGINHMM>
<NUMSTATES> 5
<STATE> 2
~s "ST_ah_2_7"
<STATE> 3
~s "ST_ah_3_3"
<STATE> 4
~s "ST_ah_4_3"
~t "T_ah"
<ENDHMM>
~h "n-t+uh"
<BEGINHMM>
<NUMSTATES> 5
<STATE> 2
~s "ST_t_2_1"
<STATE> 3
~s "ST_t_3_2"
<STATE> 4
~s "ST_t_4_2"
~t "T_t"
<ENDHMM>
~h "ah-d+ah"
<BEGINHMM>
<NUMSTATES> 5
<STATE> 2
~s "ST_d_2_2"
<STATE> 3
~s "ST_d_3_1"
<STATE> 4
~s "ST_d_4_2"
~t "T_d"
<ENDHMM>
~h "ax-s+ah"
<BEGINHMM>
<NUMSTATES> 5
<STATE> 2
~s "ST_s_2_2"
<STATE> 3
~s "ST_s_3_1"
<STATE> 4
~s "ST_s_4_1"
~t "T_s"
<ENDHMM>
~h "hh+ah"
<BEGINHMM>
<NUMSTATES> 5
<STATE> 2
~s "ST_hh_2_1"
<STATE> 3
~s "ST_hh_3_1"
<STATE> 4
~s "ST_hh_4_1"
~t "T_hh"
<ENDHMM>
~h "ah-n+d"
<BEGINHMM>
<NUMSTATES> 5
<STATE> 2
~s "ST_n_2_2"
<STATE> 3
~s "ST_n_3_1"
<STATE> 4
~s "ST_n_4_1"
~t "T_n"
<ENDHMM>
~h "m-ih+ng"
<BEGINHMM>
<NUMSTATES> 5
<STATE> 2
~s "ST_ih_2_2"
<STATE> 3
~s "ST_ih_3_1"
<STATE> 4
~s "ST_ih_4_1"
~t "T_ih"
<ENDHMM>
~h "j+uh"
<BEGINHMM>
<NUMSTATES> 5
<STATE> 2
~s "ST_j_2_1"
<STATE> 3
~s "ST_j_3_1"
<STATE> 4
~s "ST_j_4_1"
~t "T_j"
<ENDHMM>
~h "ah-m+ah"
<BEGINHMM>
<NUMSTATES> 5
<STATE> 2
~s "ST_m_2_3"
<STATE> 3
~s "ST_m_3_2"
<STATE> 4
~s "ST_m_4_2"
~t "T_m"
<ENDHMM>
~h "s-ah"
<BEGINHMM>
<NUMSTATES> 5
<STATE> 2
~s "ST_ah_2_5"
<STATE> 3
~s "ST_ah_3_1"
<STATE> 4
~s "ST_ah_4_1"
~t "T_ah"
<ENDHMM>
~h "ah-ng"
<BEGINHMM>
<NUMSTATES> 5
<STATE> 2
~s "ST_ng_2_1"
<STATE> 3
~s "ST_ng_3_1"
<STATE> 4
~s "ST_ng_4_1"
~t "T_ng"
<ENDHMM>
~h "ay-ah"
<BEGINHMM>
<NUMSTATES> 5
<STATE> 2
~s "ST_ah_2_4"
<STATE> 3
~s "ST_ah_3_7"
<STATE> 4
~s "ST_ah_4_2"
~t "T_ah"
<ENDHMM>
~h "s-ay+ah"
<BEGINHMM>
<NUMSTATES> 5
<STATE> 2
~s "ST_ay_2_1"
<STATE> 3
~s "ST_ay_3_1"
<STATE> 4
~s "ST_ay_4_1"
~t "T_ay"
<ENDHMM>
~h "ah-m"
<BEGINHMM>
<NUMSTATES> 5
<STATE> 2
~s "ST_m_2_1"
<STATE> 3
~s "ST_m_3_1"
<STATE> 4
~s "ST_m_4_1"
~t "T_m"
<ENDHMM>
~h "ah-r"
<BEGINHMM>
<NUMSTATES> 5
<STATE> 2
~s "ST_r_2_2"
<STATE> 3
~s "ST_r_3_1"
<STATE> 4
~s "ST_r_4_1"
~t "T_r"
<ENDHMM>
~h "ah-t"
<BEGINHMM>
<NUMSTATES> 5
<STATE> 2
~s "ST_t_2_2"
<STATE> 3
~s "ST_t_3_1"
<STATE> 4
~s "ST_t_4_1"
~t "T_t"
<ENDHMM>
