~o
<STREAMINFO> 1 13
<VECSIZE> 13<NULLD><MFCC_0><DIAGC>
~h "b"
<BEGINHMM>
<NUMSTATES> 5
<STATE> 2
<MEAN> 13
 1.764543e+00 4.047084e+00 -7.844364e+00 -2.088744e+00 -2.912039e+00 4.314546e+00 -9.311274e+00 -3.701824e+00 -4.925565e+00 -3.353664e+00 -4.531199e+00 -3.925696e+00 4.858991e+01
<VARIANCE> 13
 9.455531e+01 1.471534e+02 3.572064e+01 8.734612e+01 8.436192e+01 9.805648e+01 6.060276e+01 4.477030e+01 5.786577e+01 5.080917e+01 3.120859e+01 4.697412e+01 9.285466e+01
<GCONST> 7.821275e+01
<STATE> 3
<MEAN> 13
 -2.352881e+00 2.508605e+00 -8.756140e+00 -1.023738e+00 -4.109749e+00 2.802131e+00 -5.471433e+00 -4.148537e+00 -4.008481e+00 -4.277216e+00 -3.190064e+00 -3.921787e+00 4.765511e+01
<VARIANCE> 13
 7.043931e+01 8.342458e+01 3.680323e+01 5.799202e+01 5.600535e+01 5.535904e+01 4.736562e+01 3.358760e+01 5.122014e+01 4.420505e+01 2.849283e+01 3.542147e+01 1.185093e+02
<GCONST> 7.506528e+01
<STATE> 4
<MEAN> 13
 -1.224854e+01 5.477452e+00 -7.474584e+00 5.082375e+00 -4.124360e+00 3.374253e+00 -6.450075e+00 -1.922846e+00 -2.933563e+00 -6.078206e+00 -3.692312e+00 -5.883333e+00 3.627883e+01
<VARIANCE> 13
 6.525406e+01 2.991538e+01 2.292045e+01 4.016724e+01 3.024427e+01 3.498421e+01 4.265440e+01 3.567699e+01 2.912605e+01 3.371261e+01 3.880582e+01 3.137613e+01 1.233178e+02
<GCONST> 7.139487e+01
<TRANSP> 5
 0.000000e+00 1.000000e+00 0.000000e+00 0.000000e+00 0.000000e+00
 0.000000e+00 8.546720e-01 1.453279e-01 0.000000e+00 0.000000e+00
 0.000000e+00 0.000000e+00 6.832339e-01 3.167661e-01 0.000000e+00
 0.000000e+00 0.000000e+00 0.000000e+00 8.979809e-01 1.020191e-01
 0.000000e+00 0.000000e+00 0.000000e+00 0.000000e+00 0.000000e+00
<ENDHMM>
~h "d"
<BEGINHMM>
<NUMSTATES> 5
<STATE> 2
<MEAN> 13
 -1.461973e-01 -6.765747e+00 -6.655800e+00 -1.393781e+00 6.264359e-01 7.846645e-01 -5.982912e+00 -7.918536e+00 -1.155498e+00 6.825649e-01 -7.020582e+00 -7.119694e+00 5.967210e+01
<VARIANCE> 13
 5.501217e+01 2.040655e+02 6.998316e+01 1.515593e+02 6.437701e+01 6.631696e+01 7.204831e+01 6.981845e+01 7.608455e+01 8.452441e+01 6.288619e+01 3.470341e+01 2.521652e+02
<GCONST> 8.135720e+01
<STATE> 3
<MEAN> 13
 2.894206e+00 -1.129209e+01 -6.092045e+00 -5.637997e+00 -1.286440e+00 -1.503717e+00 -6.318185e+00 -7.267668e+00 1.039281e+00 3.603906e+00 -8.202188e+00 -7.347018e+00 6.626128e+01
<VARIANCE> 13
 2.810276e+01 1.291577e+02 4.913184e+01 1.062457e+02 7.302354e+01 6.209563e+01 8.101243e+01 9.366082e+01 7.558245e+01 7.474386e+01 6.917351e+01 3.908202e+01 1.155756e+02
<GCONST> 7.929480e+01
<STATE> 4
<MEAN> 13
 4.081721e+00 -1.335920e+01 -5.067071e+00 -9.371772e+00 -1.118710e+00 -3.906085e+00 -4.560150e+00 -6.610088e+00 -7.880799e-02 6.896446e+00 -1.055214e+01 -6.676578e+00 6.910498e+01
<VARIANCE> 13
 2.292438e+01 6.495567e+01 3.570428e+01 8.071513e+01 8.210526e+01 7.153227e+01 7.555520e+01 1.059379e+02 6.843330e+01 7.062015e+01 5.652431e+01 4.761639e+01 5.025959e+01
<GCONST> 7.712859e+01
<TRANSP> 5
 0.000000e+00 1.000000e+00 0.000000e+00 0.000000e+00 0.000000e+00
 0.000000e+00 4.653201e-01 5.346799e-01 0.000000e+00 0.000000e+00
 0.000000e+00 0.000000e+00 4.666310e-01 5.333689e-01 0.000000e+00
 0.000000e+00 0.000000e+00 0.000000e+00 8.321150e-01 1.678851e-01
 0.000000e+00 0.000000e+00 0.000000e+00 0.000000e+00 0.000000e+00
<ENDHMM>
~h "g"
<BEGINHMM>
<NUMSTATES> 5
<STATE> 2
<MEAN> 13
 -3.319467e+00 -3.070193e+00 1.516334e+01 -3.986205e+00 -1.435407e+01 -1.000664e+01 -6.557894e+00 -1.003811e+01 -1.168020e+01 -1.358586e+00 4.850126e+00 -7.895719e+00 6.367570e+01
<VARIANCE> 13
 1.634801e+01 6.774656e+01 9.507799e+01 8.435989e+01 8.886870e+01 5.774897e+01 5.449146e+01 4.753071e+01 8.704309e+01 3.529888e+01 1.024320e+02 5.732000e+01 7.060515e+01
<GCONST> 7.725997e+01
<STATE> 3
<MEAN> 13
 -1.809397e+00 -5.622269e+00 8.813835e+00 -4.098884e+00 -1.087323e+01 -1.029697e+01 -6.075222e+00 -5.448239e+00 -6.480968e+00 -1.205138e+00 4.058028e-01 -8.549313e+00 6.465850e+01
<VARIANCE> 13
 2.328525e+01 1.407155e+02 1.453004e+02 9.468601e+01 7.862515e+01 8.931183e+01 5.335056e+01 6.652576e+01 7.864380e+01 3.249049e+01 9.682369e+01 6.791561e+01 1.112199e+02
<GCONST> 7.989618e+01
<STATE> 4
<MEAN> 13
 1.257497e+00 -1.603531e+01 -5.151182e+00 -7.581244e+00 -8.380002e+00 -6.936588e+00 -7.875834e+00 -1.063477e+00 -1.515671e+00 8.216910e-01 -2.303305e+00 -1.348223e+01 7.160741e+01
<VARIANCE> 13
 1.904503e+01 9.635060e+01 1.022163e+02 4.863010e+01 4.871613e+01 1.052500e+02 5.369643e+01 7.877210e+01 1.139092e+02 3.219210e+01 7.238468e+01 1.112361e+02 8.347395e+01
<GCONST> 7.843610e+01
<TRANSP> 5
 0.000000e+00 1.000000e+00 0.000000e+00 0.000000e+00 0.000000e+00
 0.000000e+00 8.709615e-01 1.290386e-01 0.000000e+00 0.000000e+00
 0.000000e+00 0.000000e+00 7.658418e-01 2.341582e-01 0.000000e+00
 0.000000e+00 0.000000e+00 0.000000e+00 8.477592e-01 1.522408e-01
 0.000000e+00 0.000000e+00 0.000000e+00 0.000000e+00 0.000000e+00
<ENDHMM>
~h "j"
<BEGINHMM>
<NUMSTATES> 5
<STATE> 2
<MEAN> 13
 -1.759990e+00 2.126551e+00 1.670503e+01 -1.901479e+00 -1.150334e+01 -4.034503e+00 -9.900535e+00 -9.097281e+00 -1.353058e+01 1.866043e+00 4.465441e+00 -6.508874e+00 5.930713e+01
<VARIANCE> 13
 3.324416e+01 1.659674e+02 2.238503e+02 9.317365e+01 9.152444e+01 5.095969e+01 5.325455e+01 7.268819e+01 6.179987e+01 5.383538e+01 5.878212e+01 4.717841e+01 8.682269e+01
<GCONST> 7.966389e+01
<STATE> 3
<MEAN> 13
 6.395078e-01 -2.531186e+00 4.632732e+00 2.555322e+00 -9.597500e+00 -4.751003e+00 -1.053192e+01 -1.155144e+01 -7.762494e+00 -1.481430e+00 4.574711e+00 -5.104424e+00 6.065247e+01
<VARIANCE> 13
 4.499801e+01 1.202824e+02 1.486855e+02 4.699938e+01 6.237653e+01 8.536100e+01 1.040351e+02 9.806357e+01 4.564144e+01 5.197580e+01 7.319164e+01 4.676035e+01 7.851386e+01
<GCONST> 7.942425e+01
<STATE> 4
<MEAN> 13
 2.719531e+00 2.461878e+00 -3.641957e+00 1.333297e+00 -5.858673e+00 6.750873e-01 -1.292075e+01 -1.340956e+01 -6.902102e+00 -2.859953e+00 1.746001e+00 -3.713997e+00 5.403028e+01
<VARIANCE> 13
 5.435069e+01 1.891496e+02 7.581857e+01 4.185409e+01 3.573008e+01 9.405641e+01 1.024305e+02 7.008811e+01 5.269741e+01 3.322794e+01 1.206008e+02 3.048142e+01 1.042960e+02
<GCONST> 7.851655e+01
<TRANSP> 5
 0.000000e+00 1.000000e+00 0.000000e+00 0.000000e+00 0.000000e+00
 0.000000e+00 9.208656e-01 7.913442e-02 0.000000e+00 0.000000e+00
 0.000000e+00 0.000000e+00 8.285608e-01 1.714392e-01 0.000000e+00
 0.000000e+00 0.000000e+00 0.000000e+00 8.562599e-01 1.437401e-01
 0.000000e+00 0.000000e+00 0.000000e+00 0.000000e+00 0.000000e+00
<ENDHMM>
~h "k"
<BEGINHMM>
<NUMSTATES> 5
<STATE> 2
<MEAN> 13
 -3.317167e+00 -2.380368e+00 -5.546104e+00 -3.149855e+00 -1.417464e+00 2.946945e+00 -6.814008e+00 -8.291653e+00 -2.990266e+00 1.018349e+00 6.465975e-01 -3.604724e+00 5.460730e+01
<VARIANCE> 13
 8.253099e+01 1.013493e+02 6.843483e+01 1.286779e+02 8.754727e+01 8.623332e+01 6.807797e+01 8.668575e+01 7.833554e+01 5.727019e+01 4.933703e+01 3.693981e+01 1.685069e+02
<GCONST> 8.066325e+01
<STATE> 3
<MEAN> 13
 -3.203966e+00 -3.513641e+00 -6.659842e+00 -3.584106e+00 -6.871402e-04 2.813471e+00 -6.340765e+00 -7.810678e+00 -2.782590e+00 1.037627e+00 1.114769e+00 -4.051975e+00 5.575885e+01
<VARIANCE> 13
 8.025360e+01 1.097816e+02 7.591620e+01 1.380697e+02 1.113187e+02 9.640293e+01 7.079223e+01 9.016721e+01 8.686917e+01 6.372794e+01 5.212353e+01 4.294228e+01 1.628440e+02
<GCONST> 8.170113e+01
<STATE> 4
<MEAN> 13
 -3.580304e+00 -3.800406e+00 -7.407719e+00 -2.320011e+00 1.715100e+00 3.885390e+00 -4.872703e+00 -6.691007e+00 -2.805758e+00 1.961654e+00 1.291927e+00 -4.633385e+00 5.469136e+01
<VARIANCE> 13
 9.836330e+01 1.279548e+02 8.402859e+01 1.864553e+02 1.351919e+02 1.331077e+02 7.428783e+01 1.038284e+02 9.918574e+01 8.155104e+01 6.263026e+01 5.284641e+01 2.133045e+02
<GCONST> 8.420622e+01
<TRANSP> 5
 0.000000e+00 1.000000e+00 0.000000e+00 0.000000e+00 0.000000e+00
 0.000000e+00 5.276552e-01 4.723448e-01 0.000000e+00 0.000000e+00
 0.000000e+00 0.000000e+00 4.912379e-01 5.087621e-01 0.000000e+00
 0.000000e+00 0.000000e+00 0.000000e+00 6.153435e-01 3.846565e-01
 0.000000e+00 0.000000e+00 0.000000e+00 0.000000e+00 0.000000e+00
<ENDHMM>
~h "l"
<BEGINHMM>
<NUMSTATES> 5
<STATE> 2
<MEAN> 13
 3.555729e+00 -1.641348e+01 -9.932966e+00 -1.418285e+01 3.815178e+00 3.211114e+00 -7.946925e+00 -4.948205e+00 3.945155e+00 3.447653e+00 -9.728653e+00 -8.480868e+00 7.138875e+01
<VARIANCE> 13
 8.814960e+00 5.800095e+01 3.355991e+01 4.277373e+01 1.169558e+02 8.536592e+01 3.633004e+01 4.447649e+01 8.717630e+01 3.549000e+01 9.768995e+01 1.017132e+02 2.932018e+01
<GCONST> 7.461433e+01
<STATE> 3
<MEAN> 13
 2.569094e+00 -1.165473e+01 -8.499413e+00 -1.030247e+01 2.760976e+00 4.611092e+00 -6.027044e+00 -6.034039e+00 1.765544e+00 2.970505e+00 -7.671835e+00 -7.615027e+00 6.565383e+01
<VARIANCE> 13
 2.067880e+01 1.002648e+02 3.756442e+01 6.293283e+01 8.279373e+01 8.770885e+01 4.048214e+01 4.088233e+01 7.728673e+01 3.745254e+01 7.304964e+01 7.198515e+01 8.056969e+01
<GCONST> 7.652670e+01
<STATE> 4
<MEAN> 13
 -7.683993e-03 1.318937e+00 -3.354116e+00 1.755326e+00 4.529852e+00 7.170021e+00 -6.789004e+00 -6.668019e+00 -8.425333e-02 9.070396e-01 -4.780150e+00 -4.456104e+00 5.301754e+01
<VARIANCE> 13
 3.952972e+01 2.230692e+02 5.443657e+01 1.863337e+02 6.038787e+01 7.413706e+01 5.931353e+01 4.992627e+01 3.993928e+01 3.243785e+01 5.216310e+01 4.743116e+01 1.907289e+02
<GCONST> 7.883279e+01
<TRANSP> 5
 0.000000e+00 1.000000e+00 0.000000e+00 0.000000e+00 0.000000e+00
 0.000000e+00 9.205276e-01 7.947247e-02 0.000000e+00 0.000000e+00
 0.000000e+00 0.000000e+00 6.313948e-01 3.686051e-01 0.000000e+00
 0.000000e+00 0.000000e+00 0.000000e+00 6.782176e-01 3.217824e-01
 0.000000e+00 0.000000e+00 0.000000e+00 0.000000e+00 0.000000e+00
<ENDHMM>
~h "m"
<BEGINHMM>
<NUMSTATES> 5
<STATE> 2
<MEAN> 13
 3.192688e+00 -8.128487e+00 -8.035861e+00 -3.847848e+00 1.141468e+00 2.218062e+00 -4.172241e+00 -9.893468e+00 -7.328566e+00 1.263475e+00 -3.605324e+00 -6.275896e+00 6.110142e+01
<VARIANCE> 13
 3.535073e+01 1.428492e+02 6.188557e+01 7.913442e+01 9.851004e+01 8.486993e+01 5.063553e+01 6.880805e+01 1.371608e+02 5.502100e+01 5.381120e+01 6.131448e+01 1.126637e+02
<GCONST> 7.985797e+01
<STATE> 3
<MEAN> 13
 2.538817e+00 -6.683741e+00 -6.977953e+00 -1.186157e+00 1.216115e+00 2.824286e+00 -4.340322e+00 -1.042533e+01 -6.727809e+00 -7.539243e-02 -4.254427e+00 -5.041038e+00 5.926839e+01
<VARIANCE> 13
 4.142262e+01 1.521717e+02 6.334405e+01 8.409677e+01 9.989589e+01 8.164435e+01 4.440748e+01 7.188889e+01 1.329992e+02 4.970565e+01 5.012333e+01 5.926322e+01 1.245434e+02
<GCONST> 7.991441e+01
<STATE> 4
<MEAN> 13
 -2.595917e+00 -2.858374e+00 -7.553135e+00 2.829070e+00 1.596215e+00 4.911676e+00 -5.124041e+00 -7.075257e+00 -3.956471e+00 -3.583279e+00 -5.149013e+00 -3.972567e+00 5.097584e+01
<VARIANCE> 13
 7.766247e+01 1.708870e+02 6.275327e+01 1.315429e+02 9.534419e+01 7.406153e+01 4.438490e+01 9.702151e+01 1.162254e+02 5.553134e+01 4.789766e+01 4.588047e+01 2.277657e+02
<GCONST> 8.153044e+01
<TRANSP> 5
 0.000000e+00 1.000000e+00 0.000000e+00 0.000000e+00 0.000000e+00
 0.000000e+00 6.681449e-01 3.318551e-01 0.000000e+00 0.000000e+00
 0.000000e+00 0.000000e+00 6.357908e-01 3.642092e-01 0.000000e+00
 0.000000e+00 0.000000e+00 0.000000e+00 7.933234e-01 2.066766e-01
 0.000000e+00 0.000000e+00 0.000000e+00 0.000000e+00 0.000000e+00
<ENDHMM>
~h "n"
<BEGINHMM>
<NUMSTATES> 5
<STATE> 2
<MEAN> 13
 -3.862123e+00 1.796117e+00 -4.981812e+00 4.021168e+00 -2.046340e+00 -1.018312e+00 -5.580523e+00 -3.888993e+00 -5.686375e-01 -3.864345e+00 -6.196228e+00 -3.855665e+00 4.995230e+01
<VARIANCE> 13
 6.498132e+01 6.108790e+01 4.690078e+01 7.863676e+01 5.120770e+01 6.698721e+01 3.304354e+01 3.919918e+01 3.143481e+01 3.496646e+01 4.437818e+01 4.857953e+01 1.622447e+02
<GCONST> 7.546592e+01
<STATE> 3
<MEAN> 13
 -3.558976e+00 3.124807e+00 -3.965527e+00 3.748200e+00 -2.047350e+00 -3.668028e-01 -6.037259e+00 -4.550927e+00 -7.110827e-01 -4.431578e+00 -5.478434e+00 -3.029446e+00 5.007727e+01
<VARIANCE> 13
 7.423403e+01 7.364275e+01 4.829441e+01 1.132116e+02 5.497648e+01 7.003150e+01 3.957617e+01 4.443253e+01 3.533252e+01 3.717894e+01 4.973738e+01 5.779562e+01 1.644475e+02
<GCONST> 7.708028e+01
<STATE> 4
<MEAN> 13
 -6.277623e+00 7.716712e+00 -2.846758e+00 6.657621e+00 -2.063555e+00 3.066336e+00 -7.504935e+00 -4.715201e+00 -1.943081e+00 -4.939818e+00 -4.899658e+00 -2.347486e+00 4.259085e+01
<VARIANCE> 13
 9.458693e+01 1.164297e+02 6.496580e+01 1.210498e+02 6.138083e+01 6.977586e+01 4.726859e+01 6.001746e+01 4.559915e+01 4.261965e+01 4.547469e+01 5.368661e+01 1.784617e+02
<GCONST> 7.903903e+01
<TRANSP> 5
 0.000000e+00 1.000000e+00 0.000000e+00 0.000000e+00 0.000000e+00
 0.000000e+00 5.588110e-01 4.411890e-01 0.000000e+00 0.000000e+00
 0.000000e+00 0.000000e+00 4.847324e-01 5.152676e-01 0.000000e+00
 0.000000e+00 0.000000e+00 0.000000e+00 7.428206e-01 2.571794e-01
 0.000000e+00 0.000000e+00 0.000000e+00 0.000000e+00 0.000000e+00
<ENDHMM>
~h "p"
<BEGINHMM>
<NUMSTATES> 5
<STATE> 2
<MEAN> 13
 -7.884351e+00 -3.107923e-01 -7.698698e+00 2.099309e+00 -1.444483e+00 9.662626e-01 -4.860724e+00 -4.084351e+00 -2.268498e+00 -2.705371e+00 -2.619557e+00 -3.955471e+00 4.722345e+01
<VARIANCE> 13
 6.161200e+01 8.070441e+01 4.736519e+01 5.316616e+01 5.509834e+01 4.887055e+01 5.076854e+01 4.313379e+01 4.939914e+01 4.302795e+01 3.722814e+01 2.580353e+01 2.162907e+02
<GCONST> 7.573122e+01
<STATE> 3
<MEAN> 13
 -6.152143e+00 -1.998162e+00 -7.564081e+00 4.725426e-01 -1.426221e+00 9.178745e-01 -3.550151e+00 -3.739025e+00 -1.386893e+00 -1.150641e+00 -1.850130e+00 -4.247159e+00 5.066452e+01
<VARIANCE> 13
 7.143056e+01 9.062166e+01 4.993439e+01 6.861683e+01 5.395439e+01 4.881520e+01 4.929472e+01 4.487325e+01 4.749145e+01 4.433671e+01 3.785745e+01 2.768143e+01 2.327536e+02
<GCONST> 7.644185e+01
<STATE> 4
<MEAN> 13
 -4.751488e+00 -4.060774e+00 -8.615443e+00 -1.443629e+00 -1.444153e+00 1.116870e+00 -4.153186e+00 -4.762438e+00 -2.129329e+00 1.552842e-01 -2.092604e+00 -5.163954e+00 5.286686e+01
<VARIANCE> 13
 9.127041e+01 1.091483e+02 5.819519e+01 1.055531e+02 6.006534e+01 5.658552e+01 5.413185e+01 5.506147e+01 5.924384e+01 6.345663e+01 4.329068e+01 3.333224e+01 2.663264e+02
<GCONST> 7.904422e+01
<TRANSP> 5
 0.000000e+00 1.000000e+00 0.000000e+00 0.000000e+00 0.000000e+00
 0.000000e+00 5.880458e-01 4.119542e-01 0.000000e+00 0.000000e+00
 0.000000e+00 0.000000e+00 5.057996e-01 4.942004e-01 0.000000e+00
 0.000000e+00 0.000000e+00 0.000000e+00 5.683759e-01 4.316241e-01
 0.000000e+00 0.000000e+00 0.000000e+00 0.000000e+00 0.000000e+00
<ENDHMM>
~h "r"
<BEGINHMM>
<NUMSTATES> 5
<STATE> 2
<MEAN> 13
 3.280552e+00 -1.247123e+01 -9.700638e+00 -9.472775e-01 -7.181509e+00 -3.844683e+00 -5.003756e+00 -8.275876e-01 4.061095e+00 -1.415345e+00 -5.336806e+00 -5.891260e+00 6.616884e+01
<VARIANCE> 13
 3.012765e+01 7.437587e+01 8.810399e+01 5.897331e+01 1.647251e+02 6.950781e+01 4.239736e+01 6.366127e+01 7.255414e+01 8.547323e+01 3.463299e+01 8.524165e+01 8.850234e+01
<GCONST> 7.861482e+01
<STATE> 3
<MEAN> 13
 2.037232e+00 -1.118269e+01 -8.054703e+00 -4.406500e-01 -5.510161e+00 -3.728337e+00 -4.551305e+00 -6.996585e-01 2.581293e+00 -8.412316e-01 -4.140269e+00 -5.486943e+00 6.375802e+01
<VARIANCE> 13
 3.831116e+01 7.888080e+01 1.167146e+02 5.874760e+01 1.144820e+02 7.006442e+01 4.040774e+01 5.933175e+01 7.310896e+01 7.906287e+01 3.563353e+01 6.894383e+01 1.154303e+02
<GCONST> 7.872850e+01
<STATE> 4
<MEAN> 13
 -7.570565e-01 -6.778300e+00 -6.882018e+00 2.161630e+00 -4.538594e+00 -1.992576e+00 -3.814570e+00 4.622052e-02 1.121572e+00 -1.435426e+00 -2.938339e+00 -3.998780e+00 5.816374e+01
<VARIANCE> 13
 6.863634e+01 1.030111e+02 1.395589e+02 8.266048e+01 1.062550e+02 7.838706e+01 4.535675e+01 5.792702e+01 6.956973e+01 6.600892e+01 4.079355e+01 4.968900e+01 2.039857e+02
<GCONST> 8.037502e+01
<TRANSP> 5
 0.000000e+00 1.000000e+00 0.000000e+00 0.000000e+00 0.000000e+00
 0.000000e+00 6.458568e-01 3.541432e-01 0.000000e+00 0.000000e+00
 0.000000e+00 0.000000e+00 5.399850e-01 4.600150e-01 0.000000e+00
 0.000000e+00 0.000000e+00 0.000000e+00 5.993375e-01 4.006625e-01
 0.000000e+00 0.000000e+00 0.000000e+00 0.000000e+00 0.000000e+00
<ENDHMM>
~h "s"
<BEGINHMM>
<NUMSTATES> 5
<STATE> 2
<MEAN> 13
 -1.123172e+01 -5.063509e-01 -4.512315e+00 7.810528e-01 5.394403e+00 -8.897603e+00 1.484360e+00 -2.508997e+00 3.891639e+00 -2.413292e+00 -4.181677e-01 -2.502338e+00 6.023900e+01
<VARIANCE> 13
 9.431792e+01 8.171886e+01 5.585426e+01 7.477198e+01 1.099192e+02 8.549206e+01 9.084515e+01 4.551001e+01 4.803176e+01 5.082920e+01 5.786803e+01 4.314101e+01 1.160442e+02
<GCONST> 7.903175e+01
<STATE> 3
<MEAN> 13
 -1.477410e+01 5.617042e-02 -4.839587e+00 1.635970e+00 7.030564e+00 -9.452497e+00 3.160783e+00 -2.032092e+00 4.825468e+00 -3.064206e+00 3.700844e-01 -2.248279e+00 6.027647e+01
<VARIANCE> 13
 1.027699e+02 8.392900e+01 4.495375e+01 8.654525e+01 1.177539e+02 8.254711e+01 9.186969e+01 4.392542e+01 4.906155e+01 5.374604e+01 4.368246e+01 4.088740e+01 9.655186e+01
<GCONST> 7.864119e+01
<STATE> 4
<MEAN> 13
 -1.816363e+01 -1.160171e+00 -4.310945e+00 -4.931437e-01 1.084448e+01 -1.174156e+01 4.606629e+00 -1.051252e+00 6.530865e+00 -4.953301e+00 -8.779742e-01 -3.838893e-01 5.781207e+01
<VARIANCE> 13
 1.400429e+02 8.201989e+01 4.939258e+01 8.149677e+01 1.237274e+02 8.618002e+01 9.286781e+01 4.590665e+01 6.237101e+01 5.621925e+01 5.263036e+01 4.925903e+01 1.021798e+02
<GCONST> 7.982346e+01
<TRANSP> 5
 0.000000e+00 1.000000e+00 0.000000e+00 0.000000e+00 0.000000e+00
 0.000000e+00 5.365434e-01 4.634566e-01 0.000000e+00 0.000000e+00
 0.000000e+00 0.000000e+00 5.647387e-01 4.352613e-01 0.000000e+00
 0.000000e+00 0.000000e+00 0.000000e+00 7.525637e-01 2.474363e-01
 0.000000e+00 0.000000e+00 0.000000e+00 0.000000e+00 0.000000e+00
<ENDHMM>
~h "t"
<BEGINHMM>
<NUMSTATES> 5
<STATE> 2
<MEAN> 13
 -2.771207e+00 -2.618138e+00 -7.332248e+00 -4.408999e+00 -4.141686e+00 1.889908e+00 -8.623308e+00 -8.170070e+00 -1.047825e+00 -1.975760e+00 -1.264988e+00 -2.725804e+00 5.460927e+01
<VARIANCE> 13
 8.294945e+01 6.991793e+01 5.425815e+01 1.669503e+02 8.371695e+01 8.848315e+01 7.863139e+01 7.048483e+01 8.171319e+01 6.191027e+01 6.362997e+01 5.758117e+01 2.257973e+02
<GCONST> 8.135464e+01
<STATE> 3
<MEAN> 13
 5.101989e-01 -3.161625e+00 -6.419139e+00 -8.528385e+00 -5.453388e+00 3.649685e+00 -1.017295e+01 -1.012738e+01 -1.780607e+00 -1.027961e+00 4.866610e-01 -2.822498e+00 5.950898e+01
<VARIANCE> 13
 6.685147e+01 6.201316e+01 5.003464e+01 1.645930e+02 8.860645e+01 9.025688e+01 7.990110e+01 6.793401e+01 9.031554e+01 6.245119e+01 7.419337e+01 6.239531e+01 1.767882e+02
<GCONST> 8.107742e+01
<STATE> 4
<MEAN> 13
 2.935607e+00 -1.737390e+00 -3.834033e+00 -1.057669e+01 -3.296340e+00 7.071260e+00 -1.216062e+01 -1.265962e+01 -4.267190e+00 3.660380e-01 5.170539e-01 -2.922081e+00 5.976494e+01
<VARIANCE> 13
 5.589866e+01 1.064330e+02 4.501258e+01 1.684449e+02 1.009220e+02 7.828661e+01 7.588410e+01 5.903685e+01 1.003483e+02 7.368394e+01 1.017819e+02 5.971755e+01 1.596320e+02
<GCONST> 8.159286e+01
<TRANSP> 5
 0.000000e+00 1.000000e+00 0.000000e+00 0.000000e+00 0.000000e+00
 0.000000e+00 5.773860e-01 4.226140e-01 0.000000e+00 0.000000e+00
 0.000000e+00 0.000000e+00 5.872225e-01 4.127775e-01 0.000000e+00
 0.000000e+00 0.000000e+00 0.000000e+00 8.794909e-01 1.205091e-01
 0.000000e+00 0.000000e+00 0.000000e+00 0.000000e+00 0.000000e+00
<ENDHMM>
~h "w"
<BEGINHMM>
<NUMSTATES> 5
<STATE> 2
<MEAN> 13
 -1.057022e+01 -4.706709e+00 4.059133e+00 -2.199788e+00 5.292274e+00 -9.897995e+00 -4.977939e+00 -1.304035e+00 1.242918e+00 -5.071218e+00 3.104061e+00 -4.103096e+00 6.516271e+01
<VARIANCE> 13
 1.027417e+02 4.581242e+01 3.391883e+01 2.838475e+01 1.558707e+02 7.118005e+01 4.306269e+01 3.562825e+01 6.481739e+01 2.535145e+01 2.461051e+01 2.064476e+01 1.937997e+01
<GCONST> 7.246832e+01
<STATE> 3
<MEAN> 13
 -8.288571e+00 -1.907375e+00 4.245265e+00 -1.757026e-01 1.748495e+00 -7.267062e+00 -6.408889e+00 -2.231316e+00 4.968811e-01 -4.566932e+00 1.940502e+00 -1.586034e+00 6.198917e+01
<VARIANCE> 13
 9.888560e+01 3.439740e+01 3.190857e+01 2.977728e+01 8.976562e+01 6.108807e+01 2.432613e+01 3.121621e+01 5.594481e+01 3.790019e+01 4.081724e+01 2.644423e+01 2.859444e+01
<GCONST> 7.211964e+01
<STATE> 4
<MEAN> 13
 -7.374145e+00 -3.118072e+00 2.189547e+00 2.264837e+00 -3.983803e-01 -1.079468e+00 -4.219324e+00 -6.275845e+00 -4.780745e+00 -5.314701e+00 -1.136642e+00 1.818358e+00 5.495287e+01
<VARIANCE> 13
 3.068931e+01 1.410772e+01 2.474796e+01 2.210090e+01 3.306060e+01 6.646294e+01 3.167971e+01 4.024655e+01 3.415122e+01 3.084843e+01 4.191309e+01 2.217925e+01 5.309573e+01
<GCONST> 6.887983e+01
<TRANSP> 5
 0.000000e+00 1.000000e+00 0.000000e+00 0.000000e+00 0.000000e+00
 0.000000e+00 8.576797e-01 1.423203e-01 0.000000e+00 0.000000e+00
 0.000000e+00 0.000000e+00 6.335712e-01 3.664288e-01 0.000000e+00
 0.000000e+00 0.000000e+00 0.000000e+00 8.474833e-01 1.525167e-01
 0.000000e+00 0.000000e+00 0.000000e+00 0.000000e+00 0.000000e+00
<ENDHMM>
~h "ah"
<BEGINHMM>
<NUMSTATES> 5
<STATE> 2
<MEAN> 13
 2.082368e+00 -1.553865e+01 -1.049714e+01 -7.275643e+00 1.584436e+00 -1.555628e+00 -2.407331e+00 -4.384072e+00 2.036166e+00 3.026337e+00 -7.528502e+00 -8.438343e+00 6.900879e+01
<VARIANCE> 13
 2.777087e+01 7.587920e+01 4.443120e+01 6.188882e+01 9.717734e+01 9.473944e+01 5.171653e+01 5.919944e+01 8.710715e+01 5.716983e+01 6.988581e+01 5.847344e+01 8.884819e+01
<GCONST> 7.793471e+01
<STATE> 3
<MEAN> 13
 2.354225e+00 -1.569431e+01 -9.988184e+00 -7.122874e+00 1.501598e+00 -1.669525e+00 -2.150837e+00 -4.170968e+00 2.079506e+00 2.765972e+00 -8.619387e+00 -8.656469e+00 6.894581e+01
<VARIANCE> 13
 2.000219e+01 7.324320e+01 4.076185e+01 5.866505e+01 9.410770e+01 8.748869e+01 5.389234e+01 5.757042e+01 8.656154e+01 5.493744e+01 6.855807e+01 6.196421e+01 8.691386e+01
<GCONST> 7.730378e+01
<STATE> 4
<MEAN> 13
 1.898828e+00 -1.296756e+01 -8.349732e+00 -5.801543e+00 2.506688e+00 -2.509719e+00 -1.773977e+00 -3.739332e+00 2.682560e+00 1.506929e+00 -8.916980e+00 -6.554197e+00 6.569727e+01
<VARIANCE> 13
 2.339370e+01 8.980405e+01 4.515664e+01 7.781031e+01 1.025905e+02 9.458978e+01 5.609756e+01 6.597336e+01 8.129183e+01 6.156533e+01 7.172318e+01 6.517687e+01 1.027824e+02
<GCONST> 7.870422e+01
<TRANSP> 5
 0.000000e+00 1.000000e+00 0.000000e+00 0.000000e+00 0.000000e+00
 0.000000e+00 6.468839e-01 3.531161e-01 0.000000e+00 0.000000e+00
 0.000000e+00 0.000000e+00 6.448193e-01 3.551807e-01 0.000000e+00
 0.000000e+00 0.000000e+00 0.000000e+00 6.936797e-01 3.063203e-01
 0.000000e+00 0.000000e+00 0.000000e+00 0.000000e+00 0.000000e+00
<ENDHMM>
~h "ax"
<BEGINHMM>
<NUMSTATES> 5
<STATE> 2
<MEAN> 13
 2.581687e+00 -1.143326e+01 1.762331e+00 -8.065526e+00 -4.444993e+00 -9.095437e+00 -2.793643e+00 -2.252736e+00 -6.161572e+00 5.917874e+00 -4.974272e+00 -3.561771e+00 6.828680e+01
<VARIANCE> 13
 2.425019e+01 6.041877e+01 1.194109e+02 8.254291e+01 8.872884e+01 8.381881e+01 7.054525e+01 7.860679e+01 8.170940e+01 7.401944e+01 7.372852e+01 6.391142e+01 4.579001e+01
<GCONST> 7.890243e+01
<STATE> 3
<MEAN> 13
 2.745555e+00 -1.114995e+01 -3.554681e+00 -7.588981e+00 -1.324806e+00 -5.082836e+00 -5.182083e+00 -3.500736e+00 -2.656562e+00 4.676507e+00 -5.827021e+00 -5.860875e+00 6.721146e+01
<VARIANCE> 13
 2.274622e+01 6.321973e+01 6.818320e+01 6.533865e+01 1.052807e+02 6.934186e+01 6.274081e+01 7.213454e+01 1.054099e+02 7.012637e+01 8.194952e+01 5.906305e+01 6.169919e+01
<GCONST> 7.839356e+01
<STATE> 4
<MEAN> 13
 6.285910e-01 -7.256133e+00 -4.284842e+00 -6.188915e+00 1.349683e+00 -4.934529e+00 -6.439652e+00 -5.057304e+00 -1.125835e+00 2.482544e+00 -5.576499e+00 -4.841776e+00 6.345930e+01
<VARIANCE> 13
 4.684715e+01 8.469260e+01 5.062986e+01 7.135114e+01 1.599623e+02 7.390961e+01 6.890921e+01 8.689366e+01 1.450118e+02 8.158496e+01 8.707657e+01 5.917331e+01 1.144134e+02
<GCONST> 8.111125e+01
<TRANSP> 5
 0.000000e+00 1.000000e+00 0.000000e+00 0.000000e+00 0.000000e+00
 0.000000e+00 8.447595e-01 1.552405e-01 0.000000e+00 0.000000e+00
 0.000000e+00 0.000000e+00 7.159895e-01 2.840105e-01 0.000000e+00
 0.000000e+00 0.000000e+00 0.000000e+00 6.930817e-01 3.069183e-01
 0.000000e+00 0.000000e+00 0.000000e+00 0.000000e+00 0.000000e+00
<ENDHMM>
~h "ay"
<BEGINHMM>
<NUMSTATES> 5
<STATE> 2
<MEAN> 13
 -1.562337e+01 2.978541e+00 -6.448138e+00 8.154032e+00 4.841784e+00 -7.878207e+00 6.558748e+00 5.032288e-02 3.749751e+00 -1.750127e+00 -5.518264e-01 -1.632152e+00 5.786526e+01
<VARIANCE> 13
 6.916132e+01 9.696868e+01 2.300939e+01 9.421113e+01 8.201220e+01 5.592386e+01 7.967322e+01 3.058435e+01 4.089758e+01 3.127647e+01 2.124486e+01 2.031552e+01 1.325486e+02
<GCONST> 7.472234e+01
<STATE> 3
<MEAN> 13
 -1.478574e+01 -1.213901e-01 -5.854065e+00 2.790027e+00 4.427414e+00 -8.931469e+00 5.121769e+00 -6.121020e-01 3.865568e+00 -3.045306e+00 -3.469435e-01 -2.408605e+00 5.765423e+01
<VARIANCE> 13
 1.341393e+02 1.410254e+02 2.672252e+01 8.471938e+01 1.272160e+02 9.403841e+01 1.088547e+02 3.525726e+01 6.256633e+01 4.350640e+01 3.943338e+01 3.400649e+01 1.843367e+02
<GCONST> 7.943441e+01
<STATE> 4
<MEAN> 13
 -6.312577e+00 -8.454000e+00 3.336288e+00 -1.034451e+01 4.897889e+00 -1.586408e+01 7.670101e+00 3.978248e-01 4.476943e+00 -3.789669e+00 -6.782360e+00 3.458858e+00 6.614635e+01
<VARIANCE> 13
 1.607068e+02 7.483774e+01 7.744688e+01 1.096609e+02 1.421553e+02 6.438847e+01 7.500702e+01 3.056816e+01 6.781496e+01 5.248636e+01 7.184510e+01 4.002678e+01 1.037735e+02
<GCONST> 7.997730e+01
<TRANSP> 5
 0.000000e+00 1.000000e+00 0.000000e+00 0.000000e+00 0.000000e+00
 0.000000e+00 5.461721e-01 4.538280e-01 0.000000e+00 0.000000e+00
 0.000000e+00 0.000000e+00 3.368922e-01 6.631078e-01 0.000000e+00
 0.000000e+00 0.000000e+00 0.000000e+00 8.460437e-01 1.539563e-01
 0.000000e+00 0.000000e+00 0.000000e+00 0.000000e+00 0.000000e+00
<ENDHMM>
~h "eh"
<BEGINHMM>
<NUMSTATES> 5
<STATE> 2
<MEAN> 13
 2.994244e+00 -9.554416e+00 2.312290e+00 9.133767e-01 -8.107250e+00 -1.100222e+01 -1.036014e+01 -5.318918e-01 3.621920e-01 1.750841e+00 -4.346324e+00 -6.655888e+00 6.559460e+01
<VARIANCE> 13
 8.488264e+00 1.105652e+02 2.788888e+01 6.175561e+01 9.651833e+01 4.961126e+01 3.875933e+01 1.118564e+02 4.550877e+01 5.420047e+01 5.770908e+01 8.537748e+01 8.389023e+01
<GCONST> 7.577925e+01
<STATE> 3
<MEAN> 13
 3.674044e+00 -9.616338e+00 5.562382e+00 -3.915023e+00 -4.505639e+00 -1.088162e+01 -1.171187e+01 -3.924989e+00 -3.320292e+00 2.652189e+00 -3.161256e+00 -2.831806e+00 6.648686e+01
<VARIANCE> 13
 9.951661e+00 7.117572e+01 2.808534e+01 8.663296e+01 7.695975e+01 9.769461e+01 5.205485e+01 1.704983e+02 5.209788e+01 5.719930e+01 5.243683e+01 6.586858e+01 5.118649e+01
<GCONST> 7.635079e+01
<STATE> 4
<MEAN> 13
 5.526971e+00 -4.578262e+00 4.528348e-01 -8.506174e+00 8.093229e-01 -4.065461e+00 -1.329127e+01 -9.383112e+00 -7.119072e+00 7.938203e+00 -1.139231e+00 -1.073773e+00 6.347084e+01
<VARIANCE> 13
 1.188463e+01 5.172141e+01 3.317000e+01 7.376022e+01 9.823612e+01 1.188438e+02 2.982728e+01 8.087730e+01 4.512354e+01 6.284527e+01 8.436539e+01 3.165701e+01 3.311779e+01
<GCONST> 7.460979e+01
<TRANSP> 5
 0.000000e+00 1.000000e+00 0.000000e+00 0.000000e+00 0.000000e+00
 0.000000e+00 9.421423e-01 5.785763e-02 0.000000e+00 0.000000e+00
 0.000000e+00 0.000000e+00 8.061011e-01 1.938989e-01 0.000000e+00
 0.000000e+00 0.000000e+00 0.000000e+00 8.458598e-01 1.541402e-01
 0.000000e+00 0.000000e+00 0.000000e+00 0.000000e+00 0.000000e+00
<ENDHMM>
~h "hh"
<BEGINHMM>
<NUMSTATES> 5
<STATE> 2
<MEAN> 13
 2.820343e+00 -1.442738e+01 -4.026417e+00 -8.926067e+00 1.357957e+00 -9.229820e+00 -4.584298e+00 3.460776e+00 7.313909e-01 2.450548e+00 -1.540657e+01 -4.679245e+00 7.118711e+01
<VARIANCE> 13
 8.399323e+00 5.630806e+01 4.358838e+01 9.423437e+01 7.270432e+01 9.416756e+01 7.734253e+01 9.548197e+01 4.060053e+01 4.096152e+01 1.859323e+01 7.945164e+01 5.839102e+01
<GCONST> 7.489214e+01
<STATE> 3
<MEAN> 13
 1.471532e+00 -1.645306e+01 -9.192618e+00 -8.025173e+00 2.267085e+00 -4.046612e+00 -4.352061e+00 2.105383e+00 -5.564422e-01 9.390485e-02 -1.590585e+01 -7.088666e+00 7.464548e+01
<VARIANCE> 13
 7.284124e+00 2.214915e+01 4.584598e+01 6.518866e+01 5.274334e+01 5.033089e+01 4.922088e+01 6.120098e+01 3.359811e+01 3.489922e+01 1.834854e+01 4.854450e+01 1.711620e+01
<GCONST> 6.957200e+01
<STATE> 4
<MEAN> 13
 1.627959e+00 -1.609734e+01 -5.145561e+00 -7.166004e+00 9.364997e+00 -3.973510e+00 4.368870e+00 -3.309617e+00 4.047083e+00 2.796589e+00 -1.651861e+01 -1.938559e+00 7.078593e+01
<VARIANCE> 13
 8.562154e+00 2.490735e+01 4.965819e+01 6.687463e+01 1.003651e+02 5.981532e+01 8.169418e+01 4.765355e+01 6.507718e+01 4.793982e+01 4.931210e+01 4.978139e+01 2.411798e+01
<GCONST> 7.336420e+01
<TRANSP> 5
 0.000000e+00 1.000000e+00 0.000000e+00 0.000000e+00 0.000000e+00
 0.000000e+00 8.667086e-01 1.332913e-01 0.000000e+00 0.000000e+00
 0.000000e+00 0.000000e+00 8.861223e-01 1.138777e-01 0.000000e+00
 0.000000e+00 0.000000e+00 0.000000e+00 9.403315e-01 5.966841e-02
 0.000000e+00 0.000000e+00 0.000000e+00 0.000000e+00 0.000000e+00
<ENDHMM>
~h "ih"
<BEGINHMM>
<NUMSTATES> 5
<STATE> 2
<MEAN> 13
 -6.653386e-01 4.579636e+00 2.297949e+00 1.249472e+00 -9.618225e+00 -3.445870e+00 -7.148307e+00 -5.316331e+00 -9.319512e+00 -4.738986e+00 4.424099e-01 -2.849450e+00 5.224073e+01
<VARIANCE> 13
 6.172309e+01 1.836886e+02 1.029238e+02 1.024620e+02 8.544221e+01 9.418452e+01 6.666608e+01 7.340325e+01 7.191464e+01 6.879170e+01 5.998778e+01 5.604871e+01 1.620815e+02
<GCONST> 8.169556e+01
<STATE> 3
<MEAN> 13
 -3.846612e+00 1.250520e+00 4.513646e+00 1.823513e+00 -1.114679e+01 -5.367209e+00 -6.934447e+00 -4.313404e+00 -8.767315e+00 -3.495760e+00 2.499759e+00 -3.970972e+00 5.380887e+01
<VARIANCE> 13
 4.961290e+01 1.113199e+02 1.035993e+02 8.839837e+01 9.008559e+01 8.456968e+01 7.112872e+01 6.995962e+01 7.250021e+01 5.215648e+01 6.837772e+01 5.163857e+01 2.075904e+02
<GCONST> 8.082491e+01
<STATE> 4
<MEAN> 13
 -9.088309e+00 2.107298e+00 7.796025e-01 3.842842e+00 -7.682644e+00 -2.896303e+00 -5.539966e+00 -3.148364e+00 -4.960661e+00 -3.167538e+00 1.933499e+00 -2.333568e+00 4.646653e+01
<VARIANCE> 13
 8.518996e+01 8.987766e+01 1.036697e+02 7.461732e+01 7.374477e+01 9.987254e+01 8.345556e+01 8.100517e+01 7.305682e+01 4.133567e+01 5.574348e+01 4.002062e+01 2.923203e+02
<GCONST> 8.091361e+01
<TRANSP> 5
 0.000000e+00 1.000000e+00 0.000000e+00 0.000000e+00 0.000000e+00
 0.000000e+00 6.718988e-01 3.281011e-01 0.000000e+00 0.000000e+00
 0.000000e+00 0.000000e+00 5.915465e-01 4.084535e-01 0.000000e+00
 0.000000e+00 0.000000e+00 0.000000e+00 6.634968e-01 3.365031e-01
 0.000000e+00 0.000000e+00 0.000000e+00 0.000000e+00 0.000000e+00
<ENDHMM>
~h "iy"
<BEGINHMM>
<NUMSTATES> 5
<STATE> 2
<MEAN> 13
 4.826770e-01 -1.205663e+01 1.213371e+01 -5.589229e+00 -1.438442e+01 -1.169184e+01 -7.638792e+00 -5.328163e+00 -9.545749e+00 1.648222e+00 2.032445e+00 -2.418163e+00 6.852827e+01
<VARIANCE> 13
 1.627545e+01 5.094560e+01 1.231928e+02 3.965610e+01 9.075712e+01 2.747778e+01 4.316195e+01 3.170896e+01 1.357071e+02 9.224113e+01 1.069419e+02 5.508024e+01 1.840497e+01
<GCONST> 7.517854e+01
<STATE> 3
<MEAN> 13
 -1.756676e+00 -9.992912e+00 1.477859e+01 -2.512456e+00 -1.971298e+01 -1.210880e+01 -1.022474e+01 -8.358498e+00 -1.026746e+01 -2.294084e+00 9.217398e+00 -2.928395e+00 6.732810e+01
<VARIANCE> 13
 1.723031e+01 5.679673e+01 5.691139e+01 3.193755e+01 7.855332e+01 2.420299e+01 5.866501e+01 4.569328e+01 8.113869e+01 9.093842e+01 1.130336e+02 7.232500e+01 1.998951e+01
<GCONST> 7.463829e+01
<STATE> 4
<MEAN> 13
 -2.386799e+00 -5.147770e+00 1.204265e+01 -6.909900e-01 -1.526041e+01 -9.981552e+00 -7.140158e+00 -9.729450e+00 -9.430830e+00 -2.751622e+00 5.145205e+00 -1.388511e+00 6.252802e+01
<VARIANCE> 13
 4.718287e+01 9.900156e+01 7.315363e+01 5.237052e+01 9.171234e+01 7.637823e+01 9.343515e+01 4.921723e+01 9.448998e+01 1.077899e+02 1.141222e+02 4.659225e+01 5.069128e+01
<GCONST> 7.961346e+01
<TRANSP> 5
 0.000000e+00 1.000000e+00 0.000000e+00 0.000000e+00 0.000000e+00
 0.000000e+00 8.621143e-01 1.378857e-01 0.000000e+00 0.000000e+00
 0.000000e+00 0.000000e+00 8.514927e-01 1.485073e-01 0.000000e+00
 0.000000e+00 0.000000e+00 0.000000e+00 8.577736e-01 1.422264e-01
 0.000000e+00 0.000000e+00 0.000000e+00 0.000000e+00 0.000000e+00
<ENDHMM>
~h "ng"
<BEGINHMM>
<NUMSTATES> 5
<STATE> 2
<MEAN> 13
 -5.825750e+00 3.954975e+00 -1.032872e+01 5.719666e+00 -2.385025e+00 5.592670e+00 -7.460420e+00 -4.910155e+00 -4.618843e+00 -6.808997e+00 -5.279542e+00 -4.831124e+00 4.150888e+01
<VARIANCE> 13
 6.525037e+01 7.943680e+01 4.542470e+01 3.150807e+01 7.124300e+01 6.354317e+01 3.502645e+01 3.411388e+01 3.706260e+01 3.178808e+01 2.329833e+01 2.857565e+01 1.053850e+02
<GCONST> 7.344578e+01
<STATE> 3
<MEAN> 13
 -5.955551e+00 4.716390e+00 -6.168010e+00 7.100575e+00 -2.293320e+00 4.912244e+00 -5.952842e+00 -3.692477e+00 -2.781368e+00 -4.385531e+00 -4.063099e+00 -3.531348e+00 4.363178e+01
<VARIANCE> 13
 6.079036e+01 7.183778e+01 4.544398e+01 4.365618e+01 6.938642e+01 8.186646e+01 4.748267e+01 3.501305e+01 2.927210e+01 3.080291e+01 2.641553e+01 3.016573e+01 1.678745e+02
<GCONST> 7.453606e+01
<STATE> 4
<MEAN> 13
 -1.335583e+01 5.268866e+00 -8.401735e+00 8.205995e+00 -5.097505e+00 4.693350e+00 -5.788045e+00 -1.165412e+00 -2.231598e+00 -5.514473e+00 -3.486952e+00 -3.678788e+00 3.478064e+01
<VARIANCE> 13
 3.925668e+01 3.377501e+01 4.018724e+01 4.349556e+01 4.668011e+01 5.906496e+01 5.807896e+01 4.811470e+01 3.372412e+01 3.489566e+01 3.606435e+01 2.919688e+01 9.112083e+01
<GCONST> 7.294792e+01
<TRANSP> 5
 0.000000e+00 1.000000e+00 0.000000e+00 0.000000e+00 0.000000e+00
 0.000000e+00 8.173807e-01 1.826193e-01 0.000000e+00 0.000000e+00
 0.000000e+00 0.000000e+00 6.243789e-01 3.756211e-01 0.000000e+00
 0.000000e+00 0.000000e+00 0.000000e+00 9.354811e-01 6.451887e-02
 0.000000e+00 0.000000e+00 0.000000e+00 0.000000e+00 0.000000e+00
<ENDHMM>
~h "oh"
<BEGINHMM>
<NUMSTATES> 5
<STATE> 2
<MEAN> 13
 3.810296e+00 -1.535220e+01 -1.249549e+01 -1.561184e+01 -4.358882e+00 5.173401e+00 -2.868023e+00 -8.400208e+00 2.687594e+00 2.739881e+00 -1.317518e+00 -9.278281e+00 7.113206e+01
<VARIANCE> 13
 1.143979e+01 6.406575e+01 3.065236e+01 1.000213e+02 1.074061e+02 9.990128e+01 7.233372e+01 8.377859e+01 1.024729e+02 6.273726e+01 7.470271e+01 9.575987e+01 4.968522e+01
<GCONST> 7.805740e+01
<STATE> 3
<MEAN> 13
 4.072670e+00 -1.698969e+01 -1.217574e+01 -8.008230e+00 -4.565839e+00 4.061000e+00 -4.479064e+00 -5.994249e+00 3.451807e+00 1.057819e+00 -2.756512e+00 -8.193460e+00 6.913782e+01
<VARIANCE> 13
 1.282308e+01 8.195063e+01 2.031935e+01 9.289433e+01 1.221075e+02 8.483560e+01 4.767640e+01 6.116905e+01 8.119561e+01 7.266922e+01 5.556012e+01 9.055965e+01 5.356814e+01
<GCONST> 7.680371e+01
<STATE> 4
<MEAN> 13
 1.857938e+00 -1.127700e+01 -1.080143e+01 -3.374851e-01 -6.289232e+00 5.434709e+00 -4.884130e+00 -3.091089e+00 2.784842e+00 -3.088272e+00 -3.920351e+00 -4.519168e+00 6.105919e+01
<VARIANCE> 13
 3.072357e+01 1.080966e+02 2.470115e+01 1.168789e+02 1.474698e+02 8.180562e+01 3.316517e+01 5.565016e+01 6.340269e+01 7.386638e+01 3.356845e+01 8.165146e+01 1.302616e+02
<GCONST> 7.812435e+01
<TRANSP> 5
 0.000000e+00 1.000000e+00 0.000000e+00 0.000000e+00 0.000000e+00
 0.000000e+00 9.537027e-01 4.629732e-02 0.000000e+00 0.000000e+00
 0.000000e+00 0.000000e+00 8.367265e-01 1.632735e-01 0.000000e+00
 0.000000e+00 0.000000e+00 0.000000e+00 8.324932e-01 1.675068e-01
 0.000000e+00 0.000000e+00 0.000000e+00 0.000000e+00 0.000000e+00
<ENDHMM>
~h "uh"
<BEGINHMM>
<NUMSTATES> 5
<STATE> 2
<MEAN> 13
 -5.987557e+00 3.040764e+00 -4.812708e+00 -2.403907e+00 -3.743116e+00 2.221813e+00 -7.503134e+00 -6.560414e+00 -3.182868e+00 -4.304867e+00 -1.186314e+00 -3.117544e+00 4.940438e+01
<VARIANCE> 13
 9.131674e+01 4.474763e+01 4.213985e+01 1.080779e+02 5.361947e+01 3.923185e+01 4.474714e+01 4.770119e+01 3.903129e+01 3.144788e+01 4.027978e+01 2.620987e+01 1.938831e+02
<GCONST> 7.529094e+01
<STATE> 3
<MEAN> 13
 -4.031312e+00 2.880557e+00 -5.060930e+00 -2.506038e+00 -5.238151e+00 2.489343e+00 -8.557087e+00 -7.567564e+00 -3.865915e+00 -3.353418e+00 -4.774014e-01 -3.195217e+00 5.047298e+01
<VARIANCE> 13
 7.773779e+01 5.101660e+01 3.390446e+01 1.223030e+02 4.819167e+01 4.271824e+01 4.778129e+01 4.558838e+01 4.654339e+01 3.416934e+01 3.812320e+01 2.863408e+01 2.243786e+02
<GCONST> 7.560452e+01
<STATE> 4
<MEAN> 13
 -3.704372e+00 3.254849e+00 -3.572172e+00 -1.300368e+00 -4.586153e+00 1.937978e+00 -1.063503e+01 -9.653634e+00 -4.644707e+00 -3.126468e+00 -1.390301e+00 -4.046237e+00 5.054300e+01
<VARIANCE> 13
 7.856675e+01 6.055045e+01 4.221771e+01 1.347773e+02 4.909976e+01 6.017804e+01 5.534640e+01 5.187639e+01 4.861171e+01 4.345039e+01 4.243810e+01 3.616951e+01 2.371017e+02
<GCONST> 7.742017e+01
<TRANSP> 5
 0.000000e+00 1.000000e+00 0.000000e+00 0.000000e+00 0.000000e+00
 0.000000e+00 6.908303e-01 3.091696e-01 0.000000e+00 0.000000e+00
 0.000000e+00 0.000000e+00 6.542554e-01 3.457446e-01 0.000000e+00
 0.000000e+00 0.000000e+00 0.000000e+00 8.272901e-01 1.727099e-01
 0.000000e+00 0.000000e+00 0.000000e+00 0.000000e+00 0.000000e+00
<ENDHMM>
~h "uw"
<BEGINHMM>
<NUMSTATES> 5
<STATE> 2
<MEAN> 13
 3.970446e+00 -1.676175e+00 -5.228454e+00 -1.141550e+01 -7.941890e+00 2.746832e+00 -1.302303e+01 -1.228152e+01 -4.236698e+00 -3.084232e+00 2.466929e+00 -3.353038e+00 6.310320e+01
<VARIANCE> 13
 5.346892e+01 6.320280e+01 2.804864e+01 1.249219e+02 1.025014e+02 5.704507e+01 6.587643e+01 5.075096e+01 1.113100e+02 5.344536e+01 5.361463e+01 5.918804e+01 9.604729e+01
<GCONST> 7.828627e+01
<STATE> 3
<MEAN> 13
 4.512301e+00 -2.112292e+00 -6.434903e+00 -1.357424e+01 -9.245469e+00 4.033573e+00 -1.096340e+01 -1.118990e+01 -4.753094e+00 -2.865539e+00 2.696424e+00 -3.202277e+00 6.334621e+01
<VARIANCE> 13
 4.555836e+01 8.151804e+01 2.810774e+01 1.261648e+02 8.223948e+01 6.629586e+01 5.387093e+01 4.907548e+01 1.118912e+02 5.604249e+01 5.507936e+01 7.321905e+01 1.053109e+02
<GCONST> 7.847235e+01
<STATE> 4
<MEAN> 13
 4.139752e+00 -8.590455e+00 -8.523746e+00 -1.376098e+01 -4.770361e+00 7.642358e+00 -7.747433e+00 -9.987776e+00 -2.779460e+00 1.802880e+00 1.096269e+00 -6.009970e+00 6.472237e+01
<VARIANCE> 13
 4.006407e+01 1.306432e+02 3.246330e+01 1.474711e+02 9.457475e+01 8.243519e+01 4.721512e+01 5.314979e+01 1.362490e+02 1.326616e+02 7.065851e+01 1.015902e+02 1.335133e+02
<GCONST> 8.129362e+01
<TRANSP> 5
 0.000000e+00 1.000000e+00 0.000000e+00 0.000000e+00 0.000000e+00
 0.000000e+00 7.301887e-01 2.698113e-01 0.000000e+00 0.000000e+00
 0.000000e+00 0.000000e+00 7.419949e-01 2.580051e-01 0.000000e+00
 0.000000e+00 0.000000e+00 0.000000e+00 8.656287e-01 1.343714e-01
 0.000000e+00 0.000000e+00 0.000000e+00 0.000000e+00 0.000000e+00
<ENDHMM>
~h "sil"
<BEGINHMM>
<NUMSTATES> 5
<STATE> 2
<MEAN> 13
 -1.260277e+01 2.230378e+00 -3.705204e+00 4.095098e+00 2.674788e-01 2.409643e+00 -2.267056e-01 2.260595e-01 1.507903e+00 -1.573788e+00 -3.163767e-02 -1.665666e+00 4.436293e+01
<VARIANCE> 13
 6.152188e+01 1.752091e+01 2.869293e+01 2.278803e+01 3.560782e+01 2.604033e+01 2.894340e+01 1.780322e+01 1.953605e+01 1.575837e+01 1.565003e+01 1.305002e+01 1.736301e+02
<GCONST> 6.664084e+01
<STATE> 3
<MEAN> 13
 -1.275309e+01 2.108588e+00 -3.840842e+00 2.873566e+00 -6.802519e-02 2.491706e+00 3.010847e-01 5.439299e-01 1.857203e+00 -1.484607e+00 4.232960e-01 -1.234498e+00 4.392682e+01
<VARIANCE> 13
 6.363543e+01 1.047482e+01 2.572264e+01 1.603006e+01 3.075917e+01 1.793163e+01 2.417660e+01 1.415669e+01 1.514155e+01 1.213087e+01 1.185914e+01 9.971445e+00 1.671841e+02
<GCONST> 6.366983e+01
<STATE> 4
<MEAN> 13
 -2.221302e+01 3.036217e+00 -8.806994e+00 4.732488e+00 -5.657956e+00 4.636379e+00 -3.486820e+00 7.264644e-01 9.003861e-01 -1.750787e+00 4.688672e-01 -1.053941e+00 2.880901e+01
<VARIANCE> 13
 5.429189e+01 8.589306e+00 1.617553e+01 1.201879e+01 2.426172e+01 1.412995e+01 1.998256e+01 1.646369e+01 1.705110e+01 1.570245e+01 1.435890e+01 1.111711e+01 1.110605e+02
<GCONST> 6.231345e+01
<TRANSP> 5
 0.000000e+00 1.000000e+00 0.000000e+00 0.000000e+00 0.000000e+00
 0.000000e+00 7.879868e-01 2.120132e-01 0.000000e+00 0.000000e+00
 0.000000e+00 0.000000e+00 8.177570e-01 1.822430e-01 0.000000e+00
 0.000000e+00 0.000000e+00 0.000000e+00 9.407637e-01 5.923624e-02
 0.000000e+00 0.000000e+00 0.000000e+00 0.000000e+00 0.000000e+00
<ENDHMM>
