~o
<STREAMINFO> 1 39
<VECSIZE> 39<NULLD><MFCC_D_A_0><DIAGC>
~h "b"
<BEGINHMM>
<NUMSTATES> 5
<STATE> 2
<MEAN> 39
 -5.554735e+00 -3.433059e+00 -3.698931e+00 -1.068577e+00 -6.072294e+00 -1.673779e+00 -7.078316e+00 -5.610797e+00 -2.280993e+00 -2.696262e+00 9.361578e-01 -2.802439e+00 5.309992e+01 -1.269840e-01 1.266426e-01 -2.763892e-01 -3.008402e-02 2.367425e-01 2.606286e-01 6.098742e-02 5.953593e-02 6.881207e-02 6.409973e-02 -8.363996e-02 -8.054770e-04 -3.757661e-01 6.815033e-04 1.143556e-03 -2.524520e-03 -2.844719e-04 -1.402698e-05 1.206561e-03 1.054714e-02 5.154632e-03 1.017220e-03 7.159689e-03 -3.183767e-03 -9.411516e-03 -3.191324e-03
<VARIANCE> 39
 1.029108e+02 1.534005e+02 1.171902e+02 7.295997e+01 1.239851e+02 9.251404e+01 7.221774e+01 6.003792e+01 7.167722e+01 5.783953e+01 7.612074e+01 5.225610e+01 2.922177e+02 2.674136e+00 4.089839e+00 2.744660e+00 3.603040e+00 3.307942e+00 2.746368e+00 4.292291e+00 2.915101e+00 3.684030e+00 3.127829e+00 3.283694e+00 3.052876e+00 2.591527e+00 3.651341e-01 6.615010e-01 3.205720e-01 5.081595e-01 4.761941e-01 4.589128e-01 7.311453e-01 4.949693e-01 5.607718e-01 5.737592e-01 5.556720e-01 5.265012e-01 3.433955e-01
<GCONST> 1.363299e+02
<STATE> 3
<MEAN> 39
 -6.051265e+00 -2.999080e+00 -4.645153e+00 -1.149030e+00 -5.266075e+00 -7.508551e-01 -6.807692e+00 -5.386918e+00 -2.039299e+00 -2.432471e+00 6.493963e-01 -2.842358e+00 5.176645e+01 -1.249542e-01 1.301823e-01 -2.783294e-01 -2.485730e-02 2.345182e-01 2.574899e-01 9.787745e-02 7.762062e-02 7.161512e-02 8.622994e-02 -8.939089e-02 -2.968982e-02 -3.796602e-01 -4.896071e-04 4.721638e-03 8.347893e-03 3.866001e-03 -8.261063e-03 -6.458334e-03 4.305085e-03 1.677590e-03 -3.317690e-03 2.211927e-03 2.331213e-03 -4.113712e-03 -9.624262e-04
<VARIANCE> 39
 1.049275e+02 1.483022e+02 1.046239e+02 7.468056e+01 1.090481e+02 8.880941e+01 7.218134e+01 5.813729e+01 7.017408e+01 5.524493e+01 6.743822e+01 4.757415e+01 2.920919e+02 2.556749e+00 3.968130e+00 2.619318e+00 3.504820e+00 3.230473e+00 2.739269e+00 4.235322e+00 2.849582e+00 3.613711e+00 3.080852e+00 3.096932e+00 2.995417e+00 2.495316e+00 3.496072e-01 6.392565e-01 3.060095e-01 4.925136e-01 4.731052e-01 4.579322e-01 7.157630e-01 4.842883e-01 5.594354e-01 5.653716e-01 5.361682e-01 5.222762e-01 3.263604e-01
<GCONST> 1.350603e+02
<STATE> 4
<MEAN> 39
 -7.304361e+00 -1.983305e+00 -5.860408e+00 -9.538162e-01 -4.410873e+00 6.964503e-01 -6.488288e+00 -4.895313e+00 -1.800582e+00 -2.290215e+00 1.216577e-01 -2.994317e+00 4.886269e+01 -1.348370e-01 1.373389e-01 -2.266679e-01 5.802251e-03 1.922963e-01 2.142078e-01 1.145381e-01 8.456406e-02 5.850445e-02 9.014872e-02 -6.636333e-02 -4.144417e-02 -3.606254e-01 -4.170311e-04 6.389899e-03 1.611187e-02 6.867244e-03 -1.257882e-02 -1.364725e-02 -4.808068e-03 -1.965028e-03 -6.410057e-03 -3.257344e-03 6.740446e-03 2.502454e-03 3.280014e-03
<VARIANCE> 39
 1.120973e+02 1.357157e+02 8.623357e+01 7.792047e+01 8.947505e+01 8.322666e+01 7.105344e+01 5.579953e+01 6.601369e+01 5.182458e+01 5.727338e+01 4.257531e+01 2.961965e+02 2.296544e+00 3.651810e+00 2.376140e+00 3.329498e+00 3.077673e+00 2.734256e+00 4.025791e+00 2.773371e+00 3.490307e+00 2.977234e+00 2.865348e+00 2.920659e+00 2.272088e+00 3.071496e-01 5.960918e-01 2.847878e-01 4.706460e-01 4.694297e-01 4.578529e-01 6.787491e-01 4.734996e-01 5.520772e-01 5.443960e-01 5.079898e-01 5.181468e-01 2.911878e-01
<GCONST> 1.328217e+02
<TRANSP> 5
 0.000000e+00 1.000000e+00 0.000000e+00 0.000000e+00 0.000000e+00
 0.000000e+00 7.208515e-01 2.791485e-01 0.000000e+00 0.000000e+00
 0.000000e+00 0.000000e+00 7.208520e-01 2.791481e-01 0.000000e+00
 0.000000e+00 0.000000e+00 0.000000e+00 8.422275e-01 1.577726e-01
 0.000000e+00 0.000000e+00 0.000000e+00 0.000000e+00 0.000000e+00
<ENDHMM>
~h "d"
<BEGINHMM>
<NUMSTATES> 5
<STATE> 2
<MEAN> 39
 -4.168724e+00 -5.118964e+00 -6.271250e+00 -3.534670e+00 -2.043940e+00 -1.704488e-01 -5.044194e+00 -3.474388e+00 -4.646983e-01 1.196658e+00 -4.138328e+00 -4.686696e+00 5.509871e+01 3.025904e-01 -2.726366e-01 9.049819e-02 -2.307578e-01 7.917552e-02 -1.386624e-01 -2.232800e-02 9.085700e-03 4.549775e-02 8.141464e-02 -1.377819e-01 -5.813085e-02 5.516874e-01 -5.369732e-03 -5.521301e-03 -4.728193e-04 -3.155845e-03 7.233505e-03 5.045185e-03 2.489408e-03 1.344478e-03 3.045985e-03 -3.095921e-03 -1.882619e-03 1.558383e-03 5.610179e-04
<VARIANCE> 39
 1.568963e+02 1.195244e+02 5.035321e+01 1.178643e+02 7.869560e+01 7.462386e+01 6.608666e+01 7.908696e+01 5.925238e+01 5.548065e+01 8.023416e+01 5.036752e+01 3.646333e+02 2.477931e+00 4.122762e+00 2.277801e+00 5.051219e+00 3.690070e+00 3.190531e+00 3.447327e+00 3.717827e+00 3.126789e+00 3.088321e+00 2.990827e+00 2.185791e+00 5.996376e+00 3.552176e-01 5.887060e-01 3.637374e-01 7.337577e-01 6.329390e-01 5.414100e-01 6.088229e-01 6.599318e-01 5.535432e-01 5.471039e-01 5.074679e-01 3.983323e-01 7.399904e-01
<GCONST> 1.375022e+02
<STATE> 3
<MEAN> 39
 -3.117026e+00 -6.087475e+00 -5.964258e+00 -4.344022e+00 -1.673728e+00 -6.326110e-01 -5.079019e+00 -3.449902e+00 -2.965361e-01 1.444743e+00 -4.643143e+00 -4.870034e+00 5.706537e+01 2.870744e-01 -2.786815e-01 8.530548e-02 -2.280851e-01 1.047031e-01 -1.168379e-01 -1.415874e-02 8.765320e-03 5.319035e-02 6.160501e-02 -1.471955e-01 -5.100363e-02 5.481686e-01 -5.530986e-03 3.103795e-05 -3.642125e-03 2.233349e-03 7.140924e-03 8.398113e-03 2.876422e-03 -6.691416e-04 1.481549e-03 -6.447928e-03 -2.621373e-03 2.311942e-03 -3.994412e-03
<VARIANCE> 39
 1.428100e+02 1.181225e+02 5.122945e+01 1.192795e+02 8.219489e+01 7.886140e+01 6.998272e+01 8.265811e+01 6.105219e+01 5.679998e+01 8.482531e+01 5.293175e+01 3.396480e+02 2.386670e+00 4.152836e+00 2.243493e+00 5.244089e+00 3.811367e+00 3.251443e+00 3.552985e+00 3.801156e+00 3.131118e+00 3.125297e+00 2.954376e+00 2.230609e+00 6.062344e+00 3.379969e-01 5.924035e-01 3.552307e-01 7.629394e-01 6.568379e-01 5.477642e-01 6.242302e-01 6.662962e-01 5.534716e-01 5.534457e-01 5.010943e-01 4.074667e-01 7.593601e-01
<GCONST> 1.379438e+02
<STATE> 4
<MEAN> 39
 -1.538352e+00 -7.359158e+00 -5.537066e+00 -5.581450e+00 -7.933594e-01 -1.210393e+00 -4.895755e+00 -3.494488e+00 -1.746961e-01 1.790144e+00 -5.485847e+00 -4.917143e+00 5.980898e+01 2.400646e-01 -2.620973e-01 5.865306e-02 -1.970288e-01 1.296806e-01 -8.987929e-02 1.195124e-02 5.607751e-03 5.732144e-02 3.330251e-02 -1.599484e-01 -3.281542e-02 4.949161e-01 -9.911403e-03 3.585208e-03 -6.869638e-03 6.760775e-03 2.617548e-03 6.968200e-03 4.557653e-03 -1.168537e-03 8.637532e-04 -5.854789e-03 -1.859828e-03 3.076879e-03 -1.248132e-02
<VARIANCE> 39
 1.178566e+02 1.171951e+02 5.199409e+01 1.250780e+02 8.977595e+01 8.661916e+01 7.866896e+01 8.698779e+01 6.526043e+01 5.966058e+01 9.255701e+01 5.733181e+01 2.895486e+02 2.184047e+00 4.033417e+00 2.175817e+00 5.554640e+00 3.829394e+00 3.287973e+00 3.694990e+00 3.762129e+00 3.125280e+00 3.125190e+00 2.870268e+00 2.328120e+00 5.746891e+00 2.997606e-01 5.798759e-01 3.406307e-01 8.065265e-01 6.577563e-01 5.501432e-01 6.345499e-01 6.469336e-01 5.525982e-01 5.532795e-01 4.870944e-01 4.231011e-01 7.225677e-01
<GCONST> 1.380145e+02
<TRANSP> 5
 0.000000e+00 1.000000e+00 0.000000e+00 0.000000e+00 0.000000e+00
 0.000000e+00 7.150750e-01 2.849250e-01 0.000000e+00 0.000000e+00
 0.000000e+00 0.000000e+00 7.150742e-01 2.849258e-01 0.000000e+00
 0.000000e+00 0.000000e+00 0.000000e+00 8.361782e-01 1.638218e-01
 0.000000e+00 0.000000e+00 0.000000e+00 0.000000e+00 0.000000e+00
<ENDHMM>
~h "g"
<BEGINHMM>
<NUMSTATES> 5
<STATE> 2
<MEAN> 39
 -2.571112e+00 -6.016820e+00 1.119267e-01 -4.020792e+00 -7.447499e+00 -3.181325e+00 -6.905032e+00 -6.416672e+00 -2.952927e+00 -1.655769e+00 4.062058e-01 -7.511944e+00 6.054947e+01 3.918013e-02 -1.324573e-01 -1.058413e-01 -4.406161e-02 1.078321e-01 4.223095e-02 5.977040e-02 1.919528e-02 1.025904e-01 6.975015e-02 -1.121740e-01 -8.686750e-02 1.030343e-01 6.597939e-03 -3.781762e-04 -1.783701e-02 -3.851187e-03 9.573868e-03 9.956917e-03 2.075606e-03 -4.151253e-04 4.273329e-03 -5.362236e-04 -4.429754e-03 6.637849e-03 6.232908e-04
<VARIANCE> 39
 5.874976e+01 1.580889e+02 1.564298e+02 1.090200e+02 9.550957e+01 1.018210e+02 6.051799e+01 7.815704e+01 1.023941e+02 5.296983e+01 9.051957e+01 8.000949e+01 2.623295e+02 1.123073e+00 3.134064e+00 4.480807e+00 3.840906e+00 4.973571e+00 4.132137e+00 3.530688e+00 3.321454e+00 3.566993e+00 2.680640e+00 4.459031e+00 2.771362e+00 4.545661e+00 1.630972e-01 4.445180e-01 5.540993e-01 5.506418e-01 8.660230e-01 6.954046e-01 6.230693e-01 5.409555e-01 5.568705e-01 4.579778e-01 7.689585e-01 4.941090e-01 5.842841e-01
<GCONST> 1.388554e+02
<STATE> 3
<MEAN> 39
 -2.404912e+00 -6.510496e+00 -3.701185e-01 -4.196644e+00 -6.999058e+00 -2.974665e+00 -6.671978e+00 -6.330297e+00 -2.547846e+00 -1.412158e+00 -2.721322e-02 -7.790599e+00 6.092216e+01 5.983861e-02 -1.295038e-01 -1.689119e-01 -5.382682e-02 1.421187e-01 7.834917e-02 6.676970e-02 1.720683e-02 1.157832e-01 6.601795e-02 -1.246570e-01 -5.749898e-02 9.729605e-02 4.108562e-03 1.316955e-03 -1.895132e-02 -3.044508e-03 9.520381e-03 1.015051e-02 8.724177e-04 -2.038068e-04 3.499005e-03 -1.894787e-03 -2.588191e-03 9.843224e-03 -3.894662e-03
<VARIANCE> 39
 5.690251e+01 1.566297e+02 1.566164e+02 1.116747e+02 9.837378e+01 1.043180e+02 6.119369e+01 7.951015e+01 1.019423e+02 5.249397e+01 9.128351e+01 7.996601e+01 2.587212e+02 1.047419e+00 3.107172e+00 4.323762e+00 3.825544e+00 4.913079e+00 4.104720e+00 3.399738e+00 3.315172e+00 3.579503e+00 2.655774e+00 4.470885e+00 2.797503e+00 4.298387e+00 1.579320e-01 4.402717e-01 5.335620e-01 5.537447e-01 8.627611e-01 6.937302e-01 6.056929e-01 5.404380e-01 5.564566e-01 4.562180e-01 7.775031e-01 4.970616e-01 5.522714e-01
<GCONST> 1.385224e+02
<STATE> 4
<MEAN> 39
 -2.219524e+00 -6.895048e+00 -1.408628e+00 -4.370944e+00 -6.108393e+00 -2.448119e+00 -6.207325e+00 -6.000755e+00 -1.977789e+00 -1.130516e+00 -8.430221e-01 -7.976586e+00 6.099287e+01 6.891312e-02 -1.172880e-01 -2.402581e-01 -5.509700e-02 1.814908e-01 1.195043e-01 7.228431e-02 1.837849e-02 1.285828e-01 5.579343e-02 -1.297023e-01 -7.941944e-03 6.526874e-02 2.027323e-04 3.503898e-03 -1.506739e-02 -1.451086e-03 6.353219e-03 8.167876e-03 -5.632844e-04 -2.133122e-04 1.626210e-03 -2.872415e-03 4.184931e-04 1.174102e-02 -8.925468e-03
<VARIANCE> 39
 5.632775e+01 1.614061e+02 1.527955e+02 1.189906e+02 1.025105e+02 1.098205e+02 6.329899e+01 8.193056e+01 1.008086e+02 5.304619e+01 9.000238e+01 7.997794e+01 2.633430e+02 9.798509e-01 3.035231e+00 3.964341e+00 3.816940e+00 4.610189e+00 3.979381e+00 3.216274e+00 3.271569e+00 3.562044e+00 2.627010e+00 4.343914e+00 2.802043e+00 3.940056e+00 1.526127e-01 4.263262e-01 4.922376e-01 5.540128e-01 8.146617e-01 6.724665e-01 5.753840e-01 5.331294e-01 5.580553e-01 4.543289e-01 7.657545e-01 4.943708e-01 4.991552e-01
<GCONST> 1.378449e+02
<TRANSP> 5
 0.000000e+00 1.000000e+00 0.000000e+00 0.000000e+00 0.000000e+00
 0.000000e+00 7.207425e-01 2.792575e-01 0.000000e+00 0.000000e+00
 0.000000e+00 0.000000e+00 7.207423e-01 2.792577e-01 0.000000e+00
 0.000000e+00 0.000000e+00 0.000000e+00 8.403562e-01 1.596438e-01
 0.000000e+00 0.000000e+00 0.000000e+00 0.000000e+00 0.000000e+00
<ENDHMM>
~h "j"
<BEGINHMM>
<NUMSTATES> 5
<STATE> 2
<MEAN> 39
 2.308171e-01 -5.565237e+00 1.754151e+00 -9.699744e-01 -7.767226e+00 -3.165721e+00 -7.519300e+00 -9.594997e+00 -4.420521e+00 -2.345101e+00 1.857782e-01 -4.163014e+00 6.158675e+01 -6.705105e-02 1.435356e-01 -6.417850e-02 1.683858e-01 -9.077952e-02 -4.251585e-02 -8.601222e-02 -8.370181e-02 -3.738466e-03 -1.875748e-01 2.253896e-01 1.135148e-01 -2.488061e-01 -4.062871e-03 -1.030965e-02 -1.278253e-02 -8.905497e-03 2.104268e-02 -2.912856e-03 8.822610e-03 4.240891e-03 5.676222e-03 9.436548e-03 -1.265801e-02 1.241969e-03 2.728500e-03
<VARIANCE> 39
 3.318948e+01 1.970138e+02 2.410041e+02 5.439799e+01 1.141312e+02 7.131441e+01 6.797576e+01 7.941225e+01 1.212901e+02 7.727821e+01 1.290636e+02 5.552029e+01 1.399777e+02 1.687254e+00 4.379130e+00 7.306786e+00 2.784039e+00 5.026346e+00 4.772642e+00 5.065395e+00 3.738408e+00 4.293194e+00 2.555803e+00 4.097205e+00 2.507807e+00 2.610260e+00 2.565823e-01 6.109388e-01 1.132002e+00 4.006597e-01 7.837191e-01 8.901551e-01 8.820983e-01 7.188775e-01 7.256687e-01 5.083582e-01 6.422277e-01 4.377038e-01 3.600878e-01
<GCONST> 1.405752e+02
<STATE> 3
<MEAN> 39
 -2.743103e-02 -5.119808e+00 1.390804e+00 -4.118132e-01 -7.944373e+00 -3.312968e+00 -7.764652e+00 -9.848425e+00 -4.351378e+00 -2.972995e+00 8.826416e-01 -3.740372e+00 6.069843e+01 -8.415606e-02 1.076940e-01 -1.055375e-01 1.323555e-01 -1.489953e-02 -5.340371e-02 -5.278687e-02 -6.491008e-02 1.464707e-02 -1.482027e-01 1.771671e-01 1.127700e-01 -2.375480e-01 -4.704698e-03 -9.791919e-03 -1.330410e-02 -1.056693e-02 2.254133e-02 -1.299744e-03 9.509523e-03 7.343653e-03 5.184796e-03 1.305948e-02 -1.627127e-02 -2.613558e-03 2.680668e-03
<VARIANCE> 39
 3.519792e+01 1.856393e+02 2.271976e+02 4.893196e+01 1.224764e+02 7.425106e+01 7.207626e+01 8.131131e+01 1.113896e+02 7.421906e+01 1.447608e+02 5.655247e+01 1.433678e+02 1.749020e+00 4.331744e+00 7.402239e+00 2.720797e+00 5.005563e+00 4.886867e+00 5.206930e+00 3.748129e+00 4.318354e+00 2.564694e+00 4.265115e+00 2.537250e+00 2.744358e+00 2.655117e-01 6.002285e-01 1.152298e+00 4.138842e-01 7.863132e-01 9.021670e-01 8.912085e-01 7.184635e-01 7.366829e-01 5.089587e-01 6.646845e-01 4.448193e-01 3.703296e-01
<GCONST> 1.409982e+02
<STATE> 4
<MEAN> 39
 -5.305244e-01 -4.363821e+00 4.885955e-01 2.104943e-01 -7.347586e+00 -3.338809e+00 -7.700722e+00 -9.774136e+00 -4.015912e+00 -3.548289e+00 1.122754e+00 -3.236255e+00 5.912135e+01 -1.125420e-01 6.441462e-02 -1.643855e-01 8.370142e-02 8.677981e-02 -5.429619e-02 -2.118243e-03 -1.920829e-02 4.784052e-02 -8.429295e-02 9.118091e-02 9.592365e-02 -2.279567e-01 -6.195388e-03 -7.324937e-03 -1.096377e-02 -1.041031e-02 1.913105e-02 1.877193e-03 8.625045e-03 1.064923e-02 4.287904e-03 1.527982e-02 -1.801189e-02 -6.020503e-03 5.165628e-04
<VARIANCE> 39
 3.954163e+01 1.718040e+02 2.152063e+02 4.338940e+01 1.378040e+02 7.829734e+01 8.105254e+01 8.173133e+01 9.962860e+01 6.861898e+01 1.658699e+02 5.516179e+01 1.489556e+02 1.817976e+00 4.283555e+00 7.358387e+00 2.680631e+00 4.883901e+00 4.991480e+00 5.436998e+00 3.633597e+00 4.253335e+00 2.560327e+00 4.343457e+00 2.518925e+00 2.957025e+00 2.743768e-01 5.858774e-01 1.147831e+00 4.340436e-01 7.664692e-01 9.067736e-01 8.995143e-01 6.889400e-01 7.316036e-01 5.031174e-01 6.734111e-01 4.435558e-01 3.846964e-01
<GCONST> 1.412287e+02
<TRANSP> 5
 0.000000e+00 1.000000e+00 0.000000e+00 0.000000e+00 0.000000e+00
 0.000000e+00 7.227297e-01 2.772702e-01 0.000000e+00 0.000000e+00
 0.000000e+00 0.000000e+00 7.227300e-01 2.772700e-01 0.000000e+00
 0.000000e+00 0.000000e+00 0.000000e+00 8.428293e-01 1.571707e-01
 0.000000e+00 0.000000e+00 0.000000e+00 0.000000e+00 0.000000e+00
<ENDHMM>
~h "k"
<BEGINHMM>
<NUMSTATES> 5
<STATE> 2
<MEAN> 39
 -3.536515e+00 -3.289186e+00 -5.123176e+00 -4.254723e+00 -2.884868e+00 1.152363e+00 -6.295842e+00 -5.748422e+00 -1.983158e+00 -2.533265e-01 -9.500885e-01 -4.102596e+00 5.572654e+01 3.186325e-02 -7.826418e-02 -6.557881e-02 -3.294827e-03 4.699510e-02 -6.551223e-02 5.416181e-02 1.853584e-02 4.077624e-03 2.644500e-03 1.637406e-02 -4.231958e-02 9.302056e-02 -3.181892e-03 -2.061750e-03 -8.348842e-04 3.632682e-03 8.795622e-04 3.939611e-03 4.286752e-03 -1.285422e-03 -4.813957e-03 -1.061775e-04 5.836747e-05 5.702432e-05 -3.078463e-03
<VARIANCE> 39
 1.281016e+02 1.101955e+02 6.460378e+01 1.371774e+02 1.150068e+02 8.885389e+01 7.678025e+01 7.591097e+01 7.871853e+01 5.549271e+01 6.847700e+01 5.225976e+01 2.687007e+02 2.193417e+00 4.022169e+00 2.774557e+00 5.369419e+00 3.966465e+00 3.973325e+00 3.956178e+00 3.092848e+00 3.635442e+00 3.206188e+00 3.138118e+00 2.588695e+00 5.004038e+00 2.904952e-01 6.151595e-01 4.569572e-01 7.359711e-01 6.281629e-01 6.879562e-01 6.830420e-01 5.519660e-01 6.429493e-01 5.792138e-01 5.380042e-01 4.474290e-01 6.198297e-01
<GCONST> 1.391675e+02
<STATE> 3
<MEAN> 39
 -3.461581e+00 -3.569405e+00 -5.355716e+00 -4.214345e+00 -2.730960e+00 9.573869e-01 -6.061864e+00 -5.667491e+00 -1.979797e+00 -2.736388e-01 -9.034823e-01 -4.248195e+00 5.601859e+01 2.495160e-02 -8.404010e-02 -6.581764e-02 6.727074e-03 4.421751e-02 -5.068025e-02 6.728068e-02 1.964866e-02 -6.184617e-03 4.632013e-04 1.157777e-02 -3.979262e-02 8.570059e-02 -1.070218e-03 -1.709788e-03 2.354230e-04 3.037716e-03 -1.504827e-03 4.621732e-03 2.704321e-03 6.882833e-05 -3.033028e-03 -4.270303e-04 -2.429991e-03 6.585792e-04 -1.968130e-03
<VARIANCE> 39
 1.257702e+02 1.119174e+02 6.546968e+01 1.386541e+02 1.200476e+02 8.995771e+01 7.740960e+01 7.644661e+01 7.980686e+01 5.668060e+01 6.896788e+01 5.387432e+01 2.666408e+02 2.116441e+00 4.031764e+00 2.839742e+00 5.310233e+00 3.978600e+00 4.020083e+00 3.961386e+00 3.083536e+00 3.704535e+00 3.222776e+00 3.145118e+00 2.598086e+00 4.807315e+00 2.800041e-01 6.174572e-01 4.709351e-01 7.307881e-01 6.359981e-01 6.903034e-01 6.818893e-01 5.484842e-01 6.525570e-01 5.835732e-01 5.405976e-01 4.461918e-01 5.906001e-01
<GCONST> 1.392794e+02
<STATE> 4
<MEAN> 39
 -3.228902e+00 -3.843379e+00 -5.616383e+00 -4.085011e+00 -2.336908e+00 8.060303e-01 -5.593852e+00 -5.494032e+00 -2.159590e+00 -2.367451e-01 -9.941892e-01 -4.400888e+00 5.631601e+01 2.564255e-02 -9.159111e-02 -6.240257e-02 1.624029e-02 3.632409e-02 -3.027826e-02 7.641941e-02 2.236071e-02 -1.003027e-02 -2.953107e-03 -9.506161e-04 -3.706473e-02 8.293121e-02 1.392270e-03 -1.911997e-03 8.464796e-04 7.921910e-04 -2.073512e-03 4.064460e-03 -8.018925e-05 -5.596587e-04 -1.668349e-03 7.833333e-04 -2.878574e-03 5.532901e-04 -5.590737e-05
<VARIANCE> 39
 1.240071e+02 1.146465e+02 6.772538e+01 1.450052e+02 1.276185e+02 9.214490e+01 7.967924e+01 7.780426e+01 8.239394e+01 5.947628e+01 7.121192e+01 5.731872e+01 2.657171e+02 2.097782e+00 4.034471e+00 2.993097e+00 5.323229e+00 4.086881e+00 4.117416e+00 3.998609e+00 3.139481e+00 3.810258e+00 3.263643e+00 3.185245e+00 2.630239e+00 4.671866e+00 2.773499e-01 6.158223e-01 4.971042e-01 7.346733e-01 6.569524e-01 6.948608e-01 6.800362e-01 5.533095e-01 6.649055e-01 5.898285e-01 5.466654e-01 4.475068e-01 5.645375e-01
<GCONST> 1.399229e+02
<TRANSP> 5
 0.000000e+00 1.000000e+00 0.000000e+00 0.000000e+00 0.000000e+00
 0.000000e+00 7.202159e-01 2.797841e-01 0.000000e+00 0.000000e+00
 0.000000e+00 0.000000e+00 7.202162e-01 2.797838e-01 0.000000e+00
 0.000000e+00 0.000000e+00 0.000000e+00 8.412233e-01 1.587767e-01
 0.000000e+00 0.000000e+00 0.000000e+00 0.000000e+00 0.000000e+00
<ENDHMM>
~h "l"
<BEGINHMM>
<NUMSTATES> 5
<STATE> 2
<MEAN> 39
 -2.590045e+00 -7.254458e+00 -5.558567e+00 -4.302304e+00 2.619851e-01 2.175126e+00 -6.760627e+00 -6.089151e+00 2.287264e+00 -1.284081e+00 -5.149849e+00 -4.571458e+00 5.961807e+01 -1.780545e-01 1.915774e-01 -8.076481e-03 1.838088e-01 6.122118e-02 1.584459e-01 9.100410e-02 1.886830e-02 6.803742e-02 -6.457364e-03 5.697701e-02 3.156747e-02 -3.202302e-01 -3.886272e-03 1.116228e-02 1.135821e-03 1.004621e-02 -4.660099e-04 -3.095478e-03 6.325859e-03 2.690797e-03 -4.220008e-03 -2.537381e-03 7.112264e-03 2.699400e-03 -1.455215e-02
<VARIANCE> 39
 7.365757e+01 1.637701e+02 7.605878e+01 1.203280e+02 1.062965e+02 1.225294e+02 5.493438e+01 6.718486e+01 9.235828e+01 6.328097e+01 8.779797e+01 6.445252e+01 2.382859e+02 1.547465e+00 3.030922e+00 1.681667e+00 3.192693e+00 2.002212e+00 2.173048e+00 2.389037e+00 2.558880e+00 2.973222e+00 2.329619e+00 2.493451e+00 1.858127e+00 1.613628e+00 1.936036e-01 3.453678e-01 2.484695e-01 4.353774e-01 3.175192e-01 3.539091e-01 3.834785e-01 4.194852e-01 4.900357e-01 3.767837e-01 4.013855e-01 3.259753e-01 1.652182e-01
<GCONST> 1.266610e+02
<STATE> 3
<MEAN> 39
 -3.251977e+00 -6.532125e+00 -5.567447e+00 -3.596759e+00 4.372606e-01 2.702936e+00 -6.424424e+00 -6.008336e+00 2.495102e+00 -1.329146e+00 -4.909204e+00 -4.456493e+00 5.841392e+01 -1.914795e-01 2.245921e-01 -6.350650e-03 2.157387e-01 5.847299e-02 1.455690e-01 1.104968e-01 3.016589e-02 5.050550e-02 -1.534293e-02 8.002356e-02 3.994106e-02 -3.675515e-01 -3.953660e-03 9.419916e-03 1.193810e-03 8.321497e-03 -3.719078e-04 -5.816867e-03 5.671333e-03 4.677641e-03 -6.131815e-03 -3.222313e-03 5.579431e-03 2.240608e-03 -1.350346e-02
<VARIANCE> 39
 7.797128e+01 1.764720e+02 7.267613e+01 1.227080e+02 9.906540e+01 1.223088e+02 5.507510e+01 6.601526e+01 9.176588e+01 6.200789e+01 8.201209e+01 5.984660e+01 2.545593e+02 1.601025e+00 3.039569e+00 1.685433e+00 3.132814e+00 1.967604e+00 2.120953e+00 2.419908e+00 2.548429e+00 2.835562e+00 2.338420e+00 2.473948e+00 1.788062e+00 1.566656e+00 2.000854e-01 3.419195e-01 2.511695e-01 4.177364e-01 3.111449e-01 3.452326e-01 3.910032e-01 4.226407e-01 4.672730e-01 3.848667e-01 3.972095e-01 3.176572e-01 1.582623e-01
<GCONST> 1.263126e+02
<STATE> 4
<MEAN> 39
 -4.422663e+00 -4.980919e+00 -5.549798e+00 -2.338069e+00 7.301661e-01 3.291588e+00 -6.048054e+00 -5.699864e+00 2.503302e+00 -1.561922e+00 -4.614399e+00 -4.199797e+00 5.588140e+01 -2.147145e-01 2.483005e-01 -5.535160e-03 2.469879e-01 4.255912e-02 1.175012e-01 1.254151e-01 5.239728e-02 1.819003e-02 -2.953592e-02 1.012298e-01 4.326245e-02 -4.196002e-01 -3.612708e-03 4.901222e-03 7.253826e-04 4.258198e-03 -6.831457e-04 -8.363429e-03 3.992917e-03 6.921836e-03 -7.849595e-03 -3.401921e-03 2.279218e-03 6.701087e-04 -9.285384e-03
<VARIANCE> 39
 8.474564e+01 1.866747e+02 6.752274e+01 1.275893e+02 9.069582e+01 1.165993e+02 5.544904e+01 6.393060e+01 8.817396e+01 5.801196e+01 7.371677e+01 5.293428e+01 2.780106e+02 1.612684e+00 2.985609e+00 1.719126e+00 3.093422e+00 1.936856e+00 2.076539e+00 2.431275e+00 2.542317e+00 2.663743e+00 2.293593e+00 2.426084e+00 1.700188e+00 1.506783e+00 2.009447e-01 3.302333e-01 2.601303e-01 4.045448e-01 3.046873e-01 3.390622e-01 3.973290e-01 4.267880e-01 4.383420e-01 3.872960e-01 3.894349e-01 3.060512e-01 1.493815e-01
<GCONST> 1.255664e+02
<TRANSP> 5
 0.000000e+00 1.000000e+00 0.000000e+00 0.000000e+00 0.000000e+00
 0.000000e+00 7.108113e-01 2.891886e-01 0.000000e+00 0.000000e+00
 0.000000e+00 0.000000e+00 7.108109e-01 2.891891e-01 0.000000e+00
 0.000000e+00 0.000000e+00 0.000000e+00 8.296381e-01 1.703619e-01
 0.000000e+00 0.000000e+00 0.000000e+00 0.000000e+00 0.000000e+00
<ENDHMM>
~h "m"
<BEGINHMM>
<NUMSTATES> 5
<STATE> 2
<MEAN> 39
 -3.146336e+00 -5.714504e+00 -6.828059e+00 -2.338335e+00 -1.271568e+00 1.560283e+00 -4.604530e+00 -5.252603e+00 -1.300242e+00 -7.356281e-01 -3.397127e+00 -4.697083e+00 5.569600e+01 -3.277440e-02 4.045254e-02 -8.756538e-04 7.330825e-02 4.734376e-02 9.000065e-03 4.839437e-02 3.461616e-02 -1.846662e-02 -3.035384e-02 -2.309620e-02 3.194865e-02 -8.776354e-02 -2.074584e-03 -1.272990e-03 1.808673e-03 -3.484370e-04 1.899210e-03 2.312155e-03 -2.018610e-03 1.179530e-03 5.852196e-03 1.023245e-03 2.521203e-04 -1.452447e-03 2.172629e-03
<VARIANCE> 39
 1.057063e+02 1.432816e+02 7.112976e+01 1.213936e+02 1.180282e+02 9.167589e+01 6.271282e+01 7.394933e+01 9.914038e+01 5.869789e+01 7.275488e+01 6.211011e+01 2.867617e+02 1.459211e+00 3.179983e+00 2.656334e+00 3.617010e+00 3.305295e+00 3.243095e+00 2.762647e+00 2.941536e+00 3.543347e+00 2.522607e+00 2.819007e+00 2.349621e+00 3.212022e+00 1.994150e-01 4.256059e-01 4.130542e-01 5.406439e-01 5.336640e-01 5.331798e-01 4.658318e-01 5.056702e-01 5.788172e-01 4.385599e-01 4.724682e-01 3.939402e-01 3.645101e-01
<GCONST> 1.336234e+02
<STATE> 3
<MEAN> 39
 -3.299187e+00 -5.569214e+00 -6.830101e+00 -2.080235e+00 -1.112449e+00 1.600099e+00 -4.458380e+00 -5.123185e+00 -1.318719e+00 -8.485823e-01 -3.472837e+00 -4.595676e+00 5.537193e+01 -4.102915e-02 3.590572e-02 3.906471e-03 7.297384e-02 5.293955e-02 1.797361e-02 3.969901e-02 3.768079e-02 3.437950e-03 -2.501891e-02 -2.088140e-02 2.469600e-02 -8.140302e-02 -2.847623e-03 -2.101354e-03 1.060276e-03 1.938841e-04 1.662642e-03 2.565066e-03 -2.500810e-03 4.827677e-04 7.060215e-03 1.885379e-03 1.273054e-03 -2.334045e-03 2.118712e-03
<VARIANCE> 39
 1.061707e+02 1.418747e+02 6.768176e+01 1.195368e+02 1.160544e+02 8.969975e+01 6.063088e+01 7.361450e+01 9.689670e+01 5.824788e+01 7.134902e+01 6.056538e+01 2.876782e+02 1.464726e+00 3.091557e+00 2.587933e+00 3.492607e+00 3.208947e+00 3.177494e+00 2.637633e+00 2.936873e+00 3.520318e+00 2.461022e+00 2.788396e+00 2.327520e+00 3.162347e+00 2.012853e-01 4.120209e-01 4.033290e-01 5.269866e-01 5.150688e-01 5.226658e-01 4.462927e-01 5.054223e-01 5.736446e-01 4.277136e-01 4.672857e-01 3.902152e-01 3.619869e-01
<GCONST> 1.329204e+02
<STATE> 4
<MEAN> 39
 -3.684410e+00 -5.040662e+00 -6.735473e+00 -1.590824e+00 -6.905978e-01 1.637102e+00 -4.300334e+00 -4.829424e+00 -1.351719e+00 -1.051100e+00 -3.665385e+00 -4.408314e+00 5.450832e+01 -6.622973e-02 3.530644e-02 3.990335e-03 7.652018e-02 4.630327e-02 3.039835e-02 2.232866e-02 4.094979e-02 3.571491e-02 -1.793632e-02 -9.401849e-03 1.372420e-02 -9.272342e-02 -4.554157e-03 -9.209250e-04 8.647284e-04 4.405718e-04 -7.086667e-04 1.515403e-03 -2.455647e-03 5.058272e-04 6.650798e-03 2.099226e-03 2.677072e-03 -2.014810e-03 -8.944017e-04
<VARIANCE> 39
 1.083612e+02 1.408596e+02 6.420578e+01 1.198349e+02 1.147797e+02 8.699097e+01 5.941260e+01 7.434517e+01 9.232066e+01 5.797911e+01 6.995827e+01 5.845313e+01 2.918441e+02 1.498287e+00 3.022707e+00 2.513987e+00 3.423128e+00 3.113444e+00 3.094537e+00 2.527443e+00 2.982734e+00 3.461965e+00 2.400481e+00 2.773318e+00 2.306099e+00 3.085106e+00 2.060116e-01 4.012945e-01 3.941182e-01 5.195578e-01 4.948184e-01 5.097620e-01 4.277017e-01 5.150597e-01 5.625057e-01 4.163931e-01 4.650910e-01 3.875583e-01 3.541456e-01
<GCONST> 1.323146e+02
<TRANSP> 5
 0.000000e+00 1.000000e+00 0.000000e+00 0.000000e+00 0.000000e+00
 0.000000e+00 7.161242e-01 2.838757e-01 0.000000e+00 0.000000e+00
 0.000000e+00 0.000000e+00 7.161236e-01 2.838764e-01 0.000000e+00
 0.000000e+00 0.000000e+00 0.000000e+00 8.363723e-01 1.636277e-01
 0.000000e+00 0.000000e+00 0.000000e+00 0.000000e+00 0.000000e+00
<ENDHMM>
~h "n"
<BEGINHMM>
<NUMSTATES> 5
<STATE> 2
<MEAN> 39
 -7.668129e+00 -2.030885e+00 -5.781420e+00 -4.567853e-01 -3.085774e+00 6.454412e-01 -4.486214e+00 -3.609094e+00 -5.818740e-01 -5.663183e-01 -2.470947e+00 -3.736535e+00 5.013787e+01 1.968111e-01 3.961037e-02 6.894753e-02 -8.614506e-02 -1.617491e-02 4.890520e-02 -8.184515e-02 -8.048024e-02 -9.149894e-02 1.059941e-02 1.586187e-02 -4.982882e-03 1.581830e-01 5.265973e-03 -3.313249e-03 1.403791e-03 -6.203178e-03 1.442574e-03 2.112726e-03 -8.522117e-04 -2.673583e-03 5.392056e-04 9.073868e-04 4.079603e-03 3.052387e-04 9.531167e-03
<VARIANCE> 39
 1.722991e+02 1.050238e+02 6.084515e+01 9.228840e+01 8.012404e+01 8.433278e+01 5.426888e+01 5.900004e+01 6.675713e+01 4.945157e+01 7.191530e+01 4.793493e+01 3.436123e+02 3.097753e+00 3.039964e+00 1.857936e+00 3.720993e+00 3.032001e+00 2.567194e+00 3.149451e+00 2.840364e+00 2.646893e+00 2.708270e+00 2.791955e+00 2.034708e+00 3.676167e+00 4.168700e-01 3.897332e-01 2.824369e-01 5.152257e-01 4.888951e-01 4.338379e-01 5.391014e-01 5.267609e-01 4.439496e-01 4.896890e-01 4.692270e-01 3.523819e-01 4.315716e-01
<GCONST> 1.317981e+02
<STATE> 3
<MEAN> 39
 -6.869428e+00 -1.939029e+00 -5.515531e+00 -8.588191e-01 -3.129576e+00 8.293679e-01 -4.787413e+00 -3.927838e+00 -9.111537e-01 -5.062421e-01 -2.385397e+00 -3.740505e+00 5.085131e+01 2.128799e-01 2.577968e-02 7.471891e-02 -1.025648e-01 -5.332917e-03 5.332252e-02 -8.230692e-02 -8.954649e-02 -8.474664e-02 1.382345e-02 2.791304e-02 -2.653170e-03 1.916919e-01 2.822414e-03 -6.949032e-03 1.068908e-03 -6.045759e-03 1.945886e-03 9.252933e-04 8.965485e-04 -2.395413e-03 3.189245e-03 1.064215e-04 3.889919e-03 7.284264e-04 9.905418e-03
<VARIANCE> 39
 1.715016e+02 1.079781e+02 6.074658e+01 1.010260e+02 8.073091e+01 8.522475e+01 5.728192e+01 6.128843e+01 6.961032e+01 5.085678e+01 7.214507e+01 5.009137e+01 3.355850e+02 3.300554e+00 3.162134e+00 1.939349e+00 4.027373e+00 3.164217e+00 2.712997e+00 3.306845e+00 2.940264e+00 2.758292e+00 2.779723e+00 2.901056e+00 2.127322e+00 4.056442e+00 4.423160e-01 4.074713e-01 2.952778e-01 5.515406e-01 5.073001e-01 4.581665e-01 5.625386e-01 5.425501e-01 4.651426e-01 4.982900e-01 4.855325e-01 3.670023e-01 4.756635e-01
<GCONST> 1.333844e+02
<STATE> 4
<MEAN> 39
 -5.564345e+00 -1.678792e+00 -5.097478e+00 -1.657841e+00 -3.080331e+00 1.332875e+00 -5.330364e+00 -4.536931e+00 -1.501459e+00 -3.998066e-01 -2.189826e+00 -3.561178e+00 5.176954e+01 2.233508e-01 -3.277432e-03 8.030234e-02 -1.185872e-01 1.654294e-02 4.795347e-02 -7.923942e-02 -1.013178e-01 -6.604029e-02 1.328170e-02 3.219393e-02 -1.311101e-03 2.380057e-01 -1.969116e-03 -7.756841e-03 -5.585129e-04 -3.538626e-03 2.286748e-03 -1.536586e-03 1.922585e-03 -1.370098e-03 4.733851e-03 -1.654076e-03 1.109615e-03 2.219720e-04 5.763091e-03
<VARIANCE> 39
 1.674409e+02 1.130387e+02 6.012616e+01 1.188655e+02 8.502873e+01 8.839157e+01 6.413985e+01 6.509151e+01 7.377992e+01 5.456491e+01 7.309790e+01 5.346426e+01 3.206620e+02 3.589149e+00 3.315846e+00 2.092940e+00 4.555743e+00 3.333738e+00 2.927198e+00 3.501721e+00 3.070238e+00 2.927447e+00 2.951308e+00 3.046357e+00 2.261830e+00 4.707378e+00 4.759459e-01 4.355579e-01 3.212648e-01 6.136800e-01 5.309593e-01 4.959741e-01 5.916219e-01 5.604448e-01 5.007930e-01 5.218366e-01 5.100641e-01 3.865861e-01 5.548680e-01
<GCONST> 1.358335e+02
<TRANSP> 5
 0.000000e+00 1.000000e+00 0.000000e+00 0.000000e+00 0.000000e+00
 0.000000e+00 7.182391e-01 2.817608e-01 0.000000e+00 0.000000e+00
 0.000000e+00 0.000000e+00 7.182391e-01 2.817609e-01 0.000000e+00
 0.000000e+00 0.000000e+00 0.000000e+00 8.395695e-01 1.604304e-01
 0.000000e+00 0.000000e+00 0.000000e+00 0.000000e+00 0.000000e+00
<ENDHMM>
~h "p"
<BEGINHMM>
<NUMSTATES> 5
<STATE> 2
<MEAN> 39
 -8.146174e+00 -4.518982e+00 -7.018742e+00 -1.640792e+00 -2.340721e+00 2.440001e-02 -3.031837e+00 -2.239595e+00 -3.084922e-01 1.360285e-01 -3.017326e+00 -3.531387e+00 5.068079e+01 1.677288e-01 -1.289973e-01 -1.339966e-02 -6.256119e-02 4.558174e-02 1.341058e-02 -1.290622e-02 -3.620274e-02 1.014812e-02 5.322744e-02 -2.882349e-02 -3.892307e-02 2.066032e-01 -1.669262e-03 -1.108939e-03 -1.864792e-03 5.289232e-03 3.792599e-03 8.441455e-04 -2.360475e-03 -4.541409e-03 -8.495831e-04 -3.422526e-03 -4.831682e-03 -4.286109e-03 4.053123e-03
<VARIANCE> 39
 1.627582e+02 1.183416e+02 6.175687e+01 8.513145e+01 8.122306e+01 7.693131e+01 4.707511e+01 5.374027e+01 6.545020e+01 4.981402e+01 5.557132e+01 4.230470e+01 4.003561e+02 2.437703e+00 2.844658e+00 2.211600e+00 2.643881e+00 2.768719e+00 2.421872e+00 2.266869e+00 2.690022e+00 2.626823e+00 2.548119e+00 2.735289e+00 1.914359e+00 4.379460e+00 3.555728e-01 3.578531e-01 3.235501e-01 4.248205e-01 4.265749e-01 3.862787e-01 3.914079e-01 4.978809e-01 4.327640e-01 4.609337e-01 4.514934e-01 3.458719e-01 5.220982e-01
<GCONST> 1.293744e+02
<STATE> 3
<MEAN> 39
 -7.597204e+00 -4.937889e+00 -7.084870e+00 -1.819616e+00 -2.170140e+00 7.501242e-02 -3.083688e+00 -2.370830e+00 -2.641821e-01 2.988487e-01 -3.173106e+00 -3.705703e+00 5.140216e+01 1.563699e-01 -1.265299e-01 -2.487576e-02 -5.582212e-02 4.846093e-02 1.172718e-02 -1.305939e-02 -3.832444e-02 1.695418e-02 4.262019e-02 -5.360303e-02 -5.645149e-02 2.174115e-01 -3.306059e-03 1.151063e-03 -2.985174e-03 1.311225e-03 2.568913e-04 -1.590492e-03 1.260916e-04 1.404382e-04 2.825215e-03 -3.041757e-03 -8.229342e-03 -4.877934e-03 3.039048e-03
<VARIANCE> 39
 1.594246e+02 1.208091e+02 6.203096e+01 8.772424e+01 8.040359e+01 7.591051e+01 4.649414e+01 5.504634e+01 6.582100e+01 5.138364e+01 5.752592e+01 4.270134e+01 3.973408e+02 2.503656e+00 2.973353e+00 2.253737e+00 2.730046e+00 2.811076e+00 2.426064e+00 2.289234e+00 2.739573e+00 2.678226e+00 2.662617e+00 2.753731e+00 1.936459e+00 4.588488e+00 3.674775e-01 3.731171e-01 3.305131e-01 4.367727e-01 4.352945e-01 3.876739e-01 3.953721e-01 5.070415e-01 4.365675e-01 4.811496e-01 4.516007e-01 3.471787e-01 5.485725e-01
<GCONST> 1.300460e+02
<STATE> 4
<MEAN> 39
 -6.892995e+00 -5.335539e+00 -7.157096e+00 -2.183214e+00 -1.652990e+00 -6.981018e-02 -3.039337e+00 -2.512070e+00 -2.772195e-01 5.813386e-01 -3.682358e+00 -3.881342e+00 5.223992e+01 1.419853e-01 -1.176544e-01 -3.724555e-02 -6.689039e-02 5.271529e-02 -8.658726e-03 -1.148135e-03 -2.856608e-02 2.806089e-02 4.174509e-02 -8.038748e-02 -6.354374e-02 2.280378e-01 -2.031961e-03 1.373925e-03 -9.682064e-04 -1.736382e-03 5.390275e-04 -4.325581e-03 1.527913e-03 1.605440e-03 2.734820e-03 -5.601905e-04 -5.107945e-03 -9.887419e-04 2.397532e-03
<VARIANCE> 39
 1.558862e+02 1.237599e+02 6.239228e+01 9.477361e+01 8.342875e+01 7.639768e+01 4.756173e+01 5.824401e+01 6.639671e+01 5.457682e+01 6.133834e+01 4.394456e+01 3.920324e+02 2.760688e+00 3.194653e+00 2.351896e+00 3.128191e+00 3.027734e+00 2.531099e+00 2.455572e+00 2.881750e+00 2.807863e+00 2.864367e+00 2.875761e+00 1.964928e+00 5.055032e+00 4.027353e-01 3.987949e-01 3.495669e-01 4.883197e-01 4.717990e-01 4.078865e-01 4.230195e-01 5.297163e-01 4.539816e-01 5.117537e-01 4.709059e-01 3.497346e-01 5.984806e-01
<GCONST> 1.320680e+02
<TRANSP> 5
 0.000000e+00 1.000000e+00 0.000000e+00 0.000000e+00 0.000000e+00
 0.000000e+00 7.181369e-01 2.818631e-01 0.000000e+00 0.000000e+00
 0.000000e+00 0.000000e+00 7.181369e-01 2.818632e-01 0.000000e+00
 0.000000e+00 0.000000e+00 0.000000e+00 8.397271e-01 1.602729e-01
 0.000000e+00 0.000000e+00 0.000000e+00 0.000000e+00 0.000000e+00
<ENDHMM>
~h "r"
<BEGINHMM>
<NUMSTATES> 5
<STATE> 2
<MEAN> 39
 -2.021458e+00 -8.685557e+00 -6.088241e+00 -2.390530e+00 -1.397918e+00 -7.612600e-01 -3.154885e+00 -3.796322e+00 7.808830e-01 1.246036e-01 -4.883666e+00 -5.149763e+00 6.005664e+01 -1.111701e-01 1.404493e-01 6.161856e-02 1.063123e-01 -6.911912e-02 7.800091e-03 -4.540965e-02 1.491701e-02 -2.136732e-02 -4.632946e-02 1.089697e-01 4.542204e-05 -2.007630e-01 -6.333974e-03 7.037876e-03 4.561463e-03 1.224341e-03 -3.648209e-03 -2.658224e-03 -5.488783e-04 2.196722e-03 -3.713725e-03 -1.509143e-03 3.522816e-03 2.481191e-03 -8.512462e-03
<VARIANCE> 39
 9.057215e+01 1.296053e+02 1.002480e+02 8.937614e+01 1.196877e+02 8.925787e+01 6.128850e+01 6.533416e+01 9.091229e+01 5.994910e+01 7.386326e+01 5.748692e+01 2.604144e+02 1.468359e+00 2.347433e+00 2.185294e+00 2.542664e+00 2.863208e+00 2.490005e+00 2.334170e+00 2.650244e+00 3.049691e+00 2.284310e+00 2.645234e+00 2.060101e+00 1.930436e+00 1.955512e-01 3.120889e-01 2.904375e-01 3.837008e-01 4.234900e-01 4.046366e-01 3.975137e-01 4.617747e-01 4.832353e-01 3.974928e-01 4.398624e-01 3.549385e-01 2.396775e-01
<GCONST> 1.278874e+02
<STATE> 3
<MEAN> 39
 -2.480881e+00 -8.128778e+00 -5.867456e+00 -1.999887e+00 -1.674654e+00 -7.315499e-01 -3.328924e+00 -3.729433e+00 6.811080e-01 -6.134311e-02 -4.478965e+00 -5.130680e+00 5.924359e+01 -1.295606e-01 1.610146e-01 7.645509e-02 1.086578e-01 -7.947708e-02 -1.264903e-03 -4.541536e-02 2.158171e-02 -3.268092e-02 -5.143802e-02 1.188048e-01 1.100992e-02 -2.253419e-01 -4.378567e-03 5.692799e-03 4.418705e-03 4.443726e-04 -2.791688e-03 -2.759824e-03 3.238119e-04 1.434564e-03 -3.835363e-03 -1.287456e-03 3.066291e-03 4.842455e-03 -6.237871e-03
<VARIANCE> 39
 9.514531e+01 1.328546e+02 1.051662e+02 8.424036e+01 1.168281e+02 8.941157e+01 6.000183e+01 6.328790e+01 8.959096e+01 5.927217e+01 7.209156e+01 5.653907e+01 2.703305e+02 1.497862e+00 2.326542e+00 2.208093e+00 2.449752e+00 2.857197e+00 2.478846e+00 2.332665e+00 2.628049e+00 3.041641e+00 2.260061e+00 2.641445e+00 2.033118e+00 1.829256e+00 1.983550e-01 3.102579e-01 2.889632e-01 3.719912e-01 4.197711e-01 4.045038e-01 3.979340e-01 4.602727e-01 4.802113e-01 3.930576e-01 4.382331e-01 3.524379e-01 2.293257e-01
<GCONST> 1.276203e+02
<STATE> 4
<MEAN> 39
 -3.457831e+00 -6.840722e+00 -5.454986e+00 -1.316263e+00 -2.071211e+00 -7.225052e-01 -3.545903e+00 -3.487039e+00 3.721229e-01 -4.272553e-01 -3.914918e+00 -4.845485e+00 5.730463e+01 -1.465576e-01 1.785861e-01 8.213930e-02 1.077505e-01 -8.741575e-02 -5.098733e-03 -4.215426e-02 2.661450e-02 -4.288952e-02 -5.767140e-02 1.227587e-01 3.232484e-02 -2.530767e-01 -1.102971e-03 2.902156e-03 2.380049e-03 -3.760585e-04 -1.134560e-04 -2.262524e-03 1.394141e-03 1.194222e-03 -3.048493e-03 -5.038257e-04 1.183068e-03 6.118897e-03 -2.720837e-03
<VARIANCE> 39
 1.057400e+02 1.378847e+02 1.111304e+02 8.120572e+01 1.143740e+02 9.095502e+01 5.939771e+01 6.112281e+01 8.735175e+01 5.847876e+01 7.011702e+01 5.513940e+01 2.931114e+02 1.596165e+00 2.352489e+00 2.290637e+00 2.444885e+00 2.885279e+00 2.519968e+00 2.392446e+00 2.616410e+00 3.017651e+00 2.248730e+00 2.661805e+00 2.002609e+00 1.756191e+00 2.096704e-01 3.154987e-01 2.970457e-01 3.718135e-01 4.222012e-01 4.145277e-01 4.073158e-01 4.604215e-01 4.748577e-01 3.890964e-01 4.410312e-01 3.507338e-01 2.204704e-01
<GCONST> 1.279111e+02
<TRANSP> 5
 0.000000e+00 1.000000e+00 0.000000e+00 0.000000e+00 0.000000e+00
 0.000000e+00 7.192348e-01 2.807653e-01 0.000000e+00 0.000000e+00
 0.000000e+00 0.000000e+00 7.192345e-01 2.807654e-01 0.000000e+00
 0.000000e+00 0.000000e+00 0.000000e+00 8.407797e-01 1.592202e-01
 0.000000e+00 0.000000e+00 0.000000e+00 0.000000e+00 0.000000e+00
<ENDHMM>
~h "s"
<BEGINHMM>
<NUMSTATES> 5
<STATE> 2
<MEAN> 39
 -6.330191e+00 -5.873006e+00 -5.183690e+00 -2.506929e+00 1.259563e-01 -3.231340e+00 -2.305816e+00 -3.723080e+00 8.041553e-01 -1.521757e-01 -2.576981e+00 -4.295439e+00 5.851503e+01 -2.155435e-02 1.294261e-02 -3.583198e-02 1.180486e-02 -1.233870e-02 -2.855312e-02 1.878691e-04 2.037592e-03 9.612436e-03 2.092540e-02 5.414516e-02 1.635694e-04 -1.436360e-02 5.779905e-03 -1.984711e-03 -1.025325e-04 -1.608386e-04 -2.999149e-03 3.500441e-03 -3.445586e-03 -1.298241e-03 -4.400400e-03 1.394645e-03 -4.712609e-03 4.190943e-03 -2.071973e-03
<VARIANCE> 39
 1.415547e+02 1.151119e+02 6.863090e+01 9.010186e+01 1.179348e+02 8.559464e+01 6.587718e+01 6.169627e+01 7.853880e+01 5.966768e+01 7.358623e+01 5.480852e+01 2.752417e+02 3.945333e+00 3.404113e+00 2.292232e+00 3.251110e+00 3.431111e+00 3.104574e+00 3.426753e+00 2.693846e+00 3.257891e+00 3.041369e+00 3.266236e+00 2.259701e+00 3.258569e+00 5.227496e-01 4.619491e-01 3.306804e-01 5.064988e-01 5.052791e-01 5.047892e-01 5.873666e-01 4.875123e-01 5.324460e-01 5.386361e-01 5.390520e-01 3.886647e-01 4.224496e-01
<GCONST> 1.351773e+02
<STATE> 3
<MEAN> 39
 -6.365197e+00 -5.846519e+00 -5.278354e+00 -2.488921e+00 5.624196e-02 -3.331163e+00 -2.319080e+00 -3.723441e+00 8.012896e-01 -9.168087e-02 -2.440078e+00 -4.267459e+00 5.847730e+01 -2.857412e-03 7.626561e-03 -2.684245e-02 4.906578e-03 -2.135787e-02 -2.094358e-02 -9.937013e-03 9.393733e-04 9.072575e-04 1.759471e-02 3.379234e-02 1.226550e-02 -1.318124e-02 5.115913e-03 -1.398014e-03 2.343254e-03 -2.478174e-03 -2.118079e-03 2.691064e-03 -3.306258e-03 1.719519e-04 -1.702463e-03 -1.480917e-03 -6.694162e-03 2.750448e-03 3.938905e-04
<VARIANCE> 39
 1.428406e+02 1.151861e+02 7.047578e+01 9.179326e+01 1.192270e+02 8.684856e+01 6.655285e+01 6.105330e+01 7.999057e+01 5.968525e+01 7.407799e+01 5.528839e+01 2.750279e+02 4.039037e+00 3.405908e+00 2.314459e+00 3.273206e+00 3.425060e+00 3.141567e+00 3.483493e+00 2.712891e+00 3.239314e+00 3.050122e+00 3.307266e+00 2.274543e+00 3.220003e+00 5.374703e-01 4.602579e-01 3.333939e-01 5.070305e-01 5.050914e-01 5.085375e-01 5.970332e-01 4.895217e-01 5.292842e-01 5.410885e-01 5.459958e-01 3.911487e-01 4.131670e-01
<GCONST> 1.354251e+02
<STATE> 4
<MEAN> 39
 -6.344630e+00 -5.647799e+00 -5.259106e+00 -2.693235e+00 1.409020e-01 -3.566138e+00 -2.261049e+00 -3.664188e+00 6.473163e-01 -5.512762e-02 -2.519661e+00 -4.001705e+00 5.816471e+01 3.207546e-02 -2.466383e-03 -7.269548e-03 -1.571297e-02 -3.292574e-02 -1.822220e-02 -1.549695e-02 1.161010e-03 -9.762361e-03 6.020800e-03 -4.165075e-04 2.168379e-02 5.132655e-03 6.055631e-03 -1.439983e-03 2.370858e-03 -3.484244e-03 -1.757842e-03 1.623886e-03 -2.092663e-03 5.464838e-04 -1.441775e-03 -1.581080e-03 -6.580190e-03 9.753981e-04 1.792817e-03
<VARIANCE> 39
 1.476996e+02 1.158038e+02 7.297380e+01 9.591421e+01 1.230462e+02 9.054852e+01 6.926331e+01 6.042321e+01 8.153822e+01 6.076997e+01 7.618044e+01 5.650704e+01 2.777232e+02 4.205758e+00 3.418644e+00 2.395018e+00 3.397778e+00 3.481798e+00 3.276784e+00 3.584695e+00 2.771700e+00 3.200557e+00 3.051905e+00 3.428941e+00 2.310454e+00 3.334761e+00 5.622562e-01 4.570063e-01 3.453973e-01 5.234886e-01 5.150234e-01 5.271069e-01 6.102924e-01 4.996235e-01 5.234101e-01 5.391858e-01 5.663951e-01 3.973706e-01 4.152641e-01
<GCONST> 1.362878e+02
<TRANSP> 5
 0.000000e+00 1.000000e+00 0.000000e+00 0.000000e+00 0.000000e+00
 0.000000e+00 7.145727e-01 2.854273e-01 0.000000e+00 0.000000e+00
 0.000000e+00 0.000000e+00 7.145746e-01 2.854253e-01 0.000000e+00
 0.000000e+00 0.000000e+00 0.000000e+00 8.352942e-01 1.647058e-01
 0.000000e+00 0.000000e+00 0.000000e+00 0.000000e+00 0.000000e+00
<ENDHMM>
~h "t"
<BEGINHMM>
<NUMSTATES> 5
<STATE> 2
<MEAN> 39
 -4.236422e+00 -3.283350e+00 -6.021542e+00 -4.338521e+00 -3.613722e+00 1.646551e+00 -6.044113e+00 -5.785451e+00 -1.616665e+00 -6.522768e-01 -1.080042e+00 -3.610452e+00 5.469238e+01 1.741700e-01 -2.438917e-02 5.975492e-02 -8.630963e-02 -1.707331e-02 3.954593e-03 -5.843563e-02 -5.657387e-02 2.090737e-03 -3.959211e-03 -2.599953e-02 -1.005322e-02 1.857468e-01 -1.516895e-03 3.679196e-03 4.456510e-03 4.675406e-03 1.652559e-03 -1.426161e-03 -4.330896e-04 -1.289556e-03 -2.053486e-04 -2.738015e-03 1.930502e-03 1.091042e-03 -1.871422e-04
<VARIANCE> 39
 1.468142e+02 1.036565e+02 6.597814e+01 1.300146e+02 9.946146e+01 9.077769e+01 6.950026e+01 7.204137e+01 8.542632e+01 5.375264e+01 7.090372e+01 5.838656e+01 2.944528e+02 3.257334e+00 3.330919e+00 2.600291e+00 5.157877e+00 3.551532e+00 3.333971e+00 3.920002e+00 3.273567e+00 3.450163e+00 3.199178e+00 3.296932e+00 2.622279e+00 5.432633e+00 4.406248e-01 4.745057e-01 4.070520e-01 7.118514e-01 5.683615e-01 5.713462e-01 6.764746e-01 5.729054e-01 5.793607e-01 5.619700e-01 5.602493e-01 4.550987e-01 6.677579e-01
<GCONST> 1.389223e+02
<STATE> 3
<MEAN> 39
 -3.626096e+00 -3.366096e+00 -5.793427e+00 -4.605865e+00 -3.644595e+00 1.647256e+00 -6.250422e+00 -5.986476e+00 -1.598523e+00 -6.837857e-01 -1.178170e+00 -3.655283e+00 5.536904e+01 1.635025e-01 -1.386963e-02 6.862789e-02 -6.863379e-02 -1.215114e-02 -3.364330e-03 -5.867243e-02 -5.583794e-02 1.307781e-03 -1.352712e-02 -2.198885e-02 -9.903605e-03 1.806810e-01 -2.811674e-03 2.396744e-03 1.511490e-03 4.318516e-03 1.372415e-03 -1.814008e-03 -2.189702e-04 1.541172e-04 -7.788273e-04 -2.476530e-03 1.305856e-03 -1.493426e-04 -9.864923e-04
<VARIANCE> 39
 1.372451e+02 1.041043e+02 6.650787e+01 1.332229e+02 1.016663e+02 9.066794e+01 7.072704e+01 7.230293e+01 8.565782e+01 5.437165e+01 7.235849e+01 5.980635e+01 2.810850e+02 3.161734e+00 3.366337e+00 2.599678e+00 5.213968e+00 3.592937e+00 3.359153e+00 3.955905e+00 3.322341e+00 3.468288e+00 3.223254e+00 3.300278e+00 2.629063e+00 5.602368e+00 4.257137e-01 4.796655e-01 4.067779e-01 7.153221e-01 5.767540e-01 5.765532e-01 6.822232e-01 5.778766e-01 5.868071e-01 5.642182e-01 5.620320e-01 4.556319e-01 6.928287e-01
<GCONST> 1.391064e+02
<STATE> 4
<MEAN> 39
 -2.868981e+00 -3.255108e+00 -5.443826e+00 -4.862470e+00 -3.578036e+00 1.686885e+00 -6.554542e+00 -6.230155e+00 -1.752167e+00 -7.333630e-01 -1.310585e+00 -3.690325e+00 5.598887e+01 1.312113e-01 -1.337514e-02 5.694312e-02 -4.047705e-02 -6.251850e-03 -1.661234e-02 -4.848936e-02 -3.792505e-02 -2.160298e-03 -2.139502e-02 -2.183718e-02 -1.988336e-02 1.578309e-01 -5.442397e-03 -3.942151e-05 -2.671467e-03 4.336990e-03 8.039525e-04 -1.622729e-03 1.456705e-03 2.800039e-03 -1.423858e-03 -1.597543e-03 5.769274e-04 -9.693439e-04 -4.108486e-03
<VARIANCE> 39
 1.246570e+02 1.052228e+02 6.749417e+01 1.399700e+02 1.065980e+02 9.082471e+01 7.297882e+01 7.334151e+01 8.526404e+01 5.554224e+01 7.443855e+01 6.127898e+01 2.665979e+02 2.922017e+00 3.492766e+00 2.633039e+00 5.333203e+00 3.642394e+00 3.412434e+00 3.981310e+00 3.354303e+00 3.522227e+00 3.254859e+00 3.316176e+00 2.646233e+00 5.661204e+00 3.908913e-01 5.002929e-01 4.127347e-01 7.244720e-01 5.850620e-01 5.859146e-01 6.860461e-01 5.797849e-01 6.031179e-01 5.690965e-01 5.678712e-01 4.581797e-01 7.036257e-01
<GCONST> 1.393726e+02
<TRANSP> 5
 0.000000e+00 1.000000e+00 0.000000e+00 0.000000e+00 0.000000e+00
 0.000000e+00 7.220356e-01 2.779644e-01 0.000000e+00 0.000000e+00
 0.000000e+00 0.000000e+00 7.220375e-01 2.779625e-01 0.000000e+00
 0.000000e+00 0.000000e+00 0.000000e+00 8.427619e-01 1.572382e-01
 0.000000e+00 0.000000e+00 0.000000e+00 0.000000e+00 0.000000e+00
<ENDHMM>
~h "w"
<BEGINHMM>
<NUMSTATES> 5
<STATE> 2
<MEAN> 39
 -6.556729e+00 -5.482367e+00 1.725497e+00 -2.564719e+00 1.174762e+00 -6.600626e+00 -4.158625e+00 -3.290532e+00 -2.418729e-01 -2.331858e+00 -7.074184e-01 -3.901037e+00 6.121097e+01 -3.184337e-02 2.035713e-01 1.062400e-01 1.561201e-01 -2.625375e-01 -3.325727e-02 3.266708e-02 1.711691e-02 -1.970277e-01 -1.238947e-01 -6.976497e-03 2.171672e-01 -3.805158e-01 -8.851876e-03 8.496325e-03 -1.539733e-02 1.189495e-02 9.488408e-03 2.186728e-02 7.915606e-03 -6.491071e-03 1.956511e-04 -1.328470e-03 -6.467740e-03 5.829956e-03 -2.249094e-02
<VARIANCE> 39
 9.607971e+01 7.479524e+01 7.790787e+01 3.700505e+01 1.179711e+02 9.121252e+01 5.661956e+01 5.286002e+01 9.524964e+01 3.821283e+01 6.037528e+01 4.559767e+01 1.054786e+02 4.500488e+00 2.228577e+00 2.244287e+00 2.036258e+00 4.247378e+00 4.081051e+00 3.188785e+00 3.089863e+00 3.454044e+00 2.159686e+00 2.473343e+00 2.081254e+00 1.625529e+00 5.475309e-01 2.985969e-01 2.643088e-01 3.788769e-01 5.373639e-01 6.479905e-01 5.459456e-01 5.518723e-01 4.831550e-01 3.543601e-01 4.345504e-01 3.617079e-01 1.566894e-01
<GCONST> 1.278538e+02
<STATE> 3
<MEAN> 39
 -6.713230e+00 -4.744742e+00 1.966411e+00 -1.958332e+00 2.483482e-01 -6.528975e+00 -3.967300e+00 -3.333200e+00 -9.402767e-01 -2.761864e+00 -8.019766e-01 -3.126587e+00 5.968804e+01 -6.835059e-02 2.222309e-01 4.296027e-02 1.992815e-01 -2.213783e-01 4.743599e-02 5.234011e-02 -8.074405e-03 -1.838737e-01 -1.303456e-01 -2.610990e-02 2.253372e-01 -4.526469e-01 -1.147291e-02 4.339080e-04 -1.660505e-02 1.095885e-02 1.309476e-02 2.344301e-02 3.548588e-03 -8.371440e-03 6.312885e-03 -6.018550e-04 -4.797690e-03 -9.792425e-04 -1.701487e-02
<VARIANCE> 39
 8.681302e+01 6.882664e+01 7.805927e+01 3.818098e+01 1.100532e+02 8.971333e+01 5.461988e+01 5.013668e+01 8.951343e+01 3.912497e+01 5.792579e+01 4.315961e+01 1.240855e+02 3.937858e+00 2.127297e+00 2.268044e+00 2.087348e+00 4.031200e+00 4.170614e+00 3.091040e+00 2.970798e+00 3.146179e+00 2.224747e+00 2.350753e+00 1.953436e+00 1.637265e+00 4.795802e-01 2.852091e-01 2.551892e-01 3.927905e-01 5.124850e-01 6.576960e-01 5.303511e-01 5.240443e-01 4.336445e-01 3.603138e-01 4.161575e-01 3.371340e-01 1.501268e-01
<GCONST> 1.266002e+02
<STATE> 4
<MEAN> 39
 -7.417330e+00 -3.328742e+00 1.951839e+00 -8.806119e-01 -6.583647e-01 -5.980986e+00 -3.239975e+00 -3.466471e+00 -1.823267e+00 -3.276487e+00 -1.170245e+00 -2.015320e+00 5.674493e+01 -1.207131e-01 1.972065e-01 -6.070090e-02 2.443409e-01 -1.599561e-01 1.539810e-01 5.483588e-02 -5.506415e-02 -1.354344e-01 -1.340161e-01 -4.063724e-02 1.856739e-01 -5.136358e-01 -9.922029e-03 -8.138400e-03 -1.504130e-02 8.499191e-03 1.331476e-02 1.715356e-02 -1.344067e-03 -6.153916e-03 1.031648e-02 4.888736e-04 -1.280039e-03 -8.310832e-03 -6.793348e-03
<VARIANCE> 39
 7.739978e+01 6.073763e+01 8.010465e+01 4.417749e+01 9.693523e+01 8.904101e+01 5.297156e+01 5.121473e+01 7.908298e+01 4.256471e+01 5.400875e+01 3.764909e+01 1.537425e+02 3.184176e+00 2.083631e+00 2.319815e+00 2.453180e+00 3.667806e+00 4.300517e+00 3.003814e+00 2.856693e+00 2.843299e+00 2.291792e+00 2.203479e+00 1.902110e+00 1.684623e+00 3.880625e-01 2.856521e-01 2.515181e-01 4.667791e-01 4.717597e-01 6.928530e-01 5.149528e-01 4.920237e-01 3.935286e-01 3.569491e-01 3.970127e-01 3.278644e-01 1.471960e-01
<GCONST> 1.256648e+02
<TRANSP> 5
 0.000000e+00 1.000000e+00 0.000000e+00 0.000000e+00 0.000000e+00
 0.000000e+00 7.227992e-01 2.772007e-01 0.000000e+00 0.000000e+00
 0.000000e+00 0.000000e+00 7.227993e-01 2.772007e-01 0.000000e+00
 0.000000e+00 0.000000e+00 0.000000e+00 8.432961e-01 1.567040e-01
 0.000000e+00 0.000000e+00 0.000000e+00 0.000000e+00 0.000000e+00
<ENDHMM>
~h "ah"
<BEGINHMM>
<NUMSTATES> 5
<STATE> 2
<MEAN> 39
 -3.518630e+00 -7.669241e+00 -7.202275e+00 -3.351902e+00 -7.354475e-01 -2.992140e-01 -3.375655e+00 -3.759409e+00 5.007933e-01 3.747900e-01 -4.916017e+00 -4.875265e+00 5.796769e+01 6.340794e-02 -4.929817e-02 1.276264e-02 5.973968e-03 3.453872e-02 4.621839e-03 2.318754e-02 3.444816e-03 1.275850e-02 6.569878e-03 -4.298405e-02 -4.925428e-03 8.398499e-02 -2.482597e-03 4.397119e-03 2.331410e-03 2.116858e-03 -1.832397e-03 7.555235e-04 -6.268437e-04 9.130036e-04 -9.371190e-04 -6.355238e-04 1.843955e-03 9.218620e-04 -5.384598e-03
<VARIANCE> 39
 1.213147e+02 1.320514e+02 6.802374e+01 1.055886e+02 1.070293e+02 9.155007e+01 6.363937e+01 6.860146e+01 8.169075e+01 5.838509e+01 8.060080e+01 5.888868e+01 3.135304e+02 2.141490e+00 3.274142e+00 2.310903e+00 3.509140e+00 3.129195e+00 2.940521e+00 2.885086e+00 2.861936e+00 3.089892e+00 2.639216e+00 2.921322e+00 2.204444e+00 3.781837e+00 2.929330e-01 4.251473e-01 3.445108e-01 5.230696e-01 5.106325e-01 4.787974e-01 4.890728e-01 5.029827e-01 5.084956e-01 4.669829e-01 4.838150e-01 3.801728e-01 4.410099e-01
<GCONST> 1.335976e+02
<STATE> 3
<MEAN> 39
 -3.325199e+00 -7.810406e+00 -7.139210e+00 -3.317056e+00 -6.329035e-01 -2.817004e-01 -3.301800e+00 -3.738553e+00 5.459501e-01 3.877916e-01 -5.046494e+00 -4.882809e+00 5.821210e+01 5.316282e-02 -3.321068e-02 2.081718e-02 1.316323e-02 2.822205e-02 6.047384e-03 2.027116e-02 6.041748e-03 1.048492e-02 4.663634e-03 -3.436092e-02 -1.597864e-03 6.288655e-02 -3.232319e-03 5.269591e-03 2.492916e-03 2.236146e-03 -1.752956e-03 1.875638e-04 -8.519078e-04 6.256786e-04 -6.301700e-04 -7.129517e-04 2.889937e-03 8.797610e-04 -6.413505e-03
<VARIANCE> 39
 1.172377e+02 1.329248e+02 6.871025e+01 1.050441e+02 1.059224e+02 9.239864e+01 6.340552e+01 6.860326e+01 8.242569e+01 5.801793e+01 8.004974e+01 5.877377e+01 3.070872e+02 2.122398e+00 3.253077e+00 2.293653e+00 3.482227e+00 3.102316e+00 2.909832e+00 2.857398e+00 2.851506e+00 3.090762e+00 2.613895e+00 2.906787e+00 2.196031e+00 3.745335e+00 2.898748e-01 4.195296e-01 3.397336e-01 5.189502e-01 5.042427e-01 4.726582e-01 4.851300e-01 5.009833e-01 5.070726e-01 4.628973e-01 4.805648e-01 3.777121e-01 4.354076e-01
<GCONST> 1.333315e+02
<STATE> 4
<MEAN> 39
 -3.185007e+00 -7.645537e+00 -6.889777e+00 -3.202819e+00 -3.347183e-01 -4.019099e-01 -3.139328e+00 -3.627121e+00 4.779907e-01 3.485123e-01 -5.263296e+00 -4.713315e+00 5.809283e+01 2.964865e-02 -5.740459e-03 3.180030e-02 2.464172e-02 1.854551e-02 4.506982e-03 1.393378e-02 8.523551e-03 9.085923e-03 -1.840531e-03 -1.697216e-02 4.143490e-03 2.438452e-02 -4.034112e-03 5.626891e-03 2.223314e-03 2.267178e-03 -1.236413e-03 -2.842965e-04 -8.737238e-04 1.213421e-04 -5.090073e-04 -1.271981e-03 3.508276e-03 8.617321e-04 -6.721605e-03
<VARIANCE> 39
 1.129711e+02 1.343099e+02 7.109801e+01 1.079541e+02 1.073922e+02 9.451442e+01 6.458186e+01 6.875452e+01 8.283144e+01 5.833993e+01 7.979094e+01 5.855141e+01 3.006606e+02 2.119932e+00 3.207582e+00 2.291251e+00 3.544061e+00 3.114379e+00 2.920253e+00 2.849509e+00 2.871654e+00 3.092667e+00 2.584590e+00 2.905320e+00 2.186959e+00 3.717503e+00 2.871550e-01 4.111982e-01 3.374613e-01 5.259117e-01 5.004054e-01 4.726308e-01 4.828588e-01 5.027602e-01 5.056756e-01 4.559827e-01 4.794013e-01 3.764915e-01 4.299327e-01
<GCONST> 1.333280e+02
<TRANSP> 5
 0.000000e+00 1.000000e+00 0.000000e+00 0.000000e+00 0.000000e+00
 0.000000e+00 7.171859e-01 2.828141e-01 0.000000e+00 0.000000e+00
 0.000000e+00 0.000000e+00 7.171845e-01 2.828155e-01 0.000000e+00
 0.000000e+00 0.000000e+00 0.000000e+00 8.382365e-01 1.617636e-01
 0.000000e+00 0.000000e+00 0.000000e+00 0.000000e+00 0.000000e+00
<ENDHMM>
~h "ax"
<BEGINHMM>
<NUMSTATES> 5
<STATE> 2
<MEAN> 39
 -1.938805e+00 -7.400185e+00 -2.934778e+00 -4.850451e+00 -2.344029e+00 -4.096084e+00 -4.135629e+00 -4.027047e+00 -8.439891e-01 6.860998e-01 -3.281847e+00 -4.358323e+00 6.253710e+01 8.159821e-03 -1.175686e-03 -9.938984e-02 3.287790e-03 7.293423e-02 5.586185e-02 -6.330743e-03 -4.836725e-02 6.285216e-02 -1.382974e-02 -2.046245e-02 -2.264301e-02 -2.300754e-03 -7.976507e-03 5.601433e-03 -8.650454e-03 5.673556e-03 5.958206e-03 7.622624e-04 4.941511e-03 3.839115e-04 3.663097e-03 -1.431033e-03 -1.944799e-03 3.328417e-03 -1.221180e-02
<VARIANCE> 39
 8.799301e+01 1.198439e+02 8.672927e+01 1.004236e+02 1.304954e+02 9.288038e+01 7.347531e+01 6.449819e+01 8.874480e+01 7.663329e+01 8.459560e+01 5.910404e+01 1.921242e+02 3.456397e+00 3.655425e+00 2.670026e+00 3.870151e+00 3.785885e+00 3.126730e+00 3.492130e+00 3.129861e+00 3.432517e+00 3.583150e+00 3.357326e+00 2.361482e+00 4.733326e+00 4.809765e-01 5.068062e-01 3.615293e-01 5.716654e-01 5.414994e-01 4.744862e-01 5.801221e-01 5.673252e-01 5.614489e-01 6.199045e-01 5.365936e-01 4.042953e-01 6.028048e-01
<GCONST> 1.378002e+02
<STATE> 3
<MEAN> 39
 -2.001452e+00 -7.346563e+00 -3.325267e+00 -4.763987e+00 -2.066811e+00 -3.910720e+00 -4.121411e+00 -4.186106e+00 -6.266457e-01 6.349525e-01 -3.347798e+00 -4.403313e+00 6.240851e+01 -1.517215e-02 1.127438e-02 -1.205204e-01 1.974482e-02 8.930636e-02 5.293545e-02 1.091081e-02 -4.649434e-02 7.345302e-02 -1.540515e-02 -2.726784e-02 -1.061266e-02 -3.303355e-02 -5.876097e-03 2.848347e-03 -4.639164e-03 4.495495e-03 3.198400e-03 -2.748622e-03 5.168740e-03 1.410981e-03 2.455400e-03 -1.232071e-04 -1.792776e-03 3.385340e-03 -7.559805e-03
<VARIANCE> 39
 8.670753e+01 1.223043e+02 8.389920e+01 1.019521e+02 1.329130e+02 9.020585e+01 7.151237e+01 6.511863e+01 8.955743e+01 7.668040e+01 8.544590e+01 5.896455e+01 1.930965e+02 3.480829e+00 3.686117e+00 2.602310e+00 3.833111e+00 3.805174e+00 3.056960e+00 3.541657e+00 3.165677e+00 3.392272e+00 3.585826e+00 3.329145e+00 2.363136e+00 4.561243e+00 4.867859e-01 5.149631e-01 3.611407e-01 5.657753e-01 5.489709e-01 4.696144e-01 5.903153e-01 5.741057e-01 5.558233e-01 6.202117e-01 5.356028e-01 4.049507e-01 5.844010e-01
<GCONST> 1.377224e+02
<STATE> 4
<MEAN> 39
 -2.261319e+00 -6.954109e+00 -3.884100e+00 -4.617825e+00 -1.241895e+00 -3.727156e+00 -3.918079e+00 -4.348303e+00 -4.467514e-01 6.290901e-01 -3.641510e+00 -4.249639e+00 6.169704e+01 -3.825705e-02 2.067565e-02 -1.232845e-01 4.599789e-02 9.222734e-02 4.753997e-02 2.701828e-02 -4.050293e-02 7.379387e-02 -1.718407e-02 -3.386457e-02 2.602953e-03 -6.061300e-02 -1.838767e-03 -1.598791e-04 6.436031e-04 2.946658e-03 -6.319577e-04 -2.045135e-03 3.137601e-03 1.891968e-03 4.579336e-05 3.708344e-04 -1.636724e-03 1.625749e-03 -2.097404e-03
<VARIANCE> 39
 9.036618e+01 1.267893e+02 7.892751e+01 1.093032e+02 1.372096e+02 9.108787e+01 7.045801e+01 6.739034e+01 9.274059e+01 7.650963e+01 8.546091e+01 5.962105e+01 2.015673e+02 3.715341e+00 3.816849e+00 2.576145e+00 3.960636e+00 3.908728e+00 3.056333e+00 3.631185e+00 3.329953e+00 3.375375e+00 3.632959e+00 3.417062e+00 2.382927e+00 4.591629e+00 5.192274e-01 5.347764e-01 3.689228e-01 5.803430e-01 5.688462e-01 4.830296e-01 6.072025e-01 6.034253e-01 5.531497e-01 6.285688e-01 5.560369e-01 4.088813e-01 5.900074e-01
<GCONST> 1.385862e+02
<TRANSP> 5
 0.000000e+00 1.000000e+00 0.000000e+00 0.000000e+00 0.000000e+00
 0.000000e+00 7.124466e-01 2.875535e-01 0.000000e+00 0.000000e+00
 0.000000e+00 0.000000e+00 7.124462e-01 2.875539e-01 0.000000e+00
 0.000000e+00 0.000000e+00 0.000000e+00 8.327619e-01 1.672380e-01
 0.000000e+00 0.000000e+00 0.000000e+00 0.000000e+00 0.000000e+00
<ENDHMM>
~h "ay"
<BEGINHMM>
<NUMSTATES> 5
<STATE> 2
<MEAN> 39
 -1.498497e+01 -1.906949e+00 -6.787918e+00 7.127870e-01 -2.627891e+00 -1.989236e+00 -8.135646e-01 -3.412234e-02 -3.383427e-01 8.517956e-01 -1.788182e+00 -2.739431e+00 4.496223e+01 3.131690e-01 -2.932983e-01 1.590988e-01 -2.426604e-01 -1.440092e-02 -2.773606e-01 1.029046e-01 2.261461e-03 -4.697649e-02 7.913509e-02 -1.109842e-01 -8.615623e-03 6.342662e-01 1.272484e-02 -8.472667e-03 9.745243e-03 -1.286665e-02 -3.408953e-03 -2.864998e-03 6.054472e-04 7.098050e-04 -3.916781e-03 -9.478842e-03 -4.820357e-03 2.553136e-03 1.539073e-02
<VARIANCE> 39
 1.833043e+02 8.602529e+01 5.413414e+01 8.948442e+01 7.766291e+01 8.617599e+01 5.844303e+01 3.854956e+01 4.500557e+01 4.867600e+01 4.296758e+01 3.779780e+01 4.515412e+02 3.565845e+00 2.282036e+00 2.797116e+00 2.323896e+00 3.054536e+00 3.771486e+00 2.645577e+00 2.312769e+00 2.066330e+00 2.466985e+00 2.862942e+00 1.811516e+00 2.202419e+00 5.147689e-01 2.784267e-01 3.844739e-01 3.621893e-01 4.447054e-01 5.906076e-01 4.211440e-01 4.083158e-01 3.870907e-01 4.503964e-01 4.839056e-01 3.243351e-01 2.504491e-01
<GCONST> 1.278481e+02
<STATE> 3
<MEAN> 39
 -1.372364e+01 -3.010581e+00 -6.140892e+00 -2.654284e-01 -2.587688e+00 -3.040593e+00 -3.738153e-01 -3.049639e-02 -4.954326e-01 1.070562e+00 -2.222341e+00 -2.711854e+00 4.742998e+01 3.625228e-01 -3.180724e-01 1.804891e-01 -2.717466e-01 -1.692337e-02 -2.776298e-01 9.903957e-02 5.375525e-03 -5.318443e-02 5.888680e-02 -1.231042e-01 9.948135e-04 6.784215e-01 1.344214e-02 -6.359203e-03 6.002036e-03 -7.543717e-03 -6.809629e-04 5.568513e-04 -1.600248e-03 7.933941e-04 -1.181048e-03 -4.718042e-03 -2.147246e-03 2.732505e-03 1.135270e-02
<VARIANCE> 39
 1.995393e+02 9.651481e+01 6.133644e+01 9.423367e+01 8.586179e+01 9.553619e+01 6.267676e+01 4.059124e+01 4.707870e+01 5.121579e+01 4.851942e+01 4.080917e+01 4.732971e+02 3.833044e+00 2.509526e+00 3.009312e+00 2.391115e+00 3.284520e+00 3.954261e+00 2.869410e+00 2.422187e+00 2.228749e+00 2.520583e+00 3.284577e+00 1.901758e+00 2.595653e+00 5.505410e-01 3.047351e-01 4.010989e-01 3.835372e-01 4.673558e-01 6.040514e-01 4.529454e-01 4.319796e-01 4.118448e-01 4.614807e-01 5.411171e-01 3.346867e-01 2.972330e-01
<GCONST> 1.307137e+02
<STATE> 4
<MEAN> 39
 -1.129225e+01 -4.855225e+00 -4.819730e+00 -2.364039e+00 -1.937955e+00 -4.877361e+00 5.505816e-01 -1.491759e-01 -5.642667e-01 1.323619e+00 -3.125324e+00 -2.472811e+00 5.172214e+01 4.302043e-01 -3.285409e-01 1.925641e-01 -2.841167e-01 1.251972e-02 -2.453654e-01 7.169471e-02 6.970356e-03 -2.018899e-02 4.731375e-02 -1.341363e-01 6.587134e-03 7.154219e-01 9.562055e-03 -1.712115e-03 8.548619e-04 -2.808858e-04 1.523800e-03 8.032461e-03 -7.231529e-03 -4.378631e-04 6.051466e-03 -1.135253e-03 3.199873e-04 -9.865410e-04 3.089391e-03
<VARIANCE> 39
 2.153731e+02 1.078137e+02 7.214405e+01 1.008020e+02 1.025174e+02 1.086721e+02 7.060928e+01 4.261539e+01 5.229551e+01 5.625061e+01 5.786754e+01 4.714827e+01 4.671593e+02 4.233527e+00 2.817856e+00 3.222497e+00 2.554085e+00 3.662251e+00 4.137888e+00 3.209627e+00 2.632793e+00 2.488313e+00 2.727093e+00 3.871168e+00 2.012855e+00 3.432469e+00 6.004787e-01 3.467658e-01 4.117458e-01 4.245595e-01 5.074717e-01 6.017477e-01 4.994713e-01 4.731700e-01 4.415148e-01 4.964735e-01 6.164655e-01 3.500025e-01 3.945101e-01
<GCONST> 1.347116e+02
<TRANSP> 5
 0.000000e+00 1.000000e+00 0.000000e+00 0.000000e+00 0.000000e+00
 0.000000e+00 7.171042e-01 2.828958e-01 0.000000e+00 0.000000e+00
 0.000000e+00 0.000000e+00 7.171046e-01 2.828954e-01 0.000000e+00
 0.000000e+00 0.000000e+00 0.000000e+00 8.381478e-01 1.618522e-01
 0.000000e+00 0.000000e+00 0.000000e+00 0.000000e+00 0.000000e+00
<ENDHMM>
~h "eh"
<BEGINHMM>
<NUMSTATES> 5
<STATE> 2
<MEAN> 39
 4.367397e-01 -7.838740e+00 -5.397710e-01 -3.674868e+00 -1.608794e+00 -4.963512e+00 -8.478484e+00 -4.224625e+00 -8.321041e-02 8.713064e-01 -1.498840e+00 -5.251120e+00 6.435522e+01 -2.072505e-01 1.761006e-01 7.738122e-02 -1.558239e-01 1.163092e-01 5.988108e-02 -2.774117e-02 2.411322e-03 3.113948e-02 -6.525968e-02 4.555272e-02 1.350975e-01 -1.144377e-01 -9.654454e-03 1.385356e-02 -5.135943e-03 9.899177e-03 9.911021e-03 7.242297e-03 1.690958e-02 -3.496536e-03 2.580719e-03 2.187694e-04 -6.857275e-03 2.390731e-03 -1.671617e-02
<VARIANCE> 39
 6.007826e+01 1.082415e+02 5.406424e+01 6.834016e+01 9.046786e+01 1.128335e+02 5.864999e+01 1.111200e+02 6.417792e+01 4.570263e+01 7.012993e+01 7.634154e+01 8.143870e+01 1.244848e+00 5.355182e+00 1.973725e+00 4.820523e+00 3.839360e+00 3.714996e+00 2.847562e+00 4.636124e+00 3.279195e+00 2.709552e+00 3.546092e+00 2.823922e+00 3.475478e+00 1.594230e-01 7.184907e-01 3.073246e-01 7.761341e-01 6.277862e-01 5.885346e-01 4.583696e-01 6.819015e-01 5.382304e-01 4.374503e-01 6.536669e-01 4.907595e-01 4.324592e-01
<GCONST> 1.335960e+02
<STATE> 3
<MEAN> 39
 -3.723208e-01 -7.132216e+00 -3.156489e-01 -4.173336e+00 -1.119729e+00 -4.696424e+00 -8.498353e+00 -4.213693e+00 4.609841e-02 6.328537e-01 -1.379800e+00 -4.784754e+00 6.382269e+01 -2.353579e-01 2.247905e-01 5.831582e-02 -1.121451e-01 1.449020e-01 8.873621e-02 2.911521e-02 -4.523261e-03 3.817106e-02 -6.575628e-02 2.423273e-02 1.367672e-01 -1.743952e-01 -7.679913e-03 1.531142e-02 -4.862234e-03 1.738329e-02 4.747152e-03 8.220308e-03 1.525679e-02 -1.805392e-05 1.029840e-03 -2.175385e-03 -3.447276e-03 -4.743968e-04 -1.950218e-02
<VARIANCE> 39
 7.182747e+01 1.116206e+02 5.328989e+01 6.563070e+01 8.676998e+01 1.129202e+02 5.634334e+01 1.072362e+02 6.573031e+01 4.944918e+01 6.868476e+01 7.263956e+01 8.440901e+01 1.311057e+00 5.046745e+00 2.044903e+00 4.540109e+00 3.686450e+00 3.719264e+00 2.826733e+00 4.517118e+00 3.180370e+00 2.774271e+00 3.288226e+00 2.706050e+00 3.239768e+00 1.629872e-01 6.765620e-01 3.232433e-01 7.248122e-01 5.988084e-01 5.773473e-01 4.518045e-01 6.558998e-01 5.309662e-01 4.477037e-01 6.080773e-01 4.688461e-01 3.988178e-01
<GCONST> 1.330366e+02
<STATE> 4
<MEAN> 39
 -2.008192e+00 -5.602255e+00 -9.554479e-02 -4.506539e+00 -9.799483e-02 -4.067455e+00 -8.459360e+00 -4.205164e+00 1.671104e-01 2.029396e-01 -1.111953e+00 -4.066576e+00 6.217635e+01 -2.674458e-01 2.820232e-01 2.412338e-02 -2.808563e-02 1.614992e-01 1.327707e-01 8.775379e-02 1.658683e-02 4.574407e-02 -7.821231e-02 4.153565e-03 1.153447e-01 -2.668778e-01 -5.058269e-03 1.125793e-02 -5.700363e-03 2.311638e-02 -1.469685e-03 7.453113e-03 1.242518e-02 4.643967e-03 -1.516823e-04 -4.395168e-03 1.576494e-04 -4.313322e-03 -1.836338e-02
<VARIANCE> 39
 9.304327e+01 1.114164e+02 5.187428e+01 6.413235e+01 8.454871e+01 1.082424e+02 5.408269e+01 9.992187e+01 6.457957e+01 5.565398e+01 6.637856e+01 6.285792e+01 9.740135e+01 1.431041e+00 4.467433e+00 2.156224e+00 4.235652e+00 3.412341e+00 3.610923e+00 2.759855e+00 4.320534e+00 2.966433e+00 2.855811e+00 3.008205e+00 2.494342e+00 2.857103e+00 1.733749e-01 6.043000e-01 3.518332e-01 6.705458e-01 5.437429e-01 5.545813e-01 4.420110e-01 6.278196e-01 5.098664e-01 4.643199e-01 5.586324e-01 4.338724e-01 3.462422e-01
<GCONST> 1.320114e+02
<TRANSP> 5
 0.000000e+00 1.000000e+00 0.000000e+00 0.000000e+00 0.000000e+00
 0.000000e+00 7.096974e-01 2.903027e-01 0.000000e+00 0.000000e+00
 0.000000e+00 0.000000e+00 7.096972e-01 2.903028e-01 0.000000e+00
 0.000000e+00 0.000000e+00 0.000000e+00 8.297153e-01 1.702848e-01
 0.000000e+00 0.000000e+00 0.000000e+00 0.000000e+00 0.000000e+00
<ENDHMM>
~h "hh"
<BEGINHMM>
<NUMSTATES> 5
<STATE> 2
<MEAN> 39
 1.064463e+00 -1.447165e+01 -5.110518e+00 -7.774869e+00 2.679904e+00 -3.943606e+00 -1.145309e+00 -2.408349e+00 1.952003e+00 2.315399e+00 -1.186748e+01 -4.244248e+00 6.923110e+01 1.243499e-01 -2.020776e-01 3.856287e-02 -1.773821e-02 5.020367e-02 -3.500326e-03 5.096395e-02 -9.877107e-02 5.551482e-02 -1.167285e-02 -1.012149e-01 -4.476496e-03 3.088763e-01 -1.560790e-02 1.772121e-02 2.259090e-03 1.547746e-02 -1.271706e-02 5.330347e-03 -3.904259e-03 -4.148228e-03 -4.697064e-03 -2.378209e-04 1.574050e-02 1.482403e-03 -3.317694e-02
<VARIANCE> 39
 3.562260e+01 6.204054e+01 6.514689e+01 7.309222e+01 9.879311e+01 7.194571e+01 7.202497e+01 7.937174e+01 7.838467e+01 5.628430e+01 7.478503e+01 5.438733e+01 9.437875e+01 1.179968e+00 2.812191e+00 2.042607e+00 4.727332e+00 3.154041e+00 2.440904e+00 2.772340e+00 2.912431e+00 2.496262e+00 2.268466e+00 2.042884e+00 2.132336e+00 3.623065e+00 1.699024e-01 4.069256e-01 2.873373e-01 7.187041e-01 5.079195e-01 4.014198e-01 4.765154e-01 5.060718e-01 4.234466e-01 4.260502e-01 3.280577e-01 3.790354e-01 4.894602e-01
<GCONST> 1.269329e+02
<STATE> 3
<MEAN> 39
 1.377529e+00 -1.502831e+01 -4.920217e+00 -7.716605e+00 2.728542e+00 -3.914201e+00 -9.979480e-01 -2.780434e+00 2.105771e+00 2.281196e+00 -1.208257e+01 -4.255143e+00 7.004762e+01 7.656021e-02 -1.398148e-01 5.330678e-02 2.959796e-02 3.060388e-03 9.182105e-03 3.418040e-02 -1.099459e-01 3.260536e-02 -1.043251e-02 -4.184603e-02 -1.584824e-03 2.033441e-01 -1.257811e-02 1.830992e-02 5.462486e-03 1.278549e-02 -1.332397e-02 2.123051e-03 -5.011763e-03 -2.638579e-03 -7.147167e-03 5.957149e-04 1.756732e-02 7.576206e-04 -2.881966e-02
<VARIANCE> 39
 2.643266e+01 5.702695e+01 7.271110e+01 6.857879e+01 1.043103e+02 7.036426e+01 7.300291e+01 7.650713e+01 8.677752e+01 5.693926e+01 7.516648e+01 5.476382e+01 6.885154e+01 9.549070e-01 2.520442e+00 2.018554e+00 4.291252e+00 2.996244e+00 2.371549e+00 2.582221e+00 2.702585e+00 2.462230e+00 2.162112e+00 2.006169e+00 2.057715e+00 2.851753e+00 1.386826e-01 3.669461e-01 2.737117e-01 6.501010e-01 4.640363e-01 3.843061e-01 4.379380e-01 4.680535e-01 4.125284e-01 4.040709e-01 3.174488e-01 3.599345e-01 3.892844e-01
<GCONST> 1.242600e+02
<STATE> 4
<MEAN> 39
 1.550817e+00 -1.517974e+01 -4.071454e+00 -7.394636e+00 2.628932e+00 -4.139864e+00 -6.638688e-01 -3.280073e+00 2.023876e+00 2.339822e+00 -1.202903e+01 -4.009135e+00 7.040532e+01 2.714717e-02 -4.783821e-02 9.691685e-02 7.408308e-02 -7.915217e-02 1.090363e-02 -9.040733e-04 -1.138345e-01 -2.129938e-02 -3.325519e-03 5.149361e-02 -6.012523e-03 7.789973e-02 -7.892260e-03 1.665609e-02 7.621656e-03 7.045961e-03 -1.370874e-02 -1.509385e-03 -6.309066e-03 -6.131303e-04 -1.029292e-02 1.027850e-03 1.737032e-02 -9.868426e-04 -2.091347e-02
<VARIANCE> 39
 1.961451e+01 5.493283e+01 9.166769e+01 6.491695e+01 1.185898e+02 7.048811e+01 7.615503e+01 7.169679e+01 1.014323e+02 5.681952e+01 8.223956e+01 5.600782e+01 4.925906e+01 7.750800e-01 2.176839e+00 2.099913e+00 3.808137e+00 2.930054e+00 2.366555e+00 2.403160e+00 2.484088e+00 2.558140e+00 2.077775e+00 2.052849e+00 1.962584e+00 2.096699e+00 1.129529e-01 3.205029e-01 2.640213e-01 5.712638e-01 4.234516e-01 3.786508e-01 3.993055e-01 4.287367e-01 4.167359e-01 3.832551e-01 3.176897e-01 3.390478e-01 2.934555e-01
<GCONST> 1.220141e+02
<TRANSP> 5
 0.000000e+00 1.000000e+00 0.000000e+00 0.000000e+00 0.000000e+00
 0.000000e+00 7.162592e-01 2.837408e-01 0.000000e+00 0.000000e+00
 0.000000e+00 0.000000e+00 7.162590e-01 2.837410e-01 0.000000e+00
 0.000000e+00 0.000000e+00 0.000000e+00 8.366817e-01 1.633183e-01
 0.000000e+00 0.000000e+00 0.000000e+00 0.000000e+00 0.000000e+00
<ENDHMM>
~h "ih"
<BEGINHMM>
<NUMSTATES> 5
<STATE> 2
<MEAN> 39
 -4.522611e+00 -4.132362e+00 1.262071e-02 -1.369142e+00 -6.926589e+00 -2.780909e+00 -5.985329e+00 -5.076223e+00 -2.323316e+00 -2.451777e+00 3.049084e-01 -4.828505e+00 5.678453e+01 -1.130780e-01 9.970321e-03 3.211573e-03 6.578070e-02 -5.536039e-02 5.127572e-02 7.778602e-03 4.845613e-02 3.269570e-02 -3.493084e-02 4.753586e-02 -4.380295e-02 -1.584689e-01 2.713620e-03 7.792547e-05 -5.308171e-03 -4.504291e-03 1.194229e-02 2.599726e-03 5.428500e-03 -1.419755e-03 -2.102483e-03 6.332529e-03 -4.313879e-03 9.977672e-04 4.737630e-03
<VARIANCE> 39
 9.581161e+01 1.466081e+02 1.155946e+02 1.098347e+02 9.673233e+01 1.015364e+02 6.293935e+01 7.504618e+01 1.023130e+02 5.405457e+01 7.569069e+01 6.910864e+01 2.720368e+02 1.286305e+00 2.935038e+00 3.850679e+00 3.415359e+00 3.986069e+00 3.496468e+00 3.366135e+00 3.029688e+00 3.426911e+00 2.555466e+00 3.414536e+00 2.208770e+00 3.187608e+00 1.549062e-01 4.231803e-01 4.622562e-01 4.605769e-01 6.263180e-01 5.622842e-01 5.734475e-01 5.282304e-01 5.390283e-01 4.247760e-01 5.555297e-01 3.784742e-01 3.936521e-01
<GCONST> 1.348512e+02
<STATE> 3
<MEAN> 39
 -4.916266e+00 -4.119335e+00 -5.101199e-02 -1.177027e+00 -7.075045e+00 -2.568223e+00 -5.946086e+00 -4.908196e+00 -2.190257e+00 -2.536194e+00 4.405410e-01 -4.997765e+00 5.624680e+01 -1.008902e-01 8.011773e-03 -1.990838e-02 4.830334e-02 -1.225659e-02 5.801370e-02 2.585881e-02 4.421106e-02 2.855118e-02 -1.250857e-02 2.790675e-02 -4.019660e-02 -1.402563e-01 4.063420e-03 7.648295e-04 -9.520334e-03 -3.894613e-03 1.470103e-02 3.074710e-03 4.575619e-03 -1.424846e-03 5.979085e-04 7.037938e-03 -7.341774e-03 1.890257e-03 3.588253e-03
<VARIANCE> 39
 9.735097e+01 1.446674e+02 1.195957e+02 1.062828e+02 9.597704e+01 1.009025e+02 6.012524e+01 7.452132e+01 9.887521e+01 5.290334e+01 7.525575e+01 6.840009e+01 2.858802e+02 1.177146e+00 2.800293e+00 3.823731e+00 3.193801e+00 3.973755e+00 3.443048e+00 3.223536e+00 2.975885e+00 3.341329e+00 2.445702e+00 3.477024e+00 2.209268e+00 3.156332e+00 1.415733e-01 4.047465e-01 4.599016e-01 4.353374e-01 6.316487e-01 5.564197e-01 5.539825e-01 5.159395e-01 5.249011e-01 4.081014e-01 5.694557e-01 3.808439e-01 3.904226e-01
<GCONST> 1.341158e+02
<STATE> 4
<MEAN> 39
 -5.652555e+00 -3.762502e+00 -4.088660e-01 -9.037372e-01 -6.839607e+00 -2.002905e+00 -5.643747e+00 -4.543639e+00 -2.014625e+00 -2.454042e+00 3.285916e-01 -5.064244e+00 5.494714e+01 -8.267738e-02 -1.738096e-03 -7.370782e-02 2.369005e-02 4.077122e-02 6.856488e-02 3.842473e-02 4.010790e-02 4.123442e-02 1.454320e-02 -9.972092e-03 -3.688561e-02 -1.211413e-01 4.368972e-03 6.006262e-04 -1.155083e-02 -2.501643e-03 1.495014e-02 3.589934e-03 3.304686e-03 -1.117131e-03 3.490690e-03 6.098993e-03 -9.135448e-03 2.588151e-03 1.997200e-03
<VARIANCE> 39
 1.039739e+02 1.436146e+02 1.238974e+02 1.044737e+02 9.416869e+01 1.009988e+02 5.833632e+01 7.478512e+01 9.330610e+01 5.139247e+01 7.479232e+01 6.814002e+01 3.125069e+02 1.077857e+00 2.669013e+00 3.691724e+00 3.044494e+00 3.864323e+00 3.366649e+00 3.045531e+00 2.886055e+00 3.192224e+00 2.326308e+00 3.472184e+00 2.194086e+00 3.083361e+00 1.306897e-01 3.867232e-01 4.491686e-01 4.210056e-01 6.246989e-01 5.488644e-01 5.269233e-01 4.943984e-01 5.061222e-01 3.933535e-01 5.771495e-01 3.810140e-01 3.804001e-01
<GCONST> 1.332701e+02
<TRANSP> 5
 0.000000e+00 1.000000e+00 0.000000e+00 0.000000e+00 0.000000e+00
 0.000000e+00 7.203252e-01 2.796748e-01 0.000000e+00 0.000000e+00
 0.000000e+00 0.000000e+00 7.203249e-01 2.796751e-01 0.000000e+00
 0.000000e+00 0.000000e+00 0.000000e+00 8.406385e-01 1.593615e-01
 0.000000e+00 0.000000e+00 0.000000e+00 0.000000e+00 0.000000e+00
<ENDHMM>
~h "iy"
<BEGINHMM>
<NUMSTATES> 5
<STATE> 2
<MEAN> 39
 -5.967123e-01 -9.950702e+00 4.632501e-01 -3.695717e+00 -3.994764e+00 -5.376165e+00 -3.414625e+00 -5.782590e+00 -2.201755e+00 3.886456e-01 -4.461341e+00 -4.457078e+00 6.555640e+01 -9.235716e-02 2.338773e-01 1.163663e-01 1.414417e-01 -2.408843e-01 -7.632182e-02 -8.642973e-02 -4.760094e-02 -1.348453e-01 -1.206700e-01 2.682469e-01 4.268215e-02 -2.491668e-01 -3.070003e-03 -5.891003e-04 -5.289656e-03 1.067801e-03 4.002187e-03 1.576177e-03 -1.652397e-05 2.933194e-03 5.344715e-03 -4.143583e-03 -1.106016e-03 4.608613e-03 -3.034834e-03
<VARIANCE> 39
 5.214414e+01 1.226402e+02 1.724677e+02 5.743251e+01 1.352983e+02 8.615343e+01 7.477452e+01 6.016430e+01 1.364079e+02 6.822498e+01 1.037365e+02 6.248002e+01 1.116490e+02 1.703680e+00 2.624050e+00 3.643787e+00 2.854147e+00 3.909816e+00 3.379580e+00 3.127867e+00 2.660340e+00 3.739105e+00 2.614875e+00 3.144985e+00 1.970706e+00 1.796331e+00 2.197191e-01 3.895900e-01 3.973740e-01 4.376962e-01 5.124390e-01 5.579862e-01 5.070824e-01 4.829480e-01 5.437960e-01 4.386229e-01 4.732872e-01 3.314179e-01 2.413008e-01
<GCONST> 1.317028e+02
<STATE> 3
<MEAN> 39
 -9.380210e-01 -9.122552e+00 7.520133e-01 -3.184692e+00 -4.762345e+00 -5.577765e+00 -3.719697e+00 -5.941916e+00 -2.616451e+00 -7.873379e-02 -3.575984e+00 -4.294325e+00 6.462830e+01 -1.022089e-01 2.290186e-01 9.546573e-02 1.438486e-01 -2.213344e-01 -6.678639e-02 -8.496704e-02 -3.717184e-02 -1.135465e-01 -1.316199e-01 2.606795e-01 5.916394e-02 -2.579970e-01 -2.789626e-03 -1.728577e-03 -6.146743e-03 -3.972008e-04 6.721825e-03 3.497919e-03 1.344741e-03 3.295952e-03 5.740140e-03 -2.084324e-03 -3.189140e-03 4.619964e-03 -2.007353e-03
<VARIANCE> 39
 5.701041e+01 1.287325e+02 1.703210e+02 6.023446e+01 1.367453e+02 8.803510e+01 7.697097e+01 5.965720e+01 1.334177e+02 7.113976e+01 1.041728e+02 6.301043e+01 1.241807e+02 1.830832e+00 2.796777e+00 3.810530e+00 3.013019e+00 4.030091e+00 3.507404e+00 3.343504e+00 2.726247e+00 3.850808e+00 2.710037e+00 3.291417e+00 2.042294e+00 1.866749e+00 2.356582e-01 4.150632e-01 4.199413e-01 4.624950e-01 5.321773e-01 5.819052e-01 5.406609e-01 4.966180e-01 5.615621e-01 4.536545e-01 4.938757e-01 3.437014e-01 2.502984e-01
<GCONST> 1.332421e+02
<STATE> 4
<MEAN> 39
 -1.536762e+00 -7.586761e+00 1.021398e+00 -2.457764e+00 -5.411807e+00 -5.646731e+00 -3.950362e+00 -5.987808e+00 -3.129505e+00 -7.571527e-01 -2.735572e+00 -3.859247e+00 6.272327e+01 -1.148756e-01 2.198886e-01 4.436411e-02 1.400092e-01 -1.671405e-01 -2.750453e-02 -7.500914e-02 -2.324029e-02 -7.499277e-02 -1.350003e-01 2.283920e-01 7.318406e-02 -2.739507e-01 -3.051894e-03 -2.158267e-03 -6.119794e-03 -2.659069e-03 9.794247e-03 5.576045e-03 2.993992e-03 3.820236e-03 5.779649e-03 1.286983e-03 -5.089510e-03 3.345307e-03 -1.311518e-03
<VARIANCE> 39
 6.748952e+01 1.400813e+02 1.664353e+02 6.652986e+01 1.386149e+02 9.150980e+01 8.213183e+01 5.931364e+01 1.259388e+02 7.398312e+01 1.043453e+02 6.302560e+01 1.490679e+02 2.058946e+00 3.109541e+00 4.026361e+00 3.407500e+00 4.164197e+00 3.703919e+00 3.689700e+00 2.810661e+00 3.947095e+00 2.849550e+00 3.440310e+00 2.154812e+00 2.033366e+00 2.616845e-01 4.601204e-01 4.565838e-01 5.206795e-01 5.596159e-01 6.196027e-01 5.898446e-01 5.115708e-01 5.817248e-01 4.704908e-01 5.158123e-01 3.644907e-01 2.680458e-01
<GCONST> 1.356073e+02
<TRANSP> 5
 0.000000e+00 1.000000e+00 0.000000e+00 0.000000e+00 0.000000e+00
 0.000000e+00 7.170796e-01 2.829204e-01 0.000000e+00 0.000000e+00
 0.000000e+00 0.000000e+00 7.170795e-01 2.829205e-01 0.000000e+00
 0.000000e+00 0.000000e+00 0.000000e+00 8.375113e-01 1.624887e-01
 0.000000e+00 0.000000e+00 0.000000e+00 0.000000e+00 0.000000e+00
<ENDHMM>
~h "ng"
<BEGINHMM>
<NUMSTATES> 5
<STATE> 2
<MEAN> 39
 -7.017270e+00 -4.547314e-01 -6.239150e+00 2.665133e+00 -4.629247e+00 2.574004e+00 -4.257472e+00 -1.724646e+00 -1.084061e+00 -3.035455e+00 -2.208827e+00 -3.075737e+00 4.755799e+01 -2.393432e-01 1.413973e-01 1.436513e-01 1.523885e-01 9.495567e-02 -2.189996e-02 1.074880e-01 4.577361e-02 -1.387068e-02 3.231860e-02 2.010391e-02 1.248355e-01 -2.746355e-01 5.197434e-03 -9.167175e-03 -5.313269e-03 -4.322472e-03 -1.369796e-04 -1.366467e-03 3.736368e-04 -4.139278e-03 2.950679e-03 1.755414e-03 -4.381672e-03 -5.435373e-03 1.330260e-02
<VARIANCE> 39
 1.170804e+02 1.162742e+02 8.038490e+01 5.750707e+01 9.600099e+01 8.592902e+01 5.344239e+01 5.005066e+01 5.794693e+01 4.632792e+01 6.073466e+01 4.359940e+01 3.017555e+02 8.406147e-01 1.458584e+00 1.522285e+00 1.675357e+00 2.152319e+00 2.444805e+00 1.832308e+00 2.071631e+00 1.910026e+00 1.801922e+00 1.773544e+00 1.480809e+00 9.704903e-01 9.441627e-02 1.790952e-01 2.115350e-01 2.554212e-01 3.517434e-01 4.012691e-01 3.002970e-01 3.742597e-01 3.301495e-01 3.096493e-01 2.979122e-01 2.513404e-01 9.814228e-02
<GCONST> 1.160012e+02
<STATE> 3
<MEAN> 39
 -7.903323e+00 2.611972e-02 -5.732183e+00 3.202618e+00 -4.300581e+00 2.524897e+00 -3.899587e+00 -1.569337e+00 -1.133732e+00 -2.892801e+00 -2.115342e+00 -2.658614e+00 4.657256e+01 -2.152379e-01 1.096449e-01 1.213034e-01 1.340274e-01 9.176242e-02 -1.935947e-02 1.002566e-01 2.990294e-02 -4.351755e-03 3.493274e-02 3.163783e-03 9.793129e-02 -2.255952e-01 9.042795e-03 -9.248302e-03 -7.512597e-03 -5.826020e-03 -5.019536e-03 1.053266e-03 -4.533312e-03 -4.396375e-03 2.017475e-03 1.122963e-03 -5.010801e-03 -1.115953e-02 1.487594e-02
<VARIANCE> 39
 1.121505e+02 1.001800e+02 7.144258e+01 5.383246e+01 9.322366e+01 8.410442e+01 5.591373e+01 4.861304e+01 5.271282e+01 4.344814e+01 6.134862e+01 4.024568e+01 2.890368e+02 8.682824e-01 1.425620e+00 1.445094e+00 1.583965e+00 2.175140e+00 2.354189e+00 1.808506e+00 2.014897e+00 1.815114e+00 1.731311e+00 1.724879e+00 1.418474e+00 1.021941e+00 1.011822e-01 1.799803e-01 2.108562e-01 2.448584e-01 3.625116e-01 4.015878e-01 3.003292e-01 3.706318e-01 3.205087e-01 3.049817e-01 2.917635e-01 2.427508e-01 1.079769e-01
<GCONST> 1.150868e+02
<STATE> 4
<MEAN> 39
 -9.132495e+00 7.391686e-01 -5.512115e+00 3.909630e+00 -4.013138e+00 2.716227e+00 -3.560345e+00 -1.448102e+00 -1.191586e+00 -2.814768e+00 -1.965982e+00 -2.352752e+00 4.493301e+01 -1.803907e-01 7.449989e-02 8.181399e-02 1.029711e-01 6.912435e-02 -4.781938e-03 7.185970e-02 1.736716e-02 6.650143e-03 3.376915e-02 -1.234570e-02 4.474068e-02 -1.725749e-01 1.114451e-02 -6.133788e-03 -8.830633e-03 -7.138107e-03 -6.692193e-03 2.364418e-03 -6.149611e-03 -3.748053e-03 1.486224e-03 -5.857198e-04 -5.274017e-03 -1.310419e-02 1.338659e-02
<VARIANCE> 39
 1.048701e+02 8.374231e+01 6.187732e+01 5.007174e+01 8.446187e+01 7.755444e+01 5.757947e+01 4.777381e+01 4.757924e+01 4.109158e+01 5.751155e+01 3.665499e+01 2.717990e+02 9.074179e-01 1.359088e+00 1.364205e+00 1.510960e+00 2.133429e+00 2.224828e+00 1.801195e+00 1.941912e+00 1.721135e+00 1.648419e+00 1.685960e+00 1.348016e+00 1.015344e+00 1.113726e-01 1.800595e-01 2.123905e-01 2.392832e-01 3.621609e-01 3.969146e-01 3.081423e-01 3.625705e-01 3.096725e-01 2.986721e-01 2.902525e-01 2.355896e-01 1.136309e-01
<GCONST> 1.137032e+02
<TRANSP> 5
 0.000000e+00 1.000000e+00 0.000000e+00 0.000000e+00 0.000000e+00
 0.000000e+00 7.264897e-01 2.735103e-01 0.000000e+00 0.000000e+00
 0.000000e+00 0.000000e+00 7.264899e-01 2.735101e-01 0.000000e+00
 0.000000e+00 0.000000e+00 0.000000e+00 8.480029e-01 1.519972e-01
 0.000000e+00 0.000000e+00 0.000000e+00 0.000000e+00 0.000000e+00
<ENDHMM>
~h "oh"
<BEGINHMM>
<NUMSTATES> 5
<STATE> 2
<MEAN> 39
 -5.120039e-01 -8.066138e+00 -1.042812e+01 -5.260947e+00 -5.505711e+00 2.232253e+00 -4.563951e+00 -4.385691e+00 2.533231e+00 -1.548622e+00 -3.195435e+00 -5.344256e+00 5.983416e+01 -8.629135e-02 1.245471e-01 -1.069877e-01 1.498230e-01 8.893501e-02 1.243412e-01 6.546719e-02 6.505809e-02 -7.999703e-03 -4.610354e-02 -2.351873e-02 4.783825e-02 -2.662213e-01 -4.901058e-03 7.847596e-03 5.869262e-03 8.751327e-03 3.234542e-03 -2.245777e-03 -4.548045e-03 1.062835e-03 -6.468459e-03 -2.529777e-03 2.594019e-03 7.168095e-04 -8.547871e-03
<VARIANCE> 39
 8.207777e+01 1.184329e+02 5.709301e+01 1.586324e+02 1.452514e+02 1.022199e+02 6.152455e+01 8.123204e+01 7.088772e+01 6.528850e+01 5.654232e+01 7.725959e+01 2.706720e+02 7.108686e-01 1.671919e+00 1.857941e+00 2.392273e+00 2.045458e+00 2.217235e+00 2.309797e+00 2.674428e+00 2.505418e+00 2.512303e+00 2.435846e+00 1.991865e+00 1.486495e+00 9.556941e-02 2.070816e-01 2.740669e-01 3.071623e-01 3.283323e-01 3.329007e-01 3.623132e-01 4.542176e-01 4.173325e-01 4.214129e-01 4.289538e-01 3.386843e-01 1.595708e-01
<GCONST> 1.234107e+02
<STATE> 3
<MEAN> 39
 -8.899780e-01 -7.548892e+00 -1.077847e+01 -4.618789e+00 -5.193607e+00 2.674531e+00 -4.360826e+00 -4.125472e+00 2.479548e+00 -1.761473e+00 -3.264603e+00 -5.171083e+00 5.875797e+01 -1.052493e-01 1.515344e-01 -8.435191e-02 1.801819e-01 9.738844e-02 1.162977e-01 4.861772e-02 6.938317e-02 -2.990236e-02 -5.526967e-02 -1.342050e-02 4.798078e-02 -2.965016e-01 -6.321288e-03 6.294687e-03 7.642104e-03 8.641982e-03 1.203271e-03 -3.574373e-03 -4.229024e-03 2.439968e-03 -4.776183e-03 -2.956181e-03 1.913399e-03 -8.241645e-04 -8.065602e-03
<VARIANCE> 39
 8.925694e+01 1.248066e+02 5.347079e+01 1.500961e+02 1.410634e+02 1.006511e+02 5.805718e+01 7.821381e+01 6.789019e+01 6.424046e+01 5.462777e+01 7.371786e+01 2.871339e+02 6.700326e-01 1.571601e+00 1.664225e+00 2.211938e+00 1.942671e+00 2.128552e+00 2.221578e+00 2.582719e+00 2.389456e+00 2.419726e+00 2.312063e+00 1.927670e+00 1.312594e+00 8.678946e-02 1.839884e-01 2.483801e-01 2.879130e-01 3.124833e-01 3.197946e-01 3.489854e-01 4.386235e-01 3.978145e-01 4.050572e-01 4.064937e-01 3.295482e-01 1.363456e-01
<GCONST> 1.215681e+02
<STATE> 4
<MEAN> 39
 -1.833997e+00 -6.451378e+00 -1.104457e+01 -3.428500e+00 -4.583183e+00 3.179274e+00 -4.184974e+00 -3.731834e+00 2.204182e+00 -2.093532e+00 -3.432006e+00 -4.879722e+00 5.651800e+01 -1.404391e-01 1.796499e-01 -4.618487e-02 2.167772e-01 8.550938e-02 1.024055e-01 2.729612e-02 7.965647e-02 -4.550336e-02 -6.987923e-02 2.019109e-03 3.995617e-02 -3.374882e-01 -6.938776e-03 3.992634e-03 8.830270e-03 5.962722e-03 -1.328325e-03 -3.363356e-03 -2.529181e-03 3.037810e-03 -2.688973e-03 -1.764582e-03 2.178234e-03 -1.253422e-03 -6.453956e-03
<VARIANCE> 39
 1.033756e+02 1.328709e+02 5.070173e+01 1.392900e+02 1.314808e+02 9.523461e+01 5.368032e+01 7.180386e+01 6.388474e+01 6.265004e+01 5.257165e+01 6.830158e+01 3.169745e+02 6.422582e-01 1.509658e+00 1.492446e+00 2.038330e+00 1.837725e+00 2.029964e+00 2.133993e+00 2.476179e+00 2.271733e+00 2.295473e+00 2.160253e+00 1.846334e+00 1.145784e+00 7.819159e-02 1.652242e-01 2.279157e-01 2.713040e-01 2.959403e-01 3.065857e-01 3.377671e-01 4.206015e-01 3.790255e-01 3.830514e-01 3.787899e-01 3.187838e-01 1.130917e-01
<GCONST> 1.195262e+02
<TRANSP> 5
 0.000000e+00 1.000000e+00 0.000000e+00 0.000000e+00 0.000000e+00
 0.000000e+00 7.344487e-01 2.655513e-01 0.000000e+00 0.000000e+00
 0.000000e+00 0.000000e+00 7.344484e-01 2.655516e-01 0.000000e+00
 0.000000e+00 0.000000e+00 0.000000e+00 8.562101e-01 1.437899e-01
 0.000000e+00 0.000000e+00 0.000000e+00 0.000000e+00 0.000000e+00
<ENDHMM>
~h "uh"
<BEGINHMM>
<NUMSTATES> 5
<STATE> 2
<MEAN> 39
 -8.135386e+00 5.199510e-01 -5.236285e+00 -1.900509e+00 -4.662716e+00 3.528631e+00 -7.009301e+00 -5.458501e+00 -2.157120e+00 -9.974009e-01 1.829647e-01 -2.837820e+00 4.781960e+01 1.934007e-01 -5.036987e-02 1.878378e-02 -9.050187e-02 9.226134e-03 -1.639860e-02 -4.031127e-02 -9.950193e-02 -3.434616e-02 1.479703e-02 2.893925e-02 -3.097166e-02 2.395137e-01 -7.783849e-03 7.248732e-05 8.620681e-04 2.249972e-03 -5.235655e-04 -3.252935e-03 5.115787e-04 7.829773e-04 -2.761142e-03 -2.285565e-03 4.659460e-04 -1.785999e-03 -3.322181e-03
<VARIANCE> 39
 1.863771e+02 5.728973e+01 5.666309e+01 1.205307e+02 7.392243e+01 6.349166e+01 6.599184e+01 7.040235e+01 5.845008e+01 4.614354e+01 5.522305e+01 3.745818e+01 3.139311e+02 2.696828e+00 2.623803e+00 2.200154e+00 4.652710e+00 3.081834e+00 2.793217e+00 3.303566e+00 2.709395e+00 2.832464e+00 2.833479e+00 2.468276e+00 2.131210e+00 4.513786e+00 3.639713e-01 4.185210e-01 3.715176e-01 6.252157e-01 4.920385e-01 5.036922e-01 5.811721e-01 4.864947e-01 5.164820e-01 5.202966e-01 4.271076e-01 3.800889e-01 5.769316e-01
<GCONST> 1.321587e+02
<STATE> 3
<MEAN> 39
 -7.510386e+00 3.475383e-01 -5.150822e+00 -2.224151e+00 -4.650675e+00 3.450245e+00 -7.141574e+00 -5.792564e+00 -2.292136e+00 -9.684088e-01 2.807096e-01 -2.956966e+00 4.866044e+01 1.669369e-01 -4.705941e-02 2.171550e-02 -9.361809e-02 1.696333e-03 -2.579116e-02 -3.554988e-02 -8.772115e-02 -3.715600e-02 5.308015e-03 2.784836e-02 -3.463222e-02 2.309476e-01 -6.669912e-03 8.550201e-04 6.954508e-04 -1.939062e-03 -2.032998e-03 -2.083457e-03 8.742508e-04 3.203729e-03 -7.297584e-04 -2.617442e-03 -6.647118e-04 -5.432373e-04 -1.958100e-03
<VARIANCE> 39
 1.835528e+02 5.982984e+01 5.581018e+01 1.248516e+02 7.676768e+01 6.578538e+01 6.715971e+01 7.133398e+01 5.957494e+01 4.701849e+01 5.635466e+01 3.850327e+01 3.133727e+02 2.698292e+00 2.811319e+00 2.242030e+00 4.898499e+00 3.167798e+00 2.874555e+00 3.430066e+00 2.776568e+00 2.954382e+00 2.933783e+00 2.538970e+00 2.188617e+00 4.586303e+00 3.647702e-01 4.482478e-01 3.784615e-01 6.588865e-01 5.009784e-01 5.159317e-01 6.026853e-01 4.992047e-01 5.376540e-01 5.415389e-01 4.395992e-01 3.887151e-01 5.882562e-01
<GCONST> 1.331974e+02
<STATE> 4
<MEAN> 39
 -6.445331e+00 1.727364e-01 -5.038182e+00 -2.953197e+00 -4.670352e+00 3.479812e+00 -7.373267e+00 -6.265853e+00 -2.642337e+00 -8.750444e-01 4.249897e-01 -3.069231e+00 4.989205e+01 1.626427e-01 -4.898373e-02 2.277708e-02 -1.251692e-01 -1.295892e-02 -3.203198e-02 -2.690115e-02 -7.012699e-02 -4.331175e-02 4.128946e-03 3.129869e-02 -2.540528e-02 2.431746e-01 -2.407867e-04 -9.809399e-04 -1.274098e-04 -5.332120e-03 -1.724517e-03 -5.745698e-04 5.371809e-04 2.382492e-03 -7.799514e-04 -3.063933e-04 2.498227e-04 1.730477e-03 2.312836e-03
<VARIANCE> 39
 1.802163e+02 6.574660e+01 5.554768e+01 1.349841e+02 8.198163e+01 7.061395e+01 6.874548e+01 7.243820e+01 6.284428e+01 4.971428e+01 5.880312e+01 4.202108e+01 3.115154e+02 2.891987e+00 3.117923e+00 2.376160e+00 5.467383e+00 3.396706e+00 3.091861e+00 3.672662e+00 2.956922e+00 3.208120e+00 3.166228e+00 2.736508e+00 2.346146e+00 4.820563e+00 3.915589e-01 4.970606e-01 3.983822e-01 7.322891e-01 5.335709e-01 5.537652e-01 6.414999e-01 5.320460e-01 5.815536e-01 5.853953e-01 4.727880e-01 4.144003e-01 6.140903e-01
<GCONST> 1.356499e+02
<TRANSP> 5
 0.000000e+00 1.000000e+00 0.000000e+00 0.000000e+00 0.000000e+00
 0.000000e+00 7.253221e-01 2.746778e-01 0.000000e+00 0.000000e+00
 0.000000e+00 0.000000e+00 7.253230e-01 2.746770e-01 0.000000e+00
 0.000000e+00 0.000000e+00 0.000000e+00 8.461173e-01 1.538827e-01
 0.000000e+00 0.000000e+00 0.000000e+00 0.000000e+00 0.000000e+00
<ENDHMM>
~h "uw"
<BEGINHMM>
<NUMSTATES> 5
<STATE> 2
<MEAN> 39
 -1.050939e+00 -4.620157e+00 -6.507090e+00 -6.147083e+00 -3.452963e+00 4.600011e-01 -7.447914e+00 -6.689611e+00 -1.170859e+00 -3.540491e-01 -1.356951e+00 -5.163763e+00 5.873447e+01 2.479517e-02 5.683218e-03 -4.221287e-02 -6.034852e-02 -1.135767e-02 5.985544e-02 -5.055687e-02 2.786016e-02 -3.601202e-03 1.218927e-02 -4.374297e-02 2.598169e-02 -4.196023e-02 -4.086358e-03 6.253637e-04 1.080873e-03 3.398003e-03 -9.136111e-04 -1.951741e-03 2.569990e-03 4.725816e-03 1.890780e-05 -4.192842e-03 -1.022751e-03 3.159395e-03 -2.949402e-03
<VARIANCE> 39
 9.763582e+01 1.242513e+02 5.617380e+01 1.505162e+02 1.176133e+02 8.162132e+01 7.302995e+01 7.295434e+01 9.580301e+01 6.945041e+01 6.809081e+01 7.126101e+01 2.442578e+02 2.031736e+00 3.072609e+00 2.268870e+00 4.426073e+00 3.500471e+00 3.125996e+00 4.005777e+00 3.202708e+00 3.470551e+00 3.115222e+00 3.395026e+00 2.750271e+00 2.877043e+00 2.850145e-01 4.387827e-01 3.580089e-01 6.339355e-01 5.795856e-01 5.239230e-01 6.842403e-01 5.484676e-01 5.960985e-01 5.315533e-01 5.931954e-01 4.643829e-01 3.642115e-01
<GCONST> 1.362333e+02
<STATE> 3
<MEAN> 39
 -9.893486e-01 -4.630204e+00 -6.659172e+00 -6.314314e+00 -3.468288e+00 6.533586e-01 -7.577857e+00 -6.549164e+00 -1.169653e+00 -3.077474e-01 -1.547541e+00 -5.069290e+00 5.857317e+01 7.421404e-03 6.791540e-03 -3.983529e-02 -4.344911e-02 -1.294117e-02 5.232024e-02 -3.692779e-02 4.470797e-02 -1.181768e-03 -4.538186e-03 -5.068494e-02 3.567279e-02 -5.645430e-02 -7.539982e-03 -1.640869e-03 8.899297e-04 7.831916e-03 1.361410e-03 -1.722307e-03 8.409525e-03 6.795193e-03 2.304159e-03 -5.058745e-03 -3.604243e-03 9.686074e-04 -5.533886e-03
<VARIANCE> 39
 9.642034e+01 1.198103e+02 5.445069e+01 1.523197e+02 1.163632e+02 8.137295e+01 7.261815e+01 7.366315e+01 9.362541e+01 6.965047e+01 6.761612e+01 7.340379e+01 2.462400e+02 1.810393e+00 2.905046e+00 2.195004e+00 4.306551e+00 3.401927e+00 3.050946e+00 3.876668e+00 3.115662e+00 3.361262e+00 3.041015e+00 3.285856e+00 2.693589e+00 2.738427e+00 2.541725e-01 4.077670e-01 3.483710e-01 6.148170e-01 5.663586e-01 5.073878e-01 6.603372e-01 5.329286e-01 5.757982e-01 5.166227e-01 5.770266e-01 4.535312e-01 3.454458e-01
<GCONST> 1.351294e+02
<STATE> 4
<MEAN> 39
 -1.141767e+00 -4.494309e+00 -6.851238e+00 -6.251266e+00 -3.225208e+00 9.561874e-01 -7.459646e+00 -6.072019e+00 -1.243594e+00 -2.106650e-01 -2.030423e+00 -4.881604e+00 5.776281e+01 -2.874069e-02 -6.438476e-03 -4.188379e-02 5.057987e-03 2.008057e-03 3.941347e-02 6.884979e-03 7.235240e-02 1.286576e-02 -2.425470e-02 -7.492705e-02 3.740884e-02 -8.556686e-02 -9.748808e-03 -2.644435e-03 2.693337e-04 1.223518e-02 4.056033e-03 -6.929644e-04 1.240772e-02 7.078112e-03 3.812120e-03 -5.148033e-03 -5.329662e-03 -1.232491e-04 -8.015973e-03
<VARIANCE> 39
 9.991322e+01 1.166753e+02 5.473674e+01 1.587780e+02 1.181544e+02 8.288565e+01 7.252644e+01 7.449993e+01 8.868610e+01 7.186282e+01 6.777498e+01 7.452303e+01 2.582701e+02 1.595426e+00 2.751614e+00 2.157825e+00 4.202859e+00 3.313182e+00 3.027580e+00 3.671320e+00 3.029734e+00 3.222268e+00 2.994749e+00 3.127146e+00 2.621057e+00 2.629465e+00 2.221384e-01 3.771747e-01 3.440497e-01 5.931050e-01 5.522653e-01 4.977892e-01 6.206036e-01 5.187535e-01 5.466166e-01 5.068818e-01 5.529688e-01 4.425081e-01 3.268869e-01
<GCONST> 1.341697e+02
<TRANSP> 5
 0.000000e+00 1.000000e+00 0.000000e+00 0.000000e+00 0.000000e+00
 0.000000e+00 7.250975e-01 2.749025e-01 0.000000e+00 0.000000e+00
 0.000000e+00 0.000000e+00 7.250978e-01 2.749022e-01 0.000000e+00
 0.000000e+00 0.000000e+00 0.000000e+00 8.468568e-01 1.531433e-01
 0.000000e+00 0.000000e+00 0.000000e+00 0.000000e+00 0.000000e+00
<ENDHMM>
~h "sil"
<BEGINHMM>
<NUMSTATES> 5
<STATE> 2
<MEAN> 39
 -1.535472e+01 2.168275e+00 -6.871682e+00 4.424621e+00 -2.517681e+00 3.873862e+00 -3.265820e+00 -9.950041e-01 -5.782966e-02 -2.620733e+00 -9.539392e-01 -2.202288e+00 3.809482e+01 -1.323736e-01 3.875936e-02 2.869947e-02 6.496599e-02 7.327966e-02 1.903586e-02 4.043608e-02 8.549565e-02 1.303990e-02 -6.006921e-02 3.087189e-02 7.857589e-02 -9.689447e-02 2.433640e-02 7.061108e-03 -7.909400e-03 -2.163156e-02 -3.444561e-02 -3.291760e-02 -1.167779e-02 7.434872e-03 3.090487e-02 2.012221e-02 -1.607363e-02 -1.263769e-02 1.173779e-02
<VARIANCE> 39
 9.100426e+01 3.588456e+01 3.676752e+01 3.322341e+01 4.392828e+01 3.377679e+01 4.058321e+01 3.093333e+01 2.982476e+01 2.500372e+01 2.331556e+01 1.931402e+01 2.072667e+02 4.380275e-01 8.183224e-01 8.297592e-01 9.971055e-01 1.326128e+00 1.496295e+00 1.368160e+00 1.461906e+00 1.436948e+00 1.314695e+00 1.224767e+00 1.098628e+00 4.506977e-01 5.998789e-02 1.173257e-01 1.405785e-01 1.519877e-01 2.098679e-01 2.422204e-01 2.391883e-01 2.459147e-01 2.448590e-01 2.245778e-01 2.138768e-01 1.954833e-01 4.995045e-02
<GCONST> 9.598429e+01
<STATE> 3
<MEAN> 39
 -1.561333e+01 2.308713e+00 -6.860404e+00 4.471045e+00 -2.465659e+00 3.783999e+00 -3.164708e+00 -7.035240e-01 9.958219e-02 -2.607227e+00 -9.090071e-01 -2.061831e+00 3.781917e+01 -5.102339e-02 3.277959e-02 -6.122950e-03 -1.147946e-02 2.059094e-03 -4.670723e-02 3.693278e-02 7.854760e-02 4.258424e-02 2.485650e-02 3.709653e-03 3.276649e-02 -6.593628e-02 2.411651e-02 -5.969578e-03 -1.117463e-02 -2.310852e-02 -1.462062e-02 -1.267524e-02 2.704712e-03 -5.353079e-03 -1.041009e-03 2.532823e-02 -5.403541e-03 -1.329566e-02 1.076448e-02
<VARIANCE> 39
 8.664886e+01 3.058505e+01 3.603243e+01 3.106380e+01 4.229911e+01 3.116248e+01 4.017191e+01 2.939806e+01 2.902004e+01 2.479490e+01 2.283091e+01 1.887322e+01 1.993124e+02 5.549624e-01 8.504807e-01 9.522914e-01 1.040279e+00 1.237562e+00 1.510116e+00 1.394914e+00 1.472386e+00 1.453338e+00 1.284648e+00 1.229750e+00 1.113314e+00 6.058435e-01 7.146462e-02 1.314838e-01 1.614215e-01 1.686533e-01 2.245237e-01 2.701486e-01 2.569462e-01 2.714574e-01 2.655043e-01 2.450458e-01 2.361688e-01 2.153564e-01 6.360339e-02
<GCONST> 9.759704e+01
<STATE> 4
<MEAN> 39
 -1.578675e+01 2.380503e+00 -7.068512e+00 4.337038e+00 -2.687669e+00 3.686869e+00 -3.129319e+00 -5.861120e-01 7.295921e-02 -2.254354e+00 -8.338730e-01 -2.063408e+00 3.720190e+01 1.803813e-02 -1.920011e-02 -1.922684e-02 -5.109648e-02 5.685807e-03 -3.141732e-02 3.560337e-02 1.366159e-02 -2.341752e-02 7.263871e-02 1.257341e-02 1.306792e-02 -3.276326e-03 1.360076e-02 -1.261549e-02 -3.630050e-03 -7.267476e-03 3.768915e-03 8.477779e-03 -3.364187e-03 -1.151575e-02 -1.163428e-02 6.821662e-03 -1.429464e-03 -2.866040e-03 1.564210e-02
<VARIANCE> 39
 8.792283e+01 2.750435e+01 3.543727e+01 3.207723e+01 4.262996e+01 3.195829e+01 4.021899e+01 3.028249e+01 2.939213e+01 2.649552e+01 2.344491e+01 1.934544e+01 1.958823e+02 6.545646e-01 8.573365e-01 9.740997e-01 1.101753e+00 1.277357e+00 1.523982e+00 1.429933e+00 1.499736e+00 1.462488e+00 1.370391e+00 1.265194e+00 1.156761e+00 7.321320e-01 8.588798e-02 1.307599e-01 1.637707e-01 1.739208e-01 2.211347e-01 2.644601e-01 2.463744e-01 2.636601e-01 2.543939e-01 2.447149e-01 2.302990e-01 2.116820e-01 7.643529e-02
<GCONST> 9.857494e+01
<TRANSP> 5
 0.000000e+00 1.000000e+00 0.000000e+00 0.000000e+00 0.000000e+00
 0.000000e+00 7.187966e-01 2.812034e-01 0.000000e+00 0.000000e+00
 0.000000e+00 0.000000e+00 7.187982e-01 2.812019e-01 0.000000e+00
 0.000000e+00 0.000000e+00 0.000000e+00 8.397691e-01 1.602309e-01
 0.000000e+00 0.000000e+00 0.000000e+00 0.000000e+00 0.000000e+00
<ENDHMM>
