~o
<STREAMINFO> 1 39
<VECSIZE> 39<NULLD><MFCC_D_A_0><DIAGC>
~s "silst"
<MEAN> 39
 -8.089946e+00 1.310097e+00 -8.464267e-01 1.360267e+00 3.270869e+00 9.094347e-01 2.350863e+00 3.822443e-01 2.603320e+00 -8.872431e-01 7.973917e-01 -1.199213e+00 5.270502e+01 -4.186238e-02 1.394129e-02 -1.888029e-02 -6.522951e-02 -2.869756e-02 4.468463e-02 3.293238e-02 1.432349e-02 -2.002734e-02 -6.188919e-03 3.302492e-02 5.794528e-02 -1.130299e-01 2.497921e-02 -1.125880e-02 -9.740023e-03 1.635278e-02 -7.497383e-03 -2.470301e-02 -1.150242e-02 -8.553579e-03 -7.621503e-03 -1.574393e-03 -1.699312e-02 -1.360658e-02 1.839038e-02
<VARIANCE> 39
 5.977472e+00 7.534935e+00 5.471969e+00 8.236310e+00 9.204515e+00 1.244892e+01 1.155416e+01 1.012483e+01 1.124546e+01 8.558684e+00 8.987277e+00 8.686440e+00 4.101697e+00 1.869987e-01 2.923121e-01 3.127670e-01 5.179861e-01 5.934144e-01 7.550409e-01 8.183300e-01 9.143920e-01 9.107307e-01 8.597318e-01 8.265569e-01 7.724755e-01 9.436718e-02 2.568881e-02 5.572601e-02 5.856966e-02 9.798278e-02 1.188420e-01 1.464841e-01 1.590378e-01 1.859466e-01 1.821562e-01 1.732547e-01 1.651473e-01 1.543496e-01 1.441674e-02
<GCONST> 5.961292e+01
~h "b"
<BEGINHMM>
<NUMSTATES> 5
<STATE> 2
<MEAN> 39
 1.798820e+00 1.955007e+00 -7.404438e+00 -2.414167e+00 1.065812e+00 3.571844e+00 -8.741952e+00 -3.635013e+00 -4.674701e+00 2.001515e+00 -3.123902e+00 -7.775472e+00 5.189712e+01 -7.927874e-01 2.333592e+00 4.474700e-01 1.897860e+00 4.484533e-01 7.751718e-01 4.783356e-01 1.321096e-01 6.254143e-01 -2.023294e+00 -1.233166e-01 6.349789e-01 -2.589171e+00 -5.762542e-02 -4.526693e-01 -1.072424e-01 -1.673055e-01 3.334152e-02 -7.690062e-02 3.038712e-01 2.505226e-01 2.287853e-01 -3.107963e-02 -2.477507e-01 -6.033167e-02 3.766386e-01
<VARIANCE> 39
 7.108138e+01 1.263116e+02 2.021654e+01 5.455341e+01 1.910235e+01 5.485500e+01 3.603522e+01 2.718213e+01 3.510176e+01 5.530857e+01 3.133326e+01 3.339722e+01 1.348279e+02 1.029552e+00 7.119185e+00 2.778855e+00 2.419719e+00 3.313511e+00 3.518839e+00 4.537082e+00 2.943054e+00 3.030770e+00 3.665274e+00 2.842716e+00 5.114344e+00 2.516527e+00 2.120244e-01 7.417399e-01 4.812893e-01 6.364861e-01 5.123820e-01 4.168269e-01 5.212811e-01 5.350376e-01 3.738247e-01 7.825530e-01 7.553083e-01 6.790374e-01 3.280787e-01
<GCONST> 1.271433e+02
<STATE> 3
<MEAN> 39
 4.907926e+00 6.319874e+00 -1.267534e+01 -1.226484e+00 -2.178326e+00 6.459068e+00 -3.654248e+00 -1.250655e+00 -1.347877e+00 -4.420483e+00 -4.313104e+00 -2.554208e+00 4.836134e+01 -1.050347e-01 3.450599e-01 -1.612125e-01 -1.852710e-01 -2.680929e-01 2.955198e-01 5.202392e-01 4.699618e-01 3.658336e-01 4.510861e-04 -4.313345e-02 3.800681e-01 -3.114141e-01 -2.182586e-01 2.324298e-01 4.538289e-01 1.253981e-01 -2.118719e-01 -1.948215e-01 -3.607051e-02 -1.276863e-01 -2.492219e-01 2.323960e-01 1.289630e-01 -3.925421e-01 -2.043850e-02
<VARIANCE> 39
 1.480285e+02 2.250505e+02 4.521729e+01 4.035693e+01 1.105995e+02 1.038395e+02 3.944784e+01 3.091772e+01 3.112623e+01 5.504094e+01 2.825884e+01 5.868511e+01 7.661656e+01 3.657820e+00 5.672842e+00 6.040478e+00 6.948851e+00 5.340550e+00 3.320495e+00 3.118115e+00 3.190711e+00 1.375093e+00 2.777983e+00 2.554064e+00 3.567014e+00 2.945947e+00 5.364714e-01 1.697778e+00 7.882516e-01 1.149001e+00 1.073331e+00 6.142084e-01 7.333825e-01 7.495161e-01 3.916670e-01 7.690930e-01 5.395787e-01 8.893670e-01 6.600012e-01
<GCONST> 1.382693e+02
<STATE> 4
<MEAN> 39
 -9.053066e+00 6.510444e+00 -5.672313e+00 2.770555e+00 -3.626547e+00 2.038720e+00 -3.617063e+00 -8.795453e-01 2.299567e-02 -2.769630e+00 -3.363166e+00 -5.684778e+00 4.009002e+01 -9.925151e-01 -1.421820e-01 4.555676e-01 4.909161e-01 -1.357791e-01 3.275517e-03 2.482797e-01 1.108333e-01 -2.149966e-01 -2.291013e-01 4.010435e-01 2.250268e-01 -5.681729e-01 1.646353e-01 -1.532301e-01 -1.322864e-01 -2.576244e-01 -1.137652e-01 -3.496238e-02 -1.871779e-01 -2.103021e-01 -7.101190e-02 3.143423e-02 1.011117e-01 4.415142e-02 2.548267e-01
<VARIANCE> 39
 9.703665e+01 8.986259e+01 2.064448e+01 2.850093e+01 5.021503e+01 3.265801e+01 4.196558e+01 2.414668e+01 4.012275e+01 4.743460e+01 3.444826e+01 3.645079e+01 1.948122e+02 3.085376e+00 3.471231e+00 2.020898e+00 1.871289e+00 1.894740e+00 1.909060e+00 2.364674e+00 1.986029e+00 2.069940e+00 3.437798e+00 3.993798e+00 3.924527e+00 1.444365e+00 3.136100e-01 4.318645e-01 2.580201e-01 3.351746e-01 3.344956e-01 3.033895e-01 5.026035e-01 4.627713e-01 3.414305e-01 5.736442e-01 7.084306e-01 7.180941e-01 1.932961e-01
<GCONST> 1.208828e+02
<TRANSP> 5
 0.000000e+00 1.000000e+00 0.000000e+00 0.000000e+00 0.000000e+00
 0.000000e+00 7.177171e-01 2.822829e-01 0.000000e+00 0.000000e+00
 0.000000e+00 0.000000e+00 5.672902e-01 4.327098e-01 0.000000e+00
 0.000000e+00 0.000000e+00 0.000000e+00 7.903368e-01 2.096631e-01
 0.000000e+00 0.000000e+00 0.000000e+00 0.000000e+00 0.000000e+00
<ENDHMM>
~h "d"
<BEGINHMM>
<NUMSTATES> 5
<STATE> 2
<MEAN> 39
 -2.426307e+00 -4.245498e-01 -2.200737e+00 2.389745e+00 2.519352e+00 1.187879e-01 -5.420657e+00 -5.656683e+00 -8.637108e-01 -1.311446e+00 -6.467358e+00 -4.985052e+00 5.451163e+01 1.095175e+00 -5.436643e-01 6.903574e-01 -3.067211e-01 -6.246663e-01 -9.450650e-01 -1.561152e+00 -4.498399e-01 4.817698e-01 -6.152471e-02 1.287423e-01 1.950927e-01 1.463359e+00 1.777826e-01 -6.234674e-01 -1.913690e-01 -4.989523e-01 -3.516256e-01 -9.598482e-02 -1.674083e-01 -1.420857e-01 3.531565e-01 2.159171e-01 2.401499e-01 1.096330e-01 5.061602e-01
<VARIANCE> 39
 7.062643e+01 1.793359e+02 5.573756e+01 1.215855e+02 6.902197e+01 5.693348e+01 7.185655e+01 6.499917e+01 4.470751e+01 4.691845e+01 6.746800e+01 3.702362e+01 2.122805e+02 3.954989e+00 7.139197e+00 3.627353e+00 4.087628e+00 6.895916e+00 6.048749e+00 6.153915e+00 6.093254e+00 4.186044e+00 4.488057e+00 4.078777e+00 2.512370e+00 6.609581e+00 5.487829e-01 1.250564e+00 6.210638e-01 9.624671e-01 1.084460e+00 8.622112e-01 7.931871e-01 1.157788e+00 6.293724e-01 6.905664e-01 5.734327e-01 4.642564e-01 1.009476e+00
<GCONST> 1.448503e+02
<STATE> 3
<MEAN> 39
 2.801446e+00 -9.191434e+00 -2.494250e+00 -4.278707e+00 -6.798225e-01 -4.025163e+00 -1.009357e+01 -6.945771e+00 2.379771e+00 1.719780e+00 -8.505878e+00 -4.248697e+00 6.482035e+01 8.353567e-01 -1.962129e+00 2.806858e-01 -1.608560e+00 -1.750792e+00 -9.131865e-01 -1.629192e+00 -5.039900e-01 1.626259e+00 3.545118e-01 7.888085e-01 7.898929e-01 1.940858e+00 6.116911e-02 8.313929e-02 -1.331148e-01 -2.635006e-01 -3.302416e-02 2.392384e-01 6.067887e-01 -2.951954e-02 -1.562327e-01 -8.585628e-02 9.181455e-02 -7.448865e-02 6.349130e-02
<VARIANCE> 39
 2.340786e+01 6.929463e+01 2.140437e+01 9.987104e+01 1.164359e+02 8.900600e+01 1.343645e+02 1.193845e+02 6.584965e+01 5.686723e+01 8.514858e+01 4.434191e+01 5.710161e+01 2.166743e+00 8.606787e+00 4.317860e+00 1.018956e+01 5.451328e+00 5.123557e+00 5.983027e+00 9.382436e+00 4.674315e+00 4.818285e+00 5.458993e+00 4.039707e+00 7.638527e+00 2.634592e-01 1.347576e+00 3.861524e-01 1.068198e+00 1.174776e+00 1.010407e+00 9.759586e-01 1.426793e+00 7.771168e-01 9.163371e-01 8.344951e-01 5.284834e-01 5.924168e-01
<GCONST> 1.453825e+02
<STATE> 4
<MEAN> 39
 3.609506e+00 -8.615602e+00 -2.215386e+00 -3.018027e+00 -5.034483e+00 -6.615708e+00 -1.190881e+01 -4.897680e+00 5.474563e+00 1.294909e+00 -1.038055e+01 -7.636947e+00 6.658394e+01 2.733025e-01 -8.737848e-01 -2.989308e-02 -9.059501e-01 -1.121302e+00 -4.291574e-01 -5.947635e-01 5.905464e-01 2.790135e-01 6.176312e-02 4.566893e-01 2.100852e-01 1.115342e+00 -9.343228e-02 -1.484836e-01 -2.806564e-01 -2.555754e-01 2.326898e-01 1.670848e-01 4.493657e-01 5.910866e-01 -5.412299e-01 -4.382031e-02 -1.935446e-01 -1.556875e-01 1.906178e-01
<VARIANCE> 39
 9.409214e+00 5.757895e+01 1.580671e+01 5.836855e+01 8.885407e+01 4.264084e+01 9.607109e+01 1.101628e+02 4.203013e+01 4.366213e+01 6.294588e+01 4.129769e+01 3.230993e+01 1.178071e+00 1.140769e+01 3.142594e+00 6.822017e+00 7.194374e+00 2.746149e+00 5.576049e+00 1.210307e+01 3.744672e+00 5.457952e+00 3.290382e+00 1.984304e+00 8.223499e+00 8.464464e-02 1.822606e+00 2.640049e-01 7.494767e-01 1.886729e+00 6.698620e-01 1.948805e+00 1.458773e+00 5.090135e-01 1.178609e+00 7.311835e-01 3.696530e-01 1.091951e+00
<GCONST> 1.370774e+02
<TRANSP> 5
 0.000000e+00 1.000000e+00 0.000000e+00 0.000000e+00 0.000000e+00
 0.000000e+00 4.765219e-01 5.234781e-01 0.000000e+00 0.000000e+00
 0.000000e+00 0.000000e+00 8.746308e-02 9.125369e-01 0.000000e+00
 0.000000e+00 0.000000e+00 0.000000e+00 5.328401e-01 4.671599e-01
 0.000000e+00 0.000000e+00 0.000000e+00 0.000000e+00 0.000000e+00
<ENDHMM>
~h "g"
<BEGINHMM>
<NUMSTATES> 5
<STATE> 2
<MEAN> 39
 -3.004584e+00 3.836694e+00 1.299813e+01 -4.164119e-01 -9.141279e+00 -7.687268e+00 -3.449707e+00 -7.616658e+00 -8.528530e+00 -4.205784e-01 -5.358874e+00 -7.058050e+00 5.528110e+01 5.032099e-01 -7.969196e-01 -1.142267e+00 9.937305e-01 -4.604275e-01 -1.680088e+00 -4.239829e-01 6.454310e-01 -3.827953e-01 -3.628651e-01 9.660963e-01 5.062371e-01 5.853643e-01 -5.156323e-02 -7.962922e-01 6.810640e-02 -5.720799e-01 -3.810200e-01 -4.222707e-01 -4.288170e-01 1.929872e-01 1.355797e-01 -7.064400e-02 8.623200e-01 1.166921e-01 9.424369e-01
<VARIANCE> 39
 1.412966e+01 1.060039e+02 1.230355e+02 6.372040e+01 5.886984e+01 5.648332e+01 5.196540e+01 5.252156e+01 7.382516e+01 3.990110e+01 7.300829e+01 4.331329e+01 7.746358e+01 2.266250e+00 1.033916e+01 3.138085e+00 7.918721e+00 5.874247e+00 7.081619e+00 5.577297e+00 2.905615e+00 4.174085e+00 3.200991e+00 5.992833e+00 4.965241e+00 8.742670e+00 4.712465e-01 1.123581e+00 6.214052e-01 1.694558e+00 1.475725e+00 1.096411e+00 1.257548e+00 6.793832e-01 1.112980e+00 8.226925e-01 6.447908e-01 1.083726e+00 8.357694e-01
<GCONST> 1.445215e+02
<STATE> 3
<MEAN> 39
 -7.155586e-01 -1.025825e+01 8.345017e+00 -4.872381e+00 -1.646403e+01 -1.716774e+01 -8.162294e+00 -3.076391e+00 -5.649164e+00 -1.450024e+00 7.627987e+00 -6.011037e+00 6.949483e+01 6.229632e-01 -2.267801e+00 -2.502032e+00 -2.544326e+00 -2.990014e-02 4.484090e-02 -8.669408e-01 2.251279e+00 3.355893e+00 -8.193245e-02 -2.351309e-01 -1.019642e+00 2.675207e+00 1.059132e-02 2.022538e-01 -5.668296e-01 3.667862e-02 9.534250e-01 1.142764e+00 3.771509e-01 -2.096248e-01 5.568003e-01 1.088627e-01 -1.314886e+00 -4.499450e-01 -4.378797e-01
<VARIANCE> 39
 6.542154e+00 6.313267e+01 4.074062e+01 5.761987e+01 8.372523e+01 7.757077e+01 4.728125e+01 5.472154e+01 1.125289e+02 3.412821e+01 9.447290e+01 6.543652e+01 5.726336e+01 6.176230e-01 1.508048e+00 3.275890e+00 3.665736e+00 8.675617e+00 5.656917e+00 4.805335e+00 4.495592e+00 7.530103e+00 3.967868e+00 1.191002e+01 3.842072e+00 2.184278e+00 1.178306e-01 4.126363e-01 4.020271e-01 7.783822e-01 9.210630e-01 6.199868e-01 7.685370e-01 1.156854e+00 1.566898e+00 5.342214e-01 1.174563e+00 6.838049e-01 4.251540e-01
<GCONST> 1.343963e+02
<STATE> 4
<MEAN> 39
 1.299326e+00 -1.738777e+01 -6.123568e+00 -9.848082e+00 -9.172866e+00 -7.811049e+00 -9.956002e+00 3.141160e+00 4.729567e+00 -4.917525e-01 -4.876454e+00 -1.777043e+01 7.602608e+01 2.316372e-01 -7.721463e-01 -1.587843e+00 -6.592044e-01 1.764174e+00 2.216190e+00 3.125348e-01 -6.046740e-01 1.700465e-01 3.317453e-01 -1.360775e+00 -8.134681e-01 2.372063e-01 -1.371269e-02 2.341507e-01 3.489229e-01 1.871392e-01 -1.820481e-01 -8.017810e-02 8.727697e-02 -4.173460e-01 -6.403735e-01 7.439695e-02 5.085475e-01 2.899307e-01 -2.461694e-01
<VARIANCE> 39
 6.013644e+00 4.909391e+01 2.908904e+01 3.771498e+01 5.479064e+01 6.212251e+01 4.513778e+01 5.247642e+01 8.235178e+01 4.038334e+01 7.345918e+01 7.976832e+01 4.966418e+01 2.275234e-01 4.832963e-01 1.702630e+00 1.558384e+00 1.951892e+00 1.606674e+00 1.499109e+00 2.460984e+00 3.435460e+00 1.207066e+00 4.739728e+00 2.228481e+00 2.758887e-01 2.583049e-02 6.073636e-02 1.396698e-01 1.719444e-01 2.605918e-01 3.145113e-01 2.302936e-01 3.433384e-01 5.236282e-01 2.613757e-01 4.312078e-01 1.944574e-01 5.185582e-02
<GCONST> 1.020149e+02
<TRANSP> 5
 0.000000e+00 1.000000e+00 0.000000e+00 0.000000e+00 0.000000e+00
 0.000000e+00 7.227242e-01 2.772758e-01 0.000000e+00 0.000000e+00
 0.000000e+00 0.000000e+00 6.995304e-01 3.004696e-01 0.000000e+00
 0.000000e+00 0.000000e+00 0.000000e+00 7.702266e-01 2.297735e-01
 0.000000e+00 0.000000e+00 0.000000e+00 0.000000e+00 0.000000e+00
<ENDHMM>
~h "j"
<BEGINHMM>
<NUMSTATES> 5
<STATE> 2
<MEAN> 39
 -5.958256e+00 1.456533e+01 3.040377e+01 -1.216156e+01 -3.235041e+00 -5.601129e+00 -1.044474e+01 -3.836276e+00 -1.816126e+01 3.948460e+00 -1.886551e+00 -5.798770e+00 5.268734e+01 -1.545216e-01 1.703324e+00 -1.130803e+00 8.877578e-01 8.341945e-01 7.560540e-01 -9.243598e-01 1.637704e-01 7.928246e-01 -5.429318e-01 4.286762e-01 -1.578029e-01 -1.425224e+00 5.184824e-02 -3.619526e-01 -1.348564e-01 4.214291e-01 -4.117793e-01 3.629534e-02 3.377995e-02 -2.810943e-01 8.839831e-02 -1.168081e-01 1.490048e-01 1.228138e-01 9.281638e-02
<VARIANCE> 39
 1.007706e+01 8.158852e+01 1.452105e+02 7.610097e+01 2.379250e+01 2.542914e+01 4.803114e+01 2.516312e+01 6.614174e+01 3.428171e+01 3.257953e+01 1.374556e+01 3.740590e+01 8.348001e-01 1.153564e+00 6.051888e+00 6.316072e+00 2.362129e+00 9.210824e-01 2.865588e+00 2.177996e+00 3.176465e+00 1.609517e+00 2.916418e+00 2.038911e+00 7.947835e-01 1.186585e-01 3.594551e-01 6.826380e-01 3.455176e-01 2.474055e-01 2.164488e-01 7.629615e-01 6.092185e-01 5.280730e-01 2.652363e-01 3.778140e-01 2.145744e-01 2.146430e-01
<GCONST> 1.137443e+02
<STATE> 3
<MEAN> 39
 -3.557665e+00 4.470095e+00 1.108154e+01 2.919374e+00 -8.688431e+00 -2.967191e+00 -8.288561e+00 -7.999163e+00 -6.504074e+00 -3.277989e+00 3.819038e+00 -4.507366e+00 5.614144e+01 -4.494736e-01 -2.057666e+00 5.957280e-01 1.509501e+00 -1.755522e+00 -1.152501e+00 -7.252975e-01 -1.830182e+00 -7.770503e-01 -3.978076e-01 1.585679e+00 2.247433e-01 1.385541e+00 3.287818e-01 -7.990589e-01 2.536535e-01 -1.586380e-02 -4.065368e-01 -5.056513e-01 -3.637221e-01 1.726778e-04 -2.003084e-01 2.261976e-01 3.594286e-01 -1.177970e-01 7.085146e-01
<VARIANCE> 39
 1.464723e+01 1.499025e+02 3.597519e+01 2.383704e+01 5.171045e+01 4.693795e+01 3.360044e+01 1.008955e+02 5.161620e+01 3.571777e+01 5.731956e+01 2.954983e+01 1.082941e+02 2.365467e+00 4.952697e+00 5.284331e+00 3.835953e+00 6.182944e+00 7.495335e+00 1.138684e+01 2.596200e+00 6.912562e+00 4.377444e-01 4.647162e+00 2.226530e+00 2.126324e+00 6.705591e-01 1.141258e+00 2.772274e+00 4.976963e-01 1.943814e+00 1.282336e+00 1.132159e+00 9.524050e-01 1.918394e+00 2.040643e-01 1.566307e+00 3.367585e-01 5.242584e-01
<GCONST> 1.373985e+02
<STATE> 4
<MEAN> 39
 2.964185e+00 4.265556e-01 3.998334e+00 6.363553e+00 -9.160391e+00 -3.708967e+00 -1.457877e+01 -1.239278e+01 -6.772559e+00 -2.716951e+00 4.944660e+00 -5.036746e+00 5.772350e+01 1.441959e+00 -6.075350e-01 -3.000228e+00 -1.444187e+00 1.347961e+00 1.282190e+00 -8.663177e-01 -7.578937e-01 3.990318e-01 7.162558e-01 2.066024e-02 -6.087345e-01 5.761812e-01 -1.009507e-01 6.239613e-01 -3.598773e-02 -2.379916e-01 2.866814e-01 4.845920e-01 5.325657e-01 5.770645e-02 -2.122251e-01 -1.275257e-01 -2.537090e-01 1.333514e-01 -5.022800e-01
<VARIANCE> 39
 6.217205e+01 1.396603e+02 2.376567e+02 7.339503e+01 8.647881e+01 1.331181e+02 1.405724e+02 9.035043e+01 5.693113e+01 4.178065e+01 8.442797e+01 4.833739e+01 1.309641e+02 4.060843e+00 1.075666e+01 1.661995e+01 4.159742e+00 9.211395e+00 1.468132e+01 1.436122e+01 8.689081e+00 5.226306e+00 4.422319e+00 2.657144e+00 5.218244e+00 4.527550e+00 7.844299e-01 1.279239e+00 3.576421e+00 1.164857e+00 1.943081e+00 3.285846e+00 3.285852e+00 1.847771e+00 1.111213e+00 1.042395e+00 7.511621e-01 1.335946e+00 5.468754e-01
<GCONST> 1.599383e+02
<TRANSP> 5
 0.000000e+00 1.000000e+00 0.000000e+00 0.000000e+00 0.000000e+00
 0.000000e+00 7.620698e-01 2.379302e-01 0.000000e+00 0.000000e+00
 0.000000e+00 0.000000e+00 7.455419e-01 2.544581e-01 0.000000e+00
 0.000000e+00 0.000000e+00 0.000000e+00 8.500844e-01 1.499156e-01
 0.000000e+00 0.000000e+00 0.000000e+00 0.000000e+00 0.000000e+00
<ENDHMM>
~h "k"
<BEGINHMM>
<NUMSTATES> 5
<STATE> 2
<MEAN> 39
 -1.114101e+01 7.012650e+00 -3.645137e+00 2.755999e+00 -3.209364e+00 3.388970e+00 -4.461741e+00 -1.447897e+00 -7.830085e-01 -1.018404e+00 8.047438e-01 -1.086554e+00 3.894577e+01 -5.572523e-01 -6.252663e-01 -2.335958e-01 8.989289e-01 8.306809e-01 2.655221e-01 3.836075e-01 2.660229e-01 5.908116e-01 2.609767e-01 2.787141e-01 1.528133e-01 -1.678626e-01 3.500109e-01 -6.190581e-01 -3.320459e-01 -3.153985e-01 4.496270e-01 -2.462493e-01 -7.955334e-02 -1.178081e-01 -1.865906e-01 1.877465e-01 -8.088168e-02 -1.845286e-01 8.423756e-01
<VARIANCE> 39
 9.584708e+01 8.537100e+01 4.847222e+01 9.519701e+01 6.264474e+01 5.899449e+01 5.269982e+01 7.140340e+01 5.261197e+01 4.740514e+01 2.899759e+01 2.694895e+01 1.747940e+02 3.734096e+00 3.329922e+00 3.713938e+00 3.945369e+00 4.952433e+00 3.844882e+00 3.518342e+00 3.851822e+00 3.091388e+00 3.032476e+00 2.586345e+00 2.288936e+00 4.309175e+00 4.661514e-01 6.750524e-01 7.221388e-01 7.296723e-01 1.320707e+00 1.143776e+00 7.489226e-01 6.903473e-01 5.483844e-01 6.739555e-01 6.098309e-01 4.800739e-01 8.753456e-01
<GCONST> 1.370526e+02
<STATE> 3
<MEAN> 39
 -7.698946e+00 -3.042155e+00 -6.559328e+00 1.379525e+00 3.385695e+00 5.159848e-01 -3.597316e+00 -2.601888e+00 1.119644e+00 1.291871e+00 5.352234e-01 -2.655648e+00 5.316149e+01 6.892493e-01 -1.907058e+00 -1.157380e+00 -3.751627e-02 1.623064e+00 -9.726834e-01 -2.420691e-01 -2.711019e-01 -6.524959e-02 8.396268e-01 -1.813996e-01 -9.511358e-01 2.473704e+00 3.401201e-01 -2.062164e-01 -6.499355e-02 -4.800402e-01 -3.933827e-01 -3.405268e-01 7.557224e-02 -1.388573e-01 -2.299158e-01 8.245280e-02 -1.088921e-02 -3.138383e-01 5.197570e-01
<VARIANCE> 39
 3.910608e+01 5.431801e+01 4.549949e+01 5.260760e+01 5.266750e+01 4.977971e+01 4.640029e+01 4.504293e+01 4.409112e+01 3.654471e+01 2.595048e+01 2.733590e+01 1.266617e+02 5.912408e+00 6.126068e+00 6.444134e+00 4.659695e+00 9.496029e+00 7.257877e+00 5.923490e+00 4.023629e+00 4.662248e+00 5.496529e+00 3.705686e+00 3.050041e+00 9.370606e+00 6.449319e-01 9.101816e-01 8.913177e-01 7.749086e-01 1.185359e+00 1.141436e+00 1.070569e+00 7.520605e-01 7.161253e-01 7.927510e-01 5.340031e-01 6.276984e-01 1.288336e+00
<GCONST> 1.415051e+02
<STATE> 4
<MEAN> 39
 -5.536474e+00 -6.718940e+00 -1.437323e+01 -3.093671e+00 1.058987e+01 -6.065057e+00 -3.467818e+00 -4.490049e+00 -2.562109e+00 5.315756e+00 -6.427855e-01 -5.595144e+00 5.512705e+01 1.564690e+00 -1.433672e+00 2.406885e-01 -1.485460e+00 7.346222e-01 -2.293824e+00 1.057540e+00 -6.049348e-01 -8.568080e-01 6.049293e-01 -5.435295e-01 -1.212896e+00 3.641504e+00 -5.162584e-02 3.665020e-01 7.532622e-01 2.968098e-02 -8.296487e-01 3.710664e-01 2.137142e-01 9.773220e-03 -7.564940e-02 -2.590898e-01 -8.799843e-02 1.170484e-01 -2.597950e-01
<VARIANCE> 39
 7.494313e+01 9.613652e+01 1.017854e+02 1.125131e+02 1.533126e+02 2.668528e+02 9.762785e+01 1.078390e+02 1.050138e+02 8.893564e+01 8.426449e+01 7.284660e+01 1.383446e+02 9.448802e+00 8.036380e+00 1.304028e+01 1.165457e+01 1.583432e+01 1.570451e+01 7.897474e+00 7.598213e+00 7.941366e+00 7.736386e+00 6.452682e+00 5.839847e+00 8.111717e+00 9.638639e-01 1.505850e+00 2.057132e+00 1.970557e+00 1.915069e+00 3.134630e+00 1.342759e+00 1.368134e+00 1.228628e+00 1.183943e+00 1.064238e+00 8.939537e-01 1.416368e+00
<GCONST> 1.662310e+02
<TRANSP> 5
 0.000000e+00 1.000000e+00 0.000000e+00 0.000000e+00 0.000000e+00
 0.000000e+00 6.535144e-01 3.464856e-01 0.000000e+00 0.000000e+00
 0.000000e+00 0.000000e+00 5.489604e-01 4.510396e-01 0.000000e+00
 0.000000e+00 0.000000e+00 0.000000e+00 5.695638e-01 4.304362e-01
 0.000000e+00 0.000000e+00 0.000000e+00 0.000000e+00 0.000000e+00
<ENDHMM>
~h "l"
<BEGINHMM>
<NUMSTATES> 5
<STATE> 2
<MEAN> 39
 4.784288e+00 -1.440232e+01 -7.334374e+00 -1.777076e+01 7.648839e+00 1.777233e+00 -6.231334e+00 -6.166145e+00 2.432348e+00 4.380655e+00 -9.083884e+00 -7.065701e+00 7.183160e+01 -1.963155e-01 -1.299595e-01 2.512250e-02 -9.474533e-02 -1.298498e-01 -3.889367e-02 4.015564e-01 1.838302e-01 -7.022938e-03 1.474050e-01 -4.658789e-01 2.748542e-02 2.710023e-03 -2.784587e-03 -1.330784e-02 -1.227809e-02 1.137866e-01 -1.295074e-03 2.763155e-02 4.165225e-03 3.863570e-02 -3.201394e-02 -1.132888e-01 5.499443e-03 5.366063e-03 -3.117274e-02
<VARIANCE> 39
 6.904651e+00 2.826523e+01 2.799375e+01 2.712206e+01 1.296165e+02 7.370907e+01 2.833820e+01 3.680967e+01 5.715993e+01 3.876171e+01 1.727890e+02 1.136460e+02 1.091953e+01 2.936434e-01 9.821963e-01 6.423832e-01 1.234536e+00 1.354677e+00 1.357130e+00 1.638847e+00 1.067509e+00 1.180756e+00 1.651703e+00 2.360072e+00 9.929616e-01 3.846838e-01 6.201061e-02 1.529297e-01 1.180084e-01 1.952441e-01 2.696676e-01 2.591523e-01 3.186532e-01 2.030695e-01 2.045869e-01 2.409227e-01 4.258401e-01 1.732988e-01 6.987447e-02
<GCONST> 9.782929e+01
<STATE> 3
<MEAN> 39
 2.130721e+00 -2.444412e+01 -1.109961e+01 -1.307119e+01 -3.181082e+00 1.820002e+01 -6.294544e+00 -1.418330e+01 1.474629e+01 -2.304923e+00 -6.256849e-01 -3.931568e+00 7.107132e+01 7.900695e-02 4.375151e-01 4.142532e-02 1.841139e-01 2.376747e-02 -4.761810e-02 1.960778e-01 1.889833e-01 -4.129251e-01 4.735871e-02 -1.886241e-01 7.457644e-02 -4.341511e-01 -4.223703e-03 1.437082e-01 5.047552e-02 6.954447e-02 5.530059e-02 -6.245643e-02 -3.788213e-02 7.376818e-03 -9.426217e-02 -1.021086e-02 -1.814219e-02 -1.322437e-02 -6.777529e-02
<VARIANCE> 39
 5.435069e+00 5.179542e+01 1.524700e+01 2.220401e+01 3.568285e+01 8.158392e+01 2.102706e+01 4.165495e+01 1.053683e+02 3.987656e+01 5.532026e+01 4.060232e+01 1.275486e+01 1.992700e-01 1.890269e+00 7.270998e-01 1.734558e+00 1.320565e+00 1.219666e+00 1.092790e+00 1.424299e+00 2.391756e+00 1.472654e+00 1.777900e+00 1.670303e+00 6.834322e-01 3.292213e-02 1.326612e-01 1.127525e-01 2.237760e-01 2.069843e-01 1.830372e-01 2.159943e-01 2.994812e-01 3.207113e-01 2.625124e-01 3.367873e-01 3.083124e-01 4.746922e-02
<GCONST> 9.572942e+01
<STATE> 4
<MEAN> 39
 -3.105869e-01 -7.263201e+00 -9.425903e+00 -3.816453e+00 -2.930258e+00 2.549976e+00 -6.675930e+00 -4.413975e+00 -4.631445e+00 -1.575892e+00 -6.037699e+00 -7.423729e+00 5.500476e+01 -4.607986e-01 4.181903e-01 -4.257411e-02 6.160883e-01 4.205459e-02 -5.160012e-02 -3.239038e-02 2.173625e-01 1.311876e-02 -1.373904e-01 -2.079937e-01 2.052737e-01 -8.326719e-01 -1.513082e-02 -6.738859e-02 -2.649985e-02 -5.042208e-02 1.874713e-02 7.816048e-02 3.472087e-02 2.914798e-02 7.235447e-02 2.365609e-02 4.462435e-02 -3.319177e-02 4.908545e-02
<VARIANCE> 39
 2.315187e+01 2.257994e+01 2.249724e+01 4.068250e+01 4.578726e+01 3.600621e+01 2.022388e+01 2.646704e+01 3.391555e+01 3.186710e+01 4.090711e+01 3.150076e+01 7.846763e+01 2.053196e-01 9.479437e-01 8.118035e-01 9.808720e-01 1.052861e+00 1.242977e+00 1.249374e+00 1.552646e+00 1.467094e+00 1.215970e+00 1.183679e+00 1.269433e+00 3.181302e-01 2.898538e-02 1.024563e-01 9.079131e-02 1.169791e-01 1.781948e-01 1.567737e-01 2.091109e-01 2.605007e-01 2.691779e-01 2.306152e-01 1.875831e-01 2.202377e-01 2.406200e-02
<GCONST> 8.931817e+01
<TRANSP> 5
 0.000000e+00 1.000000e+00 0.000000e+00 0.000000e+00 0.000000e+00
 0.000000e+00 8.280599e-01 1.719401e-01 0.000000e+00 0.000000e+00
 0.000000e+00 0.000000e+00 8.379166e-01 1.620834e-01 0.000000e+00
 0.000000e+00 0.000000e+00 0.000000e+00 8.125291e-01 1.874709e-01
 0.000000e+00 0.000000e+00 0.000000e+00 0.000000e+00 0.000000e+00
<ENDHMM>
~h "m"
<BEGINHMM>
<NUMSTATES> 5
<STATE> 2
<MEAN> 39
 5.327448e+00 -5.567665e+00 -6.417881e+00 -5.597810e+00 1.602027e+00 1.633860e+00 -4.153335e+00 -9.228227e+00 -5.314942e+00 1.782583e+00 -4.869678e+00 -6.977116e+00 6.218426e+01 -1.019414e-01 2.565249e+00 1.611987e+00 3.114974e+00 7.221586e-01 -2.054942e-01 -6.974260e-01 -1.649875e+00 -2.193933e+00 -1.109248e+00 -7.912903e-02 6.092954e-01 -2.051752e+00 -1.669081e-01 -3.510559e-01 4.880774e-02 1.460494e-02 1.543951e-01 -9.742860e-02 1.583977e-03 -9.580788e-02 -1.077056e-01 1.062953e-01 -6.930070e-02 4.572534e-02 2.838118e-01
<VARIANCE> 39
 1.562508e+01 7.118156e+01 3.768282e+01 5.543147e+01 9.607704e+01 6.384513e+01 5.036522e+01 3.698378e+01 7.229150e+01 4.383470e+01 5.378305e+01 5.691136e+01 4.221399e+01 6.168119e-01 2.469479e+00 2.028190e+00 3.441354e+00 3.376175e+00 3.117084e+00 4.358602e+00 3.163599e+00 3.145262e+00 3.327853e+00 2.813114e+00 3.687436e+00 1.635977e+00 7.848009e-02 3.331965e-01 2.477807e-01 6.472801e-01 4.417698e-01 3.544501e-01 4.094851e-01 5.888683e-01 7.070981e-01 5.012362e-01 4.339263e-01 3.575953e-01 2.233199e-01
<GCONST> 1.217881e+02
<STATE> 3
<MEAN> 39
 4.336823e+00 -3.443820e+00 -1.839817e+00 1.027750e+00 1.648296e+00 -9.108164e-01 -4.651639e+00 -1.322258e+01 -1.162684e+01 2.649910e-02 -3.948667e+00 -5.399245e+00 6.089383e+01 -1.229118e-01 2.401742e-01 3.384419e-01 6.479923e-01 3.012766e-02 1.694994e-02 -2.594163e-01 -2.734125e-01 -4.353176e-01 -2.537764e-01 3.290447e-01 7.389646e-01 -3.031617e-01 7.140784e-02 -5.429407e-01 -6.123559e-01 -8.338427e-01 -3.175192e-01 2.947236e-01 9.875102e-02 5.759385e-01 8.060150e-01 1.884355e-01 1.557648e-01 -8.508214e-02 3.931028e-01
<VARIANCE> 39
 1.623110e+01 5.812040e+01 3.184878e+01 2.563452e+01 9.517217e+01 7.372498e+01 3.335220e+01 3.178187e+01 6.332440e+01 3.248681e+01 4.858403e+01 6.369096e+01 2.816154e+01 4.963088e-01 1.236793e+00 1.939161e+00 2.435452e+00 2.029368e+00 1.546741e+00 1.810590e+00 2.126746e+00 2.801503e+00 1.629744e+00 1.969174e+00 1.855834e+00 7.554310e-01 9.271672e-02 2.539067e-01 3.758283e-01 4.554937e-01 3.751504e-01 4.612042e-01 3.764642e-01 4.593644e-01 5.165157e-01 4.820366e-01 3.946941e-01 4.431951e-01 1.657269e-01
<GCONST> 1.121942e+02
<STATE> 4
<MEAN> 39
 -2.080143e-01 5.525334e+00 -2.366283e+00 5.822616e+00 4.641199e+00 4.237598e+00 -7.132444e+00 -1.011291e+01 -7.060317e+00 -1.655963e+00 -3.750720e+00 -8.019092e-01 4.866278e+01 -3.609138e-01 -7.044334e-01 -1.101277e+00 -1.111831e+00 -5.208573e-01 3.718029e-01 3.458224e-01 1.475148e+00 1.304128e+00 -3.298238e-01 4.705799e-01 -3.090485e-01 1.838295e-03 -7.413895e-02 -4.820324e-01 -1.733945e-01 -3.816587e-01 1.425741e-01 6.761587e-02 7.130138e-02 2.996532e-01 3.748215e-01 2.352532e-02 -1.311919e-01 -1.973792e-01 2.975103e-01
<VARIANCE> 39
 8.568004e+01 1.360403e+02 5.434805e+01 1.131758e+02 1.197163e+02 7.238944e+01 5.177155e+01 6.673672e+01 7.160314e+01 3.816283e+01 5.630869e+01 4.967640e+01 1.853811e+02 2.264471e+00 3.929872e+00 4.242936e+00 6.017494e+00 3.542133e+00 4.483669e+00 2.981068e+00 5.121673e+00 4.541221e+00 3.485752e+00 2.442206e+00 2.447591e+00 3.463274e+00 2.425846e-01 3.647154e-01 5.084644e-01 5.698742e-01 4.893157e-01 6.180035e-01 5.128222e-01 7.481162e-01 7.171996e-01 3.941027e-01 4.690814e-01 4.727482e-01 1.939459e-01
<GCONST> 1.345330e+02
<TRANSP> 5
 0.000000e+00 1.000000e+00 0.000000e+00 0.000000e+00 0.000000e+00
 0.000000e+00 5.192285e-01 4.807715e-01 0.000000e+00 0.000000e+00
 0.000000e+00 0.000000e+00 6.708328e-01 3.291672e-01 0.000000e+00
 0.000000e+00 0.000000e+00 0.000000e+00 6.020214e-01 3.979786e-01
 0.000000e+00 0.000000e+00 0.000000e+00 0.000000e+00 0.000000e+00
<ENDHMM>
~h "n"
<BEGINHMM>
<NUMSTATES> 5
<STATE> 2
<MEAN> 39
 3.801262e+00 5.680955e+00 1.008601e+00 3.486562e+00 -2.429999e-01 -1.362841e+00 -1.061677e+01 -1.046463e+01 -4.868294e+00 5.307573e-01 -7.732143e+00 -3.918236e+00 5.436233e+01 -5.513858e-01 1.247711e+00 2.326968e-01 9.119930e-01 -2.276613e-01 9.356508e-02 2.195310e-01 -2.754924e-01 -4.857802e-02 -3.528037e-01 1.505872e-01 2.441975e-02 -1.306759e+00 -1.599912e-01 -2.357750e-01 -1.451089e-01 -3.012684e-01 9.265266e-02 1.138248e-01 6.089667e-02 2.961984e-01 1.136732e-01 -1.544689e-02 1.381091e-01 3.308173e-02 9.130545e-02
<VARIANCE> 39
 3.728085e+01 1.321013e+02 2.898009e+01 8.615224e+01 7.996725e+01 1.017748e+02 5.932273e+01 8.255492e+01 5.259585e+01 6.041151e+01 6.234272e+01 5.839305e+01 1.218678e+02 9.069576e-01 1.827083e+00 1.325004e+00 2.168373e+00 2.475832e+00 2.960277e+00 2.619736e+00 2.489366e+00 2.775494e+00 2.278480e+00 2.942629e+00 1.649756e+00 6.275235e-01 6.936879e-02 1.661196e-01 2.040346e-01 3.515414e-01 3.383062e-01 3.760583e-01 3.910268e-01 3.838494e-01 4.149656e-01 3.807839e-01 4.077812e-01 2.588328e-01 9.945477e-02
<GCONST> 1.174968e+02
<STATE> 3
<MEAN> 39
 -3.979283e+00 3.654515e+00 -3.165234e-01 3.463647e+00 -1.563552e+00 -1.392824e+00 -5.777475e+00 -6.739636e+00 -1.914590e+00 -2.114138e+00 -4.553458e+00 -5.232656e+00 5.085591e+01 -1.112316e+00 6.217558e-02 -3.417266e-01 -1.046508e-01 6.069706e-01 8.361931e-01 8.336071e-01 1.111813e+00 3.491324e-01 -3.105152e-01 8.140997e-01 5.689833e-01 -9.483709e-01 4.119366e-02 -5.021003e-01 5.734764e-03 -1.584734e-01 -1.988098e-01 -2.230572e-02 -4.754658e-02 -2.902555e-02 6.304388e-02 1.935918e-01 1.933071e-01 6.560750e-02 3.784414e-01
<VARIANCE> 39
 8.096352e+01 4.884099e+01 2.580847e+01 3.015495e+01 2.664254e+01 6.065560e+01 3.350461e+01 5.111352e+01 2.999269e+01 2.869802e+01 3.177361e+01 2.294120e+01 1.660720e+02 7.911529e-01 1.590738e+00 9.511706e-01 1.202437e+00 2.360013e+00 1.911840e+00 1.556740e+00 2.266961e+00 1.854487e+00 2.074519e+00 1.575359e+00 1.250177e+00 5.016115e-01 1.491535e-01 3.697014e-01 2.170347e-01 3.275158e-01 4.669423e-01 3.937882e-01 4.608723e-01 5.521114e-01 4.098071e-01 3.893725e-01 4.862005e-01 2.809910e-01 1.701972e-01
<GCONST> 1.101787e+02
<STATE> 4
<MEAN> 39
 -3.706369e+00 5.776989e+00 -9.542174e-01 3.994307e+00 -1.129217e+00 2.179151e+00 -8.255111e+00 -6.995533e+00 -3.615386e+00 -2.051082e+00 -3.298888e+00 -3.900880e+00 4.735867e+01 -1.048478e+00 -1.128115e+00 -2.258022e-03 -1.433379e-01 -1.034601e-01 2.532262e-01 3.425623e-01 5.608143e-01 4.035726e-01 -2.749622e-01 7.011210e-01 5.385027e-01 -3.208266e-02 2.834390e-01 -9.018881e-01 1.086744e-01 -6.263248e-01 -8.870656e-02 -2.204684e-01 -1.994369e-01 -2.976602e-01 1.365188e-01 2.453271e-01 2.137946e-02 4.170672e-02 1.045724e+00
<VARIANCE> 39
 8.572459e+01 8.438577e+01 3.339071e+01 5.038010e+01 5.903387e+01 6.544057e+01 6.803235e+01 8.652734e+01 6.302139e+01 4.210148e+01 5.814418e+01 3.771235e+01 1.521910e+02 3.221617e+00 5.305079e+00 2.863569e+00 3.864050e+00 5.181503e+00 4.256730e+00 3.487445e+00 5.071571e+00 4.495716e+00 3.778328e+00 3.611776e+00 1.995718e+00 2.783186e+00 5.554498e-01 1.307614e+00 5.708531e-01 9.813087e-01 1.341040e+00 1.036190e+00 1.251960e+00 1.197027e+00 1.269033e+00 6.911839e-01 7.407058e-01 4.947150e-01 1.051597e+00
<GCONST> 1.413224e+02
<TRANSP> 5
 0.000000e+00 1.000000e+00 0.000000e+00 0.000000e+00 0.000000e+00
 0.000000e+00 8.397130e-01 1.602870e-01 0.000000e+00 0.000000e+00
 0.000000e+00 0.000000e+00 5.759720e-01 4.240280e-01 0.000000e+00
 0.000000e+00 0.000000e+00 0.000000e+00 2.710534e-01 7.289466e-01
 0.000000e+00 0.000000e+00 0.000000e+00 0.000000e+00 0.000000e+00
<ENDHMM>
~h "p"
<BEGINHMM>
<NUMSTATES> 5
<STATE> 2
<MEAN> 39
 -7.691024e+00 1.478017e+00 -5.466059e+00 7.986838e-01 -1.003941e-01 1.769341e+00 -4.034715e+00 -2.679937e+00 2.457134e-01 -8.732886e-01 -2.397451e+00 -4.618752e+00 4.690937e+01 -7.279408e-01 4.882021e-01 1.961754e-01 4.098273e-01 -7.855586e-02 7.837740e-02 1.792027e-01 3.966370e-01 1.809815e-01 -3.428881e-01 4.571043e-01 3.290827e-01 -8.541464e-01 4.551532e-01 -4.884775e-01 -1.798375e-01 -3.077265e-01 -9.334148e-02 -4.685604e-02 4.707956e-02 -1.661773e-01 -1.198969e-01 2.740039e-01 6.099326e-02 2.497356e-02 7.116008e-01
<VARIANCE> 39
 6.635999e+01 6.565312e+01 4.643202e+01 5.772090e+01 4.057968e+01 3.316371e+01 5.241100e+01 4.640875e+01 4.560257e+01 3.676493e+01 3.348063e+01 2.657936e+01 1.547631e+02 2.170130e+00 1.772604e+00 1.531605e+00 1.992696e+00 2.305518e+00 2.136720e+00 2.057199e+00 2.386416e+00 2.366856e+00 1.673601e+00 1.605863e+00 1.647347e+00 4.367023e+00 4.167544e-01 3.575066e-01 3.631614e-01 4.787851e-01 5.385566e-01 4.791750e-01 5.765141e-01 6.164106e-01 5.905295e-01 5.100878e-01 4.391709e-01 3.147557e-01 6.953056e-01
<GCONST> 1.220968e+02
<STATE> 3
<MEAN> 39
 -9.893394e+00 1.692835e+00 -5.687318e+00 1.863650e+00 -1.424316e+00 2.902150e+00 -2.960128e+00 -2.477970e+00 -6.757288e-01 -1.889057e+00 -9.962788e-01 -3.019539e+00 4.418718e+01 1.891123e+00 -1.327795e+00 -1.306585e+00 -7.810115e-01 -8.469303e-01 -6.589170e-01 -2.719962e-01 -5.848470e-01 -7.276365e-02 1.129397e+00 6.313934e-01 4.735521e-02 2.254366e+00 1.323603e+00 -1.171967e+00 -5.353339e-01 -9.259369e-01 -1.046079e-02 -1.175274e-01 -9.667284e-02 -4.020495e-01 -1.299142e-01 8.435943e-01 -1.416937e-01 -4.215175e-01 1.940809e+00
<VARIANCE> 39
 8.270322e+01 3.871230e+01 3.354290e+01 3.701357e+01 3.259058e+01 2.708240e+01 4.093456e+01 4.449207e+01 4.131598e+01 2.868075e+01 2.431033e+01 1.924884e+01 1.915785e+02 3.596079e+00 1.989602e+00 3.208065e+00 3.953471e+00 3.031317e+00 3.392889e+00 3.927771e+00 3.229282e+00 3.961716e+00 3.485829e+00 3.346709e+00 2.844331e+00 4.017446e+00 4.337688e-01 2.708205e-01 5.999163e-01 5.445429e-01 8.940669e-01 8.011424e-01 9.876979e-01 5.643094e-01 7.729674e-01 7.786793e-01 7.098202e-01 6.387973e-01 6.001395e-01
<GCONST> 1.293047e+02
<STATE> 4
<MEAN> 39
 -1.063761e+00 -4.605480e+00 -1.172076e+01 -3.480258e+00 -2.187927e+00 9.383001e-01 -2.134032e+00 -5.125812e+00 -1.187137e+00 3.278359e+00 -1.517661e-01 -3.630182e+00 5.422500e+01 3.788157e+00 -3.737957e+00 -7.550300e-01 -3.851876e+00 1.455939e+00 -5.579349e-01 1.077775e+00 -1.223608e+00 -2.139307e-01 2.471453e+00 -8.113508e-01 -6.971015e-01 6.718698e+00 -4.825860e-01 -1.889218e-01 4.649532e-01 -2.616097e-01 5.372412e-01 6.796794e-02 -7.049651e-02 -1.111048e-02 -2.120584e-02 -2.160113e-02 -6.775694e-01 -1.801421e-01 3.238222e-03
<VARIANCE> 39
 7.890704e+01 5.554516e+01 7.495268e+01 9.366663e+01 6.020007e+01 6.743169e+01 5.360487e+01 5.891048e+01 5.851371e+01 4.672375e+01 4.136355e+01 2.991184e+01 1.763602e+02 6.049689e+00 3.850022e+00 8.609478e+00 8.061682e+00 1.246481e+01 7.219540e+00 8.833640e+00 5.391475e+00 7.807988e+00 6.375629e+00 8.419469e+00 4.797189e+00 8.692018e+00 1.505719e+00 8.569111e-01 1.088595e+00 1.850210e+00 1.495205e+00 1.306751e+00 1.126172e+00 9.276113e-01 9.516920e-01 9.853901e-01 8.114405e-01 6.183746e-01 3.034349e+00
<GCONST> 1.530368e+02
<TRANSP> 5
 0.000000e+00 1.000000e+00 0.000000e+00 0.000000e+00 0.000000e+00
 0.000000e+00 6.294932e-01 3.705068e-01 0.000000e+00 0.000000e+00
 0.000000e+00 0.000000e+00 3.901529e-01 6.098471e-01 0.000000e+00
 0.000000e+00 0.000000e+00 0.000000e+00 6.081629e-01 3.918371e-01
 0.000000e+00 0.000000e+00 0.000000e+00 0.000000e+00 0.000000e+00
<ENDHMM>
~h "r"
<BEGINHMM>
<NUMSTATES> 5
<STATE> 2
<MEAN> 39
 2.723892e+00 -1.716273e+01 -1.186314e+01 -4.555446e+00 -1.061164e+00 -1.619751e+00 -4.642224e+00 -3.319247e+00 4.175701e+00 -6.300953e-01 -9.173480e+00 -9.533064e+00 7.231645e+01 1.648435e-01 1.938888e-02 1.591870e-01 6.188359e-01 -1.301167e+00 -4.590595e-01 -6.216993e-01 3.945691e-01 6.716284e-01 1.983907e-02 2.266086e-01 2.547772e-03 -3.855405e-01 -5.909650e-02 1.292658e-01 2.354171e-01 1.328452e-01 -1.127880e-01 4.906113e-02 -4.666109e-02 -1.625822e-01 9.096126e-03 -6.234531e-03 1.690918e-01 1.738377e-01 -2.024777e-01
<VARIANCE> 39
 6.444001e+00 2.620393e+01 4.296828e+01 4.233097e+01 6.059499e+01 4.499782e+01 3.205771e+01 6.489726e+01 6.943826e+01 5.755770e+01 4.309730e+01 4.930428e+01 1.834984e+01 3.656938e-01 1.622951e+00 1.447531e+00 2.313400e+00 2.447215e+00 1.903403e+00 2.066193e+00 2.104455e+00 3.004594e+00 2.530550e+00 2.411057e+00 2.182458e+00 1.118955e+00 6.871927e-02 2.264408e-01 1.808519e-01 2.213893e-01 3.248199e-01 3.129455e-01 3.460305e-01 4.430351e-01 4.228476e-01 4.350095e-01 3.632831e-01 3.427072e-01 1.283731e-01
<GCONST> 1.088526e+02
<STATE> 3
<MEAN> 39
 3.155237e+00 -1.331054e+01 -7.596978e+00 -2.310987e+00 -4.756149e+00 -3.102379e+00 -5.315174e+00 -4.259320e+00 3.244367e+00 4.097347e+00 -7.502638e+00 -8.294480e+00 6.502302e+01 -5.214099e-01 1.045336e+00 1.123849e+00 1.147193e+00 -4.850968e-01 -2.476443e-01 -2.781803e-01 -2.897667e-01 -2.257882e-02 -2.586721e-01 1.050578e+00 7.304115e-01 -1.325799e+00 -1.237821e-01 -8.286215e-02 1.526499e-01 -1.650116e-01 1.500850e-01 -2.474234e-02 1.110669e-01 1.991508e-01 -3.711567e-01 -1.653014e-01 1.626563e-01 7.055546e-02 1.868573e-01
<VARIANCE> 39
 9.286613e+00 2.586372e+01 3.615440e+01 3.664117e+01 6.931778e+01 5.285091e+01 3.915922e+01 5.113175e+01 4.899052e+01 5.013267e+01 3.261930e+01 5.271795e+01 3.814494e+01 6.857051e-01 1.634519e+00 1.811103e+00 1.744482e+00 4.126904e+00 2.865268e+00 2.413660e+00 3.482843e+00 2.897933e+00 3.308253e+00 2.918913e+00 1.966444e+00 1.053201e+00 1.207233e-01 2.729813e-01 2.952439e-01 2.674050e-01 4.516861e-01 4.482020e-01 3.950778e-01 5.898143e-01 5.567352e-01 5.905893e-01 4.507515e-01 4.532938e-01 2.326510e-01
<GCONST> 1.158126e+02
<STATE> 4
<MEAN> 39
 -3.211568e+00 -4.365437e+00 -1.398961e+00 8.533875e+00 -3.076979e-01 -1.297952e+00 -2.132791e+00 2.974445e+00 2.144634e+00 -1.665813e+00 -2.201048e+00 -2.259058e+00 5.235823e+01 -5.049323e-01 3.969908e-01 2.720284e-01 3.788632e-01 -3.334922e-01 1.900599e-01 -1.033576e-01 3.157802e-01 -4.652317e-01 -2.105009e-01 6.367620e-01 2.553700e-01 -7.342224e-01 6.041235e-02 -7.289577e-02 -1.067198e-01 -3.061414e-01 9.322417e-02 -8.297009e-02 3.210330e-02 -4.518783e-03 -5.710490e-02 6.171744e-02 -2.348185e-01 -8.678260e-02 2.299170e-01
<VARIANCE> 39
 5.769440e+01 1.197013e+02 4.828833e+01 1.472281e+02 7.179614e+01 8.141050e+01 5.746202e+01 9.207446e+01 5.386067e+01 6.014590e+01 4.106975e+01 4.456417e+01 1.918582e+02 2.141386e+00 4.738372e+00 4.482374e+00 5.535245e+00 4.956840e+00 3.898933e+00 2.991888e+00 3.717407e+00 4.460085e+00 3.703961e+00 4.555433e+00 2.643429e+00 1.839527e+00 3.691835e-01 8.422408e-01 5.758141e-01 7.098829e-01 7.808568e-01 5.989521e-01 5.817270e-01 6.660876e-01 8.227449e-01 7.086635e-01 8.660378e-01 4.892286e-01 3.280904e-01
<GCONST> 1.380035e+02
<TRANSP> 5
 0.000000e+00 1.000000e+00 0.000000e+00 0.000000e+00 0.000000e+00
 0.000000e+00 6.452343e-01 3.547657e-01 0.000000e+00 0.000000e+00
 0.000000e+00 0.000000e+00 6.767035e-01 3.232965e-01 0.000000e+00
 0.000000e+00 0.000000e+00 0.000000e+00 7.301781e-01 2.698219e-01
 0.000000e+00 0.000000e+00 0.000000e+00 0.000000e+00 0.000000e+00
<ENDHMM>
~h "s"
<BEGINHMM>
<NUMSTATES> 5
<STATE> 2
<MEAN> 39
 -1.093104e+01 2.496392e+00 -3.909439e+00 -3.333900e-01 6.707547e+00 -1.044058e+01 3.524795e+00 -3.310400e+00 2.849257e+00 -7.290113e-01 -2.650150e+00 -1.639581e+00 5.749171e+01 -3.232453e+00 1.975362e+00 -1.219622e-01 1.734716e-01 1.973230e+00 -1.195055e+00 2.075583e+00 -1.709553e-01 1.031854e+00 -1.144527e+00 1.387217e+00 2.413613e-01 1.217261e-01 -5.790072e-02 -4.407245e-01 1.207465e-01 -1.352871e-01 -3.239399e-01 2.932133e-01 -3.136190e-01 4.516300e-02 -2.239580e-01 8.692863e-03 1.438657e-01 -1.267245e-01 7.808620e-02
<VARIANCE> 39
 1.041954e+02 7.689754e+01 8.347446e+01 6.495630e+01 1.087160e+02 9.734422e+01 1.236572e+02 5.681546e+01 5.435205e+01 4.904550e+01 6.893814e+01 4.936829e+01 1.866475e+02 3.738560e+00 4.003296e+00 3.536307e+00 6.207761e+00 5.428174e+00 7.700562e+00 6.233772e+00 3.871065e+00 4.311054e+00 4.943167e+00 5.188465e+00 3.874351e+00 2.635001e+00 7.839292e-01 7.162431e-01 4.657166e-01 5.642598e-01 9.348421e-01 1.000452e+00 1.191883e+00 6.911371e-01 6.972449e-01 8.032202e-01 8.373947e-01 6.302335e-01 3.353673e-01
<GCONST> 1.438927e+02
<STATE> 3
<MEAN> 39
 -1.933446e+01 1.805135e+00 -4.111283e+00 9.112747e-01 8.709107e+00 -9.621666e+00 4.193075e+00 -3.059605e+00 5.781893e+00 -3.365743e+00 2.651477e+00 -2.021276e+00 6.049429e+01 -5.407065e-01 -5.063787e-01 -1.817598e-01 -1.294852e-01 1.317560e-01 2.334680e-01 -1.203453e-02 1.358408e-01 3.431649e-02 -1.939294e-01 -2.576456e-02 6.733482e-02 -3.595275e-01 8.359901e-01 -4.459737e-01 -4.106787e-02 -2.135022e-01 -2.454626e-01 6.549706e-02 -3.069874e-01 -4.531457e-02 -1.363984e-01 2.066204e-01 -3.056017e-01 -1.106217e-01 2.009864e-01
<VARIANCE> 39
 4.860803e+01 3.955482e+01 3.890365e+01 1.021235e+02 8.272031e+01 7.794790e+01 7.420199e+01 5.378807e+01 4.401123e+01 5.119462e+01 2.437211e+01 3.884780e+01 4.540979e+01 3.541893e+00 1.918918e+00 1.777792e+00 2.202901e+00 2.047959e+00 2.447817e+00 2.476367e+00 2.101722e+00 2.294364e+00 2.394045e+00 2.159314e+00 1.831201e+00 9.406027e-01 4.660444e-01 4.377971e-01 3.240863e-01 4.834923e-01 4.632456e-01 4.873202e-01 6.016026e-01 4.134844e-01 5.186846e-01 5.149122e-01 4.254388e-01 4.127009e-01 2.849446e-01
<GCONST> 1.219004e+02
<STATE> 4
<MEAN> 39
 -1.694187e+01 -2.395284e+00 -4.102146e+00 -2.185989e+00 1.054257e+01 -1.161772e+01 3.405846e+00 -1.019366e+00 5.972862e+00 -5.232004e+00 -2.301368e+00 5.267099e-01 5.599022e+01 3.913386e+00 -1.863986e+00 -6.089506e-01 -1.435522e+00 -8.016726e-01 4.972852e-01 -1.601670e+00 -1.513299e-01 -3.778103e-02 8.916224e-01 -1.881798e+00 -4.993528e-01 2.089154e+00 3.381762e-01 -2.299625e-01 -1.707487e-01 -2.653479e-01 -1.341776e-01 1.120529e-01 -9.500486e-02 -1.606744e-01 -3.336852e-02 2.524164e-01 -2.335489e-01 -1.382911e-01 3.851339e-01
<VARIANCE> 39
 1.649529e+02 4.768926e+01 4.672392e+01 6.318878e+01 1.081549e+02 8.828770e+01 9.621067e+01 5.424402e+01 6.569129e+01 5.057950e+01 6.746502e+01 5.399360e+01 1.287100e+02 1.107199e+01 5.906189e+00 3.905467e+00 6.199809e+00 4.892484e+00 5.071030e+00 6.689569e+00 4.524188e+00 4.818332e+00 4.683452e+00 6.043071e+00 3.902820e+00 9.826041e+00 2.129029e+00 8.224162e-01 5.891410e-01 8.278501e-01 7.139139e-01 8.441221e-01 1.029283e+00 7.422218e-01 7.236145e-01 7.140144e-01 9.949375e-01 5.612445e-01 9.569849e-01
<GCONST> 1.478588e+02
<TRANSP> 5
 0.000000e+00 1.000000e+00 0.000000e+00 0.000000e+00 0.000000e+00
 0.000000e+00 5.979170e-01 4.020830e-01 0.000000e+00 0.000000e+00
 0.000000e+00 0.000000e+00 7.973456e-01 2.026544e-01 0.000000e+00
 0.000000e+00 0.000000e+00 0.000000e+00 6.641755e-01 3.358245e-01
 0.000000e+00 0.000000e+00 0.000000e+00 0.000000e+00 0.000000e+00
<ENDHMM>
~h "t"
<BEGINHMM>
<NUMSTATES> 5
<STATE> 2
<MEAN> 39
 -8.560859e+00 -4.149630e-01 -5.569506e+00 1.898274e+00 -1.216472e+00 8.126461e-01 -4.411563e+00 -2.306497e+00 7.308294e-01 -8.285965e-01 -2.275331e+00 -2.167896e+00 4.618747e+01 2.104081e-01 -2.074553e+00 5.019076e-01 -7.465369e-01 -9.234059e-01 -1.436151e-01 -4.678505e-01 -8.335618e-01 2.305274e-01 6.663954e-02 1.049598e+00 1.165283e-01 1.923725e+00 6.821030e-01 -4.105292e-01 4.286306e-02 -8.273039e-01 -2.606791e-02 -2.184259e-01 -5.040872e-01 -5.838112e-01 -1.945310e-01 2.312701e-01 1.554316e-01 -1.498418e-01 1.210696e+00
<VARIANCE> 39
 6.199537e+01 5.230323e+01 4.671982e+01 5.643710e+01 4.793794e+01 6.459940e+01 6.760719e+01 4.405184e+01 5.077755e+01 4.030453e+01 4.457374e+01 2.480258e+01 1.441337e+02 4.391783e+00 1.254832e+01 4.633455e+00 7.411340e+00 5.859553e+00 7.141147e+00 8.795544e+00 5.284834e+00 7.846729e+00 4.748702e+00 4.137223e+00 3.501577e+00 1.268791e+01 4.648184e-01 1.008265e+00 8.754289e-01 1.183778e+00 1.032358e+00 9.348903e-01 1.433785e+00 6.938837e-01 8.918070e-01 8.899121e-01 6.758652e-01 6.176933e-01 1.031229e+00
<GCONST> 1.453923e+02
<STATE> 3
<MEAN> 39
 -4.185765e+00 -1.025456e+01 -2.621151e+00 -4.610754e+00 -2.973416e+00 2.109865e-02 -7.068744e+00 -8.978108e+00 1.744622e+00 2.088030e-01 1.024734e+00 -3.091206e+00 6.007561e+01 2.287049e+00 -1.532081e+00 5.977057e-01 -3.539707e+00 -4.141846e-01 -1.039706e+00 -1.699048e+00 -2.236574e+00 -1.004355e+00 9.684644e-01 7.548342e-01 -6.223756e-02 4.736984e+00 2.870347e-01 1.212988e+00 -2.146227e-01 -3.735459e-01 9.309507e-02 2.736727e-01 -1.736475e-02 7.412173e-02 -6.874235e-01 8.003124e-02 -2.168260e-01 1.253462e-01 -4.833949e-01
<VARIANCE> 39
 3.873008e+01 5.914261e+01 1.162177e+02 1.159625e+02 7.501772e+01 1.278336e+02 1.211067e+02 8.542493e+01 1.033244e+02 7.529438e+01 5.248726e+01 4.452117e+01 1.091084e+02 4.124840e+00 7.792230e+00 1.028817e+01 1.215258e+01 9.712555e+00 6.753995e+00 1.259165e+01 5.967946e+00 7.714427e+00 7.171766e+00 7.247777e+00 6.005321e+00 1.219600e+01 6.390439e-01 1.986481e+00 1.461734e+00 1.257298e+00 1.057560e+00 1.506423e+00 1.716690e+00 1.255871e+00 1.660805e+00 1.153288e+00 1.249149e+00 1.013093e+00 1.567950e+00
<GCONST> 1.592491e+02
<STATE> 4
<MEAN> 39
 2.111139e+00 -2.942922e+00 -1.862835e+00 -1.753781e+01 -1.371916e+00 9.226876e-01 -1.078164e+01 -1.063421e+01 -5.503374e+00 2.305374e+00 -1.077964e+00 1.477430e-01 6.406596e+01 8.998368e-01 1.435359e+00 -5.878056e-01 -1.116962e+00 -9.591913e-01 5.433152e-01 -1.757003e-01 -1.784186e-01 -1.255430e+00 -1.747677e-01 1.602753e-01 -7.536732e-02 -1.044313e-01 -4.240091e-01 2.218462e-01 -3.710999e-02 8.693266e-01 -1.360252e-01 3.186193e-01 3.671342e-01 3.910344e-01 3.015499e-01 -4.118235e-01 -5.299836e-02 -1.450214e-01 -8.934317e-01
<VARIANCE> 39
 3.612017e+01 7.935514e+01 5.163543e+01 1.885707e+02 8.516380e+01 5.812782e+01 7.967702e+01 5.577560e+01 7.578859e+01 6.548138e+01 9.807938e+01 7.341676e+01 1.077799e+02 2.539084e+00 4.977596e+00 5.309682e+00 1.337019e+01 4.519331e+00 4.305070e+00 7.332415e+00 4.788737e+00 5.605319e+00 4.969213e+00 8.357782e+00 5.573091e+00 8.807813e+00 3.208949e-01 6.104369e-01 4.291041e-01 1.240914e+00 7.152601e-01 6.647417e-01 1.573759e+00 8.897946e-01 7.805720e-01 1.047349e+00 1.120248e+00 9.328546e-01 1.090300e+00
<GCONST> 1.477316e+02
<TRANSP> 5
 0.000000e+00 1.000000e+00 0.000000e+00 0.000000e+00 0.000000e+00
 0.000000e+00 5.060664e-01 4.939337e-01 0.000000e+00 0.000000e+00
 0.000000e+00 0.000000e+00 4.030522e-01 5.969478e-01 0.000000e+00
 0.000000e+00 0.000000e+00 0.000000e+00 5.264302e-01 4.735698e-01
 0.000000e+00 0.000000e+00 0.000000e+00 0.000000e+00 0.000000e+00
<ENDHMM>
~h "w"
<BEGINHMM>
<NUMSTATES> 5
<STATE> 2
<MEAN> 39
 -1.867651e+01 -3.408387e+00 1.567305e+00 -7.115750e+00 1.364088e+01 -4.609280e+00 -4.202017e+00 -3.984394e+00 5.954455e+00 -4.666743e+00 1.810304e+00 -7.135048e+00 6.255439e+01 2.155416e+00 -2.671527e-01 6.517773e-01 1.439415e-01 -1.618291e+00 -8.650810e-01 -1.532824e+00 -1.139184e+00 -5.852881e-01 3.347449e-01 -7.368653e-02 5.975411e-02 4.538764e-01 4.324139e-01 -2.219510e-01 4.846496e-02 9.045963e-02 -4.051965e-01 -1.021746e-01 -3.697041e-02 -7.804593e-02 -3.057545e-01 1.600305e-01 1.016568e-02 1.744500e-01 1.533456e-01
<VARIANCE> 39
 9.316602e+01 2.103052e+01 3.653358e+01 5.179187e+01 8.502068e+01 6.457719e+01 4.472230e+01 6.069743e+01 2.821562e+01 3.074351e+01 2.233099e+01 1.302482e+01 9.703309e+00 1.147026e+01 2.384535e+00 2.721731e+00 2.525532e+00 7.595829e+00 3.631075e+00 4.754244e+00 4.158468e+00 5.455236e+00 2.022151e+00 2.828701e+00 2.399595e+00 9.858481e-01 1.307569e+00 4.443812e-01 4.230729e-01 4.746498e-01 7.544974e-01 6.302205e-01 8.395740e-01 8.228586e-01 7.651757e-01 3.600373e-01 5.715526e-01 2.933453e-01 1.612108e-01
<GCONST> 1.257089e+02
<STATE> 3
<MEAN> 39
 1.589517e+00 -1.087883e+01 4.955660e+00 -2.286198e+00 -7.636198e+00 -1.364704e+01 -1.383962e+01 -6.258608e+00 -6.911878e+00 3.769900e-02 6.520536e+00 -6.433680e+00 7.020777e+01 2.258918e-01 -7.523896e-01 1.146151e+00 4.814808e-01 -1.542165e+00 -1.341183e+00 2.992846e-01 1.161435e+00 -1.350206e+00 -8.085667e-02 2.836052e-01 -3.838363e-02 3.643845e-01 -6.383154e-01 2.967986e-01 4.454440e-02 4.761255e-02 2.983830e-01 2.332572e-01 4.406881e-01 3.148492e-01 2.210126e-01 -2.576952e-01 -7.958199e-02 4.999669e-02 -2.906631e-01
<VARIANCE> 39
 1.043133e+01 2.927884e+01 2.974370e+01 1.708653e+01 1.937477e+01 5.639146e+01 4.214449e+01 4.768319e+01 6.168570e+01 3.778965e+01 3.510369e+01 4.360219e+01 4.754798e+00 3.451419e+00 2.259721e+00 1.207697e+00 1.378719e+00 2.496076e+00 3.879464e+00 3.111134e+00 4.521113e+00 3.664796e+00 2.401050e+00 2.659446e+00 2.708923e+00 1.282620e+00 6.537709e-01 1.851209e-01 2.677277e-01 3.032993e-01 6.010473e-01 8.655889e-01 7.116767e-01 1.039673e+00 5.681250e-01 4.021884e-01 4.507355e-01 5.205930e-01 9.506723e-02
<GCONST> 1.158984e+02
<STATE> 4
<MEAN> 39
 -4.726567e+00 -4.209205e+00 4.474084e+00 1.766411e+00 -3.751782e+00 -6.352624e+00 -6.159212e+00 -5.337106e+00 -6.879866e+00 -5.329609e+00 4.713397e-01 2.108021e+00 5.681020e+01 -3.068860e-01 2.974519e-01 -3.290516e-01 2.515101e-01 7.095934e-02 9.106998e-01 4.355403e-01 2.772621e-02 5.347802e-03 -1.841104e-02 -2.874313e-01 2.208588e-01 -7.624580e-01 -8.414514e-03 -8.126418e-03 -5.351273e-03 -6.183165e-02 1.110637e-02 -1.540739e-02 -4.824483e-03 -5.316994e-02 -1.451875e-02 5.621473e-02 3.984294e-02 -4.985087e-02 2.572831e-02
<VARIANCE> 39
 2.155448e+01 1.579458e+01 1.792861e+01 1.961950e+01 4.063519e+01 8.082244e+01 3.269870e+01 4.229952e+01 1.944647e+01 2.243539e+01 3.959812e+01 2.475896e+01 4.370876e+01 2.572237e-01 9.660967e-01 1.156669e+00 1.023464e+00 2.453294e+00 1.750838e+00 2.268087e+00 2.674820e+00 2.350653e+00 2.142532e+00 2.104361e+00 1.496175e+00 6.093049e-01 6.944885e-02 1.369600e-01 1.368955e-01 2.300545e-01 3.178772e-01 3.063289e-01 3.891499e-01 5.258236e-01 2.358861e-01 3.692432e-01 4.825479e-01 2.259163e-01 4.628579e-02
<GCONST> 9.998927e+01
<TRANSP> 5
 0.000000e+00 1.000000e+00 0.000000e+00 0.000000e+00 0.000000e+00
 0.000000e+00 8.696169e-01 1.303831e-01 0.000000e+00 0.000000e+00
 0.000000e+00 0.000000e+00 8.440105e-01 1.559896e-01 0.000000e+00
 0.000000e+00 0.000000e+00 0.000000e+00 8.649684e-01 1.350316e-01
 0.000000e+00 0.000000e+00 0.000000e+00 0.000000e+00 0.000000e+00
<ENDHMM>
~h "ah"
<BEGINHMM>
<NUMSTATES> 5
<STATE> 2
<MEAN> 39
 4.685906e+00 -1.583330e+01 -1.100034e+01 -1.075223e+01 1.792425e+00 -1.256958e+00 -2.875144e+00 -5.170813e+00 1.768876e-01 4.487382e+00 -6.518952e+00 -7.984809e+00 7.077625e+01 3.181317e-01 -1.971392e+00 -3.940429e-01 -8.294573e-01 5.890051e-01 5.743647e-01 3.113792e-01 4.430283e-01 5.525153e-01 2.683624e-01 -1.268573e+00 -7.579504e-01 1.548671e+00 -5.026752e-01 4.693943e-01 3.404251e-01 5.862882e-01 1.291715e-01 -6.849929e-02 1.011972e-01 -5.385087e-02 -6.819639e-02 -2.909574e-01 6.096308e-02 2.179445e-01 -5.611152e-01
<VARIANCE> 39
 1.362215e+01 3.683962e+01 4.001992e+01 5.174889e+01 1.262762e+02 1.017147e+02 7.027493e+01 7.134459e+01 1.066859e+02 6.962873e+01 8.523183e+01 6.146954e+01 2.473772e+01 1.818419e+00 2.659688e+00 3.341959e+00 2.938561e+00 3.475538e+00 4.223964e+00 3.061847e+00 3.713043e+00 5.015808e+00 3.041655e+00 3.665091e+00 2.994085e+00 1.569618e+00 3.177907e-01 3.650075e-01 4.580445e-01 5.672257e-01 6.776738e-01 6.497818e-01 6.835151e-01 7.040598e-01 7.384451e-01 5.669616e-01 7.732712e-01 5.235345e-01 3.315843e-01
<GCONST> 1.308141e+02
<STATE> 3
<MEAN> 39
 3.295863e+00 -2.091310e+01 -1.068167e+01 -9.546986e+00 -6.576587e-02 8.101562e-01 -2.226473e+00 -4.740671e+00 2.052942e+00 3.172935e+00 -7.461442e+00 -1.082169e+01 7.427941e+01 -1.392041e-02 5.029621e-02 8.187322e-02 7.377384e-02 5.305197e-02 -8.139681e-02 6.484479e-02 4.905511e-02 1.113929e-02 -9.372717e-02 -2.422512e-01 7.063363e-02 -1.316722e-01 2.286232e-02 3.413706e-01 7.987579e-02 1.026390e-01 -1.099608e-01 -1.334404e-01 -1.045205e-01 -2.705900e-02 4.517818e-03 1.592991e-02 1.333103e-01 1.189476e-01 -2.752095e-01
<VARIANCE> 39
 6.806886e+00 2.572622e+01 2.862280e+01 3.195203e+01 7.410158e+01 7.113643e+01 4.953257e+01 5.683881e+01 1.068248e+02 4.643512e+01 7.651438e+01 5.635459e+01 1.321511e+01 1.969586e-01 7.201260e-01 6.581776e-01 9.051192e-01 1.287148e+00 1.811484e+00 1.488297e+00 1.648613e+00 1.634773e+00 1.404831e+00 1.546712e+00 1.325580e+00 3.642207e-01 4.138578e-02 1.165847e-01 1.123662e-01 1.707555e-01 2.149322e-01 2.320719e-01 2.511692e-01 2.939219e-01 3.194942e-01 2.435562e-01 2.911488e-01 2.262358e-01 6.442016e-02
<GCONST> 9.653870e+01
<STATE> 4
<MEAN> 39
 2.236797e+00 -1.301082e+01 -7.688268e+00 -7.451736e+00 5.475111e+00 -3.171420e+00 -8.080839e-01 -3.314092e+00 2.963936e+00 3.028934e+00 -1.149646e+01 -5.376217e+00 6.658572e+01 -2.717035e-01 1.525278e+00 3.510313e-01 9.747258e-01 -2.742461e-01 -3.799488e-02 -3.288095e-01 1.671619e-02 -5.403644e-02 -3.778071e-01 3.539141e-01 3.027556e-01 -1.598968e+00 -6.452198e-02 1.233778e-01 3.702306e-02 1.540428e-01 -1.084309e-01 7.920459e-02 -6.694128e-02 -8.997175e-02 -1.411329e-01 -1.026729e-01 1.816142e-01 2.664761e-03 -1.232491e-01
<VARIANCE> 39
 1.715829e+01 3.754757e+01 3.513348e+01 5.574423e+01 1.032189e+02 6.839043e+01 7.105685e+01 5.447364e+01 6.478006e+01 6.001972e+01 7.905527e+01 6.641100e+01 4.617112e+01 7.631806e-01 2.155714e+00 1.622142e+00 2.700730e+00 3.006363e+00 2.989315e+00 3.132662e+00 3.090409e+00 3.428256e+00 2.613684e+00 2.834402e+00 2.260106e+00 2.227567e+00 1.135937e-01 3.151112e-01 2.316569e-01 4.738669e-01 4.811089e-01 4.420452e-01 4.482046e-01 5.407014e-01 5.255476e-01 5.025322e-01 4.590410e-01 3.891051e-01 3.025190e-01
<GCONST> 1.220504e+02
<TRANSP> 5
 0.000000e+00 1.000000e+00 0.000000e+00 0.000000e+00 0.000000e+00
 0.000000e+00 5.635256e-01 4.364744e-01 0.000000e+00 0.000000e+00
 0.000000e+00 0.000000e+00 8.025095e-01 1.974905e-01 0.000000e+00
 0.000000e+00 0.000000e+00 0.000000e+00 7.199173e-01 2.800827e-01
 0.000000e+00 0.000000e+00 0.000000e+00 0.000000e+00 0.000000e+00
<ENDHMM>
~h "ax"
<BEGINHMM>
<NUMSTATES> 5
<STATE> 2
<MEAN> 39
 3.977407e+00 -5.662225e+00 -6.457010e+00 -8.227866e+00 2.004732e+00 -2.742271e+00 -9.124691e+00 -1.072583e+01 -1.292429e+00 5.529401e+00 -2.487172e+00 -2.165242e+00 6.453937e+01 2.404402e+00 -2.449856e+00 -9.589992e-02 -2.465663e+00 3.121745e-01 -6.931975e-01 -1.729914e+00 -7.540559e-01 1.540735e-01 2.453168e+00 -1.066499e+00 -5.706331e-01 3.512893e+00 -9.637215e-01 3.195287e-01 2.159518e-01 5.702446e-01 -5.158575e-02 1.896037e-01 4.615986e-01 5.672387e-01 4.640733e-02 -6.415488e-01 -5.266023e-02 -1.668936e-01 -8.478228e-01
<VARIANCE> 39
 1.484451e+01 7.065639e+01 4.811520e+01 6.902435e+01 1.828682e+02 1.431420e+02 5.903028e+01 1.357378e+02 1.405687e+02 7.263169e+01 1.138103e+02 7.579485e+01 4.694600e+01 3.257298e+00 2.992661e+00 4.615988e+00 4.856756e+00 1.248039e+01 8.552382e+00 7.771223e+00 8.024177e+00 7.217698e+00 5.580184e+00 6.841739e+00 6.436198e+00 6.060584e+00 7.475971e-01 7.359777e-01 6.910962e-01 6.709660e-01 1.541548e+00 1.033844e+00 7.493781e-01 1.320515e+00 7.848799e-01 6.712326e-01 1.227512e+00 8.037566e-01 1.110510e+00
<GCONST> 1.500576e+02
<STATE> 3
<MEAN> 39
 4.731226e+00 -1.271638e+01 -7.265111e+00 -1.144345e+01 -1.932724e+00 -2.476326e+00 -1.068230e+01 -8.887316e+00 1.676402e+00 8.710428e+00 -1.389886e+00 -6.555050e+00 6.946517e+01 3.606064e-01 -1.349526e+00 5.343187e-01 -2.979222e-01 1.004699e-01 -3.676852e-01 -4.972173e-01 7.340959e-01 4.442411e-01 3.893648e-01 -1.266620e+00 -8.865566e-01 1.378971e+00 -9.041808e-01 1.033187e+00 2.477533e-01 1.108690e+00 2.906659e-01 -1.972771e-02 7.789119e-01 2.403112e-01 -1.062932e-01 -1.073968e+00 -8.741193e-02 2.761512e-01 -1.146695e+00
<VARIANCE> 39
 1.317766e+01 4.672702e+01 4.338002e+01 6.197432e+01 1.380874e+02 1.235905e+02 6.363677e+01 9.501018e+01 1.579516e+02 8.679311e+01 9.048598e+01 7.223742e+01 2.367122e+01 1.280043e+00 2.547786e+00 2.573013e+00 3.012167e+00 4.090703e+00 4.341321e+00 4.074512e+00 3.297267e+00 4.602730e+00 4.103953e+00 2.564465e+00 3.167472e+00 1.649149e+00 5.535872e-01 5.260062e-01 6.354160e-01 5.835848e-01 1.422296e+00 8.845561e-01 9.792274e-01 9.292107e-01 1.102631e+00 8.385546e-01 1.263174e+00 8.603929e-01 6.514500e-01
<GCONST> 1.376479e+02
<STATE> 4
<MEAN> 39
 3.542056e+00 -1.079002e+01 -4.334787e+00 -8.368503e+00 1.579259e+00 -5.823441e+00 -9.883175e+00 -5.943811e+00 2.253966e+00 6.110534e+00 -5.769209e+00 -5.243115e+00 6.895809e+01 -1.095325e+00 1.695768e+00 7.223807e-02 1.433737e+00 8.172247e-01 -2.441788e-01 1.157492e+00 -3.170510e-01 8.109338e-02 -1.160778e+00 -2.016494e-01 1.416999e-01 -9.274266e-01 -6.505260e-01 9.351551e-01 -6.874777e-02 5.301344e-01 -6.392959e-02 2.486771e-01 6.248171e-01 -3.602521e-01 -4.621010e-02 -4.522302e-01 6.315712e-01 1.386694e-01 -7.139322e-01
<VARIANCE> 39
 1.070198e+01 5.229889e+01 5.017858e+01 5.987430e+01 1.465296e+02 1.180786e+02 4.402160e+01 7.357503e+01 1.455213e+02 8.724543e+01 7.477796e+01 6.923325e+01 2.219206e+01 2.824074e+00 3.727108e+00 2.179647e+00 2.612640e+00 3.594966e+00 4.208471e+00 3.844803e+00 3.183853e+00 4.676096e+00 3.648662e+00 4.462838e+00 2.617825e+00 1.006245e+00 4.248175e-01 5.210565e-01 4.555937e-01 8.005927e-01 9.051115e-01 6.206027e-01 9.451289e-01 4.586944e-01 7.039195e-01 8.829346e-01 7.841304e-01 6.585838e-01 4.238081e-01
<GCONST> 1.336468e+02
<TRANSP> 5
 0.000000e+00 1.000000e+00 0.000000e+00 0.000000e+00 0.000000e+00
 0.000000e+00 1.564771e-01 8.435230e-01 0.000000e+00 0.000000e+00
 0.000000e+00 0.000000e+00 3.949212e-01 6.050788e-01 0.000000e+00
 0.000000e+00 0.000000e+00 0.000000e+00 4.658306e-01 5.341694e-01
 0.000000e+00 0.000000e+00 0.000000e+00 0.000000e+00 0.000000e+00
<ENDHMM>
~h "ay"
<BEGINHMM>
<NUMSTATES> 5
<STATE> 2
<MEAN> 39
 -1.062109e+01 6.549081e-01 -3.785470e+00 5.622834e+00 6.241606e+00 -6.635346e+00 4.797595e+00 -5.030553e-01 4.023539e+00 -1.667470e+00 -1.423217e+00 -8.148528e-01 6.199059e+01 -1.313250e-01 -5.205233e-01 -1.033269e-01 -1.506560e-01 -2.168549e-01 1.306417e-01 5.193895e-01 -2.483897e-01 3.966764e-01 2.817900e-01 1.703511e-01 -4.054139e-01 1.025397e+00 8.613598e-02 -1.803709e-01 -8.225205e-02 -7.337222e-02 -2.566681e-01 1.803527e-01 -1.313735e-01 6.306973e-02 -9.706539e-03 1.084844e-01 5.907080e-02 -7.020233e-02 -3.516858e-01
<VARIANCE> 39
 6.428005e+01 6.227843e+01 2.682554e+01 1.195506e+02 4.500669e+01 2.768221e+01 4.204225e+01 3.393783e+01 3.852438e+01 2.897252e+01 4.532807e+01 2.675285e+01 3.818945e+01 4.465345e+00 3.432541e+00 2.275810e+00 3.172466e+00 2.653542e+00 2.665486e+00 3.128479e+00 2.279153e+00 2.468706e+00 2.067265e+00 1.901331e+00 1.971040e+00 2.930163e+00 1.459773e+00 6.661966e-01 5.177966e-01 6.988685e-01 6.201621e-01 6.873626e-01 6.759725e-01 5.181257e-01 4.968993e-01 5.058321e-01 7.433200e-01 3.535106e-01 1.264823e+00
<GCONST> 1.274213e+02
<STATE> 3
<MEAN> 39
 -5.050678e+00 -8.011991e+00 -8.809896e+00 -8.942532e+00 1.940111e+00 -1.530503e+00 1.834334e+00 -6.177631e+00 -1.561692e+00 5.953668e+00 -3.556066e+00 -1.000067e+01 6.310358e+01 3.170767e+00 -2.756183e+00 -1.318841e+00 -1.266365e+00 -1.495952e+00 8.017895e-01 2.742119e-02 -3.399994e-01 -8.107742e-01 1.651613e+00 -9.563972e-01 -8.765043e-01 2.121252e+00 -3.147105e-01 1.000399e-01 6.846980e-02 4.741473e-01 7.578138e-02 -1.388960e-01 5.814595e-02 2.746080e-01 -2.375785e-01 -1.870864e-01 -1.328573e-01 1.676828e-01 -2.252234e-01
<VARIANCE> 39
 1.397096e+02 5.957706e+01 7.573773e+01 1.196580e+02 5.972138e+01 5.628843e+01 3.942984e+01 9.162685e+01 1.035865e+02 1.041744e+02 6.204443e+01 7.754971e+01 7.816417e+01 7.665970e+00 1.986094e+00 7.393558e+00 4.077264e+00 3.257986e+00 4.966790e+00 5.831502e+00 4.123510e+00 4.641451e+00 6.445961e+00 5.439608e+00 3.330984e+00 1.429940e+00 1.926187e+00 5.165018e-01 1.700979e+00 7.729102e-01 6.764609e-01 8.904281e-01 8.112753e-01 6.384771e-01 6.958078e-01 1.264144e+00 8.969015e-01 6.210785e-01 6.512907e-01
<GCONST> 1.449599e+02
<STATE> 4
<MEAN> 39
 2.172839e+00 -1.331607e+01 4.233300e+00 -9.478791e+00 -5.971067e+00 -1.376030e+01 2.409725e+00 2.049403e+00 -4.031757e+00 4.578211e+00 -6.772038e+00 -1.355272e+00 7.194783e+01 -5.300254e-02 -1.570961e-01 5.789001e-01 7.005201e-02 -3.016990e-01 -3.822024e-01 -9.653399e-03 5.322666e-01 -4.900541e-02 -1.943054e-01 -9.122124e-02 9.518494e-02 1.828580e-01 -1.529771e-02 6.187543e-02 -1.309362e-01 -1.493774e-02 1.444251e-01 1.232200e-01 -4.235249e-02 -7.141531e-02 9.379183e-02 1.035806e-02 -7.115477e-02 -3.015715e-02 -5.937060e-02
<VARIANCE> 39
 7.271603e+00 2.881379e+01 9.319215e+01 8.788971e+01 9.675837e+01 5.372676e+01 6.425313e+01 4.493704e+01 5.069208e+01 4.908950e+01 6.354714e+01 4.874273e+01 8.131234e+00 2.830854e-01 1.762959e+00 4.882034e+00 9.179353e-01 3.875475e+00 3.025898e+00 2.553613e+00 2.559715e+00 2.520498e+00 2.252803e+00 5.212392e+00 1.832239e+00 3.517846e-01 5.647949e-02 2.392791e-01 3.072906e-01 1.415015e-01 3.444611e-01 4.062919e-01 4.091186e-01 4.508029e-01 4.080509e-01 4.117963e-01 6.137930e-01 2.675990e-01 5.730563e-02
<GCONST> 1.110575e+02
<TRANSP> 5
 0.000000e+00 1.000000e+00 0.000000e+00 0.000000e+00 0.000000e+00
 0.000000e+00 7.069747e-01 2.930253e-01 0.000000e+00 0.000000e+00
 0.000000e+00 0.000000e+00 7.350636e-01 2.649364e-01 0.000000e+00
 0.000000e+00 0.000000e+00 0.000000e+00 9.312486e-01 6.875134e-02
 0.000000e+00 0.000000e+00 0.000000e+00 0.000000e+00 0.000000e+00
<ENDHMM>
~h "eh"
<BEGINHMM>
<NUMSTATES> 5
<STATE> 2
<MEAN> 39
 2.613350e+00 -1.125580e+00 6.531899e+00 5.482530e+00 -3.774080e+00 -1.301821e+01 -1.125279e+01 1.908862e+00 -3.045004e+00 7.024059e-02 -7.810635e+00 1.223680e+00 5.725206e+01 -9.116213e-02 -6.911724e-01 5.229949e-01 -7.057754e-01 -9.858069e-01 -5.334604e-01 -2.762784e-01 7.450432e-01 -8.787665e-01 1.451247e-01 9.028306e-01 2.625773e-01 7.877461e-01 1.973304e-02 -1.168115e-02 -1.013148e-01 -2.136656e-01 8.556707e-02 1.446560e-01 1.881997e-01 2.847940e-02 5.069782e-02 7.331567e-02 1.691945e-01 -1.779129e-01 7.234843e-02
<VARIANCE> 39
 9.497857e+00 1.920385e+02 1.937451e+01 1.063415e+02 1.088371e+02 7.941868e+01 2.625854e+01 1.325306e+02 5.356088e+01 3.971651e+01 5.319149e+01 5.935490e+01 1.373942e+02 8.416123e-01 1.850490e+01 1.314184e+00 1.613386e+01 7.016965e+00 4.743264e+00 2.802529e+00 6.124049e+00 3.870704e+00 3.571177e+00 5.949965e+00 4.740902e+00 1.322254e+01 1.470232e-01 2.165707e+00 2.312567e-01 2.114734e+00 9.480063e-01 7.970029e-01 4.746728e-01 9.028766e-01 6.593413e-01 4.676811e-01 8.894363e-01 9.104682e-01 1.461998e+00
<GCONST> 1.413793e+02
<STATE> 3
<MEAN> 39
 3.070097e+00 -1.407039e+01 2.751381e+00 -4.952425e+00 -8.323903e+00 -1.000250e+01 -1.201501e+01 -2.100967e+00 4.162581e-01 1.213693e+00 -7.161973e-02 -7.282472e+00 7.050908e+01 1.760322e-01 4.037634e-01 -5.715618e-01 -4.350966e-01 7.791207e-01 7.652238e-01 -7.514872e-02 -8.843157e-01 -5.253148e-02 4.499755e-01 6.188877e-02 -1.941056e-01 -1.495821e-01 1.357417e-02 3.140843e-01 -8.207148e-02 7.049718e-02 1.274507e-01 1.148553e-01 5.756154e-02 -1.424635e-01 -9.332266e-02 -9.035336e-02 -1.163911e-01 1.095465e-01 -2.148183e-01
<VARIANCE> 39
 8.581689e+00 1.887910e+01 2.902889e+01 4.404931e+01 7.379897e+01 6.948768e+01 5.390595e+01 1.331293e+02 5.972898e+01 4.980438e+01 3.859277e+01 6.066165e+01 5.288687e+00 2.033424e-01 1.318170e+00 1.531370e+00 2.072354e+00 2.620255e+00 1.386276e+00 3.495326e+00 4.494710e+00 2.288142e+00 2.019988e+00 3.084587e+00 2.861144e+00 4.944573e-01 4.194774e-02 2.985160e-01 2.888961e-01 4.937689e-01 6.039329e-01 3.129390e-01 6.058166e-01 6.990847e-01 4.615535e-01 4.632825e-01 7.014511e-01 3.953315e-01 1.613095e-01
<GCONST> 1.121456e+02
<STATE> 4
<MEAN> 39
 4.277557e+00 6.927981e-01 -1.026195e+00 -1.093880e+01 -6.271155e-01 -2.464579e+00 -1.038021e+01 -8.532006e+00 -5.356315e+00 1.905320e+00 -2.127651e+00 -1.997927e+00 6.310211e+01 -3.333064e-01 2.081746e+00 -3.478868e-01 4.722268e-01 7.194006e-01 4.571864e-01 1.171888e+00 1.532703e-01 -3.742290e-01 -9.907452e-01 -4.721158e-01 3.946103e-01 -2.006174e+00 -2.205859e-01 -4.064206e-01 1.989702e-01 2.889681e-01 -1.586347e-01 -1.672712e-01 -1.904972e-01 2.587554e-02 2.726747e-01 2.737024e-01 1.884502e-01 -1.427062e-01 1.172111e-02
<VARIANCE> 39
 9.289057e+00 5.605409e+01 1.090684e+01 1.450904e+01 8.245811e+01 7.110133e+01 2.910880e+01 3.952685e+01 1.990899e+01 1.058901e+02 6.810843e+01 9.829004e+00 2.288064e+01 1.450653e+00 2.617745e+00 1.407793e+00 2.835133e+00 1.080382e+00 5.123093e+00 3.604999e+00 6.260988e+00 3.752915e+00 6.767034e+00 3.564611e+00 1.840796e+00 7.338034e-01 9.712081e-02 3.192519e-01 9.965879e-02 4.559812e-01 2.644196e-01 6.574102e-01 2.446693e-01 6.618878e-01 4.189413e-01 9.141590e-01 6.963924e-01 5.505308e-01 2.641096e-01
<GCONST> 1.149788e+02
<TRANSP> 5
 0.000000e+00 1.000000e+00 0.000000e+00 0.000000e+00 0.000000e+00
 0.000000e+00 8.361322e-01 1.638678e-01 0.000000e+00 0.000000e+00
 0.000000e+00 0.000000e+00 9.266411e-01 7.335892e-02 0.000000e+00
 0.000000e+00 0.000000e+00 0.000000e+00 6.691054e-01 3.308946e-01
 0.000000e+00 0.000000e+00 0.000000e+00 0.000000e+00 0.000000e+00
<ENDHMM>
~h "hh"
<BEGINHMM>
<NUMSTATES> 5
<STATE> 2
<MEAN> 39
 2.085436e+00 -7.205823e+00 1.980806e+00 -3.874059e+00 3.968299e+00 -1.772094e+01 -3.325623e+00 7.543432e+00 1.077670e+00 -4.509156e-01 -1.427346e+01 4.343503e+00 6.304951e+01 6.095994e-02 -2.668598e-01 1.213625e-02 -2.999280e-01 8.618285e-02 4.736809e-02 1.949003e-02 5.347021e-01 -3.457990e-01 1.882970e-02 -4.091346e-02 -1.096464e-01 2.240032e-01 1.684563e-02 -2.074218e-01 -1.121909e-01 -2.630937e-01 2.100987e-02 2.586283e-01 1.510024e-01 -2.162396e-01 2.123419e-01 1.122009e-01 -1.066410e-01 -2.531542e-01 1.895735e-01
<VARIANCE> 39
 7.752245e+00 9.173392e+01 3.725407e+01 1.808924e+02 5.580199e+01 9.857790e+01 5.094356e+01 6.953627e+01 4.889213e+01 4.660161e+01 2.909792e+01 6.357491e+01 9.161897e+01 4.374213e-01 8.184812e+00 1.174190e+00 2.887603e+01 2.962223e+00 4.155294e+00 8.024934e+00 3.062470e+00 3.991432e+00 3.673417e+00 2.691382e+00 5.467460e+00 9.880992e+00 7.832448e-02 1.076179e+00 2.394264e-01 4.181835e+00 4.690667e-01 8.556862e-01 1.085187e+00 5.340495e-01 6.512933e-01 7.122277e-01 4.317489e-01 1.197717e+00 1.345812e+00
<GCONST> 1.367313e+02
<STATE> 3
<MEAN> 39
 5.082531e+00 -1.886363e+01 -4.468916e+00 -1.330781e+01 5.567704e+00 -3.334554e+00 3.399520e+00 -5.821696e+00 -3.162478e+00 8.939646e+00 -1.457581e+01 -2.451187e+00 7.286903e+01 -6.362784e-02 -1.536541e-01 -2.881707e-01 -1.359320e-02 7.328065e-01 2.394082e-01 3.348746e-01 -3.366402e-01 -4.849481e-02 -1.277965e-03 -1.710877e-02 -4.685156e-02 1.695760e-01 1.043893e-02 4.959257e-02 -7.706864e-04 3.054606e-02 -6.491796e-02 5.379852e-02 -1.418419e-01 -1.031841e-02 6.460135e-02 -1.232748e-02 3.883773e-02 -6.657077e-03 -4.500769e-02
<VARIANCE> 39
 7.886394e+00 1.141507e+01 1.833760e+01 3.536839e+01 7.810066e+01 4.696017e+01 4.452640e+01 7.212418e+01 5.707464e+01 5.460033e+01 2.374362e+01 3.298426e+01 7.775042e+00 2.832354e-01 7.334664e-01 6.518437e-01 1.960177e+00 1.676226e+00 1.722047e+00 1.744551e+00 2.127039e+00 1.602482e+00 1.439152e+00 1.186250e+00 1.899771e+00 5.286931e-01 4.633062e-02 1.432953e-01 1.033823e-01 2.642606e-01 2.852630e-01 2.949519e-01 3.212960e-01 3.544501e-01 3.492015e-01 3.063452e-01 2.128070e-01 2.891136e-01 8.058002e-02
<GCONST> 9.694343e+01
<STATE> 4
<MEAN> 39
 1.204914e+00 -2.041978e+01 -1.017181e+01 -9.464452e+00 1.899529e+00 -7.190249e-01 -2.823640e+00 -3.503420e+00 5.969532e+00 1.557086e-01 -1.260342e+01 -9.032553e+00 7.519349e+01 1.676817e-02 -2.246997e-02 -2.316426e-01 7.465840e-02 2.820887e-01 3.895122e-01 9.765300e-02 -5.113828e-01 -3.641560e-02 2.150265e-01 -7.335400e-02 -1.209599e-01 -2.211304e-03 1.594138e-03 2.159101e-02 3.429116e-02 5.851655e-02 -1.990209e-02 -7.475846e-02 1.503407e-02 2.361082e-02 -1.022099e-03 -2.235199e-02 9.203886e-03 7.368215e-02 -2.077057e-02
<VARIANCE> 39
 3.366326e+00 2.222945e+01 3.247815e+01 2.987522e+01 6.183667e+01 4.922097e+01 5.129741e+01 9.961703e+01 8.283807e+01 2.770205e+01 5.559615e+01 4.062093e+01 1.022102e+01 8.887534e-02 1.746539e-01 3.031767e-01 5.814904e-01 5.324515e-01 6.344256e-01 6.031768e-01 6.963814e-01 5.756056e-01 9.016370e-01 5.308354e-01 7.581853e-01 7.486370e-02 1.612009e-02 3.455070e-02 5.281322e-02 9.102047e-02 8.960365e-02 9.317050e-02 1.033414e-01 1.045489e-01 1.055953e-01 1.344348e-01 1.048100e-01 1.040376e-01 1.311417e-02
<GCONST> 6.995155e+01
<TRANSP> 5
 0.000000e+00 1.000000e+00 0.000000e+00 0.000000e+00 0.000000e+00
 0.000000e+00 7.366296e-01 2.633703e-01 0.000000e+00 0.000000e+00
 0.000000e+00 0.000000e+00 8.408312e-01 1.591688e-01 0.000000e+00
 0.000000e+00 0.000000e+00 0.000000e+00 9.164138e-01 8.358618e-02
 0.000000e+00 0.000000e+00 0.000000e+00 0.000000e+00 0.000000e+00
<ENDHMM>
~h "ih"
<BEGINHMM>
<NUMSTATES> 5
<STATE> 2
<MEAN> 39
 4.980975e+00 2.608439e+00 8.194744e+00 -3.645419e+00 -1.088635e+01 -1.348640e+00 -3.585777e+00 -8.612597e+00 -1.398098e+01 -7.053205e-01 -2.578727e+00 -1.954129e+00 5.839089e+01 -5.464668e-01 -4.417322e-01 1.803733e+00 -1.296658e+00 -1.295373e+00 -6.221609e-02 3.450145e-01 4.367799e-01 -8.213959e-01 -1.525935e-01 5.001183e-01 1.534233e-02 5.664497e-01 -1.474668e-01 1.708625e-01 -1.592794e-01 3.014473e-02 2.089366e-01 2.896308e-01 6.223141e-02 -1.392623e-01 1.080482e-01 1.173925e-01 -1.670988e-01 -9.116480e-02 -2.581790e-01
<VARIANCE> 39
 4.448527e+01 1.888666e+02 1.921137e+02 1.268084e+02 5.574113e+01 1.408125e+02 8.343498e+01 6.413371e+01 7.072103e+01 9.349947e+01 9.932703e+01 4.834513e+01 8.860186e+01 2.204472e+00 5.096407e+00 1.062955e+01 1.197419e+01 5.743388e+00 5.753432e+00 7.268549e+00 4.254927e+00 3.987344e+00 5.603733e+00 4.826850e+00 2.681848e+00 2.875375e+00 2.551160e-01 8.401635e-01 1.360634e+00 1.810046e+00 8.840359e-01 9.970508e-01 7.974770e-01 7.832841e-01 6.234776e-01 7.857130e-01 6.197873e-01 3.180917e-01 4.673130e-01
<GCONST> 1.467095e+02
<STATE> 3
<MEAN> 39
 -1.704837e+00 -8.291708e+00 1.679048e+01 -2.633814e+00 -1.974152e+01 -1.064246e+01 -8.798763e+00 -5.356349e+00 -1.237938e+01 -1.705939e+00 7.754215e+00 -7.361658e+00 6.690210e+01 -1.744523e-01 5.035493e-01 1.183159e-01 -8.460732e-02 3.475434e-01 4.349891e-01 4.111022e-01 8.391181e-02 6.559674e-02 4.601612e-01 -6.605304e-01 -3.206157e-01 -4.092384e-01 1.088065e-01 1.535674e-01 -8.563063e-01 2.113570e-01 7.871610e-01 -1.403764e-02 2.111849e-01 6.309001e-03 4.234443e-01 8.877286e-02 -5.499640e-01 1.582966e-01 -3.205665e-01
<VARIANCE> 39
 1.040356e+01 5.340586e+01 4.205166e+01 3.913424e+01 5.194097e+01 5.781254e+01 4.465441e+01 6.993958e+01 8.527541e+01 7.180158e+01 6.510194e+01 6.000438e+01 1.943262e+01 5.669391e-01 1.239352e+00 4.052782e+00 1.643836e+00 4.122206e+00 2.739154e+00 2.895037e+00 2.781311e+00 2.909273e+00 1.710806e+00 4.009062e+00 2.206685e+00 7.590985e-01 1.021231e-01 2.284749e-01 3.105465e-01 3.913417e-01 5.516369e-01 6.602327e-01 6.040064e-01 6.665285e-01 3.509246e-01 4.583569e-01 5.377790e-01 4.595867e-01 1.390889e-01
<GCONST> 1.179939e+02
<STATE> 4
<MEAN> 39
 -4.079522e+00 -3.635516e+00 9.283449e+00 -5.689072e+00 -7.162993e+00 -7.943190e+00 -4.024250e+00 -8.386276e+00 -8.991187e+00 -6.136758e-01 -2.625053e+00 -5.472276e+00 6.145795e+01 -5.274853e-02 7.439616e-01 -1.361339e+00 5.794257e-01 1.420306e+00 3.283271e-01 1.971577e-01 -2.078951e-01 8.243763e-01 -1.002804e-01 -1.229599e+00 -4.445961e-03 -1.089231e+00 -2.594851e-02 1.068841e-02 4.624545e-02 8.320864e-02 -2.716679e-01 5.684539e-02 -5.666592e-02 -7.950841e-02 -1.384298e-01 -7.561655e-02 3.361630e-01 -1.890043e-02 1.056809e-02
<VARIANCE> 39
 5.767303e+01 4.620588e+01 1.060019e+02 8.192476e+01 5.787006e+01 4.556678e+01 4.603477e+01 7.699017e+01 5.295755e+01 5.258537e+01 4.586158e+01 3.742226e+01 3.741491e+01 1.397877e+00 1.527868e+00 2.406787e+00 2.769649e+00 3.589551e+00 3.203886e+00 2.964563e+00 2.823238e+00 2.537579e+00 2.875584e+00 2.881793e+00 1.946044e+00 8.222524e-01 1.424385e-01 1.898922e-01 3.098708e-01 3.856556e-01 3.352148e-01 5.672964e-01 4.037588e-01 5.740337e-01 4.675076e-01 2.772902e-01 4.543853e-01 2.608984e-01 1.692811e-01
<GCONST> 1.196175e+02
<TRANSP> 5
 0.000000e+00 1.000000e+00 0.000000e+00 0.000000e+00 0.000000e+00
 0.000000e+00 6.799098e-01 3.200902e-01 0.000000e+00 0.000000e+00
 0.000000e+00 0.000000e+00 7.980004e-01 2.019997e-01 0.000000e+00
 0.000000e+00 0.000000e+00 0.000000e+00 7.183169e-01 2.816832e-01
 0.000000e+00 0.000000e+00 0.000000e+00 0.000000e+00 0.000000e+00
<ENDHMM>
~h "iy"
<BEGINHMM>
<NUMSTATES> 5
<STATE> 2
<MEAN> 39
 1.646253e+00 -1.311330e+01 1.252978e+01 -4.615542e+00 -1.523007e+01 -1.333138e+01 -7.635506e+00 -3.097077e+00 -7.362796e+00 1.618569e+00 4.793924e-01 -1.024792e+00 6.954807e+01 -5.921134e-01 6.002506e-01 2.358166e+00 -3.246684e-01 -1.198771e+00 -4.413034e-01 2.115908e-01 -4.417579e-01 -2.755905e+00 2.623278e-01 1.628723e+00 -3.823738e-01 2.631969e-01 -6.864142e-02 2.581024e-01 -3.755412e-01 -1.358785e-01 3.982750e-01 3.695245e-01 1.070939e-01 -2.818974e-01 1.894025e-01 1.212752e-01 -3.151031e-01 -2.311507e-01 -1.754125e-01
<VARIANCE> 39
 1.023665e+01 3.238210e+01 6.908533e+01 4.237386e+01 3.992747e+01 2.874237e+01 3.248217e+01 4.342657e+01 1.155699e+02 9.590907e+01 6.645583e+01 5.821946e+01 1.539486e+01 4.715919e-01 1.257792e+00 1.445965e+00 1.633410e+00 3.504220e+00 2.563955e+00 1.617701e+00 2.690742e+00 2.569399e+00 2.218038e+00 4.120592e+00 2.188138e+00 5.623459e-01 7.999899e-02 1.583133e-01 1.350679e-01 2.874878e-01 5.713322e-01 4.821500e-01 3.631825e-01 4.388396e-01 5.496119e-01 3.819779e-01 4.140754e-01 4.111668e-01 9.877219e-02
<GCONST> 1.110456e+02
<STATE> 3
<MEAN> 39
 -2.603951e+00 -1.097299e+01 1.668777e+01 -2.765851e+00 -2.358534e+01 -1.169082e+01 -1.201133e+01 -1.005951e+01 -1.094623e+01 -3.590004e+00 1.381106e+01 -4.094720e+00 6.894048e+01 -7.073288e-02 3.396899e-01 2.554896e-01 1.171898e-01 -1.682653e-01 2.356845e-02 -5.808577e-02 -2.676043e-01 -3.370196e-01 -1.331891e-02 2.740846e-01 5.581848e-02 -2.644601e-01 6.259004e-02 -4.599310e-02 -2.427760e-01 1.122514e-01 1.989340e-01 -9.132440e-02 7.705170e-02 1.480031e-01 2.575862e-01 -3.723248e-02 -2.156625e-01 1.092873e-01 -3.774676e-02
<VARIANCE> 39
 8.601099e+00 4.817970e+01 2.075723e+01 2.601150e+01 3.659220e+01 1.469815e+01 3.651315e+01 4.262141e+01 6.608592e+01 9.320238e+01 7.261307e+01 8.067174e+01 6.726740e+00 1.218193e-01 4.907172e-01 6.975159e-01 6.545159e-01 7.316502e-01 8.805019e-01 8.396344e-01 1.334864e+00 1.145667e+00 9.687561e-01 1.158853e+00 7.610872e-01 1.111612e-01 2.150994e-02 7.446315e-02 8.550945e-02 9.557317e-02 1.871215e-01 1.465281e-01 1.507565e-01 1.939760e-01 1.924168e-01 1.851102e-01 1.989728e-01 1.541889e-01 3.161746e-02
<GCONST> 8.214998e+01
<STATE> 4
<MEAN> 39
 -1.924626e+00 -5.425144e+00 1.464354e+01 -2.128203e+00 -1.449307e+01 -1.264600e+01 -5.301727e+00 -6.640234e+00 -1.183466e+01 1.120732e+00 2.123967e+00 -3.321787e-01 6.331506e+01 -4.715452e-01 1.276390e+00 -2.070882e+00 8.218793e-01 1.937273e+00 2.166630e-01 8.866059e-01 3.394443e-01 1.576590e+00 -3.281118e-01 -8.935925e-01 4.229644e-01 -1.264554e+00 -2.292155e-01 1.225468e-01 -3.237417e-01 -1.224256e-02 3.300477e-01 1.927076e-01 5.103961e-02 8.327802e-03 3.419581e-01 -1.142292e-01 1.302306e-01 -1.665709e-02 -5.038409e-02
<VARIANCE> 39
 1.878565e+01 5.846954e+01 7.680298e+01 6.005329e+01 6.932819e+01 3.699108e+01 5.720467e+01 4.344770e+01 8.102428e+01 7.715047e+01 1.064765e+02 5.315040e+01 4.875143e+01 1.531496e+00 2.736693e+00 2.240473e+00 2.455156e+00 4.912012e+00 2.802104e+00 4.651005e+00 3.434190e+00 3.902604e+00 3.039672e+00 4.208046e+00 2.812886e+00 1.755738e+00 1.899080e-01 3.746363e-01 3.530031e-01 3.984854e-01 6.294911e-01 4.424820e-01 6.542304e-01 5.961810e-01 6.031061e-01 4.309703e-01 6.363155e-01 3.804687e-01 2.012084e-01
<GCONST> 1.268963e+02
<TRANSP> 5
 0.000000e+00 1.000000e+00 0.000000e+00 0.000000e+00 0.000000e+00
 0.000000e+00 7.904973e-01 2.095027e-01 0.000000e+00 0.000000e+00
 0.000000e+00 0.000000e+00 8.668810e-01 1.331190e-01 0.000000e+00
 0.000000e+00 0.000000e+00 0.000000e+00 7.940117e-01 2.059884e-01
 0.000000e+00 0.000000e+00 0.000000e+00 0.000000e+00 0.000000e+00
<ENDHMM>
~h "ng"
<BEGINHMM>
<NUMSTATES> 5
<STATE> 2
<MEAN> 39
 8.516953e+00 -3.094010e+00 -1.631782e+01 1.240162e+00 -1.522413e+01 -2.285468e+00 -5.628004e+00 1.812659e+00 4.547150e+00 -9.079401e+00 -4.635542e+00 2.958569e+00 6.487930e+01 -1.073203e-01 6.671243e-01 1.960176e-01 2.587459e-01 -7.420970e-02 4.808589e-01 -9.831113e-02 1.444550e-01 -2.027277e-01 9.382309e-02 8.536082e-02 3.048918e-02 -6.064527e-01 -5.407824e-02 -4.447348e-02 7.454302e-02 9.546556e-03 2.025855e-02 -1.079161e-02 9.130564e-03 3.128111e-02 1.733180e-02 7.840845e-02 3.759065e-03 -4.989803e-02 1.381581e-02
<VARIANCE> 39
 1.462517e+01 4.186456e+01 1.245619e+02 4.352342e+01 2.517589e+02 9.172778e+01 3.676898e+01 7.268905e+01 4.886347e+01 8.199631e+01 2.253554e+01 3.697154e+01 6.087472e+01 5.475990e-01 1.507533e+00 2.060793e+00 1.888838e+00 1.826053e+00 2.675588e+00 1.681281e+00 2.708309e+00 2.523901e+00 3.612733e+00 1.586510e+00 1.584871e+00 1.131591e+00 7.396878e-02 1.289703e-01 2.380035e-01 2.555461e-01 2.563322e-01 3.218550e-01 2.548079e-01 4.326524e-01 4.183508e-01 5.490764e-01 2.959486e-01 2.540454e-01 7.385766e-02
<GCONST> 1.124694e+02
<STATE> 3
<MEAN> 39
 -2.502818e+00 -3.747459e+00 -7.513543e+00 3.424682e+00 -5.270563e+00 5.009741e+00 -4.354560e+00 -2.750489e+00 -1.954386e+00 -1.798608e+00 -4.260645e+00 -3.446129e+00 5.248115e+01 -5.685674e-01 4.279303e-01 2.491565e-01 4.635244e-01 1.891783e-01 2.015314e-01 2.710646e-02 1.735092e-01 1.043241e-01 -1.613907e-01 8.607759e-02 1.878543e-01 -7.239825e-01 -7.076840e-03 -8.088724e-02 -6.329934e-02 -6.767103e-03 2.014937e-02 -2.090445e-02 2.388690e-02 3.005135e-02 1.493348e-02 5.643955e-02 2.673994e-02 -4.249334e-02 3.778613e-02
<VARIANCE> 39
 2.260082e+01 3.899167e+01 3.340960e+01 4.445696e+01 4.610291e+01 5.686212e+01 4.111687e+01 2.652955e+01 2.587108e+01 2.852822e+01 1.703792e+01 3.696290e+01 5.492862e+01 2.176090e-01 5.311723e-01 6.441821e-01 6.953448e-01 9.134946e-01 1.058083e+00 1.027486e+00 1.091783e+00 9.175754e-01 1.033272e+00 1.131133e+00 1.020736e+00 1.572407e-01 2.075694e-02 6.998950e-02 7.717031e-02 1.182957e-01 1.434117e-01 1.872017e-01 1.789843e-01 1.830697e-01 1.776526e-01 1.831807e-01 2.068497e-01 1.547730e-01 1.112851e-02
<GCONST> 8.341248e+01
<STATE> 4
<MEAN> 39
 -1.298595e+01 7.298758e+00 -6.059324e+00 7.037761e+00 -3.515982e+00 6.325399e+00 -3.585723e+00 -1.804855e-01 -2.320986e+00 -5.000031e+00 -8.178602e-01 -2.181486e+00 3.332852e+01 -7.891693e-01 -3.799148e-01 -1.154305e-01 -1.796650e-01 -3.938841e-01 -1.293252e-01 2.579968e-01 3.015636e-01 1.411196e-01 2.802599e-01 2.140256e-01 -7.202682e-02 -4.949271e-01 7.298853e-02 -6.187807e-02 -9.606440e-02 -1.123127e-01 -2.185575e-02 -2.539762e-02 -1.275509e-02 -4.426369e-03 3.995804e-02 -5.166614e-03 -2.830015e-02 1.646261e-02 8.820786e-02
<VARIANCE> 39
 8.889714e+01 6.688832e+01 6.873437e+01 8.032112e+01 1.011847e+02 1.035960e+02 6.529692e+01 7.440505e+01 4.950978e+01 2.919666e+01 4.035750e+01 2.776354e+01 1.239783e+02 1.680150e+00 1.610854e+00 2.494515e+00 2.806130e+00 2.679750e+00 3.677715e+00 2.845718e+00 3.193312e+00 2.835430e+00 2.009403e+00 2.132978e+00 1.404016e+00 7.550294e-01 1.987275e-01 2.955199e-01 3.783265e-01 4.495964e-01 4.766695e-01 6.201943e-01 5.408285e-01 5.623705e-01 4.806926e-01 3.418944e-01 4.229096e-01 3.038913e-01 9.007793e-02
<GCONST> 1.225604e+02
<TRANSP> 5
 0.000000e+00 1.000000e+00 0.000000e+00 0.000000e+00 0.000000e+00
 0.000000e+00 8.798882e-01 1.201118e-01 0.000000e+00 0.000000e+00
 0.000000e+00 0.000000e+00 8.922918e-01 1.077081e-01 0.000000e+00
 0.000000e+00 0.000000e+00 0.000000e+00 8.473263e-01 1.526737e-01
 0.000000e+00 0.000000e+00 0.000000e+00 0.000000e+00 0.000000e+00
<ENDHMM>
~h "oh"
<BEGINHMM>
<NUMSTATES> 5
<STATE> 2
<MEAN> 39
 6.007586e+00 -1.081907e+01 -1.184990e+01 -2.137475e+01 -6.037592e+00 5.667384e+00 -8.087931e-01 -9.057677e+00 -5.356316e+00 5.571950e+00 1.239241e+00 -8.136078e+00 6.919014e+01 1.372836e-01 -2.756394e-01 -2.160297e-01 -1.651663e-01 1.988939e-01 2.322344e-01 3.426167e-01 -4.043285e-01 -3.913297e-02 4.774195e-02 -1.488794e-01 -1.471476e-02 2.704628e-01 -4.842457e-02 1.191827e-02 1.666079e-01 1.746869e-01 -2.275597e-02 -1.295354e-01 -9.391968e-02 1.286701e-01 -2.321751e-03 -1.079040e-01 3.528469e-03 -2.271806e-02 1.823006e-02
<VARIANCE> 39
 9.118844e+00 4.297329e+01 3.126862e+01 1.271912e+02 1.164523e+02 6.044323e+01 4.633265e+01 4.748531e+01 9.372251e+01 7.037792e+01 1.203236e+02 9.539095e+01 1.948189e+01 7.414835e-01 1.315714e+00 1.918342e+00 2.905183e+00 2.972885e+00 3.476348e+00 2.656315e+00 2.528992e+00 2.546398e+00 3.232481e+00 1.795913e+00 2.585443e+00 1.215000e+00 1.219054e-01 1.736997e-01 2.487142e-01 3.378136e-01 4.879815e-01 4.628095e-01 4.191595e-01 4.311915e-01 4.667632e-01 5.683320e-01 3.626159e-01 4.391119e-01 1.640946e-01
<GCONST> 1.188734e+02
<STATE> 3
<MEAN> 39
 3.207121e+00 -2.111534e+01 -1.250307e+01 -1.685115e+01 -5.930152e+00 1.243159e+01 -1.713131e+00 -1.202561e+01 8.109899e+00 -1.245991e+00 2.312530e+00 -5.317233e+00 7.271989e+01 -5.181956e-03 -1.727259e-01 -6.505672e-03 3.409490e-01 1.879538e-01 -4.882324e-02 -1.484498e-01 1.440403e-01 -3.613633e-02 1.131911e-01 -3.201204e-02 -1.963349e-01 1.961311e-02 -7.950208e-03 2.255044e-02 1.471525e-02 1.306744e-01 1.669119e-02 -6.777301e-02 -4.579516e-02 4.978504e-02 8.819921e-02 8.066340e-02 -7.725208e-02 -2.854521e-02 -6.371517e-02
<VARIANCE> 39
 5.935530e+00 8.021339e+01 1.133803e+01 4.995046e+01 7.017649e+01 1.171849e+02 6.648974e+01 6.780230e+01 8.642526e+01 4.287371e+01 4.797646e+01 3.750624e+01 7.692198e+00 1.456066e-01 7.873158e-01 4.429933e-01 1.182441e+00 1.169770e+00 1.714349e+00 1.838235e+00 1.330620e+00 1.667105e+00 1.594506e+00 1.784148e+00 1.502391e+00 4.050739e-01 3.537042e-02 9.234107e-02 8.468761e-02 1.667808e-01 2.114427e-01 2.270432e-01 2.235610e-01 2.371013e-01 2.798083e-01 3.139629e-01 2.799727e-01 2.207609e-01 4.882632e-02
<GCONST> 9.500797e+01
<STATE> 4
<MEAN> 39
 8.391211e+00 -7.503103e+00 -7.337558e+00 3.944717e+00 -2.200743e+01 -1.641431e-01 -6.084202e+00 2.524170e-01 5.357603e+00 -9.146239e+00 -5.849629e+00 2.235049e-01 7.001660e+01 -2.656375e-01 5.443553e-02 2.362338e-01 4.220297e-01 1.274500e-01 8.851966e-02 7.829934e-02 1.428785e-01 2.493337e-01 5.241411e-01 -2.921306e-02 -1.016149e-01 -3.274655e-01 -3.277386e-02 -2.505630e-02 2.157889e-02 1.269713e-01 -3.255889e-02 3.899867e-02 -1.732220e-02 2.052989e-02 3.760758e-02 -3.694938e-02 3.214681e-02 7.016201e-02 -6.078922e-02
<VARIANCE> 39
 1.140973e+01 3.007169e+01 2.180645e+01 1.588718e+02 1.938072e+02 7.197892e+01 3.423748e+01 5.605306e+01 3.446094e+01 1.166036e+02 2.085321e+01 5.493740e+01 1.129081e+01 2.728772e-01 5.865322e-01 7.494410e-01 1.498482e+00 1.301529e+00 2.979653e+00 1.184627e+00 1.620241e+00 1.871511e+00 1.957420e+00 1.248660e+00 1.223526e+00 2.765040e-01 3.809042e-02 6.086695e-02 1.172832e-01 1.856629e-01 1.876127e-01 3.682995e-01 1.609794e-01 3.243369e-01 3.119904e-01 3.646368e-01 1.940299e-01 1.813602e-01 3.396859e-02
<GCONST> 9.684099e+01
<TRANSP> 5
 0.000000e+00 1.000000e+00 0.000000e+00 0.000000e+00 0.000000e+00
 0.000000e+00 8.730523e-01 1.269477e-01 0.000000e+00 0.000000e+00
 0.000000e+00 0.000000e+00 8.738655e-01 1.261346e-01 0.000000e+00
 0.000000e+00 0.000000e+00 0.000000e+00 7.514263e-01 2.485737e-01
 0.000000e+00 0.000000e+00 0.000000e+00 0.000000e+00 0.000000e+00
<ENDHMM>
~h "sp"
<BEGINHMM>
<NUMSTATES> 5
<STATE> 2
~s "silst"
<STATE> 3
<MEAN> 39
 -1.186620e+01 2.085470e+00 -3.854597e+00 4.160623e+00 7.289234e-01 2.555090e+00 -1.037488e+00 -3.709520e-01 1.127984e+00 -2.002021e+00 -6.028425e-01 -1.994913e+00 4.442840e+01 -4.197908e-02 1.447205e-02 -4.111520e-02 -4.932342e-02 -4.965575e-02 8.903673e-04 3.046971e-04 2.778618e-02 2.056339e-02 2.429461e-02 3.775641e-02 1.233096e-02 -1.438112e-01 3.312473e-02 -1.166440e-02 -2.481975e-02 -1.054016e-02 -1.853087e-03 -2.446878e-02 3.478519e-03 -5.275444e-03 -4.032734e-03 1.835467e-02 6.000200e-03 -4.156264e-03 3.319862e-02
<VARIANCE> 39
 4.794046e+01 1.681043e+01 2.511787e+01 2.295511e+01 3.140356e+01 2.530656e+01 3.513654e+01 1.836242e+01 2.018226e+01 1.738032e+01 1.908040e+01 1.404963e+01 1.443495e+02 2.684299e-01 5.272775e-01 5.342067e-01 7.797477e-01 9.534264e-01 1.153149e+00 1.126947e+00 1.187385e+00 1.166087e+00 1.049212e+00 1.065486e+00 1.020696e+00 1.768570e-01 4.269672e-02 1.022452e-01 1.075698e-01 1.520560e-01 1.895883e-01 2.174925e-01 2.254007e-01 2.457013e-01 2.262163e-01 2.175123e-01 2.099790e-01 1.997147e-01 2.999106e-02
<GCONST> 8.508640e+01
<STATE> 4
<MEAN> 39
 -1.683060e+01 3.447515e+00 -6.816577e+00 6.177123e+00 -2.517572e+00 5.260734e+00 -2.845558e+00 3.236207e-01 2.229049e-01 -2.635735e+00 -5.887364e-01 -1.711803e+00 3.411139e+01 4.323975e-02 -3.705937e-02 -6.202971e-02 -1.861414e-02 6.418587e-04 -3.715875e-02 3.478191e-02 3.416006e-02 6.382926e-03 7.168154e-02 5.327480e-02 6.476583e-03 2.684876e-02 5.672800e-02 -7.436266e-03 -8.769949e-03 -3.404462e-02 2.383671e-02 -3.600428e-02 -7.808366e-03 -1.406907e-02 -1.282125e-02 1.072919e-03 -1.850502e-02 2.089090e-02 7.335608e-02
<VARIANCE> 39
 5.729247e+01 2.227450e+01 3.504647e+01 2.688276e+01 3.700400e+01 3.799566e+01 4.399737e+01 4.061646e+01 3.838825e+01 3.316002e+01 2.989574e+01 2.226631e+01 1.383060e+02 4.940788e-01 1.114860e+00 1.341677e+00 1.244057e+00 1.582850e+00 2.060714e+00 1.858951e+00 1.912041e+00 1.870869e+00 1.789627e+00 1.561182e+00 1.488284e+00 4.259398e-01 1.193568e-01 2.087883e-01 2.514266e-01 2.388414e-01 3.236963e-01 4.005291e-01 3.440063e-01 3.298185e-01 3.173172e-01 3.325198e-01 2.834912e-01 2.783937e-01 1.152325e-01
<GCONST> 1.048847e+02
<TRANSP> 5
 0.000000e+00 7.000000e-01 3.000000e-01 0.000000e+00 0.000000e+00
 0.000000e+00 9.552153e-01 4.478472e-02 0.000000e+00 0.000000e+00
 0.000000e+00 0.000000e+00 7.511432e-01 2.488568e-01 0.000000e+00
 0.000000e+00 0.000000e+00 0.000000e+00 7.541329e-01 2.458671e-01
 0.000000e+00 0.000000e+00 0.000000e+00 0.000000e+00 0.000000e+00
<ENDHMM>
~h "uh"
<BEGINHMM>
<NUMSTATES> 5
<STATE> 2
<MEAN> 39
 1.455290e+00 -3.076629e+00 -5.592281e+00 -1.387704e+01 -8.865852e+00 5.478673e+00 -1.047544e+01 -1.009106e+01 -3.047235e+00 -1.824151e+00 5.065946e+00 -3.394640e+00 6.263713e+01 -2.455807e-01 4.058913e-01 -6.146743e-02 4.006109e-01 1.939441e-01 -8.410057e-02 3.839536e-01 3.308368e-01 1.306269e-01 -3.109722e-01 -2.147621e-01 1.182154e-01 -7.096500e-01 -1.902159e-02 -2.151686e-02 6.695519e-02 1.000693e-01 1.076221e-01 -1.216316e-01 2.025467e-02 -1.295382e-02 1.763196e-02 1.306394e-02 -7.649900e-02 3.689110e-02 -1.756614e-02
<VARIANCE> 39
 7.459032e+01 5.046519e+01 1.545373e+01 9.191428e+01 3.936657e+01 6.799719e+01 5.214069e+01 5.784916e+01 9.545840e+01 4.618438e+01 5.245819e+01 4.445782e+01 1.811108e+02 5.028824e-01 8.347846e-01 7.310473e-01 2.110253e+00 1.912502e+00 1.932186e+00 2.313775e+00 1.532931e+00 1.445901e+00 2.601147e+00 2.095433e+00 1.905843e+00 9.913807e-01 1.722045e-01 1.187455e-01 1.902833e-01 3.687887e-01 3.200881e-01 3.462648e-01 4.362373e-01 3.311205e-01 3.207415e-01 3.920919e-01 3.913502e-01 3.643561e-01 2.175611e-01
<GCONST> 1.130302e+02
<STATE> 3
<MEAN> 39
 -9.596778e+00 3.899270e+00 -6.755176e+00 -1.383104e+00 -5.102280e+00 2.273510e+00 -4.591311e+00 -3.411082e+00 -1.605607e+00 -2.819980e+00 2.713330e-01 -1.388220e+00 4.347164e+01 2.816940e+00 3.247546e-01 -4.849805e-01 -2.173382e+00 -8.174570e-01 -5.911165e-02 2.175022e-01 -1.095885e+00 -7.436425e-01 -7.336873e-01 -1.589887e-02 6.863647e-01 2.670317e+00 5.765252e-01 -1.705328e-01 -4.274080e-02 -6.296604e-01 -1.351919e-01 3.181263e-01 -1.364049e-01 -4.018711e-01 -6.759281e-02 9.143621e-02 1.747855e-01 1.856052e-01 7.380827e-01
<VARIANCE> 39
 1.197988e+02 4.918759e+01 4.470334e+01 6.832546e+01 4.391370e+01 4.093384e+01 4.605622e+01 3.789445e+01 4.418342e+01 3.234486e+01 2.829174e+01 1.901778e+01 2.289642e+02 1.119571e+01 2.718561e+00 4.213098e+00 1.188690e+01 7.183216e+00 4.714581e+00 4.764967e+00 3.921080e+00 3.683767e+00 4.324648e+00 3.566426e+00 4.135742e+00 1.699271e+01 1.388782e+00 4.137816e-01 5.957455e-01 1.048105e+00 8.406977e-01 6.772290e-01 6.437107e-01 6.528032e-01 6.843728e-01 8.217235e-01 5.002115e-01 5.881303e-01 1.950947e+00
<GCONST> 1.408137e+02
<STATE> 4
<MEAN> 39
 5.574446e+00 6.068758e-01 -5.645053e+00 -1.576144e+01 -5.570183e+00 8.075604e+00 -1.242949e+01 -1.234538e+01 -4.955610e+00 3.472354e-01 1.487596e+00 1.335040e-01 6.114794e+01 5.029659e-01 -5.399920e-01 9.329183e-01 4.958574e-01 8.228222e-01 1.460506e-01 -1.026717e+00 -7.131956e-01 -1.827669e-01 8.665155e-01 -5.823481e-02 -6.316972e-01 9.731337e-01 -4.539458e-01 1.142911e-01 1.709776e-01 6.790809e-01 1.572931e-01 -2.168957e-01 1.797275e-01 1.620394e-01 9.736275e-02 -5.049480e-02 -2.068692e-01 -1.412873e-01 -5.285034e-01
<VARIANCE> 39
 4.491626e+01 5.710209e+01 7.652266e+01 1.336090e+02 1.145904e+02 1.016397e+02 1.075474e+02 5.136417e+01 9.723889e+01 9.192640e+01 8.475400e+01 9.737479e+01 1.005169e+02 4.616936e+00 3.103172e+00 4.496479e+00 1.144111e+01 6.055798e+00 5.970269e+00 6.721248e+00 5.248156e+00 5.376118e+00 5.697528e+00 4.949359e+00 4.714693e+00 7.325455e+00 7.473985e-01 5.538037e-01 8.479098e-01 1.119622e+00 1.151382e+00 1.123350e+00 1.196820e+00 9.753761e-01 9.316904e-01 1.137632e+00 8.611468e-01 8.333780e-01 7.239823e-01
<GCONST> 1.506641e+02
<TRANSP> 5
 0.000000e+00 1.000000e+00 0.000000e+00 0.000000e+00 0.000000e+00
 0.000000e+00 8.324794e-01 1.675206e-01 0.000000e+00 0.000000e+00
 0.000000e+00 0.000000e+00 5.795979e-01 4.204021e-01 0.000000e+00
 0.000000e+00 0.000000e+00 0.000000e+00 7.890485e-01 2.109515e-01
 0.000000e+00 0.000000e+00 0.000000e+00 0.000000e+00 0.000000e+00
<ENDHMM>
~h "uw"
<BEGINHMM>
<NUMSTATES> 5
<STATE> 2
<MEAN> 39
 5.915183e+00 -2.317796e+00 -6.142555e+00 -1.242506e+01 -3.853115e+00 5.280239e+00 -1.550463e+01 -1.652557e+01 -5.507792e+00 1.246152e+00 4.316965e+00 -8.329305e-01 6.334438e+01 8.208249e-01 7.915261e-01 -6.176353e-01 -1.733504e+00 -1.664518e+00 1.368752e+00 8.743227e-01 -4.610531e-01 -1.809889e+00 -5.774386e-01 7.368058e-01 1.003564e+00 1.388923e-01 -5.284455e-01 2.760426e-01 3.235775e-01 5.607520e-01 1.128407e-01 -1.684457e-01 6.281542e-01 9.004818e-01 4.173944e-01 -4.688276e-01 -5.026067e-01 -2.186476e-01 -5.774239e-01
<VARIANCE> 39
 3.975203e+01 7.172102e+01 2.803399e+01 1.085259e+02 5.943142e+01 8.121085e+01 7.659696e+01 6.959823e+01 1.229281e+02 4.782250e+01 7.339845e+01 5.206400e+01 6.689297e+01 2.956498e+00 2.328448e+00 2.490089e+00 6.279633e+00 4.185070e+00 4.362870e+00 7.699442e+00 3.932700e+00 5.996573e+00 4.723227e+00 4.970029e+00 2.615302e+00 2.126425e+00 4.316157e-01 6.323560e-01 4.446934e-01 1.203123e+00 8.622421e-01 8.032838e-01 1.635709e+00 8.372068e-01 1.294427e+00 6.581363e-01 1.030326e+00 7.211064e-01 3.230555e-01
<GCONST> 1.399395e+02
<STATE> 3
<MEAN> 39
 5.953109e+00 -2.738259e-01 -5.768512e+00 -1.478369e+01 -9.137965e+00 4.733635e+00 -1.114818e+01 -1.425313e+01 -1.058645e+01 -1.163582e+00 5.121560e+00 -2.118419e-01 6.195414e+01 -3.411904e-01 4.685493e-01 3.985451e-02 -6.571849e-01 -5.258330e-01 1.389399e-01 7.608303e-01 1.022335e+00 1.891098e-01 -3.389271e-01 5.566130e-02 -3.318977e-01 -4.374912e-01 -1.964385e-01 -1.880866e-01 5.288501e-02 4.381824e-01 3.541669e-01 -2.984055e-01 1.242261e-02 1.745537e-01 4.490744e-01 2.667221e-01 -3.146846e-01 -2.735727e-01 -8.672938e-02
<VARIANCE> 39
 4.663232e+01 6.528085e+01 2.197175e+01 8.589437e+01 4.478271e+01 5.583307e+01 4.035875e+01 4.832116e+01 8.156496e+01 6.521023e+01 8.044063e+01 5.718166e+01 9.871028e+01 1.132067e+00 2.148011e+00 1.214088e+00 5.413987e+00 3.386701e+00 3.494345e+00 2.669591e+00 3.146207e+00 3.525605e+00 5.475355e+00 3.337058e+00 3.752538e+00 1.842879e+00 1.048374e-01 1.741182e-01 2.059472e-01 4.377339e-01 4.082389e-01 4.973615e-01 4.727590e-01 4.813152e-01 4.616389e-01 6.338918e-01 6.778027e-01 4.383526e-01 1.240549e-01
<GCONST> 1.237018e+02
<STATE> 4
<MEAN> 39
 4.281574e+00 -5.519680e-01 -6.061222e+00 -1.397575e+01 -1.307278e+01 1.618146e+00 -1.089393e+01 -1.036376e+01 -5.078045e+00 -5.183300e+00 2.310668e+00 -1.544622e+00 6.236230e+01 -3.213806e-01 5.758539e-02 -7.476646e-02 4.579001e-01 1.982164e-01 -1.513955e-01 3.991768e-01 6.169649e-01 3.491525e-01 7.365108e-02 -3.698649e-01 -1.710298e-01 -5.117352e-01 -4.961053e-02 -1.558768e-01 -3.521896e-02 1.422991e-01 1.806741e-01 1.769147e-02 1.351742e-02 -8.331453e-02 1.753105e-02 1.465035e-01 3.220208e-03 -4.827775e-02 5.743901e-03
<VARIANCE> 39
 2.459507e+01 3.383223e+01 1.963945e+01 1.097276e+02 4.934599e+01 5.339154e+01 3.974570e+01 4.054339e+01 8.001656e+01 4.741261e+01 4.238704e+01 6.165377e+01 8.530394e+01 4.489070e-01 9.886296e-01 7.546129e-01 1.597270e+00 1.698797e+00 1.555815e+00 1.863359e+00 1.492496e+00 1.705649e+00 1.805235e+00 1.549082e+00 1.535644e+00 5.683337e-01 4.165088e-02 7.888462e-02 9.696882e-02 1.764547e-01 2.262543e-01 2.312994e-01 2.818736e-01 2.051970e-01 3.113724e-01 3.004607e-01 2.841279e-01 2.798460e-01 3.914184e-02
<GCONST> 1.009610e+02
<TRANSP> 5
 0.000000e+00 1.000000e+00 0.000000e+00 0.000000e+00 0.000000e+00
 0.000000e+00 5.323777e-01 4.676222e-01 0.000000e+00 0.000000e+00
 0.000000e+00 0.000000e+00 6.547619e-01 3.452381e-01 0.000000e+00
 0.000000e+00 0.000000e+00 0.000000e+00 8.481163e-01 1.518836e-01
 0.000000e+00 0.000000e+00 0.000000e+00 0.000000e+00 0.000000e+00
<ENDHMM>
~h "sil"
<BEGINHMM>
<NUMSTATES> 5
<STATE> 2
<MEAN> 39
 -2.207651e+01 3.931725e+00 -9.890981e+00 5.730255e+00 -6.446211e+00 4.534454e+00 -5.438565e+00 -3.710783e-01 -3.626061e-01 -3.270461e+00 -1.070031e+00 -2.119547e+00 2.715216e+01 -6.361131e-02 3.403446e-02 2.962679e-02 1.205372e-02 -5.637964e-03 -4.432371e-05 -1.819341e-02 1.027583e-02 2.249068e-02 2.653993e-03 2.277081e-02 6.349758e-03 -6.116894e-02 1.374884e-02 -3.957302e-03 -1.767184e-03 -3.240400e-03 -2.162822e-03 -8.286988e-03 -6.078160e-03 -2.140025e-03 2.655152e-03 1.002118e-02 -6.055743e-03 -1.383552e-02 1.419361e-02
<VARIANCE> 39
 4.511227e+01 7.997961e+00 7.507449e+00 1.014603e+01 1.370073e+01 1.161197e+01 2.033336e+01 1.966443e+01 1.921678e+01 2.104390e+01 2.135350e+01 1.487537e+01 4.395473e+01 8.401565e-02 1.998431e-01 3.180818e-01 4.655102e-01 6.469308e-01 7.378295e-01 8.697231e-01 1.006948e+00 1.090189e+00 9.158216e-01 9.254509e-01 8.756341e-01 4.902232e-02 1.335254e-02 3.397558e-02 5.955366e-02 8.558481e-02 1.190217e-01 1.390128e-01 1.712298e-01 1.907060e-01 2.135552e-01 1.815709e-01 1.841654e-01 1.773085e-01 5.749760e-03
<GCONST> 6.607791e+01
<STATE> 3
~s "silst"
<STATE> 4
<MEAN> 39
 -1.399803e+01 2.600913e+00 -7.977949e+00 7.341299e+00 -1.284141e+00 5.736246e+00 -4.924713e+00 -1.609346e+00 -1.655356e+00 -4.005577e+00 -2.558262e+00 -3.265718e+00 3.614456e+01 -4.589283e-02 -9.995799e-03 -1.243885e-01 4.047078e-02 1.695229e-02 6.120492e-03 2.654156e-02 7.720108e-02 4.785404e-02 3.858165e-02 2.310735e-02 -1.740009e-02 -1.077778e-01 2.329405e-02 1.925062e-02 2.545559e-03 -4.763383e-02 -1.245530e-02 -3.270354e-02 6.426351e-03 -2.608419e-03 7.577183e-03 6.051769e-03 2.780060e-03 2.590516e-02 3.025989e-02
<VARIANCE> 39
 4.568510e+01 4.047321e+01 6.356015e+01 3.503665e+01 4.394703e+01 4.606739e+01 5.378130e+01 5.096894e+01 4.369820e+01 3.917105e+01 3.652666e+01 2.683467e+01 9.891912e+01 5.744376e-01 1.361099e+00 1.806126e+00 1.363441e+00 2.121201e+00 2.348289e+00 2.073260e+00 2.386932e+00 2.095856e+00 2.031572e+00 1.745080e+00 1.588054e+00 5.821803e-01 1.055605e-01 2.345009e-01 3.324935e-01 2.556908e-01 3.997624e-01 4.430914e-01 3.858258e-01 4.318731e-01 3.682965e-01 3.854320e-01 3.168528e-01 2.978470e-01 1.018365e-01
<GCONST> 1.108679e+02
<TRANSP> 5
 0.000000e+00 1.000000e+00 0.000000e+00 0.000000e+00 0.000000e+00
 0.000000e+00 9.232646e-01 1.945724e-02 5.727818e-02 0.000000e+00
 0.000000e+00 0.000000e+00 9.456124e-01 5.438763e-02 0.000000e+00
 0.000000e+00 6.087084e-02 0.000000e+00 7.932035e-01 1.459257e-01
 0.000000e+00 0.000000e+00 0.000000e+00 0.000000e+00 0.000000e+00
<ENDHMM>
