~o
<STREAMINFO> 1 13
<VECSIZE> 13<NULLD><MFCC_0><DIAGC>
~s "silst"
<MEAN> 13
 -9.891160e+00 2.454536e+00 -4.724033e+00 4.506059e+00 7.346745e-01 2.096885e+00 -2.568162e+00 -1.225477e+00 -4.609963e-02 -3.357510e+00 -1.896386e+00 -2.761124e+00 4.511062e+01
<VARIANCE> 13
 1.252567e+01 1.790670e+01 3.043063e+01 2.223350e+01 2.065281e+01 1.706187e+01 4.635372e+01 1.819820e+01 2.409486e+01 2.118208e+01 2.016879e+01 1.421423e+01 8.488329e+01
<GCONST> 6.475954e+01
~h "b"
<BEGINHMM>
<NUMSTATES> 5
<STATE> 2
<MEAN> 13
 6.155149e+00 5.051701e+00 -7.495541e+00 -4.413694e+00 -5.140535e+00 -1.538825e-01 -8.165684e+00 -5.070607e+00 -5.973227e+00 -4.049559e+00 -5.262602e+00 -5.345587e+00 5.448140e+01
<VARIANCE> 13
 3.158273e+01 1.358698e+02 3.098279e+01 5.927999e+01 4.756770e+01 5.190516e+01 2.765180e+01 2.354943e+01 3.020716e+01 5.167262e+01 2.486118e+01 2.450465e+01 5.874924e+01
<GCONST> 7.190123e+01
<STATE> 3
<MEAN> 13
 -5.314064e+00 -7.526462e-02 -3.983539e+00 -3.545726e-01 1.948116e+00 5.164998e-01 2.540469e+00 4.027355e-01 1.898602e+00 1.782259e-01 2.055710e-01 -3.375079e+00 5.319445e+01
<VARIANCE> 13
 1.359264e+01 2.860311e+01 2.308414e+01 1.368324e+01 1.353362e+01 1.134578e+01 2.173074e+01 1.704156e+01 2.461404e+01 1.984318e+01 1.264882e+01 1.479649e+01 1.088507e+01
<GCONST> 6.036969e+01
<STATE> 4
<MEAN> 13
 -1.166500e+01 3.861873e+00 -1.114023e+01 6.136431e+00 -4.223310e+00 1.880389e+00 -1.061652e+01 -5.762579e+00 -5.533376e+00 -7.428735e+00 -6.090406e+00 -7.267730e+00 3.607343e+01
<VARIANCE> 13
 2.868843e+01 3.295671e+01 3.576397e+01 1.952627e+01 4.409401e+01 3.489201e+01 3.136504e+01 3.372846e+01 2.581798e+01 3.518069e+01 2.480999e+01 2.194974e+01 5.852504e+01
<GCONST> 6.877644e+01
<TRANSP> 5
 0.000000e+00 1.000000e+00 0.000000e+00 0.000000e+00 0.000000e+00
 0.000000e+00 8.611079e-01 1.388921e-01 0.000000e+00 0.000000e+00
 0.000000e+00 0.000000e+00 8.536038e-01 1.463962e-01 0.000000e+00
 0.000000e+00 0.000000e+00 0.000000e+00 8.671283e-01 1.328717e-01
 0.000000e+00 0.000000e+00 0.000000e+00 0.000000e+00 0.000000e+00
<ENDHMM>
~h "d"
<BEGINHMM>
<NUMSTATES> 5
<STATE> 2
<MEAN> 13
 1.840242e+00 -1.435309e+00 -1.834529e+00 9.023669e-01 1.822161e+00 -2.749051e+00 -7.988278e+00 -8.317262e+00 2.053676e+00 -3.481545e-01 -9.626512e+00 -7.131083e+00 5.916663e+01
<VARIANCE> 13
 2.764174e+01 1.443910e+02 2.605070e+01 1.253347e+02 6.953963e+01 4.436124e+01 9.642962e+01 5.236331e+01 5.423562e+01 5.987749e+01 5.543333e+01 3.684002e+01 9.130079e+01
<GCONST> 7.705814e+01
<STATE> 3
<MEAN> 13
 3.301994e+00 -1.108553e+01 -2.544248e+00 -5.286812e+00 -1.685731e+00 -4.422618e+00 -9.547537e+00 -8.810753e+00 4.147308e+00 2.251271e+00 -8.251767e+00 -4.196751e+00 6.621488e+01
<VARIANCE> 13
 1.898767e+01 5.695141e+01 2.165874e+01 9.746143e+01 1.200270e+02 6.705927e+01 1.406870e+02 7.895999e+01 7.698718e+01 7.437735e+01 8.074071e+01 3.852452e+01 3.710662e+01
<GCONST> 7.715115e+01
<STATE> 4
<MEAN> 13
 6.520806e+00 -1.709357e+01 -3.774417e+00 -1.272609e+01 4.405955e-02 -1.759507e+00 -2.515018e+00 -9.218735e+00 -1.573111e+00 9.752663e+00 -1.212588e+01 -4.807774e+00 7.163424e+01
<VARIANCE> 13
 9.510818e+00 2.381676e+01 1.428410e+01 4.798354e+01 1.107619e+02 3.931897e+01 8.927696e+01 6.009982e+01 5.771697e+01 4.512650e+01 3.923742e+01 2.582977e+01 1.692543e+01
<GCONST> 7.042706e+01
<TRANSP> 5
 0.000000e+00 1.000000e+00 0.000000e+00 0.000000e+00 0.000000e+00
 0.000000e+00 4.677593e-01 5.322407e-01 0.000000e+00 0.000000e+00
 0.000000e+00 0.000000e+00 1.781115e-02 9.821889e-01 0.000000e+00
 0.000000e+00 0.000000e+00 0.000000e+00 7.745686e-01 2.254314e-01
 0.000000e+00 0.000000e+00 0.000000e+00 0.000000e+00 0.000000e+00
<ENDHMM>
~h "g"
<BEGINHMM>
<NUMSTATES> 5
<STATE> 2
<MEAN> 13
 -3.247095e+00 -3.418384e+00 1.654171e+01 -7.735924e+00 -1.115373e+01 -1.220757e+01 -3.945282e+00 -1.297625e+01 -1.571888e+01 1.213548e+00 2.580515e+00 -6.044572e+00 6.401984e+01
<VARIANCE> 13
 1.692598e+01 3.374333e+01 9.635117e+01 8.187187e+01 7.893413e+01 4.279926e+01 4.288739e+01 2.421761e+01 7.193603e+01 3.069003e+01 1.083823e+02 3.485696e+01 5.828731e+01
<GCONST> 7.428600e+01
<STATE> 3
<MEAN> 13
 -3.255300e+00 -2.051864e+00 8.799709e+00 -3.280092e+00 -9.960252e+00 -1.397034e+01 -4.620103e+00 -2.864927e+00 -6.190377e+00 -6.240010e-01 -1.113855e+00 -4.407835e+00 6.192592e+01
<VARIANCE> 13
 2.161147e+01 1.459069e+02 1.008482e+02 9.136893e+01 7.409093e+01 9.068867e+01 6.478062e+01 4.321215e+01 4.760107e+01 3.142990e+01 9.967194e+01 6.580455e+01 1.100927e+02
<GCONST> 7.862748e+01
<STATE> 4
<MEAN> 13
 1.228012e+00 -1.716107e+01 -7.091329e+00 -7.620720e+00 -1.207186e+01 -7.885850e+00 -1.264996e+01 4.641276e+00 2.956115e+00 1.925922e-01 -3.675780e+00 -1.940522e+01 7.559681e+01
<VARIANCE> 13
 7.775812e+00 4.622038e+01 3.967792e+01 2.589860e+01 4.660637e+01 6.389133e+01 3.184505e+01 3.677610e+01 5.711645e+01 3.448764e+01 7.698177e+01 7.859090e+01 6.218427e+01
<GCONST> 7.220010e+01
<TRANSP> 5
 0.000000e+00 1.000000e+00 0.000000e+00 0.000000e+00 0.000000e+00
 0.000000e+00 7.985252e-01 2.014748e-01 0.000000e+00 0.000000e+00
 0.000000e+00 0.000000e+00 7.666313e-01 2.333687e-01 0.000000e+00
 0.000000e+00 0.000000e+00 0.000000e+00 7.901626e-01 2.098373e-01
 0.000000e+00 0.000000e+00 0.000000e+00 0.000000e+00 0.000000e+00
<ENDHMM>
~h "j"
<BEGINHMM>
<NUMSTATES> 5
<STATE> 2
<MEAN> 13
 -6.485811e+00 1.253421e+01 2.897801e+01 -3.964731e+00 -7.206442e+00 -4.741567e+00 -8.488873e+00 -4.407261e+00 -1.640872e+01 7.575133e-01 -1.151521e+00 -3.859530e+00 5.093029e+01
<VARIANCE> 13
 1.245306e+01 1.328977e+02 1.266602e+02 2.178802e+02 8.672864e+01 6.101027e+01 9.472929e+01 3.272494e+01 5.394630e+01 5.729321e+01 3.719447e+01 2.470783e+01 7.133424e+01
<GCONST> 7.726922e+01
<STATE> 3
<MEAN> 13
 -4.606442e-01 -7.321330e+00 4.924638e+00 1.671020e+00 -1.171072e+01 -1.035865e+01 -1.970290e+01 -1.513582e+01 -4.913443e+00 -1.173408e+00 1.168208e+01 -6.165918e+00 6.622755e+01
<VARIANCE> 13
 2.537054e+01 1.417487e+01 7.117141e+01 4.646936e+01 3.392897e+01 5.738262e+01 9.378244e+01 8.903658e+01 7.284237e+01 3.066869e+01 6.483678e+01 5.230893e+01 2.638738e+01
<GCONST> 7.359885e+01
<STATE> 4
<MEAN> 13
 9.276733e+00 5.379839e+00 -5.153348e+00 2.157389e+00 -5.074033e+00 5.724752e+00 -1.162756e+01 -1.844139e+01 -1.168156e+01 -9.728287e-01 3.382352e+00 -3.320858e+00 5.463824e+01
<VARIANCE> 13
 1.911816e+01 1.920557e+02 3.065247e+01 3.519943e+01 1.929466e+01 4.058594e+01 4.192775e+01 3.187996e+01 2.672264e+01 3.795623e+01 5.991887e+01 2.596255e+01 1.071854e+02
<GCONST> 7.189190e+01
<TRANSP> 5
 0.000000e+00 1.000000e+00 0.000000e+00 0.000000e+00 0.000000e+00
 0.000000e+00 8.419913e-01 1.580087e-01 0.000000e+00 0.000000e+00
 0.000000e+00 0.000000e+00 7.840641e-01 2.159359e-01 0.000000e+00
 0.000000e+00 0.000000e+00 0.000000e+00 7.876720e-01 2.123280e-01
 0.000000e+00 0.000000e+00 0.000000e+00 0.000000e+00 0.000000e+00
<ENDHMM>
~h "k"
<BEGINHMM>
<NUMSTATES> 5
<STATE> 2
<MEAN> 13
 -7.428012e+00 6.793561e-01 -2.816350e+00 -3.871913e-01 1.731194e+00 -2.603326e-02 -3.397668e-01 -1.285248e+00 1.631884e+00 -3.299777e-01 4.510284e-01 -1.818249e+00 5.300189e+01
<VARIANCE> 13
 2.035276e+01 2.741260e+01 2.920303e+01 2.285363e+01 2.533988e+01 2.145199e+01 3.403382e+01 2.529063e+01 2.236981e+01 2.284059e+01 1.772484e+01 1.529984e+01 4.481782e+01
<GCONST> 6.541766e+01
<STATE> 3
<MEAN> 13
 -7.161274e+00 -4.084224e+00 -9.047935e+00 -3.276769e-02 3.051647e+00 9.392772e-02 -6.281632e+00 -3.935802e+00 -4.673073e-01 2.305663e+00 -2.414479e-01 -4.217213e+00 5.260009e+01
<VARIANCE> 13
 5.737548e+01 8.687935e+01 7.754200e+01 6.386148e+01 6.991879e+01 7.724857e+01 4.500652e+01 6.161198e+01 5.904475e+01 4.803766e+01 4.042419e+01 2.685752e+01 1.568621e+02
<GCONST> 7.743172e+01
<STATE> 4
<MEAN> 13
 -8.564478e+00 -3.016508e+00 -1.037564e+01 4.606659e-01 7.852331e+00 -1.944551e+00 -2.930723e+00 -3.291944e+00 -2.726405e+00 3.999178e+00 -2.975904e-01 -3.736245e+00 4.945222e+01
<VARIANCE> 13
 7.598381e+01 1.434003e+02 1.399321e+02 1.471018e+02 1.627901e+02 2.647511e+02 8.562411e+01 1.329496e+02 1.084570e+02 8.360296e+01 8.036737e+01 7.425280e+01 1.949481e+02
<GCONST> 8.621128e+01
<TRANSP> 5
 0.000000e+00 1.000000e+00 0.000000e+00 0.000000e+00 0.000000e+00
 0.000000e+00 7.680179e-01 2.319820e-01 0.000000e+00 0.000000e+00
 0.000000e+00 0.000000e+00 1.008549e-01 8.991451e-01 0.000000e+00
 0.000000e+00 0.000000e+00 0.000000e+00 6.496234e-01 3.503766e-01
 0.000000e+00 0.000000e+00 0.000000e+00 0.000000e+00 0.000000e+00
<ENDHMM>
~h "l"
<BEGINHMM>
<NUMSTATES> 5
<STATE> 2
<MEAN> 13
 1.965604e+00 -2.466438e+01 -1.096771e+01 -1.226360e+01 -3.648855e+00 1.741442e+01 -7.227611e+00 -1.575654e+01 1.602760e+01 -2.439837e+00 4.412674e-01 -3.704051e+00 7.172227e+01
<VARIANCE> 13
 5.520170e+00 4.597863e+01 1.435894e+01 2.451176e+01 3.496944e+01 7.376165e+01 2.830560e+01 3.473550e+01 6.446763e+01 4.546425e+01 4.923932e+01 3.317115e+01 8.882768e+00
<GCONST> 6.760423e+01
<STATE> 3
<MEAN> 13
 6.445474e+00 -1.564598e+01 -9.348849e+00 -1.536888e+01 -1.686895e-02 8.318610e+00 -7.431399e+00 -9.064684e+00 -2.270069e+00 5.551596e+00 2.443053e+00 -1.344828e+01 7.182689e+01
<VARIANCE> 13
 6.403053e+00 3.041247e+01 1.662101e+01 2.338656e+01 5.726484e+01 6.611275e+01 2.185786e+01 3.181463e+01 4.873746e+01 3.300614e+01 9.307236e+01 7.579104e+01 1.522981e+01
<GCONST> 6.887814e+01
<STATE> 4
<MEAN> 13
 4.879002e+00 -1.136146e+01 -8.907598e+00 -1.608572e+01 3.392188e+00 5.589732e+00 -7.349384e+00 -7.107942e+00 2.638851e+00 3.963887e+00 -8.749330e+00 -6.518265e+00 6.839347e+01
<VARIANCE> 13
 8.192820e+00 7.881856e+01 2.703037e+01 3.643015e+01 1.113939e+02 8.855115e+01 3.802910e+01 3.892725e+01 8.773498e+01 4.869351e+01 1.079980e+02 8.619267e+01 3.006852e+01
<GCONST> 7.465392e+01
<TRANSP> 5
 0.000000e+00 1.000000e+00 0.000000e+00 0.000000e+00 0.000000e+00
 0.000000e+00 8.693323e-01 1.306677e-01 0.000000e+00 0.000000e+00
 0.000000e+00 0.000000e+00 6.138507e-01 3.861493e-01 0.000000e+00
 0.000000e+00 0.000000e+00 0.000000e+00 9.622602e-02 9.037740e-01
 0.000000e+00 0.000000e+00 0.000000e+00 0.000000e+00 0.000000e+00
<ENDHMM>
~h "m"
<BEGINHMM>
<NUMSTATES> 5
<STATE> 2
<MEAN> 13
 5.957154e+00 -7.325838e+00 -5.851608e+00 -2.688111e+00 -2.566087e+00 -8.011138e-01 -3.776590e+00 -1.045687e+01 -1.226508e+01 1.307566e+00 -2.300753e+00 -9.025220e+00 6.252226e+01
<VARIANCE> 13
 1.846635e+01 4.342831e+01 4.341959e+01 2.981809e+01 5.213431e+01 6.338050e+01 2.780113e+01 2.856343e+01 7.129551e+01 3.133499e+01 4.239515e+01 4.026233e+01 1.815948e+01
<GCONST> 7.057889e+01
<STATE> 3
<MEAN> 13
 3.769400e+00 2.290276e+00 -1.835516e+00 2.087198e+00 8.882088e+00 2.097334e+00 -7.119796e+00 -1.367807e+01 -9.476789e+00 3.806700e-01 -6.771426e+00 -5.450858e-01 5.608762e+01
<VARIANCE> 13
 2.010133e+01 7.322196e+01 3.782936e+01 4.968766e+01 1.172823e+02 6.838722e+01 5.900417e+01 5.274199e+01 5.855038e+01 3.722639e+01 5.511877e+01 6.784315e+01 4.104130e+01
<GCONST> 7.538650e+01
<STATE> 4
<MEAN> 13
 -7.840532e+00 2.309799e+00 -8.604642e+00 5.140277e+00 -2.610224e+00 3.840649e+00 -7.726137e+00 -4.779052e+00 -4.650871e+00 -5.803358e+00 -5.996140e+00 -5.679913e+00 4.148933e+01
<VARIANCE> 13
 5.943576e+01 7.572263e+01 4.771189e+01 5.829662e+01 4.376892e+01 3.270771e+01 2.213161e+01 2.905450e+01 3.014095e+01 2.664736e+01 2.747956e+01 1.767397e+01 1.229619e+02
<GCONST> 7.165379e+01
<TRANSP> 5
 0.000000e+00 1.000000e+00 0.000000e+00 0.000000e+00 0.000000e+00
 0.000000e+00 7.147927e-01 2.852072e-01 0.000000e+00 0.000000e+00
 0.000000e+00 0.000000e+00 6.465206e-01 3.534795e-01 0.000000e+00
 0.000000e+00 0.000000e+00 0.000000e+00 8.109605e-01 1.890394e-01
 0.000000e+00 0.000000e+00 0.000000e+00 0.000000e+00 0.000000e+00
<ENDHMM>
~h "n"
<BEGINHMM>
<NUMSTATES> 5
<STATE> 2
<MEAN> 13
 8.743415e-01 -1.169838e+00 -3.658946e-01 1.641615e+00 -4.036925e+00 -6.651549e+00 -6.485076e+00 -8.365284e+00 -2.245579e+00 -8.535148e-01 -7.261020e+00 -6.829724e+00 5.873740e+01
<VARIANCE> 13
 2.858366e+01 3.226491e+01 2.827242e+01 2.576274e+01 4.524714e+01 5.811520e+01 1.986250e+01 4.748513e+01 2.631623e+01 2.971877e+01 3.590685e+01 3.068950e+01 4.642041e+01
<GCONST> 6.953841e+01
<STATE> 3
<MEAN> 13
 5.231217e+00 7.156278e+00 -1.359071e+00 -6.425839e+00 3.511293e+00 3.878937e+00 -1.343316e+01 -9.075738e+00 -2.327016e+00 -2.012103e+00 -9.983748e+00 3.948718e+00 5.493663e+01
<VARIANCE> 13
 5.347128e+01 6.808106e+01 4.949786e+01 2.849528e+02 1.160304e+02 1.464073e+02 1.152078e+02 9.272988e+01 6.711659e+01 8.700483e+01 8.509676e+01 1.016622e+02 7.065040e+01
<GCONST> 8.265876e+01
<STATE> 4
<MEAN> 13
 -6.722724e+00 1.115458e+01 -2.438895e+00 8.696887e+00 -2.068590e+00 2.841283e+00 -8.797034e+00 -5.582362e+00 -3.813063e+00 -6.089166e+00 -4.648325e+00 -3.086057e+00 3.886866e+01
<VARIANCE> 13
 9.108994e+01 1.086605e+02 6.112417e+01 7.788891e+01 3.971911e+01 4.075904e+01 4.261616e+01 5.312797e+01 3.696897e+01 2.938837e+01 3.236367e+01 3.424220e+01 1.169426e+02
<GCONST> 7.543797e+01
<TRANSP> 5
 0.000000e+00 1.000000e+00 0.000000e+00 0.000000e+00 0.000000e+00
 0.000000e+00 7.450624e-01 2.549376e-01 0.000000e+00 0.000000e+00
 0.000000e+00 0.000000e+00 7.032527e-01 2.967473e-01 0.000000e+00
 0.000000e+00 0.000000e+00 0.000000e+00 7.436587e-01 2.563413e-01
 0.000000e+00 0.000000e+00 0.000000e+00 0.000000e+00 0.000000e+00
<ENDHMM>
~h "p"
<BEGINHMM>
<NUMSTATES> 5
<STATE> 2
<MEAN> 13
 -1.241714e+01 4.776881e+00 -8.898073e+00 6.094661e+00 -2.841058e+00 2.957869e+00 -8.714552e+00 -3.995397e+00 -3.982289e+00 -4.690879e+00 -4.273831e+00 -4.636004e+00 3.678404e+01
<VARIANCE> 13
 5.685110e+01 5.174738e+01 4.767789e+01 4.451134e+01 3.890898e+01 3.981244e+01 4.059251e+01 4.454698e+01 3.345464e+01 4.138416e+01 3.157068e+01 1.992435e+01 9.373493e+01
<GCONST> 7.260268e+01
<STATE> 3
<MEAN> 13
 -7.404827e+00 -2.115657e-01 -1.852139e+00 8.739118e-02 2.434532e+00 1.868509e-01 1.551413e+00 -1.069972e+00 1.695424e+00 -1.069771e+00 8.097001e-01 -1.703074e+00 5.447985e+01
<VARIANCE> 13
 1.644636e+01 2.319233e+01 2.553594e+01 1.303276e+01 2.291160e+01 1.833072e+01 1.842590e+01 2.016710e+01 1.610203e+01 1.319954e+01 1.570304e+01 1.257044e+01 3.276635e+01
<GCONST> 6.173565e+01
<STATE> 4
<MEAN> 13
 3.692144e+00 -8.730253e+00 -1.336003e+01 -6.769013e+00 -3.494611e+00 -4.441075e-01 -2.185659e+00 -6.454621e+00 -2.470239e+00 5.284960e+00 2.521474e-01 -4.251214e+00 6.175175e+01
<VARIANCE> 13
 2.900499e+01 3.316306e+01 1.048070e+02 7.171418e+01 6.109787e+01 9.079941e+01 5.139616e+01 7.002612e+01 6.444353e+01 5.572262e+01 5.104851e+01 3.247553e+01 6.121597e+01
<GCONST> 7.620953e+01
<TRANSP> 5
 0.000000e+00 1.000000e+00 0.000000e+00 0.000000e+00 0.000000e+00
 0.000000e+00 7.961830e-01 2.038170e-01 0.000000e+00 0.000000e+00
 0.000000e+00 0.000000e+00 8.067059e-01 1.932942e-01 0.000000e+00
 0.000000e+00 0.000000e+00 0.000000e+00 3.097534e-01 6.902466e-01
 0.000000e+00 0.000000e+00 0.000000e+00 0.000000e+00 0.000000e+00
<ENDHMM>
~h "r"
<BEGINHMM>
<NUMSTATES> 5
<STATE> 2
<MEAN> 13
 6.661112e+00 -1.038525e+01 -1.523794e+01 -2.774600e+00 -1.107881e+01 -4.637460e+00 -4.850197e+00 1.889158e+00 4.752181e+00 -3.412709e+00 -5.195398e+00 -2.055179e+00 6.787880e+01
<VARIANCE> 13
 2.156837e+01 3.613970e+01 1.461800e+02 3.029533e+01 1.513926e+02 5.422131e+01 2.854497e+01 7.667016e+01 4.264231e+01 1.060523e+02 2.849687e+01 6.738287e+01 2.319902e+01
<GCONST> 7.477186e+01
<STATE> 3
<MEAN> 13
 1.335456e+00 -1.016693e+01 -5.251378e+00 2.112065e-01 -3.207713e+00 -4.205457e+00 -3.742799e+00 -2.143697e+00 2.011130e+00 2.887983e+00 -4.038394e+00 -6.682447e+00 6.178563e+01
<VARIANCE> 13
 1.526511e+01 4.170583e+01 4.309028e+01 3.461066e+01 5.857482e+01 6.222444e+01 3.588853e+01 5.050632e+01 4.565950e+01 4.655748e+01 3.647439e+01 4.555721e+01 3.727895e+01
<GCONST> 7.205556e+01
<STATE> 4
<MEAN> 13
 -8.780265e-01 -6.249379e+00 -1.885734e+00 9.284779e+00 4.011533e-01 -2.847641e+00 -2.952208e+00 4.436953e+00 1.318880e+00 -2.605930e+00 -3.735894e+00 -1.838773e+00 5.481884e+01
<VARIANCE> 13
 3.259082e+01 1.117736e+02 6.191779e+01 1.982608e+02 9.122154e+01 7.752695e+01 6.531200e+01 1.030429e+02 5.475480e+01 6.715057e+01 4.563562e+01 4.982278e+01 1.407765e+02
<GCONST> 8.007267e+01
<TRANSP> 5
 0.000000e+00 1.000000e+00 0.000000e+00 0.000000e+00 0.000000e+00
 0.000000e+00 5.009989e-01 4.990011e-01 0.000000e+00 0.000000e+00
 0.000000e+00 0.000000e+00 6.083865e-01 3.916135e-01 0.000000e+00
 0.000000e+00 0.000000e+00 0.000000e+00 5.476155e-01 4.523845e-01
 0.000000e+00 0.000000e+00 0.000000e+00 0.000000e+00 0.000000e+00
<ENDHMM>
~h "s"
<BEGINHMM>
<NUMSTATES> 5
<STATE> 2
<MEAN> 13
 -1.357266e+01 -6.164716e-01 -1.841021e+00 -4.788885e+00 5.644102e+00 -5.516315e+00 -1.338731e+00 -7.621622e+00 1.749189e+00 -2.439855e+00 1.895470e+00 -3.578900e+00 6.040972e+01
<VARIANCE> 13
 3.956802e+01 2.974315e+01 5.942998e+01 5.531827e+01 5.637212e+01 6.257380e+01 5.749604e+01 4.966298e+01 5.148303e+01 3.648445e+01 4.528749e+01 3.777284e+01 7.746861e+01
<GCONST> 7.451886e+01
<STATE> 3
<MEAN> 13
 -1.569342e+01 3.706774e+00 -5.856997e+00 6.806523e+00 5.097363e+00 -7.670912e+00 5.070441e+00 -5.024008e-01 5.468427e+00 -6.315072e-01 1.513118e+00 -2.329547e+00 6.150257e+01
<VARIANCE> 13
 2.534187e+01 4.181790e+01 3.448153e+01 7.972642e+01 4.308170e+01 3.879686e+01 5.041655e+01 3.920693e+01 3.234229e+01 2.546773e+01 2.186747e+01 2.274540e+01 4.168695e+01
<GCONST> 7.044115e+01
<STATE> 4
<MEAN> 13
 -2.365419e+01 9.922256e-02 -1.949070e+00 -3.270606e+00 1.529634e+01 -1.597010e+01 7.153025e+00 -2.187625e+00 6.265844e+00 -7.544809e+00 3.990885e-01 8.876359e-01 5.493061e+01
<VARIANCE> 13
 9.585941e+01 7.263352e+01 5.367362e+01 3.843355e+01 9.555340e+01 8.627318e+01 1.272319e+02 5.270910e+01 6.725691e+01 5.431845e+01 3.639497e+01 5.730943e+01 6.565218e+01
<GCONST> 7.823121e+01
<TRANSP> 5
 0.000000e+00 1.000000e+00 0.000000e+00 0.000000e+00 0.000000e+00
 0.000000e+00 5.859188e-01 4.140812e-01 0.000000e+00 0.000000e+00
 0.000000e+00 0.000000e+00 6.880825e-01 3.119175e-01 0.000000e+00
 0.000000e+00 0.000000e+00 0.000000e+00 7.388198e-01 2.611801e-01
 0.000000e+00 0.000000e+00 0.000000e+00 0.000000e+00 0.000000e+00
<ENDHMM>
~h "t"
<BEGINHMM>
<NUMSTATES> 5
<STATE> 2
<MEAN> 13
 -5.510140e+00 -3.363997e+00 -9.645908e+00 -1.852858e+00 -2.106470e-01 1.776751e+00 -5.151626e+00 -4.165103e+00 2.049088e+00 -5.028760e-01 -2.706743e+00 -3.096652e+00 5.031806e+01
<VARIANCE> 13
 4.107406e+01 5.280678e+01 9.474670e+01 8.451276e+01 6.209700e+01 1.235973e+02 9.339024e+01 7.925031e+01 8.551324e+01 5.652603e+01 4.914738e+01 3.821349e+01 1.124255e+02
<GCONST> 7.916132e+01
<STATE> 3
<MEAN> 13
 1.909884e+00 -7.251957e+00 -6.210404e+00 -1.541389e+01 -9.231955e+00 2.982475e+00 -1.283910e+01 -1.263429e+01 2.290132e+00 -2.140831e+00 3.656344e+00 -2.826234e+00 6.882178e+01
<VARIANCE> 13
 1.809788e+01 3.097133e+01 2.669932e+01 7.495720e+01 5.888408e+01 7.577680e+01 4.807775e+01 4.412296e+01 7.856850e+01 5.276670e+01 3.367279e+01 5.862340e+01 4.866615e+01
<GCONST> 7.368864e+01
<STATE> 4
<MEAN> 13
 5.852060e+00 -2.860328e+00 -1.917212e+00 -1.383491e+01 -3.239582e+00 8.695019e+00 -1.070782e+01 -1.268773e+01 -9.431613e+00 5.217288e+00 3.430038e+00 -3.704854e+00 6.210376e+01
<VARIANCE> 13
 3.344163e+01 5.378466e+01 4.250348e+01 1.464025e+02 8.327313e+01 7.844501e+01 7.067905e+01 5.130280e+01 6.358475e+01 5.948967e+01 1.205451e+02 5.172878e+01 5.998408e+01
<GCONST> 7.817384e+01
<TRANSP> 5
 0.000000e+00 1.000000e+00 0.000000e+00 0.000000e+00 0.000000e+00
 0.000000e+00 6.671758e-01 3.328243e-01 0.000000e+00 0.000000e+00
 0.000000e+00 0.000000e+00 7.605206e-01 2.394793e-01 0.000000e+00
 0.000000e+00 0.000000e+00 0.000000e+00 7.750309e-01 2.249691e-01
 0.000000e+00 0.000000e+00 0.000000e+00 0.000000e+00 0.000000e+00
<ENDHMM>
~h "w"
<BEGINHMM>
<NUMSTATES> 5
<STATE> 2
<MEAN> 13
 -2.035861e+01 -3.614347e+00 2.561795e+00 -7.646000e+00 1.429074e+01 -1.980501e+00 -3.166117e+00 -4.297414e+00 5.581362e+00 -5.730801e+00 3.290440e+00 -6.990163e+00 6.242480e+01
<VARIANCE> 13
 2.824036e+01 1.477960e+01 1.645325e+01 4.621252e+01 5.334921e+01 5.705627e+01 3.012791e+01 5.268910e+01 2.810850e+01 2.931472e+01 1.197997e+01 1.161895e+01 5.669762e+00
<GCONST> 6.533612e+01
<STATE> 3
<MEAN> 13
 8.388172e-01 -8.588480e+00 2.669457e+00 -2.110686e+00 -3.893692e+00 -1.015773e+01 -1.377520e+01 -8.875712e+00 -1.713558e+00 -1.865578e+00 5.020039e+00 -5.619959e+00 6.879278e+01
<VARIANCE> 13
 1.971541e+01 6.081878e+01 2.781240e+01 2.212504e+01 4.226311e+01 4.831491e+01 3.928444e+01 4.670575e+01 6.224470e+01 4.651508e+01 4.682377e+01 1.684006e+01 1.186006e+01
<GCONST> 6.965442e+01
<STATE> 4
<MEAN> 13
 -6.649633e+00 -6.506612e+00 4.003975e+00 1.108267e-01 -2.330755e-01 -4.762707e+00 -4.335793e+00 -8.232292e+00 -7.594152e+00 -6.067276e+00 3.298969e+00 9.649826e-01 5.982819e+01
<VARIANCE> 13
 3.116738e+01 1.387870e+01 1.275183e+01 1.239236e+01 2.605265e+01 4.052787e+01 5.290388e+01 4.007972e+01 3.276715e+01 3.284920e+01 3.122555e+01 3.604800e+01 3.823696e+01
<GCONST> 6.729758e+01
<TRANSP> 5
 0.000000e+00 1.000000e+00 0.000000e+00 0.000000e+00 0.000000e+00
 0.000000e+00 8.413966e-01 1.586035e-01 0.000000e+00 0.000000e+00
 0.000000e+00 0.000000e+00 7.884343e-01 2.115657e-01 0.000000e+00
 0.000000e+00 0.000000e+00 0.000000e+00 7.338951e-01 2.661049e-01
 0.000000e+00 0.000000e+00 0.000000e+00 0.000000e+00 0.000000e+00
<ENDHMM>
~h "ah"
<BEGINHMM>
<NUMSTATES> 5
<STATE> 2
<MEAN> 13
 5.112860e+00 -1.832516e+01 -1.098316e+01 -1.215053e+01 1.264271e+00 1.728281e+00 -1.050917e+00 -7.402256e+00 -2.757671e+00 7.028672e+00 -4.397374e+00 -7.454019e+00 7.077822e+01
<VARIANCE> 13
 9.723600e+00 4.527580e+01 3.069729e+01 4.377255e+01 7.854165e+01 9.629906e+01 5.165345e+01 4.776646e+01 1.053717e+02 5.464772e+01 6.444475e+01 4.145369e+01 1.885732e+01
<GCONST> 7.341058e+01
<STATE> 3
<MEAN> 13
 2.770794e+00 -2.030096e+01 -1.201665e+01 -7.364378e+00 -2.429179e+00 6.326549e-01 -4.561439e+00 -4.168281e+00 4.516411e+00 1.890028e+00 -7.469233e+00 -1.247213e+01 7.405168e+01
<VARIANCE> 13
 4.894948e+00 2.711186e+01 2.000418e+01 2.134614e+01 4.627711e+01 4.844057e+01 3.637757e+01 6.584585e+01 9.819621e+01 4.465398e+01 5.781517e+01 4.192376e+01 1.474278e+01
<GCONST> 6.920341e+01
<STATE> 4
<MEAN> 13
 3.014517e+00 -1.262149e+01 -6.075210e+00 -1.184548e+01 1.010819e+01 -6.775891e+00 1.196389e+00 -4.514242e+00 4.758443e+00 1.640731e+00 -1.373918e+01 -2.918055e+00 6.834998e+01
<VARIANCE> 13
 8.345349e+00 2.648876e+01 2.561828e+01 7.263712e+01 1.077779e+02 7.286032e+01 7.150051e+01 5.903573e+01 5.717008e+01 6.987876e+01 6.496207e+01 6.146774e+01 2.680991e+01
<GCONST> 7.400996e+01
<TRANSP> 5
 0.000000e+00 1.000000e+00 0.000000e+00 0.000000e+00 0.000000e+00
 0.000000e+00 6.370250e-01 3.629750e-01 0.000000e+00 0.000000e+00
 0.000000e+00 0.000000e+00 8.079186e-01 1.920814e-01 0.000000e+00
 0.000000e+00 0.000000e+00 0.000000e+00 6.417018e-01 3.582983e-01
 0.000000e+00 0.000000e+00 0.000000e+00 0.000000e+00 0.000000e+00
<ENDHMM>
~h "ax"
<BEGINHMM>
<NUMSTATES> 5
<STATE> 2
<MEAN> 13
 2.192974e+00 -1.030620e+01 5.840676e+00 -5.274027e+00 -8.300493e+00 -1.316840e+01 -6.206590e+00 5.202991e-01 -6.636288e+00 5.467576e+00 -2.795208e+00 -2.143991e+00 6.893394e+01
<VARIANCE> 13
 1.634254e+01 3.918096e+01 8.911166e+01 5.054552e+01 1.181367e+02 7.739668e+01 4.170113e+01 8.666589e+01 8.622887e+01 3.401896e+01 6.854132e+01 3.797132e+01 3.452800e+01
<GCONST> 7.547047e+01
<STATE> 3
<MEAN> 13
 4.468492e+00 -1.495493e+01 -6.864608e+00 -8.360695e+00 -1.060735e+00 -9.776540e-01 -5.872262e+00 -3.300746e+00 -1.549451e+00 7.235821e+00 -6.562652e+00 -9.213078e+00 7.035722e+01
<VARIANCE> 13
 1.654135e+01 3.449688e+01 2.720164e+01 3.951334e+01 4.999276e+01 5.141516e+01 3.848308e+01 7.171874e+01 8.049232e+01 4.630537e+01 8.573430e+01 4.239941e+01 4.267073e+01
<GCONST> 7.316914e+01
<STATE> 4
<MEAN> 13
 -8.271042e-02 -4.432117e+00 -5.366503e+00 -3.986027e+00 3.720763e-01 -4.959173e+00 -5.746445e+00 -3.901123e+00 3.112947e+00 5.478983e+00 -4.321280e+00 -7.286823e+00 6.286878e+01
<VARIANCE> 13
 3.525477e+01 3.748559e+01 3.051284e+01 4.023753e+01 7.566553e+01 7.791687e+01 5.842071e+01 7.026162e+01 7.813033e+01 4.957374e+01 4.385637e+01 4.701353e+01 6.377348e+01
<GCONST> 7.524230e+01
<TRANSP> 5
 0.000000e+00 1.000000e+00 0.000000e+00 0.000000e+00 0.000000e+00
 0.000000e+00 7.557390e-01 2.442611e-01 0.000000e+00 0.000000e+00
 0.000000e+00 0.000000e+00 8.033399e-01 1.966601e-01 0.000000e+00
 0.000000e+00 0.000000e+00 0.000000e+00 6.298998e-01 3.701002e-01
 0.000000e+00 0.000000e+00 0.000000e+00 0.000000e+00 0.000000e+00
<ENDHMM>
~h "ay"
<BEGINHMM>
<NUMSTATES> 5
<STATE> 2
<MEAN> 13
 -1.163397e+01 9.486916e-01 -4.151357e+00 7.419259e+00 5.574869e+00 -5.733828e+00 5.176307e+00 2.120741e+00 5.306643e+00 -8.819214e-01 -5.002392e-01 -8.560176e-01 5.937165e+01
<VARIANCE> 13
 3.884029e+01 3.830068e+01 2.525530e+01 6.083753e+01 2.757038e+01 3.028511e+01 3.692515e+01 2.509114e+01 3.185811e+01 2.683523e+01 1.708705e+01 1.881593e+01 3.213604e+01
<GCONST> 6.808739e+01
<STATE> 3
<MEAN> 13
 -5.663444e+00 -9.633694e+00 -7.138969e+00 -1.181875e+01 8.405554e-01 -5.513052e-01 1.414744e+00 -7.818449e+00 -2.097939e+00 4.506910e+00 -4.430430e+00 -7.567523e+00 6.282671e+01
<VARIANCE> 13
 1.261105e+02 6.079852e+01 6.239954e+01 9.047551e+01 6.700217e+01 5.874039e+01 4.844550e+01 7.644342e+01 1.136257e+02 1.701967e+02 9.022553e+01 1.208160e+02 6.640449e+01
<GCONST> 8.133281e+01
<STATE> 4
<MEAN> 13
 1.277671e+00 -1.286130e+01 4.870701e+00 -1.730326e+01 3.185827e+00 -1.514896e+01 7.328264e+00 5.635481e-01 6.827806e-01 1.835511e+00 -1.100406e+01 2.765335e+00 7.091837e+01
<VARIANCE> 13
 6.233724e+00 1.637564e+01 8.447136e+01 2.330661e+01 9.175433e+01 4.127953e+01 3.333427e+01 3.557244e+01 6.881663e+01 6.058107e+01 5.324925e+01 3.671137e+01 8.809080e+00
<GCONST> 6.951023e+01
<TRANSP> 5
 0.000000e+00 1.000000e+00 0.000000e+00 0.000000e+00 0.000000e+00
 0.000000e+00 8.139933e-01 1.860068e-01 0.000000e+00 0.000000e+00
 0.000000e+00 0.000000e+00 6.529226e-01 3.470775e-01 0.000000e+00
 0.000000e+00 0.000000e+00 0.000000e+00 8.790733e-01 1.209267e-01
 0.000000e+00 0.000000e+00 0.000000e+00 0.000000e+00 0.000000e+00
<ENDHMM>
~h "eh"
<BEGINHMM>
<NUMSTATES> 5
<STATE> 2
<MEAN> 13
 1.301049e+00 -4.863950e+00 3.698519e+00 4.029709e+00 -4.255521e+00 -1.055033e+01 -8.156960e+00 -1.132687e+00 2.193701e+00 -2.749974e+00 -6.068249e+00 -3.378423e+00 6.079583e+01
<VARIANCE> 13
 8.248013e+00 1.971369e+02 1.082072e+01 7.706351e+01 7.058692e+01 3.914225e+01 2.094229e+01 6.490121e+01 6.461103e+01 5.362062e+01 6.075366e+01 6.431306e+01 1.295527e+02
<GCONST> 7.443605e+01
<STATE> 3
<MEAN> 13
 3.641843e+00 -1.243622e+01 4.961178e+00 -4.658564e+00 -9.363261e+00 -1.244491e+01 -1.394423e+01 -1.002555e+00 -2.651883e+00 3.385512e+00 -1.720987e+00 -6.105740e+00 6.953745e+01
<VARIANCE> 13
 5.031876e+00 9.840668e+00 3.861461e+01 5.366946e+01 1.017049e+02 8.615548e+01 5.442024e+01 2.060891e+02 4.035708e+01 1.532254e+01 4.035863e+01 9.638994e+01 1.238940e+01
<GCONST> 7.104460e+01
<STATE> 4
<MEAN> 13
 6.453705e+00 -5.046972e+00 3.020436e-01 -1.034293e+01 3.926089e+00 -4.744075e+00 -1.481386e+01 -9.423549e+00 -7.561079e+00 1.180928e+01 -3.305853e+00 -2.337069e+00 6.414056e+01
<VARIANCE> 13
 7.303640e+00 5.845965e+01 1.594933e+01 6.352235e+01 1.136947e+02 1.134584e+02 1.656760e+01 4.739818e+01 4.131098e+01 4.373610e+01 9.209448e+01 2.844072e+01 2.280686e+01
<GCONST> 7.149791e+01
<TRANSP> 5
 0.000000e+00 1.000000e+00 0.000000e+00 0.000000e+00 0.000000e+00
 0.000000e+00 8.915440e-01 1.084560e-01 0.000000e+00 0.000000e+00
 0.000000e+00 0.000000e+00 9.040149e-01 9.598503e-02 0.000000e+00
 0.000000e+00 0.000000e+00 0.000000e+00 7.738525e-01 2.261475e-01
 0.000000e+00 0.000000e+00 0.000000e+00 0.000000e+00 0.000000e+00
<ENDHMM>
~h "hh"
<BEGINHMM>
<NUMSTATES> 5
<STATE> 2
<MEAN> 13
 1.890027e+00 -7.895628e+00 1.860657e+00 -5.931056e+00 5.766640e+00 -1.720182e+01 -1.488752e+00 7.448291e+00 9.020778e-01 2.527047e-01 -1.520025e+01 3.799076e+00 6.385800e+01
<VARIANCE> 13
 6.881338e+00 8.462077e+01 3.723106e+01 1.870261e+02 4.241624e+01 9.878555e+01 6.190473e+01 6.471185e+01 4.068410e+01 4.014621e+01 2.615962e+01 6.515667e+01 8.594920e+01
<GCONST> 7.503694e+01
<STATE> 3
<MEAN> 13
 7.020081e-01 -1.583675e+01 -1.254179e+01 -4.344769e+00 1.011549e-01 -2.362914e+00 -6.905805e+00 3.477341e+00 -1.884102e+00 -2.549572e+00 -1.565782e+01 -9.627541e+00 7.589806e+01
<VARIANCE> 13
 5.828528e+00 1.824331e+01 2.220896e+01 5.046924e+01 2.924492e+01 1.958220e+01 2.235391e+01 3.929970e+01 1.118578e+01 1.997184e+01 1.602963e+01 2.322353e+01 1.010592e+01
<GCONST> 6.235106e+01
<STATE> 4
<MEAN> 13
 7.751108e-01 -1.407495e+01 -1.792409e+00 -8.506658e+00 1.593037e+01 -5.640632e+00 9.734260e+00 -2.641181e+00 5.315722e+00 4.601704e+00 -2.056813e+01 1.200329e+00 6.795572e+01
<VARIANCE> 13
 8.931171e+00 8.369203e+00 1.814923e+01 6.906364e+01 4.270027e+01 6.109008e+01 5.043956e+01 3.782285e+01 4.148010e+01 3.171682e+01 3.778151e+01 2.746350e+01 1.674260e+01
<GCONST> 6.770511e+01
<TRANSP> 5
 0.000000e+00 1.000000e+00 0.000000e+00 0.000000e+00 0.000000e+00
 0.000000e+00 7.852917e-01 2.147082e-01 0.000000e+00 0.000000e+00
 0.000000e+00 0.000000e+00 8.977550e-01 1.022449e-01 0.000000e+00
 0.000000e+00 0.000000e+00 0.000000e+00 8.897724e-01 1.102276e-01
 0.000000e+00 0.000000e+00 0.000000e+00 0.000000e+00 0.000000e+00
<ENDHMM>
~h "ih"
<BEGINHMM>
<NUMSTATES> 5
<STATE> 2
<MEAN> 13
 3.891592e+00 5.960191e+00 6.486553e+00 -6.032065e+00 -1.006302e+01 4.415584e-02 -2.177243e+00 -9.307981e+00 -1.456931e+01 -1.849253e-02 -4.676198e+00 -5.715849e-01 5.514615e+01
<VARIANCE> 13
 4.475053e+01 1.436626e+02 2.126041e+02 1.315666e+02 6.600368e+01 1.087179e+02 9.651839e+01 5.603841e+01 6.980562e+01 7.899251e+01 6.825175e+01 3.668420e+01 7.280335e+01
<GCONST> 8.110254e+01
<STATE> 3
<MEAN> 13
 -2.775644e+00 -7.727111e+00 1.282554e+01 -2.145535e-01 -1.939087e+01 -8.051882e+00 -9.133009e+00 -6.633823e+00 -7.722601e+00 -4.589602e+00 8.685344e+00 -7.837401e+00 6.517287e+01
<VARIANCE> 13
 9.196784e+00 7.667719e+01 5.977318e+01 2.500972e+01 6.457494e+01 4.883454e+01 5.340019e+01 6.070329e+01 6.098950e+01 5.477016e+01 5.604770e+01 6.175367e+01 4.036383e+01
<GCONST> 7.386191e+01
<STATE> 4
<MEAN> 13
 -1.079638e+01 5.528564e+00 2.046952e+00 4.344788e+00 -3.522880e+00 -6.589759e-01 -3.239947e+00 -1.166069e+00 -3.096206e+00 -1.947783e+00 6.212484e-01 5.619714e-02 4.206798e+01
<VARIANCE> 13
 7.211234e+01 1.584469e+02 6.363404e+01 7.110303e+01 8.466214e+01 9.339782e+01 9.761224e+01 1.073059e+02 6.714193e+01 9.183890e+01 3.757506e+01 4.414275e+01 2.702920e+02
<GCONST> 8.162566e+01
<TRANSP> 5
 0.000000e+00 1.000000e+00 0.000000e+00 0.000000e+00 0.000000e+00
 0.000000e+00 7.128602e-01 2.871397e-01 0.000000e+00 0.000000e+00
 0.000000e+00 0.000000e+00 7.993377e-01 2.006623e-01 0.000000e+00
 0.000000e+00 0.000000e+00 0.000000e+00 6.395681e-01 3.604320e-01
 0.000000e+00 0.000000e+00 0.000000e+00 0.000000e+00 0.000000e+00
<ENDHMM>
~h "iy"
<BEGINHMM>
<NUMSTATES> 5
<STATE> 2
<MEAN> 13
 2.211462e+00 -9.596856e+00 1.743692e+01 -7.715612e+00 -1.273657e+01 -1.285539e+01 -4.330076e+00 -6.271237e+00 -1.631392e+01 7.833956e+00 1.100983e-01 6.352670e-02 6.820064e+01
<VARIANCE> 13
 8.182454e+00 2.228927e+01 5.461506e+01 3.193176e+01 3.301705e+01 2.648164e+01 2.820839e+01 4.959569e+01 8.163519e+01 5.248131e+01 8.284264e+01 2.958695e+01 1.208327e+01
<GCONST> 6.923822e+01
<STATE> 3
<MEAN> 13
 -3.117357e+00 -1.192882e+01 1.479615e+01 -6.162566e-01 -2.415230e+01 -1.248304e+01 -1.306763e+01 -8.212313e+00 -7.477930e+00 -6.585673e+00 1.346694e+01 -4.278829e+00 6.891120e+01
<VARIANCE> 13
 4.859023e+00 5.429827e+01 2.573191e+01 2.139523e+01 2.908474e+01 1.632430e+01 2.700909e+01 4.906292e+01 5.353485e+01 5.558425e+01 6.510564e+01 9.332471e+01 7.312987e+00
<GCONST> 6.783076e+01
<STATE> 4
<MEAN> 13
 -1.756796e+00 -1.624560e+00 1.083877e+01 -1.085930e-01 -1.053347e+01 -1.021052e+01 -5.117112e+00 -6.300367e+00 -8.637523e+00 2.013011e-01 1.182071e+00 -4.407156e-01 6.044067e+01
<VARIANCE> 13
 3.081462e+01 2.821845e+01 6.957046e+01 3.203781e+01 4.048812e+01 5.012161e+01 4.537026e+01 4.393071e+01 5.716142e+01 5.339544e+01 6.392114e+01 3.760793e+01 2.009612e+01
<GCONST> 7.239155e+01
<TRANSP> 5
 0.000000e+00 1.000000e+00 0.000000e+00 0.000000e+00 0.000000e+00
 0.000000e+00 8.309737e-01 1.690262e-01 0.000000e+00 0.000000e+00
 0.000000e+00 0.000000e+00 8.879123e-01 1.120877e-01 0.000000e+00
 0.000000e+00 0.000000e+00 0.000000e+00 6.806124e-01 3.193876e-01
 0.000000e+00 0.000000e+00 0.000000e+00 0.000000e+00 0.000000e+00
<ENDHMM>
~h "ng"
<BEGINHMM>
<NUMSTATES> 5
<STATE> 2
<MEAN> 13
 -2.262020e+00 -4.538665e+00 -1.069667e+01 9.368284e-01 -3.460341e+00 4.342172e+00 -7.180959e+00 -4.387098e+00 -3.579024e+00 -4.894391e+00 -6.725055e+00 -5.516495e+00 4.937720e+01
<VARIANCE> 13
 3.742103e+01 5.503020e+01 3.657832e+01 2.255972e+01 5.643737e+01 4.701451e+01 2.598800e+01 2.447900e+01 2.695874e+01 2.611349e+01 1.583274e+01 3.089778e+01 4.795288e+01
<GCONST> 6.919691e+01
<STATE> 3
<MEAN> 13
 -2.934164e+00 4.793197e+00 -2.581153e+00 8.633231e+00 5.547780e-01 8.500265e+00 6.864022e-02 -3.130965e-01 1.192608e+00 -1.097148e+00 -1.082306e+00 7.258465e-01 5.017634e+01
<VARIANCE> 13
 2.387665e+01 6.840131e+01 2.340920e+01 4.123474e+01 8.710651e+01 5.837058e+01 3.552486e+01 2.471831e+01 2.345641e+01 3.301804e+01 1.808073e+01 2.144510e+01 8.943274e+01
<GCONST> 7.058085e+01
<STATE> 4
<MEAN> 13
 -1.335328e+01 5.492036e+00 -1.008038e+01 7.662077e+00 -4.949017e+00 2.079441e+00 -1.026426e+01 -5.181615e+00 -5.052747e+00 -8.248321e+00 -5.872193e+00 -6.119818e+00 3.402145e+01
<VARIANCE> 13
 1.266063e+01 1.242419e+01 2.087764e+01 1.337534e+01 2.248697e+01 2.436444e+01 2.168955e+01 2.094392e+01 2.089864e+01 1.708978e+01 1.426890e+01 1.606351e+01 3.164732e+01
<GCONST> 6.177483e+01
<TRANSP> 5
 0.000000e+00 1.000000e+00 0.000000e+00 0.000000e+00 0.000000e+00
 0.000000e+00 8.305660e-01 1.694339e-01 0.000000e+00 0.000000e+00
 0.000000e+00 0.000000e+00 8.529796e-01 1.470204e-01 0.000000e+00
 0.000000e+00 0.000000e+00 0.000000e+00 9.213547e-01 7.864540e-02
 0.000000e+00 0.000000e+00 0.000000e+00 0.000000e+00 0.000000e+00
<ENDHMM>
~h "oh"
<BEGINHMM>
<NUMSTATES> 5
<STATE> 2
<MEAN> 13
 4.673463e+00 -1.839961e+01 -1.191202e+01 -1.779955e+01 -6.304130e+00 1.216278e+01 -2.843143e-01 -1.336787e+01 3.309445e+00 2.690032e-01 5.272934e+00 -7.922227e+00 7.197272e+01
<VARIANCE> 13
 1.173708e+01 6.979778e+01 1.618006e+01 5.647673e+01 6.789916e+01 9.897572e+01 4.467551e+01 4.704987e+01 1.568256e+02 5.117608e+01 6.089710e+01 6.959841e+01 1.264614e+01
<GCONST> 7.376159e+01
<STATE> 3
<MEAN> 13
 4.187939e+00 -1.744567e+01 -1.408900e+01 -1.009420e+01 -8.475899e+00 3.444027e+00 -7.562127e+00 -2.473310e+00 1.039595e+00 4.843249e+00 -2.985328e+00 -1.541108e+01 7.298084e+01
<VARIANCE> 13
 4.226262e+00 5.789684e+01 1.104692e+01 5.420049e+01 3.926746e+01 5.753680e+01 3.757907e+01 3.269747e+01 5.617226e+01 3.228006e+01 3.239043e+01 6.656171e+01 1.826770e+01
<GCONST> 6.870779e+01
<STATE> 4
<MEAN> 13
 7.918643e+00 -6.469870e+00 -6.919846e+00 9.331015e+00 -2.368031e+01 1.008411e+00 -7.215230e+00 4.870370e-01 5.050742e+00 -1.056985e+01 -4.749249e+00 3.279246e+00 6.818107e+01
<VARIANCE> 13
 1.647951e+01 2.187371e+01 4.049619e+01 5.739376e+01 1.112372e+02 1.335856e+02 2.666910e+01 3.386476e+01 2.643424e+01 7.654602e+01 1.963842e+01 3.011086e+01 1.377572e+01
<GCONST> 7.056107e+01
<TRANSP> 5
 0.000000e+00 1.000000e+00 0.000000e+00 0.000000e+00 0.000000e+00
 0.000000e+00 8.980810e-01 1.019190e-01 0.000000e+00 0.000000e+00
 0.000000e+00 0.000000e+00 8.934988e-01 1.065012e-01 0.000000e+00
 0.000000e+00 0.000000e+00 0.000000e+00 8.848963e-01 1.151038e-01
 0.000000e+00 0.000000e+00 0.000000e+00 0.000000e+00 0.000000e+00
<ENDHMM>
~h "sp"
<BEGINHMM>
<NUMSTATES> 5
<STATE> 2
~s "silst"
<STATE> 3
<MEAN> 13
 -8.861578e+00 1.689257e+00 -1.428690e+00 1.734139e+00 2.363858e+00 1.311027e+00 1.902645e+00 4.029643e-01 2.182424e+00 -1.179641e+00 6.197161e-01 -1.187597e+00 5.075737e+01
<VARIANCE> 13
 2.093300e+01 8.402652e+00 1.241524e+01 1.178995e+01 1.498604e+01 1.389368e+01 1.742790e+01 1.220474e+01 1.390060e+01 1.048622e+01 1.031728e+01 9.275875e+00 5.061716e+01
<GCONST> 5.821442e+01
<STATE> 4
<MEAN> 13
 -2.490266e+01 3.132784e+00 -9.938063e+00 4.856347e+00 -7.158361e+00 5.163908e+00 -3.835684e+00 1.136757e+00 1.084759e+00 -1.492576e+00 8.192068e-01 -7.795203e-01 2.473973e+01
<VARIANCE> 13
 2.245400e+01 4.709069e+00 6.601575e+00 7.459795e+00 1.140796e+01 9.507609e+00 1.333058e+01 1.436695e+01 1.534329e+01 1.372878e+01 1.283633e+01 1.036696e+01 3.074544e+01
<GCONST> 5.605841e+01
<TRANSP> 5
 0.000000e+00 7.000000e-01 3.000000e-01 0.000000e+00 0.000000e+00
 0.000000e+00 7.499560e-01 2.500440e-01 0.000000e+00 0.000000e+00
 0.000000e+00 0.000000e+00 8.696231e-01 1.303769e-01 0.000000e+00
 0.000000e+00 0.000000e+00 0.000000e+00 9.336296e-01 6.637040e-02
 0.000000e+00 0.000000e+00 0.000000e+00 0.000000e+00 0.000000e+00
<ENDHMM>
~h "uh"
<BEGINHMM>
<NUMSTATES> 5
<STATE> 2
<MEAN> 13
 -4.573998e+00 6.928689e+00 -4.366268e+00 -3.417607e+00 -3.934996e+00 2.641771e+00 -6.577576e+00 -5.074508e+00 -3.884666e+00 -3.237689e+00 -1.523108e+00 -2.405148e+00 4.679930e+01
<VARIANCE> 13
 1.249253e+02 8.638763e+01 2.766604e+01 1.136439e+02 2.968632e+01 3.370255e+01 3.971776e+01 5.648820e+01 3.320277e+01 2.984377e+01 3.185917e+01 2.075843e+01 1.919015e+02
<GCONST> 7.450620e+01
<STATE> 3
<MEAN> 13
 -4.185662e-01 3.422442e+00 -5.105285e+00 -8.624433e+00 -7.860178e+00 1.440968e-01 -7.324934e+00 -7.710552e+00 -7.363699e+00 -2.507998e+00 1.393863e-01 -2.813538e+00 5.504428e+01
<VARIANCE> 13
 1.026224e+02 5.153636e+01 2.126507e+01 8.378302e+01 3.595305e+01 3.687805e+01 3.388061e+01 4.043955e+01 4.283249e+01 2.713737e+01 2.835110e+01 2.082286e+01 1.970146e+02
<GCONST> 7.308573e+01
<STATE> 4
<MEAN> 13
 -3.973513e+00 3.719543e+00 -4.675997e+00 -3.609389e+00 -6.620752e+00 7.448708e-01 -1.249523e+01 -1.041846e+01 -8.112637e+00 -2.340894e+00 8.051921e-01 -4.165889e+00 4.996338e+01
<VARIANCE> 13
 9.572315e+01 7.720298e+01 4.225811e+01 6.896323e+01 3.225923e+01 3.478349e+01 6.311715e+01 5.021329e+01 5.414993e+01 5.817439e+01 4.814507e+01 3.503445e+01 2.846776e+02
<GCONST> 7.699901e+01
<TRANSP> 5
 0.000000e+00 1.000000e+00 0.000000e+00 0.000000e+00 0.000000e+00
 0.000000e+00 2.890376e-01 7.109624e-01 0.000000e+00 0.000000e+00
 0.000000e+00 0.000000e+00 3.986194e-01 6.013806e-01 0.000000e+00
 0.000000e+00 0.000000e+00 0.000000e+00 5.212669e-01 4.787330e-01
 0.000000e+00 0.000000e+00 0.000000e+00 0.000000e+00 0.000000e+00
<ENDHMM>
~h "uw"
<BEGINHMM>
<NUMSTATES> 5
<STATE> 2
<MEAN> 13
 4.233605e+00 -5.935111e+00 -5.557087e+00 -1.441992e+01 -9.116210e+00 4.481974e+00 -1.547622e+01 -1.788200e+01 -1.007687e+00 -1.915690e+00 7.257097e+00 -7.464226e-01 6.695535e+01
<VARIANCE> 13
 2.053343e+01 3.769263e+01 1.219275e+01 7.368250e+01 6.474828e+01 3.553301e+01 4.562341e+01 4.157179e+01 1.170240e+02 3.195657e+01 5.249454e+01 4.404959e+01 5.025635e+01
<GCONST> 7.252326e+01
<STATE> 3
<MEAN> 13
 6.402456e+00 9.323105e-01 -6.382115e+00 -1.481997e+01 -1.225282e+01 3.196989e-01 -1.064245e+01 -9.326976e+00 -9.534086e+00 -4.042714e+00 2.776062e+00 -3.610813e+00 6.343721e+01
<VARIANCE> 13
 2.153551e+01 2.258937e+01 1.711175e+01 5.668164e+01 4.613959e+01 3.168135e+01 4.516058e+01 3.633253e+01 3.879062e+01 2.411579e+01 3.689882e+01 5.764969e+01 4.901214e+01
<GCONST> 7.004281e+01
<STATE> 4
<MEAN> 13
 5.385715e+00 1.812288e+00 -7.881235e+00 -1.847419e+01 -2.744819e+00 7.158881e+00 -7.197937e+00 -1.064164e+01 -5.428082e+00 2.430509e+00 -2.153265e+00 1.886506e+00 5.917835e+01
<VARIANCE> 13
 4.723505e+01 7.968285e+01 3.492295e+01 2.188668e+02 1.013155e+02 8.013113e+01 4.667653e+01 4.596236e+01 8.815240e+01 1.335391e+02 1.198155e+02 9.444234e+01 1.088804e+02
<GCONST> 8.113782e+01
<TRANSP> 5
 0.000000e+00 1.000000e+00 0.000000e+00 0.000000e+00 0.000000e+00
 0.000000e+00 7.422896e-01 2.577105e-01 0.000000e+00 0.000000e+00
 0.000000e+00 0.000000e+00 7.998338e-01 2.001663e-01 0.000000e+00
 0.000000e+00 0.000000e+00 0.000000e+00 6.578374e-01 3.421627e-01
 0.000000e+00 0.000000e+00 0.000000e+00 0.000000e+00 0.000000e+00
<ENDHMM>
~h "sil"
<BEGINHMM>
<NUMSTATES> 5
<STATE> 2
<MEAN> 13
 -1.526773e+01 5.427453e+00 -5.296484e+00 8.877873e+00 -1.047497e+00 7.023763e+00 -3.110536e+00 3.276440e-01 -8.381491e-01 -3.819899e+00 -1.572576e+00 -2.236959e+00 3.340512e+01
<VARIANCE> 13
 4.618641e+01 5.826093e+01 6.976482e+01 6.495290e+01 6.792007e+01 7.106873e+01 6.269963e+01 6.729084e+01 5.580094e+01 4.505261e+01 4.833055e+01 3.352534e+01 9.044581e+01
<GCONST> 7.676291e+01
<STATE> 3
~s "silst"
<STATE> 4
<MEAN> 13
 -2.567956e+01 2.842618e+00 -1.002390e+01 4.566884e+00 -7.423695e+00 5.255262e+00 -3.427298e+00 1.434080e+00 1.494724e+00 -1.061296e+00 1.248782e+00 -4.451399e-01 2.412330e+01
<VARIANCE> 13
 1.485840e+01 3.104311e+00 6.072685e+00 5.528007e+00 1.034532e+01 8.233451e+00 1.056609e+01 1.113795e+01 1.186833e+01 1.031746e+01 9.499127e+00 8.026587e+00 2.817560e+01
<GCONST> 5.293026e+01
<TRANSP> 5
 0.000000e+00 1.000000e+00 0.000000e+00 0.000000e+00 0.000000e+00
 0.000000e+00 7.162797e-01 1.023007e-01 1.814197e-01 0.000000e+00
 0.000000e+00 0.000000e+00 9.556187e-01 4.438136e-02 0.000000e+00
 0.000000e+00 9.397353e-03 0.000000e+00 9.199035e-01 7.069914e-02
 0.000000e+00 0.000000e+00 0.000000e+00 0.000000e+00 0.000000e+00
<ENDHMM>
