~o
<STREAMINFO> 1 13
<VECSIZE> 13<NULLD><MFCC_0><DIAGC>
~s "silst"
<MEAN> 13
 -8.133598e+00 1.639399e+00 -6.335201e-01 1.208395e+00 2.856806e+00 6.383767e-01 2.866565e+00 8.101453e-01 3.099267e+00 -9.710241e-01 8.990265e-01 -1.343623e+00 5.294600e+01
<VARIANCE> 13
 4.239066e+00 6.484998e+00 5.106112e+00 7.915004e+00 7.903284e+00 9.475955e+00 9.483694e+00 9.385745e+00 9.139335e+00 7.970382e+00 8.367429e+00 8.042889e+00 3.465925e+00
<GCONST> 4.945068e+01
~h "b"
<BEGINHMM>
<NUMSTATES> 5
<STATE> 2
<MEAN> 13
 6.898427e+00 1.192980e+01 -7.256477e+00 2.951126e-01 -3.398816e+00 2.890710e+00 -7.685403e+00 -3.060973e+00 -5.132472e+00 -2.327344e+00 -5.929219e+00 -6.989918e+00 4.756200e+01
<VARIANCE> 13
 6.351667e+01 1.345959e+02 3.761683e+01 6.637800e+01 6.083273e+01 5.314074e+01 3.326903e+01 2.936701e+01 3.365480e+01 7.349948e+01 2.347677e+01 2.141838e+01 6.848045e+01
<GCONST> 7.399461e+01
<STATE> 3
<MEAN> 13
 -6.273260e+00 1.474389e+00 -8.276779e+00 2.689980e-01 2.832809e+00 6.044042e+00 1.070560e+00 1.131864e+00 2.487483e+00 -1.670204e+00 -2.535546e+00 -3.811949e+00 4.720371e+01
<VARIANCE> 13
 5.257161e+01 6.138392e+01 6.249092e+01 2.027413e+01 1.883791e+01 9.097694e+01 3.068983e+01 1.468927e+01 4.407178e+01 3.079456e+01 1.962052e+01 5.956071e+01 1.138222e+02
<GCONST> 7.168499e+01
<STATE> 4
<MEAN> 13
 -1.428380e+01 7.864731e+00 -5.531567e+00 6.410936e+00 -5.000782e+00 3.132730e+00 -5.447523e+00 -3.568272e-01 -2.958023e+00 -4.583878e+00 -1.943302e+00 -5.955107e+00 3.198802e+01
<VARIANCE> 13
 7.555692e+01 3.402497e+01 1.420910e+01 3.842814e+01 4.233625e+01 3.698549e+01 2.655191e+01 1.755076e+01 2.678770e+01 3.155264e+01 6.195969e+01 5.258854e+01 1.087208e+02
<GCONST> 7.106479e+01
<TRANSP> 5
 0.000000e+00 1.000000e+00 0.000000e+00 0.000000e+00 0.000000e+00
 0.000000e+00 8.608529e-01 1.391471e-01 0.000000e+00 0.000000e+00
 0.000000e+00 0.000000e+00 7.992138e-01 2.007861e-01 0.000000e+00
 0.000000e+00 0.000000e+00 0.000000e+00 7.854447e-01 2.145554e-01
 0.000000e+00 0.000000e+00 0.000000e+00 0.000000e+00 0.000000e+00
<ENDHMM>
~h "d"
<BEGINHMM>
<NUMSTATES> 5
<STATE> 2
<MEAN> 13
 -1.574267e-01 1.029397e+01 1.684189e+00 6.893255e+00 3.515250e+00 7.576123e-01 -6.506740e+00 -7.117503e+00 -2.211736e+00 -3.969964e+00 -9.276914e+00 -6.899401e+00 4.869411e+01
<VARIANCE> 13
 3.569365e+01 2.006142e+02 5.420143e+01 2.049803e+02 4.765063e+01 8.414842e+01 6.347932e+01 4.499979e+01 4.686227e+01 6.283668e+01 4.541817e+01 3.215344e+01 2.114883e+02
<GCONST> 7.896658e+01
<STATE> 3
<MEAN> 13
 3.831447e+00 1.322261e+00 -2.166760e+00 8.737749e-01 6.852287e+00 -3.275943e+00 -1.164406e+01 -7.816008e+00 3.896772e+00 -3.074171e-01 -1.311724e+01 -7.528052e+00 5.831608e+01
<VARIANCE> 13
 1.243057e+01 1.112998e+02 1.784647e+01 2.078512e+02 6.471223e+01 8.631589e+01 2.340891e+02 6.240939e+01 6.299774e+01 6.489742e+01 4.453144e+01 6.157460e+01 8.271202e+01
<GCONST> 7.820852e+01
<STATE> 4
<MEAN> 13
 3.006132e+00 -4.201775e+00 -1.756908e+00 -4.431717e+00 4.413522e+00 -7.352245e+00 -7.775237e+00 -5.914173e+00 4.415563e+00 4.675354e-01 -1.346771e+01 -5.169430e+00 6.396483e+01
<VARIANCE> 13
 1.546048e+01 5.506217e+01 2.111149e+01 1.245550e+02 8.027759e+01 7.470403e+01 1.830122e+02 7.865120e+01 5.220816e+01 4.743430e+01 5.479150e+01 6.348321e+01 3.186560e+01
<GCONST> 7.621773e+01
<TRANSP> 5
 0.000000e+00 1.000000e+00 0.000000e+00 0.000000e+00 0.000000e+00
 0.000000e+00 4.858571e-01 5.141429e-01 0.000000e+00 0.000000e+00
 0.000000e+00 0.000000e+00 2.648948e-01 7.351053e-01 0.000000e+00
 0.000000e+00 0.000000e+00 0.000000e+00 1.220688e-01 8.779312e-01
 0.000000e+00 0.000000e+00 0.000000e+00 0.000000e+00 0.000000e+00
<ENDHMM>
~h "g"
<BEGINHMM>
<NUMSTATES> 5
<STATE> 2
<MEAN> 13
 -6.298218e+00 1.832792e-01 2.246430e+01 -9.955469e+00 -7.017617e+00 -1.070372e+01 -5.039541e+00 -1.139874e+01 -1.083697e+01 7.688152e-01 -1.965950e+00 -6.922716e+00 6.559601e+01
<VARIANCE> 13
 1.032699e+01 4.243356e+01 1.005918e+02 1.415760e+02 9.269736e+01 2.573572e+01 4.467947e+01 2.455738e+01 2.034599e+01 3.319936e+01 1.075846e+02 6.020146e+01 5.993330e+01
<GCONST> 7.370137e+01
<STATE> 3
<MEAN> 13
 -1.913221e+00 1.686068e+00 1.139079e+01 9.130942e-01 -9.833632e+00 -1.398261e+01 -4.857448e+00 -2.972486e+00 -6.072487e+00 -1.583924e+00 -3.858359e+00 -7.310946e+00 6.045483e+01
<VARIANCE> 13
 5.429342e+00 1.073572e+02 5.863826e+01 5.731512e+01 7.799416e+01 9.427794e+01 5.501707e+01 3.120749e+01 3.481289e+01 2.229104e+01 5.970701e+01 6.545677e+01 1.051938e+02
<GCONST> 7.431233e+01
<STATE> 4
<MEAN> 13
 1.276173e+00 -1.646496e+01 -9.366092e+00 -6.182631e+00 -1.174726e+01 -7.295414e+00 -1.446691e+01 6.618500e+00 3.651368e+00 2.826159e+00 -8.080424e+00 -2.259615e+01 7.676550e+01
<VARIANCE> 13
 3.960696e+00 4.456969e+01 3.570803e+01 2.132834e+01 3.697893e+01 7.059425e+01 1.781108e+01 1.983586e+01 1.917825e+01 1.366040e+01 2.161298e+01 5.039718e+01 4.536217e+01
<GCONST> 6.581209e+01
<TRANSP> 5
 0.000000e+00 1.000000e+00 0.000000e+00 0.000000e+00 0.000000e+00
 0.000000e+00 8.276683e-01 1.723317e-01 0.000000e+00 0.000000e+00
 0.000000e+00 0.000000e+00 8.464026e-01 1.535973e-01 0.000000e+00
 0.000000e+00 0.000000e+00 0.000000e+00 8.468121e-01 1.531879e-01
 0.000000e+00 0.000000e+00 0.000000e+00 0.000000e+00 0.000000e+00
<ENDHMM>
~h "j"
<BEGINHMM>
<NUMSTATES> 5
<STATE> 2
<MEAN> 13
 -6.308832e+00 1.926719e+01 3.023682e+01 -9.163754e+00 -2.303698e+00 -3.913330e+00 -1.146333e+01 -3.628268e+00 -1.764851e+01 2.821154e+00 -1.839705e+00 -6.359835e+00 4.845096e+01
<VARIANCE> 13
 5.635030e+00 5.156330e+01 1.233639e+02 1.512303e+02 2.182383e+01 2.759956e+01 4.672409e+01 2.140660e+01 6.352787e+01 4.041504e+01 1.672906e+01 8.348063e+00 6.584566e+01
<GCONST> 6.968409e+01
<STATE> 3
<MEAN> 13
 -1.195228e+00 -1.428814e+00 1.214540e+01 6.859697e+00 -1.420747e+01 -8.992833e+00 -1.115175e+01 -4.547507e+00 -5.976433e+00 -5.033704e+00 1.438098e+00 -7.775450e+00 6.195766e+01
<VARIANCE> 13
 3.751334e+01 3.585077e+01 1.789911e+02 6.876026e+01 6.748341e+01 7.656522e+01 1.501717e+02 6.038878e+01 4.454202e+01 2.793472e+01 4.524084e+01 5.029926e+01 8.052284e+01
<GCONST> 7.742186e+01
<STATE> 4
<MEAN> 13
 1.011004e+01 1.533158e+01 -5.216037e+00 4.102548e+00 -4.719573e+00 9.128213e+00 -1.050839e+01 -1.616702e+01 -1.238048e+01 -4.672059e+00 -1.384344e+00 -2.373726e+00 4.755819e+01
<VARIANCE> 13
 1.919545e+01 7.324309e+01 3.849568e+01 2.730562e+01 1.455373e+01 2.796903e+01 2.187503e+01 2.054350e+01 2.160228e+01 2.633569e+01 2.284539e+01 2.969201e+01 5.365612e+01
<GCONST> 6.706128e+01
<TRANSP> 5
 0.000000e+00 1.000000e+00 0.000000e+00 0.000000e+00 0.000000e+00
 0.000000e+00 8.818249e-01 1.181751e-01 0.000000e+00 0.000000e+00
 0.000000e+00 0.000000e+00 8.880726e-01 1.119274e-01 0.000000e+00
 0.000000e+00 0.000000e+00 0.000000e+00 8.233110e-01 1.766891e-01
 0.000000e+00 0.000000e+00 0.000000e+00 0.000000e+00 0.000000e+00
<ENDHMM>
~h "k"
<BEGINHMM>
<NUMSTATES> 5
<STATE> 2
<MEAN> 13
 -8.731152e+00 3.185088e+00 -4.950682e+00 7.765755e-01 8.661689e-02 4.470237e-01 -2.466489e+00 -1.157972e+00 1.454136e+00 8.892595e-01 2.675495e-01 -2.041748e+00 4.687069e+01
<VARIANCE> 13
 3.548485e+01 4.285866e+01 3.529697e+01 2.792320e+01 3.472049e+01 2.474242e+01 4.616355e+01 2.252949e+01 2.404878e+01 3.128481e+01 2.032812e+01 1.997588e+01 1.318991e+02
<GCONST> 6.932732e+01
<STATE> 3
<MEAN> 13
 -9.158859e+00 -2.823128e+00 -9.461021e+00 3.214483e+00 6.208672e+00 -1.314746e+00 -3.513916e+00 1.400092e+00 2.755678e+00 2.995873e+00 -2.036448e+00 -2.637780e+00 5.074827e+01
<VARIANCE> 13
 2.891735e+01 8.075220e+01 6.259243e+01 4.772712e+01 5.376804e+01 8.724657e+01 3.893614e+01 4.237734e+01 4.328586e+01 3.742482e+01 3.248766e+01 2.355993e+01 1.577046e+02
<GCONST> 7.460361e+01
<STATE> 4
<MEAN> 13
 -1.093612e+01 -2.938445e-01 -1.134035e+01 1.217599e+00 1.256921e+01 -1.927633e+00 -6.250889e-02 -8.039024e-01 -3.983213e-01 5.176320e+00 4.066376e-01 -2.163725e+00 4.637588e+01
<VARIANCE> 13
 7.371953e+01 1.466293e+02 1.768719e+02 1.947693e+02 1.337323e+02 3.778834e+02 6.333466e+01 1.697981e+02 1.152443e+02 8.658210e+01 9.595222e+01 7.098646e+01 2.230859e+02
<GCONST> 8.718333e+01
<TRANSP> 5
 0.000000e+00 1.000000e+00 0.000000e+00 0.000000e+00 0.000000e+00
 0.000000e+00 7.557011e-01 2.442988e-01 0.000000e+00 0.000000e+00
 0.000000e+00 0.000000e+00 3.185745e-01 6.814256e-01 0.000000e+00
 0.000000e+00 0.000000e+00 0.000000e+00 6.855227e-01 3.144773e-01
 0.000000e+00 0.000000e+00 0.000000e+00 0.000000e+00 0.000000e+00
<ENDHMM>
~h "l"
<BEGINHMM>
<NUMSTATES> 5
<STATE> 2
<MEAN> 13
 3.990304e+00 -1.625808e+01 -1.404406e+01 -1.033415e+01 -3.127245e+00 1.789319e-01 -1.082449e+01 -1.620277e-01 -6.355530e-01 5.451925e+00 -1.105928e+01 -1.769305e+01 7.538878e+01
<VARIANCE> 13
 3.377827e+00 1.129650e+01 1.168176e+01 1.451408e+01 3.764748e+01 1.147421e+01 1.943970e+01 1.381744e+01 1.783868e+01 2.404463e+01 1.579477e+01 3.633066e+01 9.143507e+00
<GCONST> 5.895555e+01
<STATE> 3
<MEAN> 13
 4.071170e+00 -1.162124e+01 -3.930143e+00 -2.077942e+01 1.724046e+01 -3.242990e+00 -5.892685e+00 -3.465203e+00 7.536271e+00 3.840381e+00 -2.054547e+01 1.577931e+00 7.031602e+01
<VARIANCE> 13
 5.190353e+00 2.397908e+01 1.699890e+01 1.708130e+01 4.507749e+01 2.221167e+01 3.613208e+01 2.320530e+01 2.789511e+01 3.466988e+01 2.911568e+01 3.412695e+01 1.105271e+01
<GCONST> 6.420645e+01
<STATE> 4
<MEAN> 13
 6.313347e+00 -7.410836e+00 -6.224098e+00 -1.493218e+01 6.074378e+00 5.832876e-01 -5.788888e+00 -2.797669e+00 8.391483e-01 7.454464e+00 -1.275545e+01 -6.001394e+00 6.798705e+01
<VARIANCE> 13
 2.281401e+01 1.425705e+02 3.300598e+01 4.298244e+01 1.038496e+02 4.351442e+01 2.734785e+01 2.438981e+01 7.254073e+01 2.205911e+01 8.416170e+01 7.053574e+01 4.864034e+01
<GCONST> 7.410712e+01
<TRANSP> 5
 0.000000e+00 1.000000e+00 0.000000e+00 0.000000e+00 0.000000e+00
 0.000000e+00 8.781306e-01 1.218695e-01 0.000000e+00 0.000000e+00
 0.000000e+00 0.000000e+00 8.655704e-01 1.344296e-01 0.000000e+00
 0.000000e+00 0.000000e+00 0.000000e+00 1.370234e-01 8.629765e-01
 0.000000e+00 0.000000e+00 0.000000e+00 0.000000e+00 0.000000e+00
<ENDHMM>
~h "m"
<BEGINHMM>
<NUMSTATES> 5
<STATE> 2
<MEAN> 13
 3.298995e+00 2.685647e-01 -8.105144e-01 9.941224e-01 2.333594e+00 -5.433410e+00 -4.141023e+00 -1.086134e+01 -9.180190e+00 -3.626871e-01 -5.797739e+00 -6.173403e+00 6.071335e+01
<VARIANCE> 13
 4.736409e+00 2.494113e+01 1.867369e+01 2.194293e+01 5.033013e+01 3.590126e+01 2.238039e+01 2.892903e+01 3.524477e+01 1.812423e+01 3.200372e+01 3.792453e+01 1.441063e+01
<GCONST> 6.488115e+01
<STATE> 3
<MEAN> 13
 4.579734e+00 4.494383e+00 -1.028851e+00 1.136450e+00 1.375060e+01 1.037850e+00 -7.915497e+00 -1.624085e+01 -1.107613e+01 1.019433e+00 -1.061398e+01 4.102265e+00 5.570956e+01
<VARIANCE> 13
 1.369594e+01 3.809703e+01 4.256881e+01 4.784261e+01 9.073360e+01 6.477112e+01 5.278211e+01 5.230376e+01 4.123194e+01 4.343316e+01 5.310237e+01 6.121054e+01 2.702365e+01
<GCONST> 7.324440e+01
<STATE> 4
<MEAN> 13
 -5.161967e-01 1.251866e+01 -1.031833e+00 8.525535e+00 7.937050e+00 5.550157e+00 -9.550685e+00 -6.506694e+00 -6.153497e+00 -3.334245e+00 -3.463263e+00 -2.674581e+00 4.386786e+01
<VARIANCE> 13
 7.741343e+01 9.394134e+01 9.003070e+01 1.608109e+02 1.005340e+02 9.767775e+01 7.385865e+01 8.451911e+01 9.180945e+01 3.563898e+01 4.736950e+01 4.744184e+01 1.487952e+02
<GCONST> 8.110913e+01
<TRANSP> 5
 0.000000e+00 1.000000e+00 0.000000e+00 0.000000e+00 0.000000e+00
 0.000000e+00 6.796917e-01 3.203083e-01 0.000000e+00 0.000000e+00
 0.000000e+00 0.000000e+00 6.198252e-01 3.801747e-01 0.000000e+00
 0.000000e+00 0.000000e+00 0.000000e+00 7.057805e-01 2.942196e-01
 0.000000e+00 0.000000e+00 0.000000e+00 0.000000e+00 0.000000e+00
<ENDHMM>
~h "n"
<BEGINHMM>
<NUMSTATES> 5
<STATE> 2
<MEAN> 13
 2.834816e+00 1.609802e+00 1.342147e+00 1.384590e+00 -4.508351e+00 -1.026429e+01 -6.803104e+00 -8.826684e+00 -2.306425e+00 -9.844797e-01 -9.708210e+00 -5.030268e+00 5.973531e+01
<VARIANCE> 13
 1.245864e+01 2.100407e+01 2.122164e+01 4.838946e+01 6.897010e+01 5.393732e+01 1.893834e+01 4.898538e+01 2.098909e+01 3.186747e+01 4.788450e+01 6.973100e+01 1.734159e+01
<GCONST> 6.892018e+01
<STATE> 3
<MEAN> 13
 6.593535e+00 8.935767e+00 -8.625579e-01 -6.691739e+00 1.483782e+00 3.793435e+00 -1.181607e+01 -7.986512e+00 -5.863029e-01 -4.829156e+00 -1.108761e+01 7.078928e+00 5.499842e+01
<VARIANCE> 13
 2.749199e+01 3.533715e+01 4.129513e+01 3.874113e+02 1.151337e+02 1.975768e+02 1.015885e+02 8.551458e+01 6.541029e+01 7.849551e+01 8.123095e+01 1.086311e+02 4.607662e+01
<GCONST> 8.101259e+01
<STATE> 4
<MEAN> 13
 -3.241686e+00 1.649154e+01 1.774373e+00 1.099546e+01 -4.519493e-01 3.307422e+00 -8.139286e+00 -4.437955e+00 -3.205912e+00 -5.350468e+00 -4.375462e+00 -6.682444e-01 3.907395e+01
<VARIANCE> 13
 1.018410e+02 7.962862e+01 3.805367e+01 1.255705e+02 3.861313e+01 5.298672e+01 4.644871e+01 6.182425e+01 4.011100e+01 2.932449e+01 3.694189e+01 3.596956e+01 1.133007e+02
<GCONST> 7.594347e+01
<TRANSP> 5
 0.000000e+00 1.000000e+00 0.000000e+00 0.000000e+00 0.000000e+00
 0.000000e+00 7.773033e-01 2.226967e-01 0.000000e+00 0.000000e+00
 0.000000e+00 0.000000e+00 6.728930e-01 3.271070e-01 0.000000e+00
 0.000000e+00 0.000000e+00 0.000000e+00 7.839726e-01 2.160273e-01
 0.000000e+00 0.000000e+00 0.000000e+00 0.000000e+00 0.000000e+00
<ENDHMM>
~h "p"
<BEGINHMM>
<NUMSTATES> 5
<STATE> 2
<MEAN> 13
 -1.051749e+01 2.004586e+00 -8.014336e+00 9.935053e-01 -3.611403e+00 -6.034237e-01 -7.829138e+00 -9.339708e-01 -2.237477e+00 -7.408001e-01 -2.402054e+00 -4.052660e+00 3.977171e+01
<VARIANCE> 13
 8.190498e+01 4.443425e+01 3.874598e+01 3.983680e+01 5.547031e+01 4.244897e+01 6.637439e+01 7.261965e+01 4.412593e+01 3.235616e+01 7.025342e+01 2.496548e+01 1.666429e+02
<GCONST> 7.552779e+01
<STATE> 3
<MEAN> 13
 -5.465274e+00 2.410470e+00 -5.336952e+00 3.540844e+00 -8.487616e-01 -1.303793e-01 -1.272856e+00 1.184153e+00 2.756377e+00 1.005936e+00 -1.898662e+00 -3.126526e+00 4.842514e+01
<VARIANCE> 13
 3.028597e+01 5.725844e+01 4.334177e+01 4.627121e+01 3.953374e+01 6.524980e+01 3.419615e+01 3.245909e+01 3.032903e+01 2.418318e+01 2.791039e+01 2.355420e+01 1.400100e+02
<GCONST> 7.184954e+01
<STATE> 4
<MEAN> 13
 3.898920e+00 -5.394296e+00 -7.640073e+00 -2.103021e+00 -1.615708e+00 -6.190783e+00 -9.279048e-01 -8.763705e-01 1.923127e+00 4.668169e+00 -2.095910e+00 -3.432567e+00 6.253048e+01
<VARIANCE> 13
 2.815893e+01 2.266631e+01 4.450155e+01 7.209088e+01 9.511921e+01 8.372912e+01 6.447709e+01 5.853062e+01 4.846479e+01 3.486788e+01 3.603486e+01 3.242548e+01 5.734915e+01
<GCONST> 7.418816e+01
<TRANSP> 5
 0.000000e+00 1.000000e+00 0.000000e+00 0.000000e+00 0.000000e+00
 0.000000e+00 6.282783e-01 3.717217e-01 0.000000e+00 0.000000e+00
 0.000000e+00 0.000000e+00 5.868784e-01 4.131216e-01 0.000000e+00
 0.000000e+00 0.000000e+00 0.000000e+00 1.322460e-01 8.677540e-01
 0.000000e+00 0.000000e+00 0.000000e+00 0.000000e+00 0.000000e+00
<ENDHMM>
~h "r"
<BEGINHMM>
<NUMSTATES> 5
<STATE> 2
<MEAN> 13
 3.481388e+00 -9.738014e+00 -5.205686e+00 3.349246e-01 -4.812385e+00 -1.013229e+01 -5.628414e+00 3.393744e-01 3.450724e+00 6.444026e+00 -5.886261e+00 -1.083397e+01 6.666641e+01
<VARIANCE> 13
 7.452101e+00 2.340340e+01 3.444531e+01 3.242809e+01 6.722579e+01 2.498235e+01 3.787582e+01 3.838839e+01 2.807252e+01 6.292896e+01 3.126048e+01 7.326736e+01 1.718980e+01
<GCONST> 6.883805e+01
<STATE> 3
<MEAN> 13
 2.360651e+00 -7.690981e+00 4.918714e-01 2.958842e+00 4.076796e-01 -8.661778e+00 -2.582315e+00 5.148481e+00 1.438480e+00 1.189054e+00 -2.797553e+00 -3.278521e+00 6.210963e+01
<VARIANCE> 13
 1.946179e+01 5.857408e+01 3.794778e+01 4.789795e+01 4.876121e+01 3.093102e+01 5.927327e+01 6.583025e+01 2.646380e+01 4.214745e+01 6.430874e+01 5.695057e+01 2.422031e+01
<GCONST> 7.243439e+01
<STATE> 4
<MEAN> 13
 -4.261176e+00 1.366015e+00 -6.558542e-01 1.589122e+01 2.820460e+00 -9.384371e-02 -8.036960e-01 8.503091e+00 2.493081e+00 -2.218392e+00 -3.116354e+00 -1.404650e+00 4.566547e+01
<VARIANCE> 13
 6.491351e+01 1.345813e+02 5.406266e+01 1.851272e+02 7.350645e+01 1.331086e+02 7.244635e+01 6.402563e+01 5.602352e+01 6.821983e+01 5.610944e+01 5.107647e+01 2.144585e+02
<GCONST> 8.138674e+01
<TRANSP> 5
 0.000000e+00 1.000000e+00 0.000000e+00 0.000000e+00 0.000000e+00
 0.000000e+00 5.508612e-01 4.491388e-01 0.000000e+00 0.000000e+00
 0.000000e+00 0.000000e+00 5.871434e-01 4.128565e-01 0.000000e+00
 0.000000e+00 0.000000e+00 0.000000e+00 6.866704e-01 3.133296e-01
 0.000000e+00 0.000000e+00 0.000000e+00 0.000000e+00 0.000000e+00
<ENDHMM>
~h "s"
<BEGINHMM>
<NUMSTATES> 5
<STATE> 2
<MEAN> 13
 -1.102687e+01 4.909932e+00 -3.817588e+00 2.687020e+00 8.596905e+00 -1.422309e+01 5.548009e+00 -1.536607e+00 4.049482e+00 -6.825275e-01 -3.000216e+00 5.551879e-01 5.827528e+01
<VARIANCE> 13
 8.755632e+01 7.565679e+01 8.834801e+01 5.951975e+01 1.088028e+02 5.060949e+01 8.606370e+01 3.586026e+01 3.042320e+01 3.238900e+01 6.537704e+01 3.467522e+01 1.677067e+02
<GCONST> 7.764832e+01
<STATE> 3
<MEAN> 13
 -1.693506e+01 5.852833e+00 -6.966592e+00 1.069288e+01 4.717421e+00 -9.544372e+00 7.553850e+00 1.414717e+00 6.602264e+00 8.845073e-02 1.088960e+00 -1.515592e+00 6.224032e+01
<VARIANCE> 13
 1.923743e+01 2.933487e+01 3.526007e+01 4.838475e+01 4.690440e+01 3.495417e+01 3.930729e+01 2.506234e+01 2.028093e+01 2.420744e+01 1.869370e+01 1.946817e+01 2.769024e+01
<GCONST> 6.737929e+01
<STATE> 4
<MEAN> 13
 -2.647206e+01 8.110725e-01 -1.553597e+00 -2.227130e+00 1.685628e+01 -1.847671e+01 9.736792e+00 -1.087647e+00 7.556851e+00 -8.597842e+00 6.927220e-01 2.455851e+00 5.420689e+01
<VARIANCE> 13
 6.049214e+01 7.086819e+01 5.357765e+01 3.942002e+01 8.102640e+01 6.186162e+01 9.599284e+01 5.211764e+01 6.177346e+01 5.316848e+01 3.621901e+01 5.162637e+01 5.835118e+01
<GCONST> 7.664564e+01
<TRANSP> 5
 0.000000e+00 1.000000e+00 0.000000e+00 0.000000e+00 0.000000e+00
 0.000000e+00 2.757923e-01 7.242077e-01 0.000000e+00 0.000000e+00
 0.000000e+00 0.000000e+00 7.652997e-01 2.347003e-01 0.000000e+00
 0.000000e+00 0.000000e+00 0.000000e+00 8.332402e-01 1.667598e-01
 0.000000e+00 0.000000e+00 0.000000e+00 0.000000e+00 0.000000e+00
<ENDHMM>
~h "t"
<BEGINHMM>
<NUMSTATES> 5
<STATE> 2
<MEAN> 13
 -6.786955e+00 -1.357309e+00 -7.473374e+00 -1.119091e+00 1.059976e+00 -6.485137e-01 -4.431162e+00 -1.586303e+00 5.010385e+00 -7.222934e-01 -3.667079e+00 -2.705184e+00 4.910081e+01
<VARIANCE> 13
 5.352233e+01 7.036387e+01 8.485575e+01 1.068817e+02 4.654589e+01 8.843542e+01 9.272857e+01 7.274056e+01 6.681241e+01 7.028849e+01 5.056761e+01 3.829523e+01 1.248711e+02
<GCONST> 7.922856e+01
<STATE> 3
<MEAN> 13
 2.607220e+00 -3.459321e+00 -4.494636e+00 -1.421744e+01 -1.061211e+01 -2.170293e+00 -1.500402e+01 -7.742574e+00 -5.129672e+00 -1.469268e-01 7.057473e-01 -8.990056e+00 6.820988e+01
<VARIANCE> 13
 2.144645e+01 3.115893e+01 1.989089e+01 8.591657e+01 7.745118e+01 3.366585e+01 6.013615e+01 3.042161e+01 3.575794e+01 2.848836e+01 2.400612e+01 4.148390e+01 8.039320e+01
<GCONST> 7.143541e+01
<STATE> 4
<MEAN> 13
 3.742611e+00 4.074273e+00 -4.583505e-01 -1.193219e+01 5.737925e+00 4.355720e+00 -1.648044e+01 -1.240576e+01 -5.767918e+00 2.560431e+00 -7.932614e+00 2.433700e-01 5.734398e+01
<VARIANCE> 13
 4.096308e+01 9.984255e+01 3.105989e+01 2.187946e+02 6.924204e+01 5.180441e+01 1.052758e+02 7.426444e+01 6.739678e+01 6.068028e+01 6.475381e+01 4.952910e+01 1.346838e+02
<GCONST> 7.947432e+01
<TRANSP> 5
 0.000000e+00 1.000000e+00 0.000000e+00 0.000000e+00 0.000000e+00
 0.000000e+00 7.300537e-01 2.699463e-01 0.000000e+00 0.000000e+00
 0.000000e+00 0.000000e+00 6.939552e-01 3.060448e-01 0.000000e+00
 0.000000e+00 0.000000e+00 0.000000e+00 7.950613e-01 2.049386e-01
 0.000000e+00 0.000000e+00 0.000000e+00 0.000000e+00 0.000000e+00
<ENDHMM>
~h "w"
<BEGINHMM>
<NUMSTATES> 5
<STATE> 2
<MEAN> 13
 -2.334566e+01 -2.848963e+00 -2.302680e+00 -6.657812e+00 2.202714e+01 -1.078096e+01 1.534856e+00 2.520883e+00 7.266602e+00 -6.156391e+00 6.836511e-01 -7.152809e+00 6.181912e+01
<VARIANCE> 13
 6.249249e+01 4.350658e+01 5.580108e+01 4.241078e+01 4.520536e+01 2.086735e+01 5.638589e+01 2.174771e+01 2.868241e+01 1.278037e+01 1.676569e+01 1.653706e+01 1.216157e+01
<GCONST> 6.755811e+01
<STATE> 3
<MEAN> 13
 -1.838769e+01 2.817472e+00 -1.593327e+00 5.740827e+00 5.790318e+00 -2.263256e+00 -4.040310e+00 3.440010e+00 7.233724e+00 1.539589e+00 1.863056e+00 -4.220741e+00 6.456831e+01
<VARIANCE> 13
 7.302467e+01 4.562758e+00 2.478330e+01 2.079548e+01 1.362672e+01 2.849714e+01 1.206199e+01 1.201760e+01 1.314040e+01 1.068421e+01 3.625556e+01 9.427594e+00 4.197564e+00
<GCONST> 5.909750e+01
<STATE> 4
<MEAN> 13
 4.286596e+00 -2.161254e+00 6.932132e-01 -1.319972e+00 -5.103313e+00 -4.996484e+00 -1.642773e+01 -6.470282e+00 -6.265971e+00 5.284418e+00 4.745018e+00 -6.698551e+00 6.863981e+01
<VARIANCE> 13
 5.886957e+00 8.092432e+00 3.684053e+01 7.764087e+00 1.447558e+01 3.385190e+01 4.782848e+01 2.975575e+01 4.492927e+01 1.148388e+01 6.514718e+01 5.092739e+01 8.011388e+00
<GCONST> 6.330123e+01
<TRANSP> 5
 0.000000e+00 1.000000e+00 0.000000e+00 0.000000e+00 0.000000e+00
 0.000000e+00 8.655353e-01 1.344648e-01 0.000000e+00 0.000000e+00
 0.000000e+00 0.000000e+00 7.809311e-01 2.190690e-01 0.000000e+00
 0.000000e+00 0.000000e+00 0.000000e+00 7.125034e-01 2.874967e-01
 0.000000e+00 0.000000e+00 0.000000e+00 0.000000e+00 0.000000e+00
<ENDHMM>
~h "ah"
<BEGINHMM>
<NUMSTATES> 5
<STATE> 2
<MEAN> 13
 3.383140e+00 -1.068662e+01 -8.555624e+00 -9.062509e+00 8.935750e+00 -8.912830e+00 1.585881e+00 -2.918318e+00 2.392703e-01 4.990683e+00 -1.036874e+01 -7.197404e+00 6.943605e+01
<VARIANCE> 13
 1.692599e+01 2.391981e+01 4.061305e+01 9.858809e+01 1.145095e+02 9.587917e+01 1.167812e+02 4.674734e+01 3.985688e+01 7.148074e+01 5.260799e+01 4.978171e+01 1.892889e+01
<GCONST> 7.486573e+01
<STATE> 3
<MEAN> 13
 3.413724e+00 -1.667322e+01 -1.270091e+01 -6.213166e+00 -2.255128e+00 -3.772197e+00 -5.538700e+00 2.062172e+00 -2.083709e+00 5.592358e+00 -1.330147e+01 -1.333673e+01 7.486385e+01
<VARIANCE> 13
 4.089056e+00 1.753146e+01 2.609062e+01 3.362757e+01 6.398125e+01 3.311071e+01 4.569374e+01 3.000857e+01 3.440246e+01 2.687688e+01 3.086829e+01 5.273228e+01 1.457521e+01
<GCONST> 6.672720e+01
<STATE> 4
<MEAN> 13
 2.635541e+00 -1.174933e+01 -4.768595e+00 -1.133840e+01 1.223330e+01 -9.883416e+00 2.206996e+00 -2.383662e+00 6.788826e+00 2.585276e-01 -1.630652e+01 -1.096339e+00 6.817504e+01
<VARIANCE> 13
 6.921181e+00 2.741515e+01 2.227308e+01 5.486833e+01 9.314603e+01 4.158575e+01 5.551448e+01 5.507948e+01 4.119325e+01 6.243549e+01 4.405136e+01 6.157469e+01 2.740465e+01
<GCONST> 7.160248e+01
<TRANSP> 5
 0.000000e+00 1.000000e+00 0.000000e+00 0.000000e+00 0.000000e+00
 0.000000e+00 4.351172e-01 5.648828e-01 0.000000e+00 0.000000e+00
 0.000000e+00 0.000000e+00 7.773244e-01 2.226757e-01 0.000000e+00
 0.000000e+00 0.000000e+00 0.000000e+00 6.849529e-01 3.150471e-01
 0.000000e+00 0.000000e+00 0.000000e+00 0.000000e+00 0.000000e+00
<ENDHMM>
~h "ax"
<BEGINHMM>
<NUMSTATES> 5
<STATE> 2
<MEAN> 13
 1.891307e+00 -6.690599e+00 8.609611e+00 -2.723294e+00 -7.863285e+00 -1.563234e+01 -7.790388e+00 3.145870e+00 -6.882877e+00 4.456433e+00 -3.892088e+00 -1.309613e-01 6.787721e+01
<VARIANCE> 13
 5.214463e+00 2.514966e+01 8.809186e+01 4.727213e+01 1.788311e+02 5.523046e+01 3.178528e+01 7.859938e+01 9.800882e+01 2.707441e+01 6.343311e+01 3.153194e+01 2.274810e+01
<GCONST> 7.273342e+01
<STATE> 3
<MEAN> 13
 3.936037e+00 -1.381042e+01 -7.273365e+00 -5.101206e+00 -1.136611e+00 -4.522573e+00 -4.153277e+00 2.308153e+00 -1.129132e+00 7.734776e+00 -1.581214e+01 -8.154261e+00 7.281827e+01
<VARIANCE> 13
 4.054300e+00 2.937221e+01 3.169649e+01 2.914177e+01 8.235468e+01 6.799506e+01 1.745967e+01 6.748817e+01 2.711866e+01 1.766349e+01 3.730180e+01 5.935732e+01 2.054481e+01
<GCONST> 6.809987e+01
<STATE> 4
<MEAN> 13
 6.491712e-01 -3.198372e+00 -4.745627e+00 -3.144173e+00 7.162002e-01 -6.422113e+00 -5.677634e+00 -9.623504e-01 3.009541e+00 6.780241e+00 -5.204377e+00 -7.134593e+00 6.261525e+01
<VARIANCE> 13
 2.203447e+01 3.037403e+01 3.449364e+01 3.028630e+01 7.234909e+01 7.801562e+01 6.390590e+01 5.079910e+01 4.912233e+01 4.480849e+01 4.131790e+01 5.503787e+01 6.113427e+01
<GCONST> 7.361287e+01
<TRANSP> 5
 0.000000e+00 1.000000e+00 0.000000e+00 0.000000e+00 0.000000e+00
 0.000000e+00 7.502858e-01 2.497142e-01 0.000000e+00 0.000000e+00
 0.000000e+00 0.000000e+00 7.481973e-01 2.518027e-01 0.000000e+00
 0.000000e+00 0.000000e+00 0.000000e+00 7.521909e-01 2.478092e-01
 0.000000e+00 0.000000e+00 0.000000e+00 0.000000e+00 0.000000e+00
<ENDHMM>
~h "ay"
<BEGINHMM>
<NUMSTATES> 5
<STATE> 2
<MEAN> 13
 -1.514226e+01 3.555670e+00 -6.895094e+00 1.300149e+01 6.552772e+00 -8.093147e+00 9.471044e+00 3.560125e+00 7.040021e+00 7.706183e-01 -9.081939e-01 -2.026755e-01 6.194484e+01
<VARIANCE> 13
 1.721996e+01 1.563753e+01 2.283698e+01 3.246768e+01 2.198130e+01 1.672196e+01 1.945861e+01 1.956146e+01 2.482213e+01 2.800174e+01 1.901712e+01 1.245059e+01 8.327284e+00
<GCONST> 6.207618e+01
<STATE> 3
<MEAN> 13
 3.548276e+00 -5.667591e+00 -6.474585e+00 -6.730977e+00 9.798099e+00 -6.805119e+00 -1.006570e+00 1.092922e+00 1.166333e+01 -3.915564e+00 -1.529370e+01 5.326555e+00 6.490024e+01
<VARIANCE> 13
 1.628556e+01 1.830425e+01 2.430528e+01 8.044834e+01 8.210704e+01 4.672383e+01 2.319787e+01 1.148571e+01 2.574642e+01 4.635802e+01 5.059769e+01 5.163177e+01 1.294913e+01
<GCONST> 6.851933e+01
<STATE> 4
<MEAN> 13
 8.224810e-01 -1.208599e+01 6.729009e+00 -1.789741e+01 4.282085e+00 -1.687952e+01 8.655416e+00 1.479205e+00 1.471916e+00 3.681988e-01 -1.162475e+01 4.592994e+00 7.068932e+01
<VARIANCE> 13
 5.313044e+00 1.277026e+01 7.628364e+01 2.234264e+01 8.018203e+01 2.624301e+01 2.685336e+01 3.126952e+01 5.288333e+01 4.248998e+01 3.631651e+01 1.599065e+01 6.532878e+00
<GCONST> 6.589386e+01
<TRANSP> 5
 0.000000e+00 1.000000e+00 0.000000e+00 0.000000e+00 0.000000e+00
 0.000000e+00 7.843824e-01 2.156176e-01 0.000000e+00 0.000000e+00
 0.000000e+00 0.000000e+00 5.013450e-01 4.986550e-01 0.000000e+00
 0.000000e+00 0.000000e+00 0.000000e+00 9.214001e-01 7.859985e-02
 0.000000e+00 0.000000e+00 0.000000e+00 0.000000e+00 0.000000e+00
<ENDHMM>
~h "eh"
<BEGINHMM>
<NUMSTATES> 5
<STATE> 2
<MEAN> 13
 2.127537e+00 -1.321540e+01 8.268496e-01 -3.405463e-01 -1.810278e+01 -1.646858e+01 -1.458622e+01 8.935034e+00 -1.575299e+00 1.311793e+00 4.534822e-01 -1.190072e+01 7.164510e+01
<VARIANCE> 13
 1.696441e+00 1.282747e+01 2.692745e+01 1.625512e+01 4.603528e+01 1.952164e+01 1.787018e+01 2.007829e+01 2.151978e+01 1.062169e+01 4.072380e+01 6.866154e+01 1.126869e+01
<GCONST> 6.152768e+01
<STATE> 3
<MEAN> 13
 2.988122e+00 -1.086232e+01 8.512435e+00 -1.167094e+01 -1.228301e-01 -1.687851e+01 -1.271779e+01 2.762205e+00 -4.194276e+00 5.033651e+00 -4.646172e+00 -2.022800e+00 6.976212e+01
<VARIANCE> 13
 1.420587e+00 5.572435e+00 2.308554e+01 7.812664e+00 2.542542e+01 9.291460e+01 8.842311e+01 1.637783e+02 4.226869e+01 7.697734e+00 3.709393e+01 1.192531e+02 3.465925e+00
<GCONST> 6.392699e+01
<STATE> 4
<MEAN> 13
 5.818629e+00 1.057516e-01 4.367809e-01 -1.256001e+01 1.160675e+01 -1.043294e+01 -1.468934e+01 -6.204643e+00 -7.897049e+00 1.543806e+01 -1.070927e+01 -9.710272e-01 6.187935e+01
<VARIANCE> 13
 8.376713e+00 3.696584e+01 1.464662e+01 2.722754e+01 6.505684e+01 1.028315e+02 1.313765e+01 5.873977e+01 1.631480e+01 1.992118e+01 4.653902e+01 2.612593e+01 2.084112e+01
<GCONST> 6.699725e+01
<TRANSP> 5
 0.000000e+00 1.000000e+00 0.000000e+00 0.000000e+00 0.000000e+00
 0.000000e+00 8.401666e-01 1.598334e-01 0.000000e+00 0.000000e+00
 0.000000e+00 0.000000e+00 8.760291e-01 1.239708e-01 0.000000e+00
 0.000000e+00 0.000000e+00 0.000000e+00 7.892070e-01 2.107930e-01
 0.000000e+00 0.000000e+00 0.000000e+00 0.000000e+00 0.000000e+00
<ENDHMM>
~h "hh"
<BEGINHMM>
<NUMSTATES> 5
<STATE> 2
<MEAN> 13
 1.954547e+00 -6.664286e+00 3.394571e+00 -5.324193e+00 5.402584e+00 -1.992136e+01 -2.530449e+00 1.028316e+01 5.272737e-01 3.377057e-01 -1.560878e+01 5.260845e+00 6.289901e+01
<VARIANCE> 13
 5.968129e+00 7.810107e+01 2.482170e+01 2.064217e+02 4.733039e+01 5.269672e+01 6.901436e+01 3.459942e+01 3.684666e+01 3.314188e+01 2.340933e+01 5.077278e+01 8.745194e+01
<GCONST> 7.283749e+01
<STATE> 3
<MEAN> 13
 7.640222e-01 -1.661759e+01 -1.285009e+01 -6.398232e+00 -1.038202e+00 -3.231631e+00 -7.835538e+00 5.171201e+00 -2.397415e+00 -2.135878e+00 -1.666505e+01 -1.050226e+01 7.682326e+01
<VARIANCE> 13
 3.383582e+00 1.406989e+01 1.683189e+01 3.409713e+01 1.775698e+01 1.808905e+01 1.700339e+01 3.381403e+01 8.484540e+00 1.272975e+01 1.013947e+01 1.801669e+01 6.147720e+00
<GCONST> 5.794024e+01
<STATE> 4
<MEAN> 13
 4.023361e-01 -1.357137e+01 -1.114949e+00 -8.944863e+00 1.709921e+01 -7.291908e+00 1.064182e+01 -1.377823e+00 6.730267e+00 4.333862e+00 -2.199743e+01 1.724851e+00 6.759747e+01
<VARIANCE> 13
 7.841510e+00 6.886503e+00 1.285756e+01 7.351299e+01 3.001401e+01 4.897675e+01 4.577514e+01 2.564607e+01 2.877984e+01 2.443673e+01 2.622944e+01 2.026740e+01 1.677327e+01
<GCONST> 6.474538e+01
<TRANSP> 5
 0.000000e+00 1.000000e+00 0.000000e+00 0.000000e+00 0.000000e+00
 0.000000e+00 8.680345e-01 1.319655e-01 0.000000e+00 0.000000e+00
 0.000000e+00 0.000000e+00 9.340755e-01 6.592446e-02 0.000000e+00
 0.000000e+00 0.000000e+00 0.000000e+00 9.345692e-01 6.543085e-02
 0.000000e+00 0.000000e+00 0.000000e+00 0.000000e+00 0.000000e+00
<ENDHMM>
~h "ih"
<BEGINHMM>
<NUMSTATES> 5
<STATE> 2
<MEAN> 13
 8.818931e-01 1.096638e+01 1.846978e+00 -6.220886e+00 -8.586883e+00 6.018117e-01 -2.358988e+00 -7.640197e+00 -1.427257e+01 -3.969069e+00 -6.148165e+00 -2.015406e-01 4.830108e+01
<VARIANCE> 13
 1.041897e+02 1.126992e+02 1.872800e+02 1.117683e+02 4.889095e+01 9.518427e+01 1.652474e+02 5.188311e+01 4.518144e+01 1.037178e+02 5.037468e+01 4.443669e+01 1.780637e+02
<GCONST> 8.206228e+01
<STATE> 3
<MEAN> 13
 -2.229138e+00 -1.537873e+00 1.035892e+01 8.005283e-01 -1.719339e+01 -1.091446e+01 -8.941607e+00 -2.371594e+00 -1.138065e+01 -2.350787e-01 6.690361e+00 -1.138778e+01 6.513826e+01
<VARIANCE> 13
 1.746286e+01 3.902015e+01 4.832128e+01 4.007818e+01 7.299014e+01 4.491661e+01 7.800891e+01 3.667562e+01 3.027413e+01 2.294485e+01 4.832711e+01 4.821915e+01 8.924428e+01
<GCONST> 7.282784e+01
<STATE> 4
<MEAN> 13
 -1.522919e+01 7.348988e+00 -1.889770e-01 6.337891e+00 -1.056849e+00 1.834413e+00 -1.185418e+00 3.808120e+00 2.458079e-01 -8.703985e-01 1.095300e+00 1.004509e+00 3.577682e+01
<VARIANCE> 13
 7.278192e+01 8.695338e+01 5.387088e+01 7.053626e+01 6.404179e+01 9.464001e+01 8.142929e+01 6.487836e+01 3.504803e+01 9.950986e+01 2.485179e+01 4.134577e+01 2.315311e+02
<GCONST> 7.870641e+01
<TRANSP> 5
 0.000000e+00 1.000000e+00 0.000000e+00 0.000000e+00 0.000000e+00
 0.000000e+00 7.711650e-01 2.288350e-01 0.000000e+00 0.000000e+00
 0.000000e+00 0.000000e+00 7.786271e-01 2.213729e-01 0.000000e+00
 0.000000e+00 0.000000e+00 0.000000e+00 7.518160e-01 2.481839e-01
 0.000000e+00 0.000000e+00 0.000000e+00 0.000000e+00 0.000000e+00
<ENDHMM>
~h "iy"
<BEGINHMM>
<NUMSTATES> 5
<STATE> 2
<MEAN> 13
 7.552469e-01 -8.186601e+00 2.191014e+01 -8.333454e+00 -9.962010e+00 -1.297062e+01 -2.639493e+00 -1.584896e+00 -1.570581e+01 6.343463e+00 -8.656209e+00 1.943156e+00 6.533105e+01
<VARIANCE> 13
 6.567991e+00 1.838637e+01 6.311654e+01 3.624983e+01 3.334703e+01 2.813775e+01 3.313982e+01 2.732250e+01 4.312888e+01 2.134567e+01 4.072930e+01 3.775248e+01 9.978469e+00
<GCONST> 6.653764e+01
<STATE> 3
<MEAN> 13
 -2.049952e+00 -4.314764e+00 1.259009e+01 1.657423e+00 -2.286394e+01 -1.315463e+01 -1.125111e+01 -3.330886e+00 -1.307927e+01 -5.892943e-01 8.643338e+00 -1.383066e+01 6.980723e+01
<VARIANCE> 13
 3.022114e+00 9.886524e+00 2.502974e+01 1.712074e+01 2.746760e+01 1.840052e+01 2.543915e+01 2.574820e+01 1.145385e+01 1.585956e+01 3.723296e+01 3.613715e+01 1.091071e+01
<GCONST> 6.085629e+01
<STATE> 4
<MEAN> 13
 -3.232487e-01 6.023283e+00 1.414978e+01 -1.980813e+00 -1.148202e+01 -4.583562e+00 -2.108925e+00 -8.675837e+00 -1.526468e+01 3.040173e+00 -7.052962e+00 -1.294152e+00 5.374851e+01
<VARIANCE> 13
 5.641695e+01 7.141463e+01 1.346818e+02 1.389541e+02 4.854536e+01 1.389646e+02 7.285198e+01 5.761525e+01 5.895743e+01 5.254684e+01 4.858323e+01 4.065610e+01 1.020350e+02
<GCONST> 7.944193e+01
<TRANSP> 5
 0.000000e+00 1.000000e+00 0.000000e+00 0.000000e+00 0.000000e+00
 0.000000e+00 8.070246e-01 1.929754e-01 0.000000e+00 0.000000e+00
 0.000000e+00 0.000000e+00 8.690834e-01 1.309166e-01 0.000000e+00
 0.000000e+00 0.000000e+00 0.000000e+00 7.007927e-01 2.992072e-01
 0.000000e+00 0.000000e+00 0.000000e+00 0.000000e+00 0.000000e+00
<ENDHMM>
~h "ng"
<BEGINHMM>
<NUMSTATES> 5
<STATE> 2
<MEAN> 13
 6.058101e+00 6.639401e+00 -1.049445e+01 3.549442e+00 9.427011e+00 6.659298e+00 -3.733301e+00 -6.276411e+00 4.762906e+00 -1.109968e+01 -9.113574e+00 2.346921e+00 5.141312e+01
<VARIANCE> 13
 1.800484e+01 5.689968e+01 4.623412e+01 4.382434e+01 5.462587e+01 5.634938e+01 3.844813e+01 3.489967e+01 5.367834e+01 5.575980e+01 2.542122e+01 3.593750e+01 6.308679e+01
<GCONST> 7.263805e+01
<STATE> 3
<MEAN> 13
 -7.217897e+00 1.581382e+01 1.001904e+00 1.354754e+01 4.608613e+00 1.219188e+01 -3.359079e+00 -2.218470e+00 -2.375502e+00 -4.399844e+00 -1.031442e+00 -1.924736e+00 3.529536e+01
<VARIANCE> 13
 5.543964e+01 4.494719e+01 2.378268e+01 5.251331e+01 3.349041e+01 6.024508e+01 2.705260e+01 2.878153e+01 2.796051e+01 2.200318e+01 2.019030e+01 1.248609e+01 1.064585e+02
<GCONST> 6.972996e+01
<STATE> 4
<MEAN> 13
 -1.856389e+01 4.904143e+00 -8.019621e+00 4.181892e+00 -8.234674e+00 4.369879e+00 -7.408711e-01 4.286961e+00 4.176841e-01 -3.025357e+00 2.170517e+00 -1.971473e-02 2.885842e+01
<VARIANCE> 13
 5.732721e+01 1.967156e+01 6.494638e+01 1.070749e+02 8.523086e+01 1.276951e+02 1.011918e+02 9.909245e+01 6.283681e+01 3.947929e+01 5.832705e+01 2.760115e+01 9.977043e+01
<GCONST> 7.807863e+01
<TRANSP> 5
 0.000000e+00 1.000000e+00 0.000000e+00 0.000000e+00 0.000000e+00
 0.000000e+00 7.641661e-01 2.358339e-01 0.000000e+00 0.000000e+00
 0.000000e+00 0.000000e+00 7.746949e-01 2.253051e-01 0.000000e+00
 0.000000e+00 0.000000e+00 0.000000e+00 8.463572e-01 1.536428e-01
 0.000000e+00 0.000000e+00 0.000000e+00 0.000000e+00 0.000000e+00
<ENDHMM>
~h "oh"
<BEGINHMM>
<NUMSTATES> 5
<STATE> 2
<MEAN> 13
 3.171239e+00 -7.590782e+00 -9.104811e+00 -2.819466e+01 8.390641e+00 -4.801072e+00 6.809535e+00 -1.497497e+01 6.318420e+00 3.959945e+00 -7.899230e+00 -1.157932e+00 7.141924e+01
<VARIANCE> 13
 3.191353e+00 1.413106e+01 1.934171e+01 5.239469e+01 9.310999e+01 3.834298e+01 5.216081e+01 6.818475e+01 8.006397e+01 6.779191e+01 3.901820e+01 4.559898e+01 1.856838e+01
<GCONST> 6.998384e+01
<STATE> 3
<MEAN> 13
 4.526907e+00 -1.499539e+01 -1.436588e+01 -8.664106e+00 -9.607407e+00 -1.976026e-01 -8.210221e+00 -6.351809e-02 -6.197726e-01 6.774076e+00 -5.795678e+00 -1.774617e+01 7.435381e+01
<VARIANCE> 13
 2.346814e+00 1.992509e+01 9.068552e+00 5.672472e+01 3.952393e+01 2.422918e+01 3.814979e+01 2.257465e+01 2.887600e+01 2.287246e+01 2.529091e+01 4.530525e+01 1.421781e+01
<GCONST> 6.379459e+01
<STATE> 4
<MEAN> 13
 4.204092e+00 -1.032160e+01 -9.565325e+00 -4.776973e+00 4.748688e+00 -7.855591e+00 -3.769945e+00 -3.411545e+00 6.368145e+00 -2.900376e-01 -3.118414e+00 -6.372774e+00 6.813804e+01
<VARIANCE> 13
 8.249581e+00 1.104375e+01 1.161215e+01 4.845281e+01 3.062679e+01 1.387308e+01 3.551081e+01 1.650103e+01 6.284581e+01 1.097130e+02 3.065806e+01 8.237687e+01 1.116401e+01
<GCONST> 6.624761e+01
<TRANSP> 5
 0.000000e+00 1.000000e+00 0.000000e+00 0.000000e+00 0.000000e+00
 0.000000e+00 8.624752e-01 1.375248e-01 0.000000e+00 0.000000e+00
 0.000000e+00 0.000000e+00 9.327425e-01 6.725753e-02 0.000000e+00
 0.000000e+00 0.000000e+00 0.000000e+00 1.052041e-01 8.947960e-01
 0.000000e+00 0.000000e+00 0.000000e+00 0.000000e+00 0.000000e+00
<ENDHMM>
~h "sp"
<BEGINHMM>
<NUMSTATES> 5
<STATE> 2
~s "silst"
<STATE> 3
<MEAN> 13
 -8.715033e+00 2.248249e+00 -9.133193e-01 9.794115e-01 2.284300e+00 1.189046e+00 2.763185e+00 6.465948e-01 2.690804e+00 -1.110849e+00 1.055728e+00 -1.143961e+00 5.133373e+01
<VARIANCE> 13
 1.472645e+01 4.318082e+00 7.161588e+00 8.486057e+00 9.786016e+00 1.021930e+01 1.066699e+01 8.980141e+00 8.368013e+00 7.674459e+00 7.529055e+00 6.971873e+00 3.832640e+01
<GCONST> 5.308852e+01
<STATE> 4
<MEAN> 13
 -2.521267e+01 3.236709e+00 -9.285968e+00 4.886907e+00 -6.665698e+00 5.709208e+00 -2.730559e+00 1.950148e+00 1.621543e+00 -6.200170e-01 1.510099e+00 -4.972374e-01 2.313740e+01
<VARIANCE> 13
 1.404853e+01 3.496003e+00 6.789423e+00 7.690238e+00 1.118448e+01 1.168306e+01 1.162666e+01 1.275706e+01 1.268265e+01 1.047449e+01 1.042899e+01 9.602919e+00 2.878706e+01
<GCONST> 5.446967e+01
<TRANSP> 5
 0.000000e+00 7.000000e-01 3.000000e-01 0.000000e+00 0.000000e+00
 0.000000e+00 7.713131e-01 2.286870e-01 0.000000e+00 0.000000e+00
 0.000000e+00 0.000000e+00 9.087209e-01 9.127915e-02 0.000000e+00
 0.000000e+00 0.000000e+00 0.000000e+00 9.417698e-01 5.823018e-02
 0.000000e+00 0.000000e+00 0.000000e+00 0.000000e+00 0.000000e+00
<ENDHMM>
~h "uh"
<BEGINHMM>
<NUMSTATES> 5
<STATE> 2
<MEAN> 13
 -9.579403e-01 9.433825e+00 -4.005535e+00 -9.038399e+00 -5.711390e+00 -5.089005e-01 -4.475050e+00 -4.520163e+00 -5.302330e+00 -5.999101e+00 -3.279093e+00 -1.485146e+00 5.061221e+01
<VARIANCE> 13
 5.058965e+01 2.491548e+01 1.959672e+01 6.660572e+01 2.945312e+01 3.251073e+01 2.944793e+01 3.107478e+01 2.044058e+01 2.613108e+01 1.923090e+01 1.771311e+01 1.175028e+02
<GCONST> 6.876712e+01
<STATE> 3
<MEAN> 13
 3.010175e+00 6.009743e+00 -4.578806e+00 -1.121515e+01 -9.987751e+00 -3.252922e-01 -7.871720e+00 -7.507178e+00 -9.845755e+00 -1.185907e+00 1.066242e+00 -2.552584e+00 5.647060e+01
<VARIANCE> 13
 3.836865e+01 6.858960e+01 2.349354e+01 5.799274e+01 3.306126e+01 2.927668e+01 3.502935e+01 2.465076e+01 4.589996e+01 3.031186e+01 2.649821e+01 2.704258e+01 1.813993e+02
<GCONST> 7.163417e+01
<STATE> 4
<MEAN> 13
 -1.892413e+00 6.487247e+00 -3.969792e+00 -4.776311e+00 -8.516525e+00 3.672522e-01 -1.400994e+01 -1.116809e+01 -9.940206e+00 -3.478873e+00 1.018985e+00 -3.994874e+00 4.932265e+01
<VARIANCE> 13
 7.447703e+01 1.037002e+02 4.669982e+01 9.117255e+01 3.207659e+01 4.755743e+01 6.343864e+01 3.570168e+01 4.774370e+01 7.488725e+01 5.431388e+01 5.842238e+01 2.803180e+02
<GCONST> 7.813646e+01
<TRANSP> 5
 0.000000e+00 1.000000e+00 0.000000e+00 0.000000e+00 0.000000e+00
 0.000000e+00 4.361632e-01 5.638368e-01 0.000000e+00 0.000000e+00
 0.000000e+00 0.000000e+00 5.075448e-01 4.924552e-01 0.000000e+00
 0.000000e+00 0.000000e+00 0.000000e+00 5.993183e-01 4.006817e-01
 0.000000e+00 0.000000e+00 0.000000e+00 0.000000e+00 0.000000e+00
<ENDHMM>
~h "uw"
<BEGINHMM>
<NUMSTATES> 5
<STATE> 2
<MEAN> 13
 4.417748e+00 9.973007e-01 -3.595848e+00 -9.792139e+00 -3.665007e+00 1.217626e+00 -1.763688e+01 -1.412018e+01 -6.702723e+00 -4.779954e-02 2.126711e+00 -5.043181e+00 6.444861e+01
<VARIANCE> 13
 2.881986e+01 4.904900e+01 1.719929e+01 8.943171e+01 8.900630e+01 4.819812e+01 5.905460e+01 6.065429e+01 6.654805e+01 3.440321e+01 4.399970e+01 4.804866e+01 8.000426e+01
<GCONST> 7.480687e+01
<STATE> 3
<MEAN> 13
 5.024241e+00 2.721933e+00 -5.512766e+00 -1.780870e+01 -1.297384e+01 -4.357758e-01 -1.418262e+01 -7.407410e+00 -9.044432e+00 -5.102013e+00 1.447479e+00 -7.326559e+00 6.644942e+01
<VARIANCE> 13
 9.834810e+00 1.924453e+01 1.019508e+01 3.342426e+01 4.748925e+01 1.707821e+01 2.125622e+01 2.449846e+01 2.341280e+01 2.011371e+01 1.408889e+01 4.853859e+01 4.395654e+01
<GCONST> 6.438594e+01
<STATE> 4
<MEAN> 13
 6.068391e+00 5.286209e+00 -7.183691e+00 -2.296083e+01 -3.837831e-01 7.389441e+00 -8.806509e+00 -9.810413e+00 -5.541479e+00 2.937905e+00 -6.307568e+00 4.103645e+00 5.877483e+01
<VARIANCE> 13
 4.806771e+01 6.470109e+01 3.751197e+01 1.689189e+02 9.311865e+01 1.004323e+02 4.452164e+01 4.926883e+01 8.064939e+01 1.057730e+02 8.954762e+01 8.059914e+01 1.036803e+02
<GCONST> 8.010247e+01
<TRANSP> 5
 0.000000e+00 1.000000e+00 0.000000e+00 0.000000e+00 0.000000e+00
 0.000000e+00 5.018485e-01 4.981515e-01 0.000000e+00 0.000000e+00
 0.000000e+00 0.000000e+00 8.043353e-01 1.956647e-01 0.000000e+00
 0.000000e+00 0.000000e+00 0.000000e+00 7.364920e-01 2.635081e-01
 0.000000e+00 0.000000e+00 0.000000e+00 0.000000e+00 0.000000e+00
<ENDHMM>
~h "sil"
<BEGINHMM>
<NUMSTATES> 5
<STATE> 2
<MEAN> 13
 -1.665335e+01 5.458862e+00 -3.691277e+00 8.247786e+00 -4.746978e-01 4.932520e+00 -7.564042e-01 2.526503e+00 9.929173e-01 -1.407203e+00 3.243667e-01 -1.986837e+00 3.408703e+01
<VARIANCE> 13
 5.028359e+01 5.010015e+01 3.846581e+01 5.213062e+01 3.900770e+01 6.302272e+01 4.294260e+01 4.360169e+01 4.824699e+01 3.226351e+01 3.200170e+01 2.967651e+01 1.760735e+02
<GCONST> 7.404716e+01
<STATE> 3
~s "silst"
<STATE> 4
<MEAN> 13
 -2.540868e+01 3.126210e+00 -9.384181e+00 4.800384e+00 -6.823731e+00 5.699591e+00 -2.721627e+00 1.826568e+00 1.704249e+00 -5.969772e-01 1.496186e+00 -4.054688e-01 2.300605e+01
<VARIANCE> 13
 1.215465e+01 2.226235e+00 5.480902e+00 5.466138e+00 9.541936e+00 9.097551e+00 9.454940e+00 9.604927e+00 1.015309e+01 9.035249e+00 9.062154e+00 8.129901e+00 2.896732e+01
<GCONST> 5.174752e+01
<TRANSP> 5
 0.000000e+00 1.000000e+00 0.000000e+00 0.000000e+00 0.000000e+00
 0.000000e+00 6.579716e-01 1.440213e-01 1.980071e-01 0.000000e+00
 0.000000e+00 0.000000e+00 9.604341e-01 3.956595e-02 0.000000e+00
 0.000000e+00 1.094873e-02 0.000000e+00 9.295565e-01 5.949468e-02
 0.000000e+00 0.000000e+00 0.000000e+00 0.000000e+00 0.000000e+00
<ENDHMM>
