~o
<STREAMINFO> 1 13
<VECSIZE> 13<NULLD><MFCC_0><DIAGC>
~s "silst"
<MEAN> 13
 -1.080405e+01 3.161191e+00 -4.820159e+00 5.512887e+00 4.473929e-01 3.146542e+00 -2.728224e+00 -8.946134e-01 -6.938986e-02 -3.613974e+00 -1.952773e+00 -2.790735e+00 4.290682e+01
<VARIANCE> 13
 1.788986e+01 2.630969e+01 3.707862e+01 3.090107e+01 2.588549e+01 2.907004e+01 4.867953e+01 2.336097e+01 2.746392e+01 2.496297e+01 2.364477e+01 1.721059e+01 9.900922e+01
<GCONST> 6.788426e+01
~h "b"
<BEGINHMM>
<NUMSTATES> 5
<STATE> 2
<MEAN> 13
 7.190879e+00 6.535133e+00 -7.951469e+00 -3.629529e+00 -5.007272e+00 8.176973e-01 -8.160261e+00 -5.006901e+00 -5.824026e+00 -3.551847e+00 -5.677743e+00 -4.903711e+00 5.314316e+01
<VARIANCE> 13
 3.115010e+01 1.498658e+02 3.155187e+01 5.743726e+01 5.254045e+01 5.348061e+01 3.139307e+01 2.573531e+01 3.227009e+01 5.281470e+01 2.423186e+01 2.381557e+01 5.928769e+01
<GCONST> 7.235999e+01
<STATE> 3
<MEAN> 13
 -4.105766e+00 -1.047493e+00 -5.798294e+00 -4.312989e-01 6.959583e-01 5.379508e-01 5.315685e-01 -4.889689e-01 3.974127e-01 1.174325e-01 -1.029962e+00 -4.093472e+00 5.266472e+01
<VARIANCE> 13
 1.593143e+01 3.454165e+01 2.577879e+01 1.654899e+01 3.262582e+01 1.595453e+01 4.163625e+01 2.010149e+01 4.132735e+01 2.987056e+01 1.899715e+01 1.691591e+01 2.018215e+01
<GCONST> 6.513908e+01
<STATE> 4
<MEAN> 13
 -1.259676e+01 4.777545e+00 -1.056942e+01 6.413518e+00 -4.375025e+00 2.325487e+00 -9.812088e+00 -5.075781e+00 -5.160765e+00 -7.332582e+00 -5.908822e+00 -7.375423e+00 3.466707e+01
<VARIANCE> 13
 3.096626e+01 3.161441e+01 3.417025e+01 2.167141e+01 4.425553e+01 3.659333e+01 3.447147e+01 3.604681e+01 2.600072e+01 3.439491e+01 3.125438e+01 2.862564e+01 6.087968e+01
<GCONST> 6.960246e+01
<TRANSP> 5
 0.000000e+00 1.000000e+00 0.000000e+00 0.000000e+00 0.000000e+00
 0.000000e+00 8.199292e-01 1.800708e-01 0.000000e+00 0.000000e+00
 0.000000e+00 0.000000e+00 8.330175e-01 1.669824e-01 0.000000e+00
 0.000000e+00 0.000000e+00 0.000000e+00 8.795431e-01 1.204569e-01
 0.000000e+00 0.000000e+00 0.000000e+00 0.000000e+00 0.000000e+00
<ENDHMM>
~h "d"
<BEGINHMM>
<NUMSTATES> 5
<STATE> 2
<MEAN> 13
 1.306340e+00 -3.036691e+00 -2.318477e+00 -3.601557e-01 2.664619e+00 -1.809929e+00 -7.456056e+00 -8.248111e+00 -1.126617e-01 9.275464e-01 -8.180669e+00 -6.224887e+00 5.993287e+01
<VARIANCE> 13
 3.502917e+01 1.963233e+02 4.046759e+01 1.674229e+02 7.855997e+01 4.974083e+01 1.229576e+02 7.321095e+01 6.669234e+01 7.608131e+01 5.461907e+01 3.949037e+01 1.348349e+02
<GCONST> 8.003763e+01
<STATE> 3
<MEAN> 13
 3.643658e+00 -1.290370e+01 -3.862591e+00 -7.185306e+00 -7.315085e-01 -4.321811e+00 -9.160144e+00 -7.064303e+00 2.416118e+00 3.334731e+00 -9.083179e+00 -4.674715e+00 6.801995e+01
<VARIANCE> 13
 1.691684e+01 5.814050e+01 2.794826e+01 9.842155e+01 1.181302e+02 6.359051e+01 1.576430e+02 9.999085e+01 9.249229e+01 8.345048e+01 8.048355e+01 4.100785e+01 3.682141e+01
<GCONST> 7.795213e+01
<STATE> 4
<MEAN> 13
 6.896705e+00 -1.653580e+01 -4.123711e+00 -1.254597e+01 -1.490254e+00 -1.315234e+00 -3.455212e+00 -9.466522e+00 -1.092089e+00 9.691981e+00 -1.202655e+01 -5.057455e+00 7.085524e+01
<VARIANCE> 13
 8.137216e+00 2.552942e+01 1.587148e+01 4.734350e+01 9.781815e+01 3.835500e+01 7.552923e+01 6.407018e+01 5.782865e+01 4.527550e+01 3.971563e+01 2.383337e+01 1.926675e+01
<GCONST> 7.024660e+01
<TRANSP> 5
 0.000000e+00 1.000000e+00 0.000000e+00 0.000000e+00 0.000000e+00
 0.000000e+00 3.713715e-01 6.286284e-01 0.000000e+00 0.000000e+00
 0.000000e+00 0.000000e+00 3.229496e-02 9.677050e-01 0.000000e+00
 0.000000e+00 0.000000e+00 0.000000e+00 7.843350e-01 2.156650e-01
 0.000000e+00 0.000000e+00 0.000000e+00 0.000000e+00 0.000000e+00
<ENDHMM>
~h "g"
<BEGINHMM>
<NUMSTATES> 5
<STATE> 2
<MEAN> 13
 -3.309002e+00 -4.629605e+00 1.677559e+01 -4.824974e+00 -1.489878e+01 -1.076242e+01 -5.920795e+00 -1.234352e+01 -1.367564e+01 -6.739617e-01 6.468939e+00 -7.078097e+00 6.537891e+01
<VARIANCE> 13
 1.251618e+01 3.184180e+01 6.703056e+01 8.056991e+01 8.318751e+01 5.648742e+01 5.132582e+01 3.127634e+01 7.570782e+01 3.644487e+01 1.030813e+02 4.766640e+01 4.332592e+01
<GCONST> 7.450183e+01
<STATE> 3
<MEAN> 13
 -2.932082e+00 -9.497411e-01 9.583533e+00 -2.540108e+00 -1.041328e+01 -1.342156e+01 -4.863096e+00 -2.936332e+00 -5.712293e+00 -7.849572e-01 -1.719159e+00 -5.981187e+00 6.152381e+01
<VARIANCE> 13
 1.877144e+01 1.293803e+02 8.871912e+01 8.631840e+01 7.547012e+01 8.665059e+01 5.953493e+01 3.908878e+01 4.216523e+01 3.164236e+01 9.729761e+01 7.048280e+01 1.013823e+02
<GCONST> 7.781717e+01
<STATE> 4
<MEAN> 13
 1.193929e+00 -1.777486e+01 -7.216287e+00 -8.051634e+00 -1.164729e+01 -7.526336e+00 -1.170012e+01 4.117984e+00 3.169196e+00 -7.651170e-02 -3.665633e+00 -1.842364e+01 7.554123e+01
<VARIANCE> 13
 8.793725e+00 4.916048e+01 3.580656e+01 2.410608e+01 4.377174e+01 6.273615e+01 4.039220e+01 3.704815e+01 7.970544e+01 3.733762e+01 7.265187e+01 9.114750e+01 5.609214e+01
<GCONST> 7.277440e+01
<TRANSP> 5
 0.000000e+00 1.000000e+00 0.000000e+00 0.000000e+00 0.000000e+00
 0.000000e+00 8.612347e-01 1.387652e-01 0.000000e+00 0.000000e+00
 0.000000e+00 0.000000e+00 7.860196e-01 2.139804e-01 0.000000e+00
 0.000000e+00 0.000000e+00 0.000000e+00 8.078979e-01 1.921021e-01
 0.000000e+00 0.000000e+00 0.000000e+00 0.000000e+00 0.000000e+00
<ENDHMM>
~h "j"
<BEGINHMM>
<NUMSTATES> 5
<STATE> 2
<MEAN> 13
 -6.508696e+00 1.310499e+01 2.889422e+01 -4.470735e+00 -6.637478e+00 -4.200476e+00 -8.446434e+00 -4.339537e+00 -1.630964e+01 1.246266e+00 -1.243309e+00 -4.179924e+00 5.066969e+01
<VARIANCE> 13
 1.268155e+01 1.246930e+02 1.331243e+02 2.129908e+02 7.885714e+01 5.351704e+01 9.257680e+01 2.634801e+01 5.867018e+01 5.210849e+01 3.614882e+01 2.274424e+01 6.948678e+01
<GCONST> 7.663636e+01
<STATE> 3
<MEAN> 13
 -5.701894e-01 -6.455607e+00 6.377153e+00 2.183204e+00 -1.188470e+01 -9.124479e+00 -1.758072e+01 -1.386015e+01 -5.343137e+00 -1.083795e+00 1.015799e+01 -5.439504e+00 6.492394e+01
<VARIANCE> 13
 2.588862e+01 1.666992e+01 7.693806e+01 4.413865e+01 3.680957e+01 7.323339e+01 1.036429e+02 9.281378e+01 6.467300e+01 3.912691e+01 6.940765e+01 5.197784e+01 3.155891e+01
<GCONST> 7.463993e+01
<STATE> 4
<MEAN> 13
 9.190411e+00 4.588559e+00 -5.378153e+00 1.779182e+00 -4.977059e+00 5.411500e+00 -1.179488e+01 -1.840765e+01 -1.179093e+01 -5.579377e-01 4.107048e+00 -3.630416e+00 5.520681e+01
<VARIANCE> 13
 2.052755e+01 1.913156e+02 2.883569e+01 3.609788e+01 1.920875e+01 3.735052e+01 4.418858e+01 3.106791e+01 2.752255e+01 3.707401e+01 5.861483e+01 2.174843e+01 1.063055e+02
<GCONST> 7.166106e+01
<TRANSP> 5
 0.000000e+00 1.000000e+00 0.000000e+00 0.000000e+00 0.000000e+00
 0.000000e+00 8.379811e-01 1.620188e-01 0.000000e+00 0.000000e+00
 0.000000e+00 0.000000e+00 8.203635e-01 1.796366e-01 0.000000e+00
 0.000000e+00 0.000000e+00 0.000000e+00 7.856989e-01 2.143011e-01
 0.000000e+00 0.000000e+00 0.000000e+00 0.000000e+00 0.000000e+00
<ENDHMM>
~h "k"
<BEGINHMM>
<NUMSTATES> 5
<STATE> 2
<MEAN> 13
 -7.407178e+00 8.880749e-01 -3.489608e+00 -6.965710e-02 1.646029e+00 3.405686e-01 -9.127788e-01 -1.601925e+00 1.241606e+00 -3.458929e-02 3.102092e-01 -1.958226e+00 5.200344e+01
<VARIANCE> 13
 2.290014e+01 3.407093e+01 3.672205e+01 2.707449e+01 2.805436e+01 2.454990e+01 3.993275e+01 2.924602e+01 2.587873e+01 2.751520e+01 2.050806e+01 1.794162e+01 6.151550e+01
<GCONST> 6.764714e+01
<STATE> 3
<MEAN> 13
 -7.012777e+00 -4.326532e+00 -8.529929e+00 6.461404e-02 3.701975e+00 2.802979e-01 -5.677977e+00 -3.596328e+00 -6.345916e-01 1.656555e+00 -4.567754e-01 -3.929256e+00 5.334413e+01
<VARIANCE> 13
 5.435170e+01 8.301750e+01 8.228975e+01 6.096172e+01 6.768723e+01 7.728859e+01 4.796288e+01 6.070755e+01 5.786244e+01 4.993300e+01 3.905240e+01 2.947312e+01 1.352853e+02
<GCONST> 7.729087e+01
<STATE> 4
<MEAN> 13
 -9.660872e+00 -2.247422e+00 -9.702562e+00 1.112380e+00 7.716799e+00 -1.040865e+00 -2.184685e+00 -2.426990e+00 -1.968763e+00 3.749882e+00 2.105487e-02 -3.221270e+00 4.794941e+01
<VARIANCE> 13
 7.879995e+01 1.496099e+02 1.476210e+02 1.576427e+02 1.616565e+02 2.785783e+02 8.346629e+01 1.363869e+02 1.137933e+02 8.405133e+01 7.654962e+01 7.254549e+01 2.191200e+02
<GCONST> 8.655501e+01
<TRANSP> 5
 0.000000e+00 1.000000e+00 0.000000e+00 0.000000e+00 0.000000e+00
 0.000000e+00 7.630309e-01 2.369690e-01 0.000000e+00 0.000000e+00
 0.000000e+00 0.000000e+00 9.564655e-02 9.043534e-01 0.000000e+00
 0.000000e+00 0.000000e+00 0.000000e+00 6.423029e-01 3.576972e-01
 0.000000e+00 0.000000e+00 0.000000e+00 0.000000e+00 0.000000e+00
<ENDHMM>
~h "l"
<BEGINHMM>
<NUMSTATES> 5
<STATE> 2
<MEAN> 13
 2.459228e+00 -2.419847e+01 -1.093066e+01 -1.335860e+01 -2.836063e+00 1.795974e+01 -7.939185e+00 -1.453048e+01 1.447789e+01 -2.022779e+00 1.460428e+00 -4.933771e+00 7.181550e+01
<VARIANCE> 13
 7.190883e+00 5.018093e+01 1.287634e+01 2.305722e+01 4.101141e+01 7.441541e+01 2.315851e+01 3.874852e+01 1.015728e+02 4.698228e+01 5.972681e+01 5.518031e+01 6.740492e+00
<GCONST> 6.877626e+01
<STATE> 3
<MEAN> 13
 5.319859e+00 -1.321422e+01 -8.937495e+00 -1.541930e+01 1.159577e+00 5.494946e+00 -7.356307e+00 -8.476511e+00 6.059590e-01 4.212968e+00 -2.631215e+00 -8.334877e+00 6.956026e+01
<VARIANCE> 13
 9.560587e+00 5.561325e+01 2.288522e+01 2.439359e+01 8.491566e+01 7.909225e+01 2.129543e+01 3.861456e+01 7.835162e+01 4.639852e+01 1.167777e+02 8.478078e+01 2.104215e+01
<GCONST> 7.246302e+01
<STATE> 4
<MEAN> 13
 5.239328e+00 -1.071234e+01 -8.538252e+00 -1.487435e+01 2.696826e+00 5.365973e+00 -6.543784e+00 -7.144531e+00 1.169899e+00 3.969478e+00 -7.454818e+00 -7.121543e+00 6.794208e+01
<VARIANCE> 13
 1.631437e+01 1.065091e+02 2.912958e+01 3.323466e+01 8.943234e+01 8.708584e+01 3.087013e+01 4.365802e+01 7.497432e+01 5.368422e+01 9.979539e+01 7.737051e+01 3.971221e+01
<GCONST> 7.532823e+01
<TRANSP> 5
 0.000000e+00 1.000000e+00 0.000000e+00 0.000000e+00 0.000000e+00
 0.000000e+00 8.581753e-01 1.418246e-01 0.000000e+00 0.000000e+00
 0.000000e+00 0.000000e+00 2.268039e-01 7.731962e-01 0.000000e+00
 0.000000e+00 0.000000e+00 0.000000e+00 7.533832e-02 9.246617e-01
 0.000000e+00 0.000000e+00 0.000000e+00 0.000000e+00 0.000000e+00
<ENDHMM>
~h "m"
<BEGINHMM>
<NUMSTATES> 5
<STATE> 2
<MEAN> 13
 6.173137e+00 -7.953991e+00 -6.447518e+00 -3.108773e+00 -2.673328e+00 -4.057411e-01 -3.570570e+00 -1.044730e+01 -1.281688e+01 1.603593e+00 -2.285206e+00 -8.813932e+00 6.250834e+01
<VARIANCE> 13
 1.843350e+01 4.699083e+01 4.604364e+01 3.180920e+01 5.300057e+01 6.327861e+01 2.881287e+01 3.039779e+01 6.860630e+01 3.248082e+01 4.108366e+01 4.058915e+01 1.848300e+01
<GCONST> 7.088391e+01
<STATE> 3
<MEAN> 13
 3.643138e+00 1.655422e+00 -1.818579e+00 1.397514e+00 8.263438e+00 1.529987e+00 -6.594157e+00 -1.374351e+01 -9.709907e+00 4.231197e-01 -6.946422e+00 -8.263356e-01 5.677053e+01
<VARIANCE> 13
 1.922638e+01 6.530225e+01 3.629021e+01 4.183218e+01 1.231197e+02 6.845051e+01 5.378185e+01 5.045973e+01 5.016990e+01 3.712134e+01 5.471132e+01 6.933373e+01 3.381563e+01
<GCONST> 7.458984e+01
<STATE> 4
<MEAN> 13
 -7.625544e+00 3.016889e+00 -7.988888e+00 5.789193e+00 -1.707207e+00 4.086789e+00 -8.032182e+00 -5.370258e+00 -5.316752e+00 -5.837245e+00 -5.844316e+00 -5.507267e+00 4.133947e+01
<VARIANCE> 13
 5.954815e+01 8.816772e+01 5.483067e+01 7.030762e+01 5.027054e+01 3.672036e+01 2.724375e+01 3.395613e+01 3.249626e+01 3.109995e+01 2.824060e+01 2.121460e+01 1.192310e+02
<GCONST> 7.316104e+01
<TRANSP> 5
 0.000000e+00 1.000000e+00 0.000000e+00 0.000000e+00 0.000000e+00
 0.000000e+00 7.132735e-01 2.867265e-01 0.000000e+00 0.000000e+00
 0.000000e+00 0.000000e+00 6.484080e-01 3.515921e-01 0.000000e+00
 0.000000e+00 0.000000e+00 0.000000e+00 8.195052e-01 1.804948e-01
 0.000000e+00 0.000000e+00 0.000000e+00 0.000000e+00 0.000000e+00
<ENDHMM>
~h "n"
<BEGINHMM>
<NUMSTATES> 5
<STATE> 2
<MEAN> 13
 1.327974e-01 -2.560973e-01 -5.894505e-01 2.190061e+00 -3.235001e+00 -6.252766e+00 -6.077855e+00 -7.152971e+00 -1.614814e+00 -1.648324e+00 -7.469267e+00 -5.946048e+00 5.752509e+01
<VARIANCE> 13
 3.143012e+01 3.083430e+01 2.914216e+01 3.147045e+01 4.782697e+01 6.335077e+01 2.065128e+01 4.047179e+01 2.303651e+01 2.719813e+01 3.599237e+01 3.600334e+01 4.957228e+01
<GCONST> 6.984527e+01
<STATE> 3
<MEAN> 13
 2.042434e+00 5.650456e+00 -2.005241e+00 7.627463e-01 1.465813e+00 -1.301661e+00 -7.331018e+00 -5.293772e+00 -3.618342e-01 -4.752056e+00 -1.037244e+01 3.275474e+00 5.308338e+01
<VARIANCE> 13
 6.712486e+01 6.080571e+01 5.075600e+01 2.064624e+02 9.166212e+01 1.219150e+02 6.523004e+01 6.911800e+01 5.371743e+01 5.449860e+01 9.709307e+01 1.018633e+02 6.837141e+01
<GCONST> 8.060513e+01
<STATE> 4
<MEAN> 13
 -7.560987e+00 1.048173e+01 -2.892698e+00 8.206323e+00 -2.750892e+00 3.248041e+00 -8.666687e+00 -4.855142e+00 -3.085827e+00 -6.254866e+00 -4.977701e+00 -2.993010e+00 3.841432e+01
<VARIANCE> 13
 9.218655e+01 9.775880e+01 6.315699e+01 9.925054e+01 4.225299e+01 4.579953e+01 3.914841e+01 5.048759e+01 3.651820e+01 3.000631e+01 3.592433e+01 4.424953e+01 1.074254e+02
<GCONST> 7.594630e+01
<TRANSP> 5
 0.000000e+00 1.000000e+00 0.000000e+00 0.000000e+00 0.000000e+00
 0.000000e+00 7.170609e-01 2.829390e-01 0.000000e+00 0.000000e+00
 0.000000e+00 0.000000e+00 4.597623e-01 5.402377e-01 0.000000e+00
 0.000000e+00 0.000000e+00 0.000000e+00 7.716287e-01 2.283713e-01
 0.000000e+00 0.000000e+00 0.000000e+00 0.000000e+00 0.000000e+00
<ENDHMM>
~h "p"
<BEGINHMM>
<NUMSTATES> 5
<STATE> 2
<MEAN> 13
 -1.224732e+01 4.460054e+00 -9.377586e+00 6.448313e+00 -2.785239e+00 3.498286e+00 -8.270721e+00 -4.062328e+00 -3.835099e+00 -4.959142e+00 -4.516944e+00 -4.492596e+00 3.684370e+01
<VARIANCE> 13
 5.217046e+01 5.236649e+01 4.577376e+01 3.929387e+01 3.862772e+01 4.597921e+01 4.009615e+01 3.980753e+01 3.235727e+01 4.054428e+01 2.786863e+01 2.012347e+01 9.166423e+01
<GCONST> 7.218422e+01
<STATE> 3
<MEAN> 13
 -7.341282e+00 -3.562602e-01 -1.930253e+00 1.465306e-03 2.410216e+00 1.149895e-01 1.496205e+00 -1.218146e+00 1.593223e+00 -1.005049e+00 8.407899e-01 -1.743761e+00 5.461118e+01
<VARIANCE> 13
 1.839242e+01 2.403259e+01 2.788258e+01 1.462141e+01 2.374473e+01 1.957454e+01 1.929587e+01 2.172331e+01 1.745563e+01 1.469866e+01 1.665351e+01 1.299726e+01 3.400858e+01
<GCONST> 6.262550e+01
<STATE> 4
<MEAN> 13
 1.550522e+00 -8.283251e+00 -1.252842e+01 -6.679032e+00 -2.646314e+00 -2.015774e-01 -2.788205e+00 -4.579038e+00 -2.555959e+00 3.857397e+00 1.774106e-01 -4.242969e+00 6.031642e+01
<VARIANCE> 13
 5.661147e+01 4.354197e+01 1.257193e+02 7.288695e+01 6.137348e+01 9.275452e+01 6.513031e+01 8.504007e+01 5.972005e+01 6.881504e+01 6.952145e+01 3.648872e+01 1.033407e+02
<GCONST> 7.888951e+01
<TRANSP> 5
 0.000000e+00 1.000000e+00 0.000000e+00 0.000000e+00 0.000000e+00
 0.000000e+00 7.988483e-01 2.011517e-01 0.000000e+00 0.000000e+00
 0.000000e+00 0.000000e+00 8.080361e-01 1.919639e-01 0.000000e+00
 0.000000e+00 0.000000e+00 0.000000e+00 3.117472e-01 6.882527e-01
 0.000000e+00 0.000000e+00 0.000000e+00 0.000000e+00 0.000000e+00
<ENDHMM>
~h "r"
<BEGINHMM>
<NUMSTATES> 5
<STATE> 2
<MEAN> 13
 6.469180e+00 -9.997091e+00 -1.488630e+01 -2.461067e+00 -1.155667e+01 -4.973302e+00 -5.200427e+00 2.190848e+00 4.948078e+00 -3.830895e+00 -5.135609e+00 -1.682659e+00 6.754461e+01
<VARIANCE> 13
 2.352899e+01 3.603708e+01 1.483804e+02 3.081672e+01 1.559683e+02 5.635693e+01 3.268625e+01 7.538742e+01 4.296862e+01 1.011755e+02 2.691356e+01 6.666003e+01 2.810274e+01
<GCONST> 7.515941e+01
<STATE> 3
<MEAN> 13
 1.568611e+00 -1.019830e+01 -4.467519e+00 3.348726e-02 -3.125917e+00 -4.918553e+00 -4.005280e+00 -1.246190e+00 2.526200e+00 2.747493e+00 -3.807699e+00 -6.446470e+00 6.247453e+01
<VARIANCE> 13
 1.572165e+01 4.363807e+01 4.281276e+01 3.556701e+01 5.957272e+01 6.056448e+01 3.812246e+01 5.774569e+01 4.386999e+01 4.970987e+01 3.908307e+01 4.919549e+01 3.593331e+01
<GCONST> 7.246999e+01
<STATE> 4
<MEAN> 13
 -3.155489e+00 -3.500492e+00 -1.436173e+00 1.031552e+01 7.534042e-01 -2.191657e-01 -1.497277e+00 4.695973e+00 1.873144e+00 -1.889807e+00 -2.510232e+00 -1.720669e+00 5.113738e+01
<VARIANCE> 13
 5.432399e+01 1.370129e+02 5.781227e+01 1.790602e+02 8.264967e+01 1.013785e+02 6.480466e+01 9.550722e+01 5.917740e+01 6.279784e+01 4.875096e+01 4.581056e+01 1.983732e+02
<GCONST> 8.103828e+01
<TRANSP> 5
 0.000000e+00 1.000000e+00 0.000000e+00 0.000000e+00 0.000000e+00
 0.000000e+00 5.135401e-01 4.864599e-01 0.000000e+00 0.000000e+00
 0.000000e+00 0.000000e+00 5.395985e-01 4.604015e-01 0.000000e+00
 0.000000e+00 0.000000e+00 0.000000e+00 6.253470e-01 3.746531e-01
 0.000000e+00 0.000000e+00 0.000000e+00 0.000000e+00 0.000000e+00
<ENDHMM>
~h "s"
<BEGINHMM>
<NUMSTATES> 5
<STATE> 2
<MEAN> 13
 -1.182285e+01 -1.759389e-01 -2.825338e+00 -3.178903e+00 5.835185e+00 -6.406694e+00 -4.528286e-01 -5.566482e+00 2.280114e+00 -1.676437e+00 1.200873e+00 -3.175526e+00 6.017088e+01
<VARIANCE> 13
 4.171420e+01 3.640065e+01 6.405737e+01 5.919449e+01 6.019069e+01 7.061559e+01 6.013374e+01 4.258665e+01 5.072633e+01 3.559507e+01 5.273087e+01 4.265894e+01 9.625635e+01
<GCONST> 7.544543e+01
<STATE> 3
<MEAN> 13
 -1.545710e+01 3.133114e+00 -5.413581e+00 5.429639e+00 5.372941e+00 -7.104016e+00 4.663703e+00 -1.185466e+00 5.075460e+00 -6.691590e-01 1.633183e+00 -2.361425e+00 6.129006e+01
<VARIANCE> 13
 2.350714e+01 3.959135e+01 3.232958e+01 8.796600e+01 4.100465e+01 3.969977e+01 4.698005e+01 4.369950e+01 3.290344e+01 2.512758e+01 2.317474e+01 2.262490e+01 4.134158e+01
<GCONST> 7.040487e+01
<STATE> 4
<MEAN> 13
 -2.380963e+01 2.024931e-01 -1.790643e+00 -3.250490e+00 1.525672e+01 -1.561425e+01 7.071613e+00 -2.207176e+00 6.186275e+00 -7.605422e+00 4.668921e-01 8.200951e-01 5.484590e+01
<VARIANCE> 13
 9.008626e+01 7.217192e+01 5.430471e+01 3.888127e+01 9.493616e+01 9.382677e+01 1.247023e+02 5.383235e+01 6.637910e+01 5.405361e+01 3.813360e+01 5.718559e+01 6.718509e+01
<GCONST> 7.831401e+01
<TRANSP> 5
 0.000000e+00 1.000000e+00 0.000000e+00 0.000000e+00 0.000000e+00
 0.000000e+00 4.409186e-01 5.590814e-01 0.000000e+00 0.000000e+00
 0.000000e+00 0.000000e+00 7.286025e-01 2.713975e-01 0.000000e+00
 0.000000e+00 0.000000e+00 0.000000e+00 7.446067e-01 2.553933e-01
 0.000000e+00 0.000000e+00 0.000000e+00 0.000000e+00 0.000000e+00
<ENDHMM>
~h "t"
<BEGINHMM>
<NUMSTATES> 5
<STATE> 2
<MEAN> 13
 -5.921654e+00 -1.900078e+00 -1.008414e+01 -1.712219e+00 -6.742248e-01 2.203049e+00 -5.556767e+00 -4.374195e+00 1.337820e+00 -1.175146e+00 -2.542727e+00 -2.726151e+00 4.847988e+01
<VARIANCE> 13
 5.980797e+01 6.272856e+01 9.985775e+01 1.205720e+02 7.142363e+01 1.244804e+02 9.338012e+01 8.201830e+01 8.665981e+01 6.756300e+01 4.586568e+01 4.374607e+01 1.246950e+02
<GCONST> 8.065979e+01
<STATE> 3
<MEAN> 13
 2.163196e+00 -6.564858e+00 -6.730343e+00 -1.554537e+01 -9.293940e+00 3.317158e+00 -1.259079e+01 -1.225705e+01 1.631358e+00 -2.232562e+00 3.663126e+00 -2.950035e+00 6.832619e+01
<VARIANCE> 13
 2.266230e+01 3.383787e+01 2.500738e+01 7.394746e+01 5.476604e+01 7.579134e+01 5.220647e+01 4.958272e+01 8.185385e+01 4.941413e+01 3.398848e+01 6.255330e+01 5.705399e+01
<GCONST> 7.425832e+01
<STATE> 4
<MEAN> 13
 5.393771e+00 -2.462383e-01 -1.447681e+00 -1.264667e+01 -6.148955e-01 8.774020e+00 -1.319075e+01 -1.321932e+01 -8.211167e+00 4.509480e+00 4.095708e-01 -2.186971e+00 5.975611e+01
<VARIANCE> 13
 3.930090e+01 9.152100e+01 4.045146e+01 1.672184e+02 9.774723e+01 7.402193e+01 8.715488e+01 5.424659e+01 7.485574e+01 6.525968e+01 1.296088e+02 5.824113e+01 9.703265e+01
<GCONST> 8.024569e+01
<TRANSP> 5
 0.000000e+00 1.000000e+00 0.000000e+00 0.000000e+00 0.000000e+00
 0.000000e+00 6.434188e-01 3.565812e-01 0.000000e+00 0.000000e+00
 0.000000e+00 0.000000e+00 7.558120e-01 2.441880e-01 0.000000e+00
 0.000000e+00 0.000000e+00 0.000000e+00 8.301466e-01 1.698534e-01
 0.000000e+00 0.000000e+00 0.000000e+00 0.000000e+00 0.000000e+00
<ENDHMM>
~h "w"
<BEGINHMM>
<NUMSTATES> 5
<STATE> 2
<MEAN> 13
 -1.911917e+01 -4.110531e+00 2.791786e+00 -7.278577e+00 1.326638e+01 -2.372772e+00 -3.561303e+00 -4.371068e+00 5.612225e+00 -5.827919e+00 3.657995e+00 -6.907272e+00 6.320240e+01
<VARIANCE> 13
 5.310684e+01 2.422916e+01 1.510873e+01 4.587947e+01 7.164200e+01 5.746001e+01 3.202632e+01 4.741892e+01 2.759032e+01 2.168621e+01 1.166782e+01 1.098005e+01 9.673217e+00
<GCONST> 6.675832e+01
<STATE> 3
<MEAN> 13
 -3.717473e+00 -3.772496e+00 2.814268e+00 -8.702016e-01 -4.798766e-01 -6.823013e+00 -1.113949e+01 -5.221515e+00 2.571318e+00 -1.826184e+00 2.898024e+00 -4.012439e+00 6.605592e+01
<VARIANCE> 13
 7.128305e+01 5.286352e+01 3.892392e+01 2.426683e+01 6.608656e+01 5.424698e+01 3.875455e+01 4.568727e+01 4.237070e+01 7.155637e+01 5.359924e+01 1.352745e+01 1.940474e+01
<GCONST> 7.220979e+01
<STATE> 4
<MEAN> 13
 -6.702499e+00 -6.029847e+00 3.448362e+00 -3.166746e-01 -3.674953e-02 -4.039157e+00 -5.028215e+00 -9.597219e+00 -7.267392e+00 -6.171501e+00 3.166454e+00 1.038702e+00 5.970992e+01
<VARIANCE> 13
 2.861319e+01 9.591664e+00 1.314938e+01 1.832279e+01 2.376291e+01 3.190560e+01 6.694595e+01 4.600761e+01 2.941078e+01 3.175486e+01 3.184019e+01 2.675232e+01 3.266723e+01
<GCONST> 6.672842e+01
<TRANSP> 5
 0.000000e+00 1.000000e+00 0.000000e+00 0.000000e+00 0.000000e+00
 0.000000e+00 8.404330e-01 1.595670e-01 0.000000e+00 0.000000e+00
 0.000000e+00 0.000000e+00 6.462278e-01 3.537723e-01 0.000000e+00
 0.000000e+00 0.000000e+00 0.000000e+00 7.421977e-01 2.578023e-01
 0.000000e+00 0.000000e+00 0.000000e+00 0.000000e+00 0.000000e+00
<ENDHMM>
~h "ah"
<BEGINHMM>
<NUMSTATES> 5
<STATE> 2
<MEAN> 13
 4.379682e+00 -1.885249e+01 -1.120780e+01 -1.140008e+01 -1.258006e-01 2.470515e+00 -1.789863e+00 -7.684565e+00 1.996030e-01 5.154206e+00 -3.172135e+00 -7.374159e+00 7.060538e+01
<VARIANCE> 13
 1.166916e+01 5.579693e+01 3.259330e+01 4.654830e+01 8.514777e+01 1.047102e+02 5.007246e+01 4.974819e+01 1.265820e+02 6.848225e+01 6.865991e+01 4.031904e+01 2.204391e+01
<GCONST> 7.469820e+01
<STATE> 3
<MEAN> 13
 2.978781e+00 -1.985576e+01 -1.206225e+01 -7.637309e+00 -1.703886e+00 5.136150e-01 -4.109717e+00 -4.457429e+00 3.393214e+00 2.637944e+00 -7.683611e+00 -1.254079e+01 7.373885e+01
<VARIANCE> 13
 5.341385e+00 2.736516e+01 1.945950e+01 2.430931e+01 4.458015e+01 4.671075e+01 3.697141e+01 6.142680e+01 1.007121e+02 4.458937e+01 5.143221e+01 4.094038e+01 1.738665e+01
<GCONST> 6.932346e+01
<STATE> 4
<MEAN> 13
 2.885164e+00 -1.206076e+01 -6.112653e+00 -1.083095e+01 9.891301e+00 -6.652436e+00 8.560495e-01 -4.301747e+00 4.608613e+00 1.473328e+00 -1.365996e+01 -2.963102e+00 6.751647e+01
<VARIANCE> 13
 9.276923e+00 3.176934e+01 2.610531e+01 6.900935e+01 1.058837e+02 7.294051e+01 6.781251e+01 5.338681e+01 6.005162e+01 7.058563e+01 6.452603e+01 6.131609e+01 3.268568e+01
<GCONST> 7.434319e+01
<TRANSP> 5
 0.000000e+00 1.000000e+00 0.000000e+00 0.000000e+00 0.000000e+00
 0.000000e+00 6.072578e-01 3.927422e-01 0.000000e+00 0.000000e+00
 0.000000e+00 0.000000e+00 8.134944e-01 1.865056e-01 0.000000e+00
 0.000000e+00 0.000000e+00 0.000000e+00 6.522987e-01 3.477013e-01
 0.000000e+00 0.000000e+00 0.000000e+00 0.000000e+00 0.000000e+00
<ENDHMM>
~h "ax"
<BEGINHMM>
<NUMSTATES> 5
<STATE> 2
<MEAN> 13
 2.325007e+00 -1.072899e+01 5.718894e+00 -5.593398e+00 -8.408918e+00 -1.313802e+01 -5.469394e+00 2.549673e-01 -6.753314e+00 5.779735e+00 -2.795468e+00 -2.452791e+00 6.921521e+01
<VARIANCE> 13
 1.519325e+01 3.861821e+01 8.214754e+01 5.382748e+01 1.073507e+02 7.196037e+01 4.851151e+01 8.409747e+01 8.177053e+01 3.544475e+01 6.694239e+01 3.815113e+01 3.171847e+01
<GCONST> 7.520145e+01
<STATE> 3
<MEAN> 13
 4.626091e+00 -1.487820e+01 -6.821796e+00 -8.639156e+00 -6.244138e-01 -1.034332e+00 -5.093209e+00 -3.447894e+00 -2.053209e+00 7.705038e+00 -6.638737e+00 -9.416169e+00 7.029157e+01
<VARIANCE> 13
 1.437627e+01 3.182360e+01 2.551879e+01 3.925092e+01 4.948476e+01 4.704391e+01 3.956773e+01 6.632014e+01 7.271830e+01 4.259150e+01 7.894045e+01 4.030426e+01 4.120821e+01
<GCONST> 7.237487e+01
<STATE> 4
<MEAN> 13
 -2.526882e-02 -4.626508e+00 -5.323589e+00 -4.149947e+00 5.125604e-01 -4.941382e+00 -5.804777e+00 -4.224115e+00 3.231577e+00 5.461828e+00 -4.358875e+00 -7.075429e+00 6.307167e+01
<VARIANCE> 13
 3.397461e+01 3.722233e+01 2.999605e+01 4.181858e+01 7.662804e+01 8.009172e+01 5.928806e+01 7.183752e+01 7.975192e+01 4.954482e+01 4.660882e+01 4.969967e+01 6.077991e+01
<GCONST> 7.538513e+01
<TRANSP> 5
 0.000000e+00 1.000000e+00 0.000000e+00 0.000000e+00 0.000000e+00
 0.000000e+00 7.761827e-01 2.238172e-01 0.000000e+00 0.000000e+00
 0.000000e+00 0.000000e+00 8.233017e-01 1.766983e-01 0.000000e+00
 0.000000e+00 0.000000e+00 0.000000e+00 6.400795e-01 3.599205e-01
 0.000000e+00 0.000000e+00 0.000000e+00 0.000000e+00 0.000000e+00
<ENDHMM>
~h "ay"
<BEGINHMM>
<NUMSTATES> 5
<STATE> 2
<MEAN> 13
 -1.196811e+01 1.236436e+00 -4.661826e+00 8.247365e+00 5.631474e+00 -6.648274e+00 5.742137e+00 2.425059e+00 5.430004e+00 -6.704579e-01 -6.039839e-01 -9.520583e-01 5.982024e+01
<VARIANCE> 13
 4.479465e+01 4.243074e+01 2.660539e+01 6.310144e+01 2.995945e+01 2.703589e+01 3.622109e+01 2.848466e+01 3.441253e+01 2.860810e+01 1.713267e+01 2.066610e+01 3.282695e+01
<GCONST> 6.875709e+01
<STATE> 3
<MEAN> 13
 -8.006350e+00 -5.975084e+00 -4.503956e+00 -7.499906e+00 4.311251e+00 -9.426943e-01 -2.686459e-01 -5.839837e+00 1.486400e+00 -1.289593e+00 -5.099941e+00 -7.427148e+00 5.984515e+01
<VARIANCE> 13
 1.591517e+02 5.421627e+01 4.776399e+01 6.324421e+01 8.121439e+01 5.789872e+01 3.390712e+01 7.042728e+01 1.337247e+02 7.124783e+01 7.914571e+01 1.374671e+02 6.796802e+01
<GCONST> 7.987817e+01
<STATE> 4
<MEAN> 13
 8.305364e-01 -1.231164e+01 4.820365e+00 -1.748229e+01 4.396102e+00 -1.506441e+01 7.452106e+00 8.520043e-01 1.997096e+00 4.382326e-01 -1.154254e+01 3.495264e+00 7.026839e+01
<VARIANCE> 13
 6.681653e+00 1.639976e+01 9.302871e+01 2.672522e+01 8.962321e+01 5.015126e+01 3.479502e+01 3.739425e+01 6.028703e+01 4.670741e+01 4.992775e+01 3.305786e+01 1.223387e+01
<GCONST> 6.984526e+01
<TRANSP> 5
 0.000000e+00 1.000000e+00 0.000000e+00 0.000000e+00 0.000000e+00
 0.000000e+00 7.878671e-01 2.121329e-01 0.000000e+00 0.000000e+00
 0.000000e+00 0.000000e+00 4.480758e-01 5.519242e-01 0.000000e+00
 0.000000e+00 0.000000e+00 0.000000e+00 8.655108e-01 1.344892e-01
 0.000000e+00 0.000000e+00 0.000000e+00 0.000000e+00 0.000000e+00
<ENDHMM>
~h "eh"
<BEGINHMM>
<NUMSTATES> 5
<STATE> 2
<MEAN> 13
 1.611999e+00 -6.896814e+00 2.813269e+00 3.400088e+00 -7.506892e+00 -1.138071e+01 -9.146315e+00 4.859359e-01 1.753592e+00 -1.736047e+00 -4.570107e+00 -5.780777e+00 6.306470e+01
<VARIANCE> 13
 7.516169e+00 1.768494e+02 1.556857e+01 6.605299e+01 1.021760e+02 3.580659e+01 2.439886e+01 7.058962e+01 5.330756e+01 5.194605e+01 6.545241e+01 7.375172e+01 1.270994e+02
<GCONST> 7.492999e+01
<STATE> 3
<MEAN> 13
 4.005110e+00 -1.159719e+01 6.277402e+00 -5.943824e+00 -6.222816e+00 -1.202672e+01 -1.382425e+01 -2.982630e+00 -3.473820e+00 4.298778e+00 -3.041097e+00 -3.577122e+00 6.868521e+01
<VARIANCE> 13
 5.384166e+00 1.106853e+01 3.178553e+01 5.756019e+01 8.545919e+01 1.040159e+02 6.104920e+01 2.199394e+02 4.318596e+01 1.966148e+01 4.110833e+01 9.154279e+01 1.242889e+01
<GCONST> 7.158665e+01
<STATE> 4
<MEAN> 13
 5.910351e+00 -4.286587e+00 -1.001238e+00 -8.790995e+00 2.034385e+00 -2.355994e+00 -1.508290e+01 -1.031748e+01 -6.608636e+00 9.591260e+00 -5.071982e-01 -1.620811e+00 6.287523e+01
<VARIANCE> 13
 9.115878e+00 4.704483e+01 1.725002e+01 6.597231e+01 1.032192e+02 9.723984e+01 1.760732e+01 3.358122e+01 4.253066e+01 5.820161e+01 9.093031e+01 2.474208e+01 2.869447e+01
<GCONST> 7.147633e+01
<TRANSP> 5
 0.000000e+00 1.000000e+00 0.000000e+00 0.000000e+00 0.000000e+00
 0.000000e+00 9.119015e-01 8.809853e-02 0.000000e+00 0.000000e+00
 0.000000e+00 0.000000e+00 8.851648e-01 1.148352e-01 0.000000e+00
 0.000000e+00 0.000000e+00 0.000000e+00 8.211038e-01 1.788962e-01
 0.000000e+00 0.000000e+00 0.000000e+00 0.000000e+00 0.000000e+00
<ENDHMM>
~h "hh"
<BEGINHMM>
<NUMSTATES> 5
<STATE> 2
<MEAN> 13
 1.945678e+00 -7.580647e+00 1.819484e+00 -5.450233e+00 4.328374e+00 -1.646681e+01 -2.807657e+00 6.470160e+00 1.945415e+00 3.118567e-01 -1.488570e+01 2.394313e+00 6.410152e+01
<VARIANCE> 13
 6.055673e+00 8.223382e+01 2.858653e+01 1.728561e+02 6.485171e+01 8.994452e+01 8.760619e+01 6.817322e+01 4.092469e+01 4.048424e+01 2.779217e+01 7.309785e+01 7.863287e+01
<GCONST> 7.536855e+01
<STATE> 3
<MEAN> 13
 7.160448e-01 -1.587090e+01 -1.234905e+01 -4.350937e+00 -2.961660e-01 -2.638927e+00 -7.224026e+00 4.004341e+00 -1.691717e+00 -2.383425e+00 -1.555079e+01 -9.667482e+00 7.597633e+01
<VARIANCE> 13
 5.898348e+00 1.777041e+01 2.219926e+01 4.877005e+01 3.419474e+01 2.074096e+01 2.537712e+01 4.389511e+01 1.214627e+01 2.026777e+01 1.601740e+01 2.258360e+01 9.234911e+00
<GCONST> 6.273156e+01
<STATE> 4
<MEAN> 13
 1.278304e+00 -1.469021e+01 -2.079150e+00 -8.912107e+00 1.550004e+01 -5.113643e+00 9.418217e+00 -3.620802e+00 4.181735e+00 5.355599e+00 -1.983657e+01 1.288213e+00 6.847770e+01
<VARIANCE> 13
 9.404742e+00 1.082269e+01 1.700376e+01 6.414043e+01 4.340561e+01 5.901694e+01 4.827507e+01 4.396625e+01 5.171073e+01 3.312103e+01 3.965575e+01 2.481062e+01 1.842735e+01
<GCONST> 6.826970e+01
<TRANSP> 5
 0.000000e+00 1.000000e+00 0.000000e+00 0.000000e+00 0.000000e+00
 0.000000e+00 8.148560e-01 1.851440e-01 0.000000e+00 0.000000e+00
 0.000000e+00 0.000000e+00 9.056681e-01 9.433187e-02 0.000000e+00
 0.000000e+00 0.000000e+00 0.000000e+00 9.015868e-01 9.841322e-02
 0.000000e+00 0.000000e+00 0.000000e+00 0.000000e+00 0.000000e+00
<ENDHMM>
~h "ih"
<BEGINHMM>
<NUMSTATES> 5
<STATE> 2
<MEAN> 13
 3.608410e+00 6.863662e+00 5.823748e+00 -5.758533e+00 -9.378334e+00 8.208831e-01 -2.276927e+00 -9.192610e+00 -1.394187e+01 -3.036247e-01 -5.199436e+00 -4.476835e-01 5.389091e+01
<VARIANCE> 13
 5.061849e+01 1.398728e+02 2.128415e+02 1.295267e+02 6.663612e+01 1.004613e+02 1.006440e+02 5.680571e+01 7.163033e+01 7.934561e+01 5.707552e+01 3.520348e+01 7.642798e+01
<GCONST> 8.102933e+01
<STATE> 3
<MEAN> 13
 -2.989051e+00 -8.421112e+00 9.990986e+00 -6.766722e-01 -1.717853e+01 -8.548580e+00 -7.912364e+00 -5.505114e+00 -7.668911e+00 -3.869763e+00 7.260153e+00 -6.443314e+00 6.427136e+01
<VARIANCE> 13
 1.476971e+01 9.069785e+01 8.134413e+01 2.879100e+01 8.911770e+01 4.949790e+01 6.760236e+01 6.206347e+01 6.189498e+01 6.611448e+01 5.283831e+01 5.712663e+01 5.609388e+01
<GCONST> 7.594131e+01
<STATE> 4
<MEAN> 13
 -1.239378e+01 3.845832e+00 1.502342e+00 2.380351e+00 -2.981962e+00 -4.704452e-01 -3.195771e+00 -2.949812e+00 -2.820207e+00 -2.643092e+00 6.121053e-01 3.711184e-02 4.398772e+01
<VARIANCE> 13
 6.617363e+01 1.341345e+02 4.984834e+01 9.688589e+01 7.342206e+01 9.236706e+01 8.689005e+01 1.265677e+02 6.434454e+01 8.357045e+01 3.652480e+01 3.868078e+01 2.658555e+02
<GCONST> 8.101971e+01
<TRANSP> 5
 0.000000e+00 1.000000e+00 0.000000e+00 0.000000e+00 0.000000e+00
 0.000000e+00 7.181875e-01 2.818125e-01 0.000000e+00 0.000000e+00
 0.000000e+00 0.000000e+00 7.585013e-01 2.414987e-01 0.000000e+00
 0.000000e+00 0.000000e+00 0.000000e+00 6.679674e-01 3.320325e-01
 0.000000e+00 0.000000e+00 0.000000e+00 0.000000e+00 0.000000e+00
<ENDHMM>
~h "iy"
<BEGINHMM>
<NUMSTATES> 5
<STATE> 2
<MEAN> 13
 2.276853e+00 -9.719885e+00 1.688806e+01 -7.627873e+00 -1.248607e+01 -1.292721e+01 -4.646243e+00 -6.414478e+00 -1.609651e+01 7.647106e+00 2.581032e-01 -1.658521e-01 6.826694e+01
<VARIANCE> 13
 8.106907e+00 2.260094e+01 6.156556e+01 3.074516e+01 3.370216e+01 2.704104e+01 3.188424e+01 4.875480e+01 8.090114e+01 5.183187e+01 8.242258e+01 3.117162e+01 1.204325e+01
<GCONST> 6.949388e+01
<STATE> 3
<MEAN> 13
 -3.121664e+00 -1.192656e+01 1.475616e+01 -5.874263e-01 -2.406349e+01 -1.246937e+01 -1.309797e+01 -8.215215e+00 -7.447733e+00 -6.611237e+00 1.345739e+01 -4.289071e+00 6.890472e+01
<VARIANCE> 13
 4.904060e+00 5.430394e+01 2.599313e+01 2.145262e+01 3.030313e+01 1.612684e+01 2.683742e+01 4.921505e+01 5.373129e+01 5.531078e+01 6.478921e+01 9.307325e+01 7.306117e+00
<GCONST> 6.786867e+01
<STATE> 4
<MEAN> 13
 -2.074290e+00 -1.373615e+00 1.070177e+01 -1.506755e-01 -1.047709e+01 -1.071193e+01 -5.035354e+00 -6.383651e+00 -8.465138e+00 -5.696173e-02 1.290168e+00 -3.592795e-01 6.037469e+01
<VARIANCE> 13
 3.354146e+01 2.854208e+01 7.046368e+01 3.308591e+01 4.129505e+01 4.458055e+01 4.651522e+01 4.362234e+01 5.956306e+01 5.513494e+01 6.529581e+01 3.639115e+01 2.130577e+01
<GCONST> 7.257320e+01
<TRANSP> 5
 0.000000e+00 1.000000e+00 0.000000e+00 0.000000e+00 0.000000e+00
 0.000000e+00 8.373067e-01 1.626933e-01 0.000000e+00 0.000000e+00
 0.000000e+00 0.000000e+00 8.883157e-01 1.116844e-01 0.000000e+00
 0.000000e+00 0.000000e+00 0.000000e+00 6.809677e-01 3.190322e-01
 0.000000e+00 0.000000e+00 0.000000e+00 0.000000e+00 0.000000e+00
<ENDHMM>
~h "ng"
<BEGINHMM>
<NUMSTATES> 5
<STATE> 2
<MEAN> 13
 -4.325640e+00 -3.189736e+00 -1.189310e+01 2.257180e+00 -3.728571e+00 4.938472e+00 -7.518410e+00 -4.417799e+00 -4.089512e+00 -5.775230e+00 -6.693477e+00 -6.119615e+00 4.607505e+01
<VARIANCE> 13
 3.994823e+01 5.260121e+01 3.581462e+01 2.262531e+01 4.850748e+01 4.475020e+01 2.443031e+01 2.532703e+01 2.800041e+01 2.513012e+01 1.471042e+01 2.836071e+01 5.890965e+01
<GCONST> 6.901651e+01
<STATE> 3
<MEAN> 13
 -3.343524e+00 5.833051e+00 -2.401981e+00 9.750433e+00 4.033481e-01 9.858077e+00 -4.279452e-01 -3.750840e-01 8.712743e-01 -1.338973e+00 -8.742679e-01 8.776347e-01 4.868967e+01
<VARIANCE> 13
 2.979210e+01 7.409100e+01 2.645822e+01 3.893502e+01 9.312819e+01 5.683231e+01 3.718969e+01 2.699819e+01 2.628967e+01 3.779879e+01 1.930597e+01 2.134757e+01 1.094431e+02
<GCONST> 7.163350e+01
<STATE> 4
<MEAN> 13
 -1.451793e+01 5.413242e+00 -9.834896e+00 7.056190e+00 -5.874796e+00 1.979790e+00 -8.918053e+00 -3.611910e+00 -4.350920e+00 -7.647238e+00 -4.585813e+00 -5.235885e+00 3.278955e+01
<VARIANCE> 13
 2.191668e+01 1.379974e+01 2.778644e+01 3.665370e+01 3.803775e+01 4.160428e+01 5.237243e+01 5.092902e+01 2.734356e+01 2.062335e+01 2.944294e+01 2.019067e+01 4.128479e+01
<GCONST> 6.822903e+01
<TRANSP> 5
 0.000000e+00 1.000000e+00 0.000000e+00 0.000000e+00 0.000000e+00
 0.000000e+00 8.510004e-01 1.489996e-01 0.000000e+00 0.000000e+00
 0.000000e+00 0.000000e+00 8.367827e-01 1.632173e-01 0.000000e+00
 0.000000e+00 0.000000e+00 0.000000e+00 9.227065e-01 7.729349e-02
 0.000000e+00 0.000000e+00 0.000000e+00 0.000000e+00 0.000000e+00
<ENDHMM>
~h "oh"
<BEGINHMM>
<NUMSTATES> 5
<STATE> 2
<MEAN> 13
 4.786659e+00 -1.667343e+01 -1.161371e+01 -1.937253e+01 -4.500926e+00 9.871716e+00 1.665829e+00 -1.408276e+01 1.890255e+00 1.233398e+00 3.526782e+00 -7.237711e+00 7.215159e+01
<VARIANCE> 13
 1.089770e+01 6.313447e+01 1.793614e+01 6.991957e+01 9.716405e+01 1.285369e+02 4.678477e+01 4.824386e+01 1.441542e+02 5.272566e+01 7.396639e+01 6.675607e+01 1.296803e+01
<GCONST> 7.471795e+01
<STATE> 3
<MEAN> 13
 4.089036e+00 -1.867405e+01 -1.376045e+01 -1.008289e+01 -7.909719e+00 4.566408e+00 -7.679251e+00 -3.442094e+00 2.104075e+00 4.312736e+00 -2.061710e+00 -1.446481e+01 7.256819e+01
<VARIANCE> 13
 5.120278e+00 6.261477e+01 1.086003e+01 4.677110e+01 3.861755e+01 6.572482e+01 3.428477e+01 3.705642e+01 6.601369e+01 3.336586e+01 3.805917e+01 6.960887e+01 1.772132e+01
<GCONST> 6.933350e+01
<STATE> 4
<MEAN> 13
 7.937432e+00 -6.464534e+00 -6.657842e+00 9.613032e+00 -2.347283e+01 1.368439e+00 -7.054283e+00 2.106303e-01 4.791019e+00 -1.071279e+01 -4.806640e+00 3.283156e+00 6.814996e+01
<VARIANCE> 13
 1.662042e+01 2.073048e+01 3.896048e+01 5.452204e+01 1.083506e+02 1.293078e+02 2.659683e+01 3.189356e+01 2.699574e+01 7.411512e+01 1.892751e+01 2.957222e+01 1.404920e+01
<GCONST> 7.025787e+01
<TRANSP> 5
 0.000000e+00 1.000000e+00 0.000000e+00 0.000000e+00 0.000000e+00
 0.000000e+00 9.024230e-01 9.757703e-02 0.000000e+00 0.000000e+00
 0.000000e+00 0.000000e+00 9.054218e-01 9.457819e-02 0.000000e+00
 0.000000e+00 0.000000e+00 0.000000e+00 8.833477e-01 1.166522e-01
 0.000000e+00 0.000000e+00 0.000000e+00 0.000000e+00 0.000000e+00
<ENDHMM>
~h "sp"
<BEGINHMM>
<NUMSTATES> 5
<STATE> 2
~s "silst"
<STATE> 3
<MEAN> 13
 -8.861578e+00 1.689257e+00 -1.428690e+00 1.734139e+00 2.363858e+00 1.311027e+00 1.902645e+00 4.029643e-01 2.182424e+00 -1.179641e+00 6.197161e-01 -1.187597e+00 5.075737e+01
<VARIANCE> 13
 2.093300e+01 8.402652e+00 1.241524e+01 1.178995e+01 1.498604e+01 1.389368e+01 1.742790e+01 1.220474e+01 1.390060e+01 1.048622e+01 1.031728e+01 9.275875e+00 5.061716e+01
<GCONST> 5.821442e+01
<STATE> 4
<MEAN> 13
 -2.490266e+01 3.132784e+00 -9.938063e+00 4.856347e+00 -7.158361e+00 5.163908e+00 -3.835684e+00 1.136757e+00 1.084759e+00 -1.492576e+00 8.192068e-01 -7.795203e-01 2.473973e+01
<VARIANCE> 13
 2.245400e+01 4.709069e+00 6.601575e+00 7.459795e+00 1.140796e+01 9.507609e+00 1.333058e+01 1.436695e+01 1.534329e+01 1.372878e+01 1.283633e+01 1.036696e+01 3.074544e+01
<GCONST> 5.605841e+01
<TRANSP> 5
 0.000000e+00 7.000000e-01 3.000000e-01 0.000000e+00 0.000000e+00
 0.000000e+00 7.499560e-01 2.500440e-01 0.000000e+00 0.000000e+00
 0.000000e+00 0.000000e+00 8.696231e-01 1.303769e-01 0.000000e+00
 0.000000e+00 0.000000e+00 0.000000e+00 9.336296e-01 6.637039e-02
 0.000000e+00 0.000000e+00 0.000000e+00 0.000000e+00 0.000000e+00
<ENDHMM>
~h "uh"
<BEGINHMM>
<NUMSTATES> 5
<STATE> 2
<MEAN> 13
 -7.245029e+00 4.816844e+00 -3.543482e+00 -2.921041e+00 -2.486643e+00 1.878798e+00 -4.791019e+00 -4.720598e+00 -2.387621e+00 -3.940405e+00 -8.055515e-01 -2.203194e+00 4.768350e+01
<VARIANCE> 13
 1.033648e+02 5.448236e+01 2.924737e+01 7.633856e+01 3.547768e+01 2.696807e+01 5.340260e+01 5.356997e+01 3.669857e+01 2.575695e+01 2.987149e+01 1.618626e+01 1.683303e+02
<GCONST> 7.322036e+01
<STATE> 3
<MEAN> 13
 -7.625246e-01 3.920347e+00 -4.940015e+00 -8.121206e+00 -7.790485e+00 2.448321e-01 -7.125151e+00 -7.615357e+00 -6.928504e+00 -2.411006e+00 2.030494e-01 -2.457756e+00 5.434604e+01
<VARIANCE> 13
 1.031413e+02 5.638538e+01 2.302584e+01 8.227415e+01 3.890446e+01 3.712320e+01 3.431161e+01 4.252542e+01 4.410415e+01 2.625597e+01 2.965314e+01 2.346990e+01 1.958996e+02
<GCONST> 7.354566e+01
<STATE> 4
<MEAN> 13
 -2.109942e+00 2.981666e+00 -2.146633e+00 -3.244635e+00 -6.421941e+00 -8.907828e-01 -1.230095e+01 -1.161800e+01 -7.720553e+00 -1.772957e+00 3.707997e-01 -5.151612e+00 5.380882e+01
<VARIANCE> 13
 7.613379e+01 7.340567e+01 3.925529e+01 6.584452e+01 3.411036e+01 4.204861e+01 5.549598e+01 4.516742e+01 4.868434e+01 5.373355e+01 4.635016e+01 3.502358e+01 2.296156e+02
<GCONST> 7.617145e+01
<TRANSP> 5
 0.000000e+00 1.000000e+00 0.000000e+00 0.000000e+00 0.000000e+00
 0.000000e+00 4.694632e-01 5.305368e-01 0.000000e+00 0.000000e+00
 0.000000e+00 0.000000e+00 3.877278e-01 6.122721e-01 0.000000e+00
 0.000000e+00 0.000000e+00 0.000000e+00 5.799633e-01 4.200367e-01
 0.000000e+00 0.000000e+00 0.000000e+00 0.000000e+00 0.000000e+00
<ENDHMM>
~h "uw"
<BEGINHMM>
<NUMSTATES> 5
<STATE> 2
<MEAN> 13
 4.174297e+00 -5.634297e+00 -5.228198e+00 -1.383606e+01 -8.902964e+00 3.657970e+00 -1.592862e+01 -1.715459e+01 -1.656442e+00 -1.670938e+00 7.092960e+00 -1.535489e+00 6.729231e+01
<VARIANCE> 13
 1.821465e+01 4.092617e+01 1.212603e+01 6.360187e+01 5.431154e+01 3.314634e+01 3.785435e+01 3.848994e+01 1.182917e+02 2.981644e+01 4.665181e+01 4.189423e+01 4.738626e+01
<GCONST> 7.153861e+01
<STATE> 3
<MEAN> 13
 6.435893e+00 7.507139e-01 -6.436388e+00 -1.569796e+01 -1.278692e+01 1.760270e+00 -1.039053e+01 -9.864286e+00 -8.437658e+00 -4.415666e+00 2.514271e+00 -2.592054e+00 6.284107e+01
<VARIANCE> 13
 2.491871e+01 2.891269e+01 1.831355e+01 6.874709e+01 4.830464e+01 5.252581e+01 4.052801e+01 4.433359e+01 5.492260e+01 3.083488e+01 3.918146e+01 5.945134e+01 5.230994e+01
<GCONST> 7.208807e+01
<STATE> 4
<MEAN> 13
 5.898339e+00 -2.017436e+00 -7.680457e+00 -1.901499e+01 -2.826422e+00 7.239685e+00 -6.648818e+00 -1.082204e+01 -5.697922e+00 4.528640e+00 -6.344317e-01 -1.238832e+00 6.226422e+01
<VARIANCE> 13
 4.152343e+01 9.893215e+01 3.461345e+01 2.079148e+02 9.905268e+01 6.957194e+01 4.460470e+01 4.184933e+01 9.637811e+01 1.510357e+02 1.239740e+02 1.352404e+02 1.077313e+02
<GCONST> 8.145696e+01
<TRANSP> 5
 0.000000e+00 1.000000e+00 0.000000e+00 0.000000e+00 0.000000e+00
 0.000000e+00 7.720723e-01 2.279277e-01 0.000000e+00 0.000000e+00
 0.000000e+00 0.000000e+00 8.127705e-01 1.872295e-01 0.000000e+00
 0.000000e+00 0.000000e+00 0.000000e+00 6.889297e-01 3.110703e-01
 0.000000e+00 0.000000e+00 0.000000e+00 0.000000e+00 0.000000e+00
<ENDHMM>
~h "sil"
<BEGINHMM>
<NUMSTATES> 5
<STATE> 2
<MEAN> 13
 -1.272300e+01 2.566431e+00 -5.161309e+00 5.546211e+00 -3.565606e-01 3.516299e+00 -2.868222e+00 -9.122719e-01 -6.909235e-01 -2.781619e+00 -1.439065e+00 -2.283731e+00 4.056903e+01
<VARIANCE> 13
 5.734452e+01 3.530618e+01 4.036584e+01 3.579379e+01 4.404288e+01 3.829578e+01 4.398695e+01 3.502763e+01 3.321291e+01 2.646622e+01 2.807013e+01 2.070326e+01 1.536258e+02
<GCONST> 7.173016e+01
<STATE> 3
~s "silst"
<STATE> 4
<MEAN> 13
 -2.565376e+01 2.861186e+00 -1.000036e+01 4.569718e+00 -7.407897e+00 5.267552e+00 -3.411650e+00 1.466237e+00 1.486244e+00 -1.048177e+00 1.263628e+00 -4.513242e-01 2.413264e+01
<VARIANCE> 13
 1.494654e+01 3.219544e+00 6.100042e+00 5.721745e+00 1.036604e+01 8.343569e+00 1.082092e+01 1.169253e+01 1.215581e+01 1.043033e+01 9.702079e+00 8.262848e+00 2.810295e+01
<GCONST> 5.318166e+01
<TRANSP> 5
 0.000000e+00 1.000000e+00 0.000000e+00 0.000000e+00 0.000000e+00
 0.000000e+00 5.387630e-01 2.052090e-01 2.560280e-01 0.000000e+00
 0.000000e+00 0.000000e+00 9.486385e-01 5.136155e-02 0.000000e+00
 0.000000e+00 7.365383e-03 0.000000e+00 9.224066e-01 7.022808e-02
 0.000000e+00 0.000000e+00 0.000000e+00 0.000000e+00 0.000000e+00
<ENDHMM>
