~o
<STREAMINFO> 1 13
<VECSIZE> 13<NULLD><MFCC_0><DIAGC>
~s "silst"
<MEAN> 13
 -8.174706e+00 1.510098e+00 -7.959705e-01 1.624847e+00 2.839060e+00 6.075767e-01 2.703502e+00 9.134651e-01 3.100096e+00 -8.747854e-01 8.286400e-01 -1.492617e+00 5.267961e+01
<VARIANCE> 13
 6.570610e+00 1.059313e+01 7.860691e+00 1.189405e+01 8.826643e+00 1.240856e+01 1.152664e+01 1.097533e+01 1.039227e+01 9.135796e+00 9.125648e+00 8.891077e+00 1.439574e+01
<GCONST> 5.382594e+01
~h "b"
<BEGINHMM>
<NUMSTATES> 5
<STATE> 2
<MEAN> 13
 3.097052e+00 1.002572e+01 -6.379999e+00 -1.824658e+00 -1.600976e+00 7.153724e+00 -1.030323e+01 -2.539459e+00 -4.372940e+00 -2.905753e+00 -4.946169e+00 -5.244959e+00 4.558028e+01
<VARIANCE> 13
 1.216758e+02 1.520427e+02 3.917630e+01 1.242471e+02 9.593399e+01 9.312444e+01 6.423574e+01 4.880443e+01 6.346811e+01 7.034064e+01 2.817783e+01 5.081712e+01 7.533813e+01
<GCONST> 7.934888e+01
<STATE> 3
<MEAN> 13
 -6.202910e+00 2.799676e+00 -8.119836e+00 7.667142e-01 1.795525e+00 6.707940e+00 8.791084e-01 7.149092e-01 1.495569e+00 -2.498677e+00 -2.434053e+00 -3.076749e+00 4.575443e+01
<VARIANCE> 13
 5.562212e+01 8.424094e+01 6.388223e+01 2.197342e+01 2.907483e+01 9.123183e+01 3.139846e+01 1.768425e+01 4.728413e+01 3.475972e+01 1.870692e+01 5.543068e+01 1.200414e+02
<GCONST> 7.293074e+01
<STATE> 4
<MEAN> 13
 -1.728048e+01 7.984798e+00 -5.613070e+00 5.324245e+00 -5.143232e+00 4.759850e+00 -5.664519e+00 1.569645e+00 -2.271858e+00 -5.519419e+00 -1.674519e+00 -6.584963e+00 2.906271e+01
<VARIANCE> 13
 5.251576e+01 2.789819e+01 1.890325e+01 3.688785e+01 3.314854e+01 3.886370e+01 2.810849e+01 3.627836e+01 2.695603e+01 3.531266e+01 4.537180e+01 5.172564e+01 7.140211e+01
<GCONST> 7.070527e+01
<TRANSP> 5
 0.000000e+00 1.000000e+00 0.000000e+00 0.000000e+00 0.000000e+00
 0.000000e+00 8.931283e-01 1.068716e-01 0.000000e+00 0.000000e+00
 0.000000e+00 0.000000e+00 7.896252e-01 2.103748e-01 0.000000e+00
 0.000000e+00 0.000000e+00 0.000000e+00 8.807882e-01 1.192118e-01
 0.000000e+00 0.000000e+00 0.000000e+00 0.000000e+00 0.000000e+00
<ENDHMM>
~h "d"
<BEGINHMM>
<NUMSTATES> 5
<STATE> 2
<MEAN> 13
 1.828720e-01 9.576231e+00 1.691744e+00 6.428089e+00 3.845797e+00 4.720099e-01 -7.076227e+00 -7.465540e+00 -1.838943e+00 -3.376496e+00 -9.521894e+00 -7.348831e+00 4.964273e+01
<VARIANCE> 13
 3.530489e+01 1.989044e+02 5.063599e+01 2.055859e+02 4.632148e+01 7.636052e+01 7.729212e+01 4.643008e+01 4.553798e+01 6.857753e+01 4.190602e+01 3.164831e+01 2.033823e+02
<GCONST> 7.890809e+01
<STATE> 3
<MEAN> 13
 3.868500e+00 -6.915392e-01 -2.313911e+00 -2.594727e-01 6.584368e+00 -4.062649e+00 -1.035377e+01 -8.313998e+00 3.053520e+00 1.334332e+00 -1.265592e+01 -7.099253e+00 5.984007e+01
<VARIANCE> 13
 1.199136e+01 1.153803e+02 1.762736e+01 2.129718e+02 7.874580e+01 8.633453e+01 2.193911e+02 8.116548e+01 4.902910e+01 7.071810e+01 5.064537e+01 6.658091e+01 8.166059e+01
<GCONST> 7.864420e+01
<STATE> 4
<MEAN> 13
 3.342571e+00 -6.067134e+00 -1.724678e+00 -4.976228e+00 3.917103e+00 -8.354625e+00 -8.309256e+00 -3.884279e+00 3.893392e+00 2.444743e+00 -1.439196e+01 -4.067916e+00 6.507235e+01
<VARIANCE> 13
 1.262770e+01 5.417360e+01 1.974463e+01 1.120907e+02 9.625739e+01 8.586285e+01 1.640504e+02 1.264160e+02 3.862456e+01 5.210362e+01 6.166714e+01 7.760648e+01 3.697599e+01
<GCONST> 7.677300e+01
<TRANSP> 5
 0.000000e+00 1.000000e+00 0.000000e+00 0.000000e+00 0.000000e+00
 0.000000e+00 4.873490e-01 5.126510e-01 0.000000e+00 0.000000e+00
 0.000000e+00 0.000000e+00 1.651030e-01 8.348970e-01 0.000000e+00
 0.000000e+00 0.000000e+00 0.000000e+00 2.233010e-01 7.766990e-01
 0.000000e+00 0.000000e+00 0.000000e+00 0.000000e+00 0.000000e+00
<ENDHMM>
~h "g"
<BEGINHMM>
<NUMSTATES> 5
<STATE> 2
<MEAN> 13
 -5.803638e+00 -3.850663e-01 2.154177e+01 -6.962402e+00 -9.883806e+00 -1.057733e+01 -7.256607e+00 -9.993535e+00 -1.083863e+01 -1.275893e-01 1.316891e+00 -8.335391e+00 6.605494e+01
<VARIANCE> 13
 1.196466e+01 2.829656e+01 9.109284e+01 1.503870e+02 1.196530e+02 3.028045e+01 5.575184e+01 2.722492e+01 1.736481e+01 2.964451e+01 1.233580e+02 6.183696e+01 5.432612e+01
<GCONST> 7.394066e+01
<STATE> 3
<MEAN> 13
 -2.150686e+00 1.859208e+00 1.117971e+01 1.412781e+00 -9.291425e+00 -1.317782e+01 -4.485222e+00 -3.357204e+00 -6.107404e+00 -1.281142e+00 -3.804057e+00 -7.341381e+00 5.985621e+01
<VARIANCE> 13
 9.696370e+00 9.372734e+01 5.863391e+01 5.464491e+01 7.285386e+01 9.605614e+01 5.465787e+01 2.680396e+01 3.450016e+01 2.030308e+01 5.643501e+01 6.405663e+01 1.032061e+02
<GCONST> 7.430106e+01
<STATE> 4
<MEAN> 13
 1.034550e+00 -1.669573e+01 -9.185052e+00 -6.181433e+00 -1.175990e+01 -7.130568e+00 -1.434428e+01 6.577511e+00 3.203529e+00 3.109248e+00 -7.591847e+00 -2.223139e+01 7.665340e+01
<VARIANCE> 13
 1.057295e+01 2.572205e+01 3.761732e+01 2.158623e+01 3.344091e+01 7.871646e+01 2.149244e+01 1.923607e+01 2.260682e+01 1.210930e+01 2.942777e+01 5.515085e+01 5.358936e+01
<GCONST> 6.708328e+01
<TRANSP> 5
 0.000000e+00 1.000000e+00 0.000000e+00 0.000000e+00 0.000000e+00
 0.000000e+00 8.603898e-01 1.396102e-01 0.000000e+00 0.000000e+00
 0.000000e+00 0.000000e+00 8.505631e-01 1.494370e-01 0.000000e+00
 0.000000e+00 0.000000e+00 0.000000e+00 8.581380e-01 1.418620e-01
 0.000000e+00 0.000000e+00 0.000000e+00 0.000000e+00 0.000000e+00
<ENDHMM>
~h "j"
<BEGINHMM>
<NUMSTATES> 5
<STATE> 2
<MEAN> 13
 -6.396430e+00 1.869783e+01 3.033418e+01 -8.403533e+00 -2.885983e+00 -3.528322e+00 -1.120826e+01 -3.902970e+00 -1.736214e+01 2.795535e+00 -2.120797e+00 -6.071919e+00 4.837013e+01
<VARIANCE> 13
 6.017080e+00 5.771098e+01 1.188529e+02 1.683643e+02 3.057625e+01 3.271400e+01 4.729133e+01 2.451289e+01 6.565472e+01 4.025544e+01 1.818727e+01 1.053548e+01 6.480776e+01
<GCONST> 7.091657e+01
<STATE> 3
<MEAN> 13
 -1.073403e+00 -1.699966e+00 1.167784e+01 6.473037e+00 -1.417540e+01 -9.616304e+00 -1.130321e+01 -4.240169e+00 -6.025345e+00 -5.287792e+00 1.827566e+00 -8.028907e+00 6.264293e+01
<VARIANCE> 13
 3.467070e+01 3.534261e+01 1.729844e+02 6.735696e+01 6.814803e+01 6.795349e+01 1.534741e+02 5.874673e+01 4.535421e+01 2.631369e+01 4.376459e+01 4.889508e+01 7.186722e+01
<GCONST> 7.694178e+01
<STATE> 4
<MEAN> 13
 9.188750e+00 1.617489e+01 -4.094925e+00 4.704097e+00 -4.217803e+00 9.133247e+00 -1.126997e+01 -1.590312e+01 -1.154291e+01 -4.458998e+00 -2.870764e+00 -3.088446e+00 4.656199e+01
<VARIANCE> 13
 2.256576e+01 6.932055e+01 3.722382e+01 2.692602e+01 1.517844e+01 3.055185e+01 3.186114e+01 1.987926e+01 2.588894e+01 2.284884e+01 3.921419e+01 3.202637e+01 5.136299e+01
<GCONST> 6.820522e+01
<TRANSP> 5
 0.000000e+00 1.000000e+00 0.000000e+00 0.000000e+00 0.000000e+00
 0.000000e+00 8.865142e-01 1.134858e-01 0.000000e+00 0.000000e+00
 0.000000e+00 0.000000e+00 8.828138e-01 1.171861e-01 0.000000e+00
 0.000000e+00 0.000000e+00 0.000000e+00 8.571931e-01 1.428069e-01
 0.000000e+00 0.000000e+00 0.000000e+00 0.000000e+00 0.000000e+00
<ENDHMM>
~h "k"
<BEGINHMM>
<NUMSTATES> 5
<STATE> 2
<MEAN> 13
 -9.133474e+00 3.239544e+00 -5.759013e+00 1.205776e+00 8.418592e-02 6.437531e-01 -3.497716e+00 -1.475759e+00 1.297775e+00 1.380744e+00 -2.961759e-02 -2.237063e+00 4.554103e+01
<VARIANCE> 13
 4.022276e+01 5.300058e+01 4.047430e+01 3.085606e+01 4.308419e+01 2.974484e+01 5.310328e+01 2.700868e+01 2.769995e+01 3.557400e+01 2.269875e+01 2.187869e+01 1.474545e+02
<GCONST> 7.120573e+01
<STATE> 3
<MEAN> 13
 -9.067861e+00 -1.131177e+00 -9.758117e+00 1.886254e+00 4.629505e+00 4.489606e-02 -3.272023e+00 2.022366e-01 1.071975e+00 1.699261e+00 -1.560096e+00 -2.302296e+00 4.885186e+01
<VARIANCE> 13
 3.261667e+01 8.395366e+01 7.936440e+01 5.785339e+01 6.581633e+01 8.375636e+01 4.333413e+01 4.216815e+01 5.615435e+01 5.362189e+01 3.309858e+01 2.182261e+01 1.662291e+02
<GCONST> 7.607070e+01
<STATE> 4
<MEAN> 13
 -1.175636e+01 3.938676e-02 -1.075607e+01 2.343427e+00 1.180508e+01 -8.345137e-01 3.222799e-01 1.070354e-01 4.092474e-01 5.071769e+00 1.224781e+00 -1.973634e+00 4.529799e+01
<VARIANCE> 13
 6.959603e+01 1.444591e+02 1.717607e+02 1.939957e+02 1.249765e+02 3.699448e+02 5.936169e+01 1.615635e+02 1.111656e+02 7.937885e+01 8.240977e+01 6.522092e+01 2.358496e+02
<GCONST> 8.657001e+01
<TRANSP> 5
 0.000000e+00 1.000000e+00 0.000000e+00 0.000000e+00 0.000000e+00
 0.000000e+00 6.934544e-01 3.065456e-01 0.000000e+00 0.000000e+00
 0.000000e+00 0.000000e+00 3.073775e-01 6.926225e-01 0.000000e+00
 0.000000e+00 0.000000e+00 0.000000e+00 6.920783e-01 3.079217e-01
 0.000000e+00 0.000000e+00 0.000000e+00 0.000000e+00 0.000000e+00
<ENDHMM>
~h "l"
<BEGINHMM>
<NUMSTATES> 5
<STATE> 2
<MEAN> 13
 4.067026e+00 -1.529348e+01 -1.068538e+01 -1.377519e+01 3.591448e+00 -9.996523e-01 -9.241012e+00 -8.234544e-01 1.694845e+00 4.912271e+00 -1.421742e+01 -1.160916e+01 7.409753e+01
<VARIANCE> 13
 3.393989e+00 1.314446e+01 3.666150e+01 3.728913e+01 1.320714e+02 1.321585e+01 2.373544e+01 1.429634e+01 2.957200e+01 2.597196e+01 3.645283e+01 1.092900e+02 1.087175e+01
<GCONST> 6.552261e+01
<STATE> 3
<MEAN> 13
 4.824595e+00 -9.126806e+00 -5.556091e+00 -1.942511e+01 1.298541e+01 -5.837095e-01 -9.455313e+00 -2.790421e+00 8.026770e+00 6.580569e+00 -1.902088e+01 -3.405743e-02 6.819105e+01
<VARIANCE> 13
 1.011845e+01 4.986556e+01 2.520844e+01 4.103807e+01 1.018197e+02 4.648853e+01 4.949176e+01 2.986209e+01 6.158965e+01 3.543374e+01 7.697533e+01 8.345298e+01 2.199444e+01
<GCONST> 7.236530e+01
<STATE> 4
<MEAN> 13
 6.115178e+00 -1.534662e+00 -5.091880e+00 -1.022504e+01 4.538280e+00 1.247036e+00 -5.221178e+00 -2.757973e+00 4.158236e-01 6.707278e+00 -1.001274e+01 -4.694635e+00 6.293655e+01
<VARIANCE> 13
 2.317509e+01 2.503025e+02 3.487984e+01 1.099197e+02 9.358305e+01 3.959891e+01 1.996390e+01 2.890059e+01 5.532423e+01 2.744485e+01 9.680258e+01 5.693238e+01 1.487091e+02
<GCONST> 7.632716e+01
<TRANSP> 5
 0.000000e+00 1.000000e+00 0.000000e+00 0.000000e+00 0.000000e+00
 0.000000e+00 9.190079e-01 8.099211e-02 0.000000e+00 0.000000e+00
 0.000000e+00 0.000000e+00 5.475401e-01 4.524599e-01 0.000000e+00
 0.000000e+00 0.000000e+00 0.000000e+00 2.582757e-01 7.417243e-01
 0.000000e+00 0.000000e+00 0.000000e+00 0.000000e+00 0.000000e+00
<ENDHMM>
~h "m"
<BEGINHMM>
<NUMSTATES> 5
<STATE> 2
<MEAN> 13
 3.649724e+00 2.798296e-01 -8.063567e-01 -2.101774e-02 4.601916e+00 -4.395866e+00 -5.124243e+00 -1.154655e+01 -9.961512e+00 3.214853e-01 -7.301434e+00 -4.756680e+00 6.025330e+01
<VARIANCE> 13
 6.652253e+00 2.537814e+01 2.494386e+01 2.585530e+01 8.404824e+01 4.753008e+01 3.708210e+01 3.815097e+01 3.879035e+01 2.368970e+01 3.927430e+01 5.233172e+01 1.971527e+01
<GCONST> 6.847060e+01
<STATE> 3
<MEAN> 13
 4.304736e+00 4.255416e+00 -9.162799e-01 1.970399e+00 1.190121e+01 5.171609e-03 -7.280228e+00 -1.610413e+01 -1.112537e+01 4.650977e-01 -9.515647e+00 2.842634e+00 5.625809e+01
<VARIANCE> 13
 1.248634e+01 3.935880e+01 3.929929e+01 4.092126e+01 1.028080e+02 6.197691e+01 4.716084e+01 4.981924e+01 3.661476e+01 3.989884e+01 5.232303e+01 6.975242e+01 2.901955e+01
<GCONST> 7.285136e+01
<STATE> 4
<MEAN> 13
 -2.517832e+00 1.265846e+01 2.277501e-02 9.516297e+00 7.516855e+00 5.533439e+00 -8.612138e+00 -6.208194e+00 -6.200076e+00 -3.275937e+00 -3.334348e+00 -2.542963e+00 4.234851e+01
<VARIANCE> 13
 8.695016e+01 8.768419e+01 7.399359e+01 1.525814e+02 1.023890e+02 9.562016e+01 6.779128e+01 8.306965e+01 8.986308e+01 3.647587e+01 4.549559e+01 4.593764e+01 1.634931e+02
<GCONST> 8.082504e+01
<TRANSP> 5
 0.000000e+00 1.000000e+00 0.000000e+00 0.000000e+00 0.000000e+00
 0.000000e+00 5.935892e-01 4.064109e-01 0.000000e+00 0.000000e+00
 0.000000e+00 0.000000e+00 6.345881e-01 3.654119e-01 0.000000e+00
 0.000000e+00 0.000000e+00 0.000000e+00 7.019169e-01 2.980831e-01
 0.000000e+00 0.000000e+00 0.000000e+00 0.000000e+00 0.000000e+00
<ENDHMM>
~h "n"
<BEGINHMM>
<NUMSTATES> 5
<STATE> 2
<MEAN> 13
 2.525906e+00 3.410906e+00 5.360288e-01 1.617886e+00 -1.444369e+00 -8.781553e+00 -5.876127e+00 -6.429325e+00 -1.432583e+00 -2.639170e+00 -1.101584e+01 -1.991340e+00 5.754788e+01
<VARIANCE> 13
 2.282698e+01 2.220712e+01 2.612704e+01 6.873887e+01 8.297233e+01 7.486295e+01 2.331979e+01 4.259534e+01 2.429644e+01 3.674240e+01 6.455720e+01 9.205076e+01 2.314633e+01
<GCONST> 7.187524e+01
<STATE> 3
<MEAN> 13
 4.201718e+00 8.540265e+00 -1.477502e+00 8.847511e-02 -6.699269e-01 -1.301565e+00 -6.972108e+00 -4.764875e+00 1.042074e-01 -5.997160e+00 -9.935345e+00 4.586376e+00 5.320808e+01
<VARIANCE> 13
 5.040680e+01 3.114566e+01 3.398930e+01 2.778451e+02 7.124064e+01 1.527408e+02 7.025563e+01 7.230314e+01 5.207671e+01 4.919051e+01 9.953909e+01 1.069032e+02 3.892596e+01
<GCONST> 7.901467e+01
<STATE> 4
<MEAN> 13
 -4.111679e+00 1.600762e+01 1.643767e+00 1.104888e+01 -5.759366e-01 3.284100e+00 -7.304266e+00 -3.161684e+00 -2.384047e+00 -5.357134e+00 -4.151130e+00 2.662165e-01 3.845637e+01
<VARIANCE> 13
 1.162355e+02 8.188806e+01 4.276633e+01 1.565842e+02 4.650026e+01 5.953267e+01 5.308258e+01 5.912436e+01 4.864552e+01 3.879156e+01 4.347396e+01 4.526669e+01 1.165040e+02
<GCONST> 7.772562e+01
<TRANSP> 5
 0.000000e+00 1.000000e+00 0.000000e+00 0.000000e+00 0.000000e+00
 0.000000e+00 7.150580e-01 2.849419e-01 0.000000e+00 0.000000e+00
 0.000000e+00 0.000000e+00 3.945782e-01 6.054218e-01 0.000000e+00
 0.000000e+00 0.000000e+00 0.000000e+00 7.803209e-01 2.196791e-01
 0.000000e+00 0.000000e+00 0.000000e+00 0.000000e+00 0.000000e+00
<ENDHMM>
~h "p"
<BEGINHMM>
<NUMSTATES> 5
<STATE> 2
<MEAN> 13
 -8.598818e+00 3.171741e+00 -6.879215e+00 1.744652e+00 -2.964471e+00 -5.307329e-01 -6.356760e+00 -1.249398e+00 -1.455083e+00 -8.760482e-01 -3.071503e+00 -3.830133e+00 4.189914e+01
<VARIANCE> 13
 5.943322e+01 4.795628e+01 3.728160e+01 3.979457e+01 5.379220e+01 3.764693e+01 7.193645e+01 6.117277e+01 4.922686e+01 3.084300e+01 6.235878e+01 2.400303e+01 1.489050e+02
<GCONST> 7.479238e+01
<STATE> 3
<MEAN> 13
 -6.701617e+00 2.450118e+00 -6.430308e+00 4.576923e+00 -1.543270e+00 1.195902e+00 -1.266413e+00 9.390048e-01 2.199398e+00 1.291692e+00 -1.169474e+00 -2.937651e+00 4.548956e+01
<VARIANCE> 13
 4.850008e+01 6.571419e+01 6.198423e+01 6.223435e+01 4.122386e+01 8.498834e+01 4.504591e+01 3.784602e+01 3.010343e+01 2.603096e+01 3.061742e+01 2.484712e+01 1.853321e+02
<GCONST> 7.434019e+01
<STATE> 4
<MEAN> 13
 4.182806e+00 -6.178881e+00 -8.924977e+00 -2.119354e+00 -2.337502e+00 -5.250141e+00 -5.911719e-01 -8.414310e-01 1.617948e+00 4.684673e+00 -2.554332e+00 -4.346364e+00 6.255942e+01
<VARIANCE> 13
 2.901827e+01 3.030695e+01 3.879545e+01 6.791202e+01 7.457556e+01 7.903703e+01 5.155474e+01 6.327927e+01 4.588210e+01 2.991442e+01 3.741537e+01 3.829544e+01 7.262587e+01
<GCONST> 7.409731e+01
<TRANSP> 5
 0.000000e+00 1.000000e+00 0.000000e+00 0.000000e+00 0.000000e+00
 0.000000e+00 6.369390e-01 3.630611e-01 0.000000e+00 0.000000e+00
 0.000000e+00 0.000000e+00 4.773212e-01 5.226787e-01 0.000000e+00
 0.000000e+00 0.000000e+00 0.000000e+00 1.337646e-01 8.662354e-01
 0.000000e+00 0.000000e+00 0.000000e+00 0.000000e+00 0.000000e+00
<ENDHMM>
~h "r"
<BEGINHMM>
<NUMSTATES> 5
<STATE> 2
<MEAN> 13
 3.388418e+00 -1.047497e+01 -4.944055e+00 3.877530e-01 -5.155528e+00 -9.673259e+00 -5.815899e+00 8.023664e-01 3.556123e+00 5.831248e+00 -6.174639e+00 -1.057010e+01 6.671020e+01
<VARIANCE> 13
 8.442486e+00 2.249878e+01 3.866490e+01 3.174153e+01 6.596122e+01 2.598697e+01 3.935691e+01 4.000381e+01 3.065960e+01 6.603528e+01 3.166555e+01 7.862145e+01 2.305548e+01
<GCONST> 6.963092e+01
<STATE> 3
<MEAN> 13
 2.732382e+00 -8.678360e+00 -6.757684e-01 2.295743e+00 -1.021186e+00 -9.295187e+00 -3.660936e+00 4.977238e+00 1.253481e+00 1.274769e+00 -2.223611e+00 -4.503526e+00 6.310055e+01
<VARIANCE> 13
 1.811860e+01 4.898917e+01 4.426517e+01 4.178874e+01 5.356926e+01 3.100098e+01 6.454773e+01 6.819535e+01 2.703867e+01 5.339775e+01 5.234904e+01 6.199164e+01 2.788788e+01
<GCONST> 7.269670e+01
<STATE> 4
<MEAN> 13
 -5.598495e+00 1.920481e+00 -8.068439e-01 1.555665e+01 2.220189e+00 1.066941e+00 -4.170279e-01 8.409655e+00 2.321650e+00 -2.107804e+00 -2.133136e+00 -1.268242e+00 4.389914e+01
<VARIANCE> 13
 7.957727e+01 1.328849e+02 5.295869e+01 1.695480e+02 7.188048e+01 1.321469e+02 6.748589e+01 6.367117e+01 5.639376e+01 6.317540e+01 5.431593e+01 5.067941e+01 2.320525e+02
<GCONST> 8.133141e+01
<TRANSP> 5
 0.000000e+00 1.000000e+00 0.000000e+00 0.000000e+00 0.000000e+00
 0.000000e+00 5.282435e-01 4.717565e-01 0.000000e+00 0.000000e+00
 0.000000e+00 0.000000e+00 4.878520e-01 5.121480e-01 0.000000e+00
 0.000000e+00 0.000000e+00 0.000000e+00 7.185816e-01 2.814184e-01
 0.000000e+00 0.000000e+00 0.000000e+00 0.000000e+00 0.000000e+00
<ENDHMM>
~h "s"
<BEGINHMM>
<NUMSTATES> 5
<STATE> 2
<MEAN> 13
 -1.088029e+01 4.711978e+00 -4.084915e+00 2.964135e+00 8.130701e+00 -1.404229e+01 5.208437e+00 -1.199160e+00 4.164549e+00 -5.476269e-01 -2.691186e+00 1.828633e-01 5.902272e+01
<VARIANCE> 13
 8.396200e+01 7.249332e+01 8.418480e+01 6.170104e+01 1.067913e+02 4.889769e+01 9.034985e+01 3.572078e+01 2.857268e+01 3.245672e+01 6.293290e+01 3.618283e+01 1.596603e+02
<GCONST> 7.743766e+01
<STATE> 3
<MEAN> 13
 -1.693383e+01 5.807992e+00 -7.175384e+00 1.066972e+01 4.784952e+00 -9.708912e+00 7.724802e+00 1.274936e+00 6.780556e+00 -5.513128e-02 1.084356e+00 -1.357033e+00 6.225890e+01
<VARIANCE> 13
 2.065976e+01 2.986878e+01 3.427428e+01 5.189579e+01 5.027758e+01 3.651549e+01 3.941436e+01 2.617444e+01 2.003143e+01 2.530096e+01 1.986327e+01 1.970943e+01 2.947820e+01
<GCONST> 6.783701e+01
<STATE> 4
<MEAN> 13
 -2.635616e+01 7.663148e-01 -1.711333e+00 -2.335515e+00 1.695057e+01 -1.822990e+01 9.477016e+00 -9.475610e-01 7.341331e+00 -8.439862e+00 5.381747e-01 2.295005e+00 5.403415e+01
<VARIANCE> 13
 6.331327e+01 7.102367e+01 5.296159e+01 3.926960e+01 7.931702e+01 6.229065e+01 9.648252e+01 5.271887e+01 6.364622e+01 5.317730e+01 3.664884e+01 5.183663e+01 6.477709e+01
<GCONST> 7.683053e+01
<TRANSP> 5
 0.000000e+00 1.000000e+00 0.000000e+00 0.000000e+00 0.000000e+00
 0.000000e+00 2.783249e-01 7.216751e-01 0.000000e+00 0.000000e+00
 0.000000e+00 0.000000e+00 7.576175e-01 2.423825e-01 0.000000e+00
 0.000000e+00 0.000000e+00 0.000000e+00 8.380908e-01 1.619092e-01
 0.000000e+00 0.000000e+00 0.000000e+00 0.000000e+00 0.000000e+00
<ENDHMM>
~h "t"
<BEGINHMM>
<NUMSTATES> 5
<STATE> 2
<MEAN> 13
 -7.835640e+00 1.584820e+00 -7.426552e+00 2.970766e-01 -1.360977e-01 3.289125e-01 -4.189140e+00 -2.231345e+00 3.593879e+00 -1.429591e+00 -3.292514e+00 -1.844094e+00 4.541492e+01
<VARIANCE> 13
 7.606113e+01 8.376146e+01 9.376538e+01 1.657396e+02 5.476292e+01 9.471013e+01 9.857034e+01 8.664400e+01 7.508186e+01 8.362823e+01 5.460713e+01 4.847597e+01 1.609504e+02
<GCONST> 8.161682e+01
<STATE> 3
<MEAN> 13
 2.505042e+00 -3.177765e+00 -4.647129e+00 -1.417784e+01 -1.100571e+01 -1.555968e+00 -1.454971e+01 -7.589760e+00 -4.790237e+00 -4.434532e-01 9.438095e-01 -8.316841e+00 6.774396e+01
<VARIANCE> 13
 2.804826e+01 3.552201e+01 1.887345e+01 9.895302e+01 7.186780e+01 4.529414e+01 6.343936e+01 3.595669e+01 3.817844e+01 3.067003e+01 2.306560e+01 5.950647e+01 9.297150e+01
<GCONST> 7.297157e+01
<STATE> 4
<MEAN> 13
 3.765415e+00 5.042069e+00 -1.703143e-01 -1.149728e+01 4.933717e+00 5.697378e+00 -1.677893e+01 -1.255447e+01 -5.243748e+00 1.847664e+00 -7.637836e+00 6.871381e-01 5.630455e+01
<VARIANCE> 13
 4.329708e+01 1.108709e+02 3.048699e+01 2.321123e+02 7.557136e+01 6.145483e+01 9.723511e+01 6.915031e+01 7.192459e+01 6.033155e+01 5.892484e+01 5.199376e+01 1.460660e+02
<GCONST> 7.987710e+01
<TRANSP> 5
 0.000000e+00 1.000000e+00 0.000000e+00 0.000000e+00 0.000000e+00
 0.000000e+00 6.875224e-01 3.124776e-01 0.000000e+00 0.000000e+00
 0.000000e+00 0.000000e+00 6.911532e-01 3.088468e-01 0.000000e+00
 0.000000e+00 0.000000e+00 0.000000e+00 8.393903e-01 1.606097e-01
 0.000000e+00 0.000000e+00 0.000000e+00 0.000000e+00 0.000000e+00
<ENDHMM>
~h "w"
<BEGINHMM>
<NUMSTATES> 5
<STATE> 2
<MEAN> 13
 -2.298712e+01 -9.297132e-01 -5.310999e-01 -3.808969e+00 1.931444e+01 -1.000124e+01 -1.065032e+00 2.883616e+00 6.660995e+00 -4.961847e+00 1.540522e+00 -7.970455e+00 6.234991e+01
<VARIANCE> 13
 4.942167e+01 5.058215e+01 4.314254e+01 5.456218e+01 7.597629e+01 2.284721e+01 3.450915e+01 1.921241e+01 3.128645e+01 2.213422e+01 1.193046e+01 1.398349e+01 1.186862e+01
<GCONST> 6.756745e+01
<STATE> 3
<MEAN> 13
 -1.727333e+01 2.751191e+00 -1.371084e+00 4.805458e+00 6.058416e+00 -2.610923e+00 -4.557475e+00 3.035336e+00 7.506945e+00 9.539730e-01 1.994129e+00 -3.877921e+00 6.468732e+01
<VARIANCE> 13
 8.593786e+01 3.999937e+00 2.667273e+01 4.071164e+01 1.624234e+01 3.519502e+01 1.090106e+01 1.458805e+01 1.203227e+01 1.632417e+01 3.528819e+01 8.671517e+00 5.445324e+00
<GCONST> 6.083863e+01
<STATE> 4
<MEAN> 13
 4.281815e+00 -1.479461e+00 2.700240e+00 -2.286373e+00 -3.770738e+00 -5.870111e+00 -1.283630e+01 -5.887609e+00 -3.567205e+00 4.460423e+00 8.124711e-01 -3.094913e+00 6.781725e+01
<VARIANCE> 13
 6.986828e+00 6.928964e+00 5.553749e+01 1.131984e+01 1.162726e+01 5.210149e+01 3.833474e+01 2.506904e+01 2.831470e+01 1.493616e+01 7.918787e+01 3.189852e+01 1.023887e+01
<GCONST> 6.369803e+01
<TRANSP> 5
 0.000000e+00 1.000000e+00 0.000000e+00 0.000000e+00 0.000000e+00
 0.000000e+00 8.440217e-01 1.559783e-01 0.000000e+00 0.000000e+00
 0.000000e+00 0.000000e+00 7.681822e-01 2.318179e-01 0.000000e+00
 0.000000e+00 0.000000e+00 0.000000e+00 6.649674e-01 3.350326e-01
 0.000000e+00 0.000000e+00 0.000000e+00 0.000000e+00 0.000000e+00
<ENDHMM>
~h "ah"
<BEGINHMM>
<NUMSTATES> 5
<STATE> 2
<MEAN> 13
 3.880924e+00 -1.104442e+01 -9.579970e+00 -8.560830e+00 6.747842e+00 -8.192497e+00 -1.046706e-01 -1.550261e+00 -7.063787e-02 5.669663e+00 -1.023373e+01 -7.825607e+00 6.977456e+01
<VARIANCE> 13
 1.362316e+01 2.694847e+01 4.722368e+01 7.740765e+01 1.223446e+02 9.421749e+01 8.843509e+01 3.876908e+01 4.334475e+01 5.835946e+01 5.007293e+01 5.719532e+01 2.286082e+01
<GCONST> 7.441960e+01
<STATE> 3
<MEAN> 13
 3.347325e+00 -1.650687e+01 -1.145005e+01 -7.358854e+00 -4.361677e-01 -5.110404e+00 -4.094082e+00 8.999122e-01 -1.602461e+00 6.008647e+00 -1.358289e+01 -1.263181e+01 7.426703e+01
<VARIANCE> 13
 4.130672e+00 1.952745e+01 3.115240e+01 3.940297e+01 8.836808e+01 4.078371e+01 6.252829e+01 3.645553e+01 3.648207e+01 2.450498e+01 2.952422e+01 5.745820e+01 1.785993e+01
<GCONST> 6.843143e+01
<STATE> 4
<MEAN> 13
 2.306396e+00 -1.000727e+01 -5.213256e+00 -9.911404e+00 1.190702e+01 -9.269450e+00 1.516471e+00 -2.514503e+00 7.090526e+00 -8.848930e-01 -1.573367e+01 -1.046636e+00 6.641319e+01
<VARIANCE> 13
 8.902304e+00 3.211148e+01 2.630161e+01 6.470016e+01 9.551424e+01 4.445908e+01 6.216401e+01 6.020866e+01 4.315761e+01 6.222333e+01 4.964469e+01 6.315058e+01 3.935568e+01
<GCONST> 7.318740e+01
<TRANSP> 5
 0.000000e+00 1.000000e+00 0.000000e+00 0.000000e+00 0.000000e+00
 0.000000e+00 4.073126e-01 5.926874e-01 0.000000e+00 0.000000e+00
 0.000000e+00 0.000000e+00 7.841092e-01 2.158908e-01 0.000000e+00
 0.000000e+00 0.000000e+00 0.000000e+00 6.985085e-01 3.014915e-01
 0.000000e+00 0.000000e+00 0.000000e+00 0.000000e+00 0.000000e+00
<ENDHMM>
~h "ax"
<BEGINHMM>
<NUMSTATES> 5
<STATE> 2
<MEAN> 13
 1.947077e+00 -6.796014e+00 7.775847e+00 -2.387434e+00 -8.181870e+00 -1.579279e+01 -7.423175e+00 3.654221e+00 -6.342714e+00 4.489772e+00 -3.959643e+00 -5.185657e-01 6.798782e+01
<VARIANCE> 13
 5.579794e+00 2.935686e+01 9.032392e+01 4.310540e+01 1.703333e+02 4.848763e+01 3.626773e+01 7.517359e+01 9.700674e+01 2.849124e+01 5.882184e+01 3.170689e+01 2.619731e+01
<GCONST> 7.290901e+01
<STATE> 3
<MEAN> 13
 4.005135e+00 -1.271208e+01 -7.024243e+00 -5.422868e+00 -5.041043e-01 -4.524154e+00 -4.711905e+00 1.113506e+00 -8.896022e-01 7.992186e+00 -1.469372e+01 -8.319726e+00 7.183000e+01
<VARIANCE> 13
 3.941472e+00 3.631501e+01 3.793808e+01 3.209210e+01 8.429414e+01 6.359926e+01 2.137312e+01 6.649107e+01 3.182682e+01 1.716488e+01 4.581919e+01 5.846354e+01 2.640485e+01
<GCONST> 6.927670e+01
<STATE> 4
<MEAN> 13
 2.569788e-01 -2.871430e+00 -4.661875e+00 -3.244465e+00 1.502610e+00 -6.207094e+00 -5.351421e+00 -1.007955e+00 2.726372e+00 6.345191e+00 -5.376125e+00 -6.416918e+00 6.212503e+01
<VARIANCE> 13
 2.259141e+01 3.171227e+01 2.951159e+01 3.096560e+01 7.671101e+01 8.254276e+01 6.499847e+01 5.968777e+01 5.827312e+01 4.799899e+01 4.639348e+01 5.864703e+01 6.437236e+01
<GCONST> 7.431090e+01
<TRANSP> 5
 0.000000e+00 1.000000e+00 0.000000e+00 0.000000e+00 0.000000e+00
 0.000000e+00 7.668681e-01 2.331319e-01 0.000000e+00 0.000000e+00
 0.000000e+00 0.000000e+00 7.761263e-01 2.238737e-01 0.000000e+00
 0.000000e+00 0.000000e+00 0.000000e+00 7.237031e-01 2.762969e-01
 0.000000e+00 0.000000e+00 0.000000e+00 0.000000e+00 0.000000e+00
<ENDHMM>
~h "ay"
<BEGINHMM>
<NUMSTATES> 5
<STATE> 2
<MEAN> 13
 -1.545087e+01 3.652192e+00 -6.990317e+00 1.299061e+01 6.577937e+00 -8.284918e+00 9.617393e+00 3.167990e+00 6.829475e+00 4.184946e-01 -9.210135e-01 1.561333e-02 6.179491e+01
<VARIANCE> 13
 1.538223e+01 1.742998e+01 2.346660e+01 3.459705e+01 2.231211e+01 1.637901e+01 1.924541e+01 1.787351e+01 2.049474e+01 2.624086e+01 1.726229e+01 1.304352e+01 8.017097e+00
<GCONST> 6.171076e+01
<STATE> 3
<MEAN> 13
 7.986524e-01 -3.063841e+00 -7.513243e+00 -6.856325e-02 7.752457e+00 -6.175143e+00 7.567054e-01 1.461762e+00 1.280139e+01 -2.914081e+00 -1.066448e+01 4.014781e+00 6.343803e+01
<VARIANCE> 13
 5.143724e+01 2.253123e+01 2.371908e+01 8.059675e+01 6.634673e+01 5.519594e+01 3.986404e+01 1.644461e+01 2.044281e+01 6.642509e+01 7.905135e+01 5.754049e+01 1.083678e+01
<GCONST> 7.121390e+01
<STATE> 4
<MEAN> 13
 9.087176e-01 -1.180368e+01 6.312088e+00 -1.775260e+01 4.734155e+00 -1.646743e+01 8.232181e+00 1.439015e+00 2.073073e+00 2.884503e-02 -1.198350e+01 4.833232e+00 7.044609e+01
<VARIANCE> 13
 5.261852e+00 1.371430e+01 7.579438e+01 2.376831e+01 8.468691e+01 2.978342e+01 3.035865e+01 3.029892e+01 5.730860e+01 4.220213e+01 3.952645e+01 1.561895e+01 7.167378e+00
<GCONST> 6.651073e+01
<TRANSP> 5
 0.000000e+00 1.000000e+00 0.000000e+00 0.000000e+00 0.000000e+00
 0.000000e+00 7.700233e-01 2.299767e-01 0.000000e+00 0.000000e+00
 0.000000e+00 0.000000e+00 3.046112e-01 6.953889e-01 0.000000e+00
 0.000000e+00 0.000000e+00 0.000000e+00 9.249743e-01 7.502571e-02
 0.000000e+00 0.000000e+00 0.000000e+00 0.000000e+00 0.000000e+00
<ENDHMM>
~h "eh"
<BEGINHMM>
<NUMSTATES> 5
<STATE> 2
<MEAN> 13
 1.998227e+00 -4.116985e+00 1.954019e+00 4.926773e+00 -1.204690e+01 -1.515043e+01 -1.338759e+01 5.901268e+00 -7.363786e-01 1.145289e-01 -3.559192e+00 -9.356637e+00 6.283031e+01
<VARIANCE> 13
 3.502587e+00 1.857567e+02 2.513030e+01 6.840381e+01 1.013137e+02 1.435068e+01 2.446019e+01 4.352211e+01 3.359066e+01 2.023610e+01 6.123256e+01 6.697906e+01 1.648470e+02
<GCONST> 7.201797e+01
<STATE> 3
<MEAN> 13
 2.872289e+00 -1.017295e+01 8.623283e+00 -1.123354e+01 1.763865e-01 -1.785012e+01 -1.224928e+01 3.498246e+00 -5.229358e+00 4.447871e+00 -5.144615e+00 -6.221384e-01 6.923744e+01
<VARIANCE> 13
 1.478186e+00 1.172270e+01 2.104334e+01 1.152228e+01 2.360110e+01 9.444488e+01 8.242763e+01 1.554883e+02 4.981330e+01 1.272481e+01 3.564487e+01 1.234174e+02 5.156224e+00
<GCONST> 6.588463e+01
<STATE> 4
<MEAN> 13
 5.979421e+00 1.328391e-01 3.407736e-01 -1.343513e+01 1.172514e+01 -9.471712e+00 -1.491144e+01 -6.476154e+00 -8.235127e+00 1.538282e+01 -1.031355e+01 -6.709157e-01 6.184632e+01
<VARIANCE> 13
 8.401110e+00 3.488248e+01 1.443210e+01 3.698674e+01 6.006713e+01 1.081523e+02 1.289851e+01 5.548090e+01 1.616138e+01 1.905914e+01 4.574533e+01 2.693481e+01 1.920235e+01
<GCONST> 6.700663e+01
<TRANSP> 5
 0.000000e+00 1.000000e+00 0.000000e+00 0.000000e+00 0.000000e+00
 0.000000e+00 8.983255e-01 1.016745e-01 0.000000e+00 0.000000e+00
 0.000000e+00 0.000000e+00 8.826430e-01 1.173569e-01 0.000000e+00
 0.000000e+00 0.000000e+00 0.000000e+00 8.022004e-01 1.977996e-01
 0.000000e+00 0.000000e+00 0.000000e+00 0.000000e+00 0.000000e+00
<ENDHMM>
~h "hh"
<BEGINHMM>
<NUMSTATES> 5
<STATE> 2
<MEAN> 13
 1.888193e+00 -6.771842e+00 3.353457e+00 -5.520473e+00 5.407368e+00 -1.992971e+01 -2.483572e+00 1.005412e+01 8.423365e-01 4.039235e-01 -1.557319e+01 5.196228e+00 6.304838e+01
<VARIANCE> 13
 5.748559e+00 7.764434e+01 2.396384e+01 2.054026e+02 5.075011e+01 5.181913e+01 7.459724e+01 3.651718e+01 3.663699e+01 3.272818e+01 2.288253e+01 5.155753e+01 8.686002e+01
<GCONST> 7.290623e+01
<STATE> 3
<MEAN> 13
 7.341004e-01 -1.597242e+01 -1.280190e+01 -4.658544e+00 -7.328745e-01 -2.875355e+00 -7.580127e+00 4.614000e+00 -2.144152e+00 -2.539612e+00 -1.609117e+01 -9.962565e+00 7.637722e+01
<VARIANCE> 13
 4.923669e+00 1.673730e+01 2.046128e+01 4.675127e+01 2.394861e+01 1.879560e+01 1.753246e+01 3.632024e+01 8.794123e+00 1.447504e+01 1.362649e+01 2.076427e+01 7.586380e+00
<GCONST> 6.025155e+01
<STATE> 4
<MEAN> 13
 5.555915e-01 -1.365716e+01 -1.114954e+00 -9.182007e+00 1.667933e+01 -7.417326e+00 1.042092e+01 -1.125280e+00 6.686172e+00 4.402050e+00 -2.201302e+01 1.654701e+00 6.769525e+01
<VARIANCE> 13
 8.147733e+00 6.640867e+00 1.447844e+01 7.135229e+01 4.033953e+01 4.996521e+01 4.975573e+01 2.708607e+01 2.830787e+01 2.352916e+01 2.635925e+01 2.242334e+01 1.714407e+01
<GCONST> 6.536344e+01
<TRANSP> 5
 0.000000e+00 1.000000e+00 0.000000e+00 0.000000e+00 0.000000e+00
 0.000000e+00 8.703656e-01 1.296344e-01 0.000000e+00 0.000000e+00
 0.000000e+00 0.000000e+00 9.462389e-01 5.376113e-02 0.000000e+00
 0.000000e+00 0.000000e+00 0.000000e+00 9.360857e-01 6.391431e-02
 0.000000e+00 0.000000e+00 0.000000e+00 0.000000e+00 0.000000e+00
<ENDHMM>
~h "ih"
<BEGINHMM>
<NUMSTATES> 5
<STATE> 2
<MEAN> 13
 2.099910e+00 1.292319e+01 2.085711e+00 -4.997644e+00 -7.917323e+00 1.901606e+00 -3.429644e+00 -8.199876e+00 -1.400482e+01 -4.339903e+00 -5.204531e+00 3.037752e-02 4.779549e+01
<VARIANCE> 13
 9.232549e+01 1.101867e+02 1.748342e+02 1.160232e+02 5.202177e+01 8.652471e+01 1.501008e+02 5.566476e+01 5.671554e+01 1.108501e+02 4.666575e+01 3.942233e+01 1.401622e+02
<GCONST> 8.168665e+01
<STATE> 3
<MEAN> 13
 -2.407610e+00 -1.454451e+00 9.210498e+00 -3.212948e-01 -1.435499e+01 -1.121486e+01 -5.856007e+00 -7.134658e-01 -1.159696e+01 7.312159e-01 4.726480e+00 -8.783537e+00 6.397145e+01
<VARIANCE> 13
 2.445893e+01 4.321360e+01 5.277054e+01 5.731609e+01 9.640872e+01 5.000836e+01 1.059019e+02 3.914663e+01 4.336296e+01 3.402586e+01 5.948205e+01 6.257401e+01 1.154133e+02
<GCONST> 7.594798e+01
<STATE> 4
<MEAN> 13
 -1.560520e+01 5.615689e+00 -1.213830e+00 5.973874e+00 -1.249503e+00 1.568433e+00 -5.712556e-01 3.200485e+00 5.489875e-02 -6.770904e-01 1.208881e+00 1.045338e+00 3.665224e+01
<VARIANCE> 13
 7.042172e+01 7.482080e+01 4.233644e+01 7.534299e+01 5.750292e+01 1.003749e+02 8.488660e+01 7.081710e+01 3.720838e+01 7.491106e+01 2.486942e+01 3.894809e+01 2.588405e+02
<GCONST> 7.825678e+01
<TRANSP> 5
 0.000000e+00 1.000000e+00 0.000000e+00 0.000000e+00 0.000000e+00
 0.000000e+00 7.661548e-01 2.338452e-01 0.000000e+00 0.000000e+00
 0.000000e+00 0.000000e+00 7.148766e-01 2.851235e-01 0.000000e+00
 0.000000e+00 0.000000e+00 0.000000e+00 7.388055e-01 2.611944e-01
 0.000000e+00 0.000000e+00 0.000000e+00 0.000000e+00 0.000000e+00
<ENDHMM>
~h "iy"
<BEGINHMM>
<NUMSTATES> 5
<STATE> 2
<MEAN> 13
 6.867041e-01 -7.936018e+00 2.235116e+01 -8.629825e+00 -1.000876e+01 -1.294167e+01 -2.479006e+00 -1.905644e+00 -1.630117e+01 6.539242e+00 -8.596937e+00 1.818820e+00 6.541479e+01
<VARIANCE> 13
 6.469747e+00 1.725031e+01 6.024586e+01 3.530820e+01 3.388991e+01 2.758407e+01 3.214768e+01 2.647247e+01 3.735364e+01 1.990018e+01 4.392506e+01 3.658551e+01 9.537575e+00
<GCONST> 6.610526e+01
<STATE> 3
<MEAN> 13
 -1.782730e+00 -4.153460e+00 1.203136e+01 1.566935e+00 -2.212348e+01 -1.280699e+01 -1.118852e+01 -3.785245e+00 -1.304049e+01 -4.993419e-01 8.502576e+00 -1.397491e+01 6.952665e+01
<VARIANCE> 13
 4.658752e+00 9.162952e+00 2.973194e+01 1.824867e+01 3.603555e+01 2.043808e+01 2.936684e+01 2.536940e+01 1.151460e+01 1.577969e+01 3.636688e+01 3.634418e+01 1.157214e+01
<GCONST> 6.199558e+01
<STATE> 4
<MEAN> 13
 -1.969075e-01 5.678312e+00 1.478467e+01 -2.103520e+00 -1.131318e+01 -4.566941e+00 -1.271282e+00 -8.447118e+00 -1.484022e+01 3.270231e+00 -7.135898e+00 -1.358942e+00 5.465781e+01
<VARIANCE> 13
 5.019801e+01 6.973138e+01 1.294237e+02 1.424982e+02 5.225423e+01 1.375255e+02 8.093626e+01 5.437701e+01 6.570379e+01 4.801935e+01 4.660395e+01 4.151359e+01 8.674146e+01
<GCONST> 7.923238e+01
<TRANSP> 5
 0.000000e+00 1.000000e+00 0.000000e+00 0.000000e+00 0.000000e+00
 0.000000e+00 8.003058e-01 1.996942e-01 0.000000e+00 0.000000e+00
 0.000000e+00 0.000000e+00 8.780113e-01 1.219887e-01 0.000000e+00
 0.000000e+00 0.000000e+00 0.000000e+00 6.825453e-01 3.174547e-01
 0.000000e+00 0.000000e+00 0.000000e+00 0.000000e+00 0.000000e+00
<ENDHMM>
~h "ng"
<BEGINHMM>
<NUMSTATES> 5
<STATE> 2
<MEAN> 13
 5.298133e+00 9.735268e+00 -9.788958e+00 5.904014e+00 8.472675e+00 9.106866e+00 -5.158800e+00 -5.051433e+00 2.188235e+00 -9.803038e+00 -7.748149e+00 1.250235e+00 4.775760e+01
<VARIANCE> 13
 2.777912e+01 5.678427e+01 4.970119e+01 4.719949e+01 5.203701e+01 5.471504e+01 3.242886e+01 2.803528e+01 5.070502e+01 4.291063e+01 3.129651e+01 3.338126e+01 7.198944e+01
<GCONST> 7.269613e+01
<STATE> 3
<MEAN> 13
 -7.167227e+00 1.456795e+01 7.324165e-01 1.236298e+01 3.250224e+00 1.015792e+01 -4.074262e+00 -3.527428e+00 -3.354589e+00 -4.258043e+00 -1.817916e+00 -2.340148e+00 3.658887e+01
<VARIANCE> 13
 5.258481e+01 5.351169e+01 1.931083e+01 6.163654e+01 3.935638e+01 7.514569e+01 2.712777e+01 1.931137e+01 2.202931e+01 2.005055e+01 1.752688e+01 1.241898e+01 1.394051e+02
<GCONST> 6.958096e+01
<STATE> 4
<MEAN> 13
 -1.721391e+01 8.648926e+00 -4.786035e+00 7.380567e+00 -5.910135e+00 6.240050e+00 -7.735868e-01 3.759311e+00 2.470147e-01 -3.419707e+00 9.566021e-01 -1.206841e+00 2.855865e+01
<VARIANCE> 13
 5.225847e+01 5.194787e+01 7.811773e+01 1.182789e+02 9.689493e+01 1.117824e+02 7.883396e+01 7.536031e+01 5.478216e+01 4.012114e+01 5.560019e+01 3.145580e+01 6.811790e+01
<GCONST> 7.829319e+01
<TRANSP> 5
 0.000000e+00 1.000000e+00 0.000000e+00 0.000000e+00 0.000000e+00
 0.000000e+00 7.555892e-01 2.444107e-01 0.000000e+00 0.000000e+00
 0.000000e+00 0.000000e+00 6.845025e-01 3.154975e-01 0.000000e+00
 0.000000e+00 0.000000e+00 0.000000e+00 8.985240e-01 1.014761e-01
 0.000000e+00 0.000000e+00 0.000000e+00 0.000000e+00 0.000000e+00
<ENDHMM>
~h "oh"
<BEGINHMM>
<NUMSTATES> 5
<STATE> 2
<MEAN> 13
 3.392245e+00 -8.373597e+00 -1.117905e+01 -2.550978e+01 2.689436e+00 -2.096070e+00 3.604604e+00 -1.122720e+01 3.690534e+00 3.810889e+00 -6.095351e+00 -4.827022e+00 7.143906e+01
<VARIANCE> 13
 3.672120e+00 1.692696e+01 2.382005e+01 6.388560e+01 1.515310e+02 4.939576e+01 8.591174e+01 9.647166e+01 8.200498e+01 5.238912e+01 3.820793e+01 6.971014e+01 1.953505e+01
<GCONST> 7.251801e+01
<STATE> 3
<MEAN> 13
 4.569206e+00 -1.552349e+01 -1.402107e+01 -6.804976e+00 -8.923700e+00 -1.344009e+00 -8.283994e+00 -1.155863e-01 -1.388033e-01 7.764467e+00 -6.565417e+00 -1.826895e+01 7.455248e+01
<VARIANCE> 13
 2.264786e+00 1.949174e+01 9.561095e+00 4.481079e+01 4.593720e+01 2.136020e+01 3.695977e+01 2.774872e+01 2.935868e+01 1.939943e+01 2.403319e+01 4.345798e+01 1.381674e+01
<GCONST> 6.348379e+01
<STATE> 4
<MEAN> 13
 4.431713e+00 -1.021142e+01 -9.337389e+00 -5.442677e+00 4.988040e+00 -7.675480e+00 -3.218433e+00 -3.730615e+00 7.120699e+00 -6.060615e-01 -4.152523e+00 -5.287127e+00 6.811961e+01
<VARIANCE> 13
 5.054986e+00 1.786845e+01 1.441329e+01 7.791902e+01 3.801400e+01 1.247745e+01 3.644097e+01 2.997972e+01 6.699495e+01 8.427151e+01 1.837287e+01 8.879086e+01 2.168759e+01
<GCONST> 6.769028e+01
<TRANSP> 5
 0.000000e+00 1.000000e+00 0.000000e+00 0.000000e+00 0.000000e+00
 0.000000e+00 8.917030e-01 1.082970e-01 0.000000e+00 0.000000e+00
 0.000000e+00 0.000000e+00 9.204719e-01 7.952812e-02 0.000000e+00
 0.000000e+00 0.000000e+00 0.000000e+00 9.734772e-02 9.026523e-01
 0.000000e+00 0.000000e+00 0.000000e+00 0.000000e+00 0.000000e+00
<ENDHMM>
~h "sp"
<BEGINHMM>
<NUMSTATES> 5
<STATE> 2
~s "silst"
<STATE> 3
<MEAN> 13
 -8.715033e+00 2.248249e+00 -9.133193e-01 9.794115e-01 2.284300e+00 1.189046e+00 2.763185e+00 6.465948e-01 2.690804e+00 -1.110849e+00 1.055728e+00 -1.143961e+00 5.133373e+01
<VARIANCE> 13
 1.472645e+01 4.318082e+00 7.161588e+00 8.486057e+00 9.786016e+00 1.021930e+01 1.066699e+01 8.980141e+00 8.368013e+00 7.674459e+00 7.529055e+00 6.971873e+00 3.832640e+01
<GCONST> 5.308852e+01
<STATE> 4
<MEAN> 13
 -2.521267e+01 3.236709e+00 -9.285968e+00 4.886907e+00 -6.665698e+00 5.709208e+00 -2.730559e+00 1.950148e+00 1.621543e+00 -6.200170e-01 1.510099e+00 -4.972374e-01 2.313740e+01
<VARIANCE> 13
 1.404853e+01 3.496003e+00 6.789423e+00 7.690237e+00 1.118448e+01 1.168306e+01 1.162666e+01 1.275706e+01 1.268265e+01 1.047449e+01 1.042899e+01 9.602919e+00 2.878706e+01
<GCONST> 5.446967e+01
<TRANSP> 5
 0.000000e+00 7.000000e-01 3.000000e-01 0.000000e+00 0.000000e+00
 0.000000e+00 7.713131e-01 2.286870e-01 0.000000e+00 0.000000e+00
 0.000000e+00 0.000000e+00 9.087209e-01 9.127915e-02 0.000000e+00
 0.000000e+00 0.000000e+00 0.000000e+00 9.417698e-01 5.823018e-02
 0.000000e+00 0.000000e+00 0.000000e+00 0.000000e+00 0.000000e+00
<ENDHMM>
~h "uh"
<BEGINHMM>
<NUMSTATES> 5
<STATE> 2
<MEAN> 13
 -1.922348e+00 8.378934e+00 -3.775642e+00 -8.334501e+00 -6.418966e+00 -1.513062e+00 -4.633139e+00 -4.881753e+00 -5.037763e+00 -5.522731e+00 -2.215207e+00 -1.685292e+00 5.084845e+01
<VARIANCE> 13
 5.299651e+01 2.376787e+01 1.609013e+01 6.206432e+01 2.800924e+01 2.514790e+01 3.415948e+01 2.797329e+01 2.458096e+01 2.331993e+01 1.914887e+01 1.847190e+01 1.303907e+02
<GCONST> 6.844725e+01
<STATE> 3
<MEAN> 13
 1.421447e+00 6.086673e+00 -4.820419e+00 -9.573696e+00 -9.148275e+00 5.036518e-03 -7.665630e+00 -7.062211e+00 -9.004024e+00 -1.091136e+00 1.627721e+00 -1.918924e+00 5.451765e+01
<VARIANCE> 13
 4.744419e+01 7.047459e+01 2.665660e+01 6.785275e+01 3.830582e+01 2.812226e+01 4.106512e+01 2.661044e+01 5.600793e+01 2.918211e+01 2.566658e+01 2.921101e+01 2.000524e+02
<GCONST> 7.280357e+01
<STATE> 4
<MEAN> 13
 4.564682e-01 3.516138e+00 -7.322215e-01 -3.454057e+00 -8.642461e+00 -2.789361e+00 -1.223371e+01 -1.258710e+01 -8.395049e+00 -1.515104e+00 -3.575012e-01 -5.909620e+00 5.558704e+01
<VARIANCE> 13
 5.012495e+01 7.348516e+01 3.718041e+01 8.039360e+01 2.960452e+01 5.878905e+01 5.341959e+01 3.147369e+01 4.135328e+01 5.632583e+01 5.313622e+01 5.029426e+01 2.047407e+02
<GCONST> 7.596174e+01
<TRANSP> 5
 0.000000e+00 1.000000e+00 0.000000e+00 0.000000e+00 0.000000e+00
 0.000000e+00 6.032079e-01 3.967920e-01 0.000000e+00 0.000000e+00
 0.000000e+00 0.000000e+00 4.597486e-01 5.402514e-01 0.000000e+00
 0.000000e+00 0.000000e+00 0.000000e+00 6.900675e-01 3.099325e-01
 0.000000e+00 0.000000e+00 0.000000e+00 0.000000e+00 0.000000e+00
<ENDHMM>
~h "uw"
<BEGINHMM>
<NUMSTATES> 5
<STATE> 2
<MEAN> 13
 4.304792e+00 2.243904e-01 -4.012815e+00 -1.116568e+01 -5.232888e+00 1.886527e+00 -1.799577e+01 -1.367973e+01 -7.299761e+00 -5.424508e-01 3.253887e+00 -5.127614e+00 6.512852e+01
<VARIANCE> 13
 3.981200e+01 2.820070e+01 1.327612e+01 7.623928e+01 8.450015e+01 4.014455e+01 5.566590e+01 4.940723e+01 6.724342e+01 3.376667e+01 3.131067e+01 4.544085e+01 9.156803e+01
<GCONST> 7.338972e+01
<STATE> 3
<MEAN> 13
 4.619622e+00 2.941467e+00 -5.683896e+00 -1.771237e+01 -1.246702e+01 -6.274590e-01 -1.356252e+01 -6.758072e+00 -8.872760e+00 -5.252531e+00 1.157650e+00 -6.838375e+00 6.538071e+01
<VARIANCE> 13
 2.174537e+01 1.663317e+01 1.149857e+01 4.319945e+01 5.000868e+01 2.484887e+01 2.505479e+01 2.407237e+01 2.883107e+01 2.085392e+01 1.472374e+01 5.722991e+01 6.836180e+01
<GCONST> 6.687874e+01
<STATE> 4
<MEAN> 13
 6.413691e+00 3.417406e+00 -7.286196e+00 -2.316735e+01 2.338491e+00 8.230979e+00 -9.467429e+00 -8.587301e+00 -4.480140e+00 4.427710e+00 -6.941710e+00 3.458686e+00 5.981947e+01
<VARIANCE> 13
 5.568740e+01 7.678316e+01 4.152718e+01 1.764756e+02 9.413757e+01 9.509581e+01 5.825089e+01 6.662721e+01 6.486142e+01 1.053883e+02 8.737241e+01 8.797628e+01 1.088512e+02
<GCONST> 8.098331e+01
<TRANSP> 5
 0.000000e+00 1.000000e+00 0.000000e+00 0.000000e+00 0.000000e+00
 0.000000e+00 5.876631e-01 4.123369e-01 0.000000e+00 0.000000e+00
 0.000000e+00 0.000000e+00 8.037464e-01 1.962536e-01 0.000000e+00
 0.000000e+00 0.000000e+00 0.000000e+00 7.587849e-01 2.412151e-01
 0.000000e+00 0.000000e+00 0.000000e+00 0.000000e+00 0.000000e+00
<ENDHMM>
~h "sil"
<BEGINHMM>
<NUMSTATES> 5
<STATE> 2
<MEAN> 13
 -1.240192e+01 3.128390e+00 -2.186142e+00 4.380665e+00 9.313121e-01 1.475174e+00 7.261593e-01 1.034420e+00 1.977032e+00 -8.481039e-01 4.234478e-01 -1.670961e+00 4.508778e+01
<VARIANCE> 13
 6.242770e+01 2.093819e+01 3.113212e+01 3.384016e+01 2.689026e+01 3.658133e+01 2.922758e+01 2.674871e+01 2.756973e+01 1.771027e+01 1.920767e+01 1.613388e+01 2.010603e+02
<GCONST> 6.881148e+01
<STATE> 3
~s "silst"
<STATE> 4
<MEAN> 13
 -2.535695e+01 3.159322e+00 -9.341014e+00 4.808568e+00 -6.771289e+00 5.696978e+00 -2.759904e+00 1.881474e+00 1.596454e+00 -6.310685e-01 1.510067e+00 -4.686402e-01 2.303393e+01
<VARIANCE> 13
 1.199899e+01 2.457908e+00 5.623554e+00 6.122942e+00 9.967132e+00 9.784365e+00 1.050897e+01 1.126677e+01 1.171871e+01 9.815641e+00 9.760455e+00 8.970005e+00 2.758545e+01
<GCONST> 5.270438e+01
<TRANSP> 5
 0.000000e+00 1.000000e+00 0.000000e+00 0.000000e+00 0.000000e+00
 0.000000e+00 5.421604e-01 2.198048e-01 2.380348e-01 0.000000e+00
 0.000000e+00 0.000000e+00 9.590963e-01 4.090372e-02 0.000000e+00
 0.000000e+00 4.499109e-03 0.000000e+00 9.375632e-01 5.793770e-02
 0.000000e+00 0.000000e+00 0.000000e+00 0.000000e+00 0.000000e+00
<ENDHMM>
